0.3495	0.6311	1.5583	2.0635	1.8314	1.9526	2.1916	1.7164	0.3072	0.9504	1.5491	1.8504	2.0824	1.8877	1.9368	2.0624	2.3497	1.2059	1.6641	1.3266	1.5475	2.0465	1.9465	1.9366	1.8766	1.8366	2.1054	1.2383	0.8387	1.2255	2.2009	1.2957	1.5456	1.5526	1.1503	1.5786	1.0189	1.0628	1.0391	2.6171	1.4046	1.2102	1.0794	1.5956	1.6601	1.1003	2.1461	1.8692	3.3510	2.5443	1.4674	0.8013	2.3545	3.4442	1.2945	2.2731	2.9689	3.7841	3.3286	2.8529	1.7357	2.7474	3.7789	1.4600	2.2202	2.4115	2.8867	3.1876	3.4261	2.6022	3.2238	3.2527	0.6626	2.0455	1.9281	2.1688	2.2072	2.7953	2.2490	2.4455	2.1268	2.0140	2.2143	2.1567	1.8888	1.9908	1.9474	1.7019	0.3274	-0.1349	1.7063	1.8738	2.2545	2.0303	2.0856	1.9882	1.9961	1.5227	0.1336	1.0291	1.7076	2.1324	1.6581	2.1748	1.5895	1.4083	1.5691	0.9453	0.9435	1.3592	2.3401	1.0849	1.0588	0.7687	0.9714	1.0600	0.9958	1.8283	1.7761	2.9228	1.4463	0.8065	1.2177	2.7052	2.6921	0.8032	2.9725	3.3329	3.7119	2.8122	2.4280	1.8367	3.2626	3.3493	0.9471	3.0233	3.2276	3.6784	3.5431	3.4334	2.7418	3.5302	2.8021	0.8281	2.4210	2.2292	2.4589	2.7160	3.1200	2.7942	3.0786	2.0144	0.1598	2.1666	2.1570	2.1014	2.1335	2.6409	2.4971	1.1921	-0.1660	-0.1432	-0.1136	0.7256	1.5298	1.7507	1.6236	1.4958	0.7015	-0.1190	-0.0858	1.0938	1.8392	1.9361	1.6408	1.6266	1.6559	1.4888	0.2338	-0.4402	1.8662	1.9395	2.0755	1.9301	2.0195	1.7722	1.9126	1.5461	0.1709	1.3011	1.5415	1.9342	1.6473	2.1109	2.0553	1.8792	1.7094	1.1253	0.5718	0.6878	1.5272	0.9173	0.8686	0.8572	0.6633	0.2286	0.3622	0.9704	0.7773	1.4883	0.8758	0.0758	0.2219	1.5767	1.8536	0.6584	1.9445	2.6723	3.0727	2.3701	1.4823	1.0012	2.0117	2.5517	1.3956	2.8758	3.1779	3.7370	3.7741	3.4961	2.8528	3.0386	2.8580	1.6201	2.4113	2.1355	2.4124	2.7610	3.1011	2.6962	2.8517	3.0485	1.7673	0.9401	2.0454	2.1228	1.8482	1.6773	1.7254	1.3507	1.2402	0.6339	2.1682	1.6575	1.6733	1.8732	1.8914	1.8846	1.7181	1.1187	1.4133	1.1585	1.0503	1.6015	2.0304	1.4859	1.9510	1.7407	1.0313	0.8199	0.7453	1.0985	1.1720	2.0531	1.4348	1.1108	0.7459	1.0311	0.6412	0.6963	1.6789	1.7357	2.0227	1.5923	0.6505	0.5973	1.9681	2.6593	1.4549	2.0861	3.2817	2.6228	2.1016	2.3246	2.0875	2.5279	2.4797	2.4494	2.7509	2.9546	2.7869	2.8465	2.9065	2.9591	3.3718	2.0507	1.6748	2.3551	2.3155	2.3463	2.4184	2.5239	2.7705	2.8352	1.7717	0.6028	1.8754	2.1709	2.0433	2.0247	2.1783	2.9949	1.4978	-0.4952	0.3112	-0.2540	-0.3799	0.0223	-0.0655	-0.0570	-0.1897	0.5344	-0.0809	-0.4482	-0.1940	-0.0962	0.2247	-0.0112	0.0755	-0.2402	-0.0468	0.1585	-0.1887	-0.0609	0.1680	-0.1029	-0.1693	0.1939	-0.4379	-0.4848	-0.0893	0.5828	0.0654	0.3150	0.2528	0.0125	-0.1303	0.5018	0.3556	0.1761	0.0046	0.3735	-0.0729	0.3394	0.1872	0.1027	0.2149	0.7891	0.3192	0.0900	0.2075	0.1668	0.0360	0.4618	0.4080	-0.2883	-0.1732	-0.0250	-0.4195	-0.4354	-0.3945	-0.3407	-0.4761	-0.5320	-0.1019	0.1114	-0.0090	0.5473	0.1631	0.1784	-0.0862	-0.0358	0.1619	0.2169	0.0880	-0.2263	-0.0769	0.2865	0.5824	0.5170	0.0410	0.2064	-0.1079	-0.3708	0.0635	-0.4163	-0.0843	0.1803	0.0083	-0.1186	0.0450	-0.0468	0.2221	-0.5576	0.2249	0.0377	0.1648	0.1408	-0.0777	0.0125	-0.2703	0.0699	0.1705	0.0890	0.0606	0.0683	-0.0893	0.0936	-0.1595	-0.0317	-0.2833	0.4107	0.1131	-0.2926	0.1449	-0.0086	-0.3699	0.2942	0.2399	-0.0766	-0.6849	0.1469	0.3821	-0.4608	0.2115	0.0904	-0.2116	0.0558	0.1744	-0.2756	-0.2638	-0.0122	0.1107	0.1226	0.0352	-0.2220	-0.4713	-0.0947	0.1558	0.1389	0.0700	0.1993	-0.2260	-0.3118	0.4279	0.4966	-0.3148	-0.3751	0.5544	-0.0241	-0.1718	0.1322	0.0401	0.3319	-0.5298	0.0367	-0.2191	-0.0291	0.4915	0.2396	-0.2598	-0.2670	-0.1911	-0.0332	0.0946	0.2009	0.1399	0.2035	-0.2233	0.0380	-0.0370	0.1174	-0.2885	0.2646	-0.1956	-0.0505	0.0493	-0.0188	0.0983	-0.0285	-0.0341	-0.0989	-0.1768	0.0226	0.1678	0.0814	0.2128	-0.0666	0.1489	0.3768	0.2299	0.1707	0.3480	-0.1037	-0.2145	-0.1422	-0.1908	0.2362	-0.4357	0.0384	-0.4012	-0.0584	-0.2140	-0.0377	-0.5549	-0.0789	-0.2710	-0.5232	-0.2386	0.0191	-0.4231	-0.4215	-0.0555	-0.0794	-0.7615	-0.2370	-0.2314	-0.1988	-0.1519	0.0501	0.4257	0.1138	0.1373	0.1218	0.5307	0.3288	0.2919	-0.4033	-0.0558	0.3043	-0.2711	0.2739	0.1317	0.0331	-0.1137	0.1761	0.1615	-0.0429	-0.2671	-0.0319	-0.4709	-0.2318	-0.0842	0.5146	0.4351	-0.1326	0.0095	-0.1763	0.0188	0.1906	-0.2041	0.0082	-0.0499	0.2053	-0.0298	-0.3531	0.0570	-0.0273	0.0216	0.0408	-0.1775	0.0042	-0.1867	0.4064	-0.3990	-0.1861	-0.1451	0.1164	0.1342	-0.2925	0.4612	-0.4442	0.3580	0.3116	-0.2580	-0.5587	0.3016	-0.0530	-0.3720	0.3155	-0.3916	-0.2741	0.3846	0.0580	-0.3980	-0.0486	0.3067	-0.5818	-0.3528	-0.2172	0.3197	0.0358	-0.2784	0.1327	-0.2556	0.2164	-0.5019	-0.5528	-0.6104	0.9675	0.3019	-0.1842	0.3260	0.0010	0.1337	0.0857	-0.0457	-0.4466	0.5599	0.2664	0.2874	-0.0717	-0.1204	-0.0440	-0.0282	-0.2483	-0.3057	0.5770	-0.0043	0.5266	-0.0257	-0.2227	-0.3477	-0.2513	0.2461	0.1852	0.1724	-0.1265	-0.1024	0.1071	0.2077	-0.1592	0.1755	0.2019	0.0507	-0.1102	0.1557	0.0860	0.1244	-0.0701	-0.0773	-0.1322	0.0005	-0.0756	0.2442	0.0070	-0.0240	-0.1356	0.0423	-0.1455	-0.0839	-0.0621	0.0082	-0.3968	0.3737	0.1507	-0.2425	0.4634	-0.2930	0.2770	0.2304	0.1947	-0.0614	0.3040	0.1832	-0.0641	0.2304	-0.2183	0.5565	-0.3123	-0.0466	-0.0606	-0.2760	0.0811	-0.1217	0.2890	-0.4156	0.3588	0.1155	0.2462	0.1279	0.2186	-0.0671	-0.1748	0.1373	-0.2829	0.0274	0.0351	0.0233	-0.2351	0.3092	-0.0783	-0.2671	0.0271	-0.1351	0.1293	-0.4492	0.3078	0.3644	-0.2271	0.2872	-0.1951	0.0702	-0.1419	-0.2873	0.0206	0.3234	-0.1822	0.0915	0.0387	0.0912	0.0763	0.1302	0.0586	0.0574	-0.0237	0.1333	-0.1706	0.0260	-0.0437	-0.1169	-0.2064	-0.0131	0.1517	0.1242	0.0234	0.0807	-0.1434	0.1175	-0.1207	-0.1935	0.0654	-0.2170	-0.1005	0.2426	0.0928	0.1860	0.0331	0.1979	0.1185	0.0319	0.0965	0.2136	0.0783	0.1413	0.1856	0.2180	0.0759	0.0660	-0.0859	-0.0417	-0.0306	-0.4159	0.0639	0.1502	-0.1856	0.0002	-0.1398	0.4757	0.1464	0.0452	0.3820	-0.0391	-0.1097	-0.0172	0.2037	-0.1495	0.1641	-0.4670	-0.1882	0.0273	-0.0575	0.1949	-0.1997	-0.0109	-0.0142	0.1579	0.2509	0.1692	-0.5959	-0.0479	-0.3007	-0.0183	-0.0344	-0.1070	0.0848	-0.2238	-0.2048	0.3134	-0.1314	-0.1488	-0.0677	0.0484	-0.0375	-0.1010	-0.0194	0.1093	0.1818	-0.0486	-0.0429	0.0759	0.1382	-0.2173	0.1385	0.0183	0.1040	-0.3515	0.3470	0.2013	-0.0734	0.1286	-0.0310	-0.0371	0.1625	-0.0049	0.1876	-0.0371	-0.0513	-0.0901	-0.0703	0.0465	-0.0246	-0.3137	0.2626	-0.2779	0.0403	0.0510	-0.2046	0.2338	-0.5065	0.1765	0.1471	-0.1528	0.1063	0.3019	0.0456	-0.1604	0.1035	-0.3280	0.1442	-0.2001	-0.2129	-0.1744	0.1383	0.1682	-0.3123	0.3588	0.0083	0.0621	-0.3109	0.5469	0.1125	-0.0483	-0.0808	0.0416	-0.1706	-0.0314	-0.1331	0.1593	-0.1487	0.1931	0.0164	-0.2955	0.0639	-0.0354	-0.1303	0.0890	-0.3228	0.1627	0.2402	0.1862	0.0583	0.0014	0.0722	0.3221	0.0676	0.0119	-0.1763	0.1885	-0.1795	-0.0445	0.0381	0.0566	-0.0175	-0.2236	-0.0616	0.0776	-0.0716	0.0781	-0.0744	-0.2625	0.0651	-0.0656	-0.1717	0.1825	-0.3321	0.0505	0.0632	-0.0827	0.2538	-0.1945	0.2976	0.1822	-0.1190	0.2127	0.1831	-0.0169	-0.1177	0.3135	-0.0480	0.4300	-0.2880	0.0247	-0.3563	-0.0634	-0.3382	-0.0421	0.1792	-0.4235	0.1589	-0.1226	0.4609	0.2593	0.2119	0.3248	0.0017	-0.0620	-0.0494	0.2599	-0.1436	-0.2185	-0.3600	-0.0010	-0.0351	0.2280	0.2261	-0.1290	0.0094	-0.2742	0.2622	-0.0436	0.0007	-0.4522	-0.1976	0.0549	-0.1102	0.0157	-0.0193	0.2449	-0.2113	-0.3336	0.2296	0.0689	-0.1108	0.1784	-0.1115	-0.1164	0.0462	0.2303	0.0875	-0.1233	-0.1067	0.0813	0.0848	0.0070	-0.1340	-0.0262	-0.0783	-0.1002	0.3632	-0.0296	0.0531	-0.0849	0.0134	0.0534	0.2005	-0.0942	-0.0123	-0.2034	-0.1484	0.1618	0.0431	0.2167	-0.2083	0.1201	-0.0930	-0.0864	-0.0738	-0.2552	-0.1083	-0.1423	0.0820	-0.0280	-0.0992	0.3047	-0.0139	-0.0689	0.0684	0.0257	-0.0247	-0.3884	0.0216	-0.1324	-0.2372	0.0892	0.1269	0.0507	-0.1265	0.0236	-0.0641	-0.1386	0.2946	-0.4077	-0.2814	-0.1223	0.2743	-0.0718	0.0529	-0.2337	0.0984	0.0214	0.2209	0.0549	-0.0242	-0.3309	-0.0035	-0.0366	-0.0111	0.1302	-0.3051	0.0550	-0.1105	0.1443	0.0978	-0.0245	0.1754	-0.1233	-0.0642	-0.0796	-0.0508	0.0140	-0.0968	-0.1138	-0.0130	0.0546	-0.0023	-0.1119	0.0471	0.1325	-0.1518	0.1183	-0.0888	0.0748	-0.2035	0.1213	-0.0919	-0.0403	0.0992	0.0931	-0.0604	0.0221	-0.0835	0.2001	-0.0413	0.1712	-0.0536	0.1975	-0.1444	-0.0705	0.0539	-0.0037	-0.2200	0.0286	-0.0490	0.1782	-0.4904	0.2451	-0.0982	-0.0531	-0.1791	0.1993	0.1248	-0.0318	-0.1649	0.0870	-0.0796	-0.0557	-0.3747	0.1382	-0.1056	0.0371	-0.2792	-0.0768	0.2286	-0.1980	-0.1348	-0.0581	0.0626	-0.1740	-0.1326	0.1260	-0.1394	0.0579	-0.2233	0.2604	0.1580	-0.3548	0.0219	-0.1146	-0.0004	-0.1208	0.1764	-0.2942	0.0182	0.0299	0.1171	-0.0351	-0.1150	0.0339	-0.0045	-0.1360	-0.0397	-0.1206	-0.0626	-0.0511	-0.0820	-0.1482	0.2029	-0.0840	-0.1206	0.1071	-0.0719	-0.0369	-0.0678	0.0248	-0.0299	0.1449	0.1295	0.0073	-0.0025	0.1485	-0.0027	0.1169	-0.0112	-0.0145	0.0181	-0.0245	-0.1993	-0.1232	-0.1978	-0.2022	-0.1996	-0.1905	-0.1753	0.0861	-0.1887	-0.1593	-0.2630	-0.3189	-0.1941	-0.1246	-0.2829	-0.1106	0.1162	-0.1380	-0.2483	-0.1769	-0.1561	-0.0991	-0.0449	-0.0203	-0.1530	0.0777	-0.0880	-0.0321	-0.1016	-0.3197	-0.3131	-0.0818	0.0206	-0.0064	-0.0291	0.2798	0.1451	-0.0842	-0.3211	-0.1333	-0.0909	-0.1472	-0.1002	-0.0581	0.1893	-0.0097	-0.1559	-0.2070	0.2844	-0.1747	-0.0713	0.1489	0.2230	-0.0282	-0.0520	0.0266	-0.1677	0.0610	-0.0825	-0.0278	0.1196	0.0361	-0.0066	0.0159	-0.2150	0.1925	0.0745	-0.0414	-0.2951	-0.0610	-0.2339	0.0594	-0.0574	0.1533	-0.1006	-0.0670	0.0097	-0.1820	-0.0580	-0.1606	-0.0691	0.0903	0.0562	-0.0356	0.0333	0.2658	0.1423	0.2882	0.1746	0.1619	-0.0435	-0.0452	-0.1165	0.0926	0.1425	-0.0738	-0.0433	0.1494	0.1730	0.0838	-0.1319	-0.0415	0.1635	0.1327	0.1772	0.2093	0.0651	0.4052	0.0704	-0.0634	-0.0292	-0.1789	0.0352	0.1462	0.0743	0.0663	-0.0129	0.0784	-0.0011	0.0960	-0.2517	-0.2303	0.0887	0.0502	0.0700	-0.1558	0.1233	-0.3181	0.1133	0.2920	0.2612	0.1824	0.0752	-0.0340	-0.1181	-0.1541	0.3039	0.2698	0.1875	0.0743	-0.0447	-0.1324	-0.1661	0.2817	0.2521	0.1739	0.0734	-0.0299	-0.1087	-0.1398	0.2346	0.2060	0.1446	0.0716	-0.0028	-0.0608	-0.0907	0.1799	0.1517	0.1146	0.0738	0.0301	-0.0056	-0.0323	0.1343	0.1111	0.0913	0.0765	0.0597	0.0401	0.0171	0.1082	0.0925	0.0793	0.0778	0.0738	0.0623	0.0422	-0.0156	-0.0131	-0.0208	-0.0298	-0.0311	-0.0196	0.0045	-0.0194	-0.0140	-0.0145	-0.0104	-0.0005	0.0137	0.0438	-0.0298	-0.0177	0.0003	0.0254	0.0575	0.0882	0.1154	-0.0485	-0.0265	0.0159	0.0714	0.1300	0.1796	0.2025	-0.0558	-0.0253	0.0375	0.1211	0.2061	0.2663	0.2868	-0.0505	-0.0168	0.0602	0.1566	0.2539	0.3217	0.3361	-0.0283	0.0096	0.0853	0.1784	0.2696	0.3319	0.3449	0.1503	0.1837	0.2192	0.2469	0.2684	0.2756	0.2637	0.1127	0.1460	0.1804	0.2113	0.2383	0.2493	0.2398	0.0643	0.0874	0.1207	0.1498	0.1771	0.1960	0.1934	0.0079	0.0220	0.0448	0.0709	0.1004	0.1204	0.1309	-0.0554	-0.0534	-0.0414	-0.0175	0.0107	0.0359	0.0572	-0.0949	-0.1014	-0.0971	-0.0795	-0.0542	-0.0251	0.0007	-0.1186	-0.1279	-0.1262	-0.1133	-0.0905	-0.0652	-0.0358	-0.1588	-0.1509	-0.0882	0.0072	0.1020	0.1678	0.1798	-0.1264	-0.1181	-0.0630	0.0265	0.1143	0.1696	0.1773	-0.0339	-0.0270	0.0072	0.0595	0.1046	0.1305	0.1267	0.0919	0.0961	0.0984	0.0896	0.0745	0.0568	0.0409	0.2134	0.2177	0.1798	0.1126	0.0375	-0.0252	-0.0454	0.2896	0.2914	0.2298	0.1237	0.0084	-0.0772	-0.1031	0.3070	0.3013	0.2356	0.1241	0.0056	-0.0807	-0.1102	0.2676	0.2234	0.1342	0.0893	0.1193	0.1874	0.2214	0.1218	0.0513	-0.0486	-0.0845	-0.0405	0.0477	0.1038	-0.0606	-0.1261	-0.1829	-0.1867	-0.1463	-0.0863	-0.0370	-0.1735	-0.1902	-0.1616	-0.1238	-0.1165	-0.1327	-0.1351	-0.1744	-0.1167	-0.0023	0.0699	0.0287	-0.0840	-0.1616	-0.1145	0.0014	0.1633	0.2443	0.1625	-0.0168	-0.1479	-0.0430	0.0807	0.2331	0.2970	0.2079	0.0291	-0.1076	-0.1833	-0.1651	-0.1254	-0.0526	0.0680	0.2218	0.3167	-0.0589	-0.0324	-0.0465	-0.0755	-0.0467	0.0583	0.1741	0.1124	0.1652	0.0951	-0.0619	-0.1766	-0.1545	-0.0380	0.1848	0.2623	0.1875	-0.0175	-0.2057	-0.2440	-0.1439	0.0735	0.1651	0.1523	0.0257	-0.1142	-0.1482	-0.0766	-0.1406	-0.0540	0.0204	0.0362	0.0254	0.0426	0.0891	-0.2865	-0.2148	-0.0935	0.0174	0.1022	0.1682	0.2006	0.1963	0.0334	-0.1817	-0.2941	-0.2246	-0.0515	0.0851	0.2042	0.0355	-0.1801	-0.2795	-0.1843	0.0115	0.1447	0.1759	0.0564	-0.0823	-0.1266	-0.0341	0.1171	0.1969	0.1182	0.0811	0.0547	0.0730	0.1316	0.1839	0.1801	0.0207	0.0501	0.1161	0.1697	0.1719	0.1198	0.0491	-0.1007	-0.0460	0.0529	0.1054	0.0607	-0.0535	-0.1414	-0.1900	-0.1535	-0.0722	-0.0419	-0.1041	-0.2171	-0.2832	-0.1665	-0.0772	0.0153	0.0590	0.0151	-0.0760	-0.1553	-0.1597	-0.0348	0.0921	0.1461	0.0813	-0.0483	-0.1587	-0.1482	0.0072	0.1674	0.2299	0.1445	-0.0231	-0.1647	-0.1509	0.0248	0.2083	0.2792	0.1834	-0.0082	-0.1648	-0.1834	-0.0058	0.1845	0.2678	0.1756	-0.0123	-0.1703	-0.2257	-0.0689	0.1116	0.1970	0.1249	-0.0432	-0.1836	-0.2440	-0.1226	0.0199	0.0934	0.0448	-0.0822	-0.1868	-0.0548	-0.1599	-0.2126	-0.1799	-0.0389	0.1093	0.1693	0.1170	0.0395	-0.0151	-0.0232	0.0209	0.0559	0.0536	0.2003	0.1241	0.0997	0.1245	0.1067	-0.0164	-0.1290	0.0942	-0.0609	-0.0581	0.0992	0.1656	-0.0187	-0.2343	-0.0043	-0.2671	-0.2889	-0.0307	0.1802	0.0314	-0.2308	0.1140	-0.1934	-0.2881	-0.0540	0.1915	0.0952	-0.1576	0.2986	0.0479	-0.0871	0.0393	0.2018	0.1198	-0.0820	0.2281	-0.0191	-0.2092	-0.1653	-0.0615	-0.1102	-0.2362	0.1879	-0.0583	-0.1744	0.0069	0.2299	0.1925	-0.0054	0.0921	-0.0756	-0.0943	0.1109	0.3137	0.2755	0.0885	0.0294	-0.0193	-0.0123	0.0388	0.0502	-0.0160	-0.0794	-0.0307	0.0186	0.0351	-0.0760	-0.2296	-0.2816	-0.2082	-0.1075	0.0068	0.0788	-0.0239	-0.1616	-0.1396	-0.0126	-0.1425	-0.0200	0.1063	0.1182	0.1049	0.1855	0.2778	-0.1550	-0.1333	0.0201	0.2100	0.2360	0.0008	-0.2655	-0.0241	-0.0849	-0.0538	0.0941	0.1999	0.0568	-0.1752	0.1850	0.0007	-0.1877	-0.1578	0.0383	0.0906	-0.0344	0.3119	0.0804	-0.2205	-0.2622	-0.0395	0.1083	0.0440	0.2421	0.0842	-0.1114	-0.1118	0.0512	0.1138	0.0046	-0.0018	-0.0383	-0.0133	0.0989	0.1763	0.0679	-0.1269	-0.2113	-0.1750	-0.0220	0.1480	0.1702	-0.0194	-0.2375	-0.2699	-0.0952	0.0080	-0.0760	-0.1938	-0.1606	-0.0479	-0.0403	0.1844	0.2412	0.0764	-0.0787	-0.0098	0.1384	0.0863	0.2702	0.2424	0.0404	-0.0673	0.0783	0.2647	-0.0243	0.0705	0.0044	-0.1448	-0.1585	0.0374	0.2216	-0.1893	-0.1277	-0.1380	-0.1882	-0.1812	-0.0617	0.0485	-0.1663	-0.0588	0.0309	0.0383	-0.0321	-0.0900	-0.1013	-0.0229	0.1350	0.2657	0.2714	0.1295	-0.0439	-0.1329	-0.0251	-0.2156	-0.2977	-0.1028	0.1580	0.1567	-0.0229	0.2469	0.0957	-0.0330	0.0673	0.2102	0.0969	-0.1257	0.2173	0.1380	0.0235	0.0150	0.0263	-0.0998	-0.2433	-0.0848	-0.0766	-0.0831	-0.0980	-0.0841	-0.0764	-0.0950	-0.2162	-0.0879	0.0232	0.0054	0.0283	0.1596	0.2398	-0.1342	0.0870	0.1945	0.0552	-0.0498	0.0873	0.2429	-0.0412	0.1562	0.1740	-0.0743	-0.2876	-0.2232	-0.0374	-0.2905	-0.0915	0.1191	0.1417	-0.0045	-0.1554	-0.2080	0.0777	0.1549	0.0976	0.0090	0.0211	0.1258	0.1609	0.1943	0.0880	-0.1505	-0.2510	-0.1127	0.1157	0.2131	-0.0057	-0.1041	-0.1278	-0.0465	-0.0215	-0.0759	-0.0782	-0.1150	-0.1039	0.1245	0.3266	0.1802	-0.1283	-0.2175	0.0127	-0.0250	0.0656	0.1559	0.0571	-0.0492	-0.0044	0.1729	0.0164	-0.1596	-0.2298	-0.1714	0.0412	0.2501	0.1006	-0.1402	-0.0914	0.0226	-0.1516	-0.1806	0.0735	0.1213	-0.1051	0.0826	0.3007	0.0484	-0.0773	0.1728	0.0431	-0.2056	0.0261	0.2785	-0.0080	-0.1571	0.1239	0.0616	-0.2601	-0.1248	0.0788	-0.1794	-0.2598	0.0762	0.2316	-0.0961	-0.0354	0.1426	-0.0625	-0.1151	0.1707	0.2033	-0.0762	0.0258	0.2447	0.0727	-0.0441	0.1321	-0.0133	-0.2383	-0.1022	0.1286	-0.0138	-0.1623	-0.0533	0.0017	-0.1076	0.0448	0.2777	0.2212	0.0555	0.0304	0.0224	-0.2129	-0.2030	-0.0520	-0.1200	-0.2172	-0.1297	0.2298	-0.0283	-0.0926	-0.0049	-0.0907	-0.1285	0.0200	0.2367	0.0526	0.1031	0.2472	0.1307	0.0708	0.2146	-0.0829	-0.2224	-0.0446	0.1344	-0.0295	-0.1089	0.0901	-0.1450	-0.2425	-0.0819	0.0134	-0.2022	-0.2471	0.0136	0.1303	0.0889	0.1707	0.1701	-0.0446	-0.0652	0.1599	-0.0000	-0.0000	-0.0000	-0.0000	0.0000	0.0000	-0.0000	-0.0000	-0.0000	0.0000	-0.0000	0.0000	-0.0000	0.0000	0.0000	0.0000	0.0001	-0.0000	-0.0000	-0.0000	-0.0000	0.0001	0.0001	-0.0000	-0.0001	-0.0000	0.0000	0.0000	-0.0000	-0.0000	-0.0000	0.0000	-0.0000	-0.0000	0.0000	-0.0000	-0.0000	0.0000	-0.0000	0.0000	0.0000	-0.0000	0.0000	0.0000	0.0000	-0.0000	0.0000	-0.0000	0.0000	0.0000	0.0000	0.0000	0.0000	-0.0000	-0.0000	0.0000	0.0000	0.0000	-0.0000	0.0000	-0.0000	0.0000	-0.0000	-0.0000	-0.0000	-0.0000	0.0000	0.0000	0.0000	0.0000	-0.0000	-0.0000	0.0000	0.0000	0.0000	-0.0000	-0.0000	0.0000	0.0000	0.0000	-0.0000	0.0000	0.0000	-0.0000	0.0000	0.0000	-0.0000	0.0000	-0.0000	-0.0000	0.0000	-0.0000	-0.0000	-0.0000	0.0000	-0.0000	0.0000	-0.0000	-0.0000	-0.0000	-0.0000	-0.0000	0.0000	0.0000	-0.0000	-0.0000	-0.0000	0.0000	-0.0000	0.0000	-0.0000	0.0000	0.0000	0.0000	0.0000	-0.0000	-0.0000	-0.0000	-0.0000	0.0001	0.0000	-0.0000	-0.0000	-0.0000	0.0000	0.0000	-0.0000	-0.0000	-0.0000	0.0000	-0.0000	-0.0000	0.0000	-0.0000	-0.0000	0.0000	-0.0000	0.0000	0.0000	-0.0000	0.0000	0.0000	0.0000	-0.0000	0.0000	-0.0000	0.0000	0.0000	0.0000	0.0000	0.0000	-0.0000	-0.0000	0.0000	0.0000	0.0000	-0.0000	0.0000	-0.0000	0.0000	-0.0000	-0.0000	-0.0000	-0.0000	0.0000	0.0000	0.0000	0.0000	-0.0000	-0.0000	0.0000	0.0000	0.0000	-0.0000	-0.0000	0.0000	0.0000	0.0000	-0.0000	0.0000	0.0000	-0.0000	0.0000	0.0000	-0.0000	0.0000	-0.0000	-0.0000	0.0000	-0.0000	-0.0000	-0.0000	0.0000	-0.0000	0.0000	-0.0000	-0.0000	-0.0000	-0.0000	-0.0000	0.0000	0.0000	-0.0000	-0.0000	-0.0000	0.0000	-0.0000	0.0000	-0.0000	0.0000	-0.0000	0.0000	0.0000	-0.0000	-0.0000	-0.0000	-0.0000	0.0000	0.0000	-0.0000	-0.0000	0.0000	0.0000	0.0000	-0.0000	-0.0000	-0.0000	0.0000	0.0000	-0.0000	0.0000	-0.0000	-0.0000	0.0000	-0.0000	0.0000	0.0000	-0.0000	0.0000	0.0000	0.0000	-0.0000	0.0000	-0.0000	-0.0000	-0.0000	-0.0000	-0.0000	-0.0000	0.0000	0.0000	-0.0000	-0.0000	-0.0000	0.0000	-0.0000	0.0000	-0.0000	0.0000	-0.0000	0.0000	0.0000	-0.0000	-0.0000	-0.0000	-0.0000	0.0000	0.0000	-0.0000	-0.0000	0.0000	0.0000	0.0000	-0.0000	-0.0000	-0.0000	0.0000	0.0000	-0.0000	0.0000	-0.0000	-0.0000	0.0000	-0.0000	0.0000	0.0000	-0.0000	0.0000	0.0000	0.0000	-0.0000	0.0000	-0.0000	-0.0000	-0.0000	-0.0000	-0.0000	-0.0000	0.0000	0.0000	-0.0000	-0.0000	-0.0000	0.0000	-0.0000	0.0000	-0.0000	0.0000	-0.0000	0.0000	0.0000	-0.0000	-0.0000	-0.0000	-0.0000	0.0000	0.0000	-0.0000	-0.0000	0.0000	0.0000	0.0000	-0.0000	-0.0000	-0.0000	0.0000	0.0000	-0.0000	0.0000	-0.0000	-0.0000	0.0000	-0.0000	0.0000	0.0000	-0.0000	0.0000	0.0000	0.0000	-0.0000	0.0000	-0.0000	-0.0000	0.0000	0.0000	0.0000	0.0000	-0.0000	-0.0000	0.0000	0.0000	0.0000	-0.0000	0.0000	-0.0000	0.0000	-0.0000	0.0000	-0.0000	-0.0000	0.0000	0.0000	0.0000	0.0000	-0.0000	-0.0000	0.0000	0.0000	-0.0000	-0.0000	-0.0000	0.0000	0.0000	0.0000	-0.0000	-0.0000	0.0000	-0.0000	0.0000	0.0000	-0.0000	0.0000	-0.0000	-0.0000	0.0000	-0.0000	-0.0000	-0.0000	0.0000	-0.0000	0.0000	0.0000	0.0000	0.0000	-0.0000	-0.0000	0.0000	0.0000	-0.0000	-0.0000	-0.0000	-0.0000	-0.0000	0.0000	-0.0000	0.0000	-0.0000	0.0000	0.0000	-0.0000	-0.0000	-0.0000	-0.0000	0.0000	0.0000	-0.0000	-0.0000	0.0000	0.0000	0.0000	-0.0000	-0.0000	-0.0000	0.0000	0.0000	-0.0000	0.0000	-0.0000	-0.0000	0.0000	-0.0000	0.0000	0.0000	-0.0000	0.0000	0.0000	0.0000	-0.0000	-0.0000	-0.0000	0.0000	-0.0000	-0.0000	0.0000	0.0000	-0.0000	-0.0000	0.0000	0.0000	0.0000	0.0000	0.0000	-0.0000	0.0000	-0.0000	0.0000	-0.0000	-0.0000	0.0000	0.0000	0.0000	0.0000	-0.0000	-0.0000	0.0000	0.0000	-0.0000	-0.0000	-0.0000	0.0000	0.0000	0.0000	-0.0000	-0.0000	0.0000	-0.0000	0.0000	0.0000	-0.0000	0.0000	-0.0000	-0.0000	0.0000	-0.0000	-0.0000	-0.0000	0.0000	0.0000	0.0000	-0.0000	0.0000	0.0000	-0.0000	-0.0000	0.0000	0.0000	-0.0000	-0.0000	-0.0000	-0.0000	-0.0000	0.0000	-0.0000	0.0000	-0.0000	0.0000	0.0000	-0.0000	-0.0000	-0.0000	-0.0000	0.0000	0.0000	-0.0000	-0.0000	0.0000	0.0000	0.0000	-0.0000	-0.0000	-0.0000	0.0000	0.0000	-0.0000	0.0000	-0.0000	-0.0000	0.0000	-0.0000	0.0000	0.0000	-0.0000	0.0000	0.0000	0.0000	-0.0000	-0.0000	-0.0000	0.0000	0.0000	0.0000	-0.0000	-0.0000	0.0000	0.0000	-0.0000	-0.0000	-0.0000	-0.0000	-0.0000	0.0000	-0.0000	0.0000	-0.0000	0.0000	0.0000	-0.0000	-0.0000	-0.0000	-0.0000	0.0000	0.0000	-0.0000	-0.0000	0.0000	0.0000	0.0000	-0.0000	-0.0000	-0.0000	0.0000	0.0000	-0.0000	0.0000	-0.0000	-0.0000	0.0000	-0.0000	0.0000	0.0000	-0.0000	0.0000	0.0000	0.0000	-0.0000	-0.0000	-0.0000	0.0000	0.0000	0.0000	-0.0000	-0.0000	-0.0000	0.0000	-0.0000	-0.0000	-0.0000	0.0000	0.0000	0.0000	-0.0000	0.0000	-0.0000	-0.0000	0.0000	-0.0000	-0.0000	-0.0000	-0.0000	0.0000	0.0000	-0.0000	-0.0000	0.0000	-0.0000	0.0000	-0.0000	-0.0000	-0.0000	0.0000	-0.0000	-0.0000	0.0000	-0.0000	-0.0000	0.0000	-0.0000	0.0000	0.0000	-0.0000	0.0000	-0.0000	0.0000	-0.0000	0.0000	-0.0000	0.0000	0.0000	0.0000	-0.0000	-0.0000	-0.0000	0.0000	-0.0000	-0.0000	-0.0000	0.0000	0.0000	0.0000	-0.0000	0.0000	-0.0000	-0.0000	0.0000	-0.0000	-0.0000	-0.0000	-0.0000	0.0000	0.0000	-0.0000	-0.0000	0.0000	-0.0000	0.0000	-0.0000	-0.0000	-0.0000	0.0000	-0.0000	-0.0000	0.0000	-0.0000	-0.0000	0.0000	-0.0000	0.0000	0.0000	-0.0000	0.0000	-0.0000	0.0000	-0.0000	0.0000	-0.0000	0.0000	-0.0000	-0.0000	0.0000	0.0000	0.0000	-0.0000	0.0000	0.0000	0.0000	-0.0000	-0.0000	-0.0000	0.0000	-0.0000	0.0000	0.0000	-0.0000	0.0000	0.0000	0.0000	0.0000	-0.0000	-0.0000	0.0000	0.0000	-0.0000	0.0000	-0.0000	0.0000	0.0000	0.0000	-0.0000	0.0000	0.0000	-0.0000	0.0000	0.0000	-0.0000	0.0000	-0.0000	-0.0000	0.0000	-0.0000	0.0000	-0.0000	0.0000	-0.0000	0.0000	-0.0000	0.0000	0.0000	-0.0000	-0.0000	-0.0000	0.0000	-0.0000	-0.0000	-0.0000	0.0000	0.0000	0.0000	-0.0000	0.0000	-0.0000	-0.0000	0.0000	-0.0000	-0.0000	-0.0000	-0.0000	0.0000	0.0000	-0.0000	-0.0000	0.0000	-0.0000	0.0000	-0.0000	-0.0000	-0.0000	0.0000	-0.0000	-0.0000	0.0000	-0.0000	-0.0000	0.0000	-0.0000	0.0000	0.0000	-0.0000	0.0000	-0.0000	0.0000	-0.0000	0.0000	-0.0000	0.0000	1.0000	1.0000	1.0000	1.0000	1.0000	1.0000	1.0000	1.0000	1.0000	1.0000	1.0000	1.0000	1.0000	1.0000	1.0000	1.0000	1.0000	1.0000	1.0000	1.0000	1.0000	1.0000	1.0000	1.0000	1.0000	1.0000	1.0000	1.0000	1.0000	1.0000	1.0000	1.0000	1.0000	1.0000	1.0000	1.0000	1.0000	1.0000	1.0000	1.0000	1.0000	1.0000	1.0000	1.0000	1.0000	1.0000	1.0000	1.0000	1.0000	0.0625	0.0625	0.0625	0.0312	0.0312	0.0312	0.0208	0.0312	0.0312	0.0208	0.0312	0.0312	0.0208	0.0312	0.0312	0.0208	0.0312	0.0312	0.0208	0.0312	0.0312	0.0208	0.0312	0.0312	0.0208	0.0312	0.0312	0.0312	0.0625	0.0625	0.0625	0.0000	0.0625	0.0625	0.0625	0.0312	0.0312	0.0312	0.0208	0.0312	0.0312	0.0208	0.0312	0.0312	0.0208	0.0312	0.0312	0.0208	0.0312	0.0312	0.0208	0.0312	0.0312	0.0208	0.0312	0.0312	0.0208	0.0312	0.0312	0.0312	0.0625	0.0625	0.0625	0.0000	0.0625	0.0625	0.0625	0.0312	0.0312	0.0312	0.0208	0.0312	0.0312	0.0208	0.0312	0.0312	0.0208	0.0312	0.0312	0.0208	0.0312	0.0312	0.0208	0.0312	0.0312	0.0208	0.0312	0.0312	0.0208	0.0312	0.0312	0.0312	0.0625	0.0625	0.0625	0.0000	0.0312	0.0312	0.0312	0.0156	0.0156	0.0156	0.0104	0.0156	0.0156	0.0104	0.0156	0.0156	0.0104	0.0156	0.0156	0.0104	0.0156	0.0156	0.0104	0.0156	0.0156	0.0104	0.0156	0.0156	0.0104	0.0156	0.0156	0.0156	0.0312	0.0312	0.0312	0.0000	0.0312	0.0312	0.0312	0.0156	0.0156	0.0156	0.0104	0.0156	0.0156	0.0104	0.0156	0.0156	0.0104	0.0156	0.0156	0.0104	0.0156	0.0156	0.0104	0.0156	0.0156	0.0104	0.0156	0.0156	0.0104	0.0156	0.0156	0.0156	0.0312	0.0312	0.0312	0.0000	0.0312	0.0312	0.0312	0.0156	0.0156	0.0156	0.0104	0.0156	0.0156	0.0104	0.0156	0.0156	0.0104	0.0156	0.0156	0.0104	0.0156	0.0156	0.0104	0.0156	0.0156	0.0104	0.0156	0.0156	0.0104	0.0156	0.0156	0.0156	0.0312	0.0312	0.0312	0.0000	0.0208	0.0208	0.0208	0.0104	0.0104	0.0104	0.0069	0.0104	0.0104	0.0069	0.0104	0.0104	0.0069	0.0104	0.0104	0.0069	0.0104	0.0104	0.0069	0.0104	0.0104	0.0069	0.0104	0.0104	0.0069	0.0104	0.0104	0.0104	0.0208	0.0208	0.0208	0.0000	0.0312	0.0312	0.0312	0.0156	0.0156	0.0156	0.0104	0.0156	0.0156	0.0104	0.0156	0.0156	0.0104	0.0156	0.0156	0.0104	0.0156	0.0156	0.0104	0.0156	0.0156	0.0104	0.0156	0.0156	0.0104	0.0156	0.0156	0.0156	0.0312	0.0312	0.0312	0.0000	0.0312	0.0312	0.0312	0.0156	0.0156	0.0156	0.0104	0.0156	0.0156	0.0104	0.0156	0.0156	0.0104	0.0156	0.0156	0.0104	0.0156	0.0156	0.0104	0.0156	0.0156	0.0104	0.0156	0.0156	0.0104	0.0156	0.0156	0.0156	0.0312	0.0312	0.0312	0.0000	0.0208	0.0208	0.0208	0.0104	0.0104	0.0104	0.0069	0.0104	0.0104	0.0069	0.0104	0.0104	0.0069	0.0104	0.0104	0.0069	0.0104	0.0104	0.0069	0.0104	0.0104	0.0069	0.0104	0.0104	0.0069	0.0104	0.0104	0.0104	0.0208	0.0208	0.0208	0.0000	0.0312	0.0312	0.0312	0.0156	0.0156	0.0156	0.0104	0.0156	0.0156	0.0104	0.0156	0.0156	0.0104	0.0156	0.0156	0.0104	0.0156	0.0156	0.0104	0.0156	0.0156	0.0104	0.0156	0.0156	0.0104	0.0156	0.0156	0.0156	0.0312	0.0312	0.0312	0.0000	0.0312	0.0312	0.0312	0.0156	0.0156	0.0156	0.0104	0.0156	0.0156	0.0104	0.0156	0.0156	0.0104	0.0156	0.0156	0.0104	0.0156	0.0156	0.0104	0.0156	0.0156	0.0104	0.0156	0.0156	0.0104	0.0156	0.0156	0.0156	0.0312	0.0312	0.0312	0.0000	0.0208	0.0208	0.0208	0.0104	0.0104	0.0104	0.0069	0.0104	0.0104	0.0069	0.0104	0.0104	0.0069	0.0104	0.0104	0.0069	0.0104	0.0104	0.0069	0.0104	0.0104	0.0069	0.0104	0.0104	0.0069	0.0104	0.0104	0.0104	0.0208	0.0208	0.0208	0.0000	0.0312	0.0312	0.0312	0.0156	0.0156	0.0156	0.0104	0.0156	0.0156	0.0104	0.0156	0.0156	0.0104	0.0156	0.0156	0.0104	0.0156	0.0156	0.0104	0.0156	0.0156	0.0104	0.0156	0.0156	0.0104	0.0156	0.0156	0.0156	0.0312	0.0312	0.0312	0.0000	0.0312	0.0312	0.0312	0.0156	0.0156	0.0156	0.0104	0.0156	0.0156	0.0104	0.0156	0.0156	0.0104	0.0156	0.0156	0.0104	0.0156	0.0156	0.0104	0.0156	0.0156	0.0104	0.0156	0.0156	0.0104	0.0156	0.0156	0.0156	0.0312	0.0312	0.0312	0.0000	0.0208	0.0208	0.0208	0.0104	0.0104	0.0104	0.0069	0.0104	0.0104	0.0069	0.0104	0.0104	0.0069	0.0104	0.0104	0.0069	0.0104	0.0104	0.0069	0.0104	0.0104	0.0069	0.0104	0.0104	0.0069	0.0104	0.0104	0.0104	0.0208	0.0208	0.0208	0.0000	0.0312	0.0312	0.0312	0.0156	0.0156	0.0156	0.0104	0.0156	0.0156	0.0104	0.0156	0.0156	0.0104	0.0156	0.0156	0.0104	0.0156	0.0156	0.0104	0.0156	0.0156	0.0104	0.0156	0.0156	0.0104	0.0156	0.0156	0.0156	0.0312	0.0312	0.0312	0.0000	0.0312	0.0312	0.0312	0.0156	0.0156	0.0156	0.0104	0.0156	0.0156	0.0104	0.0156	0.0156	0.0104	0.0156	0.0156	0.0104	0.0156	0.0156	0.0104	0.0156	0.0156	0.0104	0.0156	0.0156	0.0104	0.0156	0.0156	0.0156	0.0312	0.0312	0.0312	0.0000	0.0208	0.0208	0.0208	0.0104	0.0104	0.0104	0.0069	0.0104	0.0104	0.0069	0.0104	0.0104	0.0069	0.0104	0.0104	0.0069	0.0104	0.0104	0.0069	0.0104	0.0104	0.0069	0.0104	0.0104	0.0069	0.0104	0.0104	0.0104	0.0208	0.0208	0.0208	0.0000	0.0312	0.0312	0.0312	0.0156	0.0156	0.0156	0.0104	0.0156	0.0156	0.0104	0.0156	0.0156	0.0104	0.0156	0.0156	0.0104	0.0156	0.0156	0.0104	0.0156	0.0156	0.0104	0.0156	0.0156	0.0104	0.0156	0.0156	0.0156	0.0312	0.0312	0.0312	0.0000	0.0312	0.0312	0.0312	0.0156	0.0156	0.0156	0.0104	0.0156	0.0156	0.0104	0.0156	0.0156	0.0104	0.0156	0.0156	0.0104	0.0156	0.0156	0.0104	0.0156	0.0156	0.0104	0.0156	0.0156	0.0104	0.0156	0.0156	0.0156	0.0312	0.0312	0.0312	0.0000	0.0208	0.0208	0.0208	0.0104	0.0104	0.0104	0.0069	0.0104	0.0104	0.0069	0.0104	0.0104	0.0069	0.0104	0.0104	0.0069	0.0104	0.0104	0.0069	0.0104	0.0104	0.0069	0.0104	0.0104	0.0069	0.0104	0.0104	0.0104	0.0208	0.0208	0.0208	0.0000	0.0312	0.0312	0.0312	0.0156	0.0156	0.0156	0.0104	0.0156	0.0156	0.0104	0.0156	0.0156	0.0104	0.0156	0.0156	0.0104	0.0156	0.0156	0.0104	0.0156	0.0156	0.0104	0.0156	0.0156	0.0104	0.0156	0.0156	0.0156	0.0312	0.0312	0.0312	0.0000	0.0312	0.0312	0.0312	0.0156	0.0156	0.0156	0.0104	0.0156	0.0156	0.0104	0.0156	0.0156	0.0104	0.0156	0.0156	0.0104	0.0156	0.0156	0.0104	0.0156	0.0156	0.0104	0.0156	0.0156	0.0104	0.0156	0.0156	0.0156	0.0312	0.0312	0.0312	0.0000	0.0208	0.0208	0.0208	0.0104	0.0104	0.0104	0.0069	0.0104	0.0104	0.0069	0.0104	0.0104	0.0069	0.0104	0.0104	0.0069	0.0104	0.0104	0.0069	0.0104	0.0104	0.0069	0.0104	0.0104	0.0069	0.0104	0.0104	0.0104	0.0208	0.0208	0.0208	0.0000	0.0312	0.0312	0.0312	0.0156	0.0156	0.0156	0.0104	0.0156	0.0156	0.0104	0.0156	0.0156	0.0104	0.0156	0.0156	0.0104	0.0156	0.0156	0.0104	0.0156	0.0156	0.0104	0.0156	0.0156	0.0104	0.0156	0.0156	0.0156	0.0312	0.0312	0.0312	0.0000	0.0312	0.0312	0.0312	0.0156	0.0156	0.0156	0.0104	0.0156	0.0156	0.0104	0.0156	0.0156	0.0104	0.0156	0.0156	0.0104	0.0156	0.0156	0.0104	0.0156	0.0156	0.0104	0.0156	0.0156	0.0104	0.0156	0.0156	0.0156	0.0312	0.0312	0.0312	0.0000	0.0312	0.0312	0.0312	0.0156	0.0156	0.0156	0.0104	0.0156	0.0156	0.0104	0.0156	0.0156	0.0104	0.0156	0.0156	0.0104	0.0156	0.0156	0.0104	0.0156	0.0156	0.0104	0.0156	0.0156	0.0104	0.0156	0.0156	0.0156	0.0312	0.0312	0.0312	0.0000	0.0625	0.0625	0.0625	0.0312	0.0312	0.0312	0.0208	0.0312	0.0312	0.0208	0.0312	0.0312	0.0208	0.0312	0.0312	0.0208	0.0312	0.0312	0.0208	0.0312	0.0312	0.0208	0.0312	0.0312	0.0208	0.0312	0.0312	0.0312	0.0625	0.0625	0.0625	0.0000	0.0625	0.0625	0.0625	0.0312	0.0312	0.0312	0.0208	0.0312	0.0312	0.0208	0.0312	0.0312	0.0208	0.0312	0.0312	0.0208	0.0312	0.0312	0.0208	0.0312	0.0312	0.0208	0.0312	0.0312	0.0208	0.0312	0.0312	0.0312	0.0625	0.0625	0.0625	0.0000	0.0625	0.0625	0.0625	0.0312	0.0312	0.0312	0.0208	0.0312	0.0312	0.0208	0.0312	0.0312	0.0208	0.0312	0.0312	0.0208	0.0312	0.0312	0.0208	0.0312	0.0312	0.0208	0.0312	0.0312	0.0208	0.0312	0.0312	0.0312	0.0625	0.0625	0.0625	0.0000	0.0000	0.0000	0.0000	0.0000	0.0000	0.0000	0.0000	0.0000	0.0000	0.0000	0.0000	0.0000	0.0000	0.0000	0.0000	0.0000	0.0000	0.0000	0.0000	0.0000	0.0000	0.0000	0.0000	0.0000	0.0000	0.0000	0.0000	0.0000	0.0000	0.0000	0.0000	0.0000	