-0.1325	0.2780	0.9859	1.0621	1.2637	0.6316	0.1618	-0.0607	0.0921	0.0121	-0.0330	0.2745	1.7700	1.9277	2.0087	2.8508	1.9166	0.4431	0.0039	-0.0132	-0.1039	0.9954	1.0226	2.0951	2.0455	1.7699	2.1810	2.5890	0.6945	0.1034	0.6457	1.2341	1.4616	1.2376	1.8491	2.0212	1.9447	1.3984	2.6066	0.9992	1.2454	1.4058	1.1712	1.4663	1.4186	1.7486	1.9773	1.5993	1.1855	2.2454	1.2000	1.3438	1.3811	1.4878	1.6189	1.6686	1.7403	1.8133	1.6543	1.5604	1.1274	1.4655	1.5557	1.6331	1.5375	1.7298	1.6851	2.0745	1.8574	2.2253	0.6754	1.0201	1.5375	1.6021	1.7492	1.9368	1.6229	1.9855	1.9014	1.5913	0.4964	0.6442	1.2122	1.4813	1.8495	1.8385	2.0284	1.9690	1.7302	0.2757	-0.1652	0.4348	0.7569	0.9667	1.3415	1.8388	1.8649	2.0256	0.5508	0.2010	-0.0389	1.3653	2.1966	2.3624	2.0409	0.5268	-0.0438	-0.0807	-0.0181	0.0179	0.5892	1.5418	2.2527	1.8043	2.0924	2.6713	1.3805	0.1501	-0.0599	0.0827	1.2104	1.3777	1.3957	2.3182	2.2232	1.8890	1.9048	2.0268	0.4682	-0.0314	1.3309	1.3744	1.6666	1.5992	1.9996	1.9205	1.7381	1.8567	2.1766	-0.3337	1.2971	1.4688	1.4614	1.7306	1.8343	1.8457	1.8111	1.5279	1.6142	-0.0886	1.3808	1.4612	1.4759	1.7556	1.9011	1.6037	1.9342	1.7893	1.7604	-0.0650	1.4266	1.6790	1.6506	1.7758	1.7032	1.8332	1.9882	2.1044	2.1776	-0.2222	0.9078	1.3699	1.6595	1.8243	1.8662	1.9276	2.0207	2.1150	1.1570	0.0428	0.8536	1.0361	1.2969	1.8878	2.0360	2.1680	2.0199	1.5090	-0.0266	0.0490	0.1632	0.7225	1.0356	1.1740	1.5075	1.9230	1.9400	0.1407	-0.0965	-0.0076	0.1217	-0.1895	-0.7133	-0.7537	-1.0699	-0.4819	-0.0123	0.1147	0.0913	0.0188	0.0112	1.0083	2.1777	2.1334	2.8682	1.3618	-0.6033	-0.3772	0.0196	-0.0744	0.3628	1.2064	1.8409	2.1026	1.4126	1.9684	2.3838	0.1531	-0.5506	-0.0275	0.8036	1.1223	1.2149	1.6764	2.1591	1.6954	1.4695	2.2396	1.1846	-0.1776	1.1344	1.2364	1.2371	1.3615	1.6383	1.9169	1.6041	1.4594	1.8966	0.2275	1.1951	1.3337	1.3503	1.4920	1.6516	1.6148	1.6019	1.3694	1.1529	0.1488	1.3663	1.3024	1.3771	1.4208	1.4820	1.4216	1.7283	1.6896	1.6994	0.3005	1.0858	1.6461	1.5615	1.5951	1.5846	1.5296	1.5805	1.8114	1.8703	0.6378	0.8311	1.1516	1.5694	1.7144	1.6975	1.7298	1.8241	1.7229	1.1435	0.1420	0.7137	0.8949	0.9892	1.4600	1.9355	2.0107	1.9055	1.6353	0.4684	0.1551	0.0514	-0.1006	1.4148	1.4876	1.9117	1.5131	0.2576	0.0514	-0.0986	-0.0640	-0.1277	1.2637	1.4485	2.2881	1.7870	1.4129	1.9637	0.8488	0.0276	-0.0320	0.6168	1.1786	1.8152	1.2941	2.0704	1.9721	1.7709	1.2692	1.3935	0.3369	1.1672	1.2715	1.1084	1.7669	1.6072	1.8438	1.6879	1.8105	1.1188	1.3521	1.1667	1.2562	1.3989	1.4325	1.7250	1.5626	1.6317	1.6478	1.6489	0.5648	1.1649	1.3526	1.2934	1.5011	1.4922	1.7670	1.5879	1.5876	1.5622	1.0491	1.0272	1.3832	1.5268	1.4507	1.7283	1.5847	1.8229	1.8280	1.9669	1.0550	0.8818	0.9930	1.4631	1.5651	1.5945	1.5314	1.9306	1.8339	1.9630	0.0815	0.4991	0.8355	1.1146	1.3775	1.7333	1.8958	1.9245	1.9947	0.5349	0.1191	0.0020	0.3568	0.7122	1.3350	1.3783	1.5290	1.8904	1.3189	-0.1460	-0.0037	-0.0516	0.1409	0.5592	0.1672	0.6094	0.1004	-0.0976	0.0348	0.0123	-0.0630	0.0411	0.1070	0.0601	0.6145	0.1413	-0.4580	0.2946	0.0136	-0.0736	0.0375	0.0038	-0.1215	-0.0354	-0.0893	0.0227	0.1927	-0.2107	-0.0143	-0.0168	0.0323	0.0460	0.2330	-0.0409	0.1460	0.2259	0.2075	0.1672	0.1694	-0.4331	-0.3846	0.0742	0.0390	0.1123	0.1174	0.1444	-0.0347	0.0212	-0.1100	0.1034	-0.0907	0.0979	0.1271	0.1860	0.0648	-0.0882	-0.0972	0.2384	0.0760	0.1323	0.0374	-0.1204	0.1602	0.0203	0.0743	0.0013	0.0858	-0.0411	0.0056	0.0355	-0.1639	0.0413	0.0726	0.1862	0.1512	0.1651	-0.0863	-0.0251	-0.0093	0.0240	-0.2335	0.0568	-0.0231	-0.0610	-0.0469	-0.0479	0.0208	0.0338	0.1935	-0.1328	0.1373	0.1981	0.1089	-0.0251	0.0721	-0.1132	-0.0525	0.1171	-0.1726	-0.0430	0.0677	0.0880	0.1883	-0.1618	0.2215	0.0462	-0.5476	-0.0728	-0.0039	0.0618	-0.0631	0.0622	0.1689	0.2426	0.1124	-0.4008	-0.2065	0.3415	-0.2659	0.2101	-0.0342	-0.0122	-0.0258	-0.1033	0.1630	0.1443	0.2467	-0.8555	0.6710	-0.3882	0.1032	0.0462	-0.0772	-0.0319	0.2867	0.0230	0.0952	-0.1670	0.0385	-0.0082	-0.1617	0.0799	-0.1359	0.0826	-0.1622	-0.0047	0.0665	-0.0672	-0.0074	-0.1103	0.1276	0.0270	0.0194	-0.1013	-0.0886	-0.1688	0.1304	0.1226	-0.1375	0.0890	-0.2189	0.1776	0.1560	-0.0283	-0.0217	0.0327	-0.1822	0.2143	-0.0087	-0.1077	0.0815	0.2399	-0.0007	-0.1073	0.0534	-0.0497	0.1035	-0.0427	-0.0979	-0.0711	-0.0419	0.1053	0.0633	-0.1513	0.0832	0.1181	0.1306	0.0469	-0.0591	0.1063	-0.0723	0.0294	-0.0900	-0.0861	-0.0057	-0.1601	0.3458	-0.1278	0.0133	0.0229	0.0239	-0.0555	-0.0745	-0.0828	-0.3507	-0.4171	-0.3977	-0.0446	0.0114	0.0467	-0.0276	0.0288	0.0440	-0.3982	-0.1774	0.0137	0.4323	0.0076	-0.0721	-0.0374	0.0082	-0.0861	-0.2457	0.0737	0.0429	0.0144	-0.4121	-0.3527	0.1832	-0.2461	-0.1350	-0.0295	0.0361	0.0358	-0.0808	-0.0843	0.1679	0.0991	-0.1098	0.2046	0.0660	0.0231	-0.1418	-0.1410	-0.0906	0.0028	-0.0595	-0.1094	-0.0772	0.2043	0.5075	-0.0056	-0.0795	-0.1541	-0.0058	-0.0357	0.0948	0.0376	-0.1345	-0.2483	-0.0483	0.0370	-0.1918	-0.0867	-0.0664	-0.2019	0.0832	-0.0530	0.1195	0.2166	0.0391	0.0091	-0.1468	0.1526	-0.0478	0.0589	-0.2212	-0.1558	-0.1198	-0.0419	0.1920	0.0138	-0.0264	0.1277	0.0728	0.0956	-0.0622	-0.1126	0.1334	-0.2852	0.0946	-0.1430	-0.1098	-0.0867	-0.0294	0.2694	0.1857	0.2268	0.1022	0.3694	-0.0244	-0.1727	-0.3144	0.1234	-0.3260	-0.3196	-0.3990	-0.1451	-0.0693	0.0477	-0.0243	-0.2529	0.0780	0.2657	-0.2390	-0.1338	0.2456	0.0284	-0.2125	0.0900	-0.0535	-0.0666	-0.1267	-0.2120	0.1546	-0.0227	-0.3076	-0.0810	0.3303	-0.2843	-0.0451	-0.2934	-0.1952	-0.0760	-0.1395	-0.0934	-0.0487	0.0337	-0.0892	0.3329	-0.4960	-0.3432	-0.0747	-0.0230	0.1052	-0.0757	-0.1665	-0.0927	-0.0536	-0.1554	-0.2132	-0.0082	0.0221	-0.1809	-0.0293	-0.1256	-0.1362	0.0058	-0.1267	-0.1224	-0.2902	-0.0019	0.0056	-0.0592	-0.0723	-0.1679	-0.0555	0.0807	0.1934	-0.0611	-0.3784	-0.0955	-0.1618	-0.0283	0.0198	-0.1621	0.0708	-0.1679	-0.1098	0.1977	-0.4684	-0.0224	-0.1779	0.0617	0.0675	-0.0798	-0.1653	-0.2597	-0.2103	-0.2592	-0.0666	-0.1730	-0.0671	-0.0666	0.0275	-0.0291	0.1408	-0.1150	0.0385	-0.3757	0.1227	0.1257	-0.0433	-0.3030	-0.4089	-0.2011	0.2431	-0.0008	0.0304	0.1617	-0.0150	-0.0690	-0.0038	0.0426	0.0126	0.0257	0.2096	-0.0636	-0.0032	-0.1239	0.1157	0.0410	0.0201	0.0206	-0.0477	-0.0173	0.1551	-0.2758	0.2617	0.2064	0.0772	0.0516	0.0988	-0.1276	-0.0304	-0.1194	0.0583	-0.0288	0.0436	0.2353	-0.4076	0.0340	0.0474	0.0257	-0.0336	-0.0738	-0.1388	-0.2053	0.1682	-0.0622	-0.2847	-0.0352	0.0871	0.2080	0.0520	0.1145	-0.0932	-0.0524	0.1053	-0.0934	-0.3312	-0.0643	0.0715	0.0674	-0.0825	-0.0891	-0.1542	-0.0782	0.1146	0.0332	-0.1920	-0.0421	-0.1067	-0.0522	-0.0193	-0.0362	-0.1360	-0.0707	-0.1616	-0.0817	0.1636	-0.0072	0.1595	0.0932	0.0089	0.0691	-0.0022	-0.0846	0.2267	0.1180	0.0899	0.0608	0.3035	-0.1086	-0.1129	-0.0988	0.0699	-0.1195	0.1305	-0.0948	0.0189	-0.0318	-0.0773	-0.6143	-0.4143	-0.2898	0.0013	0.1440	0.0996	0.1290	-0.2123	-0.1041	0.0657	-0.1706	0.0335	0.2569	0.0836	0.0873	0.0325	0.0131	0.1875	0.0589	-0.0607	0.1760	-0.0183	-0.0150	-0.1116	0.3107	-0.0110	-0.0722	0.1108	0.0824	-0.0370	-0.0083	-0.0883	0.1236	0.0665	0.1393	0.0614	-0.0481	-0.1334	0.0112	0.0721	0.1069	-0.0124	-0.0062	-0.1264	-0.0134	-0.0212	0.0316	-0.0718	-0.0481	0.1124	0.0134	-0.1045	-0.1660	0.0099	0.2101	-0.0554	-0.0551	-0.1224	0.0114	-0.0152	-0.0230	0.0994	0.0044	-0.0367	0.0029	-0.0477	0.0039	0.0282	0.0233	0.1113	-0.0373	0.0281	-0.0948	0.0579	0.0715	-0.1875	-0.0239	0.0033	-0.0344	0.1412	-0.1049	0.1003	-0.0779	-0.0683	-0.0133	-0.0568	-0.1562	0.1443	0.0332	0.0477	-0.0334	0.0227	0.2266	-0.0954	0.1817	0.0055	0.2526	0.0453	0.1237	-0.1836	0.0666	0.0053	-0.1633	-0.0439	0.0922	0.1632	-0.0268	-0.1194	0.0671	-0.0144	-0.0189	-0.1333	-0.2099	-0.1555	0.2966	0.0018	0.0083	-0.1599	-0.2295	-0.0288	0.1168	0.0094	-0.1118	-0.2244	0.2616	0.0930	-0.0526	-0.0159	-0.0380	0.1253	0.0424	0.1331	-0.2163	-0.2905	-0.0825	0.2667	-0.5186	-0.0598	0.0972	0.1150	-0.0291	-0.1423	-0.0885	-0.1261	0.0348	0.0929	0.1328	-0.1967	-0.1009	-0.0627	0.0384	-0.0293	0.1791	-0.0443	-0.1306	-0.1052	-0.1623	-0.1473	-0.1052	-0.0655	-0.3096	-0.1262	-0.0885	-0.0252	-0.0130	-0.1988	0.0522	0.0080	-0.0005	-0.0310	-0.1608	-0.1373	-0.1251	-0.0674	-0.0570	-0.0247	0.0256	-0.1000	-0.0990	-0.0168	0.0845	0.1603	-0.0151	-0.1205	-0.2052	-0.0047	-0.0005	-0.1023	-0.0207	-0.0785	-0.0120	0.0583	0.0289	-0.0571	-0.0368	-0.0549	0.0019	0.1437	-0.1610	-0.1821	-0.3139	-0.6290	-0.4767	-0.0637	-0.0522	0.0219	0.0657	-0.0886	-0.1166	0.1080	-0.1913	-0.2787	-0.0218	0.0335	-0.1901	0.1729	0.0893	-0.0772	-0.1082	-0.0207	-0.0675	0.1724	-0.1183	-0.1574	0.0687	-0.0723	0.0320	0.0286	0.0510	0.0199	-0.0367	-0.0115	-0.1485	-0.0122	0.1358	0.0018	0.0760	0.0059	0.0359	-0.1047	-0.0361	-0.2108	0.1088	-0.0172	-0.0400	0.0154	0.0058	0.5305	0.0012	0.0616	0.1375	-0.0429	0.0022	-0.1108	0.0052	0.0511	-0.1470	0.5009	0.0033	0.0597	0.0043	-0.1819	-0.0189	0.0901	0.1514	0.1188	-0.1212	0.4716	0.0594	-0.0357	-0.0667	-0.0191	0.1403	0.0441	0.0749	-0.0899	-0.0494	0.1186	0.0872	0.2845	0.0796	0.0553	-0.0142	0.0960	0.1345	0.1052	0.0676	-0.0430	-0.1064	-0.0815	-0.2229	-0.0311	0.0321	0.1541	0.0746	0.1516	-0.1510	0.0406	0.0602	0.1220	0.0752	-0.1779	-0.2579	-0.0967	-0.0368	0.0492	0.0076	0.0114	-0.0204	-0.2083	0.0949	-0.1299	-0.0312	0.3677	-0.2876	0.0562	0.0585	0.0663	-0.0228	0.0181	-0.0834	0.1940	-0.0258	-0.0779	0.0515	0.1109	0.0206	-0.1394	0.0614	-0.0340	-0.0690	-0.0670	-0.0170	0.0997	-0.0578	0.0569	0.2224	0.0179	0.0452	0.1644	0.0124	0.1013	-0.0027	0.1236	-0.0959	0.1023	-0.0808	0.0865	0.0514	-0.0868	0.1013	-0.0643	-0.0185	-0.1278	-0.0253	0.1751	-0.0353	-0.0690	-0.0716	-0.0724	0.1122	0.0186	0.2066	-0.1424	-0.1436	0.0648	-0.0986	-0.2033	-0.1132	0.0494	0.0666	0.0559	-0.1340	0.1208	0.0352	0.1597	0.0427	-0.3188	-0.1064	-0.1475	0.0509	-0.1555	0.1243	0.0390	-0.1315	-0.1063	-0.0723	0.0933	-0.0153	0.1645	-0.0780	-0.0007	0.0566	0.1649	-0.1326	0.0698	-0.0323	0.0752	0.0686	-0.1126	-0.1006	-0.1049	0.1891	-0.1012	0.0034	0.2444	0.1134	0.1386	-0.0527	-0.1023	0.1620	-0.0842	0.0074	-0.3289	-0.1735	0.0097	0.1490	-0.0369	-0.0379	0.0052	0.0814	0.0385	0.1353	0.0920	0.0927	0.2794	0.0494	-0.1033	-0.0676	-0.1260	-0.0665	-0.0576	0.1032	0.0935	0.0683	0.0541	-0.3800	0.0466	0.0692	-0.0711	-0.0614	0.1292	-0.1294	-0.0949	0.1321	-0.0276	0.1279	0.1387	0.0027	0.1243	0.0971	0.1070	-0.1770	-0.0050	0.1383	0.0456	-0.0784	0.1653	0.0161	0.0070	-0.0627	-0.0473	-0.1158	-0.1205	0.0139	-0.0604	-0.0131	0.4156	-0.0883	-0.0216	-0.0705	-0.1614	-0.0417	-0.0213	-0.1054	0.0618	-0.1770	-0.0627	-0.1104	-0.0261	0.1155	0.1816	0.1356	-0.1103	-0.0154	0.0274	0.0921	-0.3486	-0.0222	-0.3183	-0.0270	0.0245	0.0886	-0.0283	0.0171	-0.1051	0.0346	0.0473	-0.1156	0.1025	0.0972	0.2666	0.3008	0.0479	0.1011	-0.0687	0.0099	0.0102	-0.0668	0.1134	-0.0648	0.1157	-0.0263	-0.1869	-0.0615	0.0723	-0.0324	0.1146	0.0052	-0.2145	0.1118	0.0647	0.0101	-0.0308	-0.2022	0.2859	0.0726	0.1368	0.0483	-0.0023	-0.0288	-0.1661	0.0259	-0.0162	0.1181	0.1974	0.0165	-0.2790	0.0287	0.0909	0.0087	0.1421	0.0581	-0.0536	-0.0177	0.1021	-0.0256	-0.4261	0.0571	0.0463	0.0014	0.0770	-0.0307	-0.0569	0.0947	-0.1624	0.1722	-0.2754	-0.0573	-0.1292	0.1084	-0.0036	0.0328	-0.0698	-0.0172	-0.0703	0.0372	-0.2863	-0.0155	-0.0941	-0.0089	-0.0042	-0.0690	0.0325	-0.0622	0.0047	-0.2126	-0.1223	0.0130	-0.0899	0.0039	-0.0201	0.0482	-0.0117	-0.1791	0.1017	-0.1636	-0.0069	-0.1357	0.0860	0.0356	0.2660	0.0951	0.0194	-0.0591	-0.1679	0.0639	0.0693	-0.0912	-0.0779	-0.4242	-0.6165	-0.4671	-0.0178	0.0516	0.0633	-0.0144	0.2368	0.0711	-0.0574	-0.0203	0.0542	-0.0333	0.0981	-0.0575	0.1394	0.0134	0.1173	0.0457	-0.0266	0.0472	0.0475	-0.2209	-0.0236	0.1149	-0.0729	-0.0116	-0.0377	0.0346	-0.1069	0.0964	-0.1728	0.1079	-0.1944	-0.1069	0.1550	0.0251	-0.3675	-0.0566	0.0795	-0.0272	0.0592	0.1066	-0.1543	-0.0011	-0.0249	-0.1145	-0.0961	-0.1891	-0.0862	0.0413	0.1513	-0.0289	0.1449	0.0882	0.0085	0.2141	-0.1364	0.1876	-0.0763	-0.1605	-0.0116	-0.1477	0.1197	0.0482	-0.0025	0.0278	-0.2291	-0.1162	-0.0486	0.1558	0.0248	0.1843	-0.0022	-0.0866	0.0713	-0.1207	0.0474	0.0030	-0.0101	0.0756	0.0900	0.1088	0.0641	-0.0404	0.0693	-0.1967	-0.1163	0.0442	-0.0417	-0.1237	-0.1765	0.0745	-0.1122	-0.1611	0.0747	-0.0650	-0.0202	0.3029	0.2626	0.1821	0.0725	-0.0389	-0.1249	-0.1692	0.3086	0.2702	0.1864	0.0724	-0.0421	-0.1280	-0.1710	0.2816	0.2463	0.1719	0.0734	-0.0238	-0.1000	-0.1401	0.2320	0.2008	0.1462	0.0752	0.0052	-0.0537	-0.0892	0.1744	0.1470	0.1141	0.0778	0.0389	0.0004	-0.0291	0.1293	0.1069	0.0905	0.0776	0.0646	0.0430	0.0154	0.1024	0.0857	0.0768	0.0750	0.0731	0.0630	0.0408	-0.0249	-0.0179	-0.0201	-0.0254	-0.0269	-0.0210	0.0032	-0.0258	-0.0131	-0.0077	-0.0029	0.0058	0.0203	0.0486	-0.0371	-0.0193	0.0064	0.0334	0.0641	0.0906	0.1180	-0.0525	-0.0228	0.0212	0.0779	0.1338	0.1781	0.2053	-0.0619	-0.0252	0.0390	0.1223	0.2039	0.2612	0.2847	-0.0607	-0.0170	0.0588	0.1563	0.2508	0.3136	0.3372	-0.0381	0.0066	0.0809	0.1761	0.2668	0.3305	0.3527	0.1523	0.1839	0.2164	0.2480	0.2724	0.2820	0.2753	0.1168	0.1439	0.1770	0.2098	0.2364	0.2508	0.2453	0.0636	0.0860	0.1137	0.1467	0.1734	0.1912	0.1939	0.0049	0.0210	0.0404	0.0682	0.0945	0.1142	0.1269	-0.0491	-0.0449	-0.0316	-0.0110	0.0107	0.0342	0.0553	-0.0941	-0.0944	-0.0888	-0.0746	-0.0541	-0.0311	-0.0037	-0.1214	-0.1260	-0.1253	-0.1157	-0.0973	-0.0738	-0.0456	-0.1588	-0.1462	-0.0866	0.0069	0.1016	0.1676	0.1880	-0.1186	-0.1094	-0.0605	0.0213	0.1072	0.1659	0.1808	-0.0252	-0.0238	0.0022	0.0466	0.0918	0.1206	0.1234	0.0992	0.0965	0.0897	0.0739	0.0619	0.0501	0.0411	0.2214	0.2140	0.1702	0.0996	0.0299	-0.0241	-0.0439	0.3038	0.2903	0.2239	0.1191	0.0096	-0.0671	-0.0960	0.3318	0.3124	0.2389	0.1259	0.0130	-0.0696	-0.1028	0.2371	0.1832	0.0982	0.0649	0.1103	0.2033	0.2600	0.1196	0.0480	-0.0486	-0.0947	-0.0455	0.0539	0.1295	-0.0316	-0.0892	-0.1492	-0.1812	-0.1615	-0.1041	-0.0395	-0.1439	-0.1459	-0.1250	-0.1194	-0.1416	-0.1655	-0.1601	-0.1779	-0.1010	0.0103	0.0641	0.0015	-0.1145	-0.1858	-0.1495	-0.0147	0.1614	0.2421	0.1607	-0.0119	-0.1391	-0.0880	0.0567	0.2309	0.3159	0.2414	0.0694	-0.0695	-0.2267	-0.2109	-0.1494	-0.0474	0.0772	0.2014	0.2713	-0.0604	-0.0431	-0.0394	-0.0411	-0.0187	0.0527	0.1275	0.1429	0.1744	0.1085	-0.0253	-0.1295	-0.1414	-0.0637	0.2283	0.2731	0.1806	-0.0089	-0.1793	-0.2319	-0.1558	0.1253	0.1658	0.1158	-0.0082	-0.1198	-0.1401	-0.0746	-0.0881	-0.0551	-0.0268	-0.0136	0.0031	0.0497	0.1071	-0.2503	-0.2207	-0.1348	-0.0255	0.0949	0.1937	0.2433	0.1772	0.0044	-0.2124	-0.3218	-0.2418	-0.0516	0.1129	0.2054	0.0352	-0.1797	-0.2824	-0.1857	0.0215	0.1815	0.1918	0.0806	-0.0621	-0.1163	-0.0348	0.1155	0.2166	0.1304	0.1000	0.0672	0.0648	0.1090	0.1598	0.1777	0.0160	0.0552	0.1115	0.1506	0.1432	0.0956	0.0421	-0.1105	-0.0456	0.0522	0.0999	0.0499	-0.0523	-0.1330	-0.1988	-0.1430	-0.0601	-0.0303	-0.0885	-0.1943	-0.2571	-0.1823	-0.0979	-0.0066	0.0416	0.0153	-0.0625	-0.1395	-0.1648	-0.0462	0.0818	0.1366	0.0868	-0.0328	-0.1456	-0.1380	0.0134	0.1690	0.2290	0.1510	-0.0113	-0.1570	-0.1361	0.0380	0.2150	0.2830	0.1857	-0.0037	-0.1700	-0.1682	0.0083	0.1938	0.2701	0.1765	-0.0167	-0.1850	-0.2147	-0.0591	0.1169	0.1965	0.1203	-0.0454	-0.1942	-0.2415	-0.1200	0.0193	0.0874	0.0396	-0.0832	-0.1999	-0.1429	-0.1596	-0.1719	-0.1643	-0.0900	0.0500	0.1397	0.0868	0.0990	0.0720	0.0150	0.0007	0.0389	0.0686	0.2004	0.1800	0.1488	0.1244	0.0849	0.0100	-0.0658	0.0789	-0.0538	-0.0826	0.0387	0.1210	0.0170	-0.1619	-0.0316	-0.2910	-0.3332	-0.0847	0.1427	0.0578	-0.1898	0.0872	-0.2049	-0.2909	-0.0511	0.1870	0.0955	-0.1741	0.3053	0.0781	-0.0359	0.0870	0.2136	0.0967	-0.1415	0.1872	-0.0475	-0.2207	-0.1702	-0.0603	-0.1132	-0.2569	0.1758	-0.0443	-0.1405	0.0344	0.2469	0.2041	-0.0120	0.1058	-0.0363	-0.0568	0.1309	0.3213	0.2873	0.0935	0.0298	-0.0181	-0.0281	0.0130	0.0411	-0.0023	-0.0598	-0.0453	-0.0085	-0.0132	-0.1171	-0.2413	-0.2668	-0.1834	-0.1098	-0.0009	0.0567	-0.0411	-0.1706	-0.1539	-0.0246	-0.1206	0.0172	0.1436	0.1428	0.1137	0.1684	0.2542	-0.2543	-0.1294	0.0859	0.2203	0.1470	-0.0796	-0.2649	-0.0629	-0.0267	0.0415	0.1074	0.1071	0.0097	-0.1096	0.1826	0.0755	-0.0919	-0.1376	-0.0283	0.0921	0.1018	0.2792	0.0958	-0.1808	-0.2756	-0.1094	0.1202	0.1875	0.1555	0.0401	-0.1251	-0.1539	-0.0373	0.0783	0.0796	-0.0723	-0.0521	0.0224	0.1097	0.1136	0.0018	-0.1329	-0.2308	-0.1118	0.1032	0.2483	0.1775	-0.0681	-0.2746	-0.2032	-0.0081	0.0609	-0.0903	-0.2387	-0.1565	0.0606	-0.0844	0.1887	0.2691	0.0524	-0.1590	-0.0714	0.1789	-0.0554	0.2242	0.3056	0.0834	-0.1176	-0.0072	0.2542	-0.1625	0.0582	0.1314	-0.0353	-0.1737	-0.0391	0.2167	-0.2412	-0.0814	-0.0048	-0.1148	-0.2173	-0.1133	0.1032	-0.1515	-0.0032	0.0769	-0.0137	-0.1365	-0.1229	0.0155	0.0140	0.1644	0.2377	0.1542	0.0038	-0.0531	-0.0002	-0.0715	-0.2272	-0.2109	0.0399	0.2526	0.1897	-0.0178	0.2161	0.0201	-0.1123	-0.0100	0.1027	-0.0041	-0.1835	0.3023	0.1499	-0.0207	-0.0369	-0.0285	-0.1168	-0.2122	0.0167	-0.0145	-0.0172	0.0078	0.0103	0.0022	-0.0065	-0.2759	-0.1681	0.0027	0.0523	0.0401	0.1071	0.2099	-0.2162	-0.0219	0.1300	0.0280	-0.1197	-0.0179	0.2003	0.0453	0.2265	0.2329	-0.0321	-0.2806	-0.2088	0.0462	-0.3007	0.0286	0.2240	0.1253	0.0124	-0.0768	-0.1950	-0.0350	0.1528	0.0444	-0.1633	-0.0608	0.1396	0.0902	0.1341	0.1569	-0.1304	-0.3297	-0.0674	0.2266	0.1462	-0.0061	0.0458	-0.0505	-0.0869	0.0818	0.0876	-0.1343	-0.1805	-0.0290	0.1039	0.1534	0.1647	-0.0465	-0.3265	-0.0909	0.0271	0.0636	0.0107	0.0216	0.0113	-0.1004	0.1186	0.1122	-0.0766	-0.2551	-0.1347	0.1411	0.2464	-0.0939	-0.1489	0.0067	0.1024	-0.1250	-0.2217	0.0178	0.1376	-0.0248	0.0978	0.2459	0.0294	-0.0686	0.2087	0.1960	-0.1370	-0.0901	0.1375	-0.0174	-0.1080	0.1841	0.1115	-0.2842	-0.2174	0.0786	-0.0832	-0.2475	0.0224	0.1285	-0.1695	-0.0080	0.2903	0.0567	-0.1854	0.0257	0.1349	-0.0704	0.0834	0.2917	0.0550	-0.1077	0.1272	0.0367	-0.1420	-0.1017	-0.0123	-0.1461	-0.1398	0.1503	0.0513	0.0205	0.1562	0.2654	0.1419	0.0023	0.0328	-0.0780	-0.2379	-0.2033	-0.1187	-0.2013	-0.2317	-0.0563	0.0817	-0.0831	-0.0747	-0.0000	-0.0824	-0.0736	0.1169	0.2025	0.1086	0.1881	0.2925	0.1699	0.0887	0.2081	-0.0104	-0.1446	-0.0376	0.1018	-0.0327	-0.1573	-0.0275	-0.0766	-0.2586	-0.1966	-0.0631	-0.1607	-0.2511	-0.0964	0.1594	0.0433	0.0741	0.1629	0.1069	0.0605	0.1385	-0.0000	-0.0000	-0.0000	0.0000	0.0000	-0.0000	-0.0000	-0.0000	0.0000	0.0000	-0.0000	0.0000	-0.0000	0.0000	0.0000	-0.0000	-0.0000	0.0000	0.0000	0.0000	-0.0000	0.0000	-0.0000	-0.0000	-0.0000	-0.0000	-0.0000	0.0000	-0.0000	0.0000	-0.0000	0.0000	0.0000	0.0000	0.0000	-0.0000	-0.0000	-0.0000	0.0000	-0.0000	-0.0000	-0.0000	-0.0000	0.0000	0.0000	-0.0000	0.0000	0.0000	-0.0000	0.0000	0.0000	0.0000	-0.0000	-0.0000	0.0000	0.0000	0.0000	-0.0000	-0.0000	0.0000	-0.0000	0.0000	-0.0000	-0.0000	0.0000	0.0000	-0.0000	-0.0000	-0.0000	0.0000	-0.0000	0.0000	0.0000	0.0000	0.0000	0.0000	-0.0000	0.0000	-0.0000	0.0000	-0.0000	-0.0000	-0.0000	-0.0000	0.0000	0.0000	0.0000	-0.0000	0.0000	0.0000	0.0000	0.0000	-0.0000	-0.0000	0.0000	-0.0000	-0.0000	0.0000	-0.0000	-0.0000	-0.0000	0.0000	0.0000	-0.0000	-0.0000	-0.0000	0.0000	0.0000	-0.0000	0.0000	-0.0000	0.0000	0.0000	-0.0000	-0.0000	0.0000	0.0000	0.0000	-0.0000	0.0000	-0.0000	-0.0000	-0.0000	-0.0000	-0.0000	0.0000	-0.0000	0.0000	-0.0000	0.0000	0.0000	0.0000	0.0000	-0.0000	-0.0000	-0.0000	0.0000	-0.0000	-0.0000	-0.0000	-0.0000	0.0000	0.0000	-0.0000	0.0000	0.0000	-0.0000	0.0000	0.0000	0.0000	-0.0000	-0.0000	0.0000	0.0000	0.0000	-0.0000	-0.0000	0.0000	-0.0000	0.0000	-0.0000	-0.0000	0.0000	0.0000	-0.0000	-0.0000	-0.0000	0.0000	-0.0000	0.0000	0.0000	0.0000	0.0000	0.0000	-0.0000	0.0000	-0.0000	0.0000	-0.0000	-0.0000	-0.0000	-0.0000	0.0000	0.0000	0.0000	-0.0000	0.0000	0.0000	0.0000	0.0000	-0.0000	-0.0000	0.0000	-0.0000	-0.0000	0.0000	-0.0000	-0.0000	-0.0000	0.0000	0.0000	-0.0000	-0.0000	-0.0000	0.0000	0.0000	-0.0000	0.0000	-0.0000	0.0000	0.0000	-0.0000	-0.0000	0.0000	0.0000	0.0000	-0.0000	0.0000	-0.0000	-0.0000	-0.0000	-0.0000	-0.0000	0.0000	-0.0000	0.0000	-0.0000	0.0000	0.0000	0.0000	0.0000	-0.0000	-0.0000	-0.0000	0.0000	-0.0000	-0.0000	-0.0000	-0.0000	0.0000	0.0000	-0.0000	-0.0000	0.0000	-0.0000	-0.0000	-0.0000	-0.0000	0.0000	0.0000	-0.0000	-0.0000	-0.0000	0.0000	0.0000	-0.0000	0.0000	-0.0000	0.0000	0.0000	-0.0000	-0.0000	0.0000	0.0000	0.0000	-0.0000	0.0000	-0.0000	-0.0000	-0.0000	-0.0000	-0.0000	0.0000	-0.0000	0.0000	-0.0000	0.0000	0.0000	0.0000	0.0000	-0.0000	-0.0000	-0.0000	0.0000	-0.0000	-0.0000	-0.0000	-0.0000	0.0000	0.0000	-0.0000	-0.0000	0.0000	-0.0000	0.0000	0.0000	0.0000	-0.0000	-0.0000	0.0000	0.0000	0.0000	-0.0000	-0.0000	0.0000	-0.0000	0.0000	-0.0000	-0.0000	0.0000	0.0000	-0.0000	-0.0000	-0.0000	0.0000	-0.0000	0.0000	0.0000	0.0000	0.0000	0.0000	-0.0000	0.0000	-0.0000	0.0000	-0.0000	-0.0000	-0.0000	-0.0000	0.0000	0.0000	0.0000	-0.0000	0.0000	0.0000	0.0000	0.0000	-0.0000	-0.0000	0.0000	0.0000	-0.0000	0.0000	-0.0000	-0.0000	-0.0000	0.0000	0.0000	-0.0000	-0.0000	-0.0000	0.0000	0.0000	-0.0000	0.0000	-0.0000	0.0000	0.0000	-0.0000	-0.0000	0.0000	0.0000	0.0000	-0.0000	0.0000	-0.0000	-0.0000	-0.0000	-0.0000	-0.0000	0.0000	-0.0000	0.0000	-0.0000	0.0000	0.0000	0.0000	0.0000	-0.0000	-0.0000	-0.0000	0.0000	-0.0000	-0.0000	-0.0000	-0.0000	0.0000	0.0000	-0.0000	-0.0000	0.0000	-0.0000	0.0000	-0.0000	-0.0000	0.0000	0.0000	-0.0000	0.0000	-0.0000	0.0000	0.0000	-0.0000	0.0000	-0.0000	0.0000	0.0000	-0.0000	-0.0000	0.0000	0.0000	-0.0000	-0.0000	-0.0000	-0.0000	-0.0000	-0.0000	-0.0000	-0.0000	0.0000	-0.0000	0.0000	-0.0000	0.0000	0.0000	0.0000	0.0000	-0.0000	-0.0000	-0.0000	0.0000	-0.0000	-0.0000	-0.0000	-0.0000	0.0000	-0.0000	-0.0000	-0.0000	0.0000	0.0000	0.0000	-0.0000	-0.0000	0.0000	0.0000	-0.0000	0.0000	-0.0000	0.0000	0.0000	-0.0000	0.0000	-0.0000	0.0000	0.0000	-0.0000	-0.0000	0.0000	0.0000	-0.0000	-0.0000	-0.0000	-0.0000	-0.0000	-0.0000	-0.0000	-0.0000	0.0000	-0.0000	0.0000	-0.0000	0.0000	0.0000	0.0000	0.0000	-0.0000	-0.0000	-0.0000	0.0000	-0.0000	-0.0000	-0.0000	-0.0000	0.0000	-0.0000	-0.0000	-0.0000	0.0000	0.0000	0.0000	-0.0000	-0.0000	0.0000	0.0000	-0.0000	0.0000	-0.0000	0.0000	0.0000	-0.0000	0.0000	-0.0000	0.0000	0.0000	-0.0000	-0.0000	0.0000	0.0000	-0.0000	-0.0000	-0.0000	-0.0000	-0.0000	-0.0000	-0.0000	-0.0000	0.0000	-0.0000	0.0000	-0.0000	0.0000	0.0000	0.0000	0.0000	-0.0000	-0.0000	-0.0000	0.0000	-0.0000	-0.0000	-0.0000	-0.0000	0.0000	-0.0000	-0.0000	-0.0000	0.0000	0.0000	0.0000	-0.0000	-0.0000	0.0000	0.0000	-0.0000	0.0000	-0.0000	0.0000	0.0000	-0.0000	0.0000	-0.0000	0.0000	0.0000	-0.0000	-0.0000	0.0000	0.0000	-0.0000	-0.0000	-0.0000	-0.0000	-0.0000	-0.0000	-0.0000	-0.0000	0.0000	-0.0000	0.0000	-0.0000	0.0000	0.0000	0.0000	0.0000	-0.0000	-0.0000	-0.0000	0.0000	-0.0000	-0.0000	-0.0000	-0.0000	0.0000	-0.0000	-0.0000	-0.0000	0.0000	0.0000	0.0000	-0.0000	-0.0000	0.0000	0.0000	-0.0000	0.0000	-0.0000	0.0000	0.0000	-0.0000	0.0000	-0.0000	0.0000	0.0000	-0.0000	-0.0000	0.0000	0.0000	-0.0000	-0.0000	-0.0000	0.0000	-0.0000	-0.0000	-0.0000	-0.0000	0.0000	-0.0000	0.0000	-0.0000	0.0000	0.0000	0.0000	0.0000	-0.0000	-0.0000	-0.0000	0.0000	-0.0000	-0.0000	-0.0000	-0.0000	0.0000	-0.0000	-0.0000	-0.0000	0.0000	0.0000	0.0000	-0.0000	-0.0000	0.0000	0.0000	-0.0000	0.0000	-0.0000	0.0000	0.0000	-0.0000	0.0000	-0.0000	0.0000	0.0000	-0.0000	-0.0000	0.0000	0.0000	-0.0000	-0.0000	-0.0000	0.0000	-0.0000	-0.0000	-0.0000	-0.0000	0.0000	-0.0000	0.0000	-0.0000	0.0000	0.0000	0.0000	0.0000	-0.0000	-0.0000	-0.0000	0.0000	-0.0000	-0.0000	-0.0000	-0.0000	0.0000	-0.0000	-0.0000	-0.0000	0.0000	0.0000	0.0000	-0.0000	-0.0000	0.0000	0.0000	-0.0000	0.0000	-0.0000	0.0000	0.0000	-0.0000	0.0000	-0.0000	0.0000	0.0000	-0.0000	-0.0000	0.0000	0.0000	-0.0000	-0.0000	-0.0000	0.0000	-0.0000	-0.0000	-0.0000	-0.0000	0.0000	-0.0000	0.0000	-0.0000	0.0000	0.0000	0.0000	0.0000	-0.0000	-0.0000	-0.0000	0.0000	-0.0000	-0.0000	-0.0000	-0.0000	0.0000	-0.0000	-0.0000	-0.0000	0.0000	0.0000	-0.0000	0.0000	0.0000	-0.0000	-0.0000	0.0000	-0.0000	0.0000	-0.0000	-0.0000	0.0000	-0.0000	0.0000	-0.0000	-0.0000	0.0000	0.0000	-0.0000	-0.0000	0.0000	0.0000	0.0000	-0.0000	0.0000	0.0000	0.0000	0.0000	-0.0000	0.0000	-0.0000	0.0000	-0.0000	-0.0000	-0.0000	-0.0000	0.0000	0.0000	0.0000	-0.0000	0.0000	0.0000	0.0000	0.0000	-0.0000	0.0000	0.0000	0.0000	-0.0000	-0.0000	1.0000	1.0000	1.0000	1.0000	1.0000	1.0000	1.0000	1.0000	1.0000	1.0000	1.0000	1.0000	1.0000	1.0000	1.0000	1.0000	1.0000	1.0000	1.0000	1.0000	1.0000	1.0000	1.0000	1.0000	1.0000	1.0000	1.0000	1.0000	1.0000	1.0000	1.0000	1.0000	1.0000	1.0000	1.0000	1.0000	1.0000	1.0000	1.0000	1.0000	1.0000	1.0000	1.0000	1.0000	1.0000	1.0000	1.0000	1.0000	1.0000	0.0625	0.0625	0.0625	0.0625	0.0625	0.0312	0.0312	0.0625	0.0625	0.0625	0.0312	0.0312	0.0625	0.0625	0.0625	0.0312	0.0312	0.0625	0.0625	0.0625	0.0312	0.0312	0.0625	0.0625	0.0625	0.0312	0.0312	0.0625	0.0625	0.0625	0.0312	0.0312	0.0625	0.0625	0.0625	0.0312	0.0312	0.0625	0.0625	0.0625	0.0312	0.0312	0.0625	0.0625	0.0625	0.0312	0.0312	0.0625	0.0625	0.0625	0.0625	0.0625	0.0625	0.0625	0.0625	0.0625	0.0625	0.0312	0.0312	0.0625	0.0625	0.0625	0.0312	0.0312	0.0625	0.0625	0.0625	0.0312	0.0312	0.0625	0.0625	0.0625	0.0312	0.0312	0.0625	0.0625	0.0625	0.0312	0.0312	0.0625	0.0625	0.0625	0.0312	0.0312	0.0625	0.0625	0.0625	0.0312	0.0312	0.0625	0.0625	0.0625	0.0312	0.0312	0.0625	0.0625	0.0625	0.0312	0.0312	0.0625	0.0625	0.0625	0.0625	0.0625	0.0625	0.0625	0.0625	0.0625	0.0625	0.0312	0.0312	0.0625	0.0625	0.0625	0.0312	0.0312	0.0625	0.0625	0.0625	0.0312	0.0312	0.0625	0.0625	0.0625	0.0312	0.0312	0.0625	0.0625	0.0625	0.0312	0.0312	0.0625	0.0625	0.0625	0.0312	0.0312	0.0625	0.0625	0.0625	0.0312	0.0312	0.0625	0.0625	0.0625	0.0312	0.0312	0.0625	0.0625	0.0625	0.0312	0.0312	0.0625	0.0625	0.0625	0.0625	0.0625	0.0625	0.0625	0.0625	0.0625	0.0625	0.0312	0.0312	0.0625	0.0625	0.0625	0.0312	0.0312	0.0625	0.0625	0.0625	0.0312	0.0312	0.0625	0.0625	0.0625	0.0312	0.0312	0.0625	0.0625	0.0625	0.0312	0.0312	0.0625	0.0625	0.0625	0.0312	0.0312	0.0625	0.0625	0.0625	0.0312	0.0312	0.0625	0.0625	0.0625	0.0312	0.0312	0.0625	0.0625	0.0625	0.0312	0.0312	0.0625	0.0625	0.0625	0.0625	0.0625	0.0625	0.0625	0.0625	0.0625	0.0625	0.0312	0.0312	0.0625	0.0625	0.0625	0.0312	0.0312	0.0625	0.0625	0.0625	0.0312	0.0312	0.0625	0.0625	0.0625	0.0312	0.0312	0.0625	0.0625	0.0625	0.0312	0.0312	0.0625	0.0625	0.0625	0.0312	0.0312	0.0625	0.0625	0.0625	0.0312	0.0312	0.0625	0.0625	0.0625	0.0312	0.0312	0.0625	0.0625	0.0625	0.0312	0.0312	0.0625	0.0625	0.0625	0.0625	0.0625	0.0312	0.0312	0.0312	0.0312	0.0312	0.0156	0.0156	0.0312	0.0312	0.0312	0.0156	0.0156	0.0312	0.0312	0.0312	0.0156	0.0156	0.0312	0.0312	0.0312	0.0156	0.0156	0.0312	0.0312	0.0312	0.0156	0.0156	0.0312	0.0312	0.0312	0.0156	0.0156	0.0312	0.0312	0.0312	0.0156	0.0156	0.0312	0.0312	0.0312	0.0156	0.0156	0.0312	0.0312	0.0312	0.0156	0.0156	0.0312	0.0312	0.0312	0.0312	0.0312	0.0312	0.0312	0.0312	0.0312	0.0312	0.0156	0.0156	0.0312	0.0312	0.0312	0.0156	0.0156	0.0312	0.0312	0.0312	0.0156	0.0156	0.0312	0.0312	0.0312	0.0156	0.0156	0.0312	0.0312	0.0312	0.0156	0.0156	0.0312	0.0312	0.0312	0.0156	0.0156	0.0312	0.0312	0.0312	0.0156	0.0156	0.0312	0.0312	0.0312	0.0156	0.0156	0.0312	0.0312	0.0312	0.0156	0.0156	0.0312	0.0312	0.0312	0.0312	0.0312	0.0625	0.0625	0.0625	0.0625	0.0625	0.0312	0.0312	0.0625	0.0625	0.0625	0.0312	0.0312	0.0625	0.0625	0.0625	0.0312	0.0312	0.0625	0.0625	0.0625	0.0312	0.0312	0.0625	0.0625	0.0625	0.0312	0.0312	0.0625	0.0625	0.0625	0.0312	0.0312	0.0625	0.0625	0.0625	0.0312	0.0312	0.0625	0.0625	0.0625	0.0312	0.0312	0.0625	0.0625	0.0625	0.0312	0.0312	0.0625	0.0625	0.0625	0.0625	0.0625	0.0625	0.0625	0.0625	0.0625	0.0625	0.0312	0.0312	0.0625	0.0625	0.0625	0.0312	0.0312	0.0625	0.0625	0.0625	0.0312	0.0312	0.0625	0.0625	0.0625	0.0312	0.0312	0.0625	0.0625	0.0625	0.0312	0.0312	0.0625	0.0625	0.0625	0.0312	0.0312	0.0625	0.0625	0.0625	0.0312	0.0312	0.0625	0.0625	0.0625	0.0312	0.0312	0.0625	0.0625	0.0625	0.0312	0.0312	0.0625	0.0625	0.0625	0.0625	0.0625	0.0625	0.0625	0.0625	0.0625	0.0625	0.0312	0.0312	0.0625	0.0625	0.0625	0.0312	0.0312	0.0625	0.0625	0.0625	0.0312	0.0312	0.0625	0.0625	0.0625	0.0312	0.0312	0.0625	0.0625	0.0625	0.0312	0.0312	0.0625	0.0625	0.0625	0.0312	0.0312	0.0625	0.0625	0.0625	0.0312	0.0312	0.0625	0.0625	0.0625	0.0312	0.0312	0.0625	0.0625	0.0625	0.0312	0.0312	0.0625	0.0625	0.0625	0.0625	0.0625	0.0312	0.0312	0.0312	0.0312	0.0312	0.0156	0.0156	0.0312	0.0312	0.0312	0.0156	0.0156	0.0312	0.0312	0.0312	0.0156	0.0156	0.0312	0.0312	0.0312	0.0156	0.0156	0.0312	0.0312	0.0312	0.0156	0.0156	0.0312	0.0312	0.0312	0.0156	0.0156	0.0312	0.0312	0.0312	0.0156	0.0156	0.0312	0.0312	0.0312	0.0156	0.0156	0.0312	0.0312	0.0312	0.0156	0.0156	0.0312	0.0312	0.0312	0.0312	0.0312	0.0312	0.0312	0.0312	0.0312	0.0312	0.0156	0.0156	0.0312	0.0312	0.0312	0.0156	0.0156	0.0312	0.0312	0.0312	0.0156	0.0156	0.0312	0.0312	0.0312	0.0156	0.0156	0.0312	0.0312	0.0312	0.0156	0.0156	0.0312	0.0312	0.0312	0.0156	0.0156	0.0312	0.0312	0.0312	0.0156	0.0156	0.0312	0.0312	0.0312	0.0156	0.0156	0.0312	0.0312	0.0312	0.0156	0.0156	0.0312	0.0312	0.0312	0.0312	0.0312	0.0625	0.0625	0.0625	0.0625	0.0625	0.0312	0.0312	0.0625	0.0625	0.0625	0.0312	0.0312	0.0625	0.0625	0.0625	0.0312	0.0312	0.0625	0.0625	0.0625	0.0312	0.0312	0.0625	0.0625	0.0625	0.0312	0.0312	0.0625	0.0625	0.0625	0.0312	0.0312	0.0625	0.0625	0.0625	0.0312	0.0312	0.0625	0.0625	0.0625	0.0312	0.0312	0.0625	0.0625	0.0625	0.0312	0.0312	0.0625	0.0625	0.0625	0.0625	0.0625	0.0625	0.0625	0.0625	0.0625	0.0625	0.0312	0.0312	0.0625	0.0625	0.0625	0.0312	0.0312	0.0625	0.0625	0.0625	0.0312	0.0312	0.0625	0.0625	0.0625	0.0312	0.0312	0.0625	0.0625	0.0625	0.0312	0.0312	0.0625	0.0625	0.0625	0.0312	0.0312	0.0625	0.0625	0.0625	0.0312	0.0312	0.0625	0.0625	0.0625	0.0312	0.0312	0.0625	0.0625	0.0625	0.0312	0.0312	0.0625	0.0625	0.0625	0.0625	0.0625	0.0625	0.0625	0.0625	0.0625	0.0625	0.0312	0.0312	0.0625	0.0625	0.0625	0.0312	0.0312	0.0625	0.0625	0.0625	0.0312	0.0312	0.0625	0.0625	0.0625	0.0312	0.0312	0.0625	0.0625	0.0625	0.0312	0.0312	0.0625	0.0625	0.0625	0.0312	0.0312	0.0625	0.0625	0.0625	0.0312	0.0312	0.0625	0.0625	0.0625	0.0312	0.0312	0.0625	0.0625	0.0625	0.0312	0.0312	0.0625	0.0625	0.0625	0.0625	0.0625	0.0312	0.0312	0.0312	0.0312	0.0312	0.0156	0.0156	0.0312	0.0312	0.0312	0.0156	0.0156	0.0312	0.0312	0.0312	0.0156	0.0156	0.0312	0.0312	0.0312	0.0156	0.0156	0.0312	0.0312	0.0312	0.0156	0.0156	0.0312	0.0312	0.0312	0.0156	0.0156	0.0312	0.0312	0.0312	0.0156	0.0156	0.0312	0.0312	0.0312	0.0156	0.0156	0.0312	0.0312	0.0312	0.0156	0.0156	0.0312	0.0312	0.0312	0.0312	0.0312	0.0312	0.0312	0.0312	0.0312	0.0312	0.0156	0.0156	0.0312	0.0312	0.0312	0.0156	0.0156	0.0312	0.0312	0.0312	0.0156	0.0156	0.0312	0.0312	0.0312	0.0156	0.0156	0.0312	0.0312	0.0312	0.0156	0.0156	0.0312	0.0312	0.0312	0.0156	0.0156	0.0312	0.0312	0.0312	0.0156	0.0156	0.0312	0.0312	0.0312	0.0156	0.0156	0.0312	0.0312	0.0312	0.0156	0.0156	0.0312	0.0312	0.0312	0.0312	0.0312	0.0625	0.0625	0.0625	0.0625	0.0625	0.0312	0.0312	0.0625	0.0625	0.0625	0.0312	0.0312	0.0625	0.0625	0.0625	0.0312	0.0312	0.0625	0.0625	0.0625	0.0312	0.0312	0.0625	0.0625	0.0625	0.0312	0.0312	0.0625	0.0625	0.0625	0.0312	0.0312	0.0625	0.0625	0.0625	0.0312	0.0312	0.0625	0.0625	0.0625	0.0312	0.0312	0.0625	0.0625	0.0625	0.0312	0.0312	0.0625	0.0625	0.0625	0.0625	0.0625	0.0625	0.0625	0.0625	0.0625	0.0625	0.0312	0.0312	0.0625	0.0625	0.0625	0.0312	0.0312	0.0625	0.0625	0.0625	0.0312	0.0312	0.0625	0.0625	0.0625	0.0312	0.0312	0.0625	0.0625	0.0625	0.0312	0.0312	0.0625	0.0625	0.0625	0.0312	0.0312	0.0625	0.0625	0.0625	0.0312	0.0312	0.0625	0.0625	0.0625	0.0312	0.0312	0.0625	0.0625	0.0625	0.0312	0.0312	0.0625	0.0625	0.0625	0.0625	0.0625	0.0625	0.0625	0.0625	0.0625	0.0625	0.0312	0.0312	0.0625	0.0625	0.0625	0.0312	0.0312	0.0625	0.0625	0.0625	0.0312	0.0312	0.0625	0.0625	0.0625	0.0312	0.0312	0.0625	0.0625	0.0625	0.0312	0.0312	0.0625	0.0625	0.0625	0.0312	0.0312	0.0625	0.0625	0.0625	0.0312	0.0312	0.0625	0.0625	0.0625	0.0312	0.0312	0.0625	0.0625	0.0625	0.0312	0.0312	0.0625	0.0625	0.0625	0.0625	0.0625	0.0312	0.0312	0.0312	0.0312	0.0312	0.0156	0.0156	0.0312	0.0312	0.0312	0.0156	0.0156	0.0312	0.0312	0.0312	0.0156	0.0156	0.0312	0.0312	0.0312	0.0156	0.0156	0.0312	0.0312	0.0312	0.0156	0.0156	0.0312	0.0312	0.0312	0.0156	0.0156	0.0312	0.0312	0.0312	0.0156	0.0156	0.0312	0.0312	0.0312	0.0156	0.0156	0.0312	0.0312	0.0312	0.0156	0.0156	0.0312	0.0312	0.0312	0.0312	0.0312	0.0312	0.0312	0.0312	0.0312	0.0312	0.0156	0.0156	0.0312	0.0312	0.0312	0.0156	0.0156	0.0312	0.0312	0.0312	0.0156	0.0156	0.0312	0.0312	0.0312	0.0156	0.0156	0.0312	0.0312	0.0312	0.0156	0.0156	0.0312	0.0312	0.0312	0.0156	0.0156	0.0312	0.0312	0.0312	0.0156	0.0156	0.0312	0.0312	0.0312	0.0156	0.0156	0.0312	0.0312	0.0312	0.0156	0.0156	0.0312	0.0312	0.0312	0.0312	0.0312	0.0625	0.0625	0.0625	0.0625	0.0625	0.0312	0.0312	0.0625	0.0625	0.0625	0.0312	0.0312	0.0625	0.0625	0.0625	0.0312	0.0312	0.0625	0.0625	0.0625	0.0312	0.0312	0.0625	0.0625	0.0625	0.0312	0.0312	0.0625	0.0625	0.0625	0.0312	0.0312	0.0625	0.0625	0.0625	0.0312	0.0312	0.0625	0.0625	0.0625	0.0312	0.0312	0.0625	0.0625	0.0625	0.0312	0.0312	0.0625	0.0625	0.0625	0.0625	0.0625	0.0625	0.0625	0.0625	0.0625	0.0625	0.0312	0.0312	0.0625	0.0625	0.0625	0.0312	0.0312	0.0625	0.0625	0.0625	0.0312	0.0312	0.0625	0.0625	0.0625	0.0312	0.0312	0.0625	0.0625	0.0625	0.0312	0.0312	0.0625	0.0625	0.0625	0.0312	0.0312	0.0625	0.0625	0.0625	0.0312	0.0312	0.0625	0.0625	0.0625	0.0312	0.0312	0.0625	0.0625	0.0625	0.0312	0.0312	0.0625	0.0625	0.0625	0.0625	0.0625	0.0625	0.0625	0.0625	0.0625	0.0625	0.0312	0.0312	0.0625	0.0625	0.0625	0.0312	0.0312	0.0625	0.0625	0.0625	0.0312	0.0312	0.0625	0.0625	0.0625	0.0312	0.0312	0.0625	0.0625	0.0625	0.0312	0.0312	0.0625	0.0625	0.0625	0.0312	0.0312	0.0625	0.0625	0.0625	0.0312	0.0312	0.0625	0.0625	0.0625	0.0312	0.0312	0.0625	0.0625	0.0625	0.0312	0.0312	0.0625	0.0625	0.0625	0.0625	0.0625	0.0312	0.0312	0.0312	0.0312	0.0312	0.0156	0.0156	0.0312	0.0312	0.0312	0.0156	0.0156	0.0312	0.0312	0.0312	0.0156	0.0156	0.0312	0.0312	0.0312	0.0156	0.0156	0.0312	0.0312	0.0312	0.0156	0.0156	0.0312	0.0312	0.0312	0.0156	0.0156	0.0312	0.0312	0.0312	0.0156	0.0156	0.0312	0.0312	0.0312	0.0156	0.0156	0.0312	0.0312	0.0312	0.0156	0.0156	0.0312	0.0312	0.0312	0.0312	0.0312	0.0312	0.0312	0.0312	0.0312	0.0312	0.0156	0.0156	0.0312	0.0312	0.0312	0.0156	0.0156	0.0312	0.0312	0.0312	0.0156	0.0156	0.0312	0.0312	0.0312	0.0156	0.0156	0.0312	0.0312	0.0312	0.0156	0.0156	0.0312	0.0312	0.0312	0.0156	0.0156	0.0312	0.0312	0.0312	0.0156	0.0156	0.0312	0.0312	0.0312	0.0156	0.0156	0.0312	0.0312	0.0312	0.0156	0.0156	0.0312	0.0312	0.0312	0.0312	0.0312	0.0625	0.0625	0.0625	0.0625	0.0625	0.0312	0.0312	0.0625	0.0625	0.0625	0.0312	0.0312	0.0625	0.0625	0.0625	0.0312	0.0312	0.0625	0.0625	0.0625	0.0312	0.0312	0.0625	0.0625	0.0625	0.0312	0.0312	0.0625	0.0625	0.0625	0.0312	0.0312	0.0625	0.0625	0.0625	0.0312	0.0312	0.0625	0.0625	0.0625	0.0312	0.0312	0.0625	0.0625	0.0625	0.0312	0.0312	0.0625	0.0625	0.0625	0.0625	0.0625	0.0625	0.0625	0.0625	0.0625	0.0625	0.0312	0.0312	0.0625	0.0625	0.0625	0.0312	0.0312	0.0625	0.0625	0.0625	0.0312	0.0312	0.0625	0.0625	0.0625	0.0312	0.0312	0.0625	0.0625	0.0625	0.0312	0.0312	0.0625	0.0625	0.0625	0.0312	0.0312	0.0625	0.0625	0.0625	0.0312	0.0312	0.0625	0.0625	0.0625	0.0312	0.0312	0.0625	0.0625	0.0625	0.0312	0.0312	0.0625	0.0625	0.0625	0.0625	0.0625	0.0625	0.0625	0.0625	0.0625	0.0625	0.0312	0.0312	0.0625	0.0625	0.0625	0.0312	0.0312	0.0625	0.0625	0.0625	0.0312	0.0312	0.0625	0.0625	0.0625	0.0312	0.0312	0.0625	0.0625	0.0625	0.0312	0.0312	0.0625	0.0625	0.0625	0.0312	0.0312	0.0625	0.0625	0.0625	0.0312	0.0312	0.0625	0.0625	0.0625	0.0312	0.0312	0.0625	0.0625	0.0625	0.0312	0.0312	0.0625	0.0625	0.0625	0.0625	0.0625	0.0312	0.0312	0.0312	0.0312	0.0312	0.0156	0.0156	0.0312	0.0312	0.0312	0.0156	0.0156	0.0312	0.0312	0.0312	0.0156	0.0156	0.0312	0.0312	0.0312	0.0156	0.0156	0.0312	0.0312	0.0312	0.0156	0.0156	0.0312	0.0312	0.0312	0.0156	0.0156	0.0312	0.0312	0.0312	0.0156	0.0156	0.0312	0.0312	0.0312	0.0156	0.0156	0.0312	0.0312	0.0312	0.0156	0.0156	0.0312	0.0312	0.0312	0.0312	0.0312	0.0312	0.0312	0.0312	0.0312	0.0312	0.0156	0.0156	0.0312	0.0312	0.0312	0.0156	0.0156	0.0312	0.0312	0.0312	0.0156	0.0156	0.0312	0.0312	0.0312	0.0156	0.0156	0.0312	0.0312	0.0312	0.0156	0.0156	0.0312	0.0312	0.0312	0.0156	0.0156	0.0312	0.0312	0.0312	0.0156	0.0156	0.0312	0.0312	0.0312	0.0156	0.0156	0.0312	0.0312	0.0312	0.0156	0.0156	0.0312	0.0312	0.0312	0.0312	0.0312	0.0625	0.0625	0.0625	0.0625	0.0625	0.0312	0.0312	0.0625	0.0625	0.0625	0.0312	0.0312	0.0625	0.0625	0.0625	0.0312	0.0312	0.0625	0.0625	0.0625	0.0312	0.0312	0.0625	0.0625	0.0625	0.0312	0.0312	0.0625	0.0625	0.0625	0.0312	0.0312	0.0625	0.0625	0.0625	0.0312	0.0312	0.0625	0.0625	0.0625	0.0312	0.0312	0.0625	0.0625	0.0625	0.0312	0.0312	0.0625	0.0625	0.0625	0.0625	0.0625	0.0625	0.0625	0.0625	0.0625	0.0625	0.0312	0.0312	0.0625	0.0625	0.0625	0.0312	0.0312	0.0625	0.0625	0.0625	0.0312	0.0312	0.0625	0.0625	0.0625	0.0312	0.0312	0.0625	0.0625	0.0625	0.0312	0.0312	0.0625	0.0625	0.0625	0.0312	0.0312	0.0625	0.0625	0.0625	0.0312	0.0312	0.0625	0.0625	0.0625	0.0312	0.0312	0.0625	0.0625	0.0625	0.0312	0.0312	0.0625	0.0625	0.0625	0.0625	0.0625	0.0625	0.0625	0.0625	0.0625	0.0625	0.0312	0.0312	0.0625	0.0625	0.0625	0.0312	0.0312	0.0625	0.0625	0.0625	0.0312	0.0312	0.0625	0.0625	0.0625	0.0312	0.0312	0.0625	0.0625	0.0625	0.0312	0.0312	0.0625	0.0625	0.0625	0.0312	0.0312	0.0625	0.0625	0.0625	0.0312	0.0312	0.0625	0.0625	0.0625	0.0312	0.0312	0.0625	0.0625	0.0625	0.0312	0.0312	0.0625	0.0625	0.0625	0.0625	0.0625	0.0312	0.0312	0.0312	0.0312	0.0312	0.0156	0.0156	0.0312	0.0312	0.0312	0.0156	0.0156	0.0312	0.0312	0.0312	0.0156	0.0156	0.0312	0.0312	0.0312	0.0156	0.0156	0.0312	0.0312	0.0312	0.0156	0.0156	0.0312	0.0312	0.0312	0.0156	0.0156	0.0312	0.0312	0.0312	0.0156	0.0156	0.0312	0.0312	0.0312	0.0156	0.0156	0.0312	0.0312	0.0312	0.0156	0.0156	0.0312	0.0312	0.0312	0.0312	0.0312	0.0312	0.0312	0.0312	0.0312	0.0312	0.0156	0.0156	0.0312	0.0312	0.0312	0.0156	0.0156	0.0312	0.0312	0.0312	0.0156	0.0156	0.0312	0.0312	0.0312	0.0156	0.0156	0.0312	0.0312	0.0312	0.0156	0.0156	0.0312	0.0312	0.0312	0.0156	0.0156	0.0312	0.0312	0.0312	0.0156	0.0156	0.0312	0.0312	0.0312	0.0156	0.0156	0.0312	0.0312	0.0312	0.0156	0.0156	0.0312	0.0312	0.0312	0.0312	0.0312	0.0625	0.0625	0.0625	0.0625	0.0625	0.0312	0.0312	0.0625	0.0625	0.0625	0.0312	0.0312	0.0625	0.0625	0.0625	0.0312	0.0312	0.0625	0.0625	0.0625	0.0312	0.0312	0.0625	0.0625	0.0625	0.0312	0.0312	0.0625	0.0625	0.0625	0.0312	0.0312	0.0625	0.0625	0.0625	0.0312	0.0312	0.0625	0.0625	0.0625	0.0312	0.0312	0.0625	0.0625	0.0625	0.0312	0.0312	0.0625	0.0625	0.0625	0.0625	0.0625	0.0625	0.0625	0.0625	0.0625	0.0625	0.0312	0.0312	0.0625	0.0625	0.0625	0.0312	0.0312	0.0625	0.0625	0.0625	0.0312	0.0312	0.0625	0.0625	0.0625	0.0312	0.0312	0.0625	0.0625	0.0625	0.0312	0.0312	0.0625	0.0625	0.0625	0.0312	0.0312	0.0625	0.0625	0.0625	0.0312	0.0312	0.0625	0.0625	0.0625	0.0312	0.0312	0.0625	0.0625	0.0625	0.0312	0.0312	0.0625	0.0625	0.0625	0.0625	0.0625	0.0625	0.0625	0.0625	0.0625	0.0625	0.0312	0.0312	0.0625	0.0625	0.0625	0.0312	0.0312	0.0625	0.0625	0.0625	0.0312	0.0312	0.0625	0.0625	0.0625	0.0312	0.0312	0.0625	0.0625	0.0625	0.0312	0.0312	0.0625	0.0625	0.0625	0.0312	0.0312	0.0625	0.0625	0.0625	0.0312	0.0312	0.0625	0.0625	0.0625	0.0312	0.0312	0.0625	0.0625	0.0625	0.0312	0.0312	0.0625	0.0625	0.0625	0.0625	0.0625	0.0312	0.0312	0.0312	0.0312	0.0312	0.0156	0.0156	0.0312	0.0312	0.0312	0.0156	0.0156	0.0312	0.0312	0.0312	0.0156	0.0156	0.0312	0.0312	0.0312	0.0156	0.0156	0.0312	0.0312	0.0312	0.0156	0.0156	0.0312	0.0312	0.0312	0.0156	0.0156	0.0312	0.0312	0.0312	0.0156	0.0156	0.0312	0.0312	0.0312	0.0156	0.0156	0.0312	0.0312	0.0312	0.0156	0.0156	0.0312	0.0312	0.0312	0.0312	0.0312	0.0312	0.0312	0.0312	0.0312	0.0312	0.0156	0.0156	0.0312	0.0312	0.0312	0.0156	0.0156	0.0312	0.0312	0.0312	0.0156	0.0156	0.0312	0.0312	0.0312	0.0156	0.0156	0.0312	0.0312	0.0312	0.0156	0.0156	0.0312	0.0312	0.0312	0.0156	0.0156	0.0312	0.0312	0.0312	0.0156	0.0156	0.0312	0.0312	0.0312	0.0156	0.0156	0.0312	0.0312	0.0312	0.0156	0.0156	0.0312	0.0312	0.0312	0.0312	0.0312	0.0625	0.0625	0.0625	0.0625	0.0625	0.0312	0.0312	0.0625	0.0625	0.0625	0.0312	0.0312	0.0625	0.0625	0.0625	0.0312	0.0312	0.0625	0.0625	0.0625	0.0312	0.0312	0.0625	0.0625	0.0625	0.0312	0.0312	0.0625	0.0625	0.0625	0.0312	0.0312	0.0625	0.0625	0.0625	0.0312	0.0312	0.0625	0.0625	0.0625	0.0312	0.0312	0.0625	0.0625	0.0625	0.0312	0.0312	0.0625	0.0625	0.0625	0.0625	0.0625	0.0625	0.0625	0.0625	0.0625	0.0625	0.0312	0.0312	0.0625	0.0625	0.0625	0.0312	0.0312	0.0625	0.0625	0.0625	0.0312	0.0312	0.0625	0.0625	0.0625	0.0312	0.0312	0.0625	0.0625	0.0625	0.0312	0.0312	0.0625	0.0625	0.0625	0.0312	0.0312	0.0625	0.0625	0.0625	0.0312	0.0312	0.0625	0.0625	0.0625	0.0312	0.0312	0.0625	0.0625	0.0625	0.0312	0.0312	0.0625	0.0625	0.0625	0.0625	0.0625	0.0625	0.0625	0.0625	0.0625	0.0625	0.0312	0.0312	0.0625	0.0625	0.0625	0.0312	0.0312	0.0625	0.0625	0.0625	0.0312	0.0312	0.0625	0.0625	0.0625	0.0312	0.0312	0.0625	0.0625	0.0625	0.0312	0.0312	0.0625	0.0625	0.0625	0.0312	0.0312	0.0625	0.0625	0.0625	0.0312	0.0312	0.0625	0.0625	0.0625	0.0312	0.0312	0.0625	0.0625	0.0625	0.0312	0.0312	0.0625	0.0625	0.0625	0.0625	0.0625	0.0312	0.0312	0.0312	0.0312	0.0312	0.0156	0.0156	0.0312	0.0312	0.0312	0.0156	0.0156	0.0312	0.0312	0.0312	0.0156	0.0156	0.0312	0.0312	0.0312	0.0156	0.0156	0.0312	0.0312	0.0312	0.0156	0.0156	0.0312	0.0312	0.0312	0.0156	0.0156	0.0312	0.0312	0.0312	0.0156	0.0156	0.0312	0.0312	0.0312	0.0156	0.0156	0.0312	0.0312	0.0312	0.0156	0.0156	0.0312	0.0312	0.0312	0.0312	0.0312	0.0312	0.0312	0.0312	0.0312	0.0312	0.0156	0.0156	0.0312	0.0312	0.0312	0.0156	0.0156	0.0312	0.0312	0.0312	0.0156	0.0156	0.0312	0.0312	0.0312	0.0156	0.0156	0.0312	0.0312	0.0312	0.0156	0.0156	0.0312	0.0312	0.0312	0.0156	0.0156	0.0312	0.0312	0.0312	0.0156	0.0156	0.0312	0.0312	0.0312	0.0156	0.0156	0.0312	0.0312	0.0312	0.0156	0.0156	0.0312	0.0312	0.0312	0.0312	0.0312	0.0625	0.0625	0.0625	0.0625	0.0625	0.0312	0.0312	0.0625	0.0625	0.0625	0.0312	0.0312	0.0625	0.0625	0.0625	0.0312	0.0312	0.0625	0.0625	0.0625	0.0312	0.0312	0.0625	0.0625	0.0625	0.0312	0.0312	0.0625	0.0625	0.0625	0.0312	0.0312	0.0625	0.0625	0.0625	0.0312	0.0312	0.0625	0.0625	0.0625	0.0312	0.0312	0.0625	0.0625	0.0625	0.0312	0.0312	0.0625	0.0625	0.0625	0.0625	0.0625	0.0625	0.0625	0.0625	0.0625	0.0625	0.0312	0.0312	0.0625	0.0625	0.0625	0.0312	0.0312	0.0625	0.0625	0.0625	0.0312	0.0312	0.0625	0.0625	0.0625	0.0312	0.0312	0.0625	0.0625	0.0625	0.0312	0.0312	0.0625	0.0625	0.0625	0.0312	0.0312	0.0625	0.0625	0.0625	0.0312	0.0312	0.0625	0.0625	0.0625	0.0312	0.0312	0.0625	0.0625	0.0625	0.0312	0.0312	0.0625	0.0625	0.0625	0.0625	0.0625	0.0625	0.0625	0.0625	0.0625	0.0625	0.0312	0.0312	0.0625	0.0625	0.0625	0.0312	0.0312	0.0625	0.0625	0.0625	0.0312	0.0312	0.0625	0.0625	0.0625	0.0312	0.0312	0.0625	0.0625	0.0625	0.0312	0.0312	0.0625	0.0625	0.0625	0.0312	0.0312	0.0625	0.0625	0.0625	0.0312	0.0312	0.0625	0.0625	0.0625	0.0312	0.0312	0.0625	0.0625	0.0625	0.0312	0.0312	0.0625	0.0625	0.0625	0.0625	0.0625	0.0625	0.0625	0.0625	0.0625	0.0625	0.0312	0.0312	0.0625	0.0625	0.0625	0.0312	0.0312	0.0625	0.0625	0.0625	0.0312	0.0312	0.0625	0.0625	0.0625	0.0312	0.0312	0.0625	0.0625	0.0625	0.0312	0.0312	0.0625	0.0625	0.0625	0.0312	0.0312	0.0625	0.0625	0.0625	0.0312	0.0312	0.0625	0.0625	0.0625	0.0312	0.0312	0.0625	0.0625	0.0625	0.0312	0.0312	0.0625	0.0625	0.0625	0.0625	0.0625	0.0625	0.0625	0.0625	0.0625	0.0625	0.0312	0.0312	0.0625	0.0625	0.0625	0.0312	0.0312	0.0625	0.0625	0.0625	0.0312	0.0312	0.0625	0.0625	0.0625	0.0312	0.0312	0.0625	0.0625	0.0625	0.0312	0.0312	0.0625	0.0625	0.0625	0.0312	0.0312	0.0625	0.0625	0.0625	0.0312	0.0312	0.0625	0.0625	0.0625	0.0312	0.0312	0.0625	0.0625	0.0625	0.0312	0.0312	0.0625	0.0625	0.0625	0.0625	0.0625	