0.0015	-0.2025	-0.0740	-0.0248	-0.0236	-0.0786	-0.0557	-0.1906	0.0639	0.1428	0.2218	0.2082	-0.0472	-0.0104	0.0787	0.0020	-0.1627	-0.0033	0.0043	0.0186	-0.1807	-0.1085	0.1309	0.0031	-0.1232	-0.0800	0.1040	-0.0411	-0.1267	-0.1499	-0.4279	-0.8246	-0.8240	-0.8716	-0.3025	-0.2221	-0.1179	-0.0148	0.1100	0.2141	0.8317	1.2883	2.1758	2.4684	2.7032	1.3603	0.0210	-0.0505	-0.1143	-0.1444	1.9325	2.4518	2.2782	1.6358	1.1255	0.6588	-0.0742	-0.0470	-0.0188	-0.0491	0.4179	0.9144	0.5670	0.9304	0.5854	0.6393	0.1648	-0.0354	0.0181	-0.0563	0.6985	0.9239	0.3470	0.0649	0.2327	0.1223	0.0094	0.1099	0.1147	0.1522	0.3621	1.1510	1.4473	1.5539	1.8971	1.6169	0.6776	0.0748	0.0246	-0.1107	0.3377	1.3138	0.9459	0.5778	0.5085	0.2709	0.0095	0.1154	-0.0128	-0.1168	0.0416	-0.0181	-0.1600	-0.0649	-0.0428	-0.0169	0.0077	-0.0596	-0.0774	-0.0595	-0.0314	-0.1639	0.1883	-0.0619	-0.0173	-0.0313	0.1048	0.0807	-0.0493	-0.0736	0.0110	-0.0028	0.0438	-0.0166	0.1052	0.1075	0.0447	0.0111	0.0517	0.1584	-0.0129	0.2809	0.8454	1.1447	1.5473	2.2246	0.1230	-0.1400	-0.0363	-0.0331	0.5777	2.3350	2.1478	2.0591	1.4938	1.6119	0.0102	0.0265	0.1293	-0.0354	-0.0378	1.7133	0.6486	1.1457	0.9317	1.2030	0.3181	-0.0621	-0.0478	-0.0621	-0.1629	0.9415	0.8251	0.2649	0.2731	0.7773	0.2086	-0.0508	0.0600	0.0782	-0.2764	0.9618	1.3444	0.7583	1.3098	0.9522	0.6785	-0.0454	0.0086	0.0100	-0.5795	0.9641	1.5349	0.6755	1.2866	0.6780	0.6561	0.1282	0.0204	0.0029	-0.3515	0.0270	-0.0328	0.0358	-0.0958	-0.0627	-0.1246	0.0746	-0.1042	0.2724	0.0409	-0.0582	-0.0440	0.0238	0.0302	-0.1167	-0.0205	-0.0000	0.0602	-0.1603	-0.2049	0.0308	-0.0488	0.1084	-0.0902	-0.0877	0.1055	-0.0875	-0.0257	-0.1252	0.0015	0.0990	0.0281	0.0310	0.0405	0.1866	-0.0669	-0.0684	0.1606	0.1133	0.8713	1.0597	1.6134	1.6055	2.3718	0.4053	-0.1116	-0.0124	-0.0631	-0.0766	2.8092	2.2544	2.0632	1.2178	0.8843	-0.3310	-0.0714	-0.0525	-0.0373	-0.0263	1.8824	0.7129	0.5076	0.3906	0.5394	0.4245	-0.2317	-0.0893	-0.0066	-0.0036	1.1027	0.6491	0.3949	0.3345	0.3537	0.3306	-0.2773	0.1166	-0.0193	0.0527	0.9385	0.9395	0.8268	1.2956	1.2867	0.7224	-0.1571	0.0966	-0.0156	-0.1097	0.7512	1.6104	0.6779	0.7368	0.3429	0.4731	-0.5236	0.2040	-0.0384	-0.1509	0.1175	0.1808	-0.1431	-0.1836	-0.2020	-0.1343	-0.0958	0.1111	0.0840	0.0293	0.1319	0.1274	0.0755	0.0627	0.1768	0.0110	-0.1967	0.0681	-0.0581	0.0437	-0.0737	-0.0175	0.1261	0.0170	0.1687	0.0682	0.0293	-0.0153	-0.1324	-0.0686	-0.0291	-0.1405	-0.0778	0.0852	0.1299	0.0098	0.0929	0.0155	0.0278	0.1041	0.8070	1.6569	1.6073	1.9249	1.6427	1.0975	0.1172	-0.0647	-0.0544	-0.1029	0.4789	2.0381	2.1862	2.2605	1.7809	1.2273	0.2908	-0.0766	-0.1360	-0.2174	0.3765	1.7673	1.6219	1.3652	0.8909	0.4874	0.6183	-0.0386	0.0074	-0.0373	0.3477	1.2089	0.8115	0.6360	0.9680	0.2952	0.7057	0.0977	0.1421	0.0411	0.3707	1.1304	1.0747	0.9246	1.2506	1.2609	0.9136	0.2083	0.2029	0.1159	0.5254	0.9479	0.9316	0.8405	0.5930	0.6226	0.7511	0.0302	0.1146	0.0911	0.2483	0.2816	0.5968	0.5572	0.2165	0.1539	0.1882	-0.0637	0.2678	0.2079	-0.1219	0.0443	-0.0320	0.0820	0.0221	-0.0547	0.0218	-0.0110	0.0014	0.1415	0.0580	0.1351	0.1864	-0.0281	-0.0628	-0.0190	0.1020	-0.0283	0.1023	0.0070	-0.0342	-0.1628	0.0432	0.0520	-0.0093	0.0677	-0.1131	0.1242	0.1429	0.0271	0.1376	0.2933	0.1172	0.1937	0.5103	-0.8440	0.0956	0.0392	-0.0422	0.0018	0.6910	-0.7381	-0.5087	-0.0251	-0.3646	0.5935	0.0575	0.0104	0.0509	-0.0685	0.0529	-0.1795	0.0208	0.4432	0.1643	0.3614	-0.1575	-0.0097	0.1032	-0.0478	-0.0914	0.1648	-0.2130	-0.0736	0.2116	0.0474	0.1482	0.0260	-0.0403	-0.0270	-0.0287	0.0139	0.2324	-0.0287	-0.3957	0.1812	-0.2502	0.1247	-0.0103	-0.0113	-0.3431	0.1130	-0.0933	-0.3024	-0.0917	-0.0843	-0.0923	-0.1199	0.1846	-0.0436	-0.5015	-0.1471	0.3228	-0.0192	0.3444	0.1325	0.0959	0.0715	0.0559	0.0832	-0.0262	0.1555	0.0207	-0.0673	-0.1459	0.1008	0.0517	0.0325	0.0660	0.0681	0.1257	-0.1825	0.0495	-0.0597	-0.0421	-0.1098	-0.0184	0.0007	0.0815	0.0380	-0.1393	0.1245	-0.0331	-0.0331	0.0143	0.0505	-0.1147	-0.1042	-0.1713	-0.0620	-0.0946	-0.5100	0.2123	0.4311	0.1421	0.4986	0.0775	-0.0189	-0.0099	0.0956	-0.3060	-0.0758	-0.0490	-0.0188	0.1008	-0.0473	-0.1638	0.0156	0.0452	-0.0610	-0.0931	0.0335	-0.0692	0.0186	-0.0017	-0.0803	-0.0368	-0.0081	-0.0102	-0.0232	0.0504	-0.0586	0.1202	-0.2257	-0.0654	0.0593	-0.0630	0.1572	0.1414	-0.0027	-0.0819	0.1275	0.1532	-0.3580	0.0337	-0.3260	0.1176	0.0999	-0.0229	0.1018	-0.2458	0.3016	-0.1641	0.2126	0.2409	0.1985	-0.2700	-0.0109	0.0787	-0.0270	0.3127	0.0574	0.1516	0.4253	0.1150	0.0314	0.0785	-0.0885	-0.2274	0.0348	-0.0255	-0.0807	-0.1042	-0.1620	-0.0843	0.1178	-0.1430	-0.0911	-0.1839	-0.0287	0.0243	-0.0962	0.1102	-0.0153	0.1759	0.0283	-0.1621	-0.1061	-0.0748	0.0501	0.1167	0.1380	-0.1075	0.0881	0.0192	0.0849	-0.0063	-0.0330	-0.0638	0.0801	-0.6620	-0.6595	-0.5485	-0.5893	0.2855	0.0025	-0.0828	0.0012	-0.0261	-0.0383	0.3010	0.7497	-0.1283	0.0549	-0.1220	-0.5129	0.0129	0.1220	0.0859	-0.0324	-0.0202	-0.1583	-0.1167	-0.1503	0.1424	-0.1347	0.2523	-0.0040	-0.0564	0.0143	0.0281	0.0933	0.0433	-0.2241	0.0782	-0.3498	0.2743	0.0822	0.0592	0.1644	0.0748	0.0076	-0.1012	0.3275	-0.0640	-0.0338	0.1175	-0.0600	-0.0133	0.0348	0.2345	-0.2148	0.2125	0.7626	0.3915	0.5982	0.4063	-0.2958	0.0586	0.0070	0.1039	-0.7089	-0.1801	-0.1408	-0.2943	-0.1182	0.0006	-0.0999	0.0028	0.0325	0.0621	-0.1393	0.2668	-0.1232	0.1220	0.0026	-0.0182	-0.0829	0.1350	0.0634	0.0072	-0.0636	0.0513	0.0552	0.1111	-0.1692	-0.0190	0.2169	0.0793	-0.0137	-0.0232	0.1226	-0.1474	0.0475	-0.1495	0.0911	0.1700	-0.1659	0.0323	0.0767	-0.6170	0.0658	-0.0935	-0.0488	0.2467	0.3377	-0.0267	0.1663	0.1391	-0.0593	-0.0722	0.1350	-0.1622	0.6471	-0.1415	-0.3861	0.1802	0.0104	-0.0890	-0.0038	0.5118	-0.0005	0.1179	-0.4016	0.2581	-0.2441	0.2354	-0.1006	0.0787	0.0132	0.1054	-0.1043	0.1888	0.0103	-0.2259	0.2312	-0.1409	0.0196	-0.0406	-0.0023	0.0906	-0.2533	-0.2118	-0.0219	0.0799	-0.0604	0.5630	-0.1876	0.1567	-0.1025	-0.0551	-0.3135	0.3181	0.0775	-0.1191	-0.0088	-0.6709	-0.0102	0.0664	0.0479	0.0324	0.2947	-0.2530	-0.0776	-0.0090	-0.0946	-0.0192	0.0581	-0.0762	0.0970	-0.2730	-0.0978	-0.0122	0.0696	-0.0284	0.0214	0.0942	-0.1375	0.0056	-0.1543	-0.1201	0.0816	-0.0265	-0.0245	0.0287	0.1422	0.0282	-0.2162	-0.0144	0.0215	0.0456	0.0600	-0.0468	-0.0793	-0.1596	-0.0055	-0.0339	0.0132	0.0388	0.0094	0.1553	0.2303	-0.4696	-0.5273	-0.2409	-0.0543	-0.1765	-0.0710	-0.0047	0.0279	-0.5687	-0.3278	0.0938	0.0522	-0.1113	0.0716	-0.0891	0.0924	-0.0642	0.0374	0.0535	0.0416	0.1541	-0.1023	-0.0812	-0.0050	-0.2573	-0.1243	-0.0563	0.1031	-0.0588	-0.1623	0.1428	0.2178	0.2799	0.0960	-0.3507	0.0186	0.0433	-0.1609	0.0033	-0.0366	-0.0905	-0.0556	-0.1034	0.1124	-0.2100	0.0658	0.1189	0.0536	-0.1674	0.2049	0.0416	0.0293	-0.0305	0.2271	0.2600	0.0917	0.0127	-0.0054	-0.0057	-0.1594	0.0614	0.0216	0.2085	0.0091	0.0371	-0.0338	0.0540	-0.0201	0.0059	0.0810	0.1129	-0.0684	0.0352	0.1520	-0.0249	-0.1193	0.0699	0.0974	-0.1810	-0.1809	-0.0145	-0.1370	-0.1580	-0.0408	-0.0918	-0.0884	-0.0559	0.0357	0.0442	-0.0378	-0.0048	0.0756	-0.0429	-0.0861	-0.0034	-0.0245	-0.1009	-0.1303	-0.5464	-0.0046	0.5823	0.5430	0.4720	0.1103	-0.0367	-0.0099	-0.0965	-0.1421	-0.2401	-0.2557	0.1666	0.1676	-0.2496	0.1002	0.0746	0.0383	0.0662	0.0985	-0.4971	-0.3805	-0.0257	0.0319	-0.0042	-0.2981	-0.0627	0.0575	0.2281	-0.0534	-0.0200	0.1480	-0.1275	-0.2184	0.2001	-0.1308	0.0009	0.1638	0.1619	0.0907	-0.0533	0.1664	0.1227	0.1231	-0.1035	0.1712	0.0607	0.0123	0.1128	-0.0715	0.1535	0.1956	0.2475	0.1055	0.0458	-0.3381	-0.0269	-0.0469	0.0097	-0.0802	-0.1568	0.2371	0.0951	0.0958	0.2715	-0.1090	-0.2167	0.0088	0.0034	-0.1408	0.1361	-0.0000	-0.0016	0.1257	0.0241	-0.1849	0.0293	-0.0809	0.0776	0.0716	-0.0774	0.1079	-0.0101	0.2261	0.0628	-0.0590	0.0326	-0.0226	0.0526	0.0201	-0.0672	-0.1309	0.0414	0.1841	0.0244	-0.0772	0.1665	0.0653	0.0596	-0.0315	0.2125	-0.1382	-0.0710	0.0998	-0.4032	-0.2634	-0.0893	-0.0345	-0.0318	0.0019	0.0896	-0.0931	0.3060	0.0735	-0.0247	-0.2805	0.0481	-0.0256	0.0265	0.1569	0.1087	-0.1967	0.1705	0.0409	-0.2138	0.3157	0.2737	-0.0804	0.0378	-0.0275	0.3828	0.0807	-0.1734	0.1224	0.0334	0.2558	0.2946	-0.0889	0.2072	-0.1004	-0.0591	0.0160	-0.0351	0.0006	-0.0401	0.3054	-0.0538	0.0358	0.0513	-0.1305	-0.1769	-0.4342	-0.1664	0.1236	0.0821	0.3058	-0.0264	-0.0163	0.0359	0.1204	-0.1734	0.0569	0.0451	-0.1463	-0.1140	-0.0016	-0.1791	0.1128	0.2878	0.0256	0.0895	0.0324	0.0848	-0.0293	0.0316	0.0360	0.0292	0.0155	-0.0754	-0.0617	0.0669	0.0925	-0.0681	-0.0579	-0.0846	0.1208	-0.0151	-0.1205	-0.0814	0.0743	0.1251	-0.1655	-0.0070	-0.0010	-0.0426	0.0079	-0.1364	-0.0668	0.0787	0.2411	-0.1994	-0.2303	-0.0020	-0.0183	0.4403	0.3013	-0.0878	-0.0846	-0.2236	-0.1504	-0.4320	-0.5976	0.1182	-0.2341	-0.0036	-0.1967	-0.0558	-0.0071	-0.0875	0.0185	0.3164	0.1521	-0.1026	-0.2352	0.1856	0.0468	0.0360	0.1086	0.0581	0.1271	0.0575	-0.1443	-0.1735	-0.0423	-0.2449	0.1648	0.0015	0.0948	0.0571	0.0597	0.1924	0.0459	-0.1985	0.1501	0.0875	0.3423	0.1324	-0.0006	0.1335	0.0956	-0.0049	-0.0233	0.2860	0.2796	0.0500	0.0766	-0.0649	-0.1260	-0.0509	-0.0078	-0.2198	-0.3912	0.0319	0.2762	0.3791	0.2084	-0.1298	-0.1391	0.0815	-0.0075	-0.0390	-0.0681	0.0195	0.0873	0.0339	-0.0549	-0.0036	0.0753	0.0905	0.0126	0.0215	0.0352	-0.1419	0.0519	0.1025	0.0683	0.1217	-0.0690	-0.0696	-0.1973	-0.1498	-0.0985	-0.0600	0.1392	0.0743	0.0647	0.0428	0.0134	0.0566	0.0865	-0.0291	-0.0220	-0.1366	0.0396	0.1763	0.1481	-0.0716	-0.0780	-0.0389	0.0184	-0.0213	0.2673	0.0750	-0.0198	-0.1817	-0.2417	-0.2054	0.1021	-0.0093	-0.1001	-0.0134	-0.1780	0.1037	-0.2227	-0.0384	0.0119	-0.1202	0.0812	-0.0144	0.0992	0.0426	-0.0139	0.0454	0.1518	0.0268	0.2245	-0.0560	0.0987	-0.1388	-0.0938	0.0632	0.2112	-0.1023	-0.1931	0.1933	0.1463	0.1601	0.0091	0.0196	0.0533	0.0179	0.2745	0.1177	0.1249	0.1093	0.1453	-0.0231	-0.0316	-0.1612	-0.0634	0.0511	-0.2233	-0.0398	-0.1039	-0.0592	0.2379	0.1411	0.1013	0.1034	0.1293	0.1034	-0.1343	0.0162	-0.0170	-0.0025	-0.0142	-0.0410	0.1769	-0.0088	-0.0831	0.0970	0.0159	0.0357	-0.0648	-0.1441	-0.0025	0.0265	0.1291	-0.0072	0.0737	0.1502	-0.0047	-0.1700	-0.0037	-0.0547	-0.0417	0.0085	-0.0155	0.0389	-0.0710	0.3984	-0.1676	-0.3553	-0.2648	0.0039	0.3465	-0.1014	0.0189	0.0454	-0.0294	0.3907	-0.4044	-0.0801	0.0195	0.1100	0.2444	-0.0472	-0.1375	0.1887	0.0456	0.3018	0.1497	-0.0576	-0.2751	0.1725	0.0349	0.0765	-0.1828	0.0738	-0.0376	-0.3816	0.1411	-0.0102	-0.0507	0.0895	-0.3656	0.1752	-0.1712	-0.1518	0.0154	-0.2955	0.0289	0.2016	-0.1631	-0.1337	-0.4017	-0.0508	0.0442	-0.1584	0.0940	-0.0825	-0.0404	-0.1939	-0.1416	-0.0437	-0.0170	0.0686	0.0757	-0.2707	0.0351	0.1013	-0.1463	-0.3830	0.1330	-0.0631	0.2164	-0.0050	-0.0552	-0.1583	-0.0433	0.0532	0.2060	0.2266	0.1717	-0.0370	-0.0979	0.0702	0.0518	-0.0802	-0.2125	-0.0168	0.0345	-0.1523	0.0834	0.1552	0.0869	0.0073	0.0670	0.2369	0.1106	-0.1609	-0.2357	-0.0690	-0.0058	-0.0512	0.0835	0.0749	-0.0642	-0.1211	-0.0865	0.1687	-0.0987	-0.4334	-0.0895	0.0511	-0.1897	-0.0820	0.0386	-0.0025	-0.0795	0.1437	0.2238	0.3820	0.1158	0.0395	0.2632	-0.0262	-0.0385	0.0087	0.1063	-0.0344	0.1136	-0.0056	-0.1666	-0.0702	0.1161	-0.0083	0.1060	-0.0453	-0.0482	-0.1388	-0.1206	0.0071	-0.0801	-0.2249	-0.0324	-0.0935	-0.0173	0.0627	0.1162	-0.0409	0.1092	0.1910	0.2057	0.3189	0.1415	-0.1500	0.0920	-0.1365	-0.1020	-0.3149	-0.2421	-0.1675	-0.1790	0.1206	0.2845	0.0950	-0.1443	-0.0122	0.1664	0.2107	0.3790	0.1852	-0.0140	-0.1569	-0.1700	0.0351	0.1868	-0.0410	-0.0795	-0.0920	0.1034	-0.0245	-0.0363	-0.1454	0.0630	0.0152	-0.1170	-0.0089	0.0791	0.0007	0.1062	-0.1238	0.2174	-0.1575	0.0178	-0.0247	-0.0086	-0.1249	-0.1747	-0.0202	0.1285	-0.0927	0.1221	0.0164	0.0766	-0.0336	0.0385	-0.0034	-0.1416	0.2007	-0.4362	0.0862	0.1634	-0.1682	0.2148	0.0148	0.0787	0.1015	-0.1427	0.2752	-0.4020	-0.0012	-0.0531	0.0032	0.0427	-0.1893	0.0391	-0.0506	-0.0904	-0.0667	-0.1208	0.2510	-0.1290	0.1594	-0.0196	-0.2630	0.0879	-0.0989	0.1090	0.1147	0.1149	0.1116	-0.0526	-0.3500	0.4001	-0.3606	0.2508	-0.1321	0.1939	-0.1190	0.0713	-0.0505	0.0600	-0.1228	0.2002	-0.0394	0.1059	-0.1031	0.0819	-0.0486	0.0689	-0.0687	0.0676	0.1867	0.0491	-0.0925	0.1733	-0.0516	0.0321	0.1481	-0.0399	-0.1314	0.0175	-0.0096	0.2508	-0.0045	-0.0473	-0.0297	0.0448	0.2461	0.3090	0.3475	0.3491	0.3160	0.1706	0.2333	0.2760	0.2797	0.2510	0.0534	0.0936	0.1349	0.1461	0.1336	-0.0803	-0.0631	-0.0368	-0.0144	-0.0046	-0.1778	-0.1764	-0.1608	-0.1373	-0.1097	0.0148	0.0520	0.0198	-0.1164	-0.2731	0.1598	0.2437	0.2231	0.0468	-0.1720	0.2564	0.3657	0.3497	0.1547	-0.0958	0.2330	0.3260	0.3041	0.1224	-0.1078	0.1386	0.1904	0.1616	0.0143	-0.1610	-0.2693	-0.1626	-0.0303	0.0651	0.1123	-0.2146	-0.0735	0.0896	0.1881	0.2199	-0.1442	0.0174	0.1929	0.2936	0.3061	-0.0972	0.0618	0.2266	0.3210	0.3325	-0.0729	0.0629	0.2032	0.2833	0.3046	0.3334	0.1727	0.0642	0.1097	0.2288	0.2341	0.0074	-0.1379	-0.0664	0.1178	0.1955	-0.0584	-0.2123	-0.1291	0.0783	0.2888	0.0754	-0.0577	0.0114	0.1848	0.4257	0.2835	0.1856	0.2304	0.3363	0.4337	0.2575	0.1119	-0.1069	-0.4194	0.0491	-0.0791	0.0440	0.0858	-0.1879	-0.2862	-0.3540	-0.0009	0.2567	0.0366	-0.1972	-0.2422	0.0485	0.2364	0.0086	0.1011	0.0486	0.1412	0.1289	-0.1146	0.2352	-0.0049	-0.1138	0.1189	0.3943	-0.0239	-0.2362	-0.3177	-0.1278	0.0972	-0.0865	-0.0439	0.0025	-0.0188	-0.0821	-0.0843	0.2138	0.3806	0.1388	-0.2115	-0.2108	0.1170	0.2790	-0.0097	-0.4060	0.2039	-0.1732	-0.3704	-0.2520	-0.0626	0.2430	-0.1079	-0.1942	0.0366	0.2248	0.2402	-0.0180	0.0104	0.2673	0.3937	0.1752	-0.0350	-0.0364	0.1167	0.1787	0.0377	-0.1771	-0.2668	-0.2373	-0.1994	-0.2161	-0.1349	0.0891	0.1773	0.0390	-0.2369	-0.1738	0.1161	0.2876	0.1501	-0.1281	-0.1925	-0.0066	0.1523	0.0556	0.2017	-0.0055	-0.0978	-0.1116	-0.2020	0.5287	0.2681	-0.0164	-0.2091	-0.3325	-0.1157	0.2441	0.0279	0.0584	-0.1183	-0.1445	0.0635	-0.3264	-0.0702	-0.0301	0.1823	0.3329	-0.1159	0.2551	0.3644	-0.2558	-0.0237	-0.3741	-0.1438	-0.1507	-0.1198	0.3096	0.1462	0.1326	-0.1325	-0.1236	0.3127	0.2718	-0.0668	-0.1710	-0.2101	0.0812	-0.0435	-0.1613	0.0144	-0.1748	-0.0635	-0.2811	-0.1925	0.2218	0.1815	0.3614	0.1413	0.1187	0.3952	-0.1113	0.0707	-0.1244	-0.2992	-0.1559	-0.2475	-0.1437	0.1149	0.2617	-0.2123	0.2192	-0.0035	-0.0356	0.2746	-0.0189	0.3186	-0.1763	-0.4306	-0.0167	-0.1055	0.2110	-0.0141	-0.0364	0.2692	-0.0391	-0.2431	-0.1423	0.1247	0.2746	-0.2154	0.0643	0.0532	0.2134	0.3151	0.0628	-0.2703	-0.3557	-0.2236	-0.1628	-0.4342	0.1830	0.1052	0.1903	0.2403	-0.0756	0.2140	-0.0179	-0.0170	0.1795	0.0576	0.0935	-0.2346	-0.2849	0.0218	0.0865	0.0876	0.0541	-0.1442	-0.0377	0.0653	-0.0051	-0.1692	0.0881	0.2848	-0.2133	0.1254	-0.2574	-0.0239	0.2845	-0.1831	0.1132	0.2096	-0.1247	-0.1977	0.0775	-0.4185	0.3607	0.0537	-0.3126	0.2822	0.0569	-0.0381	0.3565	-0.1631	-0.1682	-0.0946	-0.3748	0.1304	-0.1160	0.1774	0.2765	-0.1141	0.1729	-0.1358	0.2776	0.1592	-0.1214	0.1383	-0.3691	-0.1052	-0.1501	-0.1796	0.3495	-0.0186	0.0557	-0.1999	0.4287	-0.0951	-0.4324	0.3191	-0.2448	0.1778	0.0752	-0.1156	0.0886	0.1029	-0.1990	-0.0045	0.2054	-0.1322	0.3253	-0.1749	-0.0790	0.1616	-0.1827	-0.0368	-0.1351	0.0513	0.1511	-0.0554	0.2535	0.1303	-0.1311	-0.0234	-0.2590	-0.2681	-0.1125	-0.1107	0.3241	0.3118	-0.1959	0.1822	-0.0809	-0.0511	-0.0749	0.1757	0.3549	-0.0219	-0.0989	-0.2945	-0.0620	-0.1888	-0.2148	0.2801	0.1750	-0.0000	0.0000	0.0000	-0.0000	0.0000	-0.0000	0.0000	-0.0000	-0.0000	-0.0000	0.0000	0.0000	0.0000	-0.0000	0.0000	0.0000	-0.0000	0.0000	-0.0000	0.0000	-0.0000	-0.0000	0.0000	0.0000	-0.0000	0.0000	-0.0000	-0.0000	0.0000	-0.0000	0.0000	-0.0000	0.0000	0.0000	0.0000	-0.0000	-0.0000	-0.0000	0.0000	-0.0000	-0.0000	0.0000	-0.0000	0.0000	-0.0000	0.0000	0.0000	-0.0000	-0.0000	0.0000	0.0000	-0.0000	-0.0000	0.0000	-0.0000	0.0000	-0.0000	0.0000	0.0000	0.0000	-0.0000	-0.0000	-0.0000	0.0000	-0.0000	-0.0000	0.0000	-0.0000	0.0000	-0.0000	0.0000	0.0000	-0.0000	-0.0000	0.0000	0.0000	-0.0000	-0.0000	0.0000	-0.0000	0.0000	-0.0000	0.0000	0.0000	0.0000	-0.0000	-0.0000	-0.0000	0.0000	-0.0000	-0.0000	0.0000	-0.0000	0.0000	-0.0000	0.0000	0.0000	-0.0000	-0.0000	0.0000	0.0000	-0.0000	-0.0000	0.0000	-0.0000	0.0000	-0.0000	0.0000	-0.0000	-0.0000	0.0000	0.0000	-0.0000	0.0000	-0.0000	-0.0000	0.0000	-0.0000	0.0000	-0.0000	-0.0000	0.0000	-0.0000	0.0000	0.0000	0.0000	-0.0000	-0.0000	0.0000	-0.0000	0.0000	-0.0000	0.0000	-0.0000	-0.0000	0.0000	0.0000	-0.0000	0.0000	-0.0000	-0.0000	0.0000	-0.0000	0.0000	-0.0000	-0.0000	0.0000	-0.0000	0.0000	0.0000	0.0000	-0.0000	-0.0000	0.0000	-0.0000	0.0000	-0.0000	0.0000	-0.0000	-0.0000	0.0000	0.0000	-0.0000	0.0000	-0.0000	-0.0000	0.0000	-0.0000	0.0000	-0.0000	-0.0000	0.0000	-0.0000	0.0000	0.0000	0.0000	-0.0000	-0.0000	0.0000	-0.0000	0.0000	-0.0000	0.0000	-0.0000	-0.0000	0.0000	0.0000	-0.0000	0.0000	-0.0000	-0.0000	0.0000	-0.0000	0.0000	-0.0000	-0.0000	0.0000	-0.0000	0.0000	0.0000	-0.0000	-0.0000	0.0000	-0.0000	0.0000	-0.0000	0.0000	-0.0000	0.0000	0.0000	0.0000	-0.0000	0.0000	-0.0000	0.0000	0.0000	-0.0000	0.0000	-0.0000	0.0000	0.0000	-0.0000	0.0000	0.0000	-0.0000	-0.0000	-0.0000	0.0000	-0.0000	0.0000	-0.0000	0.0000	-0.0000	0.0000	0.0000	0.0000	-0.0000	0.0000	-0.0000	0.0000	0.0000	-0.0000	0.0000	-0.0000	0.0000	0.0000	-0.0000	0.0000	0.0000	-0.0000	0.0000	0.0000	-0.0000	0.0000	-0.0000	0.0000	-0.0000	0.0000	-0.0000	-0.0000	-0.0000	0.0000	-0.0000	0.0000	-0.0000	-0.0000	0.0000	-0.0000	0.0000	-0.0000	-0.0000	0.0000	-0.0000	-0.0000	0.0000	-0.0000	-0.0000	0.0000	-0.0000	0.0000	-0.0000	0.0000	-0.0000	0.0000	0.0000	0.0000	-0.0000	0.0000	-0.0000	0.0000	0.0000	-0.0000	0.0000	-0.0000	0.0000	0.0000	-0.0000	0.0000	0.0000	-0.0000	-0.0000	0.0000	-0.0000	0.0000	-0.0000	0.0000	-0.0000	0.0000	-0.0000	0.0000	0.0000	0.0000	-0.0000	0.0000	0.0000	-0.0000	0.0000	-0.0000	0.0000	-0.0000	-0.0000	0.0000	-0.0000	0.0000	0.0000	0.0000	-0.0000	0.0000	-0.0000	0.0000	-0.0000	0.0000	-0.0000	0.0000	-0.0000	-0.0000	-0.0000	0.0000	-0.0000	-0.0000	0.0000	-0.0000	0.0000	-0.0000	0.0000	0.0000	-0.0000	0.0000	-0.0000	-0.0000	0.0000	-0.0000	0.0000	-0.0000	0.0000	-0.0000	0.0000	-0.0000	0.0000	-0.0000	-0.0000	-0.0000	0.0000	-0.0000	-0.0000	0.0000	-0.0000	0.0000	-0.0000	0.0000	0.0000	-0.0000	0.0000	-0.0000	-0.0000	-0.0000	0.0000	-0.0000	0.0000	-0.0000	0.0000	-0.0000	0.0000	-0.0000	0.0000	0.0000	0.0000	-0.0000	0.0000	0.0000	-0.0000	0.0000	-0.0000	0.0000	-0.0000	-0.0000	0.0000	-0.0000	0.0000	0.0000	1.0000	1.0000	1.0000	1.0000	1.0000	1.0000	1.0000	1.0000	1.0000	1.0000	1.0000	1.0000	1.0000	1.0000	1.0000	1.0000	1.0000	1.0000	1.0000	1.0000	1.0000	1.0000	1.0000	1.0000	1.0000	0.0625	0.0625	0.0625	0.0312	0.0312	0.0625	0.0312	0.0312	0.0625	0.0312	0.0312	0.0625	0.0312	0.0312	0.0625	0.0312	0.0312	0.0625	0.0312	0.0312	0.0625	0.0312	0.0312	0.0625	0.0312	0.0312	0.0625	0.0312	0.0312	0.0625	0.0625	0.0625	0.0625	0.0625	0.0625	0.0312	0.0312	0.0625	0.0312	0.0312	0.0625	0.0312	0.0312	0.0625	0.0312	0.0312	0.0625	0.0312	0.0312	0.0625	0.0312	0.0312	0.0625	0.0312	0.0312	0.0625	0.0312	0.0312	0.0625	0.0312	0.0312	0.0625	0.0625	0.0625	0.0625	0.0625	0.0625	0.0312	0.0312	0.0625	0.0312	0.0312	0.0625	0.0312	0.0312	0.0625	0.0312	0.0312	0.0625	0.0312	0.0312	0.0625	0.0312	0.0312	0.0625	0.0312	0.0312	0.0625	0.0312	0.0312	0.0625	0.0312	0.0312	0.0625	0.0625	0.0625	0.0312	0.0312	0.0312	0.0156	0.0156	0.0312	0.0156	0.0156	0.0312	0.0156	0.0156	0.0312	0.0156	0.0156	0.0312	0.0156	0.0156	0.0312	0.0156	0.0156	0.0312	0.0156	0.0156	0.0312	0.0156	0.0156	0.0312	0.0156	0.0156	0.0312	0.0312	0.0312	0.0312	0.0312	0.0312	0.0156	0.0156	0.0312	0.0156	0.0156	0.0312	0.0156	0.0156	0.0312	0.0156	0.0156	0.0312	0.0156	0.0156	0.0312	0.0156	0.0156	0.0312	0.0156	0.0156	0.0312	0.0156	0.0156	0.0312	0.0156	0.0156	0.0312	0.0312	0.0312	0.0625	0.0625	0.0625	0.0312	0.0312	0.0625	0.0312	0.0312	0.0625	0.0312	0.0312	0.0625	0.0312	0.0312	0.0625	0.0312	0.0312	0.0625	0.0312	0.0312	0.0625	0.0312	0.0312	0.0625	0.0312	0.0312	0.0625	0.0312	0.0312	0.0625	0.0625	0.0625	0.0312	0.0312	0.0312	0.0156	0.0156	0.0312	0.0156	0.0156	0.0312	0.0156	0.0156	0.0312	0.0156	0.0156	0.0312	0.0156	0.0156	0.0312	0.0156	0.0156	0.0312	0.0156	0.0156	0.0312	0.0156	0.0156	0.0312	0.0156	0.0156	0.0312	0.0312	0.0312	0.0312	0.0312	0.0312	0.0156	0.0156	0.0312	0.0156	0.0156	0.0312	0.0156	0.0156	0.0312	0.0156	0.0156	0.0312	0.0156	0.0156	0.0312	0.0156	0.0156	0.0312	0.0156	0.0156	0.0312	0.0156	0.0156	0.0312	0.0156	0.0156	0.0312	0.0312	0.0312	0.0625	0.0625	0.0625	0.0312	0.0312	0.0625	0.0312	0.0312	0.0625	0.0312	0.0312	0.0625	0.0312	0.0312	0.0625	0.0312	0.0312	0.0625	0.0312	0.0312	0.0625	0.0312	0.0312	0.0625	0.0312	0.0312	0.0625	0.0312	0.0312	0.0625	0.0625	0.0625	0.0312	0.0312	0.0312	0.0156	0.0156	0.0312	0.0156	0.0156	0.0312	0.0156	0.0156	0.0312	0.0156	0.0156	0.0312	0.0156	0.0156	0.0312	0.0156	0.0156	0.0312	0.0156	0.0156	0.0312	0.0156	0.0156	0.0312	0.0156	0.0156	0.0312	0.0312	0.0312	0.0312	0.0312	0.0312	0.0156	0.0156	0.0312	0.0156	0.0156	0.0312	0.0156	0.0156	0.0312	0.0156	0.0156	0.0312	0.0156	0.0156	0.0312	0.0156	0.0156	0.0312	0.0156	0.0156	0.0312	0.0156	0.0156	0.0312	0.0156	0.0156	0.0312	0.0312	0.0312	0.0625	0.0625	0.0625	0.0312	0.0312	0.0625	0.0312	0.0312	0.0625	0.0312	0.0312	0.0625	0.0312	0.0312	0.0625	0.0312	0.0312	0.0625	0.0312	0.0312	0.0625	0.0312	0.0312	0.0625	0.0312	0.0312	0.0625	0.0312	0.0312	0.0625	0.0625	0.0625	0.0312	0.0312	0.0312	0.0156	0.0156	0.0312	0.0156	0.0156	0.0312	0.0156	0.0156	0.0312	0.0156	0.0156	0.0312	0.0156	0.0156	0.0312	0.0156	0.0156	0.0312	0.0156	0.0156	0.0312	0.0156	0.0156	0.0312	0.0156	0.0156	0.0312	0.0312	0.0312	0.0312	0.0312	0.0312	0.0156	0.0156	0.0312	0.0156	0.0156	0.0312	0.0156	0.0156	0.0312	0.0156	0.0156	0.0312	0.0156	0.0156	0.0312	0.0156	0.0156	0.0312	0.0156	0.0156	0.0312	0.0156	0.0156	0.0312	0.0156	0.0156	0.0312	0.0312	0.0312	0.0625	0.0625	0.0625	0.0312	0.0312	0.0625	0.0312	0.0312	0.0625	0.0312	0.0312	0.0625	0.0312	0.0312	0.0625	0.0312	0.0312	0.0625	0.0312	0.0312	0.0625	0.0312	0.0312	0.0625	0.0312	0.0312	0.0625	0.0312	0.0312	0.0625	0.0625	0.0625	0.0312	0.0312	0.0312	0.0156	0.0156	0.0312	0.0156	0.0156	0.0312	0.0156	0.0156	0.0312	0.0156	0.0156	0.0312	0.0156	0.0156	0.0312	0.0156	0.0156	0.0312	0.0156	0.0156	0.0312	0.0156	0.0156	0.0312	0.0156	0.0156	0.0312	0.0312	0.0312	0.0312	0.0312	0.0312	0.0156	0.0156	0.0312	0.0156	0.0156	0.0312	0.0156	0.0156	0.0312	0.0156	0.0156	0.0312	0.0156	0.0156	0.0312	0.0156	0.0156	0.0312	0.0156	0.0156	0.0312	0.0156	0.0156	0.0312	0.0156	0.0156	0.0312	0.0312	0.0312	0.0625	0.0625	0.0625	0.0312	0.0312	0.0625	0.0312	0.0312	0.0625	0.0312	0.0312	0.0625	0.0312	0.0312	0.0625	0.0312	0.0312	0.0625	0.0312	0.0312	0.0625	0.0312	0.0312	0.0625	0.0312	0.0312	0.0625	0.0312	0.0312	0.0625	0.0625	0.0625	0.0312	0.0312	0.0312	0.0156	0.0156	0.0312	0.0156	0.0156	0.0312	0.0156	0.0156	0.0312	0.0156	0.0156	0.0312	0.0156	0.0156	0.0312	0.0156	0.0156	0.0312	0.0156	0.0156	0.0312	0.0156	0.0156	0.0312	0.0156	0.0156	0.0312	0.0312	0.0312	0.0312	0.0312	0.0312	0.0156	0.0156	0.0312	0.0156	0.0156	0.0312	0.0156	0.0156	0.0312	0.0156	0.0156	0.0312	0.0156	0.0156	0.0312	0.0156	0.0156	0.0312	0.0156	0.0156	0.0312	0.0156	0.0156	0.0312	0.0156	0.0156	0.0312	0.0312	0.0312	0.0625	0.0625	0.0625	0.0312	0.0312	0.0625	0.0312	0.0312	0.0625	0.0312	0.0312	0.0625	0.0312	0.0312	0.0625	0.0312	0.0312	0.0625	0.0312	0.0312	0.0625	0.0312	0.0312	0.0625	0.0312	0.0312	0.0625	0.0312	0.0312	0.0625	0.0625	0.0625	0.0312	0.0312	0.0312	0.0156	0.0156	0.0312	0.0156	0.0156	0.0312	0.0156	0.0156	0.0312	0.0156	0.0156	0.0312	0.0156	0.0156	0.0312	0.0156	0.0156	0.0312	0.0156	0.0156	0.0312	0.0156	0.0156	0.0312	0.0156	0.0156	0.0312	0.0312	0.0312	0.0312	0.0312	0.0312	0.0156	0.0156	0.0312	0.0156	0.0156	0.0312	0.0156	0.0156	0.0312	0.0156	0.0156	0.0312	0.0156	0.0156	0.0312	0.0156	0.0156	0.0312	0.0156	0.0156	0.0312	0.0156	0.0156	0.0312	0.0156	0.0156	0.0312	0.0312	0.0312	0.0625	0.0625	0.0625	0.0312	0.0312	0.0625	0.0312	0.0312	0.0625	0.0312	0.0312	0.0625	0.0312	0.0312	0.0625	0.0312	0.0312	0.0625	0.0312	0.0312	0.0625	0.0312	0.0312	0.0625	0.0312	0.0312	0.0625	0.0312	0.0312	0.0625	0.0625	0.0625	0.0312	0.0312	0.0312	0.0156	0.0156	0.0312	0.0156	0.0156	0.0312	0.0156	0.0156	0.0312	0.0156	0.0156	0.0312	0.0156	0.0156	0.0312	0.0156	0.0156	0.0312	0.0156	0.0156	0.0312	0.0156	0.0156	0.0312	0.0156	0.0156	0.0312	0.0312	0.0312	0.0312	0.0312	0.0312	0.0156	0.0156	0.0312	0.0156	0.0156	0.0312	0.0156	0.0156	0.0312	0.0156	0.0156	0.0312	0.0156	0.0156	0.0312	0.0156	0.0156	0.0312	0.0156	0.0156	0.0312	0.0156	0.0156	0.0312	0.0156	0.0156	0.0312	0.0312	0.0312	0.0625	0.0625	0.0625	0.0312	0.0312	0.0625	0.0312	0.0312	0.0625	0.0312	0.0312	0.0625	0.0312	0.0312	0.0625	0.0312	0.0312	0.0625	0.0312	0.0312	0.0625	0.0312	0.0312	0.0625	0.0312	0.0312	0.0625	0.0312	0.0312	0.0625	0.0625	0.0625	0.0312	0.0312	0.0312	0.0156	0.0156	0.0312	0.0156	0.0156	0.0312	0.0156	0.0156	0.0312	0.0156	0.0156	0.0312	0.0156	0.0156	0.0312	0.0156	0.0156	0.0312	0.0156	0.0156	0.0312	0.0156	0.0156	0.0312	0.0156	0.0156	0.0312	0.0312	0.0312	0.0312	0.0312	0.0312	0.0156	0.0156	0.0312	0.0156	0.0156	0.0312	0.0156	0.0156	0.0312	0.0156	0.0156	0.0312	0.0156	0.0156	0.0312	0.0156	0.0156	0.0312	0.0156	0.0156	0.0312	0.0156	0.0156	0.0312	0.0156	0.0156	0.0312	0.0312	0.0312	0.0625	0.0625	0.0625	0.0312	0.0312	0.0625	0.0312	0.0312	0.0625	0.0312	0.0312	0.0625	0.0312	0.0312	0.0625	0.0312	0.0312	0.0625	0.0312	0.0312	0.0625	0.0312	0.0312	0.0625	0.0312	0.0312	0.0625	0.0312	0.0312	0.0625	0.0625	0.0625	0.0625	0.0625	0.0625	0.0312	0.0312	0.0625	0.0312	0.0312	0.0625	0.0312	0.0312	0.0625	0.0312	0.0312	0.0625	0.0312	0.0312	0.0625	0.0312	0.0312	0.0625	0.0312	0.0312	0.0625	0.0312	0.0312	0.0625	0.0312	0.0312	0.0625	0.0625	0.0625	0.0625	0.0625	0.0625	0.0312	0.0312	0.0625	0.0312	0.0312	0.0625	0.0312	0.0312	0.0625	0.0312	0.0312	0.0625	0.0312	0.0312	0.0625	0.0312	0.0312	0.0625	0.0312	0.0312	0.0625	0.0312	0.0312	0.0625	0.0312	0.0312	0.0625	0.0625	0.0625	