-0.1666	0.2124	0.5573	0.5689	0.3379	0.2337	0.2434	0.5088	1.1240	1.2719	1.9080	0.1684	1.4827	0.9022	1.2296	1.7809	2.4269	1.7946	2.0901	1.5766	1.2581	2.1730	3.0084	2.4741	2.2632	2.2041	2.0734	2.5430	2.2060	1.7039	1.4356	1.3290	1.8350	1.6473	1.7898	0.9069	0.0953	1.1323	1.2660	1.0205	0.1226	0.1510	0.7172	1.2122	1.2412	1.5959	1.0325	-0.0518	0.8526	1.1123	2.1802	2.9555	2.6318	0.3765	1.8000	1.5715	2.3331	3.0910	1.6621	0.2864	2.3165	2.5511	2.3303	2.4932	0.9810	0.4412	1.0627	1.6645	1.4498	1.3628	0.7074	-0.1243	0.0224	-0.2905	-0.5611	-0.4697	-0.1453	0.0365	-0.0878	0.9147	1.2819	1.0053	0.4645	-0.1384	0.7194	0.8572	0.8624	1.3170	0.5880	-0.4929	0.7038	1.1449	1.8153	2.6117	2.8355	1.1272	2.0513	1.5721	2.1494	2.4713	1.3386	0.9175	1.9260	2.0856	1.6803	2.3231	1.1988	0.5968	-0.0975	0.1072	0.8642	0.8685	0.9614	-0.0055	1.0058	0.9374	1.1366	1.3017	1.0035	0.3769	1.0533	1.2077	0.9623	2.1291	2.3996	1.8137	1.9169	1.3955	1.9038	2.6815	2.0967	1.1030	2.1313	2.1782	2.3433	2.2237	1.8834	0.6247	0.9799	0.9809	1.9978	1.3531	1.0732	0.2739	0.0216	0.2606	0.2625	0.1334	0.1162	0.0266	-0.2060	0.0842	-0.0143	0.2217	-0.1892	-0.0142	-0.1068	0.2648	0.3361	-0.2060	0.1347	0.4230	-0.0659	-0.3345	-0.0160	0.2389	-0.3522	0.0104	-0.5345	-0.3158	-0.4402	0.2761	0.1839	-0.0567	0.5705	0.2814	0.3571	0.0976	-0.0881	-0.0973	0.0332	-0.0513	-0.0731	0.0044	-0.2448	-0.0521	-0.2809	0.1774	0.0214	-0.1908	-0.0385	-0.1488	0.1132	-0.0189	-0.0743	-0.1391	-0.0855	-0.0474	0.3604	0.0290	-0.0109	-0.1611	0.3022	-0.5215	-0.0745	0.1656	0.3682	0.0635	-0.0002	-0.1986	0.0114	0.0384	-0.1985	-0.0773	-0.5062	0.2667	0.0100	-0.0601	-0.1831	-0.1664	-0.0394	0.1452	-0.0720	-0.2548	-0.2051	-0.0837	0.0034	-0.3012	0.2468	-0.0453	-0.0599	-0.3468	-0.0967	0.0288	0.3129	-0.3223	-0.3222	0.0959	-0.2336	-0.4496	0.2136	0.6096	0.1363	-0.3696	0.3310	0.0338	0.0726	-0.3704	-0.0751	-0.4232	0.3214	-0.0786	-0.0250	0.0274	-0.1466	-0.2077	-0.1747	-0.0048	-0.2025	0.1122	0.0432	-0.0592	0.9774	-0.2290	-0.2830	0.2829	-0.0167	0.3098	-0.0580	0.0127	-0.2673	-0.0003	0.0146	0.0280	-0.3076	0.3384	0.0303	0.1474	0.0116	0.0826	-0.5709	0.5142	0.1104	-0.4958	-0.3334	-0.1275	-0.1392	0.1408	-0.0684	0.0370	-0.0431	-0.1792	-0.0973	0.0277	-0.1221	0.0449	-0.1557	0.1037	0.1078	0.2478	-0.0158	0.2236	0.1602	-0.3033	-0.0708	0.1475	-0.0277	0.1801	0.1448	0.1992	0.3519	-0.0500	-0.0080	-0.0081	0.0802	0.1555	-0.0943	-0.1386	-0.1203	-0.4298	-0.5278	0.2538	-0.0081	0.1844	-0.0186	-0.1330	-0.3140	-0.1345	0.1797	0.0761	-0.0727	0.0969	-0.0529	0.2492	-0.3194	-0.2371	0.2922	0.3784	-0.0160	-0.0075	-0.1095	0.0115	0.1998	0.1294	0.0562	0.1183	-0.2413	0.0985	-0.0139	0.0268	0.0491	0.1309	0.1793	-0.0256	0.0981	-0.3005	0.0935	-0.0668	-0.0741	-0.0436	0.0336	0.1675	0.2933	0.1316	0.1183	0.1085	-0.1506	0.1254	-0.0634	0.0901	-0.4687	-0.0641	-0.1100	-0.0077	-0.0441	-0.0423	0.1709	0.0178	0.3429	0.2481	0.1347	0.0385	-0.2024	0.0234	0.1114	-0.0013	-0.1251	0.4250	-0.1913	-0.1781	-0.1003	0.0895	0.0846	0.0478	-0.0008	0.0648	-0.1389	-0.1643	-0.0427	-0.0806	0.2619	0.1172	0.0170	0.1795	-0.0415	0.2248	0.1255	-0.1038	0.0965	0.3086	0.1143	-0.1287	-0.1940	0.1638	0.0704	-0.0104	-0.1198	0.3116	-0.1122	0.0040	-0.3022	-0.3452	0.1750	-0.0128	-0.2267	0.0969	0.0920	0.0228	0.1377	-0.1817	-0.0712	0.0153	0.0184	0.1542	-0.0046	-0.0717	0.0112	0.0095	-0.0063	-0.0854	0.1396	-0.1009	-0.1540	-0.1447	-0.0345	0.1910	0.0903	0.1479	0.2838	0.0849	-0.2468	-0.0830	0.1139	-0.4035	-0.0530	0.0037	-0.2133	0.0038	-0.1751	0.3428	0.0922	0.0667	0.1850	0.1918	-0.0291	0.0374	0.0202	-0.1365	-0.0327	-0.0904	-0.2183	-0.0198	-0.0418	0.0469	0.2074	0.0523	0.1355	-0.0508	0.1082	-0.0090	0.1566	0.0223	-0.1110	-0.0115	0.1690	-0.4257	-0.0419	0.0893	0.0154	-0.1472	0.1284	0.1340	-0.0338	0.2007	-0.0114	-0.1834	-0.1365	0.0442	-0.0404	-0.2111	-0.1883	0.1864	-0.0260	0.0529	-0.0348	-0.1796	0.3459	0.1295	0.0533	-0.1170	-0.0905	-0.1122	0.1107	-0.0756	0.1601	0.0710	0.1143	0.1036	0.1453	0.1694	0.1861	-0.0748	-0.1544	0.1269	-0.0655	-0.0378	0.1078	-0.0407	-0.1902	-0.0019	-0.0978	-0.1366	0.1208	0.2568	-0.1537	-0.0901	-0.1493	-0.1322	0.1849	0.1742	-0.0005	-0.0640	-0.1262	-0.1266	0.1148	-0.0846	0.0132	0.1370	0.0178	0.1034	0.1048	-0.0244	-0.0829	-0.0007	0.0646	-0.3307	0.0721	-0.0242	-0.0794	0.0287	-0.0312	-0.0745	0.0809	0.2026	0.0363	0.0855	0.1175	-0.2063	0.1283	0.1072	0.0779	0.1254	-0.1643	-0.0202	-0.0011	0.0250	0.2898	0.2606	0.1873	0.0690	-0.0455	-0.1268	-0.1589	0.3006	0.2722	0.1932	0.0706	-0.0486	-0.1324	-0.1646	0.2804	0.2511	0.1793	0.0746	-0.0306	-0.1063	-0.1376	0.2320	0.2054	0.1538	0.0764	0.0013	-0.0559	-0.0856	0.1731	0.1533	0.1219	0.0780	0.0349	-0.0016	-0.0279	0.1266	0.1103	0.0968	0.0771	0.0575	0.0382	0.0175	0.1008	0.0874	0.0822	0.0747	0.0678	0.0571	0.0409	-0.0209	-0.0168	-0.0193	-0.0246	-0.0239	-0.0182	0.0024	-0.0218	-0.0142	-0.0088	-0.0025	0.0062	0.0186	0.0398	-0.0333	-0.0172	0.0034	0.0344	0.0633	0.0901	0.1112	-0.0496	-0.0267	0.0182	0.0806	0.1391	0.1797	0.1996	-0.0576	-0.0267	0.0379	0.1260	0.2129	0.2688	0.2865	-0.0586	-0.0196	0.0558	0.1585	0.2581	0.3189	0.3343	-0.0389	0.0008	0.0770	0.1758	0.2689	0.3259	0.3408	0.1477	0.1795	0.2112	0.2447	0.2680	0.2744	0.2624	0.1173	0.1468	0.1818	0.2154	0.2421	0.2514	0.2432	0.0689	0.0891	0.1199	0.1535	0.1819	0.1967	0.1932	0.0094	0.0191	0.0416	0.0704	0.1002	0.1196	0.1245	-0.0504	-0.0500	-0.0386	-0.0142	0.0118	0.0342	0.0504	-0.0948	-0.1007	-0.0954	-0.0801	-0.0580	-0.0342	-0.0089	-0.1150	-0.1256	-0.1257	-0.1149	-0.0931	-0.0683	-0.0453	-0.1513	-0.1422	-0.0848	0.0080	0.1064	0.1683	0.1895	-0.1215	-0.1177	-0.0634	0.0221	0.1102	0.1698	0.1812	-0.0312	-0.0311	-0.0013	0.0444	0.0943	0.1251	0.1258	0.0936	0.0952	0.0864	0.0731	0.0613	0.0498	0.0416	0.2204	0.2187	0.1747	0.0997	0.0264	-0.0255	-0.0394	0.3002	0.2944	0.2300	0.1200	0.0065	-0.0691	-0.0918	0.3197	0.3102	0.2416	0.1274	0.0112	-0.0698	-0.0961	0.1740	0.1259	0.0579	0.0371	0.1168	0.2438	0.3178	0.1041	0.0411	-0.0571	-0.1061	-0.0536	0.0725	0.1704	-0.0003	-0.0439	-0.1182	-0.1852	-0.1981	-0.1375	-0.0534	-0.0853	-0.0673	-0.0613	-0.1029	-0.1756	-0.2165	-0.1901	-0.1397	-0.0412	0.0750	0.0974	-0.0045	-0.1330	-0.1869	-0.1772	-0.0310	0.1664	0.2566	0.1683	0.0020	-0.1092	-0.1794	-0.0359	0.1710	0.2852	0.2292	0.0831	-0.0350	-0.2597	-0.2365	-0.1706	-0.0835	0.0233	0.1388	0.2084	-0.0894	-0.0556	-0.0353	-0.0477	-0.0337	0.0413	0.1200	0.1467	0.1962	0.1446	-0.0008	-0.1113	-0.1004	-0.0129	0.2611	0.3142	0.2173	0.0124	-0.1520	-0.1639	-0.0726	0.1599	0.1957	0.1188	-0.0270	-0.1242	-0.0962	0.0050	-0.0617	-0.0520	-0.0626	-0.0850	-0.0521	0.0509	0.1502	-0.2199	-0.2220	-0.1802	-0.1105	0.0117	0.1532	0.2406	0.1630	0.0132	-0.1912	-0.2980	-0.2309	-0.0664	0.0639	0.1772	0.0297	-0.1749	-0.2669	-0.1738	0.0096	0.1331	0.1575	0.0648	-0.0597	-0.1010	-0.0096	0.1269	0.1923	0.1115	0.0957	0.0787	0.1005	0.1564	0.1965	0.1825	0.0113	0.0577	0.1285	0.1806	0.1800	0.1175	0.0453	-0.1155	-0.0498	0.0506	0.0991	0.0476	-0.0711	-0.1603	-0.1948	-0.1458	-0.0663	-0.0410	-0.1088	-0.2248	-0.2903	-0.2201	-0.1259	0.0066	0.0784	0.0371	-0.0659	-0.1510	-0.1925	-0.0645	0.0957	0.1726	0.0987	-0.0483	-0.1619	-0.1452	0.0100	0.1844	0.2522	0.1510	-0.0323	-0.1692	-0.1199	0.0420	0.2212	0.2863	0.1717	-0.0247	-0.1731	-0.1470	0.0083	0.1851	0.2576	0.1515	-0.0330	-0.1736	-0.1956	-0.0664	0.0983	0.1746	0.1002	-0.0490	-0.1676	-0.2238	-0.1263	0.0094	0.0822	0.0375	-0.0700	-0.1584	-0.2274	-0.1857	-0.1260	-0.0747	-0.0015	0.0472	0.0574	0.0346	0.0821	0.0655	0.0243	0.0297	0.0320	0.0218	0.2399	0.2152	0.0980	0.0313	0.0515	0.0201	-0.0456	0.1679	0.0095	-0.1462	-0.0853	0.0750	0.0381	-0.1141	0.0411	-0.2156	-0.3478	-0.1187	0.1657	0.0967	-0.1621	0.0801	-0.1662	-0.2585	0.0066	0.2720	0.1115	-0.2179	0.1893	0.0249	-0.0484	0.1302	0.2682	0.0574	-0.2506	0.0952	-0.0831	-0.1849	-0.0764	-0.0083	-0.1430	-0.3033	0.1490	-0.0582	-0.1467	0.0514	0.2310	0.1513	-0.0473	0.1795	0.0037	-0.0829	0.0909	0.2833	0.2840	0.1458	0.1261	0.0282	-0.0699	-0.0562	-0.0074	0.0279	0.0286	-0.0221	-0.0073	-0.0461	-0.1483	-0.2645	-0.2550	-0.1467	-0.1506	-0.0209	0.0859	0.0255	-0.1259	-0.1487	-0.0460	-0.1907	-0.0218	0.1830	0.2373	0.1573	0.1309	0.1626	-0.2090	-0.0388	0.2011	0.3054	0.1870	-0.0516	-0.2129	-0.1387	-0.0519	0.0618	0.0973	0.0433	-0.0562	-0.1286	0.0437	-0.0037	-0.1292	-0.2147	-0.1456	-0.0017	0.0643	0.2092	0.1083	-0.1353	-0.2773	-0.1490	0.1078	0.2300	0.1816	0.1507	0.0158	-0.0774	-0.0006	0.1438	0.2001	-0.0572	0.0200	0.0972	0.1156	0.0797	0.0117	-0.0488	-0.2634	-0.1361	0.0530	0.1319	0.0372	-0.1454	-0.2551	-0.2242	-0.0185	0.0887	-0.0889	-0.2540	-0.1439	0.0664	-0.0935	0.1707	0.2803	0.0329	-0.1897	-0.0603	0.1777	-0.0350	0.2233	0.3146	0.0621	-0.1340	0.0178	0.2619	-0.1559	0.0303	0.1140	-0.0599	-0.1722	-0.0024	0.2151	-0.2462	-0.1158	-0.0255	-0.1208	-0.1881	-0.0647	0.0938	-0.1374	-0.0114	0.0879	0.0088	-0.0953	-0.0811	-0.0081	0.0258	0.1600	0.2446	0.1538	0.0038	-0.0624	-0.0510	-0.1852	-0.2172	-0.1707	0.0074	0.1771	0.1223	-0.0295	0.2055	0.1268	-0.0251	0.0111	0.1348	0.0563	-0.1046	0.3131	0.1917	-0.0610	-0.1045	-0.0075	-0.0749	-0.1978	-0.0099	-0.0584	-0.1287	-0.0682	0.0309	-0.0214	-0.0996	-0.2523	-0.1329	0.0275	0.1029	0.1249	0.1281	0.1421	-0.1964	0.0362	0.1732	0.0399	-0.1036	-0.0042	0.1974	0.0079	0.2117	0.2051	-0.1053	-0.3339	-0.1881	0.0986	-0.2421	0.0783	0.2990	0.2101	0.0023	-0.0708	0.0185	-0.1116	0.0264	-0.0023	-0.1306	-0.1694	-0.0792	0.0596	0.0914	-0.0002	-0.2246	-0.2483	-0.0762	0.0353	0.0774	0.2104	0.1014	-0.0104	0.1530	0.2974	0.1640	0.0258	-0.0452	-0.0827	-0.0287	0.1518	0.1316	-0.1392	-0.2523	-0.1276	-0.1208	-0.0941	-0.0637	-0.1407	-0.2180	-0.1182	0.0904	0.1155	0.0653	-0.0125	-0.0197	0.1252	0.3157	-0.1072	-0.1207	0.0009	0.1004	-0.1967	-0.2467	0.0077	0.1122	0.0293	0.1038	0.2584	-0.0068	-0.0215	0.2485	0.1448	-0.0908	-0.0972	0.1371	-0.0305	-0.0437	0.2178	0.0541	-0.2605	-0.2638	0.0517	-0.1261	-0.2413	-0.0251	0.1774	-0.0777	-0.0086	0.3114	0.0666	-0.1431	0.0127	0.1632	-0.0416	0.0168	0.2751	0.0456	-0.0803	0.1053	0.0317	-0.1660	-0.1702	0.0093	-0.1286	-0.1075	0.1260	0.1834	-0.0976	-0.1101	0.1675	0.1421	0.0928	0.1506	0.0481	-0.2446	-0.1967	0.0727	-0.1027	-0.2368	-0.1063	0.0932	-0.0965	0.0174	0.2100	-0.0987	-0.2465	-0.0512	0.1688	0.0218	0.1339	0.2793	0.0087	-0.0028	0.2529	0.0030	-0.1973	-0.1358	0.0230	-0.1420	-0.0477	0.2395	-0.0177	-0.2054	-0.1372	0.0455	-0.1263	-0.1348	0.0574	0.1120	0.0165	0.1141	0.2674	0.0338	-0.1260	-0.0604	-0.0000	-0.0000	0.0000	0.0000	-0.0000	-0.0000	0.0000	-0.0000	0.0000	0.0000	-0.0000	-0.0000	-0.0000	-0.0000	0.0000	-0.0000	0.0000	0.0000	0.0000	-0.0000	0.0000	0.0000	-0.0000	0.0000	0.0000	-0.0000	-0.0000	0.0000	0.0000	-0.0000	0.0000	-0.0000	0.0000	-0.0000	-0.0000	0.0000	0.0000	-0.0000	0.0000	-0.0000	0.0000	-0.0000	-0.0000	-0.0000	-0.0000	0.0000	0.0000	0.0000	0.0000	0.0000	0.0000	-0.0000	-0.0000	0.0000	0.0000	-0.0000	0.0000	-0.0000	-0.0000	0.0000	0.0000	0.0000	0.0000	-0.0000	0.0000	-0.0000	-0.0000	-0.0000	0.0000	-0.0000	-0.0000	0.0000	-0.0000	-0.0000	0.0000	0.0000	-0.0000	-0.0000	0.0000	-0.0000	0.0000	-0.0000	0.0000	0.0000	-0.0000	-0.0000	0.0000	-0.0000	0.0000	-0.0000	0.0000	0.0000	0.0000	0.0000	-0.0000	-0.0000	-0.0000	-0.0000	-0.0000	-0.0000	0.0000	0.0000	-0.0000	-0.0000	0.0000	-0.0000	0.0000	0.0000	-0.0000	-0.0000	-0.0000	-0.0000	0.0000	-0.0000	0.0000	0.0000	0.0000	-0.0000	0.0000	0.0000	-0.0000	0.0000	0.0000	-0.0000	-0.0000	0.0000	0.0000	-0.0000	0.0000	-0.0000	0.0000	-0.0000	-0.0000	0.0000	0.0000	-0.0000	0.0000	-0.0000	0.0000	-0.0000	-0.0000	-0.0000	-0.0000	0.0000	0.0000	0.0000	0.0000	-0.0000	-0.0000	0.0000	0.0000	-0.0000	-0.0000	0.0000	-0.0000	0.0000	0.0000	-0.0000	-0.0000	-0.0000	-0.0000	0.0000	-0.0000	0.0000	0.0000	0.0000	-0.0000	0.0000	0.0000	-0.0000	0.0000	0.0000	-0.0000	-0.0000	0.0000	0.0000	-0.0000	0.0000	-0.0000	0.0000	-0.0000	-0.0000	0.0000	0.0000	-0.0000	0.0000	-0.0000	0.0000	-0.0000	-0.0000	-0.0000	-0.0000	0.0000	0.0000	0.0000	0.0000	0.0000	0.0000	-0.0000	-0.0000	0.0000	0.0000	-0.0000	0.0000	-0.0000	-0.0000	0.0000	0.0000	0.0000	0.0000	-0.0000	0.0000	0.0000	-0.0000	-0.0000	0.0000	-0.0000	-0.0000	0.0000	0.0000	-0.0000	0.0000	0.0000	-0.0000	-0.0000	0.0000	-0.0000	0.0000	-0.0000	0.0000	0.0000	-0.0000	-0.0000	0.0000	-0.0000	0.0000	-0.0000	0.0000	0.0000	0.0000	0.0000	-0.0000	-0.0000	0.0000	-0.0000	-0.0000	-0.0000	0.0000	0.0000	-0.0000	-0.0000	0.0000	-0.0000	0.0000	0.0000	-0.0000	-0.0000	-0.0000	-0.0000	0.0000	-0.0000	-0.0000	0.0000	0.0000	-0.0000	0.0000	0.0000	-0.0000	-0.0000	0.0000	-0.0000	-0.0000	0.0000	0.0000	-0.0000	0.0000	-0.0000	0.0000	-0.0000	-0.0000	0.0000	0.0000	-0.0000	0.0000	-0.0000	0.0000	-0.0000	-0.0000	-0.0000	-0.0000	0.0000	0.0000	-0.0000	0.0000	0.0000	0.0000	-0.0000	-0.0000	0.0000	0.0000	-0.0000	0.0000	-0.0000	-0.0000	0.0000	0.0000	0.0000	0.0000	-0.0000	0.0000	0.0000	-0.0000	-0.0000	0.0000	-0.0000	-0.0000	0.0000	0.0000	-0.0000	0.0000	0.0000	-0.0000	-0.0000	0.0000	-0.0000	0.0000	-0.0000	0.0000	0.0000	-0.0000	-0.0000	0.0000	-0.0000	0.0000	-0.0000	0.0000	0.0000	0.0000	0.0000	-0.0000	-0.0000	0.0000	-0.0000	-0.0000	-0.0000	0.0000	0.0000	-0.0000	-0.0000	0.0000	-0.0000	0.0000	0.0000	-0.0000	-0.0000	-0.0000	-0.0000	0.0000	-0.0000	-0.0000	0.0000	0.0000	-0.0000	0.0000	0.0000	-0.0000	-0.0000	0.0000	-0.0000	-0.0000	0.0000	0.0000	-0.0000	0.0000	-0.0000	0.0000	-0.0000	-0.0000	0.0000	0.0000	-0.0000	0.0000	-0.0000	0.0000	-0.0000	-0.0000	-0.0000	-0.0000	0.0000	0.0000	-0.0000	0.0000	0.0000	-0.0000	0.0000	0.0000	-0.0000	-0.0000	0.0000	-0.0000	0.0000	0.0000	-0.0000	-0.0000	-0.0000	-0.0000	0.0000	-0.0000	-0.0000	0.0000	0.0000	-0.0000	0.0000	0.0000	-0.0000	-0.0000	0.0000	-0.0000	-0.0000	0.0000	0.0000	-0.0000	0.0000	-0.0000	0.0000	-0.0000	-0.0000	0.0000	0.0000	-0.0000	0.0000	-0.0000	0.0000	-0.0000	-0.0000	-0.0000	0.0000	0.0000	-0.0000	-0.0000	0.0000	-0.0000	0.0000	-0.0000	-0.0000	0.0000	0.0000	-0.0000	0.0000	-0.0000	-0.0000	0.0000	0.0000	0.0000	0.0000	-0.0000	0.0000	0.0000	-0.0000	-0.0000	0.0000	-0.0000	-0.0000	0.0000	0.0000	-0.0000	0.0000	0.0000	-0.0000	-0.0000	0.0000	-0.0000	0.0000	-0.0000	0.0000	0.0000	-0.0000	-0.0000	0.0000	-0.0000	0.0000	-0.0000	0.0000	0.0000	0.0000	-0.0000	-0.0000	0.0000	0.0000	-0.0000	0.0000	-0.0000	0.0000	0.0000	-0.0000	-0.0000	0.0000	-0.0000	0.0000	0.0000	-0.0000	-0.0000	-0.0000	-0.0000	0.0000	-0.0000	-0.0000	0.0000	0.0000	-0.0000	0.0000	0.0000	-0.0000	-0.0000	0.0000	-0.0000	-0.0000	0.0000	0.0000	-0.0000	0.0000	-0.0000	0.0000	-0.0000	-0.0000	0.0000	0.0000	-0.0000	0.0000	-0.0000	0.0000	-0.0000	-0.0000	-0.0000	0.0000	0.0000	-0.0000	-0.0000	0.0000	0.0000	-0.0000	0.0000	0.0000	-0.0000	-0.0000	0.0000	-0.0000	0.0000	0.0000	-0.0000	-0.0000	-0.0000	-0.0000	0.0000	-0.0000	-0.0000	0.0000	0.0000	-0.0000	0.0000	0.0000	-0.0000	-0.0000	0.0000	-0.0000	-0.0000	0.0000	0.0000	-0.0000	0.0000	-0.0000	0.0000	-0.0000	-0.0000	0.0000	0.0000	-0.0000	0.0000	-0.0000	0.0000	-0.0000	-0.0000	-0.0000	0.0000	0.0000	-0.0000	-0.0000	0.0000	-0.0000	0.0000	-0.0000	-0.0000	0.0000	-0.0000	-0.0000	0.0000	-0.0000	-0.0000	0.0000	0.0000	0.0000	0.0000	-0.0000	0.0000	0.0000	-0.0000	-0.0000	0.0000	-0.0000	0.0000	0.0000	0.0000	-0.0000	0.0000	0.0000	-0.0000	0.0000	0.0000	-0.0000	0.0000	-0.0000	-0.0000	0.0000	-0.0000	-0.0000	0.0000	-0.0000	0.0000	-0.0000	0.0000	0.0000	0.0000	-0.0000	-0.0000	0.0000	0.0000	-0.0000	0.0000	-0.0000	0.0000	0.0000	-0.0000	0.0000	0.0000	-0.0000	0.0000	0.0000	-0.0000	-0.0000	-0.0000	-0.0000	0.0000	-0.0000	-0.0000	0.0000	0.0000	-0.0000	0.0000	-0.0000	-0.0000	-0.0000	0.0000	-0.0000	-0.0000	0.0000	-0.0000	-0.0000	0.0000	-0.0000	0.0000	0.0000	-0.0000	0.0000	0.0000	-0.0000	0.0000	-0.0000	0.0000	-0.0000	-0.0000	-0.0000	0.0000	0.0000	-0.0000	-0.0000	0.0000	0.0000	-0.0000	0.0000	0.0000	-0.0000	0.0000	0.0000	-0.0000	0.0000	0.0000	-0.0000	-0.0000	-0.0000	-0.0000	0.0000	-0.0000	-0.0000	0.0000	0.0000	-0.0000	0.0000	-0.0000	-0.0000	-0.0000	0.0000	-0.0000	-0.0000	0.0000	-0.0000	-0.0000	0.0000	-0.0000	0.0000	0.0000	-0.0000	0.0000	0.0000	-0.0000	0.0000	-0.0000	0.0000	-0.0000	-0.0000	-0.0000	0.0000	0.0000	-0.0000	-0.0000	0.0000	0.0000	-0.0000	0.0000	0.0000	-0.0000	0.0000	0.0000	-0.0000	0.0000	0.0000	-0.0000	-0.0000	-0.0000	-0.0000	0.0000	-0.0000	-0.0000	0.0000	0.0000	-0.0000	0.0000	-0.0000	-0.0000	-0.0000	0.0000	-0.0000	-0.0000	0.0000	-0.0000	-0.0000	0.0000	-0.0000	0.0000	0.0000	-0.0000	0.0000	0.0000	-0.0000	0.0000	-0.0000	0.0000	-0.0000	-0.0000	-0.0000	0.0000	0.0000	-0.0000	-0.0000	0.0000	1.0000	1.0000	1.0000	1.0000	1.0000	1.0000	1.0000	1.0000	1.0000	1.0000	1.0000	1.0000	1.0000	1.0000	1.0000	1.0000	1.0000	1.0000	1.0000	1.0000	1.0000	1.0000	1.0000	1.0000	1.0000	1.0000	1.0000	1.0000	1.0000	1.0000	1.0000	1.0000	1.0000	1.0000	1.0000	1.0000	1.0000	1.0000	1.0000	1.0000	1.0000	1.0000	1.0000	1.0000	1.0000	1.0000	1.0000	1.0000	1.0000	0.0625	0.0625	0.0625	0.0625	0.0625	0.0312	0.0312	0.0625	0.0625	0.0625	0.0312	0.0312	0.0625	0.0625	0.0625	0.0312	0.0312	0.0625	0.0625	0.0625	0.0312	0.0312	0.0625	0.0625	0.0625	0.0312	0.0312	0.0625	0.0625	0.0625	0.0625	0.0625	0.0625	0.0625	0.0625	0.0625	0.0625	0.0312	0.0312	0.0625	0.0625	0.0625	0.0312	0.0312	0.0625	0.0625	0.0625	0.0312	0.0312	0.0625	0.0625	0.0625	0.0312	0.0312	0.0625	0.0625	0.0625	0.0312	0.0312	0.0625	0.0625	0.0625	0.0625	0.0625	0.0625	0.0625	0.0625	0.0625	0.0625	0.0312	0.0312	0.0625	0.0625	0.0625	0.0312	0.0312	0.0625	0.0625	0.0625	0.0312	0.0312	0.0625	0.0625	0.0625	0.0312	0.0312	0.0625	0.0625	0.0625	0.0312	0.0312	0.0625	0.0625	0.0625	0.0625	0.0625	0.0625	0.0625	0.0625	0.0625	0.0625	0.0312	0.0312	0.0625	0.0625	0.0625	0.0312	0.0312	0.0625	0.0625	0.0625	0.0312	0.0312	0.0625	0.0625	0.0625	0.0312	0.0312	0.0625	0.0625	0.0625	0.0312	0.0312	0.0625	0.0625	0.0625	0.0625	0.0625	0.0625	0.0625	0.0625	0.0625	0.0625	0.0312	0.0312	0.0625	0.0625	0.0625	0.0312	0.0312	0.0625	0.0625	0.0625	0.0312	0.0312	0.0625	0.0625	0.0625	0.0312	0.0312	0.0625	0.0625	0.0625	0.0312	0.0312	0.0625	0.0625	0.0625	0.0625	0.0625	0.0312	0.0312	0.0312	0.0312	0.0312	0.0156	0.0156	0.0312	0.0312	0.0312	0.0156	0.0156	0.0312	0.0312	0.0312	0.0156	0.0156	0.0312	0.0312	0.0312	0.0156	0.0156	0.0312	0.0312	0.0312	0.0156	0.0156	0.0312	0.0312	0.0312	0.0312	0.0312	0.0312	0.0312	0.0312	0.0312	0.0312	0.0156	0.0156	0.0312	0.0312	0.0312	0.0156	0.0156	0.0312	0.0312	0.0312	0.0156	0.0156	0.0312	0.0312	0.0312	0.0156	0.0156	0.0312	0.0312	0.0312	0.0156	0.0156	0.0312	0.0312	0.0312	0.0312	0.0312	0.0625	0.0625	0.0625	0.0625	0.0625	0.0312	0.0312	0.0625	0.0625	0.0625	0.0312	0.0312	0.0625	0.0625	0.0625	0.0312	0.0312	0.0625	0.0625	0.0625	0.0312	0.0312	0.0625	0.0625	0.0625	0.0312	0.0312	0.0625	0.0625	0.0625	0.0625	0.0625	0.0625	0.0625	0.0625	0.0625	0.0625	0.0312	0.0312	0.0625	0.0625	0.0625	0.0312	0.0312	0.0625	0.0625	0.0625	0.0312	0.0312	0.0625	0.0625	0.0625	0.0312	0.0312	0.0625	0.0625	0.0625	0.0312	0.0312	0.0625	0.0625	0.0625	0.0625	0.0625	0.0625	0.0625	0.0625	0.0625	0.0625	0.0312	0.0312	0.0625	0.0625	0.0625	0.0312	0.0312	0.0625	0.0625	0.0625	0.0312	0.0312	0.0625	0.0625	0.0625	0.0312	0.0312	0.0625	0.0625	0.0625	0.0312	0.0312	0.0625	0.0625	0.0625	0.0625	0.0625	0.0312	0.0312	0.0312	0.0312	0.0312	0.0156	0.0156	0.0312	0.0312	0.0312	0.0156	0.0156	0.0312	0.0312	0.0312	0.0156	0.0156	0.0312	0.0312	0.0312	0.0156	0.0156	0.0312	0.0312	0.0312	0.0156	0.0156	0.0312	0.0312	0.0312	0.0312	0.0312	0.0312	0.0312	0.0312	0.0312	0.0312	0.0156	0.0156	0.0312	0.0312	0.0312	0.0156	0.0156	0.0312	0.0312	0.0312	0.0156	0.0156	0.0312	0.0312	0.0312	0.0156	0.0156	0.0312	0.0312	0.0312	0.0156	0.0156	0.0312	0.0312	0.0312	0.0312	0.0312	0.0625	0.0625	0.0625	0.0625	0.0625	0.0312	0.0312	0.0625	0.0625	0.0625	0.0312	0.0312	0.0625	0.0625	0.0625	0.0312	0.0312	0.0625	0.0625	0.0625	0.0312	0.0312	0.0625	0.0625	0.0625	0.0312	0.0312	0.0625	0.0625	0.0625	0.0625	0.0625	0.0625	0.0625	0.0625	0.0625	0.0625	0.0312	0.0312	0.0625	0.0625	0.0625	0.0312	0.0312	0.0625	0.0625	0.0625	0.0312	0.0312	0.0625	0.0625	0.0625	0.0312	0.0312	0.0625	0.0625	0.0625	0.0312	0.0312	0.0625	0.0625	0.0625	0.0625	0.0625	0.0625	0.0625	0.0625	0.0625	0.0625	0.0312	0.0312	0.0625	0.0625	0.0625	0.0312	0.0312	0.0625	0.0625	0.0625	0.0312	0.0312	0.0625	0.0625	0.0625	0.0312	0.0312	0.0625	0.0625	0.0625	0.0312	0.0312	0.0625	0.0625	0.0625	0.0625	0.0625	0.0312	0.0312	0.0312	0.0312	0.0312	0.0156	0.0156	0.0312	0.0312	0.0312	0.0156	0.0156	0.0312	0.0312	0.0312	0.0156	0.0156	0.0312	0.0312	0.0312	0.0156	0.0156	0.0312	0.0312	0.0312	0.0156	0.0156	0.0312	0.0312	0.0312	0.0312	0.0312	0.0312	0.0312	0.0312	0.0312	0.0312	0.0156	0.0156	0.0312	0.0312	0.0312	0.0156	0.0156	0.0312	0.0312	0.0312	0.0156	0.0156	0.0312	0.0312	0.0312	0.0156	0.0156	0.0312	0.0312	0.0312	0.0156	0.0156	0.0312	0.0312	0.0312	0.0312	0.0312	0.0625	0.0625	0.0625	0.0625	0.0625	0.0312	0.0312	0.0625	0.0625	0.0625	0.0312	0.0312	0.0625	0.0625	0.0625	0.0312	0.0312	0.0625	0.0625	0.0625	0.0312	0.0312	0.0625	0.0625	0.0625	0.0312	0.0312	0.0625	0.0625	0.0625	0.0625	0.0625	0.0625	0.0625	0.0625	0.0625	0.0625	0.0312	0.0312	0.0625	0.0625	0.0625	0.0312	0.0312	0.0625	0.0625	0.0625	0.0312	0.0312	0.0625	0.0625	0.0625	0.0312	0.0312	0.0625	0.0625	0.0625	0.0312	0.0312	0.0625	0.0625	0.0625	0.0625	0.0625	0.0625	0.0625	0.0625	0.0625	0.0625	0.0312	0.0312	0.0625	0.0625	0.0625	0.0312	0.0312	0.0625	0.0625	0.0625	0.0312	0.0312	0.0625	0.0625	0.0625	0.0312	0.0312	0.0625	0.0625	0.0625	0.0312	0.0312	0.0625	0.0625	0.0625	0.0625	0.0625	0.0312	0.0312	0.0312	0.0312	0.0312	0.0156	0.0156	0.0312	0.0312	0.0312	0.0156	0.0156	0.0312	0.0312	0.0312	0.0156	0.0156	0.0312	0.0312	0.0312	0.0156	0.0156	0.0312	0.0312	0.0312	0.0156	0.0156	0.0312	0.0312	0.0312	0.0312	0.0312	0.0312	0.0312	0.0312	0.0312	0.0312	0.0156	0.0156	0.0312	0.0312	0.0312	0.0156	0.0156	0.0312	0.0312	0.0312	0.0156	0.0156	0.0312	0.0312	0.0312	0.0156	0.0156	0.0312	0.0312	0.0312	0.0156	0.0156	0.0312	0.0312	0.0312	0.0312	0.0312	0.0625	0.0625	0.0625	0.0625	0.0625	0.0312	0.0312	0.0625	0.0625	0.0625	0.0312	0.0312	0.0625	0.0625	0.0625	0.0312	0.0312	0.0625	0.0625	0.0625	0.0312	0.0312	0.0625	0.0625	0.0625	0.0312	0.0312	0.0625	0.0625	0.0625	0.0625	0.0625	0.0625	0.0625	0.0625	0.0625	0.0625	0.0312	0.0312	0.0625	0.0625	0.0625	0.0312	0.0312	0.0625	0.0625	0.0625	0.0312	0.0312	0.0625	0.0625	0.0625	0.0312	0.0312	0.0625	0.0625	0.0625	0.0312	0.0312	0.0625	0.0625	0.0625	0.0625	0.0625	0.0625	0.0625	0.0625	0.0625	0.0625	0.0312	0.0312	0.0625	0.0625	0.0625	0.0312	0.0312	0.0625	0.0625	0.0625	0.0312	0.0312	0.0625	0.0625	0.0625	0.0312	0.0312	0.0625	0.0625	0.0625	0.0312	0.0312	0.0625	0.0625	0.0625	0.0625	0.0625	0.0312	0.0312	0.0312	0.0312	0.0312	0.0156	0.0156	0.0312	0.0312	0.0312	0.0156	0.0156	0.0312	0.0312	0.0312	0.0156	0.0156	0.0312	0.0312	0.0312	0.0156	0.0156	0.0312	0.0312	0.0312	0.0156	0.0156	0.0312	0.0312	0.0312	0.0312	0.0312	0.0312	0.0312	0.0312	0.0312	0.0312	0.0156	0.0156	0.0312	0.0312	0.0312	0.0156	0.0156	0.0312	0.0312	0.0312	0.0156	0.0156	0.0312	0.0312	0.0312	0.0156	0.0156	0.0312	0.0312	0.0312	0.0156	0.0156	0.0312	0.0312	0.0312	0.0312	0.0312	0.0625	0.0625	0.0625	0.0625	0.0625	0.0312	0.0312	0.0625	0.0625	0.0625	0.0312	0.0312	0.0625	0.0625	0.0625	0.0312	0.0312	0.0625	0.0625	0.0625	0.0312	0.0312	0.0625	0.0625	0.0625	0.0312	0.0312	0.0625	0.0625	0.0625	0.0625	0.0625	0.0625	0.0625	0.0625	0.0625	0.0625	0.0312	0.0312	0.0625	0.0625	0.0625	0.0312	0.0312	0.0625	0.0625	0.0625	0.0312	0.0312	0.0625	0.0625	0.0625	0.0312	0.0312	0.0625	0.0625	0.0625	0.0312	0.0312	0.0625	0.0625	0.0625	0.0625	0.0625	0.0625	0.0625	0.0625	0.0625	0.0625	0.0312	0.0312	0.0625	0.0625	0.0625	0.0312	0.0312	0.0625	0.0625	0.0625	0.0312	0.0312	0.0625	0.0625	0.0625	0.0312	0.0312	0.0625	0.0625	0.0625	0.0312	0.0312	0.0625	0.0625	0.0625	0.0625	0.0625	0.0625	0.0625	0.0625	0.0625	0.0625	0.0312	0.0312	0.0625	0.0625	0.0625	0.0312	0.0312	0.0625	0.0625	0.0625	0.0312	0.0312	0.0625	0.0625	0.0625	0.0312	0.0312	0.0625	0.0625	0.0625	0.0312	0.0312	0.0625	0.0625	0.0625	0.0625	0.0625	0.0625	0.0625	0.0625	0.0625	0.0625	0.0312	0.0312	0.0625	0.0625	0.0625	0.0312	0.0312	0.0625	0.0625	0.0625	0.0312	0.0312	0.0625	0.0625	0.0625	0.0312	0.0312	0.0625	0.0625	0.0625	0.0312	0.0312	0.0625	0.0625	0.0625	0.0625	0.0625	