-0.0664	-0.3078	-0.7520	-0.8131	-1.0844	-0.7969	-0.7847	-0.4997	-0.7035	-1.1034	-0.9897	-0.0802	0.0943	0.1041	-0.3042	0.1664	-0.0892	-0.3164	0.3841	0.3860	0.8988	1.1244	1.3603	1.2529	0.1320	-0.4363	-0.5482	0.0032	-0.0032	-0.1856	-0.2818	-0.5190	-0.0832	0.6564	1.7290	2.2134	2.2087	2.0098	1.1613	1.2368	1.9523	0.3425	-0.7154	-0.5552	0.0257	-0.1073	0.0714	1.2230	1.8885	2.0397	2.7465	2.8937	1.4445	1.2116	2.0011	2.5751	1.6012	0.7069	0.0284	0.0286	0.7238	1.0129	1.4414	1.4568	1.6534	2.1235	1.9413	1.7396	3.1393	2.8971	2.4198	1.8096	2.0263	1.6307	0.5254	0.6856	0.9593	1.8054	1.3822	1.6954	1.1304	1.5282	2.2083	4.1580	4.3607	2.8870	1.4728	1.4285	1.6481	1.4261	1.2168	0.9246	1.2192	0.9943	1.3586	1.2161	1.9984	1.5673	2.4077	2.5631	1.9496	1.2666	1.3098	1.8053	2.2126	0.5204	0.8779	1.0804	0.9633	1.2849	1.2088	1.4360	1.5850	2.5183	1.1189	0.9967	1.2986	2.3535	2.7900	2.2754	0.6530	1.2852	1.1214	0.9342	1.0008	1.0053	1.8993	2.2470	3.9553	2.8391	1.8477	2.9483	3.4735	3.2374	2.2761	0.7641	1.0126	0.8446	0.3811	0.9458	0.8934	1.8221	1.7015	2.4561	2.8474	2.5690	2.7806	2.4007	2.9665	2.0872	0.5032	0.3752	0.5102	0.4089	0.8893	1.0286	1.3354	1.3256	1.3806	1.5991	1.9004	1.9075	2.2646	2.3855	0.6349	0.8488	0.6769	0.3435	0.0561	0.8623	0.8814	0.6799	1.1254	1.3866	1.3292	1.5257	1.9046	2.6981	1.9788	0.5076	0.7950	0.9473	0.9332	0.9052	0.7506	0.4484	0.8623	1.5864	1.5384	1.3506	1.7485	1.6637	2.3684	1.5136	0.6641	0.5251	0.4818	0.8177	0.6323	0.6457	0.9901	0.6143	0.7840	1.0368	1.1920	1.5898	1.4318	1.7834	1.1561	0.3732	0.9398	0.4705	0.8145	0.8439	0.9973	1.2972	1.1206	1.3910	1.3088	1.3711	1.7342	2.1651	1.3912	0.5553	0.2816	0.3818	0.4733	0.7736	1.3870	2.2692	2.5451	3.1476	2.8859	3.1333	2.2114	1.1401	0.0950	0.2262	0.2381	-0.0300	0.2217	0.6166	1.0238	1.7943	3.2892	3.9215	4.4346	3.9397	3.8721	3.4426	3.6401	2.1608	0.5463	-0.0662	0.2243	0.7444	1.2549	1.7588	2.7368	3.2899	4.1393	4.9625	4.6482	4.3042	4.1330	4.7595	4.1585	2.6113	1.0163	0.4249	1.2977	1.6973	2.1114	2.7646	2.9297	3.3193	4.3338	4.6906	5.1836	5.6079	4.6287	4.3308	3.5552	3.1456	1.3632	1.2331	1.7738	2.4364	2.7806	2.8464	2.8659	3.5827	3.7134	5.1124	6.8529	5.0646	3.9110	3.2417	3.7421	2.8499	1.5904	1.8416	1.9762	2.3061	2.3771	2.8162	3.3269	3.5575	4.2073	5.2498	4.5625	3.9049	3.6118	3.7633	3.5274	1.1419	1.6796	1.8085	2.0502	1.9937	2.5020	2.8898	3.7926	4.4115	4.4143	3.7755	3.9012	4.2739	4.5094	3.8329	1.2407	1.7952	1.7656	1.7508	1.7117	2.2455	2.7922	3.6953	5.2734	5.6526	3.8425	4.5095	5.0922	4.8814	4.2136	1.1633	1.3755	1.5577	1.2336	1.6552	1.9468	2.2742	2.8514	3.4726	5.0748	4.0840	4.1120	4.5480	4.1864	3.6318	1.3076	1.1930	1.2319	0.9742	1.4243	1.7374	2.0208	2.8610	2.4591	3.3883	3.5063	3.7877	3.9602	3.4833	2.5827	1.2601	1.4808	1.3452	0.9529	1.1323	1.7555	1.6176	2.3952	2.5194	2.7681	2.9179	3.2994	3.6128	3.2811	2.1826	1.0081	1.6865	1.6776	1.6991	1.3872	1.7781	1.6287	2.1425	2.4989	2.5563	2.8328	2.6042	3.0972	2.7639	1.4681	0.9503	1.2868	1.2747	1.5057	1.6668	2.0494	1.6556	1.8179	2.1626	2.2257	2.6563	2.3346	2.3105	2.1981	0.7816	1.2076	1.0195	1.1736	1.6062	1.5141	2.0717	2.2120	2.2365	2.2611	2.1480	2.2721	2.3425	1.8045	1.0986	0.3072	1.1246	0.9641	0.7681	1.0763	1.1307	1.8362	1.9997	2.1816	2.0917	1.8439	1.7359	1.2232	0.8813	0.2238	-0.2159	0.2820	0.4460	1.1000	2.0263	2.1172	2.7597	2.5716	2.8975	1.6876	0.5803	-0.0434	0.2693	-0.0727	-0.2275	-0.1778	0.4190	0.7251	1.4117	2.7810	3.2136	3.6468	2.7643	2.6844	2.3063	2.9526	1.8475	0.3351	-0.1109	0.1131	0.2181	0.8260	1.3167	2.5494	2.6950	3.0762	3.5284	3.2042	2.6555	2.4918	3.3072	3.0839	1.5325	0.3677	0.2820	0.2101	1.5002	1.9394	2.4278	2.1402	2.0972	2.5236	2.1919	2.5509	4.0258	3.1153	2.2182	1.9753	2.5831	1.1511	-0.0993	1.7024	1.9220	1.7251	1.5212	1.4946	1.8817	2.2055	4.1649	5.3795	3.0466	2.1939	1.5865	2.3270	1.7975	-0.0724	1.1515	1.0547	1.4508	1.4202	1.7926	1.9379	2.3354	2.5693	3.0708	2.2530	1.7404	1.7656	2.0888	1.9480	0.5794	1.4346	1.1137	1.1583	0.8073	1.5804	1.9185	2.6399	2.7941	2.2540	0.9757	1.7450	2.7234	3.1503	2.6802	0.5383	0.7988	0.9975	1.1598	1.0118	1.4888	1.6727	2.3527	3.5295	3.9567	1.9998	2.8680	3.5980	3.6080	2.3132	-0.0722	1.2519	1.2710	0.5319	0.8834	1.0948	1.4461	2.3095	2.1574	3.2887	2.3286	3.0776	3.2948	2.3095	1.6775	0.1056	0.4488	0.3509	0.2134	0.8085	1.3818	1.3062	1.9770	1.3011	1.7031	1.6093	2.0699	1.9553	1.5410	0.9024	-1.1414	0.9376	0.8627	0.6759	0.8094	1.2988	0.9543	1.2749	1.2602	1.5320	1.4192	1.6361	2.0205	1.9316	0.5028	-0.8528	1.4373	0.8925	1.0067	1.0304	1.2034	0.7459	1.4591	1.9211	1.7556	1.8673	1.6322	1.9649	1.4941	0.1753	0.0763	0.7181	0.8581	1.2521	1.0791	1.2633	0.9547	1.3116	1.2973	1.1495	1.5600	1.4561	1.1064	0.8805	-0.2695	-0.2486	0.6295	0.4387	0.8846	0.7351	1.5586	1.6852	1.3168	1.3380	1.2650	1.3355	1.4929	0.9099	0.1788	-0.3780	-0.3523	0.7466	0.4596	0.7150	0.6929	1.1765	1.0770	1.4356	1.5631	1.1071	0.9865	0.7075	0.2015	-0.5390	-0.6170	-0.4977	0.1593	0.1711	0.5650	0.7242	1.0921	1.0431	1.1067	0.6974	0.1810	0.0626	0.2138	0.1047	0.2718	-0.0973	0.1742	0.5377	0.8516	1.9899	2.4956	3.1196	3.1760	3.2948	3.0546	2.0646	1.2236	0.2462	0.0844	-0.0034	0.0275	0.0108	0.8161	1.5868	2.4104	3.6068	4.4481	4.5711	4.0638	3.7715	3.9767	3.9660	1.8322	0.7656	0.2882	0.2106	0.2979	1.3583	2.3805	3.0162	3.6349	4.6009	5.0962	4.9210	5.2368	4.8879	4.4914	3.8760	2.7030	0.9900	0.0902	0.1580	1.9378	2.6349	3.0965	3.5908	3.8983	4.2516	4.6654	5.6118	5.4184	4.7269	3.7571	3.9237	3.0863	1.3097	-0.0223	2.2928	2.9085	2.5392	3.1804	2.9583	3.8944	4.7146	6.3627	6.3568	5.0701	3.8508	3.8921	3.7128	2.7793	0.0721	1.7020	2.2454	2.2289	3.0134	2.8720	3.7029	3.8777	4.9666	4.9881	4.8752	4.1475	4.0475	3.8161	3.0143	0.4150	2.2503	2.1252	2.0028	2.3296	2.5611	3.6263	4.3020	5.4081	3.8429	3.8462	4.3871	5.0030	4.4049	3.4977	0.7489	1.6162	1.5892	1.8476	2.1759	2.4215	3.4619	3.7628	5.6433	5.0111	4.3200	4.7060	5.1263	4.7833	3.2992	0.5776	1.7016	1.6384	1.4067	2.0013	1.9795	3.0200	3.1771	4.1597	4.7395	4.6924	4.7838	4.6649	4.4059	2.6372	0.9248	1.2660	1.2127	0.9512	1.6746	1.9877	2.3611	2.8966	3.2940	3.3810	3.7803	4.0763	4.1107	3.3359	1.6196	0.4417	1.3781	1.4751	1.3857	1.7019	1.7443	1.9878	2.4392	2.6673	2.7301	3.0836	3.3012	3.7681	2.7385	1.2897	0.4879	1.6881	1.5211	1.5201	1.7924	1.7345	1.9661	2.4256	2.7304	2.7933	3.2000	2.8246	3.2785	2.2534	1.1281	0.7798	1.1987	1.7410	1.7024	1.8493	2.0263	1.7776	2.3231	2.3915	2.3881	2.7817	2.5149	2.2422	1.3156	0.6066	0.3174	0.8733	1.2424	1.4842	1.7479	2.3222	2.3653	2.4673	2.1312	2.1809	2.3631	2.1354	1.3311	0.6292	0.2964	-0.0774	0.2439	-0.1354	0.1081	-0.0766	0.1494	-0.4859	0.2787	-0.1137	0.1559	-0.7648	-0.6900	-0.0697	-0.1927	-0.1191	-0.0270	-0.0586	0.1946	0.1579	-0.0864	0.6395	-0.0786	0.2511	-0.0396	0.5401	0.2691	0.3196	-0.6775	0.2837	-0.0439	-0.0671	-0.2809	-0.0418	0.0926	0.1640	0.2675	0.2404	0.2450	0.3483	0.3601	-0.5808	0.0633	0.6718	-0.3498	-0.7675	0.1063	0.1334	0.2635	-0.0434	0.6349	0.4271	-0.2306	0.0352	0.0392	-1.1849	0.2178	-0.5008	0.3843	0.2660	0.0914	0.0599	0.3508	0.4650	0.1227	-0.3384	-0.0974	-0.4667	0.3504	0.7302	0.2348	0.7323	-0.2646	0.4736	-0.1764	-0.0493	0.2114	-0.2600	-0.2768	-0.2496	0.4711	0.3047	-0.1752	-0.1230	-0.1006	-0.9427	0.5779	0.5324	-0.2362	-0.3106	-0.6983	-0.0560	0.3398	0.6809	-0.5636	0.1619	-0.2139	0.2330	0.3141	0.2594	-0.6315	-0.7924	-0.5446	0.1889	-0.1562	-0.4241	0.2024	-0.5868	-0.4459	-0.0011	0.3196	-0.1480	0.4692	-0.1855	0.0059	-0.4587	0.5595	-0.2680	-0.3322	-0.0526	-0.0062	-0.1866	0.3686	0.2152	0.3832	0.0555	-0.1433	-0.0899	0.1439	0.7241	-0.3432	1.0235	0.5369	0.2720	0.6242	-0.5050	0.5653	-0.0889	-0.3240	-0.0250	-0.0481	-0.0803	0.5649	-0.6045	0.5785	-0.4678	-0.2407	0.0698	-0.0062	-0.4153	-0.7946	0.2261	-0.2029	-0.1514	0.0039	0.3064	-0.0384	0.2252	-0.2305	-0.0543	-0.3107	-0.3122	-0.2170	-0.2954	-0.2884	-0.2035	-0.0441	-0.0458	0.1523	-0.1895	-0.0382	-0.3815	0.1129	-0.1136	0.0982	0.4608	-0.0313	0.2185	-0.1593	0.0383	0.0901	0.2726	-0.2936	0.2437	0.2629	0.7204	-0.1521	-0.2052	-0.0670	0.1859	-0.0261	-0.0592	-0.0609	0.0961	-0.5278	-0.0874	0.0532	0.0154	0.0737	-0.4990	0.1133	-0.0476	0.2157	0.3071	-0.5024	-0.2270	0.0121	0.0773	-0.1833	-0.2915	0.1835	0.1582	0.1441	0.2105	0.1839	0.1725	0.0500	-0.0024	-0.1628	0.5124	0.0508	0.0214	-0.0178	0.1756	0.3072	-0.2918	0.3201	0.1690	0.0876	0.4508	-0.0142	-0.0516	0.2562	-0.0530	0.1311	-0.8796	-0.7371	-0.2934	-0.3976	0.2075	-0.2193	0.0801	0.0611	0.1733	0.3396	0.5372	0.3240	-0.1209	0.1561	0.2566	0.8753	1.2844	-1.2219	-0.2003	-0.3910	0.5098	-0.0976	-0.1469	0.5579	-0.3168	-0.4679	0.0855	0.5016	-0.0694	-0.1254	0.1043	0.2867	0.7840	-0.3043	-0.4424	-0.2711	0.1174	0.3103	-0.2197	0.0568	-0.2427	-0.2493	-0.1599	0.2689	0.9583	0.4303	-1.1320	0.4606	1.3220	0.3676	-0.6759	-0.3004	-0.0734	-0.0276	-0.6354	0.0711	-0.5509	0.1375	0.6096	0.6217	-0.2639	-0.1515	-0.4310	0.0793	0.5851	0.7032	-0.9331	-0.4649	0.0091	0.0679	0.4888	-0.2921	0.3347	-0.6915	-0.7888	0.4723	0.4989	0.3426	0.4091	-0.3202	0.4534	-0.0503	0.1839	-0.4309	-0.0416	-0.1610	0.0253	0.2741	0.0962	0.1511	-1.4554	0.2203	0.8629	0.3207	0.0965	-0.2417	-0.5500	-0.0654	-0.1195	0.1205	-0.1657	0.0338	-0.0810	-0.1646	0.6011	-0.3621	-0.4307	0.1198	0.2923	-0.6573	-0.0305	-0.2610	-0.0003	-0.1002	-0.3585	0.2777	-0.4322	0.3623	-0.4988	-0.2754	1.1153	0.5763	0.1031	-0.2881	0.1338	0.4681	0.3791	-0.3050	0.0202	0.1454	0.1849	0.1515	-0.4251	0.0620	-0.6749	-0.6065	0.4686	0.1312	-0.2893	0.0201	-0.5104	0.3447	0.0896	0.0122	-0.3294	0.0827	-0.0539	-0.4928	0.1545	0.1546	-0.3048	-0.0966	0.0221	0.2776	-0.2804	-0.1494	0.4157	-0.1909	-0.0167	0.3646	-0.3902	-0.5321	0.2754	0.1890	-0.0326	-0.3359	0.2621	-0.5315	0.2687	-0.3657	0.2792	0.7872	0.3537	0.2698	0.1740	0.0233	0.1774	0.0525	-0.1126	-0.3258	0.1197	0.1148	-0.2519	-0.2039	-0.0885	0.2302	0.2205	-0.5829	0.1393	-0.0284	0.0127	0.4475	-0.1082	-0.2956	-0.2163	-0.2611	0.0198	0.0315	-0.5653	-0.0545	0.6420	-0.1853	-0.1374	-0.1475	0.0111	0.1329	-0.1109	-0.0518	0.6258	-0.3334	0.1790	-0.0916	-0.2984	0.2540	0.1357	0.2255	-0.1057	-0.2287	-0.2535	-0.1699	-0.5549	-0.1963	-0.1833	0.3133	-0.0377	-0.3176	-0.2622	0.7322	0.1323	0.0153	-0.1909	0.0084	-0.0965	-0.0966	-0.0370	0.0110	-0.4985	0.2566	0.1387	0.5951	-0.1345	-0.1599	-0.3291	1.0130	0.5862	-0.4044	0.1938	-0.1967	-0.0063	-0.2485	0.2904	0.2254	-0.1816	0.1346	0.2695	-0.7115	0.6566	-0.1728	-0.0830	-0.3345	1.0597	0.0239	-0.2418	0.0924	0.5937	0.0478	0.0050	0.1588	-0.2493	-1.3173	-0.0365	0.6703	0.1974	-0.0340	-0.4051	0.5470	1.1933	0.1463	-0.0262	-0.2317	-0.0799	-0.0644	0.1749	-0.3366	0.2041	0.1326	-0.4230	0.5806	0.2447	0.0562	-0.3980	0.1457	-0.4155	0.3438	-0.0112	0.4356	-0.6869	-0.0634	-0.1927	0.1898	0.5679	-0.0346	-0.6548	0.0037	-0.2276	0.0845	-0.2909	0.1177	-0.3157	-0.0540	0.1871	-0.4853	0.5721	-0.2468	-0.3499	-0.2018	-0.1507	-0.2973	-0.1484	-0.2241	0.5027	0.2332	-0.3461	-0.0027	0.1782	-0.1519	0.3943	-0.3187	-0.4419	0.0637	-0.9383	0.5140	-0.1054	-0.0395	0.4834	0.2369	-0.6228	0.5278	0.0073	0.1162	-0.2020	-0.3710	0.4228	-0.0711	0.7589	-0.2404	-0.4439	0.4156	0.9425	-0.4389	0.3432	-0.1948	-0.0136	0.0720	-0.3334	0.1072	-0.0747	-0.0465	-0.0029	-0.0631	-0.0054	-0.1948	0.1950	-0.4108	-0.2194	0.4114	-0.0722	-0.3716	0.0555	0.1647	0.3452	-0.2709	0.0861	0.1229	-0.4628	-0.1717	-0.0108	-0.0136	-0.2960	0.3642	-0.1772	-0.5446	-0.1774	0.0697	-0.4894	-0.0598	0.3192	-0.0608	-0.0042	0.2092	-0.2111	0.0745	0.0403	0.4730	-0.1549	-0.1263	0.0818	0.2295	-0.1122	0.4579	-0.1513	-0.4700	0.0959	0.6045	-0.1796	-0.1726	0.1802	-0.2676	0.4816	-0.3783	0.0885	0.3402	0.2835	-0.1969	-0.1526	-0.0340	0.0649	0.0837	-0.3941	-0.0731	0.1101	0.3982	-0.3836	0.0161	0.5963	-0.1413	0.0009	-0.3952	0.4606	-0.0307	-0.0861	0.2100	-0.3840	0.4482	-0.1683	0.2486	0.0836	0.4524	0.4208	-0.6038	0.4297	-0.3543	0.1695	-0.4950	-0.0822	-0.5272	0.3955	-0.3349	-0.2240	-0.1939	-0.1456	0.5900	0.0454	0.5276	0.2081	-0.2982	0.0557	-0.4547	0.5677	0.2283	0.4649	-0.1303	0.6831	0.5501	0.8328	0.5450	-0.1864	0.3566	0.4981	0.2736	0.0768	-0.3735	0.4187	-0.2139	-0.3673	0.3482	0.1245	-0.1193	-0.5194	-0.2326	-0.1164	-0.0424	-0.1648	0.0830	0.3759	0.3751	0.6303	0.1838	0.1131	0.4655	-0.1211	0.1375	-0.1395	0.5635	0.8101	-0.4466	0.9331	0.5415	-0.0507	-0.6076	0.3601	0.0753	-0.1141	-0.1569	0.0780	0.1393	-0.1822	0.1726	-0.3888	-1.3142	-0.0181	0.2058	-0.2099	-0.2260	0.4771	-0.4489	-0.0990	0.3183	0.3244	-0.1186	0.0735	0.1113	0.0920	-0.2593	0.8035	0.3244	-0.7444	0.2999	-0.1763	0.1687	0.3827	0.0223	-0.1860	-0.2330	0.1681	-0.2601	0.1425	0.0561	0.3086	-0.0149	0.5499	0.6809	-0.5963	-0.0214	0.1897	-0.3018	0.2482	0.0521	-0.0804	0.1045	-0.3688	-0.1395	-0.2280	-0.1576	-0.5885	-0.8246	0.1524	0.1936	-0.3867	-0.1121	0.5966	0.3465	0.0886	-0.1846	0.1447	-0.0686	0.0680	-0.1714	-0.1465	0.8005	0.6271	-1.0153	0.0574	0.2969	0.7691	-0.6368	0.0469	0.0360	0.4234	-0.0891	0.0633	0.0972	-0.0447	-0.1708	-0.4942	0.0990	-0.1321	-0.2726	0.1848	-0.4530	0.1720	-0.0370	-0.1548	-0.4417	-0.1894	0.1706	-0.1342	-0.0368	0.7452	0.0829	0.3420	0.0745	0.0612	-0.3131	-0.0007	0.3063	-0.3696	-0.2346	0.3781	0.1462	-0.3289	-0.0502	0.1348	-0.3081	-0.2266	0.0414	-0.2093	-0.0558	-0.0754	-0.1576	-0.0937	-0.3748	0.4906	-0.3094	0.0736	0.4930	0.5018	-0.0128	0.1757	0.1134	0.0154	0.1666	-0.1228	0.1606	-0.1631	-0.0336	-0.1214	-0.1845	0.4322	-0.4017	-0.2038	-0.0876	-0.2799	-0.0603	-0.0578	-0.2613	0.0193	0.0998	-0.5928	0.5109	-0.1779	-0.1375	-0.0844	-0.3628	0.6359	-0.3242	-0.0236	0.2367	-0.3672	0.2218	0.3085	-0.3110	0.0395	0.4322	-0.3243	-0.2808	-0.1741	-0.2676	0.5500	0.1690	-0.1229	0.1590	0.5809	0.3072	0.7347	-0.0548	0.2020	-0.0124	-0.2971	0.6077	-0.0888	-0.1230	-0.0494	-0.3900	-0.1155	0.0041	0.1883	-0.8404	-0.2750	-0.0975	-0.4577	0.3672	-0.2301	0.6448	-0.6849	0.5768	-0.2410	0.3166	0.2049	0.1433	0.3645	-0.8768	0.5651	0.1607	0.1512	0.2375	-0.2767	-0.1009	0.2995	0.2083	-0.2063	0.4142	-0.6297	-0.1720	-0.1625	-0.1040	0.4219	-0.1026	-0.6038	-0.1633	-0.0350	-0.2807	0.4651	-0.5649	-0.5349	0.5276	0.7845	-0.0972	-0.0314	0.3042	0.0978	-0.2894	0.5934	0.1608	-0.7518	0.3604	0.3844	-0.4343	0.7056	-0.0420	-0.3708	-0.4093	0.0588	-0.5047	-0.2546	0.4960	-0.5378	0.0656	0.0039	0.0386	-0.3072	-0.3092	0.0205	-0.3699	0.2664	0.0434	-0.5138	-0.0791	0.1250	-0.0224	-0.2732	0.0376	-0.3375	-0.1803	0.2264	-0.4239	0.2426	-0.3875	-0.4102	0.1019	0.8047	-0.1617	0.4522	-0.1920	0.1639	-0.2946	0.3902	0.2723	0.1550	0.1689	0.3224	-0.3106	0.2308	0.8329	-0.3859	0.0231	-0.1647	-0.3816	0.3643	0.2019	0.2347	-0.1015	-0.1294	-0.1386	0.0289	-0.3537	-0.0821	-0.0380	-0.4052	0.2704	-0.2812	-0.3268	0.2507	0.0061	-0.2383	0.2172	-0.4235	0.0225	0.4871	0.0779	-0.1790	0.0143	-0.4053	0.1651	0.0640	0.3284	-0.7193	-0.2824	0.4751	-0.1739	-0.3827	0.7107	-0.3534	-0.0477	-0.2452	-0.0341	-0.3543	-0.0173	0.3532	-0.4155	0.1196	-0.1889	0.2114	-0.3193	0.6032	0.0476	-0.5846	0.3849	0.2582	0.1251	-0.2375	0.3964	-0.5198	0.1174	0.3944	-0.1097	-0.1936	0.2397	-0.4214	-0.3634	0.2095	0.1611	-0.2619	0.0625	0.0610	0.1101	-0.0599	0.1909	-0.0968	0.1552	-0.2908	0.0454	-0.4284	0.1980	0.2108	-0.5812	0.0837	-0.0475	0.1658	0.0379	-0.0256	0.2117	0.2163	0.0811	-0.1188	0.1420	-0.1608	0.3365	-0.1696	-0.0329	-0.1518	0.0886	0.1134	-0.0806	-0.1633	0.0350	0.0969	-0.2236	-0.0310	-0.1194	0.1088	-0.0297	-0.1968	0.1383	-0.9468	-0.0248	-0.6301	-0.1733	-0.6974	-0.6837	-0.4952	0.0164	0.0997	-0.0665	0.3812	-0.3680	-0.1960	0.1216	0.0052	0.7476	0.0340	0.1316	-0.0936	1.0778	0.7110	0.3109	0.3723	0.3661	-0.0146	-0.4266	0.2938	-0.1863	-0.2306	-0.3172	0.0126	-0.3446	-0.1705	0.3453	-0.5555	-0.5067	-0.3331	-0.2171	-0.2080	0.3602	0.1441	0.2643	-0.0302	0.1533	0.7190	-0.1124	0.4967	-0.1748	-0.0054	0.2925	0.6251	0.9565	-0.1701	0.2491	-0.5853	0.4186	0.5117	-0.0325	-0.3423	-0.0085	0.1805	-0.3169	0.1744	-0.0221	-0.8335	-0.7813	0.2633	-0.1821	-0.0741	0.4081	-0.8831	-0.2010	0.3435	0.3116	-0.1544	0.4127	0.1046	-0.1860	0.1718	0.5152	-0.0963	-0.1040	0.2692	-0.2672	0.3769	0.4082	-0.2942	0.0532	-0.2120	-0.0158	-0.4242	0.2938	0.0759	0.1943	0.1543	0.3215	0.2891	-0.0910	-0.1298	-0.0356	0.3179	0.3190	-0.8729	0.1098	-0.1464	-0.3899	-0.0648	-0.2022	-0.3782	-0.4998	-0.8333	-0.3096	-0.7506	0.1737	-0.0821	-0.7186	0.3456	0.4846	-0.1656	0.4301	-0.0440	-0.1069	-0.0325	-0.0128	0.5190	0.2611	-0.0829	0.4864	-0.0535	0.6450	0.1746	0.1483	-0.4670	0.3019	-0.1752	0.2069	0.0621	-0.0486	0.2205	-0.2117	-0.3408	-0.4170	-0.0505	0.0898	0.0487	0.0931	-0.2762	-0.4028	0.0399	-0.1013	-0.5210	-0.0058	0.4250	-0.3233	0.2629	0.7367	-0.1167	0.1278	0.0885	-0.0856	-0.3094	-0.0514	-0.2020	-0.2635	0.0001	0.3051	-0.5106	-0.1746	0.1399	-0.0269	-0.4251	-0.2000	0.0123	-0.3909	0.2068	-0.0287	-0.5869	-0.1038	-0.0234	0.0682	0.4952	0.7712	-0.0175	0.3666	0.1689	0.1862	0.1215	0.0336	0.2110	-0.2793	0.2012	-0.0970	0.2531	0.1543	-0.0635	-0.1039	-0.3911	0.0454	-0.1977	-0.1635	-0.2758	-0.0370	-0.0513	-0.1838	0.1569	-0.2721	0.1574	-0.1058	-0.1255	-0.1077	-0.0491	0.2877	-0.0076	-0.1225	0.1578	0.0861	0.0276	0.2867	0.0544	0.0133	0.2882	0.0150	0.0440	-0.1225	0.0569	-0.4282	-0.0035	0.4051	-0.0288	-0.2196	-0.1860	-0.5260	-0.5100	0.6882	0.1897	0.0240	0.2373	-0.1341	0.2682	-0.1901	0.0104	0.3135	-0.1409	-0.7111	0.1391	-0.5522	0.7555	0.1798	-0.5088	0.8439	0.0299	-0.0796	-0.1662	0.0601	-0.0370	-0.2091	-0.4685	-0.0032	0.6618	-0.0300	0.0659	-0.4099	-0.4969	0.3969	-0.7508	-0.0485	0.2481	0.2950	-0.3083	0.0610	0.0480	0.1736	0.3941	-0.2159	-0.2237	-0.6152	0.4244	0.1207	-0.0288	0.0497	0.2019	0.0129	-0.0336	0.3582	-0.2672	0.0429	0.0580	0.0045	-0.1563	0.1150	0.4980	-1.0303	0.3017	-0.2053	-0.0216	0.2289	-0.2814	-0.5947	0.0397	0.5476	0.1339	-0.3196	0.3169	-0.4616	-0.2267	-0.0082	0.1742	0.2715	-0.1062	-0.5650	0.0801	0.0101	0.7856	0.2956	0.1417	-0.0161	-0.4220	0.5338	-0.0119	0.4512	-0.0469	0.0075	0.3119	0.3011	-0.1581	-0.0040	0.0114	0.3462	-0.0875	0.0377	0.3438	0.0799	0.3406	-0.1629	-0.2092	-0.2002	0.0807	0.1494	0.0449	-0.1362	-0.1130	-1.0363	0.6097	-0.0695	0.2769	-0.5131	0.6131	-0.5663	0.1549	-0.0167	-0.1292	0.1297	0.0210	-0.5018	-0.1056	0.1930	0.3228	0.3384	0.2100	-0.1572	0.3815	-0.5943	0.0942	-0.0349	-0.0582	-0.0466	0.0539	0.1929	-0.1759	0.1784	0.1781	0.1694	0.2936	0.0129	-0.0284	-0.1743	-0.0849	0.1587	0.1354	-0.4765	0.1312	0.6219	-0.1833	0.4048	0.0193	-0.0163	-0.0523	0.3373	-0.1649	-0.6202	0.0850	-0.2047	0.0096	0.2205	0.0484	0.1045	-0.1668	0.2248	-0.0497	-0.1749	0.1166	-0.0189	0.1090	-0.0885	0.1002	-0.1231	0.2049	0.0958	-0.1598	-0.1455	-0.1188	0.4623	-0.2839	0.3400	-0.1944	-0.1403	-0.2299	0.4512	-0.2535	0.3208	0.1450	0.0563	0.0716	0.4297	-0.3069	-0.0276	0.0513	-0.1026	0.0769	-0.1929	-0.0277	0.3369	0.0252	0.1329	-0.0049	-0.1796	0.3679	0.1521	-0.2766	-0.0563	-0.0526	0.0193	-0.2031	-0.1113	0.3400	-0.0781	0.1230	0.1016	-0.3900	-0.0642	0.0457	-0.1180	-0.0353	-0.2156	0.2193	-0.0227	-0.0544	-0.1855	0.5940	-0.3691	-0.0151	0.0672	-0.6149	0.4003	-0.5775	0.5054	0.1277	0.0404	0.1159	-0.0319	0.5042	0.5888	-0.5548	-0.3084	0.2941	-0.5660	0.1679	0.3679	-0.5164	0.3603	-0.2956	0.4439	0.3764	-0.0022	-0.3807	-0.4932	0.1280	0.1685	0.4216	-0.8098	0.5983	-0.0477	-0.0678	0.1303	-0.1018	0.4511	0.0053	0.1239	-0.5367	-0.1163	0.0278	0.4275	0.3912	-0.0494	0.2921	-0.3223	-0.7712	0.5080	0.4014	-0.1193	-0.1450	-0.1097	0.2244	-0.1186	0.4045	-0.0969	-0.6325	0.2836	-0.3892	0.2558	0.2479	-0.6519	-0.1241	0.3416	0.1450	-0.2644	0.2901	0.0527	-0.6290	0.6884	0.4820	0.1233	0.3134	-0.4048	-0.4062	0.3566	0.4102	0.2037	-0.0933	-0.3827	-0.3471	0.0212	0.2109	-0.0936	-0.1555	-0.3883	-0.3327	-0.0521	0.0063	-0.1203	-0.1345	0.0904	0.5537	0.0617	0.5804	-0.1469	0.0640	-0.1836	-0.4761	0.3489	0.2185	0.0404	-0.4686	-0.3461	0.4492	0.3149	-0.2156	0.4107	-0.2087	-0.1039	0.4764	-0.2846	-0.2782	0.3621	0.2657	0.5282	-0.0997	0.3434	-0.2619	-0.0292	0.4116	-0.2592	-0.3037	-0.0245	-0.2419	-0.2708	0.0293	0.4950	-0.1424	0.0765	0.1834	-0.0876	-0.1392	0.0028	-0.3385	-0.0097	-0.1851	-0.0248	-0.2272	-0.2506	0.3122	-0.3009	0.2332	0.0417	-0.1861	0.5267	-0.0587	-0.1345	-0.2140	-0.0237	0.2059	-0.3353	-0.1047	0.0333	-0.0880	0.2547	0.8009	-0.5393	0.1372	-0.1740	0.1678	0.2132	-0.2055	0.0170	-0.1865	0.3248	-0.1959	0.0052	0.1102	0.3011	-0.1903	0.1865	-0.1556	0.0121	0.1586	0.1073	0.1968	-0.3868	0.7661	-0.2191	0.1488	0.3597	-0.0517	0.1519	-0.0679	-0.1352	-0.2277	0.1864	-0.3791	-0.6173	0.4384	-0.3213	0.0388	-0.1035	0.3549	0.1075	-0.1560	-0.2661	0.3827	-0.0664	-0.2846	0.3631	-0.4601	0.1930	0.4158	0.1136	0.1523	-0.2549	0.3663	0.2721	-0.6077	-0.0608	0.0854	0.0728	-0.0420	0.6673	0.4326	0.1410	-0.2964	0.1016	0.2907	0.0524	-0.2087	-0.1382	-0.0468	-0.2489	0.1119	-0.1669	-0.3853	0.3817	0.2780	0.1726	0.6279	-0.3300	0.1573	0.1025	0.2267	-0.1854	-0.0270	0.0362	0.2192	-0.4420	-0.3866	0.4267	-0.0796	0.0809	-0.3343	-0.0728	-0.1751	0.1384	0.5140	-0.3144	-0.3036	-0.0366	0.0677	-0.1535	-0.1957	0.3603	0.0087	0.0700	0.0860	0.1084	-0.3789	0.0308	0.3690	-0.0531	0.6177	-0.0958	-0.3227	0.5575	0.0051	0.0691	0.0865	-0.1200	-0.5147	0.1339	0.1752	-0.0358	0.0417	0.0837	0.0177	-0.3417	0.7799	-0.3353	0.1494	-0.1361	-0.4762	-0.3466	0.1340	-0.0703	-0.1814	-0.0359	0.0296	0.2506	0.2520	0.1714	-0.2277	0.1799	-0.1875	0.0881	0.4188	-0.0185	-0.6048	-0.2086	-0.1017	-0.1962	-0.0454	-0.0944	-0.1492	-0.0438	0.1562	-0.1934	-0.4302	0.5154	-0.1524	-0.2013	0.5037	-0.0051	0.2191	0.0809	0.2964	-0.1826	-0.3414	0.3471	-0.2128	0.5031	0.2063	0.2644	-0.0283	0.2620	0.1904	-0.2893	-0.0103	0.1430	0.0250	-0.2503	0.7442	-0.0347	0.4083	0.0549	0.1117	0.0309	-0.3335	-0.2157	0.6377	0.0356	-0.3994	-0.4651	-0.1773	-0.2764	0.1979	0.3028	-0.2394	-0.2116	0.0436	0.2915	-0.5180	-0.0225	0.0911	-0.2576	-0.0567	-0.3169	-0.2367	-0.6555	0.2545	0.0097	0.5278	-0.2004	0.2351	-0.1267	0.2357	-0.0764	-0.5034	-0.0801	-0.0791	-0.1843	-0.1358	-0.0746	-0.2440	0.7869	0.4045	-0.6850	-0.0462	0.1846	0.1603	0.0906	-0.5317	-0.4273	-0.1549	-0.0289	0.0515	0.0181	-0.4253	0.3887	0.2004	0.0270	0.2040	-0.1940	-0.6210	-0.2064	0.5025	0.2712	0.6230	-0.2241	-0.3292	-0.1478	-0.0293	-0.2168	-0.2924	-0.2341	-0.5506	0.1105	-0.5323	-0.0721	0.6475	-0.2154	0.3220	0.2068	0.4645	0.0729	-0.1095	0.0084	-0.2632	-0.1126	-0.1397	0.0153	-0.3659	-0.1301	-0.2336	0.3796	0.3760	-0.5709	-0.0933	0.4432	-0.0116	0.3191	0.3026	0.1061	0.0198	0.0228	-0.2030	-0.2073	-0.2336	-0.5805	0.0857	0.2229	0.2554	0.0867	0.1100	-0.4566	0.1046	-0.5630	-0.0797	-0.3386	-0.2986	-0.4270	-0.2290	-0.4638	-0.2681	0.2288	0.0739	-0.2787	-0.1028	-0.3092	-0.0287	0.2654	-0.1776	0.0704	-0.9922	-0.1846	-0.0417	0.2573	-0.2361	-0.1966	-0.1119	0.2320	-0.3357	0.2336	-0.1840	0.6487	-0.4672	0.2915	0.3839	0.2786	0.3594	-0.0762	0.2253	-0.3379	-0.3283	-0.1773	-0.0185	0.1947	0.0930	0.1438	0.4574	-0.6581	-0.0005	0.2150	0.5009	0.0564	0.1612	0.0582	-0.3657	-0.2645	0.4842	-0.0838	0.1388	0.4501	-0.3568	-0.3186	-0.0953	0.5869	0.2272	0.5603	0.5155	-0.1202	0.6883	0.3451	0.2127	-0.2552	-0.3439	0.6704	0.4716	-0.4169	0.1430	0.2588	0.0906	-0.5786	0.2329	0.0750	-0.0436	0.3131	-0.2861	-0.0122	0.1369	0.0817	0.4180	0.0779	-0.2768	-0.2606	-0.1031	0.0635	-0.4690	0.2203	-0.3670	0.0495	-0.2298	-0.0612	0.3373	0.2844	-0.1267	-0.7640	-0.2497	-0.5679	-0.1741	-0.1605	0.0609	-0.3051	-0.0261	-0.0229	-0.5185	-0.2169	-0.2911	-0.0205	-0.4982	-0.3959	-0.1329	-0.0123	-0.6499	0.4794	-0.0565	-0.2799	-0.3687	-0.6714	0.0271	-0.2437	-0.0789	0.1521	0.3164	-0.3151	0.1736	-0.2568	-0.3972	-0.4302	0.5216	-0.2438	0.2709	-0.5058	0.0346	0.1789	-0.1809	-0.3620	0.1492	-0.2839	-0.0594	0.0643	-0.0497	-0.2059	-0.0128	0.2645	0.0417	0.0919	-0.4625	-0.5914	-0.3450	0.3123	-0.1234	-0.1913	-0.5106	0.1463	0.4525	0.1607	0.4065	0.0739	0.1235	0.1932	-0.3882	-0.2958	-0.3330	-0.2110	-0.0939	-0.4577	-0.5128	0.1382	0.3684	-0.0207	-0.3362	0.1005	-0.1022	0.2221	-0.3006	-0.6545	0.2497	-0.1720	-0.0397	0.3247	0.1474	-0.0237	0.4698	0.0425	-0.3678	-0.2672	-0.0283	0.4744	-0.4146	-0.2740	0.3887	0.6830	-0.0564	-0.2561	-0.0906	0.2521	0.0498	0.0129	-0.2172	0.0470	0.1227	0.4275	0.0913	0.2645	-0.2890	0.3946	-0.1883	-0.1599	-0.4389	-0.3437	0.1012	-0.3154	-0.1010	0.5118	0.4787	0.1167	-0.2094	-0.1782	0.1628	-0.2194	-0.1754	0.1957	0.2413	0.1558	-0.3451	-0.3889	-0.0482	-0.4042	-0.1287	-0.0788	-0.1617	0.2136	0.4094	0.2132	-0.3677	-0.3771	-0.2048	-0.1118	-0.4039	-0.0672	-0.3797	-0.4011	0.2792	0.6868	-0.6529	0.0864	-0.3220	-0.0526	-0.0799	0.0801	0.3376	-0.1117	-0.7873	-0.5450	-0.4193	-0.1231	-0.1656	0.0087	0.1792	0.2568	0.0292	0.1737	0.1843	-0.2487	-0.2174	0.1555	0.3565	0.1748	0.7854	0.0637	-0.1842	-0.0473	0.0421	-0.3005	0.0114	0.2166	-0.2990	-0.3061	0.1099	-0.2516	-0.6974	-1.0105	0.1100	0.0689	0.2139	0.3379	-0.0287	-0.3218	-0.1636	-0.0606	-0.1278	-0.0778	0.6638	-0.1067	-0.4576	0.2052	-0.1094	0.3614	0.3131	0.1765	0.2490	0.2159	0.4417	-0.2170	-0.0941	0.2880	0.0554	-0.0115	0.2789	0.0105	-0.1225	-0.1995	0.0339	0.4446	-0.1961	0.2508	-0.1403	0.4642	-0.2334	-0.7391	0.2585	0.1916	-0.2987	0.0243	-0.3961	0.0053	-0.4633	-0.0911	-0.0033	0.2793	-0.0387	-0.6798	-0.1556	0.3500	-0.4342	-0.6637	-0.7918	0.4175	-0.4610	-0.6931	-0.0869	0.4517	-0.2521	-0.2061	-0.4724	-0.4177	-0.1311	-0.1619	-0.4720	-0.3235	-0.1555	-0.3418	0.2080	-0.2241	0.0015	-0.4023	0.3237	-0.4006	-0.3042	-0.3270	-0.2907	0.3725	0.1914	-0.0470	0.3519	0.0387	-0.2308	-0.0051	0.1406	-0.0378	-0.3267	-0.3503	0.6230	0.4365	-0.5081	-0.5826	-0.5073	-0.3461	0.1986	0.2601	0.2148	0.1966	-0.0005	-0.1081	-0.4764	-0.2492	-0.0539	-0.3313	-0.2970	0.0385	0.5040	-0.3380	0.0676	0.5148	0.0447	0.6069	0.3902	0.2579	0.0667	-0.0516	0.2908	0.2255	-0.2524	-0.1985	-0.5062	0.1850	0.0760	0.0418	0.1399	-0.3843	-0.3604	0.0056	0.0123	-0.2648	0.5269	0.2787	0.0028	0.1287	0.0288	0.3202	0.0035	0.0802	0.0437	0.4498	0.3670	-0.6139	-0.0674	0.1491	-0.2971	0.1845	-0.1104	0.4469	-0.0091	-0.0612	0.3929	0.1758	0.4663	0.3931	0.3102	-0.3103	0.0728	0.1911	-0.0365	0.0181	-0.3661	0.5677	0.1570	-0.1054	-0.4902	0.1586	0.3012	0.2631	-0.1613	0.2787	-0.1279	-0.0703	-0.1233	-0.3761	-0.4189	0.0436	0.1032	0.3174	-0.3967	0.2952	0.3170	0.2119	0.2146	-0.4351	-0.5317	-0.1214	-0.0737	-0.1038	0.6109	-0.0352	0.3773	-0.4154	0.2021	0.1067	-0.3767	0.0424	-0.2552	-0.2311	-0.2012	0.4122	0.1712	-0.4540	-0.1859	-0.2650	-0.2469	0.2138	0.6645	0.8355	0.2111	-0.1395	-0.2985	-0.3669	-0.0647	0.2219	0.4558	0.4087	-0.0714	0.4998	0.3351	-0.1202	-0.3650	0.4280	0.1125	-0.1730	-0.3994	0.1629	-0.1926	-0.3151	-0.2060	0.1213	-0.6177	-0.6264	0.4334	-0.5244	-0.6665	0.0926	0.0596	-0.6738	0.0999	-0.0263	0.0319	0.2576	0.6757	0.3180	-0.1448	0.1589	0.1375	-0.0895	-0.0168	0.0279	0.1813	0.2585	-0.1242	0.0521	0.0992	-0.1915	-0.5498	-0.0074	0.2523	-0.4020	0.0593	0.2289	-0.1447	-0.3996	-0.3503	0.4116	0.2691	-0.2853	0.2262	0.3809	0.1597	-0.5534	-0.2602	0.3243	-0.2822	-0.1402	0.1420	0.3470	-0.4747	-0.1950	0.0304	0.2053	-0.3663	0.4472	0.0438	0.2739	0.0754	0.1090	-0.3649	-0.6938	-0.2590	-0.0330	-0.5816	-0.0255	0.1401	0.0724	-0.0845	0.2020	-0.1225	-0.4246	0.0661	0.6160	-0.0614	-0.2532	-0.4227	-0.3330	-0.4670	-0.4611	-0.1989	-0.3706	0.0770	0.0761	0.1112	-0.3135	-0.5510	-0.3775	-0.3842	-0.4338	0.2244	0.2831	0.4079	-0.0037	-0.7471	-0.2913	-0.0871	0.3008	-0.0761	-0.3475	-0.4396	0.0566	0.2710	-0.4925	-0.0896	0.0443	0.2389	0.5143	-0.0643	-0.0281	-0.1913	-0.5062	-0.4758	-0.0557	-0.1478	-0.3110	-0.2470	-0.2843	-0.1781	0.0020	-0.2938	-0.5369	-0.3085	0.1013	0.7035	-0.5853	-0.4495	-0.7189	-0.3442	-0.3655	-0.7102	0.2011	-0.0732	-0.3707	-0.0513	-0.1366	-0.4148	-0.7303	-0.2274	0.1911	0.0196	-0.3604	0.0178	0.5040	0.4758	0.0504	0.0764	0.0438	0.0796	0.0581	0.1042	0.0454	0.0978	0.0765	0.1271	0.0358	0.0947	0.0928	0.1263	0.0146	0.0704	0.0913	0.0956	-0.0038	0.0321	0.0693	0.0462	-0.0161	-0.0039	0.0348	-0.0052	-0.0235	-0.0245	0.0033	-0.0003	0.0025	-0.0039	0.0009	0.0036	0.0009	-0.0015	-0.0016	0.0067	-0.0013	0.0063	-0.0002	0.0084	-0.0015	0.0052	-0.0026	0.0039	0.0018	0.0043	0.0009	-0.0039	0.0041	0.0056	0.0021	-0.0047	0.0025	-0.0011	-0.0009	0.0003	0.0002	0.0024	0.0004	-0.0005	-0.0013	-0.0014	-0.0002	-0.0001	-0.0014	-0.0003	-0.0009	0.0008	-0.0009	0.0014	0.0006	-0.0001	-0.0017	-0.0028	-0.0003	0.0004	-0.0002	0.0003	-0.0011	0.0010	0.0010	0.0027	-0.0001	0.0002	-0.0009	-0.0005	-0.0003	0.0003	-0.0011	-0.0005	-0.0004	0.0003	-0.0008	-0.0003	-0.0005	0.0003	-0.0003	-0.0003	-0.0008	0.0004	0.0003	-0.0002	-0.0006	0.0003	0.0007	0.0000	-0.0001	0.0002	0.0007	-0.0000	0.0439	0.0732	0.0537	0.0850	0.0589	0.1115	0.0631	0.1114	0.0903	0.1424	0.0539	0.1127	0.1164	0.1429	0.0247	0.0887	0.1159	0.1072	-0.0054	0.0425	0.0870	0.0484	-0.0243	-0.0071	0.0385	-0.0134	-0.0326	-0.0341	0.0026	-0.0054	0.0006	-0.0044	-0.0011	-0.0012	-0.0037	0.0001	-0.0013	0.0058	-0.0103	0.0052	-0.0003	0.0029	-0.0097	0.0085	-0.0036	0.0013	-0.0069	0.0050	0.0000	-0.0022	-0.0014	-0.0017	0.0034	-0.0080	0.0043	-0.0019	0.0005	-0.0009	-0.0006	-0.0013	-0.0006	-0.0004	-0.0006	0.0010	-0.0001	-0.0006	-0.0017	-0.0011	0.0004	-0.0006	-0.0021	-0.0027	-0.0012	0.0007	-0.0007	0.0013	-0.0000	0.0003	-0.0006	-0.0013	0.0004	0.0001	0.0001	-0.0011	-0.0002	0.0002	-0.0010	-0.0006	-0.0002	0.0002	-0.0013	-0.0005	-0.0003	0.0002	-0.0009	-0.0007	-0.0006	0.0003	-0.0003	-0.0008	-0.0005	0.0004	0.0004	-0.0004	-0.0005	0.0003	0.0009	-0.0004	-0.0003	0.0002	0.0009	-0.0002	0.0402	0.0540	0.0683	0.0771	0.0630	0.0940	0.0867	0.1107	0.1053	0.1254	0.0760	0.1222	0.1402	0.1267	0.0443	0.0963	0.1387	0.0884	0.0017	0.0490	0.0997	0.0259	-0.0327	-0.0015	0.0379	-0.0324	-0.0411	-0.0418	-0.0016	-0.0093	-0.0007	-0.0052	0.0001	-0.0043	-0.0087	-0.0004	-0.0016	0.0027	-0.0164	0.0067	-0.0043	0.0021	-0.0165	0.0077	0.0008	-0.0015	-0.0128	0.0059	-0.0019	-0.0050	-0.0054	-0.0017	-0.0019	-0.0088	0.0021	-0.0069	-0.0002	-0.0009	0.0002	0.0005	0.0000	-0.0013	-0.0007	-0.0005	-0.0000	-0.0012	-0.0016	-0.0015	-0.0000	-0.0009	-0.0019	-0.0023	-0.0003	-0.0002	-0.0011	-0.0012	-0.0006	0.0004	-0.0002	-0.0003	-0.0000	0.0002	0.0004	-0.0009	0.0000	0.0003	-0.0009	-0.0006	0.0000	0.0002	-0.0012	-0.0009	0.0001	0.0004	-0.0008	-0.0013	-0.0001	0.0006	0.0000	-0.0013	-0.0001	0.0005	0.0007	-0.0012	-0.0000	0.0006	0.0011	-0.0008	-0.0001	0.0004	0.0010	-0.0003	0.0319	0.0190	0.0731	0.0524	0.0603	0.0500	0.0989	0.0864	0.1059	0.0734	0.0930	0.1037	0.1427	0.0705	0.0555	0.0858	0.1392	0.0353	0.0074	0.0413	0.0934	-0.0200	-0.0320	-0.0093	0.0258	-0.0698	-0.0476	-0.0478	-0.0029	-0.0076	-0.0001	-0.0052	-0.0019	-0.0054	-0.0071	0.0003	-0.0014	0.0003	-0.0170	0.0081	-0.0030	0.0031	-0.0195	0.0077	-0.0018	-0.0017	-0.0136	0.0039	-0.0024	-0.0074	-0.0064	0.0007	-0.0025	-0.0097	-0.0002	-0.0077	0.0000	-0.0011	0.0003	-0.0001	0.0002	-0.0017	-0.0003	-0.0010	0.0000	-0.0017	-0.0010	-0.0013	-0.0005	-0.0009	-0.0010	-0.0009	0.0003	-0.0009	-0.0012	-0.0031	-0.0003	-0.0001	-0.0000	-0.0009	-0.0008	0.0006	0.0012	0.0012	0.0002	0.0004	-0.0005	-0.0006	0.0003	0.0005	-0.0007	-0.0011	0.0006	0.0006	-0.0003	-0.0016	0.0007	0.0009	0.0004	-0.0019	0.0005	0.0009	0.0011	-0.0018	0.0005	0.0008	0.0014	-0.0012	0.0005	0.0005	0.0011	-0.0005	0.0153	-0.0240	0.0601	0.0142	0.0405	-0.0083	0.0883	0.0422	0.0817	0.0021	0.0878	0.0583	0.1133	-0.0073	0.0511	0.0486	0.1065	-0.0387	0.0033	0.0136	0.0596	-0.0801	-0.0343	-0.0301	-0.0053	-0.1145	-0.0514	-0.0610	-0.0035	-0.0056	0.0017	-0.0045	-0.0027	-0.0015	-0.0035	-0.0018	-0.0015	0.0042	-0.0105	0.0066	-0.0007	0.0039	-0.0127	0.0102	-0.0038	-0.0002	-0.0091	0.0046	-0.0023	-0.0037	-0.0033	-0.0016	-0.0028	-0.0077	0.0027	-0.0054	-0.0002	-0.0008	0.0009	0.0008	0.0000	-0.0013	0.0004	-0.0001	0.0005	-0.0017	-0.0005	-0.0018	0.0001	-0.0012	-0.0005	-0.0014	-0.0004	-0.0004	0.0000	-0.0006	-0.0003	0.0001	0.0006	-0.0004	0.0002	0.0000	0.0009	-0.0009	0.0004	0.0004	-0.0000	-0.0004	0.0006	0.0006	-0.0001	-0.0010	0.0010	0.0009	0.0004	-0.0016	0.0012	0.0011	0.0010	-0.0020	0.0012	0.0012	0.0014	-0.0018	0.0010	0.0009	0.0015	-0.0013	0.0008	0.0006	0.0012	-0.0006	-0.0090	-0.0623	0.0314	-0.0264	0.0061	-0.0609	0.0544	-0.0086	0.0329	-0.0621	0.0546	0.0043	0.0546	-0.0741	0.0260	-0.0043	0.0443	-0.0991	-0.0150	-0.0277	0.0007	-0.1257	-0.0482	-0.0551	-0.0517	-0.1411	-0.0586	-0.0816	-0.0039	-0.0003	0.0045	-0.0040	-0.0012	0.0017	0.0032	-0.0013	-0.0007	0.0093	-0.0019	0.0042	-0.0009	0.0100	-0.0019	0.0081	0.0001	0.0053	0.0026	0.0054	-0.0018	0.0017	0.0065	-0.0000	-0.0062	-0.0013	0.0090	-0.0018	0.0002	-0.0005	0.0007	-0.0003	-0.0001	-0.0005	0.0010	0.0009	0.0000	-0.0006	0.0004	0.0001	0.0005	-0.0007	-0.0001	-0.0015	-0.0003	0.0002	0.0008	0.0008	-0.0001	0.0005	0.0010	0.0003	0.0001	0.0003	0.0011	-0.0001	0.0004	0.0004	0.0005	-0.0002	0.0007	0.0005	0.0004	-0.0005	0.0012	0.0008	0.0007	-0.0011	0.0013	0.0011	0.0013	-0.0014	0.0014	0.0011	0.0015	-0.0012	0.0012	0.0009	0.0014	-0.0007	0.0009	0.0005	0.0011	0.0001	-0.0376	-0.0854	-0.0051	-0.0556	-0.0339	-0.0910	0.0107	-0.0514	-0.0223	-0.0990	0.0103	-0.0453	-0.0133	-0.1116	-0.0127	-0.0499	-0.0260	-0.1280	-0.0420	-0.0666	-0.0593	-0.1423	-0.0613	-0.0857	-0.0947	-0.1491	-0.0663	-0.1017	-0.0031	0.0039	0.0054	-0.0036	-0.0013	0.0052	0.0072	-0.0020	0.0012	0.0088	0.0048	0.0053	0.0008	0.0110	0.0039	0.0059	-0.0004	0.0062	0.0070	0.0044	-0.0024	-0.0009	0.0086	0.0040	-0.0035	-0.0013	0.0053	0.0001	-0.0003	0.0004	0.0011	0.0013	0.0005	-0.0002	0.0007	-0.0004	0.0003	-0.0001	0.0007	0.0004	-0.0002	0.0004	0.0009	0.0013	0.0008	0.0000	0.0004	-0.0014	0.0002	0.0004	0.0011	0.0004	-0.0006	0.0009	0.0017	0.0024	0.0005	0.0002	0.0006	0.0002	0.0006	0.0003	0.0007	-0.0000	0.0009	0.0005	0.0009	-0.0003	0.0012	0.0006	0.0012	-0.0005	0.0010	0.0006	0.0013	-0.0004	0.0008	0.0004	0.0012	0.0002	0.0007	-0.0001	0.0009	0.0006	0.1041	0.1110	0.0171	0.0666	0.0918	0.0781	0.0022	0.0325	0.0669	0.0367	-0.0090	0.0057	0.0344	-0.0028	-0.0154	-0.0111	0.0058	-0.0269	-0.0159	-0.0214	-0.0162	-0.0381	-0.0146	-0.0227	-0.0266	-0.0391	-0.0154	-0.0227	-0.0009	0.0033	-0.0002	0.0024	-0.0024	0.0007	0.0007	0.0052	0.0021	-0.0040	0.0027	0.0006	0.0001	-0.0026	0.0014	-0.0014	-0.0001	-0.0040	0.0030	-0.0020	0.0012	-0.0010	0.0019	-0.0023	-0.0007	0.0011	0.0010	-0.0005	-0.0000	0.0000	-0.0012	-0.0010	0.0000	-0.0000	-0.0010	-0.0011	-0.0008	0.0007	0.0004	0.0018	0.0000	0.0001	-0.0000	-0.0005	-0.0001	0.0002	0.0004	0.0002	-0.0004	0.0004	0.0007	0.0013	0.0005	-0.0002	-0.0001	-0.0012	-0.0005	0.0005	-0.0001	-0.0006	-0.0005	0.0005	0.0004	-0.0003	-0.0003	0.0003	0.0005	-0.0002	-0.0000	0.0003	0.0005	-0.0003	0.0001	0.0002	0.0004	-0.0001	0.0002	0.0000	0.0002	0.0000	0.0002	-0.0000	0.0002	0.0000	0.1187	0.1243	0.0198	0.0741	0.1038	0.0857	-0.0026	0.0364	0.0718	0.0389	-0.0178	0.0048	0.0310	-0.0034	-0.0235	-0.0170	-0.0031	-0.0289	-0.0224	-0.0266	-0.0274	-0.0380	-0.0182	-0.0249	-0.0347	-0.0355	-0.0157	-0.0247	-0.0015	0.0013	-0.0014	0.0062	0.0000	0.0033	-0.0016	0.0023	0.0014	-0.0019	0.0046	-0.0020	0.0001	-0.0023	0.0061	0.0004	0.0011	-0.0025	0.0062	-0.0033	0.0011	-0.0014	0.0046	-0.0014	-0.0020	0.0011	0.0016	0.0017	-0.0006	0.0002	-0.0010	0.0004	-0.0010	0.0009	-0.0004	0.0014	0.0004	0.0001	-0.0007	-0.0018	-0.0005	0.0006	0.0004	0.0011	-0.0004	0.0006	0.0007	0.0012	0.0004	0.0000	0.0002	-0.0005	-0.0002	0.0002	0.0004	0.0007	-0.0005	0.0005	-0.0001	-0.0005	-0.0004	0.0004	0.0004	-0.0005	-0.0004	0.0004	0.0006	-0.0004	-0.0001	0.0003	0.0006	0.0000	0.0000	0.0001	0.0004	0.0001	0.0001	-0.0000	0.0002	0.0002	0.0002	-0.0001	0.0001	0.0003	0.1330	0.1389	0.0234	0.0846	0.1146	0.0983	-0.0082	0.0477	0.0753	0.0518	-0.0270	0.0114	0.0286	0.0107	-0.0321	-0.0176	-0.0088	-0.0162	-0.0296	-0.0272	-0.0332	-0.0255	-0.0192	-0.0259	-0.0367	-0.0237	-0.0148	-0.0247	0.0007	0.0057	-0.0016	0.0042	0.0025	0.0033	0.0016	0.0050	-0.0013	-0.0015	0.0072	-0.0010	0.0010	-0.0007	0.0070	-0.0011	0.0019	-0.0034	0.0090	-0.0026	-0.0005	-0.0015	0.0059	-0.0012	0.0006	0.0024	0.0012	0.0019	-0.0003	0.0002	-0.0014	-0.0005	-0.0001	0.0004	-0.0011	-0.0007	-0.0008	0.0010	0.0000	0.0014	-0.0001	0.0007	-0.0000	0.0001	-0.0001	0.0006	0.0005	0.0008	-0.0001	0.0004	0.0005	0.0007	-0.0000	0.0003	0.0002	0.0005	-0.0005	0.0006	-0.0001	-0.0008	-0.0005	0.0006	0.0004	-0.0006	-0.0004	0.0005	0.0005	-0.0001	-0.0003	0.0002	0.0005	0.0001	-0.0002	0.0000	0.0002	0.0004	-0.0001	-0.0001	0.0000	0.0005	0.0000	-0.0002	0.0000	0.0004	0.1435	0.1565	0.0243	0.1046	0.1232	0.1225	-0.0078	0.0640	0.0830	0.0803	-0.0292	0.0244	0.0340	0.0398	-0.0380	-0.0028	-0.0044	0.0145	-0.0327	-0.0188	-0.0274	0.0033	-0.0202	-0.0208	-0.0302	-0.0010	-0.0155	-0.0180	0.0020	0.0060	-0.0011	0.0038	-0.0005	0.0047	0.0020	0.0044	0.0017	-0.0014	0.0079	0.0005	0.0018	-0.0001	0.0083	-0.0020	-0.0005	-0.0016	0.0099	-0.0028	0.0021	-0.0007	0.0082	-0.0008	0.0014	0.0035	0.0029	0.0023	-0.0006	0.0005	-0.0013	0.0004	-0.0000	0.0004	-0.0015	-0.0013	-0.0007	0.0011	-0.0003	0.0013	-0.0006	0.0012	0.0001	0.0014	0.0002	0.0005	-0.0001	-0.0004	-0.0004	0.0008	0.0005	0.0019	0.0002	0.0003	-0.0002	-0.0001	-0.0005	0.0006	-0.0003	-0.0009	-0.0006	0.0006	0.0001	-0.0006	-0.0007	0.0004	0.0003	-0.0000	-0.0005	0.0001	0.0002	0.0003	-0.0006	-0.0000	0.0001	0.0006	-0.0004	-0.0003	-0.0001	0.0007	-0.0003	-0.0003	-0.0001	0.0005	0.1547	0.1736	0.0351	0.1233	0.1358	0.1469	0.0011	0.0884	0.0985	0.1126	-0.0227	0.0497	0.0517	0.0777	-0.0322	0.0196	0.0142	0.0527	-0.0295	0.0020	-0.0081	0.0385	-0.0187	-0.0051	-0.0120	0.0287	-0.0134	-0.0080	0.0019	0.0015	-0.0025	0.0058	0.0007	0.0027	-0.0021	0.0039	0.0007	-0.0015	0.0034	-0.0018	0.0012	-0.0040	0.0056	0.0002	0.0005	-0.0033	0.0056	-0.0032	0.0010	-0.0016	0.0038	-0.0025	0.0015	0.0005	0.0012	0.0030	-0.0002	-0.0001	-0.0017	-0.0008	-0.0011	0.0009	-0.0010	0.0014	-0.0001	0.0006	-0.0011	-0.0010	-0.0001	0.0006	-0.0006	-0.0002	-0.0010	0.0012	0.0004	0.0025	0.0005	0.0001	-0.0006	-0.0012	-0.0001	0.0004	-0.0002	0.0005	-0.0006	0.0007	-0.0005	-0.0010	-0.0005	0.0005	-0.0002	-0.0007	-0.0008	0.0003	-0.0000	-0.0003	-0.0008	0.0001	-0.0000	0.0002	-0.0007	-0.0002	-0.0002	0.0006	-0.0007	-0.0003	-0.0003	0.0006	-0.0005	-0.0004	-0.0001	0.0006	0.1670	0.1805	0.0530	0.1370	0.1519	0.1604	0.0208	0.1117	0.1198	0.1345	-0.0048	0.0808	0.0797	0.1082	-0.0146	0.0476	0.0458	0.0848	-0.0158	0.0281	0.0238	0.0663	-0.0095	0.0173	0.0165	0.0517	-0.0069	0.0073	0.0008	0.0004	-0.0044	0.0034	0.0029	-0.0009	-0.0044	0.0047	-0.0009	-0.0042	-0.0008	-0.0007	-0.0011	-0.0037	0.0001	-0.0021	0.0022	-0.0062	0.0020	-0.0019	-0.0012	-0.0036	0.0001	-0.0015	0.0020	-0.0005	-0.0023	0.0002	-0.0004	-0.0003	-0.0016	-0.0006	-0.0002	-0.0001	-0.0016	-0.0009	-0.0009	0.0006	-0.0008	0.0007	-0.0003	0.0004	-0.0009	-0.0006	-0.0001	0.0003	-0.0006	-0.0003	-0.0005	0.0005	-0.0002	0.0008	0.0000	0.0002	-0.0005	-0.0004	-0.0005	0.0007	-0.0006	-0.0012	-0.0005	0.0006	-0.0003	-0.0011	-0.0007	0.0005	-0.0003	-0.0006	-0.0008	0.0001	-0.0002	-0.0001	-0.0009	-0.0001	-0.0003	0.0002	-0.0007	-0.0002	-0.0003	0.0004	-0.0006	-0.0003	-0.0001	0.0002	0.1740	0.1799	0.0658	0.1459	0.1637	0.1654	0.0418	0.1256	0.1390	0.1456	0.0201	0.1014	0.1070	0.1234	0.0054	0.0758	0.0781	0.1040	0.0021	0.0530	0.0560	0.0849	0.0030	0.0379	0.0441	0.0663	-0.0011	0.0272	0.0011	0.0014	-0.0018	0.0029	0.0002	-0.0005	-0.0021	0.0039	0.0006	-0.0053	-0.0008	0.0019	-0.0007	-0.0037	-0.0024	-0.0006	-0.0012	-0.0052	-0.0004	-0.0033	0.0012	-0.0029	-0.0009	-0.0008	0.0017	-0.0003	-0.0014	-0.0006	-0.0006	-0.0002	-0.0014	0.0001	-0.0001	-0.0004	-0.0017	-0.0013	-0.0006	0.0001	-0.0010	0.0002	-0.0009	0.0004	-0.0007	0.0008	-0.0001	0.0000	-0.0009	-0.0010	-0.0004	0.0003	-0.0004	0.0005	-0.0002	0.0003	-0.0005	-0.0001	-0.0004	0.0009	-0.0007	-0.0013	-0.0005	0.0008	-0.0004	-0.0012	-0.0006	0.0006	-0.0003	-0.0008	-0.0006	0.0004	-0.0003	-0.0005	-0.0008	0.0002	-0.0003	-0.0002	-0.0006	-0.0000	-0.0003	-0.0000	-0.0005	-0.0000	-0.0002	-0.0001	-0.1415	-0.1082	-0.0570	-0.0856	-0.1408	-0.0720	-0.0451	-0.0537	-0.1211	-0.0258	-0.0383	-0.0334	-0.0894	0.0102	-0.0398	-0.0292	-0.0620	0.0197	-0.0440	-0.0402	-0.0501	0.0091	-0.0429	-0.0505	-0.0532	-0.0087	-0.0353	-0.0475	0.0050	0.0001	0.0064	-0.0042	0.0037	0.0047	0.0069	-0.0045	0.0012	0.0128	0.0051	0.0001	0.0013	0.0116	0.0068	0.0058	-0.0005	0.0102	0.0063	0.0078	0.0032	0.0033	0.0082	0.0024	0.0037	-0.0011	0.0076	0.0021	0.0004	0.0006	0.0010	0.0007	-0.0002	0.0011	0.0010	0.0022	0.0004	0.0008	-0.0003	0.0001	0.0008	0.0006	-0.0009	-0.0011	-0.0003	0.0013	-0.0002	0.0016	0.0002	0.0009	-0.0001	0.0003	0.0003	0.0005	0.0001	0.0003	0.0001	-0.0009	-0.0001	0.0012	0.0000	-0.0009	-0.0007	0.0013	-0.0002	-0.0009	-0.0009	0.0013	-0.0007	-0.0008	-0.0006	0.0014	-0.0008	-0.0007	-0.0002	0.0015	-0.0009	-0.0006	0.0000	0.0013	-0.0007	-0.0006	0.0000	0.0011	-0.1402	-0.0730	-0.0459	-0.0573	-0.1323	-0.0175	-0.0246	-0.0147	-0.0970	0.0443	-0.0162	0.0148	-0.0489	0.0885	-0.0207	0.0182	-0.0131	0.0943	-0.0349	-0.0005	-0.0026	0.0701	-0.0424	-0.0227	-0.0169	0.0371	-0.0336	-0.0315	0.0040	-0.0019	0.0060	-0.0078	0.0041	0.0002	0.0046	-0.0031	0.0010	0.0067	-0.0025	0.0050	0.0001	0.0081	-0.0047	0.0054	0.0020	0.0083	-0.0046	0.0072	0.0018	-0.0005	0.0025	0.0017	0.0040	-0.0041	0.0049	-0.0021	0.0004	0.0005	0.0007	0.0005	0.0007	0.0001	-0.0000	-0.0002	0.0002	0.0003	-0.0008	0.0003	-0.0001	0.0006	-0.0012	0.0001	0.0003	0.0006	-0.0015	-0.0011	0.0000	0.0008	-0.0007	-0.0002	-0.0003	0.0009	0.0002	0.0011	-0.0001	-0.0010	-0.0007	0.0012	-0.0004	-0.0011	-0.0014	0.0013	-0.0006	-0.0011	-0.0015	0.0013	-0.0010	-0.0010	-0.0011	0.0012	-0.0012	-0.0009	-0.0005	0.0010	-0.0013	-0.0007	-0.0001	0.0011	-0.0010	-0.0006	-0.0001	0.0010	-0.1262	-0.0426	-0.0204	-0.0272	-0.1045	0.0250	0.0144	0.0246	-0.0487	0.0955	0.0292	0.0607	0.0145	0.1397	0.0175	0.0728	0.0548	0.1429	-0.0096	0.0517	0.0597	0.1132	-0.0296	0.0165	0.0314	0.0710	-0.0287	-0.0036	0.0036	-0.0098	0.0026	-0.0078	-0.0000	-0.0046	-0.0043	-0.0048	0.0016	0.0022	-0.0128	0.0049	0.0023	0.0035	-0.0152	0.0062	0.0003	0.0048	-0.0148	0.0071	0.0010	-0.0028	-0.0051	-0.0002	0.0038	-0.0072	0.0016	-0.0054	-0.0001	0.0002	0.0011	0.0018	0.0005	-0.0006	-0.0003	-0.0008	0.0004	-0.0007	-0.0014	-0.0011	-0.0000	-0.0002	-0.0017	-0.0008	0.0001	-0.0000	-0.0021	-0.0020	-0.0003	0.0006	-0.0010	-0.0005	-0.0002	0.0006	-0.0003	-0.0001	-0.0002	-0.0010	-0.0011	0.0011	-0.0005	-0.0011	-0.0018	0.0010	-0.0007	-0.0011	-0.0017	0.0006	-0.0009	-0.0009	-0.0013	0.0003	-0.0010	-0.0006	-0.0005	0.0001	-0.0012	-0.0004	-0.0001	0.0003	-0.0011	-0.0004	-0.0001	0.0005	-0.1020	-0.0236	0.0118	-0.0113	-0.0667	0.0415	0.0557	0.0486	0.0018	0.1082	0.0730	0.0946	0.0735	0.1507	0.0599	0.1098	0.1145	0.1524	0.0241	0.0921	0.1129	0.1226	-0.0100	0.0563	0.0741	0.0837	-0.0180	0.0265	0.0006	-0.0117	0.0029	-0.0069	0.0008	-0.0074	-0.0061	-0.0027	0.0010	0.0019	-0.0173	0.0030	0.0005	0.0014	-0.0190	0.0075	0.0016	0.0014	-0.0187	0.0083	0.0001	-0.0038	-0.0106	-0.0012	0.0004	-0.0092	-0.0010	-0.0068	0.0009	-0.0009	0.0003	-0.0012	-0.0004	-0.0006	0.0004	0.0018	0.0004	-0.0013	-0.0014	-0.0016	0.0006	-0.0014	-0.0023	-0.0031	-0.0005	-0.0002	-0.0017	-0.0006	-0.0003	0.0001	-0.0013	-0.0013	-0.0002	0.0002	-0.0006	-0.0009	-0.0004	-0.0008	-0.0011	0.0009	-0.0003	-0.0009	-0.0017	0.0006	-0.0003	-0.0007	-0.0016	-0.0002	-0.0005	-0.0003	-0.0011	-0.0007	-0.0005	-0.0000	-0.0004	-0.0008	-0.0007	0.0001	0.0000	-0.0007	-0.0008	0.0001	0.0000	-0.0002	-0.0789	-0.0174	0.0305	-0.0078	-0.0373	0.0364	0.0805	0.0496	0.0339	0.0902	0.1002	0.1007	0.1056	0.1258	0.0880	0.1202	0.1444	0.1279	0.0507	0.1083	0.1383	0.1042	0.0109	0.0800	0.0971	0.0760	-0.0041	0.0496	-0.0025	-0.0088	0.0020	-0.0095	0.0015	-0.0054	-0.0047	-0.0040	0.0010	0.0010	-0.0139	0.0053	-0.0006	0.0037	-0.0177	0.0061	0.0021	0.0023	-0.0164	0.0072	-0.0001	-0.0041	-0.0084	0.0012	-0.0025	-0.0076	-0.0017	-0.0063	-0.0002	-0.0004	0.0009	0.0012	0.0008	-0.0015	-0.0003	-0.0013	0.0002	-0.0015	-0.0009	-0.0006	-0.0002	-0.0012	-0.0014	-0.0010	0.0004	-0.0011	-0.0020	-0.0028	-0.0006	-0.0000	-0.0009	-0.0003	-0.0005	0.0002	-0.0004	-0.0003	-0.0003	-0.0006	-0.0010	0.0008	-0.0003	-0.0005	-0.0014	0.0001	0.0001	-0.0002	-0.0012	-0.0006	0.0001	0.0003	-0.0008	-0.0013	0.0000	0.0005	-0.0001	-0.0016	-0.0001	0.0007	0.0001	-0.0013	-0.0003	0.0005	0.0000	-0.0007	-0.0616	-0.0185	0.0317	-0.0089	-0.0220	0.0219	0.0798	0.0375	0.0423	0.0612	0.1041	0.0801	0.1050	0.0854	0.0928	0.1069	0.1373	0.0891	0.0593	0.1048	0.1306	0.0791	0.0245	0.0840	0.0960	0.0645	0.0072	0.0611	-0.0012	-0.0051	0.0030	-0.0080	-0.0019	-0.0012	-0.0005	-0.0050	0.0013	0.0041	-0.0073	0.0042	0.0030	0.0055	-0.0097	0.0063	0.0001	0.0059	-0.0089	0.0054	0.0002	-0.0003	-0.0020	0.0015	-0.0026	-0.0035	0.0024	-0.0026	-0.0001	-0.0003	0.0008	0.0010	0.0003	-0.0010	0.0001	-0.0001	0.0005	-0.0015	-0.0007	-0.0011	-0.0002	-0.0010	-0.0007	0.0001	-0.0001	-0.0008	-0.0012	-0.0012	-0.0002	-0.0003	-0.0009	-0.0008	-0.0006	0.0002	-0.0002	0.0006	-0.0002	-0.0004	-0.0007	0.0006	-0.0001	-0.0002	-0.0010	0.0001	0.0002	0.0002	-0.0008	-0.0007	0.0005	0.0006	-0.0004	-0.0015	0.0005	0.0010	-0.0000	-0.0017	0.0002	0.0010	0.0001	-0.0014	-0.0000	0.0008	-0.0000	-0.0008	-0.0513	-0.0133	0.0228	-0.0112	-0.0174	0.0156	0.0614	0.0211	0.0316	0.0410	0.0824	0.0580	0.0803	0.0590	0.0777	0.0815	0.1070	0.0649	0.0533	0.0851	0.1033	0.0630	0.0280	0.0771	0.0807	0.0598	0.0153	0.0611	-0.0034	-0.0000	0.0048	-0.0053	-0.0001	0.0018	0.0041	-0.0031	0.0029	0.0093	0.0004	-0.0003	0.0018	0.0096	0.0007	0.0055	0.0017	0.0065	0.0012	0.0083	-0.0001	0.0011	0.0030	0.0018	-0.0032	-0.0012	0.0029	0.0007	0.0005	-0.0004	0.0001	-0.0008	-0.0004	-0.0001	0.0007	0.0020	-0.0001	-0.0004	-0.0001	0.0008	0.0009	-0.0011	-0.0012	-0.0022	-0.0004	-0.0002	-0.0005	0.0009	-0.0004	0.0000	-0.0004	0.0006	-0.0002	-0.0001	-0.0005	-0.0004	-0.0003	-0.0003	-0.0005	0.0006	-0.0001	-0.0001	-0.0007	0.0003	0.0002	0.0002	-0.0006	-0.0005	0.0003	0.0007	-0.0003	-0.0011	0.0005	0.0010	-0.0000	-0.0012	0.0003	0.0009	-0.0000	-0.0011	0.0000	0.0007	-0.0001	-0.0007	0.0801	0.0560	0.0555	0.0605	0.0889	0.0546	0.0642	0.0627	0.0930	0.0553	0.0739	0.0796	0.0972	0.0716	0.0894	0.1061	0.1089	0.1050	0.1031	0.1376	0.1332	0.1446	0.1059	0.1628	0.1613	0.1786	0.1018	0.1705	-0.0047	-0.0015	-0.0018	0.0007	-0.0011	-0.0044	-0.0018	-0.0005	0.0008	-0.0057	-0.0022	-0.0041	-0.0015	-0.0066	-0.0016	-0.0055	0.0007	-0.0039	-0.0038	-0.0039	-0.0012	0.0020	-0.0062	-0.0019	-0.0026	0.0042	-0.0043	-0.0007	0.0002	-0.0010	-0.0006	-0.0014	-0.0005	-0.0006	0.0001	0.0009	-0.0002	-0.0009	-0.0000	0.0000	-0.0002	-0.0012	-0.0001	-0.0002	-0.0004	-0.0010	-0.0003	0.0005	-0.0005	-0.0009	-0.0010	0.0000	-0.0003	-0.0009	-0.0015	-0.0007	0.0000	0.0007	-0.0001	-0.0008	0.0001	0.0006	-0.0001	-0.0009	0.0003	0.0007	-0.0003	-0.0012	0.0003	0.0008	-0.0007	-0.0013	0.0003	0.0007	-0.0011	-0.0015	0.0002	0.0008	-0.0013	-0.0016	-0.0001	0.0009	-0.0012	-0.0016	0.0693	0.0274	0.0428	0.0340	0.0726	0.0142	0.0470	0.0322	0.0681	0.0077	0.0603	0.0448	0.0662	0.0218	0.0825	0.0743	0.0778	0.0596	0.1044	0.1167	0.1086	0.1100	0.1131	0.1517	0.1475	0.1550	0.1074	0.1670	-0.0029	0.0006	-0.0015	0.0017	-0.0009	-0.0016	0.0001	-0.0029	-0.0012	-0.0057	0.0031	-0.0038	-0.0005	-0.0059	0.0026	-0.0064	0.0003	-0.0028	-0.0001	-0.0060	-0.0020	0.0021	-0.0046	0.0010	-0.0026	0.0033	-0.0063	0.0026	-0.0009	0.0000	0.0004	0.0019	0.0001	-0.0007	-0.0001	-0.0009	0.0000	-0.0009	0.0003	-0.0001	-0.0007	-0.0006	0.0008	0.0018	0.0000	-0.0013	-0.0001	-0.0001	0.0000	-0.0014	-0.0010	-0.0007	-0.0006	-0.0009	-0.0012	0.0002	0.0003	0.0006	0.0003	-0.0006	0.0003	0.0007	0.0003	-0.0010	0.0004	0.0008	0.0001	-0.0010	0.0005	0.0008	-0.0004	-0.0011	0.0005	0.0008	-0.0010	-0.0014	0.0004	0.0009	-0.0012	-0.0016	0.0002	0.0010	-0.0011	-0.0016	0.0525	0.0031	0.0210	0.0099	0.0469	-0.0174	0.0196	0.0023	0.0320	-0.0278	0.0347	0.0083	0.0235	-0.0150	0.0622	0.0392	0.0355	0.0257	0.0944	0.0865	0.0741	0.0822	0.1132	0.1286	0.1252	0.1318	0.1112	0.1536	-0.0003	0.0043	0.0005	0.0017	-0.0018	0.0002	0.0057	-0.0014	-0.0012	-0.0015	0.0086	-0.0061	0.0010	-0.0024	0.0102	-0.0077	-0.0014	-0.0005	0.0076	-0.0045	-0.0011	0.0056	0.0003	0.0016	-0.0014	0.0071	-0.0032	0.0042	0.0003	-0.0003	-0.0004	-0.0012	-0.0004	0.0001	0.0006	0.0010	-0.0004	0.0000	0.0010	0.0014	0.0000	-0.0005	0.0008	0.0008	-0.0000	-0.0009	0.0004	0.0008	-0.0003	-0.0010	-0.0003	0.0009	-0.0001	-0.0011	-0.0013	-0.0005	0.0002	0.0005	0.0005	-0.0006	0.0003	0.0007	0.0006	-0.0005	0.0004	0.0007	0.0003	-0.0005	0.0005	0.0007	-0.0003	-0.0006	0.0005	0.0007	-0.0010	-0.0008	0.0005	0.0008	-0.0012	-0.0011	0.0003	0.0009	-0.0011	-0.0015	0.0319	-0.0074	-0.0032	-0.0036	0.0179	-0.0258	-0.0087	-0.0180	-0.0049	-0.0359	0.0029	-0.0137	-0.0173	-0.0211	0.0351	0.0119	-0.0036	0.0198	0.0764	0.0563	0.0408	0.0731	0.1024	0.1045	0.0995	0.1214	0.1056	0.1358	-0.0018	0.0066	0.0025	0.0017	0.0004	0.0031	0.0088	-0.0022	0.0005	0.0014	0.0135	-0.0060	-0.0014	-0.0004	0.0154	-0.0069	-0.0001	0.0016	0.0119	-0.0042	0.0009	0.0074	0.0039	0.0018	-0.0008	0.0093	-0.0002	0.0055	-0.0001	0.0003	-0.0001	-0.0001	-0.0003	0.0006	0.0005	0.0010	-0.0003	0.0006	0.0009	0.0016	0.0001	-0.0001	0.0008	0.0009	-0.0003	-0.0002	0.0008	0.0022	0.0001	-0.0008	-0.0004	0.0006	-0.0002	-0.0008	-0.0010	0.0002	0.0002	0.0005	0.0005	-0.0003	0.0002	0.0004	0.0005	-0.0001	0.0002	0.0004	0.0001	0.0001	0.0001	0.0004	-0.0004	0.0001	0.0001	0.0003	-0.0010	-0.0000	0.0002	0.0005	-0.0012	-0.0006	0.0002	0.0008	-0.0011	-0.0010	0.0149	-0.0050	-0.0179	-0.0059	-0.0027	-0.0170	-0.0279	-0.0188	-0.0270	-0.0200	-0.0168	-0.0200	-0.0387	-0.0033	0.0159	0.0014	-0.0231	0.0338	0.0585	0.0422	0.0244	0.0802	0.0898	0.0846	0.0840	0.1197	0.0979	0.1178	0.0010	0.0047	0.0011	0.0026	0.0003	0.0019	0.0062	-0.0029	-0.0009	-0.0017	0.0105	-0.0043	-0.0001	-0.0021	0.0118	-0.0078	0.0001	0.0018	0.0085	-0.0061	-0.0001	0.0053	0.0030	0.0026	0.0021	0.0060	-0.0015	0.0053	-0.0005	0.0007	0.0002	0.0013	0.0000	0.0006	0.0001	0.0001	0.0001	0.0004	0.0004	0.0004	-0.0007	0.0007	0.0012	0.0030	0.0003	-0.0004	0.0001	0.0003	0.0003	-0.0009	-0.0006	-0.0002	-0.0004	-0.0006	-0.0007	0.0011	0.0002	0.0002	0.0003	-0.0001	-0.0000	0.0001	0.0002	0.0001	-0.0002	0.0000	-0.0001	0.0005	-0.0002	-0.0001	-0.0007	0.0007	-0.0003	-0.0001	-0.0011	0.0003	-0.0002	0.0002	-0.0012	-0.0002	-0.0001	0.0004	-0.0010	-0.0007	0.0067	0.0023	-0.0184	-0.0002	-0.0084	-0.0022	-0.0279	-0.0084	-0.0268	0.0019	-0.0176	-0.0112	-0.0342	0.0186	0.0117	0.0069	-0.0168	0.0493	0.0511	0.0397	0.0283	0.0849	0.0810	0.0737	0.0818	0.1125	0.0914	0.1044	0.0030	0.0016	-0.0001	0.0020	-0.0012	-0.0015	0.0027	-0.0007	-0.0011	-0.0031	0.0048	-0.0050	0.0002	-0.0051	0.0060	-0.0068	-0.0018	-0.0026	0.0028	-0.0037	0.0005	0.0031	-0.0029	-0.0006	0.0026	0.0036	-0.0040	0.0017	0.0002	0.0002	-0.0003	-0.0005	-0.0001	0.0004	0.0000	0.0002	-0.0004	0.0006	0.0005	0.0013	0.0003	-0.0002	0.0001	-0.0002	-0.0002	-0.0003	0.0001	0.0009	-0.0003	-0.0005	-0.0003	0.0008	0.0004	-0.0011	-0.0011	-0.0013	0.0000	0.0000	0.0001	-0.0001	-0.0001	-0.0000	0.0000	0.0002	-0.0003	-0.0002	-0.0003	0.0005	-0.0005	-0.0003	-0.0007	0.0006	-0.0005	-0.0003	-0.0011	0.0004	-0.0003	-0.0001	-0.0011	-0.0001	-0.0002	0.0003	-0.0009	-0.0008	0.0058	0.0089	-0.0102	0.0061	-0.0047	0.0105	-0.0149	0.0039	-0.0143	0.0181	-0.0083	0.0054	-0.0148	0.0348	0.0176	0.0168	0.0025	0.0579	0.0510	0.0418	0.0404	0.0817	0.0722	0.0717	0.0822	0.1024	0.0814	0.0957	0.0009	-0.0012	-0.0002	0.0014	0.0005	-0.0023	0.0002	-0.0008	-0.0011	-0.0032	0.0008	-0.0036	-0.0026	-0.0054	0.0027	-0.0057	0.0005	-0.0016	0.0000	-0.0046	0.0016	0.0035	-0.0026	-0.0011	0.0008	0.0041	-0.0009	0.0001	0.0002	-0.0001	-0.0003	-0.0006	-0.0004	0.0004	0.0002	0.0010	0.0001	0.0000	-0.0001	-0.0003	-0.0002	-0.0001	0.0001	0.0005	-0.0003	-0.0002	0.0001	0.0011	0.0001	-0.0007	-0.0006	-0.0004	-0.0001	-0.0006	-0.0007	0.0001	-0.0001	0.0000	-0.0000	-0.0000	-0.0001	-0.0001	-0.0002	0.0002	-0.0003	-0.0002	-0.0004	0.0003	-0.0005	-0.0003	-0.0007	0.0005	-0.0004	-0.0003	-0.0009	0.0002	-0.0002	0.0000	-0.0009	-0.0004	-0.0001	0.0004	-0.0008	-0.0007	-0.0782	-0.0182	-0.0894	-0.0586	-0.0966	-0.0285	-0.0936	-0.0863	-0.1090	-0.0473	-0.0769	-0.1138	-0.1173	-0.0655	-0.0465	-0.1011	-0.1229	-0.0518	-0.0029	-0.0402	-0.0958	0.0041	0.0327	0.0257	-0.0303	0.0710	0.0405	0.0595	0.0055	0.0152	0.0112	-0.0011	-0.0031	0.0150	0.0196	-0.0007	-0.0011	0.0092	0.0225	0.0057	0.0066	-0.0040	0.0221	0.0013	0.0084	-0.0070	0.0163	-0.0069	0.0023	0.0040	0.0027	-0.0010	-0.0010	0.0100	-0.0054	0.0083	-0.0004	0.0023	0.0002	0.0022	0.0006	0.0017	-0.0005	-0.0008	0.0005	0.0015	0.0002	0.0006	0.0001	0.0011	0.0014	0.0025	-0.0007	0.0010	0.0021	0.0048	0.0007	-0.0005	-0.0002	-0.0002	0.0003	-0.0005	-0.0011	-0.0004	-0.0004	-0.0007	-0.0001	0.0013	-0.0009	-0.0005	0.0001	0.0019	-0.0010	-0.0006	0.0005	0.0023	-0.0009	-0.0008	0.0001	0.0021	-0.0003	-0.0008	-0.0009	0.0015	-0.0001	-0.0007	-0.0015	0.0008	-0.0002	-0.0005	-0.0013	0.0004	-0.0611	0.0765	-0.0722	0.0239	-0.0595	0.0933	-0.0904	-0.0176	-0.0521	0.0717	-0.0932	-0.0831	-0.0703	0.0184	-0.0627	-0.0969	-0.0971	-0.0034	-0.0003	-0.0423	-0.0799	0.0324	0.0523	0.0371	-0.0069	0.0922	0.0631	0.0807	0.0077	0.0086	0.0037	-0.0020	-0.0098	0.0169	0.0029	0.0083	-0.0017	0.0074	0.0094	0.0072	0.0069	-0.0095	0.0182	-0.0060	0.0095	-0.0183	0.0166	-0.0100	0.0058	-0.0048	-0.0005	-0.0022	-0.0010	0.0102	-0.0151	0.0064	0.0001	0.0015	-0.0011	0.0001	0.0004	0.0013	-0.0023	-0.0021	-0.0002	0.0020	-0.0008	0.0007	-0.0000	0.0015	0.0008	0.0017	0.0006	0.0000	0.0012	0.0010	-0.0007	-0.0000	0.0009	0.0036	0.0006	-0.0011	-0.0017	-0.0020	-0.0009	-0.0010	-0.0014	0.0011	-0.0014	-0.0009	-0.0007	0.0020	-0.0020	-0.0011	0.0002	0.0025	-0.0019	-0.0011	0.0001	0.0023	-0.0013	-0.0011	-0.0009	0.0017	-0.0003	-0.0009	-0.0017	0.0009	-0.0002	-0.0006	-0.0014	-0.0001	-0.0097	0.1363	0.0000	0.0964	0.0266	0.1622	-0.0312	0.0570	0.0556	0.1304	-0.0728	-0.0247	0.0142	0.0527	-0.0638	-0.0636	-0.0482	0.0122	0.0048	-0.0296	-0.0544	0.0370	0.0713	0.0483	0.0162	0.0928	0.0829	0.0982	0.0030	-0.0152	-0.0144	0.0033	-0.0121	0.0041	-0.0366	0.0182	-0.0011	-0.0079	-0.0264	0.0030	0.0030	-0.0233	-0.0057	-0.0176	0.0062	-0.0251	0.0061	-0.0271	0.0073	-0.0073	-0.0033	-0.0110	-0.0004	0.0115	-0.0156	0.0086	0.0002	-0.0008	-0.0014	-0.0011	-0.0003	-0.0005	-0.0030	-0.0026	-0.0004	0.0005	-0.0017	-0.0020	-0.0002	0.0006	0.0002	-0.0009	-0.0005	0.0003	0.0017	0.0018	0.0011	-0.0014	-0.0002	-0.0017	0.0002	-0.0011	-0.0014	-0.0008	-0.0009	-0.0010	-0.0020	0.0003	-0.0010	-0.0011	-0.0008	0.0004	-0.0017	-0.0012	0.0005	0.0006	-0.0017	-0.0010	0.0004	0.0009	-0.0012	-0.0010	-0.0008	0.0009	-0.0004	-0.0008	-0.0017	0.0002	0.0001	-0.0003	-0.0013	-0.0005	0.0578	0.1170	0.0901	0.1099	0.1205	0.1213	0.0498	0.0882	0.1518	0.0722	-0.0278	0.0237	0.0827	-0.0009	-0.0467	-0.0256	-0.0144	-0.0267	0.0082	-0.0044	-0.0434	0.0149	0.0801	0.0614	0.0240	0.0822	0.0954	0.1022	-0.0051	-0.0218	-0.0229	0.0045	-0.0024	-0.0006	-0.0511	0.0242	-0.0013	-0.0124	-0.0392	0.0007	-0.0021	-0.0261	-0.0131	-0.0219	0.0028	-0.0284	0.0045	-0.0336	-0.0008	-0.0062	-0.0021	-0.0163	-0.0008	0.0141	-0.0154	0.0100	0.0011	-0.0031	-0.0017	-0.0044	-0.0009	-0.0016	-0.0020	-0.0010	-0.0002	-0.0010	-0.0016	-0.0038	-0.0006	-0.0001	0.0006	-0.0012	-0.0005	-0.0002	0.0019	0.0010	0.0006	-0.0014	0.0002	-0.0012	0.0010	-0.0017	-0.0019	-0.0029	-0.0005	-0.0003	-0.0012	-0.0008	0.0004	-0.0003	0.0002	-0.0016	0.0000	0.0000	0.0013	-0.0019	-0.0003	0.0001	0.0010	-0.0010	-0.0003	-0.0002	-0.0007	-0.0002	0.0001	-0.0003	-0.0017	-0.0002	0.0003	-0.0001	-0.0012	-0.0008	0.0952	0.0372	0.1229	0.0598	0.1507	0.0050	0.0823	0.0502	0.1563	-0.0555	-0.0039	0.0211	0.0696	-0.0978	-0.0367	-0.0123	-0.0326	-0.0803	0.0121	0.0073	-0.0558	-0.0093	0.0843	0.0599	0.0204	0.0686	0.0988	0.0958	-0.0104	-0.0093	-0.0156	0.0045	0.0087	0.0031	-0.0349	0.0207	0.0014	-0.0068	-0.0223	0.0013	-0.0045	-0.0160	-0.0012	-0.0205	-0.0047	-0.0219	0.0155	-0.0304	-0.0073	-0.0020	0.0027	-0.0085	0.0000	0.0155	-0.0129	0.0110	-0.0000	-0.0024	-0.0002	-0.0015	0.0004	-0.0022	-0.0011	-0.0025	-0.0008	-0.0006	0.0003	-0.0006	-0.0007	0.0001	0.0015	0.0001	-0.0000	-0.0004	0.0019	0.0003	0.0004	-0.0014	0.0003	-0.0004	0.0001	-0.0011	-0.0011	-0.0001	0.0003	0.0007	0.0002	-0.0012	0.0015	0.0007	0.0016	-0.0028	0.0018	0.0014	0.0020	-0.0030	0.0013	0.0012	0.0011	-0.0018	0.0005	0.0005	-0.0007	-0.0004	0.0004	0.0000	-0.0016	-0.0000	0.0005	0.0000	-0.0011	-0.0007	0.0745	-0.0405	0.0756	-0.0046	0.0934	-0.0874	0.0371	-0.0110	0.0641	-0.1329	-0.0259	-0.0194	-0.0134	-0.1396	-0.0455	-0.0332	-0.0811	-0.0939	0.0123	-0.0149	-0.0723	-0.0207	0.0859	0.0301	0.0132	0.0442	0.0978	0.0770	-0.0032	0.0143	0.0002	-0.0004	0.0126	0.0208	0.0041	0.0071	0.0044	0.0116	0.0185	0.0042	-0.0066	-0.0023	0.0277	-0.0042	-0.0124	-0.0160	0.0279	-0.0132	-0.0068	-0.0016	0.0026	0.0016	0.0051	0.0088	-0.0148	0.0101	-0.0008	-0.0000	0.0008	0.0018	0.0009	-0.0002	-0.0000	-0.0013	0.0004	0.0005	0.0008	0.0001	-0.0003	0.0008	0.0017	0.0018	-0.0004	-0.0001	0.0022	0.0024	-0.0004	-0.0009	0.0010	0.0024	0.0002	-0.0013	-0.0006	0.0000	0.0009	0.0010	0.0011	-0.0011	0.0017	0.0014	0.0019	-0.0021	0.0019	0.0019	0.0018	-0.0017	0.0013	0.0015	0.0008	-0.0004	0.0003	0.0006	-0.0007	0.0008	0.0003	-0.0001	-0.0012	0.0005	0.0006	-0.0002	-0.0009	-0.0008	0.0168	-0.0797	-0.0038	-0.0426	0.0002	-0.1126	-0.0367	-0.0587	-0.0459	-0.1324	-0.0617	-0.0664	-0.0960	-0.1216	-0.0524	-0.0665	-0.1143	-0.0775	0.0103	-0.0470	-0.0783	-0.0241	0.0737	0.0002	0.0028	0.0202	0.0879	0.0540	0.0023	0.0176	0.0059	0.0005	0.0049	0.0127	0.0156	0.0043	0.0019	0.0020	0.0214	0.0038	-0.0066	-0.0041	0.0181	-0.0023	-0.0114	-0.0088	0.0152	-0.0113	0.0021	0.0050	0.0012	-0.0030	0.0048	0.0114	-0.0053	0.0060	0.0000	0.0007	0.0004	0.0003	0.0012	0.0003	0.0000	-0.0019	0.0000	0.0010	0.0014	0.0018	-0.0004	0.0008	0.0017	0.0024	-0.0007	0.0002	0.0019	0.0029	-0.0003	-0.0003	0.0010	0.0024	0.0013	-0.0016	-0.0011	-0.0026	0.0009	0.0007	0.0012	-0.0006	0.0009	0.0009	0.0014	-0.0005	0.0009	0.0007	0.0010	0.0002	0.0005	0.0002	0.0002	0.0009	-0.0001	-0.0002	-0.0007	0.0014	0.0001	-0.0006	-0.0009	0.0006	0.0004	0.0000	-0.0006	-0.0006	0.0963	0.1187	0.0169	0.0782	0.0879	0.0948	-0.0187	0.0448	0.0534	0.0560	-0.0591	0.0051	0.0021	0.0085	-0.0986	-0.0444	-0.0507	-0.0455	-0.1268	-0.1108	-0.1120	-0.0974	-0.1207	-0.1512	-0.1655	-0.1335	-0.0969	-0.1494	0.0007	-0.0008	-0.0112	0.0052	0.0016	0.0013	-0.0096	0.0029	0.0055	0.0033	-0.0026	-0.0018	0.0026	0.0135	0.0056	-0.0028	-0.0024	0.0146	0.0157	0.0016	0.0026	-0.0000	0.0299	-0.0028	0.0057	0.0008	0.0220	0.0013	-0.0002	-0.0003	-0.0014	-0.0010	-0.0007	0.0006	-0.0009	0.0002	-0.0004	0.0012	-0.0006	0.0002	-0.0009	0.0025	-0.0001	0.0019	0.0012	0.0015	-0.0011	-0.0031	-0.0004	0.0026	0.0017	0.0033	0.0006	0.0014	0.0014	0.0013	-0.0004	0.0001	-0.0003	-0.0007	-0.0004	0.0001	0.0001	-0.0005	-0.0004	-0.0001	0.0003	-0.0002	-0.0003	-0.0002	0.0005	0.0005	-0.0007	-0.0002	0.0011	0.0013	-0.0009	-0.0005	0.0009	0.0023	-0.0005	-0.0009	0.0006	0.0022	0.1226	0.0881	0.0437	0.0705	0.1117	0.0569	0.0103	0.0504	0.0636	0.0327	-0.0284	0.0469	0.0048	0.0304	-0.0756	0.0302	-0.0389	0.0325	-0.1254	-0.0277	-0.0832	0.0144	-0.1358	-0.0993	-0.1312	-0.0213	-0.1086	-0.1296	-0.0035	-0.0083	-0.0156	0.0100	0.0043	-0.0160	-0.0181	0.0047	0.0085	-0.0158	-0.0163	-0.0081	0.0038	-0.0005	-0.0160	-0.0056	-0.0031	0.0156	-0.0059	-0.0046	-0.0061	0.0079	0.0148	-0.0074	0.0060	-0.0019	0.0243	-0.0004	0.0004	-0.0016	-0.0015	-0.0030	-0.0006	-0.0007	-0.0002	0.0000	-0.0010	0.0002	0.0003	0.0012	0.0001	0.0005	-0.0012	-0.0019	-0.0013	0.0027	-0.0006	0.0018	0.0018	0.0012	-0.0019	-0.0053	-0.0001	0.0023	0.0010	0.0027	-0.0001	0.0005	0.0003	-0.0012	0.0001	0.0003	0.0005	-0.0014	0.0003	-0.0001	-0.0001	-0.0013	0.0002	-0.0004	-0.0005	-0.0006	-0.0004	-0.0007	-0.0002	0.0008	-0.0017	-0.0009	0.0002	0.0021	-0.0018	-0.0013	0.0001	0.0030	0.1309	0.0302	0.0476	0.0277	0.1129	-0.0201	0.0291	0.0118	0.0511	-0.0432	0.0212	0.0463	0.0002	-0.0046	-0.0006	0.0834	-0.0126	0.0574	-0.0587	0.0710	-0.0147	0.0876	-0.1024	-0.0061	-0.0471	0.0700	-0.0974	-0.0701	-0.0084	0.0011	-0.0109	0.0101	0.0071	-0.0178	-0.0032	-0.0006	0.0074	-0.0266	-0.0047	-0.0079	0.0042	-0.0145	-0.0182	-0.0021	-0.0027	0.0005	-0.0298	0.0066	-0.0169	0.0014	-0.0208	0.0003	0.0023	-0.0119	-0.0032	-0.0118	0.0004	-0.0014	-0.0011	-0.0031	-0.0002	-0.0008	0.0009	0.0002	0.0004	-0.0015	0.0008	-0.0010	-0.0006	-0.0007	0.0003	0.0011	0.0006	-0.0008	-0.0024	-0.0041	-0.0011	0.0011	-0.0016	-0.0009	0.0005	0.0009	-0.0009	-0.0023	0.0004	0.0011	0.0013	-0.0014	0.0005	0.0009	0.0012	-0.0016	0.0009	0.0006	0.0001	-0.0017	0.0011	-0.0001	-0.0010	-0.0013	0.0004	-0.0007	-0.0010	-0.0007	-0.0009	-0.0009	-0.0004	0.0010	-0.0021	-0.0015	-0.0002	0.0018	0.1078	-0.0185	0.0076	-0.0184	0.0734	-0.0831	-0.0023	-0.0487	-0.0019	-0.1096	0.0372	-0.0092	-0.0365	-0.0591	0.0692	0.0700	-0.0035	0.0317	0.0436	0.1159	0.0496	0.0936	-0.0253	0.0762	0.0483	0.0998	-0.0604	0.0128	-0.0056	0.0158	-0.0027	0.0096	0.0020	-0.0090	0.0177	-0.0082	0.0032	-0.0220	0.0216	-0.0120	0.0054	-0.0160	0.0001	-0.0001	-0.0021	-0.0005	-0.0259	0.0146	-0.0099	0.0087	-0.0353	0.0136	-0.0046	-0.0102	-0.0118	-0.0108	-0.0008	0.0005	-0.0001	0.0007	0.0008	-0.0003	0.0009	-0.0016	-0.0001	-0.0006	0.0026	0.0022	0.0007	-0.0020	0.0008	-0.0002	-0.0001	-0.0016	-0.0010	-0.0004	-0.0007	-0.0003	-0.0022	-0.0016	-0.0004	0.0005	-0.0011	-0.0018	0.0007	0.0012	0.0018	-0.0011	0.0004	0.0013	0.0017	-0.0009	0.0008	0.0010	0.0003	-0.0006	0.0012	0.0003	-0.0011	-0.0010	0.0012	-0.0001	-0.0013	-0.0012	0.0004	-0.0003	-0.0004	-0.0009	-0.0011	-0.0005	-0.0002	0.0002	0.0653	-0.0365	-0.0465	-0.0379	0.0147	-0.0960	-0.0628	-0.0851	-0.0679	-0.1170	0.0015	-0.0694	-0.0899	-0.0766	0.0848	0.0119	-0.0258	0.0063	0.1054	0.0925	0.0650	0.0697	0.0409	0.1094	0.0967	0.0932	-0.0170	0.0693	0.0033	0.0198	0.0000	0.0087	-0.0065	0.0020	0.0256	-0.0124	0.0009	-0.0115	0.0385	-0.0190	0.0007	-0.0065	0.0223	-0.0038	0.0051	0.0051	-0.0066	0.0177	0.0011	0.0152	-0.0267	0.0236	-0.0088	-0.0039	-0.0122	-0.0001	-0.0006	0.0015	-0.0001	0.0011	-0.0002	0.0014	0.0012	0.0004	-0.0001	0.0008	0.0028	0.0029	0.0010	-0.0013	0.0014	0.0006	0.0004	-0.0017	-0.0002	0.0008	-0.0004	-0.0008	-0.0017	0.0000	-0.0003	-0.0003	-0.0015	-0.0021	0.0007	0.0007	0.0017	-0.0008	0.0002	0.0010	0.0015	0.0002	-0.0001	0.0006	0.0002	0.0009	0.0004	0.0003	-0.0010	0.0005	0.0010	0.0001	-0.0012	-0.0006	0.0011	0.0002	-0.0005	-0.0015	-0.0002	0.0004	-0.0001	-0.0009	0.0287	-0.0317	-0.0726	-0.0311	-0.0300	-0.0677	-0.1033	-0.0745	-0.1051	-0.0727	-0.0464	-0.0837	-0.1210	-0.0398	0.0521	-0.0342	-0.0510	0.0144	0.1071	0.0429	0.0482	0.0572	0.0746	0.0914	0.1015	0.0761	0.0202	0.0851	0.0062	0.0107	-0.0016	0.0090	-0.0042	0.0022	0.0167	-0.0101	-0.0071	-0.0063	0.0311	-0.0225	-0.0009	0.0005	0.0263	-0.0100	0.0065	0.0105	0.0066	0.0099	0.0094	0.0141	-0.0112	0.0258	-0.0057	0.0018	-0.0090	0.0090	0.0003	0.0008	-0.0007	-0.0011	-0.0017	0.0027	0.0017	0.0043	0.0004	0.0010	0.0014	0.0002	-0.0001	0.0004	0.0018	0.0033	0.0014	-0.0015	-0.0005	-0.0011	0.0007	-0.0012	-0.0015	-0.0007	-0.0012	0.0000	-0.0006	0.0014	0.0005	0.0003	0.0011	-0.0005	0.0000	0.0003	0.0007	0.0008	-0.0008	-0.0001	-0.0003	0.0017	-0.0006	-0.0004	-0.0011	0.0018	0.0000	-0.0002	-0.0011	0.0003	0.0007	0.0003	-0.0004	-0.0010	0.0004	0.0008	-0.0001	-0.0011	0.0102	-0.0176	-0.0623	-0.0184	-0.0388	-0.0352	-0.0917	-0.0464	-0.0925	-0.0302	-0.0564	-0.0602	-0.1036	-0.0041	0.0206	-0.0381	-0.0487	0.0274	0.0785	0.0133	0.0313	0.0508	0.0773	0.0606	0.0839	0.0600	0.0397	0.0770	0.0046	0.0012	-0.0011	0.0084	-0.0018	-0.0095	0.0029	-0.0002	-0.0100	-0.0145	0.0080	-0.0156	-0.0024	-0.0060	0.0040	-0.0151	0.0032	0.0055	-0.0016	-0.0019	0.0103	0.0106	-0.0078	0.0110	0.0018	0.0063	-0.0060	0.0093	0.0002	0.0005	-0.0004	-0.0005	0.0000	0.0007	0.0001	-0.0003	-0.0016	0.0014	0.0019	0.0040	0.0003	-0.0002	0.0006	-0.0000	0.0006	-0.0008	-0.0001	-0.0003	0.0011	-0.0013	-0.0012	-0.0020	-0.0002	-0.0004	-0.0008	0.0001	0.0002	0.0001	0.0006	-0.0002	-0.0002	-0.0002	0.0003	0.0006	-0.0008	-0.0007	-0.0005	0.0017	-0.0010	-0.0011	-0.0010	0.0015	-0.0004	-0.0007	-0.0010	0.0006	0.0002	-0.0001	-0.0004	-0.0007	0.0005	0.0006	-0.0001	-0.0011	0.0230	-0.0128	-0.0345	-0.0485	-0.0064	-0.0604	-0.0394	-0.0685	-0.0594	-0.0801	-0.0294	-0.0370	-0.0918	-0.0425	-0.0183	0.0110	-0.0746	0.0222	-0.0175	0.0214	-0.0304	0.0594	-0.0223	-0.0073	-0.0069	0.0477	-0.0239	-0.0284	-0.0048	0.0016	-0.0024	0.0075	0.0056	-0.0098	0.0047	-0.0045	0.0107	-0.0089	0.0087	-0.0139	0.0054	0.0061	0.0082	-0.0117	-0.0061	0.0207	0.0055	0.0032	-0.0062	0.0158	0.0082	0.0120	0.0039	0.0030	0.0103	0.0079	-0.0001	0.0002	-0.0003	-0.0007	-0.0005	0.0007	0.0014	0.0018	-0.0006	0.0009	0.0019	0.0031	-0.0002	0.0009	0.0008	0.0019	0.0009	0.0003	-0.0015	-0.0022	0.0005	0.0006	-0.0014	-0.0011	-0.0003	0.0011	-0.0000	0.0018	-0.0002	0.0001	0.0011	0.0002	-0.0001	-0.0001	0.0010	0.0002	0.0004	-0.0003	-0.0001	0.0001	0.0005	-0.0004	-0.0012	0.0003	-0.0001	-0.0003	-0.0011	0.0008	-0.0009	-0.0003	-0.0003	0.0013	-0.0010	-0.0004	0.0001	0.0012	0.0397	-0.0103	-0.0487	-0.0583	-0.0082	-0.0691	-0.0565	-0.0772	-0.0885	-0.0774	-0.0251	-0.0221	-0.1175	-0.0030	0.0105	0.0523	-0.0645	0.0965	0.0110	0.0749	0.0209	0.1374	-0.0149	0.0250	0.0505	0.1034	-0.0296	-0.0196	-0.0035	0.0062	-0.0039	0.0092	0.0097	-0.0130	0.0134	-0.0116	0.0114	-0.0156	0.0188	-0.0198	0.0024	-0.0025	0.0074	-0.0056	-0.0063	0.0172	-0.0105	0.0124	-0.0114	0.0176	-0.0144	0.0168	0.0068	-0.0068	0.0014	0.0028	-0.0001	0.0006	-0.0005	-0.0008	-0.0006	0.0013	0.0019	0.0027	0.0001	0.0006	0.0019	0.0020	0.0007	-0.0005	-0.0001	-0.0002	-0.0004	0.0003	-0.0015	0.0009	0.0008	-0.0003	-0.0032	-0.0041	-0.0004	0.0009	-0.0004	0.0008	-0.0002	0.0002	0.0015	0.0001	-0.0002	-0.0000	0.0009	0.0003	0.0001	-0.0003	-0.0008	0.0004	0.0001	-0.0006	-0.0022	0.0007	-0.0003	-0.0008	-0.0019	0.0009	-0.0012	-0.0006	-0.0003	0.0009	-0.0016	-0.0006	0.0003	0.0009	0.0527	0.0126	-0.0711	-0.0518	-0.0097	-0.0497	-0.0760	-0.0825	-0.1024	-0.0577	-0.0067	-0.0269	-0.1108	0.0204	0.0695	0.0623	-0.0161	0.1148	0.0769	0.1062	0.0994	0.1402	0.0172	0.0625	0.1200	0.0926	-0.0243	0.0069	-0.0026	0.0163	0.0005	0.0115	0.0066	-0.0177	0.0263	-0.0119	0.0033	-0.0301	0.0245	-0.0162	-0.0012	-0.0173	-0.0037	-0.0018	-0.0039	0.0028	-0.0371	0.0198	-0.0079	0.0104	-0.0452	0.0196	0.0037	-0.0151	-0.0167	-0.0116	0.0002	0.0011	-0.0013	-0.0017	0.0002	0.0012	0.0014	0.0008	0.0003	-0.0003	0.0021	0.0016	-0.0000	-0.0014	0.0007	0.0015	0.0009	-0.0025	-0.0026	-0.0037	-0.0011	-0.0005	-0.0023	-0.0010	0.0002	-0.0003	-0.0010	-0.0032	-0.0003	0.0003	0.0015	0.0001	-0.0009	0.0001	0.0009	0.0009	-0.0006	-0.0004	-0.0010	0.0013	-0.0002	-0.0010	-0.0023	0.0008	-0.0000	-0.0010	-0.0017	-0.0003	-0.0001	-0.0005	0.0002	-0.0008	-0.0010	-0.0002	0.0007	-0.0009	0.0625	0.0650	-0.0878	-0.0141	0.0024	0.0075	-0.0911	-0.0733	-0.0805	-0.0162	0.0071	-0.0550	-0.0713	0.0123	0.1132	0.0244	0.0391	0.0543	0.1334	0.0803	0.1472	0.0474	0.0519	0.0690	0.1469	0.0025	-0.0142	0.0273	0.0020	0.0202	-0.0014	0.0110	-0.0075	-0.0112	0.0270	-0.0134	-0.0025	-0.0290	0.0310	-0.0160	-0.0022	-0.0184	-0.0012	0.0016	0.0003	-0.0002	-0.0363	0.0218	0.0053	0.0079	-0.0476	0.0203	-0.0044	-0.0158	-0.0171	-0.0134	-0.0009	0.0023	-0.0011	0.0013	0.0009	0.0009	-0.0002	-0.0028	-0.0004	0.0003	0.0024	0.0032	0.0008	-0.0024	0.0006	-0.0004	0.0001	-0.0027	-0.0010	-0.0009	-0.0003	-0.0016	-0.0017	-0.0020	-0.0003	-0.0008	-0.0002	-0.0027	-0.0004	0.0001	0.0009	0.0002	-0.0015	0.0002	0.0007	0.0013	-0.0016	-0.0004	-0.0007	0.0021	-0.0006	-0.0007	-0.0013	0.0008	0.0007	-0.0003	-0.0004	-0.0012	0.0014	0.0003	0.0011	-0.0027	0.0007	0.0010	0.0012	-0.0023	0.0853	0.1221	-0.0715	0.0446	0.0411	0.0739	-0.0936	-0.0364	-0.0257	0.0267	-0.0101	-0.0756	-0.0264	-0.0115	0.0956	-0.0440	0.0527	-0.0431	0.1218	-0.0003	0.1151	-0.0835	0.0513	0.0224	0.0912	-0.1135	-0.0105	0.0106	0.0045	0.0112	-0.0106	0.0144	-0.0162	-0.0059	0.0095	-0.0075	-0.0091	-0.0216	0.0204	-0.0199	-0.0021	-0.0104	0.0045	-0.0037	0.0071	0.0057	-0.0185	0.0151	0.0149	0.0058	-0.0215	0.0149	-0.0082	-0.0069	-0.0044	-0.0075	0.0003	0.0008	-0.0026	-0.0025	-0.0015	0.0020	-0.0000	0.0016	0.0001	0.0002	0.0009	-0.0005	-0.0001	-0.0010	0.0014	0.0014	0.0009	-0.0023	-0.0001	-0.0018	0.0002	-0.0013	0.0002	-0.0005	-0.0004	-0.0006	0.0009	-0.0007	-0.0006	-0.0001	0.0002	-0.0003	-0.0015	0.0001	0.0005	0.0013	-0.0021	-0.0004	0.0001	0.0019	-0.0008	-0.0004	0.0001	0.0009	0.0010	0.0003	0.0011	-0.0014	0.0022	0.0011	0.0018	-0.0030	0.0020	0.0017	0.0014	-0.0024	0.1244	0.1469	-0.0183	0.0877	0.0968	0.1003	-0.0679	0.0135	0.0398	0.0390	-0.0411	-0.0579	0.0032	-0.0322	0.0215	-0.0841	0.0159	-0.1026	0.0374	-0.0739	0.0185	-0.1537	0.0032	-0.0507	-0.0158	-0.1704	-0.0260	-0.0453	0.0028	-0.0025	-0.0193	0.0160	-0.0094	-0.0056	-0.0149	0.0006	-0.0125	-0.0106	0.0033	-0.0224	0.0003	0.0050	0.0085	-0.0144	0.0109	0.0206	0.0111	0.0013	0.0129	0.0130	0.0197	0.0079	-0.0060	0.0039	0.0214	0.0073	-0.0003	-0.0002	-0.0021	-0.0013	-0.0018	0.0013	-0.0006	0.0012	-0.0015	0.0014	0.0009	0.0015	-0.0000	0.0005	0.0009	0.0002	0.0005	0.0004	0.0009	0.0005	0.0019	-0.0005	0.0003	-0.0025	-0.0005	0.0006	0.0019	0.0029	-0.0004	0.0001	-0.0000	-0.0009	-0.0007	0.0000	0.0005	-0.0001	-0.0013	-0.0001	0.0006	0.0008	-0.0006	-0.0001	0.0010	0.0005	0.0008	0.0006	0.0016	-0.0005	0.0016	0.0013	0.0018	-0.0013	0.0018	0.0016	0.0013	-0.0006	0.1565	0.1306	0.0321	0.1002	0.1374	0.0832	-0.0303	0.0472	0.0799	0.0222	-0.0599	-0.0214	0.0114	-0.0428	-0.0550	-0.0783	-0.0354	-0.1065	-0.0576	-0.1058	-0.0752	-0.1474	-0.0585	-0.1074	-0.1083	-0.1600	-0.0514	-0.1039	0.0019	-0.0012	-0.0169	0.0118	0.0001	-0.0034	-0.0156	0.0079	-0.0082	-0.0053	-0.0040	-0.0104	-0.0010	0.0042	0.0058	-0.0126	0.0059	0.0114	0.0139	-0.0029	0.0032	0.0038	0.0240	-0.0013	-0.0016	0.0049	0.0174	0.0049	0.0005	-0.0012	-0.0022	-0.0033	-0.0011	0.0005	-0.0008	0.0005	-0.0015	0.0014	0.0004	0.0014	-0.0006	0.0014	0.0007	0.0007	0.0010	0.0008	0.0003	-0.0015	0.0005	0.0010	0.0014	0.0008	0.0002	0.0007	0.0015	0.0015	-0.0001	0.0006	0.0002	-0.0016	0.0001	0.0005	0.0008	-0.0012	-0.0002	0.0004	0.0010	-0.0004	-0.0002	0.0001	0.0011	0.0002	0.0002	0.0002	0.0014	0.0003	0.0005	0.0004	0.0011	0.0007	0.0007	0.0002	0.0009	0.0009	-0.1614	-0.1137	-0.0530	-0.0799	-0.1751	-0.0375	-0.0120	0.0066	-0.1271	0.0717	0.0053	0.0602	-0.0300	0.1445	-0.0135	0.0398	0.0359	0.1280	-0.0429	-0.0224	0.0316	0.0510	-0.0534	-0.0616	-0.0180	-0.0210	-0.0426	-0.0596	0.0114	-0.0044	0.0173	-0.0144	0.0089	0.0003	0.0186	-0.0133	-0.0011	0.0243	0.0027	0.0074	-0.0075	0.0275	-0.0020	0.0195	-0.0015	0.0127	0.0018	0.0198	0.0068	-0.0082	0.0097	0.0028	0.0086	-0.0111	0.0083	-0.0057	0.0003	0.0011	0.0018	0.0022	0.0002	0.0008	0.0011	0.0025	0.0002	0.0007	-0.0014	0.0007	0.0010	0.0003	-0.0032	-0.0030	0.0001	0.0010	-0.0019	-0.0008	-0.0007	0.0015	0.0005	0.0022	-0.0004	0.0010	0.0012	0.0020	-0.0000	-0.0009	-0.0007	0.0013	-0.0002	-0.0011	-0.0023	0.0015	-0.0004	-0.0011	-0.0025	0.0015	-0.0013	-0.0008	-0.0012	0.0015	-0.0017	-0.0005	0.0004	0.0015	-0.0015	-0.0004	0.0009	0.0012	-0.0006	-0.0004	0.0005	0.0007	-0.1582	-0.0546	-0.0425	-0.0549	-0.1514	0.0264	0.0362	0.0241	-0.0633	0.1169	0.0742	0.0785	0.0606	0.1547	0.0393	0.0725	0.1187	0.1128	-0.0244	0.0187	0.0800	0.0349	-0.0577	-0.0268	-0.0028	-0.0235	-0.0470	-0.0391	0.0034	-0.0141	0.0204	-0.0114	-0.0033	-0.0234	0.0059	-0.0002	-0.0053	-0.0151	-0.0352	0.0258	-0.0027	-0.0100	-0.0587	0.0197	0.0020	-0.0067	-0.0514	-0.0034	0.0062	-0.0138	-0.0173	-0.0238	0.0030	-0.0107	0.0028	-0.0190	0.0011	0.0001	0.0008	-0.0005	0.0017	-0.0021	-0.0003	-0.0026	0.0009	-0.0031	-0.0021	-0.0029	-0.0017	-0.0012	-0.0015	0.0010	-0.0008	-0.0005	-0.0018	-0.0027	0.0001	0.0002	-0.0005	-0.0031	0.0010	-0.0001	-0.0001	-0.0033	-0.0009	-0.0010	-0.0012	0.0019	-0.0012	-0.0013	-0.0023	0.0019	-0.0008	-0.0016	-0.0019	0.0008	-0.0005	-0.0014	-0.0005	-0.0005	-0.0004	-0.0009	0.0007	-0.0014	-0.0006	-0.0004	0.0008	-0.0010	-0.0004	-0.0002	0.0003	-0.0001	-0.1146	-0.0054	-0.0103	-0.0444	-0.0702	0.0319	0.0921	-0.0105	0.0381	0.0445	0.1442	0.0302	0.1410	0.0142	0.1004	0.0608	0.1561	-0.0323	0.0097	0.0539	0.0797	-0.0552	-0.0449	0.0282	-0.0120	-0.0456	-0.0415	-0.0011	-0.0100	-0.0209	0.0053	-0.0085	-0.0161	-0.0246	-0.0125	0.0007	0.0023	-0.0142	-0.0412	0.0136	0.0116	-0.0085	-0.0517	0.0105	0.0071	-0.0083	-0.0381	-0.0028	-0.0022	-0.0138	-0.0109	-0.0225	-0.0106	-0.0052	0.0012	-0.0167	0.0008	-0.0009	0.0002	-0.0018	0.0008	-0.0028	-0.0001	-0.0026	-0.0003	-0.0029	0.0000	-0.0001	0.0006	-0.0031	-0.0011	-0.0039	-0.0005	-0.0012	-0.0003	-0.0019	-0.0004	-0.0002	0.0004	-0.0017	0.0003	-0.0001	-0.0001	-0.0023	-0.0013	-0.0010	-0.0010	0.0019	-0.0012	-0.0010	-0.0009	0.0014	0.0000	-0.0008	0.0001	-0.0008	0.0014	0.0001	0.0011	-0.0032	0.0020	0.0009	0.0014	-0.0036	0.0013	0.0009	0.0006	-0.0022	0.0004	0.0004	-0.0001	-0.0004	-0.0476	0.0269	0.0073	-0.0384	0.0067	0.0055	0.0727	-0.0558	0.0731	-0.0578	0.0979	-0.0457	0.0995	-0.1270	0.0678	-0.0098	0.0623	-0.1521	0.0105	0.0248	-0.0058	-0.1126	-0.0209	0.0393	-0.0469	-0.0433	-0.0197	0.0195	-0.0160	-0.0022	0.0017	-0.0029	-0.0094	0.0057	-0.0027	-0.0015	0.0094	0.0109	-0.0034	0.0027	0.0155	0.0073	0.0054	0.0042	0.0105	0.0039	0.0114	0.0002	-0.0074	-0.0020	0.0166	-0.0057	-0.0154	0.0052	0.0065	0.0029	-0.0000	-0.0002	-0.0002	-0.0008	-0.0013	0.0002	0.0012	0.0031	0.0011	-0.0014	0.0002	-0.0022	0.0004	-0.0007	0.0014	0.0007	0.0002	-0.0002	0.0014	0.0010	-0.0001	-0.0000	0.0010	0.0007	-0.0005	0.0002	0.0001	0.0008	-0.0011	-0.0005	-0.0003	0.0015	-0.0006	-0.0002	0.0007	0.0008	0.0006	0.0006	0.0018	-0.0012	0.0020	0.0016	0.0020	-0.0025	0.0026	0.0019	0.0012	-0.0026	0.0018	0.0015	-0.0001	-0.0012	0.0008	0.0006	-0.0005	0.0002	-0.0001	0.0697	-0.0109	-0.0055	0.0343	0.0238	-0.0168	-0.0615	0.0336	-0.0621	-0.0274	-0.0961	-0.0206	-0.1322	-0.0312	-0.0755	-0.0856	-0.1283	-0.0262	-0.0202	-0.1062	-0.0558	-0.0062	0.0160	-0.0690	0.0215	0.0034	0.0141	-0.0061	0.0201	-0.0015	-0.0018	-0.0017	0.0313	0.0089	0.0010	0.0108	0.0247	0.0335	-0.0022	0.0173	0.0176	0.0496	-0.0063	0.0096	0.0137	0.0510	-0.0005	-0.0102	0.0124	0.0353	0.0113	-0.0072	0.0141	0.0112	0.0205	-0.0018	0.0021	-0.0000	0.0038	0.0004	0.0014	-0.0012	-0.0016	-0.0004	0.0027	0.0013	0.0034	0.0003	0.0023	0.0021	0.0035	0.0006	0.0016	0.0017	0.0032	0.0004	0.0005	0.0004	0.0018	-0.0009	0.0009	0.0001	0.0038	-0.0006	-0.0004	-0.0003	0.0009	-0.0006	0.0002	0.0012	0.0005	-0.0001	0.0008	0.0018	0.0005	0.0007	0.0012	0.0011	0.0002	0.0009	0.0011	-0.0003	0.0006	0.0004	0.0007	-0.0011	0.0013	-0.0001	-0.0001	-0.0008	0.0015	0.0380	0.1068	-0.0170	0.0471	0.0431	0.0765	-0.0791	-0.0039	-0.0067	0.0264	-0.1222	-0.0572	-0.0938	-0.0055	-0.1065	-0.0706	-0.1479	0.0132	-0.0455	-0.0410	-0.1195	0.0602	0.0114	-0.0057	-0.0393	0.0936	0.0217	0.0167	0.0050	0.0098	-0.0142	0.0080	0.0052	0.0237	-0.0053	0.0006	0.0094	0.0201	0.0248	-0.0140	0.0051	0.0069	0.0485	-0.0103	0.0006	-0.0047	0.0422	0.0038	-0.0043	0.0018	0.0110	0.0154	0.0071	0.0076	-0.0101	0.0124	-0.0005	0.0007	-0.0014	0.0004	-0.0019	0.0031	-0.0004	0.0039	0.0003	0.0030	-0.0007	-0.0005	0.0014	0.0022	-0.0001	-0.0009	0.0008	0.0011	0.0005	0.0016	-0.0011	0.0009	0.0006	0.0051	-0.0006	0.0005	-0.0005	0.0023	-0.0004	-0.0005	-0.0005	-0.0001	-0.0003	-0.0003	0.0003	0.0002	-0.0010	-0.0002	0.0003	0.0010	-0.0016	-0.0002	-0.0004	0.0024	-0.0017	-0.0007	-0.0014	0.0032	-0.0013	-0.0011	-0.0015	0.0027	-0.0009	-0.0013	-0.0010	0.0011	0.0773	0.1257	0.0167	0.0859	0.0744	0.1106	-0.0542	0.0609	0.0225	0.0940	-0.1042	0.0201	-0.0530	0.0919	-0.0820	-0.0103	-0.0806	0.1090	-0.0108	-0.0078	-0.0388	0.1224	0.0379	0.0200	0.0298	0.1216	0.0363	0.0492	0.0081	0.0010	-0.0124	0.0102	0.0071	-0.0024	-0.0169	0.0148	-0.0010	-0.0213	-0.0079	-0.0008	-0.0081	-0.0265	-0.0068	-0.0148	-0.0044	-0.0197	-0.0105	-0.0167	0.0070	-0.0002	-0.0194	-0.0037	0.0102	0.0040	-0.0157	0.0020	0.0002	-0.0004	-0.0016	-0.0011	0.0009	-0.0004	-0.0026	-0.0038	-0.0007	0.0008	-0.0007	-0.0001	-0.0010	0.0008	0.0000	0.0008	-0.0004	-0.0000	-0.0002	-0.0001	0.0002	-0.0004	-0.0011	-0.0007	0.0012	-0.0009	-0.0020	-0.0035	-0.0004	-0.0002	-0.0006	-0.0006	-0.0004	-0.0003	-0.0001	-0.0007	-0.0011	-0.0006	-0.0004	0.0005	-0.0019	-0.0014	-0.0012	0.0017	-0.0021	-0.0019	-0.0017	0.0020	-0.0015	-0.0018	-0.0014	0.0010	-0.0009	-0.0009	-0.0008	-0.0001	-0.0945	-0.0914	-0.0402	-0.0785	-0.1246	-0.0501	0.0074	0.0004	-0.0799	0.0224	0.0509	0.0343	0.0275	0.0675	0.0694	0.0119	0.0846	0.0443	0.0719	0.0278	0.0957	0.0057	0.0465	0.0506	0.0872	-0.0078	0.0189	0.0404	0.0088	0.0007	0.0211	-0.0131	0.0120	0.0031	0.0303	-0.0213	-0.0200	0.0209	0.0079	0.0186	-0.0124	-0.0071	-0.0044	0.0330	0.0093	-0.0294	-0.0213	0.0103	0.0046	-0.0108	-0.0373	-0.0051	-0.0044	-0.0063	-0.0233	-0.0150	-0.0007	0.0018	0.0022	0.0041	-0.0003	0.0015	0.0021	0.0044	0.0039	-0.0029	-0.0038	-0.0100	0.0004	-0.0019	-0.0010	-0.0008	-0.0017	-0.0010	0.0017	0.0046	-0.0018	-0.0006	0.0009	0.0024	0.0011	-0.0019	-0.0013	-0.0061	-0.0001	-0.0004	0.0000	0.0011	-0.0000	-0.0004	-0.0017	0.0011	-0.0003	0.0002	-0.0011	0.0010	-0.0008	0.0001	0.0004	0.0009	-0.0001	-0.0002	0.0005	-0.0008	0.0012	0.0001	0.0004	-0.0022	0.0009	0.0005	0.0004	-0.0022	-0.1135	-0.0029	-0.0672	-0.0278	-0.1178	0.0456	0.0094	-0.0054	-0.0223	0.0661	0.0622	-0.0408	0.0848	-0.0000	0.0600	-0.0609	0.0929	-0.0905	0.0629	-0.0292	0.0479	-0.1249	0.0482	0.0297	0.0300	-0.1012	0.0198	0.0370	0.0128	0.0060	0.0340	-0.0198	-0.0257	-0.0091	0.0234	0.0128	-0.0172	-0.0057	-0.0207	0.0440	0.0072	-0.0074	-0.0363	-0.0014	0.0129	-0.0156	-0.0127	-0.0245	0.0155	-0.0039	-0.0028	-0.0088	-0.0167	0.0101	-0.0044	0.0008	-0.0001	0.0026	0.0011	0.0031	0.0062	-0.0045	-0.0047	-0.0160	-0.0041	0.0007	0.0019	0.0107	-0.0026	0.0003	0.0019	0.0051	0.0020	-0.0024	0.0003	-0.0062	0.0003	-0.0009	0.0015	0.0003	0.0005	-0.0012	-0.0004	-0.0029	-0.0009	-0.0007	-0.0014	0.0018	-0.0021	-0.0003	-0.0013	0.0024	-0.0009	-0.0009	0.0005	0.0023	0.0000	-0.0007	0.0017	-0.0009	0.0009	0.0006	0.0015	-0.0025	0.0022	0.0011	0.0007	-0.0026	0.0021	0.0016	0.0005	-0.0018	-0.0679	0.0716	-0.0303	0.0018	-0.0219	0.0746	0.0488	-0.0445	0.0581	0.0144	0.0413	-0.0588	0.0567	-0.0709	-0.0296	-0.0039	-0.0106	-0.0814	-0.0433	-0.0046	-0.0477	-0.0528	-0.0086	-0.0421	-0.0380	-0.0532	0.0009	-0.0478	-0.0158	-0.0347	-0.0025	0.0034	-0.0329	-0.0138	-0.0346	0.0102	0.0364	0.0171	-0.0395	-0.0153	0.0338	0.0416	0.0148	-0.0401	-0.0108	0.0558	0.0662	-0.0231	-0.0119	0.0273	0.0770	0.0283	0.0029	0.0084	0.0440	0.0429	0.0034	-0.0033	-0.0027	-0.0100	-0.0055	0.0012	0.0026	0.0110	-0.0024	0.0021	0.0017	0.0062	-0.0004	0.0035	0.0010	0.0023	0.0027	0.0020	-0.0016	-0.0056	0.0053	-0.0012	-0.0028	-0.0094	-0.0041	0.0037	0.0043	0.0164	-0.0020	-0.0009	-0.0011	0.0016	-0.0011	-0.0012	0.0000	0.0020	0.0002	-0.0016	0.0011	-0.0013	0.0016	0.0006	0.0005	-0.0023	0.0008	0.0024	0.0000	-0.0000	-0.0008	0.0020	0.0007	0.0020	0.0002	0.0009	0.0008	0.0023	0.0302	0.0882	0.0354	0.0013	0.0907	0.0201	0.0321	-0.0699	0.0609	-0.0691	-0.0356	-0.0101	-0.0784	-0.0493	-0.0826	0.1044	-0.1241	0.0809	-0.0953	0.0666	-0.0525	0.1417	-0.0653	-0.0895	-0.0201	0.0631	-0.0371	-0.1279	-0.0309	-0.0032	-0.0142	0.0030	0.0079	0.0147	-0.0274	0.0145	0.0549	-0.0120	0.0135	-0.0261	0.0185	0.0007	0.0293	-0.0244	-0.0394	0.0346	0.0119	0.0153	-0.0381	0.0249	0.0083	0.0222	0.0356	-0.0116	0.0188	0.0041	-0.0010	-0.0007	-0.0009	-0.0009	-0.0010	0.0003	-0.0002	0.0013	-0.0002	0.0020	0.0028	0.0046	0.0015	0.0010	-0.0001	-0.0013	0.0000	0.0013	-0.0032	-0.0022	-0.0007	0.0017	-0.0024	-0.0008	-0.0000	0.0020	0.0014	0.0042	-0.0011	-0.0001	-0.0000	0.0010	-0.0001	-0.0004	0.0022	-0.0005	0.0008	-0.0001	0.0006	-0.0020	0.0013	0.0005	-0.0024	-0.0010	-0.0003	0.0001	-0.0023	0.0022	-0.0029	-0.0008	0.0002	0.0040	-0.0027	-0.0018	0.0009	0.0024	0.0856	0.0764	0.0198	0.0152	0.1104	-0.0099	-0.0543	-0.0676	-0.0027	-0.0689	-0.0555	-0.0162	-0.1369	-0.0010	0.0365	0.1030	-0.0569	0.1265	0.0434	0.0946	0.0972	0.1345	-0.0462	-0.0270	0.0788	0.0316	-0.0728	-0.0796	-0.0108	0.0276	-0.0207	0.0082	0.0144	0.0313	-0.0014	0.0040	0.0250	-0.0478	0.0584	-0.0280	-0.0125	-0.0568	0.0153	0.0120	-0.0302	-0.0133	-0.0791	0.0529	-0.0091	0.0026	-0.0925	0.0073	0.0178	-0.0336	-0.0243	-0.0531	-0.0028	0.0018	-0.0002	0.0046	0.0014	0.0011	-0.0018	-0.0043	0.0043	-0.0015	0.0007	-0.0070	0.0019	-0.0038	0.0003	-0.0024	-0.0026	-0.0026	-0.0018	0.0026	-0.0051	0.0017	-0.0003	0.0060	0.0032	-0.0016	-0.0017	-0.0120	0.0002	0.0002	0.0007	-0.0004	0.0002	0.0005	0.0024	-0.0012	-0.0010	0.0008	-0.0001	-0.0000	-0.0004	-0.0002	-0.0029	0.0013	0.0002	-0.0018	-0.0015	0.0006	-0.0003	-0.0021	0.0012	-0.0008	-0.0017	-0.0013	0.0010	-0.0013	0.1010	0.0454	-0.0046	0.0281	0.0800	-0.0209	-0.1110	-0.0316	-0.0361	-0.0427	-0.0381	-0.0492	-0.0897	-0.0058	0.1549	-0.0086	0.0551	0.0072	0.1667	0.0442	0.1798	-0.0424	-0.0061	0.0473	0.1056	-0.0881	-0.0789	-0.0008	0.0089	0.0157	-0.0265	0.0209	0.0095	0.0089	-0.0070	-0.0001	-0.0296	-0.0500	0.0412	-0.0416	-0.0217	-0.0417	0.0016	0.0018	0.0175	0.0096	-0.0690	0.0390	0.0253	0.0152	-0.0608	0.0109	-0.0208	-0.0224	0.0037	-0.0372	-0.0006	0.0002	-0.0013	0.0002	-0.0008	0.0020	-0.0003	0.0005	0.0025	-0.0020	0.0004	-0.0079	0.0001	-0.0035	0.0018	0.0007	-0.0018	-0.0022	0.0004	0.0046	0.0003	-0.0011	-0.0017	-0.0039	0.0005	-0.0006	0.0001	-0.0058	0.0007	0.0001	0.0011	-0.0014	0.0006	0.0004	0.0016	-0.0012	-0.0018	0.0008	-0.0004	0.0014	-0.0012	-0.0006	-0.0011	0.0018	0.0018	-0.0010	0.0008	-0.0021	0.0029	0.0005	0.0022	-0.0048	0.0010	0.0019	0.0012	-0.0022	0.0900	0.0139	-0.0050	0.0272	0.0555	-0.0293	-0.0898	-0.0097	-0.0258	-0.0409	-0.0319	-0.0547	-0.0480	-0.0397	0.1049	-0.0663	0.0383	-0.0743	0.0999	-0.0170	0.0858	-0.1189	-0.0199	0.0158	0.0202	-0.1238	-0.0673	-0.0195	0.0127	0.0133	-0.0118	0.0152	0.0023	-0.0076	-0.0011	0.0116	-0.0357	-0.0242	0.0205	-0.0330	-0.0067	0.0187	0.0088	-0.0301	0.0344	0.0493	0.0069	0.0150	0.0155	0.0224	0.0249	0.0329	-0.0236	-0.0097	0.0328	0.0060	0.0013	-0.0006	-0.0018	-0.0036	0.0013	-0.0005	-0.0013	-0.0043	-0.0056	0.0033	0.0050	0.0123	-0.0015	0.0011	0.0023	0.0043	0.0042	-0.0015	-0.0023	-0.0073	0.0034	-0.0012	-0.0018	-0.0060	-0.0035	0.0025	0.0036	0.0094	0.0008	0.0005	0.0010	-0.0016	0.0004	0.0007	0.0012	-0.0009	-0.0005	0.0006	-0.0002	0.0017	-0.0003	-0.0003	-0.0001	0.0008	0.0014	0.0005	0.0014	-0.0019	0.0022	0.0023	0.0021	-0.0022	0.0014	0.0022	0.0011	0.0001	-0.0421	0.0463	-0.0824	0.0004	-0.0502	0.0340	-0.1077	-0.0653	-0.0724	-0.0030	-0.0903	-0.1213	-0.1209	-0.0358	-0.0381	-0.0770	-0.1393	0.0041	0.0098	0.0260	-0.0677	0.0783	0.0247	0.0461	0.0267	0.1136	0.0117	0.0123	0.0097	0.0294	0.0100	-0.0089	-0.0117	0.0372	0.0243	0.0045	0.0021	0.0062	0.0463	0.0073	0.0177	-0.0106	0.0414	-0.0043	0.0147	0.0017	0.0231	-0.0072	-0.0191	0.0278	-0.0056	0.0209	0.0020	0.0052	-0.0008	0.0181	-0.0019	0.0038	0.0003	0.0054	0.0028	0.0011	-0.0036	-0.0079	-0.0000	0.0027	0.0009	0.0032	-0.0009	0.0024	0.0029	0.0073	-0.0010	0.0017	0.0019	0.0067	0.0021	-0.0015	-0.0036	-0.0064	-0.0006	0.0006	-0.0007	0.0021	-0.0002	-0.0006	-0.0009	0.0009	-0.0013	-0.0000	0.0003	0.0018	-0.0020	-0.0002	0.0007	0.0031	-0.0013	-0.0008	-0.0006	0.0026	-0.0004	-0.0010	-0.0023	0.0016	-0.0005	-0.0004	-0.0013	0.0011	-0.0012	-0.0005	-0.0001	0.0011	-0.0210	0.1114	-0.0409	0.0870	-0.0080	0.1322	-0.0946	0.0250	-0.0076	0.1122	-0.1121	-0.0722	-0.0695	0.0576	-0.0449	-0.0689	-0.0949	0.0588	0.0515	0.0129	-0.0096	0.0819	0.0663	0.0439	0.0866	0.0812	0.0239	0.0308	0.0129	-0.0156	-0.0133	0.0059	-0.0202	0.0162	-0.0346	0.0151	-0.0009	-0.0045	-0.0046	-0.0159	0.0072	-0.0282	0.0194	-0.0213	0.0043	-0.0397	0.0023	0.0026	-0.0068	0.0015	-0.0512	0.0278	0.0068	-0.0068	-0.0408	-0.0100	0.0003	-0.0003	-0.0012	-0.0005	-0.0022	0.0017	-0.0021	0.0015	-0.0001	0.0018	-0.0012	-0.0019	0.0023	-0.0005	-0.0005	-0.0048	0.0025	-0.0031	-0.0006	-0.0046	-0.0035	-0.0000	0.0006	0.0075	0.0003	-0.0013	-0.0015	-0.0040	-0.0007	-0.0011	-0.0018	0.0001	-0.0007	-0.0011	-0.0006	0.0010	-0.0025	-0.0015	0.0000	0.0018	-0.0028	-0.0014	-0.0007	0.0022	-0.0019	-0.0014	-0.0017	0.0017	0.0003	-0.0013	-0.0006	0.0002	-0.0002	-0.0008	0.0002	-0.0015	0.0555	0.0663	0.0787	0.0665	0.0956	0.0499	0.0205	0.0515	0.0912	0.0190	-0.0559	0.0239	0.0072	0.0079	-0.0192	-0.0012	-0.0105	0.0191	0.0897	-0.0123	0.0569	0.0002	0.0948	0.0107	0.1065	-0.0360	0.0330	0.0451	-0.0105	-0.0475	-0.0329	0.0162	0.0055	-0.0311	-0.0791	0.0332	-0.0003	-0.0401	-0.0642	-0.0286	-0.0166	-0.0304	-0.0316	-0.0500	-0.0218	-0.0168	-0.0183	-0.0222	0.0249	0.0048	-0.0337	0.0197	0.0034	-0.0071	-0.0183	-0.0040	0.0035	-0.0061	-0.0028	-0.0114	-0.0029	-0.0017	0.0003	0.0042	-0.0023	-0.0006	0.0007	0.0001	0.0002	-0.0015	-0.0003	-0.0059	0.0027	-0.0039	-0.0018	-0.0102	0.0006	-0.0017	-0.0004	-0.0004	0.0000	-0.0013	0.0000	-0.0017	-0.0007	-0.0003	-0.0002	-0.0009	0.0011	-0.0011	0.0009	-0.0020	0.0006	-0.0009	0.0003	-0.0025	-0.0004	-0.0008	-0.0007	-0.0010	-0.0010	-0.0005	-0.0004	-0.0000	0.0008	-0.0006	0.0009	-0.0016	0.0015	0.0009	0.0009	-0.0025	0.1055	-0.0413	0.1106	-0.0337	0.1219	-0.1109	0.0779	-0.0090	0.0702	-0.1425	0.0110	0.0697	0.0045	-0.0779	0.0068	0.0591	0.0233	-0.0305	0.0427	-0.0287	0.0542	-0.0592	0.0405	-0.0501	0.0361	-0.1121	0.0191	-0.0044	-0.0240	-0.0016	-0.0094	0.0063	0.0407	-0.0067	-0.0120	0.0061	0.0085	-0.0087	0.0017	-0.0165	-0.0282	0.0065	0.0045	-0.0110	-0.0340	0.0248	0.0002	0.0034	0.0249	0.0055	0.0121	0.0048	0.0044	-0.0020	0.0161	0.0028	-0.0001	-0.0022	0.0002	-0.0021	-0.0002	-0.0006	0.0024	0.0035	-0.0001	-0.0006	0.0016	0.0003	-0.0005	-0.0005	0.0001	-0.0009	-0.0012	0.0002	-0.0001	0.0005	0.0020	-0.0007	0.0001	-0.0025	-0.0003	0.0000	0.0017	0.0024	0.0005	0.0013	0.0020	-0.0009	0.0020	0.0007	0.0021	-0.0031	0.0029	0.0018	0.0004	-0.0033	0.0018	0.0016	-0.0004	-0.0012	0.0005	0.0011	0.0009	0.0002	0.0003	0.0004	0.0016	-0.0009	0.0015	0.0014	0.0010	-0.0012	0.0530	-0.0870	-0.0086	-0.0768	-0.0022	-0.1284	-0.0260	-0.0441	-0.0971	-0.0928	-0.0051	0.0511	-0.0838	0.0154	0.0058	0.0521	0.0160	0.0439	-0.0345	-0.0563	0.0337	-0.0269	-0.0499	-0.1085	-0.0438	-0.1085	-0.0194	-0.0738	0.0009	0.0499	0.0144	-0.0087	0.0355	0.0233	0.0680	-0.0291	0.0051	0.0234	0.0775	0.0004	-0.0225	0.0439	0.0396	0.0333	-0.0176	0.0512	0.0128	0.0422	0.0141	-0.0046	0.0418	-0.0023	0.0096	-0.0062	0.0327	-0.0010	-0.0035	0.0045	0.0024	0.0092	0.0035	0.0015	0.0006	-0.0036	0.0007	0.0021	0.0015	0.0043	-0.0009	0.0019	-0.0006	0.0047	-0.0016	0.0028	-0.0012	0.0044	0.0003	0.0019	0.0015	0.0021	-0.0006	0.0014	0.0027	0.0050	0.0014	0.0011	0.0019	-0.0005	0.0006	0.0014	0.0006	-0.0007	0.0010	0.0019	-0.0015	0.0010	0.0004	0.0012	-0.0012	0.0020	-0.0003	0.0006	0.0015	0.0018	-0.0013	0.0005	0.0017	0.0013	0.0002	0.0005	0.0008	0.0008	-0.0304	-0.0315	-0.1161	-0.0299	-0.1115	-0.0049	-0.1044	-0.0195	-0.1664	0.0760	0.0028	0.0083	-0.0751	0.1343	0.0325	0.0240	0.0449	0.1049	-0.0686	-0.0206	0.0350	0.0246	-0.1158	-0.0790	-0.0689	-0.0429	-0.0634	-0.1027	0.0230	0.0298	0.0182	0.0031	-0.0109	-0.0105	0.0545	-0.0219	-0.0121	-0.0206	0.0293	0.0129	-0.0007	0.0037	-0.0302	0.0370	0.0176	0.0307	-0.0474	0.0171	-0.0028	-0.0000	0.0127	-0.0339	0.0035	-0.0053	0.0337	-0.0112	-0.0008	0.0037	0.0004	0.0044	0.0027	0.0005	-0.0009	-0.0055	0.0012	-0.0009	-0.0004	-0.0004	-0.0023	0.0005	-0.0003	0.0066	-0.0031	0.0032	-0.0007	0.0060	0.0018	0.0010	-0.0016	-0.0071	0.0016	0.0007	0.0003	-0.0022	0.0005	-0.0001	0.0003	0.0002	-0.0016	0.0003	-0.0015	0.0022	-0.0023	-0.0011	-0.0024	0.0036	-0.0012	-0.0020	-0.0013	0.0021	-0.0001	-0.0017	0.0007	-0.0002	-0.0015	-0.0001	0.0008	0.0004	-0.0014	-0.0003	0.0004	0.0018	-0.0437	0.0339	-0.0803	0.0159	-0.0781	0.0788	-0.0360	0.0176	-0.0608	0.1350	0.0691	0.0237	0.0388	0.1392	0.0782	0.0540	0.1135	0.0907	-0.0423	0.0512	0.0691	0.0375	-0.1149	-0.0075	-0.0390	0.0016	-0.0819	-0.0721	0.0092	-0.0205	-0.0060	0.0109	-0.0265	-0.0391	-0.0064	-0.0112	-0.0086	-0.0181	-0.0283	-0.0182	0.0202	0.0144	-0.0419	0.0062	0.0226	0.0099	-0.0325	0.0261	-0.0149	-0.0200	-0.0008	-0.0074	-0.0078	-0.0147	0.0017	-0.0222	0.0029	-0.0018	-0.0024	-0.0073	-0.0031	0.0007	0.0019	0.0060	-0.0016	-0.0005	0.0004	0.0022	0.0017	-0.0018	-0.0030	-0.0055	0.0038	-0.0023	-0.0049	-0.0111	-0.0032	0.0024	0.0014	0.0053	-0.0009	0.0013	0.0008	0.0008	-0.0007	-0.0008	-0.0006	0.0003	-0.0015	-0.0010	-0.0019	0.0022	-0.0019	-0.0021	-0.0021	0.0015	-0.0007	-0.0017	-0.0007	-0.0008	0.0001	-0.0003	0.0009	-0.0020	-0.0004	0.0005	0.0006	0.0002	-0.0012	-0.0007	0.0001	0.0012	-0.0072	-0.0080	0.0309	0.0331	0.0017	0.0264	0.0194	0.0613	0.0526	0.0294	-0.0059	-0.0116	0.0814	-0.0377	-0.0042	-0.1099	0.0148	-0.1199	0.0425	-0.0550	-0.0532	-0.0979	0.0847	0.0897	-0.0037	0.0198	0.0834	0.1306	0.0075	-0.0101	-0.0024	-0.0064	0.0026	0.0137	-0.0088	-0.0041	-0.0282	0.0265	-0.0131	0.0172	-0.0118	-0.0188	0.0041	0.0182	0.0252	-0.0570	0.0086	-0.0191	0.0144	-0.0184	-0.0163	-0.0290	-0.0227	0.0242	-0.0310	-0.0008	-0.0002	-0.0004	0.0008	0.0013	-0.0018	0.0012	0.0006	0.0044	0.0034	-0.0025	-0.0048	-0.0128	0.0010	-0.0015	-0.0001	-0.0034	-0.0024	0.0001	0.0058	0.0094	-0.0022	-0.0003	0.0036	0.0068	0.0028	-0.0036	-0.0041	-0.0108	0.0003	-0.0001	-0.0006	-0.0005	0.0008	-0.0001	-0.0009	-0.0006	-0.0001	0.0008	0.0012	-0.0003	-0.0009	0.0007	0.0028	0.0004	0.0003	-0.0001	0.0008	-0.0006	0.0023	-0.0002	-0.0019	-0.0021	0.0016	0.0005	-0.0015	-0.0020	-0.0181	-0.0415	0.0423	0.0058	-0.0290	0.0083	0.0431	0.0934	0.0256	0.0517	-0.0338	0.0589	0.0761	0.0234	-0.1017	-0.1004	-0.0117	-0.0651	-0.0319	-0.1299	-0.1194	-0.0779	0.0907	0.0220	-0.0489	0.0097	0.1113	0.1129	0.0067	-0.0197	0.0078	-0.0067	0.0204	-0.0056	-0.0064	-0.0046	-0.0159	0.0681	-0.0263	0.0085	-0.0146	0.0682	0.0295	-0.0137	0.0140	-0.0052	0.1042	-0.0253	0.0236	-0.0223	0.0775	0.0114	-0.0157	0.0294	-0.0071	0.0432	0.0002	-0.0009	0.0015	0.0011	-0.0013	0.0004	0.0015	0.0055	-0.0045	0.0043	-0.0006	0.0083	0.0010	0.0036	-0.0029	-0.0051	0.0045	0.0009	0.0007	-0.0055	0.0005	0.0003	0.0041	0.0085	-0.0033	0.0006	0.0011	0.0103	0.0001	0.0001	-0.0003	-0.0002	0.0010	-0.0004	-0.0017	-0.0009	0.0018	0.0003	-0.0003	-0.0007	-0.0007	0.0012	0.0020	0.0006	-0.0024	0.0015	0.0011	0.0024	-0.0003	0.0008	-0.0016	0.0020	0.0019	0.0006	-0.0014	0.0002	-0.0219	-0.0777	0.0343	-0.0631	-0.0505	-0.0420	0.0952	0.0617	-0.0208	0.0258	0.0027	0.1503	0.0488	0.0863	-0.1731	0.0339	-0.0272	0.0796	-0.1440	-0.1070	-0.1400	0.0601	0.0546	-0.0665	-0.0689	0.0638	0.1218	0.0432	-0.0102	-0.0210	0.0113	-0.0035	0.0319	-0.0482	0.0069	-0.0107	0.0159	0.0257	-0.0606	0.0332	-0.0225	0.0382	-0.0414	0.0090	-0.0266	-0.0148	0.0389	-0.0524	0.0099	-0.0295	0.0546	-0.0334	0.0205	0.0266	-0.0089	0.0395	0.0025	-0.0027	-0.0002	-0.0063	-0.0006	-0.0013	0.0038	0.0065	-0.0005	-0.0008	-0.0023	0.0005	-0.0019	0.0026	-0.0034	-0.0016	-0.0007	0.0031	0.0004	-0.0014	0.0026	-0.0006	0.0012	-0.0022	0.0002	-0.0006	-0.0006	0.0036	-0.0004	0.0004	0.0008	0.0004	0.0003	-0.0006	-0.0016	-0.0005	0.0028	-0.0009	-0.0015	-0.0025	0.0007	-0.0002	0.0002	-0.0007	-0.0033	-0.0004	-0.0003	0.0030	-0.0037	-0.0014	-0.0020	0.0037	-0.0000	-0.0012	-0.0011	0.0009	-0.0265	-0.0695	-0.0215	-0.1096	-0.0539	-0.0722	0.1068	-0.0424	-0.0380	-0.0425	0.1268	0.1049	0.0676	0.0188	-0.0410	0.1215	0.0608	0.0590	-0.1114	0.0095	-0.0390	0.0721	0.0224	-0.0319	-0.0304	0.0644	0.1009	0.0254	-0.0200	0.0166	0.0224	-0.0074	0.0090	-0.0472	0.0488	-0.0216	0.0287	-0.0196	-0.0281	0.0523	-0.0047	-0.0039	-0.0796	0.0456	-0.0373	-0.0367	-0.0448	-0.0320	-0.0138	-0.0445	-0.0075	-0.0639	0.0235	0.0117	-0.0299	-0.0007	-0.0008	0.0016	0.0010	0.0015	0.0051	-0.0043	0.0007	-0.0088	0.0014	-0.0040	0.0001	0.0009	-0.0020	-0.0016	-0.0018	0.0010	-0.0032	0.0004	0.0002	0.0000	-0.0010	-0.0004	0.0017	-0.0008	0.0031	-0.0026	-0.0025	-0.0072	-0.0004	0.0006	0.0013	0.0014	-0.0016	0.0004	-0.0004	0.0009	0.0019	-0.0005	-0.0008	-0.0015	0.0027	-0.0002	0.0002	-0.0029	-0.0004	-0.0004	-0.0001	-0.0006	-0.0024	-0.0016	-0.0016	0.0012	-0.0005	-0.0017	-0.0009	-0.0006	-0.0463	0.0187	-0.1042	-0.0539	-0.0589	0.0083	0.0123	-0.0997	-0.0411	-0.0170	0.1444	-0.0549	0.0646	-0.0657	0.0871	0.0352	0.1061	-0.0816	-0.0067	0.0341	0.0298	-0.0528	0.0309	0.0306	-0.0047	-0.0130	0.0788	0.0553	-0.0003	0.0414	0.0166	-0.0088	-0.0366	0.0113	0.0664	-0.0376	0.0232	0.0016	0.0433	0.0299	0.0216	-0.0012	-0.0152	0.0654	-0.0152	-0.0267	-0.0302	0.0114	-0.0118	-0.0384	-0.0114	-0.0504	0.0003	0.0093	-0.0258	-0.0134	-0.0032	0.0053	0.0011	0.0083	0.0023	0.0004	-0.0006	-0.0063	0.0047	-0.0030	-0.0007	-0.0051	0.0007	-0.0024	0.0001	0.0021	-0.0039	-0.0000	0.0027	0.0073	-0.0034	0.0004	0.0040	0.0061	0.0028	-0.0031	-0.0024	-0.0091	-0.0003	-0.0003	-0.0001	0.0015	-0.0026	0.0009	-0.0002	0.0032	-0.0014	0.0000	0.0006	0.0016	0.0019	0.0008	0.0017	-0.0016	0.0022	0.0013	0.0014	-0.0022	0.0008	0.0003	-0.0007	-0.0014	0.0009	-0.0002	-0.0007	-0.0018	-0.0206	0.1043	-0.0927	0.0381	-0.0282	0.1056	-0.0804	-0.0331	-0.0298	0.0764	0.0117	-0.0927	0.0064	-0.0110	0.0363	-0.0694	0.0305	-0.0801	-0.0057	-0.0310	-0.0122	-0.0791	0.0214	0.0053	-0.0302	-0.0360	0.0625	0.0319	0.0104	-0.0051	-0.0177	0.0140	-0.0326	0.0135	-0.0023	-0.0264	0.0038	0.0315	0.0257	-0.0371	0.0281	0.0460	0.0410	0.0141	0.0155	0.0283	0.0532	0.0204	-0.0100	-0.0080	0.0573	-0.0017	-0.0034	0.0083	0.0169	0.0192	-0.0000	0.0007	-0.0017	-0.0004	-0.0070	0.0058	0.0029	0.0143	0.0015	0.0018	-0.0011	-0.0039	0.0037	0.0005	-0.0019	-0.0048	-0.0004	0.0026	0.0017	0.0060	0.0005	0.0002	0.0018	0.0019	-0.0020	0.0008	0.0021	0.0078	-0.0008	-0.0013	-0.0009	0.0005	-0.0013	-0.0007	-0.0010	0.0025	-0.0024	-0.0010	-0.0002	0.0019	-0.0007	0.0003	0.0012	0.0007	0.0008	0.0018	0.0014	0.0003	0.0002	0.0019	-0.0000	0.0007	0.0009	0.0007	-0.0004	0.0005	0.0532	0.1245	0.0129	0.0844	0.0629	0.1169	-0.0432	0.0523	0.0438	0.0889	-0.0679	-0.0086	-0.0046	0.0368	-0.0649	-0.0571	-0.0429	-0.0126	-0.0653	-0.0627	-0.0742	-0.0220	-0.0071	-0.0460	-0.0626	-0.0051	0.0439	-0.0150	0.0035	-0.0173	-0.0231	0.0122	-0.0010	-0.0118	-0.0378	0.0155	-0.0096	-0.0149	-0.0247	-0.0179	0.0070	0.0008	-0.0131	-0.0162	0.0094	-0.0028	0.0069	-0.0090	-0.0111	-0.0089	0.0209	-0.0165	0.0092	0.0084	0.0033	0.0028	0.0017	-0.0024	-0.0026	-0.0058	-0.0016	0.0001	-0.0011	0.0013	-0.0022	0.0013	0.0001	0.0017	0.0006	0.0007	-0.0010	-0.0031	0.0018	0.0001	-0.0009	-0.0043	-0.0015	0.0014	0.0021	0.0045	0.0012	-0.0006	-0.0003	-0.0011	-0.0007	-0.0006	-0.0008	-0.0006	-0.0004	-0.0008	-0.0002	-0.0004	-0.0010	-0.0008	-0.0001	0.0002	-0.0011	-0.0011	0.0003	0.0003	-0.0009	-0.0007	0.0002	0.0007	-0.0008	-0.0002	-0.0006	0.0017	-0.0003	-0.0007	-0.0005	0.0006	-0.1152	-0.0193	0.0045	0.0455	-0.0848	0.0787	-0.0007	0.0908	0.0102	0.1354	-0.0380	0.0088	0.0445	0.0833	-0.0689	-0.0720	-0.0178	-0.0057	-0.0712	-0.0642	-0.0820	-0.0343	-0.0478	-0.0368	-0.0882	-0.0101	-0.0260	-0.0317	0.0220	-0.0044	0.0118	-0.0230	-0.0080	0.0361	-0.0036	0.0038	-0.0197	0.0354	-0.0006	0.0298	0.0087	0.0015	0.0151	0.0136	0.0209	-0.0079	0.0230	-0.0139	-0.0001	0.0053	0.0198	-0.0102	-0.0019	0.0085	0.0150	0.0074	-0.0019	0.0021	0.0028	0.0082	0.0018	-0.0003	-0.0035	-0.0054	0.0015	0.0001	-0.0043	-0.0058	-0.0013	0.0025	0.0004	0.0043	-0.0019	0.0033	0.0027	0.0075	0.0012	0.0005	-0.0003	-0.0021	0.0005	0.0006	-0.0002	0.0002	0.0004	-0.0010	-0.0024	0.0004	0.0001	-0.0005	-0.0023	0.0004	-0.0013	-0.0001	0.0000	0.0015	-0.0018	-0.0004	0.0012	0.0017	-0.0009	-0.0005	0.0002	0.0011	-0.0004	-0.0002	-0.0005	0.0010	-0.0005	-0.0004	-0.0005	0.0015	-0.1122	-0.0144	0.0583	0.0456	-0.0347	0.0647	0.0860	0.0786	0.1102	0.0733	0.0143	-0.0039	0.1043	-0.0077	-0.0570	-0.0307	-0.0374	-0.0382	-0.0628	0.0377	-0.0944	0.0233	-0.0371	0.0329	-0.0493	0.0882	-0.0217	-0.0180	0.0057	-0.0461	0.0082	-0.0059	-0.0290	-0.0234	-0.0617	0.0494	-0.0109	-0.0253	-0.0948	0.0310	0.0261	-0.0426	-0.0591	-0.0432	0.0226	-0.0223	-0.0142	-0.0639	-0.0292	0.0228	-0.0081	-0.0077	-0.0022	0.0067	0.0071	0.0118	0.0039	-0.0044	-0.0007	-0.0078	0.0014	-0.0056	-0.0033	-0.0070	-0.0035	-0.0016	-0.0003	0.0030	-0.0027	0.0006	0.0024	0.0029	0.0008	0.0002	0.0006	-0.0036	0.0038	-0.0022	-0.0048	-0.0134	-0.0001	0.0009	-0.0008	0.0009	-0.0008	-0.0008	-0.0020	0.0006	0.0002	-0.0009	-0.0007	-0.0001	0.0004	-0.0014	0.0017	-0.0015	0.0003	-0.0015	0.0010	-0.0027	0.0005	-0.0010	-0.0017	-0.0019	-0.0002	-0.0002	-0.0015	0.0004	-0.0016	-0.0009	-0.0006	0.0020	-0.0899	-0.0420	0.1078	0.0003	0.0252	-0.0175	0.1504	0.0114	0.1746	-0.0777	0.0358	-0.0365	0.0991	-0.1528	-0.0387	-0.0000	-0.0862	-0.0935	0.0077	0.1118	-0.0792	0.0481	0.0273	0.0910	0.0343	0.1317	-0.0016	0.0204	-0.0139	-0.0256	0.0111	-0.0270	-0.0094	0.0420	-0.0394	0.0288	0.0165	0.0332	-0.0237	0.0240	0.0269	-0.0347	0.0366	-0.0250	-0.0029	-0.0439	0.0303	-0.0233	-0.0416	0.0252	-0.0407	0.0327	0.0009	-0.0020	-0.0259	-0.0001	-0.0002	-0.0016	0.0022	0.0011	-0.0006	-0.0015	-0.0011	0.0003	0.0019	-0.0013	-0.0020	-0.0059	0.0009	0.0000	0.0029	0.0004	0.0006	-0.0016	0.0022	0.0007	-0.0021	-0.0007	-0.0019	0.0018	-0.0003	-0.0002	-0.0015	-0.0015	-0.0005	-0.0003	-0.0015	0.0009	0.0016	0.0001	0.0009	-0.0011	0.0020	0.0014	0.0035	-0.0032	0.0015	0.0020	0.0014	-0.0025	0.0012	0.0010	-0.0025	-0.0006	0.0012	-0.0003	-0.0016	0.0005	-0.0013	-0.0012	-0.0004	0.0003	-0.0985	-0.0499	0.0664	-0.0111	-0.0208	-0.0258	0.0468	0.0046	0.0662	-0.0568	-0.0874	-0.0475	-0.0313	-0.0801	-0.0771	-0.0521	-0.1449	-0.0184	0.0870	0.0310	-0.0380	0.0579	0.1062	0.0616	0.1118	0.0824	0.0271	0.0565	-0.0032	0.0038	0.0258	-0.0296	0.0160	0.0782	-0.0048	0.0215	0.0124	0.0675	0.0364	0.0159	-0.0021	-0.0140	0.0991	-0.0201	-0.0175	-0.0348	0.0642	0.0062	-0.0006	0.0289	-0.0420	0.0643	0.0041	-0.0088	-0.0291	0.0003	-0.0024	0.0019	0.0036	0.0084	0.0001	0.0019	-0.0016	0.0016	0.0015	0.0031	-0.0021	-0.0021	0.0025	0.0014	0.0014	-0.0017	0.0004	-0.0012	0.0027	0.0044	-0.0029	-0.0002	-0.0002	0.0087	-0.0006	-0.0008	-0.0008	-0.0008	0.0000	-0.0001	-0.0015	0.0012	0.0017	0.0001	0.0003	-0.0007	0.0011	0.0017	0.0021	-0.0007	-0.0013	0.0021	0.0001	0.0019	-0.0013	0.0006	-0.0023	0.0032	0.0011	-0.0009	-0.0004	0.0004	0.0001	-0.0001	0.0003	-0.0015	-0.1246	-0.0160	0.0225	0.0145	-0.0826	0.0512	-0.0196	0.0620	-0.0137	0.0855	-0.1461	0.0061	-0.0536	0.0835	-0.1001	-0.0835	-0.0879	0.0594	0.0962	-0.0923	0.0096	0.0045	0.1216	-0.0112	0.1058	-0.0340	0.0440	0.0604	0.0096	-0.0051	0.0207	-0.0246	0.0209	0.0477	-0.0120	0.0251	-0.0038	0.0340	0.0042	0.0270	-0.0366	-0.0310	0.0416	-0.0138	-0.0174	-0.0393	0.0147	-0.0079	0.0459	0.0095	-0.0465	0.0290	0.0029	-0.0043	-0.0238	-0.0098	-0.0010	0.0013	0.0023	0.0054	0.0018	0.0005	-0.0032	-0.0027	0.0015	0.0016	-0.0040	-0.0048	-0.0002	0.0010	0.0002	-0.0009	-0.0013	-0.0008	0.0027	0.0046	-0.0004	-0.0010	0.0007	0.0042	0.0008	-0.0019	-0.0007	-0.0044	-0.0003	-0.0008	-0.0022	0.0012	0.0007	-0.0011	-0.0014	-0.0000	-0.0006	-0.0002	0.0000	0.0010	-0.0034	-0.0001	-0.0004	0.0039	-0.0031	-0.0014	-0.0006	0.0036	0.0007	-0.0019	0.0007	-0.0012	0.0016	0.0009	0.0006	-0.0029	-0.1023	0.0018	0.0460	0.0120	-0.0456	0.0609	0.0537	0.0639	0.0453	0.0830	-0.0378	0.0489	0.0549	0.0606	-0.0504	-0.0336	0.0237	-0.0005	0.0363	-0.0909	0.0209	-0.0757	0.0566	-0.0433	0.0280	-0.1075	0.0298	0.0173	-0.0068	-0.0341	0.0044	-0.0068	0.0072	-0.0235	-0.0479	0.0395	-0.0047	-0.0285	-0.0752	0.0272	-0.0286	-0.0316	-0.0551	-0.0345	-0.0057	-0.0019	-0.0243	-0.0532	0.0382	0.0134	0.0011	-0.0105	-0.0033	0.0052	0.0193	0.0091	0.0027	-0.0033	-0.0006	-0.0061	0.0023	-0.0044	-0.0027	-0.0061	-0.0017	-0.0018	-0.0013	-0.0001	-0.0047	0.0011	0.0018	0.0047	-0.0010	0.0005	0.0011	-0.0012	0.0064	-0.0033	-0.0029	-0.0140	0.0001	-0.0004	0.0010	0.0012	-0.0011	-0.0008	-0.0016	0.0011	-0.0001	-0.0016	-0.0009	-0.0003	0.0003	-0.0015	0.0001	-0.0011	-0.0007	-0.0011	0.0003	-0.0003	-0.0009	-0.0011	0.0006	-0.0003	0.0004	-0.0002	0.0011	-0.0019	0.0017	0.0017	0.0008	-0.0011	-0.0620	-0.0024	0.0716	-0.0059	0.0114	0.0244	0.1160	0.0315	0.1027	0.0112	0.0543	0.0527	0.1152	-0.0260	-0.0247	0.0174	0.0501	-0.0676	-0.0533	-0.0410	-0.0276	-0.0950	-0.0297	-0.0612	-0.0637	-0.0984	-0.0011	-0.0503	-0.0146	-0.0069	0.0059	-0.0179	0.0091	0.0170	-0.0117	0.0076	0.0125	0.0193	-0.0131	0.0219	-0.0045	0.0091	-0.0001	0.0071	-0.0051	0.0061	0.0148	-0.0120	-0.0023	-0.0003	0.0277	-0.0132	-0.0003	0.0061	0.0200	0.0052	-0.0012	-0.0001	0.0017	0.0031	0.0014	-0.0017	-0.0011	-0.0026	0.0013	-0.0013	-0.0018	-0.0032	-0.0015	0.0011	0.0004	0.0025	-0.0016	0.0020	0.0015	0.0033	0.0014	0.0001	0.0005	-0.0025	-0.0002	0.0006	0.0014	0.0027	-0.0005	-0.0003	-0.0011	0.0011	0.0003	-0.0003	-0.0002	-0.0006	0.0012	0.0008	0.0010	-0.0020	0.0012	0.0015	0.0014	-0.0015	0.0007	0.0011	0.0012	-0.0005	0.0001	0.0007	0.0007	0.0003	0.0005	0.0004	0.0004	0.0006	-0.0738	0.0281	-0.0031	0.0894	-0.0332	0.0882	-0.0350	0.0575	0.0622	0.0766	-0.0630	-0.1196	-0.0062	-0.0234	-0.0366	-0.0846	-0.1247	-0.0321	-0.0036	0.0837	-0.0548	0.0572	-0.0059	0.0270	0.0309	0.0877	-0.0181	-0.0543	0.0377	0.0048	0.0161	-0.0314	-0.0393	0.0693	-0.0079	0.0191	-0.0259	0.0125	0.0190	0.0446	0.0531	-0.0521	0.0435	-0.0214	0.0262	0.0119	0.0136	-0.0403	-0.0581	0.0593	-0.0105	0.0348	0.0196	-0.0140	0.0268	0.0213	-0.0046	0.0049	0.0046	0.0162	0.0052	-0.0021	-0.0083	-0.0181	0.0032	-0.0012	-0.0041	-0.0096	-0.0070	0.0063	0.0095	0.0256	-0.0021	0.0031	0.0028	0.0085	0.0081	-0.0055	-0.0103	-0.0266	-0.0037	0.0036	0.0035	0.0138	0.0006	-0.0010	-0.0029	0.0000	0.0001	0.0006	-0.0008	0.0003	-0.0025	0.0006	0.0027	0.0024	-0.0014	-0.0010	0.0002	0.0018	0.0012	-0.0008	-0.0032	-0.0004	-0.0003	0.0008	-0.0002	0.0007	-0.0019	-0.0005	0.0007	0.0024	-0.0421	-0.0184	0.0794	0.0297	0.0042	0.0130	0.0431	0.0655	0.0853	0.0010	-0.0913	-0.0120	-0.0089	-0.0039	-0.0681	-0.0293	-0.1168	0.0271	0.0607	0.0411	0.0012	0.0583	0.0349	0.0028	0.0868	0.0328	-0.0246	-0.0247	-0.0119	-0.0912	-0.0150	0.0235	0.0070	-0.0342	-0.1029	0.0434	-0.0038	0.0440	-0.0978	-0.0581	0.0119	-0.0253	0.0394	-0.0826	-0.0196	-0.0581	0.0265	0.0446	-0.0151	0.0125	-0.0796	0.0628	0.0177	-0.0240	-0.0445	-0.0544	0.0111	-0.0123	-0.0059	-0.0291	-0.0148	0.0049	0.0092	0.0368	-0.0057	0.0042	0.0003	0.0047	0.0139	-0.0068	-0.0080	-0.0381	0.0080	-0.0082	-0.0043	-0.0179	-0.0157	0.0073	0.0082	0.0392	0.0046	-0.0034	-0.0034	-0.0170	-0.0016	-0.0003	-0.0003	-0.0004	0.0028	-0.0022	-0.0003	-0.0009	0.0024	-0.0015	0.0006	-0.0037	-0.0026	-0.0000	-0.0008	-0.0012	-0.0021	0.0000	-0.0014	0.0023	0.0019	-0.0016	0.0005	0.0012	-0.0008	-0.0013	0.0005	-0.0026	-0.0054	-0.0729	0.1192	-0.0726	0.0291	-0.0880	0.1158	0.0198	0.0538	-0.1025	-0.0751	0.1089	-0.0107	-0.0025	-0.0623	0.0364	-0.0245	0.0360	0.1286	-0.0913	0.0750	-0.0414	0.0664	-0.0378	0.0820	-0.1202	-0.0261	0.0494	-0.0371	0.0156	0.0253	-0.0316	0.0763	0.0204	0.0131	0.0187	0.0117	0.0180	-0.0020	0.0557	-0.0721	-0.0440	0.0268	-0.0304	-0.0526	-0.0047	-0.0240	-0.0014	0.0976	0.0076	-0.0410	0.0256	-0.0258	-0.0092	-0.0004	-0.0257	-0.0044	0.0023	0.0044	0.0102	0.0084	-0.0043	-0.0032	-0.0139	0.0010	-0.0006	-0.0017	-0.0007	-0.0055	0.0019	0.0038	0.0093	-0.0002	-0.0029	-0.0007	-0.0042	0.0010	0.0000	0.0012	0.0042	0.0006	-0.0015	-0.0002	-0.0057	0.0001	0.0012	0.0005	0.0012	0.0013	-0.0001	0.0009	-0.0029	0.0035	0.0021	0.0009	-0.0027	-0.0004	0.0019	-0.0013	0.0018	-0.0017	-0.0005	0.0007	0.0020	0.0013	-0.0021	0.0020	-0.0030	0.0022	0.0023	0.0007	-0.0028	-0.0802	-0.0213	-0.0411	-0.0113	-0.0682	0.0129	0.0037	-0.0144	-0.0334	0.0338	0.0009	-0.0147	-0.0095	0.0327	0.0079	0.0259	0.0323	0.0094	0.0106	-0.0523	0.0458	-0.0410	-0.0277	-0.0534	-0.0272	-0.0940	-0.0244	-0.0159	0.0223	0.0550	0.0369	-0.0390	-0.0238	0.0480	0.0620