1.1202	1.4039	1.4678	1.2998	1.4904	2.5857	2.4268	1.6604	2.0483	2.3596	1.8065	1.8361	1.8048	1.6255	1.1782	1.6041	0.2988	1.7333	2.2471	2.1519	-0.6380	0.8623	1.3509	1.4158	-0.1023	2.0063	1.8851	1.4133	0.3053	2.3599	1.8040	1.4784	0.3355	1.3450	1.6511	2.1261	1.5066	1.8582	1.6241	2.4703	0.7004	1.5871	1.6016	1.6394	0.3739	1.6386	1.7615	1.7228	2.5290	2.9373	2.5953	1.6067	1.7171	1.4142	1.6120	1.8855	2.4330	1.7068	1.6492	2.1112	2.5531	1.8629	2.0799	2.5155	-0.2626	0.8526	0.6260	0.1236	-0.2871	-0.0030	0.1831	0.3473	-0.3164	0.0236	-0.0756	-0.1276	-0.2318	0.1918	0.0700	0.0477	-1.2899	-0.9213	-0.2130	0.2996	0.0107	-0.4892	-0.3905	-0.1267	0.1938	0.2702	0.4878	0.4252	-0.2147	-0.2296	-0.2880	-0.7215	-0.1504	0.2858	0.8975	0.1483	0.5889	-0.2756	-0.2765	-0.1509	0.6271	-0.1532	-0.1961	-0.3448	0.7503	-0.1362	-0.1350	-0.1052	-0.8185	-0.2882	0.1842	-0.1196	-0.0650	0.1327	-0.5466	-0.2284	-0.0962	0.1637	0.2045	0.6469	-0.5780	-0.1790	-0.1591	-0.0958	0.1687	-0.3141	0.2320	0.2779	0.0514	-0.1540	0.0218	-0.0384	0.1068	-0.1048	-0.0710	-0.0267	0.0147	0.3787	0.1040	0.2300	-0.1280	0.1847	-0.0126	-0.1999	-0.0176	-0.1833	0.1435	-0.0221	0.0594	-0.0019	0.0630	-0.0321	-0.0698	0.1346	-0.3186	0.0777	0.5869	0.2337	-0.2932	-0.1480	0.2302	-0.1554	-0.0457	0.0284	0.0243	-0.0901	0.0815	0.0908	0.2235	-0.1496	0.0109	-0.2715	0.1196	0.0557	0.3278	0.0227	0.0893	0.0862	0.0616	-0.1808	-0.2356	-0.0404	0.0145	0.0033	-0.1560	0.0852	-0.3013	-0.0127	0.0711	-0.3443	-0.1263	-0.0367	0.1039	-0.1261	-0.0522	0.2983	-0.0259	0.1076	0.3379	-0.2092	0.0705	-0.2784	0.1052	0.0386	0.0151	-0.1325	-0.0979	0.1027	0.1677	-0.3551	0.1639	-0.0815	-0.0083	0.2688	-0.1484	0.0516	0.0554	-0.1156	0.0642	-0.0051	-0.1704	-0.0054	0.1223	0.2314	0.0372	0.0292	0.0777	0.0855	0.2295	-0.2630	0.2062	0.0816	-0.1307	-0.0711	0.1981	-0.1695	-0.0042	0.2175	0.0121	-0.0320	-0.2281	0.1169	-0.0214	-0.0875	0.0217	-0.1082	0.0436	-0.2526	0.3828	-0.2114	0.1984	-0.1292	-0.2920	-0.2209	-0.1316	-0.2020	-0.0630	0.0825	0.0063	0.0251	0.1110	0.1610	0.0450	0.1042	-0.0013	0.0044	0.0202	-0.0039	-0.0009	0.0058	-0.0022	0.0035	0.0017	-0.0003	-0.0047	0.0026	-0.0002	-0.0001	0.0020	0.0006	0.0002	-0.0001	-0.0007	0.0004	-0.0001	0.0001	-0.0009	0.0008	0.0005	0.0007	0.0009	0.0010	-0.0008	0.0012	-0.0008	0.0004	-0.0007	0.0006	-0.0007	-0.0000	0.0298	0.1881	0.0576	0.1153	0.2807	0.3199	0.1318	0.2385	0.1866	0.1182	0.0654	0.1120	0.0066	0.0002	-0.0032	-0.0016	0.0029	-0.0006	-0.0114	0.0036	0.0011	-0.0042	0.0035	-0.0005	0.0000	-0.0002	-0.0007	0.0008	0.0006	-0.0000	-0.0019	-0.0001	0.0001	-0.0001	-0.0001	-0.0003	-0.0015	0.0013	-0.0016	0.0002	-0.0013	0.0007	-0.0012	-0.0003	-0.0002	-0.0001	0.0002	-0.0001	0.2410	0.2802	0.1544	0.2462	0.2657	0.1983	0.0834	0.1674	0.0038	-0.0468	-0.0288	-0.0361	0.0004	0.0012	-0.0091	0.0024	-0.0027	-0.0004	0.0014	0.0007	-0.0036	0.0005	0.0173	-0.0025	0.0003	-0.0003	-0.0017	-0.0003	-0.0001	0.0003	-0.0007	0.0005	-0.0004	0.0001	0.0013	0.0007	-0.0009	0.0005	-0.0014	-0.0005	-0.0001	0.0001	0.0002	-0.0002	0.0005	0.0002	0.0012	0.0007	0.3246	0.3496	0.1560	0.2817	0.2582	0.2113	0.1003	0.1790	0.1330	0.0675	0.0481	0.0774	-0.0003	-0.0001	-0.0027	0.0032	0.0015	-0.0054	-0.0004	-0.0006	0.0009	-0.0028	-0.0009	0.0001	0.0006	-0.0003	-0.0016	-0.0003	-0.0001	0.0000	-0.0006	0.0002	-0.0005	0.0001	-0.0002	0.0006	-0.0011	0.0009	-0.0009	-0.0002	-0.0005	0.0002	-0.0003	-0.0002	0.0001	-0.0004	0.0000	-0.0003	0.2977	0.2586	0.1261	0.2215	0.1136	0.0172	0.0165	0.0287	-0.0615	-0.1412	-0.0390	-0.0904	-0.0046	0.0012	-0.0012	0.0038	-0.0030	-0.0037	0.0046	-0.0008	-0.0028	-0.0018	0.0029	0.0001	0.0006	-0.0001	-0.0013	-0.0006	-0.0001	0.0002	0.0003	-0.0003	-0.0003	0.0000	0.0007	-0.0003	-0.0004	0.0004	-0.0002	-0.0002	0.0004	-0.0004	0.0008	-0.0000	0.0008	-0.0007	0.0008	-0.0000	0.1999	0.1441	0.0689	0.1302	-0.0166	-0.0834	-0.0561	-0.0745	-0.1816	-0.2097	-0.1006	-0.1763	-0.0037	0.0001	-0.0002	0.0028	-0.0014	-0.0018	0.0044	-0.0005	-0.0011	-0.0006	0.0030	-0.0008	0.0002	0.0000	-0.0008	-0.0002	-0.0005	0.0004	0.0007	0.0008	-0.0007	0.0003	0.0011	0.0008	0.0000	-0.0000	0.0001	-0.0002	0.0006	-0.0004	0.0009	0.0001	0.0007	-0.0005	0.0008	0.0003	0.2534	0.2283	0.0893	0.1734	-0.0193	-0.1013	-0.0683	-0.0876	-0.1967	-0.1912	-0.0914	-0.1636	0.0004	-0.0006	-0.0103	0.0054	-0.0009	-0.0025	0.0101	-0.0022	-0.0023	0.0012	0.0094	-0.0012	0.0000	0.0002	-0.0016	0.0006	-0.0008	0.0004	0.0012	0.0013	-0.0007	0.0001	0.0014	0.0009	-0.0006	0.0001	-0.0005	-0.0004	0.0007	-0.0004	0.0012	0.0003	0.0005	0.0000	0.0008	0.0006	0.1744	0.1258	0.0444	0.1058	-0.0470	0.0110	-0.0422	-0.0206	0.0019	0.1381	-0.0072	0.0470	-0.0032	0.0020	0.0034	0.0032	0.0010	0.0008	0.0116	-0.0022	0.0022	0.0031	-0.0019	0.0021	0.0002	0.0000	-0.0006	0.0001	-0.0009	0.0002	0.0008	0.0020	-0.0009	0.0004	-0.0006	0.0026	0.0001	0.0001	0.0004	-0.0001	-0.0001	0.0007	0.0001	0.0006	-0.0009	0.0012	-0.0009	0.0005	0.1281	0.1522	0.0525	0.1161	0.1538	0.2610	0.1073	0.2002	0.3474	0.4202	0.1662	0.3198	-0.0007	0.0001	0.0080	-0.0019	0.0031	-0.0011	-0.0001	-0.0005	0.0040	-0.0017	-0.0140	0.0044	0.0005	-0.0002	-0.0001	-0.0004	0.0001	-0.0004	-0.0009	0.0003	-0.0003	0.0000	-0.0024	0.0013	-0.0004	0.0008	-0.0001	0.0002	-0.0012	0.0012	-0.0014	0.0000	-0.0015	0.0009	-0.0019	-0.0005	0.1128	0.0955	0.0942	0.1178	0.2242	0.2239	0.1449	0.2264	0.3002	0.3230	0.1546	0.2793	0.0022	-0.0032	-0.0042	-0.0030	0.0010	-0.0015	-0.0005	-0.0021	-0.0000	-0.0008	0.0018	-0.0002	-0.0005	-0.0002	-0.0003	0.0002	-0.0003	-0.0004	-0.0007	0.0002	0.0002	-0.0004	-0.0012	-0.0001	-0.0003	-0.0002	-0.0008	-0.0004	-0.0005	0.0003	-0.0011	-0.0004	-0.0008	0.0008	-0.0010	-0.0002	-0.0903	-0.1376	-0.0140	-0.0744	0.0415	0.0502	0.0783	0.0882	0.2289	0.2547	0.1465	0.2375	-0.0005	-0.0020	0.0065	-0.0051	-0.0031	0.0020	0.0033	-0.0027	-0.0034	0.0021	0.0007	-0.0002	-0.0002	-0.0002	0.0013	-0.0006	0.0001	-0.0005	-0.0000	-0.0008	0.0003	-0.0004	-0.0011	-0.0006	0.0005	-0.0004	0.0005	0.0001	0.0000	0.0002	-0.0005	-0.0001	-0.0006	0.0007	-0.0009	-0.0002	-0.1982	-0.1916	-0.0794	-0.1592	-0.0339	0.0025	0.0458	0.0298	0.1870	0.1948	0.1318	0.1951	0.0021	-0.0027	0.0071	-0.0056	-0.0009	0.0001	-0.0006	-0.0018	-0.0017	-0.0007	-0.0037	-0.0006	-0.0008	0.0002	0.0017	0.0009	-0.0000	-0.0004	0.0000	-0.0007	0.0006	-0.0005	-0.0011	-0.0015	0.0003	-0.0001	0.0005	0.0005	-0.0002	0.0002	-0.0006	-0.0000	-0.0005	0.0003	-0.0009	-0.0005	-0.0049	-0.0652	0.0392	-0.0016	0.2048	0.1670	0.0959	0.1779	-0.0794	-0.0799	-0.1072	-0.1205	0.0079	-0.0080	0.0003	-0.0063	0.0025	-0.0041	-0.0257	0.0044	-0.0025	0.0023	0.0189	-0.0040	-0.0003	-0.0004	0.0010	-0.0006	-0.0001	-0.0001	-0.0026	-0.0004	0.0000	0.0006	0.0016	0.0009	-0.0000	-0.0007	-0.0003	-0.0003	-0.0000	-0.0012	-0.0017	-0.0017	0.0003	0.0007	0.0016	0.0011	-0.2357	-0.2116	-0.1698	-0.2555	-0.1843	-0.2055	-0.0030	-0.1087	0.1351	0.1661	0.0771	0.1604	-0.0039	0.0039	0.0272	-0.0035	-0.0032	0.0032	0.0100	-0.0010	-0.0005	-0.0004	-0.0194	0.0055	-0.0003	0.0007	0.0029	0.0016	-0.0007	-0.0006	0.0016	0.0002	0.0002	-0.0003	-0.0025	-0.0006	0.0002	0.0012	0.0024	0.0020	0.0006	-0.0002	0.0005	0.0005	-0.0002	-0.0004	-0.0017	-0.0013	0.3498	0.4510	0.0576	0.2730	-0.1476	-0.1011	-0.1131	-0.1700	-0.0174	-0.0053	0.0525	0.0267	0.0052	-0.0025	-0.0325	0.0098	0.0051	-0.0010	0.0198	-0.0091	-0.0048	0.0081	-0.0002	0.0052	0.0017	0.0006	-0.0047	-0.0010	-0.0005	0.0008	0.0027	0.0021	-0.0000	-0.0004	-0.0003	0.0000	-0.0015	0.0004	-0.0022	-0.0016	-0.0006	0.0012	0.0014	0.0017	0.0001	0.0001	-0.0001	0.0002	-0.0759	0.0319	-0.0159	0.0032	0.0633	0.1626	-0.0506	0.0363	-0.2940	-0.2469	-0.2291	-0.3247	0.0027	0.0035	0.0042	-0.0011	0.0005	0.0063	-0.0089	0.0080	-0.0002	0.0049	0.0251	-0.0033	0.0003	-0.0003	-0.0000	0.0001	0.0009	0.0006	-0.0019	0.0006	0.0006	0.0009	0.0029	0.0010	-0.0005	0.0008	-0.0006	0.0002	-0.0007	0.0008	-0.0003	-0.0000	0.0000	0.0012	0.0026	0.0021	0.0884	0.0863	0.1031	0.1066	0.2874	0.2182	0.1711	0.2596	0.2134	0.2165	0.0265	0.1495	0.0036	-0.0041	-0.0085	-0.0016	0.0039	-0.0057	-0.0152	0.0008	0.0058	-0.0066	-0.0146	0.0029	0.0001	-0.0004	-0.0004	-0.0009	0.0002	-0.0007	-0.0019	-0.0013	0.0008	0.0001	-0.0022	-0.0008	-0.0006	-0.0001	-0.0010	-0.0004	-0.0002	-0.0010	-0.0016	-0.0015	-0.0005	-0.0003	-0.0011	-0.0012	-0.0732	-0.1669	-0.0610	-0.1298	-0.2308	-0.3367	-0.0521	-0.2011	0.0147	-0.0477	0.0580	0.0419	-0.0059	0.0020	0.0010	-0.0004	-0.0096	0.0037	0.0221	-0.0059	-0.0082	0.0041	-0.0046	0.0041	-0.0002	0.0006	0.0008	-0.0000	-0.0004	-0.0003	0.0029	-0.0008	0.0002	-0.0006	-0.0008	-0.0016	0.0009	-0.0007	0.0013	0.0002	0.0015	-0.0005	0.0020	0.0009	0.0009	-0.0009	-0.0001	-0.0007	0.1712	0.0973	0.1237	0.1506	0.1694	0.1244	0.0306	0.1022	-0.1327	-0.1856	-0.1261	-0.1931	0.0054	-0.0077	-0.0126	-0.0014	-0.0030	0.0015	-0.0054	0.0032	-0.0022	-0.0005	0.0110	0.0004	-0.0002	-0.0005	-0.0008	-0.0008	0.0009	0.0001	-0.0014	-0.0011	-0.0004	0.0006	0.0016	0.0009	-0.0002	-0.0010	-0.0012	-0.0011	0.0002	-0.0003	0.0000	-0.0006	0.0006	-0.0001	0.0018	0.0009	-0.3123	-0.3115	-0.0908	-0.2084	0.1146	0.2018	0.0701	0.1446	0.0187	-0.0514	-0.0804	-0.0854	-0.0029	0.0029	0.0343	-0.0112	-0.0055	0.0076	-0.0138	0.0104	0.0033	-0.0052	-0.0055	0.0034	-0.0013	-0.0004	0.0038	0.0012	0.0005	-0.0001	-0.0025	-0.0001	0.0000	0.0006	-0.0001	0.0004	0.0011	0.0004	0.0014	0.0014	-0.0006	0.0006	-0.0011	-0.0003	0.0002	-0.0007	0.0008	-0.0001	-0.1725	-0.0458	-0.0021	-0.0455	0.3206	0.3037	0.1384	0.2550	-0.0822	-0.2012	-0.1397	-0.1903	0.0106	-0.0065	0.0016	-0.0084	-0.0023	0.0019	-0.0301	0.0098	-0.0001	-0.0001	0.0213	-0.0032	-0.0002	-0.0005	0.0011	-0.0002	0.0012	0.0001	-0.0038	-0.0017	-0.0004	0.0006	0.0023	0.0014	-0.0011	0.0008	-0.0012	0.0003	-0.0005	-0.0005	-0.0015	-0.0015	0.0011	-0.0004	0.0024	0.0009	0.2896	0.1612	0.0463	0.1139	-0.3090	-0.3339	-0.1543	-0.2596	-0.0460	0.1221	0.0244	0.0644	-0.0018	0.0000	-0.0203	0.0101	-0.0038	0.0040	0.0386	-0.0112	-0.0047	0.0096	-0.0061	0.0075	0.0013	0.0005	-0.0024	-0.0013	-0.0009	0.0001	0.0040	0.0014	-0.0002	-0.0001	-0.0015	0.0012	0.0001	-0.0010	0.0004	-0.0010	0.0014	0.0004	0.0023	0.0015	-0.0007	0.0012	-0.0012	0.0003	0.0409	-0.0325	-0.0486	-0.0274	-0.1246	0.0030	0.0065	-0.0174	0.3341	0.3197	0.2124	0.3172	-0.0043	0.0023	0.0121	0.0005	0.0068	-0.0048	-0.0007	-0.0044	0.0063	-0.0051	-0.0350	0.0065	-0.0000	0.0003	0.0005	0.0005	-0.0005	-0.0003	0.0005	0.0004	0.0008	-0.0006	-0.0036	-0.0019	0.0008	-0.0002	0.0012	0.0002	-0.0011	0.0009	-0.0012	0.0004	-0.0010	-0.0009	-0.0027	-0.0020	0.0191	0.0124	0.0010	0.0097	0.0494	-0.0067	0.0060	-0.0068	-0.1601	-0.3161	-0.0612	-0.1914	0.0013	-0.0037	0.0006	0.0004	-0.0001	0.0001	-0.0145	0.0015	-0.0072	0.0030	0.0267	-0.0077	0.0003	-0.0002	-0.0001	-0.0007	-0.0002	0.0006	-0.0007	0.0004	-0.0007	0.0000	0.0033	0.0002	-0.0001	-0.0000	-0.0000	-0.0001	0.0002	-0.0008	-0.0000	-0.0004	0.0017	-0.0007	0.0025	0.0010	0.1273	0.0086	-0.0356	-0.0155	-0.0283	-0.0160	-0.0802	-0.0842	-0.1463	0.0119	0.1132	0.0867	0.0035	0.0050	0.0108	-0.0048	-0.0120	0.0123	0.0108	0.0085	0.0031	0.0079	0.0317	-0.0094	0.0001	0.0009	0.0011	0.0018	0.0003	0.0007	0.0001	0.0011	-0.0001	-0.0018	0.0023	-0.0001	0.0005	-0.0004	0.0016	0.0004	0.0003	0.0009	0.0018	0.0012	-0.0007	0.0018	-0.0010	0.0012	0.0475	-0.1422	-0.0302	-0.0938	0.3713	-0.0102	0.0814	0.0835	-0.1918	-0.1866	0.2848	0.1635	0.0119	-0.0118	0.0250	-0.0160	0.0007	-0.0048	-0.0477	0.0153	0.0158	-0.0112	0.0297	-0.0273	-0.0015	0.0005	0.0040	0.0023	0.0012	0.0005	-0.0035	-0.0027	-0.0029	-0.0034	0.0044	-0.0002	0.0004	-0.0007	0.0019	0.0009	0.0016	-0.0044	0.0005	-0.0030	0.0003	-0.0007	-0.0030	-0.0005	-0.0233	0.1597	-0.1868	-0.0700	-0.0567	0.2442	-0.2981	-0.1172	-0.4472	0.3318	0.0640	0.0647	-0.0028	0.0035	0.0401	-0.0153	-0.0171	0.0254	0.0201	0.0126	-0.0007	0.0023	0.0379	-0.0096	0.0007	0.0018	0.0022	0.0022	0.0024	0.0023	-0.0018	0.0022	-0.0025	-0.0009	0.0026	0.0047	-0.0009	0.0035	0.0018	0.0024	-0.0008	0.0040	0.0022	0.0023	-0.0055	0.0086	-0.0034	0.0050	-0.3276	0.0200	0.0853	0.0750	0.2052	0.1197	-0.0138	0.0336	-0.1711	-0.0530	-0.0180	-0.0395	-0.0071	0.0043	-0.0066	0.0005	0.0123	-0.0050	-0.0156	0.0006	-0.0006	0.0036	0.0236	-0.0089	-0.0005	-0.0018	-0.0014	-0.0016	0.0011	0.0009	-0.0009	0.0001	-0.0007	-0.0004	0.0020	0.0011	-0.0009	0.0018	-0.0037	-0.0002	-0.0007	-0.0007	0.0002	-0.0006	-0.0002	0.0014	-0.0001	0.0011	-0.1202	0.1487	0.2782	0.2701	-0.0640	-0.2680	-0.1916	-0.2714	-0.0069	0.1284	0.2241	0.2399	-0.0147	0.0145	-0.0460	0.0124	0.0016	-0.0031	0.0528	-0.0139	0.0047	-0.0016	-0.0217	0.0020	-0.0002	-0.0019	-0.0049	-0.0028	-0.0006	0.0011	0.0055	0.0024	-0.0007	-0.0019	-0.0020	-0.0012	-0.0006	0.0002	-0.0052	-0.0019	0.0012	0.0003	0.0047	0.0023	-0.0008	-0.0002	-0.0039	-0.0015	-0.3093	-0.0932	0.2134	0.0811	0.1888	0.1798	-0.1039	0.0343	-0.1986	-0.0489	0.0463	-0.0349	-0.0072	0.0156	-0.0097	0.0045	0.0062	-0.0088	-0.0078	-0.0009	-0.0004	0.0013	0.0212	-0.0121	-0.0012	-0.0022	-0.0005	-0.0005	0.0012	0.0012	-0.0015	-0.0004	-0.0014	-0.0003	0.0027	0.0016	-0.0005	0.0007	-0.0031	0.0001	-0.0004	-0.0000	0.0002	-0.0007	-0.0010	0.0020	-0.0004	0.0018	0.1473	-0.3470	-0.0267	-0.1938	0.3055	-0.2033	0.2935	0.1673	0.0465	-0.3893	0.1485	-0.0038	-0.0083	0.0057	0.0507	-0.0140	-0.0291	0.0148	-0.0110	0.0139	-0.0235	0.0072	0.0530	-0.0055	-0.0019	0.0014	0.0064	0.0036	-0.0016	-0.0010	-0.0008	-0.0014	-0.0033	-0.0015	0.0048	0.0015	0.0028	-0.0018	0.0061	0.0022	0.0040	-0.0045	0.0018	-0.0017	0.0042	-0.0025	0.0036	0.0006	0.3358	0.1653	-0.1518	-0.0289	-0.1129	-0.0130	-0.0483	-0.0489	0.0214	0.1714	0.0660	0.1265	0.0240	-0.0213	-0.0118	-0.0059	0.0047	0.0004	-0.0096	0.0006	0.0183	-0.0104	-0.0278	-0.0015	0.0018	0.0020	-0.0003	-0.0001	0.0007	-0.0000	-0.0007	-0.0008	0.0000	-0.0005	-0.0020	-0.0002	-0.0009	-0.0011	0.0014	-0.0008	-0.0005	0.0002	-0.0008	-0.0003	-0.0017	-0.0000	-0.0033	-0.0013	0.0990	-0.1194	-0.1991	-0.1743	0.0601	0.1350	0.0375	0.0968	-0.1142	-0.0710	-0.0037	-0.0604	-0.0010	-0.0080	0.0455	-0.0154	-0.0070	0.0043	-0.0272	0.0120	-0.0018	0.0013	0.0262	-0.0086	0.0002	0.0016	0.0040	0.0011	0.0009	-0.0001	-0.0034	-0.0017	-0.0006	-0.0002	0.0027	0.0009	0.0013	0.0001	0.0044	0.0014	-0.0002	-0.0001	-0.0014	-0.0011	-0.0003	0.0013	0.0009	0.0016	0.0838	-0.1313	0.2465	0.1439	0.1380	-0.4035	0.0856	-0.0957	0.0840	-0.2553	0.2780	0.1612	-0.0174	0.0062	-0.0116	-0.0029	-0.0248	0.0088	0.0389	-0.0056	-0.0162	0.0071	0.0218	0.0008	-0.0016	-0.0008	-0.0002	-0.0014	-0.0030	0.0003	0.0046	0.0023	-0.0031	-0.0025	0.0020	0.0003	0.0021	-0.0024	-0.0006	-0.0013	0.0043	-0.0030	0.0050	0.0009	0.0034	-0.0031	0.0005	-0.0010	-0.3748	0.0165	0.0837	0.0606	0.1720	0.2709	-0.0824	0.0613	-0.1736	0.0655	-0.0238	-0.0254	-0.0042	0.0058	-0.0061	0.0011	0.0211	-0.0125	-0.0290	0.0013	0.0113	-0.0042	0.0036	-0.0126	-0.0003	-0.0020	-0.0013	-0.0016	0.0017	0.0010	-0.0026	-0.0003	0.0000	0.0001	0.0010	0.0005	-0.0013	0.0021	-0.0039	-0.0000	-0.0019	0.0002	-0.0015	-0.0011	-0.0019	0.0020	-0.0015	0.0009	-0.0507	0.0334	0.2384	0.1674	0.0191	-0.2651	-0.0493	-0.1353	0.0072	-0.0081	0.1355	0.1139	-0.0036	0.0067	-0.0402	0.0099	-0.0011	-0.0038	0.0295	-0.0110	0.0002	-0.0057	-0.0108	-0.0029	-0.0002	-0.0015	-0.0030	-0.0022	-0.0005	0.0002	0.0036	0.0002	-0.0008	-0.0011	-0.0005	-0.0012	-0.0005	-0.0009	-0.0034	-0.0015	0.0020	-0.0016	0.0030	0.0005	0.0002	-0.0009	-0.0018	-0.0011	-0.4886	0.4161	-0.0288	0.0708	0.2021	0.0021	-0.1351	-0.1495	-0.1141	-0.1283	0.2847	0.1689	0.0081	-0.0296	-0.0339	0.0177	0.0220	-0.0047	-0.0142	-0.0135	0.0067	0.0008	0.0102	-0.0007	-0.0014	-0.0019	-0.0043	-0.0003	0.0026	0.0027	0.0011	-0.0003	-0.0014	-0.0036	0.0014	-0.0013	-0.0065	0.0068	-0.0075	0.0013	-0.0007	-0.0012	0.0023	0.0000	0.0002	-0.0010	-0.0024	-0.0006	0.2052	-0.2173	-0.0257	-0.1319	-0.1046	0.1351	-0.0735	0.0532	-0.1533	0.1316	0.0035	-0.0049	-0.0063	0.0211	0.0304	-0.0046	-0.0101	-0.0049	-0.0055	0.0156	0.0179	-0.0101	0.0089	-0.0227	0.0017	0.0013	0.0034	0.0002	-0.0008	-0.0008	-0.0029	0.0002	-0.0001	0.0004	0.0023	0.0010	0.0024	-0.0019	0.0055	0.0012	-0.0004	0.0014	-0.0019	-0.0005	-0.0030	0.0030	-0.0018	0.0016	0.1771	0.0719	-0.1986	-0.1076	0.0880	-0.1174	0.1525	0.0639	-0.0503	-0.1214	0.1091	0.0445	0.0090	-0.0183	-0.0005	-0.0088	-0.0039	0.0080	-0.0268	0.0139	0.0026	-0.0099	0.0239	-0.0169	0.0009	0.0022	0.0004	0.0002	0.0002	-0.0010	-0.0018	-0.0018	-0.0017	-0.0012	0.0031	-0.0001	-0.0003	-0.0002	0.0019	-0.0001	0.0013	-0.0028	-0.0003	-0.0016	0.0006	-0.0003	-0.0003	0.0002	0.1976	-0.0038	-0.2119	-0.1040	-0.2292	0.2888	-0.0617	-0.0271	0.1176	-0.2353	0.2076	0.0588	0.0087	0.0152	0.0315	-0.0113	-0.0104	-0.0065	-0.0281	0.0210	0.0130	0.0014	0.0089	-0.0041	0.0027	0.0020	0.0019	0.0012	-0.0005	0.0004	-0.0034	0.0008	-0.0009	-0.0018	0.0027	-0.0001	0.0016	-0.0008	0.0039	0.0004	-0.0040	0.0048	-0.0026	0.0019	0.0015	-0.0033	0.0008	-0.0008	-0.0187	-0.0979	0.1091	0.0477	0.2656	-0.2420	-0.0069	-0.0267	-0.2842	0.3133	-0.1274	0.0135	0.0022	-0.0150	0.0114	-0.0085	0.0001	0.0182	0.0282	-0.0068	-0.0085	-0.0117	-0.0086	0.0030	-0.0017	-0.0013	0.0019	-0.0006	0.0024	0.0000	0.0022	-0.0020	-0.0012	0.0005	-0.0025	0.0014	0.0003	-0.0006	-0.0006	-0.0002	0.0039	-0.0040	0.0043	-0.0012	-0.0033	0.0051	-0.0035	0.0013	-0.1049	0.1256	-0.0547	0.0085	-0.0431	0.1520	-0.0752	-0.0488	0.2473	-0.3616	0.1980	0.0065	0.0035	-0.0033	0.0030	-0.0056	0.0115	-0.0195	-0.0152	-0.0021	0.0045	0.0144	-0.0081	-0.0013	0.0004	0.0002	-0.0003	0.0000	0.0001	0.0008	-0.0005	0.0001	0.0007	-0.0007	0.0017	-0.0018	-0.0014	0.0020	-0.0013	0.0005	-0.0027	0.0019	-0.0012	0.0007	0.0035	-0.0059	0.0026	-0.0019	0.1429	-0.1979	0.0761	0.0246	0.0783	0.0978	-0.1235	-0.0222	-0.2901	0.2573	-0.0753	0.0489	0.0067	0.0050	0.0214	-0.0186	0.0049	-0.0075	-0.0107	0.0110	0.0118	-0.0048	-0.0026	-0.0167	-0.0002	-0.0001	0.0030	0.0002	0.0002	0.0005	-0.0019	0.0010	0.0003	0.0002	-0.0009	0.0004	0.0025	-0.0029	0.0017	-0.0009	-0.0003	-0.0001	-0.0000	-0.0006	-0.0030	0.0040	-0.0041	0.0005	-0.2104	0.1521	-0.0141	-0.0134	0.2047	0.0229	-0.2398	-0.1425	-0.2940	-0.0475	0.2890	0.1213	0.0147	-0.0221	0.0054	-0.0047	-0.0056	0.0137	0.0109	-0.0065	-0.0057	0.0092	0.0259	0.0047	-0.0021	-0.0005	0.0013	0.0025	0.0028	0.0031	0.0002	0.0002	-0.0017	-0.0036	0.0023	-0.0002	-0.0036	0.0036	-0.0025	0.0019	0.0015	-0.0005	0.0041	0.0003	-0.0017	0.0028	-0.0021	0.0022	0.3502	-0.1189	-0.1431	-0.1643	-0.0410	-0.1516	0.2555	0.1913	0.1749	-0.1367	0.0154	-0.0446	0.0005	-0.0094	-0.0010	-0.0122	0.0050	-0.0133	-0.0311	0.0189	0.0208	-0.0154	-0.0107	-0.0287	0.0007	0.0033	0.0019	0.0006	-0.0022	-0.0039	-0.0026	-0.0024	0.0005	0.0014	0.0023	-0.0011	0.0018	-0.0028	0.0047	-0.0002	0.0012	-0.0036	-0.0039	-0.0033	0.0008	-0.0031	0.0008	-0.0015	-0.1768	-0.0515	0.2073	0.1446	0.1041	-0.1581	-0.0347	-0.0930	0.0495	-0.0970	0.0986	0.0474	-0.0175	0.0109	-0.0016	-0.0006	-0.0130	0.0121	0.0424	-0.0080	-0.0184	0.0115	-0.0022	0.0183	-0.0020	-0.0017	-0.0005	-0.0004	0.0004	0.0008	0.0036	0.0005	-0.0003	-0.0011	-0.0012	-0.0010	0.0007	0.0003	-0.0025	-0.0004	0.0020	-0.0003	0.0044	0.0016	0.0017	-0.0013	0.0008	-0.0004	-0.1336	-0.0153	0.2729	0.1198	0.1150	-0.1582	0.0536	0.0530	0.1749	-0.0043	-0.0317	-0.0290	-0.0012	-0.0026	-0.0463	0.0167	0.0079	-0.0074	0.0129	-0.0194	-0.0058	-0.0030	-0.0405	0.0181	-0.0018	-0.0020	-0.0025	-0.0009	-0.0002	-0.0005	0.0019	-0.0014	0.0008	0.0010	-0.0034	-0.0015	-0.0015	-0.0005	-0.0039	-0.0008	0.0023	-0.0029	0.0004	-0.0018	0.0007	-0.0023	0.0005	-0.0016	0.0395	0.2117	-0.2692	-0.1288	-0.4321	0.2603	0.0443	0.0755	0.2423	0.0758	-0.3454	-0.2392	-0.0151	0.0204	0.0087	-0.0024	-0.0118	0.0133	0.0201	0.0119	-0.0085	0.0184	0.0078	0.0067	0.0033	0.0034	-0.0012	0.0003	-0.0017	-0.0017	-0.0006	0.0031	0.0029	0.0043	-0.0004	0.0025	-0.0005	0.0030	0.0027	0.0018	-0.0037	0.0067	-0.0034	0.0033	0.0008	0.0004	0.0056	0.0015	0.0000	0.0000	-0.0000	-0.0000	-0.0000	-0.0000	-0.0000	0.0000	0.0000	0.0000	0.0000	0.0000	-0.0000	0.0000	0.0000	-0.0000	0.0000	-0.0000	-0.0000	-0.0000	0.0000	0.0000	-0.0000	-0.0000	0.0000	0.0000	-0.0000	-0.0000	-0.0000	0.0000	0.0000	0.0000	-0.0000	0.0000	0.0000	0.0000	0.0000	0.0000	0.0000	0.0000	0.0000	-0.0000	-0.0000	0.0000	-0.0000	-0.0000	-0.0000	-0.0000	-0.0000	-0.0000	-0.0000	0.0000	-0.0000	-0.0001	-0.0000	0.0000	-0.0000	-0.0001	0.0000	-0.0000	-0.0000	-0.0000	0.0000	-0.0000	-0.0000	0.0000	0.0000	-0.0000	0.0000	-0.0000	-0.0000	0.0000	0.0000	-0.0000	-0.0000	-0.0000	0.0000	0.0000	-0.0000	-0.0000	0.0000	-0.0000	-0.0000	-0.0000	0.0000	0.0000	0.0000	-0.0000	0.0000	-0.0000	0.0000	-0.0000	-0.0000	-0.0000	-0.0000	-0.0000	-0.0000	0.0000	0.0000	0.0000	0.0000	0.0000	-0.0000	0.0000	-0.0000	0.0000	-0.0000	0.0000	-0.0000	-0.0000	-0.0000	0.0000	0.0000	0.0000	-0.0000	-0.0000	0.0000	-0.0000	0.0000	0.0000	-0.0000	0.0000	0.0000	0.0000	-0.0000	0.0000	0.0000	0.0000	0.0000	-0.0000	0.0000	-0.0000	0.0000	-0.0000	-0.0000	0.0000	0.0000	-0.0000	-0.0000	-0.0000	-0.0000	0.0000	0.0000	-0.0000	0.0000	0.0000	-0.0000	-0.0000	-0.0000	-0.0000	-0.0000	0.0000	0.0000	0.0000	0.0000	0.0000	-0.0000	0.0000	0.0000	-0.0000	0.0000	-0.0000	-0.0000	-0.0000	0.0000	0.0000	-0.0000	-0.0000	0.0000	0.0000	-0.0000	-0.0000	-0.0000	0.0000	0.0000	0.0000	-0.0000	0.0000	0.0000	0.0000	0.0000	0.0000	0.0000	0.0000	0.0000	-0.0000	-0.0000	0.0000	-0.0000	-0.0000	-0.0000	-0.0000	-0.0000	-0.0000	-0.0000	0.0000	-0.0000	-0.0000	-0.0000	0.0000	-0.0000	-0.0001	0.0000	-0.0000	-0.0000	-0.0000	0.0000	-0.0000	-0.0000	0.0000	0.0000	-0.0000	0.0000	-0.0000	-0.0000	0.0000	0.0000	-0.0000	-0.0000	-0.0000	0.0000	0.0000	-0.0000	-0.0000	0.0000	-0.0000	-0.0000	-0.0000	0.0000	0.0000	0.0000	-0.0000	0.0000	-0.0000	0.0000	-0.0000	-0.0000	-0.0000	-0.0000	-0.0000	-0.0000	0.0000	0.0000	0.0000	0.0000	0.0000	-0.0000	0.0000	-0.0000	0.0000	-0.0000	0.0000	-0.0000	-0.0000	-0.0000	0.0000	0.0000	0.0000	-0.0000	-0.0000	0.0000	-0.0000	0.0000	0.0000	-0.0000	0.0000	0.0000	0.0000	-0.0000	0.0000	0.0000	0.0000	0.0000	-0.0000	0.0000	-0.0000	0.0000	-0.0000	-0.0000	0.0000	0.0000	-0.0000	-0.0000	-0.0000	-0.0000	0.0000	0.0000	-0.0000	0.0000	0.0000	-0.0000	-0.0000	-0.0000	-0.0000	-0.0000	0.0000	0.0000	0.0000	0.0000	0.0000	-0.0000	0.0000	0.0000	-0.0000	0.0000	-0.0000	-0.0000	-0.0000	0.0000	0.0000	-0.0000	-0.0000	0.0000	0.0000	-0.0000	-0.0000	-0.0000	0.0000	0.0000	0.0000	-0.0000	0.0000	0.0000	0.0000	0.0000	0.0000	0.0000	0.0000	0.0000	-0.0000	-0.0000	0.0000	-0.0000	-0.0000	-0.0000	-0.0000	-0.0000	-0.0000	-0.0000	0.0000	-0.0000	-0.0001	-0.0000	0.0000	-0.0000	-0.0001	0.0000	-0.0000	-0.0000	-0.0000	0.0000	-0.0000	-0.0000	0.0000	0.0000	-0.0000	0.0000	-0.0000	-0.0000	0.0000	0.0000	-0.0000	-0.0000	-0.0000	0.0000	0.0000	-0.0000	-0.0000	0.0000	-0.0000	-0.0000	-0.0000	0.0000	0.0000	0.0000	-0.0000	0.0000	-0.0000	0.0000	-0.0000	-0.0000	-0.0000	-0.0000	-0.0000	-0.0000	0.0000	0.0000	0.0000	0.0000	0.0000	-0.0000	0.0000	-0.0000	0.0000	-0.0000	0.0000	-0.0000	-0.0000	-0.0000	0.0000	0.0000	0.0000	-0.0000	-0.0000	0.0000	-0.0000	0.0000	0.0000	-0.0000	0.0000	0.0000	0.0000	-0.0000	0.0000	0.0000	0.0000	0.0000	-0.0000	0.0000	-0.0000	0.0000	-0.0000	-0.0000	0.0000	0.0000	-0.0000	-0.0000	-0.0000	-0.0000	0.0000	0.0000	-0.0000	0.0000	0.0000	-0.0001	-0.0000	-0.0000	-0.0000	-0.0000	0.0000	0.0001	0.0001	0.0001	0.0000	-0.0000	0.0000	0.0000	-0.0000	0.0000	-0.0000	-0.0000	-0.0000	0.0000	0.0000	-0.0000	-0.0000	0.0000	0.0000	-0.0000	-0.0000	-0.0000	0.0000	0.0000	0.0000	-0.0000	0.0000	0.0000	0.0000	0.0000	0.0000	0.0000	0.0000	0.0000	-0.0000	-0.0000	0.0000	-0.0000	-0.0000	-0.0000	-0.0000	-0.0000	-0.0001	-0.0000	0.0000	-0.0000	-0.0001	-0.0001	0.0000	-0.0000	-0.0001	0.0000	-0.0000	-0.0000	-0.0000	0.0000	-0.0000	-0.0000	0.0000	0.0000	-0.0000	0.0000	-0.0000	-0.0000	0.0000	0.0000	-0.0000	-0.0000	-0.0000	0.0000	0.0000	-0.0000	-0.0000	0.0000	-0.0000	-0.0000	-0.0000	0.0000	0.0000	0.0000	-0.0000	0.0000	-0.0000	0.0000	-0.0000	-0.0000	-0.0000	-0.0000	-0.0000	-0.0000	0.0001	0.0001	0.0000	0.0000	0.0000	-0.0000	0.0000	-0.0000	0.0000	-0.0000	0.0001	-0.0000	-0.0000	-0.0000	0.0000	0.0000	0.0000	-0.0000	-0.0000	0.0000	-0.0000	0.0000	0.0000	-0.0000	0.0000	0.0000	0.0000	-0.0000	0.0000	0.0000	0.0000	0.0000	-0.0000	0.0000	-0.0000	0.0000	-0.0000	-0.0000	0.0000	0.0000	-0.0000	-0.0000	-0.0000	-0.0000	0.0000	0.0000	-0.0000	0.0000	0.0000	-0.0000	-0.0000	0.0000	-0.0000	-0.0000	0.0000	-0.0000	0.0000	0.0000	-0.0000	-0.0000	0.0000	0.0000	-0.0000	0.0000	-0.0000	-0.0000	-0.0000	0.0000	0.0000	-0.0000	-0.0000	0.0000	0.0000	-0.0000	-0.0000	-0.0000	0.0000	0.0000	0.0000	-0.0000	0.0000	0.0000	0.0000	0.0000	0.0000	0.0000	0.0000	0.0000	-0.0000	-0.0000	0.0000	-0.0000	-0.0000	-0.0000	0.0000	-0.0000	-0.0000	0.0000	0.0000	0.0000	-0.0000	-0.0000	0.0000	0.0000	-0.0000	0.0000	0.0000	-0.0000	-0.0000	0.0000	-0.0000	-0.0000	0.0000	0.0000	-0.0000	0.0000	-0.0000	-0.0000	0.0000	0.0000	-0.0000	-0.0000	-0.0000	0.0000	0.0000	-0.0000	-0.0000	0.0000	-0.0000	-0.0000	-0.0000	0.0000	0.0000	0.0000	-0.0000	0.0000	-0.0000	0.0000	-0.0000	-0.0000	-0.0000	-0.0000	-0.0000	-0.0000	0.0000	0.0000	0.0000	0.0000	-0.0000	-0.0000	0.0000	-0.0000	0.0000	-0.0000	0.0000	-0.0000	-0.0000	-0.0000	0.0000	0.0000	0.0000	-0.0000	-0.0000	0.0000	-0.0000	0.0000	0.0000	-0.0000	0.0000	0.0000	0.0000	-0.0000	0.0000	0.0000	0.0000	0.0000	-0.0000	0.0000	-0.0000	0.0000	-0.0000	-0.0000	0.0000	0.0000	-0.0000	-0.0000	-0.0000	-0.0000	0.0000	0.0000	-0.0000	-0.0000	-0.0000	0.0000	0.0000	-0.0000	0.0000	0.0000	-0.0000	0.0000	-0.0000	-0.0000	0.0000	0.0000	-0.0000	-0.0000	0.0000	-0.0000	0.0000	0.0000	0.0000	-0.0000	-0.0000	0.0000	0.0000	-0.0000	-0.0000	0.0000	0.0000	0.0000	-0.0000	-0.0000	-0.0000	0.0000	-0.0000	-0.0000	-0.0000	-0.0000	-0.0000	-0.0000	-0.0000	-0.0000	0.0000	0.0000	-0.0000	0.0000	0.0000	0.0000	-0.0000	0.0000	0.0000	-0.0000	-0.0000	-0.0000	0.0000	0.0000	-0.0000	-0.0000	0.0000	-0.0000	-0.0000	0.0000	0.0000	-0.0000	0.0000	0.0000	-0.0000	-0.0000	0.0000	-0.0000	0.0000	0.0000	-0.0000	-0.0000	0.0000	0.0000	0.0000	-0.0000	-0.0000	0.0000	0.0000	-0.0000	0.0000	0.0000	0.0000	-0.0000	-0.0000	-0.0000	0.0000	-0.0000	0.0000	-0.0000	0.0000	0.0000	0.0000	0.0000	0.0000	0.0000	-0.0000	-0.0000	-0.0000	-0.0000	0.0000	0.0000	-0.0000	0.0000	-0.0000	0.0000	-0.0000	0.0000	0.0000	0.0000	-0.0000	-0.0000	-0.0000	0.0000	0.0000	-0.0000	0.0000	-0.0000	-0.0000	0.0000	-0.0000	-0.0000	-0.0000	0.0000	-0.0000	-0.0000	-0.0000	-0.0000	0.0000	-0.0000	0.0000	-0.0000	0.0000	0.0000	-0.0000	-0.0000	0.0000	0.0000	0.0000	0.0000	-0.0000	-0.0000	0.0000	-0.0000	-0.0000	0.0000	0.0000	-0.0000	0.0000	0.0000	-0.0000	0.0000	-0.0000	-0.0000	0.0000	0.0000	-0.0000	-0.0000	0.0000	-0.0000	0.0000	0.0000	0.0000	-0.0000	-0.0000	0.0000	0.0000	-0.0000	-0.0000	0.0000	0.0000	0.0000	-0.0000	-0.0000	-0.0000	0.0000	-0.0000	-0.0000	-0.0000	-0.0000	-0.0000	-0.0000	-0.0000	-0.0000	0.0000	0.0000	-0.0000	0.0000	0.0000	0.0000	-0.0000	0.0000	0.0000	-0.0000	-0.0000	-0.0000	0.0000	0.0000	-0.0000	-0.0000	0.0000	-0.0000	-0.0000	0.0000	0.0000	-0.0000	0.0000	0.0000	-0.0000	-0.0000	0.0000	-0.0000	0.0000	0.0000	-0.0000	-0.0000	0.0000	0.0000	0.0000	-0.0000	-0.0000	0.0000	0.0000	-0.0000	0.0000	0.0000	0.0000	-0.0000	-0.0000	-0.0000	0.0000	-0.0000	0.0000	-0.0000	0.0000	0.0000	0.0000	0.0000	0.0000	0.0000	-0.0000	-0.0000	-0.0000	-0.0000	0.0000	0.0000	-0.0000	0.0000	-0.0000	0.0000	-0.0000	0.0000	0.0000	0.0000	-0.0000	-0.0000	-0.0000	0.0000	0.0000	-0.0000	0.0000	-0.0000	-0.0000	0.0000	-0.0000	-0.0000	-0.0000	0.0000	-0.0000	-0.0000	-0.0000	-0.0000	0.0000	-0.0000	0.0000	-0.0000	0.0000	0.0000	-0.0000	-0.0000	0.0000	0.0000	0.0000	0.0000	-0.0000	-0.0000	0.0000	-0.0000	-0.0000	0.0000	0.0000	-0.0000	0.0000	0.0000	-0.0000	0.0000	-0.0000	-0.0000	0.0000	0.0000	-0.0000	-0.0000	0.0000	-0.0000	0.0000	0.0000	0.0000	-0.0000	-0.0000	0.0000	0.0000	-0.0000	-0.0000	0.0000	0.0000	0.0000	-0.0000	-0.0000	-0.0000	0.0000	-0.0000	-0.0000	-0.0000	-0.0000	-0.0000	-0.0000	-0.0000	-0.0000	0.0000	0.0000	-0.0000	0.0000	0.0000	0.0000	-0.0000	0.0000	0.0000	-0.0000	-0.0000	-0.0000	0.0000	0.0000	-0.0000	-0.0000	0.0000	-0.0000	-0.0000	0.0000	0.0000	-0.0000	0.0000	0.0000	-0.0000	-0.0000	0.0000	-0.0000	0.0000	0.0000	-0.0000	-0.0000	0.0000	0.0000	0.0000	-0.0000	-0.0000	0.0000	0.0000	-0.0000	0.0000	0.0000	0.0000	-0.0000	-0.0000	-0.0000	0.0000	-0.0000	0.0000	-0.0000	0.0000	0.0000	0.0000	0.0000	0.0000	0.0000	-0.0000	-0.0000	-0.0000	-0.0000	0.0000	0.0000	-0.0000	0.0000	-0.0000	0.0000	-0.0000	0.0000	0.0000	0.0000	-0.0000	-0.0000	-0.0000	0.0000	0.0000	-0.0000	0.0000	-0.0000	-0.0000	0.0000	-0.0000	-0.0000	-0.0000	0.0000	-0.0000	-0.0000	-0.0000	-0.0000	0.0000	-0.0000	0.0000	-0.0000	0.0000	0.0000	-0.0000	-0.0000	0.0000	0.0000	0.0000	0.0000	-0.0000	-0.0000	0.0000	0.0000	0.0000	-0.0000	-0.0000	0.0000	-0.0000	-0.0000	0.0000	0.0000	-0.0000	0.0000	-0.0000	-0.0000	0.0000	0.0000	-0.0000	0.0000	-0.0000	-0.0000	-0.0000	0.0000	0.0000	-0.0000	-0.0000	0.0000	0.0000	0.0000	-0.0000	-0.0000	0.0000	0.0000	0.0000	-0.0000	0.0000	0.0000	0.0000	0.0000	0.0000	0.0000	0.0000	0.0000	-0.0000	-0.0000	-0.0000	-0.0000	-0.0000	-0.0000	0.0000	0.0000	-0.0000	0.0000	0.0000	0.0000	-0.0000	-0.0000	0.0000	0.0000	-0.0000	-0.0000	0.0000	-0.0000	-0.0000	0.0000	-0.0000	-0.0000	0.0000	0.0000	-0.0000	0.0000	-0.0000	-0.0000	0.0000	0.0000	-0.0000	-0.0000	-0.0000	0.0000	0.0000	-0.0000	-0.0000	0.0000	-0.0000	-0.0000	-0.0000	0.0000	0.0000	0.0000	-0.0000	0.0000	-0.0000	0.0000	-0.0000	-0.0000	-0.0000	-0.0000	-0.0000	-0.0000	0.0000	0.0000	-0.0000	0.0000	-0.0000	0.0000	0.0000	-0.0000	-0.0000	-0.0000	0.0000	-0.0000	-0.0000	-0.0000	0.0000	0.0000	0.0000	-0.0000	-0.0000	0.0000	-0.0000	0.0000	0.0000	-0.0000	0.0000	0.0000	0.0000	-0.0000	0.0000	0.0000	0.0000	0.0000	-0.0000	0.0000	-0.0000	0.0000	-0.0000	-0.0000	0.0000	0.0000	-0.0000	-0.0000	-0.0000	-0.0000	0.0000	0.0000	-0.0000	0.0000	0.0000	-0.0000	-0.0000	0.0000	-0.0000	-0.0000	0.0000	0.0000	-0.0000	0.0000	-0.0000	-0.0000	0.0000	0.0000	-0.0000	0.0000	-0.0000	-0.0000	-0.0000	0.0000	0.0000	-0.0000	-0.0000	0.0000	0.0000	0.0000	-0.0000	-0.0000	0.0000	0.0000	0.0000	-0.0000	0.0000	0.0000	0.0000	0.0000	0.0000	0.0000	0.0000	0.0000	-0.0000	-0.0000	-0.0000	-0.0000	-0.0000	-0.0000	0.0000	0.0000	-0.0000	0.0000	0.0000	0.0000	-0.0000	-0.0000	0.0000	0.0000	-0.0000	-0.0000	0.0000	-0.0000	-0.0000	0.0000	-0.0000	-0.0000	0.0000	0.0000	-0.0000	0.0000	-0.0000	-0.0000	0.0000	0.0000	-0.0000	-0.0000	-0.0000	0.0000	0.0000	-0.0000	-0.0000	0.0000	-0.0000	-0.0000	-0.0000	0.0000	0.0000	0.0000	-0.0000	0.0000	-0.0000	0.0000	-0.0000	-0.0000	-0.0000	-0.0000	-0.0000	-0.0000	0.0000	0.0000	-0.0000	0.0000	-0.0000	0.0000	0.0000	-0.0000	-0.0000	-0.0000	0.0000	-0.0000	-0.0000	-0.0000	0.0000	0.0000	0.0000	-0.0000	-0.0000	0.0000	-0.0000	0.0000	0.0000	-0.0000	0.0000	0.0000	0.0000	-0.0000	0.0000	0.0000	0.0000	0.0000	-0.0000	0.0000	-0.0000	0.0000	-0.0000	-0.0000	0.0000	0.0000	-0.0000	-0.0000	-0.0000	-0.0000	0.0000	0.0000	-0.0000	-0.0000	-0.0000	0.0000	0.0000	-0.0000	0.0000	0.0000	-0.0000	-0.0000	0.0000	-0.0000	0.0000	0.0000	-0.0000	-0.0000	0.0000	-0.0000	0.0000	0.0000	0.0000	-0.0000	-0.0000	0.0000	0.0000	-0.0000	-0.0000	-0.0000	0.0000	0.0000	-0.0000	-0.0000	-0.0000	0.0000	-0.0000	-0.0000	-0.0000	-0.0000	-0.0000	-0.0000	-0.0000	-0.0000	0.0000	0.0000	0.0000	0.0000	0.0000	0.0000	-0.0000	-0.0000	0.0000	-0.0000	-0.0000	-0.0000	0.0000	0.0000	-0.0000	-0.0000	0.0000	0.0000	-0.0000	0.0000	0.0000	-0.0000	0.0000	0.0000	-0.0000	-0.0000	0.0000	-0.0000	0.0000	0.0000	-0.0000	-0.0000	0.0000	0.0000	0.0000	-0.0000	-0.0000	0.0000	0.0000	-0.0000	0.0000	0.0000	0.0000	-0.0000	-0.0000	-0.0000	0.0000	-0.0000	0.0000	-0.0000	0.0000	0.0000	0.0000	0.0000	0.0000	0.0000	-0.0000	-0.0000	0.0000	-0.0000	0.0000	-0.0000	-0.0000	0.0000	0.0000	0.0000	-0.0000	0.0000	0.0000	0.0000	-0.0000	-0.0000	-0.0000	0.0000	0.0000	-0.0000	0.0000	-0.0000	-0.0000	0.0000	-0.0000	-0.0000	-0.0000	0.0000	-0.0000	-0.0000	-0.0000	-0.0000	0.0000	-0.0000	0.0000	-0.0000	0.0000	0.0000	-0.0000	-0.0000	0.0000	0.0000	0.0000	0.0000	-0.0000	-0.0000	0.0000	-0.0000	-0.0000	0.0000	0.0000	-0.0000	0.0000	0.0000	-0.0000	-0.0000	0.0000	-0.0000	0.0000	0.0000	-0.0000	-0.0000	0.0000	-0.0000	0.0000	0.0000	0.0000	-0.0000	-0.0000	0.0000	0.0000	-0.0000	-0.0000	-0.0000	0.0000	0.0000	-0.0000	-0.0000	-0.0000	0.0000	-0.0000	-0.0000	-0.0000	-0.0000	-0.0000	-0.0000	-0.0000	-0.0000	0.0000	0.0000	0.0000	0.0000	0.0000	0.0000	-0.0000	-0.0000	0.0000	-0.0000	-0.0000	-0.0000	0.0000	0.0000	-0.0000	-0.0000	0.0000	0.0000	-0.0000	0.0000	0.0000	-0.0000	0.0000	0.0000	-0.0000	-0.0000	0.0000	-0.0000	0.0000	0.0000	-0.0000	-0.0000	0.0000	0.0000	0.0000	-0.0000	-0.0000	0.0000	0.0000	-0.0000	0.0000	0.0000	0.0000	-0.0000	-0.0000	-0.0000	0.0000	-0.0000	0.0000	-0.0000	0.0000	0.0000	0.0000	0.0000	0.0000	0.0000	-0.0000	-0.0000	0.0000	-0.0000	0.0000	-0.0000	-0.0000	0.0000	0.0000	0.0000	-0.0000	0.0000	0.0000	0.0000	-0.0000	-0.0000	-0.0000	0.0000	0.0000	-0.0000	0.0000	-0.0000	-0.0000	0.0000	-0.0000	-0.0000	-0.0000	0.0000	-0.0000	-0.0000	-0.0000	-0.0000	0.0000	-0.0000	0.0000	-0.0000	0.0000	0.0000	-0.0000	-0.0000	0.0000	0.0000	0.0000	0.0000	-0.0000	-0.0000	0.0000	0.0000	0.0000	-0.0000	-0.0000	0.0000	-0.0000	-0.0000	0.0000	0.0000	0.0000	0.0000	-0.0000	-0.0000	0.0000	0.0000	-0.0000	0.0000	-0.0000	-0.0000	-0.0000	0.0000	0.0000	-0.0000	-0.0000	0.0000	0.0000	0.0000	-0.0000	-0.0000	0.0000	0.0000	0.0000	-0.0000	0.0000	0.0000	0.0000	0.0000	0.0000	0.0000	0.0000	0.0000	-0.0000	-0.0000	-0.0000	-0.0000	-0.0000	-0.0000	0.0000	-0.0000	-0.0000	0.0000	0.0000	0.0000	-0.0000	-0.0000	0.0000	0.0000	-0.0000	0.0000	0.0000	-0.0000	-0.0000	0.0000	-0.0000	-0.0000	0.0000	0.0000	-0.0000	0.0000	-0.0000	-0.0000	0.0000	0.0000	-0.0000	-0.0000	-0.0000	0.0000	0.0000	-0.0000	-0.0000	0.0000	-0.0000	-0.0000	-0.0000	0.0000	0.0000	0.0000	-0.0000	0.0000	-0.0000	0.0000	-0.0000	-0.0000	-0.0000	-0.0000	-0.0000	-0.0000	0.0000	0.0000	-0.0000	-0.0000	-0.0000	0.0000	0.0000	-0.0000	-0.0000	-0.0000	0.0000	-0.0000	-0.0000	-0.0000	0.0000	0.0000	0.0000	-0.0000	-0.0000	0.0000	-0.0000	0.0000	0.0000	-0.0000	0.0000	0.0000	0.0000	-0.0000	0.0000	0.0000	0.0000	0.0000	-0.0000	0.0000	-0.0000	0.0000	-0.0000	-0.0000	0.0000	0.0000	-0.0000	-0.0000	-0.0000	-0.0000	0.0000	0.0000	-0.0000	-0.0000	-0.0000	0.0000	0.0000	-0.0000	0.0000	0.0000	-0.0000	-0.0000	-0.0000	-0.0000	0.0000	0.0000	-0.0000	-0.0000	0.0000	-0.0000	0.0000	0.0000	0.0000	-0.0000	-0.0000	0.0000	0.0000	-0.0000	-0.0000	-0.0000	0.0000	0.0000	-0.0000	-0.0000	-0.0000	0.0000	-0.0000	-0.0000	-0.0000	-0.0000	-0.0000	-0.0000	-0.0000	-0.0000	0.0000	0.0000	0.0000	0.0000	0.0000	0.0000	-0.0000	0.0000	0.0000	-0.0000	-0.0000	-0.0000	0.0000	0.0000	-0.0000	-0.0000	0.0000	-0.0000	-0.0000	0.0000	0.0000	-0.0000	0.0000	0.0000	-0.0000	-0.0000	0.0000	-0.0000	0.0000	0.0000	-0.0000	-0.0000	0.0000	0.0000	0.0000	-0.0000	-0.0000	0.0000	0.0000	-0.0000	0.0000	0.0000	0.0000	-0.0000	-0.0000	-0.0000	0.0000	-0.0000	0.0000	-0.0000	0.0000	0.0000	0.0000	0.0000	0.0000	0.0000	-0.0000	-0.0000	0.0000	0.0000	0.0000	-0.0000	-0.0000	0.0000	0.0000	0.0000	-0.0000	0.0000	0.0000	0.0000	-0.0000	-0.0000	-0.0000	0.0000	0.0000	-0.0000	0.0000	-0.0000	-0.0000	0.0000	-0.0000	-0.0000	-0.0000	0.0000	-0.0000	-0.0000	-0.0000	-0.0000	0.0000	-0.0000	0.0000	-0.0000	0.0000	0.0000	-0.0000	-0.0000	0.0000	0.0000	0.0000	0.0000	-0.0000	-0.0000	0.0000	-0.0000	-0.0000	0.0000	0.0000	-0.0000	0.0000	0.0000	-0.0000	-0.0000	-0.0000	-0.0000	0.0000	0.0000	-0.0000	-0.0000	0.0000	-0.0000	0.0000	0.0000	0.0000	-0.0000	-0.0000	0.0000	0.0000	-0.0000	-0.0000	-0.0000	0.0000	0.0000	-0.0000	-0.0000	-0.0000	0.0000	-0.0000	-0.0000	-0.0000	-0.0000	-0.0000	-0.0000	-0.0000	-0.0000	0.0000	0.0000	0.0000	0.0000	0.0000	0.0000	-0.0000	0.0000	0.0000	-0.0000	-0.0000	-0.0000	0.0000	0.0000	-0.0000	-0.0000	0.0000	-0.0000	-0.0000	0.0000	0.0000	-0.0000	0.0000	0.0000	-0.0000	-0.0000	0.0000	-0.0000	0.0000	0.0000	-0.0000	-0.0000	0.0000	0.0000	0.0000	-0.0000	-0.0000	0.0000	0.0000	-0.0000	0.0000	0.0000	0.0000	-0.0000	-0.0000	-0.0000	0.0000	-0.0000	0.0000	-0.0000	0.0000	0.0000	0.0000	0.0000	0.0000	0.0000	-0.0000	-0.0000	0.0000	0.0000	0.0000	-0.0000	-0.0000	0.0000	0.0000	0.0000	-0.0000	0.0000	0.0000	0.0000	-0.0000	-0.0000	-0.0000	0.0000	0.0000	-0.0000	0.0000	-0.0000	-0.0000	0.0000	-0.0000	-0.0000	-0.0000	0.0000	-0.0000	-0.0000	-0.0000	-0.0000	0.0000	-0.0000	0.0000	-0.0000	0.0000	0.0000	-0.0000	-0.0000	0.0000	0.0000	0.0000	0.0000	-0.0000	-0.0000	0.0000	-0.0000	-0.0000	0.0000	0.0000	-0.0000	0.0000	0.0000	-0.0000	-0.0000	-0.0000	-0.0000	0.0000	0.0000	-0.0000	-0.0000	0.0000	-0.0000	0.0000	0.0000	0.0000	-0.0000	-0.0000	0.0000	0.0000	-0.0000	-0.0000	-0.0000	0.0000	0.0000	-0.0000	-0.0000	-0.0000	0.0000	-0.0000	-0.0000	-0.0000	-0.0000	-0.0000	-0.0000	-0.0000	-0.0000	0.0000	0.0000	0.0000	0.0000	0.0000	0.0000	-0.0000	0.0000	0.0000	-0.0000	-0.0000	-0.0000	0.0000	0.0000	-0.0000	-0.0000	0.0000	-0.0000	-0.0000	0.0000	0.0000	-0.0000	0.0000	0.0000	-0.0000	-0.0000	0.0000	-0.0000	0.0000	0.0000	-0.0000	-0.0000	0.0000	0.0000	0.0000	-0.0000	-0.0000	0.0000	0.0000	-0.0000	0.0000	0.0000	0.0000	-0.0000	-0.0000	-0.0000	0.0000	-0.0000	0.0000	-0.0000	0.0000	0.0000	0.0000	0.0000	0.0000	0.0000	-0.0000	-0.0000	0.0000	0.0000	0.0000	-0.0000	-0.0000	0.0000	0.0000	0.0000	-0.0000	0.0000	0.0000	0.0000	-0.0000	-0.0000	-0.0000	0.0000	0.0000	-0.0000	0.0000	-0.0000	-0.0000	0.0000	-0.0000	-0.0000	-0.0000	0.0000	-0.0000	-0.0000	-0.0000	-0.0000	0.0000	-0.0000	0.0000	-0.0000	0.0000	0.0000	-0.0000	-0.0000	0.0000	0.0000	0.0000	0.0000	-0.0000	-0.0000	0.0000	1.0000	1.0000	1.0000	1.0000	1.0000	1.0000	1.0000	1.0000	1.0000	1.0000	1.0000	1.0000	1.0000	1.0000	1.0000	1.0000	1.0000	1.0000	1.0000	1.0000	1.0000	1.0000	1.0000	1.0000	1.0000	1.0000	1.0000	1.0000	1.0000	1.0000	1.0000	1.0000	1.0000	1.0000	1.0000	1.0000	1.0000	1.0000	1.0000	1.0000	1.0000	1.0000	1.0000	1.0000	1.0000	1.0000	1.0000	1.0000	1.0000	1.0000	1.0000	1.0000	1.0000	1.0000	1.0000	1.0000	1.0000	1.0000	1.0000	1.0000	1.0000	1.0000	1.0000	1.0000	1.0000	1.0000	1.0000	1.0000	1.0000	1.0000	1.0000	1.0000	1.0000	1.0000	1.0000	1.0000	1.0000	1.0000	1.0000	1.0000	1.0000	1.0000	1.0000	1.0000	1.0000	1.0000	1.0000	1.0000	1.0000	1.0000	1.0000	1.0000	1.0000	1.0000	1.0000	1.0000	1.0000	1.0000	1.0000	1.0000	1.0000	1.0000	1.0000	1.0000	1.0000	1.0000	1.0000	1.0000	1.0000	1.0000	1.0000	1.0000	1.0000	1.0000	1.0000	1.0000	1.0000	1.0000	1.0000	1.0000	1.0000	1.0000	1.0000	1.0000	1.0000	1.0000	1.0000	1.0000	1.0000	1.0000	1.0000	1.0000	1.0000	1.0000	1.0000	1.0000	1.0000	1.0000	1.0000	1.0000	1.0000	1.0000	1.0000	1.0000	0.0625	0.0625	0.0625	0.0625	0.0312	0.0312	0.0312	0.0312	0.0208	0.0208	0.0208	0.0208	0.0208	0.0208	0.0208	0.0208	0.0312	0.0312	0.0312	0.0312	0.0625	0.0625	0.0625	0.0625	0.0625	0.0625	0.0625	0.0625	0.0312	0.0312	0.0312	0.0312	0.0208	0.0208	0.0208	0.0208	0.0208	0.0208	0.0208	0.0208	0.0312	0.0312	0.0312	0.0312	0.0625	0.0625	0.0625	0.0625	0.0625	0.0625	0.0625	0.0625	0.0312	0.0312	0.0312	0.0312	0.0208	0.0208	0.0208	0.0208	0.0208	0.0208	0.0208	0.0208	0.0312	0.0312	0.0312	0.0312	0.0625	0.0625	0.0625	0.0625	0.0625	0.0625	0.0625	0.0625	0.0312	0.0312	0.0312	0.0312	0.0208	0.0208	0.0208	0.0208	0.0208	0.0208	0.0208	0.0208	0.0312	0.0312	0.0312	0.0312	0.0625	0.0625	0.0625	0.0625	0.0312	0.0312	0.0312	0.0312	0.0156	0.0156	0.0156	0.0156	0.0104	0.0104	0.0104	0.0104	0.0104	0.0104	0.0104	0.0104	0.0156	0.0156	0.0156	0.0156	0.0312	0.0312	0.0312	0.0312	0.0312	0.0312	0.0312	0.0312	0.0156	0.0156	0.0156	0.0156	0.0104	0.0104	0.0104	0.0104	0.0104	0.0104	0.0104	0.0104	0.0156	0.0156	0.0156	0.0156	0.0312	0.0312	0.0312	0.0312	0.0312	0.0312	0.0312	0.0312	0.0156	0.0156	0.0156	0.0156	0.0104	0.0104	0.0104	0.0104	0.0104	0.0104	0.0104	0.0104	0.0156	0.0156	0.0156	0.0156	0.0312	0.0312	0.0312	0.0312	0.0312	0.0312	0.0312	0.0312	0.0156	0.0156	0.0156	0.0156	0.0104	0.0104	0.0104	0.0104	0.0104	0.0104	0.0104	0.0104	0.0156	0.0156	0.0156	0.0156	0.0312	0.0312	0.0312	0.0312	0.0208	0.0208	0.0208	0.0208	0.0104	0.0104	0.0104	0.0104	0.0069	0.0069	0.0069	0.0069	0.0069	0.0069	0.0069	0.0069	0.0104	0.0104	0.0104	0.0104	0.0208	0.0208	0.0208	0.0208	0.0208	0.0208	0.0208	0.0208	0.0104	0.0104	0.0104	0.0104	0.0069	0.0069	0.0069	0.0069	0.0069	0.0069	0.0069	0.0069	0.0104	0.0104	0.0104	0.0104	0.0208	0.0208	0.0208	0.0208	0.0208	0.0208	0.0208	0.0208	0.0104	0.0104	0.0104	0.0104	0.0069	0.0069	0.0069	0.0069	0.0069	0.0069	0.0069	0.0069	0.0104	0.0104	0.0104	0.0104	0.0208	0.0208	0.0208	0.0208	0.0208	0.0208	0.0208	0.0208	0.0104	0.0104	0.0104	0.0104	0.0069	0.0069	0.0069	0.0069	0.0069	0.0069	0.0069	0.0069	0.0104	0.0104	0.0104	0.0104	0.0208	0.0208	0.0208	0.0208	0.0208	0.0208	0.0208	0.0208	0.0104	0.0104	0.0104	0.0104	0.0069	0.0069	0.0069	0.0069	0.0069	0.0069	0.0069	0.0069	0.0104	0.0104	0.0104	0.0104	0.0208	0.0208	0.0208	0.0208	0.0208	0.0208	0.0208	0.0208	0.0104	0.0104	0.0104	0.0104	0.0069	0.0069	0.0069	0.0069	0.0069	0.0069	0.0069	0.0069	0.0104	0.0104	0.0104	0.0104	0.0208	0.0208	0.0208	0.0208	0.0208	0.0208	0.0208	0.0208	0.0104	0.0104	0.0104	0.0104	0.0069	0.0069	0.0069	0.0069	0.0069	0.0069	0.0069	0.0069	0.0104	0.0104	0.0104	0.0104	0.0208	0.0208	0.0208	0.0208	0.0208	0.0208	0.0208	0.0208	0.0104	0.0104	0.0104	0.0104	0.0069	0.0069	0.0069	0.0069	0.0069	0.0069	0.0069	0.0069	0.0104	0.0104	0.0104	0.0104	0.0208	0.0208	0.0208	0.0208	0.0312	0.0312	0.0312	0.0312	0.0156	0.0156	0.0156	0.0156	0.0104	0.0104	0.0104	0.0104	0.0104	0.0104	0.0104	0.0104	0.0156	0.0156	0.0156	0.0156	0.0312	0.0312	0.0312	0.0312	0.0312	0.0312	0.0312	0.0312	0.0156	0.0156	0.0156	0.0156	0.0104	0.0104	0.0104	0.0104	0.0104	0.0104	0.0104	0.0104	0.0156	0.0156	0.0156	0.0156	0.0312	0.0312	0.0312	0.0312	0.0312	0.0312	0.0312	0.0312	0.0156	0.0156	0.0156	0.0156	0.0104	0.0104	0.0104	0.0104	0.0104	0.0104	0.0104	0.0104	0.0156	0.0156	0.0156	0.0156	0.0312	0.0312	0.0312	0.0312	0.0312	0.0312	0.0312	0.0312	0.0156	0.0156	0.0156	0.0156	0.0104	0.0104	0.0104	0.0104	0.0104	0.0104	0.0104	0.0104	0.0156	0.0156	0.0156	0.0156	0.0312	0.0312	0.0312	0.0312	0.0625	0.0625	0.0625	0.0625	0.0312	0.0312	0.0312	0.0312	0.0208	0.0208	0.0208	0.0208	0.0208	0.0208	0.0208	0.0208	0.0312	0.0312	0.0312	0.0312	0.0625	0.0625	0.0625	0.0625	0.0625	0.0625	0.0625	0.0625	0.0312	0.0312	0.0312	0.0312	0.0208	0.0208	0.0208	0.0208	0.0208	0.0208	0.0208	0.0208	0.0312	0.0312	0.0312	0.0312	0.0625	0.0625	0.0625	0.0625	0.0625	0.0625	0.0625	0.0625	0.0312	0.0312	0.0312	0.0312	0.0208	0.0208	0.0208	0.0208	0.0208	0.0208	0.0208	0.0208	0.0312	0.0312	0.0312	0.0312	0.0625	0.0625	0.0625	0.0625	0.0625	0.0625	0.0625	0.0625	0.0312	0.0312	0.0312	0.0312	0.0208	0.0208	0.0208	0.0208	0.0208	0.0208	0.0208	0.0208	0.0312	0.0312	0.0312	0.0312	0.0625	0.0625	0.0625	0.0625	