-0.0103	1.0956	2.4363	3.8365	5.0053	5.8818	6.5308	6.8468	6.8496	6.7028	6.4550	6.2114	6.0708	5.9334	5.9055	5.6926	5.5969	5.4773	5.3313	5.1243	4.8052	4.1743	1.4788	2.9157	4.3929	5.8116	6.8849	7.6069	8.0861	8.2487	8.0708	7.7553	7.4081	7.0625	6.7966	6.5906	6.5655	6.4612	6.5843	6.7683	6.9101	6.8928	6.6232	5.8783	3.3969	4.9308	6.3193	7.5523	8.3829	8.8426	9.0394	8.9523	8.5377	8.0140	7.5544	7.1334	6.8210	6.6602	6.8076	7.0271	7.5546	8.2018	8.7706	9.0319	8.8452	7.9708	5.3950	6.7742	7.9057	8.8228	9.3430	9.4952	9.3365	8.9249	8.2450	7.4992	6.9109	6.4439	6.1603	6.1751	6.6684	7.4060	8.5065	9.7332	10.7735	11.3353	11.2408	10.2471	7.1490	8.2289	9.0560	9.6899	9.9584	9.8607	9.3989	8.7098	7.8555	6.9930	6.3467	5.9123	5.7583	6.0131	6.8836	8.1233	9.7425	11.4489	12.8252	13.5501	13.4313	12.2720	8.4781	9.2115	9.7719	10.1739	10.2736	9.9963	9.3266	8.4533	7.5164	6.5953	5.9338	5.5605	5.5670	6.0643	7.2643	8.8987	10.8847	12.8872	14.4164	15.1607	14.9527	13.7080	9.3819	9.8570	10.2364	10.4857	10.4594	10.0553	9.2754	8.3122	7.3501	6.4127	5.7145	5.3274	5.3654	5.9386	7.2557	9.0836	11.2531	13.4085	14.9802	15.6921	15.3884	14.1677	10.0925	10.4279	10.6956	10.8148	10.6564	10.1157	9.2278	8.2036	7.2235	6.2801	5.5334	5.0804	5.0744	5.6154	6.8979	8.7480	10.9108	13.0279	14.5013	15.1051	14.7496	13.6847	10.7703	11.0377	11.2290	11.2056	10.8812	10.1851	9.2064	8.1555	7.1690	6.2117	5.4064	4.8406	4.7082	5.1134	6.2373	7.9649	9.9538	11.8725	13.1604	13.6537	13.3389	12.5768	11.4142	11.6237	11.7667	11.6333	11.1805	10.4043	9.3857	8.3062	7.2885	6.2597	5.3735	4.6854	4.4136	4.6644	5.6074	7.1096	8.8180	10.4337	11.5241	11.9895	11.8775	11.5519	12.1654	12.2400	12.2761	12.0494	11.5259	10.7418	9.7535	8.6846	7.6574	6.5962	5.6910	4.9574	4.6057	4.7253	5.4700	6.6590	7.9932	9.2107	10.0811	10.5415	10.6810	10.8060	12.6416	12.5212	12.4663	12.2469	11.8013	11.1591	10.3374	9.3855	8.4362	7.4223	6.5694	5.8321	5.4104	5.3593	5.8274	6.6081	7.5408	8.3990	9.1481	9.7240	10.1844	10.7288	12.5219	12.2419	12.1860	12.1333	11.9391	11.6165	11.1213	10.4352	9.6716	8.7557	7.9324	7.1012	6.4826	6.1423	6.2753	6.6856	7.3625	8.0710	8.8735	9.6570	10.3882	11.1931	11.7381	11.4366	11.5292	11.7960	11.9989	12.1001	12.0229	11.6890	11.1850	10.4090	9.5993	8.5970	7.6805	6.9425	6.6881	6.7734	7.3157	8.0453	9.0216	10.0326	10.9610	11.8681	10.4270	10.2294	10.5740	11.2434	11.9147	12.5009	12.8918	12.9550	12.7125	12.0494	11.1618	9.8997	8.6034	7.4511	6.8421	6.7356	7.2751	8.1733	9.3639	10.5680	11.5807	12.4436	9.2181	9.2527	9.8889	10.9282	11.9815	12.9309	13.6368	13.9396	13.8163	13.1631	12.1683	10.7304	9.2186	7.8792	7.1436	7.0569	7.6938	8.7529	10.0358	11.2554	12.1726	12.8254	8.7588	9.0279	9.8230	11.0307	12.2399	13.3377	14.1435	14.4924	14.3272	13.6135	12.5420	11.1090	9.6588	8.4307	7.8176	7.8613	8.5559	9.6028	10.7539	11.7842	12.4772	12.8883	9.1542	9.6338	10.4825	11.6679	12.8061	13.7935	14.4324	14.5845	14.2126	13.4196	12.3995	11.2116	10.0726	9.1605	8.7534	8.9001	9.5456	10.4368	11.3267	12.0920	12.5536	12.7842	10.0903	10.7100	11.5063	12.5264	13.4389	14.1352	14.4058	14.2109	13.5609	12.7164	11.8689	11.0803	10.3982	9.8787	9.6978	9.8704	10.3800	11.0301	11.6466	12.1924	12.5264	12.7153	11.0956	11.7803	12.4622	13.2720	13.9164	14.2728	14.1497	13.6305	12.7987	12.0193	11.4485	11.0699	10.7866	10.5270	10.4217	10.4713	10.7699	11.1723	11.6057	12.0625	12.4203	12.6946	11.7937	12.5053	13.0853	13.7130	14.1318	14.2197	13.8445	13.1690	12.3289	11.7138	11.3839	11.2594	11.1777	10.9871	10.8105	10.6894	10.8148	11.0918	11.5095	12.0217	12.5020	12.8919	12.0943	12.8806	13.4523	13.9541	14.1724	14.0207	13.4670	12.7325	12.0000	11.5979	11.4963	11.5383	11.5482	11.3394	11.0451	10.7849	10.8263	11.0851	11.5966	12.2121	12.7707	13.1633	1.3734	0.9401	0.4389	-0.0089	-0.1531	-0.1641	-0.0751	0.1271	0.7411	1.3911	1.9821	2.3523	2.3921	2.1168	1.4305	0.3165	-1.3531	-3.4084	-5.2965	-6.4745	-6.5313	-5.6108	1.2671	0.9508	0.5634	0.1844	0.0940	0.1419	0.3401	0.7176	1.5515	2.4572	3.2866	3.9143	4.1788	4.0304	3.3757	2.1812	0.2676	-2.3034	-5.0157	-7.1526	-7.9558	-7.2986	1.2409	1.1011	0.7690	0.3303	0.1409	0.1749	0.4271	0.8885	1.8055	2.8693	3.9256	4.8614	5.4144	5.4449	4.8864	3.7674	1.8590	-0.8676	-4.0546	-6.9713	-8.5834	-8.4646	1.2477	1.2294	0.9026	0.3448	-0.0120	-0.0719	0.1112	0.4924	1.3139	2.4243	3.7082	5.0397	6.0052	6.3574	6.0090	5.0631	3.3417	0.7892	-2.3938	-5.6703	-7.9662	-8.6651	1.1992	1.0977	0.7029	0.0687	-0.3641	-0.4145	-0.2125	0.1295	0.8368	1.9287	3.3677	5.0575	6.4664	7.2310	7.1975	6.4535	4.9212	2.6149	-0.3063	-3.5397	-6.1934	-7.6912	1.2320	0.8659	0.2884	-0.4171	-0.8573	-0.8599	-0.6020	-0.2684	0.3509	1.4098	2.9436	4.9125	6.7334	7.9540	8.3201	7.8476	6.5570	4.5590	2.0334	-0.8703	-3.5953	-5.7422	1.3986	0.6834	-0.1540	-0.9466	-1.3839	-1.3647	-1.0654	-0.6918	-0.1016	0.9300	2.4484	4.5275	6.6069	8.1982	8.9159	8.7026	7.6438	5.9443	3.8809	1.4989	-0.9702	-3.4197	1.6882	0.6901	-0.4103	-1.3563	-1.8925	-1.9727	-1.6989	-1.2558	-0.5986	0.4753	1.9333	3.9475	6.0339	7.7190	8.5599	8.5065	7.6878	6.3803	4.8661	3.1172	1.0952	-1.3617	1.9747	0.9053	-0.2891	-1.3539	-2.0745	-2.4413	-2.3918	-1.9962	-1.3136	-0.2046	1.1936	3.0687	5.0105	6.5645	7.3185	7.3424	6.7725	5.9337	5.0193	3.8997	2.3829	0.0916	2.4045	1.4274	0.2778	-0.8747	-1.8210	-2.5760	-2.9173	-2.7505	-2.1837	-1.1348	0.1703	1.8896	3.6654	5.0599	5.7181	5.8344	5.5347	5.1201	4.6730	4.0087	2.9323	0.8797	3.2767	2.5251	1.5228	0.2946	-0.9461	-2.2049	-3.0780	-3.3298	-3.0292	-2.1491	-0.9240	0.7378	2.4755	3.8487	4.4885	4.7118	4.6093	4.4460	4.2224	3.7742	2.9768	1.1614	4.4664	3.9990	3.2008	1.9595	0.5042	-1.1745	-2.5990	-3.4227	-3.5976	-3.0636	-1.9801	-0.3162	1.5330	3.0846	3.9142	4.3043	4.3397	4.2295	3.9810	3.5263	2.8473	1.2193	5.4904	5.3221	4.7795	3.6437	2.1568	0.2743	-1.5386	-2.9141	-3.6583	-3.6085	-2.7406	-1.0597	0.9614	2.7650	3.8224	4.3362	4.4116	4.2202	3.8675	3.3480	2.7271	1.2618	5.8223	5.8725	5.5932	4.7087	3.4711	1.7405	-0.1125	-1.7804	-2.9809	-3.4355	-2.9207	-1.4087	0.6262	2.5277	3.7101	4.2765	4.4040	4.2001	3.8319	3.2852	2.6742	1.3065	5.2549	5.4694	5.4433	4.8927	4.0456	2.7253	1.1781	-0.4210	-1.7897	-2.6118	-2.4963	-1.3286	0.4711	2.2438	3.3728	3.8987	4.0665	3.9279	3.6453	3.1792	2.6073	1.3208	4.2023	4.4892	4.6248	4.3380	3.8856	3.0863	2.1056	0.9263	-0.2693	-1.2442	-1.4954	-0.7822	0.6018	2.0670	3.0087	3.4288	3.6221	3.6397	3.5223	3.1852	2.6519	1.3872	3.2485	3.5616	3.7758	3.6291	3.3829	2.9683	2.5087	1.8152	0.9522	-0.0098	-0.4824	-0.1254	0.8690	2.0538	2.8396	3.1974	3.3965	3.5304	3.5417	3.3056	2.7909	1.4918	2.8910	3.1465	3.2606	3.0385	2.8048	2.6453	2.6306	2.4254	1.9075	1.0068	0.3525	0.3994	1.0862	2.1170	2.8861	3.2781	3.4631	3.6219	3.6879	3.5232	3.0282	1.6627	2.9118	3.0793	3.0095	2.5968	2.2268	2.1651	2.4647	2.6533	2.4371	1.6386	0.8857	0.7056	1.1676	2.1167	2.9602	3.4749	3.6877	3.8282	3.8411	3.6696	3.1748	1.7763	3.2696	3.2855	2.9634	2.3064	1.7736	1.7365	2.2336	2.7102	2.7278	2.0687	1.2891	0.9057	1.1346	1.9432	2.8062	3.4138	3.6676	3.7886	3.7445	3.5318	3.0546	1.7228	3.7570	3.5625	3.0122	2.1824	1.5141	1.4045	1.9096	2.4859	2.6795	2.2706	1.6268	1.1701	1.1791	1.7348	2.4714	3.0240	3.2352	3.3173	3.2438	3.0497	2.6696	1.5367	4.3803	3.8152	3.0037	2.0770	1.3910	1.2444	1.7022	2.2656	2.5739	2.4124	1.9485	1.4714	1.3050	1.5984	2.1016	2.4344	2.4494	2.4210	2.3818	2.3120	2.1361	1.3379	8.4076	8.6027	8.5787	8.5212	8.4141	8.1702	7.7537	7.2590	6.9701	6.8842	7.0662	7.4153	7.9300	8.8388	10.0447	11.2179	11.9684	12.2552	12.1293	11.5406	10.6763	9.1975	9.2380	9.1378	8.9284	8.6899	8.4336	8.0156	7.4966	6.9804	6.6839	6.5530	6.7063	7.1962	7.9852	9.2133	10.7339	12.1495	13.0885	13.4494	13.2675	12.7092	12.0842	10.9590	9.8728	9.6269	9.2272	8.7625	8.3486	7.8181	7.3042	6.8343	6.5663	6.4401	6.5979	7.1949	8.0870	9.3457	10.8381	12.2795	13.2865	13.6698	13.3562	12.7167	12.2605	11.6465	10.4108	10.1942	9.6524	8.9336	8.3283	7.7136	7.1926	6.7015	6.4024	6.2788	6.4682	7.1202	7.9574	8.9946	10.1674	11.4070	12.3933	12.8744	12.6152	11.9734	11.5965	11.3557	11.0025	10.8952	10.2922	9.3913	8.6209	7.9254	7.3440	6.7145	6.2441	6.0232	6.1863	6.8307	7.5581	8.2924	9.0302	9.9215	10.7304	11.2580	11.2047	10.7501	10.4998	10.4646	11.6941	11.6648	11.0990	10.1414	9.3031	8.5543	7.8371	6.9509	6.2185	5.8330	5.9390	6.5263	7.1298	7.5990	7.9542	8.4667	9.0318	9.5584	9.7799	9.6522	9.5989	9.6169	12.3383	12.2708	11.8047	10.9962	10.2506	9.5036	8.6291	7.4760	6.4671	5.8615	5.8419	6.3489	6.9148	7.3200	7.5036	7.6916	7.9609	8.3600	8.8139	9.0858	9.3028	9.3080	12.8692	12.6543	12.2848	11.7441	11.2467	10.6335	9.7498	8.4958	7.3481	6.5545	6.3679	6.7193	7.2307	7.6217	7.7547	7.7096	7.7751	8.0575	8.6852	9.2749	9.6977	9.6085	12.9061	12.5691	12.3755	12.2212	12.0740	11.7085	10.9983	9.8954	8.8223	7.9520	7.5607	7.6317	7.9163	8.1293	8.1395	7.9488	8.0024	8.3614	9.2051	10.0354	10.5549	10.2985	12.2921	11.9323	11.9912	12.2596	12.5153	12.4742	12.0885	11.3475	10.5589	9.7516	9.1731	8.8485	8.7050	8.5269	8.3006	8.0501	8.2830	8.9090	9.9961	10.9595	11.4846	11.0341	11.2312	10.9537	11.2969	11.9513	12.5485	12.8005	12.7937	12.5292	12.1285	11.4539	10.7133	9.9905	9.3785	8.7642	8.2872	8.0520	8.5257	9.4702	10.7333	11.6970	12.1116	11.4583	10.3601	10.1974	10.7206	11.5924	12.3826	12.8108	13.0734	13.1852	13.0892	12.5850	11.8149	10.9119	10.0550	9.2336	8.6654	8.5021	9.0916	10.1340	11.3191	12.1121	12.3509	11.5452	10.3266	10.2213	10.7593	11.6167	12.3599	12.7366	13.0039	13.2095	13.2044	12.8363	12.2093	11.4949	10.7775	10.0844	9.5910	9.4790	9.9954	10.8832	11.7994	12.3398	12.3991	11.4823	11.1657	11.0519	11.4745	12.1350	12.6558	12.7914	12.7957	12.8044	12.6632	12.3644	11.9986	11.7302	11.4491	11.1068	10.7743	10.6120	10.8967	11.4670	12.0404	12.3378	12.2552	11.3072	12.3475	12.2234	12.4932	12.8863	13.0937	12.9137	12.5675	12.2759	11.8989	11.6035	11.4985	11.7256	11.9544	11.9795	11.7552	11.4348	11.4297	11.6864	12.0029	12.1708	12.0542	11.1583	13.3207	13.1375	13.2092	13.3175	13.2252	12.7898	12.2256	11.7807	11.2880	11.0296	11.1289	11.7234	12.3262	12.5460	12.2725	11.7084	11.4779	11.5734	11.8035	11.9447	11.8610	11.0763	13.9630	13.7680	13.6850	13.5692	13.2607	12.6929	12.1234	11.7253	11.2685	11.0263	11.1662	11.8121	12.4741	12.6516	12.1977	11.4237	11.0783	11.1521	11.4472	11.6754	11.6892	11.0131	14.1712	14.0486	13.8531	13.5387	13.1020	12.5767	12.2257	12.0276	11.6747	11.3761	11.3816	11.8652	12.4400	12.5601	11.9926	11.0978	10.6602	10.7276	11.1264	11.4702	11.5373	10.8480	14.2112	14.2480	13.9540	13.4377	12.9483	12.6001	12.5854	12.6309	12.3334	11.8477	11.6005	11.8435	12.3396	12.5369	12.0638	11.2509	10.7750	10.7455	11.0981	11.3812	11.3172	10.4299	13.9621	14.2814	13.9716	13.3155	12.8686	12.7899	13.1135	13.3263	12.9706	12.2250	11.7087	11.7475	12.2374	12.6337	12.4287	11.8426	11.3485	11.1063	11.2020	11.1912	10.8080	9.6129	13.3477	14.1081	13.9578	13.3252	12.9989	13.1569	13.6851	13.9547	13.5044	12.5869	11.8898	11.7245	12.1461	12.6834	12.7690	12.4711	11.9838	11.4576	11.1234	10.6254	9.7890	8.2507	12.2495	13.4726	13.6263	13.1850	13.0358	13.3324	13.8643	14.0799	13.5990	12.7238	12.0411	11.7698	12.0972	12.6716	12.9159	12.7340	12.1345	11.2781	10.4909	9.5076	8.2550	6.4811	5.7894	7.0098	7.6378	7.6143	7.0733	6.4470	5.8041	5.3369	5.0488	4.9172	5.1450	5.7675	6.5579	7.0519	7.4687	7.7464	7.9409	7.7683	6.8206	4.9254	2.2596	-0.1427	7.1601	7.9266	8.1138	7.6947	6.8521	6.0390	5.1134	4.3482	3.8728	3.6708	3.9463	4.6940	5.7781	6.7640	7.8432	8.8757	9.6849	10.0537	9.5798	7.8206	4.7292	1.3864	7.8822	8.0520	7.9453	7.3930	6.4561	5.5137	4.3738	3.4266	2.8803	2.6897	3.0079	3.8679	5.2965	6.8846	8.7025	10.3935	11.6262	12.3013	12.1390	10.5987	7.3315	3.2959	8.0800	7.7213	7.4399	6.9265	6.0251	5.0086	3.8054	2.8834	2.4130	2.2645	2.5458	3.4353	5.1537	7.3038	9.7782	11.9631	13.3824	14.0264	13.8149	12.4191	9.3159	5.1951	8.2694	7.6181	7.1805	6.6068	5.6189	4.4413	3.2240	2.4584	2.1756	2.1361	2.3807	3.1867	4.9382	7.3318	10.1272	12.5970	14.0793	14.5798	14.1338	12.7334	9.9403	6.3013	8.3813	7.7658	7.2619	6.5404	5.3517	3.9696	2.7556	2.1579	2.0192	2.0295	2.1708	2.7757	4.3267	6.5924	9.2981	11.7792	13.2467	13.6564	13.0797	11.7734	9.5147	6.7438	8.5921	8.2418	7.7311	6.7642	5.3123	3.7430	2.5046	1.9465	1.7931	1.7408	1.7747	2.1530	3.3659	5.2823	7.6770	10.0538	11.4964	11.8917	11.2641	10.0775	8.3840	6.5902	8.9488	8.9360	8.4853	7.3261	5.6650	3.9504	2.6191	1.9013	1.5572	1.3659	1.3685	1.6787	2.6995	4.3291	6.3937	8.5182	9.7636	10.0246	9.3618	8.3761	7.3181	6.4708	9.5194	9.7237	9.2949	8.0638	6.3976	4.7426	3.3616	2.3316	1.6042	1.1350	1.0880	1.4441	2.4642	4.0528	5.9675	7.8103	8.7183	8.6801	7.9516	7.2227	6.7873	6.7669	10.0860	10.4658	10.1183	8.9826	7.5085	6.0704	4.7113	3.3689	2.2317	1.4348	1.3021	1.7075	2.7922	4.4259	6.2538	7.8214	8.4226	8.1463	7.4789	7.0749	7.1082	7.5697	9.8331	10.4359	10.3381	9.5729	8.5862	7.6273	6.4632	4.9429	3.4825	2.3688	2.0319	2.2611	3.1987	4.7053	6.3915	7.7116	8.1785	7.9049	7.5140	7.5474	7.9480	8.6231	8.5154	9.4684	9.8295	9.6731	9.3694	9.0543	8.3175	6.9320	5.4087	4.0324	3.3048	3.0112	3.4146	4.4677	5.8437	7.0424	7.6950	7.8444	7.9675	8.4089	8.9539	9.4897	6.6499	7.9915	8.8590	9.3491	9.7183	10.0397	9.8238	8.7841	7.4014	5.8508	4.6393	3.6443	3.3655	3.9162	5.1043	6.4093	7.4153	8.0801	8.5986	9.1933	9.6339	9.8788	5.4261	7.0643	8.2354	9.0821	9.7748	10.4531	10.6564	10.0163	8.9262	7.3575	5.7750	4.1830	3.3027	3.4905	4.6335	6.1971	7.5335	8.5348	9.1781	9.6819	9.8943	9.8194	5.4462	7.1904	8.4058	9.2929	9.9709	10.6229	10.8728	10.3718	9.4638	7.9873	6.2919	4.4880	3.3962	3.5634	4.9071	6.7764	8.2964	9.3231	9.7655	9.9622	9.8749	9.5478	6.5263	8.1616	9.1868	9.8429	10.2018	10.4862	10.4071	9.7902	8.9683	7.7548	6.3506	4.7973	3.8719	4.2333	5.8071	7.7979	9.2024	9.9020	9.9429	9.8074	9.5442	9.1511	7.8741	9.1878	9.9353	10.3508	10.4159	10.2682	9.7224	8.8633	8.0675	7.2318	6.3391	5.2730	4.6415	5.1129	6.6990	8.5004	9.6129	9.9605	9.7033	9.4110	9.1418	8.8673	8.9636	9.8322	10.3135	10.5497	10.3296	9.7215	8.7103	7.7160	7.1644	6.9293	6.6774	6.0739	5.5428	5.7665	6.9957	8.4117	9.2834	9.4606	9.1034	8.7961	8.6773	8.6898	9.6998	10.0806	10.3685	10.5170	10.0751	9.0483	7.6833	6.6934	6.5555	7.0235	7.3939	7.0937	6.4533	6.1588	6.7368	7.6070	8.2905	8.5251	8.3393	8.1994	8.2861	8.5520	10.0700	10.0352	10.2172	10.3516	9.7457	8.4103	6.8874	6.0560	6.3794	7.4006	8.1813	8.0137	7.1928	6.4056	6.3486	6.7386	7.3281	7.7325	7.8292	7.9032	8.1081	8.4402	10.4222	10.0749	10.1505	10.2727	9.6495	8.2482	6.7848	6.1351	6.6360	7.7400	8.5693	8.4623	7.6765	6.7712	6.3978	6.5255	7.0565	7.5358	7.7562	7.8327	7.8887	8.0018	10.8583	10.3471	10.2222	10.1569	9.4814	8.2102	7.0591	6.7171	7.2630	8.1529	8.7899	8.6876	8.0508	7.2655	6.8730	7.0036	7.5542	7.9655	7.9663	7.6794	7.2919	6.9763	-0.4770	-1.1299	-0.8980	-0.0528	0.1402	-0.4142	-0.9981	-1.1367	-0.7757	-0.5955	-0.5779	-0.4640	0.2836	1.2570	1.5886	1.1652	0.5252	0.2779	0.6807	1.1005	0.4799	-1.0854	-0.9186	-1.2408	-0.7350	0.1572	0.2935	-0.2668	-0.5676	-0.3768	-0.1144	-0.1671	-0.1894	-0.0028	0.7476	1.5788	1.7178	1.1529	0.3759	-0.2600	-0.2964	0.6043	1.3088	0.5754	-0.3637	-0.7882	-0.7647	-0.2359	0.0626	-0.1206	-0.1494	0.1385	0.3094	0.2375	0.2524	0.3096	0.6404	1.1043	1.2209	0.9712	0.4309	-0.4862	-1.1862	-0.3231	1.4670	2.0622	0.7568	0.0205	-0.7610	-0.8317	-0.3981	-0.1236	-0.0633	0.0038	0.1120	0.2983	0.4608	0.2196	-0.1316	-0.1367	0.0579	0.3739	0.4512	-0.2274	-1.2451	-0.9616	0.8549	2.3903	1.3783	0.6508	-0.5719	-1.1189	-0.6464	-0.0648	-0.1553	-0.5485	-0.5110	0.0573	0.4780	0.0794	-0.7576	-1.2184	-1.1487	-0.5405	0.0929	0.0137	-0.7821	-0.9474	0.2693	1.8055	1.1306	0.6852	-0.3881	-0.9956	-0.5580	-0.0651	-0.5040	-1.2970	-1.2464	-0.2417	0.5255	0.2351	-0.6861	-1.3420	-1.5125	-1.1133	-0.3970	0.0396	-0.2857	-0.6036	-0.0906	0.8385	0.3783	0.2835	-0.1978	-0.4580	-0.1010	0.0015	-0.7819	-1.7467	-1.7090	-0.5459	0.4842	0.6485	0.1975	-0.3150	-0.8149	-1.0284	-0.6688	0.0354	0.2403	0.0698	0.0528	0.0869	-0.2030	-0.0613	0.0896	0.2728	0.5632	0.3207	-0.5911	-1.5524	-1.6563	-0.7582	0.2171	0.7705	0.9046	0.7205	0.1229	-0.4333	-0.2782	0.5380	0.9816	0.8388	0.3661	-0.3883	-0.4496	0.0050	0.6883	1.1306	1.2470	0.7477	-0.0587	-0.7442	-0.9988	-0.7448	-0.2612	0.2916	0.6723	0.6120	0.1207	-0.0500	0.5896	1.5959	1.8930	1.4004	0.4794	-0.8125	-0.8690	-0.0187	1.1362	1.7227	1.6807	1.0669	0.5631	0.3454	-0.0158	-0.5510	-0.8542	-0.7122	-0.4509	-0.5267	-0.7096	-0.0616	1.3317	2.4885	2.4241	1.4488	0.3203	-1.1309	-1.3771	-0.2741	1.1103	1.6609	1.4116	0.8349	0.9098	1.3230	0.9216	-0.3086	-1.2608	-1.4624	-1.3826	-1.5346	-1.4020	-0.0373	1.7635	2.7428	2.2064	0.8595	-0.1969	-1.3989	-1.4352	-0.5582	0.6168	1.0140	0.5860	0.0687	0.6205	1.5319	1.2999	-0.0557	-1.1230	-1.3449	-1.2875	-1.4578	-1.2451	0.1348	1.5673	2.0395	1.2730	0.0556	-0.5949	-1.3515	-0.9121	-0.5093	0.2146	0.3064	-0.3261	-0.8970	-0.2647	0.7876	0.8879	0.0202	-0.4980	-0.3431	-0.2490	-0.5870	-0.7073	0.1592	0.9770	1.0182	0.3127	-0.4472	-0.6671	-1.1320	-0.3146	-0.2725	0.1811	0.1098	-0.6846	-1.5198	-1.3064	-0.4758	-0.0414	-0.1727	0.1616	0.8625	1.0192	0.3521	-0.3425	-0.1088	0.3279	0.3069	-0.1654	-0.5164	-0.4539	-0.7318	-0.2214	-0.1466	0.2423	0.1414	-0.6100	-1.5071	-1.6795	-1.1970	-0.6806	-0.3427	0.5779	1.5907	1.6196	0.5026	-0.6768	-0.7191	-0.1267	0.1529	-0.0864	-0.2482	-0.0935	-0.2853	-0.5793	-0.2389	0.1619	0.1137	-0.4059	-1.0771	-1.2512	-0.9076	-0.4631	-0.1110	0.7764	1.6399	1.3737	-0.2021	-1.6440	-1.4414	-0.1749	0.6284	0.4217	0.0567	0.1263	0.0361	-0.8444	-0.2635	0.0439	-0.0655	-0.4083	-0.7077	-0.5743	-0.2443	0.0486	0.1555	0.6826	1.2259	0.7250	-1.0631	-2.5556	-2.0257	-0.1687	1.0200	0.8377	0.3161	0.2147	0.0257	-0.5668	-0.1124	-0.0732	-0.2554	-0.3293	-0.1672	0.1763	0.2438	0.1038	-0.1129	0.2500	0.8171	0.4875	-1.1257	-2.6488	-2.2545	-0.3715	1.0012	1.0373	0.4835	0.0184	-0.5509	0.0540	0.0213	-0.3243	-0.4724	-0.0911	0.5963	0.9634	0.4188	-0.4924	-1.0820	-0.5080	0.6204	0.9133	-0.1918	-1.5959	-1.6647	-0.4545	0.6058	0.7857	0.3287	-0.4380	-1.3597	1.0386	0.2615	-0.6181	-0.7095	0.2709	1.4981	1.7020	0.4166	-1.1992	-1.9909	-1.1232	0.5347	1.4471	0.9744	-0.1282	-0.6625	-0.4033	0.0648	0.2352	-0.1532	-1.0281	-2.0197	2.1654	0.7361	-0.6908	-0.8606	0.4467	1.9625	2.0269	0.3735	-1.3630	-2.0293	-1.2100	0.3192	1.3740	1.3889	0.8048	0.1570	-0.3217	-0.4306	-0.4488	-0.8515	-1.5914	-2.3297	3.0750	1.3098	-0.4563	-0.7527	0.4337	1.6768	1.5187	0.0082	-1.1672	-1.3643	-0.7753	0.1247	0.9295	1.1611	0.8509	0.1068	-0.7085	-0.9031	-0.8660	-1.3088	-1.9367	-2.3116	-0.6838	-0.8904	-0.7633	-0.2762	0.3128	0.5700	0.7638	1.1872	1.9241	2.6420	3.0173	3.2415	3.3984	3.6270	3.6710	3.3702	2.6509	1.3956	-0.4101	-2.2079	-3.0369	-2.4351	-0.4543	-0.0442	0.1882	0.3012	0.2287	0.0596	0.1087	0.4198	0.9062	1.4398	1.9255	2.4439	2.7666	2.8396	2.4848	2.0201	1.5403	0.9099	-0.2676	-1.8992	-2.9389	-2.6809	-0.2185	0.4451	0.6167	0.3382	-0.1114	-0.3077	-0.1412	0.0815	0.1366	0.2203	0.6074	1.2369	1.6577	1.6522	1.1287	0.6059	0.3553	0.3526	0.1764	-0.5013	-1.1701	-1.4144	-0.1574	0.1966	0.2101	-0.1363	-0.4159	-0.2574	0.1642	0.3060	0.0062	-0.2282	0.0794	0.7392	1.2188	1.2792	0.8926	0.4419	0.3229	0.6226	1.1157	1.3528	1.2330	0.6564	0.1253	-0.1922	-0.4945	-0.7204	-0.5993	-0.1076	0.3877	0.3693	-0.0890	-0.3589	-0.0695	0.5850	1.1566	1.5372	1.6141	1.4155	1.2683	1.3848	1.9217	2.6361	3.0751	2.6454	0.7592	-0.1171	-0.8379	-1.0393	-0.6891	-0.0391	0.4401	0.4156	0.1072	-0.0103	0.1627	0.5648	0.9985	1.5519	1.9950	2.0239	1.8128	1.6414	2.0134	2.9073	3.7743	3.7979	1.1313	0.1863	-0.6757	-0.9378	-0.6508	-0.1875	0.0986	0.1485	0.1658	0.3266	0.4367	0.5285	0.6181	0.8538	0.9963	0.8134	0.5849	0.5867	1.2467	2.3882	3.4855	3.7882	0.5163	-0.0971	-0.6140	-0.7103	-0.4751	-0.3333	-0.3800	-0.3537	-0.0913	0.3727	0.5623	0.4238	0.0461	-0.4698	-1.1695	-1.8666	-1.9764	-1.2912	0.0241	1.4156	2.4667	2.6927	-0.3518	-0.5346	-0.4935	-0.2380	-0.0249	-0.2444	-0.7024	-0.8101	-0.4447	0.1571	0.3824	0.1322	-0.4860	-1.4507	-2.6532	-3.5153	-3.3552	-2.0953	-0.5397	0.6363	1.2658	1.1602	0.1979	0.2971	0.6100	0.9502	0.9463	0.3184	-0.5091	-0.8287	-0.5819	-0.1596	-0.0565	-0.2295	-0.6017	-1.2346	-2.0740	-2.5219	-2.1564	-1.0667	-0.1545	0.1938	0.1798	-0.1788	2.0087	2.1906	2.4577	2.5622	2.2178	1.2889	0.2495	-0.3492	-0.5200	-0.6103	-0.7582	-0.6783	-0.4817	-0.3418	-0.4291	-0.3545	0.0125	0.4384	0.4258	-0.0300	-0.4510	-0.7825	3.2525	3.3548	3.4831	3.4141	3.0238	2.1536	1.1299	0.2932	-0.4057	-0.9818	-1.2685	-0.9079	-0.1949	0.5378	0.9496	1.1675	1.2599	1.0137	0.4689	-0.2241	-0.6351	-0.8106	2.4453	2.3314	2.4036	2.4988	2.5223	2.1999	1.6244	0.9556	0.0769	-0.6734	-0.9539	-0.4682	0.4248	1.1812	1.4766	1.3007	0.9746	0.4242	-0.0585	-0.4478	-0.5659	-0.6001	0.3853	-0.0276	0.0223	0.4103	0.9604	1.3469	1.5448	1.5610	1.1409	0.6346	0.3732	0.6901	1.2678	1.4965	1.1253	0.3052	-0.3156	-0.6295	-0.6195	-0.5608	-0.4864	-0.4979	-1.0825	-1.5990	-1.5066	-1.0751	-0.4765	0.1418	0.8651	1.5950	1.9954	2.0419	1.9261	1.9829	2.0012	1.5379	0.4753	-0.7430	-1.3552	-1.1926	-0.7009	-0.3552	-0.2278	-0.2986	-1.2495	-1.6239	-1.5159	-1.3484	-1.1718	-0.8035	0.0252	1.1368	2.1192	2.5506	2.5241	2.3396	1.9751	1.2410	0.0509	-1.0488	-1.4591	-1.0400	-0.4009	0.0206	0.1758	0.0591	-0.6411	-0.7097	-0.6801	-0.8793	-1.1454	-1.0399	-0.2312	0.9710	1.9608	2.2176	1.9463	1.5644	1.2381	0.8909	0.2609	-0.2413	-0.3444	-0.0021	0.4146	0.6785	0.7398	0.4315	-0.0247	0.1202	-0.0599	-0.5974	-1.0517	-0.8758	0.0893	1.2745	1.8375	1.5199	0.8211	0.3959	0.4244	0.7192	0.8402	0.9524	1.0502	1.0976	1.1117	1.0952	0.9462	0.3879	0.4357	0.6559	0.3146	-0.4314	-0.8761	-0.4909	0.6464	1.7068	1.8299	1.1348	0.2855	-0.0697	0.0801	0.4669	0.7809	1.1229	1.2964	1.1578	0.8638	0.6184	0.3231	-0.2682	0.6380	0.8113	0.4283	-0.3253	-0.6791	-0.2117	0.7209	1.3270	1.1555	0.6238	0.2067	0.1234	0.1666	0.1660	0.1641	0.2941	0.3403	0.1611	-0.1791	-0.4841	-0.7518	-1.1115	0.7284	0.6956	0.2803	-0.2822	-0.4402	-0.0616	0.3393	0.2886	-0.0516	-0.1352	0.1569	0.4946	0.5440	0.2676	-0.0766	-0.4051	-0.8084	-1.1962	-1.4102	-1.5036	-1.5272	-1.5578	0.5967	0.2046	-0.2216	-0.3436	0.0098	0.4605	0.4915	-0.0253	-0.4737	-0.3646	0.1629	0.6595	0.8262	0.6797	0.3023	-0.4074	-1.3720	-2.1348	-2.2048	-1.8428	-1.4478	-1.1010	-0.4621	-0.6014	-1.1023	-1.6620	-1.8285	-1.4561	-1.0824	-0.9671	-0.8472	-0.4475	0.0542	0.2379	-0.0055	-0.3576	-0.5638	-0.4675	-0.5266	-0.7810	-1.1238	-1.8131	-2.6868	-3.4554	-1.4868	-1.8500	-2.0484	-2.0408	-1.7358	-1.2779	-1.0413	-1.0281	-0.9792	-0.6899	-0.3555	-0.2007	-0.1402	0.0314	0.2668	0.3922	0.1723	-0.1696	-0.3253	-0.5901	-1.2159	-2.2291	-2.3642	-2.7526	-2.5660	-2.0299	-1.4511	-1.1073	-0.9697	-0.8564	-0.6427	-0.3246	-0.0913	0.1257	0.5094	1.1461	1.7058	1.8069	1.4357	0.8645	0.4345	0.1495	-0.1663	-0.7905	-2.3583	-2.6198	-2.3877	-1.8345	-1.3773	-1.1853	-0.9441	-0.5281	-0.0855	0.2140	0.3237	0.5839	1.1282	1.9459	2.5628	2.5880	2.1273	1.3918	0.6963	0.3234	0.3536	0.4507	-1.7661	-1.8137	-1.8205	-1.7171	-1.6440	-1.5321	-0.9920	-0.2138	0.3534	0.5351	0.4958	0.6598	1.0057	1.4871	1.7479	1.6635	1.3557	0.8696	0.3579	0.1198	0.4479	1.1409	-1.5346	-1.3327	-1.5112	-1.8674	-2.1135	-1.9939	-1.2667	-0.3838	0.1171	0.2301	0.2151	0.2816	0.2098	-0.0234	-0.3998	-0.6514	-0.6499	-0.5546	-0.5127	-0.4072	0.1496	1.0880	-1.6618	-1.3657	-1.5831	-2.0825	-2.3743	-2.2140	-1.5693	-0.9312	-0.6510	-0.5294	-0.3863	-0.2999	-0.6121	-1.2707	-2.0046	-2.3837	-2.3511	-2.0252	-1.6416	-1.1958	-0.4017	0.6044	-1.1628	-0.9977	-1.3004	-1.7984	-2.0450	-1.9156	-1.5744	-1.4162	-1.4748	-1.4350	-1.1576	-0.8512	-0.9325	-1.3330	-1.8455	-2.2405	-2.5267	-2.5399	-2.2365	-1.6202	-0.6758	0.2812	0.2121	0.1698	-0.2664	-0.7653	-1.0110	-1.0342	-1.1489	-1.6124	-2.1008	-2.2087	-1.8224	-1.1935	-0.7974	-0.6214	-0.7344	-1.2243	-1.9547	-2.4589	-2.2875	-1.5417	-0.5447	0.2569	1.2240	1.1204	0.7579	0.4186	0.2881	0.1651	-0.3549	-1.3267	-2.1534	-2.3771	-1.9862	-1.2830	-0.6969	-0.2752	-0.2599	-0.8809	-1.6905	-2.1545	-1.7764	-0.9081	-0.0811	0.3357	0.7536	0.7758	0.7620	0.8802	1.0880	1.0542	0.3998	-0.6644	-1.5130	-1.7991	-1.6565	-1.3371	-0.9907	-0.7212	-0.7747	-1.3620	-1.8157	-1.7483	-1.0013	-0.1773	0.2219	0.1033	-0.5553	-0.4038	-0.1140	0.4153	0.9868	1.2430	0.9379	0.3498	-0.1420	-0.4660	-0.8041	-1.1886	-1.4115	-1.5299	-1.6741	-1.9811	-1.8944	-1.3046	-0.4651	0.0183	-0.0699	-0.5274	-1.3567	-1.2580	-0.9442	-0.3518	0.2755	0.6884	0.8558	0.9371	1.0037	0.7837	0.0792	-0.8400	-1.5626	-1.9786	-2.1446	-2.1394	-1.7358	-1.0046	-0.4038	-0.3489	-0.7148	-1.1873	-1.0060	-1.1558	-1.1260	-0.8522	-0.4850	-0.1774	0.1529	0.5600	0.9731	0.9839	0.3674	-0.5216	-1.2395	-1.5382	-1.5299	-1.3894	-1.1844	-0.9047	-0.7526	-0.9238	-1.2371	-1.5493	-0.2460	-0.7714	-1.1128	-1.1716	-1.0561	-0.9161	-0.7019	-0.3434	0.0700	0.2678	0.0567	-0.2791	-0.4501	-0.2909	-0.0633	-0.1010	-0.4613	-0.8733	-1.0960	-1.2331	-1.3182	-1.4611	0.1074	-0.7469	-1.3137	-1.4684	-1.3706	-1.2725	-1.2004	-0.9680	-0.6853	-0.3602	-0.1692	0.0886	0.4568	0.9154	1.1291	0.7418	-0.0584	-0.8327	-1.1496	-1.1765	-1.1384	-1.1730	-0.1219	-1.0483	-1.5171	-1.6055	-1.5396	-1.5701	-1.6411	-1.3956	-0.9880	-0.3667	0.1566	0.6427	0.9975	1.1754	1.0158	0.3430	-0.4438	-0.9758	-1.0856	-1.0125	-0.9443	-0.8713	-0.5394	-1.3226	-1.5034	-1.4937	-1.6134	-1.9143	-2.1061	-1.7177	-0.9315	0.0547	0.6938	0.9377	0.8134	0.4036	-0.2136	-1.0170	-1.5118	-1.5113	-1.2479	-0.9844	-0.7714	-0.5375	-0.8248	-1.4487	-1.4280	-1.3644	-1.6776	-2.2002	-2.4042	-1.8395	-0.7857	0.2484	0.6918	0.5778	0.1424	-0.4982	-1.3040	-2.1090	-2.3687	-2.0012	-1.4082	-0.9353	-0.5585	-0.2727	-0.7515	-1.3573	-1.3850	-1.3809	-1.7223	-2.1388	-2.0279	-1.2705	-0.3713	0.1353	0.0727	-0.1945	-0.4289	-0.7321	-1.3336	-2.0312	-2.2630	-1.9289	-1.2632	-0.6466	-0.1995	-0.0022	-0.1870	-0.8060	-1.0267	-1.2024	-1.4401	-1.4674	-0.8736	-0.0267	0.3555	0.0201	-0.6299	-0.8882	-0.7089	-0.4847	-0.6850	-1.0952	-1.3212	-1.2781	-0.9171	-0.3950	0.0165	0.1887	0.7454	0.1443	-0.3861	-0.9321	-1.1567	-0.7890	0.1400	0.8888	0.7551	-0.1122	-0.9606	-1.0774	-0.6418	-0.1171	0.0569	0.0520	-0.0744	-0.3322	-0.5012	-0.3803	-0.1205	0.0640	-0.8547	-0.0326	0.7076	1.5095	1.9569	1.9796	2.0583	2.1639	2.1236	1.9089	1.5562	0.9108	0.0539	-0.8307	-1.9667	-3.1282	-3.9687	-4.2110	-3.5879	-1.9670	0.0854	1.5709	0.6301	1.2864	1.5012	1.6641	1.7329	1.6321	1.6284	1.6880	1.5760	1.2371	0.7676	-0.0576	-1.1732	-2.2263	-3.2352	-3.9854	-4.4074	-4.4791	-3.9877	-2.4801	-0.0702	2.0305	1.6796	1.7876	1.3818	1.0598	1.0978	1.1931	1.1697	1.0321	0.8230	0.5146	0.1649	-0.5295	-1.5721	-2.5261	-3.1755	-3.3646	-3.2532	-3.1088	-2.8833	-1.9793	-0.0143	2.0903	1.8546	1.4743	0.7423	0.2792	0.4667	0.8078	0.7760	0.4627	0.3102	0.3248	0.3686	0.0694	-0.6494	-1.3459	-1.6641	-1.5127	-1.0951	-0.8801	-1.0301	-1.0357	-0.1617	1.3365	1.2003	0.7519	0.1575	-0.1439	0.1661	0.5637	0.4836	0.0797	0.0472	0.4431	0.9285	1.1260	0.8613	0.4416	0.1654	0.1970	0.4927	0.6339	0.2437	-0.4443	-0.6746	-0.1190	-0.0161	-0.2355	-0.4149	-0.3902	-0.0026	0.3656	0.2921	-0.0557	0.0085	0.6159	1.3388	1.8602	1.9360	1.6677	1.2055	0.8091	0.7013	0.7125	0.3101	-0.6306	-1.5797	-1.8854	-1.1921	-1.1715	-0.9741	-0.6783	-0.2646	0.0370	0.0531	-0.0753	0.0577	0.6065	1.2240	1.7271	1.8684	1.5678	0.8719	0.1810	-0.1567	-0.1411	-0.3944	-1.3072	-2.5832	-3.5201	-1.7915	-1.7201	-1.3709	-1.0069	-0.6704	-0.4515	-0.2960	-0.1325	0.0738	0.4102	0.6849	0.9096	0.9161	0.5659	-0.1027	-0.6659	-0.8958	-0.8382	-1.1084	-2.0323	-3.3692	-4.5586	-1.2918	-1.4017	-1.2430	-1.1506	-1.1516	-1.1303	-0.8625	-0.3835	-0.0430	0.0895	0.0459	0.0783	0.0688	-0.1310	-0.4974	-0.6740	-0.7157	-0.8155	-1.4120	-2.5218	-3.7452	-4.7809	0.1045	-0.4217	-0.7167	-1.0710	-1.4947	-1.7527	-1.4804	-0.8287	-0.3664	-0.2457	-0.2662	-0.0364	0.2535	0.3709	0.2759	0.2241	0.0305	-0.5101	-1.4598	-2.6008	-3.4258	-3.9863	1.2265	0.1769	-0.5857	-1.3050	-2.0193	-2.4602	-2.1760	-1.3729	-0.7166	-0.3499	-0.0059	0.6454	1.2379	1.4233	1.1801	0.7962	0.2211	-0.6834	-1.6262	-2.3863	-2.5649	-2.5299	1.0831	-0.2840	-1.2021	-1.9111	-2.5622	-3.0134	-2.7425	-1.8366	-0.9050	-0.0668	0.8061	1.7856	2.3930	2.2118	1.3685	0.3539	-0.5497	-1.3807	-1.8110	-1.8482	-1.4245	-1.0586	-0.3751	-1.6279	-2.2546	-2.5743	-2.8456	-3.0968	-2.8166	-1.9017	-0.7772	0.4100	1.6166	2.6339	2.9385	2.1534	0.6521	-0.7817	-1.6101	-1.9134	-1.6641	-1.0960	-0.3928	-0.0737	-1.9650	-2.7089	-2.7796	-2.5725	-2.4145	-2.4416	-2.1787	-1.4136	-0.3851	0.7165	1.7984	2.5584	2.4766	1.2804	-0.4701	-1.7262	-2.0156	-1.6237	-0.9690	-0.3173	0.1990	0.2165	-2.5674	-2.6014	-2.1861	-1.6900	-1.3379	-1.2331	-1.0232	-0.5950	-0.0420	0.4764	1.0165	1.4343	1.2411	0.2280	-1.0944	-1.6466	-1.2430	-0.4194	0.1911	0.4692	0.5028	0.0931	-1.9412	-1.4329	-0.8589	-0.4089	-0.0777	0.0727	0.1674	0.1093	-0.1224	-0.4701	-0.5736	-0.2547	-0.0138	-0.2385	-0.7490	-0.6003	0.1877	0.9718	1.1821	0.8779	0.3570	-0.4294	-0.7389	-0.0732	0.3211	0.5291	0.7835	0.9869	0.9789	0.4538	-0.5567	-1.6267	-2.0634	-1.4716	-0.4779	0.2083	0.3622	0.7416	1.3624	1.7166	1.4663	0.7680	-0.0738	-1.0353	0.2558	0.6984	0.7348	0.7074	0.9699	1.3002	1.2022	0.2996	-1.2334	-2.5897	-2.8977	-1.8218	-0.1914	1.0388	1.4189	1.4799	1.5257	1.3986	0.9286	0.1857	-0.6377	-1.4955	0.8293	0.9464	0.6220	0.3663	0.6069	1.0053	0.8677	-0.1755	-1.7373	-2.9039	-2.8743	-1.5225	0.2240	1.4090	1.6337	1.2232	0.6670	0.2305	-0.1516	-0.5493	-0.9430	-1.4013	0.8247	0.7033	0.1463	-0.2652	-0.0935	0.3055	0.1912	-0.7190	-1.8485	-2.5337	-2.2900	-1.1335	0.2143	1.0221	1.0374	0.3901	-0.4154	-0.8284	-0.8518	-0.7175	-0.5254	-0.5168	0.3557	0.2444	-0.3149	-0.7523	-0.7072	-0.4095	-0.3876	-0.8876	-1.3600	-1.5527	-1.3719	-0.8230	-0.1460	0.2675	0.2261	-0.3024	-0.9185	-1.0172	-0.5507	0.0803	0.6722	0.9179	-0.5019	-0.3364	-0.5821	-0.8269	-0.8228	-0.6839	-0.5418	-0.5913	-0.5308	-0.4493	-0.5164	-0.6040	-0.4869	-0.2636	-0.2281	-0.4708	-0.6401	-0.1970	0.8171	1.7648	2.3041	2.3160	1.8330	0.8579	-0.4851	-0.4446	0.6055	0.9482	0.5087	0.4009	0.7704	0.9143	0.4286	-0.7246	-1.7782	-1.7008	-0.9011	-0.4389	-0.7045	-1.2806	-1.4964	-0.8518	0.4207	1.6433	1.3050	0.1446	-0.9394	-0.5697	0.4515	0.4973	-0.2026	-0.3423	0.1266	0.3459	0.0526	-0.6258	-1.1848	-0.9535	-0.2191	0.3008	0.5394	0.5789	0.0748	-0.6203	-0.5739	0.4482	0.3533	0.0315	-0.4184	-0.1224	0.4343	0.1934	-0.5798	-0.7234	-0.3197	-0.0461	0.0901	0.1481	0.1434	0.3295	0.6286	0.8678	1.2984	1.6701	0.9439	-0.5407	-1.2568	-0.6124	-0.5975	-0.0603	0.0776	0.2345	0.4123	0.1956	-0.2351	-0.2944	-0.2216	-0.0688	0.5108	1.1618	1.4220	1.3814	1.0999	0.7016	0.7772	1.2138	0.8716	-0.2607	-1.0426	-0.8835	-1.1909	-0.4144	-0.0409	-0.0239	0.1046	0.3832	0.5211	0.3554	-0.1459	-0.1915	0.6276	1.4633	1.6373	1.3555	0.7480	-0.0051	-0.1857	0.3385	0.5554	0.1334	-0.3828	-0.6186	-1.1615	-0.7350	-0.5760	-0.6284	-0.2358	0.6356	1.0982	0.6636	-0.2360	-0.3709	0.3453	0.7868	0.5070	0.0994	-0.1642	-0.3821	-0.2633	0.3287	0.6773	0.4988	0.1192	-0.2209	-0.5632	-0.5609	-0.7587	-0.9344	-0.4413	0.5826	1.0533	0.6353	-0.1201	-0.2854	-0.1064	-0.4199	-1.1395	-1.3633	-0.8720	-0.1834	0.4075	0.9130	0.9824	0.6372	0.3815	0.2392	0.1522	-0.0880	-0.4753	-0.7994	-0.5655	0.1146	0.4613	0.2935	-0.0644	-0.1633	-0.3612	-1.0014	-1.7326	-1.6906	-0.8846	-0.0967	0.3633	0.7016	0.7259	0.4413	0.4531	0.7046	0.3096	-0.1909	-0.6220	-0.8941	-0.8706	-0.6823	-0.5707	-0.4900	-0.3678	-0.1260	-0.1691	-0.4470	-0.7106	-0.6766	-0.6277	-0.9019	-1.0572	-0.6444	-0.1248	0.1265	0.5704	1.1154	-0.2223	-0.9710	-1.2627	-1.2032	-1.1671	-1.4245	-1.6970	-1.4170	-0.6864	0.1209	0.4877	0.6812	0.7933	0.4501	-0.6763	-2.0102	-2.4054	-1.5627	-0.5052	0.1516	0.7298	1.2380	-0.9988	-1.5479	-1.3717	-0.8914	-0.8693	-1.5923	-2.2667	-1.7420	-0.4742	0.5072	0.9027	1.2664	1.4884	0.6851	-1.1815	-2.6030	-2.4388	-1.0588	0.0635	0.5056	0.7265	1.0015	-1.3244	-1.2199	-0.4646	0.3477	0.3680	-0.6646	-1.5696	-1.0114	0.1722	0.6454	0.5666	0.7125	0.7605	-0.2255	-1.9112	-2.4318	-1.3891	0.1909	0.8624	0.6658	0.3989	0.5159	-1.3292	-0.4820	0.6832	1.6501	1.7408	0.7840	0.0112	0.3504	0.7629	0.2422	-0.5385	-0.7050	-0.7589	-1.5141	-2.3964	-1.7664	-0.0815	1.2423	1.2152	0.4782	0.0633	0.2152	-1.1545	-0.1567	0.9056	1.8660	2.1686	1.6834	1.3078	1.4296	1.0907	-0.2397	-1.6078	-1.9557	-1.7734	-1.9178	-2.0295	-0.8999	0.7271	1.5492	1.0849	0.1719	-0.2437	-0.1816	-0.9095	-0.2585	0.3841	1.0839	1.5144	1.5686	1.5979	1.6306	1.0080	-0.4678	-1.7725	-1.7926	-1.0854	-0.7629	-0.8700	-0.3377	0.6466	1.1478	0.7443	-0.0447	-0.5562	-0.7210	-0.7145	-0.4744	-0.1364	0.3168	0.7787	1.0075	1.0014	0.8607	0.3024	-0.6733	-1.1434	-0.3741	0.8256	1.0565	0.0873	-0.6299	-0.3452	0.2555	0.2057	-0.4458	-1.0503	-1.1316	-0.6356	-0.5010	-0.2911	-0.0609	0.2839	0.4171	0.2050	-0.1118	-0.4658	-0.7488	-0.3189	0.9572	2.1479	1.9451	0.2396	-1.2459	-1.2659	-0.5200	-0.4097	-0.9147	-1.2551	-0.9059	-0.6201	-0.3712	-0.3725	-0.4671	-0.3320	-0.2002	-0.3147	-0.5025	-0.5658	-0.5120	0.0195	1.0133	1.8556	1.4853	-0.1428	-1.5062	-1.4627	-0.7118	-0.5388	-0.7321	-0.5966	-0.0042	-0.5487	-0.2352	-0.5231	-1.0196	-1.1556	-0.8470	-0.3652	-0.0013	0.2087	0.0653	-0.0876	0.1888	0.6508	0.3396	-0.7859	-1.4487	-1.0010	-0.2765	-0.0442	0.1449	0.5876	0.9846	-0.5809	-0.2125	-0.5996	-1.3122	-1.5820	-0.9749	0.1354	0.8637	0.9562	0.4505	-0.1527	-0.3050	-0.1872	-0.5473	-1.3308	-1.4401	-0.5968	0.3131	0.8251	1.2530	1.4842	1.4244	-0.5689	-0.0770	-0.3446	-1.0361	-1.2586	-0.4576	0.7334	1.0903	0.5927	-0.0148	-0.2510	-0.1554	-0.1676	-0.6843	-1.3744	-1.3219	-0.4450	0.6332	1.5239	2.0490	1.7878	1.1423	-0.2870	0.1061	-0.1720	-0.6817	-0.5763	0.3581	1.0395	0.5178	-0.5219	-0.8866	-0.4756	0.0735	0.2357	-0.0834	-0.5184	-0.5552	-0.2221	0.5578	1.6178	2.1629	1.5005	0.2843	0.5235	-0.0484	-0.6631	-0.6969	-0.1620	0.4084	0.4765	0.0502	-0.2868	-0.2389	-0.0238	-0.0808	-0.3275	-0.3254	0.1442	0.6634	0.8801	1.1611	2.1110	3.2101	2.8581	1.0615	0.3155	-0.1981	-0.5462	-0.0690	0.6080	0.6969	0.2457	-0.1284	-0.1248	0.0253	-0.0972	-0.5515	-0.8504	-0.5470	0.1468	0.5684	0.3408	0.0727	0.4174	1.3482	1.6983	0.8093	0.1259	-0.0488	-0.1180	0.4620	0.9978	0.6035	-0.2891	-0.4686	-0.0652	0.0506	-0.4659	-1.2974	-1.7618	-1.4915	-0.8321	-0.4571	-0.6828	-1.0545	-1.2336	-0.7970	0.1294	0.6680	-0.0588	0.0818	0.1816	0.5608	0.8297	0.2640	-0.5696	-0.4537	0.1099	0.0453	-0.6484	-1.5482	-2.1621	-2.2184	-1.8258	-1.4746	-1.3835	-1.4229	-1.7118	-1.7771	-0.9840	0.3732	-0.0049	0.4007	0.5375	0.4869	0.3563	-0.0712	-0.4662	-0.2842	0.0260	-0.1263	-0.5049	-0.9690	-1.4653	-1.7659	-1.6256	-1.1794	-0.6287	-0.2772	-0.7224	-1.5139	-1.5144	-0.1971	0.4555	1.1107	1.2071	0.7100	0.1634	-0.0474	-0.0187	0.0276	-0.0264	-0.1309	0.0176	0.1512	-0.0494	-0.2963	-0.1412	0.5119	1.2869	1.6159	0.8083	-0.6505	-1.4024	-0.4855	0.9365	1.7065	1.7677	1.0316	0.3134	0.3160	0.6158	0.4973	0.0954	-0.0967	0.2900	0.7578	0.8428	0.9017	1.3608	2.0963	2.5244	2.3203	1.2951	-0.1590	-0.9349	-0.2050	0.4265	1.0850	1.1562	0.5499	0.1203	0.4795	1.0584	0.9004	0.1842	-0.2287	0.1213	0.6476	0.8283	1.0034	1.5183	1.8701	1.5077	0.7359	0.0497	-0.5057	-0.6249	0.1203	-1.3333	-0.9234	-0.8086	-0.9388	-0.6361	0.2986	1.1508	1.0286	0.1879	-0.2848	-0.0529	0.2619	0.2989	0.3304	0.5411	0.2932	-0.5791	-1.2992	-1.2981	-0.8335	-0.3157	0.2999	-2.7472	-2.5137	-2.2911	-1.9484	-1.1492	0.0687	0.9231	0.8633	0.3174	0.0538	0.1169	0.0456	-0.1757	-0.3106	-0.3950	-0.8992	-1.5967	-1.7071	-1.1881	-0.4193	0.0830	0.2777	-2.2881	-2.0495	-1.7438	-1.3148	-0.6951	0.1347	0.6361	0.6961	0.7209	0.6575	0.3617	-0.1318	-0.5258	-0.6973	-0.8591	-1.1364	-1.2339	-0.7265	-0.0790	0.3347	0.3619	0.2368	-0.5505	-0.1744	0.1006	0.2576	0.2817	0.2878	0.2290	0.3667	0.7828	0.7591	0.1812	-0.5188	-0.9468	-1.0674	-1.1077	-0.8461	-0.3045	0.4623	0.9134	0.8189	0.4405	0.3072	0.6860	1.0888	1.1943	1.1182	0.7869	0.2216	-0.2281	-0.0727	0.3960	0.3438	-0.2691	-0.9571	-1.2732	-1.2460	-0.9914	-0.2617	0.5741	1.1015	1.1334	0.7619	0.3852	0.4412	0.7878	0.9094	0.7341	0.6762	0.4920	-0.0030	-0.4279	-0.2746	0.1368	0.1821	-0.2634	-0.8471	-1.1187	-1.0222	-0.5611	0.2508	0.8545	0.8620	0.5298	0.2515	0.1964	0.3924	0.4475	0.1415	-0.1965	-0.0923	0.0905	-0.0489	-0.3723	-0.3845	-0.0698	0.1712	0.0956	-0.1478	-0.3737	-0.4730	-0.2727	0.1131	0.2501	-0.0059	-0.3533	-0.4109	-0.2127	0.0718	0.2100	-0.2968	-0.5304	-0.2421	0.1529	0.0665	-0.5405	-0.9635	-0.7288	-0.1610	0.3723	0.6553	0.5007	-0.0263	-0.4852	-0.7010	-0.7819	-0.8167	-0.9006	-0.9163	-0.7368	-0.2911	-0.1088	-0.4534	-0.3450	0.1725	0.6167	0.3075	-0.7631	-1.6169	-1.4455	-0.5354	0.4922	1.0722	0.9878	0.2882	-0.5843	-1.1649	-1.1467	-0.7591	-0.5711	-0.7075	-0.6932	-0.1397	-0.4267	-0.5466	-0.1452	0.5703	0.9884	0.4419	-0.8548	-1.7613	-1.5209	-0.4681	0.5342	1.0086	1.1008	0.7689	-0.0082	-0.6704	-0.4805	0.1863	0.4597	0.1488	-0.0680	0.3472	-0.3950	-0.5228	-0.0269	0.7469	1.0816	0.4498	-0.6078	-1.0714	-0.6856	0.0467	0.4918	0.7246	1.0744	1.2309	0.6439	-0.0959	0.1151	0.8594	1.1400	0.8644	0.5052	0.5694	-0.0705	-0.2106	0.2478	0.7686	0.7913	0.2105	-0.2993	-0.1940	0.1481	0.1979	0.0373	0.2139	0.7656	1.0946	0.6033	-0.1256	0.0138	0.6831	0.9322	0.8245	0.4639	0.1695	0.4745	0.3509	0.5112	0.3747	-0.1470	-0.5399	-0.4355	-0.0184	0.0630	-0.4283	-0.8075	-0.4671	0.2588	0.5529	0.1587	-0.2841	-0.0938	0.3615	0.3963	0.2126	-0.0796	-0.5144	1.1359	0.9893	0.5792	-0.3007	-1.1952	-1.1872	-0.4836	-0.0258	-0.2661	-0.9370	-1.2680	-0.9002	-0.2160	0.0066	-0.1976	-0.2173	0.0986	0.2998	0.0650	-0.3757	-0.6702	-1.0066	0.6731	-0.0582	-0.3659	-0.4544	-0.2754	0.3661	0.2953	-0.6671	-0.6050	0.0559	0.0987	-0.3612	-0.8072	-1.0712	-1.2884	-1.3103	-1.1828	-0.2369	1.6367	1.3731	-1.2691	-2.4032	-0.4049	-0.3462	0.6482	1.3295	0.7672	0.4724	0.4639	-0.1804	-0.3498	-0.1431	-0.4162	-0.7157	-0.3845	-0.2247	-0.7720	-1.5033	-1.9482	-1.2106	1.1390	2.4875	0.5786	-2.3894	-1.2295	-0.7840	0.9271	2.2159	1.4185	0.0912	0.0472	0.5331	0.7131	0.3852	-0.2751	-0.4985	0.2263	0.6826	0.0796	-1.0115	-2.0357	-2.4735	-1.3285	1.0893	1.9807	-0.1696	-0.8440	-1.1239	0.1404	1.6504	1.2772	-0.2358	-0.1872	1.0822	1.4399	0.6354	-0.1625	-0.1942	0.6247	1.3055	0.9642	-0.0715	-1.3651	-2.7513	-2.9668	-0.8435	1.8365	1.9773	0.6893	-0.5900	-0.7283	0.2449	0.5950	0.0798	0.3856	1.3962	1.4942	0.5707	-0.1650	-0.2796	0.0737	0.5107	0.5900	0.5728	0.1844	-1.2545	-2.4973	-1.7846	0.4723	2.1584	1.8375	0.6075	-0.5903	-0.6263	-0.0444	0.3090	0.5244	0.9350	1.2211	1.0161	0.5507	-0.1574	-0.8491	-1.1832	-1.0358	0.1532	1.3286	0.6221	-1.2011	-2.0197	-1.0542	0.7892	1.2736	1.0063	-0.0298	-0.5592	-0.1857	0.3013	0.1800	0.0904	0.6724	1.3171	1.3132	0.4066	-0.8142	-1.5630	-1.5943	-0.4762	0.8487	0.7313	-0.7230	-1.9545	-1.7890	-0.6373	0.1270	0.2911	-0.3186	-0.7015	-0.3647	0.0922	-0.0269	-0.4819	-0.1565	0.8588	1.4977	1.2672	0.5690	0.2252	0.1520	-0.0236	-0.3356	-0.6945	-1.1683	-1.6738	-1.7567	-1.2918	-0.0218	-0.3293	-1.0840	-1.2847	-0.7487	-0.1936	-0.1777	-0.9229	-1.0014	0.2640	1.5246	1.9891	1.9264	2.0285	1.8914	0.6223	-0.9335	-1.6250	-1.3801	-0.9042	-1.0085	-1.2637	0.4465	-0.1076	-0.8641	-1.1669	-0.7150	-0.2205	-0.4215	-1.3608	-1.4347	-0.0360	1.3595	1.8853	1.9043	2.0466	1.7954	0.5140	-0.5197	-0.8172	-0.5459	0.0585	-0.2078	-1.2538	0.3780	0.2665	0.1262	-0.2972	-0.2637	-0.0190	-0.3891	-1.1757	-1.1774	-0.2437	0.7319	1.0560	0.9813	0.9733	0.7839	0.1920	0.1796	0.4810	0.4478	0.3622	-0.1037	-1.3521	-0.4627	-0.0573	0.3824	0.0752	-0.0548	0.2001	0.3770	0.1516	-0.2575	-0.4271	-0.1992	-0.0105	-0.0289	-0.1350	-0.0296	0.2065	0.7042	1.0894	0.7475	0.0078	-0.3298	-0.9254	-0.8078	-0.4633	-0.2012	-0.4759	-0.6810	-0.3358	0.8162	1.5030	0.9054	-0.0333	-0.5326	-0.6726	-0.7681	-0.8618	-0.3277	0.6374	1.1347	0.9974	0.4137	-0.4301	-0.4573	-0.3428	-0.2218	-0.3311	-0.4843	-0.9532	-1.5619	-1.4834	-0.0381	1.1435	1.0991	0.5836	0.0660	-0.3712	-0.6553	-0.5467	0.2159	0.9742	0.7460	0.0303	-0.2187	-0.2495	-0.0513	-0.1796	0.3102	-0.2325	-0.2262	-0.5011	-1.2233	-1.5662	-0.9587	-0.2667	-0.0054	0.1631	0.4314	0.4361	0.2327	0.4633	1.0470	0.9640	-0.1325	-1.0110	-0.6310	0.1975	0.3849	-0.4019	0.2218	-0.4381	0.0486	0.4312	0.1208	-0.5050	-0.9241	-0.9974	-1.1091	-0.9019	0.1412	0.9984	0.9535	0.8966	1.3434	1.1493	-0.0731	-0.9685	-0.6627	0.0764	0.2798	-0.3711	-0.0445	-0.3060	0.2298	0.7908	0.7835	0.2279	-0.4316	-0.6513	-0.8326	-0.7447	0.1030	0.7406	0.3594	-0.1116	0.4985	1.2013	0.8009	0.0200	-0.3441	-0.2961	0.0650	0.1015	-0.2533	0.1919	0.5980	0.8210	0.5421	-0.1127	-0.5060	-0.1830	0.3884	0.6821	0.4887	-0.0897	-0.8914	-1.5800	-1.0621	0.5200	1.4668	1.1710	0.1574	-0.4703	0.0531	0.6130	-0.5666	0.2928	0.8062	0.9394	0.2431	-0.8688	-1.1261	-0.2637	0.8760	1.3509	0.8436	-0.0621	-0.8025	-1.5732	-1.8195	-0.6187	1.1019	1.5534	0.6520	-0.1756	0.0494	0.5155	-1.2584	-0.3675	0.4831	0.9790	0.4636	-0.7040	-1.0302	-0.3755	0.0561	0.0499	0.3261	0.6946	0.5735	-0.2158	-1.2431	-1.2313	0.1831	1.1701	1.0726	0.6373	0.2104	-0.0102	-1.6843	-0.8680	0.0054	0.6188	0.8376	0.5926	0.2903	0.0625	-0.7955	-1.7288	-1.0199	0.6823	1.3787	0.8474	-0.1133	-0.5790	0.0020	0.5501	0.8167	1.0993	0.7558	0.0995	-1.3430	-1.0427	-0.7341	-0.4746	0.2749	1.2600	1.3275	0.5484	-0.5611	-1.6334	-1.3431	0.1829	1.0451	0.8111	0.4799	0.6133	0.8370	0.4576	0.0666	0.3632	0.8043	0.5784	-0.6933	-0.7930	-1.5260	-1.1817	0.4591	1.2305	0.3706	-0.4607	-0.5294	-0.2531	-0.2554	-0.4369	-0.6450	-0.1443	0.9403	1.3514	0.8552	0.5230	0.6769	0.6881	0.1833	-0.1350	-1.6248	-1.0610	-0.7120	0.1850	1.3139	1.2066	-0.0176	-0.4548	-0.0102	0.1130	-0.3024	-0.4090	-0.2241	0.3589	1.0966	1.0410	0.5924	0.8069	0.9274	0.1486	-0.7860	-0.4996	-0.9697	0.2666	0.7988	0.9345	0.8556	0.2159	-0.5258	-0.1589	0.4987	0.2109	-0.3833	-0.1730	0.3057	0.6848	0.9373	0.6309	0.3887	0.9151	0.9457	-0.2786	-1.3131	-0.5283	0.4066	1.6704	1.8115	0.9229	-0.1673	-0.7137	-0.4241	0.5284	0.6667	-0.3052	-0.7940	-0.1943	0.2678	0.1459	-0.0407	-0.3623	-0.3418	0.5310	1.1748	0.4320	-0.7182	-0.3671	0.9327	1.8404	1.8100	0.4772	-0.9175	-0.9191	0.1479	0.8800	0.0656	-1.2846	-1.4029	-0.6663	-0.5346	-1.1341	-1.4604	-1.4804	-1.0934	0.0385	1.2200	1.1055	0.0201	-0.2452	0.4640	0.9551	1.0169	-0.0428	-1.0921	-0.6868	0.3020	0.3953	-0.8666	-1.8970	-1.5568	-0.9098	-1.0901	-1.7499	-1.6768	-1.1581	-0.8010	-0.2254	0.6451	0.8049	0.1414	-0.2691	0.1145	0.1888	0.2483	-0.2734	-0.7105	-0.1749	0.2917	-0.1258	-1.2717	-1.8695	-1.4403	-1.0240	-1.0632	-0.9087	0.0859	0.7680	0.2323	-0.3901	-0.1659	0.2094	0.2857	0.3090	0.7193	0.3124	0.0862	-0.0951	-0.0961	0.4025	0.4610	-0.2413	-1.2001	-1.5296	-1.2168	-0.9103	-0.5943	0.4067	1.8978	2.0702	0.4991	-0.7741	-0.5583	0.1782	0.6489	1.0195	1.1553	0.5535	0.1585	0.2765	0.6392	0.9838	0.4910	-0.5244	-1.0966	-0.8688	-0.6484	-0.6789	-0.3575	0.7387	1.6751	0.9709	-0.6097	-1.0328	-0.0682	0.8614	1.0223	1.2024	0.3637	0.0279	-0.1034	0.4331	1.1339	1.3084	0.2381	-0.8073	-0.6741	0.0640	-0.0968	-0.8374	-0.8997	-0.1900	-0.0072	-0.8758	-1.3413	-0.3165	1.0895	1.5398	0.8534	0.6432	-0.6134	-0.6008	-0.4517	0.2927	1.0781	1.0468	-0.2432	-0.7135	0.2858	1.0531	0.1201	-1.2480	-1.4448	-0.8781	-0.9504	-1.3135	-0.6985	0.9348	1.8495	1.2999	-0.0828	-0.2044	-0.3447	-0.3146	-0.4790	-0.0791	0.5688	0.4675	-0.5201	-0.3728	0.8817	1.2619	-0.1049	-1.4391	-1.4136	-0.7027	-0.5889	-0.3962	0.3462	1.2474	1.1279	0.0256	-1.0833	-0.4494	0.7301	0.4027	-0.3588	-0.4836	-0.0924	-0.1848	-0.7988	-0.5382	0.3404	0.4245	-0.7413	-1.4817	-0.9426	0.1247	0.5241	0.7073	0.7244	0.4748	-0.2947	-1.1073	-1.2616	0.0773	1.1365	0.4414	-0.6352	-0.9012	-0.5278	-0.4369	-0.9847	-1.1747	-0.8071	-0.7155	-1.3581	-1.4312	-0.2686	1.3017	1.8274	1.3046	0.2325	-0.6576	-1.0996	-1.0246	-0.5490	0.6482	0.2052	-0.5051	-1.1393	-1.0163	-0.4091	-0.0961	-0.6786	-1.2084	-1.1366	-1.0219	-1.2982	-1.0011	0.4215	2.0344	2.2302	0.8528	-0.6794	-1.1181	-0.6818	-0.1045	0.2009	0.9011	-1.1427	-1.3246	-1.0612	-0.4950	0.1413	0.3409	-0.2851	-0.6950	-0.4556	-0.1972	-0.4166	-0.4956	0.2919	1.3293	1.0584	-0.5422	-1.5611	-0.8565	0.2750	0.6381	0.3851	0.9215	-1.8621	-1.2281	-0.2498	0.3076	0.4427	0.1195	-0.4867	-0.4002	0.4396	1.0060	0.4776	-0.6441	-0.9190	-0.4013	-0.6834	-1.8147	-1.9556	-0.4473	0.7031	0.6839	0.3770	1.1536	-1.6527	-0.4676	0.6165	0.7763	0.1846	-0.6140	-0.9016	-0.1361	1.1621	1.5405	0.2481	-1.6832	-2.2477	-1.4923	-1.2354	-1.6885	-1.3974	-0.0866	0.5908	0.5427	0.6469	1.3806	-1.0358	0.1288	0.9636	0.7204	-0.3604	-1.2281	-0.8560	0.4860	1.5249	1.0222	-0.9235	-2.5639	-2.3208	-0.9299	-0.3072	-0.4239	-0.1675	0.3176	0.3139	0.3930	0.7949	1.2481	-0.4235	0.6181	1.2112	0.5920	-0.6678	-1.0602	0.1410	1.5477	1.5207	0.0224	-1.7763	-2.3778	-1.4776	-0.0885	0.5168	0.6302	0.8008	0.5566	0.0323	0.2181	0.5716	0.8120	0.1492	1.2084	1.5387	0.5219	-0.7260	-0.5685	0.9115	1.7593	0.7935	-0.7720	-1.5733	-1.2924	-0.6328	-0.0672	0.3469	0.9595	1.3007	0.6410	-0.2763	-0.1921	0.0955	0.4317	0.6295	1.5128	1.3685	0.0589	-0.9679	-0.4446	0.5994	0.5866	-0.4851	-1.0100	-0.5292	0.0135	-0.1507	-0.4346	-0.0099	1.0838	1.3941	0.3868	-0.6395	-0.5011	-0.0158	0.2943	0.4211	-0.6179	-0.1820	0.3005	0.0114	0.1654	0.8413	0.7196	0.1777	0.2577	0.0700	-0.5756	-0.2459	0.5834	0.8846	0.8723	0.2283	-1.3879	-1.5079	0.6449	2.0285	0.8520	-0.5411	-1.9025	-0.9609	0.5759	0.7596	0.3332	0.4479	0.3749	0.2278	0.6235	0.2424	-0.9718	-0.9286	0.0290	0.4549	0.5603	0.4111	-0.9915	-1.9283	-0.7476	1.0372	1.2537	-0.5435	-1.5336	-0.7280	0.7416	0.9183	0.0442	-0.4295	-0.4436	0.0203	0.7592	0.4225	-0.7339	-0.8277	-0.2036	-0.1380	0.0721	0.6713	-0.0111	-1.4667	-1.8324	-0.8665	0.3232	0.3656	-0.0875	0.0863	0.7676	0.6058	-0.4485	-1.0247	-0.7389	0.1113	0.9108	0.7686	0.1311	0.3142	0.7029	0.2659	0.2927	1.1345	0.9590	-0.3324	-1.2279	-1.3097	-0.7509	0.9508	0.9940	0.7991	0.7930	0.3169	-0.5713	-0.7421	-0.1412	0.5366	0.8768	0.7586	0.5722	0.9932	1.1886	0.3120	0.0177	0.9911	1.3954	0.7842	0.3888	-0.1203	-0.9048	0.7545	1.0841	1.0312	0.9956	0.6749	0.0499	-0.1031	0.0768	0.2711	0.4026	0.4952	0.6281	1.0688	1.1267	0.0580	-0.5585	0.3531	1.0665	0.8602	0.8708	0.6072	-0.6382	-0.0799	-0.0781	-0.0549	0.3490	0.6737	0.4412	0.2020	-0.0380	-0.2309	-0.2580	-0.1868	-0.0435	0.2701	0.3954	-0.0516	-0.2284	0.2659	0.0852	-0.5231	-0.1845	0.3363	-0.3049	-0.6284	-0.9383	-1.2176	-0.8105	-0.0827	0.1420	0.2758	0.2892	-0.0264	-0.4755	-0.7809	-0.9533	-0.8542	-0.5055	0.0718	0.7999	1.0819	-0.1067	-1.3047	-0.7393	0.3704	0.2456	-0.3371	-0.4457	-0.8782	-0.9812	-0.5645	-0.1200	0.5265	0.7808	0.2188	-0.4234	-0.5406	-0.6600	-0.8389	-0.6547	0.2355	1.1023	1.2619	0.1706	-0.8294	-0.1991	0.9491	0.6990	0.1385	0.3460	0.2520	-0.1049	-0.2841	-0.0561	0.7304	0.8433	0.1785	-0.0370	0.4597	0.5025	-0.1284	-0.6867	-0.4555	-0.1709	-0.0183	-0.0183	-0.0479	0.5509	1.3550	0.7164	-0.0094	0.3996	0.8579	0.6632	0.0095	-0.2190	0.3642	0.3768	-0.0673	0.1843	1.0134	0.9488	-0.1130	-1.2250	-1.3232	-0.9869	-0.5346	0.2604	0.8604	1.1968	1.3517	0.4268	-0.1267	0.3543	0.9671	0.7118	-0.3121	-0.8473	-0.3019	0.0753	-0.0020	0.2353	0.8732	0.6443	-0.4080	-1.3980	-1.1295	-0.1819	0.5665	1.0491	1.1118	0.7610	0.4130	-0.2177	0.4388	0.8353	1.1248	0.5585	-0.5225	-1.0353	-0.3979	0.1945	0.0895	0.1574	0.7546	0.6336	-0.3201	-1.0733	-0.4115	0.9786	1.6267	1.1763	0.4056	-0.2279	-0.4233	-0.5638	1.0401	1.1638	1.2137	0.6479	-0.2090	-0.5362	0.0158	0.1072	-0.7234	-0.8732	0.0726	0.4813	-0.2399	-0.8310	0.1947	1.7490	1.8689	0.4056	-0.8590	-1.0444	-0.4628	-0.2671	1.2134	0.8576	0.7059	0.5155	0.1887	0.2680	0.6441	0.1331	-1.2685	-1.7600	-0.7716	0.1377	-0.0776	-0.5783	0.4216	1.7534	1.3495	-0.5408	-1.5635	-1.1198	-0.1894	-0.1012	0.5999	-0.0734	-0.2335	0.0571	0.2317	0.5872	0.7978	0.2135	-0.9560	-1.4247	-0.5907	0.5438	0.5920	-0.2971	0.0279	1.0598	0.8628	-0.4192	-0.7777	-0.3126	0.0213	-0.2176	-0.0512	-0.6731	-0.5322	0.0995	0.3410	0.4576	0.3029	-0.2337	-0.7163	-0.4180	0.7359	1.6714	1.2184	-0.2842	-0.6433	0.2655	0.5797	0.1730	0.3464	0.4731	0.1476	-0.0979	-0.2204	-0.7346	-0.3176	0.5695	0.8630	0.5846	-0.0548	-0.5982	-0.4201	0.6199	1.8770	2.0435	0.8553	-0.7230	-1.2083	-0.5203	-0.0532	0.0762	0.4844	0.4775	0.1157	0.2172	0.0745	-0.4574	-0.3391	0.5407	1.0850	0.7443	-0.1216	-0.4299	0.1154	0.8154	1.2484	0.8419	-0.2470	-1.0367	-0.8514	-0.2890	-0.1944	-0.1739	0.1697	0.2193	0.0655	0.0843	0.4589	-0.2341	-0.6127	-0.1686	0.2778	0.0731	-0.4722	-0.1768	0.5361	0.2517	-0.4900	-0.7727	-0.8314	-0.6964	0.0282	0.6626	0.5997	0.3236	0.2085	0.0723	0.1107	-0.1064	0.5717	-0.0042	-0.3749	-0.3201	-0.2432	-0.1646	-0.0609	0.5152	1.0913	0.3454	-0.9154	-1.1517	-0.8081	-0.6901	-0.2573	0.4139	0.9562	1.0693	0.4959	-0.3240	-0.4053	-0.2960	0.3349	0.2931	0.2709	0.2924	0.0893	0.1438	0.3950	0.6248	0.8415	0.5199	-0.1141	-0.2200	-0.1725	-0.7394	-1.0555	-0.5817	0.6329	1.5762	0.9958	-0.6492	-1.3144	-0.6881	1.2060	0.2451	-0.2144	1.3696	1.1304	-0.4276	-0.6726	-0.1698	-0.5588	-0.6240	-0.3591	-0.5328	-0.7928	0.1504	0.4514	-0.4092	-0.5377	-0.3823	-0.1909	0.6273	0.6902	-0.9588	0.9621	0.4159	0.0710	1.3717	1.1478	-0.9228	-1.2317	0.4717	0.2112	-0.7450	-0.6731	-0.8419	-1.2142	-0.2623	0.1834	-0.8023	-0.5349	-0.0661	-1.0462	-0.8275	1.1665	1.1993	0.6085	0.0267	-0.5789	0.2584	0.8035	-0.6714	-1.0740	0.8394	0.5846	-0.8075	-0.6604	-0.6047	-1.3501	-0.8488	-0.4171	-1.3710	-0.6703	0.3100	-0.9767	-1.8925	0.1132	2.0603	0.5834	0.0165	-0.9395	-0.7706	0.2357	0.0292	-0.2980	0.5308	-0.1384	-1.1229	-0.3475	0.1313	-0.7325	-0.4858	0.0896	-0.5282	0.2898	1.4096	0.3583	-1.5706	-1.4563	0.6505	0.8834	0.9546	-0.1989	-1.0395	-0.3555	0.6047	0.5813	0.2811	-0.4984	-0.6733	0.3118	0.5760	-0.2953	0.0113	0.9819	0.9171	1.7266	2.6491	1.6518	-0.5848	-1.6036	-0.5588	0.9017	1.9830	1.2421	-0.2549	-0.2255	0.8845	1.0225	0.3402	-0.2742	-0.0045	0.7665	0.6117	-0.3009	-0.0005	1.1362	0.8997	1.0603	1.9719	1.7078	0.2096	-0.5638	-0.3830	-0.0541	1.2853	1.2428	0.1418	0.1425	0.8762	0.9812	0.2764	-0.4284	-0.1309	0.4898	0.3520	-0.2702	0.0007	0.8824	-0.3682	-1.5028	-0.6101	0.3077	0.1595	0.1815	0.2761	-1.4125	-0.6804	-0.4653	-0.7282	-0.1392	0.5136	0.5872	0.1058	-0.6033	-0.4010	0.0684	-0.0419	-0.3482	-0.0525	0.6045	-1.0255	-2.5773	-1.7531	-0.4626	0.2091	0.5836	0.7890	-1.3962	-1.3203	-1.2085	-1.1468	-0.3672	0.2026	-0.0053	-0.0267	-0.0465	0.0286	-0.0386	-0.3992	-0.3550	0.1040	0.5541	-0.4630	-1.0082	-0.1245	0.3236	0.4766	0.7755	1.0849	0.2107	0.0551	0.1589	-0.0414	0.1670	0.2053	-0.4337	0.0426	0.7123	0.4579	-0.1115	-0.3914	0.0459	0.4478	0.4588	0.1080	0.4417	1.3028	0.9927	0.1149	0.3077	1.2407	1.2390	1.0555	1.2161	1.1365	0.9652	0.2382	-0.6546	0.1902	0.7759	-0.0525	-0.8237	-0.5549	0.3578	0.3992	-0.0729	0.0147	0.4072	0.8852	0.7341	-0.3690	-0.1485	1.6548	0.6886	0.3837	0.2735	0.8206	0.9234	-0.0588	-0.6950	0.4378	0.5517	-0.6159	-1.4013	-0.9720	0.1288	0.0321	-0.3125	0.1983	0.3494	0.0902	0.2413	-0.2643	-0.0699	1.9149	-0.1026	-0.6419	-1.0720	-0.1201	0.3039	-0.3496	-0.6056	0.7080	0.9206	0.0082	-0.8080	-0.7641	0.0482	0.0861	-0.0505	0.2851	0.2799	-0.3025	-0.0447	0.2141	0.2670	1.4494	-0.0501	-0.8218	-1.0941	-0.0647	0.3790	-0.0271	-0.5717	0.3626	0.9380	0.5477	0.0514	-0.0158	0.3694	0.3320	-0.0179	-0.3268	-0.4446	-0.6321	-0.2077	0.4653	0.3813	0.7311	0.3833	-0.2903	-0.1546	0.8215	1.1525	0.6868	-0.4891	-0.2703	0.1663	-0.1242	-0.1694	0.0837	0.3885	0.1290	-0.5022	-1.0131	-0.8772	-0.6532	-0.4427	-0.0353	-0.0172	0.5513	0.4947	0.3112	0.2693	0.9854	1.2794	0.8013	-0.4102	-0.3859	-0.1482	-0.5123	-0.8262	-0.7235	0.0344	0.0816	-0.6044	-0.7539	0.0115	0.2658	-0.1542	-0.4304	-0.3381	0.8685	0.3269	0.6597	0.1245	0.4290	0.5372	0.1426	-0.3438	0.0771	0.4745	0.2514	-0.9164	-1.4858	-0.1623	0.6839	-0.0895	-0.0651	1.3649	1.4681	0.4737	-0.1329	-0.0843	1.2133	0.1147	0.6103	0.1643	0.2788	0.0200	-0.4279	-0.1851	0.6909	1.2045	1.0642	-0.3373	-1.1383	0.1674	1.2301	0.0799	-0.4200	1.0983	1.2750	0.4033	0.2315	0.1206	0.9613	-0.2081	0.3612	0.4266	0.5179	0.0435	-0.3297	0.1036	0.9136	1.0569	0.6708	-0.1235	-0.1719	0.6574	0.9674	-0.3835	-1.2686	-0.2261	0.0074	-0.1698	0.3824	0.0507	0.2153	-0.3778	0.2722	0.3708	-0.0022	-0.5775	-0.3228	0.0650	0.1475	-0.2410	-0.6959	-0.7872	0.0823	0.7518	0.5072	-0.2598	-0.6340	-0.4519	-0.7687	-0.4361	0.5348	0.3501	0.0520	-0.2747	0.1998	-0.1054	-0.8791	-1.3230	-0.1998	0.5301	-0.1305	-0.6702	-0.6569	-0.9123	-0.4276	0.1685	-0.0518	0.0092	0.6520	0.2746	-0.7796	-0.5282	0.2605	0.7577	0.7943	-0.3456	-0.0630	-0.5447	-1.0765	-1.1264	0.2216	1.2206	0.4523	0.1354	0.8989	0.2633	-0.6602	-0.7014	-0.6847	-0.1486	0.9324	0.4875	-0.4971	-0.2699	-0.1283	0.3742	0.8979	-0.8503	-0.2556	0.4958	0.8274	0.9283	1.0826	0.6130	-0.0775	0.4305	1.0491	0.6589	0.0096	-0.2633	-0.0317	0.3080	0.1804	-0.5644	-0.7882	0.3510	0.7400	-0.4363	-1.0096	0.4247	0.0049	0.1374	0.5361	0.1243	-0.2944	-0.2738	-0.0352	0.6854	0.9637	0.2607	-0.3603	-0.2283	0.2497	0.4147	0.0232	-0.8713	-1.2467	-0.2395	0.7268	0.2245	-0.7003	1.2686	0.1359	0.0061	0.5308	-0.1197	-1.0260	-0.6590	0.3015	0.5706	-0.0900	-0.9682	-1.2452	-0.7052	-0.0485	0.1188	-0.0617	-0.3279	-0.4017	0.2160	1.2251	1.2651	0.0939	1.0421	0.1412	0.2217	0.7846	0.0900	-1.1004	-0.7076	0.5417	0.4270	-0.7159	-1.4075	-1.4825	-1.1621	-0.7754	-0.5728	-0.2215	0.3458	0.4156	0.2618	0.7571	1.3138	0.8377	0.1986	-0.0919	0.2197	0.7630	0.2783	-0.8351	-0.8148	0.1465	0.1891	-0.3687	-0.3593	-0.1975	-0.2173	-0.2235	-0.2419	0.0686	0.4956	0.0026	-0.9196	-0.7893	0.3969	1.1909	-0.0931	-0.3824	-0.4512	-0.0450	0.1698	-0.0489	-0.1899	-0.0158	-0.1008	-0.1496	0.3934	0.8596	0.9948	1.1848	1.1877	1.0548	0.5559	-0.7184	-1.8867	-1.6948	-0.1220	1.4304	0.7710	0.1316	-0.7962	-0.9090	-0.1353	0.6825	0.6743	0.0787	-0.3036	-0.0352	0.6621	0.9881	0.9807	1.3396	1.6753	1.4629	0.6467	-0.4944	-1.2556	-1.0703	0.0730	1.3494	1.2229	0.9319	-0.1699	-0.6335	0.1787	1.2241	1.1066	-0.0322	-0.4880	0.2364	0.8614	0.4471	-0.3917	-0.3461	0.2437	0.2716	0.0809	0.1556	0.3135	0.3738	0.4740	0.8061	0.3990	0.9037	0.4840	0.2450	0.9354	1.6741	1.2406	-0.1507	-0.5442	0.3717	0.6619	-0.4188	-1.6529	-1.6090	-0.8872	-0.8045	-0.4676	0.5251	1.1797	1.1030	0.4198	-0.0657	-0.4873	0.1886	0.2185	0.1775	0.8378	1.5029	1.0607	-0.0971	-0.3371	0.2961	0.2407	-0.7371	-1.3613	-0.8608	-0.2719	-0.6004	-0.5027	0.2790	0.6327	0.5423	-0.0137	-0.5509	-0.1762	-0.2024	-0.4647	-0.7920	-0.2815	0.4617	0.4151	-0.0222	0.0207	0.2713	0.0984	-0.2957	-0.2040	0.3859	0.5335	-0.0980	-0.3495	-0.1365	-0.2672	-0.3677	-0.2617	-0.2783	0.7890	0.2195	-0.3980	-1.1636	-1.2402	-0.9856	-0.7973	-0.5028	-0.0838	0.1955	0.2845	0.4136	0.7186	0.9442	0.7247	0.2095	-0.1409	-0.2167	-0.4405	-0.5852	-0.1415	0.1876	0.7881	0.4365	0.1309	-0.3735	-0.8452	-1.2915	-1.2569	-0.8701	-0.5680	-0.2901	0.1343	0.6223	1.0048	0.9818	0.7300	0.3763	-0.1653	-0.4007	-0.2770	-0.1901	0.2004	0.4253	-0.2908	-0.2110	0.2507	0.6407	0.4478	-0.0494	-0.0476	0.1042	-0.1500	-0.4054	-0.2724	0.0177	0.1807	0.1556	0.3322	0.3720	-0.0975	-0.3293	0.0690	0.3217	0.4405	0.3966	-1.0520	-0.8309	0.1140	0.9008	0.9023	0.6253	0.7739	1.1450	0.9435	0.3528	-0.0957	-0.5860	-1.2021	-1.2862	-0.4664	0.2463	0.2059	0.1577	0.5088	0.6473	0.5160	0.3184	-0.7817	-0.6252	0.2801	0.7517	0.4255	-0.0427	0.0733	0.9639	1.5180	1.2622	0.6120	-0.5813	-1.9329	-2.2320	-1.1474	-0.0702	0.1945	0.3353	0.5315	0.5436	0.4525	0.2291	-0.2722	-0.1538	0.5522	0.8605	0.2881	-0.6484	-0.9537	-0.0164	1.0201	1.2744	0.9292	-0.0235	-1.0199	-1.3536	-0.8075	-0.1609	0.1079	0.2507	0.1151	-0.1096	-0.0195	-0.0171	-0.2294	-0.0595	0.4996	0.9814	0.5191	-0.6611	-1.2771	-0.6794	0.1072	0.4286	0.5188	0.6374	0.8749	0.6872	0.2251	0.1165	0.3807	0.3320	-0.3313	-0.8396	-0.6084	-0.2518	-0.3588	-0.0070	0.4859	0.9651	0.6139	-0.3638	-0.6648	-0.1832	-0.0515	-0.3178	-0.2294	0.5698	1.4883	1.3497	0.3464	0.0842	0.7477	0.5839	-0.4790	-0.9791	-0.7057	-0.2037	-0.0980	0.3249	0.5862	0.5688	0.0652	-0.4198	-0.0349	0.7292	0.5654	-0.1913	-0.2969	0.3430	0.7680	0.3016	-0.5783	-0.3490	0.8309	0.6364	-0.6013	-0.9296	-0.6248	-0.1055	-0.0551	0.2395	0.0912	-0.5050	-1.0710	-0.9629	-0.2298	0.5785	0.6250	0.1905	0.4289	0.9792	0.6171	-0.5052	-1.2745	-0.6665	0.6223	0.4788	-0.4985	-0.6831	-0.4548	-0.1404	-0.3526	-0.1734	-0.4402	-0.9899	-1.0357	-0.3163	0.0462	-0.1188	-0.3212	-0.3476	0.4000	1.2581	0.8350	-0.4876	-1.2637	-0.7604	0.1285	0.1495	-0.1141	-0.0608	0.2157	0.3068	-0.1064	-1.5918	-0.5979	1.3660	0.5997	-0.7288	-0.0268	1.0826	0.7741	0.2171	-0.0173	-0.2443	0.1288	0.9430	0.5180	-0.7676	-0.5577	0.0893	0.5845	1.2281	1.1171	-0.2833	-0.4299	-1.2580	-0.2824	1.1676	0.2670	-1.2872	-0.3520	1.2893	0.5702	-0.1685	0.2660	0.5001	0.6396	1.2701	0.8962	-0.0953	0.7086	0.9993	-0.3256	-0.2705	1.0473	0.5603	0.6028	-0.2223	-0.2604	0.4881	0.0825	-1.2002	-0.6022	0.8821	0.1150	-0.3789	0.7431	1.2953	1.1291	1.7765	1.7983	1.1207	1.7565	1.4028	-0.7333	-1.2879	0.4284	1.0410	1.2196	0.2887	-0.5060	-0.3242	-0.0007	-0.2161	0.1124	0.7352	-0.0177	-0.2307	0.7878	0.7963	0.1045	0.6580	0.9626	0.4812	1.0320	0.9356	-0.3970	-0.9929	0.0384	0.9775	0.6757	0.1414	-0.7882	-0.9645	-0.0390	0.5904	0.2963	-0.1628	-0.4715	0.0274	0.6490	-0.0802	-1.2416	-1.1802	-1.0492	-1.4244	-0.6229	0.0924	-0.3094	-0.7370	-0.3363	-0.0174	-0.7623	-0.6471	-1.1919	-1.2478	-0.0527	0.5040	-0.4203	-1.2364	-0.8640	0.2642	0.5962	-0.3857	-1.3700	-1.2222	-0.9711	-1.5734	-1.1930	-0.2158	-0.3605	-0.8164	-0.5624	-0.7339	-1.0063	-0.6783	-0.9975	-0.9143	0.0124	0.1175	-0.6666	-1.0622	-0.4959	0.3127	0.1945	-0.5339	-0.6519	0.3375	1.2001	0.3641	-0.0059	0.6152	0.3548	-0.1664	-0.0171	-0.2249	0.6377	0.8653	0.3851	0.0825	0.3413	0.0271	-0.4266	-0.4405	-0.0727	0.1814	-0.1329	-0.3641	0.2222	1.4850	2.2507	1.1696	0.6671	1.0391	0.6889	0.2696	0.3549	0.3907	1.4438	1.5305	1.2096	0.5966	0.4050	-0.1485	-0.6745	-0.4383	-0.0871	-0.0902	-0.1997	0.0050	0.5789	0.8247	0.4328	-0.5364	-0.2873	0.2441	-0.1305	-0.2851	0.1687	0.4407	-0.1752	0.0271	0.3513	0.0013	-0.1983	-0.7203	-1.1776	-0.4109	-0.0292	-0.4512	-0.4060	0.0076	0.3131	-0.4724	-1.4660	-1.6591	-0.7673	-0.2087	-0.6804	-0.9154	-0.1438	0.3395	-1.5595	-1.3208	-0.8278	-0.7831	-0.9065	-1.1648	-0.7441	0.6994	0.6372	-0.4935	-0.4475	0.2028	0.3784	-0.7491	-1.2388	-0.4782	0.1208	-0.0930	-0.7646	-1.3034	-0.4549	0.5096	-0.6181	-0.6705	-0.6072	-0.4454	-0.7928	-1.0292	0.2046	1.7716	1.1494	-0.1746	-0.1177	0.5305	0.4704	-0.6158	-0.5815	0.5220	0.4912	-0.4180	-0.8868	-1.2294	-0.5347	0.6233	0.9317	0.7147	0.5978	0.6873	-0.0208	-0.5311	0.2575	1.0694	0.2730	-0.5664	-0.2244	0.2744	0.0542	-0.6397	-0.3003	0.5255	0.2086	-0.8347	-0.8343	-0.4091	0.0427	0.5436	0.9551	0.7343	0.9181	1.1701	0.5339	0.0136	-0.1021	0.0289	-0.7347	-1.3518	-0.7766	-0.2344	-0.1612	-0.2728	0.2352	0.5478	0.2209	-0.5970	-0.3871	0.3805	0.4759	0.1849	0.0859	-0.2407	-0.0055	0.5068	0.4912	0.4237	0.1386	0.3170	-0.3605	-1.0641	-0.5624	0.0952	0.4112	0.3631	0.6307	0.8028	0.8953	0.3689	0.1903	0.4356	0.2323	-0.0483	-0.0177	-0.3817	-0.5535	-0.1106	0.1130	0.1915	0.2515	0.8168	0.4891	0.0127	0.1974	0.5868	0.7262	0.0755	-0.2752	0.3631	1.2225	0.7381	-0.1936	-0.4381	-0.3198	0.1706	0.6128	0.4392	-0.2063	-0.0888	-0.2499	-0.4719	-0.2066	0.4599	0.6977	0.7629	0.5292	0.3268	0.2316	-0.8490	-1.7483	-0.7432	0.6580	-0.0682	-1.3159	-1.2159	-0.5191	0.3465	0.8628	0.6260	-0.1482	-0.1200	-0.5737	-0.9562	-0.7116	-0.2664	0.0110	0.2194	-0.0376	-0.1809	-0.0333	-0.7618	-1.6884	-0.8458	0.5084	-0.3957	-1.3427	-0.7849	-0.2248	0.2069	0.5184	0.0104	-0.7206	-0.6436	-0.7767	-0.7414	-0.4767	-0.4431	-0.8066	-0.9116	-0.6483	0.0877	0.5326	0.2300	-0.2635	0.2467	0.9155	-0.0532	-0.2206	0.5947	0.4048	0.1422	0.1217	-0.3644	-0.8668	-0.6659	-0.0325	0.8462	1.0054	0.3811	-0.4110	-0.6366	-0.2822	0.5086	0.5558	0.1158	0.1557	0.7295	0.7593	-0.0180	0.4299	1.2041	0.7388	0.4634	-0.0221	-0.1988	-0.5441	-0.3339	0.5158	1.6221	1.3086	0.1200	-0.0714	0.5475	0.5592	0.4466	-0.0106	-0.6418	-0.2126	0.6794	0.4098	-0.0766	0.4043	0.5824	0.4671	0.5820	0.0824	-0.2129	-0.5962	-0.3113	0.1738	0.4436	-0.5034	-1.5727	-0.7036	1.0258	0.9481	0.1843	-0.0893	-0.3283	0.0796	0.6999	0.3114	0.2757	0.7570	0.1148	0.0270	0.1745	0.1476	0.1093	0.1103	0.1372	0.1480	0.1201	0.0952	0.1427	0.1421	0.1262	0.0711	0.1404	0.1295	0.1254	0.0399	0.1293	0.1121	0.1160	0.0100	0.1091	0.0935	0.0973	-0.0103	0.0820	0.0746	0.0743	-0.0205	0.0524	-0.0089	0.0075	-0.0055	-0.0074	-0.0116	0.0099	-0.0086	-0.0077	-0.0136	0.0114	-0.0094	-0.0076	-0.0142	0.0114	-0.0080	-0.0076	-0.0137	0.0070	-0.0033	-0.0082	-0.0118	0.0003	0.0038	-0.0099	-0.0088	-0.0038	0.0069	-0.0106	0.0013	-0.0005	0.0002	-0.0026	-0.0007	-0.0012	-0.0003	-0.0024	-0.0012	-0.0019	0.0004	-0.0017	-0.0026	-0.0022	-0.0006	-0.0014	-0.0023	-0.0030	0.0013	-0.0004	-0.0016	-0.0032	0.0006	-0.0003	-0.0054	-0.0032	0.0010	0.0008	-0.0009	-0.0007	0.0014	-0.0002	-0.0010	-0.0011	0.0014	-0.0002	-0.0011	-0.0015	0.0012	-0.0004	-0.0009	-0.0014	0.0012	-0.0003	-0.0000	-0.0009	0.0011	-0.0001	0.0006	-0.0007	0.0006	0.0005	0.0011	-0.0001	0.0003	0.0012	0.1510	0.0911	0.0848	0.1266	0.1538	0.1004	0.0665	0.1273	0.1490	0.1060	0.0412	0.1192	0.1353	0.1058	0.0115	0.1021	0.1153	0.0976	-0.0147	0.0780	0.0931	0.0797	-0.0297	0.0500	0.0709	0.0571	-0.0338	0.0228	-0.0012	0.0068	-0.0048	-0.0033	-0.0040	0.0080	-0.0079	-0.0035	-0.0061	0.0088	-0.0091	-0.0033	-0.0069	0.0083	-0.0079	-0.0030	-0.0062	0.0040	-0.0024	-0.0042	-0.0042	-0.0015	0.0052	-0.0066	-0.0011	-0.0046	0.0086	-0.0081	0.0013	0.0011	-0.0004	-0.0012	-0.0009	0.0006	-0.0011	-0.0009	-0.0016	0.0001	0.0001	-0.0004	-0.0026	0.0001	-0.0009	-0.0001	-0.0019	-0.0001	0.0009	0.0012	-0.0015	0.0000	0.0004	0.0008	-0.0048	-0.0001	0.0012	0.0012	-0.0017	0.0002	-0.0006	-0.0010	-0.0017	0.0002	-0.0003	-0.0007	-0.0016	0.0001	-0.0004	-0.0004	-0.0003	0.0002	-0.0003	-0.0002	0.0002	0.0006	0.0001	0.0001	0.0005	0.0007	0.0001	0.0004	0.0014	0.0012	0.0005	0.0003	0.1382	0.0755	0.0589	0.1117	0.1411	0.0817	0.0379	0.1074	0.1360	0.0845	0.0126	0.0938	0.1217	0.0830	-0.0135	0.0717	0.1007	0.0747	-0.0340	0.0451	0.0774	0.0575	-0.0430	0.0182	0.0548	0.0360	-0.0413	-0.0046	0.0059	0.0065	-0.0027	0.0029	0.0051	0.0059	-0.0054	0.0027	0.0044	0.0054	-0.0067	0.0025	0.0041	0.0042	-0.0059	0.0025	0.0048	0.0005	-0.0011	0.0000	0.0065	-0.0029	0.0058	-0.0040	0.0081	-0.0044	0.0088	-0.0067	0.0003	-0.0003	-0.0004	-0.0010	-0.0016	-0.0009	-0.0013	-0.0008	-0.0022	-0.0016	-0.0001	0.0002	-0.0023	-0.0020	-0.0011	0.0004	-0.0014	-0.0024	0.0005	0.0011	-0.0006	-0.0019	0.0002	0.0007	-0.0028	-0.0018	0.0008	0.0015	-0.0013	-0.0017	0.0003	-0.0004	-0.0012	-0.0016	0.0007	-0.0005	-0.0014	-0.0015	0.0008	-0.0001	0.0003	-0.0008	0.0014	0.0002	0.0004	-0.0005	0.0015	0.0009	0.0006	-0.0004	0.0013	0.0011	0.0021	0.0009	0.0019	0.0011	0.1143	0.0661	0.0375	0.0951	0.1142	0.0685	0.0150	0.0863	0.1068	0.0673	-0.0087	0.0687	0.0915	0.0624	-0.0301	0.0439	0.0709	0.0521	-0.0448	0.0174	0.0492	0.0347	-0.0483	-0.0064	0.0295	0.0146	-0.0422	-0.0238	0.0097	0.0062	-0.0011	0.0074	0.0109	0.0043	-0.0028	0.0070	0.0118	0.0023	-0.0039	0.0064	0.0122	0.0004	-0.0037	0.0051	0.0127	-0.0022	0.0002	0.0012	0.0133	-0.0041	0.0056	-0.0034	0.0129	-0.0046	0.0079	-0.0063	-0.0006	-0.0026	-0.0011	0.0006	-0.0021	-0.0037	-0.0020	0.0005	-0.0024	-0.0045	-0.0009	0.0017	-0.0017	-0.0049	-0.0016	0.0016	-0.0005	-0.0047	-0.0003	0.0018	0.0006	-0.0034	-0.0007	0.0022	-0.0008	-0.0024	-0.0003	0.0030	-0.0020	0.0000	-0.0014	-0.0019	-0.0013	0.0005	-0.0011	-0.0017	-0.0010	0.0006	-0.0013	-0.0011	-0.0004	0.0019	-0.0005	-0.0003	-0.0001	0.0021	-0.0009	0.0003	0.0006	0.0020	-0.0011	0.0010	0.0015	0.0031	0.0002	0.0017	0.0883	0.0605	0.0204	0.0775	0.0833	0.0594	-0.0017	0.0653	0.0724	0.0542	-0.0227	0.0458	0.0561	0.0449	-0.0396	0.0215	0.0372	0.0316	-0.0492	-0.0026	0.0190	0.0136	-0.0487	-0.0222	0.0046	-0.0050	-0.0403	-0.0348	0.0068	0.0059	-0.0016	0.0069	0.0088	0.0036	-0.0016	0.0066	0.0106	0.0008	-0.0019	0.0056	0.0119	-0.0014	-0.0018	0.0033	0.0125	-0.0032	0.0012	-0.0009	0.0121	-0.0045	0.0052	-0.0048	0.0105	-0.0043	0.0069	-0.0067	-0.0014	-0.0035	-0.0009	0.0006	-0.0025	-0.0045	-0.0015	0.0002	-0.0028	-0.0055	-0.0004	0.0008	-0.0016	-0.0055	-0.0007	0.0005	-0.0002	-0.0046	0.0000	0.0008	0.0009	-0.0033	-0.0002	0.0019	-0.0001	-0.0024	-0.0001	0.0024	-0.0017	-0.0016	0.0001	-0.0015	-0.0006	-0.0005	0.0002	-0.0009	0.0000	-0.0000	-0.0000	-0.0003	-0.0003	0.0007	0.0003	0.0009	0.0006	0.0007	0.0001	0.0014	0.0012	0.0004	0.0004	0.0020	0.0011	0.0010	0.0014	0.0024	0.0677	0.0581	0.0098	0.0621	0.0578	0.0546	-0.0109	0.0481	0.0435	0.0460	-0.0292	0.0291	0.0265	0.0329	-0.0424	0.0074	0.0097	0.0169	-0.0484	-0.0136	-0.0044	-0.0013	-0.0459	-0.0295	-0.0138	-0.0184	-0.0373	-0.0385	0.0056	0.0042	-0.0027	0.0067	0.0078	0.0026	-0.0015	0.0058	0.0099	-0.0002	-0.0010	0.0040	0.0112	-0.0028	-0.0003	0.0015	0.0116	-0.0041	0.0021	-0.0020	0.0106	-0.0049	0.0049	-0.0049	0.0087	-0.0041	0.0057	-0.0062	-0.0019	-0.0021	-0.0012	0.0015	-0.0024	-0.0025	-0.0012	0.0010	-0.0025	-0.0033	-0.0004	0.0009	-0.0013	-0.0035	-0.0005	0.0012	-0.0002	-0.0028	-0.0003	0.0019	0.0007	-0.0020	-0.0001	0.0023	0.0003	-0.0012	-0.0002	0.0021	-0.0014	0.0005	-0.0020	-0.0014	-0.0010	0.0016	-0.0013	-0.0014	-0.0003	0.0024	-0.0010	-0.0015	-0.0005	0.0021	-0.0015	-0.0004	0.0001	0.0023	-0.0012	0.0006	0.0002	0.0022	-0.0010	0.0011	0.0001	0.0021	-0.0006	0.0009	0.0516	0.0557	0.0039	0.0499	0.0384	0.0510	-0.0146	0.0355	0.0220	0.0405	-0.0305	0.0179	0.0048	0.0254	-0.0408	-0.0010	-0.0103	0.0080	-0.0447	-0.0185	-0.0212	-0.0100	-0.0416	-0.0312	-0.0265	-0.0260	-0.0343	-0.0375	0.0046	0.0029	-0.0038	0.0057	0.0067	0.0017	-0.0026	0.0039	0.0083	-0.0005	-0.0011	0.0015	0.0087	-0.0031	0.0006	-0.0006	0.0089	-0.0042	0.0026	-0.0030	0.0078	-0.0047	0.0046	-0.0048	0.0063	-0.0035	0.0047	-0.0056	-0.0023	-0.0015	-0.0003	-0.0001	-0.0020	-0.0017	-0.0004	0.0001	-0.0019	-0.0019	0.0000	0.0003	-0.0013	-0.0019	0.0002	0.0007	-0.0006	-0.0012	0.0002	0.0013	0.0002	-0.0004	0.0008	0.0011	-0.0001	0.0004	0.0003	0.0008	-0.0002	-0.0011	0.0003	-0.0006	-0.0002	-0.0004	0.0007	-0.0002	0.0003	0.0005	0.0010	0.0005	0.0008	0.0001	0.0003	0.0010	0.0002	0.0003	0.0006	0.0016	0.0002	0.0002	0.0005	0.0016	0.0001	-0.0002	0.0005	0.0012	0.0593	-0.0329	-0.0136	-0.0026	0.0792	-0.0301	0.0039	0.0020	0.1023	-0.0211	0.0360	0.0086	0.1262	-0.0028	0.0815	0.0204	0.1464	0.0272	0.1270	0.0426	0.1571	0.0678	0.1542	0.0764	0.1569	0.1109	0.1573	0.1150	-0.0008	0.0017	0.0039	-0.0081	-0.0049	-0.0030	0.0071	-0.0109	-0.0095	-0.0082	0.0099	-0.0131	-0.0142	-0.0091	0.0103	-0.0113	-0.0171	-0.0012	0.0061	-0.0057	-0.0171	0.0127	-0.0026	0.0019	-0.0154	0.0222	-0.0091	0.0078	0.0039	-0.0013	0.0007	-0.0011	0.0070	-0.0023	0.0006	-0.0011	0.0065	-0.0034	-0.0002	-0.0003	0.0053	-0.0040	0.0007	0.0011	0.0017	-0.0028	-0.0008	0.0003	-0.0024	-0.0006	0.0002	-0.0013	0.0003	0.0014	0.0006	-0.0038	-0.0020	-0.0011	0.0004	-0.0009	-0.0006	-0.0007	0.0009	-0.0007	0.0008	-0.0004	0.0013	0.0001	0.0023	-0.0000	0.0012	0.0013	0.0026	0.0001	0.0005	0.0025	0.0027	0.0009	-0.0001	0.0027	0.0038	0.0020	0.0000	0.0018	0.0368	-0.0491	-0.0413	-0.0196	0.0576	-0.0526	-0.0271	-0.0189	0.0843	-0.0506	0.0054	-0.0154	0.1150	-0.0382	0.0563	-0.0056	0.1437	-0.0103	0.1098	0.0161	0.1627	0.0339	0.1446	0.0514	0.1685	0.0852	0.1525	0.0938	0.0069	0.0008	0.0060	-0.0017	0.0051	-0.0050	0.0110	-0.0045	0.0023	-0.0120	0.0151	-0.0079	-0.0016	-0.0147	0.0151	-0.0082	-0.0054	-0.0066	0.0081	-0.0037	-0.0078	0.0099	-0.0041	0.0041	-0.0091	0.0226	-0.0123	0.0109	0.0026	0.0002	0.0003	0.0006	0.0064	-0.0001	0.0005	0.0002	0.0066	-0.0010	-0.0001	0.0004	0.0062	-0.0019	0.0011	0.0012	0.0025	-0.0014	-0.0011	0.0005	-0.0013	0.0000	-0.0003	-0.0002	0.0022	0.0018	-0.0005	-0.0027	-0.0023	-0.0011	-0.0013	-0.0010	-0.0012	-0.0006	-0.0006	-0.0009	-0.0001	-0.0002	0.0001	-0.0004	0.0012	0.0003	0.0007	0.0003	0.0016	0.0002	0.0004	0.0012	0.0017	0.0009	0.0001	0.0017	0.0030	0.0021	0.0003	0.0014	0.0048	-0.0556	-0.0599	-0.0362	0.0221	-0.0644	-0.0486	-0.0386	0.0483	-0.0700	-0.0172	-0.0365	0.0829	-0.0665	0.0356	-0.0263	0.1195	-0.0452	0.0933	-0.0037	0.1486	-0.0021	0.1328	0.0322	0.1640	0.0542	0.1446	0.0752	0.0117	-0.0002	0.0081	0.0051	0.0133	-0.0062	0.0150	0.0028	0.0140	-0.0137	0.0207	-0.0016	0.0123	-0.0179	0.0209	-0.0041	0.0086	-0.0111	0.0114	-0.0013	0.0039	0.0057	-0.0048	0.0064	-0.0009	0.0200	-0.0156	0.0138	0.0008	-0.0007	0.0000	0.0019	0.0051	-0.0007	0.0004	0.0013	0.0060	-0.0013	-0.0000	0.0008	0.0067	-0.0023	0.0012	0.0011	0.0033	-0.0024	-0.0015	0.0006	-0.0001	-0.0018	-0.0008	0.0005	0.0042	-0.0003	-0.0017	-0.0016	-0.0015	-0.0021	-0.0011	-0.0010	-0.0012	-0.0017	-0.0009	-0.0010	-0.0006	-0.0009	-0.0003	-0.0009	0.0004	-0.0001	0.0002	-0.0005	0.0006	0.0001	0.0002	0.0004	0.0007	0.0006	0.0001	0.0012	0.0019	0.0015	0.0005	0.0013	-0.0282	-0.0527	-0.0665	-0.0500	-0.0178	-0.0646	-0.0566	-0.0542	0.0038	-0.0764	-0.0274	-0.0513	0.0386	-0.0822	0.0231	-0.0380	0.0807	-0.0703	0.0797	-0.0128	0.1194	-0.0329	0.1199	0.0228	0.1458	0.0234	0.1339	0.0631	0.0116	-0.0014	0.0080	0.0080	0.0152	-0.0062	0.0162	0.0062	0.0186	-0.0126	0.0239	0.0015	0.0193	-0.0172	0.0256	-0.0022	0.0165	-0.0127	0.0153	-0.0003	0.0108	0.0016	-0.0037	0.0075	0.0039	0.0152	-0.0170	0.0156	-0.0004	-0.0022	-0.0005	0.0032	0.0038	-0.0019	0.0000	0.0025	0.0052	-0.0019	-0.0002	0.0016	0.0068	-0.0026	0.0012	0.0014	0.0036	-0.0033	-0.0017	0.0007	0.0005	-0.0037	-0.0011	0.0011	0.0053	-0.0030	-0.0025	-0.0008	-0.0010	-0.0010	-0.0016	-0.0016	-0.0013	-0.0010	-0.0020	-0.0015	-0.0010	-0.0005	-0.0017	-0.0014	-0.0005	0.0003	-0.0011	-0.0013	-0.0004	0.0004	-0.0007	-0.0008	-0.0003	0.0008	-0.0006	-0.0001	0.0003	0.0012	-0.0004	0.0005	-0.0528	-0.0456	-0.0639	-0.0585	-0.0494	-0.0582	-0.0539	-0.0631	-0.0338	-0.0731	-0.0276	-0.0583	-0.0020	-0.0853	0.0173	-0.0414	0.0418	-0.0821	0.0681	-0.0136	0.0865	-0.0529	0.1051	0.0208	0.1219	-0.0014	0.1194	0.0562	0.0068	-0.0027	0.0052	0.0054	0.0103	-0.0056	0.0139	0.0039	0.0144	-0.0094	0.0230	-0.0001	0.0164	-0.0130	0.0273	-0.0032	0.0150	-0.0108	0.0187	-0.0010	0.0103	-0.0006	-0.0006	0.0073	0.0038	0.0102	-0.0156	0.0158	-0.0007	-0.0023	-0.0002	0.0025	0.0030	-0.0020	0.0002	0.0025	0.0044	-0.0015	-0.0001	0.0019	0.0061	-0.0020	0.0015	0.0015	0.0030	-0.0031	-0.0013	0.0003	-0.0000	-0.0047	-0.0006	0.0006	0.0050	-0.0048	-0.0021	-0.0013	-0.0003	-0.0010	-0.0002	-0.0014	-0.0008	-0.0017	-0.0011	-0.0014	-0.0011	-0.0015	-0.0011	-0.0014	-0.0011	-0.0010	-0.0009	-0.0015	-0.0007	-0.0005	-0.0005	-0.0015	-0.0009	0.0001	-0.0005	-0.0009	-0.0006	0.0002	-0.0009	-0.0001	-0.0642	-0.0380	-0.0552	-0.0596	-0.0654	-0.0497	-0.0449	-0.0635	-0.0548	-0.0644	-0.0222	-0.0572	-0.0275	-0.0787	0.0149	-0.0383	0.0139	-0.0811	0.0570	-0.0102	0.0596	-0.0603	0.0880	0.0216	0.0992	-0.0170	0.1017	0.0512	0.0032	-0.0040	0.0023	0.0016	0.0052	-0.0052	0.0094	-0.0004	0.0078	-0.0064	0.0183	-0.0036	0.0094	-0.0084	0.0248	-0.0054	0.0088	-0.0074	0.0198	-0.0021	0.0058	-0.0011	0.0032	0.0066	0.0014	0.0060	-0.0113	0.0152	-0.0003	-0.0010	0.0000	0.0015	0.0028	-0.0004	0.0005	0.0021	0.0041	0.0004	-0.0002	0.0022	0.0055	0.0002	0.0012	0.0024	0.0023	-0.0013	-0.0011	0.0009	-0.0010	-0.0040	-0.0001	0.0003	0.0039	-0.0052	-0.0014	-0.0017	0.0001	0.0006	-0.0006	-0.0007	-0.0006	-0.0006	-0.0013	-0.0012	-0.0013	-0.0012	-0.0013	-0.0017	-0.0018	-0.0014	-0.0011	-0.0023	-0.0015	-0.0008	-0.0006	-0.0025	-0.0015	-0.0001	-0.0007	-0.0022	-0.0011	-0.0002	-0.0015	-0.0015	-0.0650	-0.0330	-0.0450	-0.0551	-0.0672	-0.0432	-0.0349	-0.0574	-0.0593	-0.0554	-0.0163	-0.0505	-0.0363	-0.0678	0.0128	-0.0326	-0.0001	-0.0719	0.0455	-0.0070	0.0416	-0.0575	0.0700	0.0208	0.0801	-0.0237	0.0823	0.0450	0.0002	-0.0039	0.0007	-0.0021	0.0006	-0.0042	0.0056	-0.0043	0.0015	-0.0041	0.0126	-0.0064	0.0021	-0.0049	0.0199	-0.0067	0.0020	-0.0041	0.0185	-0.0026	0.0010	-0.0004	0.0061	0.0059	-0.0008	0.0033	-0.0060	0.0138	-0.0001	-0.0003	0.0006	-0.0001	0.0026	0.0006	0.0011	0.0006	0.0036	0.0017	0.0001	0.0016	0.0047	0.0019	0.0012	0.0025	0.0015	0.0007	-0.0008	0.0011	-0.0019	-0.0023	0.0005	-0.0000	0.0026	-0.0043	-0.0004	-0.0021	0.0005	0.0000	0.0005	0.0007	0.0000	-0.0011	-0.0002	0.0003	-0.0006	-0.0022	-0.0002	-0.0005	-0.0015	-0.0030	-0.0003	-0.0016	-0.0017	-0.0022	0.0002	-0.0026	-0.0016	-0.0011	-0.0001	-0.0030	-0.0012	-0.0009	-0.0012	-0.0025	-0.0128	0.0475	-0.0259	0.0500	-0.0196	0.0237	-0.0499	0.0280	-0.0193	-0.0031	-0.0524	0.0016	-0.0096	-0.0271	-0.0241	-0.0231	0.0076	-0.0396	0.0252	-0.0347	0.0263	-0.0327	0.0720	-0.0238	0.0432	-0.0088	0.1018	0.0084	0.0124	0.0016	-0.0028	0.0081	0.0148	-0.0058	0.0034	0.0053	0.0156	-0.0186	0.0117	0.0001	0.0147	-0.0291	0.0183	-0.0036	0.0131	-0.0263	0.0177	-0.0027	0.0115	-0.0104	0.0082	0.0032	0.0093	0.0062	-0.0019	0.0105	-0.0043	0.0046	0.0004	0.0012	0.0007	0.0043	0.0010	0.0016	0.0025	0.0030	0.0001	0.0021	0.0035	0.0014	0.0019	0.0042	0.0012	0.0019	-0.0001	0.0041	-0.0026	0.0035	0.0008	0.0033	0.0021	0.0055	0.0009	0.0002	-0.0021	-0.0011	-0.0017	-0.0013	-0.0019	-0.0006	-0.0010	-0.0014	-0.0006	0.0000	-0.0002	-0.0012	0.0002	0.0000	-0.0001	-0.0005	-0.0003	-0.0003	-0.0007	0.0006	-0.0004	0.0005	-0.0010	0.0010	0.0003	0.0017	-0.0009	0.0003	-0.0208	0.0750	-0.0104	0.0602	-0.0368	0.0507	-0.0359	0.0373	-0.0437	0.0195	-0.0387	0.0110	-0.0368	-0.0128	-0.0086	-0.0113	-0.0176	-0.0340	0.0432	-0.0195	0.0070	-0.0321	0.0907	-0.0062	0.0310	-0.0081	0.1174	0.0272	0.0122	0.0014	-0.0033	0.0123	0.0169	-0.0066	0.0049	0.0106	0.0209	-0.0197	0.0161	0.0046	0.0229	-0.0314	0.0238	-0.0018	0.0224	-0.0295	0.0208	-0.0028	0.0194	-0.0131	0.0069	0.0032	0.0141	0.0051	-0.0060	0.0119	-0.0054	0.0027	-0.0001	0.0025	-0.0004	0.0027	0.0007	0.0030	0.0020	0.0022	0.0001	0.0027	0.0035	0.0009	0.0023	0.0035	0.0011	0.0008	0.0001	0.0034	-0.0022	0.0015	0.0006	0.0036	0.0030	0.0028	-0.0002	0.0011	-0.0001	-0.0004	-0.0013	-0.0009	-0.0007	-0.0004	-0.0015	-0.0009	-0.0003	0.0005	-0.0007	-0.0009	-0.0001	0.0007	-0.0005	-0.0008	-0.0009	-0.0002	-0.0008	-0.0003	-0.0013	-0.0001	-0.0004	-0.0000	-0.0012	-0.0000	-0.0001	-0.0002	-0.0185	0.1030	0.0141	0.0706	-0.0439	0.0825	-0.0091	0.0491	-0.0590	0.0507	-0.0110	0.0267	-0.0567	0.0127	0.0181	0.0113	-0.0373	-0.0169	0.0665	0.0099	-0.0079	-0.0217	0.1091	0.0262	0.0230	0.0000	0.1292	0.0569	0.0044	0.0018	-0.0054	0.0108	0.0098	-0.0057	0.0038	0.0095	0.0158	-0.0172	0.0172	0.0028	0.0201	-0.0276	0.0270	-0.0052	0.0205	-0.0269	0.0229	-0.0072	0.0167	-0.0128	0.0058	-0.0005	0.0097	0.0037	-0.0097	0.0097	-0.0054	0.0000	-0.0003	0.0023	-0.0010	0.0005	0.0008	0.0026	0.0018	0.0009	0.0005	0.0022	0.0033	0.0006	0.0028	0.0023	0.0006	0.0002	0.0007	0.0020	-0.0023	-0.0003	0.0009	0.0029	0.0029	0.0000	-0.0008	0.0015	0.0017	0.0006	-0.0002	0.0003	0.0008	-0.0001	-0.0010	-0.0001	0.0002	0.0003	-0.0008	-0.0003	-0.0003	0.0006	-0.0006	-0.0007	-0.0011	0.0000	-0.0009	-0.0009	-0.0019	0.0000	-0.0008	-0.0012	-0.0026	-0.0005	-0.0010	-0.0015	-0.0017	0.1256	0.0423	0.0826	-0.0325	0.1114	0.0238	0.0647	-0.0538	0.0830	0.0236	0.0481	-0.0561	0.0441	0.0487	0.0408	-0.0384	0.0098	0.0890	0.0468	-0.0076	-0.0009	0.1221	0.0652	0.0266	0.0166	0.1339	0.0903	-0.0036	0.0011	-0.0089	0.0061	0.0003	-0.0049	0.0000	0.0037	0.0056	-0.0136	0.0142	-0.0033	0.0101	-0.0206	0.0260	-0.0112	0.0109	-0.0202	0.0233	-0.0122	0.0073	-0.0106	0.0059	-0.0038	0.0009	0.0014	-0.0109	0.0079	-0.0043	0.0012	0.0001	0.0010	-0.0004	0.0015	0.0011	0.0015	0.0020	0.0024	0.0009	0.0018	0.0029	0.0030	0.0030	0.0019	-0.0003	0.0028	0.0016	0.0012	-0.0034	0.0016	0.0017	0.0017	0.0011	0.0010	-0.0000	0.0005	0.0021	0.0025	0.0003	0.0002	0.0015	0.0013	-0.0005	-0.0003	0.0004	0.0005	-0.0008	-0.0001	-0.0009	0.0002	-0.0009	-0.0001	-0.0010	-0.0001	-0.0008	-0.0008	-0.0016	-0.0002	-0.0006	-0.0013	-0.0029	-0.0014	-0.0013	-0.0014	0.0274	0.1375	0.0668	0.0950	-0.0031	0.1299	0.0537	0.0818	-0.0259	0.1077	0.0548	0.0713	-0.0312	0.0729	0.0745	0.0705	-0.0168	0.0397	0.1043	0.0811	0.0113	0.0264	0.1264	0.0992	0.0436	0.0390	0.1302	0.1175	-0.0080	0.0008	-0.0116	0.0002	-0.0071	-0.0035	-0.0040	-0.0039	-0.0046	-0.0092	0.0093	-0.0108	-0.0018	-0.0126	0.0218	-0.0168	-0.0012	-0.0118	0.0220	-0.0151	-0.0033	-0.0061	0.0076	-0.0049	-0.0067	0.0008	-0.0081	0.0075	-0.0021	0.0010	0.0007	-0.0012	0.0011	0.0016	0.0015	-0.0005	0.0026	0.0030	0.0012	0.0007	0.0024	0.0044	0.0029	0.0018	-0.0012	0.0043	0.0020	0.0013	-0.0048	0.0020	0.0021	0.0007	-0.0014	-0.0001	0.0010	-0.0010	0.0025	0.0017	0.0021	0.0018	0.0023	0.0007	0.0013	0.0016	0.0010	-0.0008	0.0007	0.0013	-0.0007	-0.0020	0.0003	0.0005	-0.0008	-0.0018	0.0008	-0.0008	-0.0012	-0.0015	0.0008	-0.0017	-0.0025	-0.0026	-0.0006	-0.0021	0.0608	0.1371	0.0830	0.1049	0.0357	0.1350	0.0744	0.0968	0.0159	0.1200	0.0759	0.0916	0.0099	0.0934	0.0900	0.0940	0.0201	0.0666	0.1100	0.1048	0.0416	0.0544	0.1222	0.1200	0.0666	0.0627	0.1200	0.1320	-0.0100	0.0015	-0.0113	-0.0042	-0.0112	-0.0012	-0.0056	-0.0091	-0.0112	-0.0051	0.0048	-0.0156	-0.0104	-0.0066	0.0158	-0.0194	-0.0105	-0.0053	0.0181	-0.0155	-0.0112	-0.0016	0.0082	-0.0049	-0.0117	0.0017	-0.0044	0.0064	-0.0004	-0.0005	0.0006	-0.0017	0.0023	0.0010	0.0014	-0.0016	0.0030	0.0030	0.0012	-0.0003	0.0020	0.0049	0.0022	0.0021	-0.0015	0.0049	0.0016	0.0023	-0.0057	0.0024	0.0019	0.0007	-0.0032	-0.0004	0.0018	-0.0018	0.0020	0.0026	0.0008	0.0029	0.0021	0.0019	0.0006	0.0028	0.0012	0.0000	0.0002	0.0019	-0.0002	-0.0021	-0.0001	0.0006	-0.0007	-0.0020	0.0009	-0.0009	-0.0015	-0.0013	0.0010	-0.0023	-0.0019	-0.0018	-0.0008	-0.0033	0.0890	0.1279	0.0901	0.1105	0.0720	0.1295	0.0847	0.1067	0.0579	0.1210	0.0857	0.1052	0.0530	0.1035	0.0953	0.1081	0.0593	0.0853	0.1082	0.1164	0.0729	0.0773	0.1135	0.1269	0.0883	0.0829	0.1077	0.1340	-0.0094	0.0014	-0.0093	-0.0053	-0.0112	0.0001	-0.0052	-0.0097	-0.0122	-0.0026	0.0025	-0.0154	-0.0127	-0.0037	0.0105	-0.0172	-0.0131	-0.0026	0.0130	-0.0126	-0.0127	0.0007	0.0068	-0.0032	-0.0113	0.0027	-0.0018	0.0057	0.0002	0.0013	0.0010	-0.0020	0.0026	0.0029	0.0015	-0.0022	0.0026	0.0048	0.0013	-0.0011	0.0013	0.0061	0.0021	0.0016	-0.0017	0.0061	0.0014	0.0024	-0.0058	0.0042	0.0017	0.0006	-0.0038	0.0016	0.0024	-0.0020	0.0012	0.0018	0.0006	0.0025	0.0016	0.0013	0.0007	0.0026	0.0011	-0.0003	0.0005	0.0024	0.0008	-0.0021	0.0005	0.0009	-0.0003	-0.0023	0.0013	-0.0007	-0.0014	-0.0016	0.0012	-0.0021	-0.0011	-0.0013	-0.0001	-0.0031	-0.0628	-0.0606	0.0262	-0.0894	-0.0558	-0.0433	0.0796	-0.0656	-0.0511	-0.0145	0.1099	-0.0250	-0.0510	0.0193	0.1009	0.0241	-0.0550	0.0452	0.0587	0.0643	-0.0585	0.0524	0.0099	0.0785	-0.0587	0.0398	-0.0266	0.0627	-0.0042	-0.0179	0.0160	-0.0003	-0.0020	-0.0091	0.0101	0.0063	0.0014	0.0082	-0.0029	0.0156	0.0059	0.0239	-0.0153	0.0206	0.0091	0.0251	-0.0203	0.0181	0.0092	0.0083	-0.0144	0.0093	0.0076	-0.0110	-0.0053	-0.0013	0.0025	-0.0016	-0.0001	0.0028	-0.0026	0.0000	0.0001	0.0020	-0.0043	0.0027	0.0002	-0.0006	-0.0031	0.0054	-0.0011	-0.0043	0.0010	0.0057	-0.0009	-0.0055	0.0064	0.0030	-0.0016	-0.0035	0.0025	-0.0003	-0.0030	0.0002	0.0048	0.0016	0.0008	0.0025	0.0045	0.0019	-0.0001	0.0029	0.0025	0.0015	-0.0014	0.0021	0.0001	0.0012	-0.0018	0.0003	-0.0008	0.0011	-0.0008	-0.0019	-0.0009	0.0002	0.0006	-0.0032	-0.0035	-0.0020	0.0004	-0.0021	-0.0483	-0.0644	0.0506	-0.0817	-0.0333	-0.0425	0.1116	-0.0491	-0.0220	-0.0050	0.1439	-0.0001	-0.0194	0.0404	0.1292	0.0547	-0.0259	0.0768	0.0756	0.0964	-0.0352	0.0884	0.0156	0.1078	-0.0427	0.0724	-0.0274	0.0859	-0.0084	-0.0181	0.0153	-0.0098	-0.0104	-0.0067	0.0063	-0.0051	-0.0122	0.0136	-0.0101	0.0050	-0.0120	0.0323	-0.0240	0.0137	-0.0105	0.0343	-0.0260	0.0152	-0.0086	0.0144	-0.0139	0.0076	-0.0053	-0.0094	-0.0003	-0.0039	0.0052	-0.0025	0.0007	0.0004	-0.0001	-0.0021	0.0003	-0.0003	-0.0027	-0.0009	-0.0002	-0.0020	-0.0030	0.0012	-0.0021	-0.0041	0.0006	0.0018	-0.0015	-0.0050	0.0056	0.0002	-0.0014	-0.0045	-0.0001	-0.0021	-0.0020	-0.0016	0.0035	0.0012	0.0022	0.0016	0.0031	0.0012	0.0022	0.0016	0.0020	0.0004	0.0010	0.0013	0.0004	-0.0006	-0.0003	0.0008	0.0001	-0.0003	-0.0002	-0.0001	0.0004	-0.0003	0.0004	-0.0011	-0.0017	-0.0023	-0.0005	-0.0010	-0.0277	-0.0765	0.0627	-0.0699	-0.0000	-0.0534	0.1247	-0.0298	0.0227	-0.0095	0.1555	0.0230	0.0315	0.0475	0.1365	0.0755	0.0237	0.0969	0.0771	0.1108	0.0067	0.1166	0.0122	0.1160	-0.0122	0.1004	-0.0326	0.0903	-0.0103	-0.0157	0.0151	-0.0183	-0.0162	-0.0036	0.0028	-0.0153	-0.0235	0.0162	-0.0170	-0.0045	-0.0288	0.0347	-0.0327	0.0080	-0.0295	0.0379	-0.0325	0.0132	-0.0253	0.0194	-0.0141	0.0060	-0.0170	-0.0051	0.0047	-0.0070	0.0073	-0.0008	0.0016	-0.0020	0.0024	-0.0002	0.0006	-0.0024	-0.0010	0.0003	-0.0004	-0.0026	-0.0028	0.0013	-0.0030	-0.0032	-0.0001	0.0017	-0.0018	-0.0039	0.0046	0.0008	-0.0010	-0.0052	-0.0022	-0.0013	-0.0008	-0.0034	0.0018	0.0015	0.0010	0.0017	0.0016	0.0017	0.0013	0.0013	0.0011	0.0010	0.0008	0.0007	0.0004	-0.0003	-0.0001	0.0003	-0.0002	-0.0006	-0.0001	-0.0002	0.0003	-0.0006	0.0004	-0.0011	0.0000	-0.0018	-0.0000	-0.0015	-0.0095	-0.0915	0.0620	-0.0561	0.0315	-0.0706	0.1182	-0.0115	0.0673	-0.0245	0.1438	0.0394	0.0844	0.0403	0.1227	0.0827	0.0774	0.1009	0.0643	0.1058	0.0536	0.1295	0.0022	0.1025	0.0228	0.1165	-0.0391	0.0757	-0.0066	-0.0121	0.0170	-0.0195	-0.0138	-0.0012	0.0030	-0.0162	-0.0235	0.0150	-0.0191	-0.0047	-0.0316	0.0301	-0.0376	0.0089	-0.0338	0.0338	-0.0377	0.0144	-0.0290	0.0199	-0.0161	0.0060	-0.0189	-0.0009	0.0067	-0.0091	0.0075	0.0036	0.0021	-0.0026	0.0030	0.0040	0.0010	-0.0034	-0.0004	0.0034	0.0000	-0.0036	-0.0028	0.0028	-0.0028	-0.0040	-0.0004	0.0024	-0.0017	-0.0039	0.0047	0.0026	-0.0009	-0.0051	-0.0024	0.0017	-0.0004	-0.0036	0.0000	0.0002	0.0002	0.0017	0.0001	0.0001	0.0011	0.0015	0.0005	-0.0002	0.0017	0.0008	0.0004	-0.0012	0.0016	-0.0002	-0.0003	-0.0018	0.0010	-0.0006	0.0003	-0.0013	0.0007	-0.0009	0.0013	-0.0006	0.0007	-0.0008	-0.0002	-0.1029	0.0516	-0.0455	0.0494	-0.0853	0.0980	-0.0011	0.0942	-0.0412	0.1167	0.0442	0.1180	0.0244	0.0956	0.0765	0.1133	0.0892	0.0438	0.0870	0.0865	0.1236	-0.0093	0.0763	0.0487	0.1156	-0.0430	0.0506	-0.0012	-0.0075	0.0203	-0.0145	-0.0066	0.0014	0.0074	-0.0084	-0.0141	0.0131	-0.0147	0.0036	-0.0207	0.0229	-0.0354	0.0152	-0.0228	0.0254	-0.0388	0.0178	-0.0190	0.0162	-0.0185	0.0070	-0.0111	0.0015	0.0056	-0.0092	0.0064	0.0034	0.0014	-0.0007	0.0018	0.0032	0.0004	-0.0019	-0.0010	0.0016	-0.0002	-0.0036	-0.0026	-0.0001	-0.0028	-0.0051	0.0003	-0.0004	-0.0020	-0.0044	0.0058	0.0016	-0.0016	-0.0037	-0.0006	0.0028	-0.0011	-0.0018	-0.0011	-0.0024	0.0002	0.0007	-0.0010	-0.0016	0.0006	0.0004	-0.0005	-0.0005	0.0010	-0.0002	0.0003	0.0000	0.0010	-0.0005	0.0003	-0.0008	0.0001	-0.0001	0.0004	-0.0012	0.0000	0.0008	0.0020	0.0002	0.0015	0.0013	-0.0031	-0.1053	0.0377	-0.0398	0.0474	-0.0905	0.0732	0.0002	0.0938	-0.0518	0.0853	0.0379	0.1202	0.0070	0.0660	0.0611	0.1187	0.0672	0.0239	0.0634	0.0941	0.1020	-0.0175	0.0487	0.0566	0.0994	-0.0418	0.0254	0.0025	-0.0045	0.0206	-0.0076	-0.0002	0.0026	0.0102	0.0006	-0.0040	0.0107	-0.0085	0.0124	-0.0072	0.0161	-0.0280	0.0212	-0.0080	0.0165	-0.0341	0.0209	-0.0052	0.0102	-0.0189	0.0087	-0.0002	0.0011	0.0026	-0.0074	0.0046	0.0035	0.0002	0.0018	0.0003	0.0025	-0.0005	0.0004	-0.0018	0.0000	-0.0007	-0.0024	-0.0026	-0.0026	-0.0027	-0.0051	0.0007	-0.0034	-0.0020	-0.0048	0.0064	-0.0011	-0.0022	-0.0028	0.0016	0.0016	-0.0022	0.0002	-0.0020	-0.0024	-0.0014	-0.0012	-0.0023	-0.0020	-0.0005	-0.0020	-0.0015	-0.0005	0.0000	-0.0022	-0.0004	0.0009	0.0001	-0.0014	0.0006	0.0008	-0.0007	-0.0001	0.0006	-0.0003	-0.0011	0.0014	0.0020	0.0011	0.0009	0.0023	-0.0138	-0.0988	0.0254	-0.0357	0.0318	-0.0858	0.0513	-0.0033	0.0735	-0.0533	0.0586	0.0258	0.0983	-0.0050	0.0421	0.0425	0.0989	0.0446	0.0094	0.0416	0.0792	0.0745	-0.0208	0.0272	0.0479	0.0750	-0.0366	0.0074	0.0048	-0.0037	0.0179	-0.0015	0.0041	0.0017	0.0101	0.0073	0.0034	0.0078	-0.0040	0.0180	0.0032	0.0112	-0.0195	0.0244	0.0042	0.0103	-0.0265	0.0216	0.0061	0.0048	-0.0170	0.0090	0.0081	-0.0013	-0.0007	-0.0061	0.0029	0.0039	-0.0002	0.0023	-0.0007	0.0018	-0.0009	0.0018	-0.0021	-0.0012	-0.0012	-0.0007	-0.0025	-0.0041	-0.0025	-0.0042	0.0008	-0.0052	-0.0017	-0.0049	0.0064	-0.0031	-0.0021	-0.0029	0.0034	-0.0000	-0.0026	0.0011	-0.0021	-0.0037	-0.0004	-0.0029	-0.0025	-0.0031	-0.0001	-0.0039	-0.0021	-0.0011	-0.0001	-0.0037	-0.0011	0.0011	-0.0006	-0.0021	0.0004	0.0023	-0.0012	-0.0002	0.0009	0.0010	-0.0018	0.0018	0.0019	0.0013	0.0004	0.0030	-0.0136	-0.0653	0.0896	-0.0563	-0.0005	-0.0343	0.0615	0.0082	0.0115	-0.0132	-0.0170	0.0684	0.0322	-0.0099	-0.0791	0.0830	0.0657	-0.0235	-0.0685	0.0396	0.1005	-0.0353	-0.0017	-0.0239	0.1216	-0.0257	0.0698	-0.0492	0.0049	0.0117	0.0036	0.0141	0.0136	0.0522	-0.0203	0.0212	0.0162	0.0550	-0.0273	0.0136	0.0081	0.0026	-0.0106	-0.0068	-0.0060	-0.0557	0.0143	-0.0229	-0.0155	-0.0566	0.0222	-0.0206	-0.0160	-0.0102	0.0131	-0.0031	-0.0119	0.0035	-0.0009	-0.0006	-0.0102	0.0115	0.0025	-0.0086	0.0095	0.0140	0.0018	-0.0143	0.0231	0.0059	-0.0028	-0.0064	0.0172	-0.0053	-0.0042	0.0083	-0.0061	-0.0075	-0.0028	0.0127	-0.0126	-0.0008	0.0061	0.0063	-0.0018	-0.0017	-0.0051	0.0045	-0.0069	-0.0013	-0.0070	0.0018	-0.0045	0.0014	-0.0028	-0.0043	0.0027	0.0019	0.0038	-0.0081	-0.0002	-0.0029	0.0044	-0.0037	-0.0065	-0.0061	-0.0004	0.0032	-0.0028	-0.0023	-0.0035	0.0044	-0.0089	-0.0665	0.1126	-0.0533	-0.0021	-0.0213	0.0709	0.0145	-0.0037	0.0131	-0.0346	0.0738	0.0027	0.0159	-0.1161	0.0818	0.0285	-0.0172	-0.1026	0.0277	0.0645	-0.0563	-0.0155	-0.0463	0.0932	-0.0629	0.0754	-0.0747	-0.0043	0.0163	-0.0021	0.0098	0.0030	0.0648	-0.0295	0.0331	0.0107	0.0690	-0.0277	0.0412	0.0157	0.0037	0.0066	0.0220	0.0186	-0.0727	0.0404	-0.0072	0.0215	-0.0787	0.0377	-0.0168	0.0209	-0.0231	0.0101	-0.0009	-0.0144	-0.0024	-0.0026	0.0021	-0.0165	0.0057	-0.0011	-0.0007	0.0042	0.0116	-0.0006	-0.0058	0.0217	0.0075	-0.0023	-0.0061	0.0144	-0.0014	-0.0012	0.0013	-0.0106	-0.0026	0.0009	0.0083	-0.0128	0.0039	0.0068	0.0086	-0.0005	-0.0038	-0.0022	0.0022	-0.0036	-0.0049	-0.0063	0.0027	-0.0007	-0.0013	-0.0056	0.0014	0.0062	0.0040	-0.0001	-0.0011	0.0023	0.0008	-0.0007	-0.0015	-0.0059	-0.0041	-0.0043	-0.0004	-0.0052	-0.0015	-0.0032	-0.0005	0.0112	-0.0804	0.1177	-0.0514	0.0125	-0.0132	0.0760	0.0053	-0.0096	0.0499	-0.0334	0.0494	-0.0306	0.0650	-0.1166	0.0517	-0.0277	0.0158	-0.0980	0.0089	-0.0017	-0.0564	-0.0015	-0.0455	0.0330	-0.0875	0.0955	-0.0598	-0.0197	0.0157	-0.0123	-0.0026	-0.0208	0.0633	-0.0442	0.0370	-0.0125	0.0706	-0.0335	0.0622	0.0070	0.0111	0.0225	0.0447	0.0323	-0.0650	0.0704	0.0021	0.0508	-0.0782	0.0583	-0.0183	0.0503	-0.0297	0.0092	-0.0020	-0.0136	-0.0065	-0.0037	0.0039	-0.0195	-0.0028	-0.0053	0.0078	-0.0006	0.0017	-0.0042	0.0050	0.0183	0.0012	-0.0023	-0.0049	0.0102	-0.0036	0.0024	-0.0081	-0.0143	-0.0049	0.0049	0.0002	-0.0122	-0.0006	0.0070	0.0083	0.0013	-0.0026	0.0006	-0.0004	0.0018	-0.0052	-0.0026	0.0004	0.0026	-0.0041	-0.0034	0.0014	0.0050	0.0021	-0.0005	0.0014	0.0043	0.0019	-0.0023	-0.0003	0.0001	-0.0019	-0.0047	-0.0008	-0.0029	-0.0012	-0.0026	0.0002	0.0396	-0.1091	0.0979	-0.0514	0.0422	-0.0218	0.0695	-0.0158	0.0045	0.0744	-0.0189	0.0036	-0.0440	0.1120	-0.0843	0.0011	-0.0699	0.0593	-0.0594	-0.0146	-0.0623	-0.0362	0.0332	-0.0267	-0.0270	-0.0894	0.1208	-0.0135	-0.0269	0.0087	-0.0189	-0.0109	-0.0385	0.0454	-0.0598	0.0334	-0.0363	0.0548	-0.0505	0.0621	-0.0126	0.0179	0.0193	0.0412	0.0229	-0.0371	0.0843	-0.0082	0.0474	-0.0537	0.0747	-0.0288	0.0464	-0.0242	0.0146	-0.0056	-0.0115	-0.0044	-0.0023	0.0020	-0.0176	-0.0071	-0.0060	0.0077	-0.0003	-0.0067	-0.0058	0.0077	0.0187	-0.0034	-0.0033	-0.0027	0.0099	-0.0026	0.0024	-0.0086	-0.0156	-0.0052	0.0060	-0.0016	-0.0138	-0.0064	0.0073	0.0068	0.0026	0.0001	0.0031	-0.0004	0.0064	-0.0010	0.0027	-0.0021	0.0041	-0.0029	-0.0001	-0.0023	0.0011	-0.0002	-0.0020	-0.0013	0.0038	0.0033	-0.0034	-0.0017	0.0054	0.0044	-0.0036	-0.0010	0.0008	0.0027	-0.0033	0.0009	0.0569	-0.1423	0.0609	-0.0564	0.0689	-0.0493	0.0521	-0.0392	0.0319	0.0659	-0.0021	-0.0400	-0.0270	0.1253	-0.0395	-0.0442	-0.0703	0.0862	-0.0092	-0.0331	-0.0788	-0.0079	0.0695	-0.0040	-0.0494	-0.0676	0.1379	0.0358	-0.0177	0.0003	-0.0138	-0.0061	-0.0341	0.0210	-0.0637	0.0296	-0.0399	0.0296	-0.0677	0.0452	-0.0249	0.0174	-0.0033	0.0161	0.0012	-0.0085	0.0706	-0.0311	0.0169	-0.0213	0.0750	-0.0422	0.0133	-0.0095	0.0219	-0.0099	-0.0099	-0.0018	-0.0001	-0.0008	-0.0126	-0.0085	-0.0034	-0.0005	0.0043	-0.0098	-0.0038	-0.0012	0.0231	-0.0014	-0.0035	-0.0033	0.0148	0.0062	-0.0001	-0.0019	-0.0132	0.0031	0.0046	0.0028	-0.0168	-0.0047	0.0084	0.0040	0.0026	0.0025	0.0039	-0.0001	0.0076	0.0057	0.0057	-0.0010	0.0045	0.0013	0.0011	-0.0004	-0.0001	-0.0036	-0.0031	0.0008	0.0034	-0.0004	0.0001	0.0005	0.0070	0.0048	0.0040	-0.0003	0.0032	0.0031	0.0009	-0.0009	0.0445	-0.1646	0.0229	-0.0675	0.0699	-0.0849	0.0325	-0.0571	0.0514	0.0240	0.0117	-0.0622	0.0069	0.0931	0.0002	-0.0620	-0.0314	0.0800	0.0322	-0.0355	-0.0436	0.0142	0.0924	0.0138	-0.0227	-0.0312	0.1393	0.0661	0.0003	-0.0060	-0.0002	0.0062	-0.0130	0.0023	-0.0495	0.0288	-0.0221	0.0085	-0.0668	0.0285	-0.0189	0.0109	-0.0244	-0.0047	-0.0102	0.0057	0.0401	-0.0438	-0.0094	0.0009	0.0568	-0.0467	-0.0169	0.0048	0.0221	-0.0123	-0.0083	-0.0009	0.0009	-0.0008	-0.0072	-0.0086	-0.0007	-0.0074	0.0081	-0.0094	-0.0011	-0.0111	0.0254	0.0017	-0.0029	-0.0056	0.0203	0.0133	-0.0030	0.0047	-0.0067	0.0121	0.0008	0.0088	-0.0162	0.0023	0.0075	0.0037	0.0014	0.0033	0.0030	-0.0014	0.0048	0.0096	0.0049	0.0007	0.0035	0.0059	-0.0008	0.0030	0.0010	-0.0027	-0.0053	0.0044	0.0028	-0.0023	0.0009	0.0037	0.0048	0.0036	0.0077	0.0007	0.0026	0.0034	0.0044	-0.0031	0.0048	-0.1685	-0.0042	-0.0807	0.0403	-0.1130	0.0176	-0.0672	0.0467	-0.0290	0.0196	-0.0636	0.0313	0.0349	0.0248	-0.0540	0.0154	0.0458	0.0545	-0.0233	0.0130	0.0189	0.0979	0.0251	0.0294	0.0001	0.1275	0.0738	0.0139	-0.0084	0.0120	0.0146	0.0068	-0.0058	-0.0264	0.0269	-0.0003	-0.0010	-0.0483	0.0186	-0.0043	0.0046	-0.0300	-0.0106	-0.0089	0.0063	0.0130	-0.0390	-0.0181	0.0073	0.0318	-0.0387	-0.0280	0.0117	0.0148	-0.0101	-0.0059	-0.0026	0.0006	0.0009	-0.0029	-0.0090	0.0005	-0.0089	0.0088	-0.0085	0.0003	-0.0147	0.0229	0.0018	-0.0017	-0.0077	0.0218	0.0135	-0.0039	0.0053	-0.0004	0.0152	-0.0021	0.0101	-0.0122	0.0078	0.0052	0.0042	-0.0001	0.0019	0.0027	-0.0039	0.0005	0.0079	0.0027	0.0002	0.0017	0.0063	-0.0025	0.0053	0.0024	-0.0012	-0.0055	0.0086	0.0030	-0.0038	0.0008	0.0077	0.0027	-0.0007	0.0084	0.0026	0.0010	0.0006	0.0071	-0.0032	-0.0925	0.0503	0.0717	0.0061	-0.1185	0.0611	0.0546	0.0178	-0.1469	0.0614	0.0207	0.0247	-0.1700	0.0452	-0.0130	0.0218	-0.1802	0.0123	-0.0285	0.0078	-0.1748	-0.0272	-0.0238	-0.0121	-0.1560	-0.0599	-0.0076	-0.0266	-0.0192	0.0060	-0.0152	-0.0066	-0.0203	0.0150	-0.0196	-0.0054	-0.0201	0.0181	-0.0154	-0.0029	-0.0178	0.0086	-0.0001	-0.0012	-0.0123	-0.0089	0.0168	-0.0011	-0.0036	-0.0194	0.0221	-0.0006	0.0048	-0.0184	0.0152	0.0026	-0.0019	-0.0101	-0.0008	-0.0034	-0.0025	-0.0122	-0.0012	-0.0023	-0.0011	-0.0129	-0.0024	0.0007	0.0009	-0.0124	-0.0018	0.0036	-0.0010	-0.0111	-0.0008	0.0029	-0.0067	-0.0083	0.0019	0.0005	-0.0059	-0.0042	0.0038	-0.0009	0.0011	0.0019	0.0045	-0.0027	0.0003	-0.0004	0.0037	-0.0028	0.0012	-0.0025	0.0024	-0.0010	0.0028	-0.0026	0.0011	0.0025	0.0023	-0.0022	-0.0017	0.0055	0.0010	-0.0017	-0.0046	0.0053	-0.0005	-0.0019	-0.0058	0.0026	-0.0175	0.0402	0.0662	0.0414	-0.0297	0.0543	0.0433	0.0499	-0.0507	0.0663	0.0129	0.0434	-0.0761	0.0682	-0.0069	0.0226	-0.0995	0.0523	-0.0063	-0.0007	-0.1151	0.0220	0.0075	-0.0130	-0.1189	-0.0098	0.0224	-0.0092	-0.0407	0.0150	-0.0287	-0.0379	-0.0556	0.0199	-0.0352	-0.0395	-0.0697	0.0163	-0.0286	-0.0326	-0.0755	0.0062	-0.0053	-0.0215	-0.0669	-0.0017	0.0213	-0.0125	-0.0456	-0.0012	0.0317	-0.0062	-0.0229	0.0017	0.0241	0.0002	0.0037	-0.0036	0.0018	-0.0110	0.0038	-0.0076	-0.0000	-0.0060	0.0030	-0.0110	-0.0024	0.0024	0.0002	-0.0115	-0.0016	0.0072	-0.0075	-0.0081	0.0014	0.0032	-0.0152	-0.0025	0.0062	-0.0037	-0.0125	0.0018	0.0081	-0.0075	-0.0035	0.0019	0.0053	-0.0030	-0.0002	-0.0004	0.0062	-0.0036	0.0030	-0.0028	0.0059	-0.0004	0.0048	-0.0037	0.0033	0.0047	0.0045	-0.0033	-0.0016	0.0074	0.0042	-0.0012	-0.0047	0.0053	0.0049	0.0001	-0.0051	0.0002	0.0578	0.0102	0.0203	0.0660	0.0638	0.0215	-0.0124	0.0628	0.0568	0.0391	-0.0332	0.0332	0.0362	0.0555	-0.0248	-0.0124	0.0053	0.0591	0.0071	-0.0459	-0.0297	0.0475	0.0390	-0.0446	-0.0578	0.0296	0.0547	-0.0127	-0.0323	0.0200	-0.0284	-0.0368	-0.0510	0.0129	-0.0350	-0.0379	-0.0700	-0.0043	-0.0289	-0.0321	-0.0792	-0.0165	-0.0071	-0.0234	-0.0711	-0.0090	0.0171	-0.0163	-0.0496	0.0114	0.0260	-0.0093	-0.0275	0.0231	0.0194	-0.0010	0.0038	0.0101	0.0031	-0.0114	0.0062	0.0080	0.0015	-0.0059	0.0052	0.0041	-0.0007	0.0022	0.0006	0.0029	0.0007	0.0068	-0.0092	0.0070	0.0030	0.0031	-0.0165	0.0124	0.0076	-0.0032	-0.0115	0.0143	0.0085	-0.0080	-0.0047	0.0009	0.0003	0.0018	0.0013	0.0016	0.0031	0.0009	0.0045	0.0005	0.0047	0.0018	0.0044	-0.0014	0.0033	0.0032	0.0033	-0.0019	-0.0001	0.0032	0.0039	0.0007	-0.0017	0.0010	0.0071	0.0038	-0.0007	-0.0030	0.0887	-0.0109	-0.0329	0.0648	0.1020	-0.0051	-0.0697	0.0472	0.1038	0.0071	-0.0756	0.0016	0.0923	0.0214	-0.0366	-0.0540	0.0673	0.0318	0.0258	-0.0846	0.0315	0.0385	0.0738	-0.0669	-0.0034	0.0444	0.0878	-0.0127	-0.0056	0.0191	-0.0124	-0.0024	-0.0128	0.0004	-0.0135	0.0011	-0.0198	-0.0280	-0.0084	-0.0012	-0.0221	-0.0421	0.0014	-0.0091	-0.0180	-0.0235	0.0077	-0.0149	-0.0121	0.0125	0.0047	-0.0110	-0.0093	0.0346	-0.0009	-0.0007	-0.0021	0.0134	0.0013	-0.0025	0.0024	0.0131	0.0021	-0.0024	0.0040	0.0105	0.0020	-0.0026	0.0027	0.0099	0.0042	-0.0010	-0.0039	0.0144	0.0029	0.0004	-0.0084	0.0190	0.0044	0.0017	-0.0025	0.0192	0.0034	-0.0014	-0.0020	-0.0033	-0.0025	0.0049	0.0032	0.0009	0.0011	0.0053	0.0051	0.0024	0.0027	0.0046	0.0038	0.0008	0.0025	0.0026	0.0023	-0.0009	0.0024	0.0007	0.0025	0.0004	0.0037	-0.0005	0.0051	0.0038	0.0061	-0.0017	0.0629	-0.0053	-0.0641	0.0387	0.0657	-0.0046	-0.0951	0.0107	0.0652	-0.0081	-0.0841	-0.0340	0.0632	-0.0148	-0.0230	-0.0749	0.0571	-0.0148	0.0564	-0.0853	0.0436	0.0030	0.1093	-0.0522	0.0261	0.0354	0.1167	0.0085	0.0162	0.0129	0.0007	0.0320	0.0238	-0.0088	0.0096	0.0361	0.0329	-0.0373	0.0195	0.0230	0.0395	-0.0497	0.0203	0.0003	0.0382	-0.0298	0.0055	-0.0137	0.0259	0.0076	-0.0156	-0.0094	0.0083	0.0334	-0.0250	0.0033	-0.0072	0.0043	-0.0021	0.0069	-0.0001	0.0015	0.0003	0.0026	0.0037	-0.0012	0.0015	-0.0045	0.0055	-0.0007	0.0048	-0.0061	0.0023	0.0045	0.0006	-0.0012	0.0005	0.0099	-0.0004	0.0061	0.0070	0.0125	-0.0031	0.0052	-0.0003	-0.0038	-0.0021	-0.0020	0.0012	0.0009	0.0004	-0.0006	0.0022	0.0039	0.0003	0.0015	0.0027	0.0042	-0.0009	0.0035	0.0032	0.0029	0.0001	0.0048	0.0027	0.0023	0.0027	0.0044	0.0016	0.0034	0.0056	0.0027	0.0100	0.0173	-0.0679	0.0046	-0.0061	0.0138	-0.0863	-0.0263	-0.0154	-0.0076	-0.0618	-0.0565	-0.0097	-0.0403	0.0074	-0.0686	0.0077	-0.0579	0.0870	-0.0520	0.0266	-0.0368	0.1339	-0.0094	0.0385	0.0160	0.1325	0.0436	0.0183	0.0052	-0.0017	0.0371	0.0300	-0.0117	0.0150	0.0339	0.0438	-0.0305	0.0340	0.0137	0.0516	-0.0372	0.0372	-0.0096	0.0457	-0.0227	0.0134	-0.0165	0.0266	0.0046	-0.0211	-0.0047	0.0042	0.0258	-0.0382	0.0107	-0.0065	-0.0072	-0.0030	0.0069	0.0027	-0.0110	-0.0010	0.0034	0.0066	-0.0123	-0.0004	-0.0021	0.0071	-0.0108	0.0033	-0.0031	0.0029	-0.0072	-0.0009	-0.0002	0.0015	-0.0035	-0.0017	0.0048	0.0088	0.0010	-0.0050	0.0035	0.0009	-0.0019	0.0013	-0.0063	-0.0006	0.0002	0.0007	-0.0054	-0.0007	0.0026	-0.0009	-0.0018	0.0011	0.0045	-0.0022	0.0032	0.0032	0.0046	-0.0013	0.0075	0.0031	0.0031	0.0005	0.0084	0.0001	0.0004	0.0015	0.0066	-0.0302	0.0364	-0.0521	-0.0154	-0.0578	0.0298	-0.0580	-0.0420	-0.0718	-0.0017	-0.0277	-0.0553	-0.0601	-0.0479	0.0364	-0.0434	-0.0259	-0.0755	0.1038	-0.0088	0.0168	-0.0557	0.1395	0.0351	0.0510	0.0044	0.1316	0.0745	0.0093	-0.0018	-0.0108	0.0215	0.0159	-0.0116	0.0072	0.0099	0.0240	-0.0197	0.0309	-0.0111	0.0265	-0.0211	0.0409	-0.0250	0.0185	-0.0124	0.0214	-0.0187	0.0033	0.0035	-0.0143	0.0018	-0.0107	0.0174	-0.0367	0.0187	-0.0022	-0.0091	-0.0018	0.0022	0.0069	-0.0095	-0.0004	0.0011	0.0094	-0.0068	-0.0008	0.0010	0.0071	-0.0042	0.0019	0.0034	-0.0002	-0.0040	-0.0009	0.0033	-0.0031	-0.0054	-0.0003	0.0021	0.0042	-0.0041	-0.0033	-0.0018	0.0012	0.0037	0.0004	-0.0039	-0.0008	0.0025	-0.0024	-0.0026	-0.0014	0.0020	-0.0034	-0.0007	-0.0002	0.0028	-0.0026	0.0011	0.0007	0.0040	-0.0010	0.0028	0.0005	0.0037	-0.0010	0.0031	-0.0015	0.0000	-0.0031	0.0024	0.0629	0.1224	-0.0230	0.1107	0.0286	0.1068	-0.0822	0.0724	-0.0021	0.0682	-0.1008	0.0150	-0.0226	0.0167	-0.0719	-0.0408	-0.0325	-0.0279	-0.0214	-0.0717	-0.0353	-0.0483	0.0175	-0.0673	-0.0333	-0.0434	0.0301	-0.0389	-0.0066	0.0226	-0.0173	0.0168	0.0007	-0.0004	0.0016	0.0174	0.0121	-0.0275	0.0245	0.0114	0.0249	-0.0413	0.0357	0.0034	0.0350	-0.0307	0.0259	0.0004	0.0375	-0.0071	0.0043	0.0046	0.0312	0.0091	-0.0111	0.0105	-0.0057	0.0032	-0.0016	0.0022	-0.0021	0.0040	-0.0006	0.0048	-0.0031	0.0047	0.0009	0.0050	-0.0058	0.0058	0.0048	0.0030	-0.0087	0.0078	0.0039	0.0008	-0.0052	0.0087	0.0032	0.0020	0.0045	0.0077	-0.0014	0.0022	0.0026	-0.0010	-0.0015	0.0017	0.0044	0.0000	-0.0021	0.0028	0.0036	0.0014	-0.0026	0.0031	0.0013	0.0029	-0.0029	0.0012	-0.0005	0.0029	-0.0027	-0.0020	-0.0013	0.0026	-0.0008	-0.0040	-0.0013	0.0028	0.0020	-0.0038	0.0697	0.1277	-0.0238	0.0748	0.0197	0.1254	-0.0597	0.0318	-0.0285	0.0929	-0.0574	-0.0146	-0.0617	0.0380	-0.0202	-0.0426	-0.0757	-0.0142	0.0240	-0.0414	-0.0727	-0.0394	0.0483	-0.0178	-0.0587	-0.0343	0.0462	0.0103	-0.0136	0.0139	-0.0145	0.0246	-0.0018	-0.0066	0.0094	0.0269	0.0182	-0.0241	0.0332	0.0168	0.0383	-0.0275	0.0403	0.0014	0.0483	-0.0162	0.0226	-0.0063	0.0425	-0.0017	-0.0050	-0.0019	0.0263	0.0054	-0.0206	0.0063	-0.0057	-0.0063	-0.0033	0.0065	-0.0039	-0.0052	-0.0010	0.0058	-0.0054	-0.0019	0.0023	0.0011	-0.0058	0.0020	0.0064	-0.0036	-0.0054	0.0040	0.0038	-0.0033	-0.0002	0.0023	0.0012	0.0020	0.0081	-0.0005	-0.0040	0.0044	0.0072	-0.0012	0.0019	0.0031	0.0074	0.0002	0.0002	0.0054	0.0049	0.0015	-0.0016	0.0051	0.0021	0.0025	-0.0020	0.0018	0.0011	0.0025	0.0002	-0.0017	-0.0001	0.0013	0.0027	-0.0027	-0.0029	-0.0006	0.0034	-0.0011	0.0772	0.1135	-0.0238	0.0288	0.0210	0.1223	-0.0286	-0.0129	-0.0350	0.0984	-0.0046	-0.0388	-0.0736	0.0482	0.0332	-0.0319	-0.0877	-0.0008	0.0605	0.0019	-0.0788	-0.0231	0.0631	0.0386	-0.0560	-0.0164	0.0457	0.0579	-0.0230	0.0015	-0.0170	0.0134	-0.0149	-0.0095	0.0063	0.0081	0.0015	-0.0098	0.0284	-0.0065	0.0167	0.0008	0.0341	-0.0198	0.0204	0.0100	0.0175	-0.0200	0.0107	0.0102	-0.0070	-0.0085	-0.0036	0.0037	-0.0195	0.0028	-0.0009	-0.0148	-0.0033	0.0046	0.0000	-0.0157	-0.0012	0.0025	-0.0024	-0.0123	0.0019	-0.0016	-0.0033	-0.0070	0.0047	-0.0038	-0.0031	-0.0048	0.0020	-0.0024	0.0003	-0.0067	-0.0001	0.0012	0.0054	-0.0085	-0.0034	0.0020	0.0062	0.0024	0.0049	-0.0010	0.0047	0.0019	0.0032	0.0010	0.0030	0.0015	0.0005	0.0026	0.0027	0.0020	-0.0009	0.0031	0.0041	0.0031	0.0005	0.0029	0.0029	0.0022	0.0013	0.0023	-0.0021	-0.0015	-0.0006	0.0020	0.0868	0.0695	-0.0381	-0.0134	0.0423	0.0790	-0.0179	-0.0473	-0.0025	0.0630	0.0199	-0.0541	-0.0334	0.0294	0.0536	-0.0254	-0.0439	0.0011	0.0649	0.0224	-0.0354	-0.0059	0.0518	0.0600	-0.0170	0.0053	0.0271	0.0701	-0.0243	-0.0083	-0.0205	-0.0107	-0.0268	-0.0096	-0.0050	-0.0289	-0.0266	0.0039	0.0104	-0.0447	-0.0282	0.0234	0.0169	-0.0449	-0.0341	0.0311	0.0103	-0.0286	-0.0397	0.0227	-0.0017	-0.0080	-0.0394	0.0074	-0.0077	0.0035	0.0061	-0.0152	-0.0001	-0.0050	0.0076	-0.0152	0.0005	-0.0048	0.0040	-0.0108	0.0011	-0.0015	-0.0002	-0.0054	0.0016	0.0025	-0.0037	-0.0041	0.0007	0.0023	-0.0044	-0.0064	0.0013	-0.0016	-0.0023	-0.0078	0.0011	-0.0057	0.0025	0.0043	0.0061	-0.0005	0.0016	0.0024	0.0041	0.0006	0.0018	0.0003	0.0026	0.0025	0.0035	-0.0003	0.0023	0.0049	0.0053	0.0010	0.0028	0.0059	0.0044	0.0009	0.0014	0.0046	0.0012	-0.0028	-0.0026	0.0018	0.0868	0.0055	-0.0664	-0.0438	0.0684	0.0043	-0.0347	-0.0659	0.0507	-0.0063	0.0062	-0.0621	0.0391	-0.0152	0.0348	-0.0326	0.0350	-0.0112	0.0385	0.0064	0.0362	0.0049	0.0217	0.0342	0.0381	0.0221	0.0000	0.0403	-0.0092	-0.0126	-0.0131	-0.0238	-0.0186	-0.0100	-0.0072	-0.0469	-0.0319	0.0055	-0.0033	-0.0571	-0.0477	0.0242	-0.0019	-0.0450	-0.0594	0.0321	-0.0013	-0.0203	-0.0594	0.0260	-0.0001	-0.0002	-0.0475	0.0125	0.0025	0.0061	0.0098	-0.0074	0.0023	-0.0098	0.0112	-0.0027	0.0020	-0.0076	0.0068	0.0038	0.0011	0.0004	0.0013	0.0082	-0.0002	0.0076	-0.0041	0.0077	-0.0001	0.0057	-0.0068	0.0039	0.0022	-0.0027	-0.0062	0.0005	0.0037	-0.0092	-0.0010	0.0061	0.0002	0.0040	0.0006	0.0041	-0.0009	0.0062	0.0024	0.0015	0.0004	0.0066	0.0036	-0.0004	0.0029	0.0046	0.0028	-0.0001	0.0043	0.0014	0.0017	0.0005	0.0024	-0.0017	0.0022	-0.0008	-0.0016	-0.0037	0.0577	-0.0522	-0.0937	-0.0644	0.0649	-0.0685	-0.0621	-0.0753	0.0755	-0.0771	-0.0255	-0.0687	0.0853	-0.0656	-0.0007	-0.0506	0.0893	-0.0344	0.0038	-0.0301	0.0842	0.0009	-0.0068	-0.0145	0.0706	0.0235	-0.0197	-0.0070	0.0151	-0.0129	0.0052	-0.0147	0.0087	-0.0111	0.0062	-0.0302	-0.0046	-0.0021	-0.0008	-0.0315	-0.0212	0.0088	-0.0103	-0.0170	-0.0322	0.0166	-0.0129	0.0005	-0.0317	0.0183	-0.0070	0.0095	-0.0217	0.0135	0.0021	0.0077	0.0075	0.0021	0.0026	-0.0057	0.0075	0.0082	0.0022	-0.0038	0.0037	0.0132	0.0016	0.0016	0.0008	0.0149	0.0002	0.0052	-0.0015	0.0139	-0.0004	0.0032	-0.0027	0.0115	0.0009	-0.0020	-0.0026	0.0086	0.0022	-0.0059	-0.0022	0.0021	-0.0034	0.0054	0.0003	0.0016	-0.0026	0.0081	0.0026	0.0006	0.0004	0.0079	0.0031	-0.0007	0.0037	0.0042	0.0010	-0.0018	0.0048	-0.0006	-0.0001	-0.0014	0.0036	-0.0040	0.0017	0.0003	0.0021	-0.0050	-0.0002	-0.0809	-0.1066	-0.0796	0.0176	-0.1082	-0.0809	-0.0837	0.0430	-0.1193	-0.0508	-0.0779	0.0669	-0.1028	-0.0276	-0.0693	0.0802	-0.0637	-0.0182	-0.0610	0.0777	-0.0215	-0.0201	-0.0523	0.0622	0.0053	-0.0251	-0.0422	0.0344	-0.0106	0.0201	0.0015	0.0347	-0.0108	0.0214	-0.0032	0.0288	-0.0086	0.0112	0.0020	0.0193	-0.0048	-0.0049	0.0125	0.0127	0.0018	-0.0151	0.0182	0.0108	0.0085	-0.0139	0.0159	0.0116	0.0109	-0.0052	0.0083	0.0034	0.0016	0.0005	0.0017	0.0027	0.0047	-0.0000	0.0034	0.0001	0.0051	-0.0001	0.0043	0.0003	0.0036	-0.0006	0.0021	0.0017	0.0029	-0.0019	-0.0003	0.0035	0.0036	-0.0020	-0.0008	0.0044	0.0043	-0.0019	-0.0005	-0.0020	-0.0016	-0.0039	0.0017	-0.0006	-0.0010	-0.0019	0.0029	0.0007	0.0001	0.0007	0.0028	0.0008	0.0008	0.0021	0.0016	-0.0000	-0.0003	0.0016	0.0000	0.0001	-0.0007	0.0014	-0.0008	0.0010	0.0010	0.0027	-0.0003	-0.1569	-0.0401	-0.0099	-0.0789	-0.1545	-0.0564	0.0056	-0.0584	-0.1323	-0.0710	0.0283	-0.0308	-0.0910	-0.0782	0.0645	-0.0037	-0.0392	-0.0665	0.1055	0.0198	0.0086	-0.0299	0.1293	0.0451	0.0408	0.0205	0.1249	0.0742	0.0262	-0.0073	0.0100	0.0168	0.0315	-0.0045	0.0101	0.0093	0.0303	-0.0110	0.0098	-0.0048	0.0201	-0.0202	0.0049	-0.0153	0.0033	-0.0178	-0.0054	-0.0142	-0.0130	-0.0005	-0.0170	-0.0047	-0.0235	0.0180	-0.0229	0.0062	-0.0037	0.0025	0.0011	0.0014	0.0053	0.0033	0.0024	-0.0031	0.0110	0.0010	-0.0001	-0.0053	0.0124	-0.0043	-0.0003	-0.0011	0.0091	-0.0085	-0.0038	0.0030	0.0024	-0.0095	-0.0037	0.0036	0.0021	-0.0075	-0.0025	-0.0002	0.0005	0.0019	-0.0017	-0.0001	-0.0035	0.0013	-0.0015	-0.0023	-0.0031	0.0016	0.0014	-0.0050	-0.0034	-0.0006	0.0028	-0.0051	-0.0046	-0.0032	0.0026	-0.0021	-0.0047	-0.0037	0.0012	0.0013	-0.0029	-0.0031	-0.0009	0.0026	-0.1465	-0.0037	0.0443	-0.0345	-0.1446	-0.0180	0.0404	-0.0007	-0.1200	-0.0383	0.0345	0.0338	-0.0722	-0.0579	0.0446	0.0561	-0.0105	-0.0614	0.0725	0.0610	0.0476	-0.0366	0.0961	0.0595	0.0855	0.0103	0.0982	0.0651	0.0