0.2302	0.3481	0.7437	1.4212	1.9847	2.4853	2.8018	3.0520	3.1490	2.9139	2.3384	1.8131	1.5372	1.1023	0.7314	1.0856	1.7590	2.3474	2.8853	3.2724	3.5867	3.8873	4.1684	4.1158	3.7619	3.5084	3.2300	2.2517	1.0719	1.7001	2.2903	2.7288	3.1960	3.5933	3.8534	4.1758	4.4813	4.5981	4.6473	4.7279	4.1229	2.5786	1.3576	2.1122	2.5530	2.8666	3.0911	3.3909	3.7500	4.1932	4.4882	4.5962	4.9128	5.0582	4.4591	3.0767	1.8367	2.3603	2.6244	2.8665	3.1023	3.2987	3.6161	3.8998	4.2082	4.4402	4.8825	5.1838	5.0206	4.1463	2.1116	2.4490	2.6256	2.8139	3.1514	3.5768	4.0917	4.3938	4.6804	5.1726	5.5869	5.9387	5.7366	4.8576	2.0172	2.4231	2.8255	3.2100	3.5457	4.0490	4.6001	5.0275	5.3844	5.8198	6.0651	6.3194	6.0282	5.0452	1.7644	2.4555	3.0120	3.4796	3.7969	4.2810	4.7482	5.2164	5.6277	5.8929	6.0662	6.0865	5.6868	4.8835	1.6295	2.5049	2.8901	3.1923	3.5511	4.1147	4.6042	5.0785	5.4974	5.7632	5.9265	5.7804	5.3317	4.4451	1.5158	2.3099	2.6274	2.9627	3.3712	3.9287	4.3839	4.8598	5.3359	5.6742	5.7739	5.5658	5.2652	3.9697	1.0047	1.7981	2.3891	2.8878	3.3736	3.8794	4.2341	4.6163	5.0035	5.3298	5.6286	5.6441	5.0022	3.0968	0.2260	0.9085	1.7774	2.4590	3.0317	3.5376	3.9959	4.3898	4.7279	4.9521	5.2075	5.0170	3.6384	1.8093	-0.1336	0.4157	1.2930	2.0781	2.6504	3.1314	3.5954	4.0041	4.3756	4.6309	4.3727	3.1535	1.4384	0.4380	-0.1226	0.1598	0.7215	1.5949	2.3345	2.8345	3.1316	3.5007	3.7924	3.7223	2.6390	0.8794	-0.3273	-0.5144	-0.0027	-0.2403	-0.4268	-0.1685	0.3440	0.4952	0.5231	0.1309	0.2820	0.5072	-0.0099	-0.0697	0.0866	-0.2753	0.0447	-0.2401	-0.0074	0.6741	0.8612	1.1525	1.5510	1.3853	1.5837	1.5972	0.6033	-0.1175	0.6120	0.4451	0.3644	0.1757	0.8911	1.4296	1.5664	1.9751	1.9768	1.7151	2.1559	2.2668	1.6306	1.0972	2.0254	1.4862	0.3037	0.7140	1.2142	1.3627	1.7763	2.1404	2.2009	2.3415	2.6561	2.7356	2.3527	2.3624	2.4687	1.0373	0.4635	1.2581	1.6397	1.5795	1.8487	1.9572	2.1447	2.6162	2.7009	2.6294	2.5187	2.8458	2.5353	1.4218	1.1890	1.5076	1.5935	1.5797	1.7827	1.9625	1.8564	2.1495	2.2094	2.2064	2.5279	2.8998	2.8124	2.2465	1.4584	1.4983	1.4809	1.5017	1.6279	2.0950	2.3724	2.5392	2.5224	2.7519	3.2055	3.5287	3.5668	2.7856	1.3575	1.3718	1.7314	1.9492	1.9292	2.2893	2.8327	2.8243	3.0304	3.4191	3.4054	3.7161	3.9591	2.9884	1.1565	1.4293	1.9811	2.0818	2.1358	2.4866	3.0349	3.1110	3.1768	3.5898	3.4992	3.6835	3.6544	3.0755	1.2919	1.7616	1.9479	1.7455	2.0711	2.4863	2.8877	3.0902	3.0854	3.4718	3.4513	3.3379	3.2091	3.0778	1.4013	1.7528	1.7084	1.7352	2.0867	2.3963	2.7236	2.9644	3.2221	3.6780	3.5816	3.2541	3.3324	3.2028	1.0163	1.6258	1.7924	1.8936	2.2868	2.6217	2.6764	2.7740	2.9626	3.2866	3.5305	3.8014	3.6674	2.3262	0.0700	0.7892	1.5312	1.5739	1.8469	2.3184	2.4682	2.8109	3.0051	3.0791	3.5249	3.9898	2.9012	0.9459	-0.2702	0.5056	1.5307	1.5331	1.7411	2.1698	2.3889	2.5639	2.8301	3.1685	3.5871	2.8584	1.1299	0.1353	-0.1042	-0.1362	0.1510	0.6057	0.7762	0.9152	0.7517	0.9159	0.9630	0.4756	0.3501	0.6335	0.3023	0.0175	0.0017	0.2567	0.6714	1.0338	1.4982	1.7629	1.5873	1.7904	1.7981	1.1789	0.8092	1.2170	0.6741	-0.3064	0.3937	0.9110	1.3162	1.7309	2.3405	2.6137	2.7751	3.2046	3.2547	2.6764	2.0342	2.0674	1.2732	-0.1886	1.1202	1.6012	2.0197	2.5709	3.0978	3.3637	3.5931	3.8614	4.0405	3.8036	3.5363	3.3119	2.3701	0.7355	1.6203	2.0075	2.2941	2.8758	3.3524	3.7504	4.1136	4.2783	4.5120	4.5837	4.6910	4.3313	3.2100	1.2094	1.7916	2.2959	2.6321	3.0172	3.4771	3.7902	4.2698	4.5674	4.8227	5.0630	5.2521	5.0229	4.0769	2.0384	2.1180	2.5901	2.9048	3.0920	3.6784	4.0297	4.2378	4.4792	4.8443	5.1571	5.3724	5.5053	4.6878	2.8694	2.3289	2.9171	3.1064	3.1478	3.7536	4.4435	4.6910	5.0138	5.3805	5.6342	5.9774	6.2107	5.2454	3.6082	2.4963	3.0524	3.2633	3.5789	4.1171	4.7313	5.0508	5.3448	5.8018	5.9376	6.1510	6.2809	5.5540	3.9086	2.4542	2.9706	3.2259	3.8055	4.2316	4.7577	5.2505	5.5723	6.0668	6.2117	6.2015	6.1297	5.5760	3.7144	2.3976	2.9816	3.1756	3.6489	4.0869	4.6373	5.1024	5.5167	5.9483	6.1158	6.1135	5.8594	5.1239	2.9096	2.1013	2.8303	3.0436	3.5118	3.9910	4.4362	4.8879	5.3979	5.8610	6.1184	6.1255	5.4447	4.2700	2.5557	1.5487	2.6660	2.9437	3.4036	4.0625	4.4018	4.7179	5.0855	5.4266	5.7574	5.7441	4.7577	3.3966	2.2797	0.7051	1.8120	2.3714	3.0509	3.6771	4.0160	4.4026	4.8611	5.1793	5.1730	4.5524	3.5268	2.4766	1.6857	0.0924	0.0756	-0.2626	-0.4407	-0.1135	0.4072	0.7519	0.9182	0.8381	1.1735	1.3622	0.8235	0.6989	0.8972	0.1127	0.0058	-0.2862	-0.0522	0.5310	1.0364	1.4439	1.6096	1.6329	2.0985	2.3029	1.5047	1.1124	1.7231	0.2303	0.0791	0.0988	0.6789	1.2251	1.7064	2.3297	2.4970	2.5768	3.0730	3.2040	2.4332	2.2207	3.0110	0.2829	0.2502	0.8076	1.4683	1.8617	2.3329	2.7667	2.8765	3.1479	3.6267	3.6907	3.3415	3.7156	4.2334	0.2765	0.6154	1.3699	1.8831	2.1671	2.6660	2.9375	3.1446	3.5424	3.8420	3.8801	3.9198	4.4934	4.6441	0.4057	1.1366	1.7911	2.1853	2.2939	2.5963	2.9807	3.2757	3.7251	3.8391	3.9486	4.3109	4.9171	5.1637	0.8572	1.5438	1.9255	2.3090	2.4090	2.5629	3.0998	3.4539	3.7540	3.9169	4.1750	4.5716	5.2681	5.8665	1.0836	1.5414	1.8776	2.4311	2.5587	2.6653	3.2825	3.8801	4.0848	4.4324	4.8553	5.1498	5.7530	6.2321	0.8896	1.4162	1.9901	2.6529	2.7390	2.9166	3.4362	4.0864	4.3805	4.7277	5.1864	5.4328	5.8919	6.1973	0.4004	1.3121	2.1818	2.6401	2.6590	2.9964	3.4871	4.1208	4.5148	4.8535	5.4116	5.6793	5.7361	6.1192	0.0895	1.1888	2.1253	2.3847	2.4909	2.9869	3.5210	4.0200	4.3566	4.7374	5.2510	5.6020	5.7605	6.1832	-0.0061	0.7252	1.6565	2.0845	2.3279	2.9176	3.4767	3.8839	4.2578	4.6978	5.0483	5.4884	6.0936	5.9699	-0.0359	0.0759	1.0290	1.8861	2.2071	2.7984	3.3725	3.6181	4.0121	4.4464	4.8961	5.6609	6.1012	4.7936	-0.0901	-0.3901	0.3464	1.3111	1.8333	2.5179	3.0835	3.4070	3.7886	4.3227	5.0052	5.5334	4.7745	2.7758	0.0925	-0.0132	0.1513	-0.1977	0.1796	0.0393	0.1119	0.3097	-0.1799	0.2973	0.4544	-0.0730	0.2555	0.2477	-0.0061	0.1677	-0.4261	0.1389	0.1608	-0.1448	-0.1518	0.0645	-0.3219	0.1625	0.4207	0.0907	-0.5808	0.7291	0.2038	-0.1617	-0.3037	0.3290	-0.0613	0.0100	0.3137	-0.0507	-0.2374	0.0156	-0.2372	-0.0997	-0.7617	1.1176	-0.0373	-0.2090	0.4475	0.1345	-0.0070	0.1339	-0.1912	-0.0119	-0.1251	0.0252	-0.2608	-0.3017	0.1820	0.6988	-0.2420	-0.0246	0.2507	0.2206	0.0889	0.3370	-0.2592	0.0636	0.0613	0.1040	-0.2748	-0.1245	0.1264	-0.3398	-0.0995	0.5366	-0.0563	0.3475	-0.1804	0.3087	0.1901	0.1554	0.2308	-0.0321	-0.0586	0.0215	-0.1739	-0.4201	0.1980	0.2980	-0.0116	0.2628	0.0671	-0.1350	0.0374	0.1240	0.1646	-0.1426	0.0123	-0.0060	-0.0502	-0.1110	0.4314	-0.0659	-0.0695	-0.0689	0.3020	-0.1483	0.1217	0.1762	-0.2842	0.1728	0.2089	-0.2557	-0.0187	-0.2339	0.0198	-0.0011	0.0347	0.1542	-0.0674	0.0516	-0.1217	0.2629	-0.0407	0.0350	0.3111	-0.1232	0.2661	-0.7580	-0.0759	0.2205	0.3134	0.2498	-0.1933	0.2723	0.0473	0.1635	0.0589	-0.0537	0.3032	0.0257	0.0069	-0.4265	-0.0614	0.4011	-0.0143	0.0040	0.0191	0.2539	0.0544	0.2028	-0.1705	0.0252	0.1077	0.1559	-0.4046	-0.0296	-0.1607	0.2410	-0.1886	0.2011	-0.2432	0.2709	0.0664	0.2138	0.0473	0.1741	-0.2886	-0.2566	0.1143	0.2485	0.2846	0.0582	-0.0879	0.4009	0.0016	0.1526	0.0535	-0.1311	0.2026	0.0707	-0.1729	-0.0881	0.4084	-0.4973	0.4025	-0.3499	0.2565	0.1356	0.1152	0.0046	0.2144	-0.0262	0.0168	-0.1279	0.0049	0.6121	-0.2480	-0.9479	0.1157	-0.0630	-0.2894	0.0408	0.0484	-0.1654	0.2663	0.0375	0.4099	0.6557	0.1558	-0.1026	0.3210	0.3492	0.1740	-0.4105	-0.0947	0.1542	-0.1630	0.0545	-0.0116	-0.7288	-0.1701	0.1161	-0.1391	-0.1929	0.9307	0.8797	-0.3006	-0.4335	-0.1129	-0.3437	-0.4434	-0.1553	-0.2786	-0.4725	-0.0450	-0.0737	-0.4008	-0.6664	0.7548	-0.0540	-0.5072	-0.1312	0.1018	-0.0779	-0.0215	-0.2139	-0.3371	-0.1798	-0.0285	-0.1894	-0.5757	-0.2440	0.6626	0.2833	0.0265	0.0692	0.0003	-0.1980	0.0684	-0.0417	-0.1289	-0.2406	-0.2901	-0.3320	-0.4242	0.0619	0.1540	0.3858	0.0177	-0.1212	-0.0158	-0.2208	-0.1166	-0.0751	0.0636	0.4367	0.1840	0.0554	0.2914	0.4298	0.3830	0.3989	0.1232	-0.1152	0.0311	0.1010	-0.0193	-0.0737	0.0254	-0.0445	-0.2318	-0.1014	-0.1446	-0.1897	0.3634	0.3632	-0.2131	-0.1938	-0.0959	-0.0821	-0.3911	-0.1437	0.0331	-0.2056	-0.1744	-0.0145	-0.1661	0.0024	0.3750	0.0783	-0.0398	0.0118	0.2802	-0.2734	-0.3218	-0.1438	0.0330	-0.2178	-0.3288	-0.0999	-0.2563	0.1389	0.1914	0.3914	0.0235	-0.0750	-0.0544	-0.3366	-0.0135	-0.1592	0.0226	-0.0446	-0.1115	0.2952	0.0975	0.1760	0.2152	1.1098	0.0485	-0.0746	0.0912	-0.1495	0.0665	0.0161	0.1189	-0.1537	-0.2770	-0.0817	-0.0546	0.1778	0.5742	1.0130	-0.0169	-0.3752	-0.1219	-0.3699	-0.1736	-0.1911	-0.0804	-0.0401	0.1545	0.0550	-0.0775	0.2544	0.6005	-0.1465	-0.0325	-0.0343	0.4151	-0.0341	-0.0014	0.1073	-0.1074	-0.0616	-0.1831	-0.0248	0.4344	0.7069	-0.0323	-0.6915	-0.3493	0.0718	0.0781	-0.3268	0.0349	0.1999	-0.0144	-0.0549	-0.0767	0.1688	0.6665	0.1897	-0.4430	-0.3850	-0.2155	-0.1101	-0.4135	-0.2073	-0.3854	-0.6299	-0.4916	-0.0163	-0.2180	-0.2721	0.0589	-0.3068	-0.7202	-0.1786	-0.2249	-0.3511	-0.1504	0.1351	-0.0571	0.0780	-0.0497	-0.0917	-0.0539	-0.3178	-0.0483	0.0221	-0.3527	0.6487	-0.1669	-0.0588	0.1118	-0.1895	0.0140	-0.0501	-0.2466	-0.1753	-0.3199	-0.5073	-0.3379	0.2021	0.0495	-0.1513	-0.5194	-0.0717	0.0149	-0.1112	0.0973	-0.0822	-0.1058	0.3994	0.1724	-0.1158	-0.2817	0.2337	-0.0756	-0.5795	0.0954	0.1387	0.0681	0.2673	-0.0190	0.0521	-0.0746	-0.2787	-0.1132	-0.4439	-0.3627	-0.4803	-0.7906	-0.4958	0.1217	0.0403	-0.2636	-0.0139	-0.0770	-0.2050	-0.0243	-0.1597	-0.1605	-0.3144	-0.0641	-0.3356	-0.3363	-0.2792	0.0963	-0.0833	-0.0432	0.0160	0.0814	-0.3483	0.0862	-0.0539	-0.2220	0.0027	-0.0170	-0.2246	-0.2221	-0.2030	-0.1393	-0.3427	-0.2160	-0.0226	0.1310	0.0058	-0.2740	-0.0594	0.1216	0.2987	0.1732	0.1051	-0.1339	-0.3616	-0.2458	0.1418	0.2311	0.0212	0.0313	0.2331	-0.1157	0.0268	-0.0469	-0.3610	0.1274	0.1987	-0.3941	-0.1751	-0.1672	0.0164	-0.1183	-0.1067	-0.0112	0.0252	-0.0721	-0.1208	0.2566	0.0466	0.0318	0.0645	-0.2761	0.1645	0.0235	0.0466	-0.0045	0.2033	0.1245	0.1259	0.1143	-0.0441	-0.0309	-0.0218	-0.1247	0.0253	0.3904	0.2083	0.1413	-0.2128	-0.1239	0.0489	-0.0159	0.1481	0.0443	0.0755	0.2730	-0.0885	-0.1926	0.2966	0.9684	-0.4306	0.3640	-0.2156	-0.1412	0.1481	-0.0166	-0.2153	0.0321	0.0447	0.1245	0.1642	0.5759	0.7366	0.1495	-0.1841	0.4725	0.4462	-0.0279	-0.1353	0.2040	0.1511	0.2312	0.0931	0.1161	0.4740	0.8518	0.3467	-0.4822	-0.1781	-0.1125	0.0169	-0.1434	-0.0823	0.1975	0.2010	-0.1513	-0.1435	0.1631	0.1274	0.6080	0.7903	0.0977	0.5154	-0.0065	-0.1352	-0.2823	-0.0851	-0.0506	-0.1701	0.1304	-0.0311	0.0775	0.0191	-0.0950	0.3005	-0.0673	-0.1231	-0.2006	-0.2906	0.2940	0.1844	0.1180	0.1624	0.1680	0.1781	0.2330	0.0219	-0.1472	-0.0641	0.9284	0.6317	-0.1217	-0.1046	0.1725	0.2895	0.1038	0.2159	-0.2577	-0.3406	0.0679	-0.1290	-0.1727	-0.1748	0.6193	-0.0280	-0.2279	0.1115	-0.0512	0.0432	0.1332	-0.0095	0.2882	0.1129	0.2990	0.0644	-0.0516	0.2047	0.0813	-0.2172	0.0479	0.2059	0.3135	0.0776	0.1786	-0.3209	0.0114	0.0083	-0.0528	-0.1834	-0.1291	-0.0563	-0.1656	0.1806	0.2178	-0.1619	-0.1860	-0.1990	0.1881	-0.1269	-0.2549	0.1547	-0.1016	0.1491	0.2393	0.1229	0.0088	0.2713	-0.0335	0.0406	-0.1719	-0.0444	-0.0826	0.1918	-0.0992	-0.0382	-0.0549	-0.1359	0.2180	0.1675	0.0398	-0.1495	-0.4327	-0.3076	0.0448	0.1139	-0.1879	-0.0198	-0.0215	-0.1729	0.4062	0.1932	0.0480	0.4420	0.0959	0.0476	-0.2789	0.0541	0.2259	-0.0717	0.0776	0.0331	0.1553	-0.1454	-0.2723	-0.0913	-0.0702	0.3328	-0.1114	0.2545	-0.1787	-0.4503	-0.2492	-0.3252	-0.1830	-0.0732	0.0539	0.0635	0.1469	0.0229	-0.2949	-0.1592	0.3537	0.3452	0.4961	-0.3591	-0.2125	0.0009	0.0113	-0.2296	0.0546	-0.2768	0.0519	0.1327	-0.0339	-0.2069	0.5985	0.5221	0.4646	-0.1735	-0.4839	-0.3002	0.1610	-0.0687	-0.0342	-0.0527	-0.0686	-0.0860	0.1092	0.5690	0.1535	-0.7667	0.0208	0.1826	-0.1405	-0.3754	-0.3002	-0.0606	-0.2066	0.0726	-0.1139	0.1271	0.5738	0.5799	-0.3271	-0.7338	0.2572	-0.2402	-0.0648	0.2178	-0.2130	-0.0855	0.1493	-0.1788	-0.4350	0.1770	0.0977	-0.0591	0.2570	0.3706	0.0064	-0.3218	0.1608	-0.2224	-0.1913	0.0217	-0.0413	-0.2225	0.1241	-0.1891	0.0690	-0.5019	0.0255	0.3905	-0.4971	0.2443	-0.1051	0.2723	0.0461	0.0965	-0.3290	0.1812	0.0763	-0.2366	0.0434	0.1566	0.1222	0.4899	0.2523	0.0852	0.0208	-0.0481	0.2418	-0.2739	0.1087	-0.0073	-0.3723	-0.1555	-0.3809	0.5056	-0.7139	0.2238	-0.0738	0.0661	0.1142	-0.1764	-0.1339	0.0939	-0.1040	0.3915	0.1062	-0.0239	0.3099	0.1649	-0.1989	0.3534	0.3015	-0.1023	0.1007	0.2220	0.1045	-0.0810	-0.0759	0.1051	-0.3206	-0.0420	-0.0534	-0.1911	-0.0798	0.0026	-0.3723	0.1920	-0.5467	0.3321	-0.4112	-0.0235	0.2382	-0.1858	-0.0513	0.1050	0.1195	-0.2059	0.1609	-0.2026	-0.0251	-0.1281	0.3251	0.0152	0.0432	-0.1855	0.0109	-0.0918	-0.0143	0.0083	-0.1122	0.0858	-0.0447	-0.4071	0.0497	-0.0610	0.0094	-0.2908	0.0823	-0.0715	0.0048	0.1724	-0.1490	0.3620	0.2517	-0.0266	-0.1855	0.2744	0.0202	0.1765	0.0051	0.0557	0.1886	0.1875	-0.1700	0.1647	-0.1073	-0.2644	0.2493	-0.1082	0.1229	0.3151	0.0410	-0.3170	-0.2453	0.0130	-0.0725	-0.0660	0.0531	-0.0835	0.2273	0.0867	-0.0823	-0.1113	0.2205	-0.0910	-0.0588	0.0650	0.1339	0.0694	0.1565	0.0341	-0.2122	0.1845	-0.1807	-0.1174	0.0613	0.5257	0.2283	-0.8560	-0.2445	-0.0526	-0.0239	-0.0119	-0.2470	0.1542	-0.0539	0.3295	-0.1477	0.1101	0.2364	0.1525	-0.2622	-0.4199	-0.0276	0.1163	-0.1540	-0.0130	0.2040	-0.1303	0.0807	-0.1807	0.1739	0.2856	0.5921	-0.2451	-0.3312	0.2560	-0.1675	0.2637	0.0346	0.1476	0.3098	-0.1779	-0.3606	-0.1011	-0.1201	-0.1424	0.2270	-0.1118	-0.0998	0.4712	0.2068	-0.0120	-0.3447	0.2671	-0.3989	0.2164	0.3579	-0.1100	0.0619	0.0579	-0.0686	-0.1163	-0.8591	0.3364	0.2577	-0.0441	0.4555	0.1128	-0.0272	-0.0409	0.0219	-0.0395	0.1590	-0.2386	0.1315	0.2637	0.0291	0.4559	-0.2110	0.1328	-0.1301	-0.1675	0.1041	0.0666	-0.3339	0.1239	-0.0339	0.0693	-0.0223	-0.2155	0.0442	-0.5169	0.1746	0.1688	-0.0939	-0.0986	-0.1484	-0.0936	0.2422	0.3380	-0.0744	0.2432	0.3376	0.4878	-0.4687	0.2157	-0.1096	0.3201	-0.1956	0.2696	-0.0681	0.0778	-0.0346	-0.0866	-0.0011	-0.1502	0.0611	0.0031	0.1676	0.0898	0.0437	-0.4383	0.1436	-0.1040	0.1687	-0.3066	0.3025	0.2770	-0.1023	0.2119	0.1197	-0.1312	-0.1635	-0.1168	-0.0662	0.1974	-0.0924	0.2647	0.0701	-0.0487	-0.0577	-0.0951	-0.2993	0.1951	0.0673	-0.1976	0.2473	-0.3114	-0.0792	0.0280	0.0580	-0.0027	-0.2549	0.1949	-0.0166	0.3645	0.1694	-0.1217	0.1224	-0.2058	0.1011	-0.3348	0.1899	0.1438	0.0657	-0.0517	0.2182	0.0058	0.0174	-0.1345	-0.1142	0.0835	0.1827	0.0057	-0.2110	0.3488	-0.0977	-0.1043	-0.4039	0.1959	0.0930	-0.0478	-0.1218	0.3971	-0.0875	0.1035	-0.1299	0.0542	-0.5477	-0.0327	-0.0941	0.1691	0.1977	0.0919	0.0302	0.1321	-0.0203	-0.1761	-0.0047	0.0560	0.0737	-0.1413	0.3320	-0.1625	0.0785	-0.3956	0.0590	0.0738	0.0521	-0.2713	0.0820	0.3170	-0.1386	-0.1032	-0.1936	-0.1099	-0.0279	-0.3602	0.0554	-0.1771	0.4166	-0.2342	0.2744	-0.0364	-0.0194	0.1456	-0.0540	-0.0285	0.1680	0.0432	-0.3151	0.5003	-0.0079	-0.0064	-0.3843	-0.0280	0.1792	0.1960	0.0049	0.2055	-0.0393	0.3139	0.1253	-0.0870	-0.2348	0.3007	-0.0966	0.0968	0.0572	0.2133	-0.0354	-0.1009	-0.2612	0.1083	-0.3381	-0.3782	-0.3655	-0.0183	0.1069	0.3846	-0.2280	-0.0269	0.1324	-0.4376	0.1780	-0.1147	-0.0211	0.2883	-0.3333	0.5155	-0.0752	-0.0641	0.0248	-0.2583	0.0374	0.0760	0.3097	0.0369	-0.0585	0.0711	-0.1202	0.0283	-0.0723	-0.0083	0.1927	0.2484	-0.2203	-0.0886	0.1810	0.0821	-0.4052	0.2109	-0.1558	0.2393	0.1310	-0.1746	0.0645	-0.2600	-0.1467	-0.2469	0.1224	-0.1308	0.0433	-0.0291	-0.2088	0.1236	-0.4424	-0.1088	-0.0517	-0.2381	0.2496	-0.0112	0.1485	-0.2033	0.2021	0.0317	0.2794	-0.2048	0.0369	-0.1899	0.1204	0.0644	-0.1274	-0.4485	-0.0593	0.1198	-0.1630	-0.0284	0.1966	0.3681	-0.1784	-0.1831	0.1833	-0.2651	-0.1672	0.0516	0.0155	0.2929	0.1303	-0.1054	-0.0590	-0.0308	-0.1663	0.0129	-0.0807	0.0989	0.2202	0.1256	0.0054	0.1413	-0.2512	-0.0803	0.1482	-0.1280	-0.0002	0.0096	-0.0614	0.5018	0.1139	0.1472	-0.4014	0.0070	0.0534	-0.1192	0.0433	-0.1231	-0.1055	-0.1581	-0.0392	-0.1327	-0.1285	0.0653	-0.4206	0.2924	0.1663	0.0779	-0.4359	0.2160	-0.1922	-0.0559	0.0915	-0.1368	-0.2625	0.1133	0.5690	-0.1254	-0.2441	0.0077	-0.1282	0.2803	-0.4232	-0.0552	-0.1162	-0.0860	0.2846	-0.0476	0.0419	0.0587	0.1557	-0.4867	-0.0942	-0.0150	0.1488	0.2231	-0.0188	0.2819	0.2597	-0.4510	0.0458	-0.1834	0.2654	0.5700	-0.6982	-0.0520	-0.2227	-0.0847	-0.1478	-0.1999	-0.2344	-0.1429	0.1748	-0.2895	0.1234	0.1520	-0.0488	-0.5524	-0.1408	0.2605	0.0487	-0.0740	0.0249	-0.1671	-0.0510	-0.1201	-0.1629	0.1872	-0.1321	-0.0194	0.0589	0.0771	-0.3738	-0.1455	0.0068	0.1032	-0.0121	-0.0262	0.3200	0.1176	0.3311	0.1222	-0.1880	0.0791	-0.1210	-0.0387	0.0236	0.3792	0.1713	0.0026	0.0176	0.1257	-0.1557	-0.0298	-0.1474	0.0061	-0.1770	0.0807	0.2810	-0.1351	-0.3325	0.5242	0.1077	-0.3191	-0.3487	0.3896	-0.0824	0.1753	0.1722	-0.1392	0.1961	0.1104	0.0320	-0.2755	-0.4827	0.2878	0.0450	0.1553	0.0874	-0.1060	-0.0610	-0.0066	0.0937	-0.0556	-0.1851	0.0417	-0.0572	-0.4371	-0.1059	0.2099	-0.2185	-0.0234	-0.0472	0.0151	0.0597	-0.1700	-0.2220	0.1311	0.0162	0.1926	-0.0683	0.3476	0.1129	0.2784	-0.0583	0.1929	-0.1493	0.0050	0.0108	0.2827	-0.0819	0.1257	-0.0562	0.0507	0.1324	-0.0519	-0.1498	-0.1701	-0.1831	0.0342	-0.0012	0.1262	-0.0895	-0.0513	-0.1309	0.0778	0.2420	-0.1619	0.1732	0.1430	0.1237	-0.0157	0.0501	-0.0345	0.0614	0.2450	0.0043	-0.0668	0.2304	-0.0669	-0.2733	-0.0097	-0.0927	-0.2150	0.1558	-0.0115	-0.1974	-0.0336	-0.1181	-0.1144	-0.1145	0.0039	-0.1254	0.2333	-0.0065	0.0087	0.0523	-0.1477	0.2603	-0.4003	0.0439	-0.1299	-0.0062	0.3121	-0.2384	0.0603	0.0311	0.1143	-0.0356	-0.0039	-0.0830	-0.2611	0.1896	0.2258	0.2927	0.1068	-0.3899	0.0623	0.1480	-0.1110	-0.0585	-0.0907	-0.1159	0.1797	0.1858	0.0218	-0.3661	0.4372	0.0031	0.1788	-0.1472	-0.0278	-0.1576	-0.0190	0.0964	0.0720	-0.1751	0.1107	-0.0674	0.1846	0.2373	0.0765	0.1323	0.1297	0.1448	-0.0394	-0.1015	0.1065	0.0094	0.1516	-0.0498	0.0112	0.0132	0.0022	0.2004	-0.1690	-0.0371	-0.2295	0.0117	-0.3059	-0.0727	-0.0042	0.1153	-0.3059	-0.0619	0.0986	-0.1376	-0.3546	0.1002	-0.0514	-0.0584	0.0759	-0.1353	-0.0163	0.1908	0.0579	-0.0527	0.3268	-0.2543	0.1269	0.1699	-0.0994	0.1067	-0.2039	0.0646	-0.3044	0.4857	-0.1591	-0.2904	-0.0205	0.0621	0.0241	-0.0265	-0.3990	0.0508	0.3526	0.2592	0.3371	-0.0218	0.3177	-0.5084	0.0458	-0.1865	-0.1510	-0.0412	-0.3125	0.3668	-0.1235	-0.2503	0.1839	0.0747	-0.4150	0.2016	0.2297	0.2213	-0.1795	-0.1025	-0.0134	0.0105	-0.0347	-0.1477	0.2957	0.0325	-0.1066	-0.0369	0.1491	0.0892	-0.0813	-0.1560	0.1952	-0.2944	-0.1010	-0.0471	-0.2067	-0.1573	-0.0969	0.0207	-0.1001	-0.2011	0.4718	0.0422	-0.6006	0.1762	-0.2159	-0.2317	-0.0789	-0.1755	-0.3037	-0.1156	0.1951	0.2622	0.0949	-0.2341	0.3596	-0.0795	0.2239	0.0331	0.1057	-0.2420	0.0614	0.0448	-0.2383	0.0720	0.0931	-0.0039	0.2888	0.1902	0.2441	-0.0167	-0.1479	-0.1764	0.0102	0.3217	-0.0153	0.1998	0.1628	-0.0368	-0.0067	-0.1274	-0.1025	0.2683	0.2159	-0.3240	0.0061	-0.0425	-0.0856	-0.1306	0.1692	-0.1711	-0.2615	0.2465	0.1961	0.0076	-0.3045	0.0380	-0.1377	-0.2140	0.0542	0.0967	0.1146	-0.0464	0.0067	0.0900	0.0476	0.0184	-0.2011	0.1478	0.1841	0.4360	-0.5996	0.1984	0.0143	-0.0740	0.0364	-0.1157	-0.1793	-0.0315	-0.0079	0.0063	0.0297	-0.0324	0.4505	0.0072	-0.0035	-0.3020	0.0466	0.1472	-0.0469	-0.1023	-0.2417	0.2686	-0.1344	0.4451	0.2299	0.2506	0.1919	0.1225	0.1143	0.0767	0.0944	0.1152	0.1852	-0.1023	0.0933	-0.2996	0.3201	-0.2323	0.3594	0.1423	0.0552	-0.0622	0.2690	-0.1444	-0.3889	0.0257	-0.2419	-0.0653	0.2579	0.2984	-0.0202	0.2898	0.0537	-0.1115	-0.3292	0.1238	-0.0689	-0.2364	-0.2017	0.1072	-0.0773	-0.1580	0.0586	-0.2896	-0.0247	0.0237	-0.5493	-0.0362	-0.0583	0.2412	0.2060	-0.0956	-0.0832	-0.2440	0.2003	-0.0678	0.1887	0.0684	-0.0177	0.3940	-0.2737	-0.0460	0.1345	-0.1243	-0.0034	0.1639	-0.0908	0.2063	0.1937	-0.0266	-0.1537	0.0590	0.2373	-0.1566	-0.0305	0.1453	0.0796	0.0239	0.6484	-0.0153	-0.0988	0.0712	-0.0532	0.1557	-0.0666	0.1992	0.0720	-0.3828	0.1797	-0.0422	-0.2751	-0.0690	-0.0100	-0.3094	0.2469	0.2013	-0.1346	-0.2650	-0.0907	0.3237	0.1707	-0.1329	0.5043	0.4827	-0.0988	-0.2632	0.1714	0.0351	0.5158	-0.3078	-0.0298	-0.1873	0.0171	0.1282	-0.2565	-0.1470	0.1343	0.0414	0.1355	0.0454	0.1357	0.1951	-0.1096	-0.2968	-0.0114	-0.1058	0.0414	0.4819	0.0271	-0.2139	0.2901	0.0987	0.0507	0.0749	-0.0120	0.0142	0.0654	0.1733	0.2776	0.3293	0.1892	0.1445	0.0588	0.0911	0.1768	-0.0866	-0.0626	0.3339	0.3293	-0.0352	-0.3921	-0.3100	-0.0289	0.0566	0.2623	0.1697	0.0798	-0.1708	0.0769	-0.0015	-0.2324	0.0355	0.0658	-0.0045	-0.4511	0.1904	0.0570	0.1714	-0.3058	0.0653	-0.1159	-0.2585	0.2293	0.1822	-0.0269	0.0664	0.4121	-0.1719	-0.3408	0.0395	0.2862	0.0042	-0.2361	0.0473	0.2107	-0.0690	0.2824	-0.2223	-0.0837	0.1548	0.2560	-0.0531	0.1291	-0.0553	0.0383	0.2335	-0.0657	-0.0767	-0.0447	-0.4680	0.2286	0.2680	0.0991	0.1075	-0.1642	0.0306	-0.2148	0.0187	-0.0503	-0.1880	-0.4359	0.1061	0.0111	-0.2096	0.4891	0.1027	0.0927	0.2894	-0.0926	-0.2938	0.0721	-0.0804	-0.0687	-0.0654	-0.0289	-0.1157	0.0491	-0.2792	-0.4088	-0.3170	-0.0976	0.1445	0.2878	-0.2627	0.0039	-0.2268	-0.2016	0.0038	0.1402	-0.1086	0.1550	-0.0874	0.2511	-0.1119	0.0756	-0.0831	-0.1200	-0.1341	-0.1470	0.2481	0.1954	0.1108	0.0111	-0.1573	0.1896	-0.1302	-0.0309	-0.0713	0.1265	0.3151	0.0187	-0.0827	-0.2222	0.2169	-0.1674	-0.0697	0.0890	0.1274	0.0223	-0.2540	-0.0809	-0.1892	-0.3701	0.6630	-0.3871	-0.2172	0.2448	-0.0411	0.0681	-0.3299	0.0682	0.1177	-0.2366	0.3900	0.2266	0.2230	-0.0705	0.5911	-0.4159	0.3141	0.3919	-0.1000	-0.0666	0.1339	0.1143	0.2529	-0.2913	0.1602	0.0971	0.0248	-0.1899	0.2253	0.1069	0.2437	-0.1956	-0.2885	-0.2406	-0.0462	-0.0480	0.1780	-0.0716	0.0737	0.0352	0.0700	0.0728	-0.1369	0.2315	0.2207	-0.2421	0.3431	0.0769	0.0494	0.1560	-0.0864	-0.2269	-0.0501	0.1068	0.0559	0.1800	0.1012	0.5780	-0.0307	0.0803	-0.2001	0.0991	-0.1269	0.3185	0.1053	-0.0103	0.1186	-0.0842	-0.0483	0.1717	0.1519	0.4060	-0.2512	-0.1874	0.0609	0.0834	0.0350	0.1306	0.0736	-0.1509	0.0104	0.0806	-0.2146	0.1453	0.0548	0.5643	-0.3684	-0.2383	0.0090	0.0942	-0.2001	-0.0446	0.0558	-0.3020	0.2115	0.3629	-0.1974	-0.1347	0.0910	0.2995	-0.2828	0.1026	0.0987	0.4171	-0.1822	0.2566	0.0534	-0.2986	-0.0513	-0.1867	-0.0657	0.2053	0.1622	-0.0796	0.1048	-0.2601	-0.0906	-0.0986	-0.2920	-0.3158	0.1761	-0.3870	0.2177	0.2053	0.0309	0.0577	0.0211	-0.0651	0.0288	0.0237	0.1225	0.0639	-0.0656	-0.0904	0.1593	-0.3474	0.3217	0.3308	0.3010	0.4075	0.0068	0.0269	0.0917	-0.0286	-0.1709	-0.0451	-0.1119	-0.0726	0.4517	0.2461	-0.1265	-0.0075	0.2759	-0.1515	-0.3470	0.0542	0.0207	0.2727	0.1438	0.4426	-0.0456	-0.0632	-0.1298	-0.1387	0.2086	-0.2720	-0.0320	0.4430	-0.1406	0.4756	0.0164	-0.3212	-0.0983	-0.0292	-0.2195	0.0432	0.0753	-0.2975	0.3963	0.1363	-0.0724	-0.2197	-0.2649	0.0461	0.0570	0.2416	0.0711	-0.0146	0.0256	0.0878	-0.0267	0.0506	0.0207	0.0161	0.0961	-0.1148	0.2041	-0.3912	-0.1727	0.0501	0.0311	0.1174	0.0875	-0.0560	-0.1319	0.0826	-0.1181	-0.1436	-0.0797	-0.0959	0.0333	0.0868	-0.0222	-0.1342	-0.2171	0.0515	0.1408	-0.3389	0.0198	0.1235	-0.0343	-0.1161	0.0964	0.1936	-0.4492	-0.0885	0.0773	0.0342	0.0513	-0.1007	0.2623	-0.1479	-0.0087	-0.0278	-0.3858	-0.0042	0.0518	0.1338	0.0680	-0.3988	-0.1668	0.1570	0.0655	0.2291	-0.0781	-0.1396	0.1882	0.5408	0.0161	-0.0778	0.0123	-0.2647	0.1613	-0.2016	0.0341	0.0117	-0.1918	0.0566	0.0436	0.1742	-0.2095	-0.1442	-0.1439	0.0592	0.1216	-0.2236	-0.0376	-0.3555	-0.0654	-0.0187	0.0019	-0.2045	-0.1043	-0.1232	0.0415	0.0879	-0.0101	-0.0443	0.0007	0.1377	-0.4226	-0.3883	0.1633	0.1581	0.1886	0.1262	-0.0183	0.0746	-0.0443	0.0850	-0.1240	0.1115	-0.1077	0.2447	0.1099	0.5836	0.1854	-0.2013	-0.2997	-0.0144	0.1612	-0.2279	-0.0548	0.1369	0.0085	0.0437	-0.0053	-0.1865	-0.2018	0.1967	0.2856	-0.2146	0.3903	-0.1696	0.2641	0.0761	0.0880	0.0693	-0.0548	0.1403	0.0886	0.0388	0.3208	-0.1478	0.0863	-0.1955	0.0035	-0.1474	0.2137	-0.1156	-0.1394	0.1654	-0.2596	-0.2418	-0.1726	-0.2741	-0.0386	-0.1909	-0.1322	-0.0198	-0.0428	-0.0424	-0.1418	-0.0532	-0.0168	-0.0636	-0.1085	-0.0403	0.0460	-0.0305	0.0108	-0.0056	-0.0059	-0.0113	0.0128	-0.0081	-0.0035	-0.0165	0.0110	-0.0049	-0.0081	-0.0111	0.0030	0.0046	-0.0022	-0.0008	0.0043	0.0050	-0.0034	-0.0006	0.0055	0.0036	-0.0028	-0.0010	0.0007	0.0002	-0.0002	0.0003	-0.0003	0.0019	-0.0020	0.0004	0.0001	0.0006	-0.0012	0.0006	-0.0651	0.1262	0.1277	0.1000	-0.0797	0.1149	0.1567	0.1244	-0.0367	0.1165	0.1765	0.1647	0.0058	-0.0103	-0.0037	-0.0043	0.0057	-0.0117	-0.0006	-0.0079	0.0039	-0.0096	-0.0056	-0.0025	0.0023	0.0042	-0.0020	-0.0028	0.0039	0.0036	-0.0031	-0.0010	0.0055	0.0018	-0.0021	0.0003	0.0004	0.0004	-0.0007	0.0008	-0.0003	0.0016	-0.0024	0.0008	-0.0000	0.0003	-0.0009	0.0003	0.1194	0.2394	0.2741	0.2587	0.1325	0.2720	0.2857	0.3091	0.1489	0.2790	0.2547	0.3247	-0.0091	-0.0090	0.0046	0.0085	-0.0103	-0.0085	0.0082	0.0120	-0.0060	-0.0084	0.0046	0.0125	0.0043	0.0036	-0.0002	-0.0038	0.0062	0.0035	-0.0003	-0.0017	0.0062	0.0021	0.0003	0.0002	-0.0007	0.0002	0.0003	0.0011	-0.0014	-0.0003	0.0001	0.0003	-0.0014	-0.0002	0.0001	-0.0008	-0.1474	-0.0492	0.1987	-0.1076	-0.1326	0.1431	0.2386	0.1601	-0.1378	0.1160	-0.0193	0.1891	0.0154	-0.0177	0.0071	0.0025	0.0067	0.0145	-0.0430	0.0236	-0.0120	-0.0148	-0.0064	-0.0033	-0.0041	0.0021	-0.0039	-0.0074	0.0017	-0.0038	0.0032	-0.0030	0.0016	-0.0069	-0.0022	0.0040	0.0006	0.0004	-0.0012	-0.0006	0.0036	-0.0084	0.0046	0.0020	0.0002	-0.0011	0.0020	0.0006	0.1058	-0.1051	0.2588	0.0176	0.2730	0.2002	0.2254	0.2657	0.1323	0.2504	-0.1017	0.1757	-0.0391	-0.0036	0.0353	0.0331	-0.0453	0.0163	-0.0194	0.0944	-0.0346	-0.0016	0.0321	0.0423	0.0043	-0.0042	0.0016	-0.0046	0.0052	-0.0053	0.0137	-0.0052	-0.0001	-0.0013	0.0060	-0.0019	-0.0051	-0.0031	0.0051	-0.0008	-0.0033	-0.0189	0.0187	-0.0024	-0.0053	-0.0033	0.0070	-0.0040	0.1236	-0.2471	-0.0318	-0.0725	0.3020	-0.0481	-0.0755	-0.0231	0.1377	0.0432	-0.2041	-0.1241	0.0153	0.0161	0.0138	0.0015	0.0164	0.0179	-0.0419	0.0162	-0.0048	0.0186	-0.0064	-0.0176	0.0047	-0.0048	-0.0037	0.0052	-0.0004	-0.0049	0.0050	-0.0006	-0.0071	0.0019	-0.0002	-0.0056	0.0017	0.0002	0.0004	-0.0039	0.0048	-0.0066	0.0051	-0.0028	0.0006	0.0008	-0.0001	0.0003	0.2434	0.0423	0.0525	0.1173	0.3447	0.0864	0.1704	0.1302	0.4034	0.2387	0.3187	0.2500	-0.0085	0.0067	0.0135	-0.0001	-0.0033	-0.0024	0.0261	0.0018	0.0045	0.0136	0.0019	0.0153	0.0002	-0.0070	-0.0011	-0.0014	-0.0029	-0.0037	-0.0026	-0.0043	-0.0026	-0.0014	0.0008	-0.0080	0.0006	0.0015	-0.0006	-0.0010	-0.0000	0.0034	-0.0021	-0.0021	0.0021	-0.0004	-0.0004	-0.0012	0.0523	-0.0375	-0.0848	-0.0371	0.1216	-0.0698	0.0743	-0.0302	0.2751	0.0740	0.2803	0.1449	0.0207	0.0034	0.0011	-0.0213	0.0257	-0.0012	0.0143	-0.0373	0.0190	0.0102	-0.0191	-0.0087	-0.0020	-0.0045	-0.0043	-0.0010	-0.0029	-0.0038	-0.0079	-0.0023	-0.0011	-0.0048	-0.0035	-0.0065	0.0041	0.0038	-0.0038	-0.0013	0.0034	0.0088	-0.0083	-0.0007	0.0045	0.0007	-0.0018	0.0006	-0.0822	-0.0259	-0.0331	-0.0728	-0.0317	-0.0599	0.1049	-0.0026	0.1620	0.0373	0.2395	0.1588	0.0030	-0.0044	0.0050	-0.0118	0.0062	-0.0033	0.0206	-0.0134	0.0120	-0.0013	-0.0051	0.0073	-0.0031	-0.0045	-0.0028	-0.0035	-0.0016	-0.0058	-0.0059	-0.0020	0.0014	-0.0080	-0.0024	-0.0032	0.0011	0.0018	-0.0013	0.0000	0.0003	0.0044	-0.0027	-0.0005	0.0028	0.0001	0.0014	-0.0007	0.2691	0.3235	0.1575	0.3478	0.1658	0.1986	-0.0319	0.1901	0.0612	0.0358	-0.1088	-0.0029	-0.0090	0.0081	-0.0100	0.0053	-0.0117	-0.0006	0.0064	-0.0057	-0.0070	-0.0017	0.0123	-0.0077	0.0003	0.0001	0.0038	0.0043	-0.0011	-0.0008	0.0019	0.0041	-0.0026	0.0004	0.0010	0.0032	0.0001	-0.0020	0.0005	0.0012	-0.0006	0.0005	-0.0005	0.0002	-0.0008	0.0020	-0.0014	0.0002	0.2554	0.2992	0.0889	0.2885	0.0884	0.1585	-0.1016	0.1008	-0.0426	-0.0375	-0.1524	-0.0830	0.0001	0.0078	-0.0171	0.0017	-0.0018	0.0012	0.0012	-0.0188	-0.0008	-0.0013	0.0076	-0.0208	-0.0020	0.0013	0.0037	0.0036	-0.0026	0.0012	0.0005	0.0033	-0.0029	0.0017	-0.0002	0.0037	0.0006	-0.0023	0.0007	0.0007	0.0006	0.0021	-0.0025	0.0008	0.0007	0.0027	-0.0031	0.0012	0.2025	0.2509	0.0586	0.2093	0.0178	0.1364	-0.0841	0.0556	-0.1159	-0.0422	-0.1368	-0.0810	-0.0022	0.0031	-0.0149	-0.0003	-0.0056	0.0006	0.0009	-0.0123	-0.0031	-0.0023	0.0079	-0.0131	-0.0041	0.0009	0.0034	0.0007	-0.0037	0.0021	0.0009	0.0005	-0.0023	0.0019	-0.0001	0.0027	0.0006	-0.0017	0.0007	0.0005	-0.0002	0.0010	-0.0016	0.0009	0.0002	0.0013	-0.0023	0.0006	-0.2040	-0.2155	0.2027	-0.2114	0.0457	-0.1010	-0.0285	0.2154	0.3419	-0.0111	0.1314	0.0069	0.0349	0.0265	-0.0145	-0.0050	-0.0394	0.0143	-0.0240	-0.0008	-0.0135	-0.0317	0.0440	0.0334	0.0099	0.0008	0.0063	0.0154	0.0149	-0.0262	-0.0134	-0.0199	-0.0046	-0.0052	0.0040	0.0182	0.0041	-0.0014	0.0060	0.0088	0.0014	-0.0097	-0.0003	-0.0051	-0.0053	0.0105	0.0066	0.0041	-0.0173	-0.1554	0.3038	0.0114	-0.0266	0.1560	-0.3098	0.1342	0.0304	-0.2439	0.0179	-0.1857	0.0022	0.0249	-0.0309	0.0729	0.0394	0.0066	-0.0226	0.0094	0.0482	-0.0235	0.0394	-0.0968	-0.0019	0.0200	0.0210	0.0284	0.0195	-0.0229	-0.0211	-0.0209	-0.0129	0.0184	0.0091	0.0331	-0.0007	-0.0191	0.0204	0.0035	0.0096	0.0005	0.0025	-0.0130	0.0037	0.0250	-0.0224	0.0063	0.1160	-0.1335	0.1629	0.0410	-0.0545	0.2937	-0.0674	-0.0469	-0.2128	-0.0944	0.1298	0.0402	0.0250	-0.0085	-0.0405	0.0373	-0.0187	-0.0047	-0.0279	-0.0007	0.0038	-0.0008	0.0613	-0.0257	-0.0070	0.0161	0.0155	0.0076	0.0064	-0.0188	-0.0117	-0.0204	-0.0188	0.0158	0.0046	0.0083	0.0017	-0.0175	0.0018	-0.0020	0.0030	0.0008	0.0037	-0.0025	-0.0055	0.0043	-0.0161	-0.0001	0.2486	-0.1820	-0.0966	-0.0831	0.3477	0.0017	0.0866	-0.0390	0.2049	0.1007	-0.1995	0.0573	0.0071	-0.0079	0.0290	-0.0218	0.0141	0.0514	-0.0344	0.0198	-0.0168	0.0236	-0.0152	-0.0040	0.0041	0.0082	-0.0121	-0.0113	0.0124	0.0128	0.0127	0.0052	0.0041	-0.0039	-0.0029	-0.0067	0.0031	0.0059	-0.0092	-0.0054	0.0084	-0.0066	0.0000	0.0031	0.0027	-0.0077	-0.0018	0.0003	-0.2298	-0.1256	0.0144	-0.2048	-0.0993	-0.0751	0.1626	0.0559	-0.1116	0.0244	-0.3413	0.0264	0.0662	-0.0164	0.0153	-0.0734	0.0455	0.0367	-0.1069	-0.0132	-0.0023	-0.0117	-0.0361	-0.0411	-0.0060	-0.0146	-0.0206	-0.0045	-0.0133	-0.0100	0.0109	0.0161	-0.0077	-0.0201	-0.0130	-0.0027	0.0101	0.0141	-0.0167	-0.0006	0.0131	-0.0103	0.0004	0.0119	0.0071	-0.0002	0.0031	0.0060	-0.0946	-0.0058	0.2424	0.0781	0.0710	0.1175	0.1051	0.2474	-0.1415	0.1570	-0.3299	-0.0468	-0.0413	0.0012	0.0391	0.0164	-0.0112	-0.0041	-0.0465	0.0911	-0.0105	-0.0084	0.0165	-0.0054	0.0125	0.0039	-0.0060	-0.0039	0.0127	0.0101	0.0177	0.0083	0.0065	-0.0032	0.0007	0.0046	-0.0036	0.0053	0.0087	0.0031	0.0021	-0.0228	0.0135	-0.0018	-0.0016	-0.0022	0.0005	-0.0036	-0.0621	0.0020	-0.2534	0.0149	0.0208	-0.2321	-0.0432	-0.1844	0.2406	-0.0250	0.3110	0.0319	0.0485	0.0143	-0.0166	-0.0404	0.0393	-0.0227	0.0291	-0.0984	0.0038	0.0279	-0.0500	0.0014	0.0127	0.0188	-0.0094	-0.0062	0.0250	0.0195	-0.0174	0.0042	0.0157	-0.0042	-0.0080	-0.0009	0.0087	0.0136	-0.0038	0.0035	0.0021	0.0196	-0.0234	0.0003	0.0028	-0.0102	-0.0074	0.0006	-0.1663	0.2734	0.0790	0.0468	-0.2646	-0.0183	0.0870	0.1295	0.1114	-0.1187	0.0959	0.1820	-0.0325	-0.0135	-0.0083	0.0183	-0.0374	-0.0022	0.0649	-0.0010	-0.0092	-0.0302	0.0065	0.0485	-0.0139	-0.0199	0.0068	0.0007	-0.0200	-0.0288	0.0023	0.0111	-0.0146	-0.0269	0.0081	0.0059	-0.0052	-0.0031	0.0014	0.0023	-0.0101	0.0058	-0.0017	0.0018	-0.0032	0.0026	0.0122	0.0000	0.2488	0.0332	-0.0512	0.1110	0.2148	-0.0273	-0.2616	-0.0309	0.1404	-0.1578	-0.2635	-0.2299	-0.0464	0.0190	0.0056	0.0316	-0.0208	0.0221	0.0341	0.0321	0.0147	0.0087	0.0333	-0.0122	0.0130	0.0213	0.0073	-0.0019	0.0247	0.0220	-0.0028	0.0075	0.0090	0.0031	0.0028	0.0104	-0.0043	-0.0039	0.0116	0.0044	-0.0078	-0.0105	0.0077	-0.0086	-0.0052	-0.0008	-0.0034	-0.0101	-0.2453	-0.1213	-0.0379	-0.1233	-0.1126	-0.0310	0.3012	-0.0268	-0.0807	0.1540	0.0571	0.2401	-0.0268	-0.0369	0.0330	-0.0370	-0.0340	-0.0118	0.0020	0.0540	-0.0253	0.0035	-0.0015	0.0636	0.0049	-0.0136	-0.0088	-0.0094	-0.0183	-0.0211	0.0117	0.0112	-0.0160	-0.0187	0.0035	-0.0208	-0.0073	0.0008	-0.0112	-0.0052	-0.0095	-0.0143	0.0099	0.0014	-0.0022	-0.0085	0.0155	-0.0033	-0.1251	0.0070	-0.1238	0.1682	0.2190	-0.2509	-0.0416	0.0129	0.2835	0.0735	-0.1014	-0.1065	0.0008	0.0249	0.0200	-0.0335	-0.0045	-0.0207	0.0093	-0.0135	-0.0119	0.0183	-0.0212	0.0293	0.0329	0.0074	-0.0139	-0.0025	0.0283	0.0248	0.0019	0.0216	0.0275	0.0023	-0.0077	-0.0092	0.0029	0.0152	-0.0016	0.0036	-0.0026	0.0024	-0.0017	0.0007	-0.0010	-0.0086	0.0079	-0.0046	-0.0733	0.4226	0.0548	0.2551	-0.2559	0.0179	-0.1038	0.0854	-0.1424	-0.1473	-0.0745	-0.0858	0.0010	-0.0014	-0.0237	0.0240	0.0489	-0.0164	0.0220	-0.0536	0.0264	-0.0190	-0.0404	-0.0532	0.0014	-0.0057	-0.0016	0.0117	-0.0228	-0.0144	0.0036	0.0232	-0.0188	-0.0153	-0.0008	0.0039	0.0002	-0.0022	-0.0021	-0.0035	-0.0006	0.0112	-0.0210	-0.0025	0.0078	0.0130	0.0003	0.0078	-0.0177	0.1639	0.1128	-0.0132	-0.2235	0.0247	-0.1771	0.0855	0.0859	-0.1784	0.3528	-0.0303	0.0145	-0.0240	-0.0075	0.0500	0.0611	0.0193	0.0267	-0.0608	-0.0117	-0.0320	-0.0201	-0.0519	-0.0366	-0.0008	0.0030	0.0205	0.0103	0.0161	-0.0177	-0.0536	0.0224	0.0017	-0.0030	0.0558	-0.0029	-0.0071	0.0133	-0.0027	0.0113	0.0241	-0.0038	0.0022	-0.0113	0.0046	-0.0229	0.0024	0.1994	-0.1967	-0.0881	-0.0718	0.0506	0.1653	0.0466	-0.1847	0.0858	-0.1959	-0.0120	0.2012	-0.0186	-0.0525	0.0272	-0.0560	-0.0972	0.1036	-0.0435	0.0824	-0.0141	-0.0431	0.1150	0.0492	0.0209	0.0499	-0.0160	-0.0550	0.0777	-0.0096	0.0089	-0.0005	-0.0186	0.0098	0.0239	0.0328	-0.0005	0.0051	-0.0152	-0.0085	-0.0102	-0.0276	0.0242	0.0002	-0.0319	-0.0011	-0.0058	-0.0046	-0.2969	0.0925	0.1949	0.0379	-0.0848	-0.0473	0.0442	0.2663	-0.0315	-0.0032	-0.2945	-0.0682	0.0323	0.0220	0.0425	-0.0516	0.0556	-0.0252	-0.1382	0.0361	0.0277	0.0012	0.0364	-0.1061	-0.0019	-0.0598	-0.0242	0.0165	-0.0421	-0.0190	0.0208	0.0169	-0.0225	-0.0015	-0.0127	0.0188	0.0110	0.0276	-0.0082	0.0030	0.0310	-0.0145	0.0115	0.0145	0.0020	0.0090	-0.0161	0.0026	0.2903	0.1785	-0.2112	0.0583	-0.0856	0.1294	0.0501	-0.2242	-0.2172	-0.0371	0.0887	0.0770	0.0645	-0.0550	0.0101	0.0027	0.0767	0.0767	-0.0467	-0.0790	-0.0060	-0.0472	-0.0207	-0.0862	-0.0164	0.0478	-0.0284	-0.0490	0.0387	0.0410	0.0115	0.0188	-0.0088	-0.0027	-0.0292	0.0246	0.0162	0.0171	-0.0123	-0.0122	0.0126	-0.0027	-0.0222	0.0136	-0.0093	-0.0030	-0.0142	0.0055	-0.0383	0.0517	0.1072	-0.2491	0.0031	-0.1471	-0.0664	0.2578	0.2062	0.0176	0.0170	-0.1450	-0.0695	-0.0270	0.0630	-0.0678	-0.1307	0.0690	-0.0626	0.1586	-0.0026	-0.0613	0.1624	0.0688	0.0003	-0.0478	-0.0157	-0.0270	0.0136	0.0292	0.0329	-0.0700	0.0406	0.0438	0.0273	0.0650	-0.0101	0.0223	0.0018	-0.0015	-0.0063	-0.0392	0.0434	0.0007	-0.0390	0.0168	0.0051	-0.0022	-0.0101	-0.1975	0.1577	-0.0007	-0.0484	0.2387	-0.0874	-0.0426	-0.1559	-0.1152	0.1913	0.0324	0.0508	0.0298	0.0442	-0.0352	0.0977	-0.0421	-0.1380	0.0031	0.0110	0.0238	0.0289	-0.1381	-0.0072	0.0044	-0.0244	0.0204	-0.0081	-0.0856	-0.0121	-0.0034	-0.0924	0.0266	0.0114	0.0070	0.0080	0.0080	0.0054	-0.0011	0.0355	-0.0212	-0.0068	-0.0117	0.0045	0.0266	-0.0326	0.0209	0.0889	0.0143	0.0768	0.0479	-0.0459	0.1402	-0.0538	-0.0712	-0.3024	0.0753	0.1187	-0.0294	-0.1301	0.0874	-0.0501	0.1127	-0.1089	-0.1709	0.1629	0.0782	0.0133	0.0992	0.0215	0.1254	-0.0028	-0.0430	0.0634	0.0457	-0.0860	-0.0540	0.0023	-0.0094	-0.0431	-0.0069	0.0415	-0.0754	-0.0173	-0.0334	0.0242	0.0093	-0.0375	0.0090	0.0101	-0.0336	0.0017	-0.0201	0.0177	-0.0217	0.0424	-0.0371	0.0553	-0.1491	-0.0390	-0.0587	-0.0699	0.0271	0.1789	-0.0533	0.1251	0.0185	0.2226	0.0396	-0.1548	0.0295	0.0881	-0.0030	0.0746	-0.3361	-0.0504	0.0268	-0.1980	0.0121	-0.0381	0.0435	0.0398	0.0681	-0.0103	0.0060	-0.0905	-0.0120	0.0412	-0.0377	-0.0464	-0.0389	0.0399	-0.0250	-0.0101	0.0325	0.0188	0.0634	-0.0669	0.0117	0.0322	-0.0184	0.0241	0.0077	0.0030	-0.1596	0.2411	-0.0634	-0.0445	0.1532	-0.0650	0.1249	0.0388	-0.1424	-0.1870	0.0042	-0.1114	-0.0375	-0.0647	0.0804	-0.0941	0.0709	0.1428	0.0904	0.0434	-0.0619	0.0002	0.0885	-0.0079	0.0661	0.0567	-0.0259	0.0816	0.0289	-0.0296	-0.0030	0.0477	-0.0299	0.0287	0.0211	-0.0052	-0.0222	0.0291	0.0205	-0.0372	0.0012	0.0128	-0.0148	-0.0030	-0.0028	0.0137	-0.0196	0.2645	-0.2199	0.1446	-0.1521	0.1481	0.1963	-0.1548	0.0419	-0.1236	-0.0095	-0.0738	-0.1783	0.0071	-0.0292	0.0135	-0.0101	0.0580	0.0765	-0.0847	0.0486	0.0504	-0.0268	0.0268	-0.1153	-0.0005	0.0160	-0.0036	0.0056	0.0117	0.0253	-0.0107	-0.0480	0.0196	0.0417	-0.0011	0.0390	0.0054	-0.0135	-0.0137	-0.0106	0.0264	-0.0128	0.0118	0.0046	0.0025	0.0212	-0.0226	0.0058	-0.1896	-0.2279	0.0962	0.0464	0.0054	0.0635	-0.0025	-0.0354	-0.0917	0.0690	0.2773	0.0208	0.0435	0.0278	-0.0012	-0.0774	-0.1095	-0.0832	-0.0776	0.0250	-0.0470	0.0193	0.1060	0.0920	0.0109	-0.0196	-0.0039	0.0130	-0.0039	-0.0649	-0.0070	-0.0286	-0.0472	0.0191	0.0255	-0.0054	0.0086	0.0079	-0.0108	0.0097	-0.0022	-0.0154	0.0159	-0.0036	-0.0289	-0.0056	0.0030	-0.0004	-0.0455	0.1703	0.0419	0.2688	0.0147	-0.0921	-0.2910	0.0539	0.2882	-0.2327	0.0935	-0.1406	-0.0110	0.0335	-0.0109	0.0791	0.0465	-0.0225	0.0632	-0.0551	0.0002	-0.0005	-0.0196	-0.0389	0.0178	0.0090	0.0059	0.0283	0.0096	-0.0252	-0.0077	0.0131	-0.0048	0.0148	-0.0014	0.0057	0.0004	-0.0092	0.0097	-0.0042	-0.0020	0.0177	-0.0118	-0.0105	0.0013	0.0184	0.0119	0.0083	0.0550	0.1021	-0.0413	-0.0509	-0.1150	0.0242	0.0288	0.0114	0.1039	-0.1344	0.0567	0.0897	0.0590	-0.1002	0.0497	-0.0412	0.1468	0.1608	-0.0922	-0.0316	-0.0226	-0.0817	-0.0514	-0.1523	-0.0245	0.0029	-0.0417	-0.0561	0.0297	0.0635	-0.0147	-0.0381	0.0593	0.0080	-0.0210	0.0970	0.0051	0.0024	-0.0339	-0.0335	0.0386	0.0095	0.0127	0.0406	0.0025	0.0075	-0.0342	0.0110	-0.0204	-0.0023	0.0606	-0.0143	0.0652	-0.0168	-0.0255	-0.0095	-0.0442	0.0025	-0.0122	-0.0070	0.0113	0.0721	0.0715	-0.0514	-0.0047	-0.3384	-0.0371	0.0200	0.0225	0.2729	-0.0256	0.0650	0.0451	0.0130	-0.0409	-0.0083	0.0775	0.1425	-0.1044	-0.2207	0.1433	0.0698	-0.0135	-0.0986	0.0011	0.0710	0.0524	0.0296	0.0264	0.0029	-0.0005	-0.0767	-0.0183	-0.1713	-0.1610	-0.1152	0.0396	-0.0441	0.0271	-0.0202	-0.0791	0.0362	0.0801	-0.0207	-0.0280	-0.0391	-0.1424	0.0802	-0.0378	-0.0065	-0.0203	0.0322	-0.1195	0.0965	0.2353	-0.0574	0.0453	-0.1177	-0.1591	0.2570	-0.0041	0.0397	0.0158	-0.0027	0.1442	-0.0751	-0.0943	-0.0395	0.1439	-0.1388	-0.0237	-0.0233	-0.0112	-0.0056	0.0188	0.0053	-0.0304	0.1334	0.0759	-0.0003	0.0427	-0.0044	0.0991	-0.0197	0.0489	0.0197	0.0108	-0.0344	-0.0203	0.0176	0.0053	0.0001	-0.1124	0.0599	0.0807	-0.0976	-0.0392	-0.2105	0.1259	-0.0700	-0.1448	0.1011	-0.0242	0.1264	0.0011	0.0807	0.0817	0.1759	-0.0414	-0.0223	-0.0818	-0.1058	-0.0362	-0.0846	-0.0276	-0.2360	-0.0689	-0.0137	0.0507	-0.0675	-0.0210	-0.0182	-0.0676	-0.0920	0.0065	-0.1270	-0.0678	-0.1337	-0.0081	-0.0103	0.0235	-0.0082	-0.0303	-0.0014	0.0215	0.0685	-0.0161	0.0188	-0.0202	0.0030	0.0603	-0.1435	0.0685	0.0012	0.0333	-0.0632	0.2783	-0.1767	0.2163	0.0901	-0.1664	0.0627	-0.0018	-0.0231	-0.1551	-0.0927	0.0186	-0.1050	-0.1722	-0.0713	0.0891	-0.2325	-0.1242	-0.1631	-0.0217	-0.0403	-0.0118	-0.0260	-0.0118	0.0869	-0.0209	-0.0805	0.1159	0.0231	0.0564	-0.0518	0.0681	0.0407	0.0273	0.0225	0.0529	0.0273	-0.1145	0.0518	0.0741	-0.0189	0.0615	-0.0847	-0.0264	-0.0088	-0.0507	0.0443	-0.0160	0.0681	0.1875	-0.0968	-0.0611	-0.0542	-0.1115	0.1092	0.0098	-0.0140	0.0491	0.0734	0.0698	-0.0525	-0.0855	-0.0203	0.1029	-0.0810	-0.0274	-0.0375	0.0330	-0.0002	0.0145	0.0080	-0.0239	0.0806	0.0170	-0.0042	0.0392	0.0404	0.1107	0.0038	-0.0050	-0.0160	-0.0022	-0.0128	-0.1058	0.1226	-0.0360	0.0326	0.0887	-0.2108	0.0608	0.0712	0.0722	0.1337	-0.2116	-0.0728	0.1431	0.0061	0.0004	-0.0290	-0.0216	-0.1328	-0.0049	-0.1582	0.0494	0.1767	-0.1079	0.0924	0.0048	0.0477	-0.0273	-0.0226	0.0158	0.0134	-0.0873	-0.0704	0.0280	0.0005	-0.0113	-0.1335	0.0143	0.0417	0.0164	0.0246	0.0049	-0.0420	-0.1006	-0.0949	0.0407	-0.0491	-0.0019	-0.0176	0.1524	-0.0059	0.0567	-0.1353	-0.0164	0.0133	-0.0130	0.0058	-0.0916	0.0911	0.0694	-0.0743	-0.1564	-0.0566	0.0357	0.0387	-0.0455	0.0214	0.2567	0.0721	0.0169	0.0409	-0.1702	0.2230	0.0248	0.0434	-0.0102	-0.0522	0.0656	-0.1724	-0.1004	-0.1087	-0.0359	-0.1220	0.0266	-0.1304	-0.0321	0.0002	0.0294	-0.0312	-0.0468	-0.0256	-0.0483	-0.1348	0.0636	0.0129	0.1090	-0.0050	-0.1345	-0.0580	0.1850	0.0374	-0.0566	0.0126	-0.0878	0.1286	0.1105	-0.1149	0.0227	-0.0313	0.1053	0.0467	0.0078	-0.0706	0.1064	0.0415	-0.0123	-0.1218	0.0036	-0.0651	-0.1695	-0.0219	-0.0253	-0.0557	-0.0210	0.0400	0.0216	-0.1669	-0.1066	-0.0064	-0.0150	-0.0542	-0.0033	-0.0219	0.0189	0.0243	-0.0079	0.0112	0.0467	0.0734	0.0301	0.0050	0.0573	0.0448	0.0699	0.0298	-0.2145	0.1739	-0.0963	0.1015	-0.0665	-0.1724	0.1188	0.0976	0.1456	0.0065	-0.1729	0.0435	-0.0825	-0.0166	0.0661	0.0236	-0.0706	0.1247	-0.0181	0.1122	0.0079	-0.1583	0.1011	0.0085	-0.0219	-0.0632	-0.0043	-0.0202	-0.0137	-0.0261	0.1036	0.1202	-0.0173	-0.0032	0.0090	0.0711	-0.0243	0.0097	0.0095	-0.0112	-0.0130	0.0058	0.0655	0.0547	-0.0114	0.0682	0.0526	0.0415	0.1431	0.1130	-0.0817	-0.1681	0.0069	-0.0121	0.0035	0.0052	-0.1354	0.1357	0.1391	-0.1122	0.1417	-0.0595	0.0380	-0.0745	0.0872	0.0210	-0.2453	-0.0475	-0.0153	0.0385	0.0980	-0.1846	0.0218	0.0641	-0.0534	-0.0486	-0.0268	0.0732	0.0331	0.0065	-0.1014	0.0495	-0.0043	0.0418	0.0265	0.0315	-0.0244	0.0009	0.0344	-0.1295	-0.1101	-0.0199	-0.0243	0.0055	-0.0666	0.0192	-0.1045	-0.0613	0.1885	-0.0049	0.0094	-0.0130	-0.2004	0.1541	0.2137	-0.1767	0.0820	-0.0927	-0.1360	0.0424	0.0582	-0.0108	-0.0437	-0.0535	0.0039	0.1682	-0.0341	-0.0074	0.1052	0.0271	0.0300	0.0203	-0.0074	-0.0249	0.1052	-0.0150	0.0049	-0.0274	0.0264	0.0558	0.0195	0.0287	-0.0042	0.0531	0.0606	0.0245	-0.0131	-0.0258	0.0308	-0.0190	-0.0335	0.0101	-0.0012	-0.0077	-0.0000	-0.0000	0.0000	-0.0000	0.0000	-0.0000	0.0000	0.0000	0.0000	0.0000	-0.0000	0.0000	0.0000	0.0000	0.0000	-0.0000	-0.0000	0.0000	-0.0000	-0.0000	0.0000	-0.0000	0.0000	0.0000	-0.0000	0.0000	-0.0000	0.0000	-0.0000	-0.0000	-0.0000	0.0000	-0.0000	0.0000	0.0000	-0.0000	0.0000	-0.0000	0.0000	-0.0000	0.0000	0.0000	0.0000	-0.0000	0.0000	0.0000	0.0000	-0.0000	-0.0000	-0.0000	0.0000	0.0000	0.0000	-0.0000	-0.0000	0.0000	0.0000	-0.0000	-0.0000	-0.0000	-0.0000	0.0000	-0.0000	0.0000	0.0000	-0.0000	-0.0000	-0.0000	-0.0000	-0.0000	0.0000	-0.0000	-0.0000	0.0000	-0.0000	0.0000	0.0000	-0.0000	0.0000	0.0000	-0.0000	-0.0000	-0.0000	0.0000	-0.0000	0.0000	0.0000	0.0000	0.0000	-0.0000	-0.0000	-0.0000	-0.0000	0.0000	0.0000	0.0000	0.0000	0.0000	0.0000	0.0000	-0.0000	0.0000	-0.0000	0.0000	-0.0000	-0.0000	-0.0000	-0.0000	-0.0000	-0.0000	-0.0000	-0.0000	-0.0000	0.0000	0.0000	0.0000	-0.0000	0.0000	0.0000	-0.0000	-0.0000	-0.0000	0.0000	-0.0000	-0.0000	0.0000	-0.0000	-0.0000	-0.0000	-0.0000	0.0000	-0.0000	-0.0000	0.0000	-0.0000	0.0000	-0.0000	-0.0000	-0.0000	0.0000	-0.0000	-0.0000	-0.0000	-0.0000	0.0000	0.0000	-0.0000	0.0000	-0.0000	0.0000	-0.0000	-0.0000	-0.0000	-0.0000	0.0000	-0.0000	-0.0000	-0.0000	-0.0000	0.0000	0.0000	-0.0000	0.0000	0.0000	-0.0000	0.0000	-0.0000	-0.0000	0.0000	-0.0000	0.0000	-0.0000	0.0000	0.0000	0.0000	-0.0000	0.0000	-0.0000	-0.0000	0.0000	-0.0000	0.0000	-0.0000	0.0000	-0.0000	-0.0000	-0.0000	0.0000	-0.0000	-0.0000	-0.0000	0.0000	0.0000	0.0000	-0.0000	-0.0000	-0.0000	0.0000	0.0000	-0.0000	-0.0000	0.0000	0.0000	0.0000	0.0000	-0.0000	0.0000	-0.0000	-0.0000	0.0000	0.0000	0.0000	0.0000	0.0000	-0.0000	0.0000	0.0000	-0.0000	0.0000	-0.0000	-0.0000	0.0000	-0.0000	-0.0000	0.0000	0.0000	0.0000	-0.0000	0.0000	-0.0000	-0.0000	-0.0000	-0.0000	0.0000	0.0000	0.0000	0.0000	-0.0000	-0.0000	-0.0000	-0.0000	-0.0000	-0.0000	-0.0000	0.0000	-0.0000	0.0000	-0.0000	0.0000	0.0000	0.0000	0.0000	0.0000	0.0000	0.0000	0.0000	0.0000	-0.0000	-0.0000	-0.0000	0.0000	-0.0000	-0.0000	0.0000	0.0000	0.0000	-0.0000	0.0000	0.0000	-0.0000	0.0000	0.0000	0.0000	0.0000	-0.0000	0.0000	0.0000	-0.0000	0.0000	-0.0000	0.0000	0.0000	0.0000	-0.0000	0.0000	0.0000	0.0000	0.0000	0.0001	0.0001	-0.0000	0.0001	-0.0000	0.0000	-0.0000	-0.0000	-0.0001	-0.0000	0.0000	-0.0000	-0.0001	-0.0000	-0.0000	0.0000	0.0000	-0.0000	0.0000	0.0000	-0.0000	0.0000	-0.0000	-0.0000	0.0000	-0.0000	0.0000	-0.0000	0.0000	0.0000	0.0000	-0.0000	0.0000	-0.0000	-0.0000	0.0000	-0.0000	0.0000	-0.0000	0.0000	-0.0000	-0.0000	-0.0000	0.0000	-0.0000	-0.0000	-0.0000	0.0000	0.0000	0.0000	-0.0000	-0.0000	-0.0000	0.0000	0.0000	-0.0000	-0.0000	0.0000	0.0000	0.0000	0.0000	-0.0000	0.0000	-0.0000	-0.0000	0.0000	0.0000	0.0000	0.0000	0.0000	-0.0000	0.0000	0.0000	-0.0000	0.0000	-0.0000	-0.0000	0.0000	-0.0000	-0.0000	0.0000	0.0000	0.0000	-0.0000	0.0000	-0.0000	-0.0000	-0.0000	-0.0000	0.0000	0.0000	0.0000	0.0000	-0.0000	-0.0000	-0.0000	-0.0000	-0.0001	-0.0000	-0.0001	0.0000	-0.0000	0.0000	-0.0000	0.0000	0.0000	0.0000	0.0000	0.0000	0.0000	0.0000	0.0000	0.0000	-0.0000	-0.0000	-0.0000	0.0000	-0.0000	-0.0000	0.0000	0.0000	0.0000	-0.0000	0.0000	0.0000	-0.0000	0.0000	0.0000	0.0000	0.0000	-0.0000	0.0000	0.0000	-0.0000	0.0000	-0.0000	0.0000	0.0000	0.0000	-0.0000	0.0000	0.0000	0.0000	0.0000	0.0001	0.0002	-0.0000	0.0001	-0.0001	0.0001	-0.0001	-0.0001	-0.0001	-0.0000	0.0000	-0.0000	-0.0001	-0.0000	-0.0001	0.0001	0.0001	-0.0000	0.0001	0.0000	-0.0000	0.0000	-0.0000	-0.0000	0.0000	-0.0000	0.0000	-0.0000	0.0000	0.0000	0.0000	-0.0000	0.0000	-0.0000	-0.0000	0.0000	-0.0000	0.0000	-0.0001	0.0000	-0.0000	-0.0000	-0.0000	0.0001	-0.0000	-0.0001	-0.0000	0.0000	0.0001	0.0000	-0.0001	-0.0001	-0.0000	0.0000	0.0001	-0.0000	-0.0000	0.0000	0.0000	0.0001	0.0000	-0.0000	0.0000	-0.0000	-0.0001	0.0000	0.0000	0.0000	0.0000	0.0000	-0.0000	0.0000	0.0000	-0.0000	0.0001	-0.0000	-0.0000	0.0000	-0.0000	-0.0000	0.0000	0.0000	0.0000	-0.0000	0.0000	-0.0000	-0.0000	-0.0000	-0.0000	0.0000	0.0000	0.0000	0.0000	-0.0001	-0.0000	-0.0000	-0.0000	-0.0001	-0.0000	-0.0001	0.0000	-0.0000	0.0000	-0.0000	0.0000	0.0001	0.0001	0.0000	0.0000	0.0001	0.0000	0.0000	0.0000	-0.0000	-0.0000	-0.0000	0.0000	-0.0000	-0.0000	0.0000	0.0000	0.0000	-0.0000	0.0000	0.0000	-0.0000	0.0001	0.0000	0.0000	0.0000	-0.0000	0.0000	0.0001	-0.0000	0.0000	-0.0000	0.0000	0.0001	0.0000	-0.0000	0.0000	0.0000	0.0001	0.0000	-0.0000	-0.0000	-0.0000	-0.0000	0.0000	-0.0000	0.0000	0.0000	0.0000	0.0000	-0.0000	-0.0000	0.0000	0.0000	0.0000	-0.0000	-0.0000	0.0000	-0.0000	-0.0000	0.0000	-0.0000	0.0000	0.0000	-0.0000	0.0000	-0.0000	0.0000	-0.0000	-0.0000	-0.0000	0.0000	0.0000	0.0000	0.0000	-0.0000	0.0000	-0.0000	0.0000	-0.0000	0.0000	0.0000	0.0000	-0.0000	0.0000	0.0000	0.0000	-0.0000	-0.0000	0.0000	-0.0000	0.0000	0.0000	0.0000	-0.0000	-0.0000	-0.0000	0.0000	0.0000	-0.0000	-0.0000	0.0000	-0.0000	0.0000	0.0000	-0.0000	-0.0000	-0.0000	-0.0000	0.0000	0.0000	-0.0000	-0.0000	0.0000	-0.0000	0.0000	0.0000	-0.0000	0.0000	0.0000	-0.0000	-0.0000	-0.0000	-0.0000	-0.0000	0.0000	0.0000	0.0000	0.0000	-0.0000	-0.0000	-0.0000	-0.0000	0.0000	0.0000	0.0000	0.0000	0.0000	-0.0000	0.0000	0.0000	-0.0000	0.0000	-0.0000	0.0000	-0.0000	-0.0000	0.0000	-0.0000	-0.0000	0.0000	-0.0000	-0.0000	0.0000	0.0000	0.0000	-0.0000	0.0000	0.0000	0.0000	-0.0000	-0.0000	0.0000	-0.0000	-0.0000	0.0000	-0.0000	-0.0000	-0.0000	-0.0000	0.0000	-0.0000	-0.0000	0.0000	-0.0000	0.0000	-0.0000	-0.0000	-0.0000	0.0000	-0.0000	-0.0000	-0.0000	-0.0000	-0.0000	-0.0000	-0.0000	-0.0000	0.0000	-0.0000	0.0000	0.0000	0.0000	0.0000	-0.0000	-0.0000	0.0000	0.0000	0.0000	-0.0000	-0.0000	0.0000	-0.0000	-0.0000	0.0000	-0.0000	0.0000	0.0000	-0.0000	0.0000	-0.0000	0.0000	-0.0000	-0.0000	-0.0000	0.0000	0.0000	0.0000	0.0000	-0.0000	0.0000	-0.0000	0.0000	-0.0000	0.0000	0.0000	0.0000	-0.0000	0.0000	0.0000	0.0000	-0.0000	-0.0000	0.0000	-0.0000	0.0000	0.0000	0.0000	-0.0000	-0.0000	-0.0000	0.0000	0.0000	-0.0000	-0.0000	0.0000	-0.0000	0.0000	0.0000	-0.0000	-0.0000	-0.0000	-0.0000	0.0000	0.0000	-0.0000	-0.0000	0.0000	-0.0000	0.0000	0.0000	-0.0000	0.0000	0.0000	-0.0000	-0.0000	-0.0000	-0.0000	-0.0000	0.0000	0.0000	0.0000	0.0000	-0.0000	-0.0000	-0.0000	-0.0000	0.0000	0.0000	0.0000	0.0000	0.0000	-0.0000	0.0000	0.0000	-0.0000	0.0000	-0.0000	0.0000	-0.0000	-0.0000	0.0000	-0.0000	-0.0000	0.0000	-0.0000	-0.0000	0.0000	0.0000	0.0000	-0.0000	0.0000	0.0000	0.0000	-0.0000	-0.0000	0.0000	-0.0000	-0.0000	0.0000	-0.0000	-0.0000	-0.0000	-0.0000	0.0000	-0.0000	-0.0000	0.0000	-0.0000	0.0000	-0.0000	-0.0000	-0.0000	0.0000	-0.0000	-0.0000	-0.0000	-0.0000	-0.0000	-0.0000	-0.0000	-0.0000	0.0000	-0.0000	0.0000	0.0000	0.0000	0.0000	-0.0000	-0.0000	0.0000	0.0000	0.0000	-0.0000	-0.0000	0.0000	-0.0000	-0.0000	0.0000	-0.0000	0.0000	0.0000	-0.0000	0.0000	-0.0000	0.0000	-0.0000	-0.0000	-0.0000	0.0000	0.0000	0.0000	0.0000	-0.0000	0.0000	-0.0000	0.0000	-0.0000	0.0000	0.0000	0.0000	-0.0000	0.0000	0.0000	0.0000	-0.0000	-0.0000	0.0000	-0.0000	0.0000	0.0000	0.0000	-0.0000	-0.0000	-0.0000	0.0000	0.0000	-0.0000	-0.0000	0.0000	-0.0000	0.0000	0.0000	-0.0000	-0.0000	-0.0000	-0.0000	0.0000	0.0000	-0.0000	-0.0000	0.0000	-0.0000	0.0000	0.0000	-0.0000	0.0000	0.0000	-0.0000	-0.0000	-0.0000	-0.0000	-0.0000	0.0000	0.0000	0.0000	0.0000	-0.0000	-0.0000	-0.0000	-0.0000	0.0000	0.0000	0.0000	0.0000	0.0000	-0.0000	0.0000	0.0000	-0.0000	0.0000	-0.0000	0.0000	-0.0000	-0.0000	0.0000	-0.0000	-0.0000	0.0000	-0.0000	-0.0000	0.0000	0.0000	0.0000	-0.0000	0.0000	0.0000	0.0000	-0.0000	-0.0000	0.0000	-0.0000	-0.0000	0.0000	-0.0000	-0.0000	-0.0000	-0.0000	0.0000	-0.0000	-0.0000	0.0000	-0.0000	0.0000	-0.0000	-0.0000	-0.0000	0.0000	-0.0000	-0.0000	-0.0000	-0.0000	-0.0000	-0.0000	-0.0000	-0.0000	0.0000	-0.0000	0.0000	0.0000	0.0000	0.0000	-0.0000	-0.0000	0.0000	0.0000	0.0000	-0.0000	-0.0000	0.0000	-0.0000	-0.0000	0.0000	-0.0000	0.0000	0.0000	-0.0000	0.0000	-0.0000	0.0000	-0.0000	-0.0000	-0.0000	0.0000	0.0000	0.0000	0.0000	-0.0000	0.0000	-0.0000	0.0000	-0.0000	0.0000	0.0000	0.0000	-0.0000	0.0000	0.0000	0.0000	-0.0000	-0.0000	0.0000	-0.0000	0.0000	0.0000	0.0000	-0.0000	-0.0000	-0.0000	0.0000	0.0000	-0.0000	-0.0000	0.0000	-0.0000	0.0000	0.0000	-0.0000	-0.0000	-0.0000	-0.0000	0.0000	0.0000	-0.0000	-0.0000	0.0000	-0.0000	0.0000	0.0000	-0.0000	0.0000	0.0000	-0.0000	-0.0000	-0.0000	-0.0000	-0.0000	0.0000	0.0000	0.0000	0.0000	-0.0000	-0.0000	-0.0000	-0.0000	0.0000	0.0000	0.0000	0.0000	0.0000	-0.0000	0.0000	0.0000	-0.0000	0.0000	-0.0000	0.0000	-0.0000	-0.0000	0.0000	-0.0000	-0.0000	0.0000	-0.0000	-0.0000	0.0000	0.0000	0.0000	-0.0000	0.0000	0.0000	0.0000	-0.0000	-0.0000	0.0000	-0.0000	-0.0000	0.0000	-0.0000	-0.0000	-0.0000	-0.0000	0.0000	-0.0000	-0.0000	0.0000	-0.0000	0.0000	-0.0000	-0.0000	-0.0000	0.0000	-0.0000	-0.0000	-0.0000	-0.0000	0.0000	0.0000	0.0000	-0.0000	-0.0000	-0.0000	-0.0000	-0.0000	0.0000	0.0000	0.0000	0.0000	-0.0000	-0.0000	-0.0000	0.0000	0.0000	-0.0000	0.0000	0.0000	-0.0000	0.0000	-0.0000	-0.0000	0.0000	-0.0000	0.0000	-0.0000	0.0000	0.0000	0.0000	-0.0000	0.0000	-0.0000	-0.0000	0.0000	-0.0000	0.0000	-0.0000	0.0000	-0.0000	-0.0000	-0.0000	0.0000	-0.0000	-0.0000	-0.0000	0.0000	-0.0000	-0.0000	-0.0000	0.0000	-0.0000	0.0000	0.0000	0.0000	0.0000	-0.0000	-0.0000	0.0000	0.0000	-0.0000	0.0000	-0.0000	-0.0000	-0.0000	0.0000	0.0000	0.0000	0.0000	-0.0000	0.0000	0.0000	-0.0000	0.0000	0.0000	-0.0000	0.0000	-0.0000	-0.0000	0.0000	0.0000	0.0000	-0.0000	0.0000	-0.0000	-0.0000	-0.0000	-0.0000	0.0000	0.0000	0.0000	0.0000	-0.0000	-0.0000	-0.0000	0.0000	0.0000	-0.0000	-0.0000	0.0000	-0.0000	-0.0000	0.0000	-0.0000	0.0000	0.0000	-0.0000	0.0000	0.0000	-0.0000	0.0000	0.0000	-0.0000	0.0000	-0.0000	0.0000	-0.0000	-0.0000	0.0000	0.0000	0.0000	-0.0000	0.0000	0.0000	-0.0000	0.0000	0.0000	0.0000	0.0000	-0.0000	0.0000	0.0000	-0.0000	0.0000	-0.0000	0.0000	0.0000	0.0000	-0.0000	0.0000	0.0000	0.0000	0.0000	0.0000	0.0000	0.0000	-0.0000	-0.0000	-0.0000	-0.0000	-0.0000	0.0000	0.0000	0.0000	0.0000	-0.0000	-0.0000	-0.0000	0.0000	0.0000	-0.0000	0.0000	0.0000	-0.0000	0.0000	-0.0000	-0.0000	0.0000	-0.0000	0.0000	-0.0000	0.0000	0.0000	0.0000	-0.0000	0.0000	-0.0000	-0.0000	0.0000	-0.0000	0.0000	-0.0000	0.0000	-0.0000	-0.0000	-0.0000	0.0000	-0.0000	-0.0000	-0.0000	0.0000	-0.0000	-0.0000	-0.0000	0.0000	-0.0000	0.0000	0.0000	0.0000	0.0000	-0.0000	-0.0000	0.0000	0.0000	-0.0000	0.0000	-0.0000	-0.0000	-0.0000	0.0000	0.0000	0.0000	0.0000	-0.0000	0.0000	0.0000	-0.0000	0.0000	0.0000	-0.0000	0.0000	-0.0000	-0.0000	0.0000	0.0000	0.0000	-0.0000	0.0000	-0.0000	-0.0000	-0.0000	-0.0000	0.0000	0.0000	0.0000	0.0000	-0.0000	-0.0000	-0.0000	0.0000	0.0000	-0.0000	-0.0000	0.0000	-0.0000	-0.0000	0.0000	-0.0000	0.0000	0.0000	-0.0000	0.0000	0.0000	-0.0000	0.0000	0.0000	-0.0000	0.0000	-0.0000	0.0000	-0.0000	-0.0000	0.0000	0.0000	0.0000	-0.0000	0.0000	0.0000	-0.0000	0.0000	0.0000	0.0000	0.0000	-0.0000	0.0000	0.0000	-0.0000	0.0000	-0.0000	0.0000	0.0000	0.0000	-0.0000	0.0000	0.0000	0.0000	0.0000	0.0000	0.0000	0.0000	-0.0000	-0.0000	-0.0000	-0.0000	-0.0000	0.0000	0.0000	0.0000	0.0000	-0.0000	-0.0000	-0.0000	0.0000	0.0000	-0.0000	0.0000	0.0000	-0.0000	0.0000	-0.0000	-0.0000	0.0000	-0.0000	0.0000	-0.0000	0.0000	0.0000	0.0000	-0.0000	0.0000	-0.0000	-0.0000	0.0000	-0.0000	0.0000	-0.0000	0.0000	-0.0000	-0.0000	-0.0000	0.0000	-0.0000	-0.0000	-0.0000	0.0000	-0.0000	-0.0000	-0.0000	0.0000	-0.0000	0.0000	0.0000	0.0000	0.0000	-0.0000	-0.0000	0.0000	0.0000	-0.0000	0.0000	-0.0000	-0.0000	-0.0000	0.0000	0.0000	0.0000	0.0000	-0.0000	0.0000	0.0000	-0.0000	0.0000	0.0000	-0.0000	0.0000	-0.0000	-0.0000	0.0000	0.0000	0.0000	-0.0000	0.0000	-0.0000	-0.0000	-0.0000	-0.0000	0.0000	0.0000	0.0000	0.0000	-0.0000	-0.0000	-0.0000	0.0000	0.0000	-0.0000	-0.0000	0.0000	-0.0000	-0.0000	0.0000	-0.0000	0.0000	0.0000	-0.0000	0.0000	0.0000	-0.0000	0.0000	0.0000	-0.0000	0.0000	-0.0000	0.0000	-0.0000	-0.0000	0.0000	0.0000	0.0000	-0.0000	0.0000	0.0000	-0.0000	0.0000	0.0000	0.0000	0.0000	-0.0000	0.0000	0.0000	-0.0000	0.0000	-0.0000	0.0000	0.0000	0.0000	-0.0000	0.0000	0.0000	0.0000	0.0000	-0.0000	-0.0000	-0.0000	0.0000	0.0000	0.0000	0.0000	0.0000	-0.0000	-0.0000	-0.0000	-0.0000	0.0000	0.0000	0.0000	-0.0000	-0.0000	0.0000	-0.0000	-0.0000	0.0000	-0.0000	0.0000	0.0000	-0.0000	0.0000	-0.0000	0.0000	-0.0000	-0.0000	-0.0000	0.0000	-0.0000	0.0000	0.0000	-0.0000	0.0000	-0.0000	0.0000	-0.0000	0.0000	0.0000	0.0000	-0.0000	0.0000	0.0000	0.0000	-0.0000	0.0000	0.0000	0.0000	-0.0000	0.0000	-0.0000	-0.0000	-0.0000	-0.0000	0.0000	0.0000	-0.0000	-0.0000	0.0000	-0.0000	0.0000	0.0000	0.0000	-0.0000	-0.0000	-0.0000	-0.0000	0.0000	-0.0000	-0.0000	0.0000	-0.0000	-0.0000	0.0000	-0.0000	0.0000	0.0000	-0.0000	-0.0000	-0.0000	0.0000	-0.0000	0.0000	0.0000	0.0000	0.0000	-0.0000	-0.0000	-0.0000	-0.0000	0.0000	0.0000	0.0000	-0.0000	-0.0000	0.0000	0.0000	-0.0000	0.0000	0.0000	-0.0000	0.0000	-0.0000	-0.0000	0.0000	-0.0000	-0.0000	0.0000	-0.0000	-0.0000	0.0000	-0.0000	0.0000	-0.0000	0.0000	0.0000	-0.0000	-0.0000	-0.0000	0.0000	-0.0000	-0.0000	0.0000	-0.0000	-0.0000	-0.0000	-0.0000	0.0000	-0.0000	-0.0000	0.0000	-0.0000	0.0000	-0.0000	-0.0000	-0.0000	0.0000	-0.0000	-0.0000	-0.0000	-0.0000	-0.0000	0.0000	0.0000	0.0000	-0.0000	-0.0000	-0.0000	0.0000	0.0000	0.0000	-0.0000	0.0000	-0.0000	-0.0000	-0.0000	0.0000	0.0000	-0.0000	0.0000	0.0000	-0.0000	0.0000	-0.0000	0.0000	0.0000	-0.0000	0.0000	-0.0000	0.0000	0.0000	0.0000	-0.0000	-0.0000	-0.0000	-0.0000	0.0000	-0.0000	0.0000	-0.0000	0.0000	-0.0000	-0.0000	-0.0000	0.0000	-0.0000	-0.0000	-0.0000	0.0000	-0.0000	0.0000	-0.0000	-0.0000	-0.0000	0.0000	0.0000	0.0000	0.0000	-0.0000	-0.0000	0.0000	0.0000	-0.0000	0.0000	-0.0000	-0.0000	0.0000	0.0000	0.0000	0.0000	-0.0000	-0.0000	-0.0000	0.0000	-0.0000	0.0000	-0.0000	-0.0000	0.0000	-0.0000	-0.0000	0.0000	0.0000	0.0000	0.0000	0.0000	-0.0000	-0.0000	-0.0000	-0.0000	0.0000	-0.0000	0.0000	0.0000	-0.0000	-0.0000	-0.0000	-0.0000	0.0000	0.0000	-0.0000	0.0000	-0.0000	-0.0000	0.0000	-0.0000	0.0000	0.0000	-0.0000	0.0000	0.0000	-0.0000	0.0000	0.0000	-0.0000	-0.0000	-0.0000	-0.0000	-0.0000	-0.0000	0.0000	0.0000	0.0000	-0.0000	0.0000	0.0000	-0.0000	0.0000	0.0000	0.0000	0.0000	-0.0000	0.0000	0.0000	-0.0000	0.0000	-0.0000	0.0000	0.0000	0.0000	-0.0000	-0.0000	0.0000	0.0000	0.0000	0.0000	-0.0000	-0.0000	-0.0000	0.0000	0.0000	0.0000	-0.0000	-0.0000	-0.0000	0.0000	-0.0000	0.0000	0.0000	0.0000	-0.0000	-0.0000	0.0000	-0.0000	-0.0000	0.0000	-0.0000	0.0000	-0.0000	-0.0000	0.0000	-0.0000	0.0000	-0.0000	-0.0000	-0.0000	0.0000	0.0000	0.0000	0.0000	-0.0000	0.0000	-0.0000	0.0000	-0.0000	0.0000	0.0000	0.0000	-0.0000	0.0000	0.0000	0.0000	-0.0000	0.0000	-0.0000	0.0000	0.0000	0.0000	-0.0000	-0.0000	-0.0000	-0.0000	0.0000	0.0000	-0.0000	-0.0000	0.0000	-0.0000	0.0000	0.0000	-0.0000	-0.0000	-0.0000	-0.0000	0.0000	0.0000	0.0000	-0.0000	0.0000	-0.0000	0.0000	0.0000	-0.0000	0.0000	0.0000	-0.0000	-0.0000	-0.0000	-0.0000	-0.0000	0.0000	0.0000	0.0000	0.0000	-0.0000	0.0000	-0.0000	-0.0000	0.0000	0.0000	0.0000	0.0000	-0.0000	-0.0000	0.0000	-0.0000	0.0000	0.0000	-0.0000	0.0000	-0.0000	-0.0000	0.0000	-0.0000	-0.0000	0.0000	-0.0000	-0.0000	0.0000	0.0000	0.0000	0.0000	0.0000	0.0000	-0.0000	-0.0000	-0.0000	0.0000	-0.0000	-0.0000	0.0000	-0.0000	-0.0000	-0.0000	-0.0000	0.0000	-0.0000	-0.0000	0.0000	-0.0000	0.0000	-0.0000	-0.0000	-0.0000	0.0000	0.0000	-0.0000	-0.0000	-0.0000	-0.0000	0.0000	0.0000	0.0000	-0.0000	-0.0000	-0.0000	0.0000	0.0000	0.0000	-0.0000	0.0000	-0.0000	-0.0000	-0.0000	0.0000	0.0000	-0.0000	0.0000	0.0000	-0.0000	0.0000	-0.0000	0.0000	0.0000	-0.0000	0.0000	-0.0000	0.0000	0.0000	0.0000	-0.0000	-0.0000	-0.0000	-0.0000	0.0000	-0.0000	0.0000	-0.0000	0.0000	-0.0000	-0.0000	-0.0000	0.0000	-0.0000	-0.0000	-0.0000	0.0000	-0.0000	0.0000	-0.0000	-0.0000	-0.0000	0.0000	0.0000	0.0000	0.0000	-0.0000	-0.0000	0.0000	0.0000	-0.0000	0.0000	-0.0000	-0.0000	0.0000	0.0000	0.0000	0.0000	-0.0000	-0.0000	-0.0000	0.0000	-0.0000	0.0000	-0.0000	-0.0000	0.0000	-0.0000	-0.0000	0.0000	0.0000	0.0000	0.0000	0.0000	-0.0000	-0.0000	-0.0000	-0.0000	0.0000	-0.0000	0.0000	0.0000	-0.0000	-0.0000	-0.0000	-0.0000	0.0000	0.0000	-0.0000	0.0000	-0.0000	-0.0000	0.0000	-0.0000	0.0000	0.0000	-0.0000	0.0000	0.0000	-0.0000	0.0000	0.0000	-0.0000	-0.0000	-0.0000	-0.0000	-0.0000	-0.0000	0.0000	0.0000	0.0000	-0.0000	0.0000	0.0000	-0.0000	0.0000	0.0000	0.0000	0.0000	-0.0000	0.0000	0.0000	-0.0000	0.0000	-0.0000	0.0000	0.0000	0.0000	-0.0000	-0.0000	0.0000	0.0000	0.0000	0.0000	-0.0000	-0.0000	-0.0000	0.0000	0.0000	0.0000	-0.0000	-0.0000	-0.0000	0.0000	-0.0000	0.0000	0.0000	0.0000	-0.0000	-0.0000	0.0000	-0.0000	-0.0000	0.0000	-0.0000	0.0000	-0.0000	-0.0000	0.0000	-0.0000	0.0000	-0.0000	-0.0000	-0.0000	0.0000	0.0000	0.0000	0.0000	-0.0000	0.0000	-0.0000	0.0000	-0.0000	0.0000	0.0000	0.0000	-0.0000	0.0000	0.0000	0.0000	-0.0000	0.0000	-0.0000	0.0000	0.0000	0.0000	-0.0000	-0.0000	-0.0000	-0.0000	0.0000	0.0000	-0.0000	-0.0000	0.0000	-0.0000	0.0000	0.0000	-0.0000	-0.0000	-0.0000	-0.0000	0.0000	0.0000	0.0000	-0.0000	0.0000	-0.0000	0.0000	0.0000	-0.0000	0.0000	0.0000	-0.0000	-0.0000	-0.0000	-0.0000	-0.0000	0.0000	0.0000	0.0000	0.0000	-0.0000	0.0000	-0.0000	-0.0000	0.0000	0.0000	0.0000	0.0000	-0.0000	-0.0000	0.0000	-0.0000	0.0000	0.0000	-0.0000	0.0000	-0.0000	-0.0000	0.0000	-0.0000	-0.0000	0.0000	-0.0000	-0.0000	0.0000	0.0000	0.0000	0.0000	0.0000	0.0000	-0.0000	-0.0000	-0.0000	0.0000	-0.0000	-0.0000	0.0000	-0.0000	-0.0000	-0.0000	-0.0000	0.0000	-0.0000	-0.0000	0.0000	-0.0000	0.0000	-0.0000	-0.0000	-0.0000	0.0000	0.0000	-0.0000	-0.0000	-0.0000	1.0000	1.0000	1.0000	1.0000	1.0000	1.0000	1.0000	1.0000	1.0000	1.0000	1.0000	1.0000	1.0000	1.0000	1.0000	1.0000	1.0000	1.0000	1.0000	1.0000	1.0000	1.0000	1.0000	1.0000	1.0000	1.0000	1.0000	1.0000	1.0000	1.0000	1.0000	1.0000	1.0000	1.0000	1.0000	1.0000	1.0000	1.0000	1.0000	1.0000	1.0000	1.0000	1.0000	1.0000	1.0000	1.0000	1.0000	1.0000	1.0000	1.0000	1.0000	1.0000	1.0000	1.0000	1.0000	1.0000	1.0000	1.0000	1.0000	1.0000	1.0000	1.0000	1.0000	1.0000	1.0000	1.0000	1.0000	1.0000	1.0000	1.0000	1.0000	1.0000	1.0000	1.0000	1.0000	1.0000	1.0000	1.0000	1.0000	1.0000	1.0000	1.0000	1.0000	1.0000	1.0000	1.0000	1.0000	1.0000	1.0000	1.0000	1.0000	1.0000	1.0000	1.0000	1.0000	1.0000	1.0000	1.0000	1.0000	1.0000	1.0000	1.0000	1.0000	1.0000	1.0000	1.0000	1.0000	1.0000	1.0000	1.0000	1.0000	1.0000	1.0000	1.0000	1.0000	1.0000	1.0000	1.0000	1.0000	1.0000	1.0000	1.0000	1.0000	1.0000	1.0000	1.0000	1.0000	1.0000	1.0000	1.0000	1.0000	1.0000	1.0000	1.0000	1.0000	1.0000	1.0000	1.0000	1.0000	1.0000	1.0000	1.0000	1.0000	1.0000	0.0625	0.0625	0.0625	0.0625	0.0312	0.0312	0.0312	0.0312	0.0208	0.0208	0.0208	0.0208	0.0208	0.0208	0.0208	0.0208	0.0208	0.0208	0.0208	0.0208	0.0208	0.0208	0.0208	0.0208	0.0208	0.0208	0.0208	0.0208	0.0208	0.0208	0.0208	0.0208	0.0208	0.0208	0.0208	0.0208	0.0208	0.0208	0.0208	0.0208	0.0208	0.0208	0.0208	0.0208	0.0208	0.0208	0.0208	0.0208	0.0208	0.0208	0.0208	0.0208	0.0208	0.0208	0.0208	0.0208	0.0312	0.0312	0.0312	0.0312	0.0625	0.0625	0.0625	0.0625	0.0625	0.0625	0.0625	0.0625	0.0312	0.0312	0.0312	0.0312	0.0208	0.0208	0.0208	0.0208	0.0208	0.0208	0.0208	0.0208	0.0208	0.0208	0.0208	0.0208	0.0208	0.0208	0.0208	0.0208	0.0208	0.0208	0.0208	0.0208	0.0208	0.0208	0.0208	0.0208	0.0208	0.0208	0.0208	0.0208	0.0208	0.0208	0.0208	0.0208	0.0208	0.0208	0.0208	0.0208	0.0208	0.0208	0.0208	0.0208	0.0208	0.0208	0.0208	0.0208	0.0208	0.0208	0.0208	0.0208	0.0312	0.0312	0.0312	0.0312	0.0625	0.0625	0.0625	0.0625	0.0625	0.0625	0.0625	0.0625	0.0312	0.0312	0.0312	0.0312	0.0208	0.0208	0.0208	0.0208	0.0208	0.0208	0.0208	0.0208	0.0208	0.0208	0.0208	0.0208	0.0208	0.0208	0.0208	0.0208	0.0208	0.0208	0.0208	0.0208	0.0208	0.0208	0.0208	0.0208	0.0208	0.0208	0.0208	0.0208	0.0208	0.0208	0.0208	0.0208	0.0208	0.0208	0.0208	0.0208	0.0208	0.0208	0.0208	0.0208	0.0208	0.0208	0.0208	0.0208	0.0208	0.0208	0.0208	0.0208	0.0312	0.0312	0.0312	0.0312	0.0625	0.0625	0.0625	0.0625	0.0625	0.0625	0.0625	0.0625	0.0312	0.0312	0.0312	0.0312	0.0208	0.0208	0.0208	0.0208	0.0208	0.0208	0.0208	0.0208	0.0208	0.0208	0.0208	0.0208	0.0208	0.0208	0.0208	0.0208	0.0208	0.0208	0.0208	0.0208	0.0208	0.0208	0.0208	0.0208	0.0208	0.0208	0.0208	0.0208	0.0208	0.0208	0.0208	0.0208	0.0208	0.0208	0.0208	0.0208	0.0208	0.0208	0.0208	0.0208	0.0208	0.0208	0.0208	0.0208	0.0208	0.0208	0.0208	0.0208	0.0312	0.0312	0.0312	0.0312	0.0625	0.0625	0.0625	0.0625	0.0312	0.0312	0.0312	0.0312	0.0156	0.0156	0.0156	0.0156	0.0104	0.0104	0.0104	0.0104	0.0104	0.0104	0.0104	0.0104	0.0104	0.0104	0.0104	0.0104	0.0104	0.0104	0.0104	0.0104	0.0104	0.0104	0.0104	0.0104	0.0104	0.0104	0.0104	0.0104	0.0104	0.0104	0.0104	0.0104	0.0104	0.0104	0.0104	0.0104	0.0104	0.0104	0.0104	0.0104	0.0104	0.0104	0.0104	0.0104	0.0104	0.0104	0.0104	0.0104	0.0104	0.0104	0.0104	0.0104	0.0156	0.0156	0.0156	0.0156	0.0312	0.0312	0.0312	0.0312	0.0312	0.0312	0.0312	0.0312	0.0156	0.0156	0.0156	0.0156	0.0104	0.0104	0.0104	0.0104	0.0104	0.0104	0.0104	0.0104	0.0104	0.0104	0.0104	0.0104	0.0104	0.0104	0.0104	0.0104	0.0104	0.0104	0.0104	0.0104	0.0104	0.0104	0.0104	0.0104	0.0104	0.0104	0.0104	0.0104	0.0104	0.0104	0.0104	0.0104	0.0104	0.0104	0.0104	0.0104	0.0104	0.0104	0.0104	0.0104	0.0104	0.0104	0.0104	0.0104	0.0104	0.0104	0.0104	0.0104	0.0156	0.0156	0.0156	0.0156	0.0312	0.0312	0.0312	0.0312	0.0312	0.0312	0.0312	0.0312	0.0156	0.0156	0.0156	0.0156	0.0104	0.0104	0.0104	0.0104	0.0104	0.0104	0.0104	0.0104	0.0104	0.0104	0.0104	0.0104	0.0104	0.0104	0.0104	0.0104	0.0104	0.0104	0.0104	0.0104	0.0104	0.0104	0.0104	0.0104	0.0104	0.0104	0.0104	0.0104	0.0104	0.0104	0.0104	0.0104	0.0104	0.0104	0.0104	0.0104	0.0104	0.0104	0.0104	0.0104	0.0104	0.0104	0.0104	0.0104	0.0104	0.0104	0.0104	0.0104	0.0156	0.0156	0.0156	0.0156	0.0312	0.0312	0.0312	0.0312	0.0312	0.0312	0.0312	0.0312	0.0156	0.0156	0.0156	0.0156	0.0104	0.0104	0.0104	0.0104	0.0104	0.0104	0.0104	0.0104	0.0104	0.0104	0.0104	0.0104	0.0104	0.0104	0.0104	0.0104	0.0104	0.0104	0.0104	0.0104	0.0104	0.0104	0.0104	0.0104	0.0104	0.0104	0.0104	0.0104	0.0104	0.0104	0.0104	0.0104	0.0104	0.0104	0.0104	0.0104	0.0104	0.0104	0.0104	0.0104	0.0104	0.0104	0.0104	0.0104	0.0104	0.0104	0.0104	0.0104	0.0156	0.0156	0.0156	0.0156	0.0312	0.0312	0.0312	0.0312	0.0208	0.0208	0.0208	0.0208	0.0104	0.0104	0.0104	0.0104	0.0069	0.0069	0.0069	0.0069	0.0069	0.0069	0.0069	0.0069	0.0069	0.0069	0.0069	0.0069	0.0069	0.0069	0.0069	0.0069	0.0069	0.0069	0.0069	0.0069	0.0069	0.0069	0.0069	0.0069	0.0069	0.0069	0.0069	0.0069	0.0069	0.0069	0.0069	0.0069	0.0069	0.0069	0.0069	0.0069	0.0069	0.0069	0.0069	0.0069	0.0069	0.0069	0.0069	0.0069	0.0069	0.0069	0.0069	0.0069	0.0104	0.0104	0.0104	0.0104	0.0208	0.0208	0.0208	0.0208	0.0208	0.0208	0.0208	0.0208	0.0104	0.0104	0.0104	0.0104	0.0069	0.0069	0.0069	0.0069	0.0069	0.0069	0.0069	0.0069	0.0069	0.0069	0.0069	0.0069	0.0069	0.0069	0.0069	0.0069	0.0069	0.0069	0.0069	0.0069	0.0069	0.0069	0.0069	0.0069	0.0069	0.0069	0.0069	0.0069	0.0069	0.0069	0.0069	0.0069	0.0069	0.0069	0.0069	0.0069	0.0069	0.0069	0.0069	0.0069	0.0069	0.0069	0.0069	0.0069	0.0069	0.0069	0.0069	0.0069	0.0104	0.0104	0.0104	0.0104	0.0208	0.0208	0.0208	0.0208	0.0208	0.0208	0.0208	0.0208	0.0104	0.0104	0.0104	0.0104	0.0069	0.0069	0.0069	0.0069	0.0069	0.0069	0.0069	0.0069	0.0069	0.0069	0.0069	0.0069	0.0069	0.0069	0.0069	0.0069	0.0069	0.0069	0.0069	0.0069	0.0069	0.0069	0.0069	0.0069	0.0069	0.0069	0.0069	0.0069	0.0069	0.0069	0.0069	0.0069	0.0069	0.0069	0.0069	0.0069	0.0069	0.0069	0.0069	0.0069	0.0069	0.0069	0.0069	0.0069	0.0069	0.0069	0.0069	0.0069	0.0104	0.0104	0.0104	0.0104	0.0208	0.0208	0.0208	0.0208	0.0208	0.0208	0.0208	0.0208	0.0104	0.0104	0.0104	0.0104	0.0069	0.0069	0.0069	0.0069	0.0069	0.0069	0.0069	0.0069	0.0069	0.0069	0.0069	0.0069	0.0069	0.0069	0.0069	0.0069	0.0069	0.0069	0.0069	0.0069	0.0069	0.0069	0.0069	0.0069	0.0069	0.0069	0.0069	0.0069	0.0069	0.0069	0.0069	0.0069	0.0069	0.0069	0.0069	0.0069	0.0069	0.0069	0.0069	0.0069	0.0069	0.0069	0.0069	0.0069	0.0069	0.0069	0.0069	0.0069	0.0104	0.0104	0.0104	0.0104	0.0208	0.0208	0.0208	0.0208	0.0208	0.0208	0.0208	0.0208	0.0104	0.0104	0.0104	0.0104	0.0069	0.0069	0.0069	0.0069	0.0069	0.0069	0.0069	0.0069	0.0069	0.0069	0.0069	0.0069	0.0069	0.0069	0.0069	0.0069	0.0069	0.0069	0.0069	0.0069	0.0069	0.0069	0.0069	0.0069	0.0069	0.0069	0.0069	0.0069	0.0069	0.0069	0.0069	0.0069	0.0069	0.0069	0.0069	0.0069	0.0069	0.0069	0.0069	0.0069	0.0069	0.0069	0.0069	0.0069	0.0069	0.0069	0.0069	0.0069	0.0104	0.0104	0.0104	0.0104	0.0208	0.0208	0.0208	0.0208	0.0208	0.0208	0.0208	0.0208	0.0104	0.0104	0.0104	0.0104	0.0069	0.0069	0.0069	0.0069	0.0069	0.0069	0.0069	0.0069	0.0069	0.0069	0.0069	0.0069	0.0069	0.0069	0.0069	0.0069	0.0069	0.0069	0.0069	0.0069	0.0069	0.0069	0.0069	0.0069	0.0069	0.0069	0.0069	0.0069	0.0069	0.0069	0.0069	0.0069	0.0069	0.0069	0.0069	0.0069	0.0069	0.0069	0.0069	0.0069	0.0069	0.0069	0.0069	0.0069	0.0069	0.0069	0.0069	0.0069	0.0104	0.0104	0.0104	0.0104	0.0208	0.0208	0.0208	0.0208	0.0208	0.0208	0.0208	0.0208	0.0104	0.0104	0.0104	0.0104	0.0069	0.0069	0.0069	0.0069	0.0069	0.0069	0.0069	0.0069	0.0069	0.0069	0.0069	0.0069	0.0069	0.0069	0.0069	0.0069	0.0069	0.0069	0.0069	0.0069	0.0069	0.0069	0.0069	0.0069	0.0069	0.0069	0.0069	0.0069	0.0069	0.0069	0.0069	0.0069	0.0069	0.0069	0.0069	0.0069	0.0069	0.0069	0.0069	0.0069	0.0069	0.0069	0.0069	0.0069	0.0069	0.0069	0.0069	0.0069	0.0104	0.0104	0.0104	0.0104	0.0208	0.0208	0.0208	0.0208	0.0208	0.0208	0.0208	0.0208	0.0104	0.0104	0.0104	0.0104	0.0069	0.0069	0.0069	0.0069	0.0069	0.0069	0.0069	0.0069	0.0069	0.0069	0.0069	0.0069	0.0069	0.0069	0.0069	0.0069	0.0069	0.0069	0.0069	0.0069	0.0069	0.0069	0.0069	0.0069	0.0069	0.0069	0.0069	0.0069	0.0069	0.0069	0.0069	0.0069	0.0069	0.0069	0.0069	0.0069	0.0069	0.0069	0.0069	0.0069	0.0069	0.0069	0.0069	0.0069	0.0069	0.0069	0.0069	0.0069	0.0104	0.0104	0.0104	0.0104	0.0208	0.0208	0.0208	0.0208	0.0208	0.0208	0.0208	0.0208	0.0104	0.0104	0.0104	0.0104	0.0069	0.0069	0.0069	0.0069	0.0069	0.0069	0.0069	0.0069	0.0069	0.0069	0.0069	0.0069	0.0069	0.0069	0.0069	0.0069	0.0069	0.0069	0.0069	0.0069	0.0069	0.0069	0.0069	0.0069	0.0069	0.0069	0.0069	0.0069	0.0069	0.0069	0.0069	0.0069	0.0069	0.0069	0.0069	0.0069	0.0069	0.0069	0.0069	0.0069	0.0069	0.0069	0.0069	0.0069	0.0069	0.0069	0.0069	0.0069	0.0104	0.0104	0.0104	0.0104	0.0208	0.0208	0.0208	0.0208	0.0208	0.0208	0.0208	0.0208	0.0104	0.0104	0.0104	0.0104	0.0069	0.0069	0.0069	0.0069	0.0069	0.0069	0.0069	0.0069	0.0069	0.0069	0.0069	0.0069	0.0069	0.0069	0.0069	0.0069	0.0069	0.0069	0.0069	0.0069	0.0069	0.0069	0.0069	0.0069	0.0069	0.0069	0.0069	0.0069	0.0069	0.0069	0.0069	0.0069	0.0069	0.0069	0.0069	0.0069	0.0069	0.0069	0.0069	0.0069	0.0069	0.0069	0.0069	0.0069	0.0069	0.0069	0.0069	0.0069	0.0104	0.0104	0.0104	0.0104	0.0208	0.0208	0.0208	0.0208	0.0208	0.0208	0.0208	0.0208	0.0104	0.0104	0.0104	0.0104	0.0069	0.0069	0.0069	0.0069	0.0069	0.0069	0.0069	0.0069	0.0069	0.0069	0.0069	0.0069	0.0069	0.0069	0.0069	0.0069	0.0069	0.0069	0.0069	0.0069	0.0069	0.0069	0.0069	0.0069	0.0069	0.0069	0.0069	0.0069	0.0069	0.0069	0.0069	0.0069	0.0069	0.0069	0.0069	0.0069	0.0069	0.0069	0.0069	0.0069	0.0069	0.0069	0.0069	0.0069	0.0069	0.0069	0.0069	0.0069	0.0104	0.0104	0.0104	0.0104	0.0208	0.0208	0.0208	0.0208	0.0208	0.0208	0.0208	0.0208	0.0104	0.0104	0.0104	0.0104	0.0069	0.0069	0.0069	0.0069	0.0069	0.0069	0.0069	0.0069	0.0069	0.0069	0.0069	0.0069	0.0069	0.0069	0.0069	0.0069	0.0069	0.0069	0.0069	0.0069	0.0069	0.0069	0.0069	0.0069	0.0069	0.0069	0.0069	0.0069	0.0069	0.0069	0.0069	0.0069	0.0069	0.0069	0.0069	0.0069	0.0069	0.0069	0.0069	0.0069	0.0069	0.0069	0.0069	0.0069	0.0069	0.0069	0.0069	0.0069	0.0104	0.0104	0.0104	0.0104	0.0208	0.0208	0.0208	0.0208	0.0208	0.0208	0.0208	0.0208	0.0104	0.0104	0.0104	0.0104	0.0069	0.0069	0.0069	0.0069	0.0069	0.0069	0.0069	0.0069	0.0069	0.0069	0.0069	0.0069	0.0069	0.0069	0.0069	0.0069	0.0069	0.0069	0.0069	0.0069	0.0069	0.0069	0.0069	0.0069	0.0069	0.0069	0.0069	0.0069	0.0069	0.0069	0.0069	0.0069	0.0069	0.0069	0.0069	0.0069	0.0069	0.0069	0.0069	0.0069	0.0069	0.0069	0.0069	0.0069	0.0069	0.0069	0.0069	0.0069	0.0104	0.0104	0.0104	0.0104	0.0208	0.0208	0.0208	0.0208	0.0208	0.0208	0.0208	0.0208	0.0104	0.0104	0.0104	0.0104	0.0069	0.0069	0.0069	0.0069	0.0069	0.0069	0.0069	0.0069	0.0069	0.0069	0.0069	0.0069	0.0069	0.0069	0.0069	0.0069	0.0069	0.0069	0.0069	0.0069	0.0069	0.0069	0.0069	0.0069	0.0069	0.0069	0.0069	0.0069	0.0069	0.0069	0.0069	0.0069	0.0069	0.0069	0.0069	0.0069	0.0069	0.0069	0.0069	0.0069	0.0069	0.0069	0.0069	0.0069	0.0069	0.0069	0.0069	0.0069	0.0104	0.0104	0.0104	0.0104	0.0208	0.0208	0.0208	0.0208	0.0208	0.0208	0.0208	0.0208	0.0104	0.0104	0.0104	0.0104	0.0069	0.0069	0.0069	0.0069	0.0069	0.0069	0.0069	0.0069	0.0069	0.0069	0.0069	0.0069	0.0069	0.0069	0.0069	0.0069	0.0069	0.0069	0.0069	0.0069	0.0069	0.0069	0.0069	0.0069	0.0069	0.0069	0.0069	0.0069	0.0069	0.0069	0.0069	0.0069	0.0069	0.0069	0.0069	0.0069	0.0069	0.0069	0.0069	0.0069	0.0069	0.0069	0.0069	0.0069	0.0069	0.0069	0.0069	0.0069	0.0104	0.0104	0.0104	0.0104	0.0208	0.0208	0.0208	0.0208	0.0208	0.0208	0.0208	0.0208	0.0104	0.0104	0.0104	0.0104	0.0069	0.0069	0.0069	0.0069	0.0069	0.0069	0.0069	0.0069	0.0069	0.0069	0.0069	0.0069	0.0069	0.0069	0.0069	0.0069	0.0069	0.0069	0.0069	0.0069	0.0069	0.0069	0.0069	0.0069	0.0069	0.0069	0.0069	0.0069	0.0069	0.0069	0.0069	0.0069	0.0069	0.0069	0.0069	0.0069	0.0069	0.0069	0.0069	0.0069	0.0069	0.0069	0.0069	0.0069	0.0069	0.0069	0.0069	0.0069	0.0104	0.0104	0.0104	0.0104	0.0208	0.0208	0.0208	0.0208	0.0208	0.0208	0.0208	0.0208	0.0104	0.0104	0.0104	0.0104	0.0069	0.0069	0.0069	0.0069	0.0069	0.0069	0.0069	0.0069	0.0069	0.0069	0.0069	0.0069	0.0069	0.0069	0.0069	0.0069	0.0069	0.0069	0.0069	0.0069	0.0069	0.0069	0.0069	0.0069	0.0069	0.0069	0.0069	0.0069	0.0069	0.0069	0.0069	0.0069	0.0069	0.0069	0.0069	0.0069	0.0069	0.0069	0.0069	0.0069	0.0069	0.0069	0.0069	0.0069	0.0069	0.0069	0.0069	0.0069	0.0104	0.0104	0.0104	0.0104	0.0208	0.0208	0.0208	0.0208	0.0208	0.0208	0.0208	0.0208	0.0104	0.0104	0.0104	0.0104	0.0069	0.0069	0.0069	0.0069	0.0069	0.0069	0.0069	0.0069	0.0069	0.0069	0.0069	0.0069	0.0069	0.0069	0.0069	0.0069	0.0069	0.0069	0.0069	0.0069	0.0069	0.0069	0.0069	0.0069	0.0069	0.0069	0.0069	0.0069	0.0069	0.0069	0.0069	0.0069	0.0069	0.0069	0.0069	0.0069	0.0069	0.0069	0.0069	0.0069	0.0069	0.0069	0.0069	0.0069	0.0069	0.0069	0.0069	0.0069	0.0104	0.0104	0.0104	0.0104	0.0208	0.0208	0.0208	0.0208	0.0208	0.0208	0.0208	0.0208	0.0104	0.0104	0.0104	0.0104	0.0069	0.0069	0.0069	0.0069	0.0069	0.0069	0.0069	0.0069	0.0069	0.0069	0.0069	0.0069	0.0069	0.0069	0.0069	0.0069	0.0069	0.0069	0.0069	0.0069	0.0069	0.0069	0.0069	0.0069	0.0069	0.0069	0.0069	0.0069	0.0069	0.0069	0.0069	0.0069	0.0069	0.0069	0.0069	0.0069	0.0069	0.0069	0.0069	0.0069	0.0069	0.0069	0.0069	0.0069	0.0069	0.0069	0.0069	0.0069	0.0104	0.0104	0.0104	0.0104	0.0208	0.0208	0.0208	0.0208	0.0208	0.0208	0.0208	0.0208	0.0104	0.0104	0.0104	0.0104	0.0069	0.0069	0.0069	0.0069	0.0069	0.0069	0.0069	0.0069	0.0069	0.0069	0.0069	0.0069	0.0069	0.0069	0.0069	0.0069	0.0069	0.0069	0.0069	0.0069	0.0069	0.0069	0.0069	0.0069	0.0069	0.0069	0.0069	0.0069	0.0069	0.0069	0.0069	0.0069	0.0069	0.0069	0.0069	0.0069	0.0069	0.0069	0.0069	0.0069	0.0069	0.0069	0.0069	0.0069	0.0069	0.0069	0.0069	0.0069	0.0104	0.0104	0.0104	0.0104	0.0208	0.0208	0.0208	0.0208	0.0208	0.0208	0.0208	0.0208	0.0104	0.0104	0.0104	0.0104	0.0069	0.0069	0.0069	0.0069	0.0069	0.0069	0.0069	0.0069	0.0069	0.0069	0.0069	0.0069	0.0069	0.0069	0.0069	0.0069	0.0069	0.0069	0.0069	0.0069	0.0069	0.0069	0.0069	0.0069	0.0069	0.0069	0.0069	0.0069	0.0069	0.0069	0.0069	0.0069	0.0069	0.0069	0.0069	0.0069	0.0069	0.0069	0.0069	0.0069	0.0069	0.0069	0.0069	0.0069	0.0069	0.0069	0.0069	0.0069	0.0104	0.0104	0.0104	0.0104	0.0208	0.0208	0.0208	0.0208	0.0208	0.0208	0.0208	0.0208	0.0104	0.0104	0.0104	0.0104	0.0069	0.0069	0.0069	0.0069	0.0069	0.0069	0.0069	0.0069	0.0069	0.0069	0.0069	0.0069	0.0069	0.0069	0.0069	0.0069	0.0069	0.0069	0.0069	0.0069	0.0069	0.0069	0.0069	0.0069	0.0069	0.0069	0.0069	0.0069	0.0069	0.0069	0.0069	0.0069	0.0069	0.0069	0.0069	0.0069	0.0069	0.0069	0.0069	0.0069	0.0069	0.0069	0.0069	0.0069	0.0069	0.0069	0.0069	0.0069	0.0104	0.0104	0.0104	0.0104	0.0208	0.0208	0.0208	0.0208	0.0208	0.0208	0.0208	0.0208	0.0104	0.0104	0.0104	0.0104	0.0069	0.0069	0.0069	0.0069	0.0069	0.0069	0.0069	0.0069	0.0069	0.0069	0.0069	0.0069	0.0069	0.0069	0.0069	0.0069	0.0069	0.0069	0.0069	0.0069	0.0069	0.0069	0.0069	0.0069	0.0069	0.0069	0.0069	0.0069	0.0069	0.0069	0.0069	0.0069	0.0069	0.0069	0.0069	0.0069	0.0069	0.0069	0.0069	0.0069	0.0069	0.0069	0.0069	0.0069	0.0069	0.0069	0.0069	0.0069	0.0104	0.0104	0.0104	0.0104	0.0208	0.0208	0.0208	0.0208	0.0208	0.0208	0.0208	0.0208	0.0104	0.0104	0.0104	0.0104	0.0069	0.0069	0.0069	0.0069	0.0069	0.0069	0.0069	0.0069	0.0069	0.0069	0.0069	0.0069	0.0069	0.0069	0.0069	0.0069	0.0069	0.0069	0.0069	0.0069	0.0069	0.0069	0.0069	0.0069	0.0069	0.0069	0.0069	0.0069	0.0069	0.0069	0.0069	0.0069	0.0069	0.0069	0.0069	0.0069	0.0069	0.0069	0.0069	0.0069	0.0069	0.0069	0.0069	0.0069	0.0069	0.0069	0.0069	0.0069	0.0104	0.0104	0.0104	0.0104	0.0208	0.0208	0.0208	0.0208	0.0208	0.0208	0.0208	0.0208	0.0104	0.0104	0.0104	0.0104	0.0069	0.0069	0.0069	0.0069	0.0069	0.0069	0.0069	0.0069	0.0069	0.0069	0.0069	0.0069	0.0069	0.0069	0.0069	0.0069	0.0069	0.0069	0.0069	0.0069	0.0069	0.0069	0.0069	0.0069	0.0069	0.0069	0.0069	0.0069	0.0069	0.0069	0.0069	0.0069	0.0069	0.0069	0.0069	0.0069	0.0069	0.0069	0.0069	0.0069	0.0069	0.0069	0.0069	0.0069	0.0069	0.0069	0.0069	0.0069	0.0104	0.0104	0.0104	0.0104	0.0208	0.0208	0.0208	0.0208	0.0208	0.0208	0.0208	0.0208	0.0104	0.0104	0.0104	0.0104	0.0069	0.0069	0.0069	0.0069	0.0069	0.0069	0.0069	0.0069	0.0069	0.0069	0.0069	0.0069	0.0069	0.0069	0.0069	0.0069	0.0069	0.0069	0.0069	0.0069	0.0069	0.0069	0.0069	0.0069	0.0069	0.0069	0.0069	0.0069	0.0069	0.0069	0.0069	0.0069	0.0069	0.0069	0.0069	0.0069	0.0069	0.0069	0.0069	0.0069	0.0069	0.0069	0.0069	0.0069	0.0069	0.0069	0.0069	0.0069	0.0104	0.0104	0.0104	0.0104	0.0208	0.0208	0.0208	0.0208	0.0208	0.0208	0.0208	0.0208	0.0104	0.0104	0.0104	0.0104	0.0069	0.0069	0.0069	0.0069	0.0069	0.0069	0.0069	0.0069	0.0069	0.0069	0.0069	0.0069	0.0069	0.0069	0.0069	0.0069	0.0069	0.0069	0.0069	0.0069	0.0069	0.0069	0.0069	0.0069	0.0069	0.0069	0.0069	0.0069	0.0069	0.0069	0.0069	0.0069	0.0069	0.0069	0.0069	0.0069	0.0069	0.0069	0.0069	0.0069	0.0069	0.0069	0.0069	0.0069	0.0069	0.0069	0.0069	0.0069	0.0104	0.0104	0.0104	0.0104	0.0208	0.0208	0.0208	0.0208	0.0208	0.0208	0.0208	0.0208	0.0104	0.0104	0.0104	0.0104	0.0069	0.0069	0.0069	0.0069	0.0069	0.0069	0.0069	0.0069	0.0069	0.0069	0.0069	0.0069	0.0069	0.0069	0.0069	0.0069	0.0069	0.0069	0.0069	0.0069	0.0069	0.0069	0.0069	0.0069	0.0069	0.0069	0.0069	0.0069	0.0069	0.0069	0.0069	0.0069	0.0069	0.0069	0.0069	0.0069	0.0069	0.0069	0.0069	0.0069	0.0069	0.0069	0.0069	0.0069	0.0069	0.0069	0.0069	0.0069	0.0104	0.0104	0.0104	0.0104	0.0208	0.0208	0.0208	0.0208	0.0208	0.0208	0.0208	0.0208	0.0104	0.0104	0.0104	0.0104	0.0069	0.0069	0.0069	0.0069	0.0069	0.0069	0.0069	0.0069	0.0069	0.0069	0.0069	0.0069	0.0069	0.0069	0.0069	0.0069	0.0069	0.0069	0.0069	0.0069	0.0069	0.0069	0.0069	0.0069	0.0069	0.0069	0.0069	0.0069	0.0069	0.0069	0.0069	0.0069	0.0069	0.0069	0.0069	0.0069	0.0069	0.0069	0.0069	0.0069	0.0069	0.0069	0.0069	0.0069	0.0069	0.0069	0.0069	0.0069	0.0104	0.0104	0.0104	0.0104	0.0208	0.0208	0.0208	0.0208	0.0208	0.0208	0.0208	0.0208	0.0104	0.0104	0.0104	0.0104	0.0069	0.0069	0.0069	0.0069	0.0069	0.0069	0.0069	0.0069	0.0069	0.0069	0.0069	0.0069	0.0069	0.0069	0.0069	0.0069	0.0069	0.0069	0.0069	0.0069	0.0069	0.0069	0.0069	0.0069	0.0069	0.0069	0.0069	0.0069	0.0069	0.0069	0.0069	0.0069	0.0069	0.0069	0.0069	0.0069	0.0069	0.0069	0.0069	0.0069	0.0069	0.0069	0.0069	0.0069	0.0069	0.0069	0.0069	0.0069	0.0104	0.0104	0.0104	0.0104	0.0208	0.0208	0.0208	0.0208	0.0208	0.0208	0.0208	0.0208	0.0104	0.0104	0.0104	0.0104	0.0069	0.0069	0.0069	0.0069	0.0069	0.0069	0.0069	0.0069	0.0069	0.0069	0.0069	0.0069	0.0069	0.0069	0.0069	0.0069	0.0069	0.0069	0.0069	0.0069	0.0069	0.0069	0.0069	0.0069	0.0069	0.0069	0.0069	0.0069	0.0069	0.0069	0.0069	0.0069	0.0069	0.0069	0.0069	0.0069	0.0069	0.0069	0.0069	0.0069	0.0069	0.0069	0.0069	0.0069	0.0069	0.0069	0.0069	0.0069	0.0104	0.0104	0.0104	0.0104	0.0208	0.0208	0.0208	0.0208	0.0208	0.0208	0.0208	0.0208	0.0104	0.0104	0.0104	0.0104	0.0069	0.0069	0.0069	0.0069	0.0069	0.0069	0.0069	0.0069	0.0069	0.0069	0.0069	0.0069	0.0069	0.0069	0.0069	0.0069	0.0069	0.0069	0.0069	0.0069	0.0069	0.0069	0.0069	0.0069	0.0069	0.0069	0.0069	0.0069	0.0069	0.0069	0.0069	0.0069	0.0069	0.0069	0.0069	0.0069	0.0069	0.0069	0.0069	0.0069	0.0069	0.0069	0.0069	0.0069	0.0069	0.0069	0.0069	0.0069	0.0104	0.0104	0.0104	0.0104	0.0208	0.0208	0.0208	0.0208	0.0208	0.0208	0.0208	0.0208	0.0104	0.0104	0.0104	0.0104	0.0069	0.0069	0.0069	0.0069	0.0069	0.0069	0.0069	0.0069	0.0069	0.0069	0.0069	0.0069	0.0069	0.0069	0.0069	0.0069	0.0069	0.0069	0.0069	0.0069	0.0069	0.0069	0.0069	0.0069	0.0069	0.0069	0.0069	0.0069	0.0069	0.0069	0.0069	0.0069	0.0069	0.0069	0.0069	0.0069	0.0069	0.0069	0.0069	0.0069	0.0069	0.0069	0.0069	0.0069	0.0069	0.0069	0.0069	0.0069	0.0104	0.0104	0.0104	0.0104	0.0208	0.0208	0.0208	0.0208	0.0208	0.0208	0.0208	0.0208	0.0104	0.0104	0.0104	0.0104	0.0069	0.0069	0.0069	0.0069	0.0069	0.0069	0.0069	0.0069	0.0069	0.0069	0.0069	0.0069	0.0069	0.0069	0.0069	0.0069	0.0069	0.0069	0.0069	0.0069	0.0069	0.0069	0.0069	0.0069	0.0069	0.0069	0.0069	0.0069	0.0069	0.0069	0.0069	0.0069	0.0069	0.0069	0.0069	0.0069	0.0069	0.0069	0.0069	0.0069	0.0069	0.0069	0.0069	0.0069	0.0069	0.0069	0.0069	0.0069	0.0104	0.0104	0.0104	0.0104	0.0208	0.0208	0.0208	0.0208	0.0208	0.0208	0.0208	0.0208	0.0104	0.0104	0.0104	0.0104	0.0069	0.0069	0.0069	0.0069	0.0069	0.0069	0.0069	0.0069	0.0069	0.0069	0.0069	0.0069	0.0069	0.0069	0.0069	0.0069	0.0069	0.0069	0.0069	0.0069	0.0069	0.0069	0.0069	0.0069	0.0069	0.0069	0.0069	0.0069	0.0069	0.0069	0.0069	0.0069	0.0069	0.0069	0.0069	0.0069	0.0069	0.0069	0.0069	0.0069	0.0069	0.0069	0.0069	0.0069	0.0069	0.0069	0.0069	0.0069	0.0104	0.0104	0.0104	0.0104	0.0208	0.0208	0.0208	0.0208	0.0208	0.0208	0.0208	0.0208	0.0104	0.0104	0.0104	0.0104	0.0069	0.0069	0.0069	0.0069	0.0069	0.0069	0.0069	0.0069	0.0069	0.0069	0.0069	0.0069	0.0069	0.0069	0.0069	0.0069	0.0069	0.0069	0.0069	0.0069	0.0069	0.0069	0.0069	0.0069	0.0069	0.0069	0.0069	0.0069	0.0069	0.0069	0.0069	0.0069	0.0069	0.0069	0.0069	0.0069	0.0069	0.0069	0.0069	0.0069	0.0069	0.0069	0.0069	0.0069	0.0069	0.0069	0.0069	0.0069	0.0104	0.0104	0.0104	0.0104	0.0208	0.0208	0.0208	0.0208	0.0208	0.0208	0.0208	0.0208	0.0104	0.0104	0.0104	0.0104	0.0069	0.0069	0.0069	0.0069	0.0069	0.0069	0.0069	0.0069	0.0069	0.0069	0.0069	0.0069	0.0069	0.0069	0.0069	0.0069	0.0069	0.0069	0.0069	0.0069	0.0069	0.0069	0.0069	0.0069	0.0069	0.0069	0.0069	0.0069	0.0069	0.0069	0.0069	0.0069	0.0069	0.0069	0.0069	0.0069	0.0069	0.0069	0.0069	0.0069	0.0069	0.0069	0.0069	0.0069	0.0069	0.0069	0.0069	0.0069	0.0104	0.0104	0.0104	0.0104	0.0208	0.0208	0.0208	0.0208	0.0208	0.0208	0.0208	0.0208	0.0104	0.0104	0.0104	0.0104	0.0069	0.0069	0.0069	0.0069	0.0069	0.0069	0.0069	0.0069	0.0069	0.0069	0.0069	0.0069	0.0069	0.0069	0.0069	0.0069	0.0069	0.0069	0.0069	0.0069	0.0069	0.0069	0.0069	0.0069	0.0069	0.0069	0.0069	0.0069	0.0069	0.0069	0.0069	0.0069	0.0069	0.0069	0.0069	0.0069	0.0069	0.0069	0.0069	0.0069	0.0069	0.0069	0.0069	0.0069	0.0069	0.0069	0.0069	0.0069	0.0104	0.0104	0.0104	0.0104	0.0208	0.0208	0.0208	0.0208	0.0208	0.0208	0.0208	0.0208	0.0104	0.0104	0.0104	0.0104	0.0069	0.0069	0.0069	0.0069	0.0069	0.0069	0.0069	0.0069	0.0069	0.0069	0.0069	0.0069	0.0069	0.0069	0.0069	0.0069	0.0069	0.0069	0.0069	0.0069	0.0069	0.0069	0.0069	0.0069	0.0069	0.0069	0.0069	0.0069	0.0069	0.0069	0.0069	0.0069	0.0069	0.0069	0.0069	0.0069	0.0069	0.0069	0.0069	0.0069	0.0069	0.0069	0.0069	0.0069	0.0069	0.0069	0.0069	0.0069	0.0104	0.0104	0.0104	0.0104	0.0208	0.0208	0.0208	0.0208	0.0208	0.0208	0.0208	0.0208	0.0104	0.0104	0.0104	0.0104	0.0069	0.0069	0.0069	0.0069	0.0069	0.0069	0.0069	0.0069	0.0069	0.0069	0.0069	0.0069	0.0069	0.0069	0.0069	0.0069	0.0069	0.0069	0.0069	0.0069	0.0069	0.0069	0.0069	0.0069	0.0069	0.0069	0.0069	0.0069	0.0069	0.0069	0.0069	0.0069	0.0069	0.0069	0.0069	0.0069	0.0069	0.0069	0.0069	0.0069	0.0069	0.0069	0.0069	0.0069	0.0069	0.0069	0.0069	0.0069	0.0104	0.0104	0.0104	0.0104	0.0208	0.0208	0.0208	0.0208	0.0208	0.0208	0.0208	0.0208	0.0104	0.0104	0.0104	0.0104	0.0069	0.0069	0.0069	0.0069	0.0069	0.0069	0.0069	0.0069	0.0069	0.0069	0.0069	0.0069	0.0069	0.0069	0.0069	0.0069	0.0069	0.0069	0.0069	0.0069	0.0069	0.0069	0.0069	0.0069	0.0069	0.0069	0.0069	0.0069	0.0069	0.0069	0.0069	0.0069	0.0069	0.0069	0.0069	0.0069	0.0069	0.0069	0.0069	0.0069	0.0069	0.0069	0.0069	0.0069	0.0069	0.0069	0.0069	0.0069	0.0104	0.0104	0.0104	0.0104	0.0208	0.0208	0.0208	0.0208	0.0208	0.0208	0.0208	0.0208	0.0104	0.0104	0.0104	0.0104	0.0069	0.0069	0.0069	0.0069	0.0069	0.0069	0.0069	0.0069	0.0069	0.0069	0.0069	0.0069	0.0069	0.0069	0.0069	0.0069	0.0069	0.0069	0.0069	0.0069	0.0069	0.0069	0.0069	0.0069	0.0069	0.0069	0.0069	0.0069	0.0069	0.0069	0.0069	0.0069	0.0069	0.0069	0.0069	0.0069	0.0069	0.0069	0.0069	0.0069	0.0069	0.0069	0.0069	0.0069	0.0069	0.0069	0.0069	0.0069	0.0104	0.0104	0.0104	0.0104	0.0208	0.0208	0.0208	0.0208	0.0208	0.0208	0.0208	0.0208	0.0104	0.0104	0.0104	0.0104	0.0069	0.0069	0.0069	0.0069	0.0069	0.0069	0.0069	0.0069	0.0069	0.0069	0.0069	0.0069	0.0069	0.0069	0.0069	0.0069	0.0069	0.0069	0.0069	0.0069	0.0069	0.0069	0.0069	0.0069	0.0069	0.0069	0.0069	0.0069	0.0069	0.0069	0.0069	0.0069	0.0069	0.0069	0.0069	0.0069	0.0069	0.0069	0.0069	0.0069	0.0069	0.0069	0.0069	0.0069	0.0069	0.0069	0.0069	0.0069	0.0104	0.0104	0.0104	0.0104	0.0208	0.0208	0.0208	0.0208	0.0208	0.0208	0.0208	0.0208	0.0104	0.0104	0.0104	0.0104	0.0069	0.0069	0.0069	0.0069	0.0069	0.0069	0.0069	0.0069	0.0069	0.0069	0.0069	0.0069	0.0069	0.0069	0.0069	0.0069	0.0069	0.0069	0.0069	0.0069	0.0069	0.0069	0.0069	0.0069	0.0069	0.0069	0.0069	0.0069	0.0069	0.0069	0.0069	0.0069	0.0069	0.0069	0.0069	0.0069	0.0069	0.0069	0.0069	0.0069	0.0069	0.0069	0.0069	0.0069	0.0069	0.0069	0.0069	0.0069	0.0104	0.0104	0.0104	0.0104	0.0208	0.0208	0.0208	0.0208	0.0208	0.0208	0.0208	0.0208	0.0104	0.0104	0.0104	0.0104	0.0069	0.0069	0.0069	0.0069	0.0069	0.0069	0.0069	0.0069	0.0069	0.0069	0.0069	0.0069	0.0069	0.0069	0.0069	0.0069	0.0069	0.0069	0.0069	0.0069	0.0069	0.0069	0.0069	0.0069	0.0069	0.0069	0.0069	0.0069	0.0069	0.0069	0.0069	0.0069	0.0069	0.0069	0.0069	0.0069	0.0069	0.0069	0.0069	0.0069	0.0069	0.0069	0.0069	0.0069	0.0069	0.0069	0.0069	0.0069	0.0104	0.0104	0.0104	0.0104	0.0208	0.0208	0.0208	0.0208	0.0208	0.0208	0.0208	0.0208	0.0104	0.0104	0.0104	0.0104	0.0069	0.0069	0.0069	0.0069	0.0069	0.0069	0.0069	0.0069	0.0069	0.0069	0.0069	0.0069	0.0069	0.0069	0.0069	0.0069	0.0069	0.0069	0.0069	0.0069	0.0069	0.0069	0.0069	0.0069	0.0069	0.0069	0.0069	0.0069	0.0069	0.0069	0.0069	0.0069	0.0069	0.0069	0.0069	0.0069	0.0069	0.0069	0.0069	0.0069	0.0069	0.0069	0.0069	0.0069	0.0069	0.0069	0.0069	0.0069	0.0104	0.0104	0.0104	0.0104	0.0208	0.0208	0.0208	0.0208	0.0208	0.0208	0.0208	0.0208	0.0104	0.0104	0.0104	0.0104	0.0069	0.0069	0.0069	0.0069	0.0069	0.0069	0.0069	0.0069	0.0069	0.0069	0.0069	0.0069	0.0069	0.0069	0.0069	0.0069	0.0069	0.0069	0.0069	0.0069	0.0069	0.0069	0.0069	0.0069	0.0069	0.0069	0.0069	0.0069	0.0069	0.0069	0.0069	0.0069	0.0069	0.0069	0.0069	0.0069	0.0069	0.0069	0.0069	0.0069	0.0069	0.0069	0.0069	0.0069	0.0069	0.0069	0.0069	0.0069	0.0104	0.0104	0.0104	0.0104	0.0208	0.0208	0.0208	0.0208	0.0208	0.0208	0.0208	0.0208	0.0104	0.0104	0.0104	0.0104	0.0069	0.0069	0.0069	0.0069	0.0069	0.0069	0.0069	0.0069	0.0069	0.0069	0.0069	0.0069	0.0069	0.0069	0.0069	0.0069	0.0069	0.0069	0.0069	0.0069	0.0069	0.0069	0.0069	0.0069	0.0069	0.0069	0.0069	0.0069	0.0069	0.0069	0.0069	0.0069	0.0069	0.0069	0.0069	0.0069	0.0069	0.0069	0.0069	0.0069	0.0069	0.0069	0.0069	0.0069	0.0069	0.0069	0.0069	0.0069	0.0104	0.0104	0.0104	0.0104	0.0208	0.0208	0.0208	0.0208	0.0312	0.0312	0.0312	0.0312	0.0156	0.0156	0.0156	0.0156	0.0104	0.0104	0.0104	0.0104	0.0104	0.0104	0.0104	0.0104	0.0104	0.0104	0.0104	0.0104	0.0104	0.0104	0.0104	0.0104	0.0104	0.0104	0.0104	0.0104	0.0104	0.0104	0.0104	0.0104	0.0104	0.0104	0.0104	0.0104	0.0104	0.0104	0.0104	0.0104	0.0104	0.0104	0.0104	0.0104	0.0104	0.0104	0.0104	0.0104	0.0104	0.0104	0.0104	0.0104	0.0104	0.0104	0.0104	0.0104	0.0156	0.0156	0.0156	0.0156	0.0312	0.0312	0.0312	0.0312	0.0312	0.0312	0.0312	0.0312	0.0156	0.0156	0.0156	0.0156	0.0104	0.0104	0.0104	0.0104	0.0104	0.0104	0.0104	0.0104	0.0104	0.0104	0.0104	0.0104	0.0104	0.0104	0.0104	0.0104	0.0104	0.0104	0.0104	0.0104	0.0104	0.0104	0.0104	0.0104	0.0104	0.0104	0.0104	0.0104	0.0104	0.0104	0.0104	0.0104	0.0104	0.0104	0.0104	0.0104	0.0104	0.0104	0.0104	0.0104	0.0104	0.0104	0.0104	0.0104	0.0104	0.0104	0.0104	0.0104	0.0156	0.0156	0.0156	0.0156	0.0312	0.0312	0.0312	0.0312	0.0312	0.0312	0.0312	0.0312	0.0156	0.0156	0.0156	0.0156	0.0104	0.0104	0.0104	0.0104	0.0104	0.0104	0.0104	0.0104	0.0104	0.0104	0.0104	0.0104	0.0104	0.0104	0.0104	0.0104	0.0104	0.0104	0.0104	0.0104	0.0104	0.0104	0.0104	0.0104	0.0104	0.0104	0.0104	0.0104	0.0104	0.0104	0.0104	0.0104	0.0104	0.0104	0.0104	0.0104	0.0104	0.0104	0.0104	0.0104	0.0104	0.0104	0.0104	0.0104	0.0104	0.0104	0.0104	0.0104	0.0156	0.0156	0.0156	0.0156	0.0312	0.0312	0.0312	0.0312	0.0312	0.0312	0.0312	0.0312	0.0156	0.0156	0.0156	0.0156	0.0104	0.0104	0.0104	0.0104	0.0104	0.0104	0.0104	0.0104	0.0104	0.0104	0.0104	0.0104	0.0104	0.0104	0.0104	0.0104	0.0104	0.0104	0.0104	0.0104	0.0104	0.0104	0.0104	0.0104	0.0104	0.0104	0.0104	0.0104	0.0104	0.0104	0.0104	0.0104	0.0104	0.0104	0.0104	0.0104	0.0104	0.0104	0.0104	0.0104	0.0104	0.0104	0.0104	0.0104	0.0104	0.0104	0.0104	0.0104	0.0156	0.0156	0.0156	0.0156	0.0312	0.0312	0.0312	0.0312	0.0625	0.0625	0.0625	0.0625	0.0312	0.0312	0.0312	0.0312	0.0208	0.0208	0.0208	0.0208	0.0208	0.0208	0.0208	0.0208	0.0208	0.0208	0.0208	0.0208	0.0208	0.0208	0.0208	0.0208	0.0208	0.0208	0.0208	0.0208	0.0208	0.0208	0.0208	0.0208	0.0208	0.0208	0.0208	0.0208	0.0208	0.0208	0.0208	0.0208	0.0208	0.0208	0.0208	0.0208	0.0208	0.0208	0.0208	0.0208	0.0208	0.0208	0.0208	0.0208	0.0208	0.0208	0.0208	0.0208	0.0312	0.0312	0.0312	0.0312	0.0625	0.0625	0.0625	0.0625	0.0625	0.0625	0.0625	0.0625	0.0312	0.0312	0.0312	0.0312	0.0208	0.0208	0.0208	0.0208	0.0208	0.0208	0.0208	0.0208	0.0208	0.0208	0.0208	0.0208	0.0208	0.0208	0.0208	0.0208	0.0208	0.0208	0.0208	0.0208	0.0208	0.0208	0.0208	0.0208	0.0208	0.0208	0.0208	0.0208	0.0208	0.0208	0.0208	0.0208	0.0208	0.0208	0.0208	0.0208	0.0208	0.0208	0.0208	0.0208	0.0208	0.0208	0.0208	0.0208	0.0208	0.0208	0.0208	0.0208	0.0312	0.0312	0.0312	0.0312	0.0625	0.0625	0.0625	0.0625	0.0625	0.0625	0.0625	0.0625	0.0312	0.0312	0.0312	0.0312	0.0208	0.0208	0.0208	0.0208	0.0208	0.0208	0.0208	0.0208	0.0208	0.0208	0.0208	0.0208	0.0208	0.0208	0.0208	0.0208	0.0208	0.0208	0.0208	0.0208	0.0208	0.0208	0.0208	0.0208	0.0208	0.0208	0.0208	0.0208	0.0208	0.0208	0.0208	0.0208	0.0208	0.0208	0.0208	0.0208	0.0208	0.0208	0.0208	0.0208	0.0208	0.0208	0.0208	0.0208	0.0208	0.0208	0.0208	0.0208	0.0312	0.0312	0.0312	0.0312	0.0625	0.0625	0.0625	0.0625	0.0625	0.0625	0.0625	0.0625	0.0312	0.0312	0.0312	0.0312	0.0208	0.0208	0.0208	0.0208	0.0208	0.0208	0.0208	0.0208	0.0208	0.0208	0.0208	0.0208	0.0208	0.0208	0.0208	0.0208	0.0208	0.0208	0.0208	0.0208	0.0208	0.0208	0.0208	0.0208	0.0208	0.0208	0.0208	0.0208	0.0208	0.0208	0.0208	0.0208	0.0208	0.0208	0.0208	0.0208	0.0208	0.0208	0.0208	0.0208	0.0208	0.0208	0.0208	0.0208	0.0208	0.0208	0.0208	0.0208	0.0312	0.0312	0.0312	0.0312	0.0625	0.0625	0.0625	0.0625	