0.0798	2.9716	0.5009	2.6286	4.8744	1.5389	0.7769	1.1407	-0.7850	0.1595	2.5969	-0.1450	1.7480	5.1542	3.0623	-0.3228	2.3185	1.5106	0.0340	-0.6375	-0.1860	3.7257	6.5496	-0.3151	1.5711	3.7349	1.7847	-0.1562	-0.1277	0.3609	-0.9329	5.4398	5.8834	-0.1452	2.4984	2.2547	-0.1695	-0.9319	-0.0370	-0.8283	0.1468	-0.5567	-0.5854	-0.1932	0.2112	0.2002	1.1269	0.2546	0.1958	-0.0209	-0.2534	0.2313	-0.0058	0.0311	0.0692	1.0965	0.1652	-0.8022	-0.1978	-0.9667	-0.2862	-0.1000	0.1566	-0.1319	1.2503	-0.3229	-0.8847	-0.2174	0.1984	-0.0611	0.3960	0.0557	-0.0712	-0.0395	0.1559	0.4813	-0.1676	0.6009	0.3944	-0.0339	0.4248	0.1292	0.1254	0.1038	0.0557	-0.1156	0.3551	0.0653	-0.0145	0.2959	-0.4150	-1.1481	0.4035	0.4884	0.3770	-0.5671	0.1128	0.1662	-0.1733	0.0018	0.5988	0.0051	-0.1225	0.1785	0.2663	-0.1115	0.0206	0.0444	0.0058	0.0254	0.0490	-0.3696	0.1996	0.2492	0.0822	-0.0889	0.2415	0.0170	0.3468	0.0069	0.2206	-0.0433	-0.3030	-0.0596	-0.2161	-0.1146	-0.0155	-0.0092	-0.0100	0.0668	0.4143	0.4809	-0.1587	-0.1214	-0.3107	-0.1065	-0.3709	0.0096	0.0560	0.1147	0.2113	0.1216	0.0212	0.1358	-0.2634	-0.2134	-0.1461	-0.2368	-0.0953	-0.1263	0.0722	-0.0774	0.0929	0.1034	0.1763	0.1480	0.0133	-0.0058	0.0012	-0.0206	0.0087	-0.0032	-0.0031	-0.0050	0.0010	-0.0003	-0.0072	0.0126	0.0022	0.0026	-0.0033	0.0011	0.0060	0.0004	-0.0060	-0.0048	0.0023	-0.0017	-0.0004	-0.0022	0.0009	0.0023	-0.0007	0.0016	0.0003	0.0009	0.0011	0.0003	-0.0008	-0.0006	-0.0009	-0.0013	-0.1232	0.0506	0.1159	0.0603	0.0102	0.0742	0.1413	0.1502	0.1582	0.1205	0.1257	0.1656	0.0009	-0.0102	0.0032	0.0005	0.0041	-0.0053	0.0001	0.0006	0.0021	-0.0037	0.0004	0.0011	0.0068	0.0063	-0.0010	-0.0033	0.0083	-0.0016	-0.0010	0.0023	0.0015	-0.0016	-0.0011	0.0016	0.0006	0.0018	0.0003	0.0008	-0.0048	0.0013	0.0005	-0.0023	-0.0018	0.0013	0.0000	-0.0014	0.1991	0.2550	0.2789	0.3005	0.1692	0.2659	0.1564	0.2753	0.1058	0.1357	0.0854	0.1486	-0.0053	-0.0049	0.0030	0.0170	-0.0025	-0.0046	0.0035	0.0037	0.0022	-0.0032	0.0053	-0.0151	0.0045	-0.0007	0.0021	-0.0035	0.0025	0.0029	0.0027	0.0023	-0.0005	0.0023	-0.0004	0.0029	-0.0003	0.0017	0.0009	-0.0012	-0.0023	-0.0003	0.0013	-0.0013	0.0011	0.0025	-0.0004	-0.0008	0.2087	0.2363	0.1632	0.2390	0.0026	0.1399	-0.0606	0.0728	-0.1846	-0.1020	-0.1310	-0.1421	-0.0088	0.0011	-0.0029	0.0182	-0.0022	-0.0036	0.0001	-0.0009	0.0090	-0.0058	0.0018	-0.0251	-0.0006	-0.0001	0.0032	-0.0002	-0.0022	0.0059	0.0060	0.0056	0.0012	0.0047	-0.0002	0.0027	0.0005	0.0003	0.0006	-0.0003	0.0022	-0.0003	0.0004	0.0008	0.0004	0.0021	-0.0020	0.0003	0.1796	0.0603	0.0324	0.0585	0.0675	0.1269	0.1137	0.0577	-0.0629	0.1567	0.1635	0.1443	-0.0002	0.0004	0.0002	-0.0032	0.0017	-0.0032	0.0014	-0.0018	0.0018	-0.0033	-0.0005	-0.0009	-0.0029	-0.0029	-0.0010	-0.0010	-0.0033	0.0042	0.0010	-0.0073	0.0065	0.0070	0.0004	-0.0043	0.0027	0.0005	-0.0018	0.0012	0.0035	-0.0006	-0.0006	0.0034	0.0011	0.0002	-0.0008	0.0001	-0.0320	-0.0757	-0.0270	-0.0773	0.1341	0.0555	0.2518	0.1179	0.2829	0.3275	0.3390	0.3690	0.0086	-0.0003	0.0072	-0.0213	0.0024	-0.0006	0.0033	-0.0016	-0.0075	-0.0014	-0.0049	0.0233	-0.0021	-0.0016	-0.0032	-0.0019	0.0023	-0.0013	-0.0052	-0.0056	0.0023	0.0009	0.0010	-0.0033	0.0028	0.0019	-0.0010	-0.0003	-0.0001	-0.0011	0.0005	0.0010	0.0001	-0.0013	0.0008	-0.0000	0.1356	0.0279	0.1048	0.0657	0.2760	0.1712	0.2553	0.2280	0.3523	0.3183	0.2969	0.3610	0.0002	0.0020	0.0112	-0.0012	0.0003	0.0011	0.0078	0.0029	-0.0021	0.0035	0.0027	0.0083	-0.0008	-0.0027	-0.0012	0.0007	-0.0013	-0.0038	-0.0031	-0.0029	-0.0017	-0.0009	-0.0013	-0.0010	-0.0007	0.0008	0.0004	0.0002	0.0003	0.0002	0.0003	-0.0008	-0.0013	0.0003	-0.0011	-0.0012	0.0316	-0.0784	-0.0120	-0.0469	0.1787	0.0148	0.0925	0.0711	0.2843	0.1459	0.1560	0.1784	0.0030	0.0042	0.0066	-0.0022	0.0027	0.0080	0.0045	-0.0005	0.0012	0.0069	-0.0008	0.0005	-0.0011	-0.0028	-0.0031	-0.0006	-0.0014	-0.0046	-0.0035	-0.0005	-0.0045	-0.0060	-0.0027	0.0000	-0.0007	0.0007	0.0017	-0.0016	-0.0000	-0.0011	0.0019	-0.0009	0.0024	0.0000	0.0015	0.0004	-0.0795	-0.1385	-0.1045	-0.1353	-0.0043	-0.1074	-0.0506	-0.0885	0.0818	-0.0315	0.0174	-0.0087	0.0021	0.0037	0.0017	-0.0025	0.0050	0.0046	-0.0011	-0.0049	0.0049	0.0073	-0.0042	-0.0042	0.0009	-0.0007	-0.0011	0.0002	-0.0014	-0.0028	-0.0016	0.0002	-0.0006	-0.0037	-0.0017	0.0003	-0.0004	0.0004	0.0007	-0.0009	-0.0000	0.0016	0.0003	-0.0010	-0.0004	0.0006	0.0002	0.0011	0.1790	0.2413	0.1753	0.2590	0.1218	0.1545	0.0600	0.1649	0.0496	0.0380	-0.0452	0.0273	-0.0009	0.0022	-0.0035	-0.0053	-0.0062	-0.0012	-0.0012	-0.0036	-0.0093	-0.0014	0.0060	0.0025	0.0018	0.0014	0.0019	-0.0002	0.0003	0.0008	0.0037	0.0033	-0.0019	-0.0018	0.0023	0.0038	-0.0000	-0.0002	-0.0005	0.0021	-0.0011	-0.0017	-0.0010	0.0009	-0.0023	-0.0011	0.0000	-0.0006	0.2287	0.2899	0.1942	0.3071	0.0997	0.1489	-0.0208	0.1382	-0.0369	-0.0676	-0.1661	-0.1004	-0.0019	-0.0003	-0.0077	0.0018	-0.0078	0.0014	-0.0036	-0.0025	-0.0046	0.0006	0.0053	-0.0081	-0.0000	0.0018	0.0034	0.0022	-0.0028	0.0012	0.0046	0.0064	-0.0035	0.0004	0.0014	0.0046	-0.0003	0.0002	0.0001	0.0002	-0.0003	0.0012	-0.0005	0.0010	-0.0004	-0.0009	-0.0014	0.0006	0.2532	0.2690	0.1498	0.2744	0.0468	0.1253	-0.0777	0.0646	-0.1580	-0.1208	-0.1984	-0.1723	-0.0046	0.0013	-0.0083	0.0054	-0.0058	0.0008	-0.0020	-0.0066	-0.0008	-0.0014	0.0068	-0.0132	-0.0021	-0.0015	0.0026	0.0038	-0.0035	0.0030	0.0043	0.0062	-0.0003	0.0020	0.0020	0.0030	-0.0009	-0.0022	0.0015	0.0005	-0.0009	-0.0009	-0.0017	0.0016	0.0005	0.0009	0.0003	0.0004	-0.3219	-0.2802	0.0952	-0.2702	-0.0386	0.1969	0.2514	0.2558	-0.2324	-0.0032	-0.2853	-0.0611	0.0196	-0.0183	0.0203	-0.0320	-0.0047	0.0056	-0.0523	0.0483	-0.0052	-0.0218	0.0206	-0.0219	0.0001	0.0026	-0.0082	-0.0070	0.0087	-0.0029	0.0023	-0.0022	0.0002	0.0018	0.0032	0.0090	0.0012	0.0024	-0.0028	0.0018	-0.0013	-0.0019	0.0033	0.0009	-0.0035	0.0029	0.0007	-0.0024	0.0488	-0.0960	0.1990	0.0821	0.3688	0.2134	0.0675	0.2275	-0.0794	0.0976	-0.1332	-0.0758	-0.0145	0.0078	0.0250	0.0242	-0.0066	-0.0042	-0.0160	0.0459	-0.0093	0.0061	0.0176	-0.0176	0.0110	-0.0019	-0.0039	-0.0036	-0.0040	-0.0059	0.0051	0.0009	-0.0022	0.0099	0.0047	-0.0037	-0.0039	0.0010	0.0024	-0.0050	-0.0023	-0.0030	0.0020	-0.0013	0.0063	-0.0008	-0.0016	0.0045	0.0239	-0.0746	-0.0913	-0.0430	-0.0172	-0.1087	-0.1126	-0.1576	-0.0030	0.0020	0.0980	-0.0061	0.0137	0.0076	-0.0146	0.0061	0.0143	-0.0012	-0.0023	-0.0402	-0.0092	0.0065	-0.0161	0.0170	-0.0004	-0.0022	0.0001	0.0049	-0.0066	-0.0031	-0.0054	0.0007	0.0002	0.0002	-0.0002	-0.0043	0.0015	-0.0010	0.0001	-0.0017	0.0034	0.0010	-0.0021	0.0017	0.0023	-0.0001	-0.0018	0.0044	-0.1386	-0.1030	0.0293	-0.0638	0.1738	-0.0272	0.0547	0.1206	0.3574	0.0729	0.0493	0.0800	0.0130	0.0039	-0.0007	-0.0295	-0.0252	0.0069	0.0010	0.0186	-0.0170	-0.0007	0.0299	0.0361	0.0056	-0.0004	-0.0028	-0.0003	0.0041	-0.0114	-0.0032	0.0026	-0.0081	-0.0043	0.0026	-0.0023	-0.0001	0.0008	-0.0010	-0.0005	-0.0083	-0.0005	0.0034	-0.0035	0.0008	0.0009	0.0006	-0.0004	0.0626	0.0929	0.0596	0.1373	-0.1039	-0.0651	-0.3277	-0.1597	-0.2115	-0.2873	-0.0692	-0.3027	-0.0136	0.0086	-0.0100	0.0369	0.0306	-0.0043	-0.0029	-0.0264	0.0447	0.0093	-0.0160	-0.0765	0.0057	0.0008	0.0050	0.0027	-0.0055	0.0028	0.0013	0.0072	-0.0002	0.0027	-0.0081	0.0001	-0.0029	-0.0003	0.0023	-0.0005	0.0037	0.0015	-0.0028	-0.0027	0.0072	0.0024	-0.0035	0.0050	0.0516	0.0638	-0.0326	0.0238	-0.1770	0.0167	0.0831	-0.0864	-0.0385	0.1759	0.4211	0.2870	0.0108	-0.0024	-0.0220	-0.0023	-0.0098	-0.0173	0.0201	-0.0266	-0.0145	-0.0083	0.0033	0.0502	-0.0027	0.0003	0.0020	-0.0002	-0.0009	0.0064	-0.0037	-0.0101	0.0075	0.0032	0.0005	-0.0062	0.0012	-0.0013	-0.0008	0.0010	0.0026	-0.0012	-0.0025	0.0035	-0.0047	-0.0014	0.0008	-0.0028	0.2526	-0.0976	0.0466	-0.0226	0.3014	0.2503	0.1553	0.1847	-0.1385	0.0486	-0.2481	-0.0564	-0.0259	-0.0081	0.0386	0.0119	-0.0126	0.0156	-0.0121	0.0666	0.0011	-0.0025	0.0181	-0.0304	-0.0026	-0.0062	-0.0028	-0.0021	-0.0083	-0.0030	0.0093	-0.0063	-0.0033	0.0039	0.0038	0.0052	-0.0021	0.0008	0.0003	-0.0012	0.0035	-0.0037	0.0018	0.0031	0.0014	0.0017	-0.0000	0.0003	-0.2858	-0.2681	-0.2399	-0.2482	0.0406	-0.2089	-0.0095	-0.1420	-0.0472	0.0540	-0.0640	-0.0510	0.0411	0.0081	-0.0063	-0.0703	0.0180	-0.0000	-0.0420	-0.0258	-0.0160	0.0076	-0.0086	0.0069	0.0061	0.0040	-0.0067	0.0085	-0.0011	-0.0081	-0.0069	0.0008	-0.0018	0.0040	-0.0001	-0.0084	0.0019	0.0041	-0.0018	-0.0008	0.0009	-0.0007	-0.0023	0.0028	0.0039	-0.0032	-0.0005	0.0052	-0.0984	0.2723	0.2321	0.2425	-0.1351	0.0934	0.0648	0.1486	-0.0323	0.0238	0.0172	0.0394	-0.0215	-0.0082	0.0039	0.0402	0.0070	-0.0154	0.0157	-0.0017	0.0040	-0.0090	-0.0127	-0.0065	0.0044	0.0063	0.0020	-0.0048	0.0044	0.0008	0.0039	0.0052	0.0006	0.0003	0.0008	0.0009	-0.0021	-0.0022	0.0006	-0.0012	-0.0038	0.0027	0.0004	-0.0058	-0.0005	0.0012	0.0001	0.0005	0.0553	-0.0416	0.0100	-0.0332	0.1166	-0.0026	0.0082	0.0500	0.2248	0.0072	-0.0331	0.0352	0.0065	0.0062	0.0025	0.0060	-0.0008	0.0112	0.0009	-0.0089	-0.0190	0.0016	0.0051	0.0202	-0.0008	0.0002	-0.0007	-0.0025	0.0061	-0.0015	0.0008	-0.0002	-0.0037	-0.0034	0.0000	0.0018	0.0008	0.0008	0.0002	-0.0000	-0.0015	0.0009	0.0010	-0.0003	-0.0013	-0.0024	0.0013	-0.0004	-0.0212	-0.1607	0.0693	-0.1758	-0.0487	0.1871	0.1076	0.1568	-0.2084	-0.1471	-0.3242	-0.1394	0.0088	-0.0133	0.0158	0.0010	0.0154	0.0223	-0.0441	0.0215	0.0086	-0.0122	0.0056	-0.0520	-0.0076	0.0009	-0.0046	-0.0064	0.0060	0.0029	0.0036	-0.0003	0.0007	0.0001	-0.0061	0.0142	0.0042	-0.0003	-0.0009	0.0003	0.0045	-0.0016	0.0001	0.0020	-0.0036	0.0025	-0.0009	-0.0000	-0.0852	-0.3397	0.0619	-0.2241	0.2980	0.2576	0.2658	0.2718	-0.1743	0.1338	-0.2349	-0.0168	0.0105	-0.0043	0.0356	-0.0318	-0.0155	0.0065	-0.0454	0.0693	-0.0184	-0.0067	0.0333	-0.0109	0.0022	-0.0030	-0.0076	-0.0049	-0.0010	-0.0050	0.0038	-0.0081	-0.0007	0.0109	0.0061	0.0016	-0.0001	0.0018	0.0006	-0.0015	0.0011	-0.0067	0.0014	0.0034	0.0019	0.0014	-0.0000	0.0004	0.0637	0.0153	0.2468	-0.0255	-0.2183	0.0719	-0.2856	0.0684	0.2547	-0.2591	0.2664	-0.0757	0.0042	-0.0079	0.0021	0.0474	0.0241	0.0179	0.0007	-0.0528	-0.0045	-0.0121	-0.0036	0.0059	-0.0137	0.0024	0.0058	0.0003	0.0114	-0.0007	-0.0014	0.0040	-0.0001	0.0007	-0.0043	0.0042	0.0040	-0.0021	0.0028	0.0036	0.0003	0.0051	0.0007	-0.0029	-0.0049	0.0014	0.0016	0.0010	0.0497	-0.3879	0.0806	-0.1964	0.1299	0.2947	-0.0269	0.0836	-0.1272	-0.1301	0.1207	-0.0094	0.0247	-0.0019	0.0078	-0.0632	-0.0461	0.0012	-0.0258	0.0704	0.0281	-0.0000	0.0531	-0.0217	0.0072	-0.0004	-0.0020	0.0022	-0.0028	0.0010	-0.0048	-0.0158	-0.0023	0.0018	0.0063	0.0084	-0.0012	0.0038	-0.0034	-0.0002	0.0031	-0.0070	0.0012	0.0067	-0.0023	0.0029	-0.0023	-0.0078	-0.1553	0.1006	0.1950	0.2031	-0.0416	-0.0396	-0.2016	-0.0286	0.0857	-0.1095	0.1358	-0.0523	-0.0035	0.0183	-0.0013	0.0511	0.0227	-0.0186	-0.0033	-0.0468	-0.0012	0.0072	-0.0039	-0.0008	0.0058	0.0008	0.0037	0.0086	-0.0018	-0.0061	-0.0009	0.0059	0.0026	0.0038	-0.0058	-0.0022	-0.0042	-0.0015	0.0020	-0.0046	-0.0014	0.0043	0.0012	-0.0006	0.0001	-0.0014	-0.0028	0.0018	0.0539	0.2795	-0.1698	0.1151	-0.3398	-0.1242	0.1450	-0.1666	0.0022	0.0677	0.0577	0.2238	-0.0012	-0.0139	-0.0099	0.0355	0.0302	0.0068	0.0119	-0.0681	-0.0341	-0.0140	-0.0260	0.0437	-0.0114	-0.0002	0.0002	0.0007	-0.0006	0.0057	0.0026	-0.0026	0.0015	-0.0122	-0.0065	0.0062	0.0015	-0.0043	-0.0014	0.0001	0.0072	0.0026	-0.0038	0.0042	-0.0111	-0.0029	0.0054	-0.0032	-0.0065	-0.0280	-0.1856	-0.0907	0.2791	-0.0380	0.2031	0.1287	0.0346	0.0451	-0.4203	-0.1363	-0.0157	-0.0125	0.0213	-0.0650	-0.0233	0.0216	-0.0138	0.0916	0.0329	-0.0036	0.0223	-0.0594	0.0018	-0.0045	-0.0062	-0.0064	0.0056	0.0030	0.0053	0.0006	-0.0007	0.0051	0.0045	-0.0003	-0.0002	0.0039	-0.0000	0.0039	-0.0038	-0.0035	0.0039	-0.0010	0.0042	0.0020	-0.0027	-0.0020	-0.1440	0.1720	-0.0565	0.0965	-0.1161	-0.1068	0.0455	-0.0845	-0.2134	0.1882	0.1877	0.0898	-0.0004	0.0031	0.0036	0.0017	0.0367	-0.0247	-0.0131	-0.0493	-0.0288	0.0065	-0.0161	0.0193	-0.0000	0.0086	-0.0030	0.0029	-0.0061	-0.0075	-0.0006	0.0053	-0.0008	0.0050	-0.0049	-0.0076	0.0002	0.0023	0.0012	0.0000	0.0010	-0.0023	-0.0052	-0.0021	0.0023	0.0000	0.0041	0.0082	-0.1411	-0.0594	0.0039	-0.0201	0.1216	-0.0807	-0.0498	0.0529	0.3543	-0.0829	-0.1203	-0.0444	0.0045	0.0049	0.0009	-0.0300	0.0091	0.0157	-0.0099	-0.0038	-0.0149	-0.0026	-0.0015	0.0058	0.0025	-0.0028	-0.0030	0.0037	0.0093	-0.0026	-0.0026	0.0030	0.0056	0.0017	-0.0013	0.0028	-0.0009	0.0006	-0.0011	-0.0024	-0.0034	0.0055	0.0050	-0.0004	-0.0017	-0.0014	-0.0034	-0.0006	0.0444	0.0587	-0.1800	0.0981	-0.0273	0.0406	0.2480	-0.1339	-0.3641	0.1502	-0.1017	0.1682	-0.0145	-0.0068	0.0016	-0.0037	0.0019	-0.0145	0.0050	0.0185	-0.0035	0.0104	-0.0040	-0.0071	0.0079	-0.0018	-0.0035	-0.0002	-0.0161	0.0043	0.0059	-0.0070	0.0032	-0.0091	-0.0026	0.0067	-0.0047	-0.0020	-0.0006	-0.0038	0.0056	-0.0037	-0.0058	0.0055	-0.0013	-0.0006	0.0014	-0.0041	-0.0919	0.2811	-0.1956	0.1235	0.1059	-0.3509	0.0942	-0.0448	0.2653	0.1561	-0.2987	-0.0378	-0.0060	0.0064	-0.0079	0.0093	0.0047	0.0038	0.0171	-0.0208	-0.0147	0.0047	-0.0189	0.0212	-0.0004	-0.0005	-0.0010	0.0012	0.0074	-0.0030	0.0028	0.0128	0.0008	0.0017	-0.0009	-0.0070	0.0013	0.0029	0.0030	0.0013	-0.0089	0.0047	0.0009	-0.0037	0.0024	-0.0028	0.0018	0.0035	-0.3681	0.0195	0.2643	0.0232	-0.2202	0.0915	0.0165	0.1520	-0.1095	0.0011	0.1369	0.0326	-0.0061	-0.0040	-0.0070	-0.0019	-0.0163	-0.0310	0.0143	0.0286	0.0026	-0.0032	0.0013	0.0150	-0.0027	-0.0059	0.0026	-0.0004	-0.0068	-0.0107	-0.0028	0.0050	-0.0008	-0.0025	0.0041	0.0013	-0.0001	-0.0045	-0.0016	-0.0004	-0.0055	0.0033	0.0036	-0.0041	-0.0003	-0.0012	0.0015	-0.0021	0.3372	-0.0514	-0.1577	0.0723	0.1361	-0.0833	-0.1512	-0.2573	0.1420	-0.0418	0.0400	0.0469	0.0040	0.0097	-0.0127	0.0293	0.0211	0.0141	0.0140	-0.0617	-0.0155	0.0119	-0.0248	0.0196	0.0072	0.0008	0.0032	0.0068	-0.0007	0.0113	-0.0009	-0.0080	0.0030	-0.0022	-0.0048	0.0004	-0.0052	0.0003	0.0026	-0.0071	0.0086	0.0022	-0.0053	0.0065	-0.0033	-0.0045	-0.0019	-0.0002	-0.2824	0.0809	0.0516	-0.0662	-0.2010	0.0761	0.3157	0.2209	-0.1230	0.0306	-0.2701	0.0234	0.0050	-0.0199	0.0010	-0.0314	-0.0176	0.0029	-0.0126	0.0471	0.0241	-0.0205	0.0110	-0.0322	-0.0100	-0.0037	-0.0062	-0.0040	0.0044	-0.0019	0.0031	0.0057	0.0009	-0.0055	0.0020	0.0077	0.0042	-0.0023	-0.0050	0.0038	-0.0056	0.0004	0.0047	-0.0008	-0.0037	0.0045	0.0018	-0.0057	-0.0544	0.2024	-0.3898	0.0220	0.0887	-0.1953	0.2066	0.0474	0.1656	-0.0106	-0.2125	-0.1536	0.0579	-0.0208	0.0151	-0.0731	0.0051	0.0642	-0.1171	-0.0063	0.0416	-0.0278	0.0424	-0.0671	-0.0009	0.0056	-0.0216	-0.0046	0.0233	0.0062	0.0017	0.0029	0.0004	0.0169	0.0012	0.0035	0.0047	0.0031	-0.0025	-0.0027	-0.0016	-0.0012	0.0033	0.0053	-0.0008	0.0066	0.0006	0.0011	0.0940	0.0757	-0.1326	-0.0312	0.1786	0.1548	-0.0574	0.1480	-0.0782	-0.0734	0.3808	-0.0946	-0.0776	-0.0358	0.1014	-0.0302	-0.0031	0.0140	-0.0633	0.1452	-0.0471	-0.0028	0.0736	0.0090	0.0022	0.0001	-0.0179	-0.0180	0.0093	-0.0092	0.0166	-0.0109	-0.0144	0.0172	0.0146	0.0084	-0.0044	0.0064	0.0020	0.0020	0.0011	-0.0083	-0.0030	-0.0055	0.0017	0.0015	-0.0002	0.0055	-0.2462	0.0700	-0.0276	-0.0381	-0.1183	0.1516	0.0590	0.1295	0.0451	-0.2948	0.0267	-0.0145	0.0209	-0.0050	0.0506	-0.0802	0.0082	0.0090	-0.1036	0.0444	0.0382	-0.0189	0.0353	-0.0661	-0.0061	-0.0020	-0.0170	-0.0009	-0.0061	-0.0147	-0.0018	0.0012	-0.0004	0.0014	0.0059	0.0180	0.0036	0.0005	-0.0004	0.0002	0.0017	0.0005	0.0056	0.0038	-0.0034	0.0029	-0.0031	-0.0065	-0.0020	-0.1374	0.0598	0.0072	0.1969	-0.1358	-0.1899	-0.1479	0.2335	-0.0814	-0.2103	-0.0283	0.0386	0.0495	-0.0614	-0.0334	0.0849	-0.0165	0.0009	-0.1094	0.0193	0.0237	-0.0865	-0.0736	0.0186	0.0134	0.0113	0.0081	0.0109	0.0278	-0.0089	0.0034	0.0313	0.0128	-0.0177	-0.0082	0.0015	0.0044	0.0041	0.0025	-0.0004	0.0122	0.0012	0.0011	0.0007	-0.0094	-0.0069	0.0003	0.1993	0.0537	0.0999	0.0530	0.0684	-0.1145	0.1383	-0.0155	0.0218	0.3538	-0.1658	0.1387	-0.0303	0.0066	-0.0327	0.1216	-0.1227	-0.0427	0.1490	0.0199	-0.0294	0.0083	0.0502	0.1531	0.0010	0.0001	0.0196	-0.0027	0.0047	0.0065	0.0077	-0.0072	0.0036	-0.0052	0.0042	-0.0208	-0.0026	-0.0035	0.0034	0.0034	-0.0102	-0.0005	-0.0013	0.0007	0.0022	0.0009	0.0045	-0.0071	-0.1101	-0.1207	0.2937	-0.1207	-0.3499	0.1120	-0.1166	0.0941	-0.1531	-0.0189	0.1579	-0.0381	0.0228	-0.0108	-0.0481	-0.0144	0.0680	0.0104	0.0222	-0.0735	0.0142	-0.0029	-0.0872	-0.0520	-0.0155	-0.0031	0.0097	0.0106	-0.0096	-0.0054	-0.0126	0.0155	-0.0111	-0.0145	-0.0120	0.0005	0.0053	-0.0081	-0.0054	0.0018	0.0056	0.0004	-0.0012	-0.0051	0.0055	0.0030	0.0047	0.0103	-0.3344	0.1724	0.1057	0.1668	0.0327	-0.1796	0.1595	0.0121	-0.0948	0.2886	-0.1792	0.0987	-0.0287	0.0312	-0.0210	0.0500	-0.0632	-0.0699	0.0788	0.0346	-0.0223	0.0208	0.0247	0.0875	-0.0034	-0.0179	0.0070	0.0015	-0.0090	-0.0166	0.0057	0.0070	-0.0060	-0.0122	0.0067	-0.0117	-0.0008	-0.0005	0.0028	0.0017	-0.0125	0.0036	0.0027	-0.0027	0.0057	-0.0024	0.0012	-0.0031	0.2644	-0.0542	-0.0764	-0.2196	-0.2730	-0.0121	0.0214	-0.0251	-0.0997	0.0225	-0.0497	-0.0309	0.0516	-0.0323	-0.0497	-0.0223	0.0373	0.0462	-0.0005	-0.0868	0.0322	-0.0130	-0.0722	-0.0475	-0.0116	0.0082	0.0038	-0.0003	-0.0067	0.0008	-0.0121	0.0095	-0.0053	-0.0102	-0.0109	-0.0019	0.0071	-0.0023	-0.0024	0.0035	0.0060	-0.0060	-0.0072	-0.0020	0.0034	0.0067	0.0060	0.0075	-0.1382	-0.0980	0.2534	0.1108	0.2286	-0.0091	-0.3186	0.0312	0.2013	-0.0482	0.1579	-0.1184	-0.0380	0.0279	0.0212	0.0340	0.0055	-0.0289	0.0293	0.0028	-0.0299	0.0188	-0.0059	0.0391	0.0084	-0.0007	0.0064	0.0077	0.0137	0.0048	0.0023	-0.0020	0.0030	0.0105	0.0030	-0.0102	-0.0054	0.0019	0.0032	0.0005	-0.0073	0.0048	0.0028	-0.0056	0.0003	-0.0055	-0.0051	0.0053	0.0311	0.1306	-0.0011	-0.0095	-0.3702	0.0890	0.1790	0.0462	0.1941	-0.1489	-0.0526	0.1659	-0.0314	-0.0348	0.0155	0.0534	-0.0011	0.0365	0.0257	0.0130	-0.0454	-0.0552	0.0150	0.0404	-0.0121	-0.0080	0.0008	-0.0041	-0.0143	-0.0148	0.0059	0.0030	-0.0015	-0.0130	-0.0050	0.0131	0.0025	-0.0081	-0.0036	-0.0025	0.0030	0.0018	0.0026	0.0022	-0.0122	0.0023	0.0066	-0.0077	-0.1533	0.0439	-0.0285	0.0388	0.2059	-0.2375	-0.0919	-0.1281	-0.2942	0.2060	0.0033	-0.0807	0.0599	0.0592	-0.0379	-0.0235	0.0386	-0.0580	-0.0460	-0.0881	0.0219	0.0671	-0.0178	-0.0459	-0.0006	0.0038	0.0027	0.0082	0.0039	0.0050	-0.0080	0.0085	-0.0023	0.0025	-0.0093	-0.0106	0.0065	0.0086	0.0048	0.0013	-0.0025	-0.0016	-0.0013	-0.0010	0.0121	-0.0047	-0.0064	0.0071	0.2869	-0.1744	0.1445	-0.1896	-0.0926	0.1427	-0.0827	0.1309	0.3275	-0.1388	-0.0745	-0.0241	-0.0384	-0.0379	-0.0114	0.0265	-0.0417	0.0406	0.0923	0.0512	-0.0077	-0.0320	-0.0192	0.0447	-0.0016	0.0028	0.0115	-0.0128	0.0119	0.0079	0.0029	-0.0056	0.0075	-0.0011	0.0089	-0.0038	0.0010	-0.0052	-0.0037	0.0042	-0.0045	0.0027	0.0025	-0.0054	-0.0035	-0.0003	-0.0002	-0.0024	-0.0000	0.0000	-0.0000	0.0000	0.0000	-0.0000	0.0000	-0.0000	0.0000	0.0000	-0.0000	0.0000	-0.0000	-0.0000	-0.0000	-0.0000	0.0000	-0.0000	0.0000	-0.0000	-0.0000	-0.0000	0.0000	-0.0000	-0.0000	0.0000	-0.0000	-0.0000	0.0000	-0.0000	-0.0000	0.0000	-0.0000	-0.0000	-0.0000	0.0000	0.0000	0.0000	0.0000	-0.0000	-0.0000	0.0000	-0.0000	-0.0000	-0.0000	-0.0000	0.0000	-0.0000	0.0000	0.0000	0.0000	0.0000	-0.0000	-0.0000	0.0000	-0.0000	-0.0000	0.0000	0.0000	0.0000	0.0000	0.0000	-0.0000	0.0000	0.0000	0.0000	0.0000	-0.0000	0.0000	-0.0000	0.0000	0.0000	-0.0000	0.0000	0.0000	-0.0000	0.0000	0.0000	-0.0000	-0.0000	-0.0000	0.0000	-0.0000	0.0000	0.0000	-0.0000	-0.0000	-0.0000	0.0000	0.0000	0.0000	-0.0000	0.0000	-0.0000	0.0000	0.0000	-0.0000	-0.0000	-0.0000	0.0000	0.0000	-0.0000	-0.0000	-0.0000	-0.0000	0.0000	-0.0000	-0.0000	0.0000	-0.0000	-0.0000	0.0000	-0.0000	0.0000	0.0000	-0.0000	-0.0000	0.0000	0.0000	0.0000	0.0000	-0.0000	0.0000	-0.0000	0.0000	0.0000	0.0000	0.0000	0.0000	-0.0000	0.0000	0.0000	-0.0000	0.0000	0.0000	-0.0000	-0.0000	0.0000	0.0000	0.0000	0.0000	-0.0000	0.0000	0.0000	0.0000	-0.0000	0.0000	-0.0000	-0.0000	0.0000	-0.0000	0.0000	-0.0000	-0.0000	0.0000	-0.0000	0.0000	0.0000	0.0000	0.0000	-0.0000	0.0000	-0.0000	0.0000	0.0000	0.0000	-0.0000	0.0000	0.0000	-0.0000	0.0000	0.0000	-0.0000	0.0000	0.0000	-0.0000	0.0000	0.0000	0.0000	-0.0000	-0.0000	-0.0000	-0.0000	0.0000	0.0000	-0.0000	0.0000	0.0000	0.0000	0.0000	-0.0000	0.0000	-0.0000	-0.0000	-0.0000	-0.0000	0.0001	0.0000	-0.0000	0.0000	0.0000	-0.0000	-0.0000	-0.0000	-0.0000	-0.0000	0.0000	-0.0000	-0.0000	-0.0000	-0.0000	0.0001	-0.0000	0.0000	-0.0000	-0.0000	0.0000	-0.0000	-0.0000	0.0000	-0.0000	-0.0000	0.0000	0.0000	0.0000	-0.0000	0.0000	-0.0000	-0.0000	0.0000	0.0000	0.0000	-0.0000	-0.0000	-0.0000	0.0000	-0.0000	0.0000	-0.0000	-0.0000	0.0000	0.0000	0.0000	-0.0000	-0.0000	0.0000	0.0000	0.0000	0.0000	-0.0000	0.0000	0.0000	-0.0000	0.0000	0.0000	-0.0000	0.0000	-0.0000	-0.0000	0.0000	0.0000	-0.0000	-0.0000	-0.0000	-0.0000	0.0000	-0.0000	0.0000	-0.0000	-0.0000	-0.0000	-0.0000	-0.0000	0.0000	-0.0000	-0.0000	0.0000	-0.0000	-0.0000	0.0000	0.0000	-0.0000	-0.0000	-0.0000	-0.0000	0.0000	-0.0000	-0.0000	0.0000	-0.0000	0.0000	-0.0000	-0.0000	0.0000	-0.0000	0.0000	-0.0000	-0.0000	0.0000	-0.0000	0.0000	0.0000	0.0000	0.0000	-0.0000	0.0000	-0.0000	0.0000	0.0000	0.0000	-0.0000	0.0000	0.0000	-0.0000	0.0000	0.0000	-0.0000	0.0000	0.0000	-0.0000	0.0000	0.0000	0.0000	-0.0000	-0.0000	-0.0000	-0.0000	0.0000	0.0000	-0.0000	0.0000	0.0000	0.0000	0.0000	-0.0000	0.0000	-0.0000	-0.0000	-0.0000	-0.0000	0.0001	0.0000	-0.0000	0.0000	0.0000	-0.0000	-0.0000	-0.0000	-0.0000	-0.0000	0.0000	-0.0000	-0.0000	-0.0000	-0.0001	0.0001	-0.0000	0.0000	-0.0000	-0.0000	0.0000	-0.0000	-0.0000	0.0000	-0.0000	-0.0000	0.0000	0.0000	0.0000	-0.0000	0.0000	-0.0000	-0.0000	0.0000	0.0000	0.0000	-0.0000	-0.0000	-0.0000	0.0000	-0.0000	0.0000	-0.0000	-0.0000	0.0000	0.0000	0.0000	-0.0000	-0.0000	0.0000	0.0000	0.0000	0.0000	-0.0000	0.0000	0.0000	-0.0000	0.0000	0.0000	-0.0000	0.0000	-0.0000	-0.0000	0.0000	0.0000	-0.0000	-0.0000	-0.0000	-0.0000	0.0000	-0.0000	0.0000	-0.0000	-0.0000	-0.0000	-0.0000	-0.0000	0.0000	-0.0000	-0.0000	0.0000	-0.0000	-0.0000	0.0000	0.0000	-0.0000	-0.0000	-0.0000	-0.0000	0.0000	-0.0000	-0.0000	0.0000	-0.0000	0.0000	-0.0000	-0.0000	0.0000	-0.0000	0.0000	-0.0000	-0.0000	0.0001	-0.0000	0.0000	0.0000	0.0000	0.0000	-0.0000	0.0000	-0.0000	0.0001	0.0000	0.0000	-0.0000	0.0000	0.0000	-0.0000	0.0000	0.0000	-0.0000	0.0000	0.0000	-0.0000	0.0000	0.0000	0.0000	-0.0000	-0.0000	-0.0000	-0.0001	0.0000	0.0000	-0.0000	0.0000	0.0000	0.0000	0.0000	-0.0000	0.0000	-0.0000	-0.0000	-0.0000	-0.0000	0.0001	0.0000	-0.0000	0.0000	0.0000	-0.0000	-0.0000	-0.0001	-0.0000	-0.0000	0.0000	-0.0000	-0.0000	-0.0000	-0.0001	0.0001	-0.0000	0.0000	-0.0000	-0.0000	0.0000	-0.0001	-0.0000	0.0000	-0.0000	-0.0000	0.0000	0.0000	0.0000	-0.0000	0.0000	-0.0000	-0.0000	0.0000	0.0000	0.0000	-0.0000	-0.0000	-0.0000	0.0000	-0.0000	0.0000	-0.0000	-0.0000	0.0000	0.0000	0.0000	-0.0000	-0.0001	0.0000	0.0000	0.0000	0.0000	-0.0000	0.0000	0.0000	-0.0000	0.0000	0.0000	-0.0000	0.0000	-0.0000	-0.0000	0.0000	0.0000	-0.0000	-0.0000	-0.0000	-0.0000	0.0000	-0.0000	0.0000	-0.0000	-0.0000	-0.0000	-0.0000	-0.0000	0.0000	-0.0000	-0.0000	0.0000	-0.0000	-0.0000	0.0000	0.0000	-0.0000	-0.0000	-0.0000	-0.0000	0.0000	-0.0000	-0.0000	0.0000	0.0000	-0.0000	0.0000	-0.0000	0.0000	-0.0000	-0.0000	0.0000	-0.0000	0.0000	-0.0000	0.0000	0.0000	0.0000	0.0000	-0.0000	0.0000	-0.0000	0.0000	0.0000	0.0000	-0.0000	0.0000	0.0000	-0.0000	0.0000	0.0000	-0.0000	0.0000	0.0000	-0.0000	0.0000	0.0000	0.0000	-0.0000	-0.0000	-0.0000	-0.0000	0.0000	0.0000	-0.0000	0.0000	0.0000	0.0000	0.0000	-0.0000	0.0000	-0.0000	0.0000	-0.0000	-0.0000	0.0000	0.0000	-0.0000	0.0000	0.0000	-0.0000	-0.0000	-0.0000	-0.0000	-0.0000	0.0000	-0.0000	-0.0000	-0.0000	-0.0000	0.0000	-0.0000	0.0000	-0.0000	-0.0000	0.0000	-0.0000	-0.0000	0.0000	-0.0000	-0.0000	0.0000	0.0000	0.0000	-0.0000	0.0000	-0.0000	-0.0000	0.0000	0.0000	0.0000	-0.0000	-0.0000	-0.0000	0.0000	-0.0000	0.0000	-0.0000	-0.0000	0.0000	0.0000	0.0000	-0.0000	-0.0000	0.0000	-0.0000	0.0000	0.0000	-0.0000	0.0000	0.0000	-0.0000	0.0000	0.0000	-0.0000	-0.0000	-0.0000	-0.0000	0.0000	0.0000	-0.0000	-0.0000	-0.0000	-0.0000	0.0000	-0.0000	0.0000	-0.0000	-0.0000	-0.0000	-0.0000	-0.0000	0.0000	-0.0000	-0.0000	0.0000	-0.0000	-0.0000	0.0000	0.0000	-0.0000	-0.0000	-0.0000	-0.0000	0.0000	-0.0000	-0.0000	0.0000	0.0000	-0.0000	0.0000	-0.0000	0.0000	-0.0000	-0.0000	0.0000	-0.0000	0.0000	-0.0000	0.0000	0.0000	0.0000	0.0000	-0.0000	0.0000	-0.0000	0.0000	0.0000	0.0000	-0.0000	0.0000	0.0000	-0.0000	0.0000	0.0000	-0.0000	0.0000	0.0000	-0.0000	0.0000	0.0000	0.0000	-0.0000	-0.0000	-0.0000	-0.0000	0.0000	0.0000	-0.0000	0.0000	0.0000	0.0000	0.0000	-0.0000	0.0000	-0.0000	0.0000	-0.0000	-0.0000	0.0000	0.0000	-0.0000	0.0000	0.0000	-0.0000	-0.0000	-0.0000	-0.0000	-0.0000	0.0000	-0.0000	-0.0000	-0.0000	-0.0000	0.0000	-0.0000	0.0000	-0.0000	-0.0000	0.0000	-0.0000	-0.0000	0.0000	-0.0000	-0.0000	0.0000	0.0000	0.0000	-0.0000	0.0000	-0.0000	-0.0000	0.0000	0.0000	0.0000	-0.0000	-0.0000	-0.0000	0.0000	-0.0000	0.0000	-0.0000	-0.0000	0.0000	0.0000	0.0000	-0.0000	-0.0000	0.0000	-0.0000	0.0000	0.0000	-0.0000	0.0000	0.0000	-0.0000	0.0000	0.0000	-0.0000	-0.0000	-0.0000	-0.0000	0.0000	0.0000	-0.0000	-0.0000	-0.0000	-0.0000	0.0000	-0.0000	0.0000	-0.0000	-0.0000	-0.0000	-0.0000	-0.0000	0.0000	-0.0000	-0.0000	0.0000	-0.0000	-0.0000	0.0000	0.0000	-0.0000	-0.0000	-0.0000	-0.0000	0.0000	-0.0000	-0.0000	0.0000	0.0000	-0.0000	0.0000	-0.0000	0.0000	-0.0000	-0.0000	0.0000	-0.0000	0.0000	-0.0000	0.0000	0.0000	0.0000	0.0000	-0.0000	0.0000	-0.0000	0.0000	0.0000	0.0000	-0.0000	0.0000	0.0000	-0.0000	0.0000	0.0000	-0.0000	0.0000	0.0000	-0.0000	0.0000	0.0000	0.0000	-0.0000	-0.0000	-0.0000	-0.0000	0.0000	0.0000	-0.0000	0.0000	0.0000	0.0000	0.0000	-0.0000	0.0000	-0.0000	0.0000	-0.0000	-0.0000	0.0000	0.0000	-0.0000	0.0000	0.0000	-0.0000	-0.0000	-0.0000	-0.0000	-0.0000	0.0000	-0.0000	-0.0000	-0.0000	-0.0000	0.0000	-0.0000	0.0000	-0.0000	-0.0000	0.0000	-0.0000	-0.0000	0.0000	-0.0000	-0.0000	0.0000	0.0000	0.0000	-0.0000	0.0000	-0.0000	-0.0000	0.0000	0.0000	0.0000	-0.0000	-0.0000	-0.0000	0.0000	-0.0000	0.0000	-0.0000	-0.0000	0.0000	0.0000	0.0000	-0.0000	-0.0000	0.0000	-0.0000	0.0000	0.0000	-0.0000	0.0000	0.0000	-0.0000	0.0000	0.0000	-0.0000	-0.0000	-0.0000	-0.0000	0.0000	0.0000	-0.0000	-0.0000	-0.0000	-0.0000	0.0000	-0.0000	0.0000	-0.0000	-0.0000	-0.0000	-0.0000	-0.0000	0.0000	-0.0000	-0.0000	0.0000	-0.0000	-0.0000	0.0000	0.0000	-0.0000	-0.0000	-0.0000	-0.0000	0.0000	-0.0000	-0.0000	0.0000	0.0000	-0.0000	0.0000	-0.0000	0.0000	-0.0000	-0.0000	0.0000	-0.0000	0.0000	-0.0000	0.0000	0.0000	0.0000	0.0000	-0.0000	0.0000	-0.0000	0.0000	0.0000	0.0000	-0.0000	0.0000	0.0000	-0.0000	0.0000	0.0000	-0.0000	0.0000	0.0000	-0.0000	0.0000	0.0000	0.0000	-0.0000	-0.0000	-0.0000	-0.0000	0.0000	0.0000	-0.0000	0.0000	0.0000	0.0000	0.0000	-0.0000	0.0000	-0.0000	0.0000	-0.0000	-0.0000	0.0000	0.0000	-0.0000	0.0000	0.0000	-0.0000	-0.0000	-0.0000	-0.0000	-0.0000	0.0000	-0.0000	-0.0000	-0.0000	-0.0000	0.0000	-0.0000	0.0000	-0.0000	-0.0000	0.0000	-0.0000	-0.0000	0.0000	-0.0000	-0.0000	0.0000	0.0000	0.0000	-0.0000	0.0000	-0.0000	-0.0000	0.0000	0.0000	0.0000	-0.0000	-0.0000	-0.0000	0.0000	-0.0000	0.0000	-0.0000	-0.0000	0.0000	0.0000	0.0000	-0.0000	-0.0000	0.0000	-0.0000	0.0000	0.0000	-0.0000	0.0000	0.0000	-0.0000	0.0000	0.0000	-0.0000	-0.0000	-0.0000	-0.0000	0.0000	0.0000	-0.0000	-0.0000	-0.0000	-0.0000	0.0000	-0.0000	0.0000	-0.0000	-0.0000	-0.0000	-0.0000	-0.0000	0.0000	-0.0000	-0.0000	0.0000	-0.0000	-0.0000	0.0000	0.0000	-0.0000	-0.0000	-0.0000	-0.0000	0.0000	-0.0000	-0.0000	0.0000	-0.0000	-0.0000	-0.0000	0.0000	0.0000	-0.0000	0.0000	0.0000	-0.0000	0.0000	-0.0000	0.0000	0.0000	0.0000	-0.0000	-0.0000	0.0000	-0.0000	0.0000	0.0000	0.0000	-0.0000	0.0000	0.0000	-0.0000	0.0000	0.0000	-0.0000	0.0000	0.0000	-0.0000	0.0000	0.0000	0.0000	-0.0000	-0.0000	-0.0000	-0.0000	0.0000	0.0000	-0.0000	0.0000	0.0000	0.0000	0.0000	-0.0000	0.0000	-0.0000	0.0000	-0.0000	-0.0000	0.0000	0.0000	-0.0000	0.0000	0.0000	-0.0000	-0.0000	-0.0000	-0.0000	-0.0000	0.0000	-0.0000	-0.0000	-0.0000	-0.0000	0.0000	-0.0000	0.0000	-0.0000	-0.0000	0.0000	-0.0000	-0.0000	0.0000	-0.0000	-0.0000	0.0000	0.0000	0.0000	-0.0000	0.0000	-0.0000	-0.0000	0.0000	0.0000	0.0000	-0.0000	-0.0000	-0.0000	0.0000	-0.0000	0.0000	-0.0000	-0.0000	0.0000	0.0000	0.0000	-0.0000	-0.0000	0.0000	0.0000	0.0000	0.0000	-0.0000	-0.0000	-0.0000	-0.0000	0.0000	0.0000	-0.0000	-0.0000	-0.0000	-0.0000	0.0000	0.0000	-0.0000	-0.0000	-0.0000	-0.0000	0.0000	-0.0000	0.0000	-0.0000	-0.0000	-0.0000	-0.0000	-0.0000	0.0000	-0.0000	-0.0000	0.0000	-0.0000	-0.0000	0.0000	0.0000	-0.0000	-0.0000	-0.0000	-0.0000	0.0000	-0.0000	-0.0000	0.0000	-0.0000	-0.0000	-0.0000	0.0000	0.0000	-0.0000	0.0000	0.0000	-0.0000	0.0000	-0.0000	0.0000	0.0000	0.0000	-0.0000	-0.0000	0.0000	-0.0000	0.0000	0.0000	0.0000	-0.0000	0.0000	0.0000	-0.0000	0.0000	0.0000	-0.0000	0.0000	0.0000	-0.0000	0.0000	0.0000	0.0000	-0.0000	-0.0000	-0.0000	-0.0000	0.0000	0.0000	-0.0000	0.0000	0.0000	0.0000	0.0000	-0.0000	0.0000	-0.0000	0.0000	-0.0000	-0.0000	0.0000	0.0000	-0.0000	0.0000	0.0000	-0.0000	-0.0000	-0.0000	-0.0000	-0.0000	0.0000	-0.0000	-0.0000	-0.0000	-0.0000	0.0000	-0.0000	0.0000	-0.0000	-0.0000	0.0000	-0.0000	-0.0000	0.0000	-0.0000	-0.0000	0.0000	0.0000	0.0000	-0.0000	0.0000	-0.0000	-0.0000	0.0000	0.0000	0.0000	-0.0000	-0.0000	-0.0000	0.0000	-0.0000	0.0000	-0.0000	-0.0000	0.0000	0.0000	0.0000	-0.0000	-0.0000	0.0000	0.0000	0.0000	0.0000	-0.0000	-0.0000	-0.0000	-0.0000	0.0000	0.0000	-0.0000	-0.0000	-0.0000	-0.0000	0.0000	0.0000	-0.0000	-0.0000	-0.0000	-0.0000	0.0000	-0.0000	0.0000	-0.0000	-0.0000	-0.0000	-0.0000	-0.0000	0.0000	-0.0000	-0.0000	0.0000	-0.0000	-0.0000	0.0000	0.0000	-0.0000	-0.0000	-0.0000	-0.0000	0.0000	-0.0000	-0.0000	-0.0000	0.0000	0.0000	0.0000	-0.0000	-0.0000	0.0000	-0.0000	-0.0000	0.0000	-0.0000	0.0000	-0.0000	-0.0000	-0.0000	0.0000	0.0000	-0.0000	0.0000	-0.0000	-0.0000	-0.0000	0.0000	-0.0000	-0.0000	0.0000	-0.0000	-0.0000	0.0000	-0.0000	-0.0000	0.0000	-0.0000	-0.0000	-0.0000	0.0000	0.0000	0.0000	0.0000	-0.0000	-0.0000	0.0000	-0.0000	-0.0000	-0.0000	-0.0000	0.0000	-0.0000	0.0000	-0.0000	0.0000	0.0000	-0.0000	-0.0000	0.0000	-0.0000	-0.0000	0.0000	0.0000	0.0000	0.0000	0.0000	-0.0000	0.0000	0.0000	0.0000	0.0000	-0.0000	0.0000	-0.0000	0.0000	0.0000	-0.0000	0.0000	0.0000	-0.0000	0.0000	0.0000	-0.0000	-0.0000	-0.0000	0.0000	-0.0000	0.0000	0.0000	-0.0000	-0.0000	-0.0000	0.0000	0.0000	0.0000	-0.0000	0.0000	-0.0000	0.0000	0.0000	-0.0000	-0.0000	-0.0000	0.0000	0.0000	-0.0000	-0.0000	-0.0000	-0.0000	0.0000	0.0000	0.0000	0.0000	-0.0000	-0.0000	0.0000	0.0000	0.0000	0.0000	-0.0000	-0.0000	0.0000	0.0000	0.0000	0.0000	-0.0000	0.0000	-0.0000	0.0000	0.0000	0.0000	0.0000	0.0000	-0.0000	0.0000	0.0000	-0.0000	0.0000	0.0000	-0.0000	-0.0000	0.0000	0.0000	0.0000	0.0000	-0.0000	0.0000	0.0000	0.0000	-0.0000	-0.0000	-0.0000	0.0000	0.0000	-0.0000	0.0000	0.0000	-0.0000	0.0000	-0.0000	0.0000	0.0000	0.0000	-0.0000	-0.0000	0.0000	-0.0000	0.0000	0.0000	0.0000	-0.0000	0.0000	0.0000	-0.0000	0.0000	0.0000	-0.0000	0.0000	0.0000	-0.0000	0.0000	0.0000	0.0000	-0.0000	-0.0000	-0.0000	-0.0000	0.0000	0.0000	-0.0000	0.0000	0.0000	0.0000	0.0000	-0.0000	0.0000	-0.0000	0.0000	-0.0000	-0.0000	0.0000	0.0000	-0.0000	0.0000	0.0000	-0.0000	-0.0000	-0.0000	-0.0000	-0.0000	0.0000	-0.0000	-0.0000	-0.0000	-0.0000	0.0000	-0.0000	0.0000	-0.0000	-0.0000	0.0000	-0.0000	-0.0000	0.0000	-0.0000	-0.0000	0.0000	0.0000	0.0000	-0.0000	0.0000	-0.0000	-0.0000	0.0000	0.0000	0.0000	-0.0000	-0.0000	-0.0000	0.0000	-0.0000	0.0000	-0.0000	-0.0000	0.0000	0.0000	0.0000	-0.0000	-0.0000	0.0000	0.0000	0.0000	0.0000	-0.0000	-0.0000	-0.0000	-0.0000	0.0000	0.0000	-0.0000	-0.0000	-0.0000	-0.0000	0.0000	0.0000	-0.0000	-0.0000	-0.0000	-0.0000	0.0000	-0.0000	0.0000	-0.0000	-0.0000	-0.0000	-0.0000	-0.0000	0.0000	-0.0000	-0.0000	0.0000	-0.0000	-0.0000	0.0000	0.0000	-0.0000	-0.0000	-0.0000	-0.0000	0.0000	-0.0000	-0.0000	-0.0000	-0.0000	0.0000	0.0000	0.0000	0.0000	-0.0000	-0.0000	-0.0000	-0.0000	0.0000	-0.0000	0.0000	0.0000	0.0000	0.0000	-0.0000	-0.0000	-0.0000	0.0000	0.0000	0.0000	-0.0000	0.0000	0.0000	-0.0000	0.0000	0.0000	-0.0000	0.0000	0.0000	-0.0000	0.0000	0.0000	0.0000	-0.0000	-0.0000	-0.0000	-0.0000	0.0000	0.0000	-0.0000	0.0000	0.0000	0.0000	0.0000	-0.0000	0.0000	0.0000	0.0000	-0.0000	-0.0000	0.0000	0.0000	-0.0000	0.0000	0.0000	0.0000	-0.0000	-0.0000	-0.0000	-0.0000	-0.0000	-0.0000	-0.0000	-0.0000	-0.0000	0.0000	-0.0000	0.0000	-0.0000	-0.0000	0.0000	-0.0000	-0.0000	0.0000	-0.0000	-0.0000	0.0000	0.0000	0.0000	-0.0000	0.0000	-0.0000	-0.0000	0.0000	0.0000	0.0000	-0.0000	-0.0000	-0.0000	0.0000	-0.0000	0.0000	-0.0000	-0.0000	0.0000	0.0000	0.0000	-0.0000	-0.0000	0.0000	-0.0000	0.0000	0.0000	0.0000	0.0000	-0.0000	-0.0000	0.0000	0.0000	-0.0000	-0.0000	-0.0000	0.0000	0.0000	0.0000	-0.0000	-0.0000	-0.0000	-0.0000	0.0000	-0.0000	0.0000	-0.0000	-0.0000	-0.0000	-0.0000	-0.0000	0.0000	-0.0000	-0.0000	0.0000	-0.0000	-0.0000	0.0000	0.0000	-0.0000	-0.0000	-0.0000	-0.0000	0.0000	-0.0000	-0.0000	0.0000	0.0000	-0.0000	-0.0000	-0.0000	-0.0000	0.0000	0.0000	0.0000	0.0000	-0.0000	0.0000	-0.0000	-0.0000	-0.0000	-0.0000	0.0000	0.0000	0.0000	-0.0000	-0.0000	-0.0000	0.0000	-0.0000	-0.0000	0.0000	-0.0000	-0.0000	0.0000	-0.0000	-0.0000	0.0000	-0.0000	-0.0000	-0.0000	0.0000	0.0000	0.0000	0.0000	-0.0000	-0.0000	0.0000	-0.0000	-0.0000	-0.0000	-0.0000	0.0000	-0.0000	-0.0000	-0.0000	0.0000	0.0000	-0.0000	-0.0000	0.0000	-0.0000	-0.0000	-0.0000	0.0000	0.0000	0.0000	0.0000	0.0000	0.0000	0.0000	0.0000	0.0000	-0.0000	0.0000	-0.0000	0.0000	0.0000	-0.0000	0.0000	0.0000	-0.0000	0.0000	0.0000	-0.0000	-0.0000	-0.0000	0.0000	-0.0000	0.0000	0.0000	-0.0000	-0.0000	-0.0000	0.0000	0.0000	0.0000	-0.0000	0.0000	-0.0000	0.0000	0.0000	-0.0000	-0.0000	-0.0000	0.0000	0.0000	-0.0000	0.0000	-0.0000	-0.0000	-0.0000	-0.0000	0.0000	0.0000	-0.0000	-0.0000	0.0000	0.0000	0.0000	-0.0000	-0.0000	-0.0000	0.0000	0.0000	0.0000	0.0000	-0.0000	0.0000	-0.0000	0.0000	0.0000	0.0000	0.0000	0.0000	-0.0000	0.0000	0.0000	-0.0000	0.0000	0.0000	-0.0000	-0.0000	0.0000	0.0000	0.0000	0.0000	-0.0000	0.0000	0.0000	0.0000	0.0000	-0.0000	-0.0000	-0.0000	-0.0000	0.0000	0.0000	0.0000	0.0000	-0.0000	0.0000	-0.0000	-0.0000	-0.0000	-0.0000	0.0000	0.0000	0.0000	-0.0000	-0.0000	-0.0000	0.0000	-0.0000	-0.0000	0.0000	-0.0000	-0.0000	0.0000	-0.0000	-0.0000	0.0000	-0.0000	-0.0000	-0.0000	0.0000	0.0000	0.0000	0.0000	-0.0000	-0.0000	0.0000	-0.0000	-0.0000	-0.0000	-0.0000	0.0000	-0.0000	-0.0000	-0.0000	0.0000	0.0000	-0.0000	-0.0000	0.0000	-0.0000	-0.0000	-0.0000	0.0000	0.0000	0.0000	0.0000	0.0000	0.0000	0.0000	0.0000	0.0000	-0.0000	0.0000	-0.0000	0.0000	0.0000	-0.0000	0.0000	0.0000	-0.0000	0.0000	0.0000	-0.0000	-0.0000	-0.0000	0.0000	-0.0000	0.0000	0.0000	-0.0000	-0.0000	-0.0000	0.0000	0.0000	0.0000	-0.0000	0.0000	-0.0000	0.0000	0.0000	-0.0000	-0.0000	-0.0000	0.0000	0.0000	-0.0000	0.0000	-0.0000	-0.0000	-0.0000	-0.0000	0.0000	0.0000	-0.0000	-0.0000	0.0000	0.0000	0.0000	-0.0000	-0.0000	-0.0000	0.0000	0.0000	0.0000	0.0000	-0.0000	0.0000	-0.0000	0.0000	0.0000	0.0000	0.0000	0.0000	-0.0000	0.0000	0.0000	-0.0000	0.0000	0.0000	-0.0000	-0.0000	0.0000	0.0000	0.0000	0.0000	-0.0000	0.0000	0.0000	-0.0000	-0.0000	0.0000	0.0000	0.0000	0.0000	-0.0000	-0.0000	-0.0000	-0.0000	0.0000	-0.0000	0.0000	0.0000	0.0000	0.0000	-0.0000	-0.0000	-0.0000	0.0000	0.0000	0.0000	-0.0000	0.0000	0.0000	-0.0000	0.0000	0.0000	-0.0000	0.0000	0.0000	-0.0000	0.0000	0.0000	0.0000	-0.0000	-0.0000	-0.0000	-0.0000	0.0000	0.0000	-0.0000	0.0000	0.0000	0.0000	0.0000	-0.0000	0.0000	0.0000	0.0000	-0.0000	-0.0000	0.0000	0.0000	-0.0000	0.0000	0.0000	0.0000	-0.0000	-0.0000	-0.0000	-0.0000	-0.0000	-0.0000	-0.0000	-0.0000	-0.0000	0.0000	-0.0000	0.0000	-0.0000	-0.0000	0.0000	-0.0000	-0.0000	0.0000	-0.0000	-0.0000	0.0000	0.0000	0.0000	-0.0000	0.0000	-0.0000	-0.0000	0.0000	0.0000	0.0000	-0.0000	-0.0000	-0.0000	0.0000	-0.0000	0.0000	-0.0000	-0.0000	0.0000	0.0000	0.0000	-0.0000	-0.0000	0.0000	-0.0000	0.0000	0.0000	0.0000	0.0000	-0.0000	-0.0000	0.0000	0.0000	-0.0000	-0.0000	-0.0000	0.0000	0.0000	0.0000	-0.0000	-0.0000	-0.0000	-0.0000	0.0000	-0.0000	0.0000	-0.0000	-0.0000	-0.0000	-0.0000	-0.0000	0.0000	-0.0000	-0.0000	0.0000	-0.0000	-0.0000	0.0000	0.0000	-0.0000	-0.0000	-0.0000	-0.0000	0.0000	-0.0000	-0.0000	1.0000	1.0000	1.0000	1.0000	1.0000	1.0000	1.0000	1.0000	1.0000	1.0000	1.0000	1.0000	1.0000	1.0000	1.0000	1.0000	1.0000	1.0000	1.0000	1.0000	1.0000	1.0000	1.0000	1.0000	1.0000	1.0000	1.0000	1.0000	1.0000	1.0000	1.0000	1.0000	1.0000	1.0000	1.0000	1.0000	1.0000	1.0000	1.0000	1.0000	1.0000	1.0000	1.0000	1.0000	1.0000	1.0000	1.0000	1.0000	1.0000	1.0000	1.0000	1.0000	1.0000	1.0000	1.0000	1.0000	1.0000	1.0000	1.0000	1.0000	1.0000	1.0000	1.0000	1.0000	1.0000	1.0000	1.0000	1.0000	1.0000	1.0000	1.0000	1.0000	1.0000	1.0000	1.0000	1.0000	1.0000	1.0000	1.0000	1.0000	1.0000	1.0000	1.0000	1.0000	1.0000	1.0000	1.0000	1.0000	1.0000	1.0000	1.0000	1.0000	1.0000	1.0000	1.0000	1.0000	1.0000	1.0000	1.0000	1.0000	1.0000	1.0000	1.0000	1.0000	1.0000	1.0000	1.0000	1.0000	1.0000	1.0000	1.0000	1.0000	1.0000	1.0000	1.0000	1.0000	1.0000	1.0000	1.0000	1.0000	1.0000	1.0000	1.0000	1.0000	1.0000	1.0000	1.0000	1.0000	1.0000	1.0000	1.0000	1.0000	1.0000	1.0000	1.0000	1.0000	1.0000	1.0000	1.0000	1.0000	1.0000	1.0000	1.0000	1.0000	0.0625	0.0625	0.0625	0.0625	0.0625	0.0625	0.0625	0.0625	0.0625	0.0625	0.0625	0.0625	0.0625	0.0625	0.0625	0.0625	0.0625	0.0625	0.0625	0.0625	0.0625	0.0625	0.0625	0.0625	0.0625	0.0625	0.0625	0.0625	0.0625	0.0625	0.0625	0.0625	0.0625	0.0625	0.0625	0.0625	0.0000	0.0000	0.0000	0.0000	0.0625	0.0625	0.0625	0.0625	0.0625	0.0625	0.0625	0.0625	0.0625	0.0625	0.0625	0.0625	0.0625	0.0625	0.0625	0.0625	0.0625	0.0625	0.0625	0.0625	0.0625	0.0625	0.0625	0.0625	0.0625	0.0625	0.0625	0.0625	0.0625	0.0625	0.0625	0.0625	0.0625	0.0625	0.0625	0.0625	0.0000	0.0000	0.0000	0.0000	0.0625	0.0625	0.0625	0.0625	0.0625	0.0625	0.0625	0.0625	0.0625	0.0625	0.0625	0.0625	0.0625	0.0625	0.0625	0.0625	0.0625	0.0625	0.0625	0.0625	0.0625	0.0625	0.0625	0.0625	0.0625	0.0625	0.0625	0.0625	0.0625	0.0625	0.0625	0.0625	0.0625	0.0625	0.0625	0.0625	0.0000	0.0000	0.0000	0.0000	0.0625	0.0625	0.0625	0.0625	0.0625	0.0625	0.0625	0.0625	0.0625	0.0625	0.0625	0.0625	0.0625	0.0625	0.0625	0.0625	0.0625	0.0625	0.0625	0.0625	0.0625	0.0625	0.0625	0.0625	0.0625	0.0625	0.0625	0.0625	0.0625	0.0625	0.0625	0.0625	0.0625	0.0625	0.0625	0.0625	0.0000	0.0000	0.0000	0.0000	0.0625	0.0625	0.0625	0.0625	0.0625	0.0625	0.0625	0.0625	0.0625	0.0625	0.0625	0.0625	0.0625	0.0625	0.0625	0.0625	0.0625	0.0625	0.0625	0.0625	0.0625	0.0625	0.0625	0.0625	0.0625	0.0625	0.0625	0.0625	0.0625	0.0625	0.0625	0.0625	0.0625	0.0625	0.0625	0.0625	0.0000	0.0000	0.0000	0.0000	0.0625	0.0625	0.0625	0.0625	0.0625	0.0625	0.0625	0.0625	0.0625	0.0625	0.0625	0.0625	0.0625	0.0625	0.0625	0.0625	0.0625	0.0625	0.0625	0.0625	0.0625	0.0625	0.0625	0.0625	0.0625	0.0625	0.0625	0.0625	0.0625	0.0625	0.0625	0.0625	0.0625	0.0625	0.0625	0.0625	0.0000	0.0000	0.0000	0.0000	0.0625	0.0625	0.0625	0.0625	0.0625	0.0625	0.0625	0.0625	0.0625	0.0625	0.0625	0.0625	0.0625	0.0625	0.0625	0.0625	0.0625	0.0625	0.0625	0.0625	0.0625	0.0625	0.0625	0.0625	0.0625	0.0625	0.0625	0.0625	0.0625	0.0625	0.0625	0.0625	0.0625	0.0625	0.0625	0.0625	0.0000	0.0000	0.0000	0.0000	0.0625	0.0625	0.0625	0.0625	0.0625	0.0625	0.0625	0.0625	0.0625	0.0625	0.0625	0.0625	0.0625	0.0625	0.0625	0.0625	0.0625	0.0625	0.0625	0.0625	0.0625	0.0625	0.0625	0.0625	0.0625	0.0625	0.0625	0.0625	0.0625	0.0625	0.0625	0.0625	0.0625	0.0625	0.0625	0.0625	0.0000	0.0000	0.0000	0.0000	0.0625	0.0625	0.0625	0.0625	0.0625	0.0625	0.0625	0.0625	0.0625	0.0625	0.0625	0.0625	0.0625	0.0625	0.0625	0.0625	0.0625	0.0625	0.0625	0.0625	0.0625	0.0625	0.0625	0.0625	0.0625	0.0625	0.0625	0.0625	0.0625	0.0625	0.0625	0.0625	0.0625	0.0625	0.0625	0.0625	0.0000	0.0000	0.0000	0.0000	0.0625	0.0625	0.0625	0.0625	0.0625	0.0625	0.0625	0.0625	0.0625	0.0625	0.0625	0.0625	0.0625	0.0625	0.0625	0.0625	0.0625	0.0625	0.0625	0.0625	0.0625	0.0625	0.0625	0.0625	0.0625	0.0625	0.0625	0.0625	0.0625	0.0625	0.0625	0.0625	0.0625	0.0625	0.0625	0.0625	0.0000	0.0000	0.0000	0.0000	0.0625	0.0625	0.0625	0.0625	0.0625	0.0625	0.0625	0.0625	0.0625	0.0625	0.0625	0.0625	0.0625	0.0625	0.0625	0.0625	0.0625	0.0625	0.0625	0.0625	0.0625	0.0625	0.0625	0.0625	0.0625	0.0625	0.0625	0.0625	0.0625	0.0625	0.0625	0.0625	0.0625	0.0625	0.0625	0.0625	0.0000	0.0000	0.0000	0.0000	0.0625	0.0625	0.0625	0.0625	0.0625	0.0625	0.0625	0.0625	0.0625	0.0625	0.0625	0.0625	0.0625	0.0625	0.0625	0.0625	0.0625	0.0625	0.0625	0.0625	0.0625	0.0625	0.0625	0.0625	0.0625	0.0625	0.0625	0.0625	0.0625	0.0625	0.0625	0.0625	0.0625	0.0625	0.0625	0.0625	0.0000	0.0000	0.0000	0.0000	0.0625	0.0625	0.0625	0.0625	0.0625	0.0625	0.0625	0.0625	0.0625	0.0625	0.0625	0.0625	0.0625	0.0625	0.0625	0.0625	0.0625	0.0625	0.0625	0.0625	0.0625	0.0625	0.0625	0.0625	0.0625	0.0625	0.0625	0.0625	0.0625	0.0625	0.0625	0.0625	0.0625	0.0625	0.0625	0.0625	0.0000	0.0000	0.0000	0.0000	0.0625	0.0625	0.0625	0.0625	0.0625	0.0625	0.0625	0.0625	0.0625	0.0625	0.0625	0.0625	0.0625	0.0625	0.0625	0.0625	0.0625	0.0625	0.0625	0.0625	0.0625	0.0625	0.0625	0.0625	0.0625	0.0625	0.0625	0.0625	0.0625	0.0625	0.0625	0.0625	0.0625	0.0625	0.0625	0.0625	0.0000	0.0000	0.0000	0.0000	0.0625	0.0625	0.0625	0.0625	0.0625	0.0625	0.0625	0.0625	0.0625	0.0625	0.0625	0.0625	0.0625	0.0625	0.0625	0.0625	0.0625	0.0625	0.0625	0.0625	0.0625	0.0625	0.0625	0.0625	0.0625	0.0625	0.0625	0.0625	0.0625	0.0625	0.0625	0.0625	0.0625	0.0625	0.0625	0.0625	0.0000	0.0000	0.0000	0.0000	0.0625	0.0625	0.0625	0.0625	0.0625	0.0625	0.0625	0.0625	0.0625	0.0625	0.0625	0.0625	0.0625	0.0625	0.0625	0.0625	0.0625	0.0625	0.0625	0.0625	0.0625	0.0625	0.0625	0.0625	0.0625	0.0625	0.0625	0.0625	0.0625	0.0625	0.0625	0.0625	0.0625	0.0625	0.0625	0.0625	0.0000	0.0000	0.0000	0.0000	0.0625	0.0625	0.0625	0.0625	0.0625	0.0625	0.0625	0.0625	0.0625	0.0625	0.0625	0.0625	0.0625	0.0625	0.0625	0.0625	0.0625	0.0625	0.0625	0.0625	0.0625	0.0625	0.0625	0.0625	0.0625	0.0625	0.0625	0.0625	0.0625	0.0625	0.0625	0.0625	0.0625	0.0625	0.0625	0.0625	0.0000	0.0000	0.0000	0.0000	0.0625	0.0625	0.0625	0.0625	0.0625	0.0625	0.0625	0.0625	0.0625	0.0625	0.0625	0.0625	0.0625	0.0625	0.0625	0.0625	0.0625	0.0625	0.0625	0.0625	0.0625	0.0625	0.0625	0.0625	0.0625	0.0625	0.0625	0.0625	0.0625	0.0625	0.0625	0.0625	0.0625	0.0625	0.0625	0.0625	0.0000	0.0000	0.0000	0.0000	0.0625	0.0625	0.0625	0.0625	0.0625	0.0625	0.0625	0.0625	0.0625	0.0625	0.0625	0.0625	0.0625	0.0625	0.0625	0.0625	0.0625	0.0625	0.0625	0.0625	0.0625	0.0625	0.0625	0.0625	0.0625	0.0625	0.0625	0.0625	0.0625	0.0625	0.0625	0.0625	0.0625	0.0625	0.0625	0.0625	0.0000	0.0000	0.0000	0.0000	0.0625	0.0625	0.0625	0.0625	0.0625	0.0625	0.0625	0.0625	0.0625	0.0625	0.0625	0.0625	0.0625	0.0625	0.0625	0.0625	0.0625	0.0625	0.0625	0.0625	0.0625	0.0625	0.0625	0.0625	0.0625	0.0625	0.0625	0.0625	0.0625	0.0625	0.0625	0.0625	0.0625	0.0625	0.0625	0.0625	0.0000	0.0000	0.0000	0.0000	0.0625	0.0625	0.0625	0.0625	0.0625	0.0625	0.0625	0.0625	0.0625	0.0625	0.0625	0.0625	0.0625	0.0625	0.0625	0.0625	0.0625	0.0625	0.0625	0.0625	0.0625	0.0625	0.0625	0.0625	0.0625	0.0625	0.0625	0.0625	0.0625	0.0625	0.0625	0.0625	0.0625	0.0625	0.0625	0.0625	0.0000	0.0000	0.0000	0.0000	0.0625	0.0625	0.0625	0.0625	0.0625	0.0625	0.0625	0.0625	0.0625	0.0625	0.0625	0.0625	0.0625	0.0625	0.0625	0.0625	0.0625	0.0625	0.0625	0.0625	0.0625	0.0625	0.0625	0.0625	0.0625	0.0625	0.0625	0.0625	0.0625	0.0625	0.0625	0.0625	0.0625	0.0625	0.0625	0.0625	0.0000	0.0000	0.0000	0.0000	0.0625	0.0625	0.0625	0.0625	0.0625	0.0625	0.0625	0.0625	0.0625	0.0625	0.0625	0.0625	0.0625	0.0625	0.0625	0.0625	0.0625	0.0625	0.0625	0.0625	0.0625	0.0625	0.0625	0.0625	0.0625	0.0625	0.0625	0.0625	0.0625	0.0625	0.0625	0.0625	0.0625	0.0625	0.0625	0.0625	0.0000	0.0000	0.0000	0.0000	0.0625	0.0625	0.0625	0.0625	0.0625	0.0625	0.0625	0.0625	0.0625	0.0625	0.0625	0.0625	0.0625	0.0625	0.0625	0.0625	0.0625	0.0625	0.0625	0.0625	0.0625	0.0625	0.0625	0.0625	0.0625	0.0625	0.0625	0.0625	0.0625	0.0625	0.0625	0.0625	0.0625	0.0625	0.0625	0.0625	0.0000	0.0000	0.0000	0.0000	0.0625	0.0625	0.0625	0.0625	0.0625	0.0625	0.0625	0.0625	0.0625	0.0625	0.0625	0.0625	0.0625	0.0625	0.0625	0.0625	0.0625	0.0625	0.0625	0.0625	0.0625	0.0625	0.0625	0.0625	0.0625	0.0625	0.0625	0.0625	0.0625	0.0625	0.0625	0.0625	0.0625	0.0625	0.0625	0.0625	0.0000	0.0000	0.0000	0.0000	0.0625	0.0625	0.0625	0.0625	0.0625	0.0625	0.0625	0.0625	0.0625	0.0625	0.0625	0.0625	0.0625	0.0625	0.0625	0.0625	0.0625	0.0625	0.0625	0.0625	0.0625	0.0625	0.0625	0.0625	0.0625	0.0625	0.0625	0.0625	0.0625	0.0625	0.0625	0.0625	0.0625	0.0625	0.0625	0.0625	0.0000	0.0000	0.0000	0.0000	0.0625	0.0625	0.0625	0.0625	0.0625	0.0625	0.0625	0.0625	0.0625	0.0625	0.0625	0.0625	0.0625	0.0625	0.0625	0.0625	0.0625	0.0625	0.0625	0.0625	0.0625	0.0625	0.0625	0.0625	0.0625	0.0625	0.0625	0.0625	0.0625	0.0625	0.0625	0.0625	0.0625	0.0625	0.0625	0.0625	0.0000	0.0000	0.0000	0.0000	0.0625	0.0625	0.0625	0.0625	0.0625	0.0625	0.0625	0.0625	0.0625	0.0625	0.0625	0.0625	0.0625	0.0625	0.0625	0.0625	0.0625	0.0625	0.0625	0.0625	0.0625	0.0625	0.0625	0.0625	0.0625	0.0625	0.0625	0.0625	0.0625	0.0625	0.0625	0.0625	0.0625	0.0625	0.0625	0.0625	0.0000	0.0000	0.0000	0.0000	0.0625	0.0625	0.0625	0.0625	0.0625	0.0625	0.0625	0.0625	0.0625	0.0625	0.0625	0.0625	0.0625	0.0625	0.0625	0.0625	0.0625	0.0625	0.0625	0.0625	0.0625	0.0625	0.0625	0.0625	0.0625	0.0625	0.0625	0.0625	0.0625	0.0625	0.0625	0.0625	0.0625	0.0625	0.0625	0.0625	0.0000	0.0000	0.0000	0.0000	0.0625	0.0625	0.0625	0.0625	0.0625	0.0625	0.0625	0.0625	0.0625	0.0625	0.0625	0.0625	0.0625	0.0625	0.0625	0.0625	0.0625	0.0625	0.0625	0.0625	0.0625	0.0625	0.0625	0.0625	0.0625	0.0625	0.0625	0.0625	0.0625	0.0625	0.0625	0.0625	0.0625	0.0625	0.0625	0.0625	0.0000	0.0000	0.0000	0.0000	0.0625	0.0625	0.0625	0.0625	0.0625	0.0625	0.0625	0.0625	0.0625	0.0625	0.0625	0.0625	0.0625	0.0625	0.0625	0.0625	0.0625	0.0625	0.0625	0.0625	0.0625	0.0625	0.0625	0.0625	0.0625	0.0625	0.0625	0.0625	0.0625	0.0625	0.0625	0.0625	0.0625	0.0625	0.0625	0.0625	0.0000	0.0000	0.0000	0.0000	0.0625	0.0625	0.0625	0.0625	0.0625	0.0625	0.0625	0.0625	0.0625	0.0625	0.0625	0.0625	0.0625	0.0625	0.0625	0.0625	0.0625	0.0625	0.0625	0.0625	0.0625	0.0625	0.0625	0.0625	0.0625	0.0625	0.0625	0.0625	0.0625	0.0625	0.0625	0.0625	0.0625	0.0625	0.0625	0.0625	0.0000	0.0000	0.0000	0.0000	0.0625	0.0625	0.0625	0.0625	0.0625	0.0625	0.0625	0.0625	0.0625	0.0625	0.0625	0.0625	0.0625	0.0625	0.0625	0.0625	0.0625	0.0625	0.0625	0.0625	0.0625	0.0625	0.0625	0.0625	0.0625	0.0625	0.0625	0.0625	0.0625	0.0625	0.0625	0.0625	0.0625	0.0625	0.0625	0.0625	0.0000	0.0000	0.0000	0.0000	0.0625	0.0625	0.0625	0.0625	0.0625	0.0625	0.0625	0.0625	0.0625	0.0625	0.0625	0.0625	0.0625	0.0625	0.0625	0.0625	0.0625	0.0625	0.0625	0.0625	0.0625	0.0625	0.0625	0.0625	0.0625	0.0625	0.0625	0.0625	0.0625	0.0625	0.0625	0.0625	0.0625	0.0625	0.0625	0.0625	0.0000	0.0000	0.0000	0.0000	0.0625	0.0625	0.0625	0.0625	0.0625	0.0625	0.0625	0.0625	0.0625	0.0625	0.0625	0.0625	0.0625	0.0625	0.0625	0.0625	0.0625	0.0625	0.0625	0.0625	0.0625	0.0625	0.0625	0.0625	0.0625	0.0625	0.0625	0.0625	0.0625	0.0625	0.0625	0.0625	0.0625	0.0625	0.0625	0.0625	0.0000	0.0000	0.0000	0.0000	0.0625	0.0625	0.0625	0.0625	0.0625	0.0625	0.0625	0.0625	0.0625	0.0625	0.0625	0.0625	0.0625	0.0625	0.0625	0.0625	0.0625	0.0625	0.0625	0.0625	0.0625	0.0625	0.0625	0.0625	0.0625	0.0625	0.0625	0.0625	0.0625	0.0625	0.0625	0.0625	0.0625	0.0625	0.0625	0.0625	0.0000	0.0000	0.0000	0.0000	0.0000	0.0000	0.0000	0.0000	0.0000	0.0000	0.0000	0.0000	0.0000	0.0000	0.0000	0.0000	0.0000	0.0000	0.0000	0.0000	0.0000	0.0000	0.0000	0.0000	0.0000	0.0000	0.0000	0.0000	0.0000	0.0000	0.0000	0.0000	0.0000	0.0000	0.0000	0.0000	0.0000	0.0000	0.0000	0.0000	0.0000	0.0000	0.0000	0.0000	0.0000	0.0000	0.0000	0.0000	0.0000	0.0000	0.0000	0.0000	0.0000	0.0000	0.0000	0.0000	0.0000	0.0000	0.0000	0.0000	0.0000	0.0000	0.0000	0.0000	0.0000	0.0000	0.0000	0.0000	0.0000	0.0000	0.0000	0.0000	0.0000	0.0000	0.0000	0.0000	0.0000	0.0000	0.0000	0.0000	0.0000	0.0000	0.0000	0.0000	0.0000	0.0000	0.0000	0.0000	0.0000	0.0000	0.0000	0.0000	0.0000	0.0000	0.0000	0.0000	0.0000	0.0000	0.0000	0.0000	0.0000	0.0000	0.0000	0.0000	0.0000	0.0000	0.0000	0.0000	0.0000	0.0000	0.0000	0.0000	0.0000	0.0000	0.0000	0.0000	0.0000	0.0000	0.0000	0.0000	0.0000	0.0000	0.0000	0.0000	0.0000	0.0000	0.0000	0.0000	0.0000	0.0000	0.0000	0.0000	0.0000	0.0000	0.0000	0.0000	0.0000	0.0000	0.0000	0.0000	0.0000	0.0000	0.0000	0.0000	0.0000	0.0000	0.0000	0.0000	0.0000	0.0000	0.0000	0.0000	0.0000	0.0000	0.0000	0.0000	0.0000	0.0000	0.0000	0.0000	0.0000	0.0000	0.0000	0.0000	