0.1228	-0.0566	-0.4946	0.5152	3.6353	4.2373	2.0392	0.3446	-0.1228	0.1842	1.1164	3.3414	4.7102	5.0597	3.6102	1.0735	0.1677	0.6477	2.6549	4.4522	5.1174	5.0956	3.9453	2.0424	0.4315	0.7628	2.5780	3.9128	4.3852	5.1546	4.1654	2.3472	0.3085	0.7734	1.6016	3.4137	4.2150	4.0569	4.6324	3.5071	0.2975	0.7742	1.2221	2.5381	4.2311	3.5097	3.1414	2.1824	0.1921	0.3762	1.2218	1.9273	2.5260	2.7805	0.7490	-0.5819	-0.1231	0.1882	0.8457	0.9841	0.5221	0.2615	-0.2352	-0.5805	0.1068	0.5209	2.9324	5.4707	4.0820	1.2117	0.0580	-0.0535	0.9493	1.8759	4.2670	6.2978	5.7578	2.4947	0.4562	0.0742	1.1942	2.4788	3.7964	5.5554	5.6871	3.3071	0.9578	0.0909	0.6607	2.0802	2.7778	4.3565	5.6639	3.8242	1.4660	0.3037	0.3748	1.5696	2.5926	3.3685	4.9120	4.9657	2.4096	0.3043	0.1190	0.9312	1.9323	2.2857	2.2272	2.6828	0.7677	-0.5054	0.0010	0.6189	1.0814	0.8848	0.1449	-0.2702	-0.7186	-0.7317	0.0248	0.3725	0.3280	0.0339	-0.3409	-0.5256	-0.4134	-0.2945	0.0498	0.0437	0.3131	0.0204	-1.5483	-2.0780	-1.0902	-0.2626	0.0216	-0.1173	0.9192	2.0631	0.7568	-1.3762	-1.7427	-0.7341	0.4558	0.7436	2.0801	4.0810	3.9801	0.8514	-1.0316	-0.8850	1.0753	2.0630	2.9601	4.7132	5.1941	2.6260	0.1010	-0.6925	0.6842	1.9264	2.6680	3.9624	5.0264	3.7103	0.6060	-0.7097	0.2348	1.3466	2.4591	3.2765	4.8780	5.2335	3.0968	0.8856	0.1503	0.9546	2.0602	2.7252	3.6739	4.9136	4.1192	2.0137	0.1243	0.5350	1.1601	1.6706	1.5098	1.5179	1.0794	0.5333	0.1736	0.2033	0.3387	0.9469	1.9223	2.1957	1.0933	0.2654	0.3841	0.4046	-0.0256	0.5664	3.9988	5.2163	2.7888	0.7506	0.0563	0.3431	0.0451	1.0264	4.5052	6.9306	4.9382	1.5818	-0.1805	0.0745	0.6892	1.6025	3.9683	6.5672	6.1004	2.8929	-0.2064	-0.4075	0.8784	1.4759	2.7314	5.7568	6.2029	3.7473	-0.1220	-0.6023	0.2708	1.2561	1.4422	3.5535	5.2618	4.0828	0.0793	-0.2975	-0.2442	0.8728	1.3579	1.3374	3.3855	3.7185	0.1514	-0.2407	-0.2518	0.5000	1.1528	1.0079	0.7681	0.8186	-0.0505	0.1747	-0.0475	0.2479	-0.2273	0.7682	1.0236	0.2275	0.1110	0.0518	-0.4364	0.8821	-0.1257	-0.6978	0.6073	0.3962	-0.2599	-0.6900	-1.2592	-0.1009	0.5567	0.0497	-0.5945	0.3493	-0.0729	-0.2112	-0.4445	-0.0504	0.8600	0.2093	0.0678	0.2334	-0.1608	0.1369	0.0315	-0.7049	1.1994	0.0247	-0.0006	0.3487	-0.3128	-0.2271	0.1707	-0.8997	-0.4404	-0.1035	-1.8155	-1.5533	-0.1372	-0.4048	0.1570	0.2102	-0.3523	0.9608	1.5444	-0.0425	0.1701	-0.1879	0.0917	-0.0078	0.2538	0.1652	0.6896	0.5047	-0.0745	-0.1009	-0.6864	0.4641	2.2736	-0.4197	-1.0840	-0.2306	0.1215	-0.0176	-1.0779	-0.5449	1.6663	0.4310	-1.4694	-0.7553	-0.4217	-0.2730	-0.5779	-0.3859	1.2091	0.7899	-1.3163	-1.1763	-0.6649	-0.2673	0.1329	-0.9417	0.7343	1.4030	-0.6561	-1.0715	-0.4122	-0.2203	0.4556	-0.0181	-0.6720	1.6873	0.3395	-1.0066	-0.1099	-0.4648	-0.2089	0.3030	-0.6613	-0.2229	0.6648	-0.8122	-0.0498	-0.3064	-0.0076	0.3497	0.1965	-0.4575	0.8182	-0.2893	-0.1833	-0.1844	0.0034	0.4795	0.5564	0.4997	0.4288	0.1944	0.2192	0.5212	1.0324	-0.9828	-0.6002	0.1975	0.3039	0.2763	0.1774	0.2010	0.2997	-0.2375	1.0635	0.0489	-0.0251	-0.1381	0.0060	0.0063	-0.1447	0.3231	0.2175	-0.0754	-0.1164	0.0590	0.3408	0.0942	0.2488	0.8838	-0.0679	-0.0539	0.0020	-0.3913	-0.0480	0.0650	-0.0145	-0.0258	-0.3471	0.5738	-0.7753	-0.4654	-0.2114	0.2750	-0.0857	-0.2541	-0.4638	-0.6824	-1.0730	0.5128	0.1134	0.1529	-0.2711	0.0468	0.0386	0.3369	1.0628	-0.1611	0.1399	-0.0534	-0.1400	0.0876	-0.0564	-0.4999	-0.5226	-0.8193	-0.0271	0.2238	0.6635	-0.2480	0.4696	0.9283	0.4488	0.2737	0.2901	0.6627	0.9954	-1.3850	-1.9596	0.3901	0.9797	0.3033	-0.2067	-0.1989	0.5854	-0.0897	-1.3931	-0.7977	0.5720	0.3907	0.1767	-0.1162	0.3386	0.5312	-0.6130	-0.6745	0.5961	0.5355	0.6943	0.3788	0.2179	1.5930	-0.4543	-0.4986	0.3608	0.4576	0.3143	0.4433	-0.3122	0.3781	0.2593	-1.7244	-1.7692	-0.3448	0.0294	0.6037	0.3394	-0.0398	1.0233	0.4552	-0.6152	0.3002	0.0261	0.3455	0.1032	0.3039	0.5837	1.4318	0.9881	0.5660	0.2976	0.0954	-0.5115	-0.8047	0.9303	-0.1633	-0.6069	-0.2800	-0.1085	-0.0380	0.0755	0.8563	-0.4973	0.8065	-0.6869	-0.4336	-0.2826	-0.0698	0.3141	-0.7402	-0.0097	0.1466	0.7288	-0.3209	-0.0828	0.3395	0.5157	-0.1220	-0.4100	0.5893	0.1960	0.0614	0.0394	-0.2455	-0.2801	0.4170	-0.8659	0.4264	0.4519	-0.1783	0.2080	-0.1246	-0.1870	-0.1508	0.1587	-2.1364	0.8249	0.0109	-0.0866	-0.0331	0.0643	0.1924	0.4782	1.1627	-0.2671	0.8039	0.0006	0.2553	-0.0373	-0.3345	-0.2612	-0.5213	-0.4386	-0.0505	0.2359	0.1068	0.4913	0.1673	0.3010	-0.0699	-0.4328	-0.0503	0.1458	0.2113	-0.5280	0.3404	-0.4730	0.0008	0.1618	-0.2517	0.0940	0.0515	-0.7037	1.0682	0.3123	-0.6862	0.2791	-0.0541	-0.0383	-0.2594	-0.3047	0.3266	0.0665	0.3846	-0.5578	0.1517	-0.0582	0.1548	0.1142	-0.3868	0.8911	0.1800	-0.5407	0.0152	-0.1120	0.0129	0.0995	-0.7514	0.5708	-0.8720	0.6816	0.8652	-0.0358	-0.0312	0.0047	-0.2120	-0.6796	0.4881	-0.5056	-0.6318	-0.0380	-0.4550	0.1233	0.0489	0.3653	0.2446	0.4772	-0.1643	-0.0405	0.0751	-0.0288	0.5496	-0.5395	-0.5139	0.0700	0.1864	0.2078	-0.1662	-0.7592	-0.4561	0.4408	0.9677	0.0050	-0.2108	-0.3376	-0.1487	-0.0314	0.4252	-0.7798	-0.4060	0.6306	0.1595	-0.1485	0.0091	0.3385	0.1366	0.3010	-0.1493	-0.1793	0.4491	0.2150	-0.0536	0.1993	-0.0788	-0.2108	-0.5510	0.2767	0.1045	0.0035	-0.1394	-0.0467	0.3838	0.0923	-0.7779	-0.1677	-0.4671	0.0197	0.2276	0.1535	-0.3926	0.7148	-0.1459	-0.0437	0.6335	0.0864	0.0168	0.4093	0.2811	-0.1116	0.6448	-0.7901	-0.6161	-0.1508	-0.0105	0.8395	-0.4995	-0.0640	0.0028	-0.1351	-0.1038	0.0631	0.0853	0.4972	0.0421	-0.1380	-0.0189	-0.2195	-0.0453	0.2111	-0.0466	-0.0580	0.0521	-0.3724	-0.1494	0.4475	-0.6258	-0.0513	-0.1327	-0.3514	0.7227	-1.1654	1.0125	-0.0597	-0.2010	0.0250	0.2912	-0.4144	0.0031	0.5399	-0.3874	-0.1548	0.9644	0.0561	-0.0650	0.0844	-0.1545	0.5495	0.2859	0.4922	-0.9387	-0.1730	0.0861	-0.3441	-0.0086	-0.4828	-0.3970	0.2296	0.4986	-0.0526	0.0134	0.0117	-0.1803	-0.1611	-0.1127	0.2186	0.0900	-0.0015	-0.0792	-0.2526	-0.0878	0.0611	0.2919	-0.6735	-0.0833	-0.0779	-0.0901	0.3701	-0.0247	-0.5326	0.4267	0.3843	-0.1508	-0.2539	0.0853	-0.2000	-0.3608	1.1109	-0.6607	-0.0931	-0.2227	0.0891	-0.1851	-0.4131	0.4655	-0.3117	0.8081	-0.4517	-0.0251	0.0859	-0.2579	-0.2568	0.3728	-0.1503	-0.3404	0.7631	-0.4058	-0.0745	0.0186	0.1031	-0.7207	1.4154	-0.0118	-0.9974	0.4494	-0.1865	0.0354	0.2033	0.1242	-0.8906	1.0490	-0.1909	0.3643	0.1289	-0.1588	-0.3880	-0.0996	-0.2471	-0.3537	0.1736	-0.5918	-0.0166	-0.0496	0.1268	-0.2628	0.0235	-0.0863	-0.1852	0.0018	0.2588	0.1744	0.3551	0.2870	-0.4192	0.1107	0.3025	0.4224	0.0729	0.0929	0.2327	-0.1387	-0.2509	-0.0605	-0.3588	0.2508	0.2300	0.1493	0.1035	-0.2572	0.3285	-0.2093	0.4403	-0.0468	-0.2360	-0.0265	0.0290	-0.0024	-0.5914	0.0564	0.5701	-0.2570	-0.0777	0.0745	-0.0479	0.1182	-0.2157	-0.2527	-0.2088	-0.9541	0.0875	0.2231	0.2849	-0.1152	0.1449	-0.0100	1.5860	0.1539	-0.3760	-0.1525	-0.1800	-0.4639	-0.1426	-0.5934	-0.4362	-0.1876	0.0090	0.0701	0.1485	-0.1572	0.1971	-0.4928	0.3354	0.3633	-0.0928	0.0733	0.4865	-0.1974	-0.8791	0.7988	-0.4164	0.2388	0.3271	0.0360	-0.1758	-0.1051	0.4091	-0.3279	0.2589	0.4125	-0.0847	-0.1561	-0.1604	-0.0629	0.2158	-0.7051	0.5343	-0.1711	-0.0688	0.0585	-0.0838	0.3053	-0.5210	1.0923	-0.4934	-0.5870	-0.1094	0.1312	0.0212	-0.4582	0.4858	-0.0701	1.2003	-0.4265	-0.2556	-0.1972	0.2066	-0.3749	-0.0863	-0.1793	-0.1576	-0.6389	0.0189	0.3481	-0.0261	-0.0252	-0.0875	-0.1117	0.5235	0.2458	-0.0243	-0.1494	-0.3828	0.1252	0.4791	-0.8344	0.5717	0.1059	0.0939	-0.0789	-0.0824	0.3424	-0.1212	0.2555	-0.2373	0.3088	-0.0187	-0.0688	-0.4515	0.0735	0.3681	-0.3754	0.0095	0.0535	-0.0851	-0.0834	-0.1260	-0.0163	0.1464	-0.1907	0.5302	-0.4942	-0.1050	-0.0185	0.0173	0.1006	-0.3802	1.1038	-1.4752	0.9100	0.1640	0.0145	-0.2066	-0.1952	0.6827	-0.9648	-0.3342	0.0977	0.2225	-0.1414	0.1842	-0.2026	-0.0185	0.9082	0.1700	0.1630	-0.1421	-0.0113	-0.4702	0.2225	-0.3531	-0.0513	-0.4618	0.2012	-0.1173	0.0037	-0.1414	-0.0550	-0.0569	0.1968	0.0564	0.0913	0.1725	0.1775	0.1805	0.1999	0.0157	0.0034	-0.0154	-0.0334	0.0023	-0.0053	-0.0066	0.0000	-0.0154	-0.0029	0.0056	0.0242	0.0039	0.0042	-0.0044	0.0090	0.0038	-0.0057	-0.0015	0.0094	-0.0004	-0.0090	0.0009	0.0016	-0.0002	-0.0005	0.0013	0.0077	0.0012	-0.0004	-0.0040	0.0005	-0.0003	0.0012	-0.0016	-0.0060	0.1092	0.2699	-0.0331	0.2016	0.1271	0.0950	0.1033	0.2515	0.1069	-0.0654	0.1808	0.0436	-0.0078	0.0019	0.0047	0.0041	-0.0065	0.0008	0.0023	0.0090	-0.0069	-0.0016	0.0033	-0.0099	0.0103	0.0030	0.0023	0.0070	0.0166	-0.0137	0.0022	0.0028	0.0018	-0.0085	-0.0011	-0.0061	-0.0007	0.0002	-0.0002	-0.0008	0.0013	-0.0006	-0.0018	-0.0011	-0.0010	-0.0010	0.0013	0.0015	0.2922	0.2933	0.2570	0.3047	0.2955	-0.0075	0.0970	0.1580	-0.0086	-0.1724	-0.0661	-0.0826	-0.0139	0.0009	0.0081	0.0311	0.0020	-0.0007	-0.0000	0.0058	0.0142	-0.0033	0.0004	-0.0369	0.0093	-0.0011	0.0054	-0.0021	0.0080	0.0001	0.0033	-0.0100	0.0049	0.0009	-0.0030	-0.0104	0.0013	0.0017	-0.0026	-0.0058	0.0010	-0.0016	-0.0006	0.0011	-0.0006	-0.0039	0.0025	0.0080	-0.0415	-0.0288	-0.0393	-0.0438	-0.0255	0.0130	-0.0675	-0.0340	-0.0188	0.1102	-0.0514	0.0301	-0.0025	0.0027	-0.0016	0.0032	0.0063	0.0078	-0.0100	-0.0087	0.0137	0.0026	-0.0161	-0.0114	-0.0007	0.0047	-0.0021	-0.0010	-0.0001	0.0086	-0.0029	0.0021	0.0044	0.0076	-0.0029	0.0053	-0.0001	0.0007	0.0005	-0.0026	-0.0008	0.0011	0.0010	0.0011	-0.0003	0.0001	-0.0025	0.0038	-0.0619	0.0055	-0.0215	-0.0535	0.0146	0.2279	0.0143	0.0455	0.1600	0.3448	0.0629	0.2461	-0.0027	0.0049	-0.0062	-0.0134	-0.0025	0.0078	-0.0084	-0.0084	0.0005	0.0032	-0.0105	0.0087	-0.0050	0.0058	-0.0026	0.0035	-0.0050	0.0108	-0.0018	0.0066	0.0047	0.0061	0.0009	0.0077	0.0007	0.0006	0.0024	0.0013	0.0003	0.0016	0.0004	0.0003	0.0007	0.0015	-0.0027	-0.0009	-0.0571	0.0932	-0.0128	0.0019	0.0537	0.3380	0.1813	0.1834	0.3180	0.4217	0.3126	0.3533	-0.0046	0.0067	0.0013	-0.0219	-0.0111	0.0091	0.0037	-0.0034	-0.0122	0.0043	0.0004	0.0218	-0.0041	0.0027	-0.0023	0.0087	-0.0016	-0.0001	-0.0002	0.0108	0.0006	0.0004	0.0038	0.0060	-0.0008	-0.0007	0.0036	0.0014	0.0002	0.0012	-0.0001	-0.0029	0.0003	0.0018	-0.0020	-0.0050	0.0857	0.1529	0.2423	0.1069	0.1996	0.2455	0.3133	0.1874	0.2863	0.2630	0.3047	0.2385	-0.0089	0.0057	0.0149	-0.0007	-0.0083	0.0069	0.0135	0.0036	-0.0036	0.0023	0.0084	0.0061	-0.0045	-0.0048	0.0013	0.0005	-0.0051	-0.0026	0.0027	-0.0021	-0.0022	-0.0003	0.0040	-0.0042	0.0006	-0.0005	0.0002	-0.0018	0.0004	-0.0000	-0.0002	-0.0028	-0.0001	-0.0009	-0.0004	-0.0013	-0.0672	-0.0734	0.1222	-0.0539	0.0049	0.0394	0.2213	-0.0019	0.1252	0.1247	0.2548	0.0820	0.0057	0.0060	0.0106	-0.0067	0.0090	0.0068	0.0089	-0.0016	0.0092	0.0015	0.0050	0.0072	-0.0033	-0.0074	-0.0022	-0.0010	-0.0075	-0.0051	-0.0015	-0.0016	-0.0076	-0.0020	0.0004	-0.0035	0.0004	-0.0028	-0.0012	0.0001	0.0004	-0.0026	-0.0033	-0.0006	-0.0002	-0.0025	-0.0042	-0.0009	-0.1800	-0.2001	-0.0937	-0.1719	-0.1691	-0.1055	0.0002	-0.1282	-0.0557	-0.0029	0.0982	-0.0406	0.0112	0.0032	0.0003	-0.0080	0.0143	0.0048	-0.0024	-0.0033	0.0125	0.0011	-0.0039	0.0062	-0.0010	-0.0034	-0.0038	-0.0011	-0.0037	-0.0051	-0.0037	0.0012	-0.0061	-0.0040	-0.0019	0.0002	0.0004	-0.0025	-0.0015	0.0037	0.0005	-0.0023	-0.0038	0.0031	-0.0000	-0.0016	-0.0052	0.0015	0.4057	0.2854	0.2970	0.3333	0.2887	-0.0500	0.0468	0.1253	-0.0533	-0.1928	-0.1401	-0.1235	-0.0074	-0.0073	0.0046	0.0296	-0.0015	-0.0061	0.0039	-0.0035	0.0069	-0.0035	0.0013	-0.0332	0.0037	-0.0017	0.0056	-0.0085	0.0068	0.0032	0.0016	-0.0132	0.0078	0.0063	-0.0028	-0.0091	0.0005	0.0007	-0.0027	-0.0041	-0.0010	-0.0012	0.0031	0.0021	-0.0003	-0.0016	0.0030	0.0062	0.2936	0.1193	0.2976	0.1786	0.2072	0.0210	0.0402	0.0173	-0.0025	-0.0314	-0.1651	-0.0247	0.0089	-0.0064	-0.0082	0.0081	0.0049	-0.0123	-0.0010	-0.0085	0.0016	-0.0047	0.0044	-0.0119	-0.0028	-0.0013	0.0015	-0.0097	-0.0040	0.0117	0.0001	-0.0117	0.0070	0.0094	-0.0006	-0.0048	0.0014	0.0001	-0.0030	0.0011	-0.0010	-0.0016	0.0018	0.0031	0.0007	-0.0013	0.0018	0.0017	0.1351	0.0513	0.1193	0.0609	0.0736	0.0916	0.0598	0.0463	0.0862	0.0738	0.0047	0.0706	0.0141	-0.0053	-0.0089	-0.0122	0.0002	-0.0107	0.0011	-0.0049	-0.0121	-0.0035	0.0059	0.0111	-0.0049	0.0006	-0.0012	-0.0043	-0.0021	0.0047	-0.0003	-0.0030	0.0033	0.0049	0.0021	-0.0010	0.0000	-0.0016	-0.0013	0.0048	-0.0003	-0.0010	0.0012	0.0015	0.0009	0.0006	0.0008	-0.0033	-0.0448	-0.0605	0.1952	-0.0165	0.1254	0.2226	0.2176	0.0050	0.2068	-0.2189	-0.1572	0.0589	-0.0391	-0.0104	0.0332	-0.0272	-0.0288	0.0144	0.0210	0.0686	-0.0086	-0.0026	0.0178	-0.0043	-0.0071	-0.0114	-0.0027	0.0065	-0.0098	0.0052	0.0109	-0.0220	-0.0082	-0.0030	0.0030	0.0000	0.0064	-0.0047	0.0064	-0.0010	-0.0025	0.0031	-0.0056	-0.0147	0.0023	-0.0013	-0.0000	-0.0055	-0.0941	-0.2865	-0.1784	-0.0588	-0.2672	-0.0355	0.1591	-0.1312	0.1499	-0.1588	-0.0604	-0.1285	0.0646	0.0039	-0.0211	-0.0628	0.0528	-0.0112	-0.0547	-0.0062	0.0299	-0.0342	-0.0040	0.0192	0.0124	-0.0002	-0.0123	0.0130	0.0129	0.0054	-0.0035	-0.0066	-0.0134	0.0141	-0.0088	0.0187	-0.0003	-0.0043	0.0001	0.0191	0.0017	0.0036	-0.0098	0.0114	0.0004	0.0011	-0.0091	-0.0017	0.2602	0.2431	-0.2452	0.1610	-0.0246	0.1868	-0.2179	0.2155	0.0900	0.0334	-0.1429	0.0962	-0.0282	-0.0097	0.0032	0.0049	-0.0151	0.0192	-0.0211	-0.0180	-0.0034	-0.0191	-0.0314	0.0114	-0.0058	0.0052	-0.0016	0.0035	0.0130	-0.0139	0.0045	-0.0136	-0.0044	-0.0102	-0.0018	0.0043	0.0004	0.0003	0.0033	-0.0016	0.0041	-0.0008	0.0030	0.0051	-0.0090	0.0059	-0.0014	0.0025	-0.2168	0.0938	0.1102	-0.1291	0.1264	-0.0082	0.1902	0.1511	0.0494	-0.1870	0.1632	-0.0793	0.0054	0.0235	0.0012	-0.0009	0.0285	-0.0166	0.0037	0.0482	-0.0171	-0.0038	0.0188	-0.0214	0.0005	0.0050	0.0004	-0.0043	0.0046	-0.0025	0.0085	0.0186	0.0057	-0.0012	-0.0024	-0.0056	-0.0064	0.0036	-0.0017	-0.0019	0.0010	0.0002	-0.0110	-0.0007	0.0023	-0.0025	0.0026	0.0037	-0.3502	0.1498	0.0161	-0.1764	0.2252	0.0771	-0.0534	0.1226	-0.0676	-0.2536	-0.2410	-0.0646	-0.0044	0.0342	-0.0091	-0.0105	0.0449	-0.0105	-0.0474	0.0742	0.0198	-0.0129	-0.0158	-0.0705	-0.0014	0.0014	-0.0047	-0.0137	-0.0113	-0.0047	0.0041	0.0035	0.0081	-0.0069	-0.0096	-0.0109	0.0029	0.0031	-0.0035	-0.0040	-0.0013	0.0057	-0.0166	-0.0030	-0.0007	-0.0053	0.0020	0.0138	-0.4058	0.0623	0.0337	-0.0995	0.2010	0.1773	0.1863	0.0875	0.1558	-0.0686	-0.1696	0.0232	-0.0016	0.0243	0.0100	-0.0206	-0.0149	-0.0217	-0.0183	0.0806	-0.0209	0.0033	0.0376	-0.0184	0.0072	-0.0045	-0.0011	0.0040	-0.0156	0.0037	0.0094	0.0086	0.0038	0.0114	0.0007	-0.0030	0.0040	0.0005	-0.0009	-0.0024	-0.0020	0.0101	-0.0093	-0.0114	0.0033	-0.0041	0.0055	-0.0041	-0.2791	0.2495	-0.2465	-0.1100	0.0784	0.0877	-0.1077	0.2552	0.0060	-0.0125	-0.0325	-0.0011	-0.0085	0.0051	-0.0063	-0.0124	-0.0398	-0.0231	0.0035	0.0589	-0.0452	0.0281	0.0146	-0.0258	-0.0011	-0.0004	0.0012	-0.0035	-0.0080	-0.0275	0.0003	0.0109	0.0011	-0.0031	0.0023	-0.0137	-0.0001	-0.0020	-0.0020	-0.0045	0.0020	0.0036	-0.0034	-0.0162	-0.0099	0.0006	0.0119	-0.0019	-0.1301	0.0755	0.1717	0.1588	0.1871	-0.3169	0.1790	-0.0640	-0.1471	0.0957	0.0404	-0.2376	-0.0019	0.0158	0.0273	0.0505	-0.0022	0.0055	-0.0102	-0.0071	0.0407	0.0157	0.0063	-0.0426	0.0307	-0.0002	0.0077	0.0025	-0.0032	0.0075	-0.0028	0.0168	0.0050	0.0335	-0.0001	-0.0080	0.0002	0.0022	-0.0059	-0.0128	0.0015	0.0054	0.0043	0.0029	0.0023	-0.0057	0.0022	0.0100	0.0526	0.0109	-0.0227	0.0238	0.0217	0.0216	-0.2845	-0.1184	-0.1720	0.3941	-0.0494	0.1997	0.0199	0.0103	-0.0496	0.0211	0.0121	-0.0197	-0.0190	-0.0648	-0.0089	0.0068	-0.0116	0.0120	-0.0012	-0.0044	0.0011	-0.0132	-0.0255	-0.0007	-0.0097	0.0031	0.0061	-0.0067	-0.0007	-0.0038	0.0078	0.0020	-0.0074	0.0024	-0.0057	-0.0045	0.0054	0.0152	-0.0016	-0.0008	0.0003	0.0023	0.0877	-0.0898	0.1703	0.0776	-0.0586	-0.2405	0.2813	-0.0620	0.0010	0.2127	0.4967	-0.0611	0.0245	-0.0040	0.0076	0.0140	0.0025	-0.0036	0.0312	-0.0490	-0.0007	0.0179	0.0203	0.0182	0.0113	-0.0040	0.0013	0.0009	0.0015	-0.0068	-0.0063	0.0130	-0.0089	0.0084	0.0016	-0.0048	-0.0048	-0.0021	-0.0047	0.0024	0.0028	-0.0062	0.0048	0.0076	0.0001	-0.0010	-0.0012	-0.0013	0.0934	-0.0179	-0.1006	-0.0236	-0.0919	-0.2318	-0.3421	-0.1203	-0.3501	0.0692	0.0093	-0.0572	0.0223	-0.0015	-0.0346	0.0151	0.0462	0.0021	-0.0232	-0.0575	0.0427	0.0063	-0.0471	-0.0386	-0.0005	0.0053	-0.0026	-0.0172	-0.0012	-0.0048	-0.0147	0.0028	0.0059	-0.0135	-0.0093	-0.0057	0.0010	0.0022	-0.0054	0.0029	-0.0006	-0.0053	0.0006	0.0158	-0.0006	-0.0011	-0.0043	0.0149	0.0814	0.1399	0.0391	0.0724	0.1301	0.1172	-0.1274	0.0572	-0.0405	0.1693	-0.0499	0.1508	-0.0138	-0.0102	-0.0039	0.0072	-0.0339	-0.0090	0.0222	0.0037	-0.0228	0.0267	0.0143	-0.0113	-0.0030	0.0088	0.0032	-0.0017	-0.0010	0.0123	-0.0001	0.0107	0.0151	-0.0024	0.0028	0.0002	-0.0001	0.0033	0.0021	-0.0013	-0.0010	0.0021	0.0058	-0.0054	0.0063	-0.0007	0.0050	-0.0019	0.3162	-0.0699	-0.0192	0.0930	-0.1048	0.1190	-0.2508	-0.1457	-0.0260	0.2095	-0.1460	0.2092	-0.0114	-0.0023	-0.0110	0.0406	-0.0274	0.0000	0.0119	-0.0745	-0.0312	-0.0067	0.0051	0.0577	-0.0116	0.0047	0.0045	-0.0000	-0.0064	-0.0051	-0.0018	-0.0188	-0.0162	-0.0267	-0.0021	-0.0052	0.0024	0.0009	0.0025	-0.0014	0.0086	-0.0105	0.0120	0.0022	-0.0062	0.0028	-0.0008	-0.0165	0.0882	0.0144	0.1036	-0.1661	-0.0731	-0.1184	0.0708	0.1466	-0.0081	-0.2137	0.2920	-0.1511	-0.0231	-0.0054	0.0015	-0.0011	0.0481	0.0202	0.0435	0.0172	0.0007	-0.0074	-0.0253	-0.0227	-0.0207	0.0083	-0.0007	-0.0090	0.0295	0.0229	0.0044	0.0171	0.0211	0.0135	-0.0010	0.0172	-0.0125	0.0062	0.0041	-0.0017	-0.0050	-0.0039	-0.0030	-0.0015	0.0063	0.0067	0.0001	0.0066	-0.2834	0.0480	-0.0087	-0.1641	0.1909	0.2584	-0.1156	0.0221	0.0155	0.0419	-0.3638	0.1454	0.0171	0.0060	-0.0139	-0.0562	-0.0018	-0.0238	-0.0427	0.0715	0.0018	0.0122	0.0013	-0.0478	-0.0072	0.0048	-0.0095	-0.0059	-0.0253	-0.0055	0.0009	-0.0017	-0.0040	-0.0167	-0.0020	-0.0178	0.0035	-0.0014	-0.0008	0.0035	0.0060	0.0038	-0.0149	-0.0056	-0.0033	-0.0055	-0.0001	0.0109	0.0589	-0.2543	-0.1064	0.0390	-0.2232	0.2027	0.2455	-0.0634	0.2859	-0.3259	0.0172	0.0361	0.0452	0.0008	-0.0125	-0.0525	0.0145	-0.0292	-0.0048	0.0277	-0.0141	0.0034	0.0113	0.0085	0.0008	0.0026	-0.0065	0.0282	0.0280	0.0056	0.0071	-0.0177	-0.0156	-0.0011	-0.0070	0.0207	-0.0010	-0.0053	0.0066	0.0160	-0.0003	0.0020	-0.0092	0.0005	0.0037	0.0046	-0.0048	-0.0034	0.2541	0.1487	-0.1231	0.0201	-0.1093	-0.0454	-0.0344	0.2020	0.1280	-0.0327	-0.1933	-0.2049	-0.0492	-0.0148	0.0406	0.0285	-0.0214	0.0526	-0.0251	-0.0033	0.0507	-0.0187	-0.0265	-0.0187	-0.0187	-0.0078	0.0013	-0.0008	0.0095	-0.0156	0.0041	-0.0328	-0.0165	0.0145	-0.0056	0.0066	-0.0074	-0.0014	0.0062	-0.0117	0.0139	0.0005	0.0034	-0.0009	-0.0198	0.0031	-0.0054	0.0109	-0.0676	-0.2081	0.2344	-0.1080	0.0116	-0.0485	0.0622	-0.2274	-0.0141	0.3233	0.0426	0.0873	0.0201	-0.0013	-0.0060	0.0008	0.0035	-0.0060	0.0197	-0.0390	-0.0227	-0.0104	0.0142	0.0548	0.0048	0.0102	-0.0031	-0.0004	-0.0160	0.0193	-0.0058	0.0163	-0.0038	0.0142	0.0093	-0.0008	-0.0033	0.0039	-0.0020	-0.0033	0.0072	-0.0046	0.0077	0.0012	0.0005	0.0014	-0.0006	-0.0080	0.1550	0.0737	-0.4709	0.1176	-0.3277	0.0310	-0.0418	0.1961	0.1190	-0.1245	0.3456	0.0287	0.0078	0.0064	0.0012	0.0110	-0.0132	-0.0097	0.0064	-0.0361	-0.0287	0.0030	-0.0042	0.0344	-0.0188	-0.0252	-0.0053	-0.0025	0.0223	-0.0240	0.0020	-0.0102	0.0032	-0.0033	0.0031	0.0259	0.0016	-0.0054	0.0073	-0.0088	-0.0242	-0.0010	0.0059	0.0020	0.0002	0.0077	-0.0061	0.0013	0.1574	-0.1881	0.3185	-0.0655	0.0376	0.0752	0.0344	-0.1708	0.0363	-0.0634	-0.2199	0.0196	-0.0385	-0.0055	0.0028	0.0082	0.0243	0.0269	0.0168	0.0046	0.0368	-0.0116	-0.0129	-0.0133	0.0059	0.0315	0.0007	0.0222	0.0151	0.0253	0.0043	-0.0111	-0.0176	-0.0205	-0.0053	-0.0070	-0.0080	0.0094	0.0092	-0.0026	0.0326	-0.0079	-0.0037	-0.0028	-0.0039	-0.0019	-0.0054	0.0050	-0.0465	0.1202	-0.2436	-0.0603	-0.0797	0.0521	-0.0233	0.2124	0.0862	-0.1043	0.0564	-0.0424	0.0157	-0.0196	0.0016	-0.0461	-0.0039	0.0059	-0.0169	0.0340	-0.0166	-0.0149	-0.0037	0.0033	-0.0191	-0.0148	-0.0043	-0.0112	0.0042	-0.0156	0.0022	-0.0002	0.0080	0.0101	-0.0005	0.0083	-0.0048	-0.0055	-0.0033	0.0133	-0.0125	0.0048	-0.0035	0.0001	-0.0031	0.0041	0.0040	-0.0035	0.1953	-0.0334	0.0560	0.0441	-0.0468	0.0371	0.0242	-0.0072	0.0677	-0.1363	-0.1411	-0.0628	-0.0174	0.0183	0.0189	0.0281	0.0019	-0.0041	0.0016	0.0001	0.0180	0.0201	-0.0204	-0.0297	-0.0162	-0.0065	-0.0008	-0.0019	0.0066	0.0082	0.0064	-0.0197	0.0002	0.0161	-0.0047	0.0113	-0.0028	-0.0014	0.0067	-0.0056	-0.0026	0.0008	-0.0019	-0.0008	-0.0046	0.0038	-0.0020	0.0066	-0.1139	0.0398	0.0604	-0.2990	-0.0111	-0.0740	-0.0144	0.1148	0.0385	0.3183	-0.0015	-0.0865	0.0361	0.0106	-0.0483	-0.0391	0.0058	-0.0524	0.0016	0.0023	-0.0393	0.0160	0.0436	0.0318	0.0016	0.0247	-0.0030	-0.0082	-0.0142	-0.0095	-0.0056	0.0316	-0.0086	0.0066	0.0056	-0.0223	-0.0171	0.0071	-0.0051	0.0115	0.0349	-0.0075	-0.0050	-0.0013	-0.0205	-0.0009	0.0083	-0.0108	-0.2585	0.3560	-0.0525	0.1077	0.2858	-0.3050	-0.1011	0.1498	-0.3577	0.0350	0.2790	-0.1173	-0.0153	-0.0056	0.0375	0.0266	-0.0043	0.0295	-0.0043	0.0126	0.0098	-0.0045	-0.0276	-0.0364	0.0165	-0.0018	0.0069	-0.0229	-0.0064	-0.0244	-0.0047	0.0379	0.0227	0.0090	0.0060	-0.0240	-0.0005	-0.0003	-0.0129	-0.0099	-0.0147	0.0051	0.0055	0.0009	0.0046	-0.0029	0.0087	0.0076	-0.2438	0.0954	-0.1741	0.1233	0.0297	-0.0058	0.2416	0.0502	0.2623	0.0194	-0.3580	-0.1512	0.0346	-0.0441	0.0512	0.0149	-0.1818	-0.0228	0.0187	0.0375	0.0380	0.0836	0.0619	0.0631	0.0153	-0.0140	0.0258	0.0215	-0.0171	-0.0170	0.0009	-0.0052	-0.0173	0.0288	0.0375	-0.0074	-0.0052	-0.0101	-0.0044	-0.0023	0.0110	0.0125	0.0067	-0.0115	-0.0032	-0.0070	-0.0017	-0.0075	0.1704	0.0040	0.0603	0.0573	-0.0831	-0.1362	-0.1796	-0.1074	-0.0881	0.1677	0.1626	0.0676	-0.0061	0.0557	-0.0477	0.1144	0.1084	0.0315	-0.0287	-0.1791	0.0033	-0.1234	-0.0609	0.1310	0.0086	0.0034	-0.0001	-0.0210	-0.0022	-0.0061	-0.0161	0.0034	-0.0122	-0.0099	-0.0024	0.0135	0.0049	0.0100	-0.0050	-0.0148	-0.0005	-0.0148	0.0095	0.0354	-0.0093	0.0071	-0.0112	-0.0084	-0.1292	0.0009	0.1245	-0.1994	0.0721	0.1619	-0.0107	0.0788	0.0388	-0.3393	0.0509	0.0683	-0.0248	-0.0412	-0.0189	-0.0225	-0.0434	-0.0092	0.1120	0.0761	-0.0361	0.0595	-0.0346	0.0046	-0.0236	0.0066	0.0146	0.0007	0.0117	0.0175	0.0024	0.0162	0.0144	-0.0217	0.0258	-0.0057	-0.0025	0.0055	0.0017	0.0040	-0.0061	-0.0057	-0.0031	-0.0197	0.0103	0.0098	0.0046	0.0031	0.0509	0.0077	-0.0821	0.0420	0.0717	0.1784	-0.1313	0.1085	-0.0631	0.0852	-0.0372	0.0414	-0.1850	-0.0648	0.0915	-0.0540	-0.1096	0.0068	0.1575	0.2211	-0.1932	0.1112	0.0691	-0.0691	-0.0504	-0.0435	0.0008	0.0159	-0.0370	-0.0384	0.0837	-0.0186	-0.0040	-0.0275	0.0115	-0.0667	0.0346	-0.0132	0.0190	-0.0090	-0.0090	-0.0248	-0.0058	-0.0339	-0.0297	0.0003	0.0288	-0.0106	0.0940	-0.1755	-0.1283	-0.0484	-0.0240	0.0187	-0.0237	-0.0052	-0.2162	0.0269	-0.0207	-0.0739	0.0974	0.0932	-0.0654	-0.1977	0.2684	-0.0523	-0.2688	0.1399	0.0885	-0.0742	-0.0341	-0.2597	-0.0097	-0.0122	-0.0766	0.0167	-0.0022	-0.0088	-0.0164	-0.0211	0.0247	0.0091	-0.0738	-0.0416	0.0058	-0.0040	0.0148	0.0242	-0.0021	0.0105	-0.0413	0.0154	-0.0045	-0.0176	-0.0001	0.0240	0.0565	-0.0828	0.0558	0.0176	0.0347	-0.0668	0.2574	-0.0088	-0.0307	0.0430	0.0852	-0.0585	-0.0726	-0.0372	0.1625	-0.0481	-0.1580	-0.0038	0.0190	0.1596	-0.0605	0.0927	0.1649	-0.0598	0.0050	0.0232	-0.0013	0.0542	0.0153	0.0332	0.0674	0.0274	0.0466	0.0443	0.0067	-0.0039	-0.0309	-0.0040	0.0213	-0.0092	0.0067	0.0314	0.0094	-0.0214	0.0330	-0.0138	0.0186	-0.0153	0.0901	-0.1829	-0.0264	-0.0283	-0.1085	-0.0142	0.1954	0.0769	0.1777	0.0611	-0.1827	-0.2884	0.0448	0.0736	-0.0701	-0.1559	0.1374	-0.1221	-0.0607	0.1074	0.0278	0.0488	0.0131	-0.0626	-0.0039	0.0202	-0.0507	0.0160	0.0181	0.0433	0.0120	0.0461	0.0257	0.0218	-0.0041	-0.0169	-0.0057	0.0143	0.0187	0.0225	0.0229	0.0018	-0.0274	0.0127	-0.0064	0.0019	0.0050	0.0102	0.0060	-0.0264	0.0442	-0.0186	0.2174	0.0649	-0.0126	0.0866	-0.1987	0.1054	0.1583	0.0438	-0.1796	-0.0804	0.1608	-0.1559	-0.0568	0.0643	0.0529	0.2896	-0.1387	0.0250	0.0469	-0.0729	-0.0291	-0.0060	-0.0197	0.0487	-0.0246	-0.0228	0.0954	0.0276	0.0312	0.0103	0.0161	-0.0649	0.0067	-0.0095	0.0271	-0.0049	-0.0018	0.0039	-0.0048	-0.0172	-0.0091	-0.0066	0.0275	0.0030	0.1251	-0.0946	-0.2426	0.0925	-0.0400	0.1063	0.0275	-0.0339	-0.0847	-0.0599	-0.0990	0.0774	0.1058	0.0767	0.0167	-0.1474	0.0634	-0.0980	-0.2151	0.0962	0.0621	0.0221	0.0294	-0.1245	0.0033	-0.0305	-0.0523	0.0105	-0.0330	-0.0344	0.0043	-0.0247	0.0087	0.0043	-0.0274	-0.0319	-0.0002	-0.0211	0.0078	0.0184	-0.0169	0.0164	-0.0233	0.0135	0.0154	-0.0231	-0.0029	0.0118	0.2782	0.0567	0.0450	-0.1655	-0.1994	0.0019	-0.0494	0.0916	0.2487	0.0402	-0.1551	0.0118	-0.0373	0.0455	-0.0034	0.0694	-0.1505	-0.0877	0.0771	-0.1323	-0.0243	0.0715	0.0856	0.2271	-0.0033	-0.0005	0.0080	-0.0342	-0.0376	-0.0223	-0.0012	0.0001	-0.0391	-0.0038	0.0506	0.0110	-0.0181	0.0052	-0.0019	-0.0118	0.0353	-0.0158	0.0174	-0.0033	-0.0093	-0.0033	-0.0075	-0.0237	-0.2803	0.1075	0.0603	-0.1105	0.1304	-0.0940	-0.1527	-0.0303	-0.0603	-0.0755	0.0302	0.0320	0.0623	-0.0488	-0.0609	-0.0409	0.0747	0.1033	-0.0037	-0.1427	0.1102	-0.1337	-0.1889	0.1019	0.0264	0.0124	0.0026	-0.0415	-0.0069	-0.0238	-0.0916	0.0150	-0.0346	-0.0160	0.0128	0.0211	0.0053	0.0029	-0.0261	0.0019	-0.0017	-0.0050	0.0076	-0.0019	-0.0155	0.0125	-0.0184	0.0147	0.0634	-0.0861	-0.0902	0.3735	-0.1058	-0.0520	0.1336	-0.1796	0.1596	0.0240	0.0086	-0.0124	0.0089	0.0544	0.0246	0.0762	-0.0413	-0.0504	0.0717	-0.1231	-0.0459	0.0235	0.0059	0.1304	0.0359	0.0040	0.0015	-0.0091	0.0181	0.0257	-0.0066	0.0251	-0.0035	0.0049	0.0224	0.0318	0.0092	-0.0002	-0.0039	-0.0092	-0.0227	0.0021	0.0231	-0.0027	0.0147	0.0153	-0.0053	-0.0152	-0.0000	0.0000	-0.0001	0.0000	0.0000	0.0000	-0.0000	0.0000	-0.0000	-0.0000	-0.0000	0.0000	-0.0000	-0.0000	0.0001	-0.0000	-0.0000	0.0000	-0.0000	0.0000	0.0000	-0.0000	-0.0000	-0.0000	0.0000	0.0000	-0.0000	0.0000	0.0000	-0.0000	0.0000	0.0000	-0.0000	-0.0000	0.0000	0.0000	-0.0000	0.0000	0.0000	-0.0000	0.0000	0.0000	0.0000	-0.0000	0.0000	-0.0000	-0.0000	0.0000	0.0000	0.0000	0.0000	-0.0000	0.0000	-0.0000	0.0000	0.0000	0.0000	0.0000	0.0000	-0.0000	-0.0000	-0.0000	-0.0000	-0.0000	0.0000	0.0000	0.0000	-0.0000	-0.0000	-0.0000	0.0000	0.0000	0.0000	0.0000	0.0000	-0.0000	0.0000	-0.0000	0.0000	0.0000	0.0000	0.0000	0.0000	0.0000	0.0000	0.0000	-0.0000	0.0000	-0.0000	0.0000	0.0000	0.0000	-0.0000	0.0000	0.0000	-0.0000	-0.0000	-0.0000	-0.0000	-0.0000	-0.0000	-0.0000	-0.0000	-0.0000	-0.0000	0.0000	0.0000	0.0000	0.0000	0.0000	-0.0000	-0.0000	-0.0000	-0.0000	0.0000	-0.0000	-0.0000	-0.0000	-0.0000	0.0000	0.0000	-0.0000	-0.0000	0.0000	-0.0000	0.0000	-0.0000	-0.0000	0.0000	0.0000	0.0000	0.0000	-0.0000	-0.0000	-0.0000	-0.0000	0.0000	0.0000	0.0000	-0.0000	0.0000	-0.0000	0.0000	0.0000	-0.0000	0.0000	-0.0000	0.0000	0.0000	0.0000	-0.0000	0.0000	-0.0000	-0.0000	-0.0000	0.0000	-0.0000	-0.0000	0.0000	-0.0000	-0.0000	0.0000	-0.0000	0.0000	0.0000	-0.0000	-0.0000	-0.0000	0.0000	0.0000	-0.0000	0.0000	0.0000	-0.0000	0.0000	0.0000	-0.0000	-0.0000	0.0000	0.0000	-0.0000	0.0000	0.0000	-0.0000	0.0000	0.0000	0.0000	-0.0000	0.0000	-0.0000	-0.0000	0.0000	0.0000	0.0000	0.0000	-0.0000	0.0000	-0.0000	0.0000	0.0000	0.0000	0.0000	0.0000	-0.0000	-0.0000	-0.0000	-0.0000	-0.0000	0.0000	0.0000	0.0000	-0.0000	-0.0000	-0.0000	0.0000	0.0000	0.0000	0.0000	0.0000	-0.0000	0.0000	-0.0000	0.0000	0.0000	0.0000	0.0000	0.0000	0.0000	0.0000	0.0000	-0.0000	0.0000	-0.0000	0.0000	0.0000	0.0000	-0.0000	0.0000	0.0000	-0.0000	-0.0000	-0.0000	-0.0000	-0.0000	-0.0000	-0.0000	-0.0000	-0.0000	-0.0000	0.0000	0.0000	0.0000	0.0000	0.0000	-0.0000	-0.0000	-0.0000	-0.0000	0.0000	-0.0000	-0.0000	-0.0000	-0.0000	0.0000	0.0000	-0.0000	-0.0000	0.0000	-0.0000	0.0000	-0.0000	-0.0000	0.0000	0.0000	0.0000	0.0000	-0.0000	-0.0000	-0.0000	-0.0000	0.0000	0.0000	0.0000	-0.0000	0.0000	-0.0000	0.0000	0.0000	0.0000	-0.0000	0.0001	-0.0000	-0.0000	-0.0000	0.0000	-0.0000	0.0000	0.0000	0.0000	-0.0000	0.0000	0.0000	-0.0001	0.0000	0.0000	-0.0000	0.0000	-0.0000	-0.0000	0.0000	0.0000	0.0000	-0.0000	-0.0000	0.0000	-0.0000	-0.0000	0.0000	-0.0000	-0.0000	0.0000	0.0000	-0.0000	-0.0000	0.0000	-0.0000	-0.0000	0.0000	-0.0000	-0.0000	-0.0000	0.0000	-0.0000	0.0000	0.0000	-0.0000	-0.0000	-0.0000	-0.0000	0.0000	-0.0000	0.0000	-0.0000	-0.0000	-0.0000	-0.0000	-0.0000	0.0000	0.0000	0.0000	0.0000	0.0000	-0.0000	-0.0000	-0.0000	0.0000	0.0000	0.0000	-0.0000	-0.0000	-0.0000	-0.0000	-0.0000	0.0000	-0.0000	0.0000	-0.0000	-0.0000	-0.0000	-0.0000	-0.0000	-0.0000	-0.0000	-0.0000	0.0000	-0.0000	0.0000	-0.0000	-0.0000	-0.0000	0.0000	-0.0000	-0.0000	0.0000	0.0000	0.0000	0.0000	0.0000	0.0000	0.0000	0.0000	0.0000	0.0000	-0.0000	-0.0000	-0.0000	-0.0000	-0.0000	0.0000	0.0000	0.0000	0.0000	-0.0000	0.0000	0.0000	0.0000	0.0000	-0.0000	-0.0000	0.0000	0.0000	-0.0000	0.0000	-0.0000	0.0000	0.0000	-0.0000	-0.0000	-0.0000	-0.0000	0.0000	0.0000	0.0000	0.0000	-0.0000	-0.0000	-0.0000	0.0000	-0.0000	0.0000	-0.0000	-0.0000	0.0000	-0.0000	0.0001	-0.0000	-0.0000	-0.0000	0.0000	-0.0000	0.0000	0.0000	0.0000	-0.0000	0.0000	0.0000	-0.0001	0.0000	0.0000	-0.0000	0.0000	-0.0000	-0.0000	0.0000	0.0000	0.0000	-0.0000	-0.0000	0.0000	-0.0000	-0.0000	0.0000	-0.0000	-0.0000	0.0000	0.0000	-0.0000	-0.0000	0.0000	-0.0000	-0.0000	0.0000	-0.0000	-0.0000	-0.0000	0.0000	-0.0000	0.0000	0.0000	-0.0000	-0.0000	-0.0000	-0.0000	0.0000	-0.0000	0.0000	-0.0000	-0.0000	-0.0000	-0.0000	-0.0000	0.0000	0.0000	0.0000	0.0000	0.0000	-0.0000	-0.0000	-0.0000	0.0000	0.0000	0.0000	-0.0000	-0.0000	-0.0000	-0.0000	-0.0000	0.0000	-0.0000	0.0000	-0.0000	-0.0000	-0.0000	-0.0000	-0.0000	-0.0000	-0.0000	-0.0000	0.0000	-0.0000	0.0000	-0.0000	-0.0000	-0.0000	0.0000	-0.0000	-0.0000	0.0000	0.0000	0.0000	0.0000	0.0000	0.0000	0.0000	0.0000	0.0000	0.0000	-0.0000	-0.0000	-0.0000	-0.0000	-0.0000	0.0000	0.0000	0.0000	0.0000	-0.0000	0.0000	0.0000	0.0000	0.0000	-0.0000	-0.0000	0.0000	0.0000	-0.0000	0.0000	-0.0000	0.0000	0.0000	-0.0000	-0.0000	-0.0000	-0.0000	0.0000	0.0000	0.0000	0.0000	-0.0000	-0.0000	-0.0000	0.0000	-0.0000	0.0000	-0.0000	-0.0000	0.0000	-0.0000	0.0000	-0.0000	-0.0000	0.0000	-0.0000	0.0000	-0.0000	0.0000	-0.0000	0.0000	0.0000	0.0000	-0.0001	0.0000	0.0000	-0.0000	0.0000	-0.0000	-0.0000	0.0000	0.0000	0.0000	-0.0000	-0.0000	0.0000	-0.0000	-0.0000	0.0000	-0.0000	-0.0000	0.0000	0.0000	-0.0000	-0.0000	0.0000	-0.0000	-0.0000	0.0000	-0.0000	-0.0000	-0.0000	0.0000	-0.0000	0.0000	0.0000	-0.0000	-0.0000	0.0000	-0.0000	0.0000	0.0000	0.0000	0.0000	-0.0000	-0.0000	0.0000	0.0000	0.0000	-0.0000	0.0000	0.0000	0.0000	-0.0000	-0.0000	-0.0000	0.0000	0.0000	0.0000	-0.0000	-0.0000	-0.0000	-0.0000	-0.0000	0.0000	-0.0000	0.0000	-0.0000	0.0000	-0.0000	0.0000	-0.0000	-0.0000	-0.0000	-0.0000	0.0000	-0.0000	0.0000	-0.0000	0.0000	-0.0000	0.0000	-0.0000	-0.0000	0.0000	0.0000	0.0000	0.0000	0.0000	0.0000	-0.0000	-0.0000	-0.0000	-0.0000	0.0000	0.0000	-0.0000	-0.0000	-0.0000	0.0000	0.0000	0.0000	0.0000	-0.0000	-0.0000	0.0000	0.0000	0.0000	-0.0000	-0.0000	0.0000	0.0000	-0.0000	0.0000	-0.0000	0.0000	0.0000	-0.0000	-0.0000	-0.0000	-0.0000	0.0000	0.0000	0.0000	0.0000	-0.0000	-0.0000	-0.0000	0.0000	-0.0000	0.0000	-0.0000	-0.0000	0.0000	-0.0000	0.0000	-0.0000	-0.0000	0.0000	-0.0000	0.0000	-0.0000	0.0000	-0.0000	0.0000	0.0000	0.0000	-0.0000	0.0000	0.0000	-0.0000	0.0000	-0.0000	-0.0000	0.0000	0.0000	0.0000	-0.0000	-0.0000	0.0000	-0.0000	-0.0000	0.0000	-0.0000	-0.0000	0.0000	0.0000	-0.0000	-0.0000	0.0000	-0.0000	-0.0000	0.0000	-0.0000	-0.0000	-0.0000	0.0000	-0.0000	0.0000	0.0000	-0.0000	-0.0000	0.0000	-0.0000	0.0000	0.0000	0.0000	0.0000	-0.0000	-0.0000	0.0000	0.0000	0.0000	-0.0000	0.0000	0.0000	0.0000	-0.0000	-0.0000	-0.0000	0.0000	0.0000	0.0000	-0.0000	-0.0000	-0.0000	-0.0000	-0.0000	0.0000	-0.0000	0.0000	-0.0000	0.0000	-0.0000	0.0000	-0.0000	-0.0000	-0.0000	-0.0000	0.0000	-0.0000	0.0000	-0.0000	0.0000	-0.0000	0.0000	-0.0000	-0.0000	0.0000	0.0000	0.0000	0.0000	0.0000	0.0000	-0.0000	-0.0000	-0.0000	-0.0000	0.0000	0.0000	-0.0000	-0.0000	-0.0000	0.0000	0.0000	0.0000	0.0000	-0.0000	-0.0000	0.0000	0.0000	0.0000	-0.0000	-0.0000	0.0000	0.0000	-0.0000	0.0000	-0.0000	0.0000	0.0000	-0.0000	-0.0000	-0.0000	-0.0000	0.0000	0.0000	0.0000	0.0000	-0.0000	-0.0000	-0.0000	0.0000	-0.0000	0.0000	-0.0000	-0.0000	-0.0000	0.0000	-0.0001	0.0000	0.0000	-0.0000	0.0000	-0.0000	0.0000	-0.0000	0.0000	-0.0000	-0.0000	-0.0000	0.0001	-0.0000	-0.0000	0.0000	-0.0000	0.0000	0.0000	-0.0000	-0.0000	-0.0000	0.0000	0.0000	-0.0000	0.0000	0.0000	-0.0000	0.0000	0.0000	-0.0000	-0.0000	0.0000	0.0000	-0.0000	0.0000	0.0000	-0.0000	0.0000	0.0000	0.0000	-0.0000	0.0000	-0.0000	-0.0000	0.0000	0.0000	-0.0000	0.0000	-0.0000	-0.0000	-0.0000	-0.0000	0.0000	0.0000	-0.0000	-0.0000	-0.0000	0.0000	-0.0000	-0.0000	-0.0000	0.0000	0.0000	0.0000	-0.0000	-0.0000	-0.0000	0.0000	0.0000	0.0000	0.0000	0.0000	-0.0000	0.0000	-0.0000	0.0000	-0.0000	0.0000	-0.0000	0.0000	0.0000	0.0000	0.0000	-0.0000	0.0000	-0.0000	0.0000	-0.0000	0.0000	-0.0000	0.0000	0.0000	-0.0000	-0.0000	-0.0000	-0.0000	-0.0000	-0.0000	0.0000	0.0000	0.0000	0.0000	-0.0000	-0.0000	0.0000	0.0000	0.0000	-0.0000	-0.0000	-0.0000	-0.0000	0.0000	0.0000	-0.0000	-0.0000	-0.0000	0.0000	0.0000	-0.0000	-0.0000	0.0000	-0.0000	0.0000	-0.0000	-0.0000	0.0000	0.0000	0.0000	0.0000	-0.0000	-0.0000	-0.0000	-0.0000	0.0000	0.0000	0.0000	-0.0000	0.0000	-0.0000	0.0000	0.0000	0.0000	-0.0000	0.0001	-0.0000	-0.0000	0.0000	-0.0000	0.0000	-0.0000	0.0000	-0.0000	0.0000	0.0000	0.0000	-0.0001	0.0000	0.0000	-0.0000	0.0000	-0.0000	-0.0000	0.0000	0.0000	0.0000	-0.0000	-0.0000	0.0000	-0.0000	-0.0000	0.0000	-0.0000	-0.0000	0.0000	0.0000	-0.0000	-0.0000	0.0000	-0.0000	-0.0000	0.0000	-0.0000	-0.0000	-0.0000	0.0000	-0.0000	0.0000	0.0000	-0.0000	-0.0000	0.0000	-0.0000	0.0000	0.0000	0.0000	0.0000	-0.0000	-0.0000	0.0000	0.0000	0.0000	-0.0000	0.0000	0.0000	0.0000	-0.0000	-0.0000	-0.0000	0.0000	0.0000	0.0000	-0.0000	-0.0000	-0.0000	-0.0000	-0.0000	0.0000	-0.0000	0.0000	-0.0000	0.0000	-0.0000	0.0000	-0.0000	-0.0000	-0.0000	-0.0000	0.0000	-0.0000	0.0000	-0.0000	0.0000	-0.0000	0.0000	-0.0000	-0.0000	0.0000	0.0000	0.0000	0.0000	0.0000	0.0000	-0.0000	-0.0000	-0.0000	-0.0000	0.0000	0.0000	-0.0000	-0.0000	-0.0000	0.0000	0.0000	0.0000	0.0000	-0.0000	-0.0000	0.0000	0.0000	0.0000	-0.0000	-0.0000	0.0000	0.0000	-0.0000	0.0000	-0.0000	0.0000	0.0000	-0.0000	-0.0000	-0.0000	-0.0000	0.0000	0.0000	0.0000	0.0000	-0.0000	-0.0000	-0.0000	0.0000	-0.0000	0.0000	-0.0000	-0.0000	-0.0000	0.0000	-0.0000	0.0000	0.0000	-0.0000	0.0000	-0.0000	-0.0000	0.0000	-0.0000	-0.0000	-0.0000	-0.0000	0.0000	-0.0000	-0.0000	0.0000	-0.0000	0.0000	0.0000	-0.0000	-0.0000	-0.0000	0.0000	0.0000	-0.0000	0.0000	0.0000	-0.0000	0.0000	0.0000	-0.0000	-0.0000	0.0000	0.0000	-0.0000	0.0000	0.0000	-0.0000	0.0000	0.0000	0.0000	-0.0000	0.0000	-0.0000	-0.0000	0.0000	0.0000	0.0000	0.0000	-0.0000	-0.0000	-0.0000	-0.0000	0.0000	0.0000	-0.0000	0.0000	-0.0000	0.0000	-0.0000	-0.0000	-0.0000	0.0000	0.0000	0.0000	-0.0000	-0.0000	-0.0000	0.0000	0.0000	0.0000	0.0000	0.0000	-0.0000	0.0000	-0.0000	0.0000	0.0000	0.0000	0.0000	0.0000	0.0000	0.0000	0.0000	-0.0000	0.0000	-0.0000	0.0000	-0.0000	0.0000	-0.0000	0.0000	0.0000	-0.0000	-0.0000	-0.0000	0.0000	0.0000	0.0000	0.0000	0.0000	-0.0000	0.0000	-0.0000	-0.0000	0.0000	-0.0000	0.0000	-0.0000	-0.0000	-0.0000	-0.0000	0.0000	-0.0000	-0.0000	-0.0000	-0.0000	0.0000	0.0000	-0.0000	-0.0000	0.0000	-0.0000	0.0000	-0.0000	-0.0000	0.0000	0.0000	0.0000	0.0000	-0.0000	-0.0000	-0.0000	-0.0000	0.0000	0.0000	0.0000	-0.0000	0.0000	-0.0000	0.0000	0.0000	-0.0000	0.0000	-0.0000	0.0000	0.0000	-0.0000	0.0000	-0.0000	-0.0000	0.0000	-0.0000	-0.0000	-0.0000	-0.0000	0.0000	-0.0000	-0.0000	0.0000	-0.0000	0.0000	0.0000	-0.0000	-0.0000	-0.0000	0.0000	0.0000	-0.0000	0.0000	0.0000	-0.0000	0.0000	0.0000	-0.0000	-0.0000	0.0000	0.0000	-0.0000	0.0000	0.0000	-0.0000	0.0000	0.0000	0.0000	-0.0000	0.0000	-0.0000	-0.0000	0.0000	0.0000	0.0000	0.0000	-0.0000	-0.0000	-0.0000	-0.0000	0.0000	0.0000	-0.0000	0.0000	-0.0000	0.0000	-0.0000	-0.0000	-0.0000	0.0000	0.0000	0.0000	-0.0000	-0.0000	-0.0000	0.0000	0.0000	0.0000	0.0000	0.0000	-0.0000	0.0000	-0.0000	0.0000	0.0000	0.0000	0.0000	0.0000	0.0000	0.0000	0.0000	-0.0000	0.0000	-0.0000	0.0000	-0.0000	0.0000	-0.0000	0.0000	0.0000	-0.0000	-0.0000	-0.0000	0.0000	0.0000	0.0000	0.0000	0.0000	-0.0000	0.0000	-0.0000	-0.0000	0.0000	-0.0000	0.0000	-0.0000	-0.0000	-0.0000	-0.0000	0.0000	-0.0000	-0.0000	-0.0000	-0.0000	0.0000	0.0000	-0.0000	-0.0000	0.0000	-0.0000	0.0000	-0.0000	-0.0000	0.0000	0.0000	0.0000	0.0000	-0.0000	-0.0000	-0.0000	-0.0000	0.0000	0.0000	0.0000	-0.0000	0.0000	-0.0000	0.0000	0.0000	-0.0000	0.0000	-0.0000	0.0000	0.0000	-0.0000	0.0000	-0.0000	-0.0000	0.0000	-0.0000	-0.0000	-0.0000	-0.0000	0.0001	-0.0000	-0.0000	0.0000	-0.0000	0.0000	0.0000	-0.0000	-0.0000	-0.0000	0.0000	0.0000	-0.0000	0.0000	0.0000	-0.0000	0.0000	0.0000	-0.0000	-0.0000	0.0000	0.0000	-0.0000	0.0000	0.0000	-0.0000	0.0000	0.0000	0.0000	-0.0000	0.0000	-0.0000	-0.0000	0.0000	0.0000	0.0000	0.0000	-0.0000	-0.0000	-0.0000	-0.0000	0.0000	0.0000	-0.0000	0.0000	-0.0000	0.0000	-0.0000	-0.0000	-0.0000	0.0000	0.0000	0.0000	-0.0000	-0.0000	-0.0000	0.0000	0.0000	0.0000	0.0000	0.0000	-0.0000	0.0000	-0.0000	0.0000	0.0000	0.0000	0.0000	0.0000	0.0000	0.0000	0.0000	-0.0000	0.0000	-0.0000	0.0000	-0.0000	0.0000	-0.0000	0.0000	0.0000	-0.0000	-0.0000	-0.0000	0.0000	0.0000	0.0000	0.0000	0.0000	-0.0000	0.0000	-0.0000	-0.0000	0.0000	-0.0000	0.0000	-0.0000	-0.0000	-0.0000	-0.0000	0.0000	-0.0000	-0.0000	-0.0000	-0.0000	0.0000	0.0000	-0.0000	-0.0000	0.0000	-0.0000	0.0000	-0.0000	-0.0000	0.0000	0.0000	0.0000	0.0000	-0.0000	-0.0000	-0.0000	-0.0000	0.0000	0.0000	0.0000	-0.0000	0.0000	-0.0000	0.0000	0.0000	0.0000	-0.0000	0.0000	-0.0000	-0.0000	0.0000	-0.0000	0.0000	0.0000	-0.0000	0.0000	0.0000	0.0000	0.0000	-0.0000	0.0000	0.0000	-0.0000	0.0000	-0.0000	-0.0000	0.0000	0.0000	0.0000	-0.0000	-0.0000	0.0000	-0.0000	-0.0000	0.0000	-0.0000	-0.0000	0.0000	0.0000	-0.0000	-0.0000	0.0000	-0.0000	-0.0000	0.0000	-0.0000	-0.0000	-0.0000	0.0000	-0.0000	0.0000	0.0000	-0.0000	-0.0000	-0.0000	-0.0000	0.0000	0.0000	0.0000	0.0000	-0.0000	-0.0000	0.0000	-0.0000	0.0000	-0.0000	0.0000	0.0000	0.0000	-0.0000	-0.0000	-0.0000	0.0000	0.0000	0.0000	-0.0000	-0.0000	-0.0000	-0.0000	-0.0000	0.0000	-0.0000	0.0000	-0.0000	-0.0000	-0.0000	-0.0000	-0.0000	-0.0000	-0.0000	-0.0000	0.0000	-0.0000	0.0000	-0.0000	0.0000	-0.0000	0.0000	-0.0000	-0.0000	0.0000	0.0000	0.0000	-0.0000	-0.0000	-0.0000	-0.0000	-0.0000	0.0000	-0.0000	0.0000	0.0000	-0.0000	0.0000	-0.0000	0.0000	0.0000	0.0000	0.0000	-0.0000	0.0000	0.0000	0.0000	0.0000	-0.0000	-0.0000	0.0000	0.0000	-0.0000	0.0000	-0.0000	0.0000	0.0000	-0.0000	-0.0000	-0.0000	-0.0000	0.0000	0.0000	0.0000	0.0000	-0.0000	-0.0000	-0.0000	0.0000	-0.0000	0.0000	-0.0000	-0.0000	-0.0000	0.0000	-0.0000	0.0000	0.0000	-0.0000	0.0000	-0.0000	-0.0000	0.0000	0.0000	-0.0000	-0.0000	0.0000	0.0001	-0.0000	-0.0000	0.0000	-0.0000	0.0000	0.0000	-0.0000	-0.0000	-0.0000	0.0000	0.0000	-0.0000	0.0000	0.0000	-0.0000	0.0000	0.0000	-0.0000	-0.0000	0.0000	0.0000	-0.0000	0.0000	0.0000	-0.0000	0.0000	0.0000	0.0000	-0.0000	0.0000	-0.0000	-0.0000	0.0000	0.0000	0.0000	0.0000	-0.0000	-0.0000	0.0000	-0.0000	0.0000	0.0000	-0.0000	0.0000	-0.0000	-0.0000	-0.0000	-0.0000	-0.0000	-0.0000	0.0000	0.0000	-0.0000	-0.0000	0.0000	0.0000	0.0000	0.0000	0.0000	0.0000	-0.0000	0.0000	-0.0000	0.0000	0.0000	0.0000	0.0000	0.0000	0.0000	0.0000	0.0000	-0.0000	0.0000	-0.0000	0.0000	-0.0000	0.0000	-0.0000	0.0000	0.0000	-0.0000	0.0000	-0.0000	-0.0000	0.0000	-0.0000	-0.0000	0.0000	-0.0000	0.0000	0.0000	-0.0000	0.0000	0.0000	0.0000	-0.0000	-0.0000	-0.0000	-0.0000	-0.0000	-0.0000	0.0000	-0.0000	-0.0000	0.0000	0.0000	-0.0000	-0.0000	0.0000	-0.0000	0.0000	-0.0000	-0.0000	0.0000	0.0000	0.0000	0.0000	-0.0000	-0.0000	-0.0000	-0.0000	0.0000	0.0000	0.0000	-0.0000	0.0000	-0.0000	0.0000	0.0000	-0.0000	0.0000	-0.0000	0.0000	0.0000	-0.0000	0.0000	-0.0000	-0.0000	0.0000	0.0000	-0.0000	-0.0000	0.0000	0.0000	-0.0000	-0.0000	0.0000	-0.0000	0.0000	0.0000	-0.0000	-0.0000	-0.0000	0.0000	0.0000	-0.0000	0.0000	0.0000	-0.0000	0.0000	0.0000	-0.0000	-0.0000	0.0000	0.0000	-0.0000	0.0000	0.0000	-0.0000	0.0000	0.0000	0.0000	-0.0000	0.0000	-0.0000	-0.0000	0.0000	0.0000	0.0000	0.0000	-0.0000	-0.0000	0.0000	-0.0000	0.0000	0.0000	-0.0000	0.0000	-0.0000	-0.0000	-0.0000	-0.0000	-0.0000	-0.0000	0.0000	0.0000	-0.0000	-0.0000	0.0000	0.0000	0.0000	0.0000	0.0000	0.0000	-0.0000	0.0000	-0.0000	0.0000	0.0000	0.0000	0.0000	0.0000	0.0000	0.0000	0.0000	-0.0000	0.0000	-0.0000	0.0000	-0.0000	0.0000	-0.0000	0.0000	0.0000	-0.0000	0.0000	-0.0000	-0.0000	0.0000	-0.0000	-0.0000	0.0000	-0.0000	0.0000	0.0000	-0.0000	0.0000	0.0000	0.0000	-0.0000	-0.0000	-0.0000	-0.0000	-0.0000	-0.0000	0.0000	-0.0000	-0.0000	0.0000	0.0000	-0.0000	-0.0000	0.0000	-0.0000	0.0000	-0.0000	-0.0000	0.0000	0.0000	0.0000	0.0000	-0.0000	-0.0000	-0.0000	-0.0000	0.0000	0.0000	0.0000	-0.0000	0.0000	-0.0000	0.0000	0.0000	0.0000	-0.0000	0.0000	-0.0000	-0.0000	0.0000	-0.0000	0.0000	0.0000	-0.0000	-0.0000	0.0000	0.0000	-0.0000	-0.0000	0.0000	0.0000	-0.0000	0.0000	-0.0000	-0.0000	0.0000	0.0000	0.0000	-0.0000	-0.0000	0.0000	-0.0000	-0.0000	0.0000	-0.0000	-0.0000	0.0000	0.0000	-0.0000	-0.0000	0.0000	-0.0000	-0.0000	0.0000	-0.0000	-0.0000	-0.0000	0.0000	-0.0000	0.0000	0.0000	-0.0000	-0.0000	-0.0000	-0.0000	0.0000	0.0000	-0.0000	0.0000	-0.0000	-0.0000	0.0000	-0.0000	0.0000	0.0000	0.0000	0.0000	0.0000	0.0000	-0.0000	-0.0000	0.0000	0.0000	-0.0000	-0.0000	-0.0000	-0.0000	-0.0000	-0.0000	0.0000	-0.0000	0.0000	-0.0000	-0.0000	-0.0000	-0.0000	-0.0000	-0.0000	-0.0000	-0.0000	0.0000	-0.0000	0.0000	-0.0000	0.0000	-0.0000	0.0000	-0.0000	-0.0000	0.0000	-0.0000	0.0000	0.0000	-0.0000	0.0000	0.0000	-0.0000	0.0000	-0.0000	-0.0000	0.0000	-0.0000	-0.0000	-0.0000	0.0000	0.0000	0.0000	0.0000	0.0000	0.0000	-0.0000	0.0000	0.0000	-0.0000	-0.0000	0.0000	0.0000	-0.0000	0.0000	-0.0000	0.0000	0.0000	-0.0000	-0.0000	-0.0000	-0.0000	0.0000	0.0000	0.0000	0.0000	-0.0000	-0.0000	-0.0000	0.0000	-0.0000	0.0000	-0.0000	-0.0000	0.0000	-0.0000	0.0000	-0.0000	-0.0000	0.0000	-0.0000	0.0000	0.0000	-0.0000	-0.0000	0.0000	0.0000	-0.0000	-0.0000	0.0000	0.0000	-0.0000	0.0000	-0.0000	-0.0000	0.0000	0.0000	0.0000	-0.0000	-0.0000	0.0000	-0.0000	-0.0000	0.0000	-0.0000	-0.0000	0.0000	0.0000	-0.0000	-0.0000	0.0000	-0.0000	-0.0000	0.0000	-0.0000	-0.0000	-0.0000	0.0000	-0.0000	0.0000	0.0000	-0.0000	-0.0000	-0.0000	-0.0000	0.0000	0.0000	-0.0000	0.0000	-0.0000	-0.0000	0.0000	-0.0000	0.0000	0.0000	0.0000	0.0000	0.0000	0.0000	-0.0000	-0.0000	0.0000	0.0000	-0.0000	-0.0000	-0.0000	-0.0000	-0.0000	-0.0000	0.0000	-0.0000	0.0000	-0.0000	-0.0000	-0.0000	-0.0000	-0.0000	-0.0000	-0.0000	-0.0000	0.0000	-0.0000	0.0000	-0.0000	0.0000	-0.0000	0.0000	-0.0000	-0.0000	0.0000	-0.0000	0.0000	0.0000	-0.0000	0.0000	0.0000	-0.0000	0.0000	-0.0000	-0.0000	0.0000	-0.0000	-0.0000	-0.0000	0.0000	0.0000	0.0000	0.0000	0.0000	0.0000	-0.0000	0.0000	0.0000	-0.0000	-0.0000	0.0000	0.0000	-0.0000	0.0000	-0.0000	0.0000	0.0000	-0.0000	-0.0000	-0.0000	-0.0000	0.0000	0.0000	0.0000	0.0000	-0.0000	-0.0000	-0.0000	0.0000	-0.0000	0.0000	-0.0000	-0.0000	1.0000	1.0000	1.0000	1.0000	1.0000	1.0000	1.0000	1.0000	1.0000	1.0000	1.0000	1.0000	1.0000	1.0000	1.0000	1.0000	1.0000	1.0000	1.0000	1.0000	1.0000	1.0000	1.0000	1.0000	1.0000	1.0000	1.0000	1.0000	1.0000	1.0000	1.0000	1.0000	1.0000	1.0000	1.0000	1.0000	1.0000	1.0000	1.0000	1.0000	1.0000	1.0000	1.0000	1.0000	1.0000	1.0000	1.0000	1.0000	1.0000	1.0000	1.0000	1.0000	1.0000	1.0000	1.0000	1.0000	1.0000	1.0000	1.0000	1.0000	1.0000	1.0000	1.0000	1.0000	1.0000	1.0000	1.0000	1.0000	1.0000	1.0000	1.0000	1.0000	1.0000	1.0000	1.0000	1.0000	1.0000	1.0000	1.0000	1.0000	1.0000	1.0000	1.0000	1.0000	1.0000	1.0000	1.0000	1.0000	1.0000	1.0000	1.0000	1.0000	1.0000	1.0000	1.0000	1.0000	1.0000	1.0000	1.0000	1.0000	1.0000	1.0000	1.0000	1.0000	1.0000	1.0000	1.0000	1.0000	1.0000	1.0000	1.0000	1.0000	1.0000	1.0000	1.0000	1.0000	1.0000	1.0000	1.0000	1.0000	1.0000	1.0000	1.0000	1.0000	1.0000	1.0000	1.0000	1.0000	1.0000	1.0000	1.0000	1.0000	1.0000	1.0000	1.0000	1.0000	1.0000	1.0000	1.0000	1.0000	1.0000	1.0000	1.0000	1.0000	0.0625	0.0625	0.0625	0.0625	0.0312	0.0312	0.0312	0.0312	0.0208	0.0208	0.0208	0.0208	0.0208	0.0208	0.0208	0.0208	0.0208	0.0208	0.0208	0.0208	0.0208	0.0208	0.0208	0.0208	0.0208	0.0208	0.0208	0.0208	0.0208	0.0208	0.0208	0.0208	0.0312	0.0312	0.0312	0.0312	0.0625	0.0625	0.0625	0.0625	0.0625	0.0625	0.0625	0.0625	0.0312	0.0312	0.0312	0.0312	0.0208	0.0208	0.0208	0.0208	0.0208	0.0208	0.0208	0.0208	0.0208	0.0208	0.0208	0.0208	0.0208	0.0208	0.0208	0.0208	0.0208	0.0208	0.0208	0.0208	0.0208	0.0208	0.0208	0.0208	0.0312	0.0312	0.0312	0.0312	0.0625	0.0625	0.0625	0.0625	0.0625	0.0625	0.0625	0.0625	0.0312	0.0312	0.0312	0.0312	0.0208	0.0208	0.0208	0.0208	0.0208	0.0208	0.0208	0.0208	0.0208	0.0208	0.0208	0.0208	0.0208	0.0208	0.0208	0.0208	0.0208	0.0208	0.0208	0.0208	0.0208	0.0208	0.0208	0.0208	0.0312	0.0312	0.0312	0.0312	0.0625	0.0625	0.0625	0.0625	0.0625	0.0625	0.0625	0.0625	0.0312	0.0312	0.0312	0.0312	0.0208	0.0208	0.0208	0.0208	0.0208	0.0208	0.0208	0.0208	0.0208	0.0208	0.0208	0.0208	0.0208	0.0208	0.0208	0.0208	0.0208	0.0208	0.0208	0.0208	0.0208	0.0208	0.0208	0.0208	0.0312	0.0312	0.0312	0.0312	0.0625	0.0625	0.0625	0.0625	0.0312	0.0312	0.0312	0.0312	0.0156	0.0156	0.0156	0.0156	0.0104	0.0104	0.0104	0.0104	0.0104	0.0104	0.0104	0.0104	0.0104	0.0104	0.0104	0.0104	0.0104	0.0104	0.0104	0.0104	0.0104	0.0104	0.0104	0.0104	0.0104	0.0104	0.0104	0.0104	0.0156	0.0156	0.0156	0.0156	0.0312	0.0312	0.0312	0.0312	0.0312	0.0312	0.0312	0.0312	0.0156	0.0156	0.0156	0.0156	0.0104	0.0104	0.0104	0.0104	0.0104	0.0104	0.0104	0.0104	0.0104	0.0104	0.0104	0.0104	0.0104	0.0104	0.0104	0.0104	0.0104	0.0104	0.0104	0.0104	0.0104	0.0104	0.0104	0.0104	0.0156	0.0156	0.0156	0.0156	0.0312	0.0312	0.0312	0.0312	0.0312	0.0312	0.0312	0.0312	0.0156	0.0156	0.0156	0.0156	0.0104	0.0104	0.0104	0.0104	0.0104	0.0104	0.0104	0.0104	0.0104	0.0104	0.0104	0.0104	0.0104	0.0104	0.0104	0.0104	0.0104	0.0104	0.0104	0.0104	0.0104	0.0104	0.0104	0.0104	0.0156	0.0156	0.0156	0.0156	0.0312	0.0312	0.0312	0.0312	0.0312	0.0312	0.0312	0.0312	0.0156	0.0156	0.0156	0.0156	0.0104	0.0104	0.0104	0.0104	0.0104	0.0104	0.0104	0.0104	0.0104	0.0104	0.0104	0.0104	0.0104	0.0104	0.0104	0.0104	0.0104	0.0104	0.0104	0.0104	0.0104	0.0104	0.0104	0.0104	0.0156	0.0156	0.0156	0.0156	0.0312	0.0312	0.0312	0.0312	0.0208	0.0208	0.0208	0.0208	0.0104	0.0104	0.0104	0.0104	0.0069	0.0069	0.0069	0.0069	0.0069	0.0069	0.0069	0.0069	0.0069	0.0069	0.0069	0.0069	0.0069	0.0069	0.0069	0.0069	0.0069	0.0069	0.0069	0.0069	0.0069	0.0069	0.0069	0.0069	0.0104	0.0104	0.0104	0.0104	0.0208	0.0208	0.0208	0.0208	0.0208	0.0208	0.0208	0.0208	0.0104	0.0104	0.0104	0.0104	0.0069	0.0069	0.0069	0.0069	0.0069	0.0069	0.0069	0.0069	0.0069	0.0069	0.0069	0.0069	0.0069	0.0069	0.0069	0.0069	0.0069	0.0069	0.0069	0.0069	0.0069	0.0069	0.0069	0.0069	0.0104	0.0104	0.0104	0.0104	0.0208	0.0208	0.0208	0.0208	0.0208	0.0208	0.0208	0.0208	0.0104	0.0104	0.0104	0.0104	0.0069	0.0069	0.0069	0.0069	0.0069	0.0069	0.0069	0.0069	0.0069	0.0069	0.0069	0.0069	0.0069	0.0069	0.0069	0.0069	0.0069	0.0069	0.0069	0.0069	0.0069	0.0069	0.0069	0.0069	0.0104	0.0104	0.0104	0.0104	0.0208	0.0208	0.0208	0.0208	0.0208	0.0208	0.0208	0.0208	0.0104	0.0104	0.0104	0.0104	0.0069	0.0069	0.0069	0.0069	0.0069	0.0069	0.0069	0.0069	0.0069	0.0069	0.0069	0.0069	0.0069	0.0069	0.0069	0.0069	0.0069	0.0069	0.0069	0.0069	0.0069	0.0069	0.0069	0.0069	0.0104	0.0104	0.0104	0.0104	0.0208	0.0208	0.0208	0.0208	0.0208	0.0208	0.0208	0.0208	0.0104	0.0104	0.0104	0.0104	0.0069	0.0069	0.0069	0.0069	0.0069	0.0069	0.0069	0.0069	0.0069	0.0069	0.0069	0.0069	0.0069	0.0069	0.0069	0.0069	0.0069	0.0069	0.0069	0.0069	0.0069	0.0069	0.0069	0.0069	0.0104	0.0104	0.0104	0.0104	0.0208	0.0208	0.0208	0.0208	0.0208	0.0208	0.0208	0.0208	0.0104	0.0104	0.0104	0.0104	0.0069	0.0069	0.0069	0.0069	0.0069	0.0069	0.0069	0.0069	0.0069	0.0069	0.0069	0.0069	0.0069	0.0069	0.0069	0.0069	0.0069	0.0069	0.0069	0.0069	0.0069	0.0069	0.0069	0.0069	0.0104	0.0104	0.0104	0.0104	0.0208	0.0208	0.0208	0.0208	0.0208	0.0208	0.0208	0.0208	0.0104	0.0104	0.0104	0.0104	0.0069	0.0069	0.0069	0.0069	0.0069	0.0069	0.0069	0.0069	0.0069	0.0069	0.0069	0.0069	0.0069	0.0069	0.0069	0.0069	0.0069	0.0069	0.0069	0.0069	0.0069	0.0069	0.0069	0.0069	0.0104	0.0104	0.0104	0.0104	0.0208	0.0208	0.0208	0.0208	0.0208	0.0208	0.0208	0.0208	0.0104	0.0104	0.0104	0.0104	0.0069	0.0069	0.0069	0.0069	0.0069	0.0069	0.0069	0.0069	0.0069	0.0069	0.0069	0.0069	0.0069	0.0069	0.0069	0.0069	0.0069	0.0069	0.0069	0.0069	0.0069	0.0069	0.0069	0.0069	0.0104	0.0104	0.0104	0.0104	0.0208	0.0208	0.0208	0.0208	0.0208	0.0208	0.0208	0.0208	0.0104	0.0104	0.0104	0.0104	0.0069	0.0069	0.0069	0.0069	0.0069	0.0069	0.0069	0.0069	0.0069	0.0069	0.0069	0.0069	0.0069	0.0069	0.0069	0.0069	0.0069	0.0069	0.0069	0.0069	0.0069	0.0069	0.0069	0.0069	0.0104	0.0104	0.0104	0.0104	0.0208	0.0208	0.0208	0.0208	0.0208	0.0208	0.0208	0.0208	0.0104	0.0104	0.0104	0.0104	0.0069	0.0069	0.0069	0.0069	0.0069	0.0069	0.0069	0.0069	0.0069	0.0069	0.0069	0.0069	0.0069	0.0069	0.0069	0.0069	0.0069	0.0069	0.0069	0.0069	0.0069	0.0069	0.0069	0.0069	0.0104	0.0104	0.0104	0.0104	0.0208	0.0208	0.0208	0.0208	0.0208	0.0208	0.0208	0.0208	0.0104	0.0104	0.0104	0.0104	0.0069	0.0069	0.0069	0.0069	0.0069	0.0069	0.0069	0.0069	0.0069	0.0069	0.0069	0.0069	0.0069	0.0069	0.0069	0.0069	0.0069	0.0069	0.0069	0.0069	0.0069	0.0069	0.0069	0.0069	0.0104	0.0104	0.0104	0.0104	0.0208	0.0208	0.0208	0.0208	0.0208	0.0208	0.0208	0.0208	0.0104	0.0104	0.0104	0.0104	0.0069	0.0069	0.0069	0.0069	0.0069	0.0069	0.0069	0.0069	0.0069	0.0069	0.0069	0.0069	0.0069	0.0069	0.0069	0.0069	0.0069	0.0069	0.0069	0.0069	0.0069	0.0069	0.0069	0.0069	0.0104	0.0104	0.0104	0.0104	0.0208	0.0208	0.0208	0.0208	0.0208	0.0208	0.0208	0.0208	0.0104	0.0104	0.0104	0.0104	0.0069	0.0069	0.0069	0.0069	0.0069	0.0069	0.0069	0.0069	0.0069	0.0069	0.0069	0.0069	0.0069	0.0069	0.0069	0.0069	0.0069	0.0069	0.0069	0.0069	0.0069	0.0069	0.0069	0.0069	0.0104	0.0104	0.0104	0.0104	0.0208	0.0208	0.0208	0.0208	0.0208	0.0208	0.0208	0.0208	0.0104	0.0104	0.0104	0.0104	0.0069	0.0069	0.0069	0.0069	0.0069	0.0069	0.0069	0.0069	0.0069	0.0069	0.0069	0.0069	0.0069	0.0069	0.0069	0.0069	0.0069	0.0069	0.0069	0.0069	0.0069	0.0069	0.0069	0.0069	0.0104	0.0104	0.0104	0.0104	0.0208	0.0208	0.0208	0.0208	0.0208	0.0208	0.0208	0.0208	0.0104	0.0104	0.0104	0.0104	0.0069	0.0069	0.0069	0.0069	0.0069	0.0069	0.0069	0.0069	0.0069	0.0069	0.0069	0.0069	0.0069	0.0069	0.0069	0.0069	0.0069	0.0069	0.0069	0.0069	0.0069	0.0069	0.0069	0.0069	0.0104	0.0104	0.0104	0.0104	0.0208	0.0208	0.0208	0.0208	0.0208	0.0208	0.0208	0.0208	0.0104	0.0104	0.0104	0.0104	0.0069	0.0069	0.0069	0.0069	0.0069	0.0069	0.0069	0.0069	0.0069	0.0069	0.0069	0.0069	0.0069	0.0069	0.0069	0.0069	0.0069	0.0069	0.0069	0.0069	0.0069	0.0069	0.0069	0.0069	0.0104	0.0104	0.0104	0.0104	0.0208	0.0208	0.0208	0.0208	0.0208	0.0208	0.0208	0.0208	0.0104	0.0104	0.0104	0.0104	0.0069	0.0069	0.0069	0.0069	0.0069	0.0069	0.0069	0.0069	0.0069	0.0069	0.0069	0.0069	0.0069	0.0069	0.0069	0.0069	0.0069	0.0069	0.0069	0.0069	0.0069	0.0069	0.0069	0.0069	0.0104	0.0104	0.0104	0.0104	0.0208	0.0208	0.0208	0.0208	0.0208	0.0208	0.0208	0.0208	0.0104	0.0104	0.0104	0.0104	0.0069	0.0069	0.0069	0.0069	0.0069	0.0069	0.0069	0.0069	0.0069	0.0069	0.0069	0.0069	0.0069	0.0069	0.0069	0.0069	0.0069	0.0069	0.0069	0.0069	0.0069	0.0069	0.0069	0.0069	0.0104	0.0104	0.0104	0.0104	0.0208	0.0208	0.0208	0.0208	0.0208	0.0208	0.0208	0.0208	0.0104	0.0104	0.0104	0.0104	0.0069	0.0069	0.0069	0.0069	0.0069	0.0069	0.0069	0.0069	0.0069	0.0069	0.0069	0.0069	0.0069	0.0069	0.0069	0.0069	0.0069	0.0069	0.0069	0.0069	0.0069	0.0069	0.0069	0.0069	0.0104	0.0104	0.0104	0.0104	0.0208	0.0208	0.0208	0.0208	0.0208	0.0208	0.0208	0.0208	0.0104	0.0104	0.0104	0.0104	0.0069	0.0069	0.0069	0.0069	0.0069	0.0069	0.0069	0.0069	0.0069	0.0069	0.0069	0.0069	0.0069	0.0069	0.0069	0.0069	0.0069	0.0069	0.0069	0.0069	0.0069	0.0069	0.0069	0.0069	0.0104	0.0104	0.0104	0.0104	0.0208	0.0208	0.0208	0.0208	0.0208	0.0208	0.0208	0.0208	0.0104	0.0104	0.0104	0.0104	0.0069	0.0069	0.0069	0.0069	0.0069	0.0069	0.0069	0.0069	0.0069	0.0069	0.0069	0.0069	0.0069	0.0069	0.0069	0.0069	0.0069	0.0069	0.0069	0.0069	0.0069	0.0069	0.0069	0.0069	0.0104	0.0104	0.0104	0.0104	0.0208	0.0208	0.0208	0.0208	0.0208	0.0208	0.0208	0.0208	0.0104	0.0104	0.0104	0.0104	0.0069	0.0069	0.0069	0.0069	0.0069	0.0069	0.0069	0.0069	0.0069	0.0069	0.0069	0.0069	0.0069	0.0069	0.0069	0.0069	0.0069	0.0069	0.0069	0.0069	0.0069	0.0069	0.0069	0.0069	0.0104	0.0104	0.0104	0.0104	0.0208	0.0208	0.0208	0.0208	0.0208	0.0208	0.0208	0.0208	0.0104	0.0104	0.0104	0.0104	0.0069	0.0069	0.0069	0.0069	0.0069	0.0069	0.0069	0.0069	0.0069	0.0069	0.0069	0.0069	0.0069	0.0069	0.0069	0.0069	0.0069	0.0069	0.0069	0.0069	0.0069	0.0069	0.0069	0.0069	0.0104	0.0104	0.0104	0.0104	0.0208	0.0208	0.0208	0.0208	0.0208	0.0208	0.0208	0.0208	0.0104	0.0104	0.0104	0.0104	0.0069	0.0069	0.0069	0.0069	0.0069	0.0069	0.0069	0.0069	0.0069	0.0069	0.0069	0.0069	0.0069	0.0069	0.0069	0.0069	0.0069	0.0069	0.0069	0.0069	0.0069	0.0069	0.0069	0.0069	0.0104	0.0104	0.0104	0.0104	0.0208	0.0208	0.0208	0.0208	0.0312	0.0312	0.0312	0.0312	0.0156	0.0156	0.0156	0.0156	0.0104	0.0104	0.0104	0.0104	0.0104	0.0104	0.0104	0.0104	0.0104	0.0104	0.0104	0.0104	0.0104	0.0104	0.0104	0.0104	0.0104	0.0104	0.0104	0.0104	0.0104	0.0104	0.0104	0.0104	0.0156	0.0156	0.0156	0.0156	0.0312	0.0312	0.0312	0.0312	0.0312	0.0312	0.0312	0.0312	0.0156	0.0156	0.0156	0.0156	0.0104	0.0104	0.0104	0.0104	0.0104	0.0104	0.0104	0.0104	0.0104	0.0104	0.0104	0.0104	0.0104	0.0104	0.0104	0.0104	0.0104	0.0104	0.0104	0.0104	0.0104	0.0104	0.0104	0.0104	0.0156	0.0156	0.0156	0.0156	0.0312	0.0312	0.0312	0.0312	0.0312	0.0312	0.0312	0.0312	0.0156	0.0156	0.0156	0.0156	0.0104	0.0104	0.0104	0.0104	0.0104	0.0104	0.0104	0.0104	0.0104	0.0104	0.0104	0.0104	0.0104	0.0104	0.0104	0.0104	0.0104	0.0104	0.0104	0.0104	0.0104	0.0104	0.0104	0.0104	0.0156	0.0156	0.0156	0.0156	0.0312	0.0312	0.0312	0.0312	0.0312	0.0312	0.0312	0.0312	0.0156	0.0156	0.0156	0.0156	0.0104	0.0104	0.0104	0.0104	0.0104	0.0104	0.0104	0.0104	0.0104	0.0104	0.0104	0.0104	0.0104	0.0104	0.0104	0.0104	0.0104	0.0104	0.0104	0.0104	0.0104	0.0104	0.0104	0.0104	0.0156	0.0156	0.0156	0.0156	0.0312	0.0312	0.0312	0.0312	0.0625	0.0625	0.0625	0.0625	0.0312	0.0312	0.0312	0.0312	0.0208	0.0208	0.0208	0.0208	0.0208	0.0208	0.0208	0.0208	0.0208	0.0208	0.0208	0.0208	0.0208	0.0208	0.0208	0.0208	0.0208	0.0208	0.0208	0.0208	0.0208	0.0208	0.0208	0.0208	0.0312	0.0312	0.0312	0.0312	0.0625	0.0625	0.0625	0.0625	0.0625	0.0625	0.0625	0.0625	0.0312	0.0312	0.0312	0.0312	0.0208	0.0208	0.0208	0.0208	0.0208	0.0208	0.0208	0.0208	0.0208	0.0208	0.0208	0.0208	0.0208	0.0208	0.0208	0.0208	0.0208	0.0208	0.0208	0.0208	0.0208	0.0208	0.0208	0.0208	0.0312	0.0312	0.0312	0.0312	0.0625	0.0625	0.0625	0.0625	0.0625	0.0625	0.0625	0.0625	0.0312	0.0312	0.0312	0.0312	0.0208	0.0208	0.0208	0.0208	0.0208	0.0208	0.0208	0.0208	0.0208	0.0208	0.0208	0.0208	0.0208	0.0208	0.0208	0.0208	0.0208	0.0208	0.0208	0.0208	0.0208	0.0208	0.0208	0.0208	0.0312	0.0312	0.0312	0.0312	0.0625	0.0625	0.0625	0.0625	0.0625	0.0625	0.0625	0.0625	0.0312	0.0312	0.0312	0.0312	0.0208	0.0208	0.0208	0.0208	0.0208	0.0208	0.0208	0.0208	0.0208	0.0208	0.0208	0.0208	0.0208	0.0208	0.0208	0.0208	0.0208	0.0208	0.0208	0.0208	0.0208	0.0208	0.0208	0.0208	0.0312	0.0312	0.0312	0.0312	0.0625	0.0625	0.0625	0.0625	