5.3382	2.7640	3.2923	2.6995	3.6350	4.0009	5.5823	3.9089	1.6611	-1.8079	3.8959	3.3015	0.5360	3.9019	3.4996	6.4284	-0.7110	1.2902	1.3647	-0.6971	-0.0429	0.6996	-0.7414	-0.5066	0.1310	0.2186	-1.1996	1.8924	-0.5500	0.2161	0.5450	0.5990	0.2427	-0.5445	-0.1104	-0.3529	-0.0290	0.3065	0.1441	0.3299	-0.3207	-0.4494	-0.2842	-0.1501	0.0663	-1.0066	-0.4423	-0.3344	0.1180	0.0147	-0.2477	0.5366	0.3166	-0.1799	-0.0016	-0.0078	-0.3738	-0.0991	-0.2230	0.4066	-0.2332	-0.4151	-0.1946	-0.3421	0.0359	0.0870	0.0656	0.0859	-0.0902	0.0240	-0.0856	-0.0313	-0.1601	-0.1195	-0.0498	-0.1106	-0.0046	-0.0033	-0.0062	0.0159	0.0053	-0.0045	0.0017	-0.0105	0.0147	-0.0026	0.0004	-0.0265	0.0002	0.0024	0.0025	0.0001	-0.0001	0.0055	0.0027	0.0062	0.0023	0.0037	-0.0032	0.0001	-0.0013	-0.0031	-0.0017	0.0012	0.0014	0.0022	0.0011	0.0005	-0.0002	0.0017	0.0013	-0.0008	0.0818	0.0251	0.0095	0.0189	0.0102	0.0831	0.1323	0.0490	-0.0127	0.1716	0.2236	0.2015	0.0050	-0.0022	-0.0001	-0.0065	0.0108	-0.0048	0.0074	-0.0191	0.0033	-0.0036	-0.0039	0.0042	-0.0016	-0.0042	0.0009	0.0009	0.0006	0.0022	-0.0005	-0.0033	0.0031	0.0126	-0.0034	-0.0056	0.0030	0.0030	-0.0002	0.0004	0.0058	0.0035	-0.0037	0.0050	-0.0002	0.0005	0.0009	0.0005	-0.0256	-0.0106	0.0492	0.0062	0.1603	0.1198	0.3127	0.2079	0.3269	0.3844	0.3544	0.4293	0.0067	-0.0051	0.0099	-0.0215	0.0026	-0.0034	0.0069	0.0037	-0.0066	-0.0032	-0.0090	0.0307	0.0019	-0.0040	-0.0028	-0.0009	0.0024	-0.0046	-0.0058	-0.0094	-0.0003	0.0015	0.0007	-0.0026	0.0026	0.0024	-0.0005	0.0009	-0.0003	0.0007	-0.0004	0.0006	-0.0005	-0.0027	-0.0015	0.0013	-0.2156	-0.1845	-0.1260	-0.2034	-0.0352	-0.0661	0.1626	0.0070	0.1349	0.2002	0.2052	0.2304	0.0184	-0.0045	0.0066	-0.0398	0.0097	-0.0024	-0.0097	-0.0036	-0.0058	-0.0049	-0.0090	0.0272	0.0045	0.0021	-0.0033	-0.0003	0.0025	-0.0032	-0.0078	-0.0089	-0.0018	-0.0010	0.0007	-0.0063	0.0024	0.0045	0.0005	-0.0012	-0.0002	0.0005	-0.0015	-0.0010	0.0007	-0.0037	0.0014	0.0031	-0.0835	0.0694	0.1779	0.1005	0.1013	0.1277	0.1445	0.2320	0.2139	0.1035	0.0280	0.1210	0.0007	-0.0089	0.0096	-0.0016	-0.0066	-0.0025	-0.0045	0.0296	-0.0047	-0.0038	0.0012	-0.0002	0.0021	0.0076	-0.0041	-0.0078	0.0004	0.0010	0.0003	-0.0016	-0.0013	-0.0084	0.0024	0.0073	0.0007	-0.0015	0.0011	0.0006	-0.0091	-0.0058	0.0053	-0.0060	-0.0017	-0.0000	0.0009	-0.0008	0.2500	0.2398	0.2857	0.2954	0.1649	0.2584	0.0339	0.2232	-0.0277	-0.0171	-0.0818	-0.0354	-0.0075	-0.0005	0.0031	0.0278	-0.0054	0.0001	0.0009	0.0027	0.0068	0.0016	0.0091	-0.0370	-0.0025	0.0026	-0.0024	-0.0047	-0.0010	0.0033	0.0062	0.0086	0.0009	-0.0024	0.0004	0.0057	-0.0018	-0.0037	-0.0003	0.0020	-0.0000	-0.0014	0.0009	-0.0029	0.0023	0.0025	0.0010	-0.0011	0.2175	0.0765	0.1547	0.1305	0.3073	0.2317	0.2280	0.2596	0.2894	0.2812	0.2262	0.2946	-0.0035	0.0039	0.0188	0.0056	-0.0040	0.0041	0.0081	0.0041	-0.0014	0.0024	0.0070	0.0005	-0.0016	-0.0061	-0.0014	-0.0043	-0.0013	-0.0028	0.0011	-0.0014	-0.0001	0.0012	0.0039	0.0019	-0.0013	0.0004	0.0001	0.0002	0.0022	-0.0002	-0.0013	0.0007	0.0010	0.0014	-0.0004	0.0006	0.0467	-0.0916	-0.0344	-0.0546	0.1773	0.0267	0.0867	0.0539	0.2298	0.1507	0.1664	0.1728	0.0043	0.0078	0.0104	-0.0056	0.0065	0.0078	-0.0025	-0.0045	0.0043	0.0069	-0.0040	-0.0021	-0.0011	-0.0092	-0.0021	0.0007	-0.0016	-0.0073	-0.0042	-0.0002	-0.0018	-0.0044	-0.0003	0.0018	-0.0006	0.0030	0.0025	-0.0034	-0.0002	-0.0001	0.0012	0.0016	0.0011	0.0017	-0.0018	0.0015	-0.1113	-0.1739	-0.1476	-0.1743	0.0047	-0.1335	-0.0366	-0.0963	0.1352	-0.0062	0.0603	0.0267	0.0029	0.0038	0.0049	-0.0059	0.0066	0.0083	-0.0021	-0.0001	0.0023	0.0065	-0.0020	0.0034	0.0019	0.0004	-0.0015	-0.0004	0.0006	-0.0029	-0.0059	-0.0032	-0.0012	-0.0002	-0.0021	-0.0020	0.0006	0.0015	0.0021	-0.0011	-0.0020	-0.0005	0.0014	-0.0003	0.0004	0.0010	-0.0012	-0.0018	0.2492	0.3345	0.2425	0.3531	0.1103	0.1825	0.0107	0.1639	-0.0210	-0.0236	-0.1334	-0.0565	-0.0056	-0.0008	-0.0130	0.0123	-0.0115	-0.0020	0.0014	-0.0027	-0.0076	0.0007	0.0021	-0.0035	0.0000	0.0041	0.0021	0.0018	-0.0016	0.0027	0.0052	0.0057	-0.0014	-0.0003	0.0009	0.0040	-0.0015	-0.0038	-0.0007	0.0005	-0.0020	0.0006	0.0015	-0.0044	-0.0012	0.0010	-0.0001	-0.0020	0.2979	0.3075	0.1697	0.3117	0.0783	0.1418	-0.0310	0.0852	-0.1093	-0.0449	-0.1431	-0.0943	-0.0012	0.0042	-0.0176	0.0052	-0.0061	0.0016	0.0014	-0.0177	-0.0044	-0.0019	0.0017	-0.0079	-0.0011	0.0013	0.0027	0.0058	-0.0005	0.0019	0.0007	0.0053	0.0002	0.0017	-0.0004	-0.0002	-0.0006	0.0006	0.0003	-0.0003	0.0025	0.0050	-0.0004	-0.0012	0.0016	0.0011	0.0020	0.0013	0.2127	0.2067	0.0769	0.1877	0.0398	0.0729	-0.0224	0.0321	-0.0903	-0.0202	-0.0957	-0.0653	-0.0006	0.0045	-0.0117	-0.0025	-0.0056	0.0011	0.0003	-0.0099	-0.0025	-0.0018	-0.0002	0.0016	0.0008	0.0001	0.0028	0.0044	0.0001	0.0021	0.0015	0.0004	-0.0011	0.0009	-0.0002	0.0002	0.0012	0.0016	0.0002	-0.0003	0.0019	0.0019	-0.0014	0.0003	-0.0003	0.0012	-0.0013	-0.0012	0.2364	0.1117	-0.0916	0.1221	0.1969	-0.2331	-0.2408	-0.1845	0.4496	0.0327	0.2686	0.0552	-0.0012	0.0224	-0.0413	0.0234	-0.0093	0.0114	0.0302	-0.0370	0.0092	0.0228	-0.0092	0.0183	0.0009	0.0067	0.0026	0.0034	0.0003	-0.0029	-0.0020	-0.0007	-0.0010	-0.0014	-0.0028	-0.0021	-0.0055	-0.0057	0.0032	-0.0008	-0.0037	0.0043	0.0002	-0.0073	0.0055	-0.0000	-0.0052	0.0087	-0.0370	0.1125	0.0034	-0.0263	-0.4350	-0.0759	-0.1183	-0.1176	-0.0723	-0.2406	0.0809	-0.0317	0.0129	-0.0177	-0.0207	-0.0015	0.0066	0.0006	0.0104	-0.0224	0.0152	-0.0108	-0.0153	0.0057	-0.0039	-0.0024	0.0045	0.0074	0.0045	0.0146	-0.0014	0.0001	0.0020	-0.0107	0.0015	0.0088	0.0072	0.0048	-0.0069	0.0093	0.0014	0.0013	-0.0003	-0.0035	-0.0079	-0.0054	0.0037	-0.0104	0.1011	-0.1004	0.0587	-0.0448	0.1685	0.1812	0.1128	0.1351	0.0152	0.0333	-0.0331	0.0387	-0.0115	-0.0046	0.0191	-0.0037	-0.0287	-0.0044	0.0075	0.0476	-0.0123	-0.0017	0.0402	0.0089	0.0004	-0.0027	0.0007	-0.0080	-0.0007	0.0092	0.0013	-0.0071	-0.0009	0.0080	0.0070	0.0042	-0.0009	0.0026	-0.0006	0.0010	0.0017	-0.0021	-0.0039	0.0053	0.0001	-0.0011	-0.0009	-0.0042	-0.2541	-0.2083	0.1399	-0.1720	-0.0400	0.0216	-0.0194	0.1400	0.1948	-0.0726	0.0606	-0.0272	0.0462	-0.0015	-0.0146	-0.0363	-0.0225	-0.0026	-0.0318	0.0211	-0.0182	-0.0074	0.0406	0.0099	0.0083	0.0044	-0.0053	-0.0006	0.0027	-0.0009	-0.0053	-0.0074	-0.0077	-0.0058	0.0007	0.0043	0.0043	0.0025	-0.0004	0.0034	-0.0137	-0.0062	0.0060	-0.0090	0.0002	0.0052	0.0010	-0.0005	0.1997	-0.0537	0.3711	0.0928	0.0735	0.3397	-0.1460	0.1749	-0.1935	-0.2658	-0.0548	-0.1945	-0.0137	-0.0015	0.0164	0.0576	-0.0037	0.0002	0.0024	0.0085	0.0197	0.0006	0.0341	-0.0673	-0.0037	-0.0016	0.0023	-0.0076	-0.0036	0.0079	0.0097	0.0137	0.0036	0.0047	0.0023	0.0109	-0.0034	-0.0036	-0.0004	0.0031	0.0031	0.0006	0.0000	0.0014	0.0008	0.0063	0.0024	-0.0055	0.0382	-0.3471	-0.0809	-0.1944	0.0989	0.0503	-0.0204	-0.0885	-0.0336	0.0338	0.2035	0.0895	0.0315	0.0134	-0.0149	-0.0112	0.0024	0.0016	-0.0133	-0.0378	-0.0169	-0.0012	0.0323	0.0241	0.0025	-0.0065	-0.0016	0.0040	0.0014	-0.0063	-0.0085	-0.0080	-0.0019	0.0103	-0.0035	-0.0033	-0.0029	-0.0012	0.0023	-0.0058	0.0076	0.0039	-0.0088	0.0096	-0.0002	-0.0025	-0.0017	-0.0015	0.1847	-0.0029	-0.0168	0.0110	0.1047	0.0653	0.0040	0.0203	-0.0528	-0.0346	-0.2134	-0.0736	-0.0073	0.0005	0.0175	0.0114	0.0158	0.0106	-0.0092	-0.0128	-0.0014	0.0012	-0.0160	-0.0098	-0.0034	-0.0040	0.0003	0.0022	0.0022	0.0079	-0.0007	0.0033	0.0020	-0.0000	-0.0021	-0.0049	0.0014	0.0045	0.0007	-0.0002	0.0038	0.0012	-0.0018	0.0050	-0.0007	-0.0015	-0.0012	-0.0050	-0.1152	-0.2061	-0.0270	-0.2239	0.0249	0.1682	0.2813	0.2017	-0.1360	0.0950	-0.2945	0.0250	0.0159	-0.0138	0.0418	-0.0549	0.0006	0.0031	-0.0339	0.0350	-0.0247	-0.0155	0.0126	0.0155	-0.0020	-0.0104	-0.0025	-0.0014	0.0049	0.0029	-0.0029	-0.0081	-0.0012	-0.0019	-0.0002	-0.0063	0.0086	0.0106	-0.0040	0.0001	-0.0018	-0.0053	-0.0033	0.0066	-0.0048	-0.0037	0.0042	-0.0078	-0.0877	-0.2762	0.0250	-0.1541	0.3508	0.1660	0.1390	0.2071	-0.0875	0.0664	-0.3811	-0.1537	-0.0154	0.0050	0.0553	-0.0137	-0.0070	0.0082	-0.0331	0.0662	-0.0096	0.0033	0.0202	-0.0387	0.0001	0.0015	-0.0040	-0.0115	-0.0024	-0.0025	0.0033	0.0001	0.0019	0.0046	0.0018	-0.0011	-0.0028	0.0030	0.0028	-0.0062	-0.0041	-0.0089	0.0014	0.0051	0.0062	0.0064	-0.0010	0.0013	0.0551	-0.1485	0.0769	-0.0818	0.2787	0.2153	0.1821	0.2263	0.0830	0.0971	-0.1434	0.0231	-0.0220	-0.0030	0.0439	-0.0020	-0.0356	0.0065	0.0042	0.0728	-0.0259	-0.0025	0.0450	0.0094	-0.0008	-0.0063	-0.0000	-0.0087	-0.0035	-0.0017	0.0036	-0.0045	-0.0059	-0.0014	0.0082	0.0024	-0.0015	0.0011	0.0008	-0.0031	-0.0038	-0.0068	-0.0012	0.0035	0.0020	0.0010	0.0000	0.0001	-0.1647	-0.2072	-0.1187	-0.1332	0.0071	-0.1363	-0.1853	-0.1476	-0.1691	-0.1624	-0.1794	-0.2389	0.0162	0.0126	-0.0021	-0.0143	0.0289	0.0055	-0.0388	-0.0238	0.0175	0.0096	-0.0104	-0.0566	0.0044	0.0073	-0.0020	0.0034	0.0024	-0.0104	-0.0031	0.0083	0.0067	-0.0003	-0.0089	-0.0050	-0.0024	0.0013	0.0056	-0.0068	0.0002	-0.0005	0.0006	0.0000	0.0048	0.0055	-0.0020	0.0030	-0.0962	0.1852	0.2194	0.1568	-0.1948	0.1760	0.1956	0.1661	-0.1477	0.1573	0.1891	0.2015	-0.0022	-0.0148	-0.0016	0.0098	-0.0056	-0.0203	0.0155	-0.0039	-0.0121	-0.0136	0.0010	0.0286	-0.0014	-0.0037	0.0005	-0.0010	-0.0039	-0.0067	0.0043	0.0017	-0.0044	-0.0022	0.0019	-0.0020	0.0054	-0.0013	-0.0045	0.0014	0.0011	0.0029	0.0001	0.0004	-0.0045	-0.0012	0.0042	-0.0003	-0.0422	0.0616	0.3261	0.0557	-0.2720	0.0867	-0.2586	0.0827	0.1278	-0.2230	0.3372	-0.0527	0.0063	-0.0113	0.0020	0.0301	0.0007	-0.0009	0.0113	-0.0186	0.0025	-0.0120	-0.0086	0.0025	-0.0076	-0.0058	0.0057	0.0124	0.0037	0.0039	0.0048	0.0096	-0.0031	0.0003	-0.0011	0.0076	0.0037	0.0005	-0.0037	0.0082	-0.0066	0.0011	0.0068	-0.0058	-0.0031	0.0024	0.0029	0.0011	0.1716	-0.3268	-0.0884	-0.1201	0.1269	0.1707	-0.0082	-0.0857	0.0280	-0.1210	0.1345	0.0994	0.0127	0.0045	-0.0063	-0.0214	-0.0111	0.0082	-0.0091	-0.0229	-0.0132	0.0009	0.0342	0.0303	0.0013	-0.0054	0.0003	0.0035	-0.0013	0.0044	-0.0052	-0.0107	-0.0046	0.0048	0.0097	0.0122	-0.0050	-0.0039	0.0038	-0.0084	0.0125	0.0064	-0.0136	0.0162	-0.0029	-0.0100	-0.0001	-0.0124	-0.3034	0.1651	0.1947	0.1282	-0.1179	0.0137	0.0498	0.1645	-0.0287	-0.1064	-0.2054	-0.0924	-0.0020	-0.0013	0.0129	0.0158	0.0061	-0.0071	-0.0307	0.0251	0.0141	0.0001	0.0095	-0.0404	-0.0037	-0.0047	0.0022	0.0032	-0.0026	-0.0100	0.0054	0.0100	-0.0002	0.0006	-0.0059	0.0001	0.0032	-0.0003	-0.0010	-0.0029	-0.0109	-0.0032	0.0124	-0.0025	-0.0013	0.0004	0.0008	-0.0063	-0.0990	0.3095	-0.1485	0.1470	-0.3332	-0.1766	0.1448	-0.1297	0.0185	0.1632	0.1663	0.2349	-0.0008	-0.0157	-0.0161	0.0134	0.0104	-0.0015	0.0155	-0.0533	-0.0411	-0.0170	-0.0180	0.0875	-0.0033	-0.0049	-0.0023	0.0056	0.0054	-0.0061	-0.0009	-0.0049	-0.0060	-0.0167	0.0006	-0.0044	0.0042	-0.0037	-0.0004	0.0007	0.0019	0.0031	-0.0006	0.0011	-0.0097	-0.0109	0.0028	-0.0003	0.1503	0.1126	-0.1731	-0.0113	0.1674	-0.0228	0.0629	0.0690	0.0933	-0.0772	-0.3232	-0.1545	-0.0170	-0.0126	0.0286	-0.0351	-0.0026	0.0243	-0.0215	0.0729	0.0238	0.0011	0.0075	-0.0634	-0.0031	-0.0135	-0.0027	-0.0073	-0.0002	0.0104	-0.0018	0.0004	0.0026	-0.0092	0.0036	0.0082	0.0014	0.0073	-0.0035	0.0044	-0.0045	-0.0078	0.0018	-0.0013	0.0035	0.0045	-0.0014	-0.0008	-0.1957	-0.0592	-0.0910	-0.1276	-0.1105	0.0720	0.2040	0.0547	-0.3131	0.1608	0.0874	0.1233	0.0212	-0.0037	0.0263	-0.0777	0.0313	-0.0162	-0.0423	-0.0168	-0.0170	-0.0006	0.0034	0.0030	-0.0007	-0.0052	-0.0089	0.0005	-0.0029	-0.0221	0.0001	0.0027	-0.0031	-0.0015	-0.0020	-0.0022	0.0038	0.0071	0.0014	-0.0007	0.0046	-0.0036	-0.0050	0.0018	0.0001	0.0033	0.0020	0.0023	0.1041	-0.0080	-0.1826	-0.0138	0.0589	-0.1277	-0.1052	-0.0494	0.3963	-0.1041	-0.0123	-0.0381	0.0236	-0.0051	0.0102	-0.0338	0.0514	0.0429	-0.0547	-0.0673	-0.0142	-0.0138	-0.0197	-0.0045	-0.0043	-0.0002	-0.0095	0.0064	0.0173	0.0251	-0.0094	-0.0102	-0.0040	-0.0037	-0.0127	-0.0029	0.0020	0.0045	0.0023	-0.0041	-0.0050	0.0005	0.0009	0.0008	-0.0072	-0.0003	-0.0014	-0.0063	-0.1280	-0.0447	-0.1270	-0.0197	0.1583	0.2256	0.2776	0.1323	-0.3023	-0.0038	-0.1720	-0.0119	-0.0375	-0.0103	0.0556	-0.0712	-0.0320	-0.0167	-0.0203	0.1272	0.0154	0.0016	0.0652	-0.0516	0.0053	-0.0032	-0.0072	-0.0213	-0.0110	-0.0018	0.0001	-0.0042	0.0028	0.0155	0.0155	0.0135	-0.0043	-0.0005	-0.0004	-0.0070	0.0032	-0.0078	-0.0044	0.0124	0.0020	0.0003	0.0030	-0.0060	-0.0512	0.3265	-0.1257	0.1943	0.0088	-0.3154	-0.1212	-0.1682	0.1353	0.1226	0.1429	0.0423	-0.0062	0.0192	0.0030	0.0322	0.0419	-0.0096	-0.0184	-0.0734	-0.0279	0.0160	-0.0224	0.0273	-0.0032	0.0136	-0.0062	0.0055	0.0021	-0.0218	0.0076	0.0086	-0.0004	0.0086	-0.0151	-0.0128	-0.0021	-0.0025	0.0048	-0.0024	-0.0045	0.0018	0.0046	-0.0044	0.0018	0.0015	-0.0067	0.0099	0.3934	0.1506	-0.0834	0.0746	-0.0729	0.0118	-0.0463	-0.1223	-0.1839	-0.0500	0.0520	-0.0272	-0.0039	-0.0071	0.0056	0.0480	0.0360	0.0177	-0.0059	-0.0697	0.0147	-0.0094	-0.0016	-0.0334	-0.0072	-0.0031	0.0011	0.0077	0.0093	0.0168	0.0007	0.0022	0.0026	-0.0026	-0.0098	0.0026	0.0036	0.0014	-0.0010	0.0065	0.0119	0.0037	-0.0077	0.0042	-0.0013	0.0020	0.0009	0.0006	-0.1963	-0.1825	0.1229	-0.2135	0.0834	0.0949	-0.0230	0.2457	0.1695	-0.0850	0.0918	-0.1269	0.0161	-0.0011	0.0275	-0.0837	-0.0508	-0.0044	-0.0276	0.1159	0.0194	-0.0063	0.0659	-0.0522	0.0046	-0.0084	-0.0025	-0.0062	-0.0042	0.0005	-0.0043	-0.0077	-0.0034	0.0071	0.0110	0.0151	0.0059	0.0083	-0.0037	0.0062	-0.0160	-0.0138	0.0062	-0.0077	0.0046	0.0089	-0.0011	0.0082	0.0870	-0.1179	0.2341	0.0555	-0.0728	0.1778	-0.2898	-0.0599	-0.1163	-0.2128	0.3998	0.0081	-0.0039	0.0104	0.0070	0.0479	0.0363	-0.0121	-0.0030	-0.0776	-0.0069	0.0096	-0.0023	-0.0026	-0.0014	0.0105	-0.0017	0.0006	-0.0016	-0.0093	0.0066	0.0106	-0.0018	0.0028	-0.0058	0.0057	-0.0035	-0.0046	0.0032	-0.0036	0.0095	0.0042	-0.0045	0.0028	-0.0012	0.0004	-0.0025	-0.0022	0.0050	0.2250	-0.2297	0.0112	-0.0593	-0.2652	0.1900	-0.0146	0.1902	0.1086	-0.2890	0.0230	0.0803	-0.0002	-0.0425	-0.0363	-0.0071	0.0211	-0.0631	-0.0370	-0.0023	-0.0077	-0.0060	0.0228	-0.0003	0.0056	-0.0012	0.0146	0.0127	0.0079	-0.0149	-0.0179	-0.0009	0.0018	-0.0006	-0.0063	0.0083	0.0032	-0.0001	0.0079	-0.0108	-0.0013	-0.0009	-0.0069	-0.0006	0.0016	0.0022	-0.0020	0.1813	-0.0773	0.1776	-0.1085	0.1464	0.0278	-0.2215	-0.0164	-0.2247	0.1687	0.1426	-0.0113	-0.0362	0.0096	0.0071	0.0024	0.0190	-0.0507	0.0687	0.0014	0.0032	0.0539	-0.0775	0.0120	-0.0003	0.0111	0.0051	-0.0032	-0.0106	-0.0059	0.0094	0.0114	0.0124	0.0125	-0.0079	-0.0194	-0.0062	0.0103	0.0026	0.0136	0.0066	-0.0025	-0.0032	-0.0100	0.0108	0.0023	-0.0065	0.0096	-0.1454	-0.1286	0.2972	0.0008	-0.2439	0.0448	-0.0588	0.0853	0.3137	-0.0726	-0.1934	-0.0025	0.0194	-0.0008	-0.0281	0.0151	-0.0481	0.0198	0.0571	-0.0327	0.0235	-0.0441	-0.0658	0.0857	-0.0078	-0.0087	0.0128	0.0266	0.0024	0.0056	-0.0056	-0.0062	0.0007	-0.0124	0.0096	-0.0033	0.0038	-0.0048	-0.0038	-0.0064	-0.0069	0.0114	0.0086	-0.0023	-0.0083	-0.0067	0.0056	-0.0002	-0.0562	-0.1837	0.2385	0.0106	0.1966	-0.1620	-0.2367	-0.1228	0.1799	-0.0071	-0.1584	-0.0120	0.0305	0.0596	-0.1260	0.0444	0.0786	-0.0282	0.0272	-0.1038	0.0315	0.0220	-0.1140	-0.0432	0.0137	0.0303	0.0040	0.0022	0.0027	0.0194	-0.0044	0.0135	0.0193	0.0189	-0.0263	-0.0304	-0.0131	-0.0082	0.0043	0.0029	-0.0001	0.0188	0.0112	-0.0040	0.0021	-0.0081	-0.0089	-0.0103	0.2117	0.0187	0.0950	0.0206	-0.0320	-0.1501	0.2310	-0.0448	0.0928	0.3270	-0.2361	0.1136	0.0311	-0.0003	-0.1127	0.1202	-0.1101	0.0038	0.0968	-0.0154	-0.0075	-0.0241	0.0470	0.1111	-0.0038	0.0011	0.0228	0.0251	-0.0047	0.0169	-0.0004	-0.0197	-0.0097	-0.0077	0.0100	-0.0120	0.0010	-0.0108	-0.0059	0.0073	0.0018	0.0100	-0.0047	-0.0057	0.0003	-0.0040	0.0067	0.0070	-0.0667	-0.1011	0.2122	-0.0529	-0.2267	0.0156	-0.0967	0.0477	-0.2402	0.0240	0.2116	-0.0190	0.0305	-0.0114	-0.0695	0.0070	0.0855	0.0129	-0.0113	-0.0613	0.0142	0.0134	-0.0835	-0.0898	-0.0044	-0.0078	0.0110	0.0124	-0.0102	-0.0079	0.0046	0.0261	-0.0038	-0.0234	-0.0126	-0.0080	0.0038	-0.0033	-0.0064	0.0039	0.0053	-0.0034	0.0016	-0.0133	0.0013	0.0133	0.0011	0.0118	-0.3793	0.1231	0.0773	0.1360	-0.0286	0.0104	0.1329	0.1136	0.1197	-0.0218	-0.0954	-0.0124	-0.0797	-0.0006	0.0372	0.0428	-0.0511	-0.0085	0.0383	0.1219	-0.0313	-0.0270	0.0740	0.0198	-0.0019	-0.0264	-0.0014	-0.0170	-0.0095	-0.0146	0.0171	0.0062	-0.0080	-0.0057	0.0049	0.0019	-0.0034	-0.0119	-0.0020	-0.0097	-0.0104	-0.0017	0.0123	0.0085	-0.0004	-0.0006	0.0031	-0.0001	0.0828	0.1191	-0.3569	-0.0781	-0.1029	-0.0793	0.1917	-0.0136	-0.1852	0.0067	0.0563	-0.0474	0.0819	-0.0205	0.0124	-0.0857	-0.0045	0.0288	-0.1122	-0.0193	0.0078	-0.0200	0.0966	-0.0640	-0.0037	-0.0191	-0.0080	0.0078	0.0100	-0.0090	-0.0156	-0.0092	-0.0064	0.0058	0.0042	0.0164	0.0112	0.0047	-0.0005	-0.0006	0.0005	-0.0060	-0.0091	0.0013	-0.0019	0.0091	0.0055	0.0087	-0.0222	-0.0524	0.1197	-0.0486	0.2026	0.1603	-0.2779	0.1392	0.1461	-0.2721	0.3031	-0.1586	-0.0698	-0.0050	0.0893	-0.0296	0.0248	-0.0110	-0.0184	0.1050	-0.0189	0.0187	0.0290	-0.0727	0.0035	0.0070	-0.0089	-0.0279	0.0004	0.0083	0.0097	0.0091	0.0019	0.0201	-0.0045	0.0103	-0.0034	0.0096	0.0042	0.0079	-0.0058	-0.0138	0.0044	-0.0019	0.0049	0.0061	-0.0072	0.0006	0.0057	0.1039	0.2927	0.0073	-0.2900	0.0095	0.0538	-0.0481	-0.0631	0.1495	0.0988	0.1947	-0.0640	0.0027	-0.0225	0.1498	-0.0826	-0.0339	0.1461	0.0355	-0.0770	-0.0069	0.0090	0.1811	-0.0083	-0.0087	0.0289	0.0135	-0.0130	-0.0279	0.0245	0.0090	-0.0112	-0.0261	0.0174	-0.0051	-0.0005	-0.0055	-0.0053	0.0107	0.0043	0.0063	0.0012	-0.0024	-0.0045	-0.0105	0.0040	-0.0004	-0.0866	-0.1941	0.1573	-0.1260	-0.1686	-0.1420	0.0182	-0.0845	-0.1532	0.0589	-0.2837	-0.0030	0.0766	0.0263	-0.1401	0.0230	0.0243	-0.0030	0.0163	-0.0904	0.0545	0.0158	-0.0926	-0.0374	0.0077	0.0063	0.0169	0.0312	-0.0005	-0.0078	-0.0090	0.0159	0.0138	-0.0182	-0.0040	-0.0099	0.0015	-0.0052	-0.0026	0.0042	0.0047	0.0129	0.0026	-0.0085	-0.0028	-0.0014	0.0021	-0.0021	0.2078	-0.0483	0.1517	0.0927	0.1591	-0.1978	-0.1647	-0.1374	0.1875	0.2351	-0.0013	-0.0097	-0.0317	0.0035	-0.0787	0.1662	-0.0358	-0.0076	0.1044	-0.0291	-0.0292	0.0048	-0.0272	0.0878	0.0042	0.0158	0.0158	0.0105	0.0067	0.0206	0.0081	-0.0045	0.0059	0.0059	-0.0023	-0.0230	-0.0079	-0.0118	-0.0016	0.0036	0.0015	0.0059	0.0004	-0.0082	0.0053	-0.0012	-0.0055	0.0087	0.0001	-0.0000	-0.0001	-0.0000	0.0001	0.0000	0.0002	0.0001	-0.0001	0.0001	-0.0003	-0.0000	-0.0000	0.0000	0.0000	0.0000	0.0000	0.0000	0.0000	-0.0001	-0.0000	-0.0000	0.0002	-0.0001	-0.0000	-0.0000	0.0001	-0.0000	-0.0000	0.0000	0.0000	-0.0000	0.0000	-0.0000	-0.0001	-0.0000	-0.0000	-0.0000	0.0000	0.0000	-0.0000	-0.0000	0.0000	-0.0000	-0.0000	-0.0001	-0.0000	0.0001	-0.0001	-0.0001	-0.0001	-0.0000	0.0001	0.0000	0.0001	0.0001	-0.0001	0.0001	-0.0003	0.0000	-0.0000	-0.0000	0.0000	-0.0001	0.0001	0.0000	0.0001	0.0000	-0.0000	-0.0001	0.0001	-0.0001	-0.0000	-0.0000	-0.0000	-0.0000	0.0000	-0.0000	0.0000	-0.0000	0.0000	-0.0000	-0.0001	-0.0000	0.0000	-0.0000	-0.0000	0.0000	0.0000	-0.0001	-0.0000	0.0000	-0.0000	-0.0001	-0.0000	0.0001	-0.0002	-0.0001	0.0001	-0.0001	0.0000	0.0001	0.0002	0.0002	0.0001	-0.0000	-0.0001	-0.0002	0.0000	-0.0000	-0.0000	-0.0000	-0.0001	0.0000	-0.0000	0.0000	0.0000	0.0001	0.0001	-0.0001	0.0000	0.0000	-0.0000	0.0000	0.0000	-0.0000	0.0000	-0.0001	0.0001	0.0001	-0.0000	0.0000	0.0000	-0.0000	-0.0000	-0.0000	-0.0000	-0.0000	-0.0000	0.0000	0.0000	-0.0001	0.0000	0.0000	0.0001	-0.0000	-0.0001	-0.0000	0.0001	0.0000	0.0003	0.0001	-0.0002	0.0001	-0.0004	-0.0000	-0.0000	0.0001	0.0000	0.0000	0.0000	0.0000	0.0000	-0.0001	-0.0001	-0.0000	0.0003	-0.0002	-0.0000	-0.0001	0.0001	-0.0001	-0.0000	0.0000	0.0000	-0.0001	0.0000	-0.0000	-0.0002	-0.0000	-0.0001	-0.0000	0.0000	0.0000	-0.0001	-0.0000	0.0000	-0.0000	-0.0000	-0.0001	-0.0000	0.0001	-0.0001	-0.0001	-0.0002	-0.0000	0.0001	0.0000	0.0002	0.0001	-0.0002	0.0002	-0.0004	0.0000	-0.0001	-0.0000	0.0000	-0.0001	0.0001	0.0001	0.0001	0.0000	-0.0000	-0.0001	0.0002	-0.0002	-0.0000	-0.0000	-0.0000	-0.0000	0.0001	-0.0000	0.0000	-0.0000	0.0000	-0.0000	-0.0001	-0.0000	0.0000	-0.0001	-0.0000	0.0000	0.0000	-0.0001	-0.0000	0.0000	-0.0000	-0.0001	-0.0000	0.0001	-0.0003	-0.0001	0.0001	-0.0002	0.0001	0.0001	0.0003	0.0003	0.0001	-0.0000	-0.0002	-0.0003	0.0001	-0.0001	-0.0000	-0.0000	-0.0001	0.0001	-0.0001	0.0000	0.0000	0.0001	0.0002	-0.0002	0.0000	0.0001	-0.0000	0.0000	0.0001	-0.0001	0.0000	-0.0001	0.0001	0.0001	-0.0000	0.0000	0.0000	-0.0000	-0.0000	-0.0000	-0.0001	-0.0000	-0.0000	0.0000	0.0000	-0.0001	0.0000	0.0001	0.0001	-0.0000	-0.0001	-0.0000	0.0001	0.0000	0.0002	0.0001	-0.0002	0.0001	-0.0003	-0.0000	-0.0000	0.0001	0.0000	0.0000	0.0000	0.0000	0.0000	-0.0001	-0.0001	-0.0000	0.0002	-0.0001	-0.0000	-0.0000	0.0001	-0.0000	-0.0000	0.0000	0.0000	-0.0000	0.0000	-0.0000	-0.0002	-0.0000	-0.0001	-0.0000	0.0000	0.0000	-0.0001	-0.0000	0.0000	-0.0000	-0.0000	-0.0001	-0.0000	0.0001	-0.0001	-0.0001	-0.0001	-0.0000	0.0001	0.0000	0.0002	0.0001	-0.0002	0.0001	-0.0003	0.0000	-0.0001	-0.0000	0.0000	-0.0001	0.0001	0.0000	0.0001	0.0000	-0.0000	-0.0001	0.0002	-0.0001	-0.0000	-0.0000	-0.0000	-0.0000	0.0000	-0.0000	0.0000	-0.0000	0.0000	-0.0000	-0.0001	-0.0000	0.0000	-0.0000	-0.0000	0.0000	0.0000	-0.0001	-0.0000	0.0000	-0.0000	-0.0001	-0.0000	0.0001	-0.0002	-0.0001	0.0001	-0.0002	0.0000	0.0001	0.0002	0.0003	0.0001	-0.0000	-0.0002	-0.0002	0.0001	-0.0001	-0.0000	-0.0000	-0.0001	0.0001	-0.0001	0.0000	0.0000	0.0001	0.0002	-0.0001	0.0000	0.0001	-0.0000	0.0000	0.0000	-0.0000	0.0000	-0.0001	0.0001	0.0001	-0.0000	0.0000	0.0000	-0.0000	-0.0000	-0.0000	-0.0000	-0.0000	-0.0000	0.0000	0.0000	-0.0001	0.0000	0.0000	0.0001	-0.0000	-0.0002	-0.0000	0.0002	0.0000	0.0004	0.0002	-0.0003	0.0002	-0.0006	-0.0000	-0.0001	0.0001	0.0000	0.0000	0.0000	0.0000	0.0000	-0.0002	-0.0001	-0.0000	0.0004	-0.0003	-0.0000	-0.0001	0.0001	-0.0001	-0.0001	0.0001	0.0000	-0.0001	0.0001	-0.0000	-0.0004	-0.0000	-0.0001	-0.0000	0.0001	0.0001	-0.0001	-0.0000	0.0001	-0.0000	-0.0000	-0.0002	-0.0000	0.0002	-0.0002	-0.0001	-0.0003	-0.0000	0.0002	0.0001	0.0003	0.0002	-0.0003	0.0003	-0.0006	0.0001	-0.0001	-0.0000	0.0001	-0.0002	0.0002	0.0001	0.0002	0.0000	-0.0001	-0.0001	0.0003	-0.0003	-0.0000	-0.0001	-0.0000	-0.0001	0.0001	-0.0001	0.0001	-0.0001	0.0000	-0.0001	-0.0002	-0.0000	0.0001	-0.0001	-0.0000	0.0001	0.0000	-0.0001	-0.0000	0.0000	-0.0000	-0.0002	-0.0000	0.0002	-0.0004	-0.0002	0.0002	-0.0003	0.0001	0.0002	0.0004	0.0006	0.0001	-0.0000	-0.0003	-0.0004	0.0001	-0.0001	-0.0000	-0.0000	-0.0002	0.0001	-0.0001	0.0000	0.0000	0.0002	0.0003	-0.0003	0.0001	0.0001	-0.0001	0.0001	0.0001	-0.0001	0.0001	-0.0001	0.0001	0.0001	-0.0000	0.0000	0.0000	-0.0000	-0.0001	-0.0000	-0.0001	-0.0000	-0.0000	0.0000	0.0000	-0.0002	0.0001	0.0001	0.0000	-0.0000	0.0000	0.0000	-0.0000	0.0000	-0.0000	-0.0000	0.0000	-0.0000	0.0000	-0.0000	0.0000	-0.0000	0.0000	-0.0000	-0.0000	-0.0000	-0.0000	0.0000	0.0000	0.0000	-0.0000	0.0000	0.0000	0.0000	-0.0000	0.0000	0.0000	-0.0000	-0.0000	0.0000	-0.0000	0.0000	0.0000	0.0000	0.0000	0.0000	-0.0000	-0.0000	0.0000	0.0000	-0.0000	0.0000	0.0000	0.0000	0.0000	-0.0000	-0.0000	-0.0000	0.0000	-0.0000	-0.0000	0.0000	0.0000	0.0000	0.0000	-0.0000	0.0000	-0.0000	0.0000	0.0000	0.0000	0.0000	-0.0000	-0.0000	-0.0000	-0.0000	0.0000	0.0000	-0.0000	0.0000	0.0000	0.0000	0.0000	0.0000	-0.0000	0.0000	-0.0000	0.0000	-0.0000	0.0000	0.0000	0.0000	-0.0000	0.0000	0.0000	-0.0000	-0.0000	0.0000	0.0000	0.0000	0.0000	0.0000	0.0000	-0.0000	0.0000	0.0000	-0.0000	0.0000	0.0000	0.0000	-0.0000	-0.0000	-0.0000	0.0000	-0.0000	0.0000	-0.0000	0.0000	0.0000	0.0000	0.0000	-0.0000	0.0000	0.0000	-0.0000	-0.0000	-0.0000	0.0000	-0.0000	-0.0000	0.0000	-0.0000	-0.0000	0.0000	-0.0000	0.0000	-0.0000	-0.0000	0.0000	-0.0000	-0.0000	0.0000	0.0000	0.0000	0.0000	0.0000	0.0000	-0.0000	0.0000	0.0000	-0.0000	-0.0000	0.0000	-0.0000	0.0000	0.0000	-0.0000	0.0000	-0.0000	-0.0000	0.0000	-0.0000	0.0000	-0.0000	0.0000	-0.0000	0.0000	-0.0000	-0.0000	-0.0000	-0.0000	0.0000	0.0000	0.0000	-0.0000	0.0000	0.0000	0.0000	-0.0000	0.0000	0.0000	-0.0000	-0.0000	0.0000	-0.0000	0.0000	0.0000	0.0000	0.0000	0.0000	-0.0000	-0.0000	0.0000	0.0000	-0.0000	0.0000	0.0000	0.0000	0.0000	-0.0000	-0.0000	-0.0000	0.0000	-0.0000	-0.0000	0.0000	0.0000	0.0000	0.0000	-0.0000	0.0000	-0.0000	0.0000	0.0000	0.0000	0.0000	-0.0000	-0.0000	-0.0000	-0.0000	0.0000	0.0000	-0.0000	0.0000	0.0000	0.0000	0.0000	0.0000	-0.0000	0.0000	-0.0000	0.0000	-0.0000	0.0000	0.0000	0.0000	-0.0000	0.0000	0.0000	-0.0000	-0.0000	0.0000	0.0000	0.0000	0.0000	0.0000	0.0000	-0.0000	0.0000	0.0000	-0.0000	0.0000	0.0000	0.0000	-0.0000	-0.0000	-0.0000	0.0000	-0.0000	0.0000	-0.0000	0.0000	0.0000	0.0000	0.0000	-0.0000	0.0000	0.0000	-0.0000	-0.0000	-0.0000	0.0000	-0.0000	-0.0000	0.0000	-0.0000	-0.0000	0.0000	-0.0000	0.0000	-0.0000	-0.0000	0.0000	-0.0000	-0.0000	0.0000	0.0000	0.0000	0.0000	0.0000	0.0000	-0.0000	0.0000	0.0000	-0.0000	-0.0000	-0.0000	0.0000	-0.0001	-0.0000	0.0000	-0.0001	0.0001	0.0000	-0.0000	0.0001	-0.0001	0.0000	-0.0000	0.0000	-0.0000	0.0000	0.0000	0.0000	0.0000	-0.0001	-0.0000	-0.0000	0.0001	-0.0001	-0.0000	-0.0000	0.0000	-0.0000	-0.0000	0.0000	0.0000	-0.0000	0.0000	-0.0000	-0.0001	-0.0000	-0.0000	-0.0000	0.0000	0.0000	-0.0000	-0.0000	0.0000	-0.0000	-0.0000	-0.0001	-0.0000	0.0000	0.0000	0.0001	-0.0000	0.0001	0.0000	-0.0000	-0.0000	-0.0000	-0.0000	0.0000	-0.0000	0.0000	-0.0000	-0.0000	-0.0000	-0.0000	0.0001	0.0000	0.0001	0.0000	-0.0000	-0.0000	0.0001	-0.0001	-0.0000	-0.0000	-0.0000	-0.0000	0.0000	-0.0000	0.0000	-0.0000	0.0000	-0.0000	-0.0001	-0.0000	0.0000	-0.0000	-0.0000	0.0000	0.0000	-0.0000	-0.0000	-0.0000	-0.0000	-0.0000	-0.0000	0.0001	-0.0001	-0.0000	0.0000	-0.0001	-0.0000	-0.0000	0.0001	0.0001	0.0001	-0.0000	0.0000	-0.0001	0.0000	-0.0000	-0.0000	-0.0000	-0.0001	0.0000	-0.0000	-0.0000	0.0000	0.0001	0.0001	-0.0001	0.0000	0.0000	-0.0000	0.0000	0.0000	-0.0000	0.0000	-0.0000	0.0000	0.0000	-0.0000	0.0000	0.0000	-0.0000	-0.0000	-0.0000	-0.0000	-0.0000	-0.0000	0.0000	-0.0000	-0.0001	0.0000	0.0000	-0.0000	0.0000	-0.0000	-0.0000	0.0000	-0.0000	0.0000	0.0000	-0.0000	0.0000	-0.0000	0.0000	-0.0000	0.0000	-0.0000	0.0000	0.0000	0.0000	0.0000	-0.0000	-0.0000	-0.0000	0.0000	-0.0000	-0.0000	-0.0000	0.0000	-0.0000	-0.0000	0.0000	0.0000	-0.0000	0.0000	-0.0000	-0.0000	-0.0000	-0.0000	-0.0000	0.0000	0.0000	-0.0000	-0.0000	0.0000	-0.0000	-0.0000	-0.0000	-0.0000	0.0000	0.0000	0.0000	-0.0000	0.0000	0.0000	-0.0000	-0.0000	-0.0000	-0.0000	0.0000	-0.0000	0.0000	-0.0000	-0.0000	-0.0000	-0.0000	0.0000	0.0000	0.0000	0.0000	-0.0000	-0.0000	0.0000	-0.0000	-0.0000	-0.0000	-0.0000	-0.0000	0.0000	-0.0000	0.0000	-0.0000	0.0000	-0.0000	-0.0000	-0.0000	0.0000	-0.0000	-0.0000	0.0000	0.0000	-0.0000	-0.0000	-0.0000	-0.0000	-0.0000	-0.0000	0.0000	-0.0000	-0.0000	0.0000	-0.0000	-0.0000	-0.0000	0.0000	0.0000	0.0000	-0.0000	0.0000	-0.0000	0.0000	-0.0000	-0.0000	-0.0000	-0.0000	0.0000	-0.0000	-0.0000	0.0000	0.0000	0.0000	-0.0000	0.0000	0.0000	-0.0000	0.0000	0.0000	-0.0000	0.0000	-0.0000	0.0000	0.0000	-0.0000	0.0000	0.0000	-0.0000	-0.0000	-0.0000	-0.0000	-0.0000	-0.0000	0.0000	-0.0000	-0.0000	0.0000	0.0000	-0.0000	0.0000	0.0000	0.0000	-0.0000	0.0000	-0.0000	-0.0000	0.0000	-0.0000	0.0000	-0.0000	0.0000	-0.0000	0.0000	-0.0000	-0.0000	-0.0000	-0.0000	0.0000	0.0000	0.0000	-0.0000	0.0000	0.0000	0.0000	-0.0000	0.0000	0.0000	-0.0000	-0.0000	0.0000	-0.0000	0.0000	0.0000	-0.0000	0.0000	0.0000	-0.0000	-0.0000	0.0000	0.0000	-0.0000	0.0000	0.0000	0.0000	0.0000	-0.0000	-0.0000	-0.0000	0.0000	-0.0000	-0.0000	-0.0000	0.0000	-0.0000	0.0000	-0.0000	0.0000	-0.0000	0.0000	0.0000	-0.0000	0.0000	-0.0000	-0.0000	-0.0000	-0.0000	0.0000	0.0000	-0.0000	0.0000	0.0000	0.0000	0.0000	0.0000	-0.0000	0.0000	-0.0000	0.0000	-0.0000	0.0000	0.0000	0.0000	-0.0000	0.0000	0.0000	-0.0000	-0.0000	0.0000	0.0000	-0.0000	0.0000	0.0000	0.0000	-0.0000	0.0000	0.0000	-0.0000	0.0000	0.0000	0.0000	-0.0000	-0.0000	-0.0000	0.0000	-0.0000	0.0000	-0.0000	0.0000	0.0000	-0.0000	0.0000	-0.0000	0.0000	0.0000	-0.0000	-0.0000	-0.0000	0.0000	-0.0000	-0.0000	0.0000	-0.0000	-0.0000	0.0000	-0.0000	0.0000	-0.0000	-0.0000	0.0000	-0.0000	-0.0000	0.0000	0.0000	0.0000	0.0000	0.0000	0.0000	-0.0000	0.0000	0.0000	-0.0000	-0.0000	0.0000	-0.0000	-0.0000	-0.0000	0.0000	-0.0000	0.0000	0.0000	-0.0000	0.0000	-0.0000	0.0000	-0.0000	0.0000	-0.0000	0.0000	0.0000	0.0000	0.0000	-0.0000	-0.0000	-0.0000	0.0000	-0.0000	-0.0000	-0.0000	0.0000	-0.0000	-0.0000	0.0000	0.0000	-0.0000	0.0000	-0.0000	-0.0000	0.0000	-0.0000	-0.0000	0.0000	0.0000	-0.0000	-0.0000	0.0000	-0.0000	-0.0000	-0.0000	-0.0000	0.0000	0.0000	0.0000	-0.0000	0.0000	0.0000	0.0000	-0.0000	0.0000	-0.0000	0.0000	-0.0000	0.0000	-0.0000	-0.0000	0.0000	-0.0000	0.0000	0.0000	0.0000	0.0000	-0.0000	-0.0000	0.0000	-0.0000	-0.0000	-0.0000	-0.0000	-0.0000	0.0000	-0.0000	0.0000	-0.0000	0.0000	-0.0000	-0.0000	-0.0000	0.0000	-0.0000	-0.0000	0.0000	0.0000	-0.0000	-0.0000	0.0000	-0.0000	-0.0000	-0.0000	0.0000	-0.0000	-0.0000	0.0000	-0.0000	-0.0000	-0.0000	0.0000	0.0000	0.0000	-0.0000	0.0000	-0.0000	0.0000	-0.0000	-0.0000	0.0000	-0.0000	0.0000	-0.0000	-0.0000	0.0000	0.0000	0.0000	-0.0000	0.0000	0.0000	-0.0000	0.0000	0.0000	-0.0000	0.0000	-0.0000	0.0000	0.0000	-0.0000	0.0000	0.0000	-0.0000	-0.0000	-0.0000	-0.0000	-0.0000	-0.0000	0.0000	-0.0000	-0.0000	0.0000	0.0000	-0.0000	0.0000	0.0000	0.0000	-0.0000	0.0000	-0.0000	-0.0000	0.0000	-0.0000	0.0000	-0.0000	0.0000	-0.0000	0.0000	-0.0000	-0.0000	-0.0000	-0.0000	0.0000	0.0000	0.0000	-0.0000	0.0000	0.0000	0.0000	-0.0000	0.0000	0.0000	-0.0000	-0.0000	0.0000	-0.0000	0.0000	0.0000	-0.0000	0.0000	0.0000	-0.0000	-0.0000	0.0000	0.0000	-0.0000	0.0000	0.0000	0.0000	0.0000	-0.0000	-0.0000	-0.0000	0.0000	-0.0000	-0.0000	-0.0000	0.0000	-0.0000	0.0000	-0.0000	0.0000	-0.0000	0.0000	0.0000	-0.0000	0.0000	-0.0000	-0.0000	-0.0000	-0.0000	0.0000	0.0000	-0.0000	0.0000	0.0000	0.0000	0.0000	0.0000	-0.0000	0.0000	-0.0000	0.0000	-0.0000	0.0000	0.0000	0.0000	-0.0000	0.0000	0.0000	-0.0000	-0.0000	0.0000	0.0000	-0.0000	0.0000	0.0000	0.0000	-0.0000	0.0000	0.0000	-0.0000	0.0000	0.0000	0.0000	-0.0000	-0.0000	-0.0000	0.0000	-0.0000	0.0000	-0.0000	0.0000	0.0000	-0.0000	0.0000	-0.0000	0.0000	0.0000	-0.0000	-0.0000	-0.0000	0.0000	-0.0000	-0.0000	0.0000	-0.0000	-0.0000	0.0000	-0.0000	0.0000	-0.0000	-0.0000	0.0000	-0.0000	-0.0000	0.0000	0.0000	0.0000	0.0000	0.0000	0.0000	-0.0000	0.0000	0.0000	-0.0000	-0.0000	-0.0000	0.0000	0.0000	0.0000	-0.0000	0.0000	-0.0000	-0.0000	0.0000	-0.0000	0.0000	-0.0000	0.0000	-0.0000	0.0000	-0.0000	-0.0000	-0.0000	-0.0000	0.0000	0.0000	0.0000	-0.0000	0.0000	0.0000	0.0000	-0.0000	0.0000	0.0000	-0.0000	-0.0000	0.0000	-0.0000	0.0000	0.0000	-0.0000	0.0000	0.0000	-0.0000	-0.0000	0.0000	0.0000	-0.0000	0.0000	0.0000	0.0000	0.0000	-0.0000	-0.0000	-0.0000	0.0000	-0.0000	-0.0000	-0.0000	0.0000	-0.0000	0.0000	-0.0000	0.0000	-0.0000	0.0000	0.0000	-0.0000	0.0000	-0.0000	-0.0000	-0.0000	-0.0000	0.0000	0.0000	-0.0000	0.0000	0.0000	0.0000	0.0000	0.0000	-0.0000	0.0000	-0.0000	0.0000	-0.0000	0.0000	0.0000	0.0000	-0.0000	0.0000	0.0000	-0.0000	-0.0000	0.0000	0.0000	-0.0000	0.0000	0.0000	0.0000	-0.0000	0.0000	0.0000	-0.0000	0.0000	0.0000	0.0000	-0.0000	-0.0000	-0.0000	0.0000	-0.0000	0.0000	-0.0000	0.0000	0.0000	-0.0000	0.0000	-0.0000	0.0000	0.0000	-0.0000	-0.0000	-0.0000	0.0000	-0.0000	-0.0000	0.0000	-0.0000	-0.0000	0.0000	-0.0000	0.0000	-0.0000	-0.0000	0.0000	-0.0000	-0.0000	0.0000	0.0000	0.0000	0.0000	0.0000	0.0000	-0.0000	0.0000	0.0000	-0.0000	-0.0000	0.0000	-0.0000	0.0000	-0.0000	-0.0000	-0.0000	0.0000	0.0000	-0.0000	0.0000	0.0000	0.0000	-0.0000	0.0000	-0.0000	0.0000	0.0000	0.0000	0.0000	-0.0000	-0.0000	-0.0000	0.0000	-0.0000	-0.0000	-0.0000	0.0000	-0.0000	-0.0000	0.0000	0.0000	-0.0000	0.0000	-0.0000	-0.0000	0.0000	-0.0000	-0.0000	0.0000	0.0000	-0.0000	-0.0000	0.0000	-0.0000	-0.0000	-0.0000	-0.0000	0.0000	-0.0000	0.0000	0.0000	0.0000	-0.0000	0.0000	-0.0000	-0.0000	-0.0000	-0.0000	-0.0000	0.0000	-0.0000	0.0000	-0.0000	-0.0000	0.0000	0.0000	0.0000	0.0000	-0.0000	-0.0000	0.0000	-0.0000	-0.0000	-0.0000	-0.0000	-0.0000	0.0000	-0.0000	0.0000	-0.0000	0.0000	-0.0000	-0.0000	-0.0000	0.0000	-0.0000	-0.0000	0.0000	0.0000	-0.0000	-0.0000	0.0000	-0.0000	-0.0000	-0.0000	0.0000	-0.0000	-0.0000	0.0000	-0.0000	-0.0000	-0.0000	0.0000	0.0000	0.0000	-0.0000	0.0000	-0.0000	0.0000	-0.0000	-0.0000	0.0000	-0.0000	0.0000	-0.0000	-0.0000	0.0000	0.0000	0.0000	-0.0000	0.0000	0.0000	-0.0000	0.0000	0.0000	-0.0000	0.0000	-0.0000	0.0000	0.0000	-0.0000	0.0000	0.0000	-0.0000	-0.0000	-0.0000	-0.0000	-0.0000	-0.0000	0.0000	0.0000	-0.0000	0.0000	0.0000	-0.0000	0.0000	-0.0000	0.0000	0.0000	0.0000	-0.0000	-0.0000	0.0000	-0.0000	-0.0000	-0.0000	0.0000	-0.0000	0.0000	-0.0000	-0.0000	-0.0000	-0.0000	0.0000	0.0000	0.0000	-0.0000	0.0000	0.0000	0.0000	-0.0000	0.0000	0.0000	-0.0000	-0.0000	0.0000	-0.0000	0.0000	0.0000	-0.0000	0.0000	0.0000	-0.0000	-0.0000	0.0000	0.0000	-0.0000	0.0000	0.0000	0.0000	0.0000	-0.0000	0.0000	-0.0000	-0.0000	-0.0000	0.0000	-0.0000	0.0000	0.0000	0.0000	0.0000	0.0000	-0.0000	0.0000	-0.0000	0.0000	0.0000	-0.0000	-0.0000	-0.0000	-0.0000	0.0000	0.0000	-0.0000	0.0000	0.0000	0.0000	0.0000	0.0000	-0.0000	0.0000	-0.0000	0.0000	-0.0000	0.0000	0.0000	0.0000	-0.0000	0.0000	0.0000	-0.0000	-0.0000	0.0000	0.0000	-0.0000	0.0000	0.0000	0.0000	-0.0000	0.0000	0.0000	-0.0000	0.0000	0.0000	0.0000	-0.0000	-0.0000	-0.0000	0.0000	-0.0000	0.0000	-0.0000	0.0000	0.0000	-0.0000	0.0000	-0.0000	0.0000	0.0000	-0.0000	-0.0000	-0.0000	0.0000	-0.0000	-0.0000	0.0000	-0.0000	-0.0000	0.0000	-0.0000	0.0000	-0.0000	-0.0000	0.0000	-0.0000	-0.0000	0.0000	0.0000	0.0000	0.0000	0.0000	0.0000	-0.0000	-0.0000	0.0000	-0.0000	-0.0000	0.0000	-0.0000	0.0000	-0.0000	-0.0000	-0.0000	0.0000	0.0000	-0.0000	0.0000	0.0000	0.0000	-0.0000	0.0000	-0.0000	0.0000	0.0000	0.0000	0.0000	-0.0000	-0.0000	-0.0000	0.0000	-0.0000	-0.0000	-0.0000	0.0000	-0.0000	-0.0000	0.0000	0.0000	-0.0000	0.0000	-0.0000	-0.0000	0.0000	-0.0000	-0.0000	0.0000	0.0000	-0.0000	-0.0000	0.0000	-0.0000	-0.0000	-0.0000	-0.0000	0.0000	-0.0000	0.0000	0.0000	0.0000	-0.0000	0.0000	-0.0000	-0.0000	-0.0000	-0.0000	-0.0000	0.0000	-0.0000	0.0000	-0.0000	-0.0000	0.0000	0.0000	0.0000	0.0000	-0.0000	-0.0000	0.0000	-0.0000	-0.0000	-0.0000	-0.0000	-0.0000	0.0000	-0.0000	0.0000	-0.0000	0.0000	-0.0000	-0.0000	-0.0000	0.0000	-0.0000	-0.0000	0.0000	0.0000	-0.0000	-0.0000	0.0000	-0.0000	-0.0000	-0.0000	0.0000	-0.0000	-0.0000	0.0000	-0.0000	-0.0000	-0.0000	0.0000	0.0000	0.0000	-0.0000	0.0000	-0.0000	0.0000	-0.0000	-0.0000	0.0000	-0.0000	0.0000	-0.0000	-0.0000	0.0000	0.0000	0.0000	-0.0000	0.0000	0.0000	-0.0000	0.0000	0.0000	-0.0000	0.0000	-0.0000	0.0000	0.0000	-0.0000	0.0000	0.0000	-0.0000	-0.0000	-0.0000	-0.0000	-0.0000	-0.0000	0.0000	0.0000	-0.0000	0.0000	0.0000	-0.0000	0.0000	-0.0000	0.0000	0.0000	0.0000	-0.0000	-0.0000	0.0000	-0.0000	-0.0000	-0.0000	0.0000	-0.0000	0.0000	-0.0000	-0.0000	-0.0000	-0.0000	0.0000	0.0000	0.0000	-0.0000	0.0000	0.0000	0.0000	-0.0000	0.0000	0.0000	-0.0000	-0.0000	0.0000	-0.0000	0.0000	0.0000	-0.0000	0.0000	0.0000	-0.0000	-0.0000	0.0000	0.0000	-0.0000	0.0000	0.0000	0.0000	0.0000	-0.0000	0.0000	-0.0000	-0.0000	-0.0000	0.0000	-0.0000	0.0000	0.0000	0.0000	0.0000	0.0000	-0.0000	0.0000	-0.0000	0.0000	0.0000	-0.0000	-0.0000	-0.0000	-0.0000	0.0000	0.0000	-0.0000	0.0000	0.0000	0.0000	0.0000	0.0000	-0.0000	0.0000	-0.0000	0.0000	-0.0000	0.0000	0.0000	0.0000	-0.0000	0.0000	0.0000	-0.0000	-0.0000	0.0000	0.0000	-0.0000	0.0000	0.0000	0.0000	-0.0000	0.0000	0.0000	-0.0000	0.0000	0.0000	0.0000	-0.0000	-0.0000	-0.0000	0.0000	-0.0000	0.0000	-0.0000	0.0000	0.0000	-0.0000	0.0000	-0.0000	0.0000	0.0000	-0.0000	-0.0000	-0.0000	0.0000	-0.0000	-0.0000	0.0000	-0.0000	-0.0000	0.0000	-0.0000	0.0000	-0.0000	-0.0000	0.0000	-0.0000	-0.0000	0.0000	0.0000	0.0000	0.0000	0.0000	0.0000	-0.0000	-0.0000	0.0000	-0.0000	-0.0000	1.0000	1.0000	1.0000	1.0000	1.0000	1.0000	1.0000	1.0000	1.0000	1.0000	1.0000	1.0000	1.0000	1.0000	1.0000	1.0000	1.0000	1.0000	1.0000	1.0000	1.0000	1.0000	1.0000	1.0000	1.0000	1.0000	1.0000	1.0000	1.0000	1.0000	1.0000	1.0000	1.0000	1.0000	1.0000	1.0000	1.0000	1.0000	1.0000	1.0000	1.0000	1.0000	1.0000	1.0000	1.0000	1.0000	1.0000	1.0000	1.0000	1.0000	1.0000	1.0000	1.0000	1.0000	1.0000	1.0000	1.0000	1.0000	1.0000	1.0000	1.0000	1.0000	1.0000	1.0000	1.0000	1.0000	1.0000	1.0000	1.0000	1.0000	1.0000	1.0000	1.0000	1.0000	1.0000	1.0000	1.0000	1.0000	1.0000	1.0000	1.0000	1.0000	1.0000	1.0000	1.0000	1.0000	1.0000	1.0000	1.0000	1.0000	1.0000	1.0000	1.0000	1.0000	1.0000	1.0000	1.0000	1.0000	1.0000	1.0000	1.0000	1.0000	1.0000	1.0000	1.0000	1.0000	1.0000	1.0000	1.0000	1.0000	1.0000	1.0000	1.0000	1.0000	1.0000	1.0000	1.0000	1.0000	1.0000	1.0000	1.0000	1.0000	1.0000	1.0000	1.0000	1.0000	1.0000	1.0000	1.0000	1.0000	1.0000	1.0000	1.0000	1.0000	1.0000	1.0000	1.0000	1.0000	1.0000	1.0000	1.0000	1.0000	1.0000	1.0000	0.0625	0.0625	0.0625	0.0625	0.0625	0.0625	0.0625	0.0625	0.0625	0.0625	0.0625	0.0625	0.0625	0.0625	0.0625	0.0625	0.0625	0.0625	0.0625	0.0625	0.0625	0.0625	0.0625	0.0625	0.0625	0.0625	0.0625	0.0625	0.0625	0.0625	0.0625	0.0625	0.0625	0.0625	0.0625	0.0625	0.0625	0.0625	0.0625	0.0625	0.0625	0.0625	0.0625	0.0625	0.0625	0.0625	0.0625	0.0625	0.0625	0.0625	0.0625	0.0625	0.0625	0.0625	0.0625	0.0625	0.0625	0.0625	0.0625	0.0625	0.0625	0.0625	0.0625	0.0625	0.0625	0.0625	0.0625	0.0625	0.0625	0.0625	0.0625	0.0625	0.0625	0.0625	0.0625	0.0625	0.0625	0.0625	0.0625	0.0625	0.0625	0.0625	0.0625	0.0625	0.0625	0.0625	0.0625	0.0625	0.0625	0.0625	0.0625	0.0625	0.0625	0.0625	0.0625	0.0625	0.0625	0.0625	0.0625	0.0625	0.0625	0.0625	0.0625	0.0625	0.0625	0.0625	0.0625	0.0625	0.0625	0.0625	0.0625	0.0625	0.0625	0.0625	0.0625	0.0625	0.0625	0.0625	0.0625	0.0625	0.0625	0.0625	0.0625	0.0625	0.0625	0.0625	0.0625	0.0625	0.0625	0.0625	0.0625	0.0625	0.0625	0.0625	0.0625	0.0625	0.0625	0.0625	0.0625	0.0625	0.0625	0.0625	0.0625	0.0625	0.0625	0.0625	0.0625	0.0625	0.0625	0.0625	0.0625	0.0625	0.0625	0.0625	0.0625	0.0625	0.0625	0.0625	0.0625	0.0625	0.0625	0.0625	0.0625	0.0625	0.0625	0.0625	0.0625	0.0625	0.0625	0.0625	0.0625	0.0625	0.0625	0.0625	0.0625	0.0625	0.0625	0.0625	0.0625	0.0625	0.0625	0.0625	0.0625	0.0625	0.0625	0.0625	0.0625	0.0625	0.0625	0.0625	0.0625	0.0625	0.0625	0.0625	0.0625	0.0625	0.0625	0.0625	0.0625	0.0625	0.0625	0.0625	0.0625	0.0625	0.0625	0.0625	0.0625	0.0625	0.0625	0.0625	0.0625	0.0625	0.0625	0.0625	0.0625	0.0625	0.0625	0.0625	0.0625	0.0625	0.0625	0.0625	0.0625	0.0625	0.0625	0.0625	0.0625	0.0625	0.0625	0.0625	0.0625	0.0625	0.0625	0.0625	0.0625	0.0625	0.0625	0.0625	0.0625	0.0625	0.0625	0.0625	0.0625	0.0625	0.0625	0.0625	0.0625	0.0625	0.0625	0.0625	0.0625	0.0625	0.0625	0.0625	0.0625	0.0625	0.0625	0.0625	0.0625	0.0625	0.0625	0.0625	0.0625	0.0625	0.0625	0.0625	0.0625	0.0625	0.0625	0.0625	0.0625	0.0625	0.0625	0.0625	0.0625	0.0625	0.0625	0.0625	0.0625	0.0625	0.0625	0.0625	0.0625	0.0625	0.0625	0.0625	0.0625	0.0625	0.0625	0.0625	0.0625	0.0625	0.0625	0.0625	0.0625	0.0625	0.0625	0.0625	0.0625	0.0625	0.0625	0.0625	0.0625	0.0625	0.0625	0.0625	0.0625	0.0625	0.0625	0.0625	0.0625	0.0625	0.0625	0.0625	0.0625	0.0625	0.0625	0.0625	0.0625	0.0625	0.0625	0.0625	0.0625	0.0625	0.0625	0.0625	0.0625	0.0625	0.0625	0.0625	0.0625	0.0625	0.0625	0.0625	0.0625	0.0625	0.0625	0.0625	0.0625	0.0625	0.0625	0.0625	0.0625	0.0625	0.0625	0.0625	0.0625	0.0625	0.0625	0.0625	0.0625	0.0625	0.0625	0.0625	0.0625	0.0625	0.0625	0.0625	0.0625	0.0625	0.0625	0.0625	0.0625	0.0625	0.0625	0.0625	0.0625	0.0625	0.0625	0.0625	0.0625	0.0625	0.0625	0.0625	0.0625	0.0625	0.0625	0.0625	0.0625	0.0625	0.0625	0.0625	0.0625	0.0625	0.0625	0.0625	0.0625	0.0625	0.0625	0.0625	0.0625	0.0625	0.0625	0.0625	0.0625	0.0625	0.0625	0.0625	0.0625	0.0625	0.0625	0.0625	0.0625	0.0625	0.0625	0.0625	0.0625	0.0625	0.0625	0.0625	0.0625	0.0625	0.0625	0.0625	0.0625	0.0625	0.0625	0.0625	0.0625	0.0625	0.0625	0.0625	0.0625	0.0625	0.0625	0.0625	0.0625	0.0625	0.0625	0.0625	0.0625	0.0625	0.0625	0.0625	0.0625	0.0625	0.0625	0.0625	0.0625	0.0625	0.0625	0.0625	0.0625	0.0625	0.0625	0.0625	0.0625	0.0625	0.0625	0.0625	0.0625	0.0625	0.0625	0.0625	0.0625	0.0625	0.0625	0.0625	0.0625	0.0625	0.0625	0.0625	0.0625	0.0625	0.0625	0.0625	0.0625	0.0625	0.0625	0.0625	0.0625	0.0625	0.0625	0.0625	0.0625	0.0625	0.0625	0.0625	0.0625	0.0625	0.0625	0.0625	0.0625	0.0625	0.0625	0.0625	0.0625	0.0625	0.0625	0.0625	0.0625	0.0625	0.0625	0.0625	0.0625	0.0625	0.0625	0.0625	0.0625	0.0625	0.0625	0.0625	0.0625	0.0625	0.0625	0.0625	0.0625	0.0625	0.0625	0.0625	0.0625	0.0625	0.0625	0.0625	0.0625	0.0625	0.0625	0.0625	0.0625	0.0625	0.0625	0.0625	0.0625	0.0625	0.0625	0.0625	0.0625	0.0625	0.0625	0.0625	0.0625	0.0625	0.0625	0.0625	0.0625	0.0625	0.0625	0.0625	0.0625	0.0625	0.0625	0.0625	0.0625	0.0625	0.0625	0.0625	0.0625	0.0625	0.0625	0.0625	0.0625	0.0625	0.0625	0.0625	0.0625	0.0625	0.0625	0.0625	0.0625	0.0625	0.0625	0.0625	0.0625	0.0625	0.0625	0.0625	0.0625	0.0625	0.0625	0.0625	0.0625	0.0625	0.0625	0.0625	0.0625	0.0625	