1.3371	4.9963	6.0733	1.0212	6.0644	1.3596	1.6366	4.7849	1.0735	1.3333	8.4311	3.4794	2.7689	5.4469	0.4987	3.4227	1.8473	0.3664	0.9120	3.8861	-1.1046	1.7152	7.5181	3.2830	2.7508	3.8689	1.3388	0.1821	0.8755	6.2955	0.7781	4.9153	7.2566	0.9477	3.7287	1.6082	0.1255	0.0855	1.5578	0.0504	-0.3913	-0.0236	0.2969	-0.2259	0.2150	-0.0216	-0.6063	0.5535	-0.8309	-0.0979	-1.1633	0.1467	0.6260	0.0216	-0.1261	-0.0068	0.0727	-0.2659	-0.1166	0.4480	0.0793	0.6034	0.3350	0.2744	1.3391	0.2005	-0.9079	-0.4970	-1.0958	-0.1477	0.8415	0.3394	0.1527	-0.3481	-1.4439	0.5136	0.2450	0.2163	-0.1126	0.3697	0.0221	0.1613	1.3932	-0.5958	0.1837	-0.6282	-0.9645	0.0137	0.0195	0.2303	-0.3511	-0.0818	0.0244	0.2561	-0.1855	0.7467	-0.5923	-0.4460	0.0032	0.1512	-0.2121	0.5445	0.3146	0.0947	-0.7540	-0.1321	0.5010	-0.0905	-0.1404	0.6994	0.5110	-0.1199	0.2186	0.2575	-0.1520	-0.3904	-0.3402	-0.0300	0.3473	0.4419	-0.0751	-0.0784	0.1318	-0.1201	0.5582	0.0814	-0.0821	0.3282	0.3519	0.6029	-0.1520	-0.4044	0.1145	-0.2851	-0.0874	0.1435	0.0742	-0.1570	-0.0723	-0.2501	-0.5001	0.2698	0.1224	-0.0119	-0.1749	-0.0705	-0.2051	-0.1101	-0.1281	0.1587	0.0077	0.0329	0.1349	0.2026	0.1652	0.1865	0.0156	0.0047	-0.0178	-0.0368	0.0045	-0.0042	-0.0092	-0.0020	-0.0124	-0.0065	0.0011	0.0301	0.0037	0.0058	-0.0054	0.0066	0.0023	-0.0017	-0.0043	0.0122	-0.0016	-0.0078	0.0041	0.0053	-0.0008	-0.0013	0.0015	0.0089	0.0017	0.0009	-0.0012	0.0012	0.0017	0.0030	-0.0018	-0.0056	0.0765	0.2403	-0.1038	0.1694	0.0767	0.0973	0.0548	0.2351	0.0936	-0.0297	0.1895	0.0626	-0.0046	0.0014	0.0020	-0.0019	-0.0058	-0.0010	-0.0001	0.0055	-0.0097	0.0005	-0.0036	-0.0025	0.0080	0.0060	-0.0002	0.0077	0.0166	-0.0130	0.0019	0.0096	0.0029	-0.0109	-0.0004	-0.0016	0.0009	0.0011	-0.0007	-0.0004	0.0007	-0.0009	0.0004	-0.0012	-0.0011	0.0005	-0.0000	-0.0017	0.2951	0.3250	0.2389	0.3131	0.3069	0.0232	0.0900	0.1890	0.0055	-0.1442	-0.0447	-0.0522	-0.0174	-0.0006	0.0117	0.0321	-0.0027	0.0016	0.0020	0.0087	0.0126	-0.0015	-0.0016	-0.0390	0.0081	0.0019	0.0058	0.0035	0.0107	-0.0004	0.0040	-0.0071	0.0051	-0.0031	-0.0015	-0.0097	0.0005	0.0043	-0.0022	-0.0071	0.0001	0.0015	-0.0005	-0.0008	0.0005	-0.0025	0.0039	0.0069	-0.0071	-0.0036	-0.0146	-0.0162	0.0012	-0.0193	-0.0858	-0.0343	-0.0520	0.0407	-0.1090	-0.0177	-0.0058	0.0008	-0.0029	0.0104	0.0030	0.0072	-0.0103	-0.0046	0.0138	0.0023	-0.0173	-0.0147	-0.0018	0.0023	0.0011	-0.0023	0.0000	0.0084	-0.0006	0.0012	0.0040	0.0059	-0.0021	0.0064	-0.0004	0.0004	0.0004	-0.0009	-0.0009	0.0012	0.0014	0.0022	-0.0003	-0.0002	0.0009	0.0049	-0.0405	0.0026	0.0034	-0.0446	0.0286	0.2174	0.0010	0.0294	0.1465	0.3285	0.0020	0.2230	-0.0031	0.0059	-0.0076	-0.0107	-0.0028	0.0038	-0.0073	-0.0052	0.0005	0.0052	-0.0098	0.0080	-0.0057	0.0021	-0.0035	0.0002	-0.0078	0.0107	-0.0007	0.0033	0.0037	0.0078	0.0018	0.0065	0.0010	0.0007	0.0021	0.0005	-0.0014	0.0010	0.0008	0.0005	-0.0001	0.0000	-0.0006	0.0016	-0.0557	0.0913	-0.0156	-0.0084	0.0502	0.3516	0.1720	0.1829	0.3248	0.4521	0.3038	0.3682	0.0017	0.0066	-0.0007	-0.0235	-0.0078	0.0063	-0.0021	-0.0048	-0.0134	0.0022	-0.0012	0.0251	-0.0049	0.0008	-0.0036	0.0052	-0.0053	0.0022	-0.0004	0.0103	-0.0006	0.0030	0.0033	0.0091	0.0007	-0.0022	0.0042	0.0035	-0.0015	0.0003	-0.0001	-0.0009	0.0015	0.0038	-0.0001	-0.0038	0.0883	0.1648	0.2389	0.1118	0.2062	0.2658	0.3103	0.1978	0.2947	0.2846	0.3152	0.2597	-0.0036	0.0048	0.0109	-0.0002	-0.0055	0.0068	0.0127	0.0042	-0.0029	0.0047	0.0063	0.0057	-0.0057	-0.0064	0.0001	0.0004	-0.0065	-0.0028	-0.0005	-0.0029	-0.0037	-0.0015	-0.0010	-0.0022	0.0018	-0.0021	0.0008	-0.0001	-0.0018	-0.0024	0.0016	-0.0024	-0.0011	-0.0023	0.0001	-0.0007	-0.0437	-0.0335	0.1277	-0.0232	0.0277	0.0652	0.2362	0.0318	0.1471	0.1422	0.2732	0.1022	0.0070	0.0058	0.0063	-0.0048	0.0083	0.0056	0.0056	-0.0025	0.0103	0.0031	0.0045	0.0043	-0.0010	-0.0079	-0.0005	0.0001	-0.0051	-0.0060	-0.0018	-0.0019	-0.0064	-0.0002	-0.0011	-0.0020	0.0008	-0.0017	0.0015	0.0000	-0.0003	-0.0018	-0.0009	0.0002	-0.0010	-0.0010	-0.0024	-0.0016	-0.1344	-0.1475	-0.0572	-0.1246	-0.1221	-0.0749	0.0227	-0.0892	-0.0304	0.0166	0.1130	-0.0164	0.0100	0.0042	-0.0009	-0.0074	0.0129	0.0050	-0.0012	-0.0058	0.0138	0.0015	-0.0038	0.0034	-0.0015	-0.0037	-0.0003	-0.0016	-0.0036	-0.0062	-0.0038	-0.0006	-0.0074	-0.0033	-0.0015	0.0001	-0.0006	-0.0018	-0.0009	0.0017	0.0003	-0.0008	-0.0010	0.0026	0.0003	0.0003	-0.0015	0.0011	0.3725	0.2727	0.2522	0.3161	0.2648	-0.0258	0.0457	0.1300	-0.0350	-0.2021	-0.1289	-0.1030	-0.0057	-0.0070	0.0007	0.0218	-0.0031	-0.0099	-0.0007	0.0002	0.0043	-0.0021	0.0012	-0.0259	0.0018	0.0007	0.0027	-0.0033	0.0060	-0.0001	0.0023	-0.0086	0.0061	0.0032	-0.0022	-0.0081	-0.0010	0.0012	-0.0020	-0.0019	0.0004	0.0017	-0.0004	-0.0003	0.0001	-0.0028	0.0015	0.0045	0.3134	0.1600	0.2815	0.2167	0.2202	0.0180	0.0471	0.0507	0.0027	-0.0893	-0.1633	-0.0470	0.0057	-0.0098	-0.0055	0.0078	0.0029	-0.0094	0.0003	-0.0075	-0.0003	-0.0062	0.0042	-0.0149	0.0015	-0.0007	0.0001	-0.0043	-0.0014	0.0075	0.0007	-0.0094	0.0038	0.0060	-0.0019	-0.0052	0.0015	0.0011	-0.0019	0.0006	-0.0010	-0.0000	-0.0010	0.0012	-0.0001	-0.0014	0.0017	0.0017	0.2031	0.0959	0.1586	0.1220	0.1158	0.0610	0.0584	0.0617	0.0615	0.0045	-0.0427	0.0198	0.0089	-0.0035	-0.0065	-0.0082	0.0027	-0.0104	0.0004	-0.0053	-0.0073	-0.0053	0.0076	0.0045	-0.0027	-0.0017	-0.0016	-0.0039	-0.0017	0.0063	-0.0005	-0.0051	0.0028	0.0054	-0.0016	-0.0030	0.0005	-0.0010	-0.0005	0.0024	-0.0005	-0.0014	-0.0018	0.0007	0.0009	-0.0005	0.0001	-0.0021	0.2194	-0.1214	-0.0052	0.1019	-0.1520	-0.2371	-0.1110	-0.1871	-0.1705	0.1958	0.0957	-0.0528	0.0331	-0.0016	-0.0221	0.0262	0.0355	0.0063	-0.0197	-0.0921	0.0408	-0.0132	-0.0219	0.0141	0.0104	0.0074	-0.0011	-0.0011	0.0110	0.0142	-0.0138	0.0066	0.0029	0.0086	-0.0017	0.0120	-0.0037	0.0032	-0.0049	0.0027	-0.0004	-0.0029	0.0080	0.0212	0.0055	-0.0002	-0.0064	0.0067	0.2260	0.1408	0.0102	0.0080	0.0399	0.1974	-0.2346	0.0981	-0.0143	0.1652	0.0536	0.2637	-0.0457	-0.0166	0.0030	0.0171	-0.0496	0.0070	0.0565	-0.0188	-0.0502	0.0177	0.0044	0.0310	-0.0277	0.0010	0.0055	-0.0123	-0.0117	-0.0085	0.0018	-0.0063	0.0019	-0.0304	0.0091	-0.0079	0.0024	0.0020	0.0005	-0.0076	-0.0000	-0.0089	0.0095	-0.0090	-0.0024	0.0031	0.0030	-0.0094	-0.1107	-0.2137	0.2007	-0.1001	-0.0528	-0.2158	0.3007	-0.1228	-0.0089	-0.2323	0.2276	-0.1960	0.0095	-0.0055	0.0285	-0.0075	0.0064	0.0031	0.0400	0.0279	0.0077	0.0096	0.0240	-0.0037	0.0035	-0.0021	0.0011	0.0050	0.0101	0.0080	0.0005	0.0080	-0.0029	0.0061	0.0012	0.0002	-0.0071	-0.0022	0.0028	-0.0022	-0.0015	0.0000	-0.0000	-0.0114	0.0074	-0.0029	0.0020	-0.0038	-0.1996	0.0769	0.0512	-0.1189	0.0706	-0.0552	0.1503	0.1276	0.0118	-0.1395	0.2080	-0.0849	0.0204	0.0252	-0.0072	0.0004	0.0346	-0.0230	-0.0034	0.0289	-0.0118	-0.0029	0.0124	-0.0177	0.0022	0.0091	-0.0007	-0.0056	0.0132	-0.0017	0.0036	0.0214	0.0067	-0.0009	-0.0024	-0.0036	-0.0111	0.0033	-0.0021	-0.0001	0.0003	-0.0011	-0.0091	0.0038	0.0033	-0.0015	0.0036	0.0032	-0.2904	0.2288	0.0383	-0.1471	0.2699	0.1063	-0.1019	0.1677	-0.0830	-0.2249	-0.2309	-0.0193	-0.0250	0.0288	-0.0009	0.0077	0.0238	-0.0027	-0.0312	0.0686	0.0139	-0.0068	-0.0148	-0.0706	-0.0097	0.0019	-0.0024	-0.0188	-0.0110	-0.0064	0.0036	-0.0005	0.0077	-0.0135	-0.0066	-0.0129	0.0011	0.0033	-0.0008	-0.0073	0.0005	0.0030	-0.0130	-0.0070	-0.0019	-0.0041	0.0028	0.0123	-0.4458	-0.0053	0.1180	-0.1337	0.1958	0.1064	0.2602	0.0279	0.1419	-0.1007	-0.1255	-0.0278	0.0070	0.0216	0.0128	-0.0159	-0.0113	-0.0252	-0.0050	0.0772	-0.0191	0.0071	0.0451	-0.0126	0.0082	-0.0047	-0.0008	0.0005	-0.0145	0.0095	0.0088	0.0093	0.0059	0.0150	0.0013	-0.0044	0.0019	-0.0012	-0.0008	-0.0016	-0.0038	0.0093	-0.0108	-0.0132	0.0051	-0.0048	0.0055	-0.0044	0.1750	-0.2007	0.3597	0.1029	-0.0079	-0.1500	0.3716	-0.1638	0.0707	0.0552	0.3414	-0.0373	0.0125	-0.0102	0.0203	0.0102	0.0164	0.0149	0.0277	-0.0337	0.0220	-0.0047	0.0142	0.0206	0.0091	-0.0086	0.0020	0.0062	0.0025	0.0100	-0.0006	-0.0033	-0.0061	0.0097	0.0005	0.0031	-0.0016	-0.0026	0.0028	0.0001	-0.0022	-0.0028	0.0038	0.0052	0.0049	-0.0027	-0.0054	0.0003	0.0681	-0.1624	-0.2261	-0.1386	-0.2515	-0.0165	-0.2935	-0.1091	-0.1327	-0.0630	-0.0716	0.0294	0.0421	-0.0026	-0.0529	-0.0402	0.0620	-0.0068	-0.0387	-0.0356	0.0268	-0.0198	-0.0397	0.0001	-0.0133	0.0016	-0.0086	-0.0117	0.0005	-0.0041	-0.0105	-0.0092	-0.0029	-0.0204	-0.0085	0.0059	0.0028	-0.0024	-0.0008	0.0157	-0.0021	-0.0056	-0.0069	0.0157	-0.0003	0.0010	-0.0068	0.0041	0.1037	0.1937	-0.0640	0.0965	0.0822	0.1659	-0.0192	0.1955	0.1120	-0.0558	-0.0628	0.0572	-0.0316	-0.0142	0.0227	-0.0082	-0.0378	0.0103	0.0140	0.0352	-0.0166	0.0081	0.0020	-0.0064	-0.0042	0.0099	0.0007	0.0075	0.0156	0.0054	0.0075	0.0032	0.0095	-0.0027	0.0030	0.0024	-0.0031	-0.0008	0.0048	-0.0001	0.0008	0.0043	-0.0006	-0.0094	0.0030	0.0017	0.0047	-0.0007	0.0687	-0.0989	0.1384	-0.0038	0.0707	0.1898	-0.0237	-0.0956	0.0718	-0.2232	-0.3577	0.0615	-0.0357	-0.0055	0.0143	-0.0129	0.0117	0.0267	-0.0140	0.0303	0.0272	-0.0323	-0.0179	-0.0001	-0.0101	-0.0013	-0.0047	0.0020	-0.0044	0.0274	0.0081	-0.0207	0.0034	-0.0040	0.0003	0.0092	0.0075	-0.0009	0.0078	-0.0003	-0.0024	0.0022	-0.0038	-0.0021	0.0107	-0.0028	-0.0061	-0.0015	-0.0638	-0.1557	-0.1116	-0.1235	-0.1443	0.3356	0.1838	0.0675	0.3718	-0.1744	-0.0589	0.1260	0.0164	-0.0010	-0.0043	-0.0756	0.0020	-0.0153	-0.0044	0.0529	-0.0434	-0.0324	0.0278	0.0574	-0.0153	-0.0041	-0.0137	0.0161	0.0047	0.0021	0.0081	-0.0080	-0.0061	-0.0090	0.0034	0.0108	0.0022	-0.0055	0.0072	0.0152	-0.0027	0.0010	-0.0074	-0.0075	-0.0016	0.0058	-0.0029	-0.0193	0.0055	0.0378	-0.1317	0.0159	-0.0811	-0.0034	0.1709	0.1558	0.1629	-0.3716	-0.0031	-0.1890	-0.0128	-0.0023	0.0365	-0.0204	0.0065	0.0220	-0.0185	0.0478	0.0172	-0.0299	-0.0138	-0.0024	0.0007	-0.0025	-0.0048	0.0138	0.0224	-0.0172	0.0071	-0.0115	-0.0117	0.0021	-0.0010	-0.0042	-0.0063	-0.0045	0.0061	0.0020	0.0035	0.0034	-0.0064	-0.0047	-0.0055	0.0033	-0.0051	0.0011	-0.1670	-0.0850	0.3668	-0.1089	0.2293	0.0114	0.2082	-0.0902	0.0348	-0.1488	-0.2667	-0.1206	-0.0060	0.0016	0.0119	-0.0194	0.0183	0.0033	-0.0033	0.0680	0.0382	0.0144	-0.0055	-0.0607	0.0129	0.0154	0.0025	0.0095	-0.0034	0.0269	0.0056	0.0019	-0.0021	0.0164	-0.0049	-0.0080	-0.0045	0.0012	-0.0002	0.0074	0.0120	0.0057	-0.0127	-0.0044	0.0026	-0.0021	0.0014	0.0087	-0.1608	0.1807	-0.2896	0.0011	-0.0353	-0.0704	-0.0485	0.1617	0.0251	0.2561	-0.0026	-0.0686	0.0477	0.0113	-0.0159	-0.0124	-0.0377	-0.0434	-0.0358	-0.0071	-0.0337	0.0165	0.0319	0.0227	0.0005	-0.0189	-0.0009	-0.0168	-0.0252	-0.0345	-0.0073	0.0059	-0.0055	0.0203	0.0044	-0.0097	0.0012	-0.0089	-0.0078	0.0058	-0.0040	0.0043	0.0016	0.0020	-0.0128	-0.0004	0.0080	-0.0053	0.0355	0.0052	0.2109	0.1432	0.1129	-0.2707	0.0078	-0.1619	-0.2394	0.1780	0.2201	-0.0339	-0.0203	0.0068	0.0163	0.0749	0.0024	0.0180	0.0285	-0.0624	0.0069	-0.0007	-0.0037	0.0093	0.0264	0.0083	0.0099	-0.0020	0.0005	0.0043	-0.0050	0.0151	0.0007	0.0060	0.0027	-0.0079	0.0006	0.0060	-0.0022	-0.0167	0.0028	-0.0042	0.0129	0.0037	0.0032	-0.0024	0.0034	0.0024	0.3336	-0.0743	0.1065	0.1004	-0.0405	0.0705	-0.1916	-0.1705	-0.0350	0.1621	-0.2439	0.1210	-0.0189	0.0021	0.0046	0.0565	-0.0205	0.0084	0.0070	-0.0674	-0.0051	-0.0030	-0.0055	0.0249	-0.0121	0.0044	0.0054	-0.0017	-0.0053	0.0068	-0.0001	-0.0246	-0.0173	-0.0130	-0.0035	-0.0046	-0.0010	0.0021	-0.0002	-0.0041	0.0098	-0.0069	0.0087	0.0059	-0.0009	0.0028	-0.0002	-0.0090	0.0026	0.0686	0.0683	-0.2801	-0.0679	-0.1353	0.0133	0.2090	-0.0130	-0.0069	0.2934	-0.1499	0.0023	0.0079	-0.0331	-0.0221	0.0435	-0.0222	0.0421	0.0118	-0.0320	0.0098	0.0014	-0.0025	-0.0199	0.0153	-0.0004	-0.0184	0.0172	0.0094	-0.0005	0.0332	0.0161	0.0117	0.0037	0.0081	-0.0173	0.0090	-0.0017	0.0046	0.0051	-0.0078	-0.0019	-0.0028	-0.0031	0.0054	0.0070	-0.0022	-0.3843	0.1905	0.0281	-0.0959	0.3261	0.0541	-0.1186	0.0569	-0.1746	0.0463	-0.1775	0.0610	-0.0006	0.0033	0.0153	-0.0288	-0.0056	-0.0030	-0.0351	0.0665	0.0138	0.0139	-0.0105	-0.0673	0.0070	0.0102	-0.0036	-0.0158	-0.0220	-0.0098	0.0010	0.0170	0.0057	-0.0123	0.0013	-0.0239	-0.0001	0.0009	-0.0047	-0.0022	0.0034	0.0077	-0.0117	-0.0034	0.0016	-0.0060	0.0067	0.0168	-0.1033	0.2626	0.1302	-0.0584	0.2430	-0.2244	-0.1585	0.0966	-0.2537	0.2496	-0.0387	-0.1168	-0.0397	0.0067	0.0175	0.0458	-0.0106	0.0191	-0.0020	-0.0074	0.0229	0.0074	-0.0079	-0.0359	0.0030	-0.0000	0.0073	-0.0297	-0.0209	-0.0049	-0.0055	0.0141	0.0139	0.0114	0.0047	-0.0176	-0.0026	0.0062	-0.0088	-0.0149	0.0016	0.0010	0.0063	0.0000	-0.0053	-0.0044	0.0067	0.0101	-0.3046	-0.0917	0.1103	-0.0432	0.1405	0.0120	-0.0056	-0.1884	-0.1507	0.1698	0.1370	0.1928	0.0625	0.0203	-0.0458	-0.0143	0.0132	-0.0637	0.0122	-0.0123	-0.0540	0.0214	0.0396	0.0263	0.0266	0.0106	-0.0010	-0.0039	-0.0188	0.0084	-0.0067	0.0327	0.0103	-0.0133	0.0046	-0.0132	0.0070	0.0005	-0.0098	0.0075	-0.0066	-0.0027	-0.0014	0.0025	0.0137	-0.0043	0.0078	-0.0126	0.0305	0.2605	-0.1983	0.1441	0.0339	-0.0623	-0.0671	0.2235	-0.0827	-0.2897	0.0927	-0.1107	-0.0198	0.0002	0.0023	0.0300	-0.0033	0.0083	-0.0047	0.0216	0.0224	0.0136	-0.0188	-0.0495	-0.0008	-0.0083	0.0074	-0.0035	0.0175	-0.0174	0.0027	-0.0055	0.0119	-0.0115	-0.0054	-0.0009	0.0049	-0.0015	-0.0036	0.0001	-0.0100	0.0019	-0.0024	-0.0009	0.0015	-0.0009	0.0044	0.0056	0.1578	-0.0137	-0.2459	0.0765	-0.2341	0.0600	0.0761	0.1316	0.1488	-0.2943	0.1901	-0.0460	0.0061	0.0190	0.0023	-0.0002	0.0173	-0.0157	0.0039	0.0045	-0.0107	0.0103	-0.0196	-0.0097	-0.0216	-0.0175	-0.0057	0.0019	0.0273	-0.0080	0.0053	-0.0127	0.0064	0.0105	-0.0062	0.0287	-0.0004	-0.0037	0.0093	-0.0043	-0.0205	0.0030	-0.0011	0.0002	0.0003	0.0071	-0.0049	0.0078	0.0289	-0.0669	0.1809	-0.2013	0.0196	0.0171	0.0092	-0.0128	0.0881	0.2337	-0.2690	-0.0729	-0.0098	0.0023	-0.0188	-0.0298	-0.0056	-0.0166	-0.0046	0.0156	0.0060	0.0167	0.0245	-0.0009	0.0049	0.0309	-0.0033	0.0128	-0.0079	0.0007	0.0007	0.0039	-0.0290	-0.0076	-0.0022	-0.0254	-0.0164	0.0096	0.0020	0.0034	0.0492	-0.0050	-0.0052	-0.0043	-0.0182	-0.0030	0.0017	-0.0005	-0.1372	0.2834	-0.1523	0.0684	0.1045	-0.2760	-0.0534	0.1871	-0.2276	0.0363	0.3458	-0.1289	0.0045	-0.0134	0.0352	0.0007	-0.0043	0.0247	-0.0066	-0.0047	-0.0134	-0.0198	-0.0073	-0.0073	0.0059	-0.0077	0.0007	-0.0223	-0.0001	-0.0246	-0.0039	0.0297	0.0198	0.0182	0.0035	-0.0062	-0.0039	-0.0024	-0.0136	-0.0000	-0.0180	0.0043	0.0053	0.0029	0.0012	0.0015	0.0084	-0.0027	-0.2761	0.1608	-0.2360	0.2219	0.0414	-0.0223	0.2333	0.0334	0.2663	0.0738	-0.3446	-0.1144	-0.0075	-0.0843	0.1187	0.0843	-0.2824	0.0134	0.0734	0.0293	-0.0091	0.0948	0.1055	0.1156	0.0102	-0.0303	0.0482	0.0204	-0.0177	-0.0201	0.0267	-0.0085	-0.0230	0.0203	0.0533	-0.0093	-0.0098	-0.0161	-0.0042	-0.0134	-0.0019	0.0096	0.0136	-0.0073	0.0058	-0.0046	0.0024	-0.0135	0.1626	-0.0543	0.1013	-0.0800	-0.1004	0.0266	-0.2618	-0.0661	-0.0906	-0.0556	0.1431	0.0964	0.0072	0.0640	-0.1447	0.0696	0.1790	-0.0085	-0.0027	-0.1333	-0.0219	-0.0885	-0.1378	0.0303	0.0024	-0.0025	-0.0060	-0.0248	-0.0108	-0.0289	-0.0369	-0.0302	-0.0290	-0.0155	-0.0153	-0.0011	0.0318	0.0044	-0.0041	-0.0011	0.0012	-0.0261	-0.0088	0.0240	-0.0356	0.0136	-0.0086	0.0038	-0.0904	0.0270	0.0131	0.0070	0.0346	-0.0874	0.1385	0.0411	0.0441	0.0919	-0.0377	-0.1301	-0.0074	-0.0241	0.0369	-0.0043	-0.0433	0.0276	0.0041	0.0401	0.0203	0.0035	0.0443	-0.0293	-0.0022	0.0044	0.0079	0.0090	0.0221	0.0288	-0.0011	0.0155	0.0106	0.0128	-0.0007	-0.0003	-0.0178	0.0055	0.0023	0.0001	0.0048	0.0082	0.0066	-0.0204	0.0148	-0.0004	0.0033	-0.0013	-0.0405	-0.0751	0.0052	0.0769	-0.0120	-0.1279	0.1247	-0.0568	-0.0020	0.0768	0.0061	-0.1366	0.0708	0.0289	-0.0357	-0.0322	0.1167	-0.0081	-0.0911	-0.0214	0.0817	-0.0415	-0.0239	-0.0370	0.0102	0.0170	-0.0191	0.0035	0.0334	0.0490	-0.0095	0.0343	0.0207	0.0126	-0.0198	0.0149	-0.0124	0.0140	0.0043	0.0074	-0.0013	0.0075	-0.0111	0.0265	0.0229	0.0023	-0.0024	0.0087	-0.0069	-0.0256	0.0860	-0.0914	0.1117	0.2343	-0.0076	0.1186	-0.0099	-0.1750	0.0956	0.0810	-0.1463	-0.0699	0.0589	-0.0735	-0.1143	-0.0212	0.1848	0.2234	-0.1893	0.1395	0.0339	-0.0703	-0.0276	-0.0104	0.0111	0.0330	-0.0152	-0.0257	0.0751	-0.0014	0.0071	-0.0028	0.0271	-0.0358	0.0207	-0.0064	0.0143	0.0006	-0.0042	-0.0090	-0.0044	-0.0350	-0.0235	0.0077	0.0303	-0.0017	0.0926	0.0047	-0.2596	0.1774	-0.0517	-0.1387	0.0241	-0.0347	-0.0723	0.3901	-0.2248	-0.1187	0.1062	0.0644	-0.0007	-0.0724	0.1203	-0.0014	-0.2812	-0.0155	0.1429	-0.0896	0.0217	-0.1219	0.0175	-0.0260	-0.0417	-0.0028	-0.0216	-0.0287	-0.0228	-0.0359	-0.0221	0.0186	-0.0597	-0.0199	-0.0043	-0.0127	-0.0019	0.0148	0.0103	0.0068	-0.0161	0.0229	-0.0066	-0.0257	-0.0112	0.0197	0.0193	-0.1344	-0.0771	0.0208	0.0208	0.1255	0.0591	0.1200	0.0372	0.0477	-0.1096	-0.1744	-0.0837	-0.0076	0.0046	-0.1771	0.0592	-0.0604	0.0513	0.2540	-0.1044	0.0966	0.0187	-0.1487	-0.0360	-0.0111	-0.0387	0.0290	0.0007	0.0038	0.0623	0.0175	0.0174	-0.0014	-0.0068	-0.0563	0.0237	0.0019	0.0243	0.0133	0.0044	-0.0110	-0.0309	-0.0167	-0.0261	0.0040	0.0275	0.0110	0.1496	-0.1451	-0.0908	0.0366	0.0906	0.0015	0.0250	0.0394	-0.2641	0.2020	0.0716	-0.0512	-0.0660	0.0283	0.0986	-0.2131	0.1209	-0.0064	-0.1676	0.2840	-0.0368	-0.0226	0.0768	-0.2067	-0.0300	-0.0123	-0.0701	0.0490	-0.0132	-0.0061	0.0769	0.0145	0.0439	0.0166	-0.0433	-0.0681	-0.0005	-0.0027	0.0327	0.0083	0.0028	0.0097	-0.0308	0.0062	0.0003	-0.0216	0.0222	0.0152	0.0803	-0.1074	-0.0394	-0.1112	0.0556	0.1268	0.1080	0.0377	-0.1242	-0.1769	0.0445	0.0868	0.0013	0.0013	0.1044	-0.1698	-0.0608	-0.0656	-0.0917	0.2299	-0.0181	0.0959	0.1027	-0.1336	-0.0108	-0.0033	-0.0318	0.0436	-0.0173	-0.0107	0.0542	0.0012	0.0399	0.0185	-0.0072	-0.0325	-0.0200	-0.0135	0.0213	0.0071	-0.0043	0.0272	-0.0155	-0.0084	0.0268	-0.0237	0.0179	0.0009	0.1864	0.0540	0.0504	-0.0415	0.0242	0.0971	-0.2725	0.0335	-0.1407	0.1047	0.1121	0.1843	-0.1657	-0.0320	0.0715	0.0459	-0.0993	0.0271	0.1419	0.0377	-0.1743	0.0359	0.0657	0.0425	-0.0370	-0.0267	0.0125	-0.0146	-0.0367	-0.0364	0.0558	-0.0184	-0.0203	-0.0437	0.0091	-0.0314	0.0224	-0.0035	0.0050	-0.0163	-0.0043	-0.0299	0.0096	-0.0177	-0.0166	0.0014	0.0154	-0.0146	-0.1180	-0.0830	-0.0852	-0.1228	0.0068	0.0635	-0.0107	0.0178	-0.0762	-0.1867	-0.0975	-0.0586	0.1299	0.0438	-0.1038	-0.1505	0.1819	-0.0348	-0.1607	0.0528	0.1312	-0.0281	-0.0991	-0.1916	0.0043	-0.0062	-0.0411	-0.0034	0.0031	-0.0069	-0.0613	-0.0202	0.0001	-0.0003	-0.0488	-0.0069	0.0073	-0.0036	-0.0061	0.0277	-0.0040	0.0060	-0.0285	-0.0048	-0.0061	-0.0062	-0.0097	0.0266	0.0837	-0.0475	-0.0234	0.2589	-0.0451	-0.2146	0.2462	-0.0996	0.0528	0.3047	0.0233	-0.1435	-0.0521	-0.0115	0.1248	0.0503	-0.1165	0.0206	0.0165	-0.0056	-0.0476	0.0203	0.1362	0.0350	0.0314	0.0183	0.0068	0.0333	0.0221	0.0319	0.0419	0.0273	0.0161	0.0479	0.0013	0.0222	-0.0215	0.0018	0.0091	-0.0177	0.0089	0.0219	0.0250	-0.0103	0.0170	-0.0052	0.0085	-0.0197	0.0001	-0.0000	0.0000	-0.0000	-0.0000	-0.0000	-0.0000	-0.0000	-0.0000	-0.0000	0.0000	0.0000	0.0000	-0.0000	0.0000	-0.0000	0.0000	-0.0000	-0.0000	-0.0000	0.0000	0.0000	-0.0000	0.0000	0.0000	0.0000	-0.0000	-0.0000	-0.0000	-0.0000	-0.0000	0.0000	0.0000	0.0000	0.0000	-0.0000	0.0000	-0.0000	-0.0000	0.0000	-0.0000	-0.0000	-0.0000	-0.0000	-0.0000	-0.0000	-0.0000	-0.0000	-0.0000	-0.0000	-0.0000	0.0000	-0.0000	0.0000	-0.0000	-0.0000	0.0000	-0.0000	0.0000	0.0000	-0.0000	-0.0000	-0.0000	-0.0000	0.0000	-0.0000	0.0000	-0.0000	-0.0000	-0.0000	-0.0000	0.0000	0.0000	-0.0000	0.0000	0.0000	0.0000	-0.0000	0.0000	-0.0000	-0.0000	-0.0000	-0.0000	-0.0000	-0.0000	-0.0000	0.0000	0.0000	-0.0000	-0.0000	-0.0000	0.0000	0.0000	-0.0000	-0.0000	-0.0000	-0.0000	0.0000	0.0000	-0.0000	0.0000	-0.0000	0.0000	0.0000	0.0000	-0.0000	-0.0000	-0.0000	-0.0000	-0.0000	0.0000	-0.0000	0.0000	0.0000	-0.0000	0.0000	0.0000	0.0000	0.0000	-0.0000	-0.0000	0.0000	0.0000	-0.0000	-0.0000	-0.0000	0.0000	0.0000	-0.0000	0.0000	-0.0000	-0.0000	0.0000	-0.0000	-0.0000	-0.0000	0.0000	-0.0000	-0.0000	-0.0000	-0.0000	-0.0000	0.0000	0.0000	0.0000	-0.0000	0.0000	-0.0000	-0.0000	-0.0000	-0.0000	-0.0000	-0.0000	-0.0000	0.0000	0.0000	0.0000	-0.0000	0.0000	-0.0000	0.0000	-0.0000	-0.0000	-0.0000	0.0000	0.0000	-0.0000	0.0000	0.0000	0.0000	-0.0000	-0.0000	-0.0000	-0.0000	-0.0000	0.0000	0.0000	0.0000	0.0000	-0.0000	0.0000	-0.0000	-0.0000	0.0000	-0.0000	-0.0000	-0.0000	-0.0000	-0.0000	-0.0000	-0.0000	-0.0000	-0.0000	-0.0000	-0.0000	0.0000	-0.0000	0.0000	-0.0000	-0.0000	0.0000	-0.0000	0.0000	0.0000	-0.0000	-0.0000	-0.0000	-0.0000	0.0000	-0.0000	0.0000	-0.0000	-0.0000	-0.0000	-0.0000	0.0000	0.0000	-0.0000	0.0000	0.0000	0.0000	-0.0000	0.0000	-0.0000	-0.0000	-0.0000	-0.0000	-0.0000	-0.0000	-0.0000	0.0000	0.0000	-0.0000	-0.0000	-0.0000	0.0000	0.0000	-0.0000	-0.0000	-0.0000	-0.0000	0.0000	0.0000	-0.0000	0.0000	-0.0000	0.0000	0.0000	0.0000	-0.0000	-0.0000	-0.0000	-0.0000	-0.0000	0.0000	-0.0000	0.0000	0.0000	-0.0000	0.0000	0.0000	0.0000	0.0000	-0.0000	-0.0000	0.0000	0.0000	-0.0000	-0.0000	-0.0000	0.0000	0.0000	-0.0000	0.0000	-0.0000	-0.0000	0.0000	-0.0000	-0.0000	-0.0000	0.0000	-0.0000	-0.0000	-0.0000	-0.0000	-0.0000	0.0000	0.0000	0.0001	-0.0000	0.0000	-0.0001	-0.0000	-0.0000	-0.0000	-0.0000	-0.0000	-0.0000	0.0000	0.0000	0.0001	-0.0000	0.0000	-0.0000	0.0000	-0.0000	-0.0000	-0.0000	0.0000	0.0000	-0.0000	0.0000	0.0000	0.0000	-0.0000	-0.0000	-0.0000	-0.0000	-0.0000	0.0000	0.0000	0.0000	0.0000	-0.0000	0.0000	-0.0000	-0.0000	0.0000	-0.0000	-0.0000	-0.0000	-0.0000	-0.0000	-0.0000	-0.0000	-0.0000	-0.0000	-0.0000	-0.0000	0.0000	-0.0000	0.0000	-0.0000	-0.0000	0.0000	-0.0000	0.0000	0.0000	-0.0000	-0.0000	-0.0000	-0.0000	0.0000	-0.0000	0.0000	-0.0000	-0.0000	-0.0000	-0.0000	0.0000	0.0000	-0.0000	0.0000	0.0000	0.0000	-0.0000	0.0000	-0.0000	-0.0000	-0.0000	-0.0000	-0.0000	-0.0000	-0.0000	0.0000	0.0000	-0.0000	-0.0000	-0.0000	0.0000	0.0000	-0.0000	-0.0000	-0.0000	-0.0000	0.0000	0.0000	-0.0000	0.0000	-0.0000	0.0000	0.0000	0.0000	-0.0000	-0.0000	-0.0000	-0.0000	-0.0000	0.0000	-0.0000	0.0000	0.0000	-0.0000	0.0000	0.0000	0.0000	0.0000	-0.0000	-0.0000	0.0000	0.0000	-0.0000	-0.0000	-0.0000	0.0000	0.0000	-0.0000	0.0000	-0.0000	-0.0000	0.0000	-0.0000	-0.0000	-0.0000	0.0000	-0.0000	-0.0000	-0.0000	-0.0000	-0.0000	0.0000	0.0000	0.0001	-0.0000	0.0001	-0.0001	-0.0000	-0.0000	-0.0000	-0.0000	-0.0000	-0.0000	0.0000	0.0000	0.0001	-0.0000	0.0000	-0.0001	0.0000	-0.0000	-0.0000	-0.0000	0.0000	0.0000	-0.0000	0.0000	0.0000	0.0000	-0.0000	-0.0000	-0.0000	-0.0000	-0.0000	0.0000	0.0000	0.0000	0.0000	-0.0000	0.0000	-0.0000	-0.0000	0.0000	-0.0000	-0.0000	-0.0000	-0.0000	-0.0000	-0.0000	-0.0000	-0.0000	-0.0000	-0.0000	-0.0000	0.0000	-0.0000	0.0000	-0.0000	-0.0000	0.0000	-0.0000	0.0000	0.0000	-0.0000	-0.0000	-0.0000	-0.0000	0.0000	-0.0000	0.0000	-0.0000	-0.0000	-0.0000	-0.0000	0.0000	0.0000	-0.0000	0.0000	0.0000	0.0000	-0.0000	0.0000	-0.0000	-0.0000	-0.0000	-0.0000	-0.0000	-0.0000	-0.0000	0.0000	0.0000	-0.0000	-0.0000	-0.0000	0.0000	0.0000	-0.0000	-0.0000	-0.0000	-0.0000	0.0000	0.0000	-0.0000	0.0000	-0.0000	0.0000	0.0000	0.0000	-0.0000	-0.0000	-0.0000	-0.0000	-0.0000	0.0000	-0.0000	0.0000	0.0000	-0.0000	0.0000	0.0000	0.0000	0.0000	-0.0000	-0.0000	0.0000	0.0000	-0.0000	-0.0000	-0.0000	0.0000	0.0000	-0.0000	0.0000	-0.0000	-0.0000	0.0000	-0.0000	-0.0000	-0.0000	0.0000	-0.0000	-0.0000	-0.0000	-0.0000	-0.0000	0.0000	0.0000	0.0000	-0.0000	0.0000	-0.0000	-0.0000	-0.0000	-0.0000	-0.0000	-0.0000	0.0000	0.0000	0.0000	0.0000	-0.0000	0.0000	-0.0000	0.0000	-0.0000	-0.0000	-0.0000	0.0000	0.0000	-0.0000	0.0000	0.0000	0.0000	-0.0000	-0.0000	-0.0000	-0.0000	-0.0000	0.0000	0.0000	0.0000	0.0000	-0.0000	0.0000	-0.0000	-0.0000	0.0000	-0.0000	-0.0000	-0.0000	-0.0000	-0.0000	-0.0000	-0.0000	-0.0000	-0.0000	0.0000	0.0000	0.0000	0.0000	-0.0000	-0.0000	-0.0000	0.0000	-0.0000	0.0000	-0.0000	-0.0000	-0.0000	-0.0000	-0.0000	0.0000	-0.0000	0.0000	-0.0000	-0.0000	-0.0000	-0.0000	0.0000	0.0000	-0.0000	0.0000	0.0000	0.0000	-0.0000	0.0000	-0.0000	-0.0000	-0.0000	-0.0000	-0.0000	-0.0000	-0.0000	0.0000	0.0000	-0.0000	-0.0000	-0.0000	0.0000	0.0000	-0.0000	-0.0000	-0.0000	-0.0000	0.0000	0.0000	-0.0000	0.0000	-0.0000	-0.0000	0.0000	-0.0000	0.0000	-0.0000	-0.0000	-0.0000	-0.0000	-0.0000	-0.0000	0.0000	0.0000	-0.0000	0.0000	0.0000	0.0000	0.0000	-0.0000	-0.0000	0.0000	0.0000	-0.0000	-0.0000	-0.0000	0.0000	0.0000	-0.0000	0.0000	-0.0000	-0.0000	0.0000	-0.0000	-0.0000	-0.0000	0.0000	-0.0000	-0.0000	-0.0000	-0.0000	-0.0000	0.0000	0.0000	0.0000	-0.0000	0.0000	-0.0000	-0.0000	-0.0000	-0.0000	-0.0000	-0.0000	0.0000	0.0000	0.0000	0.0000	-0.0000	0.0000	-0.0000	0.0000	-0.0000	-0.0000	-0.0000	0.0000	0.0000	-0.0000	0.0000	0.0000	0.0000	-0.0000	-0.0000	-0.0000	-0.0000	-0.0000	0.0000	0.0000	0.0000	0.0000	-0.0000	0.0000	-0.0000	-0.0000	0.0000	-0.0000	-0.0000	-0.0000	-0.0000	-0.0000	-0.0000	-0.0000	-0.0000	-0.0000	0.0000	0.0000	0.0000	0.0000	-0.0000	-0.0000	-0.0000	0.0000	-0.0000	0.0000	-0.0000	-0.0000	-0.0000	-0.0000	-0.0000	0.0000	-0.0000	0.0000	-0.0000	-0.0000	-0.0000	-0.0000	0.0000	0.0000	-0.0000	0.0000	0.0000	0.0000	-0.0000	0.0000	-0.0000	-0.0000	-0.0000	-0.0000	-0.0000	-0.0000	-0.0000	0.0000	0.0000	-0.0000	-0.0000	-0.0000	0.0000	0.0000	-0.0000	-0.0000	-0.0000	-0.0000	0.0000	0.0000	-0.0000	0.0000	-0.0000	-0.0000	0.0000	-0.0000	0.0000	-0.0000	-0.0000	-0.0000	-0.0000	-0.0000	-0.0000	0.0000	0.0000	-0.0000	0.0000	0.0000	0.0000	0.0000	-0.0000	-0.0000	0.0000	0.0000	-0.0000	-0.0000	-0.0000	0.0000	0.0000	-0.0000	0.0000	-0.0000	-0.0000	0.0000	-0.0000	-0.0000	-0.0000	0.0000	-0.0000	-0.0000	-0.0000	-0.0000	-0.0000	0.0000	0.0000	0.0000	-0.0000	0.0000	-0.0000	-0.0000	-0.0000	-0.0000	-0.0000	-0.0000	0.0000	0.0000	0.0000	0.0000	-0.0000	0.0000	-0.0000	0.0000	-0.0000	-0.0000	-0.0000	0.0000	0.0000	-0.0000	0.0000	0.0000	0.0000	-0.0000	-0.0000	-0.0000	-0.0000	-0.0000	0.0000	0.0000	0.0000	0.0000	-0.0000	0.0000	-0.0000	-0.0000	0.0000	-0.0000	-0.0000	-0.0000	-0.0000	-0.0000	-0.0000	-0.0000	-0.0000	-0.0000	0.0000	0.0000	0.0000	0.0000	-0.0000	-0.0000	-0.0000	0.0000	-0.0000	0.0000	-0.0000	-0.0000	-0.0000	-0.0000	-0.0000	0.0000	-0.0000	0.0000	-0.0000	-0.0000	-0.0000	-0.0000	0.0000	0.0000	-0.0000	0.0000	0.0000	0.0000	-0.0000	0.0000	-0.0000	-0.0000	-0.0000	-0.0000	-0.0000	-0.0000	-0.0000	0.0000	0.0000	-0.0000	-0.0000	-0.0000	0.0000	0.0000	-0.0000	-0.0000	-0.0000	-0.0000	0.0000	0.0000	-0.0000	0.0000	-0.0000	-0.0000	0.0000	-0.0000	0.0000	-0.0000	-0.0000	-0.0000	-0.0000	-0.0000	-0.0000	0.0000	0.0000	-0.0000	0.0000	0.0000	0.0000	0.0000	-0.0000	-0.0000	0.0000	0.0000	-0.0000	-0.0000	-0.0000	0.0000	0.0000	-0.0000	0.0000	-0.0000	-0.0000	0.0000	-0.0000	-0.0000	-0.0000	0.0000	-0.0000	-0.0000	-0.0000	-0.0000	-0.0000	0.0000	0.0000	0.0000	-0.0000	0.0000	-0.0000	-0.0000	-0.0000	-0.0000	-0.0000	-0.0000	0.0000	0.0000	0.0000	0.0000	-0.0000	0.0000	-0.0000	0.0000	-0.0000	-0.0000	-0.0000	0.0000	0.0000	-0.0000	0.0000	0.0000	0.0000	-0.0000	-0.0000	-0.0000	-0.0000	-0.0000	0.0000	0.0000	0.0000	0.0000	-0.0000	0.0000	-0.0000	-0.0000	0.0000	-0.0000	-0.0000	-0.0000	-0.0000	-0.0000	-0.0000	-0.0000	-0.0000	-0.0000	0.0000	0.0000	0.0000	0.0000	-0.0000	-0.0000	-0.0000	0.0000	-0.0000	0.0000	-0.0000	-0.0000	-0.0000	-0.0000	-0.0000	0.0000	-0.0000	0.0000	-0.0000	-0.0000	-0.0000	-0.0000	0.0000	0.0000	-0.0000	0.0000	0.0000	0.0000	-0.0000	0.0000	-0.0000	-0.0000	-0.0000	-0.0000	-0.0000	-0.0000	-0.0000	0.0000	0.0000	-0.0000	-0.0000	-0.0000	0.0000	0.0000	-0.0000	-0.0000	-0.0000	-0.0000	0.0000	0.0000	-0.0000	0.0000	-0.0000	-0.0000	0.0000	-0.0000	0.0000	-0.0000	-0.0000	-0.0000	-0.0000	-0.0000	-0.0000	0.0000	0.0000	-0.0000	0.0000	0.0000	0.0000	0.0000	-0.0000	-0.0000	0.0000	0.0000	-0.0000	-0.0000	-0.0000	0.0000	0.0000	-0.0000	0.0000	-0.0000	-0.0000	0.0000	-0.0000	-0.0000	-0.0000	0.0000	-0.0000	-0.0000	-0.0000	-0.0000	-0.0000	0.0000	0.0000	0.0000	0.0000	0.0000	-0.0000	-0.0000	-0.0000	-0.0000	-0.0000	-0.0000	-0.0000	0.0000	0.0000	0.0000	-0.0000	0.0000	-0.0000	0.0000	-0.0000	-0.0000	-0.0000	0.0000	0.0000	-0.0000	-0.0000	0.0000	0.0000	-0.0000	-0.0000	-0.0000	-0.0000	-0.0000	0.0000	0.0000	0.0000	0.0000	-0.0000	0.0000	-0.0000	-0.0000	0.0000	-0.0000	-0.0000	-0.0000	-0.0000	-0.0000	-0.0000	-0.0000	-0.0000	-0.0000	0.0000	0.0000	0.0000	0.0000	0.0000	-0.0000	-0.0000	0.0000	-0.0000	0.0000	0.0000	-0.0000	-0.0000	0.0000	-0.0000	0.0000	-0.0000	0.0000	-0.0000	-0.0000	-0.0000	-0.0000	0.0000	0.0000	-0.0000	0.0000	0.0000	0.0000	-0.0000	0.0000	-0.0000	-0.0000	-0.0000	-0.0000	-0.0000	-0.0000	-0.0000	0.0000	0.0000	-0.0000	-0.0000	-0.0000	0.0000	0.0000	-0.0000	-0.0000	-0.0000	0.0000	-0.0000	0.0000	-0.0000	0.0000	-0.0000	-0.0000	0.0000	-0.0000	0.0000	-0.0000	-0.0000	-0.0000	-0.0000	-0.0000	-0.0000	0.0000	0.0000	-0.0000	0.0000	0.0000	0.0000	0.0000	-0.0000	-0.0000	0.0000	0.0000	-0.0000	-0.0000	-0.0000	0.0000	0.0000	-0.0000	0.0000	-0.0000	-0.0000	0.0000	-0.0000	-0.0000	-0.0000	0.0000	-0.0000	-0.0000	-0.0000	-0.0000	-0.0000	0.0000	0.0000	0.0000	0.0000	0.0000	-0.0000	-0.0000	-0.0000	-0.0000	-0.0000	-0.0000	-0.0000	0.0000	0.0000	0.0000	-0.0000	0.0000	-0.0000	0.0000	-0.0000	-0.0000	-0.0000	0.0000	0.0000	-0.0000	-0.0000	0.0000	0.0000	-0.0000	-0.0000	-0.0000	-0.0000	-0.0000	0.0000	0.0000	0.0000	0.0000	-0.0000	0.0000	-0.0000	-0.0000	0.0000	-0.0000	-0.0000	-0.0000	-0.0000	-0.0000	-0.0000	-0.0000	-0.0000	-0.0000	0.0000	0.0000	0.0000	0.0000	0.0000	-0.0000	-0.0000	0.0000	-0.0000	0.0000	0.0000	-0.0000	-0.0000	0.0000	-0.0000	0.0000	-0.0000	0.0000	-0.0000	-0.0000	-0.0000	-0.0000	0.0000	0.0000	-0.0000	0.0000	0.0000	0.0000	-0.0000	0.0000	-0.0000	-0.0000	-0.0000	-0.0000	-0.0000	-0.0000	-0.0000	0.0000	0.0000	-0.0000	-0.0000	-0.0000	0.0000	0.0000	-0.0000	-0.0000	-0.0000	0.0000	-0.0000	0.0000	-0.0000	0.0000	-0.0000	-0.0000	0.0000	-0.0000	0.0000	-0.0000	-0.0000	-0.0000	-0.0000	-0.0000	-0.0000	0.0000	0.0000	-0.0000	0.0000	0.0000	0.0000	0.0000	-0.0000	-0.0000	0.0000	0.0000	-0.0000	-0.0000	-0.0000	0.0000	0.0000	-0.0000	0.0000	-0.0000	-0.0000	0.0000	-0.0000	-0.0000	-0.0000	0.0000	-0.0000	-0.0000	-0.0000	-0.0000	-0.0000	0.0000	0.0000	0.0000	0.0000	0.0000	-0.0000	-0.0000	-0.0000	-0.0000	-0.0000	-0.0000	-0.0000	0.0000	0.0000	0.0000	-0.0000	0.0000	-0.0000	0.0000	-0.0000	-0.0000	-0.0000	0.0000	0.0000	-0.0000	-0.0000	0.0000	0.0000	-0.0000	-0.0000	-0.0000	-0.0000	-0.0000	0.0000	0.0000	0.0000	0.0000	-0.0000	0.0000	-0.0000	-0.0000	0.0000	-0.0000	-0.0000	-0.0000	-0.0000	-0.0000	-0.0000	-0.0000	-0.0000	-0.0000	0.0000	0.0000	0.0000	0.0000	0.0000	-0.0000	-0.0000	0.0000	-0.0000	0.0000	0.0000	-0.0000	-0.0000	0.0000	-0.0000	0.0000	-0.0000	0.0000	-0.0000	-0.0000	-0.0000	-0.0000	0.0000	0.0000	-0.0000	0.0000	0.0000	0.0000	-0.0000	0.0000	-0.0000	-0.0000	-0.0000	-0.0000	-0.0000	-0.0000	-0.0000	0.0000	0.0000	-0.0000	-0.0000	-0.0000	0.0000	0.0000	-0.0000	-0.0000	-0.0000	0.0000	-0.0000	0.0000	-0.0000	0.0000	-0.0000	-0.0000	0.0000	-0.0000	0.0000	-0.0000	-0.0000	-0.0000	-0.0000	-0.0000	-0.0000	0.0000	0.0000	-0.0000	0.0000	0.0000	0.0000	0.0000	-0.0000	-0.0000	0.0000	0.0000	-0.0000	-0.0000	-0.0000	0.0000	0.0000	-0.0000	0.0000	-0.0000	-0.0000	0.0000	-0.0000	-0.0000	-0.0000	0.0000	-0.0000	-0.0000	-0.0000	-0.0000	-0.0000	0.0000	0.0000	-0.0000	-0.0000	-0.0000	0.0000	0.0000	0.0000	0.0000	0.0000	0.0000	0.0000	-0.0000	-0.0000	-0.0000	0.0000	-0.0000	0.0000	-0.0000	0.0000	0.0000	0.0000	-0.0000	-0.0000	0.0000	0.0000	-0.0000	-0.0000	0.0000	0.0000	0.0000	0.0000	0.0000	-0.0000	-0.0000	-0.0000	-0.0000	0.0000	-0.0000	0.0000	0.0000	-0.0000	0.0000	0.0000	0.0000	0.0000	0.0000	0.0000	0.0000	0.0000	0.0000	-0.0000	-0.0000	-0.0000	-0.0000	-0.0000	0.0000	0.0000	-0.0000	0.0000	-0.0000	-0.0000	0.0000	0.0000	-0.0000	0.0000	-0.0000	0.0000	-0.0000	0.0000	0.0000	0.0000	0.0000	-0.0000	-0.0000	0.0000	-0.0000	-0.0000	-0.0000	0.0000	-0.0000	0.0000	0.0000	0.0000	0.0000	0.0000	0.0000	0.0000	-0.0000	-0.0000	0.0000	0.0000	0.0000	-0.0000	-0.0000	0.0000	0.0000	0.0000	-0.0000	0.0000	-0.0000	0.0000	-0.0000	0.0000	0.0000	-0.0000	0.0000	-0.0000	0.0000	0.0000	0.0000	0.0000	0.0000	0.0000	-0.0000	-0.0000	0.0000	-0.0000	-0.0000	-0.0000	-0.0000	0.0000	0.0000	-0.0000	-0.0000	0.0000	0.0000	0.0000	-0.0000	-0.0000	0.0000	-0.0000	0.0000	0.0000	-0.0000	0.0000	0.0000	0.0000	-0.0000	0.0000	0.0000	0.0000	0.0000	0.0000	-0.0000	-0.0000	-0.0000	-0.0000	-0.0000	0.0000	0.0000	0.0000	-0.0000	-0.0000	-0.0000	0.0000	0.0000	-0.0000	-0.0000	0.0000	-0.0000	0.0000	0.0000	0.0000	0.0000	0.0000	0.0000	-0.0000	0.0000	-0.0000	-0.0000	-0.0000	0.0000	0.0000	0.0000	0.0000	0.0000	-0.0000	-0.0000	-0.0000	-0.0000	0.0000	-0.0000	0.0000	0.0000	-0.0000	0.0000	0.0000	0.0000	0.0000	0.0000	0.0000	0.0000	0.0000	0.0000	0.0000	-0.0000	-0.0000	-0.0000	-0.0000	0.0000	0.0000	-0.0000	0.0000	-0.0000	-0.0000	0.0000	-0.0000	0.0000	0.0000	-0.0000	0.0000	-0.0000	0.0000	0.0000	0.0000	0.0000	-0.0000	-0.0000	0.0000	0.0000	-0.0000	-0.0000	0.0000	-0.0000	0.0000	0.0000	0.0000	0.0000	0.0000	0.0000	0.0000	-0.0000	-0.0000	0.0000	0.0000	0.0000	-0.0000	-0.0000	0.0000	0.0000	0.0000	0.0000	0.0000	-0.0000	0.0000	-0.0000	0.0000	-0.0000	-0.0000	-0.0000	-0.0000	0.0000	0.0000	0.0000	0.0000	-0.0000	0.0000	-0.0000	-0.0000	0.0000	-0.0000	-0.0000	-0.0000	-0.0000	0.0000	0.0000	-0.0000	-0.0000	0.0000	0.0000	0.0000	-0.0000	-0.0000	0.0000	-0.0000	0.0000	0.0000	-0.0000	0.0000	0.0000	0.0000	-0.0000	0.0000	0.0000	0.0000	0.0000	0.0000	-0.0000	-0.0000	0.0000	0.0000	0.0000	-0.0000	-0.0000	-0.0000	0.0000	0.0000	0.0000	-0.0000	-0.0000	0.0000	0.0000	-0.0000	0.0000	-0.0000	-0.0000	-0.0000	-0.0000	-0.0000	-0.0000	0.0000	-0.0000	0.0000	0.0000	0.0000	-0.0000	-0.0000	-0.0000	-0.0000	-0.0000	0.0000	0.0000	0.0000	0.0000	-0.0000	0.0000	-0.0000	-0.0000	0.0000	-0.0000	-0.0000	-0.0000	-0.0000	-0.0000	-0.0000	-0.0000	-0.0000	-0.0000	-0.0000	0.0000	0.0000	0.0000	0.0000	-0.0000	-0.0000	0.0000	-0.0000	0.0000	0.0000	-0.0000	0.0000	-0.0000	-0.0000	0.0000	-0.0000	0.0000	-0.0000	-0.0000	-0.0000	-0.0000	0.0000	0.0000	-0.0000	-0.0000	0.0000	0.0000	-0.0000	0.0000	-0.0000	-0.0000	-0.0000	-0.0000	-0.0000	-0.0000	-0.0000	0.0000	0.0000	-0.0000	-0.0000	-0.0000	0.0000	0.0000	-0.0000	-0.0000	-0.0000	-0.0000	-0.0000	0.0000	-0.0000	0.0000	-0.0000	0.0000	0.0000	0.0000	0.0000	-0.0000	-0.0000	-0.0000	-0.0000	0.0000	-0.0000	0.0000	0.0000	-0.0000	0.0000	0.0000	0.0000	0.0000	-0.0000	-0.0000	0.0000	0.0000	-0.0000	-0.0000	-0.0000	0.0000	0.0000	-0.0000	0.0000	-0.0000	-0.0000	0.0000	-0.0000	-0.0000	-0.0000	0.0000	-0.0000	-0.0000	-0.0000	-0.0000	-0.0000	0.0000	0.0000	-0.0000	-0.0000	-0.0000	0.0000	0.0000	0.0000	-0.0000	-0.0000	-0.0000	0.0000	0.0000	-0.0000	-0.0000	0.0000	-0.0000	0.0000	0.0000	0.0000	0.0000	0.0000	0.0000	-0.0000	0.0000	-0.0000	-0.0000	-0.0000	0.0000	0.0000	0.0000	0.0000	0.0000	-0.0000	-0.0000	-0.0000	-0.0000	0.0000	-0.0000	0.0000	0.0000	-0.0000	0.0000	0.0000	0.0000	0.0000	0.0000	0.0000	0.0000	0.0000	0.0000	0.0000	-0.0000	-0.0000	-0.0000	-0.0000	0.0000	0.0000	-0.0000	0.0000	-0.0000	-0.0000	0.0000	-0.0000	0.0000	0.0000	-0.0000	0.0000	-0.0000	0.0000	0.0000	0.0000	0.0000	-0.0000	-0.0000	0.0000	0.0000	-0.0000	-0.0000	0.0000	-0.0000	0.0000	0.0000	0.0000	0.0000	0.0000	0.0000	0.0000	-0.0000	-0.0000	0.0000	0.0000	0.0000	-0.0000	-0.0000	0.0000	0.0000	0.0000	0.0000	0.0000	-0.0000	0.0000	-0.0000	0.0000	-0.0000	-0.0000	-0.0000	-0.0000	0.0000	0.0000	0.0000	0.0000	-0.0000	0.0000	-0.0000	-0.0000	0.0000	-0.0000	-0.0000	-0.0000	-0.0000	0.0000	0.0000	-0.0000	-0.0000	0.0000	0.0000	0.0000	-0.0000	-0.0000	0.0000	-0.0000	0.0000	0.0000	-0.0000	0.0000	0.0000	0.0000	-0.0000	0.0000	0.0000	0.0000	0.0000	0.0000	-0.0000	-0.0000	-0.0000	-0.0000	-0.0000	0.0000	0.0000	0.0000	-0.0000	-0.0000	-0.0000	0.0000	0.0000	-0.0000	-0.0000	0.0000	-0.0000	0.0000	0.0000	0.0000	0.0000	0.0000	0.0000	-0.0000	0.0000	-0.0000	-0.0000	-0.0000	0.0000	0.0000	0.0000	0.0000	0.0000	-0.0000	-0.0000	-0.0000	-0.0000	0.0000	-0.0000	0.0000	0.0000	-0.0000	0.0000	0.0000	0.0000	0.0000	0.0000	0.0000	0.0000	0.0000	0.0000	0.0000	-0.0000	-0.0000	-0.0000	-0.0000	0.0000	0.0000	-0.0000	0.0000	-0.0000	-0.0000	0.0000	-0.0000	0.0000	0.0000	-0.0000	0.0000	-0.0000	0.0000	0.0000	0.0000	0.0000	-0.0000	-0.0000	0.0000	0.0000	-0.0000	-0.0000	0.0000	-0.0000	0.0000	0.0000	0.0000	0.0000	0.0000	0.0000	0.0000	-0.0000	-0.0000	0.0000	0.0000	0.0000	-0.0000	-0.0000	0.0000	0.0000	0.0000	0.0000	0.0000	-0.0000	0.0000	-0.0000	0.0000	-0.0000	-0.0000	-0.0000	-0.0000	0.0000	0.0000	0.0000	0.0000	-0.0000	0.0000	-0.0000	-0.0000	0.0000	-0.0000	-0.0000	-0.0000	-0.0000	0.0000	0.0000	-0.0000	-0.0000	0.0000	0.0000	0.0000	-0.0000	-0.0000	0.0000	-0.0000	0.0000	0.0000	-0.0000	0.0000	0.0000	0.0000	-0.0000	0.0000	0.0000	0.0000	0.0000	0.0000	-0.0000	-0.0000	1.0000	1.0000	1.0000	1.0000	1.0000	1.0000	1.0000	1.0000	1.0000	1.0000	1.0000	1.0000	1.0000	1.0000	1.0000	1.0000	1.0000	1.0000	1.0000	1.0000	1.0000	1.0000	1.0000	1.0000	1.0000	1.0000	1.0000	1.0000	1.0000	1.0000	1.0000	1.0000	1.0000	1.0000	1.0000	1.0000	1.0000	1.0000	1.0000	1.0000	1.0000	1.0000	1.0000	1.0000	1.0000	1.0000	1.0000	1.0000	1.0000	1.0000	1.0000	1.0000	1.0000	1.0000	1.0000	1.0000	1.0000	1.0000	1.0000	1.0000	1.0000	1.0000	1.0000	1.0000	1.0000	1.0000	1.0000	1.0000	1.0000	1.0000	1.0000	1.0000	1.0000	1.0000	1.0000	1.0000	1.0000	1.0000	1.0000	1.0000	1.0000	1.0000	1.0000	1.0000	1.0000	1.0000	1.0000	1.0000	1.0000	1.0000	1.0000	1.0000	1.0000	1.0000	1.0000	1.0000	1.0000	1.0000	1.0000	1.0000	1.0000	1.0000	1.0000	1.0000	1.0000	1.0000	1.0000	1.0000	1.0000	1.0000	1.0000	1.0000	1.0000	1.0000	1.0000	1.0000	1.0000	1.0000	1.0000	1.0000	1.0000	1.0000	1.0000	1.0000	1.0000	1.0000	1.0000	1.0000	1.0000	1.0000	1.0000	1.0000	1.0000	1.0000	1.0000	1.0000	1.0000	1.0000	1.0000	1.0000	1.0000	1.0000	1.0000	1.0000	0.0625	0.0625	0.0625	0.0625	0.0625	0.0625	0.0625	0.0625	0.0625	0.0625	0.0625	0.0625	0.0625	0.0625	0.0625	0.0625	0.0625	0.0625	0.0625	0.0625	0.0625	0.0625	0.0625	0.0625	0.0625	0.0625	0.0625	0.0625	0.0625	0.0625	0.0625	0.0625	0.0625	0.0625	0.0625	0.0625	0.0000	0.0000	0.0000	0.0000	0.0625	0.0625	0.0625	0.0625	0.0625	0.0625	0.0625	0.0625	0.0625	0.0625	0.0625	0.0625	0.0625	0.0625	0.0625	0.0625	0.0625	0.0625	0.0625	0.0625	0.0625	0.0625	0.0625	0.0625	0.0625	0.0625	0.0625	0.0625	0.0625	0.0625	0.0625	0.0625	0.0625	0.0625	0.0625	0.0625	0.0000	0.0000	0.0000	0.0000	0.0625	0.0625	0.0625	0.0625	0.0625	0.0625	0.0625	0.0625	0.0625	0.0625	0.0625	0.0625	0.0625	0.0625	0.0625	0.0625	0.0625	0.0625	0.0625	0.0625	0.0625	0.0625	0.0625	0.0625	0.0625	0.0625	0.0625	0.0625	0.0625	0.0625	0.0625	0.0625	0.0625	0.0625	0.0625	0.0625	0.0000	0.0000	0.0000	0.0000	0.0625	0.0625	0.0625	0.0625	0.0625	0.0625	0.0625	0.0625	0.0625	0.0625	0.0625	0.0625	0.0625	0.0625	0.0625	0.0625	0.0625	0.0625	0.0625	0.0625	0.0625	0.0625	0.0625	0.0625	0.0625	0.0625	0.0625	0.0625	0.0625	0.0625	0.0625	0.0625	0.0625	0.0625	0.0625	0.0625	0.0000	0.0000	0.0000	0.0000	0.0625	0.0625	0.0625	0.0625	0.0625	0.0625	0.0625	0.0625	0.0625	0.0625	0.0625	0.0625	0.0625	0.0625	0.0625	0.0625	0.0625	0.0625	0.0625	0.0625	0.0625	0.0625	0.0625	0.0625	0.0625	0.0625	0.0625	0.0625	0.0625	0.0625	0.0625	0.0625	0.0625	0.0625	0.0625	0.0625	0.0000	0.0000	0.0000	0.0000	0.0625	0.0625	0.0625	0.0625	0.0625	0.0625	0.0625	0.0625	0.0625	0.0625	0.0625	0.0625	0.0625	0.0625	0.0625	0.0625	0.0625	0.0625	0.0625	0.0625	0.0625	0.0625	0.0625	0.0625	0.0625	0.0625	0.0625	0.0625	0.0625	0.0625	0.0625	0.0625	0.0625	0.0625	0.0625	0.0625	0.0000	0.0000	0.0000	0.0000	0.0625	0.0625	0.0625	0.0625	0.0625	0.0625	0.0625	0.0625	0.0625	0.0625	0.0625	0.0625	0.0625	0.0625	0.0625	0.0625	0.0625	0.0625	0.0625	0.0625	0.0625	0.0625	0.0625	0.0625	0.0625	0.0625	0.0625	0.0625	0.0625	0.0625	0.0625	0.0625	0.0625	0.0625	0.0625	0.0625	0.0000	0.0000	0.0000	0.0000	0.0625	0.0625	0.0625	0.0625	0.0625	0.0625	0.0625	0.0625	0.0625	0.0625	0.0625	0.0625	0.0625	0.0625	0.0625	0.0625	0.0625	0.0625	0.0625	0.0625	0.0625	0.0625	0.0625	0.0625	0.0625	0.0625	0.0625	0.0625	0.0625	0.0625	0.0625	0.0625	0.0625	0.0625	0.0625	0.0625	0.0000	0.0000	0.0000	0.0000	0.0625	0.0625	0.0625	0.0625	0.0625	0.0625	0.0625	0.0625	0.0625	0.0625	0.0625	0.0625	0.0625	0.0625	0.0625	0.0625	0.0625	0.0625	0.0625	0.0625	0.0625	0.0625	0.0625	0.0625	0.0625	0.0625	0.0625	0.0625	0.0625	0.0625	0.0625	0.0625	0.0625	0.0625	0.0625	0.0625	0.0000	0.0000	0.0000	0.0000	0.0625	0.0625	0.0625	0.0625	0.0625	0.0625	0.0625	0.0625	0.0625	0.0625	0.0625	0.0625	0.0625	0.0625	0.0625	0.0625	0.0625	0.0625	0.0625	0.0625	0.0625	0.0625	0.0625	0.0625	0.0625	0.0625	0.0625	0.0625	0.0625	0.0625	0.0625	0.0625	0.0625	0.0625	0.0625	0.0625	0.0000	0.0000	0.0000	0.0000	0.0625	0.0625	0.0625	0.0625	0.0625	0.0625	0.0625	0.0625	0.0625	0.0625	0.0625	0.0625	0.0625	0.0625	0.0625	0.0625	0.0625	0.0625	0.0625	0.0625	0.0625	0.0625	0.0625	0.0625	0.0625	0.0625	0.0625	0.0625	0.0625	0.0625	0.0625	0.0625	0.0625	0.0625	0.0625	0.0625	0.0000	0.0000	0.0000	0.0000	0.0625	0.0625	0.0625	0.0625	0.0625	0.0625	0.0625	0.0625	0.0625	0.0625	0.0625	0.0625	0.0625	0.0625	0.0625	0.0625	0.0625	0.0625	0.0625	0.0625	0.0625	0.0625	0.0625	0.0625	0.0625	0.0625	0.0625	0.0625	0.0625	0.0625	0.0625	0.0625	0.0625	0.0625	0.0625	0.0625	0.0000	0.0000	0.0000	0.0000	0.0625	0.0625	0.0625	0.0625	0.0625	0.0625	0.0625	0.0625	0.0625	0.0625	0.0625	0.0625	0.0625	0.0625	0.0625	0.0625	0.0625	0.0625	0.0625	0.0625	0.0625	0.0625	0.0625	0.0625	0.0625	0.0625	0.0625	0.0625	0.0625	0.0625	0.0625	0.0625	0.0625	0.0625	0.0625	0.0625	0.0000	0.0000	0.0000	0.0000	0.0625	0.0625	0.0625	0.0625	0.0625	0.0625	0.0625	0.0625	0.0625	0.0625	0.0625	0.0625	0.0625	0.0625	0.0625	0.0625	0.0625	0.0625	0.0625	0.0625	0.0625	0.0625	0.0625	0.0625	0.0625	0.0625	0.0625	0.0625	0.0625	0.0625	0.0625	0.0625	0.0625	0.0625	0.0625	0.0625	0.0000	0.0000	0.0000	0.0000	0.0625	0.0625	0.0625	0.0625	0.0625	0.0625	0.0625	0.0625	0.0625	0.0625	0.0625	0.0625	0.0625	0.0625	0.0625	0.0625	0.0625	0.0625	0.0625	0.0625	0.0625	0.0625	0.0625	0.0625	0.0625	0.0625	0.0625	0.0625	0.0625	0.0625	0.0625	0.0625	0.0625	0.0625	0.0625	0.0625	0.0000	0.0000	0.0000	0.0000	0.0625	0.0625	0.0625	0.0625	0.0625	0.0625	0.0625	0.0625	0.0625	0.0625	0.0625	0.0625	0.0625	0.0625	0.0625	0.0625	0.0625	0.0625	0.0625	0.0625	0.0625	0.0625	0.0625	0.0625	0.0625	0.0625	0.0625	0.0625	0.0625	0.0625	0.0625	0.0625	0.0625	0.0625	0.0625	0.0625	0.0000	0.0000	0.0000	0.0000	0.0625	0.0625	0.0625	0.0625	0.0625	0.0625	0.0625	0.0625	0.0625	0.0625	0.0625	0.0625	0.0625	0.0625	0.0625	0.0625	0.0625	0.0625	0.0625	0.0625	0.0625	0.0625	0.0625	0.0625	0.0625	0.0625	0.0625	0.0625	0.0625	0.0625	0.0625	0.0625	0.0625	0.0625	0.0625	0.0625	0.0000	0.0000	0.0000	0.0000	0.0625	0.0625	0.0625	0.0625	0.0625	0.0625	0.0625	0.0625	0.0625	0.0625	0.0625	0.0625	0.0625	0.0625	0.0625	0.0625	0.0625	0.0625	0.0625	0.0625	0.0625	0.0625	0.0625	0.0625	0.0625	0.0625	0.0625	0.0625	0.0625	0.0625	0.0625	0.0625	0.0625	0.0625	0.0625	0.0625	0.0000	0.0000	0.0000	0.0000	0.0625	0.0625	0.0625	0.0625	0.0625	0.0625	0.0625	0.0625	0.0625	0.0625	0.0625	0.0625	0.0625	0.0625	0.0625	0.0625	0.0625	0.0625	0.0625	0.0625	0.0625	0.0625	0.0625	0.0625	0.0625	0.0625	0.0625	0.0625	0.0625	0.0625	0.0625	0.0625	0.0625	0.0625	0.0625	0.0625	0.0000	0.0000	0.0000	0.0000	0.0625	0.0625	0.0625	0.0625	0.0625	0.0625	0.0625	0.0625	0.0625	0.0625	0.0625	0.0625	0.0625	0.0625	0.0625	0.0625	0.0625	0.0625	0.0625	0.0625	0.0625	0.0625	0.0625	0.0625	0.0625	0.0625	0.0625	0.0625	0.0625	0.0625	0.0625	0.0625	0.0625	0.0625	0.0625	0.0625	0.0000	0.0000	0.0000	0.0000	0.0625	0.0625	0.0625	0.0625	0.0625	0.0625	0.0625	0.0625	0.0625	0.0625	0.0625	0.0625	0.0625	0.0625	0.0625	0.0625	0.0625	0.0625	0.0625	0.0625	0.0625	0.0625	0.0625	0.0625	0.0625	0.0625	0.0625	0.0625	0.0625	0.0625	0.0625	0.0625	0.0625	0.0625	0.0625	0.0625	0.0000	0.0000	0.0000	0.0000	0.0625	0.0625	0.0625	0.0625	0.0625	0.0625	0.0625	0.0625	0.0625	0.0625	0.0625	0.0625	0.0625	0.0625	0.0625	0.0625	0.0625	0.0625	0.0625	0.0625	0.0625	0.0625	0.0625	0.0625	0.0625	0.0625	0.0625	0.0625	0.0625	0.0625	0.0625	0.0625	0.0625	0.0625	0.0625	0.0625	0.0000	0.0000	0.0000	0.0000	0.0625	0.0625	0.0625	0.0625	0.0625	0.0625	0.0625	0.0625	0.0625	0.0625	0.0625	0.0625	0.0625	0.0625	0.0625	0.0625	0.0625	0.0625	0.0625	0.0625	0.0625	0.0625	0.0625	0.0625	0.0625	0.0625	0.0625	0.0625	0.0625	0.0625	0.0625	0.0625	0.0625	0.0625	0.0625	0.0625	0.0000	0.0000	0.0000	0.0000	0.0625	0.0625	0.0625	0.0625	0.0625	0.0625	0.0625	0.0625	0.0625	0.0625	0.0625	0.0625	0.0625	0.0625	0.0625	0.0625	0.0625	0.0625	0.0625	0.0625	0.0625	0.0625	0.0625	0.0625	0.0625	0.0625	0.0625	0.0625	0.0625	0.0625	0.0625	0.0625	0.0625	0.0625	0.0625	0.0625	0.0000	0.0000	0.0000	0.0000	0.0625	0.0625	0.0625	0.0625	0.0625	0.0625	0.0625	0.0625	0.0625	0.0625	0.0625	0.0625	0.0625	0.0625	0.0625	0.0625	0.0625	0.0625	0.0625	0.0625	0.0625	0.0625	0.0625	0.0625	0.0625	0.0625	0.0625	0.0625	0.0625	0.0625	0.0625	0.0625	0.0625	0.0625	0.0625	0.0625	0.0000	0.0000	0.0000	0.0000	0.0625	0.0625	0.0625	0.0625	0.0625	0.0625	0.0625	0.0625	0.0625	0.0625	0.0625	0.0625	0.0625	0.0625	0.0625	0.0625	0.0625	0.0625	0.0625	0.0625	0.0625	0.0625	0.0625	0.0625	0.0625	0.0625	0.0625	0.0625	0.0625	0.0625	0.0625	0.0625	0.0625	0.0625	0.0625	0.0625	0.0000	0.0000	0.0000	0.0000	0.0625	0.0625	0.0625	0.0625	0.0625	0.0625	0.0625	0.0625	0.0625	0.0625	0.0625	0.0625	0.0625	0.0625	0.0625	0.0625	0.0625	0.0625	0.0625	0.0625	0.0625	0.0625	0.0625	0.0625	0.0625	0.0625	0.0625	0.0625	0.0625	0.0625	0.0625	0.0625	0.0625	0.0625	0.0625	0.0625	0.0000	0.0000	0.0000	0.0000	0.0625	0.0625	0.0625	0.0625	0.0625	0.0625	0.0625	0.0625	0.0625	0.0625	0.0625	0.0625	0.0625	0.0625	0.0625	0.0625	0.0625	0.0625	0.0625	0.0625	0.0625	0.0625	0.0625	0.0625	0.0625	0.0625	0.0625	0.0625	0.0625	0.0625	0.0625	0.0625	0.0625	0.0625	0.0625	0.0625	0.0000	0.0000	0.0000	0.0000	0.0625	0.0625	0.0625	0.0625	0.0625	0.0625	0.0625	0.0625	0.0625	0.0625	0.0625	0.0625	0.0625	0.0625	0.0625	0.0625	0.0625	0.0625	0.0625	0.0625	0.0625	0.0625	0.0625	0.0625	0.0625	0.0625	0.0625	0.0625	0.0625	0.0625	0.0625	0.0625	0.0625	0.0625	0.0625	0.0625	0.0000	0.0000	0.0000	0.0000	0.0625	0.0625	0.0625	0.0625	0.0625	0.0625	0.0625	0.0625	0.0625	0.0625	0.0625	0.0625	0.0625	0.0625	0.0625	0.0625	0.0625	0.0625	0.0625	0.0625	0.0625	0.0625	0.0625	0.0625	0.0625	0.0625	0.0625	0.0625	0.0625	0.0625	0.0625	0.0625	0.0625	0.0625	0.0625	0.0625	0.0000	0.0000	0.0000	0.0000	0.0625	0.0625	0.0625	0.0625	0.0625	0.0625	0.0625	0.0625	0.0625	0.0625	0.0625	0.0625	0.0625	0.0625	0.0625	0.0625	0.0625	0.0625	0.0625	0.0625	0.0625	0.0625	0.0625	0.0625	0.0625	0.0625	0.0625	0.0625	0.0625	0.0625	0.0625	0.0625	0.0625	0.0625	0.0625	0.0625	0.0000	0.0000	0.0000	0.0000	0.0625	0.0625	0.0625	0.0625	0.0625	0.0625	0.0625	0.0625	0.0625	0.0625	0.0625	0.0625	0.0625	0.0625	0.0625	0.0625	0.0625	0.0625	0.0625	0.0625	0.0625	0.0625	0.0625	0.0625	0.0625	0.0625	0.0625	0.0625	0.0625	0.0625	0.0625	0.0625	0.0625	0.0625	0.0625	0.0625	0.0000	0.0000	0.0000	0.0000	0.0625	0.0625	0.0625	0.0625	0.0625	0.0625	0.0625	0.0625	0.0625	0.0625	0.0625	0.0625	0.0625	0.0625	0.0625	0.0625	0.0625	0.0625	0.0625	0.0625	0.0625	0.0625	0.0625	0.0625	0.0625	0.0625	0.0625	0.0625	0.0625	0.0625	0.0625	0.0625	0.0625	0.0625	0.0625	0.0625	0.0000	0.0000	0.0000	0.0000	0.0625	0.0625	0.0625	0.0625	0.0625	0.0625	0.0625	0.0625	0.0625	0.0625	0.0625	0.0625	0.0625	0.0625	0.0625	0.0625	0.0625	0.0625	0.0625	0.0625	0.0625	0.0625	0.0625	0.0625	0.0625	0.0625	0.0625	0.0625	0.0625	0.0625	0.0625	0.0625	0.0625	0.0625	0.0625	0.0625	0.0000	0.0000	0.0000	0.0000	0.0625	0.0625	0.0625	0.0625	0.0625	0.0625	0.0625	0.0625	0.0625	0.0625	0.0625	0.0625	0.0625	0.0625	0.0625	0.0625	0.0625	0.0625	0.0625	0.0625	0.0625	0.0625	0.0625	0.0625	0.0625	0.0625	0.0625	0.0625	0.0625	0.0625	0.0625	0.0625	0.0625	0.0625	0.0625	0.0625	0.0000	0.0000	0.0000	0.0000	0.0625	0.0625	0.0625	0.0625	0.0625	0.0625	0.0625	0.0625	0.0625	0.0625	0.0625	0.0625	0.0625	0.0625	0.0625	0.0625	0.0625	0.0625	0.0625	0.0625	0.0625	0.0625	0.0625	0.0625	0.0625	0.0625	0.0625	0.0625	0.0625	0.0625	0.0625	0.0625	0.0625	0.0625	0.0625	0.0625	0.0000	0.0000	0.0000	0.0000	0.0000	0.0000	0.0000	0.0000	0.0000	0.0000	0.0000	0.0000	0.0000	0.0000	0.0000	0.0000	0.0000	0.0000	0.0000	0.0000	0.0000	0.0000	0.0000	0.0000	0.0000	0.0000	0.0000	0.0000	0.0000	0.0000	0.0000	0.0000	0.0000	0.0000	0.0000	0.0000	0.0000	0.0000	0.0000	0.0000	0.0000	0.0000	0.0000	0.0000	0.0000	0.0000	0.0000	0.0000	0.0000	0.0000	0.0000	0.0000	0.0000	0.0000	0.0000	0.0000	0.0000	0.0000	0.0000	0.0000	0.0000	0.0000	0.0000	0.0000	0.0000	0.0000	0.0000	0.0000	0.0000	0.0000	0.0000	0.0000	0.0000	0.0000	0.0000	0.0000	0.0000	0.0000	0.0000	0.0000	0.0000	0.0000	0.0000	0.0000	0.0000	0.0000	0.0000	0.0000	0.0000	0.0000	0.0000	0.0000	0.0000	0.0000	0.0000	0.0000	0.0000	0.0000	0.0000	0.0000	0.0000	0.0000	0.0000	0.0000	0.0000	0.0000	0.0000	0.0000	0.0000	0.0000	0.0000	0.0000	0.0000	0.0000	0.0000	0.0000	0.0000	0.0000	0.0000	0.0000	0.0000	0.0000	0.0000	0.0000	0.0000	0.0000	0.0000	0.0000	0.0000	0.0000	0.0000	0.0000	0.0000	0.0000	0.0000	0.0000	0.0000	0.0000	0.0000	0.0000	0.0000	0.0000	0.0000	0.0000	0.0000	0.0000	0.0000	0.0000	0.0000	0.0000	0.0000	0.0000	0.0000	0.0000	0.0000	0.0000	0.0000	0.0000	0.0000	0.0000	0.0000	0.0000	0.0000	0.0000	