11.8477	11.7289	12.2378	10.1076	10.7113	8.8918	9.6741	8.0594	9.7148	8.8533	9.2341	6.1479	7.1149	6.4370	6.8569	4.2771	1.4232	4.7716	7.0089	6.1535	4.9501	5.9865	4.9475	4.5371	5.1318	2.0722	0.1102	2.1068	2.3573	-0.0095	-0.7792	1.4277	3.9804	5.1724	6.3119	4.3409	2.3620	4.5616	7.8018	7.2310	5.4679	5.8584	7.4359	7.4598	6.7252	4.4010	4.1144	4.6411	2.6810	1.3775	3.9870	9.6144	3.9016	4.7328	4.9074	8.1755	6.1550	6.8050	3.9357	5.3200	6.0790	6.0561	2.1830	2.5897	0.9697	1.5761	0.4732	2.9596	0.2504	-2.0773	-3.1104	3.0245	-0.7016	-2.1057	-1.2197	4.0938	0.6745	-0.2177	-0.9069	2.1999	1.6024	-0.5973	-0.4277	-0.2660	-1.2791	-2.8896	-0.3839	0.2651	-0.0120	-1.0641	0.7466	-0.3568	-0.4197	0.3515	-0.2590	-1.9168	1.3141	0.9099	1.4355	1.3501	-2.1490	-0.0295	0.2496	0.1825	1.2524	2.1346	1.4970	0.7671	-0.8208	-2.0396	-1.2055	1.6649	1.5708	0.5422	-0.1811	0.3419	-2.4356	-2.5955	-1.7251	-0.2825	-0.6088	0.8908	-0.3439	-0.4793	-0.7192	0.6056	-1.0313	0.3183	-0.4484	-0.4872	-1.1271	-0.5125	0.0451	-0.0384	0.4121	-0.2610	1.3175	0.6992	-1.2732	-0.3645	0.0411	0.8883	1.6264	0.7955	0.8884	-0.9219	-1.0658	1.1035	-1.0477	-1.6787	-0.1671	2.9927	0.6560	1.0767	-0.0086	1.0702	0.0320	-0.3603	0.1594	1.1340	-1.3480	-1.8414	-0.8180	-0.3404	-0.1688	1.0611	2.3085	0.8733	-1.1938	-0.9187	-0.3129	-0.7667	0.9912	1.3274	0.0240	0.5537	1.1216	0.2638	-0.9352	0.6276	-0.5867	0.3090	-0.1271	0.1583	1.2911	0.9648	1.3191	0.0482	-0.0622	-0.1350	-0.3685	-0.4652	0.6827	1.4754	1.5500	0.1497	-0.6426	-0.4213	-0.1999	-1.0958	0.8979	1.3374	0.6318	-0.5979	-0.8837	-0.5031	-0.6873	-2.0262	0.3155	-0.2045	0.4097	-0.6704	-0.9468	-0.4970	-1.0296	-1.1372	-0.0575	0.7730	1.1176	-0.4190	0.2005	-0.1866	-0.8191	-0.9720	-0.8373	-0.2548	-0.4660	0.2099	0.2220	0.1765	-0.1399	0.3028	0.5262	-0.2740	0.0894	-0.6945	0.2477	-0.2671	-0.0473	0.7537	-0.7568	-1.9788	-0.9724	-0.0187	0.3377	0.5988	0.2129	0.8808	-0.7609	-0.7015	-0.4906	-0.8845	0.0734	0.4595	1.8986	0.1601	0.2215	0.0464	0.1584	0.1889	0.0602	-0.0133	0.1508	0.0160	0.0657	0.1763	0.1908	0.0503	0.0010	-0.0104	0.0024	0.0107	-0.0051	0.0070	0.0088	-0.0292	0.0064	0.0066	0.0013	0.0036	0.0115	-0.0011	0.0001	0.0050	0.0019	0.0014	-0.0023	-0.0000	-0.0020	0.0086	-0.0017	0.0032	0.0006	-0.0012	0.0018	0.0011	-0.0004	-0.0012	0.0074	0.0026	0.0011	-0.0022	0.0020	-0.0016	0.2687	0.0648	0.0393	0.1484	0.0087	0.0340	-0.0603	0.0168	-0.0054	0.2198	0.0906	0.1138	0.0161	-0.0171	-0.0247	-0.0003	0.0152	-0.0026	-0.0199	-0.0454	0.0200	-0.0048	-0.0264	-0.0043	0.0020	0.0049	-0.0025	-0.0051	-0.0005	0.0026	-0.0092	-0.0014	-0.0003	-0.0012	-0.0035	0.0064	-0.0016	0.0051	-0.0035	0.0055	-0.0031	0.0047	0.0023	0.0115	-0.0011	0.0033	-0.0023	0.0040	0.3164	0.2707	0.1132	0.2173	0.1782	0.2723	0.0200	0.2189	0.1702	0.2962	0.1411	0.2823	-0.0121	-0.0077	-0.0039	0.0043	-0.0186	0.0093	0.0071	-0.0233	-0.0121	0.0117	-0.0041	0.0053	-0.0066	0.0080	0.0008	-0.0019	0.0014	0.0059	-0.0032	0.0034	0.0055	-0.0037	0.0002	0.0063	-0.0005	-0.0008	0.0039	-0.0002	-0.0001	-0.0020	0.0080	0.0046	0.0018	-0.0005	0.0018	0.0014	-0.2738	-0.0216	-0.2561	-0.2205	-0.0731	0.1678	-0.1942	0.0388	0.0267	0.0623	-0.1556	0.1151	-0.0066	0.0172	-0.0107	-0.0237	0.0045	-0.0011	-0.0238	0.0277	-0.0067	-0.0056	-0.0182	0.0003	-0.0103	0.0055	-0.0027	-0.0004	-0.0008	0.0043	0.0006	0.0104	0.0061	-0.0049	-0.0003	0.0062	-0.0010	0.0028	0.0006	0.0002	0.0006	0.0024	-0.0067	-0.0035	0.0008	0.0014	0.0017	0.0020	-0.2261	0.1422	-0.0316	-0.0522	0.1341	0.3081	0.1662	0.2141	0.2759	0.1548	0.0937	0.2131	-0.0225	0.0247	0.0170	-0.0144	-0.0199	0.0127	0.0036	0.0409	-0.0196	0.0052	0.0109	0.0044	-0.0036	0.0013	-0.0017	0.0113	0.0009	0.0026	0.0073	0.0130	0.0050	0.0042	0.0016	0.0018	0.0010	-0.0029	0.0063	-0.0021	0.0033	-0.0018	-0.0016	-0.0095	0.0022	-0.0004	0.0038	-0.0018	-0.1732	0.0575	0.0568	0.0015	0.1028	0.1519	0.2701	0.1267	0.2246	0.1062	0.1957	0.1076	0.0015	0.0186	0.0059	-0.0175	0.0096	0.0034	-0.0066	0.0182	0.0081	-0.0082	0.0020	-0.0044	0.0051	-0.0036	-0.0026	0.0101	-0.0026	-0.0041	0.0031	0.0065	-0.0029	0.0054	-0.0002	-0.0012	0.0019	0.0017	-0.0003	0.0040	0.0001	0.0031	-0.0053	-0.0032	-0.0010	0.0012	0.0018	-0.0005	0.0514	0.1527	0.2337	0.0871	0.2015	0.2617	0.3207	0.1982	0.3032	0.2559	0.2976	0.2439	-0.0047	0.0114	0.0180	-0.0100	-0.0054	0.0115	0.0166	0.0017	-0.0032	0.0039	0.0134	0.0040	-0.0049	-0.0041	0.0021	0.0029	-0.0058	-0.0004	0.0033	0.0029	-0.0014	0.0022	0.0032	-0.0007	0.0001	-0.0004	0.0013	0.0003	0.0003	-0.0004	0.0006	-0.0023	0.0011	0.0001	0.0025	-0.0006	-0.0839	-0.0454	0.1069	-0.0433	0.0217	0.0486	0.2260	0.0282	0.1324	0.1005	0.2551	0.0776	0.0065	0.0072	0.0120	-0.0123	0.0141	0.0046	0.0113	0.0024	0.0097	-0.0023	0.0084	0.0043	-0.0028	-0.0130	0.0034	-0.0037	-0.0084	-0.0113	0.0052	-0.0031	-0.0086	-0.0054	0.0059	-0.0041	-0.0000	-0.0016	0.0018	0.0024	-0.0022	-0.0009	0.0005	-0.0016	-0.0012	-0.0004	0.0015	0.0007	-0.1724	-0.1960	-0.0776	-0.1508	-0.1519	-0.1351	0.0126	-0.1321	-0.0732	-0.0466	0.0781	-0.0767	0.0177	0.0003	-0.0017	-0.0094	0.0220	-0.0039	-0.0078	0.0007	0.0204	-0.0049	-0.0064	0.0008	-0.0001	-0.0071	-0.0021	-0.0043	-0.0072	-0.0081	0.0006	-0.0015	-0.0085	-0.0059	0.0021	-0.0014	0.0004	-0.0014	0.0009	0.0035	-0.0001	-0.0007	-0.0014	0.0017	0.0008	-0.0008	-0.0012	0.0013	0.1549	0.2559	0.0496	0.1523	0.1927	0.1167	-0.0482	0.1796	0.0238	-0.2199	-0.1836	-0.0156	-0.0037	0.0015	-0.0084	0.0012	-0.0008	-0.0136	-0.0107	0.0190	-0.0091	-0.0083	-0.0000	-0.0223	0.0002	0.0070	-0.0002	-0.0013	0.0113	0.0017	-0.0001	-0.0031	0.0066	-0.0084	-0.0045	-0.0009	-0.0008	-0.0004	0.0003	-0.0013	-0.0001	-0.0014	-0.0032	-0.0030	-0.0001	-0.0004	0.0047	0.0018	0.1749	0.2671	0.2501	0.2141	0.2957	0.1010	0.1752	0.1943	0.1168	-0.2407	-0.1168	-0.0613	-0.0088	0.0034	0.0106	0.0081	-0.0131	-0.0120	0.0148	0.0302	-0.0188	-0.0023	0.0263	-0.0137	0.0027	-0.0014	0.0028	0.0006	0.0092	0.0019	0.0054	-0.0069	0.0044	0.0027	-0.0021	-0.0060	-0.0001	-0.0026	0.0020	-0.0031	0.0015	-0.0043	-0.0010	-0.0076	0.0004	-0.0041	0.0081	0.0005	0.1062	0.0592	0.2203	0.1131	0.1502	-0.0896	0.1390	0.0075	-0.0071	-0.2574	-0.1357	-0.1842	0.0164	0.0001	-0.0010	0.0014	0.0185	-0.0182	-0.0094	0.0125	0.0082	-0.0180	0.0027	-0.0158	0.0044	-0.0055	0.0014	-0.0025	0.0018	0.0007	0.0011	-0.0103	-0.0039	0.0073	-0.0040	-0.0039	0.0002	-0.0004	-0.0034	0.0002	-0.0005	-0.0011	-0.0047	-0.0022	-0.0028	-0.0022	0.0036	0.0037	0.1842	-0.0675	0.3093	0.1010	0.1359	0.0700	0.1579	-0.0686	0.0789	-0.3175	-0.2090	-0.0493	-0.0403	0.0137	0.0296	-0.0126	0.0152	0.0140	0.0063	0.0242	0.0221	-0.0269	-0.0019	-0.0056	-0.0063	-0.0100	0.0012	-0.0018	0.0032	0.0253	0.0003	-0.0168	0.0051	0.0072	-0.0066	0.0108	0.0048	-0.0039	0.0093	-0.0033	-0.0021	0.0006	-0.0039	-0.0089	0.0058	0.0004	-0.0045	0.0087	-0.0439	-0.2754	-0.0815	-0.1782	-0.1831	0.2219	0.0568	-0.0844	0.2407	-0.1533	-0.2228	0.0642	0.0175	-0.0017	-0.0181	-0.0972	0.0254	-0.0135	-0.0279	0.0250	-0.0034	-0.0361	0.0031	0.0499	-0.0200	-0.0092	-0.0074	-0.0010	-0.0120	0.0113	-0.0006	-0.0008	-0.0059	0.0021	-0.0033	0.0192	-0.0027	0.0081	0.0044	0.0146	-0.0026	0.0010	-0.0119	-0.0028	0.0006	-0.0024	-0.0054	-0.0041	-0.0234	0.0050	-0.2434	-0.0454	-0.1322	0.2233	0.0930	0.1740	0.3009	-0.0988	-0.0044	0.0529	-0.0106	0.0117	0.0256	-0.0646	-0.0119	0.0104	-0.0040	0.0343	-0.0202	-0.0183	0.0015	0.0469	-0.0103	0.0007	-0.0061	0.0101	0.0096	-0.0108	0.0076	0.0092	-0.0066	0.0020	0.0101	0.0058	-0.0045	-0.0022	0.0118	0.0051	0.0028	-0.0003	-0.0029	-0.0052	-0.0027	0.0022	-0.0004	-0.0094	0.1288	0.2665	-0.0788	0.1521	0.1377	-0.0568	-0.2915	0.0848	-0.1987	-0.0636	-0.3086	-0.0918	-0.0315	-0.0026	0.0160	0.0552	-0.0333	0.0145	0.0040	0.0092	0.0035	0.0141	-0.0213	-0.0424	-0.0010	-0.0038	0.0106	-0.0076	0.0029	-0.0105	0.0023	-0.0195	0.0089	0.0002	-0.0026	-0.0115	0.0039	-0.0055	-0.0007	-0.0079	0.0001	0.0019	0.0068	-0.0054	-0.0078	0.0077	0.0024	0.0040	0.0739	-0.0973	0.3065	0.0675	0.0967	-0.0640	0.1421	-0.1605	0.0054	0.2417	-0.0176	0.0128	-0.0100	-0.0036	0.0159	0.0346	-0.0194	0.0118	0.0255	-0.0198	0.0032	0.0153	0.0187	0.0095	0.0047	-0.0122	0.0067	-0.0038	-0.0180	0.0190	-0.0015	-0.0093	0.0043	0.0268	-0.0082	0.0020	0.0028	-0.0041	0.0022	-0.0042	0.0005	-0.0032	0.0098	-0.0045	0.0023	-0.0050	0.0011	-0.0012	-0.0488	-0.2271	-0.1563	-0.1463	-0.2461	0.0287	-0.1027	-0.1424	0.0016	0.3231	0.1832	0.1853	0.0381	-0.0115	-0.0441	-0.0279	0.0232	-0.0133	-0.0199	-0.0524	0.0006	-0.0066	-0.0058	0.0419	-0.0084	-0.0074	-0.0005	-0.0107	-0.0198	-0.0041	-0.0041	0.0065	-0.0009	-0.0024	0.0010	0.0089	-0.0000	0.0066	-0.0057	0.0106	-0.0065	0.0024	0.0017	0.0085	0.0002	-0.0037	-0.0072	-0.0064	-0.1545	0.0209	-0.2031	-0.0878	-0.0129	0.3178	-0.0796	0.0949	0.1866	-0.0076	-0.2129	0.1797	-0.0443	0.0015	0.0204	-0.0375	-0.0575	0.0205	0.0332	0.0634	-0.0395	0.0212	0.0286	0.0339	-0.0136	-0.0097	0.0045	0.0048	-0.0125	-0.0101	0.0149	-0.0062	0.0038	-0.0084	0.0109	-0.0034	0.0068	-0.0070	0.0077	0.0078	0.0040	-0.0110	0.0030	-0.0157	-0.0012	-0.0023	0.0049	-0.0095	-0.0237	-0.1692	-0.0420	0.0891	-0.1483	-0.1489	0.3056	-0.0683	0.1292	-0.1145	0.1740	-0.1716	0.0277	-0.0039	0.0061	-0.0307	0.0157	-0.0044	-0.0118	-0.0072	0.0174	-0.0187	0.0091	0.0227	0.0232	-0.0016	-0.0112	0.0200	0.0095	-0.0089	-0.0020	0.0042	-0.0159	0.0168	-0.0022	0.0029	-0.0033	0.0018	-0.0009	0.0086	-0.0000	0.0037	-0.0012	0.0018	0.0004	-0.0015	-0.0020	-0.0062	0.3367	0.1969	-0.1760	0.1824	-0.0196	0.0417	-0.3352	0.0858	-0.0933	0.0593	-0.1983	0.0414	-0.0024	-0.0012	-0.0203	0.0170	0.0185	0.0024	-0.0488	-0.0516	0.0152	-0.0299	-0.0497	-0.0061	-0.0013	0.0063	-0.0023	-0.0094	0.0035	-0.0138	-0.0007	-0.0171	-0.0093	-0.0153	0.0021	-0.0008	0.0052	0.0004	-0.0047	-0.0001	-0.0004	0.0094	-0.0018	0.0160	-0.0090	0.0085	-0.0051	0.0037	-0.2507	0.2139	0.0878	-0.0883	0.2023	-0.0266	0.1725	0.2168	0.0141	-0.1371	0.1550	-0.0987	-0.0013	0.0188	0.0202	0.0112	-0.0136	-0.0126	0.0234	0.0546	-0.0309	0.0272	0.0275	-0.0444	0.0047	0.0047	0.0022	0.0003	0.0119	-0.0097	0.0078	0.0123	0.0018	-0.0005	-0.0002	-0.0124	-0.0051	-0.0036	-0.0014	-0.0097	0.0022	-0.0048	-0.0045	-0.0080	-0.0013	-0.0037	0.0114	0.0032	-0.3427	0.0706	0.0955	-0.0983	0.1990	-0.1724	-0.0117	-0.0308	-0.2029	-0.1228	-0.1803	-0.1962	0.0193	0.0232	-0.0129	0.0236	0.0406	-0.0258	-0.0404	0.0253	0.0344	-0.0062	-0.0228	-0.0858	0.0125	-0.0008	-0.0036	-0.0111	-0.0048	0.0052	-0.0013	-0.0034	-0.0008	0.0070	-0.0154	-0.0069	0.0011	0.0033	-0.0105	-0.0040	-0.0002	0.0095	-0.0151	-0.0015	-0.0053	0.0049	-0.0010	0.0195	-0.2593	0.1497	-0.0657	-0.0327	0.1854	0.2390	-0.1010	0.0862	0.0442	0.2379	-0.1721	0.2080	-0.0028	0.0171	-0.0207	0.0007	-0.0177	-0.0145	-0.0125	0.0247	-0.0292	0.0166	0.0232	-0.0146	-0.0025	-0.0077	0.0035	-0.0051	-0.0231	0.0012	0.0114	0.0019	0.0072	0.0024	-0.0048	0.0015	0.0100	0.0004	-0.0028	0.0030	-0.0009	-0.0003	-0.0016	-0.0069	-0.0021	-0.0053	0.0059	0.0025	0.3789	-0.1959	-0.0569	0.0200	-0.2260	0.0801	-0.1787	-0.0641	-0.0713	0.0706	0.2360	0.1418	0.0204	0.0380	-0.0894	-0.0676	0.1392	-0.0678	-0.0555	-0.0548	-0.0453	-0.0420	-0.0353	-0.0369	-0.0214	-0.0082	-0.0176	-0.0228	0.0105	0.0050	-0.0128	0.0057	-0.0167	-0.0410	-0.0102	0.0063	0.0073	0.0140	0.0077	-0.0041	-0.0084	-0.0000	-0.0094	0.0153	0.0022	-0.0033	-0.0002	-0.0100	0.0971	0.0019	0.0887	-0.1122	0.0781	0.0615	0.1238	0.1824	-0.0023	-0.2573	0.0284	-0.1324	-0.1002	-0.0051	0.0954	-0.1273	-0.0281	0.0336	0.0671	0.1826	-0.0112	0.0833	0.0100	-0.1473	-0.0333	-0.0006	0.0013	0.0144	0.0305	0.0211	0.0178	0.0055	0.0129	0.0008	-0.0106	-0.0129	-0.0112	-0.0082	0.0225	-0.0032	0.0088	-0.0121	-0.0079	-0.0257	0.0049	0.0098	0.0124	0.0100	-0.1196	-0.1041	-0.1186	-0.0701	0.0276	0.1578	-0.0061	-0.0674	0.0320	0.2368	-0.3011	0.1005	0.0783	0.0266	-0.0208	-0.1275	0.0425	-0.0633	-0.1456	0.0392	0.0286	-0.0301	0.0353	-0.0888	-0.0021	-0.0064	-0.0288	-0.0060	-0.0301	-0.0165	0.0131	-0.0107	-0.0203	-0.0007	-0.0197	0.0007	-0.0029	0.0024	0.0019	0.0095	0.0074	0.0073	-0.0209	-0.0032	-0.0106	-0.0108	-0.0023	0.0065	-0.1019	-0.0321	-0.3065	0.0838	-0.1989	0.1272	0.1697	0.0384	0.2934	-0.1469	0.0160	0.0585	0.0260	-0.0464	0.0294	0.0156	-0.1246	0.0230	0.0508	0.0055	-0.0073	0.0381	0.0672	0.1110	0.0046	0.0013	0.0088	0.0344	0.0004	-0.0230	0.0090	-0.0017	-0.0027	0.0145	0.0215	0.0118	-0.0047	-0.0021	-0.0046	0.0126	0.0011	-0.0037	0.0088	-0.0021	0.0027	-0.0053	-0.0008	-0.0080	0.2986	0.0661	0.0245	0.1221	-0.1143	-0.1124	-0.0991	-0.0197	0.0440	-0.1275	-0.1010	-0.0983	-0.0031	0.0215	-0.0010	0.1361	0.0611	0.0487	-0.0545	-0.1349	0.0699	-0.1157	-0.0881	0.0737	0.0045	-0.0002	0.0105	-0.0074	0.0148	-0.0030	-0.0220	-0.0283	-0.0204	0.0001	0.0028	0.0262	0.0034	-0.0039	-0.0022	-0.0213	-0.0029	0.0156	0.0062	0.0224	-0.0101	0.0128	-0.0191	0.0056	-0.1111	-0.2447	0.2338	-0.2624	-0.0571	0.2036	0.0525	-0.1348	0.2110	0.0613	-0.0641	0.1633	-0.0372	-0.0409	-0.0307	0.0035	-0.0442	0.0203	0.1175	-0.0021	-0.0565	0.0337	0.0163	0.1192	-0.0218	0.0009	0.0149	0.0052	-0.0120	0.0276	-0.0049	0.0145	0.0034	0.0008	0.0241	0.0063	-0.0014	0.0031	0.0019	-0.0014	0.0067	-0.0178	0.0061	-0.0001	0.0042	0.0035	0.0060	-0.0096	-0.1860	-0.1123	0.0112	-0.1570	-0.0036	0.0208	0.1961	0.0919	0.0259	-0.2698	0.2272	-0.1004	0.0345	0.0228	-0.0601	-0.1296	0.1297	-0.0619	-0.0556	0.0668	-0.0060	-0.0336	-0.0363	-0.1097	-0.0012	0.0012	-0.0257	-0.0014	0.0167	0.0119	-0.0134	0.0228	-0.0026	-0.0058	-0.0211	0.0075	-0.0000	0.0099	0.0071	0.0062	-0.0048	0.0016	-0.0201	-0.0107	0.0017	0.0058	0.0017	0.0068	-0.0213	0.0366	-0.1653	0.2024	0.0932	0.1013	0.0724	0.0283	0.0548	0.0463	-0.3060	-0.0392	-0.0496	-0.0055	0.0794	-0.0803	-0.0810	0.0254	-0.0028	0.1200	0.0138	0.0602	0.0341	-0.0876	0.0013	-0.0102	-0.0042	0.0287	-0.0050	-0.0104	0.0295	-0.0180	0.0012	0.0173	-0.0072	-0.0132	0.0082	-0.0135	0.0098	0.0096	0.0106	-0.0005	-0.0007	-0.0241	-0.0060	0.0013	0.0069	0.0062	0.3415	-0.2045	0.0161	0.1434	-0.2108	-0.1636	0.0762	-0.1949	-0.0168	0.2932	0.1640	0.0031	0.0543	0.0200	-0.0002	0.0007	0.0306	-0.0238	-0.0717	-0.0841	0.0115	-0.0373	0.0318	0.0241	0.0162	-0.0024	-0.0187	0.0069	-0.0080	-0.0058	-0.0031	-0.0034	-0.0129	0.0189	-0.0149	0.0194	-0.0018	0.0013	0.0005	-0.0031	-0.0025	0.0081	0.0089	0.0129	-0.0021	-0.0130	-0.0029	-0.0117	-0.1169	0.1821	-0.3055	0.0041	-0.0861	-0.1438	-0.0839	0.1858	-0.0813	0.1489	0.3983	-0.0073	0.0088	-0.0125	0.0035	0.0012	-0.0029	0.0164	0.0013	-0.0253	-0.0314	-0.0138	0.0031	0.0317	0.0000	-0.0130	0.0026	-0.0095	0.0001	-0.0229	-0.0007	0.0187	0.0087	0.0001	0.0059	0.0089	0.0028	-0.0080	-0.0038	-0.0034	-0.0179	0.0051	0.0105	-0.0007	-0.0006	0.0019	-0.0021	0.0034	0.0126	-0.1853	0.2078	0.1085	0.1133	0.1403	-0.0135	-0.2572	-0.0788	-0.1387	-0.0994	0.2005	-0.0291	0.0069	-0.0043	0.0026	0.0236	0.0071	0.0109	-0.0001	0.0152	-0.0054	-0.0069	-0.0088	0.0079	0.0035	-0.0068	0.0140	-0.0049	0.0236	-0.0011	-0.0078	0.0011	-0.0309	0.0027	-0.0021	0.0161	-0.0004	0.0025	0.0025	-0.0013	-0.0016	-0.0028	-0.0036	0.0149	0.0005	-0.0059	0.0129	0.1850	0.0052	-0.2328	0.0228	-0.2043	0.1234	0.0637	0.1700	0.2164	-0.3025	-0.0467	-0.0905	0.0159	0.0047	-0.0028	-0.0370	-0.0052	-0.0220	-0.0089	0.0314	-0.0063	0.0089	-0.0017	-0.0129	-0.0162	-0.0118	0.0043	0.0049	0.0192	-0.0087	-0.0000	-0.0112	-0.0028	-0.0036	-0.0050	0.0119	-0.0042	0.0058	0.0039	0.0087	-0.0101	-0.0007	-0.0036	-0.0066	0.0021	0.0008	0.0024	-0.0074	-0.1514	0.0456	0.0001	0.0908	0.2070	0.0739	-0.0432	0.0049	-0.1023	0.2139	-0.1513	0.0075	-0.1887	-0.0094	0.1436	-0.0160	-0.1392	0.0836	0.1577	0.1729	-0.1389	0.1378	0.1010	-0.0611	-0.0162	-0.0122	0.0158	0.0238	0.0101	0.0178	0.0572	0.0051	0.0042	-0.0110	0.0145	-0.0445	0.0123	-0.0096	0.0063	0.0079	0.0018	-0.0088	-0.0050	-0.0045	0.0021	0.0016	0.0196	-0.0058	0.0913	-0.1390	-0.1736	0.0142	-0.0398	0.0962	-0.0914	0.0394	-0.2164	-0.1106	0.1097	-0.0037	0.0353	0.0585	-0.0827	-0.1766	0.1750	-0.1165	-0.1167	0.1224	-0.0266	0.0029	-0.0439	-0.2561	-0.0300	-0.0395	-0.0235	-0.0063	-0.0011	-0.0139	0.0080	-0.0163	-0.0096	-0.0267	-0.0408	-0.0204	0.0225	0.0137	0.0007	0.0222	-0.0242	0.0063	-0.0395	-0.0057	-0.0127	0.0038	0.0025	0.0105	0.1329	-0.1996	0.0524	0.0255	-0.0060	0.0317	0.2687	-0.0841	0.0240	0.1307	-0.1218	-0.0415	-0.0341	0.0206	0.1251	-0.1036	-0.0846	0.0088	-0.0323	0.1616	0.0079	0.0741	0.1374	-0.1539	-0.0007	0.0193	-0.0234	0.0574	0.0201	0.0310	0.0211	0.0038	0.0135	0.0257	-0.0279	0.0027	-0.0210	-0.0033	0.0238	-0.0057	0.0241	0.0032	-0.0067	-0.0177	0.0141	-0.0136	0.0045	0.0114	0.1045	-0.0240	-0.0950	0.0119	-0.0035	0.1658	-0.1517	0.0774	-0.1815	-0.1377	0.2489	0.1065	-0.0523	0.0001	0.0083	-0.0492	0.1084	0.0181	0.0155	0.1108	-0.0871	0.0082	-0.0649	-0.2068	-0.0468	-0.0349	0.0149	0.0047	0.0163	-0.0183	0.0131	-0.0363	-0.0153	-0.0393	-0.0113	-0.0096	0.0277	-0.0081	0.0045	0.0151	-0.0268	-0.0098	-0.0066	-0.0210	-0.0090	0.0102	0.0104	0.0024	0.1176	-0.1519	-0.0545	0.0089	-0.1394	-0.0220	0.2191	-0.0843	0.0473	0.1145	-0.1886	-0.1208	0.1500	0.0373	-0.0218	-0.0094	0.0026	-0.1127	-0.1549	0.0335	0.0604	0.0426	0.0941	-0.1829	0.0048	0.0291	-0.0249	0.0305	0.0242	0.0241	-0.0131	-0.0012	-0.0034	0.0118	-0.0487	0.0176	-0.0357	0.0215	0.0100	-0.0058	0.0150	0.0148	-0.0212	0.0042	0.0142	-0.0144	-0.0050	0.0095	-0.1135	0.1705	0.1775	-0.2583	0.1002	-0.0708	-0.0448	0.1859	-0.1221	-0.0585	0.2213	-0.0406	-0.1759	-0.0580	0.1005	0.1000	-0.0991	0.1280	0.1736	0.0869	-0.0779	0.0836	0.0809	-0.0275	-0.0268	0.0041	0.0353	0.0123	0.0236	0.0094	0.0431	-0.0105	0.0142	0.0033	0.0051	-0.0043	-0.0077	-0.0107	0.0016	-0.0106	0.0145	-0.0042	0.0080	0.0044	-0.0079	-0.0008	0.0109	-0.0077	0.1327	-0.0727	0.2640	-0.2875	0.0834	0.0240	-0.1751	0.0351	-0.1079	0.1354	-0.0456	0.0430	0.0048	0.0558	-0.1215	-0.1559	0.0931	-0.1044	-0.0112	0.0087	0.0072	-0.0116	-0.0141	0.0177	-0.0031	0.0004	-0.0183	-0.0397	-0.0527	-0.0207	-0.0062	0.0127	0.0041	-0.0201	0.0128	-0.0392	0.0079	0.0091	-0.0016	0.0046	0.0287	-0.0176	-0.0157	0.0061	-0.0218	-0.0075	0.0062	-0.0038	-0.1688	0.0597	-0.1545	0.2153	0.1219	-0.2000	0.1208	-0.0666	-0.1044	0.0103	0.1042	-0.0164	0.0288	-0.0068	0.1153	-0.0914	-0.0102	0.0592	-0.1056	-0.0038	0.0879	-0.1031	-0.0061	0.0572	0.0262	0.0140	-0.0338	0.0037	0.0029	0.0122	-0.0150	0.0354	0.0317	0.0284	-0.0062	0.0201	-0.0144	-0.0082	0.0017	-0.0038	-0.0103	0.0330	0.0119	-0.0186	0.0292	-0.0071	-0.0169	0.0264	0.1410	-0.1918	0.1382	-0.0564	-0.0753	0.2517	-0.0231	-0.1231	0.1667	-0.3028	-0.0430	0.1928	-0.0623	0.0174	0.0324	0.0098	-0.0932	-0.0126	0.1716	0.0001	-0.0860	0.1053	0.0163	0.1636	-0.0055	0.0018	0.0099	0.0029	-0.0146	0.0028	0.0291	0.0098	0.0105	-0.0180	0.0342	-0.0114	0.0175	-0.0093	-0.0011	0.0053	-0.0136	-0.0101	0.0080	0.0039	0.0078	0.0063	0.0000	-0.0078	-0.3047	0.0679	0.1710	0.0450	0.2253	-0.1031	-0.0344	-0.2096	-0.2631	0.0986	0.0760	0.0994	0.0866	-0.0684	-0.0093	0.1299	0.1053	0.0667	-0.1112	-0.0786	0.0487	-0.1204	-0.0847	-0.1114	0.0281	0.0211	-0.0022	0.0174	0.0176	0.0052	-0.0301	-0.0336	-0.0209	-0.0217	-0.0214	0.0182	0.0091	-0.0014	-0.0191	0.0024	-0.0153	0.0147	0.0098	-0.0096	0.0160	-0.0040	-0.0063	0.0133	0.0642	0.0276	-0.1014	0.1908	-0.1810	0.1179	0.1028	-0.0199	0.1502	-0.2113	0.0898	0.0695	0.0465	-0.0102	-0.0300	0.2385	-0.1123	-0.0316	0.0977	-0.0583	-0.0524	0.1318	0.0757	-0.0126	0.0016	-0.0001	0.0443	0.0217	0.0283	0.0158	0.0009	-0.0270	-0.0001	-0.0002	-0.0104	0.0322	0.0072	-0.0005	-0.0062	0.0028	-0.0223	-0.0165	0.0184	-0.0030	0.0226	-0.0030	0.0088	-0.0100	0.0292	-0.0388	0.1751	-0.2120	-0.0785	0.0933	-0.0977	-0.0090	0.0921	0.1222	-0.2430	0.0003	-0.0287	-0.0489	-0.0987	0.1363	0.0864	0.0542	-0.0356	-0.0581	0.0548	-0.0752	-0.0326	-0.0742	-0.0210	-0.0031	0.0224	0.0100	0.0068	0.0105	-0.0140	-0.0534	-0.0455	-0.0285	-0.0037	0.0179	0.0027	0.0094	0.0008	-0.0085	0.0303	-0.0094	-0.0107	0.0235	-0.0234	0.0032	-0.0075	-0.0030	0.0001	-0.0004	0.0003	-0.0004	-0.0002	0.0002	0.0004	0.0000	0.0008	-0.0005	-0.0001	0.0000	0.0003	-0.0002	-0.0002	-0.0002	0.0003	-0.0001	-0.0001	-0.0000	0.0002	-0.0001	-0.0001	0.0005	-0.0000	-0.0002	-0.0000	-0.0001	-0.0003	0.0001	-0.0001	0.0001	-0.0003	-0.0001	-0.0000	0.0004	0.0001	0.0000	-0.0001	0.0001	-0.0001	-0.0001	0.0000	0.0002	-0.0001	-0.0000	0.0001	0.0002	-0.0001	-0.0000	-0.0003	0.0001	-0.0002	-0.0000	0.0002	-0.0000	0.0004	-0.0004	-0.0001	-0.0002	-0.0000	-0.0000	0.0002	0.0000	-0.0002	0.0001	-0.0001	0.0001	-0.0001	-0.0000	-0.0001	0.0003	0.0000	0.0000	-0.0000	-0.0001	0.0001	0.0000	-0.0001	0.0002	-0.0002	-0.0000	0.0000	0.0002	-0.0001	0.0000	0.0000	-0.0001	-0.0001	-0.0000	0.0001	0.0001	-0.0001	0.0000	0.0002	0.0000	0.0001	0.0002	-0.0002	0.0000	-0.0000	0.0004	-0.0003	0.0002	0.0003	-0.0002	-0.0004	0.0002	0.0002	-0.0001	-0.0002	-0.0001	0.0001	-0.0001	-0.0001	-0.0000	-0.0000	-0.0002	-0.0000	0.0001	-0.0001	0.0001	0.0000	-0.0000	-0.0000	-0.0000	-0.0001	-0.0000	-0.0001	-0.0000	0.0000	-0.0000	0.0001	0.0001	-0.0000	-0.0000	0.0001	-0.0000	-0.0001	0.0000	-0.0001	0.0001	0.0001	0.0001	0.0000	-0.0001	0.0001	-0.0001	-0.0001	0.0001	0.0001	0.0000	0.0003	-0.0002	-0.0000	0.0000	0.0001	-0.0001	-0.0001	-0.0001	0.0001	-0.0000	-0.0000	-0.0000	0.0001	-0.0000	-0.0000	0.0002	-0.0000	-0.0001	-0.0000	-0.0000	-0.0001	0.0000	-0.0000	0.0000	-0.0001	-0.0000	-0.0000	0.0001	0.0000	0.0000	-0.0000	0.0000	-0.0000	-0.0000	0.0000	0.0001	-0.0000	-0.0000	0.0000	0.0001	-0.0000	-0.0000	-0.0001	0.0000	-0.0001	-0.0000	0.0001	-0.0000	0.0001	-0.0001	-0.0000	-0.0001	-0.0000	-0.0000	0.0001	0.0000	-0.0001	0.0000	-0.0000	0.0000	-0.0000	-0.0000	-0.0000	0.0001	0.0000	0.0000	-0.0000	-0.0000	0.0000	0.0000	-0.0000	0.0001	-0.0001	-0.0000	0.0000	0.0001	-0.0000	0.0000	0.0000	-0.0000	-0.0000	-0.0000	0.0000	0.0000	-0.0000	0.0000	0.0001	0.0000	0.0000	0.0001	-0.0001	0.0000	-0.0000	0.0001	-0.0001	0.0001	0.0001	-0.0001	-0.0001	0.0001	0.0001	-0.0000	-0.0001	-0.0000	0.0000	-0.0000	-0.0000	-0.0000	-0.0000	-0.0001	-0.0000	0.0000	-0.0000	0.0000	0.0000	-0.0000	-0.0000	-0.0000	-0.0000	-0.0000	-0.0000	-0.0000	0.0000	-0.0000	0.0000	0.0000	-0.0000	-0.0000	0.0000	-0.0000	-0.0000	0.0000	-0.0000	0.0000	0.0000	0.0000	0.0001	-0.0005	0.0003	-0.0004	-0.0002	0.0003	0.0005	0.0000	0.0008	-0.0006	-0.0001	0.0000	0.0003	-0.0002	-0.0002	-0.0002	0.0003	-0.0001	-0.0001	-0.0000	0.0002	-0.0002	-0.0001	0.0005	-0.0000	-0.0002	-0.0000	-0.0002	-0.0003	0.0001	-0.0001	0.0001	-0.0004	-0.0001	-0.0000	0.0005	0.0001	0.0000	-0.0001	0.0001	-0.0001	-0.0001	0.0001	0.0002	-0.0001	-0.0000	0.0001	0.0002	-0.0001	-0.0000	-0.0004	0.0001	-0.0002	-0.0000	0.0003	-0.0000	0.0005	-0.0005	-0.0002	-0.0002	-0.0000	-0.0000	0.0002	0.0000	-0.0002	0.0001	-0.0001	0.0001	-0.0001	-0.0000	-0.0001	0.0004	0.0000	0.0000	-0.0000	-0.0001	0.0001	0.0000	-0.0001	0.0002	-0.0002	-0.0001	0.0000	0.0002	-0.0001	0.0001	0.0000	-0.0001	-0.0001	-0.0000	0.0001	0.0001	-0.0001	0.0000	0.0002	0.0000	0.0001	0.0002	-0.0002	0.0000	-0.0000	0.0005	-0.0003	0.0002	0.0003	-0.0002	-0.0004	0.0003	0.0002	-0.0001	-0.0002	-0.0001	0.0001	-0.0001	-0.0001	-0.0000	-0.0000	-0.0002	-0.0000	0.0001	-0.0001	0.0001	0.0000	-0.0000	-0.0000	-0.0000	-0.0001	-0.0001	-0.0001	-0.0000	0.0000	-0.0000	0.0001	0.0001	-0.0000	-0.0000	0.0001	-0.0000	-0.0001	0.0000	-0.0001	0.0001	0.0001	0.0001	0.0001	-0.0003	0.0002	-0.0002	-0.0001	0.0001	0.0003	0.0000	0.0005	-0.0003	-0.0000	0.0000	0.0002	-0.0001	-0.0001	-0.0001	0.0002	-0.0001	-0.0001	-0.0000	0.0001	-0.0001	-0.0001	0.0003	-0.0000	-0.0001	-0.0000	-0.0001	-0.0002	0.0001	-0.0001	0.0000	-0.0002	-0.0001	-0.0000	0.0003	0.0000	0.0000	-0.0001	0.0000	-0.0000	-0.0001	0.0000	0.0001	-0.0000	-0.0000	0.0001	0.0001	-0.0000	-0.0000	-0.0002	0.0001	-0.0001	-0.0000	0.0001	-0.0000	0.0003	-0.0003	-0.0001	-0.0001	-0.0000	-0.0000	0.0001	0.0000	-0.0001	0.0001	-0.0000	0.0000	-0.0000	-0.0000	-0.0001	0.0002	0.0000	0.0000	-0.0000	-0.0001	0.0001	0.0000	-0.0000	0.0001	-0.0001	-0.0000	0.0000	0.0001	-0.0000	0.0000	0.0000	-0.0000	-0.0000	-0.0000	0.0001	0.0001	-0.0000	0.0000	0.0001	0.0000	0.0000	0.0001	-0.0001	0.0000	-0.0000	0.0003	-0.0002	0.0001	0.0002	-0.0001	-0.0002	0.0001	0.0001	-0.0001	-0.0001	-0.0000	0.0000	-0.0000	-0.0000	-0.0000	-0.0000	-0.0001	-0.0000	0.0000	-0.0000	0.0001	0.0000	-0.0000	-0.0000	-0.0000	-0.0001	-0.0000	-0.0001	-0.0000	0.0000	-0.0000	0.0000	0.0000	-0.0000	-0.0000	0.0001	-0.0000	-0.0001	0.0000	-0.0000	0.0000	0.0001	0.0000	0.0001	-0.0001	0.0000	-0.0001	-0.0001	-0.0000	0.0000	0.0000	0.0002	-0.0001	0.0000	-0.0001	0.0002	-0.0001	-0.0001	-0.0000	0.0001	-0.0001	-0.0001	-0.0000	0.0001	-0.0001	-0.0001	0.0002	-0.0000	-0.0001	-0.0000	-0.0001	-0.0001	0.0000	-0.0001	0.0000	-0.0002	-0.0001	-0.0000	0.0002	0.0000	0.0000	-0.0001	0.0000	-0.0000	-0.0001	0.0000	0.0001	-0.0000	0.0000	0.0001	0.0001	0.0001	0.0001	0.0000	0.0001	0.0001	-0.0001	0.0000	-0.0000	0.0001	0.0000	-0.0000	-0.0000	-0.0000	-0.0000	0.0001	0.0001	-0.0001	0.0001	0.0000	0.0000	-0.0000	0.0000	-0.0001	0.0002	0.0000	0.0000	0.0000	-0.0001	0.0000	0.0000	-0.0000	0.0001	-0.0001	-0.0000	0.0000	0.0001	-0.0000	0.0000	0.0000	-0.0001	-0.0000	-0.0000	0.0001	0.0000	-0.0000	0.0000	0.0001	0.0000	-0.0001	-0.0001	0.0000	-0.0001	-0.0001	0.0001	-0.0001	-0.0001	0.0000	0.0000	-0.0000	0.0001	0.0001	-0.0001	-0.0001	-0.0000	0.0000	-0.0001	-0.0000	-0.0000	0.0000	-0.0001	-0.0000	0.0000	-0.0000	0.0000	0.0000	-0.0000	-0.0000	-0.0000	-0.0001	-0.0000	-0.0000	-0.0000	0.0000	-0.0000	0.0000	0.0000	-0.0000	-0.0000	0.0001	-0.0000	-0.0000	0.0000	-0.0000	0.0000	0.0000	0.0000	-0.0001	0.0001	-0.0000	0.0001	0.0001	0.0000	-0.0000	-0.0000	-0.0002	0.0001	-0.0000	0.0001	-0.0002	0.0001	0.0001	0.0000	-0.0001	0.0000	0.0001	0.0000	-0.0001	0.0001	0.0001	-0.0002	0.0000	0.0001	0.0000	0.0001	0.0001	-0.0000	0.0001	-0.0000	0.0001	0.0000	0.0000	-0.0002	-0.0000	-0.0000	0.0000	-0.0000	0.0000	0.0001	-0.0000	-0.0001	0.0000	-0.0000	-0.0001	-0.0001	-0.0000	-0.0001	-0.0000	-0.0001	-0.0001	0.0001	-0.0000	0.0000	-0.0001	-0.0000	0.0000	0.0000	0.0000	0.0000	-0.0001	-0.0001	0.0001	-0.0001	-0.0000	-0.0000	0.0000	-0.0000	0.0001	-0.0001	-0.0000	-0.0000	-0.0000	0.0000	-0.0000	-0.0000	0.0000	-0.0001	0.0001	0.0000	-0.0000	-0.0001	0.0000	-0.0000	-0.0000	0.0000	0.0000	0.0000	-0.0001	-0.0000	0.0000	-0.0000	-0.0001	-0.0000	0.0001	0.0001	-0.0000	0.0001	0.0000	-0.0001	0.0001	0.0001	-0.0000	-0.0000	0.0000	-0.0001	-0.0001	0.0001	0.0001	0.0000	-0.0000	0.0000	0.0000	0.0000	-0.0000	0.0001	0.0000	-0.0000	0.0000	-0.0000	-0.0000	0.0000	0.0000	0.0000	0.0001	0.0000	0.0000	0.0000	-0.0000	0.0000	-0.0000	-0.0000	0.0000	0.0000	-0.0001	0.0000	0.0000	-0.0000	0.0000	-0.0000	-0.0000	-0.0000	0.0001	-0.0001	0.0000	-0.0001	-0.0001	-0.0000	0.0000	0.0000	0.0002	-0.0001	0.0000	-0.0000	0.0001	-0.0001	-0.0001	-0.0000	0.0001	-0.0000	-0.0000	-0.0000	0.0001	-0.0001	-0.0000	0.0002	-0.0000	-0.0001	-0.0000	-0.0001	-0.0001	0.0000	-0.0001	0.0000	-0.0001	-0.0000	-0.0000	0.0002	0.0000	0.0000	-0.0000	0.0000	-0.0000	-0.0000	0.0000	0.0001	-0.0000	0.0000	0.0000	0.0001	0.0000	0.0001	0.0000	0.0001	0.0001	-0.0001	0.0000	-0.0000	0.0001	0.0000	-0.0000	-0.0000	-0.0000	-0.0000	0.0001	0.0001	-0.0001	0.0001	0.0000	0.0000	-0.0000	0.0000	-0.0000	0.0001	0.0000	0.0000	0.0000	-0.0000	0.0000	0.0000	-0.0000	0.0001	-0.0001	-0.0000	0.0000	0.0001	-0.0000	0.0000	0.0000	-0.0000	-0.0000	-0.0000	0.0001	0.0000	-0.0000	0.0000	0.0001	0.0000	-0.0001	-0.0001	0.0000	-0.0001	-0.0000	0.0001	-0.0001	-0.0001	0.0000	0.0000	-0.0000	0.0001	0.0001	-0.0001	-0.0001	-0.0000	0.0000	-0.0000	-0.0000	-0.0000	0.0000	-0.0001	-0.0000	0.0000	-0.0000	0.0000	0.0000	-0.0000	-0.0000	-0.0000	-0.0001	-0.0000	-0.0000	-0.0000	0.0000	-0.0000	0.0000	0.0000	-0.0000	-0.0000	0.0000	-0.0000	-0.0000	0.0000	-0.0000	0.0000	0.0000	0.0000	0.0000	-0.0000	0.0000	-0.0000	-0.0000	-0.0000	0.0000	0.0000	0.0000	-0.0000	0.0000	-0.0000	0.0000	-0.0000	-0.0000	-0.0000	0.0000	-0.0000	-0.0000	-0.0000	0.0000	-0.0000	-0.0000	0.0000	-0.0000	-0.0000	-0.0000	-0.0000	-0.0000	0.0000	-0.0000	0.0000	-0.0000	-0.0000	-0.0000	0.0000	0.0000	0.0000	-0.0000	0.0000	-0.0000	-0.0000	0.0000	0.0000	-0.0000	0.0000	0.0000	0.0000	0.0000	0.0000	0.0000	0.0000	0.0000	-0.0000	0.0000	-0.0000	0.0000	0.0000	-0.0000	-0.0000	-0.0000	-0.0000	0.0000	0.0000	-0.0000	0.0000	0.0000	0.0000	-0.0000	0.0000	-0.0000	0.0000	0.0000	0.0000	0.0000	-0.0000	0.0000	0.0000	-0.0000	0.0000	-0.0000	-0.0000	0.0000	0.0000	-0.0000	0.0000	0.0000	-0.0000	-0.0000	-0.0000	0.0000	0.0000	-0.0000	0.0000	0.0000	0.0000	-0.0000	-0.0000	0.0000	-0.0000	-0.0000	0.0000	-0.0000	-0.0000	0.0000	0.0000	-0.0000	0.0000	0.0000	-0.0000	-0.0000	-0.0000	0.0000	-0.0000	-0.0000	-0.0000	0.0000	-0.0000	-0.0000	0.0000	-0.0000	0.0000	0.0000	-0.0000	-0.0000	-0.0000	-0.0000	-0.0000	-0.0000	-0.0000	0.0000	-0.0000	0.0000	0.0000	-0.0000	-0.0000	0.0000	-0.0000	-0.0000	0.0000	-0.0000	0.0000	0.0000	0.0000	0.0000	-0.0000	0.0000	-0.0001	-0.0000	-0.0000	-0.0000	0.0000	0.0000	-0.0000	-0.0000	-0.0000	0.0001	-0.0000	-0.0000	-0.0000	0.0000	-0.0000	-0.0000	-0.0000	0.0000	-0.0000	-0.0000	0.0001	-0.0000	-0.0000	-0.0000	-0.0000	-0.0001	0.0000	-0.0000	0.0000	-0.0001	-0.0000	-0.0000	0.0001	0.0000	0.0000	-0.0000	0.0000	-0.0000	-0.0000	0.0000	0.0000	-0.0000	0.0000	0.0000	0.0000	-0.0000	0.0000	0.0000	0.0000	0.0000	-0.0000	0.0000	-0.0000	0.0000	0.0000	0.0000	0.0000	-0.0000	-0.0000	0.0000	0.0000	-0.0000	0.0000	0.0000	0.0000	-0.0000	0.0000	-0.0000	0.0001	0.0000	0.0000	0.0000	-0.0000	0.0000	0.0000	-0.0000	0.0000	-0.0000	-0.0000	0.0000	0.0000	-0.0000	0.0000	0.0000	-0.0000	-0.0000	-0.0000	0.0000	0.0000	-0.0000	0.0000	0.0000	0.0000	-0.0000	0.0000	-0.0000	-0.0000	-0.0000	0.0000	-0.0000	0.0000	-0.0000	-0.0000	0.0000	0.0000	0.0000	-0.0000	-0.0000	0.0000	0.0000	-0.0000	-0.0000	-0.0000	0.0000	-0.0000	-0.0000	0.0000	-0.0000	0.0000	0.0000	-0.0000	-0.0000	-0.0000	-0.0000	-0.0000	-0.0000	-0.0000	0.0000	-0.0000	0.0000	0.0000	-0.0000	-0.0000	0.0000	-0.0000	-0.0000	0.0000	-0.0000	0.0000	0.0000	0.0000	0.0000	-0.0000	0.0000	-0.0001	-0.0000	-0.0001	-0.0000	0.0000	0.0001	-0.0000	-0.0000	-0.0000	0.0001	-0.0000	-0.0001	-0.0000	0.0001	-0.0000	-0.0000	-0.0000	0.0001	-0.0000	-0.0000	0.0001	-0.0000	-0.0000	-0.0000	-0.0000	-0.0001	0.0000	-0.0000	0.0000	-0.0001	-0.0000	-0.0000	0.0001	0.0000	0.0000	-0.0000	0.0000	-0.0000	-0.0000	0.0000	0.0001	-0.0000	0.0000	0.0000	0.0001	-0.0000	0.0000	0.0000	0.0001	0.0000	-0.0000	0.0000	-0.0000	0.0000	0.0000	0.0000	0.0000	-0.0000	-0.0000	0.0000	0.0000	-0.0001	0.0000	0.0000	0.0000	-0.0000	0.0000	-0.0000	0.0001	0.0000	0.0000	0.0000	-0.0000	0.0000	0.0000	-0.0000	0.0001	-0.0000	-0.0000	0.0000	0.0001	-0.0000	0.0000	0.0000	-0.0000	-0.0000	-0.0000	0.0000	0.0000	-0.0000	0.0000	0.0000	0.0000	-0.0000	0.0000	-0.0000	-0.0000	-0.0000	0.0000	-0.0001	0.0000	-0.0000	-0.0000	0.0000	0.0000	0.0001	-0.0000	-0.0001	0.0000	0.0000	-0.0000	-0.0000	-0.0000	0.0000	-0.0000	-0.0000	0.0000	-0.0000	0.0000	0.0000	-0.0000	-0.0000	-0.0000	-0.0000	-0.0000	-0.0000	-0.0000	0.0000	-0.0000	0.0000	0.0000	-0.0000	-0.0000	0.0000	-0.0000	-0.0000	0.0000	-0.0000	0.0000	0.0000	0.0000	0.0000	-0.0000	0.0000	-0.0000	-0.0000	-0.0000	-0.0000	0.0000	0.0000	-0.0000	-0.0000	-0.0000	0.0000	-0.0000	-0.0000	-0.0000	0.0000	-0.0000	-0.0000	-0.0000	0.0000	-0.0000	-0.0000	0.0001	-0.0000	-0.0000	-0.0000	-0.0000	-0.0000	0.0000	-0.0000	0.0000	-0.0000	-0.0000	-0.0000	0.0001	0.0000	0.0000	-0.0000	0.0000	-0.0000	-0.0000	0.0000	0.0000	-0.0000	0.0000	0.0000	0.0000	-0.0000	0.0000	0.0000	0.0000	0.0000	-0.0000	0.0000	-0.0000	0.0000	0.0000	0.0000	0.0000	-0.0000	-0.0000	0.0000	0.0000	-0.0000	0.0000	0.0000	0.0000	-0.0000	0.0000	-0.0000	0.0000	0.0000	0.0000	0.0000	-0.0000	0.0000	0.0000	-0.0000	0.0000	-0.0000	-0.0000	0.0000	0.0000	-0.0000	0.0000	0.0000	-0.0000	-0.0000	-0.0000	0.0000	0.0000	-0.0000	0.0000	0.0000	0.0000	-0.0000	0.0000	-0.0000	-0.0000	-0.0000	0.0000	-0.0000	0.0000	-0.0000	-0.0000	0.0000	0.0000	0.0000	-0.0000	-0.0000	0.0000	0.0000	-0.0000	-0.0000	-0.0000	0.0000	-0.0000	-0.0000	0.0000	-0.0000	0.0000	0.0000	-0.0000	-0.0000	-0.0000	-0.0000	-0.0000	-0.0000	-0.0000	0.0000	-0.0000	0.0000	0.0000	-0.0000	-0.0000	0.0000	-0.0000	-0.0000	0.0000	-0.0000	0.0000	0.0000	0.0000	-0.0000	0.0000	-0.0000	0.0000	0.0000	0.0000	0.0000	-0.0000	-0.0000	0.0000	0.0000	0.0000	-0.0000	0.0000	0.0000	0.0000	-0.0000	0.0000	0.0000	0.0000	-0.0000	0.0000	0.0000	-0.0000	0.0000	0.0000	0.0000	0.0000	0.0000	-0.0000	0.0000	-0.0000	0.0000	0.0000	0.0000	-0.0000	-0.0000	-0.0000	0.0000	-0.0000	0.0000	0.0000	-0.0000	-0.0000	0.0000	-0.0000	-0.0000	-0.0000	0.0000	-0.0000	-0.0000	-0.0000	-0.0000	0.0000	-0.0000	0.0000	-0.0000	-0.0000	-0.0000	-0.0000	0.0000	0.0000	-0.0000	-0.0000	0.0000	-0.0000	-0.0000	-0.0000	0.0000	-0.0000	0.0000	-0.0000	-0.0000	-0.0000	-0.0000	0.0000	-0.0000	-0.0000	0.0000	-0.0000	0.0000	0.0000	-0.0000	-0.0000	0.0000	-0.0000	-0.0000	0.0000	0.0000	0.0000	-0.0000	-0.0000	0.0000	-0.0000	-0.0000	-0.0000	0.0000	-0.0000	0.0000	0.0000	0.0000	-0.0000	0.0000	-0.0000	0.0000	0.0000	-0.0000	-0.0000	-0.0000	0.0000	0.0000	-0.0000	-0.0000	0.0000	0.0000	0.0000	-0.0000	0.0000	0.0000	-0.0000	0.0000	-0.0000	-0.0000	0.0000	0.0000	0.0000	0.0000	0.0000	0.0000	0.0000	-0.0000	0.0000	-0.0000	-0.0000	0.0000	0.0000	-0.0000	0.0000	0.0000	-0.0000	0.0000	-0.0000	-0.0000	-0.0000	0.0000	0.0000	-0.0000	0.0001	-0.0000	0.0000	0.0000	-0.0001	-0.0001	0.0000	0.0000	0.0001	-0.0001	0.0001	0.0000	0.0000	-0.0001	-0.0000	-0.0000	-0.0000	-0.0000	-0.0000	0.0000	-0.0001	0.0000	0.0001	0.0000	0.0001	0.0001	-0.0001	0.0000	-0.0000	0.0002	0.0001	0.0000	-0.0002	-0.0000	0.0000	0.0000	-0.0000	0.0000	0.0001	-0.0000	-0.0001	0.0000	-0.0000	-0.0001	-0.0001	-0.0001	0.0000	0.0000	-0.0001	-0.0000	-0.0000	-0.0000	0.0000	0.0000	-0.0000	-0.0000	0.0000	-0.0000	-0.0000	-0.0000	-0.0000	0.0000	0.0000	0.0001	-0.0001	0.0001	-0.0000	0.0000	-0.0000	-0.0000	-0.0000	0.0000	0.0001	-0.0000	-0.0000	0.0000	-0.0001	0.0001	0.0000	0.0000	-0.0001	0.0000	-0.0000	-0.0000	0.0000	0.0000	0.0000	-0.0000	-0.0000	0.0000	-0.0000	-0.0001	-0.0000	0.0000	-0.0000	0.0000	0.0000	0.0000	-0.0000	-0.0000	-0.0000	0.0001	-0.0000	-0.0000	-0.0000	-0.0001	0.0001	0.0000	0.0000	0.0000	0.0000	0.0000	-0.0001	-0.0000	0.0000	-0.0001	0.0001	0.0000	-0.0001	-0.0000	0.0000	0.0000	-0.0000	0.0001	0.0000	0.0000	-0.0000	0.0000	0.0000	-0.0000	-0.0000	0.0000	0.0000	-0.0001	0.0000	0.0000	-0.0000	0.0000	-0.0000	-0.0000	-0.0000	0.0000	0.0000	-0.0000	0.0000	-0.0000	0.0000	0.0000	-0.0000	-0.0000	0.0000	0.0000	0.0000	-0.0000	0.0000	0.0000	0.0000	-0.0000	-0.0000	-0.0000	-0.0000	-0.0000	-0.0000	0.0000	-0.0001	0.0000	0.0000	0.0000	0.0000	0.0001	-0.0000	0.0000	-0.0000	0.0001	0.0000	0.0000	-0.0001	-0.0000	0.0000	0.0000	-0.0000	0.0000	0.0000	-0.0000	-0.0001	0.0000	-0.0000	-0.0000	-0.0000	-0.0000	0.0000	0.0000	-0.0000	-0.0000	-0.0000	-0.0000	0.0000	0.0000	-0.0000	-0.0000	0.0000	-0.0000	-0.0000	-0.0000	-0.0000	0.0000	0.0000	0.0000	-0.0000	0.0000	-0.0000	0.0000	-0.0000	-0.0000	-0.0000	0.0000	0.0000	-0.0000	-0.0000	0.0000	-0.0000	0.0000	0.0000	0.0000	-0.0000	0.0000	-0.0000	-0.0000	0.0000	0.0000	0.0000	-0.0000	-0.0000	0.0000	-0.0000	-0.0000	-0.0000	0.0000	-0.0000	0.0000	0.0000	0.0000	-0.0000	-0.0000	-0.0000	0.0000	-0.0000	-0.0000	-0.0000	-0.0000	0.0000	0.0000	0.0000	0.0000	0.0000	0.0000	-0.0000	-0.0000	0.0000	-0.0000	0.0000	0.0000	-0.0000	-0.0000	0.0000	0.0000	-0.0000	0.0000	0.0000	0.0000	-0.0000	0.0000	0.0000	-0.0000	-0.0000	0.0000	0.0000	-0.0000	0.0000	0.0000	-0.0000	0.0000	-0.0000	-0.0000	-0.0000	-0.0000	-0.0000	0.0000	-0.0000	0.0000	-0.0000	-0.0000	0.0000	0.0000	-0.0000	-0.0000	-0.0000	0.0000	-0.0000	-0.0000	-0.0000	0.0000	0.0000	0.0000	0.0000	0.0000	0.0000	-0.0000	0.0000	-0.0000	-0.0000	-0.0000	-0.0000	-0.0000	0.0000	-0.0000	0.0000	-0.0001	-0.0000	-0.0000	0.0001	0.0000	-0.0000	-0.0000	0.0000	-0.0000	-0.0000	0.0000	0.0000	-0.0000	0.0000	0.0000	0.0000	0.0000	-0.0000	-0.0000	0.0000	0.0000	0.0000	0.0000	-0.0000	-0.0000	0.0000	0.0000	-0.0000	0.0000	0.0000	0.0000	0.0000	-0.0000	-0.0000	-0.0000	0.0000	-0.0000	0.0000	-0.0000	0.0000	0.0000	0.0000	-0.0000	-0.0000	0.0000	0.0000	-0.0000	0.0000	-0.0000	-0.0000	-0.0000	0.0000	-0.0000	0.0000	0.0000	-0.0000	-0.0000	-0.0000	0.0000	0.0000	-0.0000	0.0000	0.0000	0.0000	-0.0000	0.0000	-0.0000	-0.0000	-0.0000	0.0000	0.0000	0.0000	-0.0000	0.0000	0.0000	0.0000	0.0000	-0.0000	-0.0000	-0.0000	-0.0000	-0.0000	-0.0000	0.0000	0.0000	-0.0000	0.0000	-0.0000	-0.0000	0.0000	0.0000	-0.0000	-0.0000	0.0000	-0.0000	-0.0000	-0.0000	0.0000	-0.0000	-0.0000	0.0000	0.0000	-0.0000	-0.0000	0.0000	-0.0000	-0.0000	0.0000	-0.0000	0.0000	0.0000	0.0000	-0.0000	-0.0000	0.0000	-0.0000	0.0000	-0.0000	-0.0000	0.0000	0.0000	-0.0000	-0.0000	-0.0000	0.0000	-0.0000	-0.0000	-0.0000	0.0000	0.0000	0.0000	0.0000	0.0000	0.0000	-0.0000	0.0000	-0.0000	-0.0000	-0.0000	-0.0000	-0.0000	0.0000	-0.0000	0.0000	-0.0000	-0.0000	-0.0000	0.0000	0.0000	-0.0000	-0.0000	0.0000	-0.0000	-0.0000	0.0000	0.0000	-0.0000	0.0000	0.0000	0.0000	0.0000	-0.0000	-0.0000	0.0000	0.0000	0.0000	0.0000	-0.0000	-0.0000	0.0000	0.0000	-0.0000	0.0000	0.0000	0.0000	0.0000	-0.0000	-0.0000	-0.0000	0.0000	-0.0000	0.0000	-0.0000	0.0000	0.0000	0.0000	-0.0000	-0.0000	0.0000	0.0000	-0.0000	0.0000	-0.0000	-0.0000	-0.0000	0.0000	-0.0000	0.0000	0.0000	-0.0000	-0.0000	-0.0000	0.0000	0.0000	-0.0000	0.0000	0.0000	0.0000	-0.0000	0.0000	-0.0000	-0.0000	-0.0000	0.0000	0.0000	0.0000	-0.0000	0.0000	0.0000	0.0000	0.0000	-0.0000	-0.0000	-0.0000	-0.0000	-0.0000	-0.0000	0.0000	0.0000	-0.0000	0.0000	-0.0000	-0.0000	0.0000	0.0000	-0.0000	-0.0000	0.0000	-0.0000	-0.0000	-0.0000	0.0000	-0.0000	-0.0000	0.0000	0.0000	-0.0000	-0.0000	0.0000	-0.0000	-0.0000	0.0000	-0.0000	0.0000	0.0000	0.0000	1.0000	1.0000	1.0000	1.0000	1.0000	1.0000	1.0000	1.0000	1.0000	1.0000	1.0000	1.0000	1.0000	1.0000	1.0000	1.0000	1.0000	1.0000	1.0000	1.0000	1.0000	1.0000	1.0000	1.0000	1.0000	1.0000	1.0000	1.0000	1.0000	1.0000	1.0000	1.0000	1.0000	1.0000	1.0000	1.0000	1.0000	1.0000	1.0000	1.0000	1.0000	1.0000	1.0000	1.0000	1.0000	1.0000	1.0000	1.0000	1.0000	1.0000	1.0000	1.0000	1.0000	1.0000	1.0000	1.0000	1.0000	1.0000	1.0000	1.0000	1.0000	1.0000	1.0000	1.0000	1.0000	1.0000	1.0000	1.0000	1.0000	1.0000	1.0000	1.0000	1.0000	1.0000	1.0000	1.0000	1.0000	1.0000	1.0000	1.0000	1.0000	1.0000	1.0000	1.0000	1.0000	1.0000	1.0000	1.0000	1.0000	1.0000	1.0000	1.0000	1.0000	1.0000	1.0000	1.0000	1.0000	1.0000	1.0000	1.0000	1.0000	1.0000	1.0000	1.0000	1.0000	1.0000	1.0000	1.0000	1.0000	1.0000	1.0000	1.0000	1.0000	1.0000	1.0000	1.0000	1.0000	1.0000	1.0000	1.0000	1.0000	1.0000	1.0000	1.0000	1.0000	1.0000	1.0000	1.0000	1.0000	1.0000	1.0000	1.0000	1.0000	1.0000	1.0000	1.0000	1.0000	1.0000	1.0000	1.0000	1.0000	1.0000	1.0000	1.0000	0.0625	0.0625	0.0625	0.0625	0.0312	0.0312	0.0312	0.0312	0.0208	0.0208	0.0208	0.0208	0.0208	0.0208	0.0208	0.0208	0.0312	0.0312	0.0312	0.0312	0.0625	0.0625	0.0625	0.0625	0.0625	0.0625	0.0625	0.0625	0.0312	0.0312	0.0312	0.0312	0.0208	0.0208	0.0208	0.0208	0.0208	0.0208	0.0208	0.0208	0.0312	0.0312	0.0312	0.0312	0.0625	0.0625	0.0625	0.0625	0.0625	0.0625	0.0625	0.0625	0.0312	0.0312	0.0312	0.0312	0.0208	0.0208	0.0208	0.0208	0.0208	0.0208	0.0208	0.0208	0.0312	0.0312	0.0312	0.0312	0.0625	0.0625	0.0625	0.0625	0.0625	0.0625	0.0625	0.0625	0.0312	0.0312	0.0312	0.0312	0.0208	0.0208	0.0208	0.0208	0.0208	0.0208	0.0208	0.0208	0.0312	0.0312	0.0312	0.0312	0.0625	0.0625	0.0625	0.0625	0.0312	0.0312	0.0312	0.0312	0.0156	0.0156	0.0156	0.0156	0.0104	0.0104	0.0104	0.0104	0.0104	0.0104	0.0104	0.0104	0.0156	0.0156	0.0156	0.0156	0.0312	0.0312	0.0312	0.0312	0.0312	0.0312	0.0312	0.0312	0.0156	0.0156	0.0156	0.0156	0.0104	0.0104	0.0104	0.0104	0.0104	0.0104	0.0104	0.0104	0.0156	0.0156	0.0156	0.0156	0.0312	0.0312	0.0312	0.0312	0.0312	0.0312	0.0312	0.0312	0.0156	0.0156	0.0156	0.0156	0.0104	0.0104	0.0104	0.0104	0.0104	0.0104	0.0104	0.0104	0.0156	0.0156	0.0156	0.0156	0.0312	0.0312	0.0312	0.0312	0.0312	0.0312	0.0312	0.0312	0.0156	0.0156	0.0156	0.0156	0.0104	0.0104	0.0104	0.0104	0.0104	0.0104	0.0104	0.0104	0.0156	0.0156	0.0156	0.0156	0.0312	0.0312	0.0312	0.0312	0.0208	0.0208	0.0208	0.0208	0.0104	0.0104	0.0104	0.0104	0.0069	0.0069	0.0069	0.0069	0.0069	0.0069	0.0069	0.0069	0.0104	0.0104	0.0104	0.0104	0.0208	0.0208	0.0208	0.0208	0.0208	0.0208	0.0208	0.0208	0.0104	0.0104	0.0104	0.0104	0.0069	0.0069	0.0069	0.0069	0.0069	0.0069	0.0069	0.0069	0.0104	0.0104	0.0104	0.0104	0.0208	0.0208	0.0208	0.0208	0.0208	0.0208	0.0208	0.0208	0.0104	0.0104	0.0104	0.0104	0.0069	0.0069	0.0069	0.0069	0.0069	0.0069	0.0069	0.0069	0.0104	0.0104	0.0104	0.0104	0.0208	0.0208	0.0208	0.0208	0.0208	0.0208	0.0208	0.0208	0.0104	0.0104	0.0104	0.0104	0.0069	0.0069	0.0069	0.0069	0.0069	0.0069	0.0069	0.0069	0.0104	0.0104	0.0104	0.0104	0.0208	0.0208	0.0208	0.0208	0.0208	0.0208	0.0208	0.0208	0.0104	0.0104	0.0104	0.0104	0.0069	0.0069	0.0069	0.0069	0.0069	0.0069	0.0069	0.0069	0.0104	0.0104	0.0104	0.0104	0.0208	0.0208	0.0208	0.0208	0.0208	0.0208	0.0208	0.0208	0.0104	0.0104	0.0104	0.0104	0.0069	0.0069	0.0069	0.0069	0.0069	0.0069	0.0069	0.0069	0.0104	0.0104	0.0104	0.0104	0.0208	0.0208	0.0208	0.0208	0.0208	0.0208	0.0208	0.0208	0.0104	0.0104	0.0104	0.0104	0.0069	0.0069	0.0069	0.0069	0.0069	0.0069	0.0069	0.0069	0.0104	0.0104	0.0104	0.0104	0.0208	0.0208	0.0208	0.0208	0.0208	0.0208	0.0208	0.0208	0.0104	0.0104	0.0104	0.0104	0.0069	0.0069	0.0069	0.0069	0.0069	0.0069	0.0069	0.0069	0.0104	0.0104	0.0104	0.0104	0.0208	0.0208	0.0208	0.0208	0.0312	0.0312	0.0312	0.0312	0.0156	0.0156	0.0156	0.0156	0.0104	0.0104	0.0104	0.0104	0.0104	0.0104	0.0104	0.0104	0.0156	0.0156	0.0156	0.0156	0.0312	0.0312	0.0312	0.0312	0.0312	0.0312	0.0312	0.0312	0.0156	0.0156	0.0156	0.0156	0.0104	0.0104	0.0104	0.0104	0.0104	0.0104	0.0104	0.0104	0.0156	0.0156	0.0156	0.0156	0.0312	0.0312	0.0312	0.0312	0.0312	0.0312	0.0312	0.0312	0.0156	0.0156	0.0156	0.0156	0.0104	0.0104	0.0104	0.0104	0.0104	0.0104	0.0104	0.0104	0.0156	0.0156	0.0156	0.0156	0.0312	0.0312	0.0312	0.0312	0.0312	0.0312	0.0312	0.0312	0.0156	0.0156	0.0156	0.0156	0.0104	0.0104	0.0104	0.0104	0.0104	0.0104	0.0104	0.0104	0.0156	0.0156	0.0156	0.0156	0.0312	0.0312	0.0312	0.0312	0.0625	0.0625	0.0625	0.0625	0.0312	0.0312	0.0312	0.0312	0.0208	0.0208	0.0208	0.0208	0.0208	0.0208	0.0208	0.0208	0.0312	0.0312	0.0312	0.0312	0.0625	0.0625	0.0625	0.0625	0.0625	0.0625	0.0625	0.0625	0.0312	0.0312	0.0312	0.0312	0.0208	0.0208	0.0208	0.0208	0.0208	0.0208	0.0208	0.0208	0.0312	0.0312	0.0312	0.0312	0.0625	0.0625	0.0625	0.0625	0.0625	0.0625	0.0625	0.0625	0.0312	0.0312	0.0312	0.0312	0.0208	0.0208	0.0208	0.0208	0.0208	0.0208	0.0208	0.0208	0.0312	0.0312	0.0312	0.0312	0.0625	0.0625	0.0625	0.0625	0.0625	0.0625	0.0625	0.0625	0.0312	0.0312	0.0312	0.0312	0.0208	0.0208	0.0208	0.0208	0.0208	0.0208	0.0208	0.0208	0.0312	0.0312	0.0312	0.0312	0.0625	0.0625	0.0625	0.0625	