0.0200	-0.0148	-0.0094	-0.0129	0.1283	0.0836	-0.1184	-0.0743	0.0380	-0.0586	0.0723	0.0162	-0.0376	0.0142	-0.1025	0.0531	0.1685	0.0510	0.5161	1.4511	1.3178	0.5624	0.3425	0.2128	0.1367	0.1274	1.3861	2.2517	2.2490	1.4770	0.9471	0.1904	-0.1046	0.0666	1.4391	1.8276	2.3925	2.7297	2.0540	0.7743	-0.2475	-0.0510	0.8313	1.5825	2.9618	2.4060	1.7823	1.0443	0.1355	0.0694	-0.2944	0.8297	2.0871	1.4505	1.0264	0.8264	0.0978	-0.1560	-0.5710	-0.0273	0.7225	0.9021	0.7332	0.4222	-0.0214	-0.0260	0.0733	-0.0500	0.1087	0.0147	-0.0503	0.0804	0.0974	0.0999	-0.0402	-0.0225	0.1351	0.0875	0.0451	0.0518	0.0967	0.1008	-0.3817	-0.8860	-0.4528	0.1707	0.0736	-0.0177	0.0933	0.0247	-0.9683	-1.1544	0.1851	0.9379	0.5253	0.4082	0.0266	0.0238	-1.0548	-0.2878	2.0819	2.3287	1.3232	0.9707	0.0082	-0.2272	-0.7857	0.4617	2.7217	2.4389	1.8593	1.3927	-0.1409	-0.3217	-0.0978	0.8585	2.5928	2.5528	2.1550	1.6017	-0.1530	-0.0885	0.3017	0.9505	1.9716	1.9675	1.4774	0.7933	0.1248	0.1171	-0.0027	0.0461	-0.0535	0.0583	0.0524	0.0326	0.1834	0.0477	-0.0415	0.0316	0.0778	-0.0495	-0.0768	-0.0813	0.0639	0.1373	0.0617	0.4567	1.4741	1.8664	1.0355	0.5247	-0.1582	-0.0638	0.2824	1.3790	2.9766	2.7813	1.8239	0.9929	-0.0982	-0.2146	0.4353	1.8457	3.0126	1.9631	1.7299	1.4701	-0.0380	-0.1805	0.5295	1.6015	2.1898	1.8358	1.6433	0.9055	-0.0761	0.0712	0.7685	0.7725	0.7259	0.9789	0.5376	-0.0348	-0.0409	0.2310	0.3851	0.1176	-0.1838	-0.2240	-0.3149	-0.2820	0.0538	-0.0383	0.0393	0.1711	-0.0740	-0.0678	0.0037	0.1017	0.0140	-0.0101	0.0417	0.1486	-0.0536	0.0683	-0.0173	-0.0482	0.0150	-0.1007	0.1662	0.4374	0.0488	-0.2597	-0.2257	-0.0746	0.0867	-0.0525	0.8593	1.5035	0.6654	-0.0844	-0.1461	-0.1249	0.0855	0.0609	1.9349	3.1676	2.1503	0.9010	0.5580	-0.0765	-0.0839	0.0604	2.8067	3.4622	2.2867	1.3759	1.0043	-0.0457	-0.1415	0.0669	2.3414	3.0657	2.3199	1.5215	1.3234	0.3867	-0.0446	0.1210	1.3865	2.0845	1.8975	1.0725	0.6702	0.0834	-0.1891	0.2014	-0.1208	0.1320	0.0532	-0.0555	0.0354	0.0284	0.0214	0.0115	0.0586	-0.1119	0.0909	-0.0855	0.0934	-0.0644	-0.0064	-0.0460	0.1337	0.0519	-0.4657	-0.3784	0.0274	-0.2330	0.1161	0.0047	0.2282	-0.2776	0.2272	0.2431	0.2907	-0.1652	0.1296	-0.0941	-0.0837	-0.2016	0.7688	0.0135	-0.3791	-0.0498	-0.1372	0.2163	-0.6138	0.5751	0.0702	-0.2065	-0.1111	0.3776	-0.0483	-0.1472	-0.7012	1.0910	-0.2845	0.1173	-0.1381	0.2551	-0.1212	-0.0041	-0.2513	0.3395	-0.3003	0.0865	-0.5159	0.1261	-0.0873	-0.0196	-0.1053	-0.0398	-0.1013	-0.0423	-0.1346	0.1018	0.0127	-0.0083	0.1181	-0.0166	0.0331	0.0090	-0.0884	0.0837	-0.0826	0.1380	0.3588	0.5893	0.5134	0.7394	0.6012	0.2474	-0.0882	-0.1511	0.6805	-0.5016	-0.5919	-0.3016	0.2390	-0.2938	0.1788	-0.0383	0.3172	-0.8452	0.0478	0.1000	0.2992	0.1285	0.0184	0.0880	0.3159	-0.4827	0.2577	-0.2334	-0.1537	-0.6856	0.2065	0.0582	-0.0888	-0.2229	-0.6392	-0.2989	-0.0262	-0.0072	-0.2176	-0.2131	0.1788	0.3290	0.1192	0.2234	0.1539	0.0650	0.0284	0.0237	0.0769	0.0611	-0.1043	0.2084	-0.0912	0.0507	-0.0120	0.0262	-0.0052	-0.1316	0.0438	0.0874	-0.1754	0.1814	-0.1751	0.0089	0.1586	-0.4220	-0.9275	-0.1473	-0.0360	-0.0697	0.0617	-0.0226	0.5438	-0.2298	-0.0020	0.1312	0.4868	-0.0241	0.1080	-0.0843	1.1709	-0.8641	-0.1040	0.0247	0.2940	-0.5370	0.1369	0.0270	0.8315	-1.1474	0.1190	0.0327	0.8026	-0.1402	-0.0079	-0.0257	0.6871	-0.3792	0.1417	0.0798	0.2798	-0.3004	0.1158	0.1037	-0.0617	-0.2027	-0.3076	-0.1358	0.0193	-0.0804	-0.0746	0.1314	-0.0776	0.0095	0.0096	-0.0065	0.0058	-0.1966	0.0169	-0.0370	-0.0594	-0.0420	0.2216	-0.1359	0.0310	0.0071	-0.0787	0.0128	-0.1005	-0.3850	-0.0291	0.6301	0.3486	0.0990	0.0399	-0.1745	-0.3930	0.4302	0.4881	-0.5218	-0.1668	0.1363	0.1366	0.0875	-0.2132	-0.0278	-0.0352	0.0069	-0.3061	0.0809	-0.1064	-0.0128	-0.5442	0.4275	-0.1422	0.3159	0.1863	-0.0246	-0.1909	0.1297	-0.0316	0.1984	-0.0516	-0.1224	-0.5162	0.1724	0.1178	-0.0155	-0.7395	0.2854	0.1996	-0.0038	0.0552	0.2371	-0.0322	-0.0708	0.1143	-0.0977	0.0061	-0.0948	0.1127	-0.0087	0.0932	-0.0532	0.1424	-0.1427	0.0736	0.1771	-0.1929	0.0885	-0.1775	0.0426	0.0525	0.2950	-0.3381	0.0487	0.3692	-0.1050	0.2258	-0.1694	0.2152	-0.6279	0.5175	-0.1789	-0.0664	0.0467	-0.1492	0.1847	-0.1335	0.2535	-0.2384	0.0849	0.0163	-0.1305	-0.0506	0.0314	0.1097	-0.1541	0.0879	-0.4114	0.3942	-0.0359	0.1101	-0.2193	0.1583	0.1229	-0.3764	0.3041	-0.2280	-0.0569	-0.1900	0.1579	0.1818	-0.4932	0.4988	-0.2691	0.2759	-0.1567	0.0251	-0.0589	0.0599	0.1204	-0.0481	-0.1238	-0.0608	-0.0380	-0.0547	-0.0038	-0.2162	-0.0586	0.0068	-0.0514	0.1809	-0.0161	0.0784	0.0483	-0.0641	0.0933	0.0367	-0.0076	0.0856	-0.0683	0.0063	0.0211	0.0179	-0.0789	-0.0124	-0.1141	-0.2472	0.0716	-0.0578	0.0167	-0.0187	-0.0861	-0.0414	0.5943	-0.0832	0.0002	0.0415	-0.0558	-0.0125	0.2312	-0.2521	-0.1462	-0.3707	0.1251	0.0239	-0.0481	-0.0094	0.1756	-0.1778	0.4543	-0.1779	0.1295	0.0654	0.0298	-0.0774	0.0783	-0.2760	0.0400	-0.2980	0.0846	-0.0706	-0.0597	0.0407	-0.0362	0.0827	-0.0068	-0.1330	-0.0364	-0.1728	-0.1645	-0.0006	-0.2458	-0.1310	0.1684	-0.0637	0.0966	-0.0078	-0.0692	0.0478	0.0238	0.0798	0.0456	0.0280	-0.0304	-0.0247	-0.1393	0.0159	0.0317	0.0453	-0.3334	0.1029	-0.1312	-0.0714	-0.0455	-0.0655	-0.0512	0.2528	-0.0915	0.5834	-0.0874	-0.0189	0.0214	0.0829	-0.0815	0.3780	-0.4112	0.0296	-0.2531	-0.1155	-0.0205	0.0219	-0.0952	0.2986	-0.1769	0.4639	-0.1218	0.1465	-0.1570	0.0828	-0.0918	0.0404	-0.3597	0.1295	-0.2785	0.0209	0.0946	-0.1954	0.0734	0.1381	-0.0498	0.0889	-0.1645	0.1192	-0.1275	-0.0265	-0.0326	-0.1359	-0.1281	0.0167	0.0912	-0.0813	0.1493	0.0807	0.0125	-0.0635	0.1448	0.0118	0.0317	0.1542	-0.0551	0.0957	-0.1298	0.1237	0.2445	-0.4446	-0.1373	-0.1034	0.0129	-0.0301	0.1357	-0.3730	-0.0281	0.1962	0.3539	0.2470	-0.0661	-0.0945	-0.0062	0.0457	0.2627	-0.2468	-0.2123	-0.0917	0.0448	-0.1044	0.1046	-0.1978	0.1786	-0.0562	0.2149	-0.0186	0.2054	-0.1252	-0.2273	0.3322	-0.1249	-0.0752	0.1013	0.1001	-0.1315	0.0507	0.1252	-0.1952	0.2796	-0.0857	-0.0640	0.1081	-0.1031	0.2363	-0.0062	-0.1392	0.1102	0.0388	-0.0168	0.0277	0.0787	-0.1583	0.0665	-0.0077	-0.0412	0.1844	-0.0618	0.1797	-0.1269	-0.0826	0.0955	0.2640	-0.3656	0.1387	-0.1814	-0.0607	0.1317	0.3223	-0.4025	0.1416	-0.0210	-0.2153	0.1457	-0.0906	0.0496	0.2681	-0.1915	0.0976	0.0644	-0.2421	-0.1019	0.0520	-0.2193	0.3178	-0.0419	-0.1155	-0.2061	0.1381	0.0205	0.1406	0.0866	-0.0944	0.1980	-0.1107	0.0960	-0.2602	0.0038	-0.0862	-0.0647	-0.1272	-0.0005	-0.1516	-0.0442	-0.1243	-0.0153	0.0920	-0.0994	0.0443	0.0117	0.0401	-0.0349	0.1256	0.0095	-0.0373	0.1196	0.2305	-0.1729	-0.1947	0.1904	-0.3468	0.0796	-0.0810	0.0515	-0.2043	0.2462	-0.0205	0.2266	0.2733	0.1709	0.1224	-0.1848	0.1540	-0.0076	0.2294	-0.0577	0.0627	-0.1152	-0.0822	0.1034	-0.1200	0.0226	-0.0732	0.0175	-0.3825	0.1151	-0.0340	-0.0355	0.0652	-0.1265	0.0594	-0.1179	0.0160	-0.1109	-0.0235	-0.0618	-0.0730	0.1978	-0.0662	-0.0610	0.0575	0.0683	-0.0669	-0.0919	-0.1756	-0.1027	-0.0388	-0.0961	-0.0683	-0.0447	-0.0523	0.0600	-0.0997	-0.0838	0.0497	-0.0211	-0.0394	0.1349	-0.0219	0.0364	-0.0038	0.0382	-0.1203	-0.4302	0.0694	0.0003	-0.0623	0.0541	-0.0693	0.0381	0.2140	0.3483	0.5433	0.1176	-0.1135	0.1227	-0.1312	0.1474	0.0455	0.1511	-0.0546	0.0225	0.1036	-0.0996	-0.3712	0.0555	-0.0196	-0.0304	0.0572	-0.0545	0.0733	-0.2085	-0.2241	0.1059	-0.0972	-0.0644	0.0333	-0.1710	0.0261	0.0984	-0.0814	0.0988	-0.0203	0.2171	-0.1223	-0.1044	-0.0468	-0.1129	0.0947	-0.0799	-0.0712	0.0156	0.0067	-0.0894	0.0134	-0.0370	0.0277	0.0703	-0.2089	0.1584	0.0863	-0.0651	0.1760	-0.1214	0.0865	0.0564	-0.0888	-0.1247	0.0476	-0.0161	0.0074	-0.0163	0.1441	-0.2032	0.2715	0.2821	-0.0047	0.2045	-0.0830	-0.0099	0.1260	-0.0045	0.2431	-0.0766	-0.2400	-0.1595	-0.0487	-0.1245	0.5592	-0.2717	0.0467	-0.3142	-0.0526	-0.1275	-0.0127	0.0357	0.2074	-0.1243	0.0716	-0.1248	-0.2644	-0.0650	0.0232	0.0087	0.1744	-0.0888	0.1226	-0.2104	0.0553	0.0424	0.2737	0.2770	0.1166	0.2263	0.0929	0.0497	-0.0404	0.0142	-0.1889	-0.1846	-0.1283	-0.1792	0.0023	-0.0015	-0.0076	0.0036	0.0012	0.0000	0.0011	0.0018	0.0012	0.0036	0.0123	-0.0025	-0.0014	0.0006	-0.0026	-0.0013	0.0001	0.0012	-0.0006	0.0009	0.0016	0.0007	0.0020	0.0030	-0.0021	-0.0012	0.0001	0.0014	0.0002	-0.0005	0.0017	0.0005	0.0015	0.0012	0.0006	-0.0003	0.1402	0.0845	0.0821	0.1089	0.0978	0.1268	0.0317	0.1088	0.0538	0.1711	-0.0175	0.0776	-0.0007	0.0009	0.0015	-0.0007	0.0024	0.0010	0.0027	-0.0008	0.0034	0.0009	0.0016	-0.0007	-0.0008	-0.0001	0.0000	0.0003	-0.0004	0.0007	-0.0010	0.0008	0.0002	0.0017	-0.0019	0.0011	-0.0002	-0.0013	0.0005	0.0002	-0.0008	-0.0001	-0.0003	0.0006	-0.0019	0.0013	-0.0009	0.0016	-0.0406	-0.0355	-0.0005	-0.0168	0.1123	0.1960	0.1220	0.1769	0.3463	0.4129	0.1720	0.3300	-0.0001	0.0024	0.0101	-0.0048	0.0021	0.0011	0.0023	-0.0020	0.0019	-0.0027	-0.0095	0.0027	0.0005	0.0002	0.0013	0.0018	-0.0008	-0.0000	-0.0010	0.0000	-0.0020	0.0009	-0.0038	-0.0016	0.0002	0.0003	-0.0002	0.0001	-0.0022	0.0002	-0.0019	0.0011	-0.0035	-0.0008	-0.0010	0.0022	0.3093	0.3268	0.1498	0.2689	0.2620	0.2278	0.1040	0.1908	0.1355	0.0726	0.0430	0.0737	-0.0004	-0.0003	0.0003	0.0023	-0.0015	-0.0018	-0.0004	0.0029	-0.0011	-0.0025	0.0000	0.0017	-0.0014	0.0008	-0.0022	-0.0004	-0.0010	0.0004	-0.0017	-0.0012	-0.0005	-0.0003	-0.0006	-0.0017	-0.0026	-0.0009	-0.0001	0.0021	-0.0015	-0.0012	0.0008	0.0014	-0.0002	-0.0011	0.0011	0.0002	0.2748	0.2441	0.1262	0.2127	0.1525	0.0563	0.0376	0.0627	-0.0416	-0.1411	-0.0354	-0.0858	-0.0020	0.0011	-0.0002	0.0044	-0.0032	-0.0002	0.0008	0.0039	-0.0022	-0.0007	0.0032	0.0011	-0.0012	0.0005	-0.0016	-0.0004	-0.0005	0.0000	-0.0003	-0.0006	0.0003	-0.0008	0.0014	-0.0003	-0.0016	-0.0013	0.0006	0.0016	0.0003	-0.0014	0.0018	0.0003	0.0017	-0.0009	0.0015	-0.0010	0.1709	0.1143	0.0637	0.1094	-0.0013	-0.0884	-0.0522	-0.0667	-0.2079	-0.2633	-0.1227	-0.2114	-0.0017	0.0012	-0.0005	0.0050	-0.0014	0.0011	0.0023	0.0037	-0.0002	0.0007	0.0054	0.0008	-0.0007	0.0001	-0.0009	-0.0003	0.0004	-0.0000	0.0005	0.0001	0.0013	-0.0007	0.0020	0.0003	-0.0004	-0.0012	0.0011	0.0007	0.0014	-0.0007	0.0018	-0.0005	0.0023	0.0003	0.0010	-0.0015	-0.2077	-0.1690	-0.1194	-0.1706	-0.1213	-0.0447	-0.0205	-0.0508	0.0706	0.1099	0.0518	0.0852	0.0014	0.0038	0.0085	-0.0030	0.0020	0.0030	0.0026	-0.0004	0.0022	-0.0006	-0.0059	0.0028	0.0015	0.0006	0.0016	0.0025	0.0006	0.0000	0.0004	0.0011	-0.0006	-0.0001	-0.0014	-0.0012	0.0011	0.0015	-0.0001	-0.0004	-0.0003	0.0012	-0.0014	0.0001	-0.0012	-0.0001	-0.0008	0.0005	0.0740	0.2108	0.0058	0.1059	0.0932	0.1638	0.0200	0.0797	0.0761	0.0596	0.0346	0.0483	0.0048	0.0003	0.0004	-0.0010	0.0024	-0.0001	-0.0001	0.0007	0.0011	-0.0005	0.0015	0.0008	0.0001	0.0017	-0.0021	0.0010	0.0000	0.0013	-0.0014	0.0007	-0.0001	0.0001	-0.0001	0.0001	-0.0024	0.0014	-0.0013	0.0019	-0.0018	0.0007	-0.0004	0.0017	-0.0005	-0.0004	0.0003	0.0005	0.3799	0.4489	0.1825	0.3509	0.2945	0.2859	0.0733	0.2038	0.0483	0.0351	-0.0162	0.0102	0.0025	-0.0020	-0.0075	0.0010	0.0006	-0.0022	-0.0011	0.0006	0.0003	0.0009	0.0090	-0.0023	-0.0020	0.0014	-0.0036	-0.0006	-0.0010	0.0019	-0.0019	0.0012	0.0004	0.0011	0.0006	0.0024	-0.0038	-0.0008	-0.0009	0.0027	-0.0019	-0.0009	0.0011	0.0021	-0.0001	0.0001	0.0008	0.0008	-0.0331	-0.0268	0.0301	0.0014	0.1581	0.2115	0.1483	0.2023	0.3676	0.4136	0.2040	0.3508	-0.0007	0.0002	0.0027	-0.0047	0.0005	0.0010	-0.0004	-0.0031	0.0005	0.0008	-0.0039	0.0004	0.0001	-0.0008	0.0005	-0.0013	-0.0011	-0.0003	-0.0013	-0.0013	-0.0019	0.0007	-0.0031	-0.0014	-0.0000	0.0001	-0.0007	-0.0004	-0.0021	-0.0003	-0.0016	0.0010	-0.0034	-0.0010	-0.0009	0.0023	-0.0957	-0.0915	-0.0093	-0.0611	0.0756	0.0913	0.1091	0.1096	0.2776	0.2691	0.1837	0.2632	-0.0009	0.0006	0.0014	-0.0039	-0.0013	0.0020	0.0004	-0.0024	-0.0014	0.0028	-0.0011	0.0007	0.0004	-0.0008	0.0008	-0.0012	-0.0006	-0.0007	-0.0002	-0.0011	-0.0016	-0.0001	-0.0016	-0.0012	0.0005	0.0003	-0.0005	-0.0007	-0.0010	-0.0004	-0.0011	0.0003	-0.0020	-0.0014	-0.0005	0.0013	-0.1181	-0.1136	-0.0383	-0.0895	-0.0216	-0.0171	0.0320	0.0055	0.1072	0.0987	0.0969	0.1137	-0.0001	0.0014	-0.0004	-0.0014	-0.0010	0.0025	0.0008	-0.0011	-0.0009	0.0040	0.0023	-0.0004	0.0006	-0.0008	0.0005	-0.0015	0.0001	-0.0007	0.0002	-0.0012	-0.0005	-0.0004	-0.0003	-0.0006	0.0007	0.0004	-0.0003	-0.0009	-0.0000	0.0000	-0.0005	-0.0003	-0.0007	-0.0006	-0.0004	0.0004	-0.3786	-0.2348	-0.1018	-0.2043	0.2294	0.3455	0.1113	0.2411	-0.1025	-0.1853	-0.1654	-0.2009	0.0026	0.0038	0.0246	-0.0117	0.0049	0.0033	-0.0320	0.0167	0.0007	-0.0052	0.0160	-0.0073	0.0023	-0.0003	0.0034	0.0033	-0.0019	0.0001	-0.0063	-0.0050	0.0019	0.0010	0.0025	0.0020	0.0005	0.0032	-0.0027	-0.0004	-0.0032	-0.0003	-0.0016	0.0012	0.0018	0.0003	0.0027	-0.0002	0.0215	0.1321	0.0651	0.0756	0.2545	0.1385	0.1335	0.1699	-0.0289	-0.0360	-0.0940	-0.0498	-0.0010	-0.0088	-0.0097	-0.0029	0.0015	-0.0027	-0.0151	0.0040	-0.0011	-0.0026	0.0089	-0.0032	-0.0008	-0.0002	-0.0012	-0.0019	-0.0020	-0.0003	-0.0009	-0.0007	0.0008	0.0003	-0.0002	-0.0009	-0.0023	0.0010	-0.0022	0.0009	-0.0002	-0.0029	0.0011	-0.0002	0.0006	0.0005	0.0011	-0.0001	0.0813	0.0046	0.0094	0.0087	-0.2131	-0.2819	-0.0885	-0.1969	0.0589	0.1198	0.0848	0.1220	-0.0016	0.0026	-0.0092	0.0046	-0.0008	0.0050	0.0294	-0.0090	0.0002	0.0005	-0.0177	0.0078	-0.0005	0.0003	-0.0004	0.0000	0.0021	-0.0005	0.0046	0.0034	-0.0016	-0.0008	-0.0025	-0.0023	0.0007	-0.0012	0.0014	-0.0002	0.0024	0.0006	0.0010	-0.0009	-0.0011	-0.0003	-0.0018	-0.0002	0.0427	-0.0012	0.0634	0.0273	0.2045	0.0981	0.1544	0.1541	0.1422	0.0402	0.0845	0.0968	-0.0033	-0.0043	0.0037	-0.0016	-0.0042	-0.0097	-0.0172	0.0031	-0.0030	-0.0072	-0.0028	-0.0036	-0.0004	-0.0008	0.0012	-0.0002	-0.0024	-0.0018	-0.0008	-0.0037	-0.0014	-0.0007	0.0006	-0.0005	-0.0001	-0.0006	0.0001	0.0001	-0.0004	-0.0026	0.0003	-0.0007	0.0003	-0.0019	0.0008	-0.0006	-0.0325	-0.0626	-0.0980	-0.1005	-0.3097	-0.3987	-0.1581	-0.3089	-0.2302	-0.1556	-0.0454	-0.1116	0.0004	0.0088	0.0032	0.0050	0.0002	0.0106	0.0231	-0.0038	0.0003	0.0131	0.0150	0.0002	0.0013	0.0010	-0.0003	0.0005	0.0026	-0.0001	0.0048	0.0046	0.0015	-0.0008	0.0013	0.0010	0.0010	0.0003	0.0018	0.0003	0.0037	0.0006	0.0016	-0.0015	0.0008	0.0017	-0.0015	-0.0005	0.2185	0.2598	0.0200	0.1663	-0.1328	0.0015	-0.1091	-0.0753	0.1349	0.3270	0.1092	0.2149	0.0025	-0.0024	-0.0137	0.0047	0.0023	-0.0078	0.0136	-0.0113	0.0042	-0.0026	-0.0193	0.0040	-0.0011	0.0015	-0.0038	-0.0014	0.0014	0.0013	0.0005	0.0013	-0.0015	0.0007	-0.0042	-0.0020	-0.0018	-0.0004	0.0004	0.0013	-0.0011	0.0026	-0.0011	0.0010	-0.0039	0.0011	-0.0032	0.0018	0.0856	0.0722	-0.0279	0.0236	-0.1715	-0.1688	-0.1145	-0.1531	-0.1384	0.0072	-0.0513	-0.0389	0.0021	0.0010	-0.0046	0.0039	0.0023	0.0002	0.0102	-0.0054	0.0036	0.0084	0.0094	-0.0004	0.0000	0.0010	-0.0013	0.0000	0.0014	0.0002	0.0016	0.0013	0.0013	0.0005	-0.0006	0.0008	-0.0002	-0.0003	0.0011	0.0006	0.0013	0.0009	0.0004	-0.0007	-0.0009	0.0023	-0.0018	0.0008	0.1910	0.1521	0.0122	0.0923	-0.1212	-0.1368	-0.0175	-0.0875	0.2620	0.3619	0.2062	0.3224	-0.0003	0.0006	-0.0058	0.0065	-0.0018	-0.0145	0.0101	-0.0119	0.0010	-0.0075	-0.0299	0.0044	-0.0004	0.0009	-0.0022	-0.0013	0.0002	-0.0010	0.0030	0.0007	-0.0033	-0.0005	-0.0045	-0.0040	-0.0007	-0.0008	0.0017	0.0010	0.0005	0.0003	-0.0005	-0.0008	-0.0034	-0.0010	-0.0028	0.0007	0.2306	0.1296	0.0130	0.0957	-0.2862	-0.3480	-0.1552	-0.2900	-0.0255	-0.0371	0.1215	0.0469	0.0009	0.0021	-0.0132	0.0110	-0.0042	-0.0014	0.0264	-0.0109	-0.0014	0.0103	-0.0005	0.0037	-0.0009	0.0008	-0.0025	-0.0011	0.0024	-0.0002	0.0050	0.0032	-0.0006	-0.0014	0.0010	0.0006	0.0002	-0.0020	0.0025	0.0004	0.0027	0.0012	0.0013	-0.0009	0.0003	-0.0006	-0.0015	-0.0006	0.1114	0.0254	0.1306	0.1024	0.2123	0.1679	0.0610	0.1630	-0.1836	-0.1790	-0.1922	-0.2140	-0.0026	-0.0120	-0.0118	-0.0022	0.0002	-0.0015	-0.0176	0.0048	0.0005	0.0082	0.0242	-0.0043	-0.0021	-0.0016	0.0007	-0.0013	-0.0019	0.0004	-0.0026	-0.0013	0.0029	0.0015	0.0018	0.0027	-0.0000	-0.0021	-0.0004	-0.0010	-0.0003	-0.0018	0.0007	-0.0001	0.0016	0.0018	0.0018	0.0004	-0.3668	-0.3604	-0.1687	-0.3069	-0.0505	0.0063	0.0813	0.0427	0.2060	0.1934	0.0628	0.1560	-0.0015	0.0143	0.0370	-0.0078	0.0013	0.0081	0.0024	0.0059	0.0007	-0.0142	-0.0271	0.0052	0.0036	0.0002	0.0049	0.0050	0.0000	-0.0015	-0.0003	-0.0013	-0.0023	-0.0003	-0.0034	-0.0043	0.0027	0.0024	0.0005	-0.0004	-0.0007	0.0004	-0.0019	-0.0001	-0.0014	-0.0015	0.0001	-0.0002	0.1136	0.2656	0.0324	0.1467	0.0907	0.0837	-0.0050	0.0201	-0.0969	-0.2064	-0.0578	-0.1401	0.0017	-0.0109	-0.0193	0.0012	0.0023	-0.0003	-0.0046	0.0017	-0.0013	0.0074	0.0159	0.0002	-0.0013	0.0010	-0.0038	-0.0023	0.0001	0.0012	-0.0008	0.0006	0.0015	-0.0007	0.0025	0.0008	-0.0031	0.0011	-0.0019	0.0014	-0.0007	-0.0002	0.0009	0.0010	0.0023	-0.0005	0.0019	-0.0009	0.1317	0.1690	0.0012	0.1066	-0.2233	-0.1076	-0.1648	-0.1837	0.1136	0.0644	0.1560	0.1109	0.0014	-0.0064	-0.0210	0.0061	-0.0026	0.0106	0.0356	-0.0098	0.0038	-0.0055	-0.0238	0.0101	-0.0016	0.0012	-0.0030	-0.0002	0.0036	0.0015	0.0017	0.0018	-0.0022	-0.0015	-0.0005	-0.0006	-0.0010	-0.0004	-0.0001	0.0004	0.0000	0.0036	0.0001	0.0016	-0.0007	-0.0021	-0.0010	-0.0007	-0.1530	-0.2949	-0.0466	-0.1911	0.2367	0.2422	0.2112	0.2883	-0.0959	-0.1377	-0.2003	-0.1992	-0.0005	0.0093	0.0388	-0.0078	0.0022	-0.0113	-0.0497	0.0144	-0.0030	0.0040	0.0305	-0.0122	0.0027	-0.0010	0.0056	0.0030	-0.0046	-0.0021	-0.0048	-0.0052	0.0030	0.0026	0.0027	0.0041	0.0027	-0.0002	0.0021	-0.0006	-0.0017	-0.0028	-0.0024	-0.0015	0.0016	0.0015	0.0031	0.0012	0.1599	0.2478	-0.0848	0.0754	-0.2373	-0.1890	-0.0383	-0.1616	0.1404	0.0927	0.0256	0.0920	0.0015	-0.0075	-0.0230	0.0061	-0.0002	0.0084	0.0336	-0.0104	0.0014	-0.0022	-0.0160	0.0073	-0.0007	0.0028	-0.0047	-0.0013	0.0026	-0.0003	0.0043	0.0035	-0.0013	-0.0002	-0.0024	-0.0025	-0.0020	0.0007	0.0008	0.0017	0.0005	0.0021	-0.0009	0.0006	-0.0000	-0.0015	0.0009	-0.0005	-0.1239	-0.0251	0.1560	0.0621	0.2963	-0.1971	0.0202	-0.0962	-0.0397	-0.2951	0.4171	0.1456	-0.0071	0.0041	0.0042	-0.0023	-0.0051	0.0048	0.0005	0.0025	-0.0022	0.0002	0.0119	-0.0038	-0.0009	-0.0022	0.0015	0.0001	0.0002	-0.0001	0.0037	0.0002	-0.0030	-0.0080	0.0072	-0.0009	-0.0009	0.0010	-0.0040	-0.0003	0.0046	-0.0060	0.0083	-0.0013	0.0028	-0.0051	-0.0030	-0.0049	-0.1824	0.0203	0.0972	0.0519	0.0727	0.1617	-0.2661	-0.0224	-0.3192	0.3069	-0.0421	0.0289	0.0025	0.0027	0.0008	-0.0030	0.0046	-0.0061	-0.0066	0.0035	-0.0008	-0.0037	-0.0065	-0.0065	-0.0004	-0.0014	0.0002	0.0003	0.0007	0.0040	-0.0048	0.0002	0.0011	0.0020	-0.0046	-0.0012	-0.0019	0.0021	-0.0051	-0.0001	-0.0004	0.0016	0.0025	0.0013	-0.0072	0.0086	-0.0091	0.0041	-0.0218	0.0043	0.1225	0.0376	0.1405	-0.1886	0.0629	-0.0378	0.0622	-0.2214	0.2336	0.0438	-0.0025	0.0002	-0.0136	0.0020	-0.0061	-0.0004	0.0035	0.0012	-0.0022	0.0047	0.0038	-0.0038	-0.0010	-0.0014	0.0002	-0.0014	-0.0006	-0.0018	0.0032	-0.0008	-0.0015	-0.0038	0.0052	0.0006	-0.0008	-0.0003	-0.0021	-0.0004	0.0035	-0.0042	0.0043	-0.0020	0.0030	-0.0046	0.0008	-0.0030	0.2430	-0.1966	-0.0026	-0.1031	-0.0210	-0.1912	0.2983	0.1174	0.2495	-0.1576	-0.0482	-0.0698	-0.0037	0.0045	0.0129	0.0011	-0.0056	0.0026	0.0010	0.0004	-0.0049	-0.0007	-0.0011	0.0042	0.0008	-0.0000	0.0041	0.0013	-0.0026	-0.0057	0.0040	-0.0018	-0.0003	0.0003	0.0021	0.0006	0.0042	-0.0050	0.0077	-0.0008	0.0021	-0.0036	-0.0023	-0.0036	0.0044	-0.0050	0.0074	-0.0015	0.1340	0.1267	-0.2635	-0.0548	-0.3270	0.2016	0.0346	0.0647	0.1644	0.1048	-0.3008	-0.1300	0.0027	-0.0084	-0.0058	0.0029	0.0036	-0.0010	-0.0019	-0.0057	0.0010	0.0003	-0.0047	0.0059	0.0009	0.0041	-0.0038	0.0002	0.0004	0.0000	-0.0029	-0.0007	0.0022	0.0048	-0.0039	-0.0009	0.0002	0.0006	0.0042	0.0014	-0.0056	0.0067	-0.0092	0.0021	0.0005	0.0006	0.0061	0.0022	0.1919	-0.1366	-0.0269	-0.0508	-0.0470	-0.1535	0.2530	0.0457	0.2659	-0.1596	-0.0615	-0.0265	-0.0029	-0.0008	0.0025	0.0027	-0.0043	0.0026	0.0016	-0.0027	-0.0031	-0.0017	-0.0102	0.0083	-0.0001	-0.0003	0.0018	-0.0004	-0.0013	-0.0041	0.0042	-0.0007	-0.0013	-0.0003	0.0005	-0.0012	0.0035	-0.0040	0.0057	-0.0014	0.0008	-0.0021	-0.0022	-0.0019	0.0052	-0.0058	0.0074	-0.0029	0.3060	-0.2395	0.1831	0.0333	-0.0497	-0.1911	0.1133	0.0312	-0.0278	0.1502	-0.1808	-0.0171	0.0014	-0.0042	-0.0104	-0.0012	-0.0022	0.0012	0.0119	0.0004	-0.0057	0.0071	0.0046	-0.0035	-0.0023	-0.0030	0.0049	-0.0003	-0.0010	-0.0037	0.0029	-0.0007	0.0012	0.0038	-0.0033	0.0012	0.0051	-0.0084	0.0060	-0.0040	0.0024	-0.0023	-0.0003	-0.0028	-0.0010	0.0033	0.0001	0.0022	-0.3157	0.1899	-0.1655	-0.0002	0.1168	0.2437	-0.0947	-0.0314	-0.0333	-0.2344	0.2005	0.0326	-0.0023	-0.0020	0.0087	-0.0042	0.0001	-0.0055	-0.0238	0.0046	0.0069	0.0009	0.0131	-0.0056	0.0013	0.0018	-0.0045	-0.0010	0.0008	0.0036	-0.0040	-0.0017	-0.0008	-0.0046	0.0050	-0.0003	-0.0042	0.0074	-0.0063	0.0024	-0.0032	0.0021	0.0008	0.0034	0.0023	-0.0036	-0.0006	-0.0033	0.0194	-0.1538	0.2972	0.0813	0.1710	-0.2203	-0.1152	-0.0734	-0.2541	0.2468	0.0658	0.1198	-0.0027	0.0033	-0.0024	0.0021	0.0011	0.0058	0.0113	-0.0024	-0.0044	-0.0063	-0.0128	0.0031	-0.0019	-0.0047	0.0042	-0.0009	0.0002	0.0006	0.0023	0.0021	-0.0012	-0.0001	-0.0038	-0.0007	0.0012	-0.0034	-0.0016	-0.0024	0.0057	-0.0048	0.0072	-0.0027	-0.0055	0.0060	-0.0090	0.0021	-0.3210	0.0394	0.3082	0.1540	0.3114	-0.1168	-0.2374	-0.1119	-0.2383	0.1916	0.0572	0.0677	-0.0059	-0.0070	-0.0066	0.0055	0.0054	-0.0082	0.0072	-0.0223	-0.0018	0.0121	-0.0155	0.0221	-0.0023	-0.0058	0.0002	-0.0039	0.0011	0.0039	0.0020	0.0023	-0.0002	-0.0006	-0.0048	-0.0019	-0.0042	0.0035	-0.0108	-0.0006	0.0050	-0.0049	0.0100	-0.0015	-0.0045	0.0053	-0.0073	0.0021	-0.1265	0.1054	0.0560	0.0337	-0.2176	0.0569	-0.0208	0.0093	0.3700	-0.1758	-0.0613	-0.1429	0.0035	0.0177	-0.0204	0.0083	-0.0101	-0.0107	0.0383	-0.0120	0.0069	0.0053	-0.0092	-0.0000	-0.0000	0.0004	-0.0030	-0.0006	0.0012	-0.0005	0.0014	0.0008	0.0011	0.0014	0.0026	-0.0002	-0.0022	0.0024	-0.0042	0.0008	-0.0028	0.0049	-0.0043	0.0021	0.0048	-0.0068	0.0104	-0.0012	0.0592	-0.0517	0.1047	0.0271	-0.0945	-0.1267	0.1509	0.0313	0.1730	0.1127	-0.3183	-0.0637	0.0024	0.0076	-0.0183	0.0073	-0.0008	-0.0046	0.0256	-0.0130	-0.0050	-0.0046	-0.0193	0.0073	-0.0010	-0.0015	-0.0000	-0.0017	-0.0001	-0.0030	0.0047	0.0009	-0.0000	0.0052	-0.0050	0.0008	0.0010	-0.0024	0.0003	-0.0015	0.0002	-0.0005	-0.0022	-0.0011	0.0017	-0.0001	0.0056	0.0008	-0.0978	0.0492	0.0099	-0.0307	0.1510	-0.2442	0.1410	-0.0051	0.0841	-0.1868	0.1402	-0.0030	-0.0088	0.0108	0.0129	0.0042	0.0054	0.0105	0.0114	-0.0082	-0.0024	0.0110	0.0153	0.0094	0.0014	0.0003	-0.0003	-0.0001	-0.0002	-0.0022	0.0054	0.0015	-0.0002	-0.0025	0.0042	0.0022	-0.0017	0.0029	-0.0018	0.0022	0.0043	-0.0058	0.0041	-0.0030	0.0029	-0.0036	0.0025	-0.0013	0.2479	-0.1258	0.0263	0.0181	-0.2381	0.1326	0.1614	0.1064	0.2853	-0.0310	-0.1897	-0.0604	0.0095	-0.0028	-0.0295	0.0008	-0.0112	-0.0323	-0.0122	0.0065	0.0015	-0.0241	-0.0230	-0.0221	-0.0021	-0.0004	0.0006	-0.0004	-0.0027	-0.0034	-0.0009	-0.0026	-0.0010	0.0033	-0.0001	-0.0005	0.0041	-0.0064	0.0051	-0.0036	-0.0051	0.0043	-0.0088	0.0010	0.0033	-0.0043	0.0072	-0.0019	-0.3231	0.1801	-0.0048	0.0649	0.1870	0.0559	-0.2948	-0.1569	-0.3900	0.2096	0.0636	0.1138	-0.0048	-0.0040	0.0170	-0.0024	0.0092	0.0214	0.0077	-0.0084	-0.0024	0.0101	0.0102	0.0169	0.0007	-0.0005	-0.0025	-0.0012	0.0039	0.0064	-0.0019	0.0025	0.0002	-0.0014	-0.0040	-0.0000	-0.0050	0.0071	-0.0082	0.0024	0.0017	-0.0003	0.0074	0.0022	-0.0057	0.0078	-0.0106	0.0026	0.1527	-0.2690	0.1175	-0.0597	0.2048	-0.2057	0.0937	-0.0053	-0.1551	-0.1848	0.2648	0.0894	-0.0003	0.0082	0.0286	-0.0081	-0.0037	0.0287	-0.0003	0.0161	-0.0005	0.0170	0.0368	-0.0035	0.0009	-0.0022	0.0067	0.0017	-0.0005	-0.0012	0.0023	0.0016	-0.0003	-0.0041	0.0061	0.0050	0.0041	-0.0051	0.0053	-0.0018	0.0053	-0.0057	0.0056	-0.0023	0.0012	-0.0008	-0.0038	-0.0016	0.1004	0.0793	-0.1148	-0.0574	0.1802	0.0224	0.0597	0.0877	-0.0819	-0.0115	0.2550	0.1050	-0.0054	-0.0303	-0.0081	-0.0038	0.0045	-0.0234	-0.0654	0.0096	-0.0006	-0.0316	-0.0242	-0.0090	-0.0004	0.0019	-0.0004	-0.0001	-0.0045	-0.0014	-0.0033	-0.0048	-0.0035	-0.0040	0.0024	-0.0019	-0.0011	0.0004	0.0022	0.0015	0.0011	-0.0045	0.0008	-0.0036	-0.0023	-0.0007	-0.0057	-0.0018	0.1522	0.0184	-0.3121	-0.1175	-0.3475	0.2858	-0.0503	0.0770	-0.1077	0.2012	-0.2623	-0.1277	0.0050	0.0122	0.0232	-0.0041	0.0029	0.0164	0.0008	0.0159	-0.0034	0.0047	0.0318	-0.0171	0.0031	0.0051	-0.0013	0.0034	0.0011	0.0012	-0.0064	-0.0002	0.0044	0.0058	-0.0016	0.0028	0.0024	-0.0002	0.0071	0.0015	-0.0059	0.0084	-0.0091	0.0034	-0.0035	0.0065	-0.0001	0.0054	0.0077	-0.0919	0.1591	0.0894	-0.1244	-0.1430	0.1421	-0.0284	0.4055	-0.1875	-0.1338	-0.1142	0.0000	0.0172	-0.0160	0.0036	-0.0062	0.0050	0.0559	-0.0137	0.0009	0.0087	-0.0104	0.0082	-0.0019	-0.0020	0.0006	0.0001	0.0019	-0.0021	0.0071	0.0044	0.0004	0.0015	0.0007	-0.0011	0.0021	-0.0027	-0.0012	-0.0028	-0.0002	0.0011	-0.0015	0.0012	0.0065	-0.0075	0.0119	-0.0022	-0.3197	0.1000	0.3146	0.1853	0.2181	-0.1559	-0.0731	-0.0918	0.1456	0.0984	-0.1362	0.0146	-0.0063	-0.0096	-0.0268	0.0090	0.0016	-0.0332	0.0160	-0.0371	-0.0021	-0.0025	-0.0516	0.0293	-0.0034	-0.0055	-0.0017	-0.0050	0.0001	0.0012	0.0061	0.0022	-0.0023	0.0015	-0.0068	-0.0036	-0.0049	0.0037	-0.0120	-0.0009	0.0029	-0.0043	0.0065	-0.0014	0.0011	-0.0015	0.0026	-0.0010	-0.2056	0.1162	0.1031	0.0696	-0.2126	0.1604	-0.1860	-0.0443	0.1917	0.0291	-0.2140	-0.1107	0.0065	0.0168	-0.0162	0.0066	-0.0107	-0.0089	0.0417	-0.0149	0.0078	0.0148	-0.0098	0.0094	-0.0001	-0.0006	-0.0028	-0.0008	0.0026	0.0028	-0.0007	0.0020	0.0021	0.0033	-0.0034	-0.0022	-0.0032	0.0033	-0.0066	0.0007	-0.0036	0.0071	-0.0031	0.0041	0.0018	-0.0015	0.0065	0.0007	-0.0000	0.0000	0.0000	-0.0000	0.0000	0.0000	0.0000	0.0000	-0.0000	0.0000	-0.0000	-0.0000	0.0000	0.0000	0.0000	0.0000	0.0000	0.0000	0.0000	-0.0000	-0.0000	0.0000	0.0000	-0.0000	0.0000	-0.0000	0.0000	0.0000	0.0000	0.0000	0.0000	-0.0000	0.0000	0.0000	0.0000	-0.0000	-0.0000	0.0000	-0.0000	0.0000	0.0000	-0.0000	0.0000	-0.0000	0.0000	0.0000	0.0000	0.0000	-0.0000	-0.0000	0.0000	0.0000	0.0000	0.0000	-0.0000	-0.0000	-0.0000	-0.0000	0.0000	-0.0000	0.0000	-0.0000	-0.0000	-0.0000	-0.0000	0.0000	0.0000	0.0000	-0.0000	0.0000	-0.0000	0.0000	-0.0000	0.0000	0.0000	0.0000	0.0000	0.0000	0.0000	0.0000	-0.0000	0.0000	0.0000	0.0000	0.0000	-0.0000	-0.0000	-0.0000	0.0000	0.0000	0.0000	0.0000	0.0000	0.0000	-0.0000	0.0000	-0.0000	0.0000	0.0000	0.0000	0.0000	0.0000	-0.0000	0.0000	-0.0000	-0.0000	0.0000	0.0000	0.0000	0.0000	0.0000	-0.0000	0.0000	0.0000	0.0000	-0.0000	-0.0000	-0.0000	-0.0000	0.0000	0.0000	-0.0000	-0.0000	-0.0000	0.0000	-0.0000	-0.0000	-0.0000	-0.0000	0.0000	0.0000	0.0000	-0.0000	0.0000	0.0000	-0.0000	-0.0000	0.0000	0.0000	-0.0000	0.0000	0.0000	-0.0000	0.0000	-0.0000	0.0000	0.0000	-0.0000	0.0000	0.0000	0.0000	0.0000	-0.0000	0.0000	-0.0000	-0.0000	0.0000	0.0000	0.0000	0.0000	0.0000	0.0000	0.0000	-0.0000	-0.0000	0.0000	0.0000	-0.0000	0.0000	-0.0000	0.0000	0.0000	0.0000	0.0000	0.0000	-0.0000	0.0000	0.0000	0.0000	-0.0000	-0.0000	0.0000	-0.0000	0.0000	0.0000	-0.0000	0.0000	-0.0000	0.0000	0.0000	0.0000	0.0000	-0.0000	-0.0000	0.0000	0.0000	0.0000	0.0000	-0.0000	-0.0000	-0.0000	-0.0000	0.0000	-0.0000	0.0000	-0.0000	-0.0000	-0.0000	-0.0000	0.0000	0.0000	0.0000	-0.0000	0.0000	-0.0000	0.0000	-0.0000	0.0000	0.0000	0.0000	0.0000	0.0000	0.0000	0.0000	-0.0000	0.0000	0.0000	0.0000	0.0000	-0.0000	-0.0000	-0.0000	0.0000	0.0000	0.0000	0.0000	0.0000	0.0000	-0.0000	0.0000	-0.0000	0.0000	0.0000	0.0000	0.0000	0.0000	-0.0000	0.0000	-0.0000	-0.0000	0.0000	0.0000	0.0000	0.0000	0.0000	-0.0000	0.0000	0.0000	0.0000	-0.0000	-0.0000	-0.0000	-0.0000	0.0000	0.0000	-0.0000	-0.0000	-0.0000	0.0000	-0.0000	-0.0000	-0.0000	-0.0000	0.0000	0.0000	0.0000	-0.0000	0.0000	0.0000	-0.0000	-0.0000	0.0000	0.0000	-0.0000	0.0000	0.0000	-0.0000	0.0000	0.0000	-0.0000	-0.0000	0.0000	-0.0000	-0.0000	-0.0000	-0.0000	0.0000	-0.0000	0.0000	0.0000	-0.0000	-0.0000	-0.0000	-0.0000	-0.0000	-0.0000	-0.0000	0.0000	0.0000	-0.0000	-0.0000	0.0000	-0.0000	0.0000	-0.0000	-0.0000	-0.0000	-0.0000	-0.0000	0.0000	-0.0000	-0.0000	-0.0000	0.0000	0.0000	-0.0000	0.0000	-0.0000	-0.0000	0.0000	-0.0000	0.0000	-0.0000	-0.0000	-0.0000	-0.0000	0.0000	0.0000	-0.0000	-0.0000	-0.0000	-0.0000	0.0000	0.0000	0.0000	0.0000	-0.0000	0.0000	-0.0000	0.0000	0.0000	0.0000	0.0000	-0.0000	-0.0000	-0.0000	0.0000	-0.0000	0.0000	-0.0000	0.0000	-0.0000	-0.0000	-0.0000	-0.0000	-0.0000	-0.0000	-0.0000	0.0000	-0.0000	-0.0000	-0.0000	-0.0000	0.0000	0.0000	0.0000	-0.0000	-0.0000	-0.0000	-0.0000	-0.0000	-0.0000	0.0000	-0.0000	0.0000	-0.0000	-0.0000	-0.0000	-0.0000	-0.0000	0.0000	-0.0000	0.0000	0.0000	-0.0000	-0.0000	-0.0000	-0.0000	-0.0000	0.0000	-0.0000	-0.0000	-0.0000	0.0000	0.0000	0.0000	0.0000	-0.0000	-0.0000	0.0000	0.0000	0.0000	-0.0000	0.0000	0.0000	0.0000	0.0000	-0.0000	-0.0000	-0.0000	0.0000	-0.0000	-0.0000	0.0000	0.0000	-0.0000	-0.0000	0.0000	-0.0000	-0.0000	0.0000	-0.0000	-0.0000	0.0000	0.0000	-0.0000	0.0000	0.0000	0.0000	0.0000	-0.0000	0.0000	-0.0000	-0.0000	0.0000	0.0000	0.0000	0.0000	0.0000	0.0000	0.0000	-0.0000	-0.0000	0.0000	0.0000	-0.0000	0.0000	-0.0000	0.0000	0.0000	0.0000	0.0000	0.0000	-0.0000	0.0000	0.0000	0.0000	-0.0000	-0.0000	0.0000	-0.0000	0.0000	0.0000	-0.0000	0.0000	-0.0000	0.0000	0.0000	0.0000	0.0000	-0.0000	-0.0000	0.0000	0.0000	0.0000	0.0000	-0.0000	-0.0000	-0.0000	-0.0000	0.0000	-0.0000	0.0000	-0.0000	-0.0000	-0.0000	-0.0000	0.0000	0.0000	0.0000	-0.0000	0.0000	-0.0000	0.0000	-0.0000	0.0000	0.0000	0.0000	0.0000	0.0000	0.0000	0.0000	-0.0000	0.0000	0.0000	0.0000	0.0000	-0.0000	-0.0000	-0.0000	0.0000	0.0000	0.0000	0.0000	0.0000	0.0000	-0.0000	0.0000	-0.0000	0.0000	0.0000	0.0000	0.0000	0.0000	-0.0000	0.0000	-0.0000	-0.0000	0.0000	0.0000	0.0000	0.0000	0.0000	-0.0000	0.0000	0.0000	0.0000	-0.0000	-0.0000	-0.0000	-0.0000	0.0000	0.0000	-0.0000	-0.0000	-0.0000	0.0000	-0.0000	-0.0000	-0.0000	-0.0000	0.0000	0.0000	0.0000	-0.0000	0.0000	0.0000	-0.0000	-0.0000	0.0000	0.0000	-0.0000	0.0000	0.0000	-0.0000	0.0000	-0.0000	0.0000	0.0000	-0.0000	0.0000	-0.0000	-0.0000	0.0000	-0.0000	0.0000	-0.0000	-0.0000	0.0000	0.0000	0.0000	0.0000	0.0000	0.0000	0.0000	-0.0000	-0.0000	0.0000	0.0000	-0.0000	0.0000	-0.0000	0.0000	0.0000	0.0000	0.0000	0.0000	-0.0000	0.0000	0.0000	0.0000	-0.0000	-0.0000	0.0000	-0.0000	0.0000	0.0000	-0.0000	0.0000	-0.0000	0.0000	0.0000	0.0000	0.0000	-0.0000	-0.0000	0.0000	0.0000	0.0000	0.0000	-0.0000	-0.0000	-0.0000	-0.0000	0.0000	-0.0000	0.0000	-0.0000	-0.0000	-0.0000	-0.0000	0.0000	0.0000	0.0000	-0.0000	0.0000	-0.0000	0.0000	-0.0000	0.0000	0.0000	0.0000	0.0000	0.0000	0.0000	0.0000	-0.0000	0.0000	0.0000	0.0000	0.0000	-0.0000	-0.0000	-0.0000	0.0000	0.0000	0.0000	0.0000	0.0000	0.0000	-0.0000	0.0000	-0.0000	-0.0000	0.0000	0.0000	0.0000	0.0000	-0.0000	0.0000	-0.0000	-0.0000	0.0000	0.0000	0.0000	0.0000	0.0000	-0.0000	0.0000	0.0000	0.0000	-0.0000	-0.0000	-0.0000	-0.0000	0.0000	0.0000	-0.0000	-0.0000	-0.0000	0.0000	-0.0000	-0.0000	-0.0000	-0.0000	0.0000	0.0000	0.0000	-0.0000	0.0000	0.0000	-0.0000	-0.0000	0.0000	0.0000	-0.0000	0.0000	0.0000	-0.0000	0.0000	-0.0000	0.0000	0.0000	-0.0000	0.0000	-0.0000	-0.0000	0.0000	-0.0000	0.0000	-0.0000	-0.0000	0.0000	0.0000	0.0000	0.0000	0.0000	0.0000	0.0000	-0.0000	-0.0000	0.0000	0.0000	-0.0000	0.0000	-0.0000	0.0000	0.0000	0.0000	0.0000	0.0000	-0.0000	0.0000	0.0000	0.0000	-0.0000	-0.0000	0.0000	-0.0000	0.0000	0.0000	-0.0000	0.0000	-0.0000	0.0000	0.0000	0.0000	0.0000	-0.0000	-0.0000	0.0000	0.0000	0.0000	0.0000	-0.0000	-0.0000	-0.0000	-0.0000	0.0000	-0.0000	0.0000	-0.0000	-0.0000	-0.0000	-0.0000	0.0000	0.0000	0.0000	-0.0000	0.0000	-0.0000	0.0000	-0.0000	0.0000	0.0000	0.0000	0.0000	0.0000	0.0000	0.0000	-0.0000	0.0000	0.0000	0.0000	0.0000	-0.0000	-0.0000	-0.0000	0.0000	0.0000	0.0000	0.0000	0.0000	0.0000	-0.0000	0.0000	-0.0000	-0.0000	0.0000	0.0000	0.0000	0.0000	-0.0000	0.0000	-0.0000	-0.0000	0.0000	0.0000	0.0000	0.0000	0.0000	-0.0000	0.0000	0.0000	0.0000	-0.0000	-0.0000	-0.0000	-0.0000	0.0000	0.0000	-0.0000	-0.0000	-0.0000	0.0000	-0.0000	-0.0000	-0.0000	-0.0000	0.0000	0.0000	0.0000	-0.0000	0.0000	0.0000	-0.0000	-0.0000	0.0000	0.0000	-0.0000	0.0000	0.0000	-0.0000	0.0000	0.0000	-0.0000	-0.0000	0.0000	-0.0000	0.0000	0.0000	-0.0000	0.0000	-0.0000	0.0000	0.0000	-0.0000	-0.0000	-0.0000	-0.0000	-0.0000	-0.0000	-0.0000	0.0000	0.0000	-0.0000	-0.0000	0.0000	-0.0000	0.0000	-0.0000	-0.0000	-0.0000	-0.0000	-0.0000	0.0000	-0.0000	-0.0000	-0.0000	0.0000	0.0000	-0.0000	0.0000	-0.0000	-0.0000	0.0000	-0.0000	0.0000	-0.0000	-0.0000	-0.0000	-0.0000	0.0000	0.0000	-0.0000	-0.0000	-0.0000	-0.0000	0.0000	0.0000	0.0000	0.0000	-0.0000	0.0000	-0.0000	0.0000	0.0000	0.0000	0.0000	-0.0000	-0.0000	-0.0000	0.0000	-0.0000	0.0000	-0.0000	0.0000	-0.0000	-0.0000	-0.0000	-0.0000	-0.0000	-0.0000	-0.0000	0.0000	-0.0000	-0.0000	-0.0000	-0.0000	0.0000	0.0000	0.0000	-0.0000	-0.0000	-0.0000	-0.0000	-0.0000	-0.0000	0.0000	-0.0000	0.0000	0.0000	-0.0000	-0.0000	-0.0000	-0.0000	0.0000	-0.0000	0.0000	0.0000	-0.0000	-0.0000	-0.0000	-0.0000	-0.0000	0.0000	-0.0000	-0.0000	-0.0000	0.0000	0.0000	0.0000	0.0000	-0.0000	-0.0000	0.0000	0.0000	0.0000	-0.0000	0.0000	0.0000	0.0000	0.0000	-0.0000	-0.0000	-0.0000	0.0000	-0.0000	-0.0000	0.0000	0.0000	-0.0000	-0.0000	0.0000	-0.0000	-0.0000	0.0000	-0.0000	-0.0000	0.0000	0.0000	-0.0000	0.0000	-0.0000	-0.0000	0.0000	-0.0000	0.0000	-0.0000	-0.0000	0.0000	0.0000	0.0000	0.0000	0.0000	0.0000	0.0000	-0.0000	-0.0000	0.0000	0.0000	-0.0000	0.0000	-0.0000	0.0000	0.0000	0.0000	0.0000	0.0000	-0.0000	0.0000	0.0000	0.0000	-0.0000	-0.0000	0.0000	-0.0000	0.0000	0.0000	-0.0000	0.0000	-0.0000	0.0000	0.0000	0.0000	0.0000	-0.0000	-0.0000	0.0000	0.0000	0.0000	0.0000	-0.0000	-0.0000	-0.0000	-0.0000	0.0000	-0.0000	0.0000	-0.0000	-0.0000	-0.0000	-0.0000	0.0000	0.0000	0.0000	-0.0000	0.0000	-0.0000	0.0000	-0.0000	0.0000	0.0000	0.0000	0.0000	0.0000	0.0000	0.0000	-0.0000	0.0000	0.0000	0.0000	0.0000	-0.0000	-0.0000	-0.0000	0.0000	0.0000	0.0000	0.0000	0.0000	0.0000	-0.0000	0.0000	-0.0000	-0.0000	0.0000	0.0000	0.0000	0.0000	-0.0000	0.0000	-0.0000	-0.0000	0.0000	0.0000	0.0000	0.0000	0.0000	-0.0000	0.0000	0.0000	0.0000	-0.0000	-0.0000	-0.0000	-0.0000	0.0000	0.0000	-0.0000	-0.0000	-0.0000	0.0000	-0.0000	-0.0000	-0.0000	-0.0000	0.0000	0.0000	0.0000	-0.0000	0.0000	0.0000	-0.0000	-0.0000	0.0000	0.0000	-0.0000	0.0000	0.0000	-0.0000	0.0000	0.0000	-0.0000	-0.0000	0.0000	0.0000	0.0000	-0.0000	-0.0000	-0.0000	-0.0000	0.0000	0.0000	-0.0000	-0.0000	-0.0000	-0.0000	-0.0000	-0.0000	-0.0000	0.0000	0.0000	-0.0000	-0.0000	0.0000	-0.0000	0.0000	-0.0000	-0.0000	-0.0000	-0.0000	-0.0000	0.0000	-0.0000	-0.0000	-0.0000	0.0000	0.0000	-0.0000	0.0000	-0.0000	-0.0000	0.0000	-0.0000	0.0000	-0.0000	-0.0000	-0.0000	-0.0000	-0.0000	0.0000	-0.0000	-0.0000	0.0000	-0.0000	-0.0000	0.0000	-0.0000	0.0000	-0.0000	0.0000	-0.0000	0.0000	0.0000	0.0000	0.0000	-0.0000	-0.0000	-0.0000	0.0000	-0.0000	0.0000	-0.0000	0.0000	-0.0000	-0.0000	-0.0000	-0.0000	-0.0000	0.0000	-0.0000	0.0000	-0.0000	-0.0000	-0.0000	-0.0000	0.0000	0.0000	0.0000	0.0000	-0.0000	-0.0000	-0.0000	-0.0000	-0.0000	0.0000	-0.0000	-0.0000	0.0000	0.0000	-0.0000	0.0000	-0.0000	-0.0000	-0.0000	0.0000	0.0000	-0.0000	-0.0000	-0.0000	-0.0000	-0.0000	0.0000	-0.0000	-0.0000	-0.0000	0.0000	0.0000	0.0000	0.0000	-0.0000	-0.0000	0.0000	0.0000	0.0000	-0.0000	0.0000	0.0000	0.0000	0.0000	-0.0000	-0.0000	-0.0000	0.0000	-0.0000	-0.0000	0.0000	0.0000	-0.0000	-0.0000	0.0000	-0.0000	0.0000	0.0000	-0.0000	-0.0000	0.0000	0.0000	-0.0000	-0.0000	-0.0000	0.0000	0.0000	0.0000	0.0000	-0.0000	-0.0000	0.0000	0.0000	0.0000	0.0000	0.0000	0.0000	0.0000	-0.0000	-0.0000	0.0000	0.0000	-0.0000	0.0000	-0.0000	0.0000	0.0000	0.0000	0.0000	0.0000	-0.0000	0.0000	0.0000	0.0000	-0.0000	-0.0000	0.0000	-0.0000	0.0000	0.0000	-0.0000	0.0000	-0.0000	0.0000	0.0000	0.0000	0.0000	0.0000	-0.0000	0.0000	0.0000	-0.0000	0.0000	0.0000	-0.0000	0.0000	-0.0000	0.0000	-0.0000	0.0000	-0.0000	-0.0000	-0.0000	-0.0000	0.0000	0.0000	0.0000	-0.0000	0.0000	-0.0000	0.0000	-0.0000	0.0000	0.0000	0.0000	0.0000	0.0000	-0.0000	0.0000	-0.0000	0.0000	0.0000	0.0000	0.0000	-0.0000	-0.0000	-0.0000	-0.0000	0.0000	0.0000	0.0000	0.0000	0.0000	-0.0000	0.0000	0.0000	-0.0000	-0.0000	0.0000	-0.0000	0.0000	0.0000	0.0000	-0.0000	-0.0000	0.0000	0.0000	0.0000	0.0000	0.0000	-0.0000	0.0000	0.0000	0.0000	-0.0000	-0.0000	-0.0000	-0.0000	0.0000	0.0000	-0.0000	-0.0000	-0.0000	0.0000	-0.0000	-0.0000	-0.0000	-0.0000	0.0000	0.0000	0.0000	-0.0000	0.0000	0.0000	-0.0000	-0.0000	0.0000	0.0000	-0.0000	0.0000	-0.0000	-0.0000	0.0000	0.0000	-0.0000	-0.0000	0.0000	0.0000	0.0000	-0.0000	-0.0000	-0.0000	-0.0000	0.0000	0.0000	-0.0000	-0.0000	-0.0000	-0.0000	-0.0000	-0.0000	-0.0000	0.0000	0.0000	-0.0000	-0.0000	0.0000	-0.0000	0.0000	-0.0000	-0.0000	-0.0000	-0.0000	-0.0000	0.0000	-0.0000	-0.0000	-0.0000	0.0000	0.0000	-0.0000	0.0000	-0.0000	-0.0000	0.0000	-0.0000	0.0000	-0.0000	-0.0000	-0.0000	-0.0000	-0.0000	0.0000	-0.0000	-0.0000	0.0000	-0.0000	-0.0000	0.0000	-0.0000	0.0000	-0.0000	0.0000	-0.0000	0.0000	0.0000	0.0000	0.0000	-0.0000	-0.0000	-0.0000	0.0000	-0.0000	0.0000	-0.0000	0.0000	-0.0000	-0.0000	-0.0000	-0.0000	-0.0000	0.0000	-0.0000	0.0000	-0.0000	-0.0000	-0.0000	-0.0000	0.0000	0.0000	0.0000	0.0000	-0.0000	-0.0000	-0.0000	-0.0000	-0.0000	0.0000	-0.0000	-0.0000	0.0000	0.0000	-0.0000	0.0000	-0.0000	-0.0000	-0.0000	0.0000	0.0000	-0.0000	-0.0000	-0.0000	-0.0000	-0.0000	0.0000	-0.0000	-0.0000	-0.0000	0.0000	0.0000	0.0000	0.0000	-0.0000	-0.0000	0.0000	0.0000	0.0000	-0.0000	0.0000	0.0000	0.0000	0.0000	-0.0000	-0.0000	-0.0000	0.0000	-0.0000	-0.0000	0.0000	0.0000	-0.0000	-0.0000	0.0000	-0.0000	0.0000	0.0000	-0.0000	-0.0000	0.0000	0.0000	-0.0000	-0.0000	-0.0000	0.0000	0.0000	0.0000	0.0000	-0.0000	-0.0000	0.0000	0.0000	0.0000	0.0000	0.0000	0.0000	0.0000	-0.0000	-0.0000	0.0000	0.0000	-0.0000	0.0000	-0.0000	0.0000	0.0000	0.0000	0.0000	0.0000	-0.0000	0.0000	0.0000	0.0000	-0.0000	-0.0000	0.0000	-0.0000	0.0000	0.0000	-0.0000	0.0000	-0.0000	0.0000	0.0000	0.0000	0.0000	0.0000	-0.0000	0.0000	0.0000	-0.0000	0.0000	0.0000	-0.0000	0.0000	-0.0000	0.0000	-0.0000	0.0000	-0.0000	-0.0000	-0.0000	-0.0000	0.0000	0.0000	0.0000	-0.0000	0.0000	-0.0000	0.0000	-0.0000	0.0000	0.0000	0.0000	0.0000	0.0000	-0.0000	0.0000	-0.0000	0.0000	0.0000	0.0000	0.0000	-0.0000	-0.0000	-0.0000	-0.0000	0.0000	0.0000	0.0000	0.0000	0.0000	-0.0000	0.0000	0.0000	-0.0000	-0.0000	0.0000	-0.0000	0.0000	0.0000	0.0000	-0.0000	-0.0000	0.0000	0.0000	0.0000	0.0000	0.0000	-0.0000	0.0000	0.0000	0.0000	-0.0000	-0.0000	-0.0000	-0.0000	0.0000	0.0000	-0.0000	-0.0000	-0.0000	0.0000	-0.0000	-0.0000	-0.0000	-0.0000	0.0000	0.0000	0.0000	-0.0000	0.0000	0.0000	-0.0000	-0.0000	0.0000	0.0000	-0.0000	0.0000	-0.0000	-0.0000	0.0000	-0.0000	0.0000	0.0000	-0.0000	-0.0000	-0.0000	0.0000	0.0000	0.0000	0.0000	-0.0000	-0.0000	0.0000	0.0000	0.0000	0.0000	0.0000	0.0000	0.0000	-0.0000	-0.0000	0.0000	0.0000	-0.0000	0.0000	-0.0000	0.0000	0.0000	0.0000	0.0000	0.0000	-0.0000	0.0000	0.0000	0.0000	-0.0000	-0.0000	0.0000	-0.0000	0.0000	0.0000	-0.0000	0.0000	-0.0000	0.0000	0.0000	0.0000	0.0000	0.0000	-0.0000	0.0000	0.0000	0.0000	0.0000	0.0000	-0.0000	-0.0000	-0.0000	0.0000	-0.0000	0.0000	-0.0000	-0.0000	-0.0000	-0.0000	0.0000	0.0000	0.0000	-0.0000	0.0000	-0.0000	0.0000	-0.0000	0.0000	0.0000	0.0000	0.0000	0.0000	-0.0000	0.0000	-0.0000	0.0000	0.0000	0.0000	0.0000	-0.0000	-0.0000	-0.0000	-0.0000	0.0000	0.0000	0.0000	0.0000	0.0000	-0.0000	0.0000	0.0000	-0.0000	-0.0000	0.0000	-0.0000	0.0000	0.0000	0.0000	-0.0000	-0.0000	0.0000	0.0000	0.0000	0.0000	0.0000	-0.0000	0.0000	0.0000	0.0000	-0.0000	-0.0000	-0.0000	-0.0000	0.0000	0.0000	-0.0000	-0.0000	-0.0000	0.0000	-0.0000	-0.0000	-0.0000	-0.0000	0.0000	0.0000	0.0000	-0.0000	-0.0000	0.0000	-0.0000	-0.0000	0.0000	0.0000	-0.0000	0.0000	-0.0000	-0.0000	0.0000	-0.0000	0.0000	0.0000	-0.0000	-0.0000	-0.0000	0.0000	0.0000	0.0000	0.0000	-0.0000	-0.0000	0.0000	0.0000	0.0000	0.0000	0.0000	0.0000	0.0000	-0.0000	-0.0000	0.0000	0.0000	-0.0000	0.0000	-0.0000	0.0000	0.0000	0.0000	0.0000	0.0000	-0.0000	0.0000	0.0000	0.0000	-0.0000	-0.0000	0.0000	-0.0000	0.0000	0.0000	-0.0000	0.0000	-0.0000	0.0000	0.0000	0.0000	0.0000	0.0000	-0.0000	0.0000	0.0000	0.0000	0.0000	0.0000	-0.0000	-0.0000	-0.0000	0.0000	-0.0000	0.0000	-0.0000	-0.0000	-0.0000	-0.0000	0.0000	0.0000	0.0000	-0.0000	0.0000	-0.0000	0.0000	-0.0000	0.0000	0.0000	0.0000	0.0000	0.0000	-0.0000	0.0000	-0.0000	0.0000	0.0000	0.0000	0.0000	-0.0000	-0.0000	-0.0000	-0.0000	0.0000	0.0000	0.0000	0.0000	0.0000	-0.0000	0.0000	0.0000	-0.0000	-0.0000	0.0000	-0.0000	0.0000	0.0000	0.0000	-0.0000	-0.0000	0.0000	0.0000	0.0000	0.0000	0.0000	-0.0000	0.0000	0.0000	0.0000	-0.0000	-0.0000	-0.0000	-0.0000	0.0000	0.0000	-0.0000	-0.0000	-0.0000	0.0000	-0.0000	-0.0000	-0.0000	-0.0000	0.0000	0.0000	0.0000	-0.0000	-0.0000	0.0000	-0.0000	-0.0000	0.0000	0.0000	-0.0000	0.0000	-0.0000	-0.0000	0.0000	0.0000	-0.0000	-0.0000	0.0000	0.0000	0.0000	-0.0000	-0.0000	-0.0000	-0.0000	0.0000	0.0000	-0.0000	-0.0000	-0.0000	-0.0000	-0.0000	-0.0000	-0.0000	0.0000	0.0000	-0.0000	-0.0000	0.0000	-0.0000	0.0000	-0.0000	-0.0000	-0.0000	-0.0000	-0.0000	0.0000	-0.0000	-0.0000	-0.0000	0.0000	0.0000	-0.0000	0.0000	-0.0000	-0.0000	0.0000	-0.0000	0.0000	-0.0000	-0.0000	-0.0000	-0.0000	-0.0000	0.0000	-0.0000	-0.0000	-0.0000	-0.0000	-0.0000	0.0000	0.0000	0.0000	-0.0000	0.0000	-0.0000	0.0000	0.0000	0.0000	0.0000	-0.0000	-0.0000	-0.0000	0.0000	-0.0000	0.0000	-0.0000	0.0000	-0.0000	-0.0000	-0.0000	-0.0000	-0.0000	0.0000	-0.0000	0.0000	-0.0000	-0.0000	-0.0000	-0.0000	0.0000	0.0000	0.0000	0.0000	-0.0000	-0.0000	-0.0000	-0.0000	-0.0000	0.0000	-0.0000	-0.0000	0.0000	0.0000	-0.0000	0.0000	-0.0000	-0.0000	-0.0000	0.0000	0.0000	-0.0000	-0.0000	-0.0000	-0.0000	-0.0000	0.0000	-0.0000	-0.0000	-0.0000	0.0000	0.0000	0.0000	0.0000	-0.0000	-0.0000	0.0000	0.0000	0.0000	-0.0000	0.0000	0.0000	0.0000	0.0000	-0.0000	-0.0000	-0.0000	0.0000	0.0000	-0.0000	0.0000	0.0000	-0.0000	-0.0000	0.0000	-0.0000	0.0000	0.0000	-0.0000	-0.0000	0.0000	0.0000	-0.0000	-0.0000	-0.0000	0.0000	0.0000	0.0000	0.0000	-0.0000	-0.0000	0.0000	0.0000	0.0000	0.0000	0.0000	0.0000	0.0000	-0.0000	-0.0000	0.0000	0.0000	-0.0000	0.0000	-0.0000	0.0000	0.0000	0.0000	0.0000	0.0000	-0.0000	0.0000	0.0000	0.0000	-0.0000	-0.0000	0.0000	-0.0000	0.0000	0.0000	-0.0000	0.0000	-0.0000	0.0000	0.0000	0.0000	0.0000	0.0000	-0.0000	0.0000	0.0000	0.0000	0.0000	0.0000	-0.0000	-0.0000	-0.0000	0.0000	-0.0000	0.0000	-0.0000	-0.0000	-0.0000	-0.0000	0.0000	0.0000	0.0000	-0.0000	0.0000	-0.0000	0.0000	-0.0000	0.0000	0.0000	0.0000	0.0000	0.0000	-0.0000	0.0000	-0.0000	0.0000	0.0000	0.0000	0.0000	-0.0000	-0.0000	-0.0000	-0.0000	0.0000	0.0000	0.0000	0.0000	0.0000	-0.0000	0.0000	0.0000	-0.0000	-0.0000	0.0000	-0.0000	0.0000	0.0000	0.0000	-0.0000	-0.0000	0.0000	0.0000	0.0000	0.0000	0.0000	-0.0000	0.0000	0.0000	0.0000	-0.0000	-0.0000	-0.0000	-0.0000	0.0000	0.0000	-0.0000	-0.0000	-0.0000	0.0000	-0.0000	-0.0000	-0.0000	-0.0000	0.0000	0.0000	0.0000	-0.0000	-0.0000	0.0000	-0.0000	-0.0000	0.0000	0.0000	-0.0000	0.0000	-0.0000	-0.0000	0.0000	1.0000	1.0000	1.0000	1.0000	1.0000	1.0000	1.0000	1.0000	1.0000	1.0000	1.0000	1.0000	1.0000	1.0000	1.0000	1.0000	1.0000	1.0000	1.0000	1.0000	1.0000	1.0000	1.0000	1.0000	1.0000	1.0000	1.0000	1.0000	1.0000	1.0000	1.0000	1.0000	1.0000	1.0000	1.0000	1.0000	1.0000	1.0000	1.0000	1.0000	1.0000	1.0000	1.0000	1.0000	1.0000	1.0000	1.0000	1.0000	1.0000	1.0000	1.0000	1.0000	1.0000	1.0000	1.0000	1.0000	1.0000	1.0000	1.0000	1.0000	1.0000	1.0000	1.0000	1.0000	1.0000	1.0000	1.0000	1.0000	1.0000	1.0000	1.0000	1.0000	1.0000	1.0000	1.0000	1.0000	1.0000	1.0000	1.0000	1.0000	1.0000	1.0000	1.0000	1.0000	1.0000	1.0000	1.0000	1.0000	1.0000	1.0000	1.0000	1.0000	1.0000	1.0000	1.0000	1.0000	1.0000	1.0000	1.0000	1.0000	1.0000	1.0000	1.0000	1.0000	1.0000	1.0000	1.0000	1.0000	1.0000	1.0000	1.0000	1.0000	1.0000	1.0000	1.0000	1.0000	1.0000	1.0000	1.0000	1.0000	1.0000	1.0000	1.0000	1.0000	1.0000	1.0000	1.0000	1.0000	1.0000	1.0000	1.0000	1.0000	1.0000	1.0000	1.0000	1.0000	1.0000	1.0000	1.0000	1.0000	1.0000	1.0000	1.0000	1.0000	0.0625	0.0625	0.0625	0.0625	0.0312	0.0312	0.0312	0.0312	0.0208	0.0208	0.0208	0.0208	0.0208	0.0208	0.0208	0.0208	0.0208	0.0208	0.0208	0.0208	0.0208	0.0208	0.0208	0.0208	0.0208	0.0208	0.0208	0.0208	0.0208	0.0208	0.0208	0.0208	0.0312	0.0312	0.0312	0.0312	0.0625	0.0625	0.0625	0.0625	0.0625	0.0625	0.0625	0.0625	0.0312	0.0312	0.0312	0.0312	0.0208	0.0208	0.0208	0.0208	0.0208	0.0208	0.0208	0.0208	0.0208	0.0208	0.0208	0.0208	0.0208	0.0208	0.0208	0.0208	0.0208	0.0208	0.0208	0.0208	0.0208	0.0208	0.0208	0.0208	0.0312	0.0312	0.0312	0.0312	0.0625	0.0625	0.0625	0.0625	0.0625	0.0625	0.0625	0.0625	0.0312	0.0312	0.0312	0.0312	0.0208	0.0208	0.0208	0.0208	0.0208	0.0208	0.0208	0.0208	0.0208	0.0208	0.0208	0.0208	0.0208	0.0208	0.0208	0.0208	0.0208	0.0208	0.0208	0.0208	0.0208	0.0208	0.0208	0.0208	0.0312	0.0312	0.0312	0.0312	0.0625	0.0625	0.0625	0.0625	0.0625	0.0625	0.0625	0.0625	0.0312	0.0312	0.0312	0.0312	0.0208	0.0208	0.0208	0.0208	0.0208	0.0208	0.0208	0.0208	0.0208	0.0208	0.0208	0.0208	0.0208	0.0208	0.0208	0.0208	0.0208	0.0208	0.0208	0.0208	0.0208	0.0208	0.0208	0.0208	0.0312	0.0312	0.0312	0.0312	0.0625	0.0625	0.0625	0.0625	0.0312	0.0312	0.0312	0.0312	0.0156	0.0156	0.0156	0.0156	0.0104	0.0104	0.0104	0.0104	0.0104	0.0104	0.0104	0.0104	0.0104	0.0104	0.0104	0.0104	0.0104	0.0104	0.0104	0.0104	0.0104	0.0104	0.0104	0.0104	0.0104	0.0104	0.0104	0.0104	0.0156	0.0156	0.0156	0.0156	0.0312	0.0312	0.0312	0.0312	0.0312	0.0312	0.0312	0.0312	0.0156	0.0156	0.0156	0.0156	0.0104	0.0104	0.0104	0.0104	0.0104	0.0104	0.0104	0.0104	0.0104	0.0104	0.0104	0.0104	0.0104	0.0104	0.0104	0.0104	0.0104	0.0104	0.0104	0.0104	0.0104	0.0104	0.0104	0.0104	0.0156	0.0156	0.0156	0.0156	0.0312	0.0312	0.0312	0.0312	0.0312	0.0312	0.0312	0.0312	0.0156	0.0156	0.0156	0.0156	0.0104	0.0104	0.0104	0.0104	0.0104	0.0104	0.0104	0.0104	0.0104	0.0104	0.0104	0.0104	0.0104	0.0104	0.0104	0.0104	0.0104	0.0104	0.0104	0.0104	0.0104	0.0104	0.0104	0.0104	0.0156	0.0156	0.0156	0.0156	0.0312	0.0312	0.0312	0.0312	0.0312	0.0312	0.0312	0.0312	0.0156	0.0156	0.0156	0.0156	0.0104	0.0104	0.0104	0.0104	0.0104	0.0104	0.0104	0.0104	0.0104	0.0104	0.0104	0.0104	0.0104	0.0104	0.0104	0.0104	0.0104	0.0104	0.0104	0.0104	0.0104	0.0104	0.0104	0.0104	0.0156	0.0156	0.0156	0.0156	0.0312	0.0312	0.0312	0.0312	0.0208	0.0208	0.0208	0.0208	0.0104	0.0104	0.0104	0.0104	0.0069	0.0069	0.0069	0.0069	0.0069	0.0069	0.0069	0.0069	0.0069	0.0069	0.0069	0.0069	0.0069	0.0069	0.0069	0.0069	0.0069	0.0069	0.0069	0.0069	0.0069	0.0069	0.0069	0.0069	0.0104	0.0104	0.0104	0.0104	0.0208	0.0208	0.0208	0.0208	0.0208	0.0208	0.0208	0.0208	0.0104	0.0104	0.0104	0.0104	0.0069	0.0069	0.0069	0.0069	0.0069	0.0069	0.0069	0.0069	0.0069	0.0069	0.0069	0.0069	0.0069	0.0069	0.0069	0.0069	0.0069	0.0069	0.0069	0.0069	0.0069	0.0069	0.0069	0.0069	0.0104	0.0104	0.0104	0.0104	0.0208	0.0208	0.0208	0.0208	0.0208	0.0208	0.0208	0.0208	0.0104	0.0104	0.0104	0.0104	0.0069	0.0069	0.0069	0.0069	0.0069	0.0069	0.0069	0.0069	0.0069	0.0069	0.0069	0.0069	0.0069	0.0069	0.0069	0.0069	0.0069	0.0069	0.0069	0.0069	0.0069	0.0069	0.0069	0.0069	0.0104	0.0104	0.0104	0.0104	0.0208	0.0208	0.0208	0.0208	0.0208	0.0208	0.0208	0.0208	0.0104	0.0104	0.0104	0.0104	0.0069	0.0069	0.0069	0.0069	0.0069	0.0069	0.0069	0.0069	0.0069	0.0069	0.0069	0.0069	0.0069	0.0069	0.0069	0.0069	0.0069	0.0069	0.0069	0.0069	0.0069	0.0069	0.0069	0.0069	0.0104	0.0104	0.0104	0.0104	0.0208	0.0208	0.0208	0.0208	0.0208	0.0208	0.0208	0.0208	0.0104	0.0104	0.0104	0.0104	0.0069	0.0069	0.0069	0.0069	0.0069	0.0069	0.0069	0.0069	0.0069	0.0069	0.0069	0.0069	0.0069	0.0069	0.0069	0.0069	0.0069	0.0069	0.0069	0.0069	0.0069	0.0069	0.0069	0.0069	0.0104	0.0104	0.0104	0.0104	0.0208	0.0208	0.0208	0.0208	0.0208	0.0208	0.0208	0.0208	0.0104	0.0104	0.0104	0.0104	0.0069	0.0069	0.0069	0.0069	0.0069	0.0069	0.0069	0.0069	0.0069	0.0069	0.0069	0.0069	0.0069	0.0069	0.0069	0.0069	0.0069	0.0069	0.0069	0.0069	0.0069	0.0069	0.0069	0.0069	0.0104	0.0104	0.0104	0.0104	0.0208	0.0208	0.0208	0.0208	0.0208	0.0208	0.0208	0.0208	0.0104	0.0104	0.0104	0.0104	0.0069	0.0069	0.0069	0.0069	0.0069	0.0069	0.0069	0.0069	0.0069	0.0069	0.0069	0.0069	0.0069	0.0069	0.0069	0.0069	0.0069	0.0069	0.0069	0.0069	0.0069	0.0069	0.0069	0.0069	0.0104	0.0104	0.0104	0.0104	0.0208	0.0208	0.0208	0.0208	0.0208	0.0208	0.0208	0.0208	0.0104	0.0104	0.0104	0.0104	0.0069	0.0069	0.0069	0.0069	0.0069	0.0069	0.0069	0.0069	0.0069	0.0069	0.0069	0.0069	0.0069	0.0069	0.0069	0.0069	0.0069	0.0069	0.0069	0.0069	0.0069	0.0069	0.0069	0.0069	0.0104	0.0104	0.0104	0.0104	0.0208	0.0208	0.0208	0.0208	0.0208	0.0208	0.0208	0.0208	0.0104	0.0104	0.0104	0.0104	0.0069	0.0069	0.0069	0.0069	0.0069	0.0069	0.0069	0.0069	0.0069	0.0069	0.0069	0.0069	0.0069	0.0069	0.0069	0.0069	0.0069	0.0069	0.0069	0.0069	0.0069	0.0069	0.0069	0.0069	0.0104	0.0104	0.0104	0.0104	0.0208	0.0208	0.0208	0.0208	0.0208	0.0208	0.0208	0.0208	0.0104	0.0104	0.0104	0.0104	0.0069	0.0069	0.0069	0.0069	0.0069	0.0069	0.0069	0.0069	0.0069	0.0069	0.0069	0.0069	0.0069	0.0069	0.0069	0.0069	0.0069	0.0069	0.0069	0.0069	0.0069	0.0069	0.0069	0.0069	0.0104	0.0104	0.0104	0.0104	0.0208	0.0208	0.0208	0.0208	0.0208	0.0208	0.0208	0.0208	0.0104	0.0104	0.0104	0.0104	0.0069	0.0069	0.0069	0.0069	0.0069	0.0069	0.0069	0.0069	0.0069	0.0069	0.0069	0.0069	0.0069	0.0069	0.0069	0.0069	0.0069	0.0069	0.0069	0.0069	0.0069	0.0069	0.0069	0.0069	0.0104	0.0104	0.0104	0.0104	0.0208	0.0208	0.0208	0.0208	0.0208	0.0208	0.0208	0.0208	0.0104	0.0104	0.0104	0.0104	0.0069	0.0069	0.0069	0.0069	0.0069	0.0069	0.0069	0.0069	0.0069	0.0069	0.0069	0.0069	0.0069	0.0069	0.0069	0.0069	0.0069	0.0069	0.0069	0.0069	0.0069	0.0069	0.0069	0.0069	0.0104	0.0104	0.0104	0.0104	0.0208	0.0208	0.0208	0.0208	0.0208	0.0208	0.0208	0.0208	0.0104	0.0104	0.0104	0.0104	0.0069	0.0069	0.0069	0.0069	0.0069	0.0069	0.0069	0.0069	0.0069	0.0069	0.0069	0.0069	0.0069	0.0069	0.0069	0.0069	0.0069	0.0069	0.0069	0.0069	0.0069	0.0069	0.0069	0.0069	0.0104	0.0104	0.0104	0.0104	0.0208	0.0208	0.0208	0.0208	0.0208	0.0208	0.0208	0.0208	0.0104	0.0104	0.0104	0.0104	0.0069	0.0069	0.0069	0.0069	0.0069	0.0069	0.0069	0.0069	0.0069	0.0069	0.0069	0.0069	0.0069	0.0069	0.0069	0.0069	0.0069	0.0069	0.0069	0.0069	0.0069	0.0069	0.0069	0.0069	0.0104	0.0104	0.0104	0.0104	0.0208	0.0208	0.0208	0.0208	0.0208	0.0208	0.0208	0.0208	0.0104	0.0104	0.0104	0.0104	0.0069	0.0069	0.0069	0.0069	0.0069	0.0069	0.0069	0.0069	0.0069	0.0069	0.0069	0.0069	0.0069	0.0069	0.0069	0.0069	0.0069	0.0069	0.0069	0.0069	0.0069	0.0069	0.0069	0.0069	0.0104	0.0104	0.0104	0.0104	0.0208	0.0208	0.0208	0.0208	0.0208	0.0208	0.0208	0.0208	0.0104	0.0104	0.0104	0.0104	0.0069	0.0069	0.0069	0.0069	0.0069	0.0069	0.0069	0.0069	0.0069	0.0069	0.0069	0.0069	0.0069	0.0069	0.0069	0.0069	0.0069	0.0069	0.0069	0.0069	0.0069	0.0069	0.0069	0.0069	0.0104	0.0104	0.0104	0.0104	0.0208	0.0208	0.0208	0.0208	0.0208	0.0208	0.0208	0.0208	0.0104	0.0104	0.0104	0.0104	0.0069	0.0069	0.0069	0.0069	0.0069	0.0069	0.0069	0.0069	0.0069	0.0069	0.0069	0.0069	0.0069	0.0069	0.0069	0.0069	0.0069	0.0069	0.0069	0.0069	0.0069	0.0069	0.0069	0.0069	0.0104	0.0104	0.0104	0.0104	0.0208	0.0208	0.0208	0.0208	0.0208	0.0208	0.0208	0.0208	0.0104	0.0104	0.0104	0.0104	0.0069	0.0069	0.0069	0.0069	0.0069	0.0069	0.0069	0.0069	0.0069	0.0069	0.0069	0.0069	0.0069	0.0069	0.0069	0.0069	0.0069	0.0069	0.0069	0.0069	0.0069	0.0069	0.0069	0.0069	0.0104	0.0104	0.0104	0.0104	0.0208	0.0208	0.0208	0.0208	0.0208	0.0208	0.0208	0.0208	0.0104	0.0104	0.0104	0.0104	0.0069	0.0069	0.0069	0.0069	0.0069	0.0069	0.0069	0.0069	0.0069	0.0069	0.0069	0.0069	0.0069	0.0069	0.0069	0.0069	0.0069	0.0069	0.0069	0.0069	0.0069	0.0069	0.0069	0.0069	0.0104	0.0104	0.0104	0.0104	0.0208	0.0208	0.0208	0.0208	0.0208	0.0208	0.0208	0.0208	0.0104	0.0104	0.0104	0.0104	0.0069	0.0069	0.0069	0.0069	0.0069	0.0069	0.0069	0.0069	0.0069	0.0069	0.0069	0.0069	0.0069	0.0069	0.0069	0.0069	0.0069	0.0069	0.0069	0.0069	0.0069	0.0069	0.0069	0.0069	0.0104	0.0104	0.0104	0.0104	0.0208	0.0208	0.0208	0.0208	0.0208	0.0208	0.0208	0.0208	0.0104	0.0104	0.0104	0.0104	0.0069	0.0069	0.0069	0.0069	0.0069	0.0069	0.0069	0.0069	0.0069	0.0069	0.0069	0.0069	0.0069	0.0069	0.0069	0.0069	0.0069	0.0069	0.0069	0.0069	0.0069	0.0069	0.0069	0.0069	0.0104	0.0104	0.0104	0.0104	0.0208	0.0208	0.0208	0.0208	0.0208	0.0208	0.0208	0.0208	0.0104	0.0104	0.0104	0.0104	0.0069	0.0069	0.0069	0.0069	0.0069	0.0069	0.0069	0.0069	0.0069	0.0069	0.0069	0.0069	0.0069	0.0069	0.0069	0.0069	0.0069	0.0069	0.0069	0.0069	0.0069	0.0069	0.0069	0.0069	0.0104	0.0104	0.0104	0.0104	0.0208	0.0208	0.0208	0.0208	0.0208	0.0208	0.0208	0.0208	0.0104	0.0104	0.0104	0.0104	0.0069	0.0069	0.0069	0.0069	0.0069	0.0069	0.0069	0.0069	0.0069	0.0069	0.0069	0.0069	0.0069	0.0069	0.0069	0.0069	0.0069	0.0069	0.0069	0.0069	0.0069	0.0069	0.0069	0.0069	0.0104	0.0104	0.0104	0.0104	0.0208	0.0208	0.0208	0.0208	0.0208	0.0208	0.0208	0.0208	0.0104	0.0104	0.0104	0.0104	0.0069	0.0069	0.0069	0.0069	0.0069	0.0069	0.0069	0.0069	0.0069	0.0069	0.0069	0.0069	0.0069	0.0069	0.0069	0.0069	0.0069	0.0069	0.0069	0.0069	0.0069	0.0069	0.0069	0.0069	0.0104	0.0104	0.0104	0.0104	0.0208	0.0208	0.0208	0.0208	0.0312	0.0312	0.0312	0.0312	0.0156	0.0156	0.0156	0.0156	0.0104	0.0104	0.0104	0.0104	0.0104	0.0104	0.0104	0.0104	0.0104	0.0104	0.0104	0.0104	0.0104	0.0104	0.0104	0.0104	0.0104	0.0104	0.0104	0.0104	0.0104	0.0104	0.0104	0.0104	0.0156	0.0156	0.0156	0.0156	0.0312	0.0312	0.0312	0.0312	0.0312	0.0312	0.0312	0.0312	0.0156	0.0156	0.0156	0.0156	0.0104	0.0104	0.0104	0.0104	0.0104	0.0104	0.0104	0.0104	0.0104	0.0104	0.0104	0.0104	0.0104	0.0104	0.0104	0.0104	0.0104	0.0104	0.0104	0.0104	0.0104	0.0104	0.0104	0.0104	0.0156	0.0156	0.0156	0.0156	0.0312	0.0312	0.0312	0.0312	0.0312	0.0312	0.0312	0.0312	0.0156	0.0156	0.0156	0.0156	0.0104	0.0104	0.0104	0.0104	0.0104	0.0104	0.0104	0.0104	0.0104	0.0104	0.0104	0.0104	0.0104	0.0104	0.0104	0.0104	0.0104	0.0104	0.0104	0.0104	0.0104	0.0104	0.0104	0.0104	0.0156	0.0156	0.0156	0.0156	0.0312	0.0312	0.0312	0.0312	0.0312	0.0312	0.0312	0.0312	0.0156	0.0156	0.0156	0.0156	0.0104	0.0104	0.0104	0.0104	0.0104	0.0104	0.0104	0.0104	0.0104	0.0104	0.0104	0.0104	0.0104	0.0104	0.0104	0.0104	0.0104	0.0104	0.0104	0.0104	0.0104	0.0104	0.0104	0.0104	0.0156	0.0156	0.0156	0.0156	0.0312	0.0312	0.0312	0.0312	0.0625	0.0625	0.0625	0.0625	0.0312	0.0312	0.0312	0.0312	0.0208	0.0208	0.0208	0.0208	0.0208	0.0208	0.0208	0.0208	0.0208	0.0208	0.0208	0.0208	0.0208	0.0208	0.0208	0.0208	0.0208	0.0208	0.0208	0.0208	0.0208	0.0208	0.0208	0.0208	0.0312	0.0312	0.0312	0.0312	0.0625	0.0625	0.0625	0.0625	0.0625	0.0625	0.0625	0.0625	0.0312	0.0312	0.0312	0.0312	0.0208	0.0208	0.0208	0.0208	0.0208	0.0208	0.0208	0.0208	0.0208	0.0208	0.0208	0.0208	0.0208	0.0208	0.0208	0.0208	0.0208	0.0208	0.0208	0.0208	0.0208	0.0208	0.0208	0.0208	0.0312	0.0312	0.0312	0.0312	0.0625	0.0625	0.0625	0.0625	0.0625	0.0625	0.0625	0.0625	0.0312	0.0312	0.0312	0.0312	0.0208	0.0208	0.0208	0.0208	0.0208	0.0208	0.0208	0.0208	0.0208	0.0208	0.0208	0.0208	0.0208	0.0208	0.0208	0.0208	0.0208	0.0208	0.0208	0.0208	0.0208	0.0208	0.0208	0.0208	0.0312	0.0312	0.0312	0.0312	0.0625	0.0625	0.0625	0.0625	0.0625	0.0625	0.0625	0.0625	0.0312	0.0312	0.0312	0.0312	0.0208	0.0208	0.0208	0.0208	0.0208	0.0208	0.0208	0.0208	0.0208	0.0208	0.0208	0.0208	0.0208	0.0208	0.0208	0.0208	0.0208	0.0208	0.0208	0.0208	0.0208	0.0208	0.0208	0.0208	0.0312	0.0312	0.0312	0.0312	0.0625	0.0625	0.0625	0.0625	