5.8744	9.2908	8.1519	5.9335	5.4959	-0.0661	-4.7549	-1.3491	6.3554	9.1071	6.4071	5.9499	7.1329	2.7618	-3.7469	-2.3362	5.1023	7.1445	5.7376	6.4017	6.0203	0.8669	-0.7101	-2.2521	5.9577	7.8643	6.1810	6.6800	4.4943	-0.1332	1.1820	-1.7264	7.3086	6.7398	4.9439	7.7055	3.3878	-1.1986	0.6708	-1.9487	8.8511	4.4360	3.8204	8.6020	3.9216	-1.6674	0.3372	-1.1489	7.8849	5.4557	5.5543	7.9447	5.0261	-2.0976	-0.8343	-0.8060	4.5552	4.0969	6.9340	7.2122	3.3857	-3.6668	-1.7912	0.0802	9.6753	12.9753	15.8376	18.6986	18.8893	16.3296	11.7728	4.4102	10.9775	12.0378	15.2122	18.3547	17.1028	15.3760	12.7245	6.3555	10.3452	11.0633	14.5772	15.7786	14.3852	14.5560	12.4538	5.9305	10.3310	10.3398	13.1358	13.8556	14.3904	15.1363	10.6948	5.1287	8.5212	9.2539	13.6133	13.7036	14.6502	15.2385	9.2648	4.8600	7.2044	10.2482	15.3199	13.8340	14.5506	15.4679	9.5832	4.4890	8.3361	13.2154	14.8206	13.4701	14.8122	15.2722	9.7642	3.2783	10.2515	14.0257	12.8666	13.4617	15.3276	14.6849	9.0885	2.5102	-5.5701	-6.2297	-8.1640	-8.3727	-7.7005	-5.2413	1.4062	2.8609	-3.2331	-5.2920	-8.6512	-6.7110	-5.2366	-5.5967	-2.2239	2.6380	-4.4485	-6.9957	-6.9218	-4.0662	-5.0133	-6.0030	-1.8832	0.3809	-2.6563	-4.5548	-4.7498	-4.4005	-5.2953	-3.1998	-0.0481	-0.9784	-1.2597	-4.0672	-4.1258	-5.3852	-6.5500	-1.9167	-0.3060	-1.6046	-3.3147	-8.2756	-4.2611	-4.6836	-7.3285	-2.2427	0.1001	-1.1411	-3.5031	-6.3370	-3.9587	-4.1854	-6.0212	-2.6205	0.9481	-1.4371	-5.5432	-3.6458	-3.8356	-4.9086	-6.6370	-5.0093	0.2945	-0.1189	9.0217	10.3919	13.6350	13.3893	11.4208	10.7434	6.7441	0.9273	8.0290	10.5635	11.9316	9.4356	9.4932	9.8935	6.1355	1.5044	7.4718	9.2129	9.5843	9.5762	11.0343	8.6807	3.5962	2.2227	5.2222	8.1151	9.9347	11.2714	11.9354	7.1925	3.1694	2.5920	6.9865	11.9648	10.9689	11.1110	12.4699	7.6950	3.8194	2.1684	8.8054	13.0384	10.1037	10.2913	12.0528	7.7416	2.7899	1.4240	10.5479	9.4576	8.8505	11.1466	12.0620	8.1451	2.1756	0.6059	12.6950	10.0267	10.4005	13.1022	12.4585	6.6228	0.4131	-0.6451	2.8619	1.5741	-0.3445	0.1809	1.1848	-0.0433	-0.9611	1.6314	0.1707	-1.3697	0.0857	1.9564	-0.5176	-1.7224	0.1894	-0.6635	0.5196	0.3608	1.0484	-1.1485	-0.8611	0.0234	0.8337	-1.5529	1.2186	-0.5069	-0.4066	-0.2361	-0.8206	1.0761	-0.6603	-0.3249	0.1775	-0.9736	1.9037	0.5349	-0.0912	0.5514	-0.9562	0.0047	-1.3535	-0.9260	0.9440	0.0484	-0.6627	-0.3835	0.8002	-0.1404	0.1533	3.6066	0.4898	0.0010	0.6374	-0.6173	0.0385	-0.2144	-0.5129	-0.2777	-1.5093	-0.4570	-1.3782	-0.9880	-0.4222	-0.3384	-0.3761	0.3467	0.6271	-1.1952	-0.3866	1.5441	0.2627	-3.8570	0.5735	-1.0746	-0.1855	0.6292	1.0181	-0.7635	0.9549	-1.6682	-0.8404	-0.9887	1.9577	0.8635	-0.7566	-1.0859	0.2135	0.1690	0.4565	0.9802	0.9216	0.4131	-0.1591	0.3180	-1.4666	0.5488	1.1987	0.5828	-0.5035	-1.0666	1.1761	0.4790	-3.2354	0.8985	-0.9472	-0.0843	1.2745	-2.2401	1.5679	0.5467	-3.2420	1.5447	-1.9227	0.3873	1.6686	-0.4708	0.7645	0.6774	-3.1929	-0.3954	0.0589	0.0375	-0.1287	0.5284	-2.0702	-0.7205	-1.5736	0.0260	1.0465	0.3983	-0.8684	0.8894	0.0553	-4.2218	1.9158	0.2961	1.0577	-0.1003	0.1168	0.2113	-0.8285	-3.0256	-0.7069	1.4106	2.0815	0.5337	-0.2731	0.0120	-0.7166	-1.0840	-0.6449	-0.4895	1.3029	-1.4510	-0.5547	-0.1175	-0.9654	-0.6180	-1.1244	-0.8517	0.8211	-1.9528	1.4424	-0.7654	-1.7919	0.2666	-0.3308	-0.0161	-0.2017	-0.5415	3.5322	-0.5238	-2.4205	0.2169	-0.0697	-0.8596	-0.4967	-1.4790	-0.5307	0.5146	-2.8018	-1.5456	1.2207	-0.7317	-0.1343	2.3706	0.0760	0.4488	-1.4937	0.1881	2.2592	-0.6515	-0.4331	1.0526	-0.4892	-0.6226	0.8210	2.7177	0.2975	0.7593	-0.5210	0.1318	-2.8751	-0.0884	0.8390	-0.7251	1.0987	1.4946	0.9067	0.1579	-0.9317	0.8323	-0.3214	-2.4340	2.2031	1.1634	0.8397	-0.6971	-0.9556	1.1012	-1.9751	-2.5923	2.4577	-0.7850	2.9009	-1.8355	-1.9122	2.2235	-1.4824	-0.6920	2.0471	-1.1197	2.8971	-1.9981	-0.2113	1.2084	-1.2847	-0.9669	1.4618	-0.0869	-2.8336	-2.7596	2.2313	0.0698	-1.6051	-1.3370	1.4534	0.4856	-1.6083	-1.1506	1.4858	-0.6805	-1.7158	-0.8056	2.4900	0.2505	-0.0490	0.1158	1.4909	0.4344	0.0726	0.0497	0.6130	-0.2756	-0.9187	0.5570	-0.7967	-0.7098	0.3068	0.7780	-1.2309	0.2194	-0.4128	-1.4470	-0.3689	-0.7320	-0.8848	-0.9207	0.2817	-0.0567	0.2856	0.3861	-0.0308	-0.2076	0.8293	-0.2150	0.4484	0.0300	-1.2987	0.6012	-0.6287	-0.7030	-0.0224	0.2790	-0.4600	-0.4553	0.5118	-1.9210	-0.1440	-0.6817	-0.7150	0.3269	-0.1507	0.3795	0.4645	0.3871	-0.0835	-0.7895	0.0508	0.6662	-0.0104	-1.2638	-0.1912	0.1563	-0.5973	0.4741	1.3946	-0.4989	-0.0197	0.7022	0.0220	0.8704	-1.1128	-0.3673	0.9877	0.5005	-2.8857	1.7261	0.6342	-0.1117	-0.7953	0.7041	-0.2569	-0.6597	-0.3458	-0.3877	-0.4897	-0.1940	1.0892	-0.6309	-1.3004	-0.4696	1.7229	-1.9075	0.8153	0.5265	-0.6596	0.5107	-0.0551	0.5887	0.1488	-1.2061	0.5355	-1.1930	-1.0566	1.0007	-0.6979	-0.6250	0.4895	-0.2990	-1.3708	-0.0401	0.7055	0.5759	0.0919	-1.2049	0.5526	0.3291	-0.9000	0.9628	-1.2254	-0.8293	1.0466	-1.5409	0.0922	-0.0417	0.2892	1.6195	1.6898	-0.3477	0.4564	0.9032	0.7817	1.0497	-2.1498	0.8278	-0.1804	-0.7998	0.7754	0.4883	-0.8931	-0.6254	-0.9520	0.4726	-0.0465	0.1357	-0.5050	1.3115	-1.1388	-0.1029	-0.6273	-0.3852	0.1009	0.6357	0.3879	-0.8053	1.7441	-1.7192	-0.6876	-0.7235	0.1113	-0.0765	0.6357	-0.9004	1.3522	-1.5538	0.3292	-0.1606	-0.4712	-0.1193	1.7089	-1.0317	0.7085	-1.2391	0.0699	-0.2501	-0.2701	0.5641	0.7696	-0.4100	0.9766	-2.1241	0.0526	0.5994	-1.1378	0.1968	0.8868	-1.1364	1.0904	-1.2789	0.2864	0.3186	-0.7024	0.4030	0.1585	-1.0223	0.7987	-0.8833	0.6347	1.1951	-0.2734	-0.1291	0.0190	-0.6020	1.4641	-0.3616	-0.6352	0.2946	0.0011	0.2804	0.6256	-0.5117	-2.0391	2.0774	-1.4578	1.9508	0.2195	-0.2823	-0.0843	0.1815	-1.4762	0.6144	0.3408	1.0762	-1.5080	0.1546	1.3315	-1.3180	-0.1336	-0.7580	0.7927	1.7253	-2.1499	0.6130	1.3200	-1.5573	0.3256	-0.7095	-0.0891	-0.0376	-0.1554	0.5941	-0.0659	-0.3928	0.1150	-0.4215	2.1774	-1.5937	-0.2596	1.6627	0.0184	-0.7335	-0.5739	-0.8900	1.7723	-1.9645	-0.2993	0.1617	-0.9246	-2.1104	1.0401	0.2324	-1.0016	-0.6093	0.1554	-0.6285	0.4012	0.6443	-0.1820	0.1761	0.2984	-0.3615	0.1629	0.8765	0.1445	0.5763	-0.3867	-0.0629	-0.1484	0.0372	-0.4727	-0.5656	1.3808	-0.6962	0.0158	0.5637	-0.2428	0.2305	-0.6071	0.0299	0.1312	0.4041	-0.4177	1.9118	1.2449	1.1381	-0.3041	-0.4995	0.8942	0.3172	0.1429	0.9557	-0.2348	-0.5246	-0.3356	0.1992	-0.6795	0.4160	0.4743	0.9169	0.0844	-0.5437	-1.3914	-0.3423	0.6235	-0.6302	-0.0147	0.9360	-0.2552	-0.6251	0.2427	0.8468	0.3931	-0.2704	0.2382	0.7713	0.4494	0.3259	0.2771	-0.4656	-0.8604	-0.2197	-0.3190	0.6150	-0.3249	0.5146	-0.6171	0.2215	0.6135	0.1446	-0.6555	0.0597	-0.1586	-0.4274	1.2383	0.1092	0.7691	0.1251	0.2277	-1.0394	-0.0430	-0.0076	-0.6921	-0.2828	0.5218	-0.8016	0.3826	-0.2179	-0.8643	1.0522	-0.2581	0.4207	0.2681	1.2935	0.2043	-0.1937	1.6469	-0.1051	0.1644	-0.3866	0.9530	-0.2457	-0.2922	0.6508	-0.9458	-0.1809	0.2579	0.0038	0.0992	0.1811	1.0741	-0.5431	1.2226	0.8799	-1.6157	-0.2895	1.7618	-0.7553	-1.0863	0.1704	0.3831	0.0801	0.2558	-0.8787	0.6371	0.1456	-0.1350	0.6052	0.9590	-0.4552	-0.7252	-0.4521	0.1548	1.1609	-1.4653	1.1468	-0.3300	0.0276	0.7774	0.4758	-0.1329	0.6692	-0.2590	0.3199	-1.0749	0.4820	0.3157	-1.4616	-0.6664	0.9906	-1.4505	0.6165	-0.8400	0.5390	0.2215	-0.8210	-0.2489	0.7667	-1.3446	0.8348	0.1163	-0.1271	0.5894	0.8642	-0.3663	0.4495	-1.2036	0.3335	-0.9883	0.3562	-0.5703	0.2924	0.2840	0.2852	-1.0111	0.5687	0.7935	0.0530	-0.6700	-0.0922	0.0400	-0.4371	-1.0620	0.6215	0.1849	-0.0885	-0.0578	-0.7093	0.4296	0.5573	-0.9044	0.1062	-0.4173	0.4333	0.3428	0.1221	-0.5330	-0.0844	0.3296	-0.4274	0.2749	0.1273	-0.0111	0.4206	0.4385	-0.6390	1.0598	-0.9238	-0.1012	-0.2645	-0.6172	0.1977	-0.0863	-0.6724	0.6768	-0.3488	0.8290	0.1054	-0.7312	1.0491	-0.4166	-0.0705	-0.5275	0.3730	-0.2491	-1.0248	1.5497	-0.3590	0.1717	1.0939	-1.2336	0.3904	0.6712	-0.4700	0.8710	-1.3133	0.6633	0.2602	-0.8422	1.0139	-1.2808	-0.9935	1.1052	-0.2013	-0.3711	-0.3073	0.0809	0.1387	-0.0451	-0.0438	0.1151	-0.0093	-0.0509	0.0141	0.1444	-0.0233	-0.0450	0.0870	0.1707	-0.0311	-0.0191	0.1592	0.1886	-0.0242	0.0249	0.2122	0.1937	0.0012	0.0117	-0.0001	-0.0413	0.0147	0.0186	0.0062	-0.0509	0.0241	0.0188	0.0112	-0.0455	0.0194	0.0144	0.0130	-0.0281	0.0038	0.0051	0.0134	-0.0024	-0.0187	-0.0134	0.0050	0.0017	-0.0043	-0.0070	0.0059	0.0020	-0.0057	-0.0007	0.0052	0.0047	-0.0028	0.0018	0.0044	0.0081	-0.0023	0.0004	0.0018	0.0109	-0.0047	-0.0017	0.0055	0.0059	0.0008	-0.0023	0.0047	0.0033	-0.0006	-0.0015	0.0046	0.0002	-0.0010	-0.0001	0.0038	0.0026	0.0017	-0.0037	-0.0017	-0.0008	0.0015	-0.0545	-0.0520	0.0689	-0.0274	-0.0707	0.0084	0.0983	-0.0333	-0.0744	0.0847	0.1294	-0.0331	-0.0557	0.1602	0.1561	-0.0187	-0.0121	0.2159	0.1712	0.0106	0.0279	0.0129	-0.0613	-0.0085	0.0426	0.0152	-0.0680	0.0012	0.0487	0.0179	-0.0555	0.0006	0.0447	0.0197	-0.0289	-0.0091	0.0315	0.0215	0.0053	-0.0248	-0.0125	0.0044	0.0043	-0.0037	-0.0073	0.0017	0.0046	-0.0038	-0.0013	0.0004	0.0055	-0.0020	-0.0006	0.0004	0.0060	0.0002	-0.0036	0.0009	0.0059	-0.0014	-0.0005	0.0051	0.0055	0.0019	-0.0028	0.0024	0.0040	0.0012	-0.0043	0.0015	0.0028	0.0010	-0.0029	0.0022	0.0052	0.0023	-0.0048	-0.0015	-0.0006	-0.0001	-0.0551	-0.0378	0.0096	-0.0395	-0.0812	0.0217	0.0380	-0.0330	-0.0953	0.0950	0.0734	-0.0194	-0.0844	0.1666	0.1100	0.0055	-0.0442	0.2194	0.1384	0.0395	0.0407	0.0141	-0.0693	-0.0222	0.0567	0.0098	-0.0737	-0.0145	0.0629	0.0103	-0.0561	-0.0125	0.0575	0.0141	-0.0248	-0.0161	0.0396	0.0216	0.0116	-0.0251	-0.0110	0.0028	-0.0031	-0.0004	-0.0068	-0.0016	-0.0029	-0.0002	-0.0009	-0.0035	-0.0024	-0.0011	-0.0001	-0.0012	-0.0033	-0.0010	-0.0041	0.0014	-0.0048	-0.0006	0.0005	0.0039	0.0062	0.0024	-0.0011	0.0011	0.0046	0.0022	-0.0032	-0.0005	0.0028	0.0012	-0.0019	0.0019	0.0050	0.0031	-0.0034	0.0002	-0.0013	0.0001	-0.0508	-0.0075	-0.0456	-0.0415	-0.0821	0.0477	-0.0188	-0.0221	-0.1036	0.1128	0.0207	0.0060	-0.0994	0.1752	0.0662	0.0412	-0.0624	0.2206	0.1070	0.0771	0.0421	0.0037	-0.0630	-0.0210	0.0543	-0.0060	-0.0661	-0.0158	0.0560	-0.0062	-0.0493	-0.0139	0.0464	0.0025	-0.0203	-0.0146	0.0271	0.0170	0.0134	-0.0189	-0.0112	0.0011	-0.0098	0.0035	-0.0072	-0.0014	-0.0090	0.0009	-0.0015	-0.0016	-0.0080	-0.0006	0.0005	0.0009	-0.0085	-0.0012	-0.0016	0.0027	-0.0103	-0.0013	-0.0023	0.0041	0.0061	0.0041	-0.0029	0.0030	0.0042	0.0039	-0.0039	0.0018	0.0016	0.0025	-0.0019	0.0043	0.0026	0.0038	-0.0030	0.0017	-0.0031	0.0033	-0.0453	0.0272	-0.0783	-0.0342	-0.0762	0.0750	-0.0520	-0.0035	-0.0988	0.1288	-0.0096	0.0347	-0.0970	0.1792	0.0415	0.0757	-0.0626	0.2152	0.0899	0.1103	0.0303	-0.0132	-0.0472	-0.0081	0.0356	-0.0248	-0.0505	-0.0063	0.0317	-0.0233	-0.0384	-0.0065	0.0192	-0.0094	-0.0166	-0.0071	0.0017	0.0114	0.0113	-0.0089	-0.0127	0.0001	-0.0096	0.0037	-0.0093	0.0009	-0.0075	0.0024	-0.0030	0.0025	-0.0068	0.0009	0.0012	0.0033	-0.0077	0.0013	0.0018	0.0006	-0.0095	0.0010	-0.0005	0.0040	0.0046	0.0049	-0.0015	0.0032	0.0032	0.0047	-0.0032	0.0009	0.0010	0.0035	-0.0017	0.0025	0.0026	0.0037	-0.0020	0.0013	-0.0022	0.0026	0.2079	0.0492	0.1615	0.1669	0.1897	0.0169	0.1517	0.1365	0.1636	0.0021	0.1422	0.0994	0.1355	-0.0010	0.1294	0.0595	0.1087	0.0046	0.1156	0.0262	-0.0050	-0.0019	0.0109	-0.0012	0.0016	-0.0002	-0.0032	0.0083	0.0094	0.0001	-0.0180	0.0170	0.0147	0.0008	-0.0220	0.0187	0.0166	-0.0007	-0.0194	0.0123	0.0012	0.0007	0.0047	0.0009	0.0008	0.0023	0.0032	0.0004	0.0010	0.0037	0.0022	0.0010	0.0071	0.0037	0.0037	0.0015	0.0096	0.0040	0.0055	0.0013	-0.0008	0.0005	-0.0021	0.0013	-0.0005	0.0015	0.0001	0.0011	0.0003	0.0028	0.0036	0.0014	-0.0011	0.0000	0.0000	-0.0002	0.0003	0.0019	0.0012	0.0012	0.2065	0.0307	0.1448	0.1452	0.1842	0.0000	0.1292	0.1149	0.1519	-0.0118	0.1166	0.0796	0.1167	-0.0116	0.1034	0.0439	0.0844	-0.0024	0.0909	0.0155	0.0016	0.0091	-0.0004	-0.0134	0.0132	0.0093	-0.0154	-0.0049	0.0258	0.0068	-0.0287	0.0038	0.0343	0.0048	-0.0287	0.0069	0.0363	0.0032	-0.0216	0.0034	0.0028	0.0026	0.0056	0.0010	0.0021	0.0018	0.0045	0.0010	0.0015	0.0016	0.0031	0.0001	0.0065	0.0010	0.0035	0.0010	0.0081	0.0028	0.0039	0.0028	-0.0004	0.0001	-0.0022	0.0002	-0.0006	0.0006	0.0007	0.0004	0.0001	0.0018	0.0050	0.0017	-0.0010	-0.0013	0.0011	0.0007	-0.0005	0.0005	0.0021	0.0004	0.2058	0.0258	0.1172	0.1221	0.1799	-0.0025	0.0953	0.0947	0.1416	-0.0134	0.0791	0.0662	0.0999	-0.0122	0.0661	0.0388	0.0624	-0.0024	0.0567	0.0166	0.0103	0.0161	-0.0073	-0.0217	0.0243	0.0119	-0.0214	-0.0150	0.0386	0.0054	-0.0321	-0.0062	0.0475	0.0018	-0.0304	-0.0012	0.0470	0.0011	-0.0208	-0.0016	0.0047	0.0023	0.0010	0.0023	0.0031	0.0002	-0.0004	0.0012	0.0016	-0.0006	-0.0016	0.0003	0.0060	0.0010	-0.0016	0.0006	0.0079	0.0036	-0.0020	0.0013	-0.0025	-0.0004	-0.0010	0.0007	-0.0024	0.0003	0.0017	0.0011	-0.0007	0.0012	0.0048	0.0024	-0.0020	-0.0003	0.0010	0.0023	-0.0014	0.0003	0.0018	0.0018	0.2030	0.0323	0.0856	0.1014	0.1749	0.0068	0.0585	0.0795	0.1327	-0.0040	0.0400	0.0602	0.0866	-0.0050	0.0275	0.0423	0.0466	0.0025	0.0216	0.0267	0.0156	0.0154	-0.0072	-0.0213	0.0285	0.0069	-0.0198	-0.0164	0.0408	-0.0024	-0.0301	-0.0091	0.0464	-0.0058	-0.0278	-0.0032	0.0443	-0.0039	-0.0181	-0.0007	0.0053	0.0010	-0.0037	0.0023	0.0029	-0.0001	-0.0044	0.0003	0.0008	0.0006	-0.0050	-0.0001	0.0054	0.0017	-0.0041	-0.0002	0.0081	0.0049	-0.0044	-0.0015	-0.0035	-0.0009	-0.0012	0.0015	-0.0031	0.0005	0.0017	0.0025	-0.0018	0.0023	0.0045	0.0044	-0.0029	0.0007	-0.0003	0.0027	-0.0022	0.0014	0.0009	0.0035	0.1959	0.0432	0.0615	0.0870	0.1680	0.0204	0.0320	0.0705	0.1258	0.0090	0.0122	0.0584	0.0795	0.0049	0.0009	0.0482	0.0388	0.0087	-0.0021	0.0387	0.0158	0.0086	-0.0013	-0.0128	0.0245	-0.0026	-0.0129	-0.0095	0.0318	-0.0124	-0.0236	-0.0042	0.0336	-0.0151	-0.0233	0.0001	0.0298	-0.0104	-0.0164	0.0028	0.0042	-0.0001	-0.0068	0.0013	0.0015	0.0012	-0.0066	-0.0003	0.0001	0.0031	-0.0061	-0.0013	0.0056	0.0038	-0.0042	-0.0012	0.0083	0.0050	-0.0038	-0.0017	-0.0022	-0.0007	-0.0009	0.0010	-0.0011	0.0007	0.0011	0.0024	0.0005	0.0022	0.0029	0.0038	-0.0001	-0.0001	-0.0012	0.0028	0.0002	0.0008	0.0010	0.0033	0.0675	-0.1536	-0.0386	0.0270	0.0178	-0.1627	-0.0451	-0.0154	-0.0374	-0.1364	-0.0435	-0.0620	-0.0843	-0.0865	-0.0379	-0.1012	-0.1097	-0.0336	-0.0338	-0.1215	0.0184	0.0186	-0.0245	-0.0142	0.0388	0.0197	-0.0511	0.0069	0.0545	0.0213	-0.0645	0.0198	0.0592	0.0215	-0.0577	0.0170	0.0529	0.0199	-0.0329	0.0007	-0.0081	0.0066	0.0120	-0.0049	-0.0049	0.0065	0.0117	-0.0053	0.0013	0.0083	0.0115	-0.0018	0.0043	0.0077	0.0128	0.0030	0.0050	0.0056	0.0148	0.0046	-0.0033	0.0059	-0.0005	0.0023	-0.0051	0.0035	0.0011	0.0013	-0.0035	0.0047	0.0055	0.0029	-0.0028	0.0049	0.0059	0.0038	-0.0048	0.0016	0.0014	0.0024	0.0937	-0.1141	-0.0854	0.0230	0.0376	-0.1212	-0.0999	-0.0084	-0.0279	-0.0952	-0.1014	-0.0397	-0.0857	-0.0481	-0.0922	-0.0642	-0.1190	0.0015	-0.0792	-0.0748	0.0291	0.0344	-0.0417	-0.0331	0.0565	0.0284	-0.0677	-0.0164	0.0786	0.0248	-0.0756	-0.0016	0.0870	0.0226	-0.0598	0.0018	0.0786	0.0229	-0.0272	-0.0071	-0.0057	0.0080	0.0132	-0.0046	-0.0047	0.0042	0.0133	-0.0060	0.0005	0.0023	0.0132	-0.0026	0.0030	0.0023	0.0131	0.0027	0.0020	0.0045	0.0124	0.0052	-0.0057	0.0066	-0.0004	0.0033	-0.0072	0.0035	0.0016	0.0038	-0.0069	0.0037	0.0063	0.0054	-0.0059	0.0039	0.0067	0.0063	-0.0071	0.0024	0.0020	0.0035	0.1242	-0.0499	-0.1289	0.0239	0.0655	-0.0568	-0.1520	0.0081	-0.0067	-0.0361	-0.1562	-0.0032	-0.0732	0.0009	-0.1430	-0.0090	-0.1134	0.0399	-0.1207	-0.0084	0.0340	0.0340	-0.0433	-0.0371	0.0611	0.0186	-0.0659	-0.0258	0.0824	0.0088	-0.0712	-0.0112	0.0886	0.0066	-0.0525	-0.0039	0.0767	0.0130	-0.0189	-0.0054	-0.0034	0.0043	0.0045	-0.0007	-0.0041	-0.0008	0.0045	-0.0025	0.0001	-0.0023	0.0043	-0.0025	0.0037	-0.0004	0.0036	0.0011	0.0037	0.0047	0.0018	0.0035	-0.0024	0.0019	0.0018	0.0012	-0.0030	0.0001	0.0031	0.0023	-0.0025	0.0013	0.0074	0.0029	-0.0009	0.0021	0.0057	0.0037	-0.0008	0.0015	0.0008	0.0019	0.1523	0.0232	-0.1495	0.0327	0.0960	0.0154	-0.1786	0.0324	0.0238	0.0271	-0.1844	0.0402	-0.0453	0.0504	-0.1687	0.0509	-0.0888	0.0751	-0.1398	0.0598	0.0288	0.0168	-0.0283	-0.0224	0.0476	-0.0055	-0.0480	-0.0161	0.0611	-0.0192	-0.0545	-0.0049	0.0606	-0.0178	-0.0409	0.0025	0.0461	-0.0031	-0.0134	0.0046	-0.0034	0.0004	-0.0072	0.0007	-0.0052	-0.0019	-0.0055	-0.0002	-0.0006	-0.0008	-0.0047	-0.0016	0.0055	0.0020	-0.0045	-0.0002	0.0081	0.0052	-0.0061	0.0020	-0.0002	-0.0000	0.0025	0.0016	-0.0008	-0.0004	0.0026	0.0016	0.0006	0.0010	0.0064	0.0028	0.0014	0.0023	0.0039	0.0026	0.0013	0.0021	-0.0004	0.0018	0.1717	0.0879	-0.1342	0.0525	0.1244	0.0785	-0.1640	0.0620	0.0602	0.0811	-0.1704	0.0809	-0.0029	0.0909	-0.1553	0.0999	-0.0448	0.1018	-0.1259	0.1123	0.0152	-0.0053	-0.0045	0.0043	0.0222	-0.0299	-0.0225	0.0064	0.0245	-0.0434	-0.0340	0.0124	0.0175	-0.0379	-0.0295	0.0163	0.0031	-0.0169	-0.0120	0.0175	-0.0064	-0.0014	-0.0097	-0.0016	-0.0087	0.0022	-0.0064	-0.0009	-0.0032	0.0059	-0.0035	-0.0011	0.0062	0.0075	-0.0018	-0.0003	0.0118	0.0051	-0.0024	0.0021	-0.0019	0.0029	0.0012	0.0039	-0.0012	0.0024	0.0001	0.0040	0.0003	0.0024	0.0032	0.0055	-0.0001	0.0017	0.0021	0.0052	-0.0010	0.0020	0.0004	0.0038	-0.0417	0.0868	-0.1336	-0.0287	-0.0348	0.0980	-0.1372	-0.0013	-0.0256	0.0943	-0.1362	0.0321	-0.0178	0.0802	-0.1288	0.0634	-0.0124	0.0641	-0.1153	0.0837	0.0185	0.0154	-0.0131	-0.0136	0.0153	0.0115	-0.0000	-0.0223	0.0124	0.0084	0.0099	-0.0254	0.0096	0.0067	0.0144	-0.0207	0.0083	0.0079	0.0129	-0.0095	0.0024	0.0013	0.0014	-0.0011	-0.0007	-0.0013	0.0024	-0.0017	-0.0035	-0.0021	0.0025	-0.0009	-0.0066	-0.0030	0.0012	0.0012	-0.0091	-0.0019	-0.0022	0.0019	0.0003	0.0008	0.0004	-0.0004	-0.0016	-0.0015	-0.0009	0.0008	-0.0021	-0.0022	-0.0016	0.0009	-0.0012	-0.0002	-0.0013	0.0005	-0.0021	-0.0007	-0.0007	0.0003	-0.0230	0.1358	-0.1121	0.0075	-0.0087	0.1439	-0.1127	0.0381	0.0089	0.1341	-0.1106	0.0716	0.0238	0.1116	-0.1040	0.1010	0.0327	0.0869	-0.0932	0.1184	0.0065	0.0010	0.0026	0.0022	-0.0026	-0.0010	0.0166	-0.0056	-0.0115	-0.0019	0.0239	-0.0100	-0.0173	-0.0018	0.0229	-0.0083	-0.0177	0.0009	0.0153	0.0011	0.0015	-0.0012	-0.0020	-0.0012	-0.0017	-0.0006	-0.0006	-0.0015	-0.0036	-0.0000	-0.0001	-0.0011	-0.0049	-0.0004	0.0004	0.0007	-0.0064	-0.0012	-0.0003	0.0007	-0.0012	0.0005	0.0004	0.0012	-0.0012	0.0006	-0.0016	0.0010	-0.0014	-0.0003	-0.0037	0.0002	-0.0005	0.0006	-0.0035	0.0003	0.0001	0.0015	-0.0018	0.0007	-0.0063	0.1662	-0.0681	0.0443	0.0151	0.1710	-0.0634	0.0738	0.0422	0.1573	-0.0601	0.1015	0.0659	0.1295	-0.0560	0.1235	0.0791	0.0999	-0.0501	0.1354	-0.0093	-0.0116	0.0165	0.0184	-0.0239	-0.0092	0.0285	0.0110	-0.0358	-0.0064	0.0329	0.0058	-0.0414	-0.0051	0.0283	0.0041	-0.0393	-0.0033	0.0149	0.0092	-0.0001	-0.0013	0.0016	-0.0029	-0.0028	0.0003	0.0025	-0.0006	-0.0035	0.0008	0.0030	-0.0001	-0.0028	-0.0004	0.0038	0.0017	-0.0042	-0.0027	0.0034	0.0029	0.0013	-0.0003	-0.0000	0.0008	0.0026	0.0002	-0.0013	-0.0009	0.0012	-0.0016	-0.0037	-0.0025	0.0017	-0.0019	-0.0036	-0.0018	0.0038	0.0007	0.0001	-0.0014	0.0080	0.1760	-0.0085	0.0758	0.0370	0.1777	0.0014	0.0991	0.0721	0.1625	0.0051	0.1176	0.1031	0.1340	0.0048	0.1291	0.1203	0.1034	0.0036	0.1341	-0.0229	-0.0159	0.0230	0.0261	-0.0376	-0.0099	0.0338	0.0200	-0.0485	-0.0043	0.0363	0.0153	-0.0522	-0.0028	0.0300	0.0117	-0.0470	-0.0045	0.0141	0.0128	-0.0009	-0.0018	0.0060	-0.0035	-0.0022	-0.0003	0.0055	-0.0006	-0.0028	-0.0007	0.0058	0.0008	-0.0019	-0.0022	0.0064	0.0024	-0.0029	-0.0043	0.0054	0.0050	0.0044	-0.0008	-0.0008	-0.0028	0.0052	-0.0012	-0.0012	-0.0020	0.0035	-0.0030	-0.0022	-0.0041	0.0029	-0.0036	-0.0028	-0.0048	0.0046	-0.0005	0.0014	-0.0030	0.0217	0.1706	0.0508	0.0979	0.0555	0.1702	0.0632	0.1137	0.0951	0.1556	0.0670	0.1220	0.1300	0.1296	0.0622	0.1243	0.1499	0.1016	0.0528	0.1225	-0.0274	-0.0118	0.0210	0.0223	-0.0388	-0.0021	0.0312	0.0191	-0.0459	0.0036	0.0336	0.0152	-0.0461	0.0042	0.0281	0.0117	-0.0390	-0.0006	0.0134	0.0122	-0.0005	-0.0008	0.0094	-0.0027	-0.0009	-0.0017	0.0092	-0.0005	-0.0024	-0.0030	0.0083	0.0001	-0.0024	-0.0034	0.0084	0.0022	-0.0030	-0.0042	0.0081	0.0042	0.0028	-0.0010	-0.0018	-0.0020	0.0025	0.0000	-0.0009	-0.0019	0.0014	-0.0019	-0.0012	-0.0031	-0.0003	-0.0028	-0.0027	-0.0046	0.0009	0.0011	0.0012	-0.0031	-0.1411	0.0331	-0.1414	0.0238	-0.1166	0.0142	-0.1103	0.0451	-0.0771	0.0023	-0.0840	0.0434	-0.0377	0.0036	-0.0634	0.0223	-0.0122	0.0151	-0.0478	-0.0045	-0.0252	-0.0900	0.1095	0.0694	-0.0742	-0.0708	0.1098	0.0826	-0.1187	-0.0426	0.0677	0.0945	-0.1438	-0.0239	0.0076	0.0927	-0.1427	-0.0223	-0.0376	0.0687	-0.0103	-0.0187	-0.0223	0.0156	-0.0157	0.0166	-0.0394	0.0111	-0.0158	0.0381	-0.0513	0.0051	0.0008	0.0312	-0.0453	0.0031	0.0255	0.0054	-0.0221	-0.0001	-0.0117	-0.0056	0.0106	0.0004	-0.0110	0.0010	0.0114	-0.0115	-0.0043	0.0068	0.0001	-0.0117	0.0042	0.0122	-0.0155	-0.0035	0.0107	0.0207	-0.0199	0.0062	-0.1200	-0.0282	-0.0485	0.0891	-0.0895	-0.0518	-0.0093	0.0776	-0.0465	-0.0479	0.0188	0.0323	-0.0062	-0.0193	0.0340	-0.0281	0.0172	0.0199	0.0362	-0.0756	-0.0552	-0.0619	0.1011	0.0695	-0.0928	-0.0181	0.0774	0.0987	-0.1177	0.0174	0.0216	0.1185	-0.1194	0.0231	-0.0329	0.1095	-0.1030	0.0041	-0.0597	0.0660	-0.0214	0.0116	0.0378	-0.0179	-0.0277	0.0356	0.0266	-0.0170	-0.0273	0.0373	0.0210	-0.0023	-0.0094	0.0187	0.0300	0.0166	0.0139	-0.0031	0.0474	0.0232	-0.0104	0.0154	-0.0046	0.0034	-0.0136	0.0086	0.0024	0.0029	-0.0121	0.0059	-0.0016	0.0049	-0.0104	0.0072	-0.0084	0.0069	-0.0115	0.0108	-0.0020	0.0040	-0.0731	-0.0599	0.0126	0.1249	-0.0419	-0.0823	0.0466	0.0906	-0.0070	-0.0644	0.0698	0.0234	0.0192	-0.0157	0.0784	-0.0508	0.0296	0.0410	0.0713	-0.0998	-0.0549	0.0211	0.0336	0.0020	-0.0540	0.0713	0.0016	0.0364	-0.0327	0.0929	-0.0410	0.0657	0.0002	0.0758	-0.0635	0.0660	0.0265	0.0369	-0.0527	0.0311	-0.0120	0.0301	0.0727	-0.0331	-0.0227	0.0209	0.0668	-0.0302	-0.0289	0.0011	0.0641	-0.0077	-0.0192	-0.0132	0.0702	0.0186	-0.0043	-0.0109	0.0764	0.0316	0.0087	0.0140	-0.0115	-0.0041	0.0055	0.0013	-0.0001	0.0027	0.0018	-0.0042	0.0035	0.0029	-0.0031	-0.0035	0.0023	-0.0046	-0.0087	-0.0039	0.0107	-0.0118	-0.0009	-0.0417	0.0088	0.1199	0.0203	-0.0581	0.0252	0.0841	0.0312	-0.0337	0.0386	0.0277	0.0273	0.0201	0.0457	-0.0268	0.0153	0.0791	0.0418	-0.0579	-0.0324	0.0904	-0.0371	-0.0759	0.0077	0.1219	-0.0681	-0.0485	0.0687	0.1162	-0.0866	-0.0152	0.1234	0.0817	-0.0739	-0.0000	0.1446	0.0429	-0.0301	-0.0107	0.0089	0.0228	0.0422	-0.0115	-0.0059	-0.0122	0.0345	-0.0136	-0.0159	-0.0394	0.0308	-0.0051	-0.0124	-0.0374	0.0335	0.0075	-0.0061	-0.0094	0.0346	0.0125	0.0124	-0.0053	-0.0003	-0.0099	0.0107	-0.0068	0.0087	-0.0070	0.0081	-0.0033	0.0078	-0.0098	0.0057	0.0008	0.0037	-0.0160	0.0042	-0.0015	0.0055	-0.0162	0.0783	0.0153	-0.0491	0.0861	0.0815	0.0054	-0.0551	0.0664	0.0584	0.0287	-0.0504	0.0451	0.0184	0.0745	-0.0383	0.0311	-0.0176	0.1226	-0.0265	0.0287	-0.0110	0.0985	-0.0575	-0.0944	0.0433	0.0939	-0.0855	-0.0798	0.1093	0.0632	-0.0936	-0.0534	0.1568	0.0294	-0.0671	-0.0318	0.1604	0.0140	-0.0128	-0.0242	0.0186	0.0004	-0.0139	0.0205	0.0028	-0.0338	-0.0254	0.0126	-0.0045	-0.0486	-0.0298	0.0023	0.0029	-0.0319	-0.0278	-0.0051	0.0093	0.0014	-0.0252	-0.0105	-0.0081	-0.0165	0.0146	-0.0055	-0.0076	-0.0028	0.0164	-0.0067	-0.0063	0.0098	0.0068	-0.0103	-0.0023	0.0140	-0.0033	-0.0091	0.0046	0.0102	-0.0071	-0.0001	-0.0355	0.0394	0.0778	-0.0552	0.0402	-0.0332	0.0523	-0.0123	0.0867	-0.0913	0.0269	0.0222	0.0852	-0.1046	0.0121	0.0228	0.0392	-0.0708	0.0086	-0.0156	-0.0762	0.0073	0.0916	-0.0662	-0.0901	0.0185	0.0724	-0.0909	-0.0615	0.0258	-0.0058	-0.0532	-0.0030	0.0253	-0.0838	0.0083	0.0481	0.0218	-0.1071	0.0368	0.0318	0.0150	0.0128	0.0082	-0.0148	0.0121	0.0080	-0.0221	-0.0436	0.0031	-0.0016	-0.0405	-0.0226	-0.0048	0.0020	-0.0292	0.0173	-0.0054	0.0173	-0.0052	0.0079	0.0150	-0.0116	-0.0047	0.0014	0.0122	0.0020	-0.0045	-0.0062	0.0001	-0.0020	-0.0057	-0.0063	-0.0037	-0.0113	-0.0009	-0.0013	0.0050	-0.0077	0.0061	-0.0565	0.0337	0.0882	-0.1007	0.0392	-0.0125	0.0478	-0.0777	0.1014	-0.0497	0.0053	-0.0451	0.1027	-0.0513	-0.0252	-0.0232	0.0476	-0.0163	-0.0402	-0.0238	-0.0734	0.0474	0.0777	-0.0519	-0.0900	0.0623	0.0505	-0.0914	-0.0572	0.0502	-0.0329	-0.0760	0.0125	0.0241	-0.1073	-0.0315	0.0762	0.0070	-0.1164	-0.0050	0.0371	0.0357	0.0063	0.0058	-0.0120	0.0289	0.0011	-0.0153	-0.0424	0.0017	-0.0017	-0.0311	-0.0212	-0.0207	0.0086	-0.0274	0.0187	-0.0223	0.0229	-0.0121	-0.0000	0.0152	-0.0066	-0.0109	-0.0002	0.0116	0.0002	-0.0028	-0.0055	-0.0010	-0.0062	0.0022	-0.0089	-0.0047	-0.0108	0.0030	-0.0069	0.0011	-0.0022	0.0040	-0.0836	0.0399	0.0807	-0.1397	0.0264	0.0294	0.0303	-0.1361	0.1032	0.0181	-0.0237	-0.1043	0.1118	0.0262	-0.0644	-0.0582	0.0550	0.0555	-0.0873	-0.0152	-0.0497	0.0869	0.0595	-0.0318	-0.0652	0.0979	0.0397	-0.0737	-0.0336	0.0586	-0.0321	-0.0770	0.0306	0.0008	-0.0949	-0.0539	0.0845	-0.0294	-0.0967	-0.0333	0.0389	0.0362	0.0004	-0.0005	-0.0129	0.0231	-0.0081	-0.0035	-0.0465	-0.0081	-0.0068	-0.0089	-0.0266	-0.0279	0.0055	-0.0138	0.0137	-0.0234	0.0152	-0.0138	-0.0063	0.0037	0.0029	-0.0061	-0.0022	0.0023	0.0043	0.0030	-0.0055	-0.0038	-0.0055	0.0034	-0.0099	-0.0067	-0.0073	-0.0020	-0.0099	-0.0044	0.0038	-0.0039	-0.1180	0.0537	0.0570	-0.1564	-0.0033	0.0764	0.0088	-0.1639	0.0837	0.0888	-0.0428	-0.1328	0.1042	0.1034	-0.0827	-0.0693	0.0589	0.1236	-0.1065	0.0059	-0.0138	0.1070	0.0453	-0.0112	-0.0245	0.1089	0.0469	-0.0400	-0.0020	0.0458	-0.0018	-0.0526	0.0389	-0.0344	-0.0509	-0.0476	0.0640	-0.0704	-0.0556	-0.0348	0.0363	0.0127	-0.0089	-0.0078	-0.0164	-0.0010	-0.0212	0.0034	-0.0529	-0.0172	-0.0185	0.0074	-0.0366	-0.0180	-0.0051	-0.0027	0.0039	-0.0043	0.0034	-0.0158	-0.0099	-0.0094	0.0151	-0.0030	-0.0033	-0.0013	0.0093	0.0029	-0.0020	0.0011	-0.0070	-0.0006	-0.0064	-0.0047	-0.0096	-0.0064	-0.0086	-0.0092	0.0029	-0.0057	-0.1557	0.0673	0.0256	-0.1449	-0.0498	0.1131	-0.0049	-0.1519	0.0405	0.1410	-0.0383	-0.1211	0.0770	0.1587	-0.0650	-0.0525	0.0571	0.1692	-0.0816	0.0338	0.0186	0.0960	0.0364	0.0065	0.0095	0.0909	0.0606	-0.0032	0.0170	0.0212	0.0385	-0.0155	0.0281	-0.0597	0.0028	-0.0207	0.0219	-0.0915	-0.0102	-0.0153	0.0293	-0.0140	-0.0208	-0.0149	-0.0188	-0.0234	-0.0326	-0.0017	-0.0542	-0.0188	-0.0275	0.0064	-0.0442	0.0012	-0.0113	-0.0021	-0.0079	0.0197	-0.0002	-0.0158	-0.0130	-0.0094	0.0207	-0.0024	-0.0030	0.0077	0.0070	0.0013	0.0034	0.0122	-0.0145	0.0003	0.0002	0.0001	-0.0171	-0.0020	-0.0032	-0.0132	-0.0032	0.0006	-0.0132	-0.0071	-0.1262	0.0410	-0.0340	-0.0484	-0.0967	0.0999	-0.0744	-0.0277	-0.0377	0.1277	-0.1127	0.0508	0.0392	0.1112	-0.1236	0.1498	0.1144	0.0625	-0.0125	-0.0126	0.0268	-0.1071	0.0094	-0.0219	-0.0128	-0.0705	0.0475	-0.0122	-0.0672	0.0152	0.0747	0.0083	-0.0864	0.0867	0.0639	0.0253	-0.0441	0.0864	-0.0038	-0.0076	0.0081	0.0079	-0.0415	-0.0175	-0.0038	-0.0212	-0.0504	-0.0170	-0.0209	-0.0317	-0.0129	-0.0046	-0.0230	-0.0058	0.0283	0.0103	-0.0103	0.0268	0.0137	0.0107	-0.0051	0.0071	0.0065	0.0031	0.0150	0.0041	-0.0020	-0.0097	0.0131	-0.0040	0.0021	-0.0056	-0.0035	-0.0066	0.0128	0.0088	-0.0120	-0.0008	0.0229	0.0119	-0.1152	0.0235	0.0150	-0.0426	-0.1012	0.0812	-0.0305	-0.0379	-0.0518	0.1216	-0.0893	0.0270	0.0231	0.1228	-0.1284	0.1195	0.1019	0.0860	-0.0674	-0.0270	0.0565	-0.0745	-0.0568	-0.0426	-0.0060	-0.0648	-0.0155	-0.0458	-0.0877	0.0005	0.0314	-0.0302	-0.1209	0.0686	0.0458	0.0007	-0.0728	0.0794	0.0057	0.0100	-0.0201	0.0236	-0.0349	-0.0009	-0.0290	-0.0053	-0.0437	-0.0177	-0.0383	-0.0268	0.0026	-0.0225	-0.0332	-0.0175	0.0506	-0.0120	-0.0182	0.0085	0.0156	0.0071	-0.0020	-0.0035	0.0157	0.0051	0.0127	-0.0001	0.0088	-0.0050	0.0073	-0.0038	0.0078	-0.0036	-0.0063	-0.0061	0.0143	0.0105	-0.0090	-0.0012	0.0428	-0.0006	-0.0591	-0.0138	0.0555	-0.0524	-0.0643	0.0229	0.0163	-0.0522	-0.0334	0.0621	-0.0554	0.0038	0.0269	0.0823	-0.1199	0.0878	0.0963	0.0721	-0.1080	-0.0270	0.0884	-0.0124	-0.1113	-0.0493	0.0104	-0.0258	-0.0752	-0.0754	-0.0932	0.0065	-0.0211	-0.0772	-0.1437	0.0526	0.0101	-0.0410	-0.1000	0.0630	0.0063	0.0226	-0.0243	0.0283	-0.0359	0.0144	-0.0320	0.0153	-0.0447	-0.0105	-0.0348	-0.0057	0.0077	-0.0266	-0.0250	-0.0132	0.0650	-0.0228	-0.0128	-0.0045	0.0059	0.0024	0.0030	-0.0036	0.0116	0.0064	0.0124	0.0033	0.0061	-0.0004	0.0049	-0.0001	-0.0003	-0.0021	-0.0036	-0.0064	0.0034	0.0085	0.0000	-0.0028	0.0411	-0.0394	0.0214	-0.0559	0.0754	-0.0769	-0.0005	-0.0509	0.0499	-0.0710	0.0090	-0.0238	-0.0230	-0.0185	0.0478	0.0087	-0.1036	0.0584	0.0986	0.0276	-0.1073	0.0002	0.1039	0.0367	-0.1160	-0.0285	0.0291	0.0155	-0.0877	-0.0799	-0.0798	0.0207	-0.0402	-0.1076	-0.1426	0.0403	-0.0121	-0.0769	-0.1128	0.0428	0.0025	0.0205	-0.0027	0.0125	-0.0436	0.0171	-0.0084	0.0214	-0.0581	-0.0005	-0.0058	0.0154	-0.0056	-0.0126	0.0053	0.0015	0.0598	-0.0135	0.0115	-0.0051	0.0003	0.0008	0.0040	0.0023	0.0085	0.0075	0.0102	0.0099	0.0021	0.0016	0.0034	0.0032	-0.0095	-0.0076	0.0016	-0.0071	-0.0105	-0.0028	0.0121	-0.0068	0.0159	-0.0850	0.0872	-0.0878	0.0647	-0.1037	0.0571	-0.1108	0.0554	-0.0885	0.0514	-0.0997	-0.0079	-0.0376	0.0710	-0.0631	-0.0896	0.0314	0.1030	-0.0235	-0.0682	0.0444	0.0885	0.0418	-0.0688	0.0136	0.0352	0.0274	-0.0442	-0.0562	-0.0561	0.0205	-0.0110	-0.1070	-0.1174	0.0229	0.0005	-0.0913	-0.1019	0.0197	0.0021	0.0052	0.0173	-0.0088	-0.0459	0.0061	0.0143	0.0115	-0.0687	0.0037	0.0205	0.0206	-0.0268	0.0048	0.0322	0.0120	0.0375	0.0050	0.0337	0.0007	0.0050	0.0016	0.0040	-0.0008	0.0139	0.0103	0.0052	0.0073	0.0096	0.0029	-0.0011	0.0029	-0.0049	-0.0149	0.0028	-0.0069	-0.0137	-0.0200	0.0187	-0.0091	0.1812	-0.0287	-0.0563	0.0331	0.1475	-0.0180	-0.1047	-0.0198	0.0912	0.0112	-0.1464	-0.0595	0.0275	0.0398	-0.1789	-0.0704	-0.0266	0.0543	-0.1992	-0.0444	-0.0427	-0.0030	-0.0054	0.0654	-0.0299	-0.0082	-0.0544	0.0692	-0.0193	-0.0210	-0.0745	0.0420	-0.0140	-0.0311	-0.0623	-0.0032	-0.0080	-0.0307	-0.0353	-0.0359	-0.0061	0.0115	-0.0448	-0.0041	0.0142	0.0152	-0.0422	0.0034	0.0358	0.0102	-0.0275	0.0080	0.0406	-0.0008	-0.0126	-0.0027	0.0278	-0.0116	-0.0048	-0.0172	-0.0023	-0.0107	0.0125	-0.0159	0.0057	-0.0032	0.0002	-0.0136	0.0150	0.0093	-0.0028	-0.0040	0.0151	0.0112	-0.0000	0.0028	0.0084	0.0050	0.0022	0.0052	0.1684	-0.0498	0.0123	-0.0004	0.1341	-0.0107	-0.0329	-0.0602	0.0830	0.0456	-0.0763	-0.1009	0.0312	0.0921	-0.1152	-0.1036	-0.0058	0.1111	-0.1449	-0.0601	-0.0402	-0.0163	-0.0072	0.1032	-0.0280	-0.0303	-0.0490	0.1143	-0.0267	-0.0484	-0.0562	0.0849	-0.0390	-0.0601	-0.0339	0.0291	-0.0522	-0.0591	-0.0072	-0.0174	-0.0196	0.0007	-0.0304	-0.0130	0.0044	0.0054	-0.0272	0.0015	0.0310	0.0086	-0.0139	0.0112	0.0361	0.0058	-0.0027	0.0032	0.0223	-0.0019	0.0011	-0.0113	-0.0049	-0.0094	0.0140	-0.0068	-0.0018	-0.0052	0.0027	-0.0065	0.0057	0.0067	0.0032	-0.0010	0.0058	0.0088	0.0071	0.0030	0.0006	0.0030	0.0057	0.0032	0.1361	-0.0818	0.0746	-0.0286	0.0965	-0.0222	0.0419	-0.0868	0.0480	0.0542	0.0083	-0.1237	0.0105	0.1158	-0.0267	-0.1219	-0.0014	0.1411	-0.0591	-0.0743	-0.0107	-0.0142	-0.0241	0.1017	0.0066	-0.0369	-0.0493	0.1238	0.0016	-0.0566	-0.0367	0.1035	-0.0279	-0.0637	-0.0010	0.0526	-0.0631	-0.0599	0.0275	0.0047	-0.0310	-0.0104	-0.0055	-0.0250	-0.0065	-0.0059	0.0027	-0.0124	0.0191	0.0060	0.0153	0.0006	0.0204	0.0146	0.0224	0.0019	0.0061	0.0125	0.0220	-0.0041	-0.0009	-0.0004	0.0079	0.0005	-0.0002	-0.0014	-0.0013	-0.0001	0.0045	0.0043	0.0054	0.0032	0.0032	0.0023	0.0117	0.0035	-0.0015	-0.0060	0.0077	-0.0000	0.0916	-0.1075	0.0991	-0.0456	0.0399	-0.0390	0.0868	-0.0890	-0.0094	0.0456	0.0734	-0.1147	-0.0330	0.1145	0.0545	-0.1110	-0.0175	0.1445	0.0312	-0.0709	0.0311	-0.0064	-0.0528	0.0624	0.0545	-0.0339	-0.0615	0.0895	0.0484	-0.0466	-0.0290	0.0839	0.0099	-0.0420	0.0220	0.0503	-0.0385	-0.0327	0.0557	0.0132	-0.0341	-0.0172	0.0097	-0.0253	-0.0109	-0.0141	0.0213	-0.0209	0.0119	0.0023	0.0319	-0.0131	0.0086	0.0172	0.0340	-0.0073	-0.0080	0.0204	0.0302	-0.0012	0.0083	0.0055	0.0016	0.0012	0.0083	0.0017	-0.0043	-0.0014	0.0101	0.0019	0.0066	-0.0001	0.0092	-0.0041	0.0117	0.0002	0.0050	-0.0123	0.0049	-0.0017	0.0478	-0.1154	0.0752	-0.0535	-0.0181	-0.0498	0.0835	-0.0731	-0.0722	0.0304	0.0942	-0.0806	-0.0871	0.0973	0.0988	-0.0737	-0.0500	0.1286	0.0934	-0.0480	0.0669	-0.0062	-0.0771	0.0109	0.0918	-0.0342	-0.0761	0.0347	0.0854	-0.0350	-0.0327	0.0409	0.0459	-0.0139	0.0272	0.0276	-0.0044	0.0045	0.0679	0.0079	-0.0304	-0.0166	0.0035	-0.0119	-0.0080	-0.0127	0.0148	-0.0170	0.0129	0.0026	0.0218	-0.0192	0.0076	0.0150	0.0197	-0.0152	-0.0101	0.0168	0.0158	-0.0050	0.0078	0.0091	-0.0019	0.0032	0.0062	0.0041	-0.0049	-0.0013	0.0082	0.0012	0.0067	-0.0004	0.0101	-0.0041	0.0081	0.0017	0.0092	-0.0088	-0.0028	0.0002	-0.0542	-0.0284	-0.0785	0.0042	-0.0223	-0.0268	-0.0773	-0.0034	-0.0063	0.0040	-0.0732	-0.0259	-0.0105	0.0418	-0.0687	-0.0495	-0.0263	0.0618	-0.0676	-0.0538	-0.1152	-0.0386	0.0889	0.0820	-0.1314	-0.0139	0.0209	0.1115	-0.1213	-0.0156	-0.0413	0.1314	-0.0992	-0.0386	-0.0479	0.1129	-0.0858	-0.0586	-0.0042	0.0583	-0.0272	0.0417	0.0314	-0.0453	-0.0451	0.0393	0.0299	-0.0414	-0.0267	0.0071	0.0425	-0.0104	0.0148	-0.0262	0.0647	0.0256	0.0315	-0.0338	0.0745	0.0403	-0.0322	0.0427	-0.0070	0.0150	-0.0331	0.0244	-0.0085	0.0348	-0.0339	0.0047	-0.0173	0.0486	-0.0361	-0.0010	-0.0086	0.0449	-0.0401	0.0030	0.0198	0.0222	-0.0214	0.0014	0.0020	-0.0012	0.0188	0.0076	-0.0000	-0.0082	0.0334	0.0251	0.0032	-0.0133	0.0215	0.0387	0.0068	-0.0108	0.0004	0.0351	0.0050	0.0009	-0.0902	0.0757	-0.0014	0.0085	-0.0630	0.0760	-0.0394	0.0248	-0.0094	0.0317	-0.0471	0.0442	0.0356	-0.0189	-0.0049	0.0481	0.0408	-0.0387	0.0591	0.0359	-0.0197	0.0453	0.1093	-0.0648	-0.0452	-0.0096	0.1222	-0.0404	-0.0429	-0.0635	0.1370	-0.0003	-0.0218	-0.0686	0.1401	0.0324	-0.0166	-0.0236	0.1147	0.0452	0.0213	0.0228	-0.0191	0.0094	0.0241	-0.0069	-0.0126	0.0342	0.0114	-0.0301	-0.0024	0.0288	-0.0086	-0.0351	0.0234	-0.0048	-0.0200	-0.0309	0.0494	-0.0382	0.0099	0.0416	0.0368	-0.0257	0.0464	0.0391	0.0319	-0.0138	0.0493	0.0272	0.0380	0.0159	0.0252	0.0049	0.0473	0.0510	-0.0014	-0.0249	0.0514	0.0711	-0.0265	0.1203	-0.0515	-0.0798	0.0295	0.0767	-0.0465	-0.0808	0.0973	-0.0005	-0.0119	-0.0638	0.1343	-0.0485	0.0464	-0.0335	0.1140	-0.0377	0.0970	0.0030	0.0121	-0.0129	0.0319	-0.0004	-0.0159	-0.0818	0.0356	0.0150	-0.0248	-0.1065	0.0408	0.0148	-0.0164	-0.0609	0.0322	0.0011	-0.0144	0.0147	0.0042	-0.0074	0.0539	-0.0370	0.0086	-0.0111	0.0596	-0.0334	0.0077	-0.0091	0.0481	-0.0263	0.0078	-0.0323	0.0333	-0.0228	0.0182	-0.0576	0.0311	-0.0241	0.0220	-0.0557	0.0175	0.0518	0.0175	-0.0636	0.0389	0.0347	0.0132	-0.0291	0.0248	-0.0057	0.0253	0.0311	-0.0093	-0.0568	0.0436	0.0856	-0.0358	-0.1026	0.0588	0.1009	0.0117	0.0476	-0.0058	-0.0681	0.0486	-0.0269	0.0157	-0.0835	0.0769	-0.0982	0.0415	-0.0814	0.0720	-0.1069	0.0652	-0.0506	0.0311	-0.0490	0.0733	0.0015	0.0229	-0.0657	-0.0866	0.0615	0.0005	-0.0860	-0.0913	0.0547	-0.0022	-0.0550	-0.0882	0.0159	0.0130	0.0061	-0.0910	-0.0335	0.0226	0.0466	-0.0978	-0.0549	0.0033	-0.0384	0.0287	-0.0024	0.0079	0.0018	0.0095	-0.0179	0.0081	0.0236	-0.0095	-0.0339	0.0129	0.0168	-0.0152	-0.0262	0.0260	0.0038	-0.0192	0.0044	-0.0110	0.0239	-0.0106	-0.0881	-0.0031	-0.0056	-0.0091	-0.0433	-0.0203	-0.0617	0.0062	0.0202	-0.0467	-0.1252	0.0266	0.0670	-0.0623	-0.1735	0.0452	0.0661	-0.0026	-0.0545	0.0771	0.0285	-0.0162	-0.1182	0.0852	0.0032	-0.0458	-0.1471	0.0708	-0.0172	-0.0852	-0.1108	0.0426	-0.0094	-0.1147	-0.0305	0.0087	0.0244	-0.0022	-0.0541	-0.0779	0.0402	-0.0136	-0.0162	-0.0711	0.0334	-0.0042	0.0388	-0.0607	0.0031	0.0202	0.0630	-0.0558	-0.0309	0.0369	0.0352	-0.0527	-0.0392	-0.0355	0.0155	0.0065	0.0138	-0.0303	0.0448	-0.0165	0.0047	-0.0253	0.0396	-0.0292	0.0080	-0.0193	0.0124	-0.0244	0.0287	-0.0113	0.0013	-0.0141	0.0447	-0.1597	0.0181	-0.0478	0.1394	-0.1425	0.0181	0.0080	0.1145	-0.0747	-0.0048	0.0368	0.0548	0.0140	-0.0449	0.0398	-0.0042	0.0813	-0.0822	0.0246	-0.0388	0.0482	-0.0174	0.0017	0.0302	0.0089	0.0595	0.0338	0.0391	-0.0420	0.1189	0.0525	0.0063	-0.0655	0.1235	0.0321	-0.0348	-0.0365	0.0809	-0.0194	-0.0469	-0.0077	0.0209	0.0256	-0.0264	0.0243	0.0636	0.0291	-0.0121	0.0219	0.0653	0.0374	0.0059	-0.0136	0.0222	0.0491	0.0097	-0.0395	-0.0243	0.0605	0.0012	-0.0157	0.0176	-0.0108	-0.0180	-0.0103	0.0207	-0.0226	-0.0146	0.0037	0.0225	-0.0254	0.0119	0.0046	0.0165	-0.0201	0.0300	-0.0129	0.0022	-0.0075	0.0202	-0.1011	0.0105	-0.0512	0.1807	-0.0906	0.0224	-0.0071	0.1353	-0.0344	0.0246	0.0093	0.0474	0.0411	0.0078	0.0009	-0.0294	0.0969	-0.0202	-0.0240	-0.0569	-0.0060	0.0056	-0.0556	0.0036	-0.0137	0.1043	-0.0492	0.0230	-0.0219	0.1667	-0.0193	-0.0095	-0.0087	0.1535	-0.0027	-0.0678	0.0395	0.0847	-0.0141	-0.0983	0.0052	0.0408	0.0025	-0.0314	0.0523	0.0471	0.0009	-0.0151	0.0587	0.0185	0.0102	0.0151	0.0139	-0.0252	0.0247	0.0259	-0.0329	-0.0478	0.0346	0.0090	0.0069	-0.0071	-0.0027	-0.0345	0.0156	-0.0121	-0.0123	-0.0239	0.0323	0.0013	-0.0150	0.0001	0.0327	0.0131	-0.0094	0.0068	0.0131	0.0023	-0.0007	-0.0079	-0.0259	-0.0129	-0.0354	0.1545	-0.0283	0.0178	-0.0124	0.0949	-0.0000	0.0488	-0.0133	0.0013	0.0466	0.0576	-0.0349	-0.0686	0.0838	0.0405	-0.0676	-0.0747	-0.0613	-0.0061	-0.0828	0.0165	-0.0400	0.0728	-0.0924	0.0443	-0.0186	0.1154	-0.0479	0.0139	0.0070	0.0925	0.0014	-0.0544	0.0427	0.0251	0.0168	-0.1012	0.0114	0.0240	-0.0518	-0.0002	0.0704	-0.0025	-0.0656	0.0120	0.0899	-0.0360	-0.0645	0.0356	0.0475	-0.0512	-0.0566	0.0342	-0.0091	-0.0398	-0.0500	0.0010	0.0031	-0.0447	0.0210	-0.0269	0.0071	-0.0409	0.0130	-0.0239	0.0225	-0.0042	0.0058	-0.0157	0.0310	0.0267	0.0019	-0.0150	0.0243	0.0196	-0.0062	-0.0171	0.0404	-0.0617	-0.0015	0.0816	0.0155	-0.0145	0.0039	0.0199	0.0051	0.0411	-0.0087	-0.0602	0.0169	0.0744	-0.0369	-0.1112	0.0394	0.0724	-0.0716	-0.0990	-0.0865	-0.0424	-0.0662	0.0697	-0.0530	-0.0112	-0.0838	0.1069	-0.0313	0.0072	-0.0323	0.0853	-0.0275	-0.0057	0.0311	0.0180	-0.0308	-0.0439	0.0530	-0.0407	-0.0083	-0.0082	-0.0613	0.0190	0.0521	-0.0403	-0.0766	0.0255	0.0862	-0.0511	-0.0802	0.0364	0.0581	-0.0325	-0.0814	0.0262	0.0054	-0.0052	-0.0792	-0.0061	-0.0215	-0.0489	0.0322	0.0005	-0.0290	-0.0336	0.0257	-0.0085	-0.0197	0.0108	0.0174	-0.0124	-0.0038	0.0419	0.0082	-0.0068	0.0040	0.0335	-0.0111	0.0041	0.0769	-0.1170	0.0428	0.0054	0.0265	-0.0626	0.0431	-0.0435	-0.0202	0.0063	0.0318	-0.0985	-0.0360	0.0564	0.0081	-0.1299	-0.0159	0.0701	-0.0209	-0.1145	-0.0635	-0.0593	-0.0440	0.1024	-0.0282	-0.0745	-0.0631	0.1452	-0.0219	-0.0673	-0.0123	0.1386	-0.0517	-0.0541	0.0538	0.0870	-0.0937	-0.0543	0.0752	0.0295	-0.0431	-0.0283	-0.0038	0.0008	0.0084	-0.0424	-0.0029	0.0012	0.0519	-0.0257	-0.0015	0.0056	0.0396	0.0046	-0.0081	0.0069	-0.0047	0.0233	-0.0141	0.0007	-0.0183	-0.0154	0.0165	0.0127	-0.0324	-0.0072	0.0129	0.0005	-0.0312	0.0154	0.0147	-0.0035	-0.0184	0.0288	0.0144	0.0074	-0.0104	0.0198	-0.0011	0.0168	-0.0577	-0.0101	0.0372	0.0082	-0.0051	0.0182	0.0431	0.0474	0.0445	0.0378	0.0269	0.0299	0.0729	0.0062	-0.0140	-0.0412	0.0799	-0.0637	-0.0661	-0.0996	-0.0193	0.0195	0.0506	-0.1192	0.0335	0.0407	-0.0282	0.0124	0.0821	0.0574	-0.0301	0.0993	0.0605	0.0507	0.0649	0.0354	-0.0132	0.0182	0.1288	-0.0944	-0.0674	-0.0411	-0.0025	-0.0498	-0.0990	-0.0467	-0.0479	-0.0724	0.0247	-0.0139	-0.0373	0.0091	0.1169	0.0270	0.0012	0.0849	0.0330	0.0305	0.0042	0.0485	0.0180	-0.0090	0.0599	0.0113	-0.0202	-0.0610	0.0237	-0.0298	-0.0142	-0.0510	-0.0472	-0.0445	0.0316	0.0172	-0.0322	-0.0115	0.0411	0.0380	0.0253	0.0144	-0.0548	-0.0164	0.0070	-0.0149	-0.0133	0.0021	0.0268	0.0482	0.0204	0.0218	0.0243	0.0517	0.0378	0.0021	-0.0116	-0.0178	0.0477	-0.0516	-0.0636	-0.0955	-0.0582	-0.0006	0.0597	-0.1329	-0.0021	-0.0144	-0.0411	-0.0089	0.0642	-0.0022	-0.0473	0.1044	0.0567	0.0311	0.0657	0.0766	-0.0218	0.0420	0.1513	-0.0421	-0.0678	-0.0260	-0.0455	-0.0252	-0.1099	-0.0634	-0.0781	-0.0789	0.0340	-0.0436	-0.0573	-0.0375	0.1461	0.0194	-0.0183	0.0371	0.0495	0.0492	-0.0140	0.0401	0.0149	0.0201	0.0528	0.0182	-0.0230	-0.0308	0.0052	-0.0091	-0.0329	-0.0373	-0.0609	-0.0283	0.0082	0.0242	-0.0329	0.0024	0.0319	0.0533	0.0217	0.0342	-0.0494	-0.0070	-0.0176	-0.0569	-0.0136	0.0047	0.0126	0.0231	0.0044	0.0183	0.0229	0.0572	0.0074	0.0018	-0.0094	0.0126	0.0158	-0.0418	-0.0606	-0.0637	-0.1035	0.0072	0.0624	-0.1042	-0.0570	-0.0462	-0.0641	-0.0276	0.0181	-0.0506	-0.0837	0.0730	0.0319	0.0196	0.0393	0.0786	-0.0264	0.0825	0.1496	-0.0037	-0.0768	0.0163	-0.0304	-0.0005	-0.1261	-0.0419	-0.0366	-0.0589	0.0296	-0.0501	-0.0022	-0.0647	0.1592	-0.0012	0.0279	-0.0166	0.0600	0.0326	0.0159	0.0199	0.0063	0.0518	0.0337	0.0311	-0.0260	0.0061	-0.0214	0.0141	-0.0528	-0.0265	-0.0668	-0.0106	-0.0234	0.0121	-0.0160	0.0115	0.0147	0.0472	0.0348	0.0424	-0.0438	0.0161	-0.0185	-0.0994	-0.0017	0.0262	0.0137	-0.0182	0.0106	0.0317	0.0288	0.0431	0.0018	0.0113	-0.0035	0.0359	0.0024	-0.0292	-0.0563	-0.0175	-0.1121	0.0529	0.0577	-0.0685	-0.0759	-0.0369	-0.0773	-0.0530	-0.0018	-0.0717	-0.1112	0.0083	0.0250	0.0101	0.0056	0.0327	-0.0104	0.1123	0.1277	-0.0029	-0.0800	0.0388	0.0060	0.0204	-0.1381	-0.0177	0.0193	-0.0091	0.0120	-0.0403	0.0584	-0.0477	0.1526	-0.0188	0.0712	-0.0451	0.0686	-0.0007	0.0354	-0.0036	0.0286	0.0485	0.0221	0.0280	0.0059	0.0109	-0.0338	0.0085	-0.0376	-0.0411	-0.0548	-0.0260	-0.0277	-0.0239	0.0140	-0.0128	0.0131	0.0246	0.0562	0.0194	-0.0453	0.0359	0.0007	-0.1241	0.0119	0.0487	0.0283	-0.0588	0.0303	0.0479	0.0405	0.0128	0.0173	0.0233	0.0049	0.0379	0.0075	-0.0171	-0.0518	0.0157	-0.0723	0.0991	0.0609	-0.0435	-0.0428	-0.0149	-0.0570	-0.0707	0.0166	-0.0841	-0.0994	-0.0507	0.0340	-0.0159	-0.0102	-0.0233	0.0021	0.1017	0.0992	-0.0211	-0.0647	0.0154	-0.0044	0.0374	-0.1328	-0.0105	0.0092	0.0449	-0.0063	-0.0158	0.0436	-0.0063	0.1335	-0.0093	0.0461	-0.0473	0.0796	-0.0196	0.0028	-0.0268	0.0436	0.0288	0.0239	0.0175	0.0320	0.0057	-0.0325	-0.0058	-0.0162	-0.0547	-0.0423	-0.0428	-0.0245	-0.0510	0.0302	-0.0340	0.0111	0.0108	0.0615	-0.0016	0.0462	-0.0171	-0.1074	0.0618	-0.0443	-0.0058	-0.0589	0.0880	-0.1210	-0.0066	0.0034	0.1006	-0.1441	-0.0263	0.0615	0.0955	-0.1002	-0.0591	0.1059	0.0749	-0.0338	-0.0888	-0.0706	0.0249	-0.0097	-0.1110	-0.0742	0.0368	-0.0107	-0.0898	-0.0048	0.0275	-0.0380	-0.0315	0.0741	0.0157	-0.0661	0.0259	0.0960	0.0233	-0.0227	-0.0092	-0.0440	-0.0012	0.0253	-0.0232	-0.0160	-0.0081	0.0619	-0.0221	0.0074	-0.0122	0.0398	-0.0077	0.0081	-0.0177	-0.0122	0.0095	-0.0046	-0.0130	0.0121	0.0140	-0.0103	-0.0031	0.0137	0.0206	-0.0275	0.0073	0.0123	0.0240	-0.0196	0.0192	0.0049	0.0199	0.0008	0.0220	-0.0052	0.0088	0.0033	0.0131	0.0700	-0.0089	-0.0419	-0.0031	-0.0099	0.0013	-0.0136	0.0271	-0.0827	-0.0162	0.0232	0.0611	-0.1091	-0.0574	0.0580	0.0819	-0.0751	-0.1027	0.0862	0.0755	-0.0842	-0.0888	-0.0802	0.0530	-0.0727	-0.1083	-0.0999	0.0138	-0.0712	-0.0732	-0.0444	-0.0335	-0.0729	0.0044	0.0230	-0.0542	-0.0559	0.0760	0.0408	-0.0300	-0.0225	0.0302	-0.0086	0.0056	0.0362	0.0174	0.0341	-0.0027	0.0765	0.0015	0.0644	-0.0199	0.0482	-0.0123	0.0614	-0.0354	-0.0120	-0.0174	0.0387	-0.0288	0.0065	0.0282	-0.0239	-0.0023	0.0060	0.0300	-0.0375	0.0067	0.0014	0.0269	-0.0192	0.0195	-0.0066	0.0173	0.0095	0.0246	-0.0163	0.0023	0.0132	0.0151	0.0779	0.0081	0.0330	-0.0784	0.0242	0.0340	0.0308	-0.0572	-0.0267	0.0154	0.0272	-0.0113	-0.0456	-0.0382	0.0230	0.0381	-0.0226	-0.0970	0.0220	0.0645	-0.0668	-0.0408	-0.0950	0.0597	-0.0630	-0.0608	-0.1111	-0.0162	-0.0669	-0.0292	-0.0626	-0.0982	-0.0605	0.0395	-0.0091	-0.1357	-0.0182	0.0989	0.0005	-0.1037	-0.0240	0.0468	0.0337	0.0123	0.0375	0.0430	0.0736	0.0211	0.0765	0.0216	0.0944	0.0052	0.0453	-0.0138	0.0773	-0.0188	-0.0140	-0.0423	0.0403	-0.0253	0.0127	0.0145	-0.0231	-0.0061	0.0085	0.0043	-0.0283	-0.0054	0.0014	-0.0021	-0.0005	0.0007	-0.0074	-0.0066	0.0300	0.0037	-0.0165	-0.0124	0.0279	-0.0043	0.0610	0.0320	0.0814	-0.1314	0.0378	0.0791	0.0524	-0.1239	0.0196	0.0697	0.0106	-0.0788	0.0205	0.0143	-0.0331	-0.0136	0.0389	-0.0531	-0.0645	0.0444	0.0105	0.0091	-0.0946	0.0441	0.0100	-0.0145	-0.0815	-0.0325	-0.0114	0.0028	-0.0276	-0.1225	-0.0242	0.0450	0.0097	-0.1694	0.0067	0.0744	-0.0024	-0.1406	-0.0186	0.0249	0.0300	0.0163	0.0363	0.0380	0.0532	0.0385	0.0656	0.0317	0.0574	0.0330	0.0317	-0.0008	0.0311	0.0060	-0.0195	-0.0374	-0.0062	-0.0151	0.0147	-0.0089	-0.0106	-0.0099	0.0073	-0.0253	-0.0116	-0.0142	-0.0008	-0.0291	0.0161	-0.0130	-0.0093	-0.0222	0.0389	-0.0119	-0.0159	-0.0135	0.0270	-0.0161	0.0137	0.0540	0.0783	-0.1403	0.0106	0.1151	0.0419	-0.1394	0.0258	0.1174	-0.0170	-0.1055	0.0559	0.0685	-0.0814	-0.0455	0.0838	0.0000	-0.1294	0.0225	0.0901	0.0162	-0.0700	0.0309	0.0802	-0.0042	-0.0188	-0.0148	0.0345	0.0075	0.0459	-0.0820	-0.0119	0.0271	0.0670	-0.1251	-0.0155	0.0244	0.0260	-0.1109	-0.0107	-0.0119	-0.0048	0.0087	0.0329	0.0172	0.0027	0.0275	0.0488	0.0360	-0.0032	0.0300	0.0109	0.0228	-0.0255	0.0157	-0.0301	-0.0095	-0.0476	-0.0031	0.0031	-0.0146	-0.0010	-0.0048	-0.0048	-0.0297	-0.0037	-0.0092	-0.0099	-0.0300	0.0159	-0.0071	-0.0122	-0.0178	0.0267	-0.0047	-0.0134	-0.0055	0.0095	-0.0052	0.1114	-0.0553	0.0767	0.0196	0.0355	-0.0403	0.0569	-0.0252	0.0034	0.0036	0.0248	-0.0548	0.0322	0.0182	-0.0180	-0.0554	0.0648	-0.0012	-0.0567	-0.0599	0.1547	-0.0565	-0.0126	0.0003	0.1318	-0.0535	0.0701	-0.0198	0.0708	-0.0002	0.0656	0.0013	0.0215	0.0282	0.0186	0.0396	-0.0115	-0.0010	-0.0031	0.0199	0.0868	-0.0861	-0.0219	0.0698	0.0439	-0.0074	-0.0539	0.0162	-0.0531	0.0634	-0.1203	-0.0466	-0.0229	0.0694	-0.1288	-0.0150	0.0678	0.0293	-0.0762	0.0392	0.0042	-0.0122	-0.0128	-0.0074	-0.0001	0.0310	0.0823	-0.0274	-0.0203	-0.0096	0.0577	-0.0433	-0.0064	-0.0341	-0.0602	-0.0171	0.0390	0.0182	-0.0715	0.0394	0.0716	-0.0452	0.0026	0.0324	-0.0157	-0.0308	-0.0085	0.0123	-0.0495	0.0163	-0.0183	-0.0090	-0.0076	0.0323	-0.0337	-0.0216	0.0417	0.0111	-0.0532	-0.0428	0.1118	-0.1006	-0.0040	0.0053	0.0641	-0.0440	0.0495	-0.0030	0.0027	0.0301	0.0328	0.0391	-0.0196	0.0436	0.0058	0.0873	-0.0204	-0.0013	0.0232	0.0649	0.0903	0.0042	0.0004	-0.0063	0.0397	0.0759	-0.0151	-0.0670	-0.0661	0.0623	-0.0540	-0.0903	-0.0290	0.0025	-0.0309	-0.0151	0.0594	-0.0214	0.0280	0.0678	-0.0456	0.0748	-0.0450	-0.0144	-0.0291	0.0845	0.0433	0.0360	-0.0391	0.0064	0.0080	0.0784	-0.0501	-0.0360	-0.0846	0.0797	-0.0335	0.0155	-0.0417	0.0641	0.0457	-0.0044	-0.0331	0.0231	-0.0349	0.0132	-0.0426	0.0207	-0.0652	0.0459	-0.0337	0.0236	-0.0191	0.0389	-0.0247	0.0284	0.0338	-0.0025	-0.0290	0.0164	0.0223	-0.0725	-0.0535	0.0027	-0.0295	0.0160	-0.0205	-0.0259	-0.0520	0.0673	-0.0181	0.0005	-0.0099	0.0439	0.0027	0.0491	0.0403	-0.0014	0.0656	0.0565	0.1016	0.1031	0.0581	-0.0544	0.0544	0.0895	0.0587	-0.0827	-0.0615	-0.0320	0.0469	-0.0700	-0.0366	-0.1144	0.0769	-0.0059	0.0368	-0.0667	0.1044	0.0521	-0.0001	0.0527	-0.0563	-0.0287	0.0458	0.0348	0.0316	0.0637	0.0367	-0.0252	0.0010	0.0951	-0.0107	-0.0533	-0.0591	0.0308	-0.0196	-0.0103	0.0102	-0.0248	0.0338	0.0114	0.0003	-0.0187	-0.0247	0.0319	-0.0140	-0.0191	-0.0495	0.0438	0.0034	0.0077	-0.0116	0.0104	0.0235	0.0413	0.0281	-0.0498	0.0220	0.0523	-0.0352	-0.0353	-0.0809	0.0015	-0.0734	0.0350	-0.0465	-0.0498	-0.0625	0.0297	-0.0249	-0.0616	0.0127	-0.0258	0.0167	-0.0306	0.0746	-0.0418	0.0860	0.0075	0.1193	0.0989	0.0228	-0.0030	0.0761	0.0161	0.0085	0.0092	-0.0388	-0.1231	-0.0022	0.0153	-0.0168	-0.1521	0.0150	-0.0055	0.0547	-0.0447	0.0164	-0.0280	0.0393	-0.0658	-0.0051	-0.0303	0.0872	-0.0423	0.0720	0.0326	0.0784	-0.0191	0.0238	0.0061	0.0257	-0.0194	-0.0390	-0.0817	0.0261	-0.0046	0.0130	-0.0899	0.0290	-0.0129	0.0475	-0.0812	-0.0097	0.0094	0.0251	-0.0882	-0.0347	0.0068	0.0413	-0.0461	-0.0155	-0.0419	0.0593	0.0111	0.0030	-0.1093	0.0527	0.0428	-0.0214	-0.0315	-0.0364	0.0415	-0.0541	-0.0108	0.0071	-0.0108	-0.0560	-0.0623	0.0179	-0.0616	-0.0161	-0.1167	0.0304	-0.0650	0.0066	-0.0840	0.0607	-0.0242	0.1071	0.0258	-0.0396	0.0449	0.0610	-0.0381	-0.0660	0.0791	-0.0371	-0.0908	-0.0784	0.0733	-0.0007	-0.0532	-0.0682	-0.0084	0.0829	0.0278	-0.0698	-0.0838	-0.0225	-0.1036	0.0404	0.0098	0.0060	-0.0179	0.0853	0.0261	0.0014	0.0525	0.0130	-0.0230	-0.0314	0.0332	-0.0526	-0.0722	-0.0115	0.0064	-0.0103	-0.0233	-0.0822	-0.0008	-0.0103	0.0451	-0.0734	0.0024	0.0233	0.0553	-0.0480	0.0179	0.0588	0.0578	-0.0152	0.0196	0.0896	0.0522	0.0074	0.0081	0.1091	0.0351	-0.0101	-0.0172	0.0078	-0.0658	-0.0429	0.0403	-0.0430	-0.0909	-0.0359	0.0785	-0.0997	-0.0830	0.0156	0.0771	-0.0934	-0.0722	0.0745	0.0576	-0.0244	-0.0795	0.0446	0.0614	-0.0719	0.0413	0.0151	0.0784	-0.0861	-0.0146	0.0090	0.0219	-0.0798	-0.0470	0.0527	-0.0554	-0.0379	-0.0320	0.0642	-0.0842	0.0040	-0.0103	0.0159	0.0181	0.0096	-0.0630	0.0366	0.0291	0.0122	-0.0493	0.0505	0.0021	-0.0345	-0.0103	0.0595	-0.0080	-0.0667	0.0256	0.0533	0.0076	-0.0226	0.0277	-0.0599	-0.0246	-0.0298	0.0163	-0.0438	0.0074	-0.0155	-0.0151	-0.0238	0.0379	0.0052	-0.0307	-0.0095	0.0329	0.0230	-0.0168	-0.0109	0.0004	0.0325	0.0136	-0.0658	-0.0043	0.0126	0.0388	-0.1041	0.0427	-0.0583	0.0037	-0.0955	0.0283	-0.1068	-0.0368	-0.0413	-0.0191	-0.0789	-0.0792	0.0217	-0.0409	0.0021	-0.1050	0.0309	0.0969	-0.0687	0.0384	0.0133	0.0799	-0.0933	0.0480	0.0212	-0.0182	-0.0865	0.0518	0.0732	-0.1003	-0.0543	0.0414	0.0822	-0.0958	-0.0445	0.0041	-0.0472	0.0002	0.0189	-0.0079	-0.0219	-0.0070	0.0230	0.0264	-0.0130	-0.0187	-0.0160	0.0435	-0.0165	-0.0013	-0.0292	0.0220	-0.0125	0.0267	0.0184	-0.0068	-0.0214	-0.0224	-0.0370	0.0089	-0.0044	0.0138	-0.0372	-0.0441	0.0041	0.0343	-0.0257	-0.0650	0.0007	0.0107	-0.0169	-0.0397	-0.0204	-0.0407	-0.0155	0.0106	-0.0469	0.0591	0.0075	0.0922	-0.0557	0.0587	-0.0163	0.0846	-0.0427	-0.0207	-0.0182	0.0401	-0.0232	-0.1022	0.0186	-0.0166	-0.0224	-0.1122	0.0634	-0.0453	0.0055	0.0503	0.0453	-0.0111	-0.0253	-0.0031	0.0248	0.0645	-0.0321	-0.0668	0.0256	0.1150	0.0144	-0.0654	0.0274	0.0997	0.0368	-0.0084	-0.0083	0.0347	-0.0378	-0.0292	0.0153	0.0485	-0.0298	-0.0390	0.0321	0.0791	-0.0496	-0.0302	0.0110	0.0459	-0.0779	-0.0065	0.0167	-0.0214	-0.0709	0.0139	0.0552	-0.0420	0.0210	0.0032	-0.0288	0.0397	0.0259	0.0163	-0.0273	-0.0008	0.0195	0.0054	-0.0123	-0.0133	0.0088	-0.0445	-0.0045	0.0036	-0.0134	-0.1089	-0.0076	0.0293	0.0321	0.1047	-0.0104	0.0363	0.0658	0.0602	0.0334	0.0667	0.0825	-0.0404	0.0807	0.0543	0.0574	-0.1086	0.1169	0.0270	-0.0156	-0.0921	0.1123	0.0204	0.0068	-0.0500	0.0842	-0.0407	-0.0417	-0.0986	0.0798	0.0234	-0.0701	-0.0735	0.0853	0.0692	-0.0401	0.0214	0.0784	0.0575	-0.0162	0.0941	0.0395	0.0196	0.0221	-0.0422	0.0175	0.0287	0.0245	-0.0138	0.0233	0.0320	0.0002	0.0043	-0.0033	-0.0147	-0.0293	-0.0105	0.0045	-0.0518	-0.0288	-0.0264	0.0413	-0.0293	0.0521	0.0339	-0.0339	0.0839	0.0283	0.0128	-0.0149	0.0823	0.0039	-0.0330	0.0137	0.0858	-0.0027	-0.1036	0.0272	0.0794	-0.0033	-0.1722	0.0250	0.0536	0.0835	0.0613	-0.0231	-0.0478	0.1263	0.0102	0.0411	-0.0148	0.1321	-0.0415	0.1002	-0.0050	0.0858	-0.0422	0.1277	0.0042	0.0022	0.0064	0.0989	0.0262	0.0228	-0.0956	-0.0012	-0.0155	-0.0132	-0.1018	0.0085	-0.0139	-0.0358	-0.0226	0.0232	-0.0156	-0.0216	0.0804	0.0294	-0.0304	-0.0194	0.1110	0.0231	-0.0245	0.0220	-0.0099	0.0163	-0.0125	0.0381	0.0478	-0.0046	-0.0251	0.0399	0.0514	-0.0424	-0.0398	0.0342	-0.0016	-0.0382	-0.0204	0.0342	-0.0391	-0.0020	0.0230	-0.0801	0.0118	-0.0184	0.1456	-0.0674	0.0010	0.0007	0.1047	-0.0148	-0.0002	-0.0102	0.0076	0.0567	0.0238	-0.0379	-0.0779	0.1133	0.0504	-0.0726	-0.1008	-0.0105	-0.0224	-0.0689	0.0186	-0.0021	0.0674	-0.0004	0.0502	-0.0159	0.1403	0.0583	0.0291	-0.0172	0.1364	0.0280	0.0016	0.0193	0.0521	-0.0510	-0.0051	0.0138	-0.0027	-0.0034	-0.0761	0.0991	-0.0061	0.0141	-0.0395	0.0597	0.0003	0.0066	0.0053	-0.0608	-0.0033	-0.0145	0.0270	-0.0825	-0.0142	-0.0093	0.0388	0.0206	-0.0108	-0.0416	-0.0210	0.0315	-0.0242	-0.0364	0.0056	0.0464	-0.0100	0.0285	0.0240	0.0295	-0.0174	0.0419	-0.0029	0.0035	-0.0337	-0.0088	-0.0439	-0.0371	-0.0012	0.0159	0.0771	-0.0393	-0.0243	0.0227	0.0613	-0.0144	-0.0263	0.0043	-0.0006	0.0317	0.0121	-0.0192	-0.0631	0.0791	0.0605	-0.0409	-0.0902	-0.0967	-0.0544	-0.1143	-0.0213	-0.0561	0.0044	-0.0333	-0.0067	-0.0178	0.0732	0.0562	0.0128	0.0228	0.0794	0.0576	0.0463	0.0602	0.0015	0.0005	0.0709	0.0432	-0.0172	-0.0306	-0.0133	0.1335	-0.0865	-0.0175	-0.0232	0.0783	-0.0993	-0.0503	-0.0206	-0.0601	-0.0625	-0.0982	0.0012	-0.0815	-0.0058	-0.0982	0.0340	0.0202	-0.0366	-0.0385	0.0014	0.0146	-0.0427	-0.0055	0.0148	0.0192	-0.0105	0.0713	0.0108	0.0155	-0.0003	0.0568	-0.0233	0.0114	-0.0105	-0.0300	-0.0524	0.0124	0.0024	0.0386	-0.0388	-0.0038	-0.0343	0.0249	-0.0172	-0.0164	-0.0508	-0.0000	-0.0111	-0.0116	-0.0182	-0.0119	-0.0163	0.0132	0.0381	-0.0078	-0.0336	-0.1107	-0.0713	-0.1021	-0.0232	-0.0718	-0.0688	-0.0193	-0.0480	-0.0289	-0.0161	0.0618	-0.0109	0.0172	0.0129	0.0607	0.0780	0.0492	-0.0258	0.0133	0.1442	0.0332	-0.0244	0.0135	0.0551	0.1102	-0.0947	0.0291	0.0034	0.0484	-0.1036	-0.0186	-0.0534	-0.0758	-0.0612	-0.0822	-0.0524	-0.0772	0.0096	-0.0849	-0.0016	-0.0244	-0.0263	-0.0355	0.0302	-0.0540	-0.0108	0.0154	0.0183	-0.0589	0.0300	0.0885	0.0099	-0.0452	0.0391	0.0453	0.0013	-0.0258	0.0210	-0.0573	-0.0007	0.0454	0.0375	0.0426	-0.1296	0.0285	-0.0061	0.0089	-0.0752	-0.0073	-0.0416	-0.0203	-0.0040	-0.0370	-0.0306	-0.0166	0.0532	-0.0375	0.0151	0.0147	0.0569	-0.0308	-0.0453	-0.0531	-0.0218	-0.0236	-0.0801	0.0148	-0.0869	-0.0208	-0.0424	0.0516	-0.0616	0.0014	0.0005	0.0169	0.0464	0.0360	-0.0005	-0.0261	0.1436	0.0020	-0.0093	0.0918	0.0614	0.0520	-0.0163	0.1187	0.0011	-0.0088	-0.0218	0.0800	-0.0775	-0.0996	-0.0300	0.0253	-0.0842	-0.0727	-0.0086	0.0227	-0.0258	-0.0191	0.0084	-0.0471	0.0111	-0.0495	0.0176	0.0065	-0.0063	-0.0517	0.0316	0.0721	0.0046	-0.0379	0.0262	0.0276	0.0197	-0.0258	0.0071	-0.0547	0.0191	0.0318	0.0833	0.0426	-0.1461	0.0356	0.0408	-0.0007	-0.0842	0.0127	-0.0083	-0.0293	0.0132	-0.0196	-0.0207	-0.0151	0.1024	-0.0362	0.0058	0.0312	0.1262	0.0747	-0.0070	-0.0034	-0.0445	0.0418	-0.0347	0.0495	-0.1289	0.0005	-0.0076	0.0348	-0.1305	0.0018	0.0204	-0.0417	-0.0408	0.0508	0.0246	-0.0868	0.0606	0.0008	0.0125	0.0808	0.0390	0.0237	0.0657	0.1034	-0.0014	-0.0392	0.0521	0.0780	-0.0552	-0.0993	-0.0154	0.0487	-0.0607	-0.0483	-0.0468	0.0542	-0.0270	0.0241	0.0177	-0.0509	-0.0325	0.0178	-0.0018	-0.0053	-0.0335	0.0253	-0.0142	0.0482	-0.0045	0.0259	-0.0167	0.0151	0.0015	0.0145	-0.0180	-0.0358	-0.0197	-0.0812	0.0174	-0.0008	0.0476	0.0160	-0.0060	-0.0183	-0.0067	0.0839	-0.0119	-0.0215	-0.0451	0.0824	0.0081	-0.0133	-0.0473	0.0178	0.0385	-0.0084	-0.0142	0.0547	0.1415	0.0964	-0.0055	0.0259	0.1560	0.0933	0.0110	0.0318	0.0437	0.0326	0.0221	0.0609	-0.1010	-0.0190	0.0379	0.0688	-0.1604	-0.0064	0.0554	0.0215	0.0327	0.0095	-0.0207	-0.0417	0.0121	-0.0210	0.0401	-0.0930	-0.0530	-0.0246	0.0720	-0.0666	-0.0773	-0.0148	0.0477	0.0079	-0.0256	-0.0186	0.0162	-0.0046	-0.0362	0.0250	-0.0216	0.0245	-0.0287	0.0125	0.0163	0.0313	-0.0226	-0.0015	0.0318	-0.0026	-0.0304	0.0066	-0.0069	-0.0255	-0.0267	0.0281	-0.0451	-0.0709	0.0031	-0.0325	0.0949	0.0046	-0.0112	-0.0323	0.0225	0.0493	-0.0264	-0.0089	-0.0296	0.0351	-0.0304	0.0237	-0.0296	-0.0225	-0.0248	0.0431	0.0150	0.0243	0.1221	0.0505	0.0204	0.0229	0.1289	0.0677	0.0525	0.0396	-0.0037	0.0600	0.0338	0.0557	-0.1497	0.0433	0.0219	0.0388	-0.1769	0.0407	0.0556	0.0399	0.0001	-0.0871	-0.0448	0.0036	-0.0389	-0.0856	0.0155	-0.0507	-0.0739	-0.0425	0.0441	-0.0655	-0.0477	-0.0020	-0.0059	-0.0235	0.0278	0.0060	-0.0522	0.0019	-0.0327	0.0243	-0.0340	0.0435	0.0221	-0.0261	0.0110	0.0608	0.0637	-0.0524	0.0380	0.0180	0.0323	-0.0296	0.0172	-0.0274	-0.0200	0.0050	-0.0065	-0.0494	-0.0070	-0.0471	0.0865	-0.0089	0.0005	-0.0336	0.0140	0.0056	-0.0150	0.0029	-0.0285	-0.0154	-0.0416	0.0453	-0.0102	-0.0508	-0.0652	0.0716	0.0500	-0.0587	0.0718	-0.0211	0.0751	-0.0406	0.0793	-0.0086	0.0791	-0.0149	-0.0202	0.0187	0.0019	0.0035	-0.1149	0.0323	-0.0551	0.0015	-0.1005	0.0236	-0.0177	0.0374	0.0012	-0.1090	-0.0468	0.0497	-0.0398	-0.0717	-0.0021	0.0134	-0.0421	0.0035	0.0128	-0.0373	-0.0022	0.0574	-0.0517	-0.0400	0.0396	0.0688	-0.1005	-0.0349	0.0002	0.0090	-0.0173	0.0117	0.0803	-0.0603	0.0128	0.0469	0.1328	-0.0821	0.0397	0.0247	0.0740	-0.0494	0.0427	-0.0179	-0.0248	-0.0101	0.0323	-0.0102	-0.0000	-0.0333	0.0399	-0.0042	0.0352	-0.0206	-0.0194	-0.0143	0.0278	0.0038	-0.0421	-0.0345	-0.0123	0.0317	-0.0032	-0.0417	-0.0608	0.0501	0.0710	-0.1011	0.0437	-0.0948	0.1152	-0.0697	0.0481	-0.0890	0.0789	-0.0471	0.0020	-0.0354	-0.0501	-0.0349	-0.0301	-0.0024	-0.1513	-0.0130	0.0017	-0.0163	-0.1276	0.0029	0.0066	-0.0253	-0.0297	0.0657	-0.0192	0.0204	0.0201	0.0640	0.0011	0.0768	0.0401	-0.0062	0.0242	0.0964	-0.0168	-0.0447	0.0120	0.0814	-0.0747	-0.0418	-0.0003	-0.0014	0.0007	-0.0128	0.0573	-0.0522	-0.0017	0.0258	0.0962	-0.0459	0.0111	0.0255	0.0441	-0.0095	0.0207	-0.0052	-0.0436	0.0086	0.0112	0.0356	0.0175	0.0095	-0.0093	0.0189	0.0731	0.0073	-0.0525	-0.0005	0.0771	-0.0024	-0.0619	-0.0098	0.0349	-0.0107	-0.0175	0.0056	-0.0252	-0.0147	0.0591	-0.0464	0.0348	-0.1345	0.0984	-0.0063	0.0250	-0.1094	0.0534	-0.0031	0.0229	-0.0275	-0.0753	-0.0215	0.0310	0.0140	-0.1860	-0.0087	0.0471	-0.0198	-0.1832	-0.0292	-0.0224	0.0402	-0.0030	0.0628	-0.0219	0.0660	0.0474	0.0870	0.0222	0.0743	0.0773	0.0094	0.0375	0.0456	0.0474	-0.0492	-0.0010	0.0063	-0.0101	-0.0046	-0.0313	0.0020	-0.0055	-0.0084	-0.0148	-0.0157	-0.0322	0.0108	0.0104	0.0165	-0.0275	0.0168	-0.0048	0.0411	-0.0128	-0.0053	-0.0426	0.0231	-0.0203	0.0000	-0.0000	0.0000	0.0000	-0.0000	-0.0000	-0.0000	-0.0000	-0.0000	0.0000	0.0000	-0.0000	0.0000	-0.0000	-0.0000	-0.0000	0.0000	-0.0000	-0.0000	-0.0000	0.0000	-0.0000	-0.0000	0.0000	0.0000	0.0000	0.0000	0.0000	-0.0000	0.0000	0.0000	-0.0000	-0.0000	0.0000	0.0000	-0.0000	-0.0000	-0.0000	-0.0000	-0.0000	0.0000	0.0000	0.0000	0.0000	0.0000	0.0000	0.0000	-0.0000	-0.0000	0.0000	-0.0000	-0.0000	-0.0000	-0.0000	0.0000	0.0000	0.0000	-0.0000	0.0000	-0.0000	-0.0000	0.0000	-0.0000	-0.0000	-0.0000	0.0000	0.0000	0.0000	0.0000	0.0000	0.0000	0.0000	-0.0000	0.0000	-0.0000	0.0000	-0.0000	0.0000	-0.0000	-0.0000	0.0000	-0.0000	-0.0000	0.0000	-0.0000	0.0000	-0.0000	-0.0000	-0.0000	0.0000	-0.0000	-0.0000	0.0000	0.0000	-0.0000	-0.0000	0.0000	-0.0000	-0.0000	0.0000	0.0000	-0.0000	-0.0000	0.0000	0.0000	0.0000	-0.0000	0.0000	-0.0000	0.0000	0.0000	-0.0000	-0.0000	0.0000	0.0000	-0.0000	0.0000	0.0000	-0.0000	-0.0000	0.0000	0.0000	0.0000	-0.0000	0.0000	0.0000	0.0000	-0.0000	-0.0000	-0.0000	0.0000	0.0000	-0.0000	-0.0000	0.0000	0.0000	-0.0000	0.0000	0.0000	0.0000	0.0000	0.0000	-0.0000	-0.0000	0.0000	-0.0000	0.0000	0.0000	0.0000	-0.0000	0.0000	0.0000	-0.0000	-0.0000	-0.0000	-0.0000	0.0000	0.0000	0.0000	-0.0000	0.0000	-0.0000	0.0000	0.0000	-0.0000	0.0000	0.0000	0.0000	-0.0000	0.0000	0.0000	-0.0000	0.0000	-0.0000	0.0000	-0.0000	0.0000	-0.0000	0.0000	0.0000	0.0000	-0.0000	-0.0000	0.0000	0.0000	0.0000	-0.0000	0.0000	-0.0000	0.0000	0.0000	-0.0000	0.0000	0.0000	0.0000	-0.0000	0.0000	-0.0000	0.0000	-0.0000	0.0000	0.0000	0.0000	-0.0000	0.0000	-0.0000	-0.0000	0.0000	-0.0000	-0.0000	-0.0000	0.0000	-0.0000	-0.0000	-0.0000	0.0000	0.0000	0.0000	-0.0000	0.0000	0.0000	-0.0000	0.0000	-0.0000	0.0000	-0.0000	0.0000	0.0000	0.0000	0.0000	0.0000	0.0000	-0.0000	-0.0000	-0.0000	-0.0000	0.0000	-0.0000	0.0000	-0.0000	0.0000	-0.0000	0.0000	-0.0000	-0.0000	0.0000	0.0000	-0.0000	-0.0000	0.0000	-0.0000	-0.0000	0.0000	-0.0000	-0.0000	-0.0000	0.0000	-0.0000	-0.0000	-0.0000	-0.0000	-0.0000	-0.0000	0.0000	-0.0000	-0.0000	0.0000	0.0000	-0.0000	-0.0000	0.0000	-0.0000	-0.0000	-0.0000	0.0000	-0.0000	-0.0000	-0.0000	0.0000	0.0000	0.0000	-0.0000	-0.0000	-0.0000	0.0000	-0.0000	-0.0000	0.0000	0.0000	-0.0000	-0.0000	0.0000	-0.0000	-0.0000	-0.0000	-0.0000	-0.0000	0.0000	-0.0000	-0.0000	-0.0000	-0.0000	0.0000	-0.0000	0.0000	0.0000	0.0000	0.0000	0.0000	0.0000	-0.0000	-0.0000	-0.0000	0.0000	-0.0000	-0.0000	-0.0000	-0.0000	0.0000	0.0000	0.0000	-0.0000	0.0000	-0.0000	-0.0000	0.0000	0.0000	-0.0000	-0.0000	0.0000	0.0000	-0.0000	-0.0000	0.0000	-0.0000	-0.0000	0.0000	0.0000	-0.0000	0.0000	0.0000	-0.0000	-0.0000	0.0000	-0.0000	-0.0000	-0.0000	0.0000	-0.0000	0.0000	0.0000	-0.0000	-0.0000	0.0000	0.0000	-0.0000	-0.0000	0.0000	0.0000	0.0000	0.0000	0.0000	0.0000	-0.0000	0.0000	0.0000	0.0000	0.0000	0.0000	0.0000	0.0000	0.0000	-0.0000	0.0000	0.0000	-0.0000	-0.0000	-0.0000	0.0000	-0.0000	-0.0000	-0.0000	0.0000	0.0000	-0.0000	0.0000	0.0000	-0.0000	-0.0000	0.0000	-0.0000	0.0000	-0.0000	0.0000	-0.0000	0.0000	-0.0000	0.0000	0.0000	0.0000	0.0000	-0.0000	0.0000	0.0001	-0.0000	-0.0000	-0.0000	-0.0000	-0.0000	0.0000	0.0000	-0.0000	0.0000	-0.0000	-0.0000	-0.0000	0.0000	-0.0000	-0.0000	-0.0000	0.0001	-0.0001	-0.0001	0.0001	0.0000	0.0000	0.0000	0.0000	-0.0001	0.0000	0.0000	-0.0000	-0.0001	0.0000	0.0000	-0.0000	-0.0000	-0.0000	-0.0000	-0.0000	0.0001	0.0000	0.0000	0.0000	0.0001	0.0001	0.0000	-0.0000	-0.0000	0.0000	-0.0000	-0.0000	-0.0000	-0.0000	0.0000	0.0000	0.0000	-0.0000	0.0001	-0.0000	-0.0000	0.0000	-0.0000	-0.0000	-0.0000	0.0000	0.0001	0.0000	0.0000	0.0000	0.0000	0.0001	-0.0000	0.0000	-0.0001	0.0000	-0.0000	0.0001	-0.0000	-0.0000	0.0001	-0.0000	-0.0000	0.0001	-0.0000	0.0000	-0.0000	-0.0000	-0.0000	0.0000	-0.0000	-0.0000	0.0000	0.0000	-0.0000	-0.0000	0.0000	-0.0000	-0.0000	0.0000	0.0001	-0.0000	-0.0001	0.0001	0.0000	0.0001	-0.0000	0.0000	-0.0000	0.0001	0.0000	-0.0000	-0.0000	0.0000	0.0000	-0.0000	0.0000	0.0000	-0.0000	-0.0000	0.0001	0.0001	0.0001	-0.0000	0.0001	0.0000	0.0000	-0.0000	-0.0000	-0.0000	0.0000	0.0000	-0.0000	-0.0001	0.0001	0.0000	-0.0000	0.0000	0.0001	0.0000	0.0000	0.0000	-0.0000	-0.0000	0.0000	-0.0000	0.0000	0.0001	0.0000	-0.0000	0.0000	0.0001	-0.0000	-0.0000	-0.0000	-0.0001	0.0000	0.0000	0.0000	-0.0001	0.0001	-0.0000	0.0000	0.0000	-0.0000	0.0000	0.0000	0.0000	-0.0000	0.0000	0.0000	-0.0000	0.0000	-0.0000	0.0000	-0.0000	0.0001	-0.0000	0.0000	0.0000	0.0000	-0.0000	-0.0001	0.0000	0.0000	0.0000	-0.0000	0.0000	-0.0000	0.0000	0.0000	-0.0000	0.0000	0.0000	0.0000	-0.0000	0.0001	-0.0000	0.0000	-0.0000	0.0001	0.0000	0.0000	-0.0000	0.0001	-0.0000	-0.0000	0.0000	-0.0000	-0.0001	-0.0000	0.0001	-0.0000	-0.0000	-0.0001	0.0000	0.0000	0.0000	-0.0001	0.0000	0.0000	-0.0001	0.0000	-0.0000	0.0000	-0.0000	0.0001	0.0001	0.0000	0.0000	0.0000	0.0000	-0.0000	-0.0000	-0.0000	-0.0001	0.0000	-0.0000	0.0000	-0.0000	0.0001	-0.0000	0.0000	-0.0000	-0.0000	0.0000	0.0000	-0.0000	-0.0000	0.0000	-0.0000	-0.0000	0.0000	-0.0000	-0.0000	-0.0000	0.0000	-0.0000	-0.0000	-0.0000	-0.0000	-0.0001	-0.0001	0.0000	-0.0000	-0.0000	0.0000	0.0000	-0.0000	-0.0000	0.0001	-0.0000	-0.0000	-0.0000	0.0001	-0.0000	-0.0000	-0.0000	0.0000	0.0000	0.0001	-0.0000	-0.0000	-0.0000	0.0001	-0.0001	-0.0000	0.0000	0.0000	-0.0000	-0.0000	0.0000	-0.0000	-0.0000	-0.0000	-0.0001	-0.0000	0.0000	-0.0000	-0.0001	-0.0000	-0.0001	0.0001	-0.0000	0.0000	0.0000	0.0000	0.0000	0.0000	0.0001	-0.0000	-0.0000	-0.0000	0.0000	-0.0000	-0.0000	-0.0000	-0.0000	0.0000	0.0000	0.0000	-0.0000	0.0000	-0.0001	-0.0000	0.0000	0.0000	-0.0001	-0.0000	0.0000	0.0000	-0.0000	-0.0000	0.0000	-0.0000	-0.0000	0.0000	0.0000	-0.0000	0.0000	0.0000	-0.0001	-0.0001	0.0000	-0.0000	-0.0000	-0.0000	0.0000	-0.0000	0.0000	0.0000	-0.0000	-0.0000	0.0000	0.0000	-0.0000	-0.0000	0.0000	0.0000	0.0000	0.0000	0.0000	0.0000	-0.0001	0.0000	0.0000	0.0000	0.0000	0.0000	0.0000	0.0000	0.0000	-0.0000	0.0000	0.0000	-0.0001	-0.0000	-0.0000	0.0000	-0.0001	-0.0001	-0.0000	0.0000	0.0000	-0.0000	0.0001	0.0000	-0.0000	-0.0000	0.0001	-0.0000	0.0000	-0.0000	0.0000	-0.0000	0.0000	-0.0000	0.0000	0.0000	0.0001	-0.0000	0.0000	-0.0000	-0.0000	0.0000	0.0000	0.0000	0.0000	0.0000	-0.0000	-0.0000	0.0000	-0.0000	0.0000	0.0000	0.0000	-0.0000	0.0000	0.0000	0.0000	-0.0000	0.0000	0.0000	-0.0000	-0.0000	-0.0000	-0.0000	-0.0000	0.0000	-0.0000	-0.0000	0.0000	0.0000	-0.0000	-0.0000	0.0000	0.0000	0.0000	0.0000	0.0000	-0.0000	-0.0000	-0.0000	-0.0000	-0.0000	-0.0000	-0.0000	0.0000	0.0000	-0.0000	0.0000	0.0000	0.0000	0.0000	-0.0000	-0.0000	-0.0000	0.0000	-0.0000	0.0000	0.0000	-0.0000	0.0000	0.0000	0.0000	-0.0000	-0.0000	-0.0000	-0.0000	-0.0000	-0.0000	-0.0000	0.0000	-0.0000	0.0000	-0.0000	0.0000	-0.0000	0.0000	0.0000	-0.0000	0.0000	0.0000	-0.0000	0.0000	-0.0000	0.0000	0.0000	0.0000	-0.0000	0.0000	0.0000	-0.0000	-0.0000	0.0000	0.0000	-0.0000	0.0000	0.0000	-0.0000	-0.0000	0.0000	0.0000	-0.0000	-0.0000	-0.0000	0.0000	-0.0000	0.0000	-0.0000	-0.0000	0.0000	0.0000	-0.0000	-0.0000	0.0000	-0.0000	-0.0000	0.0000	0.0000	-0.0000	-0.0000	-0.0000	0.0000	-0.0000	-0.0000	-0.0000	0.0000	0.0000	0.0000	-0.0000	-0.0000	0.0000	0.0000	-0.0000	-0.0000	0.0000	-0.0000	-0.0000	-0.0000	-0.0000	-0.0000	0.0000	0.0000	-0.0000	0.0000	-0.0000	-0.0000	-0.0000	0.0000	-0.0000	-0.0000	0.0000	0.0000	0.0000	0.0000	-0.0000	-0.0000	-0.0000	0.0000	-0.0000	0.0000	-0.0000	-0.0000	0.0000	-0.0000	-0.0000	-0.0000	0.0000	-0.0000	-0.0000	0.0000	-0.0000	0.0000	-0.0000	0.0000	-0.0000	0.0000	-0.0000	-0.0000	-0.0000	0.0000	0.0000	-0.0000	-0.0000	-0.0000	0.0000	-0.0000	0.0000	-0.0000	-0.0000	0.0000	-0.0000	-0.0000	-0.0000	0.0000	-0.0000	0.0000	-0.0000	0.0000	-0.0000	-0.0000	-0.0000	0.0000	-0.0000	0.0000	0.0000	-0.0000	0.0000	0.0000	0.0000	-0.0000	0.0000	0.0000	0.0000	-0.0000	-0.0000	-0.0000	0.0000	-0.0000	-0.0000	0.0000	-0.0000	0.0000	-0.0000	0.0000	-0.0000	-0.0000	-0.0000	-0.0000	-0.0000	-0.0000	0.0000	0.0000	0.0000	0.0000	-0.0000	0.0000	-0.0000	0.0000	-0.0000	0.0000	-0.0000	0.0000	0.0000	-0.0000	-0.0000	0.0000	0.0000	-0.0000	0.0000	0.0000	-0.0000	0.0000	0.0000	0.0000	-0.0000	0.0000	0.0000	0.0000	0.0000	0.0000	0.0000	-0.0000	0.0000	0.0000	-0.0000	-0.0000	0.0000	0.0000	-0.0000	0.0000	0.0000	0.0000	-0.0000	0.0000	0.0000	0.0000	-0.0000	-0.0000	-0.0000	0.0000	0.0000	0.0000	-0.0000	0.0000	0.0000	-0.0000	-0.0000	0.0000	0.0000	-0.0000	0.0000	0.0000	0.0000	0.0000	0.0000	-0.0000	0.0000	0.0000	0.0000	0.0000	-0.0000	0.0000	-0.0000	-0.0000	-0.0000	-0.0000	-0.0000	-0.0000	0.0000	0.0000	0.0000	-0.0000	0.0000	0.0000	0.0000	0.0000	-0.0000	-0.0000	-0.0000	0.0000	-0.0000	0.0000	0.0000	-0.0000	-0.0000	0.0000	0.0000	-0.0000	-0.0000	0.0000	0.0000	-0.0000	0.0000	0.0000	-0.0000	-0.0000	0.0000	-0.0000	-0.0000	0.0000	0.0000	-0.0000	0.0000	0.0000	0.0000	-0.0000	0.0000	-0.0000	-0.0000	0.0000	0.0000	-0.0000	-0.0000	0.0000	0.0000	-0.0000	-0.0000	-0.0000	-0.0000	-0.0000	-0.0000	0.0000	-0.0000	-0.0000	-0.0000	-0.0000	-0.0000	-0.0000	-0.0000	-0.0000	0.0000	-0.0000	-0.0000	0.0000	0.0000	0.0000	-0.0000	0.0000	0.0000	0.0000	-0.0000	-0.0000	0.0000	-0.0000	-0.0000	0.0000	0.0000	-0.0000	0.0000	-0.0000	0.0000	-0.0000	0.0000	-0.0000	0.0000	-0.0000	-0.0000	-0.0000	-0.0000	0.0000	-0.0000	-0.0000	0.0000	0.0000	0.0000	0.0000	0.0000	-0.0000	-0.0000	0.0000	-0.0000	0.0000	0.0000	0.0000	-0.0000	0.0000	0.0000	0.0000	-0.0000	0.0000	0.0000	-0.0000	-0.0000	-0.0000	-0.0000	-0.0000	0.0000	-0.0000	-0.0000	0.0000	0.0000	-0.0000	-0.0000	0.0000	0.0000	0.0000	0.0000	0.0000	-0.0000	-0.0000	-0.0000	-0.0000	-0.0000	-0.0000	-0.0000	0.0000	0.0000	-0.0000	0.0000	0.0000	0.0000	0.0000	-0.0000	-0.0000	-0.0000	0.0000	-0.0000	0.0000	0.0000	-0.0000	0.0000	0.0000	0.0000	-0.0000	-0.0000	-0.0000	-0.0000	-0.0000	-0.0000	-0.0000	0.0000	-0.0000	0.0000	-0.0000	0.0000	-0.0000	0.0000	0.0000	-0.0000	0.0000	0.0000	-0.0000	0.0000	-0.0000	0.0000	0.0000	0.0000	-0.0000	0.0000	0.0000	-0.0000	-0.0000	0.0000	0.0000	-0.0000	0.0000	0.0000	-0.0000	-0.0000	0.0000	0.0000	-0.0000	-0.0000	-0.0000	0.0000	-0.0000	0.0000	-0.0000	-0.0000	0.0000	0.0000	-0.0000	-0.0000	0.0000	-0.0000	-0.0000	0.0000	0.0000	-0.0000	-0.0000	-0.0000	0.0000	-0.0000	-0.0000	-0.0000	0.0000	0.0000	0.0000	-0.0000	-0.0000	0.0000	0.0000	-0.0000	-0.0000	0.0000	-0.0000	-0.0000	-0.0000	-0.0000	-0.0000	0.0000	0.0000	-0.0000	0.0000	-0.0000	-0.0000	-0.0000	0.0000	-0.0000	-0.0000	0.0000	0.0000	0.0000	0.0000	-0.0000	-0.0000	-0.0000	0.0000	-0.0000	0.0000	-0.0000	-0.0000	0.0000	-0.0000	-0.0000	-0.0000	0.0000	-0.0000	-0.0000	0.0000	-0.0000	0.0000	-0.0000	0.0000	-0.0000	0.0000	-0.0000	-0.0000	-0.0000	0.0000	0.0000	-0.0000	-0.0000	-0.0000	0.0000	-0.0000	0.0000	-0.0000	-0.0000	0.0000	-0.0000	-0.0000	-0.0000	0.0000	-0.0000	0.0000	-0.0000	0.0000	-0.0000	-0.0000	-0.0000	0.0000	-0.0000	0.0000	0.0000	-0.0000	0.0000	0.0000	0.0000	-0.0000	0.0000	0.0000	0.0000	-0.0000	-0.0000	-0.0000	0.0000	-0.0000	-0.0000	0.0000	-0.0000	0.0000	-0.0000	0.0000	-0.0000	-0.0000	-0.0000	-0.0000	-0.0000	-0.0000	0.0000	0.0000	0.0000	0.0000	-0.0000	0.0000	-0.0000	0.0000	-0.0000	0.0000	-0.0000	0.0000	0.0000	-0.0000	-0.0000	0.0000	0.0000	-0.0000	0.0000	0.0000	-0.0000	0.0000	0.0000	0.0000	-0.0000	0.0000	0.0000	0.0000	0.0000	0.0000	0.0000	-0.0000	0.0000	0.0000	-0.0000	-0.0000	0.0000	0.0000	-0.0000	0.0000	0.0000	0.0000	-0.0000	0.0000	0.0000	0.0000	-0.0000	-0.0000	-0.0000	0.0000	0.0000	0.0000	-0.0000	0.0000	0.0000	-0.0000	-0.0000	0.0000	0.0000	-0.0000	0.0000	0.0000	0.0000	0.0000	0.0000	-0.0000	0.0000	0.0000	0.0000	0.0000	-0.0000	0.0000	-0.0000	-0.0000	-0.0000	-0.0000	-0.0000	-0.0000	0.0000	0.0000	0.0000	-0.0000	0.0000	0.0000	0.0000	0.0000	-0.0000	-0.0000	-0.0000	0.0000	-0.0000	0.0000	0.0000	-0.0000	-0.0000	0.0000	0.0000	-0.0000	-0.0000	0.0000	0.0000	-0.0000	0.0000	0.0000	-0.0000	-0.0000	0.0000	-0.0000	-0.0000	0.0000	0.0000	-0.0000	0.0000	0.0000	0.0000	-0.0000	0.0000	-0.0000	-0.0000	0.0000	0.0000	-0.0000	-0.0000	0.0000	0.0000	-0.0000	-0.0000	-0.0000	-0.0000	-0.0000	-0.0000	0.0000	-0.0000	-0.0000	-0.0000	-0.0000	-0.0000	-0.0000	-0.0000	-0.0000	0.0000	-0.0000	-0.0000	0.0000	0.0000	0.0000	-0.0000	0.0000	0.0000	0.0000	-0.0000	-0.0000	0.0000	-0.0000	-0.0000	0.0000	0.0000	-0.0000	0.0000	-0.0000	0.0000	-0.0000	0.0000	-0.0000	0.0000	-0.0000	-0.0000	-0.0000	-0.0000	0.0000	0.0000	-0.0000	0.0000	0.0000	0.0000	-0.0000	0.0000	-0.0000	-0.0000	0.0000	0.0000	0.0000	0.0000	0.0000	-0.0000	0.0000	-0.0000	0.0000	-0.0000	0.0000	0.0000	-0.0000	-0.0000	-0.0000	-0.0000	-0.0000	0.0000	-0.0000	-0.0000	-0.0000	0.0000	-0.0000	-0.0000	-0.0000	0.0000	0.0000	0.0000	-0.0000	-0.0000	-0.0000	-0.0000	-0.0000	-0.0000	-0.0000	-0.0000	0.0000	0.0000	-0.0000	0.0000	0.0000	0.0000	0.0000	-0.0000	-0.0000	-0.0000	0.0000	-0.0000	0.0000	0.0000	-0.0000	0.0000	0.0000	0.0000	-0.0000	-0.0000	-0.0000	-0.0000	-0.0000	-0.0000	-0.0000	0.0000	-0.0000	0.0000	-0.0000	0.0000	-0.0000	0.0000	0.0000	-0.0000	0.0000	0.0000	-0.0000	0.0000	-0.0000	0.0000	-0.0000	0.0000	-0.0000	0.0000	-0.0000	0.0000	-0.0000	0.0000	-0.0000	-0.0000	-0.0000	0.0000	-0.0000	-0.0000	0.0000	0.0000	-0.0000	0.0000	-0.0000	-0.0000	-0.0000	0.0000	-0.0000	-0.0000	0.0000	0.0000	-0.0000	0.0000	0.0000	-0.0000	-0.0000	0.0000	0.0000	-0.0000	-0.0000	-0.0000	0.0000	-0.0000	-0.0000	-0.0000	0.0000	0.0000	0.0000	-0.0000	-0.0000	0.0000	0.0000	-0.0000	-0.0000	0.0000	-0.0000	-0.0000	-0.0000	-0.0000	-0.0000	0.0000	0.0000	-0.0000	0.0000	-0.0000	-0.0000	-0.0000	0.0000	-0.0000	-0.0000	0.0000	0.0000	0.0000	0.0000	-0.0000	-0.0000	-0.0000	0.0000	-0.0000	0.0000	0.0000	-0.0000	0.0000	-0.0000	0.0000	-0.0000	0.0000	0.0000	-0.0000	-0.0000	-0.0000	0.0000	-0.0000	-0.0000	-0.0000	0.0000	-0.0000	-0.0000	-0.0000	0.0000	0.0000	-0.0000	0.0000	-0.0000	0.0000	0.0000	0.0000	-0.0000	-0.0000	0.0000	-0.0000	-0.0000	-0.0000	0.0000	-0.0000	0.0000	0.0000	0.0000	-0.0000	-0.0000	-0.0000	0.0000	-0.0000	0.0000	0.0000	-0.0000	0.0000	0.0000	0.0000	-0.0000	0.0000	0.0000	0.0000	-0.0000	-0.0000	-0.0000	0.0000	-0.0000	-0.0000	0.0000	-0.0000	0.0000	-0.0000	0.0000	-0.0000	-0.0000	-0.0000	-0.0000	-0.0000	-0.0000	0.0000	0.0000	0.0000	0.0000	-0.0000	0.0000	-0.0000	0.0000	-0.0000	0.0000	-0.0000	0.0000	0.0000	-0.0000	0.0000	0.0000	0.0000	0.0000	0.0000	0.0000	-0.0000	0.0000	0.0000	0.0000	-0.0000	-0.0000	0.0000	0.0000	0.0000	0.0000	0.0000	-0.0000	0.0000	0.0000	-0.0000	-0.0000	0.0000	0.0000	-0.0000	0.0000	0.0000	0.0000	-0.0000	0.0000	-0.0000	0.0000	0.0000	-0.0000	-0.0000	0.0000	0.0000	0.0000	-0.0000	0.0000	0.0000	-0.0000	0.0000	0.0000	0.0000	-0.0000	0.0000	0.0000	0.0000	0.0000	0.0000	-0.0000	0.0000	0.0000	0.0000	0.0000	-0.0000	0.0000	-0.0000	-0.0000	-0.0000	-0.0000	-0.0000	-0.0000	0.0000	0.0000	0.0000	-0.0000	0.0000	0.0000	0.0000	0.0000	-0.0000	-0.0000	-0.0000	0.0000	-0.0000	0.0000	0.0000	-0.0000	-0.0000	0.0000	0.0000	-0.0000	0.0000	0.0000	0.0000	-0.0000	0.0000	0.0000	-0.0000	-0.0000	0.0000	-0.0000	0.0000	0.0000	0.0000	-0.0000	0.0000	0.0000	0.0000	-0.0000	0.0000	0.0000	-0.0000	0.0000	0.0000	0.0000	-0.0000	0.0000	0.0000	-0.0000	0.0000	-0.0000	-0.0000	-0.0000	-0.0000	0.0000	-0.0000	-0.0000	-0.0000	-0.0000	-0.0000	-0.0000	-0.0000	-0.0000	0.0000	0.0000	-0.0000	0.0000	0.0000	0.0000	-0.0000	0.0000	0.0000	0.0000	-0.0000	-0.0000	0.0000	-0.0000	-0.0000	0.0000	0.0000	-0.0000	0.0000	-0.0000	0.0000	-0.0000	0.0000	-0.0000	0.0000	-0.0000	-0.0000	-0.0000	0.0000	-0.0000	-0.0000	0.0000	-0.0000	-0.0000	-0.0000	0.0000	-0.0000	0.0000	0.0000	-0.0000	-0.0000	-0.0000	-0.0000	-0.0000	0.0000	-0.0000	0.0000	-0.0000	0.0000	-0.0000	-0.0000	0.0000	0.0000	0.0000	0.0000	0.0000	-0.0000	0.0000	0.0000	0.0000	-0.0000	0.0000	0.0000	0.0000	-0.0000	-0.0000	-0.0000	0.0000	0.0000	0.0000	0.0000	0.0000	0.0000	0.0000	0.0000	-0.0000	-0.0000	0.0000	-0.0000	-0.0000	-0.0000	-0.0000	0.0000	0.0000	0.0000	-0.0000	0.0000	-0.0000	-0.0000	0.0000	-0.0000	-0.0000	-0.0000	0.0000	0.0000	0.0000	0.0000	0.0000	0.0000	0.0000	-0.0000	0.0000	-0.0000	0.0000	-0.0000	0.0000	-0.0000	-0.0000	0.0000	-0.0000	-0.0000	0.0000	-0.0000	0.0000	-0.0000	0.0000	-0.0000	0.0000	-0.0000	0.0000	-0.0000	0.0000	-0.0000	0.0000	0.0000	0.0000	-0.0000	0.0000	0.0000	-0.0000	-0.0000	0.0000	-0.0000	0.0000	0.0000	0.0000	-0.0000	0.0000	0.0000	-0.0000	-0.0000	0.0000	-0.0000	-0.0000	0.0000	0.0000	-0.0000	-0.0000	0.0000	0.0000	0.0000	-0.0000	0.0000	0.0000	0.0000	-0.0000	-0.0000	-0.0000	0.0000	0.0000	-0.0000	-0.0000	0.0000	0.0000	-0.0000	0.0000	0.0000	0.0000	0.0000	0.0000	-0.0000	-0.0000	0.0000	-0.0000	0.0000	0.0000	0.0000	-0.0000	0.0000	0.0000	-0.0000	-0.0000	-0.0000	-0.0000	0.0000	0.0000	0.0000	-0.0000	0.0000	-0.0000	-0.0000	0.0000	-0.0000	0.0000	-0.0000	0.0000	-0.0000	-0.0000	0.0000	0.0000	0.0000	-0.0000	0.0000	0.0000	0.0000	-0.0000	0.0000	0.0000	0.0000	-0.0000	-0.0000	0.0000	-0.0000	0.0000	-0.0000	-0.0000	-0.0000	0.0000	0.0000	-0.0000	0.0000	0.0000	0.0000	-0.0000	0.0000	-0.0000	-0.0000	-0.0000	0.0000	0.0000	0.0000	-0.0000	0.0000	-0.0000	-0.0000	0.0000	-0.0000	-0.0000	-0.0000	0.0000	-0.0000	-0.0000	-0.0000	0.0000	0.0000	0.0000	-0.0000	0.0000	0.0000	-0.0000	0.0000	-0.0000	0.0000	-0.0000	0.0000	0.0000	0.0000	0.0000	0.0000	0.0000	-0.0000	-0.0000	-0.0000	-0.0000	0.0000	-0.0000	0.0000	-0.0000	0.0000	-0.0000	0.0000	-0.0000	-0.0000	0.0000	-0.0000	-0.0000	-0.0000	-0.0000	-0.0000	-0.0000	0.0000	-0.0000	-0.0000	-0.0000	0.0000	0.0000	-0.0000	-0.0000	-0.0000	-0.0000	-0.0000	0.0000	-0.0000	-0.0000	0.0000	0.0000	-0.0000	-0.0000	0.0000	-0.0000	-0.0000	-0.0000	0.0000	-0.0000	0.0000	-0.0000	-0.0000	0.0000	0.0000	-0.0000	-0.0000	-0.0000	0.0000	-0.0000	-0.0000	0.0000	-0.0000	-0.0000	-0.0000	0.0000	-0.0000	-0.0000	-0.0000	-0.0000	-0.0000	0.0000	-0.0000	-0.0000	-0.0000	-0.0000	0.0000	-0.0000	0.0000	0.0000	0.0000	0.0000	0.0000	0.0000	-0.0000	-0.0000	-0.0000	0.0000	-0.0000	-0.0000	-0.0000	-0.0000	0.0000	0.0000	0.0000	-0.0000	0.0000	-0.0000	-0.0000	0.0000	0.0000	-0.0000	-0.0000	0.0000	-0.0000	-0.0000	-0.0000	0.0000	-0.0000	-0.0000	0.0000	0.0000	-0.0000	0.0000	-0.0000	-0.0000	-0.0000	0.0000	-0.0000	-0.0000	-0.0000	0.0000	-0.0000	-0.0000	0.0000	-0.0000	-0.0000	-0.0000	0.0000	-0.0000	-0.0000	0.0000	-0.0000	0.0000	0.0000	0.0000	0.0000	-0.0000	0.0000	0.0000	0.0000	0.0000	0.0000	0.0000	0.0000	0.0000	-0.0000	-0.0000	0.0000	-0.0000	-0.0000	-0.0000	0.0000	-0.0000	-0.0000	-0.0000	0.0000	0.0000	-0.0000	0.0000	0.0000	-0.0000	-0.0000	0.0000	-0.0000	0.0000	-0.0000	0.0000	-0.0000	0.0000	-0.0000	0.0000	0.0000	0.0000	-0.0000	0.0000	0.0000	-0.0000	0.0000	0.0000	0.0000	-0.0000	0.0000	-0.0000	-0.0000	0.0000	0.0000	0.0000	0.0000	0.0000	-0.0000	0.0000	-0.0000	0.0000	-0.0000	0.0000	0.0000	-0.0000	-0.0000	-0.0000	-0.0000	-0.0000	0.0000	-0.0000	-0.0000	-0.0000	0.0000	-0.0000	-0.0000	-0.0000	0.0000	0.0000	0.0000	-0.0000	-0.0000	-0.0000	-0.0000	-0.0000	-0.0000	-0.0000	-0.0000	0.0000	0.0000	-0.0000	0.0000	0.0000	0.0000	0.0000	-0.0000	-0.0000	-0.0000	0.0000	-0.0000	0.0000	0.0000	-0.0000	0.0000	0.0000	0.0000	-0.0000	-0.0000	-0.0000	-0.0000	-0.0000	-0.0000	-0.0000	0.0000	-0.0000	0.0000	-0.0000	0.0000	-0.0000	0.0000	0.0000	-0.0000	0.0000	0.0000	-0.0000	0.0000	-0.0000	0.0000	-0.0000	0.0000	-0.0000	0.0000	-0.0000	0.0000	-0.0000	0.0000	-0.0000	-0.0000	-0.0000	0.0000	-0.0000	-0.0000	0.0000	0.0000	-0.0000	0.0000	-0.0000	-0.0000	-0.0000	0.0000	-0.0000	-0.0000	0.0000	0.0000	-0.0000	0.0000	0.0000	-0.0000	-0.0000	0.0000	0.0000	-0.0000	-0.0000	-0.0000	0.0000	-0.0000	-0.0000	-0.0000	0.0000	0.0000	0.0000	-0.0000	-0.0000	0.0000	0.0000	-0.0000	-0.0000	0.0000	-0.0000	-0.0000	-0.0000	-0.0000	-0.0000	0.0000	0.0000	-0.0000	0.0000	-0.0000	-0.0000	-0.0000	0.0000	-0.0000	-0.0000	0.0000	0.0000	0.0000	0.0000	-0.0000	-0.0000	-0.0000	0.0000	-0.0000	0.0000	0.0000	-0.0000	0.0000	-0.0000	0.0000	-0.0000	0.0000	0.0000	-0.0000	-0.0000	-0.0000	0.0000	-0.0000	-0.0000	-0.0000	0.0000	-0.0000	-0.0000	-0.0000	0.0000	0.0000	-0.0000	0.0000	-0.0000	0.0000	0.0000	0.0000	-0.0000	-0.0000	0.0000	-0.0000	-0.0000	-0.0000	0.0000	-0.0000	0.0000	0.0000	0.0000	-0.0000	-0.0000	-0.0000	0.0000	-0.0000	0.0000	0.0000	-0.0000	0.0000	0.0000	0.0000	-0.0000	0.0000	0.0000	0.0000	-0.0000	-0.0000	-0.0000	0.0000	-0.0000	-0.0000	0.0000	-0.0000	0.0000	-0.0000	0.0000	-0.0000	-0.0000	-0.0000	-0.0000	-0.0000	-0.0000	0.0000	0.0000	0.0000	0.0000	-0.0000	0.0000	-0.0000	0.0000	-0.0000	0.0000	-0.0000	0.0000	0.0000	-0.0000	0.0000	0.0000	0.0000	0.0000	0.0000	0.0000	-0.0000	0.0000	0.0000	0.0000	-0.0000	-0.0000	0.0000	0.0000	0.0000	0.0000	0.0000	-0.0000	0.0000	0.0000	-0.0000	-0.0000	0.0000	0.0000	-0.0000	0.0000	0.0000	0.0000	-0.0000	0.0000	-0.0000	0.0000	0.0000	-0.0000	-0.0000	0.0000	0.0000	0.0000	-0.0000	0.0000	0.0000	-0.0000	0.0000	0.0000	0.0000	-0.0000	0.0000	0.0000	0.0000	0.0000	0.0000	-0.0000	0.0000	0.0000	0.0000	0.0000	-0.0000	0.0000	-0.0000	-0.0000	-0.0000	-0.0000	-0.0000	-0.0000	0.0000	0.0000	0.0000	-0.0000	0.0000	0.0000	0.0000	0.0000	-0.0000	-0.0000	-0.0000	0.0000	-0.0000	0.0000	0.0000	-0.0000	-0.0000	0.0000	0.0000	-0.0000	0.0000	0.0000	0.0000	-0.0000	0.0000	0.0000	-0.0000	-0.0000	0.0000	-0.0000	0.0000	0.0000	0.0000	-0.0000	0.0000	0.0000	0.0000	-0.0000	0.0000	0.0000	-0.0000	0.0000	0.0000	0.0000	-0.0000	0.0000	0.0000	-0.0000	0.0000	-0.0000	-0.0000	-0.0000	-0.0000	0.0000	-0.0000	-0.0000	-0.0000	-0.0000	-0.0000	-0.0000	-0.0000	-0.0000	0.0000	0.0000	-0.0000	0.0000	0.0000	0.0000	-0.0000	0.0000	0.0000	0.0000	-0.0000	-0.0000	0.0000	-0.0000	-0.0000	0.0000	0.0000	-0.0000	0.0000	-0.0000	0.0000	-0.0000	0.0000	-0.0000	0.0000	-0.0000	-0.0000	-0.0000	0.0000	-0.0000	-0.0000	0.0000	-0.0000	-0.0000	-0.0000	0.0000	-0.0000	0.0000	0.0000	-0.0000	-0.0000	-0.0000	-0.0000	-0.0000	0.0000	-0.0000	0.0000	-0.0000	0.0000	-0.0000	-0.0000	0.0000	0.0000	0.0000	0.0000	0.0000	-0.0000	0.0000	0.0000	0.0000	-0.0000	0.0000	0.0000	0.0000	-0.0000	-0.0000	-0.0000	0.0000	0.0000	0.0000	0.0000	0.0000	0.0000	0.0000	0.0000	-0.0000	-0.0000	0.0000	-0.0000	-0.0000	-0.0000	-0.0000	0.0000	0.0000	0.0000	-0.0000	0.0000	-0.0000	-0.0000	0.0000	-0.0000	-0.0000	-0.0000	0.0000	0.0000	0.0000	0.0000	0.0000	0.0000	0.0000	-0.0000	0.0000	-0.0000	0.0000	-0.0000	0.0000	-0.0000	-0.0000	0.0000	-0.0000	-0.0000	0.0000	-0.0000	0.0000	-0.0000	0.0000	-0.0000	0.0000	-0.0000	0.0000	-0.0000	0.0000	-0.0000	0.0000	0.0000	0.0000	-0.0000	0.0000	0.0000	-0.0000	-0.0000	0.0000	-0.0000	0.0000	0.0000	0.0000	-0.0000	0.0000	0.0000	-0.0000	-0.0000	0.0000	-0.0000	-0.0000	0.0000	0.0000	-0.0000	-0.0000	0.0000	0.0000	0.0000	-0.0000	0.0000	0.0000	0.0000	-0.0000	-0.0000	-0.0000	0.0000	0.0000	-0.0000	-0.0000	0.0000	0.0000	-0.0000	0.0000	0.0000	0.0000	0.0000	0.0000	-0.0000	-0.0000	0.0000	-0.0000	0.0000	0.0000	0.0000	-0.0000	0.0000	0.0000	-0.0000	-0.0000	-0.0000	-0.0000	0.0000	0.0000	0.0000	-0.0000	0.0000	-0.0000	-0.0000	0.0000	-0.0000	0.0000	-0.0000	0.0000	-0.0000	-0.0000	0.0000	0.0000	0.0000	-0.0000	0.0000	0.0000	0.0000	-0.0000	0.0000	0.0000	0.0000	-0.0000	-0.0000	0.0000	-0.0000	0.0000	-0.0000	-0.0000	-0.0000	0.0000	0.0000	-0.0000	0.0000	0.0000	0.0000	-0.0000	0.0000	-0.0000	-0.0000	-0.0000	0.0000	0.0000	0.0000	-0.0000	0.0000	-0.0000	-0.0000	0.0000	-0.0000	-0.0000	-0.0000	0.0000	-0.0000	-0.0000	-0.0000	0.0000	0.0000	0.0000	-0.0000	0.0000	0.0000	-0.0000	0.0000	-0.0000	0.0000	-0.0000	0.0000	0.0000	0.0000	0.0000	0.0000	0.0000	-0.0000	-0.0000	-0.0000	-0.0000	0.0000	-0.0000	0.0000	-0.0000	0.0000	-0.0000	0.0000	-0.0000	-0.0000	0.0000	-0.0000	-0.0000	-0.0000	-0.0000	-0.0000	-0.0000	0.0000	-0.0000	-0.0000	-0.0000	0.0000	0.0000	-0.0000	-0.0000	-0.0000	-0.0000	-0.0000	0.0000	-0.0000	-0.0000	0.0000	0.0000	-0.0000	-0.0000	0.0000	-0.0000	-0.0000	-0.0000	0.0000	-0.0000	0.0000	-0.0000	-0.0000	0.0000	0.0000	-0.0000	-0.0000	-0.0000	0.0000	-0.0000	-0.0000	0.0000	-0.0000	-0.0000	-0.0000	0.0000	-0.0000	-0.0000	-0.0000	-0.0000	-0.0000	0.0000	-0.0000	-0.0000	-0.0000	-0.0000	0.0000	-0.0000	0.0000	0.0000	0.0000	0.0000	0.0000	0.0000	-0.0000	-0.0000	-0.0000	0.0000	-0.0000	-0.0000	-0.0000	-0.0000	0.0000	0.0000	0.0000	-0.0000	0.0000	-0.0000	-0.0000	0.0000	0.0000	-0.0000	-0.0000	0.0000	-0.0000	-0.0000	-0.0000	0.0000	-0.0000	-0.0000	0.0000	0.0000	-0.0000	0.0000	-0.0000	-0.0000	-0.0000	0.0000	-0.0000	-0.0000	-0.0000	0.0000	-0.0000	-0.0000	0.0000	-0.0000	-0.0000	-0.0000	0.0000	-0.0000	-0.0000	0.0000	-0.0000	0.0000	0.0000	0.0000	0.0000	-0.0000	0.0000	0.0000	0.0000	0.0000	0.0000	0.0000	0.0000	0.0000	-0.0000	-0.0000	0.0000	-0.0000	-0.0000	-0.0000	0.0000	-0.0000	-0.0000	-0.0000	0.0000	0.0000	-0.0000	0.0000	0.0000	-0.0000	-0.0000	0.0000	-0.0000	0.0000	-0.0000	0.0000	-0.0000	0.0000	-0.0000	0.0000	0.0000	0.0000	0.0000	-0.0000	0.0000	0.0000	-0.0000	-0.0000	0.0000	-0.0000	-0.0000	0.0000	0.0000	-0.0000	0.0000	0.0000	-0.0000	-0.0000	0.0000	-0.0000	-0.0000	-0.0000	0.0000	-0.0000	-0.0000	0.0000	0.0000	0.0000	0.0000	-0.0000	-0.0000	0.0000	0.0000	-0.0000	-0.0000	0.0000	0.0000	0.0000	0.0000	-0.0000	0.0000	-0.0000	0.0000	0.0000	0.0000	0.0000	0.0000	0.0000	-0.0000	-0.0000	-0.0000	0.0000	-0.0000	-0.0000	0.0000	-0.0000	-0.0000	0.0000	0.0000	-0.0000	0.0000	-0.0000	-0.0000	0.0000	0.0000	-0.0000	-0.0000	-0.0000	0.0000	0.0000	0.0000	-0.0000	0.0000	0.0000	-0.0000	0.0000	-0.0000	0.0000	0.0000	0.0000	-0.0000	-0.0000	0.0000	-0.0000	-0.0000	0.0000	-0.0000	0.0000	-0.0000	-0.0000	-0.0000	0.0000	-0.0000	0.0000	-0.0000	0.0000	-0.0000	0.0000	0.0000	0.0000	-0.0000	0.0000	0.0000	-0.0000	-0.0000	0.0000	0.0000	0.0000	0.0000	0.0000	-0.0000	0.0000	0.0000	0.0000	-0.0000	0.0000	0.0000	0.0000	0.0000	0.0000	-0.0000	0.0000	0.0000	0.0000	0.0000	-0.0000	0.0000	0.0000	0.0000	-0.0000	-0.0000	-0.0000	-0.0000	-0.0000	-0.0000	-0.0000	0.0000	0.0000	0.0000	0.0000	0.0000	0.0000	0.0000	0.0000	-0.0000	0.0000	0.0000	-0.0000	0.0000	0.0000	0.0000	-0.0000	-0.0000	0.0000	-0.0000	0.0000	-0.0000	-0.0000	0.0000	0.0000	0.0000	-0.0000	0.0000	-0.0000	-0.0000	0.0000	-0.0000	-0.0000	-0.0000	0.0000	-0.0000	-0.0000	0.0000	0.0000	-0.0000	-0.0000	0.0000	0.0000	0.0000	-0.0000	0.0000	-0.0000	0.0000	-0.0000	-0.0000	0.0000	-0.0000	-0.0000	0.0000	-0.0000	-0.0000	-0.0000	0.0000	-0.0000	-0.0000	-0.0000	0.0000	0.0000	0.0000	-0.0000	0.0000	0.0000	0.0000	0.0000	0.0000	-0.0000	0.0000	-0.0000	-0.0000	-0.0000	-0.0000	-0.0000	-0.0000	0.0000	-0.0000	-0.0000	-0.0000	0.0000	0.0000	0.0000	-0.0000	0.0000	0.0000	-0.0000	0.0000	0.0000	0.0000	-0.0000	0.0000	0.0000	-0.0000	0.0000	-0.0000	0.0000	-0.0000	-0.0000	-0.0000	-0.0000	-0.0000	-0.0000	0.0000	0.0000	0.0000	-0.0000	0.0000	-0.0000	-0.0000	0.0000	-0.0000	-0.0000	-0.0000	-0.0000	-0.0000	0.0000	0.0000	-0.0000	-0.0000	-0.0000	0.0000	-0.0000	-0.0000	-0.0000	-0.0000	-0.0000	-0.0000	-0.0000	-0.0000	-0.0000	0.0000	-0.0000	-0.0000	-0.0000	0.0000	-0.0000	-0.0000	-0.0000	0.0000	0.0000	0.0000	0.0000	-0.0000	0.0000	0.0000	0.0000	0.0000	-0.0000	0.0000	-0.0000	0.0000	-0.0000	-0.0000	-0.0000	0.0000	-0.0000	-0.0000	-0.0000	0.0000	-0.0000	0.0000	0.0000	0.0000	-0.0000	-0.0000	-0.0000	0.0000	0.0000	0.0000	0.0000	0.0000	0.0000	0.0000	0.0000	-0.0000	-0.0000	-0.0000	-0.0000	-0.0000	-0.0000	-0.0000	-0.0000	0.0000	0.0000	0.0000	0.0000	0.0000	-0.0000	-0.0000	0.0000	0.0000	-0.0000	-0.0000	0.0000	-0.0000	-0.0000	0.0000	0.0000	-0.0000	-0.0000	0.0000	0.0000	-0.0000	0.0000	-0.0000	-0.0000	-0.0000	-0.0000	-0.0000	0.0000	-0.0000	-0.0000	-0.0000	0.0000	-0.0000	-0.0000	-0.0000	0.0000	-0.0000	-0.0000	0.0000	0.0000	-0.0000	0.0000	0.0000	0.0000	0.0000	-0.0000	-0.0000	0.0000	0.0000	0.0000	0.0000	0.0000	0.0000	0.0000	0.0000	-0.0000	0.0000	-0.0000	0.0000	-0.0000	0.0000	-0.0000	-0.0000	-0.0000	0.0000	0.0000	-0.0000	0.0000	0.0000	-0.0000	-0.0000	0.0000	-0.0000	0.0000	-0.0000	-0.0000	-0.0000	0.0000	-0.0000	-0.0000	0.0000	0.0000	0.0000	-0.0000	0.0000	0.0000	-0.0000	-0.0000	0.0000	-0.0000	-0.0000	0.0000	0.0000	-0.0000	0.0000	0.0000	-0.0000	-0.0000	0.0000	-0.0000	-0.0000	-0.0000	0.0000	-0.0000	-0.0000	0.0000	0.0000	0.0000	0.0000	-0.0000	-0.0000	0.0000	0.0000	-0.0000	-0.0000	0.0000	0.0000	0.0000	0.0000	-0.0000	0.0000	-0.0000	0.0000	0.0000	0.0000	0.0000	0.0000	0.0000	-0.0000	-0.0000	-0.0000	0.0000	-0.0000	-0.0000	0.0000	-0.0000	-0.0000	0.0000	0.0000	-0.0000	0.0000	-0.0000	-0.0000	0.0000	0.0000	-0.0000	-0.0000	-0.0000	0.0000	0.0000	0.0000	-0.0000	0.0000	0.0000	-0.0000	0.0000	-0.0000	0.0000	0.0000	0.0000	-0.0000	-0.0000	0.0000	-0.0000	-0.0000	0.0000	-0.0000	0.0000	-0.0000	-0.0000	-0.0000	0.0000	-0.0000	0.0000	-0.0000	0.0000	-0.0000	0.0000	0.0000	0.0000	-0.0000	0.0000	0.0000	-0.0000	-0.0000	0.0000	0.0000	0.0000	0.0000	0.0000	-0.0000	0.0000	0.0000	0.0000	-0.0000	0.0000	0.0000	0.0000	0.0000	0.0000	-0.0000	0.0000	0.0000	0.0000	0.0000	-0.0000	0.0000	0.0000	0.0000	-0.0000	-0.0000	-0.0000	-0.0000	-0.0000	-0.0000	-0.0000	0.0000	0.0000	0.0000	0.0000	0.0000	0.0000	0.0000	0.0000	-0.0000	0.0000	0.0000	-0.0000	0.0000	0.0000	0.0000	-0.0000	-0.0000	0.0000	-0.0000	0.0000	-0.0000	-0.0000	0.0000	0.0000	0.0000	-0.0000	0.0000	-0.0000	-0.0000	0.0000	-0.0000	-0.0000	-0.0000	0.0000	-0.0000	-0.0000	0.0000	0.0000	-0.0000	-0.0000	0.0000	0.0000	0.0000	-0.0000	0.0000	-0.0000	0.0000	-0.0000	-0.0000	0.0000	-0.0000	-0.0000	0.0000	-0.0000	-0.0000	-0.0000	0.0000	-0.0000	-0.0000	-0.0000	0.0000	0.0000	0.0000	-0.0000	0.0000	0.0000	0.0000	0.0000	0.0000	-0.0000	0.0000	-0.0000	-0.0000	-0.0000	-0.0000	-0.0000	-0.0000	0.0000	-0.0000	-0.0000	-0.0000	0.0000	0.0000	0.0000	-0.0000	0.0000	0.0000	-0.0000	0.0000	0.0000	0.0000	-0.0000	0.0000	0.0000	-0.0000	0.0000	-0.0000	0.0000	-0.0000	-0.0000	-0.0000	-0.0000	-0.0000	-0.0000	0.0000	0.0000	0.0000	-0.0000	0.0000	-0.0000	-0.0000	0.0000	-0.0000	-0.0000	-0.0000	-0.0000	-0.0000	0.0000	0.0000	-0.0000	-0.0000	-0.0000	0.0000	-0.0000	-0.0000	-0.0000	-0.0000	-0.0000	-0.0000	-0.0000	-0.0000	-0.0000	0.0000	-0.0000	-0.0000	-0.0000	0.0000	-0.0000	-0.0000	-0.0000	0.0000	0.0000	0.0000	0.0000	-0.0000	0.0000	0.0000	0.0000	0.0000	-0.0000	0.0000	-0.0000	0.0000	-0.0000	-0.0000	-0.0000	0.0000	-0.0000	-0.0000	-0.0000	0.0000	-0.0000	0.0000	0.0000	0.0000	-0.0000	-0.0000	-0.0000	0.0000	0.0000	0.0000	0.0000	0.0000	0.0000	0.0000	0.0000	-0.0000	-0.0000	-0.0000	-0.0000	-0.0000	-0.0000	-0.0000	-0.0000	0.0000	0.0000	0.0000	0.0000	0.0000	-0.0000	-0.0000	0.0000	0.0000	-0.0000	-0.0000	0.0000	-0.0000	-0.0000	0.0000	0.0000	-0.0000	-0.0000	0.0000	0.0000	-0.0000	0.0000	-0.0000	-0.0000	-0.0000	-0.0000	-0.0000	0.0000	-0.0000	-0.0000	-0.0000	0.0000	-0.0000	-0.0000	-0.0000	0.0000	-0.0000	-0.0000	0.0000	0.0000	-0.0000	0.0000	0.0000	0.0000	0.0000	-0.0000	-0.0000	0.0000	0.0000	0.0000	0.0000	0.0000	0.0000	0.0000	0.0000	-0.0000	0.0000	-0.0000	0.0000	-0.0000	0.0000	-0.0000	-0.0000	-0.0000	0.0000	0.0000	-0.0000	0.0000	0.0000	-0.0000	-0.0000	0.0000	-0.0000	0.0000	-0.0000	-0.0000	-0.0000	0.0000	-0.0000	-0.0000	0.0000	0.0000	-0.0000	0.0000	-0.0000	-0.0000	0.0000	0.0000	-0.0000	0.0000	0.0000	-0.0000	-0.0000	0.0000	-0.0000	-0.0000	0.0000	0.0000	-0.0000	0.0000	0.0000	0.0000	-0.0000	0.0000	0.0000	-0.0000	-0.0000	-0.0000	-0.0000	0.0000	0.0000	-0.0000	-0.0000	0.0000	0.0000	-0.0000	-0.0000	-0.0000	-0.0000	0.0000	-0.0000	0.0000	-0.0000	-0.0000	-0.0000	-0.0000	-0.0000	-0.0000	0.0000	0.0000	0.0000	-0.0000	0.0000	0.0000	-0.0000	0.0000	0.0000	-0.0000	-0.0000	0.0000	-0.0000	0.0000	0.0000	-0.0000	-0.0000	0.0000	0.0000	0.0000	-0.0000	-0.0000	-0.0000	0.0000	-0.0000	-0.0000	0.0000	-0.0000	0.0000	-0.0000	-0.0000	-0.0000	0.0000	0.0000	-0.0000	0.0000	0.0000	-0.0000	0.0000	-0.0000	0.0000	0.0000	0.0000	-0.0000	0.0000	-0.0000	0.0000	-0.0000	0.0000	-0.0000	-0.0000	-0.0000	0.0000	-0.0000	-0.0000	0.0000	0.0000	-0.0000	-0.0000	-0.0000	-0.0000	-0.0000	0.0000	-0.0000	-0.0000	-0.0000	0.0000	-0.0000	-0.0000	-0.0000	-0.0000	-0.0000	0.0000	-0.0000	-0.0000	-0.0000	-0.0000	0.0000	-0.0000	-0.0000	-0.0000	0.0000	0.0000	0.0000	0.0000	0.0000	0.0000	0.0000	-0.0000	-0.0000	-0.0000	-0.0000	-0.0000	-0.0000	-0.0000	-0.0000	0.0000	-0.0000	-0.0000	0.0000	-0.0000	-0.0000	-0.0000	0.0000	0.0000	-0.0000	0.0000	-0.0000	0.0000	0.0000	-0.0000	-0.0000	-0.0000	0.0000	-0.0000	0.0000	0.0000	-0.0000	0.0000	0.0000	0.0000	-0.0000	0.0000	0.0000	-0.0000	-0.0000	0.0000	0.0000	-0.0000	-0.0000	-0.0000	0.0000	-0.0000	0.0000	-0.0000	0.0000	0.0000	-0.0000	0.0000	0.0000	-0.0000	0.0000	0.0000	0.0000	-0.0000	0.0000	0.0000	0.0000	-0.0000	-0.0000	-0.0000	0.0000	-0.0000	-0.0000	-0.0000	-0.0000	-0.0000	0.0000	-0.0000	0.0000	0.0000	0.0000	0.0000	0.0000	0.0000	-0.0000	0.0000	0.0000	0.0000	-0.0000	-0.0000	-0.0000	0.0000	-0.0000	-0.0000	0.0000	-0.0000	-0.0000	-0.0000	0.0000	-0.0000	-0.0000	0.0000	-0.0000	0.0000	-0.0000	0.0000	0.0000	0.0000	0.0000	0.0000	0.0000	-0.0000	-0.0000	-0.0000	0.0000	-0.0000	0.0000	0.0000	-0.0000	0.0000	0.0000	0.0000	0.0000	0.0000	-0.0000	-0.0000	0.0000	0.0000	0.0000	-0.0000	0.0000	0.0000	0.0000	0.0000	0.0000	0.0000	0.0000	0.0000	0.0000	-0.0000	0.0000	0.0000	0.0000	-0.0000	0.0000	0.0000	0.0000	-0.0000	-0.0000	-0.0000	-0.0000	0.0000	-0.0000	-0.0000	-0.0000	-0.0000	0.0000	-0.0000	0.0000	-0.0000	0.0000	0.0000	0.0000	-0.0000	0.0000	0.0000	0.0000	-0.0000	0.0000	-0.0000	-0.0000	-0.0000	0.0000	0.0000	0.0000	-0.0000	-0.0000	-0.0000	-0.0000	-0.0000	-0.0000	-0.0000	-0.0000	0.0000	0.0000	0.0000	0.0000	0.0000	0.0000	0.0000	0.0000	-0.0000	-0.0000	-0.0000	-0.0000	-0.0000	0.0000	0.0000	-0.0000	-0.0000	0.0000	0.0000	-0.0000	0.0000	0.0000	-0.0000	-0.0000	0.0000	0.0000	-0.0000	-0.0000	0.0000	-0.0000	0.0000	0.0000	0.0000	0.0000	0.0000	-0.0000	0.0000	0.0000	0.0000	-0.0000	0.0000	0.0000	0.0000	-0.0000	0.0000	0.0000	-0.0000	-0.0000	0.0000	-0.0000	-0.0000	-0.0000	-0.0000	0.0000	0.0000	-0.0000	-0.0000	-0.0000	-0.0000	-0.0000	-0.0000	-0.0000	-0.0000	0.0000	-0.0000	0.0000	-0.0000	0.0000	-0.0000	0.0000	0.0000	0.0000	-0.0000	-0.0000	0.0000	-0.0000	-0.0000	0.0000	0.0000	-0.0000	0.0000	-0.0000	0.0000	0.0000	0.0000	-0.0000	0.0000	0.0000	-0.0000	-0.0000	0.0000	-0.0000	0.0000	0.0000	-0.0000	-0.0000	0.0000	-0.0000	-0.0000	0.0000	0.0000	-0.0000	0.0000	0.0000	-0.0000	-0.0000	0.0000	-0.0000	-0.0000	-0.0000	0.0000	-0.0000	-0.0000	0.0000	0.0000	0.0000	0.0000	-0.0000	-0.0000	0.0000	0.0000	-0.0000	-0.0000	0.0000	0.0000	0.0000	0.0000	-0.0000	0.0000	-0.0000	0.0000	0.0000	0.0000	0.0000	0.0000	0.0000	-0.0000	-0.0000	-0.0000	0.0000	-0.0000	-0.0000	0.0000	-0.0000	-0.0000	0.0000	0.0000	-0.0000	0.0000	-0.0000	-0.0000	0.0000	0.0000	-0.0000	-0.0000	-0.0000	0.0000	0.0000	0.0000	-0.0000	0.0000	0.0000	-0.0000	0.0000	-0.0000	0.0000	0.0000	0.0000	-0.0000	-0.0000	0.0000	-0.0000	-0.0000	0.0000	-0.0000	0.0000	-0.0000	-0.0000	-0.0000	0.0000	-0.0000	0.0000	-0.0000	0.0000	-0.0000	0.0000	0.0000	0.0000	-0.0000	0.0000	0.0000	-0.0000	-0.0000	0.0000	0.0000	0.0000	0.0000	0.0000	-0.0000	0.0000	0.0000	0.0000	-0.0000	0.0000	0.0000	0.0000	0.0000	0.0000	-0.0000	0.0000	0.0000	0.0000	0.0000	-0.0000	0.0000	0.0000	0.0000	-0.0000	-0.0000	-0.0000	-0.0000	-0.0000	-0.0000	-0.0000	0.0000	0.0000	0.0000	0.0000	0.0000	0.0000	0.0000	0.0000	-0.0000	0.0000	0.0000	-0.0000	0.0000	0.0000	0.0000	-0.0000	-0.0000	0.0000	-0.0000	0.0000	-0.0000	-0.0000	0.0000	0.0000	0.0000	-0.0000	0.0000	-0.0000	-0.0000	0.0000	-0.0000	-0.0000	-0.0000	0.0000	-0.0000	-0.0000	0.0000	0.0000	-0.0000	-0.0000	0.0000	0.0000	0.0000	-0.0000	0.0000	-0.0000	0.0000	-0.0000	-0.0000	0.0000	-0.0000	-0.0000	0.0000	-0.0000	-0.0000	-0.0000	0.0000	-0.0000	-0.0000	-0.0000	0.0000	0.0000	0.0000	-0.0000	0.0000	0.0000	0.0000	0.0000	0.0000	-0.0000	0.0000	-0.0000	-0.0000	-0.0000	-0.0000	-0.0000	-0.0000	0.0000	-0.0000	-0.0000	-0.0000	0.0000	0.0000	0.0000	-0.0000	0.0000	0.0000	-0.0000	0.0000	0.0000	0.0000	-0.0000	0.0000	0.0000	-0.0000	0.0000	-0.0000	0.0000	-0.0000	-0.0000	-0.0000	-0.0000	-0.0000	-0.0000	0.0000	0.0000	0.0000	-0.0000	0.0000	-0.0000	-0.0000	0.0000	-0.0000	-0.0000	-0.0000	-0.0000	-0.0000	0.0000	0.0000	-0.0000	-0.0000	-0.0000	0.0000	-0.0000	-0.0000	-0.0000	-0.0000	-0.0000	-0.0000	-0.0000	-0.0000	-0.0000	0.0000	-0.0000	-0.0000	-0.0000	0.0000	-0.0000	-0.0000	-0.0000	0.0000	0.0000	0.0000	0.0000	-0.0000	0.0000	0.0000	0.0000	0.0000	-0.0000	0.0000	-0.0000	0.0000	-0.0000	-0.0000	-0.0000	0.0000	-0.0000	-0.0000	-0.0000	0.0000	-0.0000	0.0000	0.0000	0.0000	-0.0000	-0.0000	-0.0000	0.0000	0.0000	0.0000	0.0000	0.0000	0.0000	0.0000	0.0000	-0.0000	-0.0000	-0.0000	-0.0000	-0.0000	-0.0000	-0.0000	-0.0000	0.0000	0.0000	0.0000	0.0000	0.0000	-0.0000	-0.0000	0.0000	0.0000	-0.0000	-0.0000	0.0000	-0.0000	-0.0000	0.0000	0.0000	-0.0000	-0.0000	0.0000	0.0000	-0.0000	0.0000	-0.0000	-0.0000	-0.0000	-0.0000	-0.0000	0.0000	-0.0000	-0.0000	-0.0000	0.0000	-0.0000	-0.0000	-0.0000	0.0000	-0.0000	-0.0000	0.0000	0.0000	-0.0000	0.0000	0.0000	0.0000	0.0000	-0.0000	-0.0000	0.0000	0.0000	0.0000	0.0000	0.0000	0.0000	0.0000	0.0000	-0.0000	0.0000	-0.0000	0.0000	-0.0000	0.0000	-0.0000	-0.0000	-0.0000	0.0000	0.0000	-0.0000	0.0000	0.0000	-0.0000	-0.0000	0.0000	-0.0000	0.0000	-0.0000	-0.0000	-0.0000	0.0000	-0.0000	-0.0000	0.0000	0.0000	0.0000	-0.0000	0.0000	0.0000	-0.0000	0.0000	-0.0000	-0.0000	-0.0000	0.0000	0.0000	-0.0000	-0.0000	-0.0000	-0.0000	0.0000	0.0000	-0.0000	0.0000	0.0000	0.0000	-0.0000	-0.0000	0.0000	0.0000	0.0000	0.0000	-0.0000	-0.0000	0.0000	-0.0000	-0.0000	-0.0000	0.0000	0.0000	0.0000	0.0000	-0.0000	0.0000	-0.0000	0.0000	0.0000	0.0000	0.0000	0.0000	0.0000	-0.0000	-0.0000	-0.0000	0.0000	-0.0000	-0.0000	0.0000	-0.0000	0.0000	0.0000	0.0000	-0.0000	0.0000	-0.0000	-0.0000	0.0000	0.0000	-0.0000	-0.0000	-0.0000	0.0000	0.0000	0.0000	-0.0000	0.0000	0.0000	-0.0000	0.0000	-0.0000	0.0000	-0.0000	0.0000	-0.0000	-0.0000	0.0000	-0.0000	-0.0000	0.0000	-0.0000	0.0000	-0.0000	-0.0000	-0.0000	0.0000	-0.0000	0.0000	-0.0000	0.0000	-0.0000	0.0000	-0.0000	-0.0000	-0.0000	0.0000	0.0000	-0.0000	-0.0000	0.0000	0.0000	0.0000	0.0000	0.0000	-0.0000	-0.0000	0.0000	-0.0000	-0.0000	0.0000	-0.0000	0.0000	0.0000	0.0000	-0.0000	-0.0000	0.0000	0.0000	0.0000	-0.0000	-0.0000	0.0000	0.0000	-0.0000	-0.0000	-0.0000	0.0000	0.0000	0.0000	-0.0000	0.0000	0.0000	0.0000	0.0000	0.0000	0.0000	0.0000	0.0000	0.0000	0.0000	0.0000	-0.0000	0.0000	0.0000	0.0000	-0.0000	-0.0000	0.0000	-0.0000	0.0000	-0.0000	-0.0000	0.0000	0.0000	0.0000	-0.0000	0.0000	-0.0000	0.0000	0.0000	-0.0000	-0.0000	0.0000	0.0000	-0.0000	-0.0000	0.0000	0.0000	0.0000	-0.0000	0.0000	0.0000	0.0000	-0.0000	0.0000	-0.0000	0.0000	-0.0000	-0.0000	-0.0000	0.0000	-0.0000	0.0000	0.0000	-0.0000	-0.0000	0.0000	-0.0000	-0.0000	-0.0000	-0.0000	-0.0000	0.0000	0.0000	-0.0000	-0.0000	0.0000	0.0000	0.0000	-0.0000	-0.0000	-0.0000	-0.0000	0.0000	-0.0000	-0.0000	-0.0000	0.0000	0.0000	0.0000	-0.0000	0.0000	0.0000	0.0000	-0.0000	0.0000	0.0000	-0.0000	0.0000	0.0000	0.0000	-0.0000	0.0000	0.0000	-0.0000	0.0000	-0.0000	-0.0000	-0.0000	-0.0000	-0.0000	-0.0000	0.0000	-0.0000	0.0000	0.0000	0.0000	-0.0000	0.0000	-0.0000	-0.0000	-0.0000	-0.0000	-0.0000	-0.0000	-0.0000	-0.0000	0.0000	0.0000	-0.0000	-0.0000	-0.0000	0.0000	0.0000	-0.0000	-0.0000	-0.0000	-0.0000	-0.0000	-0.0000	-0.0000	-0.0000	0.0000	0.0000	-0.0000	-0.0000	0.0000	0.0000	-0.0000	-0.0000	-0.0000	0.0000	-0.0000	0.0000	-0.0000	0.0000	0.0000	0.0000	-0.0000	-0.0000	-0.0000	-0.0000	-0.0000	-0.0000	-0.0000	-0.0000	0.0000	-0.0000	0.0000	0.0000	0.0000	-0.0000	0.0000	0.0000	-0.0000	-0.0000	-0.0000	-0.0000	0.0000	0.0000	0.0000	0.0000	0.0000	0.0000	-0.0000	0.0000	-0.0000	-0.0000	-0.0000	-0.0000	-0.0000	0.0000	-0.0000	-0.0000	0.0000	0.0000	0.0000	0.0000	0.0000	-0.0000	-0.0000	0.0000	0.0000	-0.0000	-0.0000	0.0000	-0.0000	0.0000	0.0000	0.0000	-0.0000	-0.0000	0.0000	0.0000	-0.0000	-0.0000	-0.0000	-0.0000	-0.0000	-0.0000	-0.0000	0.0000	-0.0000	-0.0000	-0.0000	0.0000	-0.0000	-0.0000	-0.0000	0.0000	-0.0000	-0.0000	0.0000	0.0000	-0.0000	0.0000	0.0000	0.0000	0.0000	-0.0000	-0.0000	0.0000	0.0000	-0.0000	0.0000	0.0000	0.0000	-0.0000	0.0000	-0.0000	0.0000	-0.0000	-0.0000	-0.0000	0.0000	-0.0000	-0.0000	-0.0000	0.0000	0.0000	-0.0000	0.0000	-0.0000	-0.0000	-0.0000	0.0000	-0.0000	0.0000	-0.0000	-0.0000	0.0000	0.0000	-0.0000	0.0000	0.0000	0.0000	0.0000	-0.0000	0.0000	0.0000	-0.0000	0.0000	-0.0000	-0.0000	-0.0000	0.0000	0.0000	-0.0000	-0.0000	-0.0000	-0.0000	0.0000	0.0000	-0.0000	0.0000	0.0000	0.0000	-0.0000	-0.0000	0.0000	0.0000	0.0000	0.0000	-0.0000	-0.0000	0.0000	-0.0000	-0.0000	-0.0000	0.0000	0.0000	0.0000	0.0000	-0.0000	0.0000	-0.0000	0.0000	0.0000	0.0000	0.0000	0.0000	0.0000	-0.0000	-0.0000	-0.0000	0.0000	-0.0000	-0.0000	0.0000	-0.0000	0.0000	0.0000	0.0000	-0.0000	0.0000	-0.0000	-0.0000	0.0000	0.0000	-0.0000	-0.0000	-0.0000	0.0000	0.0000	0.0000	-0.0000	0.0000	0.0000	-0.0000	0.0000	-0.0000	0.0000	-0.0000	0.0000	-0.0000	-0.0000	0.0000	-0.0000	-0.0000	0.0000	-0.0000	0.0000	-0.0000	-0.0000	-0.0000	0.0000	-0.0000	0.0000	-0.0000	0.0000	-0.0000	0.0000	-0.0000	-0.0000	-0.0000	0.0000	0.0000	-0.0000	-0.0000	0.0000	0.0000	0.0000	0.0000	0.0000	-0.0000	-0.0000	0.0000	-0.0000	-0.0000	0.0000	-0.0000	0.0000	0.0000	0.0000	-0.0000	-0.0000	0.0000	0.0000	0.0000	-0.0000	-0.0000	0.0000	0.0000	-0.0000	-0.0000	-0.0000	0.0000	0.0000	0.0000	-0.0000	0.0000	0.0000	0.0000	0.0000	0.0000	0.0000	0.0000	0.0000	0.0000	0.0000	0.0000	-0.0000	0.0000	0.0000	0.0000	-0.0000	-0.0000	0.0000	-0.0000	0.0000	-0.0000	-0.0000	0.0000	0.0000	0.0000	-0.0000	0.0000	-0.0000	0.0000	0.0000	-0.0000	-0.0000	0.0000	0.0000	-0.0000	-0.0000	0.0000	0.0000	0.0000	-0.0000	0.0000	0.0000	0.0000	-0.0000	0.0000	-0.0000	0.0000	-0.0000	-0.0000	-0.0000	0.0000	-0.0000	0.0000	0.0000	-0.0000	-0.0000	0.0000	-0.0000	-0.0000	-0.0000	-0.0000	-0.0000	0.0000	0.0000	-0.0000	-0.0000	0.0000	0.0000	0.0000	-0.0000	-0.0000	-0.0000	-0.0000	0.0000	-0.0000	-0.0000	-0.0000	0.0000	0.0000	0.0000	-0.0000	0.0000	0.0000	0.0000	-0.0000	0.0000	0.0000	-0.0000	0.0000	0.0000	0.0000	-0.0000	0.0000	0.0000	-0.0000	0.0000	-0.0000	-0.0000	-0.0000	-0.0000	-0.0000	-0.0000	0.0000	-0.0000	0.0000	0.0000	0.0000	-0.0000	0.0000	-0.0000	-0.0000	-0.0000	-0.0000	-0.0000	-0.0000	-0.0000	-0.0000	0.0000	0.0000	-0.0000	-0.0000	-0.0000	0.0000	0.0000	-0.0000	-0.0000	-0.0000	-0.0000	-0.0000	-0.0000	-0.0000	-0.0000	0.0000	0.0000	-0.0000	-0.0000	0.0000	0.0000	-0.0000	-0.0000	-0.0000	0.0000	-0.0000	0.0000	-0.0000	0.0000	0.0000	0.0000	-0.0000	-0.0000	-0.0000	-0.0000	-0.0000	-0.0000	-0.0000	-0.0000	0.0000	-0.0000	0.0000	0.0000	0.0000	-0.0000	0.0000	0.0000	-0.0000	-0.0000	-0.0000	-0.0000	0.0000	0.0000	0.0000	0.0000	0.0000	0.0000	-0.0000	0.0000	-0.0000	-0.0000	-0.0000	-0.0000	-0.0000	0.0000	-0.0000	-0.0000	0.0000	0.0000	0.0000	0.0000	0.0000	-0.0000	-0.0000	0.0000	0.0000	-0.0000	-0.0000	0.0000	-0.0000	0.0000	0.0000	0.0000	-0.0000	-0.0000	0.0000	0.0000	-0.0000	-0.0000	-0.0000	-0.0000	-0.0000	-0.0000	-0.0000	0.0000	-0.0000	-0.0000	-0.0000	0.0000	-0.0000	-0.0000	-0.0000	0.0000	-0.0000	-0.0000	0.0000	0.0000	-0.0000	0.0000	0.0000	0.0000	0.0000	-0.0000	-0.0000	0.0000	0.0000	-0.0000	0.0000	0.0000	0.0000	-0.0000	0.0000	-0.0000	0.0000	-0.0000	-0.0000	-0.0000	0.0000	-0.0000	-0.0000	-0.0000	0.0000	0.0000	-0.0000	0.0000	-0.0000	-0.0000	-0.0000	0.0000	-0.0000	0.0000	-0.0000	-0.0000	0.0000	0.0000	-0.0000	0.0000	0.0000	0.0000	0.0000	-0.0000	0.0000	0.0000	-0.0000	0.0000	-0.0000	-0.0000	-0.0000	0.0000	0.0000	-0.0000	-0.0000	-0.0000	-0.0000	0.0000	0.0000	-0.0000	0.0000	0.0000	0.0000	-0.0000	-0.0000	0.0000	0.0000	0.0000	0.0000	-0.0000	-0.0000	0.0000	-0.0000	-0.0000	-0.0000	0.0000	0.0000	0.0000	0.0000	-0.0000	0.0000	-0.0000	0.0000	0.0000	0.0000	0.0000	0.0000	0.0000	-0.0000	-0.0000	-0.0000	0.0000	-0.0000	-0.0000	0.0000	-0.0000	0.0000	0.0000	0.0000	-0.0000	0.0000	-0.0000	-0.0000	0.0000	0.0000	-0.0000	-0.0000	-0.0000	0.0000	0.0000	0.0000	-0.0000	0.0000	0.0000	-0.0000	0.0000	-0.0000	0.0000	-0.0000	0.0000	-0.0000	-0.0000	0.0000	-0.0000	-0.0000	0.0000	-0.0000	0.0000	-0.0000	-0.0000	-0.0000	0.0000	-0.0000	0.0000	-0.0000	0.0000	-0.0000	0.0000	-0.0000	-0.0000	-0.0000	0.0000	0.0000	-0.0000	-0.0000	0.0000	0.0000	0.0000	0.0000	0.0000	-0.0000	-0.0000	0.0000	-0.0000	-0.0000	0.0000	-0.0000	0.0000	0.0000	0.0000	-0.0000	-0.0000	0.0000	0.0000	0.0000	-0.0000	-0.0000	0.0000	0.0000	-0.0000	-0.0000	-0.0000	0.0000	0.0000	0.0000	-0.0000	0.0000	0.0000	0.0000	0.0000	0.0000	0.0000	0.0000	0.0000	0.0000	0.0000	0.0000	-0.0000	0.0000	0.0000	0.0000	-0.0000	-0.0000	0.0000	-0.0000	0.0000	-0.0000	-0.0000	0.0000	0.0000	0.0000	-0.0000	0.0000	-0.0000	0.0000	0.0000	-0.0000	-0.0000	0.0000	0.0000	-0.0000	-0.0000	0.0000	0.0000	0.0000	-0.0000	0.0000	0.0000	0.0000	-0.0000	0.0000	-0.0000	0.0000	-0.0000	-0.0000	-0.0000	0.0000	-0.0000	0.0000	0.0000	-0.0000	-0.0000	0.0000	-0.0000	-0.0000	-0.0000	-0.0000	-0.0000	0.0000	0.0000	-0.0000	-0.0000	0.0000	0.0000	0.0000	-0.0000	-0.0000	-0.0000	-0.0000	0.0000	-0.0000	-0.0000	-0.0000	0.0000	0.0000	0.0000	-0.0000	0.0000	0.0000	0.0000	-0.0000	0.0000	0.0000	-0.0000	0.0000	0.0000	0.0000	-0.0000	0.0000	0.0000	-0.0000	0.0000	-0.0000	-0.0000	-0.0000	-0.0000	-0.0000	-0.0000	0.0000	-0.0000	0.0000	0.0000	0.0000	-0.0000	0.0000	-0.0000	-0.0000	-0.0000	-0.0000	-0.0000	-0.0000	-0.0000	-0.0000	0.0000	0.0000	-0.0000	-0.0000	-0.0000	0.0000	0.0000	-0.0000	-0.0000	-0.0000	-0.0000	-0.0000	-0.0000	-0.0000	-0.0000	0.0000	0.0000	-0.0000	-0.0000	0.0000	0.0000	-0.0000	-0.0000	-0.0000	0.0000	-0.0000	0.0000	-0.0000	0.0000	0.0000	0.0000	-0.0000	-0.0000	-0.0000	-0.0000	-0.0000	-0.0000	-0.0000	-0.0000	0.0000	-0.0000	0.0000	0.0000	0.0000	-0.0000	0.0000	0.0000	-0.0000	-0.0000	-0.0000	-0.0000	0.0000	0.0000	0.0000	0.0000	0.0000	0.0000	-0.0000	0.0000	-0.0000	-0.0000	-0.0000	-0.0000	-0.0000	0.0000	-0.0000	-0.0000	0.000