6.5590	3.5065	4.0637	4.6225	-1.1094	-0.0032	1.5073	-1.4010	-0.3829	-0.6601	-1.3308	0.2809	-0.0640	-0.1434	0.3569	-0.6111	-0.0929	0.0502	-0.1727	-0.1640	-0.0161	0.2381	-0.2139	0.1084	0.0589	0.1127	-0.1576	0.1610	0.0188	0.0197	-0.0511	-0.0564	0.0172	-0.0425	-0.0192	0.0160	-0.0378	-0.0013	0.0066	0.0105	-0.0124	0.0112	-0.0038	-0.0116	-0.0112	-0.0067	0.0021	0.0118	-0.0030	-0.0188	0.0099	-0.0066	-0.0014	0.0086	-0.0011	0.0062	0.0073	-0.0045	-0.0076	0.0028	-0.0006	-0.0054	0.0059	-0.0048	-0.0855	0.3380	0.0590	0.1147	0.2658	0.1225	0.2404	0.3146	0.1605	-0.0874	0.1858	0.0250	-0.0096	0.0034	0.0430	-0.0012	-0.0301	0.0111	0.0116	0.0494	-0.0137	0.0121	0.0179	-0.0209	0.0123	0.0109	-0.0060	0.0110	0.0215	-0.0134	0.0100	0.0114	0.0046	-0.0022	0.0022	-0.0127	-0.0082	-0.0036	0.0038	-0.0076	0.0062	-0.0043	0.0012	-0.0090	-0.0020	-0.0044	0.0061	0.0020	0.0158	0.2167	0.2274	0.1684	0.2671	-0.0749	0.1262	0.0771	-0.0401	-0.1611	-0.0715	-0.1245	0.0211	0.0058	-0.0045	0.0490	0.0165	-0.0202	-0.0171	-0.0083	0.0165	-0.0128	0.0005	-0.0371	0.0184	-0.0004	-0.0004	-0.0095	0.0039	-0.0061	0.0039	-0.0161	-0.0027	-0.0007	-0.0058	-0.0132	0.0063	-0.0017	-0.0085	-0.0056	-0.0005	0.0012	-0.0048	0.0011	-0.0058	0.0001	0.0002	0.0084	-0.0291	-0.1313	-0.0561	-0.0713	-0.0991	-0.0541	-0.1142	-0.1288	-0.0699	0.0650	-0.1306	-0.0278	0.0029	0.0034	-0.0112	-0.0015	0.0229	0.0008	-0.0282	-0.0200	0.0279	-0.0125	-0.0372	-0.0092	-0.0032	-0.0008	-0.0024	-0.0048	-0.0046	0.0096	-0.0046	-0.0036	-0.0027	0.0058	-0.0052	0.0040	0.0022	0.0017	0.0003	-0.0007	-0.0001	0.0051	-0.0010	0.0011	0.0024	0.0029	-0.0033	0.0001	-0.0390	-0.0033	-0.1031	-0.0762	-0.0346	0.2375	-0.0636	0.0617	0.1384	0.3131	0.0371	0.2439	-0.0093	0.0086	-0.0114	-0.0309	-0.0032	0.0051	-0.0076	0.0003	-0.0130	0.0052	-0.0100	0.0109	-0.0117	0.0057	-0.0021	0.0015	-0.0056	0.0122	-0.0054	0.0133	0.0026	0.0051	-0.0021	0.0129	-0.0004	0.0047	0.0034	-0.0013	0.0011	0.0040	0.0017	-0.0004	0.0028	0.0052	0.0017	-0.0031	-0.0380	0.1382	0.0097	0.0149	0.1036	0.3377	0.1917	0.2272	0.3081	0.3456	0.2848	0.3220	-0.0144	0.0149	0.0123	-0.0336	-0.0116	0.0169	0.0017	0.0156	-0.0076	0.0073	0.0026	0.0078	-0.0071	0.0031	-0.0038	0.0098	-0.0017	0.0009	-0.0002	0.0164	0.0014	0.0013	-0.0003	0.0052	-0.0044	-0.0014	0.0044	-0.0013	0.0015	0.0003	0.0028	-0.0030	0.0023	0.0022	0.0022	-0.0041	0.0041	0.1453	0.1634	0.0857	0.1686	0.2679	0.3345	0.2140	0.3110	0.2905	0.3890	0.2745	-0.0297	0.0138	0.0338	-0.0083	-0.0341	0.0244	0.0367	0.0213	-0.0230	0.0204	0.0292	0.0158	-0.0043	-0.0050	0.0016	0.0102	0.0002	0.0053	0.0036	0.0120	0.0071	0.0143	0.0020	0.0078	-0.0053	-0.0038	0.0052	-0.0021	-0.0005	0.0018	0.0049	-0.0054	0.0018	0.0020	0.0017	0.0015	-0.0768	-0.0579	0.0924	-0.0536	0.0122	0.0799	0.1983	0.0219	0.1398	0.1495	0.2395	0.1145	0.0062	0.0108	0.0056	-0.0269	0.0236	0.0021	-0.0026	-0.0058	0.0188	-0.0052	-0.0043	0.0015	0.0028	-0.0093	0.0000	-0.0103	-0.0094	-0.0058	0.0047	-0.0010	-0.0069	-0.0041	0.0023	-0.0007	-0.0001	0.0020	0.0000	0.0035	-0.0028	0.0031	-0.0015	0.0026	-0.0013	0.0019	-0.0024	0.0006	-0.1460	-0.0941	-0.0832	-0.1235	-0.0838	0.0295	0.0278	-0.0178	0.0415	0.0900	0.1125	0.0618	0.0050	0.0067	0.0003	-0.0303	0.0131	0.0012	-0.0101	0.0017	0.0108	-0.0029	-0.0089	0.0023	0.0030	-0.0009	-0.0035	-0.0085	-0.0053	-0.0045	0.0006	0.0028	-0.0052	-0.0043	0.0011	0.0025	0.0013	-0.0001	-0.0000	0.0034	-0.0010	0.0025	-0.0018	0.0029	-0.0012	0.0021	-0.0022	0.0009	0.2170	0.2433	0.1455	0.3140	0.1859	-0.0643	0.1433	0.1139	0.0058	-0.0761	0.0863	-0.0686	0.0092	-0.0219	0.0125	0.0603	-0.0170	0.0109	0.0014	-0.0139	0.0220	0.0044	-0.0082	-0.0248	0.0101	-0.0015	0.0022	0.0167	0.0143	-0.0024	-0.0013	-0.0092	0.0053	0.0073	-0.0052	-0.0028	0.0023	-0.0034	-0.0070	-0.0047	-0.0039	0.0011	0.0070	-0.0001	0.0002	0.0013	0.0020	0.0036	0.3862	0.1401	0.2073	0.2964	0.1341	-0.0099	-0.0379	-0.0075	-0.0430	0.0367	-0.1015	0.0067	0.0120	-0.0167	-0.0329	0.0607	0.0084	-0.0115	-0.0067	-0.0500	0.0046	-0.0071	-0.0050	-0.0068	-0.0037	-0.0048	0.0078	0.0061	-0.0008	0.0075	-0.0030	-0.0171	-0.0023	0.0048	-0.0057	0.0014	0.0075	0.0028	-0.0097	-0.0012	-0.0040	0.0002	0.0021	0.0083	-0.0015	0.0011	-0.0011	0.0030	0.3985	0.1474	0.1753	0.2382	0.1072	0.1102	0.0285	0.0915	0.0823	0.1118	0.0361	0.1051	0.0006	-0.0182	-0.0207	0.0212	-0.0110	-0.0026	0.0119	-0.0230	-0.0108	0.0039	0.0049	0.0081	-0.0192	-0.0033	0.0083	0.0123	0.0023	0.0084	-0.0038	-0.0037	0.0072	0.0015	0.0025	0.0025	-0.0007	0.0028	-0.0022	-0.0010	-0.0011	-0.0049	0.0046	0.0029	0.0007	-0.0001	0.0036	-0.0014	0.0427	0.0463	-0.2718	-0.0321	-0.0912	0.2139	-0.3272	0.0370	0.0241	0.1419	-0.2848	0.1532	0.0029	-0.0279	-0.0287	-0.0205	-0.0769	-0.0226	0.0645	0.0200	-0.1123	0.0539	0.0782	0.0673	-0.0208	-0.0107	0.0178	0.0040	-0.0336	-0.0341	0.0259	-0.0156	-0.0136	-0.0167	0.0213	-0.0184	0.0173	-0.0084	-0.0077	0.0174	-0.0004	-0.0147	0.0018	0.0007	-0.0105	-0.0029	0.0061	-0.0090	0.1648	-0.1867	0.0933	0.2074	-0.0918	-0.1255	0.2349	-0.1552	0.0424	0.0235	0.1731	-0.0691	-0.0177	0.0019	0.0269	0.0338	0.0465	0.0321	-0.0249	-0.0174	0.0554	-0.0391	-0.0285	-0.0191	-0.0018	-0.0099	-0.0134	0.0335	0.0134	0.0069	-0.0039	-0.0100	-0.0118	0.0111	-0.0050	0.0054	0.0070	-0.0028	0.0050	-0.0021	0.0021	0.0082	0.0026	0.0069	-0.0035	0.0052	-0.0115	0.0050	0.3064	-0.1829	-0.1421	-0.0013	-0.2444	0.0954	-0.1908	-0.0984	0.0141	0.1728	-0.0390	0.1416	-0.0047	-0.0079	-0.0317	-0.0406	-0.0045	-0.0040	-0.0093	-0.0176	-0.0117	0.0070	-0.0044	0.0288	-0.0270	-0.0116	0.0089	0.0191	-0.0094	-0.0005	0.0015	-0.0021	-0.0017	-0.0050	0.0047	0.0089	0.0002	0.0085	-0.0008	0.0041	-0.0017	-0.0006	-0.0001	0.0080	-0.0008	-0.0010	-0.0028	-0.0043	-0.0008	0.2751	-0.0133	0.0101	0.1957	0.0601	-0.1055	0.2280	-0.0642	-0.3533	-0.1789	-0.0861	-0.0233	0.0111	0.0021	-0.0223	-0.0249	-0.0140	0.0246	0.0650	-0.0319	0.0172	0.0167	-0.0315	-0.0064	-0.0090	0.0115	-0.0106	-0.0009	-0.0176	0.0072	-0.0118	0.0106	-0.0040	-0.0026	-0.0121	0.0015	-0.0087	-0.0018	-0.0024	-0.0055	-0.0074	-0.0078	-0.0106	-0.0104	0.0071	0.0049	0.0104	-0.1467	-0.0199	0.2644	-0.0241	0.2391	0.1084	0.1567	-0.0369	0.0812	-0.1646	-0.3141	-0.0521	-0.0165	0.0423	0.0172	-0.0313	0.0426	-0.0191	-0.0305	0.0329	0.0056	-0.0325	0.0039	-0.0408	0.0078	-0.0083	-0.0117	-0.0182	-0.0056	0.0182	0.0114	-0.0173	-0.0005	0.0076	-0.0124	-0.0058	0.0054	-0.0035	0.0035	-0.0080	0.0045	0.0048	-0.0138	-0.0110	-0.0037	-0.0026	-0.0012	0.0077	-0.2865	-0.1727	-0.1024	-0.2189	-0.0743	0.1960	0.1363	0.0136	0.2145	0.0212	-0.0454	0.0788	0.0036	0.0177	-0.0022	-0.1031	0.0028	-0.0171	-0.0055	0.0607	-0.0220	-0.0011	0.0259	0.0165	-0.0060	-0.0091	-0.0020	-0.0097	-0.0141	0.0027	0.0070	0.0076	-0.0002	0.0134	0.0003	0.0008	-0.0012	0.0027	0.0045	0.0121	-0.0001	-0.0028	-0.0110	-0.0077	0.0002	-0.0065	0.0009	-0.0070	-0.0327	-0.1145	-0.0518	-0.0519	-0.0987	0.1522	0.1009	0.0206	0.1352	-0.0318	0.2138	0.1344	-0.0344	-0.0034	0.0211	-0.0275	-0.0578	-0.0092	0.0995	0.0508	-0.1224	0.0570	0.1089	0.0706	-0.0183	-0.0092	0.0063	0.0101	-0.0004	-0.0024	0.0241	0.0155	0.0007	-0.0056	0.0136	0.0013	0.0066	0.0006	0.0032	0.0093	-0.0078	-0.0110	-0.0025	0.0038	-0.0045	-0.0019	0.0092	-0.0056	-0.0193	-0.1296	-0.1281	-0.0859	-0.1177	-0.1008	-0.0353	-0.0187	-0.0904	-0.3388	-0.1125	-0.2065	0.0095	0.0259	-0.0307	-0.0691	0.0946	-0.0269	-0.0873	0.0440	0.0649	-0.0548	-0.0600	-0.0763	-0.0058	0.0005	-0.0168	0.0080	0.0200	0.0038	-0.0130	-0.0011	-0.0092	-0.0125	-0.0120	-0.0039	-0.0049	0.0110	0.0019	-0.0039	0.0033	0.0132	-0.0251	0.0101	-0.0071	0.0133	-0.0134	0.0185	0.0435	0.2962	-0.0698	0.0265	0.2306	0.3306	-0.1160	0.2774	0.1347	0.0108	-0.3232	0.1319	-0.0369	0.0188	0.0225	-0.0733	-0.0487	-0.0023	-0.0161	0.0715	-0.0436	0.0137	0.0179	-0.0230	-0.0096	0.0103	-0.0037	0.0048	0.0058	0.0083	0.0097	0.0047	0.0179	0.0051	-0.0043	-0.0016	-0.0055	-0.0024	-0.0011	-0.0126	0.0037	0.0006	-0.0057	-0.0125	-0.0006	-0.0008	0.0078	0.0014	0.2380	-0.1161	0.1288	0.2491	0.0111	0.0687	-0.0174	-0.2001	0.0098	-0.0034	-0.1841	0.0854	-0.0311	-0.0078	0.0094	0.0591	0.0524	0.0275	-0.0403	-0.0554	0.0306	-0.0593	-0.0162	0.0018	-0.0134	-0.0178	-0.0118	0.0050	0.0116	0.0246	0.0104	-0.0257	-0.0130	-0.0194	-0.0006	0.0038	0.0190	0.0037	0.0013	-0.0069	-0.0033	0.0046	0.0004	0.0098	0.0068	-0.0071	-0.0097	0.0031	0.2672	-0.2088	-0.0384	-0.0721	-0.1790	0.3185	0.0591	0.0994	0.2480	-0.1992	0.0673	0.1309	-0.0514	0.0281	-0.0498	-0.1361	0.0271	-0.0317	0.0418	0.0885	-0.0490	0.0122	0.0131	0.0147	-0.0501	-0.0217	0.0131	0.0165	0.0033	0.0151	-0.0067	0.0113	0.0085	-0.0182	0.0084	0.0010	0.0043	0.0127	0.0140	0.0070	0.0001	-0.0153	-0.0127	-0.0042	0.0028	-0.0009	0.0067	-0.0076	0.0879	-0.0885	-0.0903	-0.0280	-0.0472	0.0062	0.1953	0.1019	0.1127	-0.3349	-0.0872	-0.2003	-0.0257	0.0156	0.0702	-0.1758	0.0122	0.0078	-0.0416	0.1161	0.0175	-0.0239	0.0041	-0.0533	-0.0112	-0.0076	-0.0160	0.0230	0.0202	-0.0164	0.0150	-0.0005	-0.0051	0.0034	-0.0010	-0.0152	-0.0183	-0.0025	0.0105	-0.0018	0.0073	0.0030	-0.0145	-0.0142	-0.0072	0.0003	-0.0002	0.0047	-0.0958	0.0529	0.1218	-0.0409	0.0633	-0.1794	0.0258	-0.1227	-0.0868	0.2446	0.0221	0.0073	0.1200	-0.0006	-0.0302	0.0623	0.1036	0.0190	-0.1850	-0.1517	0.1602	-0.1333	-0.0897	-0.0368	0.0506	0.0345	-0.0141	-0.0159	0.0004	-0.0244	-0.0253	-0.0135	-0.0395	-0.0475	0.0037	-0.0090	-0.0204	0.0032	-0.0009	-0.0061	0.0187	-0.0003	0.0093	0.0025	0.0213	-0.0295	-0.0019	-0.0123	-0.0921	0.1335	0.0377	0.1080	0.0010	-0.0032	-0.0140	-0.0260	-0.0441	-0.2723	0.2510	0.0646	0.0184	-0.0756	0.0425	0.2522	-0.0216	0.0615	0.1057	-0.0614	-0.0153	0.0184	-0.0420	0.0167	-0.0032	0.0260	0.0185	0.0012	0.0531	0.0440	-0.0220	-0.0126	0.0320	-0.0053	0.0009	0.0329	0.0154	-0.0128	-0.0021	0.0104	-0.0338	-0.0002	0.0332	-0.0086	0.0249	0.0112	0.0011	0.0007	-0.0331	-0.1539	0.0641	-0.0742	-0.1144	0.3181	-0.0005	-0.0902	0.2285	-0.0754	-0.3551	0.1197	0.0220	-0.0068	-0.1229	0.1706	0.0108	-0.0382	0.0061	0.0176	0.0029	0.0098	0.0051	-0.0182	-0.0424	-0.0135	0.0334	0.0296	-0.0083	0.0191	-0.0073	-0.0399	-0.0069	-0.0081	0.0039	0.0000	0.0169	0.0140	0.0130	0.0250	0.0074	-0.0131	-0.0147	0.0105	-0.0088	0.0064	-0.0064	0.0015	0.1577	-0.1986	0.2679	0.1025	0.0738	0.1450	0.0584	-0.1438	0.0260	-0.1884	-0.1292	0.0510	-0.0139	0.0911	-0.0853	-0.0139	0.2247	-0.0787	-0.1265	-0.0476	0.0951	-0.0893	-0.0982	-0.0824	-0.0186	0.0054	-0.0571	-0.0168	0.0273	0.0086	0.0087	-0.0018	-0.0440	-0.0651	-0.0109	-0.0375	0.0095	0.0223	0.0126	-0.0213	0.0432	-0.0147	-0.0189	0.0103	-0.0047	-0.0151	0.0038	-0.0127	0.0121	0.0985	-0.0919	-0.1043	0.0143	-0.1413	0.1994	0.2468	0.0783	-0.0351	0.0163	-0.2713	-0.0470	-0.0318	0.0919	-0.1670	-0.0834	0.0749	-0.0068	0.1408	0.0368	0.0103	-0.0016	-0.0596	-0.0030	-0.0105	0.0205	0.0201	0.0141	-0.0041	-0.0097	0.0170	0.0166	0.0501	-0.0044	0.0032	-0.0364	0.0021	0.0150	-0.0079	0.0087	-0.0036	0.0031	-0.0272	0.0006	0.0089	0.0055	0.0057	-0.0492	-0.0873	0.0327	0.0409	0.0620	-0.0001	-0.1248	-0.2120	-0.1014	0.3809	-0.0851	0.1779	0.0299	0.0176	0.0154	-0.0444	0.0099	-0.0240	-0.0363	-0.0804	-0.0149	-0.0068	0.0128	0.0460	0.0273	0.0081	-0.0316	-0.0351	-0.0378	-0.0048	0.0158	0.0023	-0.0082	0.0053	-0.0041	0.0029	0.0107	-0.0085	-0.0099	0.0006	-0.0029	0.0117	0.0019	0.0096	-0.0042	-0.0072	-0.0035	-0.0023	0.2090	0.1773	0.0570	0.2158	0.1115	-0.1183	-0.1860	-0.0431	-0.1345	0.2882	-0.2173	-0.0240	-0.0453	-0.0216	0.0389	0.0826	-0.0812	0.0443	0.0321	-0.0519	-0.0232	0.0275	0.0353	0.0256	0.0049	-0.0255	0.0175	-0.0155	-0.0200	-0.0195	0.0209	-0.0312	-0.0193	-0.0090	0.0147	-0.0183	0.0060	-0.0126	-0.0081	-0.0120	-0.0012	0.0028	0.0095	0.0150	-0.0041	0.0021	-0.0045	0.0066	0.0646	-0.0292	0.2231	-0.1793	0.0323	-0.1762	-0.0865	0.0154	-0.1928	0.0892	0.2704	-0.0353	-0.0052	0.0520	-0.0837	-0.0745	0.0497	-0.0676	0.0371	-0.0423	-0.0032	0.0270	-0.0139	-0.0004	0.0213	-0.0059	0.0067	-0.0614	-0.0251	0.0064	-0.0272	0.0250	0.0121	-0.0020	0.0012	0.0009	-0.0097	0.0092	-0.0042	-0.0104	-0.0049	-0.0036	-0.0073	0.0092	0.0035	0.0029	0.0072	-0.0011	-0.3452	0.1801	-0.0169	-0.1726	0.2643	0.0079	-0.1425	0.0969	-0.1715	0.0339	-0.0816	0.0413	-0.0187	-0.0015	0.0491	-0.1298	-0.0130	0.0087	-0.0102	0.0379	0.0067	0.0189	-0.0145	-0.0421	0.0337	0.0166	-0.0161	-0.0622	-0.0066	-0.0066	0.0103	0.0199	0.0113	-0.0120	-0.0021	-0.0107	-0.0120	-0.0085	-0.0000	-0.0045	0.0003	0.0048	-0.0056	-0.0112	-0.0001	0.0023	0.0030	0.0134	0.1607	-0.1341	-0.2196	0.0507	-0.2746	-0.0542	-0.1157	-0.0172	-0.0519	0.1446	0.3291	0.0545	-0.0001	-0.0052	-0.0613	-0.0128	-0.0271	-0.0675	0.0852	-0.0116	-0.1359	0.0660	0.0899	0.0778	-0.0276	-0.0010	-0.0098	0.0071	0.0007	0.0227	-0.0052	0.0440	0.0239	0.0321	-0.0014	0.0369	0.0115	0.0128	-0.0085	0.0025	-0.0137	0.0099	-0.0007	0.0233	-0.0075	0.0085	0.0037	-0.0004	0.2568	0.1680	0.0571	0.0427	0.1715	0.0105	-0.1762	0.1496	-0.1497	-0.0641	-0.0868	0.0085	-0.1220	0.0340	0.0410	-0.1106	-0.0209	0.0532	-0.0153	0.0571	0.0315	0.0048	-0.0395	-0.0539	-0.0093	-0.0300	0.0178	-0.0010	0.0022	-0.0128	0.0126	-0.0053	0.0062	-0.0150	-0.0047	-0.0132	-0.0111	-0.0083	0.0059	-0.0324	0.0007	-0.0003	-0.0015	-0.0103	-0.0044	0.0082	-0.0017	0.0158	-0.1198	-0.3502	0.1970	-0.1337	0.0184	0.0454	0.2160	-0.2227	0.0770	0.0668	-0.0354	0.0454	0.0034	0.0267	0.0471	-0.1931	0.0116	-0.0324	0.0213	0.0257	-0.0103	0.0204	0.0415	0.0101	0.0185	-0.0051	-0.0251	-0.0330	-0.0244	0.0204	0.0053	0.0080	0.0001	0.0138	-0.0032	0.0040	-0.0012	-0.0042	-0.0075	-0.0092	0.0011	-0.0028	-0.0046	-0.0096	0.0054	-0.0078	0.0002	-0.0005	0.1277	0.0308	0.0596	0.1491	-0.0351	0.1230	-0.0918	-0.1813	0.0131	-0.0633	-0.0575	0.1950	0.0028	-0.0748	0.1069	0.2324	-0.1469	0.0489	0.1408	-0.0607	-0.2094	0.0656	0.1716	0.1354	0.0130	0.0158	0.0335	0.0140	0.0356	0.0301	0.0485	-0.0132	0.0014	0.0119	0.0038	0.0300	-0.0017	-0.0011	-0.0017	0.0133	-0.0390	0.0130	0.0080	0.0330	-0.0090	0.0169	-0.0148	0.0096	0.0557	0.1294	0.0168	-0.1661	-0.1804	0.0253	-0.0383	0.0559	0.1436	-0.0846	-0.1745	-0.0638	0.1340	-0.0924	-0.0794	0.2794	-0.0202	0.0502	-0.0280	-0.0547	0.0814	-0.0516	-0.0502	-0.0167	-0.0011	0.0203	0.0827	0.0123	0.0017	-0.0131	-0.0488	-0.0703	-0.0239	-0.0077	0.0091	0.0042	-0.0027	0.0023	0.0075	0.0488	-0.0078	-0.0221	-0.0007	0.0187	-0.0045	0.0120	-0.0164	0.0027	-0.2073	0.0814	0.1246	-0.0024	-0.0963	-0.0793	0.0487	-0.0939	0.0815	0.0866	0.0728	-0.0116	0.0611	-0.0741	-0.0868	0.4145	-0.0136	0.0182	0.0496	-0.1272	-0.0236	-0.0103	0.0164	0.0758	-0.0095	0.0129	0.0235	0.0144	0.0145	0.0197	-0.0104	-0.0173	-0.0058	0.0146	0.0022	0.0224	0.0016	0.0045	0.0196	0.0265	0.0006	-0.0043	0.0208	0.0144	0.0010	-0.0043	-0.0020	-0.0185	-0.0355	-0.0343	-0.2046	0.0721	-0.1530	0.1002	0.0581	-0.0177	0.1061	-0.2494	0.0546	0.0311	0.0829	-0.0801	0.0163	0.0684	0.0653	0.0426	-0.0693	-0.0126	0.1361	-0.0340	-0.1626	-0.0713	-0.0145	0.0195	-0.0018	0.0288	0.0552	0.0261	-0.0242	-0.0090	0.0214	0.0220	-0.0313	0.0239	0.0135	0.0073	0.0077	0.0059	-0.0087	-0.0100	0.0176	-0.0171	0.0005	-0.0040	0.0103	-0.0270	0.2021	0.0604	0.0689	0.0296	-0.1092	-0.1773	0.0870	0.0587	0.1043	0.2801	0.0087	-0.1122	-0.0409	0.0048	-0.0143	0.1307	-0.0592	0.0735	-0.0290	-0.0415	-0.0144	-0.0840	0.1038	0.0936	-0.0046	-0.0187	0.0523	0.0302	-0.0043	0.0328	-0.0229	-0.0003	0.0014	0.0294	0.0031	0.0308	-0.0105	0.0048	0.0108	-0.0122	0.0008	-0.0037	0.0116	0.0112	0.0251	-0.0186	0.0016	-0.0104	-0.1352	-0.0114	0.1159	-0.2214	0.0859	0.2341	-0.1817	0.0358	-0.0649	-0.4474	0.1181	0.1874	-0.0125	-0.0021	-0.0666	-0.0203	0.0331	-0.0470	0.1127	0.0224	-0.0334	0.0602	-0.0966	0.0173	-0.0254	-0.0041	0.0096	-0.0206	-0.0034	-0.0034	-0.0063	0.0143	0.0251	-0.0339	0.0298	-0.0110	0.0065	0.0060	-0.0042	0.0047	-0.0196	-0.0035	-0.0066	-0.0052	0.0001	0.0152	0.0045	0.0012	0.0820	0.0359	-0.2274	0.0070	-0.2117	-0.0758	-0.1120	0.0179	-0.0817	-0.0828	0.3344	0.0898	0.1588	-0.0270	-0.1153	0.0265	0.1500	-0.0126	-0.1673	-0.1398	0.1395	-0.1328	-0.1404	-0.0489	0.0148	-0.0131	0.0060	-0.0137	-0.0102	-0.0346	-0.0523	-0.0343	-0.0112	-0.0301	-0.0212	0.0331	0.0126	-0.0160	-0.0049	0.0058	-0.0291	-0.0087	0.0228	-0.0221	0.0163	-0.0128	0.0040	-0.0184	0.1001	-0.1135	0.2280	0.0404	-0.0313	0.1433	0.1203	-0.0659	0.1541	-0.1181	-0.0590	-0.0288	-0.0186	0.0255	-0.0158	0.1451	-0.0066	-0.0665	0.1393	0.0165	-0.0493	0.1103	-0.0025	-0.0173	-0.0086	0.0354	-0.0134	0.0145	0.0369	0.0377	-0.0025	0.0052	0.0151	0.0053	0.0073	-0.0105	0.0061	-0.0004	0.0178	-0.0061	0.0225	-0.0144	0.0114	-0.0017	-0.0044	0.0106	0.0147	-0.0125	-0.0768	0.2181	-0.1022	-0.1628	-0.0007	-0.2014	-0.0842	0.1734	-0.0943	0.3195	-0.0211	-0.1331	0.0153	-0.0485	-0.0226	0.0450	0.0045	0.0573	-0.1244	0.0037	0.0339	-0.0803	0.0270	-0.0340	-0.0057	-0.0091	0.0251	0.0042	-0.0001	-0.0222	0.0069	-0.0135	-0.0215	0.0153	-0.0214	-0.0029	-0.0272	0.0122	0.0035	0.0030	0.0144	0.0076	-0.0058	0.0164	-0.0142	-0.0060	-0.0025	0.0058	-0.3563	0.1567	-0.1862	0.0060	0.0664	-0.0242	0.1535	-0.0139	0.0782	-0.0817	-0.1032	-0.0260	0.0014	-0.1812	0.2470	0.0767	-0.1673	0.2509	-0.0060	0.0551	0.0384	-0.0309	-0.0285	-0.0169	0.0257	0.0139	0.0556	0.0500	0.0700	0.0722	-0.0092	-0.0118	0.0451	0.0467	-0.0276	0.0539	-0.0094	-0.0066	-0.0028	0.0133	-0.0674	0.0219	0.0182	-0.0247	0.0478	-0.0017	-0.0017	0.0026	0.0827	-0.0310	-0.0780	0.0327	-0.1558	0.0789	-0.0948	0.2071	0.0756	-0.0487	0.0791	-0.1174	-0.0450	0.0983	-0.2332	0.0819	0.0436	-0.1577	0.1529	0.0742	-0.0824	0.1005	0.0096	-0.0026	-0.0843	-0.0498	0.0323	0.0089	-0.0555	0.0275	-0.0429	-0.0039	0.0406	0.0213	0.0129	-0.0020	0.0735	-0.0096	-0.0274	0.0281	-0.0223	-0.0296	-0.0163	0.0058	-0.0062	0.0128	0.0225	-0.0103	0.0187	-0.1548	0.0933	0.0118	0.1356	-0.0295	0.0733	-0.1691	-0.1138	0.2389	-0.1175	0.0575	-0.0150	0.0286	0.0688	-0.1187	0.0041	0.0199	-0.1050	0.0863	0.0243	-0.0282	0.0234	-0.0377	-0.0225	-0.0240	-0.0089	0.0855	-0.0154	-0.0187	0.0401	0.0180	-0.0158	0.0076	-0.0087	-0.0241	-0.0229	0.0150	0.0086	-0.0375	0.0249	0.0158	-0.0081	-0.0061	-0.0085	-0.0081	-0.0052	0.0144	-0.0001	-0.0002	-0.0001	-0.0005	-0.0005	0.0000	0.0003	0.0005	0.0003	-0.0003	0.0010	-0.0001	-0.0001	0.0000	-0.0001	-0.0001	0.0000	-0.0001	0.0002	0.0002	-0.0001	-0.0001	0.0002	-0.0001	-0.0001	-0.0000	-0.0002	-0.0002	-0.0000	-0.0001	-0.0002	-0.0002	0.0001	0.0000	0.0001	-0.0000	0.0000	-0.0002	-0.0000	-0.0001	-0.0001	-0.0002	0.0000	0.0000	-0.0001	0.0000	0.0000	0.0001	-0.0006	0.0002	-0.0004	0.0001	0.0001	-0.0001	-0.0003	-0.0002	-0.0001	-0.0003	-0.0008	-0.0001	0.0003	-0.0002	0.0002	0.0000	0.0000	-0.0002	-0.0001	-0.0002	0.0002	-0.0000	-0.0001	-0.0002	-0.0001	0.0001	-0.0002	-0.0002	-0.0001	-0.0000	0.0001	-0.0002	0.0001	0.0001	0.0001	-0.0001	0.0002	0.0000	-0.0000	-0.0002	0.0001	-0.0001	-0.0001	0.0001	-0.0001	-0.0001	0.0000	0.0001	0.0000	0.0004	0.0001	0.0002	0.0003	0.0002	-0.0000	0.0003	0.0002	0.0000	0.0000	0.0001	0.0001	-0.0002	-0.0001	0.0001	0.0001	0.0002	0.0001	-0.0000	-0.0000	0.0000	-0.0001	-0.0000	-0.0001	-0.0000	0.0002	0.0004	-0.0001	-0.0001	0.0001	0.0001	-0.0000	0.0001	0.0000	0.0001	0.0000	0.0001	-0.0002	-0.0000	-0.0001	0.0000	0.0000	0.0001	-0.0001	-0.0001	-0.0000	-0.0000	-0.0000	-0.0001	-0.0001	-0.0003	-0.0003	0.0000	0.0002	0.0003	0.0001	-0.0001	0.0005	-0.0001	-0.0000	0.0000	-0.0001	-0.0001	0.0000	-0.0001	0.0001	0.0001	-0.0001	-0.0000	0.0001	-0.0001	-0.0000	-0.0000	-0.0001	-0.0001	-0.0000	-0.0001	-0.0001	-0.0001	0.0000	0.0000	0.0000	-0.0000	0.0000	-0.0001	-0.0000	-0.0001	-0.0001	-0.0001	0.0000	0.0000	-0.0001	0.0000	0.0000	0.0000	-0.0003	0.0001	-0.0002	0.0000	0.0001	-0.0000	-0.0001	-0.0001	-0.0001	-0.0001	-0.0004	-0.0001	0.0002	-0.0001	0.0001	0.0000	0.0000	-0.0001	-0.0001	-0.0001	0.0001	-0.0000	-0.0001	-0.0001	-0.0001	0.0000	-0.0001	-0.0001	-0.0001	-0.0000	0.0000	-0.0001	0.0000	0.0001	0.0001	-0.0001	0.0001	0.0000	-0.0000	-0.0001	0.0001	-0.0001	-0.0000	0.0000	-0.0001	-0.0001	0.0000	0.0001	0.0000	0.0002	0.0001	0.0001	0.0002	0.0001	-0.0000	0.0001	0.0001	0.0000	0.0000	0.0000	0.0001	-0.0001	-0.0001	0.0001	0.0001	0.0001	0.0001	-0.0000	-0.0000	0.0000	-0.0001	-0.0000	-0.0001	-0.0000	0.0001	0.0002	-0.0000	-0.0000	0.0000	0.0001	-0.0000	0.0001	0.0000	0.0000	0.0000	0.0000	-0.0001	-0.0000	-0.0000	0.0000	0.0000	0.0001	-0.0001	-0.0001	-0.0000	-0.0000	-0.0000	-0.0001	-0.0001	-0.0003	-0.0003	0.0000	0.0002	0.0003	0.0002	-0.0002	0.0006	-0.0001	-0.0001	0.0000	-0.0001	-0.0001	0.0000	-0.0001	0.0001	0.0001	-0.0001	-0.0000	0.0001	-0.0001	-0.0000	-0.0000	-0.0001	-0.0001	-0.0000	-0.0001	-0.0001	-0.0001	0.0001	0.0000	0.0000	-0.0000	0.0000	-0.0001	-0.0000	-0.0001	-0.0001	-0.0001	0.0000	0.0000	-0.0001	0.0000	0.0000	0.0000	-0.0003	0.0001	-0.0002	0.0000	0.0001	-0.0000	-0.0002	-0.0001	-0.0001	-0.0002	-0.0005	-0.0001	0.0002	-0.0001	0.0001	0.0000	0.0000	-0.0001	-0.0001	-0.0001	0.0001	-0.0000	-0.0001	-0.0001	-0.0001	0.0000	-0.0001	-0.0001	-0.0001	-0.0000	0.0000	-0.0001	0.0000	0.0001	0.0001	-0.0001	0.0001	0.0000	-0.0000	-0.0001	0.0001	-0.0001	-0.0000	0.0000	-0.0001	-0.0001	0.0000	0.0001	0.0000	0.0002	0.0001	0.0001	0.0002	0.0001	-0.0000	0.0002	0.0001	0.0000	0.0000	0.0000	0.0001	-0.0001	-0.0001	0.0001	0.0001	0.0001	0.0001	-0.0000	-0.0000	0.0000	-0.0001	-0.0000	-0.0001	-0.0000	0.0001	0.0002	-0.0000	-0.0000	0.0000	0.0001	-0.0000	0.0001	0.0000	0.0000	0.0000	0.0000	-0.0001	-0.0000	-0.0000	0.0000	0.0000	0.0001	-0.0001	-0.0001	-0.0000	-0.0000	-0.0000	-0.0001	-0.0001	-0.0004	-0.0003	0.0000	0.0002	0.0003	0.0002	-0.0002	0.0007	-0.0001	-0.0001	0.0000	-0.0001	-0.0001	0.0000	-0.0001	0.0002	0.0001	-0.0001	-0.0000	0.0001	-0.0001	-0.0001	-0.0000	-0.0001	-0.0001	-0.0000	-0.0001	-0.0002	-0.0001	0.0001	0.0000	0.0001	-0.0000	0.0000	-0.0001	-0.0000	-0.0001	-0.0001	-0.0001	0.0000	0.0000	-0.0001	0.0000	0.0000	0.0001	-0.0004	0.0001	-0.0003	0.0000	0.0001	-0.0000	-0.0002	-0.0001	-0.0001	-0.0002	-0.0005	-0.0001	0.0002	-0.0002	0.0001	0.0000	0.0000	-0.0001	-0.0001	-0.0002	0.0001	-0.0000	-0.0001	-0.0002	-0.0001	0.0000	-0.0001	-0.0001	-0.0001	-0.0000	0.0000	-0.0001	0.0000	0.0001	0.0001	-0.0001	0.0001	0.0000	-0.0000	-0.0001	0.0001	-0.0001	-0.0000	0.0001	-0.0001	-0.0001	0.0000	0.0001	0.0000	0.0003	0.0001	0.0002	0.0002	0.0002	-0.0000	0.0002	0.0001	0.0000	0.0000	0.0000	0.0001	-0.0001	-0.0001	0.0001	0.0001	0.0001	0.0001	-0.0000	-0.0000	0.0000	-0.0001	-0.0000	-0.0001	-0.0000	0.0001	0.0003	-0.0001	-0.0001	0.0000	0.0001	-0.0000	0.0001	0.0000	0.0000	0.0000	0.0000	-0.0002	-0.0000	-0.0000	0.0000	0.0000	0.0001	-0.0001	-0.0001	-0.0000	-0.0000	-0.0000	0.0000	0.0000	0.0000	0.0001	-0.0000	0.0000	-0.0000	-0.0000	0.0000	-0.0001	0.0000	0.0000	-0.0000	0.0000	0.0000	-0.0000	0.0000	-0.0000	-0.0000	0.0000	0.0000	-0.0000	0.0000	0.0000	0.0000	0.0000	0.0000	0.0000	0.0000	0.0000	0.0000	-0.0000	0.0000	-0.0000	0.0000	-0.0000	0.0000	0.0000	0.0000	0.0000	0.0000	-0.0000	-0.0000	0.0000	-0.0000	-0.0000	-0.0000	0.0000	-0.0000	0.0000	-0.0000	0.0000	-0.0000	-0.0000	0.0000	-0.0000	0.0000	0.0001	-0.0000	-0.0000	0.0000	-0.0000	0.0000	0.0000	0.0000	0.0000	0.0000	-0.0000	0.0000	0.0000	0.0000	0.0000	-0.0000	0.0000	0.0000	0.0000	0.0000	-0.0000	0.0000	-0.0000	-0.0000	-0.0000	0.0000	-0.0000	-0.0000	0.0000	0.0000	-0.0000	0.0000	0.0000	-0.0000	0.0000	0.0000	-0.0000	-0.0000	-0.0000	0.0000	-0.0000	-0.0000	0.0000	0.0000	-0.0000	-0.0000	-0.0000	0.0000	-0.0000	0.0000	-0.0000	0.0000	0.0000	-0.0000	-0.0000	-0.0000	-0.0000	-0.0000	-0.0000	0.0000	0.0000	0.0000	0.0000	0.0000	-0.0000	-0.0001	0.0000	0.0000	-0.0000	-0.0000	0.0000	-0.0000	-0.0000	-0.0000	-0.0000	-0.0000	0.0000	0.0000	0.0000	-0.0000	-0.0000	-0.0000	0.0000	0.0000	0.0000	0.0000	-0.0000	0.0000	0.0000	0.0000	0.0000	-0.0000	0.0000	-0.0000	-0.0000	0.0000	-0.0000	0.0000	0.0000	-0.0000	0.0000	0.0000	-0.0000	0.0000	-0.0000	-0.0000	0.0000	0.0000	-0.0000	0.0000	0.0000	0.0000	0.0000	0.0000	0.0000	0.0000	0.0000	0.0000	-0.0000	0.0000	-0.0000	0.0000	-0.0000	0.0000	0.0000	0.0000	0.0000	0.0000	-0.0000	-0.0000	0.0000	-0.0000	-0.0000	-0.0000	0.0000	-0.0000	0.0000	-0.0000	0.0000	-0.0000	-0.0000	0.0000	-0.0000	0.0000	0.0000	-0.0000	-0.0000	0.0000	-0.0000	0.0000	0.0000	0.0000	0.0000	0.0000	-0.0000	0.0000	0.0000	0.0000	0.0000	-0.0000	0.0000	0.0000	0.0000	0.0000	-0.0000	0.0000	-0.0000	-0.0000	-0.0000	0.0000	-0.0000	-0.0000	0.0000	0.0000	-0.0000	0.0000	0.0000	-0.0000	0.0000	0.0000	-0.0000	-0.0000	-0.0000	0.0000	-0.0000	-0.0000	0.0000	0.0000	-0.0000	-0.0000	-0.0000	0.0000	-0.0000	0.0000	-0.0000	0.0000	0.0000	-0.0000	-0.0000	-0.0000	-0.0000	-0.0000	-0.0000	0.0000	0.0000	0.0000	0.0000	0.0000	-0.0000	-0.0000	0.0000	0.0000	-0.0000	-0.0000	0.0000	-0.0000	-0.0000	-0.0000	-0.0000	-0.0000	0.0000	0.0000	0.0000	-0.0000	-0.0000	-0.0000	0.0000	0.0000	0.0000	0.0000	0.0000	-0.0000	-0.0000	-0.0001	-0.0001	0.0000	-0.0000	0.0001	0.0000	-0.0000	0.0001	-0.0000	-0.0000	0.0000	-0.0000	-0.0000	0.0000	-0.0000	0.0000	0.0000	-0.0000	-0.0000	0.0000	-0.0000	-0.0000	-0.0000	-0.0000	-0.0000	-0.0000	-0.0000	-0.0001	-0.0000	0.0000	-0.0000	0.0000	-0.0000	0.0000	-0.0000	-0.0000	-0.0000	-0.0000	-0.0000	0.0000	0.0000	-0.0000	0.0000	0.0000	0.0000	-0.0000	0.0000	-0.0000	0.0001	-0.0000	0.0001	0.0000	-0.0000	0.0000	-0.0000	-0.0001	0.0000	0.0001	-0.0001	0.0000	-0.0000	-0.0000	-0.0000	-0.0000	-0.0000	0.0000	-0.0000	-0.0000	-0.0000	-0.0000	0.0000	-0.0000	-0.0000	-0.0000	-0.0000	0.0000	-0.0000	0.0000	0.0000	0.0000	-0.0000	0.0000	0.0000	-0.0000	-0.0000	0.0000	-0.0000	-0.0000	0.0000	-0.0000	-0.0000	0.0000	0.0000	0.0001	-0.0000	0.0000	0.0000	-0.0000	-0.0000	0.0000	0.0000	0.0000	-0.0000	0.0001	-0.0000	0.0000	-0.0000	-0.0000	0.0000	0.0000	0.0000	0.0000	0.0000	0.0000	-0.0000	-0.0000	-0.0000	-0.0000	-0.0000	0.0000	0.0001	-0.0000	-0.0000	0.0000	0.0000	-0.0000	0.0000	0.0000	0.0000	0.0000	0.0000	-0.0001	-0.0000	-0.0000	0.0000	0.0000	0.0000	-0.0000	-0.0000	-0.0000	-0.0000	-0.0000	0.0000	0.0000	0.0001	0.0001	-0.0000	0.0000	-0.0001	-0.0000	0.0000	-0.0001	0.0000	0.0000	-0.0000	0.0000	0.0000	-0.0000	0.0000	-0.0000	-0.0000	0.0000	0.0000	-0.0000	0.0000	0.0000	0.0000	0.0000	0.0000	0.0000	0.0000	0.0000	0.0000	-0.0000	0.0000	-0.0000	0.0000	-0.0000	0.0000	0.0000	0.0000	0.0000	0.0000	-0.0000	-0.0000	0.0000	-0.0000	-0.0000	-0.0000	0.0000	-0.0000	0.0000	-0.0000	0.0000	-0.0001	-0.0000	0.0000	-0.0000	0.0000	0.0001	-0.0000	-0.0001	0.0000	-0.0000	0.0000	0.0000	0.0000	0.0000	0.0000	-0.0000	0.0000	0.0000	0.0000	0.0000	-0.0000	0.0000	0.0000	0.0000	0.0000	-0.0000	0.0000	-0.0000	-0.0000	-0.0000	0.0000	-0.0000	-0.0000	0.0000	0.0000	-0.0000	0.0000	0.0000	-0.0000	0.0000	0.0000	-0.0000	-0.0000	-0.0001	0.0000	-0.0000	-0.0000	0.0000	0.0000	-0.0000	-0.0000	-0.0000	0.0000	-0.0000	0.0000	-0.0000	0.0000	0.0000	-0.0000	-0.0000	-0.0000	-0.0000	-0.0000	-0.0000	0.0000	0.0000	0.0000	0.0000	0.0000	-0.0000	-0.0001	0.0000	0.0000	-0.0000	-0.0000	0.0000	-0.0000	-0.0000	-0.0000	-0.0000	-0.0000	0.0000	0.0000	0.0000	-0.0000	-0.0000	-0.0000	0.0000	0.0000	0.0000	0.0000	-0.0000	0.0000	-0.0000	0.0000	0.0000	-0.0000	0.0000	-0.0000	-0.0000	-0.0000	-0.0000	0.0000	0.0000	-0.0000	0.0000	-0.0000	-0.0000	0.0000	-0.0000	0.0000	-0.0000	0.0000	-0.0000	0.0000	0.0000	0.0000	0.0000	0.0000	0.0000	0.0000	0.0000	0.0000	-0.0000	0.0000	-0.0000	0.0000	-0.0000	0.0000	0.0000	0.0000	0.0000	0.0000	-0.0000	-0.0000	0.0000	0.0000	-0.0000	-0.0000	0.0000	-0.0000	0.0000	-0.0000	0.0000	-0.0000	-0.0000	0.0000	-0.0000	0.0000	0.0000	-0.0000	-0.0000	0.0000	-0.0000	0.0000	0.0000	0.0000	-0.0000	0.0000	-0.0000	-0.0000	0.0000	0.0000	0.0000	-0.0000	0.0000	0.0000	0.0000	0.0000	-0.0000	0.0000	-0.0000	-0.0000	-0.0000	0.0000	-0.0000	-0.0000	0.0000	0.0000	-0.0000	0.0000	0.0000	-0.0000	0.0000	0.0000	-0.0000	-0.0000	0.0000	-0.0000	-0.0000	-0.0000	-0.0000	-0.0000	0.0000	-0.0000	0.0000	0.0000	-0.0000	0.0000	-0.0000	0.0000	0.0000	0.0000	-0.0000	-0.0000	-0.0000	-0.0000	-0.0000	0.0000	0.0000	0.0000	0.0000	0.0000	-0.0000	-0.0000	0.0000	0.0000	-0.0000	-0.0000	0.0000	-0.0000	-0.0000	-0.0000	-0.0000	-0.0000	0.0000	0.0000	0.0000	-0.0000	-0.0000	-0.0000	0.0000	0.0000	0.0000	0.0000	-0.0000	0.0000	-0.0000	0.0000	0.0000	-0.0000	0.0000	-0.0000	-0.0000	-0.0000	-0.0000	0.0000	0.0000	-0.0000	0.0000	-0.0000	-0.0000	0.0000	-0.0000	0.0000	-0.0000	0.0000	-0.0000	0.0000	0.0000	0.0000	0.0000	0.0000	0.0000	0.0000	0.0000	0.0000	-0.0000	0.0000	-0.0000	0.0000	-0.0000	0.0000	0.0000	0.0000	0.0000	0.0000	-0.0000	-0.0000	0.0000	0.0000	-0.0000	-0.0000	0.0000	-0.0000	0.0000	-0.0000	0.0000	-0.0000	-0.0000	0.0000	-0.0000	0.0000	0.0000	-0.0000	-0.0000	0.0000	-0.0000	0.0000	0.0000	0.0000	-0.0000	0.0000	-0.0000	-0.0000	0.0000	0.0000	0.0000	-0.0000	0.0000	0.0000	0.0000	0.0000	-0.0000	0.0000	-0.0000	-0.0000	-0.0000	0.0000	-0.0000	-0.0000	0.0000	0.0000	-0.0000	0.0000	0.0000	-0.0000	0.0000	0.0000	-0.0000	-0.0000	0.0000	-0.0000	-0.0000	-0.0000	-0.0000	-0.0000	0.0000	-0.0000	0.0000	0.0000	-0.0000	0.0000	-0.0000	0.0000	0.0000	0.0000	-0.0000	-0.0000	-0.0000	-0.0000	-0.0000	0.0000	0.0000	0.0000	0.0000	0.0000	-0.0000	-0.0000	0.0000	0.0000	-0.0000	-0.0000	0.0000	-0.0000	-0.0000	-0.0000	-0.0000	-0.0000	0.0000	0.0000	0.0000	-0.0000	-0.0000	-0.0000	0.0000	0.0000	0.0000	0.0000	-0.0001	0.0000	-0.0000	0.0000	0.0000	-0.0000	0.0000	-0.0000	-0.0000	-0.0000	-0.0000	0.0000	0.0000	-0.0000	0.0000	-0.0000	-0.0000	0.0000	-0.0000	0.0000	-0.0000	0.0000	-0.0000	0.0000	0.0000	0.0000	0.0000	0.0000	0.0000	0.0000	0.0000	0.0000	-0.0000	0.0000	-0.0000	0.0000	-0.0000	0.0000	0.0000	0.0000	0.0000	0.0000	-0.0000	-0.0000	0.0000	0.0000	-0.0000	-0.0000	0.0000	-0.0000	0.0000	-0.0000	0.0000	-0.0000	-0.0000	0.0000	-0.0000	0.0000	0.0000	-0.0000	-0.0001	0.0000	-0.0000	0.0000	0.0000	0.0000	-0.0000	0.0000	-0.0000	-0.0000	0.0000	0.0000	0.0000	-0.0000	0.0000	0.0000	0.0000	0.0000	-0.0000	0.0000	-0.0000	-0.0000	-0.0000	0.0000	-0.0000	-0.0000	0.0000	0.0000	-0.0000	0.0000	0.0000	-0.0000	0.0000	0.0000	-0.0000	-0.0000	0.0000	-0.0000	-0.0000	-0.0000	-0.0000	-0.0000	0.0000	-0.0000	0.0000	0.0000	-0.0000	0.0000	-0.0000	0.0000	0.0000	0.0000	-0.0000	-0.0000	-0.0000	-0.0000	-0.0000	0.0000	0.0000	0.0000	0.0000	0.0000	-0.0000	-0.0001	0.0000	0.0000	-0.0000	-0.0000	0.0000	-0.0000	-0.0000	-0.0000	-0.0000	-0.0000	0.0000	0.0000	0.0000	-0.0000	-0.0000	-0.0000	0.0000	0.0000	0.0000	0.0000	0.0000	-0.0000	0.0000	-0.0000	-0.0000	0.0000	-0.0000	0.0000	0.0000	0.0000	0.0000	-0.0000	-0.0000	0.0000	-0.0000	0.0000	0.0000	-0.0000	0.0000	-0.0000	0.0000	-0.0000	0.0000	-0.0000	-0.0000	-0.0000	-0.0000	-0.0000	-0.0000	-0.0000	-0.0000	-0.0000	0.0000	-0.0000	0.0000	-0.0000	0.0000	-0.0000	-0.0000	-0.0000	-0.0000	-0.0000	0.0000	0.0000	-0.0000	-0.0000	0.0000	0.0000	-0.0000	0.0000	-0.0000	0.0000	-0.0000	0.0000	0.0000	-0.0000	0.0000	-0.0000	-0.0000	0.0000	0.0000	-0.0000	0.0000	-0.0000	-0.0000	-0.0000	0.0000	-0.0000	0.0000	0.0000	-0.0000	-0.0000	-0.0000	0.0000	-0.0000	-0.0000	-0.0000	-0.0000	0.0000	-0.0000	0.0000	0.0000	0.0000	-0.0000	0.0000	0.0000	-0.0000	-0.0000	0.0000	-0.0000	-0.0000	0.0000	-0.0000	-0.0000	0.0000	0.0000	-0.0000	0.0000	0.0000	0.0000	0.0000	0.0000	-0.0000	0.0000	-0.0000	-0.0000	0.0000	-0.0000	0.0000	-0.0000	-0.0000	-0.0000	0.0000	0.0000	0.0000	0.0000	0.0000	-0.0000	-0.0000	-0.0000	-0.0000	-0.0000	0.0000	0.0000	-0.0000	-0.0000	0.0000	0.0000	-0.0000	0.0000	0.0000	0.0000	0.0000	0.0000	-0.0000	-0.0000	-0.0000	0.0000	0.0000	0.0000	-0.0000	-0.0000	-0.0000	-0.0000	-0.0000	-0.0000	-0.0000	0.0000	0.0000	-0.0000	0.0000	-0.0000	-0.0000	-0.0000	0.0000	0.0000	0.0000	0.0000	0.0000	-0.0000	-0.0000	-0.0000	-0.0000	-0.0000	0.0000	0.0000	-0.0000	0.0000	0.0000	0.0000	0.0000	0.0000	0.0000	0.0000	0.0000	0.0000	-0.0000	0.0000	-0.0000	0.0000	-0.0000	0.0000	0.0000	0.0000	0.0000	0.0000	-0.0000	-0.0000	0.0000	0.0000	-0.0000	-0.0000	0.0000	-0.0000	0.0000	-0.0000	0.0000	-0.0000	0.0000	0.0000	-0.0000	0.0000	0.0000	0.0000	-0.0000	0.0000	-0.0000	0.0000	0.0000	0.0000	-0.0000	0.0000	-0.0000	-0.0000	0.0000	0.0000	0.0000	-0.0000	0.0000	0.0000	0.0000	0.0000	-0.0000	0.0000	-0.0000	-0.0000	-0.0000	0.0000	-0.0000	-0.0000	0.0000	0.0000	-0.0000	0.0000	0.0000	-0.0000	0.0000	0.0000	-0.0000	-0.0000	0.0000	0.0000	-0.0000	-0.0000	-0.0000	-0.0000	0.0000	0.0000	0.0000	0.0000	-0.0000	-0.0000	-0.0000	0.0000	0.0000	0.0000	-0.0000	-0.0000	-0.0000	-0.0000	-0.0000	-0.0000	0.0000	0.0000	0.0000	0.0000	-0.0000	-0.0000	0.0000	0.0000	-0.0000	-0.0000	0.0000	-0.0000	-0.0000	-0.0000	-0.0000	-0.0000	0.0000	0.0000	0.0000	-0.0000	-0.0000	-0.0000	0.0000	0.0000	0.0000	0.0000	-0.0000	-0.0000	-0.0000	0.0000	0.0000	-0.0000	0.0000	-0.0000	-0.0000	-0.0000	0.0000	0.0000	0.0000	0.0000	0.0000	-0.0000	-0.0000	-0.0000	-0.0000	-0.0000	0.0000	0.0000	-0.0000	0.0000	0.0000	0.0000	0.0000	0.0000	0.0000	0.0000	0.0000	0.0000	-0.0000	0.0000	-0.0000	0.0000	-0.0000	0.0000	0.0000	0.0000	0.0000	0.0000	-0.0000	-0.0000	0.0000	0.0000	-0.0000	-0.0000	0.0000	-0.0000	0.0000	-0.0000	0.0000	-0.0000	0.0000	0.0000	-0.0000	0.0000	0.0000	0.0000	-0.0000	0.0000	-0.0000	0.0000	0.0000	0.0000	-0.0000	0.0000	-0.0000	-0.0000	0.0000	0.0000	0.0000	-0.0000	0.0000	0.0000	0.0000	0.0000	-0.0000	0.0000	-0.0000	-0.0000	-0.0000	0.0000	-0.0000	-0.0000	0.0000	0.0000	-0.0000	0.0000	0.0000	-0.0000	0.0000	0.0000	-0.0000	-0.0000	0.0000	0.0000	-0.0000	-0.0000	-0.0000	-0.0000	0.0000	0.0000	0.0000	0.0000	-0.0000	-0.0000	-0.0000	0.0000	0.0000	0.0000	-0.0000	-0.0000	-0.0000	-0.0000	-0.0000	-0.0000	0.0000	0.0000	0.0000	0.0000	-0.0000	-0.0000	0.0000	0.0000	-0.0000	-0.0000	0.0000	-0.0000	-0.0000	-0.0000	-0.0000	-0.0000	0.0000	0.0000	0.0000	-0.0000	-0.0000	-0.0000	0.0000	0.0000	0.0000	0.0000	0.0000	0.0000	0.0000	-0.0000	-0.0000	0.0000	-0.0000	0.0000	0.0000	0.0000	-0.0000	-0.0000	-0.0000	-0.0000	-0.0000	0.0000	0.0000	0.0000	0.0000	0.0000	-0.0000	-0.0000	0.0000	-0.0000	-0.0000	-0.0000	-0.0000	-0.0000	-0.0000	-0.0000	-0.0000	-0.0000	0.0000	-0.0000	0.0000	-0.0000	0.0000	-0.0000	-0.0000	-0.0000	-0.0000	-0.0000	0.0000	0.0000	-0.0000	-0.0000	0.0000	0.0000	-0.0000	0.0000	-0.0000	0.0000	-0.0000	0.0000	-0.0000	-0.0000	0.0000	-0.0000	-0.0000	-0.0000	0.0000	-0.0000	0.0000	-0.0000	-0.0000	-0.0000	0.0000	-0.0000	0.0000	0.0000	-0.0000	-0.0000	-0.0000	0.0000	-0.0000	-0.0000	-0.0000	-0.0000	0.0000	-0.0000	0.0000	0.0000	0.0000	-0.0000	0.0000	0.0000	-0.0000	-0.0000	0.0000	-0.0000	-0.0000	0.0000	-0.0000	-0.0000	0.0000	0.0000	-0.0000	-0.0000	0.0000	0.0000	0.0000	0.0000	-0.0000	-0.0000	-0.0000	-0.0000	0.0000	0.0000	0.0000	-0.0000	-0.0000	-0.0000	0.0000	0.0000	0.0000	0.0000	0.0000	0.0000	-0.0000	-0.0000	-0.0000	-0.0000	0.0000	0.0000	-0.0000	-0.0000	0.0000	0.0000	-0.0000	0.0000	0.0000	0.0000	0.0000	0.0000	-0.0000	-0.0000	-0.0000	0.0000	0.0000	0.0000	-0.0000	-0.0000	-0.0000	-0.0000	-0.0000	-0.0000	-0.0000	0.0000	0.0000	-0.0000	0.0000	-0.0000	-0.0000	-0.0000	0.0000	0.0000	0.0000	0.0000	0.0000	-0.0000	-0.0000	-0.0000	-0.0000	-0.0000	0.0000	0.0000	-0.0000	0.0000	0.0000	0.0000	0.0000	0.0000	0.0000	0.0000	0.0000	0.0000	-0.0000	0.0000	-0.0000	0.0000	-0.0000	0.0000	0.0000	0.0000	0.0000	0.0000	-0.0000	-0.0000	0.0000	0.0000	-0.0000	-0.0000	0.0000	-0.0000	0.0000	-0.0000	0.0000	-0.0000	0.0000	0.0000	-0.0000	0.0000	0.0000	0.0000	-0.0000	0.0000	-0.0000	0.0000	0.0000	0.0000	-0.0000	0.0000	-0.0000	-0.0000	0.0000	0.0000	0.0000	-0.0000	0.0000	0.0000	0.0000	0.0000	-0.0000	0.0000	-0.0000	-0.0000	-0.0000	0.0000	-0.0000	-0.0000	0.0000	0.0000	-0.0000	0.0000	0.0000	-0.0000	0.0000	0.0000	-0.0000	-0.0000	0.0000	0.0000	-0.0000	-0.0000	-0.0000	-0.0000	0.0000	0.0000	0.0000	0.0000	-0.0000	-0.0000	-0.0000	0.0000	0.0000	0.0000	-0.0000	-0.0000	-0.0000	-0.0000	-0.0000	-0.0000	0.0000	0.0000	0.0000	0.0000	-0.0000	-0.0000	0.0000	0.0000	-0.0000	-0.0000	0.0000	-0.0000	-0.0000	-0.0000	-0.0000	-0.0000	0.0000	0.0000	0.0000	-0.0000	-0.0000	-0.0000	0.0000	0.0000	0.0000	0.0000	1.0000	1.0000	1.0000	1.0000	1.0000	1.0000	1.0000	1.0000	1.0000	1.0000	1.0000	1.0000	1.0000	1.0000	1.0000	1.0000	1.0000	1.0000	1.0000	1.0000	1.0000	1.0000	1.0000	1.0000	1.0000	1.0000	1.0000	1.0000	1.0000	1.0000	1.0000	1.0000	1.0000	1.0000	1.0000	1.0000	1.0000	1.0000	1.0000	1.0000	1.0000	1.0000	1.0000	1.0000	1.0000	1.0000	1.0000	1.0000	1.0000	1.0000	1.0000	1.0000	1.0000	1.0000	1.0000	1.0000	1.0000	1.0000	1.0000	1.0000	1.0000	1.0000	1.0000	1.0000	1.0000	1.0000	1.0000	1.0000	1.0000	1.0000	1.0000	1.0000	1.0000	1.0000	1.0000	1.0000	1.0000	1.0000	1.0000	1.0000	1.0000	1.0000	1.0000	1.0000	1.0000	1.0000	1.0000	1.0000	1.0000	1.0000	1.0000	1.0000	1.0000	1.0000	1.0000	1.0000	1.0000	1.0000	1.0000	1.0000	1.0000	1.0000	1.0000	1.0000	1.0000	1.0000	1.0000	1.0000	1.0000	1.0000	1.0000	1.0000	1.0000	1.0000	1.0000	1.0000	1.0000	1.0000	1.0000	1.0000	1.0000	1.0000	1.0000	1.0000	1.0000	1.0000	1.0000	1.0000	1.0000	1.0000	1.0000	1.0000	1.0000	1.0000	1.0000	1.0000	1.0000	1.0000	1.0000	1.0000	1.0000	1.0000	1.0000	1.0000	0.0625	0.0625	0.0625	0.0625	0.0625	0.0625	0.0625	0.0625	0.0625	0.0625	0.0625	0.0625	0.0000	0.0000	0.0000	0.0000	0.0000	0.0000	0.0000	0.0000	0.0000	0.0000	0.0000	0.0000	0.0625	0.0625	0.0625	0.0625	0.0625	0.0625	0.0625	0.0625	0.0625	0.0625	0.0625	0.0625	0.0000	0.0000	0.0000	0.0000	0.0000	0.0000	0.0000	0.0000	0.0000	0.0000	0.0000	0.0000	0.0625	0.0625	0.0625	0.0625	0.0625	0.0625	0.0625	0.0625	0.0625	0.0625	0.0625	0.0625	0.0000	0.0000	0.0000	0.0000	0.0000	0.0000	0.0000	0.0000	0.0000	0.0000	0.0000	0.0000	0.0625	0.0625	0.0625	0.0625	0.0625	0.0625	0.0625	0.0625	0.0625	0.0625	0.0625	0.0625	0.0000	0.0000	0.0000	0.0000	0.0000	0.0000	0.0000	0.0000	0.0000	0.0000	0.0000	0.0000	0.0625	0.0625	0.0625	0.0625	0.0625	0.0625	0.0625	0.0625	0.0625	0.0625	0.0625	0.0625	0.0000	0.0000	0.0000	0.0000	0.0000	0.0000	0.0000	0.0000	0.0000	0.0000	0.0000	0.0000	0.0625	0.0625	0.0625	0.0625	0.0625	0.0625	0.0625	0.0625	0.0625	0.0625	0.0625	0.0625	0.0000	0.0000	0.0000	0.0000	0.0000	0.0000	0.0000	0.0000	0.0000	0.0000	0.0000	0.0000	0.0625	0.0625	0.0625	0.0625	0.0625	0.0625	0.0625	0.0625	0.0625	0.0625	0.0625	0.0625	0.0000	0.0000	0.0000	0.0000	0.0000	0.0000	0.0000	0.0000	0.0000	0.0000	0.0000	0.0000	0.0625	0.0625	0.0625	0.0625	0.0625	0.0625	0.0625	0.0625	0.0625	0.0625	0.0625	0.0625	0.0000	0.0000	0.0000	0.0000	0.0000	0.0000	0.0000	0.0000	0.0000	0.0000	0.0000	0.0000	0.0625	0.0625	0.0625	0.0625	0.0625	0.0625	0.0625	0.0625	0.0625	0.0625	0.0625	0.0625	0.0000	0.0000	0.0000	0.0000	0.0000	0.0000	0.0000	0.0000	0.0000	0.0000	0.0000	0.0000	0.0625	0.0625	0.0625	0.0625	0.0625	0.0625	0.0625	0.0625	0.0625	0.0625	0.0625	0.0625	0.0000	0.0000	0.0000	0.0000	0.0000	0.0000	0.0000	0.0000	0.0000	0.0000	0.0000	0.0000	0.0625	0.0625	0.0625	0.0625	0.0625	0.0625	0.0625	0.0625	0.0625	0.0625	0.0625	0.0625	0.0000	0.0000	0.0000	0.0000	0.0000	0.0000	0.0000	0.0000	0.0000	0.0000	0.0000	0.0000	0.0625	0.0625	0.0625	0.0625	0.0625	0.0625	0.0625	0.0625	0.0625	0.0625	0.0625	0.0625	0.0000	0.0000	0.0000	0.0000	0.0000	0.0000	0.0000	0.0000	0.0000	0.0000	0.0000	0.0000	0.0000	0.0000	0.0000	0.0000	0.0000	0.0000	0.0000	0.0000	0.0000	0.0000	0.0000	0.0000	0.0000	0.0000	0.0000	0.0000	0.0000	0.0000	0.0000	0.0000	0.0000	0.0000	0.0000	0.0000	0.0000	0.0000	0.0000	0.0000	0.0000	0.0000	0.0000	0.0000	0.0000	0.0000	0.0000	0.0000	0.0000	0.0000	0.0000	0.0000	0.0000	0.0000	0.0000	0.0000	0.0000	0.0000	0.0000	0.0000	0.0000	0.0000	0.0000	0.0000	0.0000	0.0000	0.0000	0.0000	0.0000	0.0000	0.0000	0.0000	0.0000	0.0000	0.0000	0.0000	0.0000	0.0000	0.0000	0.0000	0.0000	0.0000	0.0000	0.0000	0.0000	0.0000	0.0000	0.0000	0.0000	0.0000	0.0000	0.0000	0.0000	0.0000	0.0000	0.0000	0.0000	0.0000	0.0000	0.0000	0.0000	0.0000	0.0000	0.0000	0.0000	0.0000	0.0000	0.0000	0.0000	0.0000	0.0000	0.0000	0.0000	0.0000	0.0000	0.0000	0.0000	0.0000	0.0000	0.0000	0.0000	0.0000	0.0000	0.0000	0.0000	0.0000	0.0000	0.0000	0.0000	0.0000	0.0000	0.0000	0.0000	0.0000	0.0000	0.0000	0.0000	0.0000	0.0000	0.0000	0.0000	0.0000	0.0000	0.0000	0.0000	0.0000	0.0000	0.0000	0.0000	0.0000	0.0000	0.0000	0.0000	0.0000	0.0000	0.0000	0.0000	0.0000	0.0000	0.0000	0.0000	0.0000	0.0000	0.0000	0.0000	0.0000	0.0000	0.0000	0.0000	0.0000	0.0000	0.0000	0.0000	0.0000	0.0000	0.0000	0.0000	0.0000	0.0000	0.0000	0.0000	0.0000	0.0000	0.0000	0.0000	0.0000	0.0000	0.0000	0.0000	0.0000	0.0000	0.0000	0.0000	0.0000	0.0000	0.0000	0.0000	0.0000	0.0000	0.0000	0.0000	0.0000	0.0000	0.0000	0.0000	0.0000	0.0000	0.0000	0.0000	0.0000	0.0000	0.0000	0.0000	0.0000	0.0000	0.0000	0.0000	0.0000	0.0000	0.0000	0.0000	0.0000	0.0000	0.0000	0.0000	0.0000	0.0000	0.0000	0.0000	0.0000	0.0000	0.0000	0.0000	0.0000	0.0000	0.0000	0.0000	0.0000	0.0000	0.0000	0.0000	0.0000	0.0000	0.0000	0.0000	0.0000	0.0000	0.0000	0.0000	0.0000	0.0000	0.0000	0.0000	0.0000	0.0000	0.0000	0.0000	0.0000	0.0000	0.0000	0.0000	0.0000	0.0000	0.0000	0.0000	0.0000	0.0000	0.0000	0.0000	0.0000	0.0000	0.0000	0.0000	0.0000	0.0000	0.0000	0.0000	0.0000	0.0000	0.0000	0.0000	0.0000	0.0000	0.0000	0.0000	0.0000	0.0000	0.0000	0.0000	0.0000	0.0000	0.0000	0.0000	0.0000	0.0000	0.0000	0.0000	0.0000	0.0000	0.0000	