0.0249	0.1800	-0.2301	-0.0524	0.8870	1.6689	1.6768	0.4830	0.0946	-0.1901	0.0468	1.6486	2.7998	2.6415	2.0971	1.6448	-0.2031	-0.0379	1.9784	3.2675	3.0434	2.8290	2.1651	2.0728	0.0845	1.4467	2.7118	2.8316	3.0605	3.0307	2.8250	2.3057	0.5747	2.2471	3.0361	2.6342	2.7530	2.8679	3.1565	2.3715	1.1396	2.0037	2.1813	2.0582	2.3329	2.9591	2.7016	2.1168	0.8166	1.2500	1.1374	1.5955	2.5587	3.0453	2.4257	2.1046	0.3369	0.6876	1.1302	2.0507	2.7621	2.4481	2.2114	2.3040	-0.0929	-0.0019	-0.0593	-0.5250	-0.5705	-0.0098	0.3883	0.1537	-0.1499	-0.2038	-0.6323	-0.8425	-0.2934	0.6699	1.0953	0.5523	-0.2990	-0.8044	-0.8653	0.1760	1.4788	2.0246	2.0227	1.4226	-0.4732	-0.6425	0.3284	1.5656	1.9651	2.1749	2.2593	2.1344	-0.7105	-0.1776	1.3720	2.1771	2.2143	2.3197	2.4918	2.4148	-0.0869	0.6624	1.8583	1.8161	2.0624	2.3270	2.7586	2.4124	0.2100	0.9494	1.8829	1.3170	1.5130	2.0862	2.5367	1.7957	0.1957	0.4391	0.7025	0.9468	1.6369	2.3343	2.2084	1.7662	-0.0573	-0.1237	0.6210	1.5554	2.3764	2.2560	1.0887	0.3265	0.0917	0.8791	1.8964	2.1819	2.4543	2.9488	2.8521	1.3328	0.5773	1.9635	2.1270	2.2215	2.4898	2.8759	3.4900	2.7629	1.0950	1.3380	1.8336	2.5499	2.6938	2.8155	3.0042	3.4159	1.4637	1.3092	1.9016	2.0257	2.5069	2.4416	2.1689	2.5658	0.5338	0.7241	1.4128	1.8709	2.4494	2.1853	1.9443	1.6819	0.1305	0.5536	1.5692	2.2179	2.4949	2.5861	2.3920	1.8396	0.0304	0.4354	1.1620	1.3970	1.6685	2.3644	2.6247	2.0514	0.0723	-0.0018	0.4125	1.0040	0.9235	-0.0858	-0.8111	-0.4586	0.1030	0.4633	1.0632	1.3901	1.6348	0.9855	-0.3021	-0.9285	0.4697	1.3328	1.8026	2.1639	2.7353	2.5053	1.2816	-0.3969	1.0403	2.1782	2.5806	2.8029	2.8643	2.9073	2.5909	1.1450	1.7802	2.4748	2.5899	2.9468	3.0122	2.9801	2.5971	2.4880	1.9898	2.2732	2.5045	2.9228	3.1920	2.6839	2.2793	2.7964	1.9021	2.2745	2.5537	2.9112	3.0849	2.2857	1.6628	2.0768	1.0693	1.6207	2.1932	2.8541	2.9565	2.5962	1.9537	1.5195	0.0333	0.1295	-0.3070	-0.3264	0.2148	-0.1542	0.3173	0.9288	-0.0819	-0.3387	0.1717	0.5889	0.2081	-0.1531	-0.9037	0.3132	-0.0161	-0.0303	-0.1679	0.0683	-0.1552	0.4495	0.2332	-0.6282	0.1994	0.4287	-0.1781	-0.2605	0.0257	0.0561	0.2895	0.1762	-0.0899	-0.5204	0.2182	0.1245	-0.0581	-0.1812	0.3854	0.3229	0.3819	0.1142	-0.5158	-0.1942	-0.1382	0.0775	0.0942	0.3261	-0.5846	-0.1764	0.0546	0.1671	-0.0458	-0.2301	0.1579	0.0694	0.2538	-0.0901	-0.1142	-0.0792	0.0438	-0.2400	-0.3730	0.0141	0.0804	0.0886	-0.3867	-0.3339	-0.1948	-0.2751	-0.8901	-0.4821	-0.1612	-0.5783	-0.1064	0.4220	0.3984	0.6651	-0.1902	-0.8138	-0.1135	0.2622	0.1746	-0.4467	-0.3037	0.1809	0.8734	0.1622	-0.4190	0.2004	0.0060	-0.0833	-0.2146	-0.2196	0.1865	0.7011	-0.3931	0.0547	-0.3726	0.1923	-0.0051	0.1518	0.0186	0.5136	0.0892	0.5917	0.0389	-0.2301	-0.0736	-0.1863	-0.4516	-0.3046	-0.6365	-0.5269	-0.4101	-0.1224	0.0687	-0.2853	-0.2149	-0.8831	0.0200	0.1333	0.0810	0.2042	0.2805	0.4964	0.0555	-0.0848	-0.1121	0.0858	0.4843	-0.0679	-0.6188	-0.8547	-0.2832	0.1741	0.1036	0.4076	-0.1836	-0.5185	0.6377	0.7080	0.1428	-0.3182	0.5814	0.1690	-0.4551	0.4307	0.1589	0.0738	0.1582	-0.2387	0.2195	-0.3313	0.3473	0.3674	-0.1178	0.0548	-0.0085	0.0285	0.5526	-0.6908	0.1610	-0.1105	0.3753	-0.1762	0.0685	0.5907	0.2731	0.2527	0.7375	0.2641	-0.1341	-0.4753	0.0733	0.0895	0.0385	-0.0537	-0.4128	-0.1832	-0.5614	-0.0537	-0.3549	0.0691	0.0647	0.0945	0.2194	-0.0914	0.1316	0.3168	0.1375	-0.2520	-0.1060	0.0161	0.1815	0.3404	0.4441	0.2307	-0.1316	0.1295	0.0642	0.3492	0.0993	-0.1331	-0.0652	0.5323	-0.0357	-0.3610	0.1415	-0.0736	-0.4107	0.3430	0.1035	0.3348	0.3788	-0.3679	-0.1407	-0.3728	0.3937	0.0230	-0.0466	-0.0061	0.2939	0.6037	-0.4655	-0.0128	0.2296	-0.3431	-0.0053	-0.2426	-0.1439	0.2590	-0.7431	0.4546	-0.3377	0.1702	-0.0204	0.1065	-0.0582	-0.2095	-0.4718	0.6644	-0.0263	0.1111	-0.1296	0.4303	-0.1967	-0.3425	-0.1108	-0.2239	-0.2035	-0.4351	0.1335	0.0389	-0.0217	-0.5218	0.0098	0.0203	-0.4643	0.3759	0.0755	-0.4120	0.0279	0.0096	-0.0762	-0.2694	0.5410	-0.0490	-0.0749	0.0032	0.3482	0.1889	-0.1728	0.1474	0.0087	-0.1745	0.4829	0.0011	-0.1205	0.0049	0.2699	0.2502	-0.1186	0.3277	-0.0925	-0.0766	0.0163	-0.1141	-0.3946	0.0900	0.0294	-0.1218	-0.2288	0.2215	-0.0289	-0.3316	0.5398	-0.4184	0.6291	-0.1675	0.4546	-0.0284	0.0682	0.1656	-0.1030	0.0183	-0.0727	-0.2068	-0.1364	-0.1833	0.0927	-0.2403	0.0257	-0.1426	-0.1460	0.1033	-0.3246	0.0995	-0.4515	0.6288	0.0494	0.0440	0.3420	-0.3407	-0.1031	-0.1492	0.4398	-0.2475	0.1531	0.1225	-0.1862	0.3657	0.6028	-0.3290	-0.2750	-0.0270	0.1630	-0.2337	0.6279	0.0241	-0.1606	0.0354	0.2075	-0.1402	0.3127	0.2283	0.2931	-0.3139	-0.0061	0.0649	0.0496	-0.0472	0.0828	-0.7507	0.2342	-0.2470	-0.0034	-0.0232	-0.0595	0.0351	0.3319	0.1814	0.1415	0.0043	-0.0913	0.3897	-0.2080	0.3124	0.1423	-0.3836	0.0443	0.1059	0.0923	-0.0405	-0.1267	0.4267	-0.1552	0.1591	-0.1549	0.0426	-0.1198	0.0016	0.0724	-0.4262	0.1319	-0.0080	-0.2559	-0.0611	0.1899	-0.1090	0.4260	-0.4595	-0.2476	-0.1201	0.2687	-0.0453	0.1097	-0.4992	-0.3963	0.4401	0.2753	0.0806	-0.0011	-0.2199	-0.1789	0.3219	-0.1176	-0.6263	-0.0373	-0.3624	-0.3167	0.0854	-0.0645	0.0253	0.1701	-0.1535	0.0437	-0.1073	0.7705	-0.0895	0.0594	0.1097	-0.0131	0.3528	0.2560	-0.5526	-0.1131	-0.4758	0.0914	-0.3394	-0.1290	0.1797	-0.4421	0.3775	-0.0924	0.4962	-0.2551	0.1600	-0.0477	-0.0814	0.0154	0.0434	0.1399	0.1650	0.2083	0.2418	-0.0550	0.1444	-0.0087	0.0052	-0.2094	-0.2449	0.4706	-0.1013	-0.0344	0.2594	0.0865	-0.2515	0.0621	0.0670	-0.1718	-0.1983	0.1697	-0.5396	0.0832	0.0313	-0.2074	-0.0447	0.2226	-0.3592	0.0656	-0.2027	0.0946	-0.2336	0.3857	-0.0486	0.1229	-0.0364	-0.2838	0.0202	0.3559	-0.2148	0.5267	0.0022	-0.0414	-0.0377	0.1770	-0.3116	0.0474	-0.3988	0.1526	-0.3250	-0.2498	0.1406	-0.1622	0.1333	0.0982	-0.1700	0.3542	-0.0594	0.0373	0.1215	-0.1185	0.2697	0.2799	0.1139	0.0499	0.2071	0.0363	0.1341	-0.2769	0.3867	0.0573	-0.0835	-0.0433	0.2545	-0.2601	-0.6485	0.3881	-0.0526	-0.1774	-0.1668	0.3579	-0.5313	0.0744	0.4535	-0.5224	0.1739	0.1190	0.1039	-0.3694	0.3265	-0.1721	-0.0708	0.0754	0.0864	-0.1404	0.2584	0.3078	-0.1600	0.1735	0.0467	-0.0082	-0.1554	0.0862	-0.0935	-0.4135	-0.0192	-0.2586	0.2560	-0.0818	-0.0617	0.0369	-0.0855	0.1485	-0.2078	0.1290	-0.2280	0.1300	-0.0334	-0.2254	0.4456	-0.5245	0.5909	-0.1169	0.2356	-0.1148	0.1009	0.0549	0.0295	0.3193	-0.2807	0.0906	-0.1770	0.0138	0.2279	-0.0569	-0.0203	-0.0269	-0.0777	0.3514	-0.2876	-0.2862	0.0869	0.1558	0.0810	0.0449	0.2003	-0.5833	0.3133	0.1530	-0.0500	0.0236	0.0126	0.0374	-0.2159	0.2902	0.1251	-0.1515	-0.0650	0.1208	-0.3134	0.2738	0.3061	-0.1363	0.1233	-0.0160	-0.1054	0.1353	-0.0266	-0.2294	-0.1557	0.0277	-0.1093	0.2037	0.0448	-0.0598	0.1930	-0.2555	0.4172	-0.2060	0.2897	-0.2895	0.4854	-0.2588	0.4953	0.0114	-0.1400	0.1136	-0.0686	0.0763	-0.1108	0.0647	0.0717	0.0344	0.1177	-0.2348	-0.0419	0.0982	-0.2675	0.0079	-0.1955	-0.1129	0.3612	0.5909	-0.3126	0.1084	-0.2425	0.1244	-0.1047	0.2016	-0.2441	-0.1939	0.3266	-0.1956	-0.0292	0.0682	0.0038	-0.1805	0.2814	-0.0643	-0.0751	-0.0240	0.1989	-0.3481	-0.2648	0.3451	-0.4650	-0.1568	-0.0157	-0.0143	0.0924	0.1566	0.0690	0.3224	-0.0580	-0.0383	0.0103	-0.0862	-0.0373	0.0629	-0.3096	0.0706	0.0035	0.2250	-0.0758	0.0655	0.1543	-0.0050	0.2499	-0.3626	0.0964	-0.1164	0.0195	-0.1390	-0.0422	-0.0680	-0.1804	0.1654	-0.0684	0.1622	0.0230	0.0907	-0.0710	0.0215	-0.1070	0.0705	-0.0170	-0.1021	-0.3490	0.0081	-0.0058	-0.1132	-0.1817	-0.0530	0.2331	-0.0395	-0.1363	0.0848	-0.1261	-0.1163	-0.1529	0.0724	0.0751	0.0735	-0.0937	0.0816	0.0647	-0.0699	0.0429	0.3340	-0.0391	0.0501	0.0935	0.0107	0.1757	0.0158	-0.2341	0.2161	-0.6119	0.1263	-0.0467	-0.0661	0.1727	0.0002	-0.2203	0.3828	-0.2960	0.0640	-0.1175	-0.1057	-0.0565	0.1421	-0.4303	0.2099	0.0878	0.1977	-0.1142	0.0834	-0.1649	0.0358	-0.1964	-0.0269	0.0310	-0.0811	0.0020	-0.0571	-0.1267	-0.2517	-0.1031	-0.0746	-0.1525	-0.0693	0.1465	0.0553	0.0905	0.1643	0.2104	0.0415	0.1484	0.0006	0.0054	0.0161	-0.0016	-0.0039	0.0049	-0.0081	0.0058	0.0032	-0.0019	-0.0196	0.0035	-0.0010	-0.0002	0.0009	0.0024	0.0001	-0.0007	-0.0012	0.0008	0.0011	0.0003	-0.0011	-0.0006	0.0000	0.0014	0.0001	0.0009	-0.0014	0.0013	-0.0020	0.0005	-0.0015	0.0003	-0.0012	0.0001	0.0041	0.2614	0.0389	0.1430	0.2240	0.2654	0.0829	0.2074	0.2099	0.0306	0.0483	0.0692	0.0043	-0.0047	-0.0068	-0.0031	0.0006	-0.0046	-0.0554	0.0039	0.0085	-0.0094	-0.0100	-0.0022	0.0004	-0.0003	-0.0007	0.0004	0.0015	0.0012	-0.0024	-0.0017	-0.0001	0.0005	0.0007	-0.0006	-0.0021	0.0017	-0.0027	0.0004	-0.0030	0.0002	-0.0020	0.0002	-0.0001	-0.0011	0.0005	-0.0002	0.2732	0.3075	0.1651	0.2887	0.3025	0.1433	0.0261	0.1149	-0.0161	-0.1361	-0.0640	-0.1351	-0.0031	-0.0004	-0.0170	0.0000	-0.0077	0.0043	-0.0057	0.0044	-0.0011	-0.0046	0.0142	0.0003	0.0013	-0.0002	-0.0012	-0.0021	0.0018	0.0010	-0.0009	-0.0023	-0.0008	0.0004	0.0013	0.0004	-0.0011	0.0001	-0.0019	-0.0003	0.0004	-0.0004	0.0013	-0.0002	0.0009	0.0002	0.0021	0.0006	0.4191	0.3887	0.1764	0.3420	0.3213	0.1880	0.0693	0.1634	0.1095	-0.0102	0.0122	0.0090	-0.0032	-0.0045	-0.0096	0.0034	0.0014	-0.0092	-0.0060	0.0009	0.0021	-0.0081	0.0058	-0.0018	0.0005	-0.0000	-0.0010	-0.0010	0.0005	0.0005	-0.0000	-0.0013	-0.0005	0.0001	0.0008	-0.0003	-0.0009	0.0002	-0.0014	-0.0001	-0.0003	-0.0003	0.0003	-0.0000	0.0005	-0.0004	0.0008	-0.0000	0.3248	0.1795	0.1203	0.1938	0.1534	-0.0112	0.0076	0.0096	-0.0460	-0.1267	-0.0406	-0.0962	-0.0076	0.0009	-0.0046	0.0063	-0.0040	-0.0040	0.0141	0.0032	-0.0013	-0.0043	0.0110	0.0004	0.0008	0.0001	-0.0006	-0.0018	0.0001	-0.0000	0.0006	-0.0011	-0.0000	-0.0002	0.0007	-0.0010	0.0003	-0.0004	0.0004	-0.0001	0.0012	-0.0004	0.0016	-0.0001	0.0008	-0.0002	0.0013	-0.0000	0.1451	0.0333	0.0197	0.0382	-0.0181	-0.0918	-0.0515	-0.0821	-0.1233	-0.1455	-0.0701	-0.1254	-0.0054	0.0028	0.0071	0.0062	-0.0025	-0.0021	0.0125	0.0040	0.0005	-0.0025	0.0041	0.0010	0.0003	0.0001	-0.0001	-0.0005	-0.0007	-0.0001	0.0004	0.0006	-0.0001	-0.0001	0.0003	-0.0002	0.0008	-0.0002	0.0011	0.0000	0.0009	-0.0001	0.0013	0.0001	0.0004	-0.0002	0.0008	-0.0000	0.1920	0.1474	0.0123	0.1095	-0.0031	-0.0884	-0.1013	-0.1140	-0.1976	-0.1628	-0.0765	-0.1604	-0.0027	0.0020	-0.0070	0.0042	0.0015	0.0007	0.0052	-0.0012	-0.0012	0.0032	0.0106	-0.0013	0.0006	0.0005	-0.0010	-0.0002	-0.0002	0.0010	0.0005	0.0008	-0.0010	0.0001	0.0007	0.0017	-0.0001	-0.0002	0.0000	-0.0002	0.0006	-0.0001	0.0016	0.0002	0.0005	0.0004	0.0008	0.0004	0.1648	0.1204	0.0255	0.0859	-0.0147	0.0977	-0.0474	-0.0001	-0.0529	0.1864	-0.0411	0.0435	-0.0005	0.0054	0.0154	0.0028	0.0044	0.0026	0.0385	-0.0014	-0.0010	0.0043	-0.0029	0.0011	-0.0003	0.0001	0.0002	0.0014	-0.0008	-0.0006	0.0011	0.0027	0.0002	0.0003	-0.0010	0.0018	0.0007	0.0001	0.0005	0.0001	0.0008	0.0012	0.0001	0.0004	-0.0014	0.0018	-0.0015	0.0008	0.1334	0.1981	0.0604	0.1296	0.1442	0.3252	0.1228	0.2378	0.3111	0.4425	0.1305	0.3323	0.0053	-0.0013	0.0141	-0.0018	0.0097	-0.0068	0.0060	-0.0041	0.0051	-0.0020	-0.0106	-0.0026	-0.0002	-0.0003	0.0007	0.0010	0.0001	-0.0009	0.0003	0.0005	0.0022	-0.0001	-0.0011	-0.0020	-0.0003	0.0009	-0.0008	0.0004	-0.0015	0.0012	-0.0026	0.0002	-0.0018	0.0008	-0.0026	-0.0002	0.0821	0.0470	0.1009	0.0975	0.1741	0.1790	0.1527	0.1977	0.2729	0.3167	0.1692	0.2786	0.0043	-0.0042	-0.0003	-0.0050	0.0017	-0.0014	0.0104	-0.0055	-0.0043	0.0007	0.0080	-0.0020	-0.0013	-0.0003	0.0007	0.0010	-0.0009	-0.0006	0.0007	0.0006	-0.0003	-0.0004	-0.0001	0.0002	0.0000	-0.0005	-0.0008	-0.0002	0.0002	-0.0000	-0.0012	-0.0002	-0.0001	0.0006	-0.0015	0.0001	-0.0673	-0.1394	0.0283	-0.0604	0.0308	0.0453	0.1371	0.1055	0.2349	0.2819	0.1837	0.2706	0.0021	-0.0019	-0.0010	-0.0032	-0.0017	0.0018	0.0139	-0.0040	-0.0083	0.0041	0.0069	0.0005	-0.0019	0.0000	0.0010	0.0018	-0.0013	-0.0010	0.0009	0.0009	-0.0001	-0.0007	-0.0004	-0.0003	0.0005	-0.0006	0.0003	0.0001	0.0007	-0.0000	-0.0009	-0.0001	0.0001	0.0005	-0.0015	-0.0000	-0.1856	-0.1737	-0.0564	-0.1459	-0.0730	-0.0067	0.0879	0.0383	0.1880	0.2048	0.1708	0.2276	0.0025	-0.0009	0.0024	-0.0028	-0.0003	0.0014	-0.0052	-0.0031	-0.0065	0.0059	-0.0030	0.0010	-0.0014	0.0001	0.0008	0.0018	-0.0010	-0.0005	0.0003	0.0007	-0.0001	-0.0005	-0.0006	-0.0001	0.0002	0.0000	0.0004	0.0003	-0.0004	0.0002	-0.0012	0.0001	-0.0000	-0.0000	-0.0014	-0.0002	0.1959	-0.0409	0.0631	0.0598	0.0289	0.0434	0.0024	0.0615	-0.1365	0.0411	-0.2276	-0.1858	0.0205	-0.0220	-0.0143	-0.0037	0.0011	0.0128	0.0896	-0.0147	-0.0123	0.0107	0.0029	0.0057	-0.0007	-0.0002	0.0014	-0.0007	-0.0001	-0.0019	0.0024	0.0007	0.0011	0.0019	-0.0012	0.0012	-0.0005	-0.0020	0.0002	-0.0007	0.0045	-0.0007	0.0006	-0.0018	-0.0008	0.0029	0.0015	0.0017	-0.0627	-0.1519	-0.1926	-0.2789	-0.2050	-0.1524	0.1806	0.0123	0.2445	0.2135	0.0650	0.2432	-0.0179	0.0036	-0.0305	0.0139	0.0109	-0.0118	-0.0104	0.0098	0.0022	-0.0084	0.0341	-0.0069	-0.0009	0.0032	-0.0010	0.0021	-0.0024	-0.0029	0.0010	0.0013	-0.0001	-0.0015	-0.0001	-0.0008	-0.0011	0.0020	0.0034	0.0027	-0.0012	-0.0004	-0.0020	0.0004	0.0019	-0.0016	-0.0012	-0.0022	0.2883	0.4162	-0.1649	0.1549	-0.1237	-0.0671	-0.1141	-0.1685	-0.0301	-0.1732	0.0804	-0.0450	0.0053	-0.0060	0.0164	0.0033	0.0104	-0.0065	-0.0920	-0.0111	-0.0133	0.0175	-0.0065	0.0142	0.0023	0.0008	-0.0016	-0.0001	0.0003	0.0044	-0.0011	0.0007	0.0001	-0.0004	-0.0006	-0.0006	-0.0007	0.0011	-0.0004	-0.0004	-0.0049	0.0012	-0.0006	0.0019	0.0012	-0.0009	0.0014	0.0002	0.0608	0.0941	-0.0034	0.0667	-0.0779	0.0798	-0.1648	-0.0921	-0.2725	-0.0994	-0.2524	-0.2783	0.0044	0.0089	0.0238	-0.0019	-0.0095	0.0192	0.0401	0.0033	-0.0056	0.0067	-0.0260	0.0170	-0.0001	-0.0003	0.0003	0.0018	0.0010	0.0005	-0.0003	0.0017	0.0004	0.0017	-0.0018	0.0024	0.0011	-0.0003	-0.0002	-0.0005	0.0013	0.0019	0.0013	0.0005	-0.0022	0.0024	0.0012	0.0021	-0.0204	-0.0490	0.1196	0.0496	0.1900	0.3210	0.1501	0.3153	0.2551	0.1906	-0.0917	0.0955	0.0152	-0.0109	0.0247	-0.0104	0.0052	-0.0120	0.0228	-0.0029	0.0216	-0.0212	-0.0183	-0.0070	-0.0010	-0.0018	0.0026	-0.0003	0.0015	-0.0026	-0.0003	-0.0033	0.0021	0.0011	-0.0003	-0.0023	0.0006	-0.0006	-0.0008	-0.0005	-0.0001	-0.0002	-0.0029	-0.0015	-0.0017	-0.0009	-0.0005	-0.0009	-0.2184	-0.2736	0.0160	-0.1626	0.0883	-0.1355	0.1563	0.0644	0.0909	-0.2605	-0.0220	-0.1345	-0.0018	-0.0091	-0.0261	-0.0077	-0.0228	0.0138	-0.0331	0.0075	-0.0099	-0.0015	0.0402	0.0048	-0.0021	0.0006	0.0008	0.0004	-0.0001	0.0004	-0.0018	-0.0021	-0.0012	-0.0005	0.0019	-0.0005	-0.0006	-0.0003	0.0001	0.0005	0.0011	-0.0020	0.0006	-0.0007	0.0037	-0.0015	0.0040	-0.0003	-0.3321	0.0580	-0.1389	-0.1332	-0.0974	0.1510	-0.1097	0.0017	-0.1131	0.0168	-0.1054	-0.0834	-0.0004	0.0056	0.0197	0.0064	0.0048	0.0075	-0.0416	0.0136	0.0116	0.0026	-0.0081	-0.0057	0.0014	-0.0010	-0.0004	0.0005	0.0023	0.0007	-0.0030	0.0004	0.0018	0.0008	0.0001	-0.0005	-0.0015	0.0033	-0.0010	0.0013	-0.0032	0.0012	-0.0018	0.0006	-0.0014	0.0009	-0.0003	0.0003	0.2511	0.2373	0.0835	0.2354	0.1941	-0.1153	0.0514	0.0119	-0.0120	0.0948	0.0911	0.1131	-0.0002	-0.0192	-0.0782	0.0015	0.0293	-0.0149	0.0042	-0.0155	-0.0102	0.0039	0.0719	-0.0138	0.0013	0.0013	-0.0033	-0.0034	-0.0001	0.0002	0.0031	-0.0010	-0.0004	-0.0023	0.0018	-0.0010	-0.0036	-0.0010	-0.0027	-0.0006	0.0007	-0.0026	0.0011	-0.0011	0.0032	0.0006	-0.0005	-0.0011	0.2015	-0.0832	-0.0598	-0.0448	-0.2954	-0.3208	-0.0886	-0.3088	-0.0595	0.1788	0.2141	0.2453	-0.0224	0.0257	-0.0017	0.0139	0.0074	-0.0125	0.0461	-0.0062	-0.0138	0.0135	-0.0101	0.0065	0.0015	0.0017	-0.0018	-0.0009	-0.0037	-0.0007	0.0041	0.0038	-0.0002	-0.0020	-0.0022	-0.0000	0.0026	-0.0014	0.0035	-0.0004	0.0013	0.0014	0.0023	0.0016	-0.0005	0.0002	-0.0037	-0.0006	-0.2921	-0.0934	0.1433	0.0064	0.3146	0.3524	0.0855	0.3338	0.0527	-0.1866	-0.2406	-0.2637	0.0219	-0.0167	0.0202	-0.0159	-0.0162	0.0134	-0.0150	0.0072	0.0218	-0.0199	-0.0122	-0.0069	-0.0012	-0.0030	0.0030	-0.0005	0.0035	-0.0002	-0.0040	-0.0042	0.0006	0.0026	0.0019	-0.0003	-0.0008	0.0004	-0.0029	-0.0002	0.0003	-0.0012	-0.0018	-0.0020	-0.0008	-0.0003	0.0033	0.0007	-0.2594	-0.1467	0.0540	-0.0930	0.1822	-0.0360	0.1188	0.0970	-0.0828	-0.1459	-0.1942	-0.2271	-0.0063	-0.0035	-0.0629	-0.0087	-0.0191	0.0321	0.0091	0.0176	-0.0063	-0.0065	0.0760	0.0011	-0.0019	0.0016	-0.0008	0.0010	0.0012	-0.0005	-0.0014	-0.0007	-0.0024	-0.0006	0.0025	0.0031	-0.0028	0.0007	-0.0018	0.0012	0.0028	-0.0018	0.0018	-0.0008	0.0033	0.0012	0.0035	0.0006	-0.0722	0.1000	-0.0439	0.0253	-0.0313	0.1204	-0.0192	0.0211	0.0210	0.2072	-0.0417	0.0903	0.0021	0.0052	-0.0078	-0.0063	0.0092	0.0036	0.0070	0.0022	0.0063	-0.0040	0.0034	0.0037	0.0007	0.0005	-0.0009	0.0005	0.0011	-0.0004	0.0002	0.0005	0.0000	-0.0004	-0.0009	0.0017	-0.0009	0.0006	-0.0014	-0.0002	-0.0011	0.0013	-0.0007	0.0006	-0.0012	0.0009	-0.0017	0.0000	-0.3931	0.2542	-0.0314	0.0645	0.1280	0.1233	-0.1556	0.0187	-0.1733	0.1017	-0.0548	-0.0004	-0.0028	-0.0139	-0.0171	0.0080	0.0506	-0.0129	-0.0664	-0.0068	-0.0020	0.0024	0.0457	-0.0162	0.0033	-0.0028	-0.0029	-0.0045	0.0030	0.0023	-0.0007	0.0004	0.0022	-0.0012	0.0008	-0.0029	-0.0045	0.0037	-0.0052	0.0005	-0.0044	-0.0017	-0.0017	-0.0007	0.0009	0.0017	-0.0012	-0.0006	0.1939	-0.1188	0.1417	0.1067	-0.0825	-0.2843	-0.0194	-0.2583	0.0179	0.0832	0.1848	0.2116	-0.0226	0.0369	-0.0713	-0.0012	-0.0120	-0.0031	0.1135	-0.0036	-0.0127	0.0008	-0.0513	0.0268	-0.0005	0.0034	-0.0033	0.0010	-0.0027	-0.0019	0.0059	0.0009	-0.0008	-0.0019	-0.0039	0.0001	0.0012	-0.0038	0.0004	-0.0013	0.0052	0.0020	0.0053	0.0016	-0.0018	-0.0013	-0.0030	-0.0005	-0.2004	0.0494	-0.0210	-0.0220	-0.0013	0.3561	-0.0751	0.1675	0.0806	-0.1949	-0.1103	-0.2035	0.0132	0.0076	0.0720	0.0085	-0.0026	-0.0180	-0.0564	-0.0034	0.0162	0.0133	-0.0839	-0.0031	0.0023	-0.0038	0.0018	-0.0010	-0.0007	0.0014	-0.0039	0.0017	0.0031	0.0049	-0.0004	-0.0016	0.0011	0.0016	-0.0004	-0.0001	-0.0042	0.0014	-0.0044	0.0000	-0.0028	-0.0010	0.0026	0.0012	0.1809	0.0287	0.0546	0.1322	-0.1302	0.0739	-0.1767	-0.1247	-0.2133	0.2108	-0.0832	0.0124	0.0089	0.0177	0.0574	-0.0128	0.0030	-0.0055	0.0685	-0.0010	0.0046	0.0064	-0.0175	-0.0010	0.0010	-0.0012	0.0016	-0.0003	0.0013	-0.0014	0.0018	-0.0007	0.0025	0.0002	-0.0017	-0.0005	0.0041	-0.0027	0.0007	-0.0026	0.0010	0.0028	0.0012	0.0007	-0.0031	0.0027	-0.0028	0.0008	-0.2789	-0.0957	0.1538	-0.0027	0.2420	-0.0476	-0.0291	-0.0040	0.0021	-0.1812	0.2756	0.1005	-0.0106	0.0078	0.0720	-0.0046	-0.0077	-0.0165	-0.1319	0.0188	0.0101	0.0016	0.0791	-0.0235	-0.0005	-0.0039	0.0025	-0.0015	-0.0010	0.0042	-0.0045	0.0003	-0.0019	-0.0035	0.0052	-0.0010	0.0027	0.0013	-0.0007	-0.0002	-0.0044	-0.0018	0.0003	0.0010	0.0047	-0.0022	0.0001	-0.0019	-0.2457	0.0759	0.1792	0.1389	0.1613	0.0886	-0.2750	-0.1292	-0.3695	0.2115	0.0837	0.0781	0.0038	0.0034	-0.0375	-0.0043	0.0013	0.0213	0.0849	0.0024	0.0013	-0.0042	-0.0397	0.0028	-0.0001	-0.0014	-0.0013	-0.0002	0.0022	0.0008	0.0015	0.0016	-0.0007	-0.0012	-0.0017	0.0019	-0.0027	0.0004	-0.0048	-0.0002	0.0038	0.0010	0.0044	-0.0000	-0.0050	0.0036	-0.0055	0.0018	-0.0289	-0.2007	0.1579	-0.0183	0.2603	-0.1080	0.2191	0.1882	-0.0116	-0.0830	-0.1913	-0.2029	-0.0146	-0.0109	-0.0590	0.0033	0.0094	0.0012	0.0447	0.0010	-0.0229	0.0044	0.0897	-0.0215	-0.0024	0.0007	-0.0008	-0.0009	-0.0035	-0.0026	0.0022	0.0032	-0.0006	0.0011	0.0029	-0.0005	-0.0013	-0.0009	-0.0002	0.0007	0.0044	-0.0045	0.0006	-0.0024	0.0048	0.0018	0.0042	0.0002	-0.0930	0.2770	-0.1073	0.1142	-0.1592	-0.0119	-0.1713	-0.2428	-0.0499	0.1796	0.1079	0.2200	-0.0162	0.0295	0.0604	-0.0133	0.0201	-0.0096	-0.0981	0.0094	-0.0003	0.0011	0.0457	0.0124	0.0025	-0.0006	-0.0016	-0.0003	0.0022	0.0038	-0.0010	0.0000	-0.0006	-0.0043	-0.0009	0.0010	0.0026	0.0012	-0.0017	-0.0018	-0.0072	0.0033	0.0000	0.0038	0.0013	-0.0005	-0.0030	-0.0016	-0.0431	-0.2867	0.3454	0.1140	0.2218	-0.0833	-0.0660	-0.0129	-0.0357	-0.1402	0.1682	0.0380	0.0031	0.0021	-0.0019	0.0122	-0.0038	-0.0287	0.0631	-0.0243	0.0004	0.0081	-0.0406	-0.0044	0.0000	-0.0042	0.0010	-0.0041	-0.0031	-0.0000	0.0029	-0.0001	0.0013	0.0001	-0.0002	-0.0034	0.0016	-0.0035	-0.0008	-0.0017	0.0044	-0.0019	0.0024	-0.0018	-0.0007	-0.0015	-0.0008	-0.0005	-0.1883	0.0024	0.2293	0.1510	0.2675	-0.1033	-0.1525	-0.1615	-0.1188	-0.2088	0.3822	0.1246	-0.0044	0.0085	0.0393	-0.0115	-0.0230	0.0039	-0.0875	0.0064	0.0000	0.0048	0.0318	0.0048	-0.0011	-0.0033	0.0012	-0.0004	-0.0005	0.0063	-0.0028	0.0009	-0.0039	-0.0044	0.0027	0.0020	0.0018	-0.0003	-0.0029	-0.0012	-0.0016	-0.0003	0.0039	0.0018	0.0023	-0.0017	-0.0014	-0.0004	-0.2757	-0.1023	0.1777	0.0109	0.1433	0.1298	-0.1536	0.0373	-0.2252	0.2297	0.0033	0.0644	-0.0008	0.0022	-0.0685	0.0075	0.0134	-0.0050	0.1385	0.0025	0.0148	-0.0118	-0.0837	-0.0204	0.0000	-0.0007	-0.0015	-0.0012	-0.0001	-0.0038	0.0030	0.0019	0.0017	0.0021	-0.0018	-0.0014	-0.0037	0.0005	-0.0031	0.0010	0.0055	-0.0005	0.0021	-0.0020	-0.0065	0.0025	-0.0053	0.0011	0.0484	0.2112	-0.0585	0.0954	0.0410	-0.2001	0.0185	-0.1253	0.0390	-0.1965	0.1929	0.0461	-0.0134	0.0058	-0.0702	-0.0080	0.0058	-0.0074	-0.0658	0.0060	-0.0073	0.0017	0.0164	-0.0019	0.0010	0.0034	-0.0040	-0.0003	-0.0002	0.0022	-0.0001	-0.0006	-0.0023	-0.0015	0.0015	-0.0001	-0.0028	0.0005	-0.0023	-0.0000	-0.0024	-0.0007	0.0015	0.0014	0.0026	-0.0021	0.0007	-0.0009	0.2763	-0.2377	-0.0049	-0.2179	-0.0938	0.0407	0.0958	-0.0181	0.1198	-0.2863	0.2040	-0.1001	-0.0070	0.0557	0.1139	-0.0132	-0.1203	0.0546	-0.0532	0.0600	-0.0062	0.0276	-0.0180	0.0250	-0.0035	0.0029	0.0068	0.0088	-0.0044	0.0023	-0.0089	0.0049	-0.0032	0.0009	0.0018	0.0053	0.0079	0.0002	0.0085	0.0019	0.0010	0.0044	0.0021	0.0042	0.0010	-0.0006	0.0039	0.0027	0.0269	0.0903	0.0029	0.0805	0.3217	-0.1860	0.0841	0.1195	-0.1379	0.2005	0.0094	0.1634	0.0368	-0.0982	-0.0573	-0.0191	0.0566	0.0047	-0.0127	-0.0197	0.0039	-0.0546	0.1184	-0.0397	-0.0046	-0.0009	0.0015	-0.0007	0.0060	-0.0004	0.0022	-0.0070	-0.0035	-0.0049	0.0038	-0.0016	-0.0059	-0.0001	-0.0045	-0.0000	0.0017	-0.0073	0.0006	-0.0047	0.0031	0.0011	-0.0037	-0.0027	-0.0927	-0.0011	-0.0319	-0.0978	-0.1763	0.3572	-0.2159	-0.0114	0.0223	-0.1402	0.0477	-0.1113	0.0121	0.0256	0.1074	-0.0001	-0.0398	0.0033	0.0127	0.0160	0.0172	0.0331	-0.1890	0.0190	0.0009	-0.0023	0.0044	0.0024	-0.0001	0.0005	-0.0042	0.0020	0.0037	0.0063	-0.0040	0.0003	0.0035	0.0020	0.0024	0.0008	-0.0015	0.0053	-0.0014	0.0019	-0.0078	-0.0008	-0.0002	0.0029	-0.0779	0.1883	-0.2517	-0.1566	0.0350	-0.1448	0.2400	0.1047	0.1454	-0.1684	0.0059	-0.1009	-0.0268	-0.0155	-0.1244	0.0166	-0.0005	0.0238	-0.0783	0.0144	-0.0109	-0.0001	0.0749	-0.0108	-0.0001	0.0056	-0.0057	0.0012	0.0008	0.0004	-0.0023	-0.0008	-0.0034	0.0001	0.0040	0.0025	-0.0073	0.0046	-0.0007	0.0040	-0.0015	-0.0028	-0.0012	-0.0004	0.0049	-0.0003	0.0042	0.0002	0.3143	-0.2348	0.0512	-0.0094	-0.0936	0.1791	-0.0326	0.1202	-0.0354	0.0824	-0.0313	0.0311	0.0538	0.0010	0.1380	-0.0203	-0.0296	-0.0271	-0.0059	0.0092	0.0554	-0.0204	0.0319	-0.0412	-0.0004	-0.0032	0.0086	0.0017	0.0017	-0.0023	-0.0039	-0.0067	0.0007	-0.0004	0.0048	0.0003	0.0074	-0.0047	0.0045	-0.0030	-0.0010	0.0012	-0.0027	-0.0012	-0.0009	-0.0005	-0.0022	-0.0013	-0.2942	0.2404	-0.0787	-0.0572	0.2452	-0.0227	-0.1358	-0.0841	-0.3166	0.0205	0.2487	0.0713	0.0016	-0.0361	0.0105	-0.0096	-0.0247	0.0782	-0.1131	0.0279	-0.0122	-0.0152	0.0850	0.0104	-0.0036	-0.0004	0.0013	0.0038	0.0048	0.0073	-0.0066	0.0019	-0.0060	-0.0060	0.0032	0.0047	-0.0041	0.0059	-0.0031	0.0032	-0.0012	-0.0016	0.0036	0.0011	0.0014	0.0033	-0.0024	0.0017	0.0979	0.1829	-0.2337	0.0562	-0.3394	0.2462	-0.0704	0.0586	0.2507	-0.0112	-0.1105	0.0578	0.0266	0.0028	0.1016	-0.0173	0.0480	-0.0703	-0.0755	-0.0160	0.0529	-0.0219	-0.1002	-0.0201	0.0053	-0.0022	0.0016	-0.0040	0.0020	-0.0016	-0.0006	-0.0049	0.0047	0.0032	-0.0013	-0.0049	0.0039	-0.0015	0.0005	-0.0037	-0.0092	0.0025	-0.0077	0.0003	-0.0040	-0.0049	-0.0016	-0.0028	-0.1300	-0.0953	0.1008	-0.0374	-0.0060	-0.1548	0.0311	-0.1770	-0.1666	0.1465	-0.2028	-0.1446	-0.0612	0.0502	0.0511	0.0180	-0.0048	0.0499	0.0101	0.0128	-0.0861	0.0446	0.1114	0.0438	-0.0016	-0.0007	-0.0016	0.0020	-0.0034	0.0027	0.0020	0.0102	-0.0006	-0.0016	-0.0035	0.0026	0.0049	0.0017	0.0024	0.0009	0.0015	0.0014	0.0037	0.0033	0.0055	0.0059	0.0044	0.0025	-0.0887	0.0000	0.1827	0.2157	0.1323	-0.1099	-0.0366	-0.0461	0.2635	-0.2854	0.2090	0.1552	0.0103	-0.0102	-0.0268	0.0052	0.0411	-0.0874	-0.0627	-0.0420	0.0161	0.0068	-0.0311	-0.0039	0.0024	-0.0037	-0.0021	-0.0056	-0.0025	0.0019	0.0034	-0.0040	0.0034	-0.0012	-0.0004	-0.0072	-0.0010	-0.0030	-0.0042	-0.0029	-0.0042	-0.0017	-0.0015	-0.0006	0.0027	-0.0075	0.0005	-0.0045	-0.0948	-0.0104	0.1560	0.1416	-0.0492	-0.2517	0.1411	-0.2068	0.2523	-0.0786	-0.0675	-0.0403	-0.1003	0.0733	-0.0135	0.0258	0.0343	-0.0044	0.0280	-0.0133	-0.0794	0.0421	-0.0375	0.0573	0.0016	0.0004	-0.0081	-0.0035	-0.0066	0.0009	0.0079	0.0098	0.0011	0.0021	-0.0076	-0.0015	0.0048	-0.0003	0.0004	-0.0013	-0.0003	0.0018	0.0026	0.0039	0.0029	-0.0006	0.0051	0.0007	-0.0900	0.0116	0.2083	0.3208	-0.0994	-0.0424	0.0616	-0.0387	0.3639	0.0245	-0.2663	0.0161	-0.0441	0.0510	-0.0017	0.0288	0.1098	-0.1226	0.0079	-0.0676	-0.0239	0.0279	-0.0078	0.0076	0.0075	-0.0048	-0.0075	-0.0110	-0.0067	-0.0019	0.0113	0.0029	0.0070	0.0027	-0.0051	-0.0075	0.0038	-0.0045	-0.0030	-0.0053	-0.0061	0.0003	-0.0049	0.0006	0.0037	-0.0040	0.0037	-0.0037	-0.2310	0.1323	0.0925	0.1680	-0.1970	0.0413	-0.1021	-0.2409	0.0898	0.1110	-0.1805	-0.0146	-0.0513	0.0881	-0.0165	0.0370	0.0208	-0.0356	-0.0157	-0.0266	-0.0441	0.0550	0.0455	0.0566	0.0068	-0.0015	-0.0079	-0.0037	-0.0061	0.0034	0.0047	0.0082	0.0042	-0.0013	-0.0055	-0.0002	0.0017	-0.0001	-0.0020	-0.0015	-0.0047	0.0057	-0.0003	0.0050	0.0038	0.0005	0.0037	-0.0003	-0.0000	0.0000	0.0000	-0.0000	0.0000	-0.0001	-0.0000	-0.0000	-0.0001	0.0000	0.0001	0.0000	0.0000	0.0000	0.0000	0.0000	-0.0000	0.0000	0.0000	-0.0000	-0.0000	0.0000	-0.0000	-0.0000	-0.0000	0.0000	0.0000	0.0000	-0.0000	0.0000	0.0000	0.0000	-0.0000	0.0000	0.0000	0.0000	0.0000	0.0000	-0.0000	0.0000	0.0000	-0.0000	-0.0000	0.0000	-0.0000	0.0000	-0.0000	0.0000	0.0000	0.0000	-0.0000	-0.0000	-0.0000	-0.0001	-0.0000	-0.0000	-0.0000	0.0001	0.0000	0.0001	-0.0001	-0.0000	0.0001	0.0000	0.0000	-0.0000	-0.0000	0.0000	-0.0000	0.0000	0.0000	-0.0000	-0.0000	-0.0000	-0.0000	0.0000	0.0000	-0.0000	-0.0000	-0.0000	0.0000	-0.0000	-0.0000	-0.0001	0.0000	0.0000	0.0000	0.0000	-0.0000	0.0000	0.0000	-0.0000	-0.0000	0.0000	0.0000	-0.0000	0.0000	0.0000	0.0000	-0.0000	-0.0001	0.0001	0.0000	0.0001	0.0001	-0.0002	-0.0000	-0.0000	-0.0000	0.0000	0.0000	-0.0000	0.0000	-0.0000	-0.0000	0.0000	0.0000	0.0000	0.0001	-0.0000	0.0000	-0.0000	-0.0000	-0.0000	-0.0000	0.0000	0.0000	0.0000	0.0000	-0.0000	0.0000	-0.0001	0.0000	0.0000	0.0000	-0.0000	-0.0000	-0.0000	-0.0000	0.0000	0.0000	-0.0000	0.0000	-0.0000	-0.0000	0.0000	0.0000	-0.0000	0.0000	-0.0000	-0.0000	-0.0000	-0.0001	0.0000	0.0001	0.0000	0.0000	0.0000	0.0000	0.0000	-0.0000	0.0000	0.0000	-0.0000	-0.0000	0.0000	-0.0000	-0.0000	-0.0000	0.0000	0.0000	0.0000	-0.0000	0.0000	0.0000	0.0000	-0.0000	0.0000	0.0000	0.0000	0.0000	0.0000	-0.0000	0.0000	0.0000	-0.0000	-0.0000	0.0000	-0.0000	0.0000	-0.0000	0.0000	0.0000	0.0000	-0.0000	-0.0000	-0.0000	-0.0000	-0.0000	-0.0000	-0.0000	0.0001	0.0000	0.0000	-0.0000	-0.0000	0.0000	0.0000	0.0000	-0.0000	-0.0000	0.0000	-0.0000	0.0000	0.0000	-0.0000	-0.0000	-0.0000	-0.0000	0.0000	0.0000	-0.0000	-0.0000	-0.0000	0.0000	-0.0000	-0.0000	-0.0000	0.0000	0.0000	0.0000	0.0000	-0.0000	0.0000	0.0000	-0.0000	-0.0000	0.0000	0.0000	-0.0000	0.0000	0.0000	0.0000	-0.0000	-0.0000	0.0001	0.0000	0.0001	0.0000	-0.0001	-0.0000	-0.0000	-0.0000	0.0000	0.0000	-0.0000	0.0000	-0.0000	-0.0000	0.0000	0.0000	0.0000	0.0001	-0.0000	0.0000	-0.0000	-0.0000	-0.0000	-0.0000	0.0000	0.0000	0.0000	0.0000	-0.0000	0.0000	-0.0000	0.0000	0.0000	0.0000	-0.0000	-0.0000	-0.0000	-0.0000	0.0000	0.0000	-0.0000	0.0000	-0.0000	-0.0000	0.0000	0.0000	-0.0000	0.0000	-0.0000	-0.0000	-0.0000	-0.0001	0.0000	0.0001	0.0000	0.0000	0.0000	0.0000	0.0000	-0.0000	0.0000	0.0000	-0.0000	-0.0000	0.0000	-0.0000	-0.0000	-0.0000	0.0000	0.0000	0.0000	-0.0000	0.0000	0.0000	0.0000	-0.0000	0.0000	0.0000	0.0000	0.0000	0.0000	-0.0000	0.0000	0.0000	-0.0000	-0.0000	0.0000	-0.0000	0.0000	-0.0000	0.0000	0.0000	0.0000	-0.0000	-0.0000	-0.0000	-0.0000	-0.0000	-0.0000	-0.0000	0.0001	0.0000	0.0001	-0.0001	-0.0000	0.0000	0.0000	0.0000	-0.0000	-0.0000	0.0000	-0.0000	0.0000	0.0000	-0.0000	-0.0000	-0.0000	-0.0000	0.0000	0.0000	-0.0000	-0.0000	-0.0000	0.0000	-0.0000	-0.0000	-0.0001	0.0000	0.0000	0.0000	0.0000	-0.0000	0.0000	0.0000	-0.0000	-0.0000	0.0000	0.0000	-0.0000	0.0000	0.0000	0.0000	-0.0000	-0.0000	0.0001	0.0000	0.0001	0.0001	-0.0001	-0.0000	-0.0000	-0.0000	0.0000	0.0000	-0.0000	0.0000	-0.0000	-0.0000	0.0000	0.0000	0.0000	0.0001	-0.0000	0.0000	-0.0000	-0.0000	-0.0000	-0.0000	0.0000	0.0000	0.0000	0.0000	-0.0000	0.0000	-0.0000	0.0000	0.0000	0.0000	-0.0000	-0.0000	-0.0000	-0.0000	0.0000	0.0000	-0.0000	0.0000	-0.0000	-0.0000	0.0000	0.0000	-0.0000	0.0000	-0.0000	-0.0000	-0.0000	-0.0000	0.0000	0.0001	0.0000	0.0000	0.0000	0.0000	0.0000	-0.0000	0.0000	0.0000	-0.0000	-0.0000	0.0000	-0.0000	-0.0000	-0.0000	0.0000	0.0000	0.0000	-0.0000	0.0000	0.0000	0.0000	-0.0000	0.0000	0.0000	0.0000	0.0000	0.0000	-0.0000	0.0000	0.0000	-0.0000	-0.0000	0.0000	-0.0000	0.0000	-0.0000	0.0000	0.0000	0.0000	-0.0000	-0.0000	-0.0000	-0.0000	-0.0000	-0.0000	-0.0000	0.0000	0.0000	0.0000	-0.0000	-0.0000	0.0000	0.0000	0.0000	-0.0000	-0.0000	0.0000	-0.0000	0.0000	0.0000	-0.0000	-0.0000	-0.0000	-0.0000	0.0000	0.0000	-0.0000	-0.0000	-0.0000	0.0000	-0.0000	-0.0000	-0.0000	0.0000	0.0000	0.0000	0.0000	-0.0000	0.0000	0.0000	-0.0000	-0.0000	0.0000	0.0000	-0.0000	0.0000	0.0000	0.0000	-0.0000	-0.0000	0.0000	0.0000	0.0000	0.0000	-0.0001	-0.0000	-0.0000	-0.0000	0.0000	0.0000	-0.0000	0.0000	-0.0000	-0.0000	0.0000	0.0000	0.0000	0.0001	-0.0000	0.0000	-0.0000	-0.0000	-0.0000	-0.0000	0.0000	0.0000	0.0000	0.0000	-0.0000	0.0000	-0.0000	0.0000	0.0000	0.0000	-0.0000	-0.0000	-0.0000	-0.0000	0.0000	0.0000	-0.0000	0.0000	-0.0000	-0.0000	0.0000	0.0000	-0.0000	0.0000	0.0000	-0.0000	0.0000	-0.0000	-0.0000	0.0000	-0.0000	0.0000	0.0000	0.0000	0.0000	-0.0000	0.0000	-0.0000	-0.0000	0.0000	0.0000	-0.0000	-0.0000	-0.0000	0.0000	0.0000	0.0000	-0.0000	0.0000	0.0000	0.0000	-0.0000	0.0000	0.0000	0.0000	-0.0000	0.0000	-0.0000	0.0000	0.0000	-0.0000	-0.0000	0.0000	-0.0000	0.0000	-0.0000	0.0000	0.0000	0.0000	0.0000	0.0000	0.0000	-0.0000	-0.0000	-0.0000	-0.0000	0.0000	0.0000	0.0000	-0.0000	-0.0000	0.0000	0.0000	0.0000	-0.0000	-0.0000	0.0000	-0.0000	0.0000	0.0000	-0.0000	-0.0000	-0.0000	-0.0000	0.0000	0.0000	-0.0000	-0.0000	-0.0000	0.0000	-0.0000	-0.0000	-0.0000	0.0000	0.0000	0.0000	0.0000	-0.0000	0.0000	0.0000	-0.0000	-0.0000	0.0000	0.0000	-0.0000	0.0000	0.0000	0.0000	-0.0000	-0.0000	0.0000	0.0000	0.0000	0.0000	-0.0000	-0.0000	0.0000	-0.0000	0.0000	0.0000	-0.0000	0.0000	-0.0000	-0.0000	0.0000	0.0000	0.0000	0.0000	-0.0000	0.0000	-0.0000	-0.0000	-0.0000	-0.0000	0.0000	0.0000	0.0000	0.0000	-0.0000	0.0000	-0.0000	0.0000	0.0000	0.0000	-0.0000	-0.0000	-0.0000	-0.0000	0.0000	0.0000	-0.0000	0.0000	-0.0000	0.0000	-0.0000	-0.0000	0.0000	-0.0000	-0.0000	0.0000	-0.0000	0.0000	0.0000	-0.0000	0.0000	-0.0000	-0.0000	-0.0000	-0.0000	0.0000	-0.0000	0.0000	0.0000	-0.0000	-0.0000	0.0000	0.0000	0.0000	-0.0000	-0.0000	-0.0000	0.0000	-0.0000	-0.0000	-0.0000	0.0000	-0.0000	-0.0000	-0.0000	0.0000	-0.0000	0.0000	-0.0000	-0.0000	0.0000	0.0000	-0.0000	0.0000	-0.0000	0.0000	-0.0000	-0.0000	-0.0000	-0.0000	-0.0000	-0.0000	0.0000	0.0000	0.0000	0.0000	-0.0000	-0.0000	-0.0000	0.0000	0.0000	-0.0000	-0.0000	-0.0000	0.0000	0.0000	-0.0000	0.0000	-0.0000	-0.0000	0.0000	0.0000	0.0000	0.0000	-0.0000	-0.0000	0.0000	0.0000	0.0000	-0.0000	0.0000	0.0000	0.0000	-0.0000	-0.0000	-0.0000	-0.0000	0.0000	-0.0000	-0.0000	0.0000	0.0000	-0.0000	-0.0000	0.0000	-0.0000	-0.0000	-0.0000	0.0000	0.0000	-0.0000	-0.0000	-0.0000	-0.0000	0.0000	0.0000	-0.0000	0.0000	-0.0000	-0.0000	0.0000	-0.0000	0.0000	0.0000	-0.0000	-0.0000	-0.0000	-0.0000	0.0000	-0.0000	0.0000	0.0000	0.0000	0.0000	-0.0000	-0.0000	-0.0000	-0.0000	0.0000	-0.0000	0.0000	-0.0000	-0.0000	-0.0000	0.0000	0.0000	0.0000	0.0000	-0.0000	-0.0000	0.0000	-0.0000	0.0000	0.0000	-0.0000	-0.0000	0.0000	-0.0000	-0.0000	0.0000	-0.0000	0.0000	0.0000	-0.0000	0.0000	-0.0000	-0.0000	-0.0000	-0.0000	0.0000	-0.0000	0.0000	0.0000	-0.0000	-0.0000	0.0000	0.0000	0.0000	-0.0000	-0.0000	-0.0000	0.0000	-0.0000	-0.0000	-0.0000	0.0000	-0.0000	-0.0000	-0.0000	0.0000	-0.0000	0.0000	-0.0000	-0.0000	0.0000	0.0000	-0.0000	0.0000	-0.0000	0.0000	-0.0000	-0.0000	-0.0000	-0.0000	-0.0000	-0.0000	0.0000	0.0000	0.0000	0.0000	-0.0000	-0.0000	-0.0000	0.0000	0.0000	-0.0000	-0.0000	-0.0000	0.0000	0.0000	-0.0000	0.0000	-0.0000	-0.0000	0.0000	0.0000	0.0000	0.0000	-0.0000	-0.0000	0.0000	0.0000	0.0000	-0.0000	0.0000	0.0000	0.0000	-0.0000	-0.0000	-0.0000	-0.0000	0.0000	-0.0000	-0.0000	0.0000	0.0000	-0.0000	-0.0000	0.0000	-0.0000	-0.0000	-0.0000	0.0000	0.0000	-0.0000	-0.0000	-0.0000	-0.0000	0.0000	0.0000	-0.0000	0.0000	-0.0000	-0.0000	0.0000	-0.0000	0.0000	0.0000	-0.0000	-0.0000	-0.0000	-0.0000	0.0000	-0.0000	0.0000	0.0000	0.0000	0.0000	-0.0000	-0.0000	-0.0000	-0.0000	0.0000	-0.0000	0.0000	-0.0000	-0.0000	-0.0000	0.0000	0.0000	0.0000	0.0000	-0.0000	-0.0000	0.0000	-0.0000	0.0000	0.0000	-0.0000	-0.0000	0.0000	-0.0000	-0.0000	0.0000	-0.0000	0.0000	0.0000	-0.0000	0.0000	-0.0000	-0.0000	-0.0000	-0.0000	0.0000	-0.0000	0.0000	0.0000	-0.0000	-0.0000	0.0000	0.0000	0.0000	-0.0000	-0.0000	-0.0000	0.0000	-0.0000	-0.0000	-0.0000	0.0000	-0.0000	-0.0000	-0.0000	0.0000	-0.0000	0.0000	-0.0000	-0.0000	0.0000	0.0000	-0.0000	0.0000	-0.0000	0.0000	-0.0000	-0.0000	-0.0000	-0.0000	-0.0000	-0.0000	0.0000	0.0000	0.0000	0.0000	-0.0000	-0.0000	-0.0000	0.0000	0.0000	-0.0000	-0.0000	-0.0000	0.0000	0.0000	-0.0000	0.0000	-0.0000	-0.0000	0.0000	0.0000	0.0000	0.0000	-0.0000	-0.0000	0.0000	0.0000	0.0000	-0.0000	0.0000	0.0000	0.0000	-0.0000	-0.0000	-0.0000	-0.0000	0.0000	-0.0000	-0.0000	0.0000	0.0000	-0.0000	-0.0000	0.0000	-0.0000	-0.0000	-0.0000	0.0000	0.0000	-0.0000	-0.0000	-0.0000	-0.0000	0.0000	0.0000	-0.0000	0.0000	-0.0000	-0.0000	0.0000	-0.0000	0.0000	0.0000	-0.0000	-0.0000	-0.0000	-0.0000	0.0000	-0.0000	0.0000	0.0000	0.0000	0.0000	-0.0000	-0.0000	-0.0000	-0.0000	0.0000	-0.0000	0.0000	-0.0000	-0.0000	-0.0000	0.0000	0.0000	0.0000	0.0000	-0.0000	-0.0000	0.0000	-0.0000	0.0000	0.0000	-0.0000	0.0000	-0.0000	0.0000	0.0000	0.0000	0.0000	-0.0000	0.0000	0.0000	-0.0000	0.0000	0.0000	0.0000	0.0000	-0.0000	0.0000	0.0000	-0.0000	0.0000	0.0000	-0.0000	-0.0000	-0.0000	0.0000	0.0000	0.0000	-0.0000	0.0000	0.0000	0.0000	-0.0000	0.0000	0.0000	0.0000	0.0000	-0.0000	-0.0000	0.0000	0.0000	-0.0000	-0.0000	0.0000	-0.0000	0.0000	-0.0000	0.0000	-0.0000	0.0000	-0.0000	-0.0000	0.0000	-0.0000	0.0000	0.0000	-0.0000	0.0000	0.0000	0.0000	-0.0000	-0.0000	0.0000	0.0000	0.0000	-0.0000	-0.0000	0.0000	-0.0000	0.0000	0.0000	-0.0000	-0.0000	-0.0000	-0.0000	0.0000	0.0000	-0.0000	-0.0000	-0.0000	0.0000	-0.0000	-0.0000	-0.0000	0.0000	0.0000	0.0000	0.0000	-0.0000	-0.0000	0.0000	-0.0000	0.0000	0.0000	0.0000	-0.0000	0.0000	-0.0000	0.0000	-0.0000	-0.0000	0.0000	0.0000	0.0000	0.0000	-0.0000	-0.0000	0.0000	-0.0000	0.0000	0.0000	-0.0000	0.0000	-0.0000	-0.0000	0.0000	0.0000	0.0000	0.0000	-0.0000	0.0000	-0.0000	-0.0000	-0.0000	-0.0000	0.0000	0.0000	0.0000	0.0000	-0.0000	0.0000	-0.0000	0.0000	0.0000	0.0000	-0.0000	0.0000	-0.0000	-0.0000	0.0000	0.0000	-0.0000	0.0000	-0.0000	-0.0000	0.0000	-0.0000	0.0000	-0.0000	-0.0000	-0.0000	-0.0000	0.0000	-0.0000	-0.0000	0.0000	-0.0000	-0.0000	-0.0000	-0.0000	0.0000	-0.0000	-0.0000	0.0000	-0.0000	-0.0000	0.0000	0.0000	0.0000	-0.0000	-0.0000	-0.0000	0.0000	-0.0000	-0.0000	-0.0000	0.0000	-0.0000	-0.0000	-0.0000	-0.0000	0.0000	0.0000	-0.0000	-0.0000	0.0000	0.0000	-0.0000	0.0000	-0.0000	0.0000	-0.0000	0.0000	-0.0000	0.0000	0.0000	-0.0000	0.0000	-0.0000	-0.0000	0.0000	-0.0000	-0.0000	-0.0000	0.0000	0.0000	-0.0000	-0.0000	-0.0000	0.0000	0.0000	-0.0000	0.0000	-0.0000	-0.0000	0.0000	0.0000	0.0000	0.0000	-0.0000	-0.0000	0.0000	0.0000	0.0000	-0.0000	0.0000	0.0000	0.0000	-0.0000	-0.0000	-0.0000	-0.0000	0.0000	0.0000	-0.0000	0.0000	-0.0000	-0.0000	-0.0000	0.0000	-0.0000	0.0000	-0.0000	0.0000	0.0000	-0.0000	-0.0000	-0.0000	-0.0000	0.0000	0.0000	-0.0000	0.0000	-0.0000	-0.0000	0.0000	-0.0000	0.0000	0.0000	-0.0000	-0.0000	-0.0000	-0.0000	0.0000	-0.0000	0.0000	0.0000	0.0000	0.0000	-0.0000	-0.0000	-0.0000	-0.0000	0.0000	-0.0000	0.0000	-0.0000	-0.0000	-0.0000	0.0000	-0.0000	0.0000	0.0000	-0.0000	-0.0000	0.0000	-0.0000	0.0000	0.0000	-0.0000	0.0000	-0.0000	0.0000	0.0000	0.0000	0.0000	-0.0000	0.0000	0.0000	-0.0000	0.0000	0.0000	0.0000	0.0000	-0.0000	0.0000	0.0000	-0.0000	0.0000	0.0000	-0.0000	-0.0000	-0.0000	0.0000	0.0000	0.0000	-0.0000	0.0000	0.0000	0.0000	-0.0000	0.0000	0.0000	0.0000	0.0000	-0.0000	-0.0000	0.0000	0.0000	-0.0000	-0.0000	0.0000	-0.0000	0.0000	-0.0000	0.0000	-0.0000	0.0000	-0.0000	-0.0000	0.0000	-0.0000	0.0000	0.0000	-0.0000	0.0000	0.0000	0.0000	-0.0000	-0.0000	0.0000	0.0000	0.0000	-0.0000	-0.0000	0.0000	-0.0000	0.0000	0.0000	-0.0000	-0.0000	-0.0000	-0.0000	0.0000	0.0000	-0.0000	-0.0000	-0.0000	0.0000	-0.0000	-0.0000	-0.0000	0.0000	0.0000	0.0000	0.0000	-0.0000	-0.0000	0.0000	-0.0000	0.0000	0.0000	0.0000	-0.0000	0.0000	-0.0000	0.0000	-0.0000	-0.0000	0.0000	0.0000	0.0000	0.0000	-0.0000	-0.0000	0.0000	-0.0000	0.0000	0.0000	-0.0000	0.0000	-0.0000	-0.0000	0.0000	0.0000	0.0000	0.0000	-0.0000	0.0000	-0.0000	-0.0000	-0.0000	-0.0000	0.0000	0.0000	0.0000	0.0000	-0.0000	0.0000	-0.0000	0.0000	0.0000	0.0000	-0.0000	0.0000	-0.0000	-0.0000	0.0000	0.0000	-0.0000	0.0000	-0.0000	0.0000	-0.0000	0.0000	-0.0000	0.0000	0.0000	0.0000	0.0000	-0.0000	0.0000	0.0000	-0.0000	0.0000	0.0000	0.0000	0.0000	-0.0000	0.0000	0.0000	-0.0000	0.0000	0.0000	-0.0000	-0.0000	-0.0000	0.0000	0.0000	0.0000	-0.0000	0.0000	0.0000	0.0000	-0.0000	0.0000	0.0000	0.0000	0.0000	-0.0000	-0.0000	0.0000	0.0000	-0.0000	-0.0000	0.0000	-0.0000	0.0000	-0.0000	0.0000	-0.0000	0.0000	-0.0000	-0.0000	0.0000	-0.0000	0.0000	0.0000	-0.0000	0.0000	0.0000	0.0000	-0.0000	-0.0000	0.0000	0.0000	0.0000	-0.0000	-0.0000	0.0000	-0.0000	0.0000	0.0000	-0.0000	-0.0000	-0.0000	-0.0000	0.0000	0.0000	-0.0000	-0.0000	-0.0000	0.0000	-0.0000	-0.0000	-0.0000	0.0000	0.0000	0.0000	0.0000	-0.0000	-0.0000	0.0000	-0.0000	0.0000	0.0000	0.0000	-0.0000	0.0000	-0.0000	0.0000	-0.0000	-0.0000	0.0000	0.0000	0.0000	0.0000	-0.0000	-0.0000	0.0000	-0.0000	0.0000	0.0000	-0.0000	0.0000	-0.0000	-0.0000	0.0000	0.0000	0.0000	0.0000	-0.0000	0.0000	-0.0000	-0.0000	-0.0000	-0.0000	0.0000	0.0000	0.0000	0.0000	-0.0000	0.0000	-0.0000	0.0000	0.0000	0.0000	-0.0000	0.0000	-0.0000	-0.0000	0.0000	0.0000	-0.0000	0.0000	-0.0000	-0.0000	0.0000	-0.0000	-0.0000	0.0000	-0.0000	0.0000	0.0000	-0.0000	0.0000	0.0000	-0.0000	0.0000	0.0000	-0.0000	0.0000	-0.0000	0.0000	0.0000	-0.0000	0.0000	0.0000	-0.0000	-0.0000	-0.0000	0.0000	0.0000	0.0000	-0.0000	0.0000	0.0000	0.0000	-0.0000	0.0000	0.0000	0.0000	0.0000	0.0000	-0.0000	0.0000	0.0000	-0.0000	-0.0000	0.0000	-0.0000	0.0000	-0.0000	0.0000	-0.0000	0.0000	-0.0000	-0.0000	0.0000	-0.0000	0.0000	0.0000	-0.0000	0.0000	-0.0000	-0.0000	-0.0000	-0.0000	0.0000	0.0000	0.0000	-0.0000	-0.0000	0.0000	-0.0000	0.0000	0.0000	-0.0000	-0.0000	-0.0000	-0.0000	0.0000	0.0000	-0.0000	-0.0000	-0.0000	0.0000	-0.0000	-0.0000	-0.0000	0.0000	0.0000	0.0000	0.0000	-0.0000	0.0000	0.0000	-0.0000	0.0000	0.0000	0.0000	-0.0000	-0.0000	0.0000	0.0000	-0.0000	-0.0000	0.0000	0.0000	0.0000	-0.0000	-0.0000	-0.0000	0.0000	-0.0000	0.0000	-0.0000	-0.0000	0.0000	-0.0000	-0.0000	0.0000	0.0000	0.0000	0.0000	-0.0000	0.0000	-0.0000	-0.0000	-0.0000	-0.0000	0.0000	0.0000	0.0000	0.0000	-0.0000	0.0000	-0.0000	0.0000	0.0000	0.0000	-0.0000	0.0000	-0.0000	-0.0000	0.0000	0.0000	-0.0000	0.0000	-0.0000	0.0000	-0.0000	0.0000	0.0000	-0.0000	0.0000	-0.0000	-0.0000	0.0000	-0.0000	-0.0000	0.0000	-0.0000	-0.0000	0.0000	-0.0000	0.0000	-0.0000	-0.0000	0.0000	-0.0000	-0.0000	0.0000	0.0000	0.0000	-0.0000	-0.0000	-0.0000	0.0000	-0.0000	-0.0000	-0.0000	0.0000	-0.0000	-0.0000	-0.0000	-0.0000	-0.0000	0.0000	-0.0000	-0.0000	0.0000	0.0000	-0.0000	0.0000	-0.0000	0.0000	-0.0000	0.0000	-0.0000	0.0000	0.0000	-0.0000	0.0000	-0.0000	-0.0000	0.0000	-0.0000	0.0000	0.0000	0.0000	0.0000	-0.0000	-0.0000	-0.0000	0.0000	0.0000	-0.0000	0.0000	-0.0000	-0.0000	0.0000	0.0000	0.0000	0.0000	-0.0000	-0.0000	0.0000	0.0000	0.0000	-0.0000	0.0000	0.0000	0.0000	-0.0000	-0.0000	-0.0000	-0.0000	0.0000	-0.0000	-0.0000	0.0000	-0.0000	-0.0000	-0.0000	0.0000	0.0000	-0.0000	-0.0000	0.0000	0.0000	-0.0000	-0.0000	-0.0000	0.0000	0.0000	0.0000	-0.0000	0.0000	-0.0000	0.0000	0.0000	-0.0000	0.0000	0.0000	-0.0000	-0.0000	-0.0000	-0.0000	0.0000	-0.0000	0.0000	0.0000	0.0000	0.0000	-0.0000	-0.0000	-0.0000	-0.0000	0.0000	-0.0000	0.0000	-0.0000	-0.0000	-0.0000	0.0000	-0.0000	0.0000	0.0000	-0.0000	-0.0000	0.0000	-0.0000	0.0000	0.0000	-0.0000	0.0000	0.0000	-0.0000	0.0000	-0.0000	-0.0000	0.0000	-0.0000	-0.0000	0.0000	-0.0000	-0.0000	0.0000	-0.0000	0.0000	-0.0000	-0.0000	0.0000	-0.0000	-0.0000	0.0000	0.0000	0.0000	-0.0000	-0.0000	-0.0000	0.0000	-0.0000	-0.0000	-0.0000	0.0000	-0.0000	-0.0000	-0.0000	-0.0000	-0.0000	0.0000	-0.0000	-0.0000	0.0000	0.0000	-0.0000	0.0000	-0.0000	0.0000	-0.0000	0.0000	-0.0000	0.0000	0.0000	-0.0000	0.0000	-0.0000	-0.0000	0.0000	-0.0000	0.0000	0.0000	0.0000	0.0000	-0.0000	-0.0000	-0.0000	0.0000	0.0000	-0.0000	0.0000	-0.0000	-0.0000	0.0000	0.0000	0.0000	0.0000	-0.0000	-0.0000	0.0000	0.0000	0.0000	-0.0000	0.0000	0.0000	0.0000	-0.0000	-0.0000	-0.0000	-0.0000	0.0000	-0.0000	-0.0000	0.0000	-0.0000	-0.0000	-0.0000	0.0000	0.0000	-0.0000	-0.0000	0.0000	0.0000	-0.0000	-0.0000	-0.0000	0.0000	0.0000	0.0000	-0.0000	0.0000	-0.0000	0.0000	0.0000	-0.0000	0.0000	0.0000	-0.0000	-0.0000	-0.0000	-0.0000	0.0000	-0.0000	0.0000	0.0000	0.0000	0.0000	-0.0000	-0.0000	-0.0000	-0.0000	0.0000	-0.0000	0.0000	-0.0000	-0.0000	-0.0000	0.0000	-0.0000	0.0000	0.0000	-0.0000	-0.0000	0.0000	-0.0000	0.0000	0.0000	-0.0000	0.0000	0.0000	-0.0000	0.0000	-0.0000	-0.0000	0.0000	-0.0000	-0.0000	0.0000	-0.0000	-0.0000	0.0000	-0.0000	0.0000	-0.0000	-0.0000	0.0000	-0.0000	-0.0000	0.0000	0.0000	0.0000	-0.0000	-0.0000	-0.0000	0.0000	-0.0000	-0.0000	-0.0000	0.0000	-0.0000	-0.0000	-0.0000	-0.0000	-0.0000	0.0000	-0.0000	-0.0000	0.0000	0.0000	-0.0000	0.0000	-0.0000	0.0000	-0.0000	0.0000	-0.0000	0.0000	0.0000	-0.0000	0.0000	-0.0000	-0.0000	0.0000	-0.0000	0.0000	0.0000	0.0000	0.0000	-0.0000	-0.0000	-0.0000	0.0000	0.0000	-0.0000	0.0000	-0.0000	-0.0000	0.0000	0.0000	0.0000	0.0000	-0.0000	-0.0000	0.0000	0.0000	0.0000	-0.0000	0.0000	0.0000	0.0000	-0.0000	-0.0000	-0.0000	-0.0000	0.0000	-0.0000	-0.0000	0.0000	-0.0000	-0.0000	-0.0000	0.0000	0.0000	-0.0000	-0.0000	0.0000	0.0000	-0.0000	-0.0000	-0.0000	0.0000	0.0000	0.0000	-0.0000	0.0000	-0.0000	0.0000	0.0000	-0.0000	0.0000	0.0000	-0.0000	-0.0000	-0.0000	-0.0000	0.0000	-0.0000	0.0000	0.0000	0.0000	0.0000	-0.0000	-0.0000	-0.0000	-0.0000	0.0000	-0.0000	0.0000	-0.0000	-0.0000	-0.0000	0.0000	-0.0000	0.0000	0.0000	-0.0000	-0.0000	0.0000	-0.0000	0.0000	1.0000	1.0000	1.0000	1.0000	1.0000	1.0000	1.0000	1.0000	1.0000	1.0000	1.0000	1.0000	1.0000	1.0000	1.0000	1.0000	1.0000	1.0000	1.0000	1.0000	1.0000	1.0000	1.0000	1.0000	1.0000	1.0000	1.0000	1.0000	1.0000	1.0000	1.0000	1.0000	1.0000	1.0000	1.0000	1.0000	1.0000	1.0000	1.0000	1.0000	1.0000	1.0000	1.0000	1.0000	1.0000	1.0000	1.0000	1.0000	1.0000	1.0000	1.0000	1.0000	1.0000	1.0000	1.0000	1.0000	1.0000	1.0000	1.0000	1.0000	1.0000	1.0000	1.0000	1.0000	1.0000	1.0000	1.0000	1.0000	1.0000	1.0000	1.0000	1.0000	1.0000	1.0000	1.0000	1.0000	1.0000	1.0000	1.0000	1.0000	1.0000	1.0000	1.0000	1.0000	1.0000	1.0000	1.0000	1.0000	1.0000	1.0000	1.0000	1.0000	1.0000	1.0000	1.0000	1.0000	1.0000	1.0000	1.0000	1.0000	1.0000	1.0000	1.0000	1.0000	1.0000	1.0000	1.0000	1.0000	1.0000	1.0000	1.0000	1.0000	1.0000	1.0000	1.0000	1.0000	1.0000	1.0000	1.0000	1.0000	1.0000	1.0000	1.0000	1.0000	1.0000	1.0000	1.0000	1.0000	1.0000	1.0000	1.0000	1.0000	1.0000	1.0000	1.0000	1.0000	1.0000	1.0000	1.0000	1.0000	1.0000	1.0000	1.0000	1.0000	0.0625	0.0625	0.0625	0.0625	0.0312	0.0312	0.0312	0.0312	0.0208	0.0208	0.0208	0.0208	0.0208	0.0208	0.0208	0.0208	0.0208	0.0208	0.0208	0.0208	0.0208	0.0208	0.0208	0.0208	0.0208	0.0208	0.0208	0.0208	0.0208	0.0208	0.0208	0.0208	0.0312	0.0312	0.0312	0.0312	0.0625	0.0625	0.0625	0.0625	0.0625	0.0625	0.0625	0.0625	0.0312	0.0312	0.0312	0.0312	0.0208	0.0208	0.0208	0.0208	0.0208	0.0208	0.0208	0.0208	0.0208	0.0208	0.0208	0.0208	0.0208	0.0208	0.0208	0.0208	0.0208	0.0208	0.0208	0.0208	0.0208	0.0208	0.0208	0.0208	0.0312	0.0312	0.0312	0.0312	0.0625	0.0625	0.0625	0.0625	0.0625	0.0625	0.0625	0.0625	0.0312	0.0312	0.0312	0.0312	0.0208	0.0208	0.0208	0.0208	0.0208	0.0208	0.0208	0.0208	0.0208	0.0208	0.0208	0.0208	0.0208	0.0208	0.0208	0.0208	0.0208	0.0208	0.0208	0.0208	0.0208	0.0208	0.0208	0.0208	0.0312	0.0312	0.0312	0.0312	0.0625	0.0625	0.0625	0.0625	0.0625	0.0625	0.0625	0.0625	0.0312	0.0312	0.0312	0.0312	0.0208	0.0208	0.0208	0.0208	0.0208	0.0208	0.0208	0.0208	0.0208	0.0208	0.0208	0.0208	0.0208	0.0208	0.0208	0.0208	0.0208	0.0208	0.0208	0.0208	0.0208	0.0208	0.0208	0.0208	0.0312	0.0312	0.0312	0.0312	0.0625	0.0625	0.0625	0.0625	0.0312	0.0312	0.0312	0.0312	0.0156	0.0156	0.0156	0.0156	0.0104	0.0104	0.0104	0.0104	0.0104	0.0104	0.0104	0.0104	0.0104	0.0104	0.0104	0.0104	0.0104	0.0104	0.0104	0.0104	0.0104	0.0104	0.0104	0.0104	0.0104	0.0104	0.0104	0.0104	0.0156	0.0156	0.0156	0.0156	0.0312	0.0312	0.0312	0.0312	0.0312	0.0312	0.0312	0.0312	0.0156	0.0156	0.0156	0.0156	0.0104	0.0104	0.0104	0.0104	0.0104	0.0104	0.0104	0.0104	0.0104	0.0104	0.0104	0.0104	0.0104	0.0104	0.0104	0.0104	0.0104	0.0104	0.0104	0.0104	0.0104	0.0104	0.0104	0.0104	0.0156	0.0156	0.0156	0.0156	0.0312	0.0312	0.0312	0.0312	0.0312	0.0312	0.0312	0.0312	0.0156	0.0156	0.0156	0.0156	0.0104	0.0104	0.0104	0.0104	0.0104	0.0104	0.0104	0.0104	0.0104	0.0104	0.0104	0.0104	0.0104	0.0104	0.0104	0.0104	0.0104	0.0104	0.0104	0.0104	0.0104	0.0104	0.0104	0.0104	0.0156	0.0156	0.0156	0.0156	0.0312	0.0312	0.0312	0.0312	0.0312	0.0312	0.0312	0.0312	0.0156	0.0156	0.0156	0.0156	0.0104	0.0104	0.0104	0.0104	0.0104	0.0104	0.0104	0.0104	0.0104	0.0104	0.0104	0.0104	0.0104	0.0104	0.0104	0.0104	0.0104	0.0104	0.0104	0.0104	0.0104	0.0104	0.0104	0.0104	0.0156	0.0156	0.0156	0.0156	0.0312	0.0312	0.0312	0.0312	0.0208	0.0208	0.0208	0.0208	0.0104	0.0104	0.0104	0.0104	0.0069	0.0069	0.0069	0.0069	0.0069	0.0069	0.0069	0.0069	0.0069	0.0069	0.0069	0.0069	0.0069	0.0069	0.0069	0.0069	0.0069	0.0069	0.0069	0.0069	0.0069	0.0069	0.0069	0.0069	0.0104	0.0104	0.0104	0.0104	0.0208	0.0208	0.0208	0.0208	0.0208	0.0208	0.0208	0.0208	0.0104	0.0104	0.0104	0.0104	0.0069	0.0069	0.0069	0.0069	0.0069	0.0069	0.0069	0.0069	0.0069	0.0069	0.0069	0.0069	0.0069	0.0069	0.0069	0.0069	0.0069	0.0069	0.0069	0.0069	0.0069	0.0069	0.0069	0.0069	0.0104	0.0104	0.0104	0.0104	0.0208	0.0208	0.0208	0.0208	0.0208	0.0208	0.0208	0.0208	0.0104	0.0104	0.0104	0.0104	0.0069	0.0069	0.0069	0.0069	0.0069	0.0069	0.0069	0.0069	0.0069	0.0069	0.0069	0.0069	0.0069	0.0069	0.0069	0.0069	0.0069	0.0069	0.0069	0.0069	0.0069	0.0069	0.0069	0.0069	0.0104	0.0104	0.0104	0.0104	0.0208	0.0208	0.0208	0.0208	0.0208	0.0208	0.0208	0.0208	0.0104	0.0104	0.0104	0.0104	0.0069	0.0069	0.0069	0.0069	0.0069	0.0069	0.0069	0.0069	0.0069	0.0069	0.0069	0.0069	0.0069	0.0069	0.0069	0.0069	0.0069	0.0069	0.0069	0.0069	0.0069	0.0069	0.0069	0.0069	0.0104	0.0104	0.0104	0.0104	0.0208	0.0208	0.0208	0.0208	0.0208	0.0208	0.0208	0.0208	0.0104	0.0104	0.0104	0.0104	0.0069	0.0069	0.0069	0.0069	0.0069	0.0069	0.0069	0.0069	0.0069	0.0069	0.0069	0.0069	0.0069	0.0069	0.0069	0.0069	0.0069	0.0069	0.0069	0.0069	0.0069	0.0069	0.0069	0.0069	0.0104	0.0104	0.0104	0.0104	0.0208	0.0208	0.0208	0.0208	0.0208	0.0208	0.0208	0.0208	0.0104	0.0104	0.0104	0.0104	0.0069	0.0069	0.0069	0.0069	0.0069	0.0069	0.0069	0.0069	0.0069	0.0069	0.0069	0.0069	0.0069	0.0069	0.0069	0.0069	0.0069	0.0069	0.0069	0.0069	0.0069	0.0069	0.0069	0.0069	0.0104	0.0104	0.0104	0.0104	0.0208	0.0208	0.0208	0.0208	0.0208	0.0208	0.0208	0.0208	0.0104	0.0104	0.0104	0.0104	0.0069	0.0069	0.0069	0.0069	0.0069	0.0069	0.0069	0.0069	0.0069	0.0069	0.0069	0.0069	0.0069	0.0069	0.0069	0.0069	0.0069	0.0069	0.0069	0.0069	0.0069	0.0069	0.0069	0.0069	0.0104	0.0104	0.0104	0.0104	0.0208	0.0208	0.0208	0.0208	0.0208	0.0208	0.0208	0.0208	0.0104	0.0104	0.0104	0.0104	0.0069	0.0069	0.0069	0.0069	0.0069	0.0069	0.0069	0.0069	0.0069	0.0069	0.0069	0.0069	0.0069	0.0069	0.0069	0.0069	0.0069	0.0069	0.0069	0.0069	0.0069	0.0069	0.0069	0.0069	0.0104	0.0104	0.0104	0.0104	0.0208	0.0208	0.0208	0.0208	0.0208	0.0208	0.0208	0.0208	0.0104	0.0104	0.0104	0.0104	0.0069	0.0069	0.0069	0.0069	0.0069	0.0069	0.0069	0.0069	0.0069	0.0069	0.0069	0.0069	0.0069	0.0069	0.0069	0.0069	0.0069	0.0069	0.0069	0.0069	0.0069	0.0069	0.0069	0.0069	0.0104	0.0104	0.0104	0.0104	0.0208	0.0208	0.0208	0.0208	0.0208	0.0208	0.0208	0.0208	0.0104	0.0104	0.0104	0.0104	0.0069	0.0069	0.0069	0.0069	0.0069	0.0069	0.0069	0.0069	0.0069	0.0069	0.0069	0.0069	0.0069	0.0069	0.0069	0.0069	0.0069	0.0069	0.0069	0.0069	0.0069	0.0069	0.0069	0.0069	0.0104	0.0104	0.0104	0.0104	0.0208	0.0208	0.0208	0.0208	0.0208	0.0208	0.0208	0.0208	0.0104	0.0104	0.0104	0.0104	0.0069	0.0069	0.0069	0.0069	0.0069	0.0069	0.0069	0.0069	0.0069	0.0069	0.0069	0.0069	0.0069	0.0069	0.0069	0.0069	0.0069	0.0069	0.0069	0.0069	0.0069	0.0069	0.0069	0.0069	0.0104	0.0104	0.0104	0.0104	0.0208	0.0208	0.0208	0.0208	0.0208	0.0208	0.0208	0.0208	0.0104	0.0104	0.0104	0.0104	0.0069	0.0069	0.0069	0.0069	0.0069	0.0069	0.0069	0.0069	0.0069	0.0069	0.0069	0.0069	0.0069	0.0069	0.0069	0.0069	0.0069	0.0069	0.0069	0.0069	0.0069	0.0069	0.0069	0.0069	0.0104	0.0104	0.0104	0.0104	0.0208	0.0208	0.0208	0.0208	0.0208	0.0208	0.0208	0.0208	0.0104	0.0104	0.0104	0.0104	0.0069	0.0069	0.0069	0.0069	0.0069	0.0069	0.0069	0.0069	0.0069	0.0069	0.0069	0.0069	0.0069	0.0069	0.0069	0.0069	0.0069	0.0069	0.0069	0.0069	0.0069	0.0069	0.0069	0.0069	0.0104	0.0104	0.0104	0.0104	0.0208	0.0208	0.0208	0.0208	0.0208	0.0208	0.0208	0.0208	0.0104	0.0104	0.0104	0.0104	0.0069	0.0069	0.0069	0.0069	0.0069	0.0069	0.0069	0.0069	0.0069	0.0069	0.0069	0.0069	0.0069	0.0069	0.0069	0.0069	0.0069	0.0069	0.0069	0.0069	0.0069	0.0069	0.0069	0.0069	0.0104	0.0104	0.0104	0.0104	0.0208	0.0208	0.0208	0.0208	0.0208	0.0208	0.0208	0.0208	0.0104	0.0104	0.0104	0.0104	0.0069	0.0069	0.0069	0.0069	0.0069	0.0069	0.0069	0.0069	0.0069	0.0069	0.0069	0.0069	0.0069	0.0069	0.0069	0.0069	0.0069	0.0069	0.0069	0.0069	0.0069	0.0069	0.0069	0.0069	0.0104	0.0104	0.0104	0.0104	0.0208	0.0208	0.0208	0.0208	0.0208	0.0208	0.0208	0.0208	0.0104	0.0104	0.0104	0.0104	0.0069	0.0069	0.0069	0.0069	0.0069	0.0069	0.0069	0.0069	0.0069	0.0069	0.0069	0.0069	0.0069	0.0069	0.0069	0.0069	0.0069	0.0069	0.0069	0.0069	0.0069	0.0069	0.0069	0.0069	0.0104	0.0104	0.0104	0.0104	0.0208	0.0208	0.0208	0.0208	0.0208	0.0208	0.0208	0.0208	0.0104	0.0104	0.0104	0.0104	0.0069	0.0069	0.0069	0.0069	0.0069	0.0069	0.0069	0.0069	0.0069	0.0069	0.0069	0.0069	0.0069	0.0069	0.0069	0.0069	0.0069	0.0069	0.0069	0.0069	0.0069	0.0069	0.0069	0.0069	0.0104	0.0104	0.0104	0.0104	0.0208	0.0208	0.0208	0.0208	0.0208	0.0208	0.0208	0.0208	0.0104	0.0104	0.0104	0.0104	0.0069	0.0069	0.0069	0.0069	0.0069	0.0069	0.0069	0.0069	0.0069	0.0069	0.0069	0.0069	0.0069	0.0069	0.0069	0.0069	0.0069	0.0069	0.0069	0.0069	0.0069	0.0069	0.0069	0.0069	0.0104	0.0104	0.0104	0.0104	0.0208	0.0208	0.0208	0.0208	0.0208	0.0208	0.0208	0.0208	0.0104	0.0104	0.0104	0.0104	0.0069	0.0069	0.0069	0.0069	0.0069	0.0069	0.0069	0.0069	0.0069	0.0069	0.0069	0.0069	0.0069	0.0069	0.0069	0.0069	0.0069	0.0069	0.0069	0.0069	0.0069	0.0069	0.0069	0.0069	0.0104	0.0104	0.0104	0.0104	0.0208	0.0208	0.0208	0.0208	0.0208	0.0208	0.0208	0.0208	0.0104	0.0104	0.0104	0.0104	0.0069	0.0069	0.0069	0.0069	0.0069	0.0069	0.0069	0.0069	0.0069	0.0069	0.0069	0.0069	0.0069	0.0069	0.0069	0.0069	0.0069	0.0069	0.0069	0.0069	0.0069	0.0069	0.0069	0.0069	0.0104	0.0104	0.0104	0.0104	0.0208	0.0208	0.0208	0.0208	0.0208	0.0208	0.0208	0.0208	0.0104	0.0104	0.0104	0.0104	0.0069	0.0069	0.0069	0.0069	0.0069	0.0069	0.0069	0.0069	0.0069	0.0069	0.0069	0.0069	0.0069	0.0069	0.0069	0.0069	0.0069	0.0069	0.0069	0.0069	0.0069	0.0069	0.0069	0.0069	0.0104	0.0104	0.0104	0.0104	0.0208	0.0208	0.0208	0.0208	0.0208	0.0208	0.0208	0.0208	0.0104	0.0104	0.0104	0.0104	0.0069	0.0069	0.0069	0.0069	0.0069	0.0069	0.0069	0.0069	0.0069	0.0069	0.0069	0.0069	0.0069	0.0069	0.0069	0.0069	0.0069	0.0069	0.0069	0.0069	0.0069	0.0069	0.0069	0.0069	0.0104	0.0104	0.0104	0.0104	0.0208	0.0208	0.0208	0.0208	0.0208	0.0208	0.0208	0.0208	0.0104	0.0104	0.0104	0.0104	0.0069	0.0069	0.0069	0.0069	0.0069	0.0069	0.0069	0.0069	0.0069	0.0069	0.0069	0.0069	0.0069	0.0069	0.0069	0.0069	0.0069	0.0069	0.0069	0.0069	0.0069	0.0069	0.0069	0.0069	0.0104	0.0104	0.0104	0.0104	0.0208	0.0208	0.0208	0.0208	0.0208	0.0208	0.0208	0.0208	0.0104	0.0104	0.0104	0.0104	0.0069	0.0069	0.0069	0.0069	0.0069	0.0069	0.0069	0.0069	0.0069	0.0069	0.0069	0.0069	0.0069	0.0069	0.0069	0.0069	0.0069	0.0069	0.0069	0.0069	0.0069	0.0069	0.0069	0.0069	0.0104	0.0104	0.0104	0.0104	0.0208	0.0208	0.0208	0.0208	0.0312	0.0312	0.0312	0.0312	0.0156	0.0156	0.0156	0.0156	0.0104	0.0104	0.0104	0.0104	0.0104	0.0104	0.0104	0.0104	0.0104	0.0104	0.0104	0.0104	0.0104	0.0104	0.0104	0.0104	0.0104	0.0104	0.0104	0.0104	0.0104	0.0104	0.0104	0.0104	0.0156	0.0156	0.0156	0.0156	0.0312	0.0312	0.0312	0.0312	0.0312	0.0312	0.0312	0.0312	0.0156	0.0156	0.0156	0.0156	0.0104	0.0104	0.0104	0.0104	0.0104	0.0104	0.0104	0.0104	0.0104	0.0104	0.0104	0.0104	0.0104	0.0104	0.0104	0.0104	0.0104	0.0104	0.0104	0.0104	0.0104	0.0104	0.0104	0.0104	0.0156	0.0156	0.0156	0.0156	0.0312	0.0312	0.0312	0.0312	0.0312	0.0312	0.0312	0.0312	0.0156	0.0156	0.0156	0.0156	0.0104	0.0104	0.0104	0.0104	0.0104	0.0104	0.0104	0.0104	0.0104	0.0104	0.0104	0.0104	0.0104	0.0104	0.0104	0.0104	0.0104	0.0104	0.0104	0.0104	0.0104	0.0104	0.0104	0.0104	0.0156	0.0156	0.0156	0.0156	0.0312	0.0312	0.0312	0.0312	0.0312	0.0312	0.0312	0.0312	0.0156	0.0156	0.0156	0.0156	0.0104	0.0104	0.0104	0.0104	0.0104	0.0104	0.0104	0.0104	0.0104	0.0104	0.0104	0.0104	0.0104	0.0104	0.0104	0.0104	0.0104	0.0104	0.0104	0.0104	0.0104	0.0104	0.0104	0.0104	0.0156	0.0156	0.0156	0.0156	0.0312	0.0312	0.0312	0.0312	0.0625	0.0625	0.0625	0.0625	0.0312	0.0312	0.0312	0.0312	0.0208	0.0208	0.0208	0.0208	0.0208	0.0208	0.0208	0.0208	0.0208	0.0208	0.0208	0.0208	0.0208	0.0208	0.0208	0.0208	0.0208	0.0208	0.0208	0.0208	0.0208	0.0208	0.0208	0.0208	0.0312	0.0312	0.0312	0.0312	0.0625	0.0625	0.0625	0.0625	0.0625	0.0625	0.0625	0.0625	0.0312	0.0312	0.0312	0.0312	0.0208	0.0208	0.0208	0.0208	0.0208	0.0208	0.0208	0.0208	0.0208	0.0208	0.0208	0.0208	0.0208	0.0208	0.0208	0.0208	0.0208	0.0208	0.0208	0.0208	0.0208	0.0208	0.0208	0.0208	0.0312	0.0312	0.0312	0.0312	0.0625	0.0625	0.0625	0.0625	0.0625	0.0625	0.0625	0.0625	0.0312	0.0312	0.0312	0.0312	0.0208	0.0208	0.0208	0.0208	0.0208	0.0208	0.0208	0.0208	0.0208	0.0208	0.0208	0.0208	0.0208	0.0208	0.0208	0.0208	0.0208	0.0208	0.0208	0.0208	0.0208	0.0208	0.0208	0.0208	0.0312	0.0312	0.0312	0.0312	0.0625	0.0625	0.0625	0.0625	0.0625	0.0625	0.0625	0.0625	0.0312	0.0312	0.0312	0.0312	0.0208	0.0208	0.0208	0.0208	0.0208	0.0208	0.0208	0.0208	0.0208	0.0208	0.0208	0.0208	0.0208	0.0208	0.0208	0.0208	0.0208	0.0208	0.0208	0.0208	0.0208	0.0208	0.0208	0.0208	0.0312	0.0312	0.0312	0.0312	0.0625	0.0625	0.0625	0.0625	