0.0356	0.6598	1.8500	3.4217	5.0359	6.2433	6.7882	6.5472	5.4812	4.1212	2.8098	1.7632	0.9680	0.3254	-0.2952	-1.1057	-1.7304	-2.3995	-2.9716	-3.3919	-3.5870	-3.4909	0.6244	1.6488	3.2070	4.9268	6.3217	6.9786	6.9178	6.2718	5.1492	4.0122	2.9776	2.1186	1.4089	0.8070	0.1546	-0.6806	-1.2361	-1.7642	-2.1879	-2.5128	-2.6992	-2.7595	1.7504	3.2030	4.9425	6.3994	7.1804	7.1031	6.5136	5.6838	4.7335	3.9689	3.2800	2.6620	2.0653	1.5242	0.9009	0.1472	-0.2815	-0.6758	-0.9460	-1.1141	-1.2310	-1.4276	3.2942	4.9934	6.5417	7.3461	7.3488	6.7017	5.9326	5.1831	4.4568	3.9425	3.4529	2.9867	2.4632	1.9734	1.4550	0.9149	0.6835	0.4059	0.2170	0.1916	0.1775	-0.0662	5.0031	6.5705	7.5354	7.5263	6.9029	6.0517	5.4092	4.8471	4.2474	3.7924	3.3304	2.9105	2.3947	1.8910	1.4340	1.1507	1.1953	1.1269	1.0573	1.1465	1.1808	0.9156	6.6334	7.5904	7.6701	6.9285	6.0189	5.3229	5.0005	4.6063	4.0113	3.4537	2.8919	2.4209	1.8508	1.2736	0.8514	0.8300	1.1740	1.3567	1.4471	1.6441	1.7259	1.5069	7.8402	7.8793	7.0710	5.9102	5.0733	4.7450	4.7712	4.5413	3.9653	3.3204	2.6436	2.0590	1.3799	0.7143	0.3353	0.5262	1.1439	1.5730	1.8093	2.0554	2.1080	1.8904	8.5649	7.6719	6.2384	5.0187	4.4742	4.4885	4.7386	4.5808	4.0125	3.3354	2.5979	1.9162	1.1512	0.4359	0.0853	0.3887	1.1897	1.8241	2.2282	2.5427	2.5728	2.3523	8.8966	7.2931	5.5873	4.5533	4.3103	4.5012	4.7872	4.6314	4.1177	3.4715	2.6649	1.8455	0.9915	0.2539	-0.0246	0.3591	1.3096	2.1405	2.7100	3.0246	2.8988	2.5902	9.0241	6.9410	5.2237	4.4314	4.4129	4.6382	4.8431	4.6356	4.1606	3.5301	2.6547	1.7084	0.7948	0.0989	-0.0336	0.4854	1.5872	2.6069	3.2709	3.4712	3.0972	2.6562	9.2201	6.8223	5.1484	4.5178	4.5974	4.7575	4.8243	4.5274	4.0122	3.3311	2.3839	1.3651	0.4850	-0.0763	-0.0084	0.7134	2.0071	3.2247	3.9133	3.8640	3.1271	2.4574	9.3693	6.7321	5.0913	4.5244	4.6003	4.6814	4.6369	4.2683	3.6603	2.8735	1.8702	0.9008	0.2029	-0.0983	0.2657	1.2762	2.7124	3.9720	4.4648	3.9958	2.8877	2.0604	9.5066	6.6985	5.0198	4.4155	4.4123	4.4331	4.3049	3.8895	3.1732	2.2956	1.3595	0.6188	0.2323	0.2466	0.8748	2.0659	3.5211	4.6722	4.8307	3.8801	2.4383	1.5433	9.4947	6.6061	4.9230	4.3244	4.2296	4.1276	3.8536	3.3873	2.6347	1.7930	1.0449	0.6371	0.6150	0.9406	1.7161	2.9260	4.2604	5.2067	5.0536	3.7254	2.1082	1.2465	9.4092	6.5300	4.8643	4.2786	4.0665	3.7960	3.3266	2.8026	2.1312	1.4714	1.0134	0.9610	1.2849	1.8308	2.6234	3.6722	4.7999	5.5499	5.2232	3.7311	2.0870	1.3436	9.3116	6.4233	4.7836	4.2507	3.9586	3.4696	2.7459	2.1520	1.6728	1.3499	1.2591	1.5162	2.0329	2.6028	3.2234	4.0235	5.0105	5.7554	5.4859	4.0547	2.5145	1.8737	9.2827	6.4175	4.7473	4.1834	3.7815	3.0949	2.1701	1.5621	1.3232	1.3773	1.6262	2.0723	2.6115	3.0517	3.4573	4.0660	5.0352	5.9212	5.8615	4.6643	3.3113	2.7953	9.3244	6.4121	4.6391	3.9353	3.3940	2.5951	1.6136	1.0758	1.0997	1.5171	2.0705	2.6439	3.0846	3.2764	3.4190	3.8993	4.9464	6.0782	6.3379	5.4794	4.3721	3.9533	9.3278	6.4058	4.5125	3.6290	2.9449	2.1135	1.1754	0.7747	1.0418	1.7720	2.5736	3.2178	3.5162	3.4896	3.4484	3.8326	4.8745	6.1129	6.6512	6.2049	5.4298	5.1055	9.1402	6.2119	4.1851	3.1114	2.3722	1.6726	0.9673	0.7836	1.2241	2.1340	3.0942	3.8367	4.1205	4.0389	3.9098	4.1522	4.9659	6.0737	6.7601	6.7315	6.3220	6.0301	8.7818	5.9967	3.8917	2.6251	1.8407	1.3220	0.9261	0.9909	1.5506	2.5101	3.5453	4.4095	4.8581	4.9612	4.9083	4.9548	5.2528	5.8421	6.3627	6.6337	6.6366	6.4748	8.3444	5.8820	3.7611	2.3092	1.4917	1.1829	1.1390	1.4316	1.9920	2.8187	3.8015	4.7723	5.5057	5.9591	6.1197	5.9992	5.6932	5.5697	5.6503	5.9933	6.3181	6.3428	-0.1606	-0.0875	-0.1728	-0.3600	-0.5763	-0.7344	-0.7235	-0.2700	0.6627	1.9540	3.3128	4.5406	5.6033	6.3432	6.7113	6.7902	6.8078	6.6698	6.4011	5.8505	5.1221	4.3098	0.1904	0.1614	-0.1034	-0.4412	-0.6871	-0.6255	-0.1224	1.0078	2.6632	4.5905	6.4336	7.9756	9.2014	10.0216	10.4183	10.4875	10.3992	10.0374	9.4736	8.5856	7.4514	6.1739	0.4555	0.2939	-0.0903	-0.4247	-0.4588	0.0910	1.2846	3.1166	5.3550	7.6655	9.7328	11.3634	12.5707	13.3091	13.6259	13.5941	13.3270	12.7064	11.8624	10.6945	9.2615	7.6722	0.4688	0.2245	-0.1088	-0.1572	0.3318	1.5853	3.4688	5.7933	8.2552	10.5577	12.5099	13.9898	15.0100	15.5667	15.7312	15.5640	15.1121	14.2792	13.2270	11.9042	10.3481	8.6916	0.3771	0.1416	0.0636	0.5703	1.7824	3.7708	6.1652	8.6512	10.9700	12.9270	14.4965	15.6280	16.3362	16.6340	16.6107	16.2951	15.6797	14.6856	13.4771	12.0695	10.5197	9.0012	0.2469	0.2145	0.6498	1.9115	3.8905	6.4443	9.0171	11.3119	13.1990	14.6211	15.6518	16.3334	16.6515	16.6278	16.3678	15.8556	15.0564	13.9527	12.6914	11.3143	9.9412	8.7458	0.3229	0.6759	1.7868	3.8202	6.4203	9.2380	11.6683	13.5675	14.9885	15.9236	16.5349	16.8517	16.8428	16.5469	16.0715	15.3347	14.3672	13.1855	11.9344	10.6515	9.4898	8.6043	0.8349	1.7515	3.5805	6.2283	9.1416	11.8588	13.8606	15.2621	16.2297	16.8053	17.0981	17.1365	16.8902	16.4022	15.7509	14.8429	13.7711	12.5599	11.3666	10.2044	9.2357	8.6264	1.6827	3.1880	5.6196	8.6121	11.5394	13.9169	15.3782	16.2963	16.9055	17.2297	17.3271	17.1930	16.8076	16.1938	15.4078	14.3517	13.1674	11.9061	10.7288	9.6628	8.8694	8.5094	2.7805	4.8090	7.6526	10.7295	13.4413	15.3648	16.2518	16.7622	17.0779	17.2481	17.2372	17.0349	16.5817	15.9113	15.0173	13.8599	12.5656	11.2399	10.0444	9.0470	8.4135	8.2695	3.8673	6.1918	9.1788	12.1748	14.6321	16.1842	16.6509	16.8738	16.9686	17.0287	16.9530	16.6991	16.2128	15.5002	14.5095	13.2852	11.9038	10.5112	9.2891	8.3556	7.8811	7.9565	4.6610	7.1607	10.1367	12.9979	15.1951	16.4766	16.6500	16.7242	16.6899	16.7060	16.5877	16.3037	15.7793	14.9978	13.8847	12.5869	11.1283	9.7153	8.5350	7.7296	7.4738	7.7873	5.1033	7.6716	10.5583	13.2825	15.2897	16.3958	16.3939	16.4268	16.3791	16.4022	16.2878	15.9943	15.4097	14.5280	13.2636	11.8649	10.3511	8.9821	7.9231	7.3375	7.3455	7.8678	5.2494	7.8905	10.7231	13.3863	15.2657	16.2588	16.1597	16.2056	16.1831	16.2234	16.0687	15.6963	14.9910	13.9906	12.6150	11.1890	9.7509	8.5609	7.7362	7.4257	7.6633	8.3268	5.2328	7.9184	10.7361	13.3857	15.2227	16.1700	16.0365	16.0742	16.0728	16.0563	15.7733	15.2135	14.3118	13.1740	11.7819	10.4640	9.2799	8.4380	7.9531	7.9405	8.3520	9.0537	5.2709	8.0050	10.8329	13.4748	15.2897	16.1874	16.0003	15.9952	15.9590	15.8219	15.3319	14.5151	13.3755	12.1326	10.8507	9.8103	9.0460	8.6680	8.5570	8.8141	9.3156	9.9776	5.3072	8.0134	10.8120	13.4238	15.2730	16.1689	15.9692	15.8817	15.7331	15.4085	14.6817	13.6119	12.2913	11.0458	9.9776	9.3255	9.0432	9.1364	9.3711	9.8441	10.3833	10.9791	5.4191	8.0967	10.8667	13.4166	15.2631	16.1591	15.9239	15.6985	15.3586	14.7903	13.8525	12.6213	11.2391	10.0919	9.3093	9.0330	9.1794	9.6522	10.1648	10.7731	11.3306	11.8465	5.4713	8.0666	10.7857	13.2880	15.1689	16.1065	15.8793	15.5154	14.9749	14.1894	13.1176	11.8523	10.5434	9.5590	9.0229	8.9778	9.3274	9.9619	10.6202	11.3329	11.9585	12.4563	5.4957	8.0332	10.6975	13.1381	15.0323	15.9932	15.7744	15.2698	14.5243	13.5848	12.4955	11.3432	10.2575	9.4948	9.1484	9.1709	9.4935	10.1068	10.8229	11.6437	12.4089	13.0275	5.5773	8.0399	10.5743	12.8801	14.7327	15.6867	15.4812	14.8468	13.9375	12.8661	11.8153	10.8662	10.1055	9.6132	9.4380	9.4638	9.6932	10.2295	10.9679	11.8983	12.8568	13.6468	5.8109	8.2072	10.5354	12.5876	14.2471	15.0946	14.8725	14.1453	13.1549	12.0460	11.0968	10.3842	9.9665	9.7372	9.7425	9.7959	9.9956	10.4941	11.2624	12.2941	13.4295	14.4034	-0.5095	-0.3023	-0.2329	-0.5638	-1.5773	-3.2487	-5.5698	-8.1319	-10.5317	-12.2301	-13.1615	-13.3410	-13.0620	-12.6675	-12.1441	-11.5763	-10.7841	-9.7451	-8.3736	-6.8124	-5.3399	-3.5638	-0.7141	-0.6027	-0.8468	-1.7280	-3.4790	-5.8433	-8.5787	-11.0988	-13.0570	-14.2114	-14.7292	-14.6485	-14.2090	-13.6920	-13.0298	-12.2780	-11.2440	-10.0210	-8.5404	-7.0215	-5.6695	-4.1259	-0.8387	-1.0514	-1.9164	-3.6224	-6.1554	-8.9505	-11.6137	-13.5676	-14.7166	-15.0967	-15.0694	-14.6397	-14.0129	-13.3474	-12.5261	-11.6095	-10.4353	-9.2014	-7.7928	-6.4781	-5.4205	-4.3403	-1.2901	-2.0277	-3.6708	-6.1753	-9.1411	-11.8370	-13.9044	-15.0608	-15.4628	-15.2572	-14.8056	-14.0508	-13.2321	-12.3902	-11.3886	-10.3387	-9.1583	-8.1072	-6.9645	-5.9334	-5.1961	-4.5613	-2.2246	-3.7047	-6.1258	-9.0914	-11.9421	-14.0103	-15.2257	-15.6574	-15.6147	-15.1271	-14.4486	-13.4730	-12.5146	-11.5265	-10.3526	-9.1369	-7.9435	-7.0788	-6.2788	-5.6460	-5.2973	-5.0393	-3.8409	-6.2099	-9.1715	-12.0538	-14.1702	-15.2666	-15.6380	-15.6297	-15.4725	-14.9813	-14.2415	-13.1427	-12.1110	-11.0276	-9.7201	-8.3475	-7.1405	-6.4294	-5.9613	-5.7352	-5.7328	-5.7450	-6.0439	-9.2139	-12.3049	-14.5275	-15.5577	-15.6658	-15.4324	-15.2371	-15.1187	-14.7198	-13.9887	-12.8410	-11.7586	-10.5736	-9.1259	-7.6271	-6.4180	-5.8468	-5.6838	-5.8168	-6.0923	-6.2607	-8.4647	-12.0876	-14.7849	-16.0271	-15.9725	-15.3791	-14.8799	-14.6889	-14.6210	-14.2618	-13.5405	-12.3848	-11.2815	-10.0384	-8.5248	-7.0030	-5.8324	-5.3710	-5.4132	-5.8007	-6.2753	-6.5489	-10.5724	-14.2057	-16.1834	-16.4084	-15.5521	-14.6345	-14.1522	-14.0351	-13.9523	-13.6033	-12.9353	-11.8455	-10.7291	-9.4140	-7.8380	-6.3794	-5.3011	-4.9602	-5.1971	-5.7957	-6.4352	-6.7229	-12.2305	-15.5251	-16.6220	-16.0209	-14.6848	-13.7371	-13.4308	-13.4161	-13.3084	-12.9580	-12.3522	-11.3400	-10.2028	-8.8037	-7.1842	-5.8114	-4.8583	-4.6538	-5.0908	-5.8834	-6.6532	-6.9059	-13.0683	-16.0434	-16.5014	-15.4105	-13.8799	-13.0231	-12.9060	-12.9738	-12.8456	-12.4932	-11.9139	-10.9506	-9.7611	-8.2978	-6.6754	-5.3908	-4.5596	-4.5125	-5.2050	-6.2629	-7.1859	-7.3845	-13.5567	-16.2641	-16.2808	-14.9273	-13.3480	-12.5684	-12.5557	-12.6450	-12.5271	-12.1596	-11.5395	-10.5299	-9.2383	-7.7357	-6.1976	-5.0910	-4.5325	-4.8074	-5.8727	-7.1985	-8.1312	-8.1311	-13.6796	-16.2990	-16.1597	-14.7168	-13.1357	-12.3476	-12.3365	-12.3840	-12.2528	-11.8161	-11.0282	-9.8694	-8.4694	-7.0315	-5.7408	-4.9688	-4.8213	-5.5219	-6.9894	-8.5287	-9.3566	-9.0166	-13.7716	-16.3275	-16.0999	-14.5920	-13.0554	-12.2773	-12.2313	-12.1351	-11.8623	-11.2418	-10.2471	-8.9520	-7.5333	-6.2872	-5.3950	-5.1006	-5.4417	-6.5768	-8.3415	-9.9987	-10.6470	-9.9751	-13.7792	-16.3154	-16.0907	-14.5427	-13.0424	-12.2456	-12.1110	-11.7896	-11.2319	-10.3640	-9.1893	-7.8773	-6.5793	-5.6694	-5.2717	-5.5058	-6.2904	-7.7049	-9.5669	-11.2006	-11.7053	-10.8223	-13.8182	-16.3238	-16.0597	-14.4371	-12.9435	-12.1818	-11.9966	-11.4078	-10.4673	-9.3266	-8.1035	-6.9746	-6.0135	-5.5654	-5.6366	-6.2168	-7.1705	-8.5965	-10.3914	-11.9850	-12.4963	-11.6569	-13.6618	-16.1806	-15.9786	-14.3523	-12.8327	-12.0348	-11.7358	-10.8865	-9.6223	-8.3270	-7.2241	-6.4684	-5.9741	-5.9854	-6.3541	-7.0083	-7.8547	-9.0715	-10.7072	-12.2555	-12.9131	-12.2963	-13.5243	-16.0310	-15.8702	-14.2442	-12.6448	-11.7143	-11.2551	-10.2000	-8.7840	-7.5057	-6.6720	-6.3989	-6.4818	-6.9365	-7.4644	-7.9427	-8.4131	-9.2259	-10.6236	-12.1587	-13.0732	-12.8628	-13.1900	-15.7231	-15.6781	-14.1078	-12.4273	-11.3043	-10.6639	-9.4667	-8.0391	-6.8891	-6.3787	-6.6062	-7.2408	-8.0513	-8.6432	-8.9094	-9.0248	-9.4575	-10.5545	-11.9957	-13.1274	-13.4022	-12.9167	-15.4695	-15.4849	-13.9119	-12.0489	-10.6280	-9.7743	-8.5386	-7.2945	-6.3814	-6.1628	-6.7336	-7.7534	-8.8295	-9.5452	-9.8015	-9.8131	-10.0281	-10.8065	-12.0288	-13.2693	-14.0089	-12.4419	-15.0366	-15.1973	-13.6741	-11.6321	-9.8675	-8.7575	-7.5348	-6.5560	-5.9526	-5.9884	-6.7545	-7.9484	-9.2007	-10.1714	-10.7531	-11.0723	-11.3369	-11.8054	-12.5815	-13.5956	-14.5672	-11.5618	-14.1569	-14.5383	-13.1890	-11.0506	-8.9851	-7.6399	-6.5186	-5.8981	-5.6569	-5.8987	-6.6863	-7.8441	-9.1998	-10.5201	-11.6619	-12.5849	-13.1523	-13.4517	-13.7092	-14.2551	-15.1288	1.3373	1.7464	2.4344	3.5046	4.9119	6.5271	8.0873	9.4400	10.5472	11.5164	12.4357	13.1897	13.7734	13.9986	13.8702	13.4377	12.8083	12.0041	11.1711	10.3375	9.3777	8.5489	1.7084	2.5271	3.6978	5.2237	6.8281	8.4289	9.7468	10.7859	11.5647	12.1521	12.6117	12.9157	13.1111	13.0010	12.6321	12.0571	11.4150	10.7075	10.0420	9.4197	8.7304	8.2511	2.3807	3.6436	5.2185	6.9722	8.5112	9.8934	10.9101	11.6798	12.2612	12.6130	12.7507	12.6901	12.5197	12.0802	11.4994	10.7823	10.1206	9.4772	8.9748	8.5526	8.1195	7.8914	3.4966	5.2105	6.9989	8.6639	9.8950	10.9374	11.6698	12.2557	12.7146	12.9441	12.9195	12.6806	12.2644	11.6002	10.8684	10.0193	9.2851	8.6130	8.1891	7.9321	7.7231	7.6552	4.7915	6.7812	8.5608	9.9553	10.8681	11.6342	12.1777	12.6195	12.9402	13.0823	13.0098	12.7317	12.2097	11.4363	10.6268	9.7217	8.9403	8.2119	7.7800	7.5671	7.4527	7.4602	6.0176	7.9942	9.5544	10.6474	11.3799	12.0329	12.4600	12.7317	12.8398	12.8636	12.7651	12.5254	11.9886	11.1943	10.3809	9.5326	8.7734	8.0171	7.5325	7.2527	7.1220	7.1451	6.7628	8.4601	9.7429	10.7023	11.4804	12.1690	12.5044	12.6077	12.5001	12.3977	12.2736	12.0757	11.5561	10.8007	10.0336	9.2883	8.5634	7.7762	7.1939	6.7949	6.6088	6.6373	6.8476	8.1954	9.3134	10.3624	11.3499	12.1373	12.3847	12.3630	12.1057	11.9552	11.8176	11.6476	11.1497	10.4469	9.7025	9.0498	8.3522	7.5746	6.9603	6.5083	6.2965	6.3542	6.3486	7.4622	8.6210	9.9438	11.1816	12.0343	12.1620	12.0583	11.7591	11.5902	11.3971	11.1951	10.6967	10.0533	9.3578	8.7757	8.1461	7.4574	6.9056	6.4759	6.2748	6.3650	5.5491	6.6818	8.0961	9.7617	11.1910	12.0333	12.0115	11.8646	11.5777	11.3931	11.1039	10.8081	10.2646	9.6651	9.0406	8.5349	8.0379	7.5343	7.1332	6.8170	6.6580	6.7827	4.7312	5.9745	7.7030	9.6865	11.2664	12.0662	11.9125	11.7247	11.4520	11.2280	10.8141	10.3806	9.7701	9.2069	8.6704	8.3057	8.0463	7.8465	7.6650	7.4950	7.3693	7.5162	4.1611	5.5633	7.5979	9.8015	11.4443	12.1683	11.8762	11.5848	11.2237	10.8689	10.3031	9.7474	9.1108	8.6414	8.2911	8.1633	8.2068	8.3238	8.3368	8.3082	8.2725	8.4970	3.8755	5.3017	7.4965	9.8264	11.5347	12.2518	11.8814	11.4504	10.9056	10.3555	9.6696	9.0587	8.4531	8.1009	7.9486	8.0725	8.4057	8.7667	8.8808	8.9373	9.0065	9.3741	3.7952	5.1901	7.4532	9.8193	11.5184	12.1969	11.7564	11.2125	10.5131	9.8283	9.1133	8.5366	8.0369	7.8218	7.8121	8.0732	8.5226	8.9555	9.0912	9.1987	9.4456	10.0697	3.7922	5.1000	7.3498	9.7031	11.3813	12.0264	11.5417	10.9208	10.1639	9.4310	8.7807	8.3388	8.0319	7.9692	8.0401	8.2870	8.6606	9.0105	9.0909	9.2108	9.6311	10.5517	3.7107	4.9501	7.1987	9.5500	11.1810	11.7215	11.1570	10.5125	9.8450	9.2019	8.6890	8.4173	8.3092	8.3569	8.4582	8.6117	8.8292	9.0212	9.0095	9.0876	9.6303	10.7857	3.6550	4.8472	7.0319	9.3393	10.9140	11.3334	10.6953	10.0584	9.5366	9.0380	8.6727	8.5241	8.5737	8.7035	8.8503	8.9545	9.0674	9.1417	9.0288	9.0390	9.6173	10.9205	3.5602	4.7572	6.8845	9.0940	10.5701	10.8457	10.1231	9.4847	9.1089	8.7678	8.5507	8.4853	8.6210	8.8102	9.0931	9.3384	9.5814	9.7250	9.5853	9.4944	9.9876	11.2849	3.4034	4.5551	6.5620	8.6392	10.0165	10.2134	9.4658	8.8474	8.5843	8.3676	8.2359	8.1625	8.2834	8.5337	9.0666	9.6627	10.3010	10.7451	10.7445	10.6197	10.9484	12.0338	3.0126	4.0658	5.9383	7.9164	9.2480	9.4723	8.7793	8.1962	7.9553	7.8193	7.7494	7.6672	7.7501	8.0646	8.8543	9.8661	11.0133	11.9184	12.2514	12.2227	12.3510	13.0183	2.0959	2.9756	4.7485	6.7462	8.2223	8.6805	8.2142	7.7355	7.4922	7.3748	7.3293	7.2591	7.3680	7.7746	8.7484	10.0547	11.5712	12.8947	13.6651	13.9125	13.9443	14.1304	0.7333	1.3493	2.9908	5.0759	6.8621	7.7832	7.7570	7.4739	7.2105	7.0525	6.9873	6.9832	7.1872	7.6792	8.6872	10.0574	11.6723	13.2415	14.4181	15.0676	15.1826	14.9980	0.3323	0.8492	1.2253	0.9489	0.1154	-0.8789	-1.7876	-2.4396	-2.3460	-1.3710	-0.2336	0.4586	0.5926	0.3992	0.3434	0.3292	0.4445	0.7224	1.0101	0.7584	0.4951	0.9643	0.4995	0.9679	1.1121	0.3273	-0.9134	-1.8423	-1.9466	-1.3421	-0.3333	0.6683	1.2426	1.4841	1.4013	1.0537	0.9020	0.9822	1.1722	1.2400	1.1526	0.6490	0.1482	0.2111	0.7970	0.9672	0.5222	-0.7800	-1.8887	-2.0298	-1.0121	0.4814	1.6421	2.0935	1.9149	1.6897	1.3956	0.9867	0.7988	0.8252	0.8355	0.6566	0.4212	-0.0054	-0.6046	-0.9747	1.0613	0.6901	-0.4743	-1.8650	-2.0772	-1.0569	0.6153	1.9431	2.3948	2.1915	1.6887	1.2854	0.8251	0.4090	0.3236	0.2830	-0.0168	-0.4043	-0.5480	-0.6406	-1.1395	-1.8115	0.7903	-0.2281	-1.6463	-2.2994	-1.1955	0.6122	2.0318	2.3770	1.8912	1.3918	1.0933	0.7631	0.1567	-0.2332	-0.0796	-0.0014	-0.4591	-1.0042	-1.1406	-1.0558	-1.3510	-1.9376	-0.2086	-1.4928	-2.2696	-1.6201	0.4760	2.2129	2.6609	1.8817	0.8539	0.5454	0.7247	0.5356	-0.2018	-0.5270	-0.0339	0.2817	-0.2395	-0.9663	-1.2045	-1.0373	-1.1098	-1.4880	-1.4988	-2.3379	-1.7257	0.1114	2.3046	3.1789	2.6067	1.2208	0.1404	0.1233	0.5557	0.3794	-0.4105	-0.6278	0.1239	0.5859	0.0128	-0.8764	-1.2319	-1.0107	-0.8954	-1.0417	-2.3650	-2.1962	-0.2236	2.0399	3.4660	3.2574	2.0948	0.6799	-0.1224	0.0368	0.4202	0.1465	-0.5928	-0.7277	0.0953	0.5721	0.0471	-0.7668	-1.1047	-0.8765	-0.7063	-0.7467	-2.4606	-1.2527	1.4562	3.3040	3.5477	2.4681	1.2901	0.3410	-0.1242	-0.0820	-0.0346	-0.3718	-0.8367	-0.8380	-0.1167	0.2828	-0.0348	-0.5306	-0.8398	-0.7927	-0.7094	-0.6231	-2.1287	-0.2088	2.4868	3.5215	2.7800	1.2895	0.4359	0.0322	-0.1731	-0.3336	-0.6112	-0.9215	-1.0034	-0.8319	-0.2554	0.0812	0.0055	-0.2317	-0.6978	-1.0035	-0.9857	-0.6455	-2.0748	0.1804	2.6237	3.0566	1.8178	0.2978	-0.2103	-0.2715	-0.3832	-0.6692	-1.0381	-1.1502	-0.8905	-0.6159	-0.1825	0.1358	0.2086	-0.0597	-0.9374	-1.6541	-1.5227	-0.7048	-2.2900	0.1774	2.3902	2.4923	1.1462	-0.1579	-0.4114	-0.4565	-0.6475	-0.8802	-1.0263	-0.9097	-0.5033	-0.2362	0.0385	0.2239	0.1672	-0.3996	-1.6141	-2.3793	-1.7971	-0.4003	-2.6543	-0.0595	2.0645	2.0952	0.8795	-0.1446	-0.3133	-0.5401	-0.7885	-0.7434	-0.5311	-0.3271	-0.0697	-0.0242	0.0001	-0.0002	-0.1897	-0.9315	-2.1939	-2.7445	-1.6254	0.3032	-2.8361	-0.1338	2.0147	1.9413	0.6739	-0.2529	-0.2895	-0.4918	-0.6623	-0.4446	-0.0348	0.1552	0.1721	-0.1026	-0.3891	-0.5213	-0.6475	-1.2332	-2.2662	-2.5731	-1.1372	0.9962	-2.7764	-0.1199	2.0893	1.9271	0.4890	-0.4961	-0.3795	-0.3162	-0.3152	-0.1358	0.1760	0.2657	0.0982	-0.4539	-0.9869	-1.0637	-0.8276	-1.0006	-1.7881	-2.1300	-0.8196	1.2679	-2.7472	-0.1318	2.2539	2.0350	0.2763	-0.9161	-0.5472	0.0307	0.2250	0.0820	0.0122	-0.0250	-0.2896	-0.9956	-1.5161	-1.1617	-0.3984	-0.3000	-1.1332	-1.7497	-0.7719	1.1578	-2.6533	-0.1968	2.2872	2.1062	0.1526	-1.1824	-0.6465	0.3111	0.5705	0.0820	-0.3960	-0.5684	-0.8356	-1.4059	-1.5897	-0.7124	0.4237	0.5177	-0.5576	-1.5097	-0.8487	0.9482	-2.6343	-0.3519	2.1070	2.0208	0.1097	-1.2325	-0.6740	0.4011	0.6514	-0.0041	-0.6908	-1.0213	-1.3475	-1.6314	-1.2458	0.1652	1.4629	1.2929	-0.1643	-1.4422	-1.0391	0.6012	-2.6185	-0.5741	1.7696	1.8316	0.1404	-1.1052	-0.6396	0.3884	0.6627	0.0256	-0.7484	-1.2728	-1.6236	-1.5159	-0.6780	0.8200	1.9556	1.6277	0.1184	-1.2841	-1.1866	0.1303	-2.5849	-0.7428	1.4930	1.7657	0.4324	-0.6573	-0.4118	0.2968	0.5190	0.0642	-0.5513	-1.0964	-1.4587	-1.1930	-0.3383	0.7972	1.5772	1.3877	0.3292	-0.8820	-1.1784	-0.4418	-2.3102	-0.7315	1.3252	1.7734	0.8239	-0.0405	-0.0467	0.1710	0.2188	-0.0101	-0.3024	-0.6373	-0.8920	-0.6981	-0.3268	0.0418	0.3792	0.6163	0.5222	-0.0486	-0.6586	-0.6719	-1.5370	-0.5377	1.0553	1.6045	1.1165	0.5379	0.2184	-0.1947	-0.4218	-0.3879	-0.1795	-0.1235	-0.2564	-0.3298	-0.6226	-0.9909	-1.0207	-0.3569	0.5944	0.9059	0.2436	-0.4466	-0.0541	-0.5615	-1.2416	-1.9153	-2.3456	-2.3795	-1.9160	-1.2301	-0.7956	-0.5845	-0.2189	0.4071	1.0643	1.6128	2.0491	2.4038	2.5197	2.2028	1.8276	1.7209	1.5018	0.9504	-0.4131	-0.9970	-1.5986	-1.9133	-1.8052	-1.3725	-0.8454	-0.4742	-0.4841	-0.5523	-0.3494	0.1724	0.8160	1.3880	1.7316	1.8223	1.7273	1.4326	1.1493	1.0476	0.7720	0.3741	-1.0375	-1.6771	-1.9732	-1.6325	-0.9857	-0.4124	-0.2352	-0.4133	-0.8049	-1.0353	-0.9682	-0.6847	-0.2488	0.1777	0.4016	0.4226	0.4115	0.3641	0.2807	0.1994	-0.0306	-0.1902	-1.7928	-2.2542	-2.0300	-1.1774	-0.4984	-0.2713	-0.5329	-0.9265	-1.2359	-1.3546	-1.3550	-1.2661	-1.0308	-0.7683	-0.6408	-0.5634	-0.3870	-0.2388	-0.2178	-0.2861	-0.3496	-0.2725	-2.1589	-2.0735	-1.3486	-0.5162	-0.3735	-0.6918	-1.1365	-1.3183	-1.2662	-1.1927	-1.2088	-1.1508	-0.9728	-0.8322	-0.8263	-0.8050	-0.5773	-0.4167	-0.3820	-0.3715	-0.2266	-0.0198	-1.7512	-1.0224	-0.1722	0.1204	-0.4152	-0.9991	-1.2083	-1.0098	-0.7387	-0.6691	-0.7519	-0.6180	-0.3759	-0.3205	-0.4657	-0.5502	-0.3063	-0.1766	-0.1702	-0.1236	0.1063	0.3576	-0.5150	0.3585	0.7176	0.2716	-0.5925	-1.0004	-0.8359	-0.4674	-0.2747	-0.4107	-0.5938	-0.4089	-0.1335	-0.1657	-0.4048	-0.4731	-0.0944	0.1283	0.1370	0.1187	0.2446	0.4297	0.8846	1.1123	0.5803	-0.3570	-1.0104	-0.9777	-0.5529	-0.2539	-0.3150	-0.6568	-0.8534	-0.5974	-0.3104	-0.3722	-0.6074	-0.5057	0.0443	0.3577	0.3093	0.1177	0.0425	0.0816	1.6948	0.7621	-0.5940	-1.5172	-1.5537	-1.0270	-0.5487	-0.4624	-0.7355	-1.1066	-1.1943	-0.8772	-0.5983	-0.6036	-0.7056	-0.3958	0.1832	0.4028	0.2040	-0.1683	-0.4296	-0.5419	1.6245	-0.3133	-1.9897	-2.4741	-1.8695	-1.0225	-0.6373	-0.7316	-1.0799	-1.3260	-1.2648	-0.9269	-0.7066	-0.6551	-0.6302	-0.2853	0.1055	0.0663	-0.2773	-0.7243	-1.0639	-1.2224	0.9158	-1.4784	-2.9770	-2.8684	-1.8309	-0.9101	-0.6977	-0.8444	-1.0457	-1.0261	-0.8359	-0.5672	-0.4529	-0.3910	-0.3722	-0.2611	-0.2152	-0.4550	-0.7236	-1.0589	-1.4311	-1.6280	0.0134	-2.3997	-3.4460	-2.8140	-1.5831	-0.7958	-0.7568	-0.8151	-0.7353	-0.4853	-0.2805	-0.1478	-0.1639	-0.1559	-0.2203	-0.3471	-0.4745	-0.6430	-0.6728	-0.8979	-1.4071	-1.7516	-0.6016	-2.9304	-3.5943	-2.6504	-1.3760	-0.7330	-0.7566	-0.6790	-0.4362	-0.2016	-0.1296	-0.1425	-0.2413	-0.2948	-0.3654	-0.4922	-0.4818	-0.3548	-0.1835	-0.4684	-1.2911	-1.9452	-0.8469	-3.1835	-3.6500	-2.5438	-1.2049	-0.5780	-0.5809	-0.4472	-0.2449	-0.2068	-0.3460	-0.4954	-0.6303	-0.6854	-0.6242	-0.5115	-0.2218	0.1625	0.3202	-0.1644	-1.3061	-2.1780	-0.7390	-3.1606	-3.6466	-2.5118	-1.1156	-0.4073	-0.3685	-0.2947	-0.2883	-0.4777	-0.7866	-1.0203	-1.1532	-1.1088	-0.8415	-0.4554	0.0082	0.4675	0.5123	-0.1099	-1.3637	-2.2482	-0.5002	-3.0415	-3.6257	-2.4564	-0.9642	-0.1902	-0.2664	-0.3946	-0.5595	-0.7855	-1.1035	-1.3495	-1.4173	-1.1897	-0.7881	-0.3697	0.0671	0.5046	0.5334	-0.1130	-1.3307	-2.1476	-0.3508	-2.9780	-3.6662	-2.4594	-0.8811	-0.1092	-0.3632	-0.6454	-0.7878	-0.8432	-1.0061	-1.1870	-1.1605	-0.8414	-0.5323	-0.4056	-0.2213	0.1055	0.2050	-0.3668	-1.4941	-2.2893	-0.4656	-3.0607	-3.7115	-2.4072	-0.7390	0.0009	-0.3755	-0.7001	-0.6888	-0.5123	-0.4806	-0.5297	-0.3844	-0.1457	-0.1867	-0.5827	-0.8117	-0.6462	-0.5056	-0.9793	-1.9490	-2.6055	-0.5137	-2.9809	-3.5946	-2.2839	-0.5851	0.1449	-0.2181	-0.5277	-0.3862	-0.0422	0.1742	0.2857	0.4619	0.4258	-0.0246	-0.7954	-1.3179	-1.3088	-1.2502	-1.6522	-2.4074	-2.7823	-0.1412	-2.4329	-3.0957	-1.9887	-0.4763	0.1652	-0.1609	-0.4294	-0.2423	0.1621	0.4730	0.6448	0.7018	0.3136	-0.4166	-1.2304	-1.6967	-1.7105	-1.7525	-2.1239	-2.6368	-2.7218	0.7713	-1.3788	-2.2384	-1.5572	-0.4760	-0.0615	-0.4007	-0.5779	-0.3363	0.1087	0.4411	0.5072	0.3013	-0.3509	-1.0623	-1.5722	-1.7218	-1.6701	-1.7853	-2.1151	-2.4050	-2.3020	1.5670	-0.4066	-1.4043	-1.1963	-0.6284	-0.4736	-0.7762	-0.7770	-0.4708	-0.0449	0.2182	0.1609	-0.1878	-0.8210	-1.2649	-1.3998	-1.2549	-1.1563	-1.2746	-1.4863	-1.5280	-1.3411	0.3029	0.7891	1.6878	2.6852	3.2854	3.0280	2.0799	0.9396	0.2931	0.3933	0.8177	1.1180	1.2684	1.3911	1.3065	0.9950	0.8339	1.0022	1.3380	1.3976	1.1548	0.7361	1.1532	2.0569	3.0341	3.4845	3.1075	1.9091	0.5224	-0.4564	-0.5776	0.0975	0.9297	1.4816	1.7290	1.8620	1.9004	1.9355	2.0866	2.3166	2.6264	2.8707	2.9654	2.7709	2.0682	3.2915	4.0405	3.6337	2.3065	0.6648	-0.5318	-1.0439	-0.9048	-0.3291	0.2432	0.7113	0.9966	1.1651	1.3161	1.5766	1.8470	2.0059	2.2058	2.5973	3.0051	3.2019	3.1384	4.0538	3.9734	2.6575	0.9482	-0.2952	-0.7579	-0.8045	-0.7645	-0.7238	-0.6953	-0.5183	-0.3588	-0.3059	-0.1571	0.2642	0.7240	1.0336	1.2997	1.7350	2.1469	2.4834	3.9301	3.8460	2.5947	0.7461	-0.6239	-0.9782	-0.6515	-0.4006	-0.5074	-0.8491	-1.1479	-1.2537	-1.3395	-1.5128	-1.4450	-0.8964	-0.1717	0.4625	0.9349	1.3171	1.4970	1.6595	4.0694	2.7672	0.6640	-1.0805	-1.7140	-1.3233	-0.6255	-0.2748	-0.3257	-0.5815	-0.7858	-0.9326	-1.1578	-1.4278	-1.3745	-0.8221	-0.0778	0.6001	1.1021	1.3793	1.3614	1.2815	3.4687	1.4490	-0.6655	-1.7414	-1.6910	-1.0784	-0.5177	-0.2889	-0.2600	-0.2617	-0.2598	-0.3499	-0.5934	-0.8086	-0.6922	-0.3021	0.1803	0.5901	0.9616	1.2127	1.1869	1.0595	2.3105	0.3224	-1.0700	-1.2959	-0.8375	-0.3673	-0.1454	-0.1324	-0.0601	0.1360	0.2308	0.0930	-0.1915	-0.3442	-0.1486	0.0744	0.2943	0.4746	0.7655	1.0055	0.9510	0.8317	1.2855	-0.2499	-0.8101	-0.5033	-0.0009	0.1684	0.0715	-0.0831	-0.0097	0.2202	0.2687	0.0258	-0.2748	-0.3386	-0.0329	0.1881	0.3668	0.5761	0.8806	0.9829	0.7159	0.4744	0.6656	-0.4747	-0.5744	-0.1517	0.2402	0.2138	-0.0019	-0.2060	-0.1931	-0.0960	-0.1551	-0.4193	-0.6092	-0.5119	-0.0678	0.3399	0.6616	1.0111	1.2202	0.9802	0.3739	-0.0758	0.3237	-0.5876	-0.5806	-0.2963	-0.0680	-0.1022	-0.2139	-0.3272	-0.4378	-0.5748	-0.7388	-0.8391	-0.7604	-0.4629	0.1199	0.7852	1.2830	1.6423	1.5067	0.7430	-0.2001	-0.7803	0.1040	-0.5518	-0.5096	-0.3812	-0.3286	-0.3314	-0.3223	-0.3587	-0.6055	-0.9242	-1.0698	-0.8681	-0.4354	0.1019	0.7855	1.5206	1.9742	2.0566	1.4321	0.2417	-0.8095	-1.2859	-0.2878	-0.5676	-0.3688	-0.1961	-0.2348	-0.3047	-0.3723	-0.4647	-0.7619	-1.0305	-1.0009	-0.5187	0.2073	0.9817	1.6968	2.2619	2.4359	2.1111	1.1550	-0.1222	-0.9702	-1.0874	-0.6566	-0.6526	-0.2752	0.0225	-0.0369	-0.2925	-0.6220	-0.8561	-1.0329	-1.0176	-0.7102	-0.0654	0.7654	1.5993	2.1900	2.4345	2.3412	1.8702	1.0231	0.0391	-0.4404	-0.2808	-0.8181	-0.7157	-0.2465	0.1565	0.1233	-0.3051	-0.8997	-1.2422	-1.2141	-0.8455	-0.2850	0.3852	1.1130	1.7419	2.0307	1.9596	1.7940	1.5001	1.0096	0.4596	0.3368	0.6703	-0.8781	-0.7819	-0.2869	0.1197	0.0919	-0.3805	-1.0007	-1.2848	-1.0507	-0.4309	0.2733	0.8773	1.3290	1.4805	1.3132	1.0524	1.0203	1.0747	0.9648	0.8232	0.9870	1.4971	-0.7252	-0.6548	-0.2183	0.0383	-0.1022	-0.5229	-0.9615	-1.0609	-0.6934	0.0230	0.7667	1.2896	1.3922	1.0154	0.4260	0.1088	0.2730	0.6336	0.8323	1.0216	1.4424	2.1468	-0.6109	-0.5643	-0.2208	-0.1649	-0.4517	-0.7519	-0.8874	-0.7176	-0.2592	0.4644	1.2004	1.6678	1.5213	0.8352	0.0356	-0.2982	-0.1231	0.2541	0.6102	1.0692	1.7347	2.4909	-0.6640	-0.6938	-0.4553	-0.5238	-0.8326	-0.9652	-0.8064	-0.3646	0.1790	0.8340	1.4827	1.8817	1.7364	1.1919	0.5701	0.2174	0.0461	-0.0272	0.1444	0.7226	1.5965	2.3336	-0.9005	-0.9349	-0.7635	-0.8747	-1.0691	-0.9896	-0.5478	0.1120	0.6613	1.0634	1.4570	1.7742	1.8916	1.8917	1.7963	1.4670	0.7269	-0.1314	-0.5418	-0.1208	0.8494	1.6224	-1.0962	-0.8750	-0.6911	-0.8543	-0.9787	-0.7296	-0.0572	0.7021	1.1310	1.1634	1.2004	1.4087	1.8455	2.4628	2.9364	2.7310	1.5986	0.1008	-0.9763	-0.9471	-0.1112	0.7253	-1.0485	-0.2963	0.0204	-0.2340	-0.4880	-0.3067	0.2960	0.9133	1.1229	0.9054	0.7215	0.8200	1.3675	2.2723	3.0744	3.1300	2.1445	0.5719	-0.8404	-1.3140	-0.9564	-0.3065	0.0019	0.2913	0.6177	0.8305	1.2372	1.6483	1.7411	1.0768	0.0048	-0.6743	-0.9171	-1.0682	-1.3400	-1.4995	-1.4773	-1.5723	-1.8888	-2.0950	-2.0632	-1.8245	-1.3700	-0.6206	0.0445	0.5181	1.1166	1.5625	1.9235	1.9346	1.4120	0.1273	-1.4711	-2.6142	-3.0746	-3.0826	-3.0186	-3.0398	-3.0397	-3.0451	-3.0817	-2.9430	-2.7159	-2.4398	-1.9775	-0.9917	0.3869	0.7329	1.2682	1.6718	1.7674	1.2620	0.2566	-1.0870	-2.3192	-3.1291	-3.4294	-3.4226	-3.2976	-3.2869	-3.2591	-3.0605	-2.6906	-2.1166	-1.6140	-1.3821	-1.2373	-0.6626	1.0149	1.1650	1.3230	1.2273	0.7287	-0.2809	-1.3983	-2.1891	-2.4360	-2.4078	-2.3431	-2.3653	-2.3101	-2.2713	-2.1930	-2.0026	-1.6246	-0.9470	-0.2061	0.1846	0.1429	0.1072	1.8603	2.0335	1.7557	0.9000	-0.3312	-1.6844	-2.5994	-2.6832	-2.0892	-1.3838	-1.0489	-1.0806	-1.0919	-0.9782	-0.8365	-0.8586	-0.8314	-0.4426	0.2990	0.9159	0.9496	0.6151	2.3699	2.6034	1.9388	0.5337	-1.0001	-2.2148	-2.7317	-2.4680	-1.6959	-0.8645	-0.5013	-0.6179	-0.7427	-0.6064	-0.3357	-0.4256	-0.6677	-0.6078	-0.0275	0.6671	0.7986	0.4942	2.2112	2.3059	1.3404	-0.2574	-1.5965	-2.2902	-2.3248	-2.0006	-1.4862	-0.8678	-0.5272	-0.6725	-0.8921	-0.7978	-0.4071	-0.3346	-0.5668	-0.6196	-0.2039	0.3742	0.4945	0.2505	1.5333	1.3164	0.1893	-1.2475	-2.1196	-2.2452	-1.9283	-1.6980	-1.5054	-1.0965	-0.7092	-0.7540	-1.0119	-1.0169	-0.6143	-0.3239	-0.4253	-0.4723	-0.2081	0.1877	0.2793	-0.0052	0.5567	0.2330	-0.6942	-1.7322	-2.2109	-2.0139	-1.5004	-1.3169	-1.3385	-1.1076	-0.7058	-0.5516	-0.6950	-0.7757	-0.4645	-0.1186	-0.1705	-0.3021	-0.2640	-0.0450	0.0949	-0.1287	-0.0911	-0.0774	-0.5747	-1.2631	-1.6444	-1.4774	-0.9843	-0.8138	-0.8838	-0.7940	-0.5065	-0.2665	-0.2728	-0.3634	-0.1559	0.0843	0.0190	-0.1699	-0.2522	-0.1121	0.0809	-0.0503	-0.3859	0.3091	0.3543	-0.1469	-0.7238	-0.9076	-0.6140	-0.4132	-0.3415	-0.3163	-0.2699	-0.1535	-0.1000	-0.1067	0.0972	0.2766	0.2769	0.1514	0.0716	0.1572	0.2985	0.1866	-0.4902	0.8000	1.1910	0.6715	-0.1296	-0.6568	-0.6107	-0.4720	-0.2722	-0.2130	-0.3275	-0.3693	-0.2657	-0.0724	0.2730	0.5576	0.6900	0.6864	0.6386	0.6586	0.6742	0.4337	-0.5529	1.0563	1.5924	0.9695	0.0997	-0.5550	-0.7403	-0.8389	-0.7379	-0.6459	-0.7217	-0.7840	-0.6317	-0.2594	0.3213	0.8670	1.1764	1.1638	0.9005	0.7119	0.6716	0.4169	-0.6582	1.1542	1.7201	0.9330	0.0419	-0.4502	-0.5687	-0.8560	-1.0793	-1.0724	-0.9930	-0.8919	-0.6806	-0.2735	0.3753	1.0461	1.3513	1.1383	0.5370	0.2275	0.4074	0.4862	-0.8611	1.1132	1.7639	0.8791	-0.0874	-0.4022	-0.3425	-0.6921	-1.1998	-1.2513	-0.9212	-0.4997	-0.2003	0.0823	0.4510	0.8727	0.9507	0.5020	-0.2269	-0.4283	0.2013	0.8448	-1.0116	1.1182	1.9404	1.0136	-0.2145	-0.5886	-0.3787	-0.5683	-1.1036	-1.1729	-0.6216	0.1402	0.5767	0.6984	0.6279	0.5673	0.2753	-0.3976	-1.0194	-0.9328	0.1402	1.1781	-1.2035	0.8699	1.8841	1.0709	-0.3305	-0.8804	-0.5912	-0.4873	-0.7853	-0.8219	-0.2081	0.7381	1.3554	1.4028	0.9677	0.3863	-0.3449	-1.2434	-1.7608	-1.4238	-0.0560	1.2290	-1.2535	0.6758	1.7787	1.0958	-0.3509	-1.0813	-0.7444	-0.3268	-0.2750	-0.2978	0.1394	0.9602	1.6208	1.7109	1.2633	0.5522	-0.4345	-1.6006	-2.3491	-2.0413	-0.5485	1.0496	-1.1215	0.7070	1.7905	1.1583	-0.2964	-1.1531	-0.8067	-0.1535	0.1873	0.1077	0.1891	0.6511	1.2005	1.4681	1.3809	1.0463	0.2759	-0.9539	-2.1752	-2.3941	-1.2032	0.6388	-0.9507	0.9228	2.0123	1.3979	-0.1210	-1.1564	-0.9907	-0.2709	0.3244	0.3374	0.1646	0.1247	0.2695	0.5968	1.0104	1.4094	1.3579	0.4713	-1.0622	-2.1286	-1.7974	-0.2045	-1.0213	0.9818	2.3518	1.9665	0.4150	-0.9270	-1.2076	-0.6147	0.1695	0.4548	0.2415	-0.2196	-0.5477	-0.3181	0.3849	1.3209	2.0360	1.8108	0.4610	-1.2509	-2.0642	-1.3501	-1.8033	0.2480	2.2664	2.6669	1.5317	0.0364	-0.7948	-0.6109	0.0975	0.5790	0.5152	-0.0190	-0.5549	-0.4689	0.1863	1.1620	2.1605	2.4830	1.7011	-0.0399	-1.6770	-2.0506	0.2426	0.7043	0.7317	0.3853	-0.0632	-0.6867	-1.2914	-1.0285	0.2512	1.6952	2.2646	2.1226	2.0471	2.3043	2.3914	2.0021	1.9379	2.1686	2.1590	1.6173	1.3470	1.2278	0.5549	1.2381	1.1387	0.3580	-0.3945	-0.8172	-0.8905	-0.4363	0.2730	0.8709	0.9347	0.7056	0.4120	0.3829	0.4640	0.2419	0.0389	-0.0669	-0.1958	-0.3666	-0.1211	0.2431	0.6815	1.1195	0.6297	-0.3409	-0.8621	-0.6797	-0.1652	0.2010	0.1231	-0.1632	-0.3976	-0.5258	-0.8348	-1.0270	-0.8691	-0.7352	-0.6826	-0.6858	-0.7549	-0.8485	-0.5601	-0.0562	0.5056	0.1875	-0.7759	-1.4996	-1.3234	-0.4826	0.3167	0.4764	-0.0237	-0.5901	-0.7361	-0.6638	-0.8896	-1.0821	-0.8356	-0.4110	-0.0457	0.2202	0.2252	-0.0772	-0.1448	0.1168	0.3740	-0.7530	-1.8321	-1.9468	-1.0966	-0.0434	0.5844	0.5191	0.0440	-0.3129	-0.2261	-0.0322	-0.1561	-0.2219	0.0298	0.3419	0.6682	0.9684	0.9339	0.4828	0.1659	0.1417	0.3134	-1.1345	-1.7753	-1.1248	0.0614	0.8080	0.9141	0.6174	0.3355	0.2616	0.3253	0.3158	0.1984	0.3644	0.6640	0.6385	0.6696	0.8603	0.8768	0.5355	0.1802	0.0504	0.2518	-1.0575	-1.1191	-0.0471	1.0820	1.3479	0.9870	0.5272	0.4493	0.5472	0.4344	0.0172	-0.1952	0.2025	0.6563	0.4428	0.3311	0.5701	0.7989	0.6193	0.1629	-0.0694	0.0115	-0.9840	-0.7635	0.2582	1.1022	0.9873	0.3571	-0.0632	0.0834	0.3260	0.0537	-0.6752	-0.9276	-0.2851	0.3801	0.2340	0.1499	0.5124	0.8519	0.6238	-0.0557	-0.4296	-0.6038	-1.2728	-1.0282	-0.3354	0.2778	0.1526	-0.3706	-0.6252	-0.4285	-0.1370	-0.3405	-0.9815	-1.1055	-0.3464	0.3957	0.3927	0.3278	0.5962	0.6815	0.2015	-0.5925	-0.9486	-1.1891	-1.5217	-1.3265	-0.8717	-0.3509	-0.2375	-0.4798	-0.5726	-0.5630	-0.3923	-0.4488	-0.7132	-0.6307	0.0192	0.5977	0.6436	0.5437	0.4884	0.0839	-0.6502	-1.2881	-1.3701	-1.4516	-1.3850	-1.2338	-0.9305	-0.4633	-0.0644	0.0160	0.0371	-0.2239	-0.2691	-0.1753	-0.0242	0.2008	0.5565	0.8150	0.7871	0.5667	0.1279	-0.6569	-1.4023	-1.6413	-1.2727	-1.2766	-1.0190	-1.0438	-0.8531	-0.4341	0.0754	0.2424	0.3285	0.0463	-0.0326	0.1654	0.5504	0.8535	0.9791	0.9255	0.7810	0.4947	-0.0497	-0.8182	-1.3461	-1.2761	-0.7104	-0.7445	-0.6228	-0.9556	-0.8413	-0.4308	-0.0797	-0.1499	-0.0460	-0.0316	0.0416	0.1853	0.5017	0.8374	0.9480	0.8214	0.6723	0.4305	-0.0156	-0.5891	-0.8823	-0.6853	-0.2496	-0.1653	-0.3136	-0.9864	-0.9147	-0.3676	-0.0842	-0.4175	-0.3937	-0.1084	0.1377	0.1425	0.1959	0.4206	0.5354	0.4866	0.4961	0.4212	0.1374	-0.3336	-0.5093	-0.3302	-0.0677	0.1362	-0.0775	-0.9638	-0.9798	-0.3162	0.0136	-0.4222	-0.4649	-0.0484	0.3414	0.2681	0.0646	0.0019	-0.0380	-0.0426	0.2400	0.4682	0.3607	-0.1220	-0.2671	-0.0147	0.2864	0.2438	0.2401	-0.7751	-1.0686	-0.4857	0.0035	-0.3006	-0.3839	-0.0666	0.4202	0.5149	0.2514	-0.2101	-0.5505	-0.5093	0.0929	0.6298	0.6864	0.2861	0.1618	0.4209	0.7136	-0.0054	0.2666	-0.7249	-1.3008	-0.8641	-0.1702	-0.1891	-0.2305	-0.0665	0.4919	0.8891	0.7214	-0.0687	-0.7466	-0.7825	-0.1083	0.5352	0.6593	0.4409	0.3933	0.6484	0.7245	-0.3174	0.0772	-0.8093	-1.5035	-1.1141	-0.1841	0.1717	0.2374	0.2250	0.7031	1.2956	1.2528	0.3998	-0.4223	-0.5753	-0.2313	-0.0252	-0.1267	-0.1244	0.1875	0.6827	0.5770	-0.4769	-0.0975	-0.8969	-1.5598	-1.0618	0.0998	0.8195	0.9489	0.6891	0.8230	1.3234	1.4672	0.9572	0.3367	0.0872	-0.0907	-0.6314	-1.1596	-1.0721	-0.1934	0.8816	0.9405	0.0373	0.3069	-0.6994	-1.5239	-1.0451	0.2215	1.1603	1.2915	0.7930	0.4958	0.6925	0.9331	0.9243	0.7603	0.5743	0.0279	-1.0533	-1.8885	-1.8121	-0.5671	1.0348	1.5148	1.2371	1.4594	-0.0831	-1.5075	-1.3726	-0.1654	0.8391	1.0030	0.4691	-0.0671	-0.1422	0.0700	0.4184	0.6487	0.5901	0.0098	-1.0410	-1.8701	-1.9274	-0.8621	0.7460	1.5733	2.1969	2.5822	0.7017	-1.4118	-1.8670	-0.9181	0.0772	0.4355	0.2008	-0.1919	-0.3072	-0.2031	0.2119	0.6110	0.7375	0.3405	-0.3760	-1.0105	-1.2115	-0.7096	0.3940	1.3508	-0.6336	-0.7053	-0.2090	-0.0100	-0.4216	-0.5524	0.2629	1.4112	1.8807	1.5111	0.9127	0.8527	0.9758	0.6595	0.2826	0.4630	0.5361	0.1757	-0.2878	-0.7358	-1.7895	-2.5381	-0.3549	-0.7261	-0.5976	-0.4706	-0.4976	-0.1984	0.7327	1.7616	2.2727	1.8929	1.0002	0.4925	0.5133	0.4152	0.1015	0.0775	-0.0052	-0.2102	-0.1922	-0.1127	-0.9657	-2.3160	0.2279	-0.2062	-0.5354	-0.6918	-0.4628	0.0230	0.5318	0.8016	0.9213	0.8439	0.5185	0.2938	0.2984	0.2074	-0.0915	-0.2304	-0.4479	-0.5507	-0.0583	0.7489	0.6211	-0.6288	0.2990	0.1744	-0.1415	-0.3300	0.0266	0.3544	0.1593	-0.4902	-0.8604	-0.5955	-0.1500	0.0876	0.0593	-0.0657	-0.0386	0.1584	-0.0897	-0.5793	-0.4012	0.5971	1.2454	0.8404	-0.2357	0.0884	0.3069	0.4484	0.7988	0.8299	0.1531	-0.9287	-1.5660	-1.2459	-0.5144	-0.0971	-0.2611	-0.4738	-0.0480	0.7305	0.6333	-0.2439	-0.6679	-0.0247	0.8433	1.2105	-0.7338	-0.2027	0.5186	0.8513	1.0044	0.8851	0.3804	-0.4274	-1.0357	-0.9627	-0.3470	0.0336	-0.3272	-0.8371	-0.3962	0.7381	0.9254	0.1072	-0.5180	-0.2107	0.4282	0.8805	-0.6296	-0.2293	0.5776	0.7755	0.4947	0.2370	0.1478	-0.0666	-0.4548	-0.6327	-0.2752	0.1134	-0.2257	-1.0021	-0.9026	0.1653	0.5558	0.1313	-0.2413	-0.0156	0.3344	0.4906	-0.2571	-0.1358	0.5744	0.5318	-0.1541	-0.5691	-0.3583	-0.1330	-0.2823	-0.6216	-0.5213	-0.0342	-0.0358	-0.7532	-0.9457	-0.2191	0.1924	0.0687	-0.1423	-0.0497	0.1792	0.2788	-0.3798	-0.3957	0.4150	0.4993	-0.3293	-0.9887	-0.7971	-0.3152	-0.1422	-0.4852	-0.6919	-0.2967	0.0641	-0.2905	-0.5101	-0.1610	0.1637	0.1349	-0.1952	-0.4576	-0.3583	-0.0221	-1.3351	-1.0576	0.2756	0.7413	-0.0073	-0.8683	-0.8699	-0.4558	-0.0311	-0.1817	-0.4659	-0.3006	0.1374	0.1000	-0.0253	0.0048	0.0862	-0.0359	-0.4948	-0.9932	-0.9210	-0.2296	-2.4337	-1.6797	0.2674	1.0873	0.4952	-0.4244	-0.6823	-0.6321	-0.1787	0.0339	0.0295	0.0093	0.2090	0.2233	0.1513	-0.0113	-0.1457	-0.3127	-0.7054	-1.1713	-1.0165	-0.1697	-2.9448	-1.8132	0.4613	1.2265	0.6491	-0.1256	-0.3479	-0.6247	-0.4270	-0.0291	0.3370	0.2715	0.1322	-0.0136	-0.0838	-0.2325	-0.3653	-0.4248	-0.6792	-1.0424	-0.7803	0.0629	-2.7605	-1.4412	0.8930	1.2933	0.4313	-0.1492	0.0349	-0.2163	-0.3882	-0.2224	0.2591	0.3068	0.0626	-0.2711	-0.4854	-0.5942	-0.4573	-0.1927	-0.3368	-0.8461	-0.7569	0.0231	-2.6060	-1.2446	1.3102	1.5759	0.2112	-0.5858	0.0090	0.2831	0.0543	-0.2434	-0.0551	0.1382	0.0994	-0.2218	-0.5729	-0.6400	-0.1863	0.3249	0.1347	-0.7743	-1.0710	-0.3568	-2.6386	-1.3459	1.5267	1.9990	0.2394	-1.0386	-0.3879	0.3955	0.3303	-0.3498	-0.5697	-0.2650	0.1002	0.0661	-0.2380	-0.3074	0.1980	0.6556	0.3970	-0.7381	-1.3312	-0.5970	-2.7492	-1.6988	1.4037	2.3927	0.6822	-1.1071	-0.8854	0.0691	0.3381	-0.3963	-0.9548	-0.7082	-0.0296	0.2683	0.1361	0.1088	0.5436	0.7515	0.3423	-0.7474	-1.2856	-0.4803	-2.6241	-1.9318	0.9907	2.3459	1.0384	-0.8754	-1.1242	-0.2870	0.3278	-0.1296	-0.8107	-0.8632	-0.2699	0.2024	0.3694	0.4982	0.8363	0.7890	0.1552	-0.8727	-1.3315	-0.4345	-2.4106	-1.9519	0.6152	2.0500	1.1787	-0.5144	-1.0166	-0.4008	0.4453	0.4115	-0.1961	-0.5581	-0.3893	-0.1112	0.0493	0.3171	0.8121	0.9353	0.2884	-0.8123	-1.5138	-0.7808	-2.1947	-1.7248	0.6618	2.0365	1.3233	-0.1597	-0.8011	-0.4431	0.4503	0.8343	0.4693	-0.0874	-0.4395	-0.5670	-0.7066	-0.5635	0.0694	0.7467	0.7471	-0.1557	-1.3497	-1.2983	-1.9661	-1.4941	0.8326	2.1815	1.5756	0.2812	-0.4921	-0.5587	0.0032	0.5916	0.7260	0.4543	-0.1155	-0.6990	-1.3935	-1.7369	-1.2873	-0.1344	0.9782	0.9523	-0.4048	-1.4006	-1.5473	-1.5263	0.5209	2.0228	1.8302	0.8498	-0.0710	-0.6826	-0.6583	-0.0649	0.5793	0.8187	0.4263	-0.2305	-1.1764	-2.0036	-2.2034	-1.2676	0.5954	1.7946	1.0255	-0.6422	-0.8224	-1.7739	-0.6450	0.8909	1.4849	1.2581	0.5387	-0.4113	-0.8956	-0.5885	0.1132	0.6487	0.6648	0.4565	-0.1215	-0.9564	-1.8005	-1.7432	-0.1704	1.7480	1.9892	0.5051	0.1476	0.5353	0.4469	-0.1717	-0.6570	-0.7943	-0.3260	0.7912	2.0146	2.3551	1.7634	0.8164	0.0244	-0.3874	-0.3053	0.0154	0.4254	0.4740	-0.0652	-0.8297	-0.7265	-0.2266	0.6594	0.9517	0.2570	-0.9245	-1.2330	-0.4126	1.0401	2.3258	2.5957	1.8524	0.9419	0.4739	0.1955	0.1500	0.4856	0.6321	0.3976	0.0046	-0.3328	-0.5502	-0.4777	-0.3450	1.1575	1.0374	-0.1396	-1.0205	-0.2785	1.3594	2.5574	2.5112	1.2608	-0.0889	-0.4965	-0.1763	0.0020	0.1235	0.4272	0.1663	-0.5221	-0.8400	-0.6512	-0.4437	-0.4608	-0.4427	1.0925	0.2384	-0.7588	-0.2268	1.7375	3.1392	2.7520	1.0389	-0.7953	-1.5793	-1.1908	-0.6925	-0.6025	-0.3851	0.0915	-0.1337	-0.7047	-0.6325	-0.1022	0.0176	-0.2837	-0.2835	0.0082	-1.1058	-0.9226	1.1088	3.1641	3.1579	1.1672	-1.0542	-2.0633	-1.6889	-0.9073	-0.8916	-1.1933	-0.7754	0.0899	0.1167	-0.2732	-0.0847	0.3831	0.3394	0.0305	0.0558	-1.1845	-1.4385	0.1334	2.3600	2.9928	1.3754	-1.0289	-2.3101	-1.9457	-0.7528	-0.1484	-0.7160	-1.2294	-0.5399	0.4864	0.3626	-0.2015	-0.1300	0.3159	0.4254	0.2821	0.2011	-1.5195	-0.1070	2.0736	2.9488	1.6610	-0.6148	-2.1225	-2.0798	-0.9848	0.1767	0.3391	-0.4371	-0.7776	0.0700	0.9025	0.3336	-0.4463	-0.3862	0.2197	0.5910	0.5636	0.4148	-0.7902	1.8996	3.3895	2.4139	0.0831	-1.6426	-1.8753	-1.0347	-0.0470	0.5332	0.2509	-0.4120	-0.4344	0.3796	0.8757	0.1359	-0.4639	-0.1775	0.4281	0.7166	0.6838	0.6560	0.1188	2.9239	3.0549	0.8733	-1.2373	-1.8196	-1.1243	-0.1781	0.2124	0.1813	-0.1781	-0.4259	-0.1756	0.3922	0.5526	0.1022	0.0608	0.5060	0.6708	0.5436	0.5644	0.7860	0.4920	2.5359	1.5659	-0.6711	-1.8012	-1.3806	-0.4167	0.1751	-0.0540	-0.4096	-0.5371	-0.2914	0.0919	0.3861	0.4138	0.4669	0.8173	0.9672	0.4507	0.0720	0.4270	0.9363	0.3256	1.6922	0.3780	-1.2826	-1.4940	-0.5525	0.1886	0.2209	-0.4190	-0.7002	-0.4646	0.0074	0.2357	0.2875	0.3690	0.7443	1.0062	0.5391	-0.4186	-0.5488	0.4211	1.2706	0.2728	1.3647	0.0815	-1.0659	-0.7909	0.2225	0.5067	0.1114	-0.4718	-0.3555	0.0714	0.3827	0.3219	0.2375	0.2953	0.5782	0.4930	-0.2940	-1.0643	-0.6069	0.8152	1.7975	0.2324	1.4208	0.3318	-0.5951	-0.3003	0.4065	0.2892	-0.0645	-0.1316	0.3200	0.5796	0.5681	0.3654	0.2743	0.2302	0.3372	0.1713	-0.4367	-0.7850	0.0027	1.4281	2.1770	0.0481	1.4479	0.5867	-0.4152	-0.3781	0.0617	-0.0646	-0.1001	0.1823	0.5922	0.5743	0.4185	0.2523	0.1513	0.0931	0.3812	0.5649	0.2677	-0.0385	0.4567	1.4035	1.7002	-0.4361	1.2464	0.6898	-0.4066	-0.6109	-0.2101	-0.0219	0.2434	0.4168	0.4107	0.1906	0.1545	0.0989	-0.0311	0.1078	0.8980	1.4635	1.0495	0.1460	0.0240	0.6702	0.9383	-0.7836	1.1510	0.7486	-0.5030	-0.8285	-0.1520	0.5089	0.8045	0.3951	-0.0995	-0.2160	0.0148	-0.0628	-0.1651	0.4551	1.7684	2.2703	1.3134	-0.1940	-0.5851	0.2254	0.9319	-0.8326	1.1504	0.7444	-0.5877	-0.9088	-0.0255	0.7803	0.8781	0.0451	-0.6080	-0.5221	-0.1914	-0.3382	-0.2169	0.8760	2.3519	2.5856	1.2871	-0.3274	-0.6698	0.4007	1.4194	-0.6500	1.1258	0.6578	-0.6028	-0.8799	-0.0727	0.5382	0.4696	-0.2931	-0.7217	-0.5014	-0.3449	-0.5166	-0.0754	1.2162	2.3031	2.1076	0.8553	-0.2838	-0.3957	0.6223	1.4544	-0.8548	0.7272	0.4330	-0.5235	-0.6696	-0.0643	0.3237	0.2456	-0.1765	-0.3514	-0.1645	-0.1081	-0.0598	0.4843	1.2768	1.5017	0.9848	0.2582	-0.1459	-0.0657	0.5667	1.0347	-1.2235	0.1845	0.1095	-0.4417	-0.3557	0.1386	0.3696	0.2522	0.0943	0.1421	0.3792	0.5264	0.8132	1.1750	1.1664	0.5615	-0.0525	-0.0649	0.1939	0.3434	0.5459	0.8459	-1.3126	-0.3179	-0.4364	-0.5950	-0.0837	0.4515	0.4294	0.1053	0.0907	0.3805	0.7892	1.0660	1.3579	1.2924	0.6158	-0.2808	-0.5465	0.0859	0.6491	0.5858	0.2842	0.4661	-0.8307	-0.6565	-1.0694	-0.9462	-0.0991	0.3793	0.0005	-0.3784	-0.0056	0.6860	1.1445	1.1451	1.0275	0.5884	-0.1623	-0.7550	-0.5200	0.4151	0.9454	0.4242	-0.4410	-0.4191	0.6006	1.4141	2.3481	2.8157	2.0590	0.1436	-1.4270	-1.5497	-0.9311	-0.8018	-1.0625	-0.8761	-0.3905	-0.4023	-0.7519	-0.3583	0.7572	1.2509	0.7807	0.5550	1.1609	1.6167	1.0604	1.9587	2.3703	1.8020	0.3731	-1.1221	-1.5204	-0.5776	0.4215	0.2576	-0.6468	-1.1399	-1.0254	-0.7510	-0.5070	0.0319	0.6598	0.7148	0.3291	0.4021	0.8468	0.7326	2.2772	2.5227	1.4862	-0.2066	-1.3974	-1.4772	-0.5858	0.5904	1.0697	0.5378	-0.3023	-0.8238	-0.9582	-0.7830	-0.5372	-0.3594	-0.2606	-0.1862	0.0473	0.5974	0.8671	0.2255	3.1786	2.2220	-0.0629	-1.7884	-1.8704	-0.7974	0.2496	0.6109	0.3391	-0.0420	-0.1529	-0.3151	-0.6045	-0.6664	-0.5769	-0.6190	-0.6299	-0.3340	0.2210	0.7781	0.9253	0.3731	2.5038	0.6284	-1.4382	-1.8655	-0.9093	0.1631	0.3443	-0.2139	-0.7413	-0.6509	-0.1774	-0.1067	-0.3963	-0.4383	-0.2449	-0.1492	-0.0370	0.1650	0.3056	0.3775	0.5291	0.5322	0.2986	-1.4158	-1.8370	-0.7210	0.3748	0.5486	-0.0775	-0.7568	-0.9358	-0.5554	-0.1130	-0.1115	-0.2804	-0.1240	0.1616	0.3267	0.4876	0.4802	0.1331	-0.2126	-0.0689	0.3280	-1.6074	-2.1542	-0.9389	0.6448	0.9401	0.2609	-0.4067	-0.5730	-0.3021	-0.0042	0.0204	-0.1428	-0.0918	0.1867	0.2537	0.1234	0.2277	0.3123	0.0818	-0.2293	-0.1600	0.2128	-1.6480	-1.0342	0.4930	1.2462	0.5907	-0.3071	-0.4856	-0.0631	0.4312	0.4082	-0.0875	-0.3557	-0.0384	0.2497	-0.0999	-0.5947	-0.3781	0.2205	0.4874	0.2963	0.1460	0.2493	-0.0499	0.8428	1.2881	0.7178	-0.3630	-0.8792	-0.4920	0.2985	0.7848	0.3983	-0.4445	-0.7065	-0.1495	0.1556	-0.4284	-0.9503	-0.3569	0.7376	1.1780	0.7799	0.3025	0.1610	1.5969	1.9689	1.1031	-0.2227	-1.0774	-1.0395	-0.3719	0.4287	0.6997	0.0789	-0.7768	-0.8750	-0.2054	0.1523	-0.3134	-0.4670	0.4451	1.5280	1.6274	0.8214	0.0549	-0.2586	2.1596	1.8340	0.2951	-0.9367	-1.1577	-0.6306	-0.0776	0.2569	0.1308	-0.3927	-0.7997	-0.6780	-0.1474	0.2727	0.2773	0.6037	1.3766	1.7693	1.2969	0.3557	-0.3302	-0.5907	2.0301	1.1669	-0.4704	-1.1984	-0.7744	0.0226	0.1605	-0.2005	-0.6700	-0.7687	-0.5198	-0.2013	0.1082	0.5556	0.8917	1.2922	1.4707	1.1132	0.5365	0.0836	-0.1281	-0.1719	1.9427	0.6463	-0.9213	-1.2064	-0.4120	0.3612	0.0970	-0.6216	-1.0662	-0.7628	-0.1238	0.2911	0.4636	0.7928	1.0084	1.0376	0.7204	0.2494	0.1959	0.4984	0.7230	0.7186	2.1207	0.4382	-1.0936	-1.1803	-0.4269	0.0703	-0.2836	-0.6705	-0.6898	-0.2613	0.2713	0.6346	0.7558	0.7815	0.5103	0.0930	-0.2084	-0.1457	0.4887	1.1766	1.3301	1.0036	2.3539	0.4138	-1.0628	-1.0746	-0.5805	-0.4047	-0.5878	-0.3268	0.1226	0.4078	0.5971	0.8921	0.9777	0.5807	-0.2145	-0.8221	-0.8308	-0.2407	0.7672	1.4703	1.2893	0.6008	2.5149	0.5147	-0.9794	-0.9951	-0.6197	-0.5161	-0.5146	0.0710	0.6501	0.7921	0.7794	0.9714	0.8981	0.2538	-0.5925	-1.0616	-0.9614	-0.2919	0.7599	1.4764	1.1738	0.3641	2.7556	0.7019	-1.1081	-1.2676	-0.6775	-0.3024	-0.2805	0.0682	0.4807	0.6843	0.7442	0.7788	0.5099	0.0645	-0.2253	-0.3604	-0.4789	-0.2313	0.5734	1.3950	1.3039	0.5265	2.9161	0.7314	-1.5016	-1.8261	-0.8583	-0.0627	-0.1105	-0.1882	0.0703	0.4998	0.6462	0.3645	-0.0258	0.1325	0.7181	0.9119	0.4527	0.1342	0.5059	1.1634	1.0895	0.2120	2.7752	0.6304	-1.7766	-2.2347	-1.0911	-0.0265	0.0115	-0.2154	-0.0025	0.4786	0.5033	-0.0328	-0.2718	0.5159	1.6630	1.9038	1.1761	0.5959	0.6675	0.9555	0.5423	-0.5971	2.2884	0.6162	-1.4713	-1.9050	-0.8232	0.2372	0.3276	0.0101	0.0249	0.3408	0.3290	-0.0193	0.1241	1.0964	2.0148	1.8588	1.0322	0.6989	0.9434	1.0540	0.2375	-1.2230	1.8625	0.8674	-0.6775	-0.9032	0.0702	0.8899	0.7303	0.0776	-0.2972	-0.1274	0.1697	0.4200	0.9016	1.4382	1.5039	0.8439	0.1596	0.3045	1.0117	1.3426	0.4623	-1.2846	1.7182	1.0480	-0.1035	-0.0026	1.0064	1.5435	0.9364	-0.1209	-0.7684	-0.5835	0.0444	0.7312	1.2873	1.2655	0.6773	-0.1340	-0.5563	-0.2272	0.6108	1.1519	0.6153	-0.9021	0.8148	0.8890	1.0902	0.6875	-0.5711	-1.8092	-1.7018	-0.5172	0.1990	0.0229	-0.3850	-0.5128	-0.7492	-1.1498	-1.4076	-1.0644	-0.6191	-1.2416	-1.8785	-1.0008	0.0493	-0.6055	1.2791	1.2678	0.6365	-0.5290	-1.5484	-1.7333	-0.7525	0.1971	-0.0279	-0.7390	-1.0629	-0.9593	-0.8984	-0.8456	-0.8062	-0.5914	-0.2740	-0.6839	-0.9828	0.0206	1.0417	0.5734	1.1729	0.4967	-0.8823	-1.8873	-1.7473	-0.7302	0.5196	0.6722	-0.3924	-1.1669	-1.0782	-0.7327	-0.5076	-0.1662	0.1016	0.3933	0.8257	0.6888	0.3375	0.7159	1.1485	0.8166	0.4415	-1.0803	-2.2927	-2.1171	-0.7842	0.5674	1.2296	0.6352	-0.5092	-0.8266	-0.4192	-0.1429	-0.0905	0.1340	0.2975	0.5774	1.0627	0.9761	0.2962	0.0139	0.0229	-0.1632	-0.4492	-2.1502	-2.2190	-0.7937	0.8018	1.4880	1.3076	0.4833	-0.1486	0.0189	0.3863	0.4067	0.2357	0.1817	0.0713	0.2598	0.7277	0.5535	-0.1910	-0.4392	-0.3993	-0.6094	-1.1180	-1.9877	-0.7603	0.9782	1.6527	1.2421	0.6675	0.1812	0.1352	0.3916	0.3615	0.1414	0.0573	-0.0791	-0.3783	-0.2623	0.2291	0.0478	-0.4251	-0.2570	-0.0179	-0.2050	-1.4886	-1.2187	0.5913	1.6492	1.1196	0.0409	-0.4348	-0.3883	0.0088	0.1789	-0.2438	-0.4611	-0.1587	-0.1443	-0.5421	-0.5112	-0.0097	-0.1008	-0.3907	-0.1309	0.0777	0.0320	-1.4553	-0.6766	0.9043	1.2124	0.1622	-0.9131	-1.0404	-0.6204	-0.1229	-0.1330	-0.6862	-0.6796	0.0406	0.2339	-0.2494	-0.2232	0.3779	0.3678	-0.1079	-0.2784	-0.3616	-0.2528	-1.0695	-0.5873	0.4740	0.6382	-0.0727	-0.6126	-0.4235	-0.1073	0.0368	-0.2083	-0.7001	-0.4951	0.3376	0.4424	-0.1019	0.0573	0.7883	0.7088	-0.0883	-0.7104	-0.9938	-0.6809	-0.5652	-0.7550	-0.0211	0.3971	0.1864	0.1605	0.5323	0.4936	0.1555	-0.2106	-0.3760	-0.0011	0.5848	0.3676	-0.1749	0.1383	0.8043	0.4730	-0.5291	-1.2163	-1.3479	-0.8143	-0.1118	-0.9012	-0.2806	0.3717	0.3598	0.4534	0.7597	0.4114	-0.1583	-0.3186	-0.0223	0.4222	0.7098	0.4319	0.0634	0.3308	0.6194	0.0849	-0.7127	-1.0776	-0.9457	-0.3266	0.0171	-1.2159	-0.4462	0.4117	0.3031	0.1046	0.1794	-0.1902	-0.5199	-0.4229	0.0125	0.3617	0.5393	0.4471	0.3187	0.4009	0.3591	-0.0191	-0.2831	-0.4571	-0.4488	-0.0071	-0.2396	-1.6777	-0.4079	0.8116	0.4605	-0.3152	-0.5132	-0.5347	-0.3168	-0.1580	-0.0094	0.0798	0.2209	0.2696	0.2373	0.0416	-0.1202	-0.1122	0.1033	-0.1052	-0.4790	-0.3478	-0.7572	-2.2094	-0.4008	1.2638	0.8448	-0.3961	-0.7274	-0.3099	0.3053	0.3347	0.1270	0.0601	0.1385	0.0700	-0.0884	-0.3320	-0.3447	0.0143	0.4130	0.1364	-0.4723	-0.4297	-1.1292	-2.5375	-0.4702	1.3890	0.9366	-0.4206	-0.6884	-0.0336	0.6242	0.4971	0.1387	0.0520	-0.0748	-0.4070	-0.5437	-0.3671	0.0710	0.6515	0.9774	0.5955	-0.1055	-0.1107	-0.9855	-2.5460	-0.7196	1.0175	0.6455	-0.4209	-0.5544	0.0191	0.5174	0.4140	0.1310	-0.0703	-0.5064	-0.9797	-0.9385	-0.4170	0.3847	1.0807	1.2229	0.5810	-0.2334	-0.4274	-0.7461	-2.5588	-1.0665	0.6386	0.5607	-0.1289	-0.2412	0.1530	0.5929	0.7142	0.5463	0.1236	-0.5135	-0.9017	-0.7798	-0.4643	0.0931	0.6775	0.8272	0.2166	-0.6262	-1.1676	-0.6880	-2.7234	-1.3405	0.5335	0.8094	0.3815	0.1828	0.3234	0.7484	1.0032	0.7363	0.2154	-0.1164	-0.0282	0.0733	-0.2714	-0.5215	-0.1674	0.3038	0.2217	-0.3555	-1.1297	-0.4287	-2.6002	-1.3385	0.6388	1.1000	0.8008	0.4730	0.2352	0.3695	0.4429	0.0723	-0.1482	0.1934	0.8115	0.8278	-0.1165	-1.0825	-0.9742	-0.1536	0.4783	0.3163	-0.6202	0.3172	-1.9865	-1.2017	0.5098	0.9814	0.7693	0.3710	-0.1321	-0.2743	-0.3892	-0.6912	-0.5068	0.3290	1.0958	0.9523	-0.1137	-1.1994	-1.3201	-0.6392	0.1853	0.2993	-0.5480	1.3832	-1.0648	-1.0722	0.0210	0.4365	0.4198	0.1175	-0.4053	-0.5573	-0.5470	-0.5536	-0.1972	0.5024	0.9234	0.7734	0.2087	-0.4172	-0.6817	-0.5814	-0.2283	-0.1763	-0.6842	1.9092	-0.3675	-0.9025	-0.3350	-0.0140	0.1203	0.0128	-0.3068	-0.2658	0.0339	0.2572	0.4545	0.5734	0.5464	0.5776	0.6787	0.7000	0.5284	0.1205	-0.1313	-0.2135	-0.3758	-0.6067	-0.2944	-0.1443	-0.0860	0.1748	0.4695	0.0447	-0.9031	-1.1479	-0.7620	-0.7211	-0.9506	-1.0061	-1.2269	-1.4156	-1.5296	-1.8642	-1.6717	-1.2140	-1.8143	-2.5092	-1.2731	-1.2065	-0.7994	-0.1794	-0.0053	-0.1602	-0.2456	-0.5223	-0.6185	-0.0801	0.1508	-0.2873	-0.5976	-0.5689	-0.9953	-1.0270	-0.2425	0.1636	0.2933	0.4822	-0.0972	-0.8415	-0.1793	-1.2894	-0.6200	-0.1554	-0.6279	-1.3758	-1.3567	-0.9803	-0.1934	0.6397	0.4546	-0.2656	-0.2131	0.2162	-0.0539	0.1174	1.0788	1.2936	1.0560	1.2879	1.1799	0.5495	0.5653	-0.6207	0.1777	-0.1088	-1.2194	-1.7512	-1.0957	-0.4257	0.1804	0.4283	-0.1017	-0.5133	0.1095	0.7351	0.5669	0.7363	1.0983	0.4944	-0.0754	0.4843	0.9194	0.4625	0.2458	0.5468	0.7460	-0.3204	-1.0451	-0.5089	0.6143	0.7571	0.3704	-0.1279	-0.5909	-0.4301	0.2413	0.4500	0.2057	0.5715	0.6620	-0.1684	-0.5403	0.2898	0.6509	0.1499	0.1389	1.0200	0.2496	-0.9068	-0.5967	0.8139	1.6603	0.8995	-0.1258	-0.6286	-0.6424	-0.1768	-0.0064	-0.5811	-0.8507	0.0297	0.3684	-0.2779	-0.2911	0.6058	0.6496	0.1131	0.2355	0.2323	-0.8373	-1.2839	-0.3715	0.7502	0.7188	-0.4394	-1.1143	-1.0330	-0.5774	0.0284	-0.1712	-1.1808	-1.2579	0.0411	0.5116	-0.2040	-0.2053	0.6114	0.5849	0.1247	0.1185	-0.9875	-1.1950	-0.7497	-0.2588	-0.1343	-0.6598	-1.4811	-1.5152	-1.0025	-0.3566	0.1909	-0.0013	-0.8632	-0.6848	0.6512	0.8650	-0.1806	-0.3516	0.4073	0.4225	0.0546	-0.0981	-1.4881	-0.2424	0.4886	-0.0927	-0.7885	-1.0730	-1.1452	-0.6820	-0.2387	-0.0159	0.1714	0.1086	-0.3492	-0.0868	0.8661	0.6027	-0.4969	-0.5195	0.1658	0.0565	-0.2318	-0.2242	-1.2011	0.9867	1.1763	-0.3545	-1.1515	-0.8908	-0.4454	0.3209	0.6188	0.3847	0.1592	0.2249	0.1289	0.2520	0.4787	-0.1293	-0.8433	-0.4243	0.1293	-0.1936	-0.3429	-0.0323	-0.5513	1.5798	0.8469	-1.1656	-1.6297	-0.9163	-0.3107	0.5309	0.7347	0.3030	-0.0126	0.2960	0.4433	0.3397	0.0620	-0.3644	-0.4039	0.3159	0.5473	-0.0084	-0.0857	0.2310	-0.1069	1.4810	-0.0149	-2.0355	-1.9284	-0.7702	-0.2465	0.2353	0.1273	-0.2138	-0.3400	-0.0111	0.1056	0.0054	-0.1727	-0.1478	0.2798	0.7858	0.4928	-0.1211	-0.0974	-0.0176	0.3005	1.5297	-0.5039	-2.4217	-1.6927	-0.0613	0.2106	0.0431	-0.3285	-0.2837	-0.1932	-0.2276	-0.3746	-0.3518	-0.2688	-0.0328	0.3289	0.3379	-0.3353	-0.7103	-0.4280	-0.2583	0.3624	1.6616	-0.4752	-2.3477	-1.3455	0.5236	0.6285	0.0476	-0.3801	0.0771	0.3104	-0.0407	-0.3574	-0.1858	-0.0981	-0.0279	0.1053	-0.0438	-0.6258	-0.6384	-0.1150	0.2272	0.1781	1.7220	-0.2901	-2.2270	-1.3810	0.3344	0.3508	-0.1977	-0.4498	0.0995	0.3288	-0.0249	-0.1751	0.0942	-0.0286	-0.1353	0.1528	0.3524	0.1020	0.1135	0.4398	0.6637	-0.2886	1.5410	-0.0618	-2.0666	-1.6492	-0.2737	-0.0881	-0.1801	-0.3691	-0.2346	-0.0656	0.0066	0.1078	0.0248	-0.4214	-0.3917	0.1944	0.4709	0.2777	0.1512	0.0503	-0.0679	-0.7036	1.2981	0.0805	-1.9322	-1.7589	-0.4547	0.1626	0.4758	0.1313	-0.2457	-0.0527	0.4699	0.6694	0.1301	-0.5214	-0.3223	0.1316	-0.0053	-0.4459	-0.5450	-0.6352	-0.4946	-0.8331	1.2265	0.1376	-1.8279	-1.5740	-0.1388	0.7272	1.1193	0.4865	-0.2314	0.0859	0.8153	0.7976	0.0680	-0.3104	0.1813	0.3557	-0.3196	-0.9911	-0.8161	-0.4306	0.2375	-0.2892	1.6457	0.3393	-1.7179	-1.4530	-0.1129	0.5761	0.8629	0.2462	-0.4247	-0.1233	0.2826	-0.0129	-0.4745	-0.3534	0.2564	0.3214	-0.4397	-1.0380	-0.7757	-0.1912	0.6206	0.2887	2.1291	0.6681	-1.5481	-1.4620	-0.4558	-0.0855	0.2097	-0.0886	-0.4495	-0.2298	-0.3242	-0.7840	-0.8613	-0.4285	-0.0980	-0.1859	-0.6824	-0.9137	-0.8063	-0.6339	-0.1463	0.2404	2.2110	0.9093	-1.4225	-1.5893	-0.7172	-0.3398	0.0236	0.0001	-0.1358	0.0280	-0.2124	-0.4385	-0.1866	0.1087	-0.1801	-0.5324	-0.6337	-0.3870	-0.3084	-0.5643	-0.3912	-0.4012	1.5507	0.7639	-1.1581	-1.3290	-0.4321	-0.0314	0.1330	0.0836	0.0784	0.2989	0.3008	0.4435	0.7669	0.7490	0.0926	-0.3928	-0.3021	0.3178	0.5993	0.1256	-0.0132	-0.4840	-0.7755	-0.2292	0.1872	-0.2165	-0.6837	-0.9684	-1.3657	-1.0837	0.2534	1.5245	1.7154	1.1140	0.2579	0.1290	0.9334	1.0851	0.8179	1.4059	1.8501	0.9125	0.4348	-0.8760	-0.5855	0.4733	0.5452	-0.6870	-1.4644	-1.2357	-0.5394	0.3982	1.1297	1.0032	0.7113	0.6738	0.2434	0.0995	0.9265	1.1094	0.2816	0.0333	0.2793	-0.1403	-0.0500	-0.9768	-0.0633	0.9456	0.3172	-1.1843	-1.2800	-0.1224	1.0495	1.4602	0.7895	-0.4860	-0.6343	0.1266	0.0041	-0.4013	0.0320	-0.0088	-1.0016	-1.3279	-0.9002	-1.0473	-0.8303	-0.4383	0.3770	0.4169	-0.7203	-1.3629	-0.1860	1.3291	1.8519	1.2282	-0.1823	-1.2979	-0.8830	0.0865	-0.2705	-0.9456	-0.5800	-0.3579	-0.8300	-0.6888	-0.1857	-0.5681	-0.7398	0.3031	0.1581	-0.9249	-1.7199	-1.0076	0.7650	1.5964	1.1337	0.0992	-0.9090	-1.1180	-0.2821	0.2811	-0.4842	-1.0317	-0.3008	0.1861	0.0012	0.3121	0.5914	0.0372	-0.2209	0.4572	-0.5332	-1.6660	-1.5374	-0.1448	1.0493	0.7136	-0.1862	-0.7947	-0.9401	-0.4219	0.5265	0.4841	-0.5443	-0.6485	0.3667	0.5433	-0.0406	0.0241	0.2437	0.0765	0.1101	-0.0363	-0.9462	-1.0732	-0.2221	0.7903	0.8843	-0.0740	-0.6912	-0.7330	-0.4209	0.3208	1.1282	0.6585	-0.3881	-0.0807	0.9115	0.5653	-0.5181	-0.5438	-0.0457	0.2239	0.4305	-0.4813	-0.6758	0.1834	0.9227	1.0100	0.5229	-0.2540	-0.4833	-0.2831	0.0434	0.5807	1.0316	0.3225	-0.6707	-0.1436	0.7435	0.1793	-0.7945	-0.4549	0.2231	0.4081	0.5052	-0.6036	-0.3837	0.7054	0.7895	0.2706	-0.1516	-0.4166	-0.2763	0.0091	0.0824	0.3166	0.6146	-0.0103	-0.8595	-0.4302	0.2193	-0.2240	-0.4709	0.2934	0.6923	0.4252	0.2591	-0.5665	-0.5168	0.2501	-0.1457	-0.6496	-0.6950	-0.5304	-0.1247	0.1305	-0.1050	-0.1679	0.1991	-0.0067	-0.5680	-0.4006	0.0146	-0.0551	0.4006	1.1025	0.8070	0.0648	-0.2190	-0.8461	-1.0552	-0.3586	-0.6622	-0.8966	-0.6568	-0.2221	0.2844	0.3525	-0.2371	-0.5407	-0.0458	0.1897	-0.1618	-0.1969	0.0516	0.2884	0.8902	1.0655	0.1458	-0.7266	-0.7719	-1.1705	-1.2301	-0.3289	-0.3787	-0.4990	-0.2036	0.2478	0.6133	0.4479	-0.1273	-0.3317	0.0964	0.3429	0.1276	0.0323	-0.0418	0.1006	0.5203	0.4062	-0.5147	-1.1050	-0.8106	-1.4291	-1.1062	0.0093	0.0595	-0.0105	0.1900	0.3260	0.3019	0.1588	0.1639	0.3080	0.3459	0.2801	0.3051	0.2525	-0.2208	-0.3612	0.0510	0.2428	-0.2275	-0.5809	-0.2200	-1.4704	-1.0116	0.1759	0.2371	0.1583	0.2146	0.0513	-0.2116	-0.1909	0.2982	0.6115	0.2340	-0.0318	0.1907	0.1537	-0.5572	-0.6114	0.2217	0.8609	0.5315	-0.0763	-0.0910	-1.7119	-1.2418	0.1228	0.2488	0.1800	0.1541	-0.0665	-0.2687	-0.1015	0.3756	0.5283	-0.0408	-0.2568	-0.0544	-0.2852	-0.9986	-0.6350	0.7111	1.4185	0.6697	-0.5985	-0.9407	-2.0617	-1.4160	0.2698	0.4360	0.1779	0.0679	0.0749	0.2433	0.3886	0.3451	0.1376	-0.1348	0.0147	-0.0700	-0.7679	-1.2319	-0.3531	1.1092	1.4453	0.3469	-1.2546	-1.4867	-2.2562	-1.5354	0.4162	0.6682	0.1823	-0.0596	0.0963	0.4732	0.4415	-0.0596	-0.3692	-0.1204	0.3383	-0.0071	-0.9946	-1.1408	-0.0007	1.2716	1.3956	0.3550	-1.1435	-1.1737	-1.9759	-1.4237	0.4423	0.7468	0.2023	-0.2098	-0.2756	0.1542	0.0919	-0.5628	-0.7341	-0.1429	0.3625	-0.0385	-0.8420	-0.7507	0.2611	0.9559	0.9113	0.2559	-0.7818	-0.8103	-1.8487	-1.6137	0.0778	0.5099	0.1730	-0.2848	-0.5547	-0.0222	0.1187	-0.4636	-0.6280	-0.1757	0.2555	0.1840	-0.1338	-0.1120	0.2591	0.1932	-0.0767	-0.3579	-0.8437	-0.7443	-1.8890	-1.6045	-0.0860	0.2767	0.0598	-0.2733	-0.4224	0.2661	0.5346	-0.0737	-0.4097	-0.1928	0.2049	0.5555	0.7227	0.6284	0.2979	-0.3883	-0.8824	-0.8662	-0.8663	-0.3962	-1.8864	-1.0943	0.2955	0.2118	-0.2512	-0.3169	-0.0873	0.5190	0.5324	-0.1203	-0.4502	-0.3185	-0.0235	0.4458	0.7606	0.6388	0.1768	-0.5009	-0.9055	-0.7836	-0.7248	-0.2687	-1.3091	-0.1094	1.0655	0.4175	-0.5912	-0.6412	-0.2693	0.0723	-0.1089	-0.3849	-0.2916	-0.1919	-0.2900	-0.2706	-0.1581	-0.0632	-0.0769	-0.4087	-0.5386	-0.3988	-0.6810	-0.8358	-0.1908	0.1585	0.5773	0.7337	0.4659	-0.1510	-0.7369	-1.0328	-0.9415	-0.3937	-0.0593	-0.6800	-1.5005	-1.2196	-0.4069	-0.2575	-0.5185	-0.8768	-1.1542	-1.0734	-0.6406	-0.5001	-0.0035	-0.0106	-0.0478	-0.2903	-0.5426	-0.4398	0.0895	0.4968	0.5968	0.8441	1.0424	0.4137	-0.4214	-0.2942	0.2349	0.2416	0.0924	-0.0160	-0.2145	-0.4185	-0.4102	-0.4307	0.6113	0.2428	-0.3414	-0.9375	-1.1892	-0.7239	0.2671	0.7993	0.6992	0.7719	1.1046	1.0664	0.7484	0.6056	0.2778	-0.1960	-0.1110	0.3357	0.5016	0.3327	0.1982	0.1662	0.6744	0.2759	-0.1095	-0.4314	-0.6793	-0.5536	-0.0050	0.2223	0.0128	-0.0179	0.2422	0.6599	0.9838	0.8634	0.0485	-0.6098	-0.2686	0.3391	0.2743	-0.1419	-0.2382	0.0732	0.0463	-0.1103	0.2015	0.4904	0.3518	0.0548	0.0536	0.0588	-0.0755	-0.2976	-0.5100	-0.2258	0.4736	0.7008	0.0405	-0.3824	0.1750	0.5833	0.0566	-0.5910	-0.6564	-0.2155	-0.3234	-0.3460	0.1425	0.5606	0.4963	0.2167	0.2307	0.3444	0.4314	0.1208	-0.5537	-0.7155	-0.0845	0.2520	-0.2357	-0.4401	0.1797	0.5017	0.1028	-0.2981	-0.4378	-0.3567	0.4008	0.1789	-0.0687	-0.1888	-0.2009	-0.1063	0.1225	0.2767	0.4844	0.3756	-0.1929	-0.5257	-0.1963	-0.0411	-0.5517	-0.8393	-0.4638	-0.1167	0.0566	0.2666	0.1435	-0.2445	1.9093	1.0189	-0.2985	-0.8592	-0.5702	-0.1377	0.0245	-0.1010	-0.0358	0.1506	0.0576	-0.2047	-0.1761	-0.1203	-0.4708	-0.7146	-0.5649	-0.3118	0.1573	0.7149	0.5880	-0.0674	2.8777	1.2140	-0.6077	-1.0083	-0.3391	0.2679	0.2865	-0.1360	-0.3464	-0.0927	0.0903	-0.1447	-0.3904	-0.4026	-0.3197	-0.1282	0.0637	0.0790	0.3685	0.7880	0.4574	-0.3216	2.2586	0.2324	-1.0641	-0.7566	0.0827	0.5339	0.4664	0.0124	-0.3255	-0.1424	0.1422	-0.0083	-0.3892	-0.4405	0.0050	0.5519	0.6687	0.3411	0.3346	0.5141	-0.0138	-0.8512	0.8347	-1.0305	-1.3379	-0.3398	0.3677	0.3912	0.1556	-0.2213	-0.5297	-0.3680	-0.0018	0.0834	-0.1167	-0.0601	0.5095	1.0381	0.8148	0.1754	0.1047	0.2972	-0.1711	-0.8529	0.0465	-1.5927	-1.2886	-0.0019	0.5144	0.1527	-0.2923	-0.5808	-0.7170	-0.6311	-0.4021	-0.1621	-0.0206	0.1642	0.5971	0.7724	0.2465	-0.3195	-0.1049	0.3404	0.1382	-0.3214	0.3453	-1.1770	-0.9182	0.2795	0.6328	0.0527	-0.4600	-0.4776	-0.2890	-0.2945	-0.3855	-0.2808	-0.0724	0.0295	0.1615	-0.0525	-0.5994	-0.7466	-0.1648	0.4815	0.4329	-0.0346	0.8367	-0.5674	-0.6411	0.2514	0.5512	0.0249	-0.4237	-0.2351	0.2863	0.3995	0.1419	0.0025	0.0154	-0.0513	-0.1631	-0.5151	-0.8890	-0.6510	0.0540	0.5521	0.3481	-0.2557	0.8996	-0.1970	-0.4603	0.1275	0.3973	0.0681	-0.3468	-0.3133	0.2102	0.5554	0.4597	0.2270	0.0429	-0.0707	-0.1594	-0.4033	-0.6121	-0.3175	0.2162	0.4853	0.1987	-0.4586	0.6411	-0.0613	-0.3705	-0.0452	0.3111	0.3558	-0.0363	-0.5672	-0.4873	0.0839	0.3929	0.2156	-0.0809	-0.0974	-0.0255	-0.2311	-0.5060	-0.3878	-0.0198	0.2449	0.2147	-0.3354	0.3867	-0.0624	-0.3430	-0.2036	0.1777	0.5210	0.2691	-0.5950	-0.9379	-0.3617	0.2259	0.2605	0.1137	0.2741	0.4789	0.2474	-0.2182	-0.4685	-0.4188	-0.0940	0.3391	0.1021	0.1537	-0.2960	-0.4219	-0.3390	-0.1709	0.1797	0.2556	-0.3279	-0.7152	-0.4318	-0.0499	0.1089	0.3130	0.7575	1.1268	1.0175	0.5119	-0.0735	-0.5379	-0.4459	0.2715	0.4941	0.0743	-0.2660	-0.1565	-0.1174	-0.4243	-0.4030	-0.0182	0.0477	-0.1552	-0.3872	-0.5230	-0.3120	0.1465	0.5702	0.9336	1.1289	0.9726	0.3149	-0.6213	-0.9173	-0.0965	0.6080	0.0146	0.1630	0.6264	0.5937	-0.1847	-0.6224	-0.2100	0.2832	0.2558	-0.2600	-0.6909	-0.4235	0.0779	0.1555	0.1716	0.4608	0.6740	0.1801	-0.8804	-1.3534	-0.4199	0.6544	-0.2577	0.6417	1.5250	1.4129	0.3112	-0.4647	-0.2363	0.2844	0.3401	-0.0894	-0.3522	0.0022	0.3352	0.0151	-0.3148	-0.0264	0.4065	0.1085	-0.9190	-1.4117	-0.4322	0.9009	-0.8909	0.5119	1.7895	1.6812	0.4156	-0.5283	-0.3389	0.2571	0.4420	0.1420	-0.0448	0.1564	0.1808	-0.2163	-0.3892	0.0826	0.6464	0.4663	-0.6320	-1.3394	-0.5191	0.9992	-0.0063	-0.0708	0.0907	-0.0217	-0.0273	-0.0087	0.1070	-0.0405	-0.0422	0.0770	0.1255	-0.0542	-0.0380	0.1599	0.1405	-0.0492	-0.0073	0.2170	0.1464	-0.0173	0.0150	-0.0027	-0.0400	0.0196	0.0263	-0.0008	-0.0643	0.0398	0.0286	0.0000	-0.0637	0.0389	0.0191	-0.0009	-0.0367	0.0141	0.0020	-0.0009	0.0018	-0.0196	-0.0211	0.0062	-0.0022	-0.0112	-0.0119	0.0083	-0.0025	-0.0090	0.0015	0.0076	0.0025	-0.0028	0.0095	0.0044	0.0100	0.0009	0.0071	0.0006	0.0148	-0.0024	-0.0017	0.0017	0.0059	-0.0009	-0.0015	0.0012	0.0048	-0.0016	0.0011	0.0039	0.0032	0.0009	0.0016	0.0045	0.0003	0.0027	-0.0018	0.0006	-0.0008	0.0018	-0.0230	-0.0776	0.0521	-0.0388	-0.0520	-0.0097	0.0728	-0.0502	-0.0749	0.0812	0.0996	-0.0542	-0.0743	0.1670	0.1246	-0.0408	-0.0399	0.2244	0.1406	-0.0041	0.0302	0.0096	-0.0591	0.0005	0.0487	0.0050	-0.0808	0.0211	0.0556	0.0021	-0.0715	0.0231	0.0451	0.0025	-0.0327	0.0027	0.0218	0.0069	0.0147	-0.0260	-0.0215	0.0051	-0.0028	-0.0105	-0.0130	0.0029	-0.0014	-0.0092	0.0009	0.0019	0.0042	-0.0033	0.0085	0.0023	0.0103	0.0009	0.0037	0.0030	0.0123	-0.0009	-0.0008	0.0031	0.0050	0.0003	-0.0008	0.0019	0.0036	0.0007	0.0009	0.0037	0.0027	0.0027	0.0004	0.0034	0.0006	0.0035	-0.0028	-0.0007	-0.0005	0.0021	-0.0324	-0.0625	-0.0002	-0.0514	-0.0694	0.0073	0.0237	-0.0500	-0.1007	0.0962	0.0585	-0.0385	-0.1044	0.1774	0.0945	-0.0129	-0.0678	0.2291	0.1228	0.0280	0.0395	0.0121	-0.0708	-0.0119	0.0609	-0.0004	-0.0893	0.0048	0.0689	-0.0055	-0.0732	0.0073	0.0565	0.0003	-0.0268	-0.0078	0.0291	0.0130	0.0252	-0.0290	-0.0207	0.0033	-0.0081	-0.0063	-0.0126	-0.0011	-0.0047	-0.0068	0.0020	-0.0015	0.0015	-0.0039	0.0096	0.0014	0.0063	-0.0012	0.0031	0.0042	0.0061	-0.0017	-0.0006	0.0041	0.0045	0.0013	-0.0003	0.0035	0.0023	0.0020	0.0009	0.0045	0.0015	0.0036	0.0004	0.0031	0.0000	0.0041	-0.0020	-0.0010	-0.0015	0.0029	-0.0359	-0.0325	-0.0492	-0.0566	-0.0781	0.0351	-0.0229	-0.0407	-0.1148	0.1167	0.0184	-0.0127	-0.1214	0.1877	0.0639	0.0245	-0.0834	0.2298	0.1035	0.0677	0.0403	0.0030	-0.0697	-0.0114	0.0586	-0.0161	-0.0858	-0.0012	0.0625	-0.0206	-0.0682	-0.0011	0.0467	-0.0069	-0.0214	-0.0130	0.0182	0.0159	0.0294	-0.0283	-0.0210	0.0015	-0.0132	-0.0009	-0.0128	-0.0011	-0.0083	-0.0019	0.0031	0.0003	-0.0022	-0.0020	0.0122	0.0031	0.0009	-0.0018	0.0060	0.0036	-0.0010	-0.0019	-0.0011	0.0046	0.0038	0.0036	-0.0007	0.0041	0.0013	0.0035	-0.0001	0.0042	0.0012	0.0038	-0.0006	0.0024	-0.0001	0.0041	-0.0016	-0.0004	-0.0024	0.0039	-0.0365	0.0023	-0.0796	-0.0533	-0.0789	0.0644	-0.0515	-0.0252	-0.1155	0.1350	-0.0063	0.0151	-0.1212	0.1935	0.0446	0.0597	-0.0821	0.2251	0.0911	0.1020	0.0322	-0.0126	-0.0578	0.0002	0.0433	-0.0348	-0.0719	0.0037	0.0405	-0.0365	-0.0568	0.0003	0.0212	-0.0149	-0.0163	-0.0105	-0.0055	0.0159	0.0279	-0.0225	-0.0222	0.0000	-0.0123	0.0016	-0.0141	0.0014	-0.0066	0.0022	0.0025	0.0048	-0.0014	0.0014	0.0136	0.0058	-0.0005	0.0006	0.0096	0.0018	-0.0040	0.0006	0.0019	0.0048	0.0025	0.0045	0.0015	0.0029	0.0006	0.0036	0.0004	0.0010	0.0022	0.0028	-0.0012	-0.0007	0.0016	0.0022	-0.0019	-0.0005	-0.0015	0.0021	0.1805	0.0728	0.2028	0.1458	0.1819	0.0490	0.1929	0.1218	0.1767	0.0325	0.1774	0.0915	0.1642	0.0233	0.1574	0.0608	0.1462	0.0196	0.1343	0.0354	-0.0087	-0.0070	0.0218	0.0073	-0.0083	-0.0052	0.0123	0.0154	-0.0069	-0.0054	0.0014	0.0195	-0.0054	-0.0079	-0.0073	0.0172	-0.0035	-0.0113	-0.0122	0.0105	-0.0013	-0.0021	-0.0021	0.0022	-0.0007	0.0014	-0.0049	0.0017	0.0035	0.0038	-0.0053	0.0018	0.0074	0.0040	-0.0036	0.0011	0.0089	0.0029	-0.0011	-0.0021	-0.0003	-0.0020	0.0017	-0.0002	-0.0003	-0.0018	0.0013	-0.0019	0.0004	-0.0008	-0.0001	-0.0023	0.0020	0.0017	0.0004	-0.0006	0.0022	0.0025	0.0015	0.0009	0.1616	0.0291	0.1922	0.1225	0.1580	0.0087	0.1826	0.0937	0.1481	-0.0005	0.1678	0.0595	0.1324	-0.0006	0.1489	0.0267	0.1137	0.0049	0.1267	0.0022	-0.0019	0.0000	0.0136	-0.0009	0.0026	0.0019	0.0021	0.0095	0.0073	0.0012	-0.0083	0.0155	0.0100	-0.0025	-0.0138	0.0134	0.0104	-0.0069	-0.0149	0.0055	-0.0006	-0.0013	-0.0032	0.0008	-0.0007	0.0012	-0.0058	-0.0005	0.0034	0.0035	-0.0056	0.0001	0.0073	0.0045	-0.0030	0.0004	0.0077	0.0045	-0.0003	-0.0023	0.0003	-0.0009	0.0015	-0.0002	-0.0000	-0.0009	0.0011	-0.0013	0.0005	-0.0002	-0.0007	-0.0012	0.0020	0.0020	0.0000	0.0005	0.0020	0.0023	0.0018	0.0018	0.1439	-0.0057	0.1644	0.0972	0.1335	-0.0224	0.1542	0.0668	0.1168	-0.0254	0.1407	0.0325	0.0963	-0.0180	0.1246	0.0012	0.0763	-0.0051	0.1060	-0.0205	0.0054	0.0072	0.0032	-0.0097	0.0138	0.0079	-0.0098	0.0016	0.0220	0.0059	-0.0184	0.0090	0.0260	0.0015	-0.0193	0.0080	0.0249	-0.0030	-0.0152	0.0010	0.0002	0.0002	-0.0040	0.0006	-0.0005	0.0006	-0.0062	-0.0017	0.0036	0.0018	-0.0056	-0.0013	0.0073	0.0035	-0.0030	-0.0003	0.0063	0.0048	-0.0009	-0.0022	-0.0010	0.0006	0.0015	0.0003	-0.0011	0.0003	0.0012	-0.0003	-0.0002	0.0005	-0.0008	-0.0002	0.0018	0.0020	0.0002	0.0015	0.0023	0.0016	0.0025	0.0023	0.1292	-0.0283	0.1254	0.0722	0.1116	-0.0416	0.1138	0.0434	0.0873	-0.0398	0.1019	0.0130	0.0611	-0.0276	0.0897	-0.0134	0.0390	-0.0100	0.0770	-0.0305	0.0122	0.0123	-0.0058	-0.0163	0.0236	0.0100	-0.0197	-0.0058	0.0338	0.0062	-0.0266	0.0021	0.0382	0.0021	-0.0233	0.0024	0.0354	-0.0009	-0.0145	-0.0028	0.0005	0.0014	-0.0054	0.0020	-0.0005	0.0002	-0.0073	-0.0008	0.0037	0.0007	-0.0068	-0.0012	0.0078	0.0028	-0.0047	-0.0005	0.0057	0.0049	-0.0036	-0.0020	-0.0037	0.0013	0.0018	0.0024	-0.0038	0.0011	0.0016	0.0019	-0.0032	0.0013	-0.0003	0.0017	-0.0011	0.0028	0.0004	0.0034	-0.0001	0.0025	0.0026	0.0047	0.1165	-0.0401	0.0826	0.0484	0.0925	-0.0501	0.0692	0.0234	0.0614	-0.0452	0.0587	-0.0007	0.0301	-0.0301	0.0505	-0.0202	0.0062	-0.0103	0.0441	-0.0318	0.0152	0.0117	-0.0099	-0.0163	0.0271	0.0059	-0.0244	-0.0075	0.0371	0.0006	-0.0305	-0.0003	0.0403	-0.0018	-0.0252	0.0007	0.0357	-0.0015	-0.0140	-0.0031	0.0005	0.0009	-0.0075	0.0028	-0.0011	-0.0002	-0.0089	0.0000	0.0036	0.0005	-0.0080	-0.0014	0.0084	0.0030	-0.0058	-0.0017	0.0060	0.0051	-0.0048	-0.0034	-0.0010	0.0004	0.0026	0.0014	-0.0015	0.0005	0.0022	0.0011	-0.0017	0.0008	0.0001	0.0007	-0.0001	0.0029	0.0006	0.0024	0.0011	0.0038	0.0022	0.0045	0.1314	-0.1629	0.0381	0.0594	0.0836	-0.1804	0.0255	0.0061	0.0197	-0.1556	0.0202	-0.0547	-0.0412	-0.1082	0.0176	-0.1077	-0.0812	-0.0615	0.0128	-0.1367	0.0040	0.0077	0.0032	-0.0032	0.0252	0.0031	-0.0429	0.0294	0.0422	-0.0021	-0.0686	0.0476	0.0449	-0.0053	-0.0597	0.0374	0.0323	-0.0052	-0.0273	0.0063	-0.0146	0.0027	-0.0011	-0.0036	-0.0141	0.0057	-0.0056	-0.0049	0.0020	0.0077	-0.0028	0.0008	0.0204	0.0084	0.0052	0.0068	0.0228	0.0074	0.0111	0.0049	-0.0003	0.0014	0.0043	-0.0005	-0.0004	0.0004	0.0054	-0.0015	0.0013	0.0015	0.0012	-0.0008	0.0038	0.0049	0.0000	0.0021	0.0036	0.0055	0.0038	0.0045	0.1356	-0.1702	0.0016	0.0374	0.0788	-0.1830	-0.0152	-0.0124	0.0031	-0.1532	-0.0203	-0.0648	-0.0681	-0.1017	-0.0192	-0.1079	-0.1125	-0.0527	-0.0180	-0.1293	0.0111	0.0198	-0.0138	-0.0153	0.0398	0.0078	-0.0607	0.0150	0.0631	-0.0032	-0.0815	0.0334	0.0679	-0.0065	-0.0633	0.0266	0.0520	-0.0017	-0.0217	0.0001	-0.0129	0.0037	-0.0029	-0.0037	-0.0139	0.0019	-0.0051	-0.0055	0.0023	0.0022	-0.0008	-0.0008	0.0210	0.0056	0.0064	0.0049	0.0217	0.0088	0.0096	0.0045	-0.0011	0.0036	0.0037	0.0012	-0.0007	0.0022	0.0045	0.0015	-0.0000	0.0020	0.0010	0.0015	0.0016	0.0041	0.0014	0.0031	0.0018	0.0043	0.0055	0.0049	0.1416	-0.1581	-0.0397	0.0140	0.0771	-0.1665	-0.0614	-0.0273	-0.0087	-0.1355	-0.0666	-0.0651	-0.0885	-0.0854	-0.0615	-0.0932	-0.1364	-0.0388	-0.0532	-0.1048	0.0161	0.0230	-0.0241	-0.0191	0.0479	0.0016	-0.0695	0.0051	0.0727	-0.0146	-0.0859	0.0212	0.0763	-0.0151	-0.0622	0.0174	0.0571	-0.0020	-0.0163	-0.0027	-0.0113	0.0022	-0.0081	-0.0008	-0.0134	-0.0015	-0.0082	-0.0030	0.0031	-0.0006	-0.0029	-0.0015	0.0223	0.0053	0.0033	0.0012	0.0223	0.0105	0.0043	0.0012	-0.0018	0.0038	0.0043	0.0027	-0.0008	0.0035	0.0040	0.0032	-0.0009	0.0027	0.0007	0.0025	0.0000	0.0039	0.0021	0.0036	0.0008	0.0042	0.0054	0.0062	0.1458	-0.1332	-0.0744	-0.0061	0.0766	-0.1382	-0.1002	-0.0366	-0.0149	-0.1095	-0.1056	-0.0581	-0.0990	-0.0645	-0.0972	-0.0705	-0.1480	-0.0234	-0.0827	-0.0731	0.0179	0.0159	-0.0235	-0.0111	0.0465	-0.0140	-0.0659	0.0059	0.0665	-0.0332	-0.0803	0.0174	0.0654	-0.0287	-0.0572	0.0150	0.0433	-0.0057	-0.0134	0.0004	-0.0114	-0.0006	-0.0117	0.0014	-0.0140	-0.0020	-0.0100	-0.0001	0.0027	0.0013	-0.0039	-0.0013	0.0227	0.0081	0.0010	-0.0019	0.0238	0.0115	0.0006	-0.0021	0.0006	0.0036	0.0050	0.0020	0.0021	0.0040	0.0034	0.0026	0.0013	0.0018	0.0007	0.0014	0.0014	0.0017	0.0033	0.0023	0.0025	0.0030	0.0057	0.0048	0.1451	-0.1035	-0.0907	-0.0186	0.0759	-0.1063	-0.1185	-0.0391	-0.0147	-0.0817	-0.1241	-0.0470	-0.0970	-0.0440	-0.1141	-0.0472	-0.1438	-0.0096	-0.0960	-0.0432	0.0180	0.0039	-0.0162	0.0026	0.0392	-0.0302	-0.0540	0.0130	0.0507	-0.0494	-0.0684	0.0193	0.0438	-0.0399	-0.0501	0.0168	0.0209	-0.0098	-0.0133	0.0058	-0.0123	-0.0017	-0.0125	-0.0001	-0.0151	0.0011	-0.0083	0.0003	0.0010	0.0070	-0.0015	-0.0010	0.0210	0.0122	0.0023	-0.0025	0.0240	0.0115	0.0002	-0.0018	0.0012	0.0061	0.0033	0.0034	0.0032	0.0057	0.0011	0.0043	0.0016	0.0010	-0.0000	0.0032	0.0004	-0.0014	0.0047	0.0034	0.0008	0.0004	0.0074	0.0044	0.0974	-0.0187	-0.0851	0.0744	0.0616	-0.0333	-0.0923	0.0580	0.0154	-0.0218	-0.0876	0.0359	-0.0287	0.0079	-0.0731	0.0144	-0.0583	0.0431	-0.0535	0.0021	0.0147	0.0210	-0.0157	-0.0253	0.0335	0.0184	-0.0390	-0.0074	0.0495	0.0157	-0.0524	0.0082	0.0558	0.0132	-0.0475	0.0113	0.0501	0.0118	-0.0278	0.0018	-0.0042	0.0027	0.0029	-0.0041	-0.0072	0.0024	0.0008	-0.0042	-0.0032	0.0029	0.0008	0.0009	0.0036	0.0039	0.0032	0.0069	0.0052	0.0050	0.0052	0.0083	-0.0041	0.0038	0.0004	0.0024	-0.0048	0.0025	0.0028	0.0029	-0.0042	0.0030	0.0021	0.0033	-0.0028	0.0052	0.0010	0.0041	-0.0026	0.0058	0.0016	0.0045	0.1341	0.0337	-0.0974	0.0841	0.0981	0.0185	-0.1124	0.0771	0.0476	0.0260	-0.1122	0.0668	-0.0031	0.0494	-0.0987	0.0561	-0.0388	0.0771	-0.0767	0.0499	0.0054	0.0201	-0.0169	-0.0227	0.0258	0.0125	-0.0412	-0.0088	0.0446	0.0066	-0.0539	0.0056	0.0529	0.0050	-0.0468	0.0104	0.0473	0.0085	-0.0248	0.0038	-0.0041	0.0032	0.0055	-0.0048	-0.0078	0.0001	0.0047	-0.0057	-0.0033	-0.0005	0.0058	-0.0019	0.0044	0.0021	0.0083	0.0038	0.0058	0.0058	0.0095	0.0065	-0.0050	0.0045	0.0012	0.0023	-0.0052	0.0036	0.0026	0.0034	-0.0048	0.0040	0.0016	0.0037	-0.0036	0.0059	0.0012	0.0040	-0.0029	0.0065	0.0018	0.0044	0.1678	0.0874	-0.0859	0.0911	0.1354	0.0729	-0.1077	0.0927	0.0850	0.0759	-0.1126	0.0948	0.0319	0.0911	-0.1020	0.0958	-0.0071	0.1096	-0.0807	0.0966	-0.0038	0.0122	-0.0100	-0.0118	0.0131	-0.0015	-0.0344	-0.0038	0.0295	-0.0109	-0.0479	0.0068	0.0368	-0.0105	-0.0419	0.0114	0.0313	-0.0006	-0.0217	0.0074	-0.0046	0.0019	0.0019	-0.0030	-0.0080	-0.0017	0.0022	-0.0041	-0.0023	-0.0025	0.0041	-0.0027	0.0070	0.0007	0.0062	0.0009	0.0094	0.0048	0.0062	0.0042	0.0013	0.0007	0.0028	-0.0017	0.0020	0.0007	0.0030	-0.0005	0.0022	0.0009	0.0020	-0.0006	0.0030	0.0020	0.0023	-0.0002	0.0037	0.0028	0.0030	0.0006	0.1913	0.1313	-0.0494	0.0967	0.1663	0.1182	-0.0751	0.1040	0.1215	0.1171	-0.0846	0.1150	0.0714	0.1247	-0.0788	0.1249	0.0330	0.1347	-0.0615	0.1309	-0.0118	-0.0004	0.0033	0.0045	-0.0014	-0.0189	-0.0195	0.0077	0.0087	-0.0310	-0.0348	0.0137	0.0120	-0.0286	-0.0332	0.0169	0.0062	-0.0134	-0.0184	0.0143	-0.0055	-0.0005	-0.0052	-0.0021	-0.0088	-0.0019	-0.0035	-0.0015	-0.0021	-0.0013	-0.0010	-0.0016	0.0090	0.0016	0.0006	-0.0002	0.0136	0.0038	-0.0005	0.0027	0.0043	-0.0009	0.0028	-0.0018	0.0052	-0.0007	0.0023	-0.0010	0.0047	-0.0012	0.0023	-0.0019	0.0046	-0.0011	0.0037	-0.0020	0.0053	0.0002	0.0045	-0.0010	0.2002	0.1596	0.0040	0.1025	0.1854	0.1484	-0.0218	0.1119	0.1510	0.1446	-0.0343	0.1266	0.1091	0.1465	-0.0337	0.1405	0.0753	0.1504	-0.0232	0.1486	-0.0175	-0.0102	0.0164	0.0205	-0.0137	-0.0303	-0.0030	0.0210	-0.0103	-0.0433	-0.0193	0.0233	-0.0114	-0.0402	-0.0231	0.0249	-0.0176	-0.0229	-0.0151	0.0231	-0.0075	-0.0022	-0.0044	-0.0047	-0.0110	-0.0001	-0.0010	-0.0019	-0.0049	0.0026	0.0025	-0.0015	0.0069	0.0047	0.0038	-0.0009	0.0135	0.0039	0.0021	0.0017	0.0022	0.0020	0.0004	0.0021	0.0030	0.0014	-0.0001	0.0026	0.0015	-0.0009	0.0016	0.0012	-0.0002	-0.0023	0.0044	0.0003	-0.0003	-0.0005	0.0057	0.0006	-0.1327	0.0338	-0.1186	0.0018	-0.1020	-0.0247	-0.0841	0.0792	-0.0799	-0.0334	-0.0323	0.1230	-0.0730	0.0172	0.0313	0.1084	-0.0709	0.0944	0.0928	0.0490	-0.0287	-0.0465	0.1040	-0.0785	-0.0437	-0.0406	0.0865	-0.0546	-0.0316	-0.0181	0.0030	0.0369	-0.0100	0.0032	-0.0662	0.1195	-0.0085	0.0082	-0.0613	0.1188	0.0061	-0.0184	0.0137	0.0160	-0.0509	-0.0069	-0.0086	-0.0200	-0.0734	0.0052	-0.0360	-0.0356	-0.0285	0.0097	-0.0377	-0.0079	0.0366	0.0066	-0.0113	0.0295	0.0084	0.0136	-0.0024	0.0114	-0.0032	0.0033	0.0190	-0.0003	-0.0104	-0.0107	0.0150	-0.0109	-0.0021	-0.0069	-0.0135	-0.0088	0.0135	0.0142	-0.0264	0.0036	-0.1056	0.0197	-0.0817	0.0246	-0.0588	-0.0525	-0.0555	0.0852	-0.0341	-0.0674	-0.0082	0.1152	-0.0422	-0.0156	0.0544	0.0944	-0.0658	0.0674	0.1145	0.0346	-0.0769	-0.0334	0.1239	-0.0658	-0.0972	-0.0140	0.0746	-0.0525	-0.0701	-0.0022	-0.0395	0.0284	-0.0187	0.0004	-0.1177	0.1044	0.0116	0.0017	-0.0953	0.1021	0.0115	0.0140	0.0178	0.0134	-0.0527	0.0180	-0.0036	-0.0187	-0.0760	0.0030	-0.0219	-0.0331	-0.0214	-0.0146	-0.0123	-0.0097	0.0512	-0.0162	0.0164	0.0232	0.0071	0.0177	-0.0021	0.0002	0.0025	0.0090	0.0152	-0.0011	-0.0028	-0.0065	0.0059	-0.0028	-0.0004	-0.0051	-0.0180	-0.0028	0.0079	0.0134	-0.0184	0.0014	-0.0717	-0.0006	-0.0332	0.0236	-0.0060	-0.0695	-0.0246	0.0547	0.0208	-0.0808	0.0082	0.0694	-0.0055	-0.0279	0.0597	0.0550	-0.0586	0.0542	0.1101	0.0167	-0.1046	0.0118	0.1210	-0.0519	-0.1194	0.0339	0.0493	-0.0494	-0.0743	0.0165	-0.0794	0.0081	0.0006	-0.0135	-0.1552	0.0640	0.0484	-0.0179	-0.1159	0.0603	0.0164	0.0373	0.0213	0.0090	-0.0520	0.0270	-0.0000	-0.0054	-0.0768	-0.0089	-0.0089	-0.0118	-0.0173	-0.0348	0.0078	-0.0006	0.0595	-0.0277	0.0309	0.0141	0.0045	0.0088	0.0031	-0.0052	0.0068	0.0047	0.0153	0.0012	0.0029	-0.0050	0.0015	0.0002	-0.0019	-0.0043	-0.0155	-0.0074	-0.0001	0.0082	-0.0052	-0.0087	-0.0376	-0.0171	0.0051	0.0047	0.0427	-0.0710	-0.0070	0.0049	0.0681	-0.0733	0.0072	0.0085	0.0241	-0.0209	0.0432	0.0098	-0.0546	0.0546	0.0805	0.0041	-0.1000	0.0676	0.1050	-0.0408	-0.1001	0.0770	0.0304	-0.0413	-0.0421	0.0208	-0.0931	-0.0081	0.0371	-0.0428	-0.1604	0.0241	0.0787	-0.0495	-0.1152	0.0192	0.0206	0.0340	0.0150	0.0041	-0.0506	0.0119	-0.0066	0.0103	-0.0782	-0.0228	-0.0084	0.0142	-0.0192	-0.0349	0.0111	0.0118	0.0593	-0.0158	0.0262	0.0047	-0.0006	-0.0060	0.0124	-0.0044	0.0067	0.0001	0.0173	0.0041	0.0043	-0.0000	-0.0014	-0.0013	-0.0053	-0.0027	-0.0124	-0.0143	-0.0079	-0.0001	0.0047	-0.0147	-0.0117	-0.0247	0.0188	-0.0202	0.0714	-0.0592	-0.0085	-0.0410	0.0910	-0.0518	-0.0089	-0.0413	0.0349	-0.0025	0.0138	-0.0224	-0.0565	0.0626	0.0403	0.0018	-0.0720	0.1052	0.0865	-0.0296	-0.0566	0.0933	0.0254	-0.0254	0.0026	0.0064	-0.0782	-0.0094	0.0658	-0.0763	-0.1348	0.0036	0.0832	-0.0788	-0.0961	-0.0017	0.0217	0.0100	-0.0007	-0.0026	-0.0484	-0.0140	-0.0194	0.0150	-0.0779	-0.0282	-0.0149	0.0256	-0.0248	-0.0149	0.0059	0.0156	0.0506	0.0111	0.0164	-0.0032	-0.0061	-0.0130	0.0195	-0.0032	0.0051	0.0059	0.0150	0.0043	0.0058	0.0112	-0.0080	-0.0023	-0.0050	-0.0010	-0.0139	-0.0132	-0.0109	-0.0109	0.0081	-0.0101	0.1240	-0.0127	-0.1021	0.0299	0.0596	0.0198	-0.1079	0.0197	-0.0156	0.0588	-0.0974	0.0140	-0.0676	0.0776	-0.0815	0.0206	-0.0741	0.0673	-0.0675	0.0415	0.0041	0.0030	-0.0659	0.0097	0.0404	-0.0244	-0.0940	0.0329	0.0564	-0.0423	-0.0580	0.0246	0.0411	-0.0367	0.0144	-0.0055	0.0074	-0.0122	0.0678	-0.0243	-0.0239	-0.0036	-0.0276	-0.0083	0.0019	-0.0200	-0.0193	0.0018	0.0355	-0.0242	-0.0045	0.0125	0.0390	-0.0119	-0.0002	0.0100	0.0093	0.0042	-0.0120	-0.0016	0.0064	-0.0096	0.0084	-0.0031	0.0106	-0.0084	-0.0026	0.0010	0.0133	-0.0004	-0.0042	0.0022	0.0114	0.0039	0.0062	-0.0002	0.0062	-0.0017	0.0113	-0.0033	0.1298	-0.0035	-0.0672	0.0074	0.0632	0.0247	-0.0704	0.0091	-0.0143	0.0522	-0.0587	0.0188	-0.0649	0.0589	-0.0433	0.0348	-0.0656	0.0412	-0.0298	0.0524	-0.0136	-0.0425	-0.0382	0.0447	0.0105	-0.0855	-0.0618	0.0575	0.0105	-0.0989	-0.0276	0.0430	-0.0190	-0.0714	0.0330	0.0150	-0.0575	-0.0249	0.0682	0.0011	-0.0285	-0.0189	-0.0435	0.0077	0.0019	-0.0252	-0.0329	0.0129	0.0407	-0.0148	-0.0196	0.0106	0.0469	0.0034	-0.0192	-0.0016	0.0182	0.0108	-0.0304	-0.0132	0.0097	-0.0126	0.0096	-0.0001	0.0121	-0.0068	-0.0025	-0.0037	0.0133	0.0018	-0.0019	-0.0071	0.0139	0.0052	0.0075	-0.0052	0.0133	0.0013	0.0066	-0.0005	0.1123	-0.0305	-0.0046	-0.0124	0.0483	-0.0087	-0.0015	-0.0078	-0.0227	0.0110	0.0108	0.0037	-0.0634	0.0140	0.0220	0.0152	-0.0547	-0.0007	0.0295	0.0213	-0.0219	-0.0776	-0.0060	0.0774	-0.0144	-0.1231	-0.0287	0.0826	-0.0335	-0.1225	-0.0062	0.0640	-0.0752	-0.0747	0.0334	0.0364	-0.1110	-0.0175	0.0486	0.0207	-0.0389	-0.0219	-0.0274	0.0100	-0.0068	-0.0098	-0.0138	0.0130	0.0352	0.0123	-0.0028	0.0056	0.0450	0.0239	-0.0058	-0.0066	0.0208	0.0122	-0.0163	-0.0128	0.0048	-0.0000	0.0027	0.0061	0.0033	0.0025	-0.0066	-0.0021	0.0019	0.0032	-0.0009	-0.0054	0.0034	0.0028	0.0100	0.0002	0.0051	0.0025	0.0069	0.0061	0.0788	-0.0745	0.0588	-0.0220	0.0223	-0.0596	0.0687	-0.0217	-0.0348	-0.0437	0.0797	-0.0196	-0.0604	-0.0376	0.0838	-0.0227	-0.0424	-0.0424	0.0818	-0.0317	-0.0099	-0.0738	0.0037	0.0735	-0.0113	-0.1081	-0.0168	0.0757	-0.0384	-0.0917	-0.0040	0.0598	-0.0800	-0.0363	0.0196	0.0371	-0.1058	0.0131	0.0236	0.0205	-0.0454	-0.0113	0.0133	-0.0020	-0.0158	0.0126	0.0295	0.0017	0.0226	0.0346	0.0372	-0.0011	0.0317	0.0325	0.0304	-0.0032	0.0110	0.0064	0.0181	-0.0003	0.0054	0.0162	-0.0100	0.0085	0.0008	0.0068	-0.0126	0.0021	-0.0044	-0.0048	0.0012	0.0010	-0.0059	-0.0081	0.0157	0.0051	-0.0062	-0.0025	0.0132	0.0048	0.0420	-0.1120	0.0912	-0.0243	-0.0051	-0.1035	0.1039	-0.0301	-0.0466	-0.0895	0.1116	-0.0403	-0.0586	-0.0778	0.1090	-0.0584	-0.0365	-0.0711	0.0992	-0.0793	0.0175	-0.0384	-0.0139	0.0271	0.0192	-0.0557	-0.0280	0.0295	-0.0003	-0.0300	-0.0162	0.0230	-0.0288	0.0179	0.0030	0.0120	-0.0420	0.0465	0.0072	0.0009	-0.0375	0.0011	0.0362	-0.0093	-0.0131	0.0226	0.0502	-0.0070	0.0152	0.0344	0.0531	-0.0057	0.0179	0.0227	0.0433	0.0004	-0.0017	-0.0024	0.0306	0.0093	0.0154	0.0180	-0.0167	0.0021	0.0103	-0.0006	-0.0128	-0.0004	0.0032	-0.0173	0.0053	-0.0000	-0.0012	-0.0184	0.0194	0.0001	-0.0039	-0.0077	0.0157	-0.0052	0.0777	0.0179	-0.0472	-0.0141	0.0964	-0.0092	-0.0979	-0.0298	0.0947	-0.0232	-0.1451	-0.0414	0.0617	-0.0192	-0.1777	-0.0436	0.0022	-0.0017	-0.1915	-0.0351	-0.0717	-0.0317	0.0725	0.0569	-0.0923	-0.0173	0.0384	0.0429	-0.0934	-0.0152	-0.0225	0.0318	-0.0719	-0.0262	-0.0761	0.0214	-0.0380	-0.0366	-0.0910	0.0066	0.0134	0.0109	-0.0248	0.0067	0.0051	0.0289	-0.0329	0.0004	0.0002	0.0271	-0.0320	-0.0083	0.0118	0.0062	-0.0171	-0.0141	0.0305	-0.0153	0.0045	-0.0176	-0.0095	-0.0049	0.0099	-0.0124	-0.0065	0.0052	0.0088	-0.0156	-0.0000	0.0113	-0.0010	-0.0085	0.0059	0.0149	-0.0120	0.0037	0.0071	0.0165	-0.0114	0.0123	0.0591	-0.0187	0.0427	-0.0289	0.0901	-0.0131	-0.0068	-0.0683	0.1033	0.0096	-0.0598	-0.0984	0.0853	0.0409	-0.1047	-0.1027	0.0386	0.0691	-0.1360	-0.0750	-0.0620	-0.0107	0.0660	0.0826	-0.0810	0.0088	0.0277	0.0835	-0.0839	0.0017	-0.0292	0.0689	-0.0694	-0.0283	-0.0718	0.0371	-0.0466	-0.0538	-0.0765	-0.0022	-0.0017	0.0182	0.0065	-0.0200	-0.0100	0.0329	-0.0010	-0.0133	-0.0117	0.0267	0.0028	-0.0015	0.0035	0.0057	0.0197	0.0050	0.0231	-0.0121	0.0365	-0.0012	-0.0084	-0.0001	0.0075	-0.0080	-0.0063	0.0003	0.0086	-0.0065	-0.0012	0.0019	0.0005	-0.0001	0.0009	0.0045	-0.0052	0.0038	-0.0023	0.0051	0.0021	0.0025	0.0298	-0.0496	0.1023	-0.0389	0.0640	-0.0147	0.0627	-0.0906	0.0852	0.0387	0.0156	-0.1296	0.0815	0.0923	-0.0302	-0.1336	0.0544	0.1289	-0.0701	-0.0936	-0.0246	0.0343	0.0245	0.0555	-0.0244	0.0498	-0.0011	0.0747	-0.0160	0.0282	-0.0309	0.0702	-0.0067	-0.0191	-0.0440	0.0368	-0.0059	-0.0561	-0.0325	-0.0081	-0.0059	0.0130	0.0243	-0.0387	-0.0169	0.0112	0.0189	-0.0270	-0.0211	0.0030	0.0244	-0.0028	-0.0103	-0.0017	0.0391	0.0137	0.0041	0.0017	0.0479	0.0099	0.0016	-0.0004	0.0058	-0.0064	0.0039	-0.0054	0.0078	-0.0010	0.0069	-0.0053	0.0016	0.0019	0.0044	-0.0048	0.0002	-0.0022	-0.0028	-0.0083	0.0106	-0.0087	-0.0003	-0.0594	0.1029	-0.0486	0.0232	-0.0049	0.0802	-0.0930	0.0395	0.0662	0.0515	-0.1226	0.0437	0.1304	0.0199	-0.1185	0.0390	0.1697	-0.0131	-0.0738	0.0183	0.0643	-0.0259	0.0054	0.0400	0.0665	-0.0335	0.0351	0.0603	0.0340	-0.0296	0.0440	0.0636	-0.0148	-0.0085	0.0239	0.0410	-0.0469	0.0199	-0.0087	-0.0017	-0.0017	0.0075	-0.0321	-0.0133	-0.0189	0.0038	-0.0281	-0.0187	-0.0235	0.0108	-0.0110	-0.0140	-0.0070	0.0235	0.0017	-0.0091	0.0179	0.0292	0.0006	0.0031	-0.0042	0.0098	-0.0054	0.0069	-0.0028	0.0075	-0.0010	0.0106	0.0020	-0.0016	-0.0009	0.0095	-0.0000	-0.0040	-0.0045	0.0039	-0.0103	0.0044	-0.0066	-0.0236	-0.0459	0.0476	-0.0585	-0.0221	0.0170	0.0447	-0.0792	-0.0221	0.0914	0.0425	-0.0837	-0.0180	0.1543	0.0372	-0.0643	-0.0023	0.1897	0.0256	-0.0201	0.0455	0.0574	-0.0552	-0.0233	0.0744	0.0428	-0.0532	0.0037	0.0941	0.0102	-0.0287	0.0172	0.0872	-0.0200	0.0141	0.0105	0.0497	-0.0294	0.0535	-0.0047	-0.0018	-0.0127	-0.0191	-0.0119	-0.0098	-0.0319	-0.0201	-0.0177	-0.0101	-0.0294	-0.0116	-0.0167	-0.0062	-0.0033	-0.0004	-0.0157	-0.0089	0.0249	0.0048	-0.0160	-0.0057	-0.0029	0.0134	-0.0010	-0.0012	0.0073	0.0051	-0.0002	0.0045	0.0151	-0.0067	-0.0009	0.0079	0.0099	-0.0109	0.0005	0.0082	-0.0046	-0.0062	0.0046	0.0786	-0.0029	0.0993	-0.0335	0.1024	-0.0476	0.0678	-0.0172	0.0934	-0.0690	0.0470	0.0071	0.0519	-0.0520	0.0403	0.0172	-0.0029	-0.0066	0.0450	0.0025	-0.0379	0.0622	-0.0032	-0.0982	-0.0105	0.0487	-0.0218	-0.1168	0.0469	0.0278	-0.0588	-0.0793	0.1067	0.0175	-0.0778	-0.0176	0.1325	0.0203	-0.0558	0.0169	0.0328	0.0174	0.0158	-0.0032	-0.0073	-0.0133	0.0225	-0.0259	-0.0333	-0.0335	0.0214	-0.0402	-0.0225	-0.0261	0.0192	-0.0263	0.0023	0.0009	0.0181	0.0052	0.0186	0.0200	-0.0165	-0.0022	0.0163	0.0117	-0.0059	0.0102	0.0038	-0.0066	0.0025	0.0085	-0.0055	-0.0162	0.0047	-0.0008	-0.0041	-0.0108	0.0063	-0.0052	0.0592	0.0324	0.0581	-0.1098	0.0910	0.0051	0.0106	-0.0852	0.0864	-0.0175	-0.0214	-0.0299	0.0429	-0.0145	-0.0323	0.0247	-0.0185	0.0142	-0.0245	0.0488	-0.0333	0.0608	-0.0046	-0.0769	-0.0194	0.0339	-0.0161	-0.1258	0.0276	-0.0046	-0.0516	-0.1162	0.0864	-0.0220	-0.0742	-0.0596	0.1197	-0.0077	-0.0549	-0.0060	0.0465	0.0178	-0.0279	0.0252	0.0074	-0.0105	-0.0232	0.0035	-0.0231	-0.0345	-0.0223	-0.0291	-0.0139	-0.0335	-0.0221	-0.0423	0.0139	-0.0094	-0.0207	-0.0257	0.0100	0.0033	-0.0033	-0.0079	0.0148	0.0100	0.0002	0.0012	0.0075	0.0016	0.0012	0.0002	0.0002	-0.0079	-0.0016	-0.0045	0.0034	-0.0055	-0.0030	-0.0017	0.0172	0.0496	0.0343	-0.1681	0.0599	0.0455	-0.0204	-0.1466	0.0691	0.0297	-0.0592	-0.0771	0.0364	0.0246	-0.0742	0.0080	-0.0213	0.0380	-0.0669	0.0675	-0.0224	0.0345	0.0300	-0.0059	-0.0367	0.0005	0.0265	-0.0688	-0.0239	-0.0493	-0.0164	-0.0905	0.0098	-0.0736	-0.0593	-0.0596	0.0379	-0.0519	-0.0609	-0.0113	0.0403	0.0101	-0.0454	0.0342	0.0039	0.0040	-0.0452	0.0275	-0.0262	-0.0079	-0.0435	-0.0049	-0.0129	-0.0141	-0.0399	-0.0363	0.0248	-0.0094	-0.0352	-0.0405	-0.0086	-0.0052	0.0074	-0.0021	-0.0007	0.0107	0.0053	0.0017	-0.0028	0.0090	-0.0003	0.0001	-0.0075	-0.0009	-0.0059	-0.0018	-0.0029	-0.0007	-0.0070	0.0041	-0.0480	0.0424	0.0400	-0.1852	0.0071	0.0601	-0.0075	-0.1759	0.0410	0.0560	-0.0450	-0.1149	0.0348	0.0506	-0.0627	-0.0259	-0.0048	0.0555	-0.0607	0.0507	-0.0004	0.0158	0.0634	0.0594	-0.0379	-0.0106	0.0755	0.0059	-0.0596	-0.0605	0.0317	-0.0321	-0.0576	-0.0942	-0.0312	-0.0299	-0.0441	-0.0803	-0.0606	-0.0026	0.0250	0.0003	-0.0209	0.0075	-0.0106	0.0168	-0.0212	0.0208	-0.0433	0.0222	-0.0181	0.0113	-0.0304	0.0145	-0.0121	-0.0124	0.0159	0.0008	-0.0074	-0.0255	-0.0136	0.0011	0.0051	0.0053	-0.0053	0.0128	0.0020	0.0094	-0.0057	0.0072	-0.0036	0.0083	-0.0133	-0.0079	-0.0051	0.0033	-0.0146	-0.0103	0.0006	0.0023	-0.1255	0.0172	0.0638	-0.1603	-0.0612	0.0493	0.0376	-0.1639	0.0013	0.0572	0.0110	-0.1271	0.0322	0.0569	-0.0056	-0.0592	0.0230	0.0603	-0.0110	0.0115	0.0252	0.0166	0.0619	0.0705	-0.0168	0.0121	0.0962	0.0412	-0.0520	-0.0263	0.0687	0.0084	-0.0673	-0.0695	0.0046	-0.0033	-0.0669	-0.0781	-0.0427	0.0055	0.0189	-0.0080	0.0088	-0.0261	-0.0147	0.0129	0.0095	-0.0050	-0.0539	0.0276	0.0130	0.0092	-0.0521	0.0269	0.0202	0.0062	-0.0086	0.0123	0.0249	-0.0022	-0.0011	0.0072	-0.0015	0.0029	0.0084	0.0115	-0.0032	0.0095	0.0098	0.0013	-0.0072	0.0103	-0.0010	-0.0184	-0.0050	0.0023	-0.0117	-0.0256	0.0068	-0.0063	-0.0269	0.0375	0.0149	0.0344	-0.0122	0.0209	0.0048	0.0031	0.0222	0.0031	-0.0118	-0.0148	0.0521	0.0102	-0.0227	-0.0076	0.0522	0.0416	-0.0255	0.0099	0.0896	0.0540	-0.0291	-0.0198	0.0611	0.0853	0.0349	-0.0680	0.0348	0.0933	0.0310	-0.0983	0.0477	0.0662	-0.0392	-0.0698	0.0917	0.0244	-0.0923	-0.0156	0.0504	0.0071	0.0086	0.0232	0.0514	0.0277	0.0062	0.0347	-0.0202	0.0248	-0.0150	0.0083	-0.0703	-0.0018	-0.0325	-0.0223	-0.0304	-0.0217	-0.0233	-0.0182	0.0030	-0.0230	-0.0095	-0.0206	0.0166	-0.0004	0.0080	-0.0198	0.0225	0.0062	0.0266	-0.0147	0.0144	-0.0121	0.0068	-0.0151	0.0101	-0.0202	-0.0235	-0.0129	-0.0228	0.0199	-0.0345	0.0804	-0.0166	0.0103	-0.0436	0.0347	0.0122	0.0146	-0.0549	-0.0119	0.0382	0.0430	-0.0549	-0.0282	0.0359	0.0831	-0.0472	-0.0116	0.0776	-0.0029	0.0063	0.0124	0.0441	0.0501	0.0571	0.0016	0.0053	0.0667	0.0395	-0.0191	0.0009	0.0218	-0.0366	-0.0177	0.0299	-0.0420	-0.0867	-0.0023	0.0494	-0.0166	-0.0520	0.0258	0.0578	0.0236	-0.0759	0.0382	-0.0067	0.0327	-0.1020	0.0287	-0.0505	0.0031	-0.1038	0.0026	-0.0045	-0.0251	-0.0718	-0.0176	-0.0166	-0.0415	0.0121	-0.0204	-0.0018	-0.0126	0.0269	-0.0260	0.0196	0.0132	0.0263	-0.0145	0.0247	0.0114	-0.0122	-0.0058	0.0197	0.0039	-0.0426	-0.0017	-0.0140	-0.0321	-0.0489	0.1196	-0.0217	-0.0362	-0.0519	0.0604	-0.0064	-0.0068	-0.0524	-0.0163	0.0105	0.0479	-0.0379	-0.0627	0.0080	0.1024	-0.0192	-0.0572	0.0237	-0.0661	0.0417	0.0661	-0.0095	0.0064	0.0683	0.1004	-0.0494	0.0342	0.0392	0.0989	-0.0636	-0.0193	-0.0325	0.0732	-0.0514	-0.0953	-0.0743	0.0386	0.0300	-0.0194	-0.0480	-0.0046	0.0445	0.0209	-0.0786	0.0064	-0.0073	0.0322	-0.1008	0.0279	-0.0425	0.0093	-0.0876	0.0307	0.0040	-0.0120	-0.0441	0.0060	-0.0371	-0.0280	0.0147	-0.0067	-0.0280	-0.0068	0.0303	-0.0060	-0.0008	0.0251	0.0198	0.0116	0.0099	0.0322	-0.0233	0.0177	0.0011	0.0197	-0.0429	0.0107	0.0074	-0.0916	-0.0199	0.1391	-0.0156	-0.0920	-0.0156	0.0745	-0.0202	-0.0431	-0.0048	-0.0187	-0.0172	0.0327	0.0216	-0.0868	-0.0187	0.1001	0.0469	-0.0961	-0.0323	-0.0767	0.0306	0.0763	-0.0466	0.0035	0.0324	0.1418	-0.0618	0.0364	0.0080	0.1632	-0.0639	-0.0168	-0.0349	0.1285	-0.0600	-0.0939	-0.0515	0.0640	0.0072	-0.0001	0.0134	-0.0447	0.0246	0.0111	-0.0070	-0.0402	-0.0143	0.0071	-0.0189	0.0051	-0.0452	-0.0013	-0.0004	0.0423	-0.0101	0.0035	0.0361	0.0330	-0.0257	-0.0080	0.0025	-0.0011	-0.0229	-0.0019	0.0231	0.0085	0.0003	0.0264	0.0147	0.0255	0.0079	0.0343	-0.0202	0.0222	-0.0077	0.0121	-0.0259	0.0045	0.0456	-0.1343	0.0262	0.1272	0.0075	-0.1321	0.0337	0.0687	-0.0234	-0.0739	0.0523	-0.0178	-0.0422	0.0113	0.0852	-0.0867	-0.0464	0.0846	0.1127	-0.1050	-0.0529	-0.0365	-0.0225	0.0237	-0.0343	0.0282	-0.0407	0.0931	-0.0103	0.0529	-0.0483	0.1298	0.0118	0.0086	-0.0464	0.1060	0.0141	-0.0530	-0.0239	0.0453	-0.0033	0.0178	0.0499	-0.0460	0.0151	-0.0094	0.0403	-0.0539	-0.0085	-0.0328	0.0355	-0.0142	-0.0346	-0.0249	0.0495	0.0300	-0.0187	0.0112	0.0705	0.0332	0.0017	-0.0099	-0.0012	-0.0080	0.0022	-0.0094	0.0208	-0.0001	0.0194	0.0189	0.0157	0.0086	0.0252	0.0281	-0.0113	0.0014	0.0096	-0.0003	-0.0128	-0.0117	0.0001	-0.0130	0.0648	-0.0410	0.0519	0.0033	0.0282	-0.0358	0.0934	0.0331	-0.0309	-0.0602	0.1076	0.0438	-0.0991	-0.1035	0.0911	0.0251	-0.1592	-0.1225	0.0117	0.0285	0.0627	-0.0482	0.0442	0.0338	0.0379	0.0427	0.0632	0.0438	0.0177	0.1103	0.0355	0.0259	0.0284	0.0741	-0.0246	-0.0265	0.0349	-0.0306	-0.0414	-0.0555	0.0522	-0.0486	-0.0720	-0.0457	0.0133	-0.0485	-0.0257	0.0073	-0.0096	0.0178	0.0289	0.0536	-0.0066	0.0877	0.0203	0.0482	-0.0021	0.0747	0.0008	-0.0130	0.0224	0.0388	-0.0368	-0.0571	0.0379	0.0046	-0.0441	-0.0563	0.0148	-0.0291	-0.0140	-0.0107	0.0002	-0.0266	0.0091	0.0189	0.0114	-0.0056	-0.0226	-0.0003	0.0356	-0.0251	0.0182	-0.0063	0.0241	0.0196	0.0527	0.0174	-0.0067	0.0181	0.0707	0.0408	-0.0531	-0.0377	0.0712	0.0427	-0.1001	-0.1001	0.0205	0.0205	0.0606	-0.1308	0.0683	0.0060	0.0452	-0.0202	0.1101	0.0189	0.0355	0.1160	0.0914	0.0269	0.0668	0.1505	0.0082	-0.0060	0.0938	0.0668	-0.0266	-0.0672	0.0253	-0.0433	-0.0841	-0.0826	-0.0046	-0.0944	-0.0430	-0.0360	-0.0242	-0.0600	0.0230	0.0379	-0.0176	0.0338	0.0137	0.0732	-0.0030	0.0797	0.0296	0.0168	0.0135	0.0215	-0.0065	-0.0260	0.0237	0.0008	-0.0237	-0.0472	-0.0025	-0.0222	0.0013	-0.0163	-0.0163	-0.0116	0.0250	0.0159	-0.0016	0.0125	-0.0436	0.0120	-0.0020	-0.0341	-0.0149	-0.0153	0.0118	0.0468	0.0048	-0.0076	0.0163	0.0813	0.0156	0.0148	0.0011	0.0374	0.0255	0.0286	-0.0242	-0.0490	-0.0289	-0.0114	0.0645	-0.1558	0.0048	-0.0387	0.0202	-0.0818	0.0615	-0.0239	-0.0059	0.0667	0.0780	0.0186	0.0406	0.1541	0.0257	0.0314	0.1067	0.1166	-0.0107	-0.0235	-0.0290	0.0017	-0.0771	-0.0581	-0.0424	-0.0891	-0.0302	-0.0568	-0.0435	-0.1164	0.0507	-0.0103	-0.0240	-0.0506	0.0361	0.0397	0.0000	0.0281	0.0269	0.0423	0.0095	0.0015	0.0087	0.0155	0.0027	-0.0061	-0.0063	-0.0181	-0.0285	-0.0131	0.0164	-0.0037	-0.0355	0.0061	0.0448	0.0248	-0.0149	0.0304	-0.0565	0.0121	-0.0232	-0.0652	-0.0277	-0.0240	0.0029	0.0249	-0.0203	-0.0300	0.0327	0.0886	-0.0267	-0.0148	0.0435	0.0761	-0.0251	0.0020	0.0371	-0.0000	-0.0902	-0.0223	0.0857	-0.1041	-0.0884	-0.0605	-0.0054	-0.0958	-0.0343	-0.0630	-0.0731	0.0045	0.0151	-0.0064	-0.0347	0.0960	0.0150	0.0541	0.0636	0.0976	-0.0134	0.0383	-0.0363	0.0463	-0.0809	0.0023	-0.0411	-0.0229	-0.0241	-0.0430	-0.0293	-0.0853	0.0803	-0.0508	-0.0081	-0.0791	0.0771	-0.0202	0.0044	-0.0232	0.0061	0.0408	0.0104	0.0079	0.0012	0.0237	-0.0046	0.0040	-0.0164	-0.0107	-0.0314	-0.0075	-0.0034	0.0003	-0.0254	0.0000	0.0320	0.0354	-0.0036	0.0203	-0.0614	0.0006	-0.0116	-0.0957	-0.0131	-0.0316	0.0079	-0.0308	-0.0042	-0.0434	0.0411	0.0383	-0.0286	-0.0356	0.0598	0.0594	-0.0530	-0.0211	0.0597	0.0207	-0.1051	0.0198	0.1120	-0.0295	-0.1231	-0.0311	-0.0001	-0.0672	-0.0807	-0.0755	-0.1045	-0.0331	-0.0245	-0.0431	-0.0967	0.0251	0.0005	0.0401	0.0014	0.0425	-0.0213	0.0592	0.0017	0.0475	-0.0974	0.0379	-0.0030	0.0422	-0.0468	-0.0126	0.0118	-0.0045	0.0739	-0.0473	0.0251	-0.0420	0.1010	-0.0473	0.0149	-0.0352	0.0055	0.0203	0.0128	0.0196	0.0037	0.0071	-0.0023	0.0166	-0.0250	-0.0254	-0.0200	-0.0088	-0.0341	-0.0181	0.0017	-0.0212	-0.0060	0.0251	0.0264	-0.0067	0.1701	-0.0048	0.0646	-0.1187	0.1232	-0.0131	0.0154	-0.1282	0.0513	-0.0167	-0.0199	-0.0796	-0.0147	0.0112	-0.0360	-0.0044	-0.0549	0.0639	-0.0290	0.0462	0.0305	0.0136	-0.0488	0.0382	0.0445	-0.0801	0.0104	-0.0329	0.0410	-0.1242	0.0355	-0.0605	0.0313	-0.0956	-0.0011	-0.0044	0.0151	-0.0381	-0.0461	0.0718	0.0297	-0.0454	-0.0086	0.0544	0.0370	-0.0639	0.0128	0.0609	-0.0159	-0.0274	-0.0103	0.0028	-0.0541	0.0282	-0.0598	-0.0468	-0.0133	0.0507	-0.0809	-0.0305	0.0133	-0.0245	-0.0202	0.0275	0.0126	-0.0021	0.0080	0.0196	-0.0098	0.0002	0.0599	-0.0184	-0.0242	-0.0201	0.0510	-0.0457	-0.0029	-0.0171	-0.0114	-0.0289	0.1052	-0.0023	0.0519	-0.1175	0.0586	-0.0292	0.0146	-0.1066	0.0050	-0.0465	-0.0106	-0.0500	-0.0352	-0.0186	-0.0135	0.0149	-0.0557	0.0455	0.0078	0.0398	0.0949	-0.0368	0.0118	0.0400	0.0748	-0.1115	0.0981	-0.0234	0.0238	-0.1184	0.0959	-0.0296	-0.0209	-0.0726	0.0015	0.0476	-0.0448	-0.0267	-0.0844	0.1225	0.0279	-0.0716	0.0153	0.0451	0.0199	-0.0249	0.0316	0.0339	-0.0547	0.0480	-0.0037	-0.0260	-0.0900	0.0789	-0.0496	-0.0552	-0.0179	0.0519	-0.0481	-0.0168	-0.0040	0.0074	-0.0304	0.0263	-0.0112	0.0315	0.0068	0.0088	-0.0264	0.0158	0.0531	-0.0083	-0.0321	-0.0213	0.0264	-0.0079	-0.0145	-0.0185	-0.0338	0.0101	0.0313	0.0081	0.0270	-0.0640	-0.0059	-0.0363	0.0050	-0.0400	-0.0287	-0.0627	-0.0066	0.0043	-0.0351	-0.0340	0.0078	0.0390	-0.0366	0.0379	0.0439	0.0326	0.1214	-0.0595	0.0382	0.0065	0.0717	-0.0693	0.1232	-0.0436	0.0015	-0.0276	0.0913	-0.0275	-0.0348	0.0106	-0.0338	0.0597	-0.0276	0.0127	-0.1232	0.1252	0.0345	-0.0371	0.0527	0.0024	0.0167	0.0446	0.0663	-0.0237	-0.0759	0.0948	0.0323	-0.0590	-0.1153	0.0671	0.0056	-0.0467	-0.0312	0.0077	0.0282	0.0119	-0.0029	0.0474	-0.0491	0.0025	-0.0031	0.0478	-0.0051	0.0022	-0.0041	0.0090	0.0340	0.0199	-0.0104	-0.0335	0.0029	0.0287	-0.0132	-0.0282	-0.0354	0.0180	-0.0252	0.0306	-0.0008	0.0062	-0.0418	-0.0226	-0.0147	0.0295	-0.0302	-0.0526	-0.0175	0.0511	-0.0093	-0.0258	0.0109	0.0578	-0.0054	0.0445	0.0580	0.0356	0.0963	-0.0482	0.0228	-0.0484	0.0353	0.0154	0.0902	-0.0882	-0.0154	0.0825	0.0434	-0.0598	-0.0031	0.0813	-0.0769	0.0227	0.0548	0.0269	-0.1392	0.0780	0.0580	0.0241	0.0550	-0.0183	0.0389	0.0822	0.0542	-0.0459	-0.0651	0.0671	0.0211	-0.0523	-0.1135	-0.0048	0.0122	-0.0181	-0.0335	-0.0470	0.0451	0.0274	0.0097	0.0376	-0.0478	-0.0211	0.0201	0.0154	0.0028	-0.0002	0.0312	-0.0140	0.0299	0.0303	0.0225	-0.0319	-0.0074	0.0220	0.0045	-0.0224	-0.0306	-0.0139	-0.0431	0.0564	-0.0289	0.0538	-0.0340	0.0052	-0.0485	0.0629	0.0011	-0.0225	-0.0512	0.0641	0.0271	0.0001	-0.0157	0.0612	0.0150	0.0609	0.0371	0.0487	0.0402	-0.0244	0.0064	-0.0742	-0.0153	0.0786	0.0542	-0.1022	-0.0305	0.1295	0.0037	-0.0755	0.0294	0.0745	-0.0978	-0.0147	0.1166	-0.0160	-0.1319	0.0256	0.0815	0.0604	0.0196	-0.0029	0.0617	0.0653	-0.0044	-0.0204	-0.0441	0.0001	-0.0391	-0.0101	-0.0934	-0.0670	-0.0377	0.0138	-0.0186	-0.0606	-0.0031	0.0191	0.0007	-0.0116	-0.0194	-0.0205	0.0114	-0.0262	0.0304	0.0056	0.0273	-0.0127	0.0355	0.0238	0.0217	0.0026	-0.0148	-0.0010	0.0054	0.0043	-0.0345	-0.0328	0.0372	0.0001	-0.0093	0.0828	-0.0331	0.0072	0.0195	0.0809	-0.0588	-0.0143	0.0246	0.0498	-0.0255	-0.0540	0.0087	0.0073	0.0394	-0.0887	-0.0114	-0.0274	0.0823	-0.0540	-0.0904	0.0030	0.1131	-0.0626	-0.0018	0.0329	0.0755	-0.0043	0.1121	0.0199	-0.0019	0.0633	0.1414	-0.0011	-0.0553	0.0706	0.0567	0.0045	-0.0163	-0.0860	-0.0025	-0.0130	0.0500	-0.0642	0.0145	-0.0030	0.0617	0.0201	0.0051	0.0040	-0.0102	0.0820	-0.0277	0.0038	-0.0718	0.0652	-0.0438	0.0022	0.0185	-0.0180	-0.0142	0.0177	-0.0009	-0.0098	-0.0122	-0.0088	-0.0075	0.0100	0.0174	-0.0274	0.0009	0.0138	0.0234	-0.0152	0.0068	0.0020	-0.0137	0.0083	0.0397	-0.0044	-0.0143	0.0636	-0.0402	-0.0129	0.0119	0.0925	-0.0694	-0.0298	0.0110	0.0745	-0.0326	-0.0474	-0.0077	0.0188	0.0385	-0.0566	-0.0239	-0.0435	0.0212	-0.1260	-0.0767	-0.0217	0.0370	-0.1020	-0.0241	-0.0071	0.0075	0.0189	0.0516	0.0070	-0.0371	0.1289	0.0680	0.0155	-0.0460	0.1283	0.0065	0.0151	-0.0044	-0.0512	-0.0258	-0.0004	0.0649	-0.0111	-0.0037	-0.0521	0.0821	0.0519	-0.0119	-0.0764	0.0155	0.0651	-0.0281	-0.0477	-0.0521	0.0185	-0.0126	0.0008	0.0145	0.0261	-0.0262	-0.0109	-0.0066	0.0279	-0.0212	-0.0316	-0.0057	0.0236	0.0034	-0.0156	0.0147	0.0205	-0.0042	0.0287	0.0195	0.0167	-0.0388	0.0496	0.0386	-0.0139	0.0098	0.0055	-0.0307	-0.0087	0.0185	0.0391	-0.0536	-0.0007	-0.0005	0.0319	-0.0180	0.0087	-0.0310	-0.0104	0.0459	0.0166	-0.0516	-0.0563	-0.0493	-0.1459	-0.0716	-0.0040	-0.0616	-0.0900	-0.0786	-0.0263	-0.0803	0.0548	-0.0479	-0.0208	-0.0735	0.1637	-0.0273	-0.0112	-0.0169	0.1439	-0.0361	-0.0211	-0.0072	0.0369	-0.0101	0.0165	0.0678	0.0693	0.0085	-0.0543	0.0980	0.0560	0.0003	-0.0919	0.0475	-0.0092	-0.0063	-0.0566	-0.0219	-0.0662	0.0165	0.0026	-0.0005	0.0439	-0.0305	-0.0266	-0.0148	0.0195	-0.0159	-0.0312	-0.0073	-0.0008	0.0091	0.0047	0.0164	0.0111	-0.0017	0.0431	0.0220	0.0283	-0.0310	0.0384	0.0343	-0.0237	0.0527	-0.0629	-0.0054	0.0125	0.0356	-0.0506	-0.0143	0.0540	-0.0053	-0.0535	0.0135	0.0881	-0.0498	-0.0644	0.0552	0.1041	-0.0793	-0.0623	-0.0622	-0.0915	-0.0658	0.0241	-0.0893	-0.0347	-0.1063	-0.0183	-0.0988	0.0703	-0.1017	-0.0310	-0.0631	0.1275	-0.0719	-0.0378	0.0177	0.0861	-0.0381	-0.0590	-0.0174	0.0926	0.0289	0.0276	0.0463	0.0975	0.0297	-0.0081	0.0796	0.0219	0.0124	-0.0310	0.0530	-0.0768	-0.0005	-0.0122	0.0024	-0.1082	0.0041	0.0115	-0.0008	0.0085	-0.0177	-0.0160	-0.0159	-0.0389	0.0130	-0.0120	-0.0173	-0.0477	0.0396	0.0059	-0.0035	-0.0025	0.0266	0.0075	0.0069	0.0373	-0.0054	-0.0128	0.0203	-0.0301	0.0841	-0.1105	0.0137	0.0359	0.0479	-0.1271	0.0190	0.1051	-0.0034	-0.1292	0.0359	0.1562	-0.0521	-0.1073	0.0527	0.1751	-0.0867	-0.0555	-0.0041	-0.0064	-0.0494	0.0337	-0.0229	0.0182	-0.0759	0.0098	-0.0296	0.0448	-0.0715	-0.0045	-0.0092	0.0344	-0.0404	-0.0245	0.0292	-0.0131	0.0014	-0.0539	-0.0182	0.0683	0.0355	0.0183	0.0116	0.0540	0.0209	0.0242	0.0292	-0.0162	0.0015	0.0249	0.0244	-0.0755	-0.0125	0.0257	0.0077	-0.0659	-0.0211	0.0118	0.0084	-0.0328	0.0038	0.0012	-0.0102	-0.0717	0.0357	0.0053	-0.0240	-0.0573	0.0513	-0.0036	-0.0246	-0.0009	0.0347	-0.0260	-0.0144	0.0355	0.0055	-0.0364	0.0406	0.0184	-0.0299	-0.0969	0.0214	0.0266	-0.0216	-0.0249	-0.0271	-0.0004	-0.0024	0.0494	-0.0824	-0.0261	0.0223	0.0813	-0.0954	-0.0290	0.0522	0.0763	-0.0806	-0.0143	-0.0196	-0.0024	-0.0467	-0.0796	-0.0877	-0.0023	-0.0170	-0.0897	-0.0643	-0.0212	-0.0261	-0.0181	-0.0020	-0.0511	-0.0443	0.0761	0.0124	-0.0428	-0.0932	0.0152	0.0302	-0.0011	-0.0581	-0.0120	0.0575	0.0068	0.0584	0.0050	0.0990	0.0154	0.0687	0.0357	0.0916	-0.0167	-0.0265	0.0254	0.0432	-0.0528	-0.0193	0.0152	0.0176	0.0431	-0.0440	-0.0055	-0.0413	0.0098	-0.0437	0.0216	-0.0368	-0.0121	-0.0240	0.0470	0.0375	0.0014	-0.0200	0.0134	0.0406	0.0166	0.0359	0.0385	-0.0012	-0.0836	0.0401	0.0382	0.0012	-0.0156	0.0188	0.0128	-0.0024	0.0458	-0.0228	-0.0027	-0.0056	0.0639	-0.0428	0.0040	0.0052	0.0514	0.0035	0.0210	0.0248	-0.0268	0.0267	-0.0505	-0.0384	-0.0236	0.0295	-0.0422	-0.0521	-0.0363	-0.0073	0.0419	-0.0380	-0.0678	-0.0353	0.1130	-0.0471	-0.0811	-0.1104	-0.0281	0.0638	0.0119	-0.0908	-0.0016	0.0723	0.0285	0.0342	0.0690	0.0845	0.0356	0.0651	0.0904	0.0584	0.0148	-0.0118	0.0148	0.0143	-0.0157	0.0338	-0.0123	0.0257	0.0273	-0.0061	-0.0452	-0.0202	-0.0438	-0.0149	-0.0365	-0.0063	-0.0823	0.0178	-0.0045	0.0564	-0.0437	0.0308	-0.0071	0.0372	-0.0007	0.0048	0.0137	0.0225	-0.0295	0.0318	0.0040	0.0278	0.0175	0.0449	-0.0019	0.0086	0.0321	0.0265	0.0159	-0.0177	0.0041	0.0050	0.0488	-0.0260	-0.0297	0.0624	0.0013	0.0870	-0.0590	0.0751	-0.0497	0.0262	-0.0181	0.0576	-0.0179	-0.0211	0.0122	-0.0013	0.0559	-0.0444	-0.0085	-0.0462	0.0771	-0.0660	-0.0614	-0.0941	-0.0712	-0.0223	0.0202	-0.0921	0.0031	-0.0410	0.0136	0.0307	0.1011	-0.0509	0.0197	0.0766	0.1065	-0.0680	0.0355	0.0161	0.0019	-0.0748	0.0297	0.0489	-0.0054	0.0343	0.0001	0.0071	-0.0506	-0.0098	-0.0697	-0.0005	-0.0695	-0.0016	-0.0851	0.0415	-0.0287	0.0412	-0.0227	0.0540	0.0073	0.0117	0.0157	-0.0404	-0.0359	0.0133	0.0263	-0.0029	-0.0512	0.0287	0.0494	0.0333	-0.0319	0.0100	0.0150	0.0341	0.0238	-0.0205	-0.0586	0.0161	0.0861	-0.0351	-0.1124	0.0272	-0.0414	0.1224	-0.0530	0.0301	-0.0540	0.0505	0.0234	0.0194	-0.0062	-0.0117	0.1030	-0.0244	0.0433	-0.0367	0.1031	-0.0655	0.0186	-0.0436	0.0190	-0.0730	-0.0470	-0.0771	0.0006	-0.0817	0.0201	-0.1016	-0.0359	0.0277	0.0804	-0.1087	-0.0299	0.0746	0.0640	-0.1010	0.0288	0.0197	-0.0109	-0.0756	0.0643	0.0031	0.0494	0.0187	0.0082	-0.0313	-0.0116	-0.0239	-0.0221	-0.0372	-0.0554	-0.0182	-0.0058	0.0038	-0.0102	0.0165	0.0471	0.0159	0.0434	-0.0058	0.0475	-0.0665	-0.0762	-0.0085	0.0546	-0.0297	-0.0925	0.0166	0.0618	0.0073	-0.0553	0.0133	0.0058	0.0094	0.0242	-0.0018	-0.0825	-0.0079	0.1045	-0.0087	-0.1410	-0.0634	-0.0344	0.1003	-0.0329	-0.0558	-0.0203	0.0113	0.0483	-0.0283	0.0163	-0.0452	0.1516	-0.0217	0.0350	-0.0390	0.1736	-0.0388	-0.0073	-0.0044	0.0899	-0.0624	0.0186	-0.0183	-0.0266	-0.0794	0.0242	-0.0294	-0.0671	0.0084	0.0100	-0.0220	-0.0637	0.0507	-0.0164	-0.0026	0.0077	0.0006	-0.0244	0.0193	0.0688	-0.0070	0.0717	-0.0026	0.0215	-0.0312	0.0035	-0.0317	0.0217	-0.0424	-0.0417	-0.0199	0.0367	-0.0150	0.0056	0.0152	0.0533	-0.0032	0.0526	0.0035	0.0278	0.1000	-0.0399	0.0045	-0.0125	0.0067	-0.0265	-0.0020	-0.0469	-0.0435	0.0101	-0.0156	-0.0441	-0.0235	0.0178	-0.0407	-0.0118	0.0150	-0.0025	-0.0610	-0.0081	0.0689	-0.0765	-0.0148	0.0916	0.0241	-0.0910	0.0518	0.0175	-0.0356	-0.0357	0.0389	0.0149	-0.0611	0.0268	-0.0049	0.0692	-0.0637	0.0381	-0.0155	0.0724	0.0689	-0.0217	0.0834	0.0515	0.0252	0.0346	0.0902	-0.0016	-0.0758	0.0699	0.0396	-0.0789	-0.0429	0.0531	0.0204	-0.0377	0.0503	0.0119	0.0494	0.0571	-0.0150	0.0559	-0.0578	0.0264	-0.0230	0.0832	0.0471	0.0267	-0.0647	0.0049	0.0538	0.0112	-0.0686	-0.0485	-0.0393	0.0189	-0.0222	0.0042	-0.0420	0.0502	0.0829	-0.0084	0.0104	0.0210	-0.0038	0.0082	0.0024	-0.0066	-0.0393	0.0441	-0.0038	-0.0042	0.0011	0.0441	-0.0181	0.0202	0.0504	0.0134	-0.0354	0.0182	0.1072	-0.0348	-0.0426	0.0288	0.0538	0.0041	0.0190	-0.0420	-0.0017	0.0616	0.0044	-0.0361	-0.0017	0.0798	-0.0219	0.0272	0.0283	0.0531	0.0040	0.0447	0.0898	0.0326	0.1150	0.0045	0.0306	0.0929	0.1164	-0.0375	-0.0934	0.0553	0.0739	-0.0801	-0.0571	-0.0281	0.0733	-0.0253	0.0429	-0.0542	0.1017	0.0641	0.0262	0.0561	-0.0604	-0.0366	0.0488	0.0577	0.0476	0.0025	0.0246	-0.0373	0.0361	0.0265	-0.0051	-0.0901	-0.0494	0.0142	0.0052	-0.0274	-0.0114	0.0006	0.0610	-0.0013	0.0154	0.0470	-0.0140	0.0210	0.0054	0.0137	-0.0368	0.0532	0.0112	0.0070	0.0139	0.0425	0.0136	0.0228	0.0628	0.0008	0.0010	0.0256	0.1018	-0.0319	-0.0574	-0.0115	0.0447	0.0461	-0.0022	-0.0680	0.0025	0.0766	-0.0089	-0.0712	0.0292	0.0362	-0.0134	-0.0265	0.0790	-0.0097	0.0359	-0.0001	0.1286	0.0575	0.0092	0.0160	0.0706	0.0823	-0.0192	0.0009	-0.0624	-0.0147	-0.0543	-0.0158	-0.0280	-0.1059	-0.0325	-0.0055	0.0707	-0.0786	0.0011	0.0106	0.0343	-0.0169	-0.0177	-0.0673	0.0869	-0.0077	0.0748	-0.0049	0.0847	-0.0470	0.0270	0.0160	0.0417	-0.0629	-0.0619	-0.0330	0.0378	-0.0071	-0.0091	-0.0555	0.0429	-0.0332	0.0024	0.0487	-0.0254	-0.0078	-0.0096	0.0033	-0.0487	0.0216	0.0103	-0.0153	-0.0053	0.0076	0.0317	-0.0086	0.0317	-0.0348	0.0268	0.0011	0.0557	-0.0696	-0.0229	0.0346	-0.0058	0.0155	0.0241	0.0090	-0.0456	0.0100	0.0141	-0.0133	-0.0208	-0.0658	0.0055	-0.0140	0.0142	-0.0962	0.0420	-0.0055	0.1334	0.0482	-0.0699	0.0265	0.0802	0.0378	-0.1205	0.0467	-0.0462	-0.0511	-0.1454	0.0578	-0.0066	-0.0870	-0.1096	0.0186	0.0978	-0.0238	-0.0745	-0.0424	-0.0365	-0.0686	0.0262	-0.0195	0.0148	-0.0197	0.0950	0.0388	0.0229	0.0169	0.0129	0.0285	-0.0155	0.0181	-0.0784	-0.0381	-0.0086	0.0334	-0.0212	-0.0346	0.0374	-0.0756	-0.0122	0.0381	-0.0309	-0.0518	-0.0232	-0.0122	-0.0639	-0.0257	0.0069	-0.0379	-0.0373	-0