0.3610	4.3103	2.8292	1.8838	1.4003	1.4026	1.5767	1.4785	0.5504	-1.0912	4.2113	2.9752	-0.2058	2.9545	1.6166	-0.0112	2.0052	0.1941	1.6519	3.4597	2.6424	0.6335	1.2314	0.6514	-0.0971	1.7954	1.2740	2.9458	3.9017	4.3503	2.8308	2.1508	2.1816	3.3390	0.5552	0.8846	0.0227	0.0506	0.0589	0.0021	0.4342	-0.0572	0.0067	0.1425	0.0429	-0.0786	-0.1719	-0.1268	-0.8233	-0.2294	0.0100	0.0968	-0.3324	-0.6381	1.4299	0.1271	0.2694	-0.5329	-0.4510	0.3157	0.0878	0.0129	-0.2315	-0.4508	-0.0127	-0.6463	-0.1186	0.1339	-0.3588	0.0384	-0.1701	0.2330	0.6174	-0.0167	-0.1113	-0.5363	-0.0678	-0.0466	-0.5575	0.0530	-0.1090	0.3623	0.0249	0.1563	-0.7788	0.1465	-0.0560	-0.3323	-0.1346	0.0249	-0.1349	-0.1357	0.1856	0.1694	-0.0508	0.1187	0.6778	-0.3398	-0.4187	0.5323	-0.0000	0.3328	-0.5758	0.1181	-0.1889	-0.1327	-0.0536	-0.3036	-0.3521	-0.2602	-0.0221	0.1631	-0.1431	0.0809	0.4349	0.0250	-0.0858	0.0497	0.0633	0.0538	0.2094	0.0978	-0.2505	0.2948	-0.0404	-0.0341	-0.0921	-0.0957	-0.1287	0.0220	-0.0647	-0.1712	0.2663	-0.1465	-0.0073	0.1854	-0.0862	0.0136	0.2182	-0.0057	0.1576	0.1554	-0.0211	-0.1235	-0.2751	-0.1208	-0.0795	-0.1680	-0.0827	0.1413	0.0318	0.0701	0.1206	0.1934	0.0239	0.1179	0.0038	0.0033	0.0196	-0.0027	-0.0072	0.0095	-0.0076	0.0068	-0.0004	0.0022	-0.0211	0.0059	0.0001	-0.0006	0.0012	0.0006	0.0007	-0.0005	-0.0015	0.0002	0.0011	0.0005	-0.0015	-0.0002	-0.0001	0.0014	0.0002	0.0007	-0.0012	0.0014	-0.0017	0.0005	-0.0015	0.0006	-0.0010	0.0003	-0.0253	0.2415	0.0507	0.1357	0.2449	0.2960	0.0894	0.2352	0.2241	0.0551	0.0507	0.0885	0.0089	-0.0075	-0.0043	-0.0063	-0.0003	-0.0027	-0.0544	0.0059	0.0094	-0.0090	-0.0130	-0.0037	-0.0002	-0.0005	-0.0001	0.0010	0.0023	0.0010	-0.0027	-0.0026	0.0003	0.0006	0.0005	-0.0010	-0.0021	0.0016	-0.0029	0.0004	-0.0030	0.0001	-0.0021	0.0000	-0.0003	-0.0011	0.0003	-0.0004	0.2303	0.2830	0.1696	0.2697	0.3230	0.1596	0.0384	0.1374	0.0076	-0.1209	-0.0555	-0.1162	0.0017	-0.0010	-0.0213	-0.0028	-0.0093	0.0062	-0.0090	0.0054	-0.0007	-0.0033	0.0123	0.0001	0.0002	0.0001	-0.0008	-0.0003	0.0007	0.0013	-0.0011	-0.0006	-0.0005	0.0005	0.0012	0.0001	-0.0014	0.0001	-0.0023	-0.0001	0.0005	-0.0006	0.0011	-0.0001	0.0009	0.0001	0.0020	0.0005	0.3940	0.3767	0.1710	0.3289	0.3143	0.1956	0.0758	0.1730	0.1385	0.0318	0.0390	0.0557	-0.0023	-0.0023	-0.0076	0.0014	0.0048	-0.0103	-0.0075	0.0015	0.0035	-0.0072	0.0041	-0.0037	0.0010	-0.0000	-0.0008	-0.0015	0.0000	0.0004	0.0000	-0.0004	-0.0005	0.0001	0.0008	-0.0002	-0.0008	0.0002	-0.0014	-0.0001	-0.0005	-0.0004	-0.0001	0.0000	0.0004	-0.0005	0.0003	-0.0002	0.3175	0.1893	0.1216	0.1964	0.1609	-0.0174	0.0094	0.0046	-0.0313	-0.1345	-0.0168	-0.0803	-0.0097	0.0014	-0.0068	0.0058	-0.0043	-0.0040	0.0054	0.0041	-0.0029	-0.0036	0.0094	-0.0003	0.0001	0.0004	-0.0008	-0.0007	-0.0007	0.0004	0.0004	0.0001	-0.0012	-0.0001	0.0008	0.0006	0.0003	-0.0003	0.0002	0.0000	0.0009	-0.0004	0.0016	0.0002	0.0010	-0.0005	0.0011	-0.0000	0.1652	0.0751	0.0308	0.0711	-0.0018	-0.0833	-0.0687	-0.0854	-0.1391	-0.1553	-0.0744	-0.1349	-0.0051	0.0014	0.0032	0.0050	0.0011	-0.0027	0.0098	0.0022	0.0003	0.0006	0.0013	0.0019	0.0002	0.0001	-0.0003	-0.0004	-0.0004	0.0002	0.0005	0.0006	0.0001	-0.0000	0.0001	-0.0001	0.0005	-0.0002	0.0007	0.0000	0.0007	-0.0002	0.0013	0.0001	0.0003	-0.0002	0.0008	0.0000	0.2101	0.1517	0.0210	0.1167	0.0033	-0.1014	-0.0930	-0.1140	-0.1861	-0.1721	-0.0709	-0.1569	-0.0039	0.0028	-0.0088	0.0060	0.0029	-0.0020	0.0058	-0.0020	-0.0016	0.0032	0.0117	-0.0005	0.0007	0.0006	-0.0011	-0.0002	0.0002	0.0008	0.0007	-0.0002	-0.0004	-0.0001	0.0006	0.0005	-0.0001	-0.0002	0.0001	-0.0001	0.0006	-0.0002	0.0017	0.0001	0.0007	0.0002	0.0009	0.0002	0.1813	0.1420	0.0116	0.0922	-0.0368	0.0784	-0.0610	-0.0266	-0.0752	0.1909	-0.0416	0.0368	-0.0027	0.0086	0.0126	0.0056	0.0043	0.0027	0.0397	-0.0017	-0.0006	0.0076	0.0001	0.0039	0.0012	0.0001	-0.0004	-0.0003	0.0002	-0.0006	0.0012	0.0012	0.0013	-0.0000	-0.0010	0.0005	0.0006	0.0001	0.0006	-0.0000	0.0007	0.0014	0.0004	0.0004	-0.0016	0.0021	-0.0014	0.0008	0.1665	0.1984	0.0569	0.1335	0.1200	0.2994	0.1176	0.2135	0.3028	0.4417	0.1411	0.3360	0.0019	0.0020	0.0163	0.0021	0.0112	-0.0070	0.0103	-0.0058	0.0056	0.0018	-0.0108	0.0010	0.0002	-0.0004	0.0003	0.0006	-0.0007	-0.0009	0.0008	0.0016	0.0017	-0.0002	-0.0012	-0.0007	0.0000	0.0007	-0.0003	0.0003	-0.0014	0.0013	-0.0025	0.0004	-0.0018	0.0008	-0.0026	-0.0001	0.0804	0.0444	0.0909	0.0920	0.1684	0.1797	0.1598	0.2061	0.2765	0.3123	0.1662	0.2729	0.0058	-0.0068	-0.0012	-0.0078	0.0028	-0.0016	0.0100	-0.0073	-0.0004	-0.0000	0.0073	-0.0027	-0.0015	-0.0001	0.0009	0.0011	0.0001	-0.0008	0.0007	-0.0009	0.0002	-0.0004	0.0001	-0.0003	-0.0000	-0.0005	-0.0009	-0.0002	0.0002	-0.0001	-0.0014	-0.0004	-0.0003	0.0006	-0.0014	0.0000	-0.0667	-0.1510	0.0182	-0.0705	0.0185	0.0385	0.1413	0.1047	0.2263	0.2725	0.1752	0.2570	-0.0005	-0.0037	-0.0031	-0.0040	-0.0014	0.0036	0.0148	-0.0065	-0.0059	0.0039	0.0069	0.0008	-0.0013	0.0001	0.0008	0.0003	-0.0006	-0.0010	0.0010	-0.0001	0.0002	-0.0007	-0.0003	-0.0005	0.0005	-0.0006	0.0005	-0.0000	0.0007	-0.0001	-0.0009	-0.0003	-0.0001	0.0005	-0.0014	0.0000	-0.1861	-0.1758	-0.0624	-0.1500	-0.0758	0.0165	0.0940	0.0557	0.1961	0.2262	0.1657	0.2339	0.0026	-0.0026	0.0022	-0.0040	0.0005	0.0016	-0.0073	-0.0038	-0.0039	0.0033	-0.0029	-0.0012	-0.0013	0.0001	0.0008	0.0014	-0.0002	-0.0006	0.0001	-0.0002	0.0012	-0.0006	-0.0005	-0.0022	0.0002	0.0000	0.0004	0.0003	-0.0006	0.0002	-0.0015	0.0000	-0.0003	0.0001	-0.0015	-0.0003	0.1697	-0.1233	0.1217	0.0614	0.1459	-0.0147	0.1176	0.1321	0.0469	0.0372	-0.0465	-0.0260	0.0190	-0.0259	-0.0211	-0.0090	0.0010	-0.0007	0.0594	-0.0185	-0.0066	-0.0005	0.0208	-0.0055	-0.0018	-0.0002	0.0018	-0.0007	-0.0010	-0.0017	0.0024	-0.0010	-0.0001	0.0006	0.0007	-0.0001	-0.0002	-0.0027	-0.0001	-0.0009	0.0041	-0.0022	0.0003	-0.0022	0.0009	0.0009	0.0011	0.0003	-0.2136	-0.1882	-0.2218	-0.3394	-0.2908	-0.2044	0.0580	-0.1309	0.0603	0.0816	0.0521	0.1187	-0.0265	0.0218	-0.0151	0.0169	-0.0056	0.0085	-0.0196	0.0225	-0.0044	-0.0007	0.0187	0.0031	-0.0017	0.0031	-0.0013	0.0048	-0.0011	-0.0014	-0.0006	0.0016	-0.0004	-0.0014	-0.0006	0.0000	-0.0002	0.0028	0.0035	0.0031	-0.0012	0.0009	-0.0002	0.0015	0.0011	-0.0007	-0.0009	-0.0010	0.2494	0.5075	-0.0911	0.2443	-0.0021	0.1085	-0.1388	-0.0720	-0.0427	-0.1108	0.0369	-0.0524	0.0070	-0.0064	0.0168	0.0028	0.0128	-0.0067	-0.0795	-0.0088	-0.0010	0.0117	-0.0193	0.0082	0.0031	-0.0003	-0.0019	-0.0013	0.0023	0.0040	-0.0016	-0.0010	0.0009	0.0002	-0.0003	-0.0006	-0.0014	0.0016	-0.0020	-0.0006	-0.0049	0.0014	-0.0009	0.0014	-0.0004	-0.0003	0.0007	0.0004	0.0212	0.0814	0.0329	0.0742	0.0140	0.1698	-0.1538	-0.0031	-0.3316	-0.1015	-0.3654	-0.3873	0.0146	-0.0028	0.0188	-0.0048	-0.0116	0.0301	0.0591	0.0007	-0.0079	0.0142	-0.0109	0.0144	-0.0004	-0.0010	0.0011	0.0014	0.0021	0.0002	-0.0006	0.0013	0.0016	0.0026	-0.0014	0.0022	0.0001	-0.0002	-0.0011	-0.0004	0.0027	0.0012	0.0012	-0.0005	-0.0019	0.0037	0.0024	0.0027	-0.0077	-0.0735	0.0489	-0.0294	0.1362	0.1068	0.2222	0.2480	0.2788	0.2820	-0.0118	0.2317	-0.0008	-0.0108	-0.0262	-0.0001	0.0182	-0.0169	0.0229	0.0010	0.0145	-0.0231	0.0374	-0.0155	-0.0012	0.0005	0.0002	-0.0001	0.0001	-0.0037	0.0014	-0.0023	0.0016	-0.0013	0.0006	-0.0033	-0.0012	0.0001	-0.0000	0.0007	0.0003	-0.0016	-0.0023	-0.0015	0.0010	-0.0012	-0.0014	-0.0024	0.0087	-0.0120	-0.0922	-0.0511	-0.0946	-0.2383	0.0121	-0.1486	0.0228	-0.2023	0.1176	-0.0123	-0.0044	-0.0004	-0.0170	-0.0001	-0.0063	0.0010	-0.0553	-0.0041	-0.0120	0.0141	0.0235	0.0110	-0.0002	0.0014	-0.0011	0.0008	-0.0014	0.0024	-0.0003	0.0006	-0.0015	-0.0014	0.0006	0.0008	-0.0003	-0.0002	0.0004	0.0000	-0.0013	-0.0005	0.0009	0.0010	0.0030	-0.0017	0.0018	-0.0005	-0.1555	0.0071	-0.1640	-0.1495	-0.2090	-0.0475	-0.0318	-0.0845	0.0106	0.1578	0.0662	0.1229	-0.0113	0.0115	-0.0032	0.0143	0.0160	-0.0050	-0.0251	0.0014	-0.0009	0.0064	0.0074	-0.0039	0.0011	0.0008	-0.0016	0.0009	-0.0011	0.0001	0.0002	0.0029	0.0007	-0.0006	-0.0003	-0.0004	-0.0009	0.0022	0.0009	0.0014	-0.0025	0.0008	-0.0015	0.0010	-0.0002	0.0006	-0.0016	-0.0002	0.2824	0.2436	-0.0404	0.1582	-0.0346	-0.2179	-0.0091	-0.1329	0.0086	0.0921	0.1926	0.1774	-0.0077	-0.0056	-0.0514	0.0118	0.0351	-0.0280	-0.0189	-0.0237	-0.0115	0.0122	0.0397	-0.0084	0.0015	0.0017	-0.0037	-0.0013	-0.0027	0.0012	0.0038	0.0022	0.0005	-0.0022	0.0007	-0.0022	-0.0020	-0.0005	-0.0007	-0.0003	-0.0013	-0.0013	0.0002	0.0002	0.0022	0.0000	-0.0013	-0.0010	0.3350	0.0844	-0.0651	0.0548	-0.2954	-0.2810	-0.1272	-0.3160	-0.0826	0.1207	0.1948	0.1923	-0.0199	0.0230	0.0079	0.0157	0.0161	-0.0235	0.0300	-0.0132	-0.0086	0.0109	-0.0215	0.0042	0.0018	0.0016	-0.0021	-0.0005	-0.0034	-0.0000	0.0042	0.0032	-0.0002	-0.0015	-0.0018	-0.0001	0.0025	-0.0011	0.0031	-0.0005	-0.0001	0.0017	0.0016	0.0017	-0.0011	0.0001	-0.0034	-0.0003	-0.3986	-0.1003	0.0836	-0.0683	0.2820	0.3284	0.0815	0.3106	0.0900	-0.1682	-0.1506	-0.1747	0.0225	-0.0164	0.0229	-0.0135	-0.0156	0.0121	-0.0484	0.0170	0.0237	-0.0189	-0.0057	-0.0122	-0.0019	-0.0028	0.0032	0.0014	0.0040	0.0002	-0.0052	-0.0044	-0.0008	0.0020	0.0024	0.0011	-0.0015	0.0016	-0.0029	0.0006	-0.0014	-0.0012	-0.0022	-0.0015	-0.0001	-0.0012	0.0024	0.0001	-0.1681	0.0055	0.0660	0.0117	0.2257	-0.1086	0.0403	0.0106	-0.1953	-0.1402	-0.1337	-0.2146	-0.0088	-0.0092	-0.0778	-0.0066	-0.0075	0.0295	-0.0006	0.0153	-0.0187	0.0048	0.0958	-0.0014	-0.0025	0.0019	-0.0021	0.0019	0.0006	0.0009	-0.0007	0.0011	-0.0022	-0.0014	0.0027	0.0024	-0.0038	0.0009	-0.0030	0.0012	0.0025	-0.0024	0.0029	-0.0005	0.0042	0.0022	0.0030	0.0008	0.0479	0.0754	-0.0162	0.0444	-0.1096	-0.0130	-0.0764	-0.1146	-0.0277	0.3120	0.0715	0.2232	-0.0077	0.0158	-0.0131	0.0019	0.0153	-0.0071	0.0478	-0.0022	0.0007	0.0028	-0.0052	0.0051	0.0011	0.0010	-0.0016	0.0001	-0.0002	-0.0012	0.0029	0.0014	0.0006	-0.0015	-0.0021	0.0008	0.0000	-0.0001	-0.0001	-0.0002	0.0003	0.0018	0.0009	0.0010	-0.0018	0.0011	-0.0039	-0.0004	-0.3905	0.1140	0.0688	0.0391	0.2548	0.0453	-0.0567	0.0611	-0.1428	0.0165	-0.0542	-0.0608	-0.0088	-0.0123	-0.0211	0.0071	0.0400	-0.0109	-0.0649	0.0006	-0.0100	0.0093	0.0868	-0.0242	0.0001	-0.0025	-0.0018	-0.0016	0.0001	0.0022	-0.0006	0.0029	0.0006	-0.0010	0.0028	-0.0014	-0.0036	0.0031	-0.0045	0.0011	-0.0029	-0.0030	-0.0007	-0.0007	0.0036	0.0018	0.0009	-0.0005	0.0921	0.0375	0.1248	0.1744	-0.0792	-0.2512	-0.1369	-0.3523	-0.0738	0.1880	0.2221	0.2978	-0.0189	0.0325	-0.0511	-0.0101	0.0095	-0.0109	0.0774	-0.0042	-0.0113	-0.0024	-0.0302	0.0261	-0.0005	0.0024	-0.0032	0.0016	-0.0001	-0.0002	0.0060	-0.0006	-0.0023	-0.0035	-0.0039	0.0024	0.0008	-0.0026	-0.0017	-0.0017	0.0020	0.0029	0.0055	0.0026	-0.0017	-0.0007	-0.0051	-0.0008	-0.1833	-0.0789	0.1305	0.0240	0.0750	0.2591	-0.0985	0.1154	0.0725	-0.2377	0.0076	-0.1454	0.0131	0.0090	0.0557	0.0051	-0.0061	-0.0348	-0.0166	-0.0121	0.0130	0.0130	-0.1043	-0.0090	0.0022	-0.0043	0.0022	-0.0030	-0.0027	0.0010	-0.0017	0.0017	0.0036	0.0048	-0.0006	-0.0041	0.0015	-0.0001	-0.0007	-0.0008	-0.0018	0.0009	-0.0026	-0.0004	-0.0032	-0.0017	0.0017	0.0008	0.2495	-0.1514	0.1173	0.0600	-0.0121	-0.0854	0.0454	-0.0253	-0.0904	0.0974	-0.1440	-0.0836	-0.0044	0.0069	0.0041	-0.0088	-0.0003	0.0001	0.0941	-0.0039	-0.0122	0.0144	0.0331	-0.0039	-0.0002	0.0006	0.0010	-0.0018	-0.0016	-0.0029	0.0037	0.0008	0.0009	0.0009	-0.0001	0.0010	0.0030	-0.0033	0.0021	-0.0016	0.0043	0.0001	0.0019	-0.0005	0.0009	0.0024	0.0009	0.0008	-0.2686	0.1331	0.0118	0.0481	0.1095	0.0423	-0.1296	-0.0745	-0.0006	-0.0798	0.2260	0.1529	0.0025	0.0087	0.1164	-0.0142	0.0151	-0.0302	-0.2012	0.0148	0.0161	0.0036	0.0959	-0.0243	0.0009	-0.0044	0.0029	-0.0006	0.0015	0.0061	-0.0054	-0.0013	-0.0021	-0.0041	0.0048	0.0008	0.0032	0.0022	-0.0016	-0.0010	-0.0100	0.0000	-0.0018	0.0024	0.0051	-0.0024	-0.0008	-0.0026	-0.1872	-0.1534	0.3437	0.1365	0.2598	-0.0584	-0.2432	-0.1597	-0.3329	0.1719	0.1703	0.1343	0.0071	-0.0020	-0.0356	-0.0056	0.0036	0.0040	0.1241	-0.0114	-0.0028	-0.0035	-0.0277	0.0023	-0.0018	-0.0024	0.0007	-0.0008	0.0003	0.0002	0.0043	0.0009	-0.0015	-0.0021	-0.0014	0.0017	-0.0012	-0.0017	-0.0037	-0.0006	0.0065	-0.0004	0.0062	-0.0009	-0.0037	0.0027	-0.0055	0.0012	0.0287	-0.2571	0.0788	-0.1029	0.2086	-0.1930	0.3137	0.2002	0.1889	-0.2577	-0.0156	-0.1257	-0.0098	-0.0161	-0.0628	0.0059	-0.0119	0.0092	-0.0032	0.0030	-0.0129	-0.0059	0.0580	-0.0129	-0.0020	0.0016	-0.0004	-0.0011	-0.0021	-0.0018	-0.0000	-0.0009	-0.0013	0.0004	0.0033	-0.0021	-0.0015	-0.0010	0.0013	0.0011	0.0035	-0.0048	0.0001	-0.0024	0.0050	-0.0016	0.0049	-0.0007	0.0457	0.3071	-0.2183	0.0731	-0.2104	0.1706	-0.1117	-0.0250	-0.0536	0.2387	-0.1617	0.0524	0.0147	-0.0102	0.0196	-0.0082	0.0322	-0.0047	-0.0216	-0.0084	0.0147	-0.0099	-0.0097	0.0039	0.0028	0.0001	-0.0012	-0.0010	0.0043	-0.0000	-0.0000	-0.0024	0.0021	-0.0003	-0.0020	-0.0001	-0.0009	0.0008	-0.0017	-0.0013	-0.0042	0.0020	-0.0029	0.0004	-0.0024	0.0009	-0.0024	-0.0005	0.1644	-0.2633	0.1021	-0.0355	0.0436	-0.2213	0.1406	0.0236	0.1303	-0.1917	0.0930	0.0036	-0.0041	-0.0015	-0.0056	0.0073	-0.0102	-0.0173	0.0094	-0.0073	-0.0034	0.0039	0.0205	-0.0026	-0.0002	-0.0003	0.0009	-0.0025	-0.0031	-0.0012	0.0012	-0.0011	0.0001	-0.0007	0.0013	-0.0024	0.0021	-0.0028	0.0028	-0.0007	0.0024	-0.0024	0.0005	-0.0013	0.0030	-0.0025	0.0021	-0.0013	-0.1142	0.0123	0.2012	0.1539	0.1713	-0.1487	-0.1661	-0.2324	-0.0541	-0.1599	0.3944	0.1993	-0.0040	0.0104	0.0454	-0.0151	-0.0063	-0.0184	-0.0783	0.0009	0.0050	-0.0038	0.0070	0.0055	-0.0021	-0.0026	0.0015	0.0014	-0.0014	0.0055	-0.0006	0.0008	-0.0037	-0.0043	0.0016	0.0012	0.0025	-0.0007	-0.0023	-0.0014	-0.0028	0.0006	0.0035	0.0025	0.0013	-0.0027	-0.0026	-0.0012	-0.2935	-0.0918	0.2091	0.0342	0.1575	0.1758	-0.1707	0.0434	-0.2010	0.1951	-0.0429	0.0096	0.0018	-0.0040	-0.0346	0.0045	0.0305	-0.0214	0.1239	-0.0077	0.0098	-0.0035	-0.0815	-0.0202	-0.0003	-0.0022	-0.0002	-0.0017	0.0001	-0.0034	0.0039	0.0015	0.0036	0.0028	-0.0019	-0.0037	-0.0026	0.0007	-0.0032	0.0007	0.0037	-0.0003	0.0012	-0.0019	-0.0060	0.0027	-0.0039	0.0011	-0.0037	0.1948	-0.0264	0.1023	0.0415	-0.2563	0.0225	-0.1795	0.0453	-0.1384	0.1816	0.0904	-0.0167	0.0078	-0.0875	-0.0060	0.0170	-0.0172	-0.0533	-0.0011	-0.0099	-0.0009	0.0375	0.0006	0.0007	0.0035	-0.0047	0.0000	-0.0004	0.0021	0.0020	-0.0012	-0.0026	-0.0025	0.0013	0.0003	-0.0035	0.0005	-0.0029	0.0001	-0.0024	-0.0003	0.0022	0.0018	0.0034	-0.0021	0.0003	-0.0014	0.0709	0.1737	-0.3145	-0.1458	-0.2173	0.0495	0.1424	0.0902	0.2912	-0.2122	0.0150	-0.0484	-0.0107	0.0112	-0.0024	0.0097	-0.0100	-0.0086	-0.1111	0.0184	0.0182	-0.0025	-0.0284	-0.0076	0.0024	0.0032	-0.0021	0.0009	-0.0006	0.0001	-0.0046	-0.0005	0.0003	0.0023	0.0016	-0.0009	-0.0009	0.0027	0.0024	0.0016	-0.0059	0.0009	-0.0046	0.0013	0.0009	-0.0036	0.0029	-0.0009	0.2177	-0.2014	0.0794	-0.0132	0.0221	-0.0233	0.0313	0.0334	-0.1569	0.2011	-0.1544	-0.0212	0.0184	0.0019	0.1027	-0.0157	-0.0100	0.0115	-0.0029	0.0157	-0.0096	-0.0042	0.1308	-0.0177	-0.0011	-0.0021	0.0059	0.0003	0.0006	-0.0008	-0.0016	-0.0005	0.0000	-0.0028	0.0027	-0.0000	0.0062	-0.0028	0.0038	-0.0018	0.0007	-0.0008	0.0003	-0.0004	0.0039	0.0033	0.0002	-0.0005	-0.3049	0.1528	0.0412	0.0397	0.2261	0.0522	-0.2141	-0.0893	-0.0910	-0.1839	0.3200	0.1114	0.0153	-0.0281	0.0474	-0.0038	-0.0128	0.0086	-0.1244	0.0016	0.0073	0.0032	-0.0083	0.0127	-0.0018	-0.0040	0.0022	0.0013	0.0021	0.0072	-0.0050	-0.0004	-0.0021	-0.0034	0.0011	0.0007	-0.0018	0.0032	-0.0037	0.0009	-0.0039	-0.0005	0.0014	0.0010	0.0002	-0.0020	-0.0017	-0.0004	-0.0694	0.1419	-0.1672	-0.0655	0.1562	0.1723	-0.1961	0.1500	-0.2427	0.1706	-0.0146	0.0952	0.0804	-0.0904	-0.0545	-0.0138	0.0099	-0.0016	-0.0240	-0.0066	0.0477	-0.0332	0.0431	-0.0413	-0.0003	-0.0006	0.0032	-0.0005	0.0085	0.0000	-0.0045	-0.0105	0.0005	-0.0027	0.0037	-0.0011	-0.0087	0.0015	-0.0040	0.0013	-0.0000	-0.0037	-0.0017	-0.0048	-0.0016	0.0005	-0.0051	-0.0019	0.1271	-0.0393	-0.2184	-0.3221	-0.0498	0.1815	-0.1719	-0.0302	-0.2335	-0.0317	0.1601	-0.0592	0.0275	0.0041	0.0340	-0.0193	-0.1284	0.1047	0.0113	0.0820	0.0060	0.0212	-0.0518	0.0139	-0.0040	0.0051	0.0063	0.0104	0.0042	0.0011	-0.0121	-0.0001	-0.0018	0.0008	0.0004	0.0054	-0.0002	0.0035	0.0052	0.0044	0.0048	0.0036	0.0045	0.0016	-0.0040	0.0028	-0.0014	0.0037	0.1944	-0.0928	-0.0938	-0.1559	0.3340	-0.1868	0.0700	0.1396	-0.1601	-0.0302	0.1893	0.0868	0.0410	-0.0868	-0.0032	-0.0325	-0.0294	0.0646	-0.0173	0.0316	0.0087	-0.0386	0.0690	-0.0294	-0.0053	0.0017	0.0063	0.0013	0.0059	-0.0000	-0.0055	-0.0056	-0.0043	-0.0039	0.0048	-0.0003	-0.0027	0.0008	0.0014	0.0017	0.0056	-0.0069	0.0033	-0.0043	0.0016	0.0006	-0.0025	-0.0008	-0.1291	0.2229	-0.0395	0.2282	-0.2022	0.1400	-0.0702	0.0321	0.0746	0.2302	-0.2472	0.0732	0.0012	-0.0108	0.0046	0.0023	0.1179	-0.0839	0.0355	-0.0569	0.0349	-0.0355	-0.0765	-0.0187	0.0053	-0.0039	-0.0042	-0.0080	0.0004	-0.0035	0.0085	-0.0008	0.0047	0.0022	-0.0031	-0.0053	-0.0005	-0.0016	-0.0048	-0.0040	-0.0053	-0.0002	-0.0062	-0.0016	-0.0050	-0.0016	-0.0036	-0.0024	-0.1905	0.0369	0.0617	0.0374	-0.3266	0.0278	0.0260	-0.2330	0.0640	0.0076	-0.2121	-0.2247	-0.0914	0.1175	0.0557	0.0316	0.0010	0.0087	0.0081	-0.0017	-0.0696	0.0694	-0.0145	0.0596	0.0034	0.0000	-0.0061	0.0008	-0.0086	0.0024	0.0042	0.0151	0.0021	0.0036	-0.0060	0.0032	0.0070	0.0016	0.0024	-0.0002	-0.0032	0.0071	0.0001	0.0068	0.0016	0.0035	0.0063	0.0038	-0.0459	-0.0531	0.2407	0.2423	0.0660	-0.2482	0.1502	-0.0707	0.2080	-0.0736	0.0240	0.1071	-0.0246	0.0250	-0.0687	0.0220	0.0561	-0.0808	-0.0376	-0.0512	-0.0037	-0.0017	0.1091	-0.0025	0.0035	-0.0020	-0.0060	-0.0063	-0.0041	0.0008	0.0074	-0.0023	0.0005	-0.0040	0.0020	-0.0031	-0.0002	-0.0038	-0.0033	-0.0029	-0.0035	-0.0014	-0.0011	0.0004	0.0071	-0.0035	0.0022	-0.0038	0.3199	-0.0974	-0.1024	-0.0554	-0.2531	0.2400	-0.0650	0.0706	0.0477	0.0434	-0.0856	0.0162	0.0468	0.0210	0.1564	-0.0382	-0.0313	-0.0335	-0.0463	0.0333	0.0511	-0.0103	-0.0054	-0.0384	0.0017	-0.0008	0.0084	0.0015	0.0009	-0.0025	-0.0059	-0.0043	0.0025	0.0014	0.0028	-0.0011	0.0082	-0.0032	0.0053	-0.0029	-0.0047	0.0035	-0.0041	0.0010	-0.0012	-0.0020	-0.0016	-0.0019	-0.2800	0.0922	0.0370	-0.0470	0.3095	-0.1212	-0.1180	-0.1050	-0.3440	0.1263	0.1078	0.0300	0.0013	-0.0552	0.0007	0.0107	-0.0101	0.0924	-0.0365	-0.0098	-0.0637	0.0096	0.0890	0.0514	-0.0042	-0.0029	0.0013	0.0015	0.0033	0.0077	-0.0017	0.0044	-0.0046	-0.0061	-0.0022	0.0043	-0.0043	0.0047	-0.0028	0.0031	0.0035	-0.0032	0.0053	-0.0005	0.0024	0.0055	-0.0006	0.0027	0.1646	-0.0736	-0.0228	-0.0333	-0.1373	0.0572	0.0710	0.0900	0.3061	-0.2381	0.0049	-0.0525	0.0007	0.0085	-0.0682	-0.0116	0.0035	-0.0537	0.1173	0.0123	0.0284	0.0161	-0.2153	-0.0225	0.0006	0.0043	-0.0011	-0.0003	-0.0029	-0.0080	0.0031	-0.0018	0.0049	0.0093	-0.0035	-0.0047	-0.0012	-0.0016	0.0010	0.0000	0.0025	0.0013	-0.0015	-0.0009	-0.0061	-0.0055	0.0004	-0.0007	-0.0000	0.0000	-0.0000	-0.0000	0.0000	-0.0000	0.0000	0.0000	0.0000	0.0000	0.0000	0.0000	0.0000	-0.0000	-0.0000	0.0000	0.0000	0.0000	0.0000	-0.0000	-0.0000	-0.0000	-0.0000	-0.0000	0.0000	-0.0000	-0.0000	0.0000	-0.0000	0.0000	0.0000	0.0000	0.0000	0.0000	-0.0000	-0.0000	-0.0000	-0.0000	-0.0000	0.0000	0.0000	-0.0000	-0.0000	0.0000	-0.0000	-0.0000	-0.0000	-0.0000	-0.0000	-0.0000	0.0000	0.0000	0.0000	-0.0000	0.0000	-0.0000	-0.0000	-0.0000	-0.0000	-0.0000	-0.0000	-0.0000	-0.0000	0.0000	-0.0000	-0.0000	0.0000	0.0000	-0.0000	0.0000	0.0000	0.0000	0.0000	-0.0000	-0.0000	-0.0000	0.0000	-0.0000	0.0000	-0.0000	0.0000	-0.0000	-0.0000	-0.0000	-0.0000	-0.0000	0.0000	-0.0000	-0.0000	0.0000	0.0000	0.0000	0.0000	0.0000	0.0000	-0.0000	0.0000	-0.0000	0.0000	0.0000	0.0000	0.0000	-0.0000	0.0000	-0.0000	0.0000	-0.0000	-0.0000	-0.0000	0.0000	0.0000	0.0000	0.0000	0.0000	0.0000	0.0000	0.0000	0.0000	-0.0000	-0.0000	-0.0000	0.0000	-0.0000	0.0000	0.0000	-0.0000	-0.0000	-0.0000	0.0000	0.0000	0.0000	-0.0000	0.0000	-0.0000	0.0000	0.0000	-0.0000	0.0000	0.0000	-0.0000	-0.0000	0.0000	-0.0000	-0.0000	-0.0000	0.0000	-0.0000	-0.0000	0.0000	-0.0000	0.0000	0.0000	0.0000	0.0000	0.0000	0.0000	0.0000	-0.0000	-0.0000	0.0000	0.0000	0.0000	0.0000	-0.0000	-0.0000	-0.0000	-0.0000	-0.0000	0.0000	-0.0000	-0.0000	0.0000	-0.0000	0.0000	0.0000	0.0000	0.0000	0.0000	-0.0000	-0.0000	-0.0000	-0.0000	-0.0000	0.0000	0.0000	-0.0000	-0.0000	0.0000	-0.0000	-0.0000	-0.0000	-0.0000	-0.0000	-0.0000	0.0000	0.0000	0.0000	-0.0000	0.0000	-0.0000	-0.0000	-0.0000	-0.0000	-0.0000	-0.0000	-0.0000	-0.0000	0.0000	-0.0000	-0.0000	0.0000	0.0000	-0.0000	0.0000	0.0000	0.0000	0.0000	-0.0000	-0.0000	-0.0000	0.0000	-0.0000	0.0000	-0.0000	0.0000	-0.0000	-0.0000	-0.0000	-0.0000	-0.0000	0.0000	-0.0000	-0.0000	0.0000	0.0000	0.0000	0.0000	0.0000	0.0000	-0.0000	0.0000	-0.0000	0.0000	0.0000	0.0000	0.0000	-0.0000	0.0000	-0.0000	0.0000	-0.0000	-0.0000	-0.0000	0.0000	0.0000	0.0000	0.0000	0.0000	0.0000	0.0000	0.0000	0.0000	-0.0000	-0.0000	-0.0000	0.0000	-0.0000	0.0000	0.0000	-0.0000	-0.0000	-0.0000	0.0000	0.0000	0.0000	-0.0000	0.0000	-0.0000	0.0000	0.0000	-0.0000	0.0000	0.0000	-0.0000	-0.0000	0.0000	-0.0000	-0.0000	-0.0000	0.0000	-0.0000	-0.0000	0.0000	-0.0000	0.0000	0.0000	0.0000	0.0000	0.0000	0.0000	0.0000	-0.0000	-0.0000	0.0000	0.0000	0.0000	0.0000	-0.0000	-0.0000	-0.0000	-0.0000	-0.0000	0.0000	-0.0000	-0.0000	0.0000	-0.0000	0.0000	0.0000	0.0000	0.0000	0.0000	-0.0000	-0.0000	-0.0000	-0.0000	-0.0000	0.0000	0.0000	-0.0000	-0.0000	0.0000	-0.0000	-0.0000	-0.0000	-0.0000	-0.0000	-0.0001	0.0000	0.0000	0.0000	-0.0000	0.0000	-0.0000	-0.0000	-0.0000	-0.0000	-0.0000	-0.0000	-0.0000	-0.0000	0.0000	-0.0000	-0.0000	0.0000	0.0000	-0.0000	0.0000	0.0000	0.0000	0.0000	-0.0000	-0.0000	-0.0000	0.0000	-0.0000	0.0000	-0.0000	0.0000	-0.0000	-0.0000	-0.0000	-0.0000	-0.0000	0.0000	-0.0000	-0.0000	0.0000	0.0000	0.0000	0.0000	0.0000	0.0000	-0.0000	0.0000	-0.0000	0.0000	0.0000	0.0000	0.0000	-0.0000	0.0000	-0.0000	0.0001	-0.0000	-0.0000	-0.0000	0.0000	0.0000	0.0000	0.0000	0.0000	0.0000	0.0000	0.0000	0.0000	-0.0000	-0.0000	-0.0000	0.0000	-0.0000	0.0000	0.0000	-0.0000	-0.0000	-0.0000	0.0000	0.0000	0.0000	-0.0000	0.0000	-0.0000	0.0000	0.0000	-0.0000	0.0000	0.0000	-0.0000	-0.0000	0.0000	-0.0000	-0.0000	-0.0000	0.0000	-0.0000	-0.0000	0.0000	-0.0000	0.0000	0.0000	0.0000	0.0000	0.0000	0.0000	0.0000	-0.0000	-0.0000	0.0000	0.0000	0.0000	0.0000	-0.0000	-0.0000	-0.0000	-0.0000	-0.0000	0.0000	-0.0000	-0.0000	0.0000	-0.0000	0.0000	0.0000	0.0000	0.0000	0.0000	-0.0000	-0.0000	-0.0000	-0.0000	-0.0000	0.0000	0.0000	-0.0000	-0.0000	0.0000	-0.0000	-0.0000	-0.0000	-0.0000	-0.0000	-0.0000	0.0000	0.0000	0.0000	-0.0000	0.0000	-0.0000	-0.0000	-0.0000	-0.0000	-0.0000	-0.0000	-0.0000	-0.0000	0.0000	-0.0000	-0.0000	0.0000	0.0000	-0.0000	0.0000	0.0000	0.0000	0.0000	-0.0000	-0.0000	-0.0000	0.0000	-0.0000	0.0000	-0.0000	0.0000	-0.0000	-0.0000	-0.0000	-0.0000	-0.0000	0.0000	-0.0000	-0.0000	0.0000	0.0000	0.0000	0.0000	0.0000	0.0000	-0.0000	0.0000	-0.0000	0.0000	0.0000	0.0000	0.0000	-0.0000	0.0000	-0.0000	0.0000	-0.0000	-0.0000	-0.0000	0.0000	0.0000	0.0000	0.0000	0.0000	0.0000	0.0000	0.0000	0.0000	-0.0000	-0.0000	-0.0000	0.0000	-0.0000	0.0000	0.0000	-0.0000	-0.0000	-0.0000	0.0000	0.0000	0.0000	-0.0000	0.0000	-0.0000	0.0000	0.0000	-0.0000	0.0000	0.0000	-0.0000	-0.0000	0.0000	-0.0000	-0.0000	0.0000	0.0000	-0.0000	-0.0000	-0.0000	-0.0000	-0.0000	-0.0000	-0.0000	0.0000	-0.0000	0.0000	0.0000	-0.0000	-0.0000	0.0000	0.0000	0.0000	0.0000	-0.0000	-0.0000	-0.0000	-0.0000	-0.0000	0.0000	-0.0000	-0.0000	0.0000	-0.0000	0.0000	0.0000	0.0000	0.0000	0.0000	-0.0000	-0.0000	-0.0000	-0.0000	-0.0000	0.0000	0.0000	-0.0000	-0.0000	0.0000	-0.0000	0.0000	-0.0000	-0.0000	0.0000	-0.0000	0.0000	0.0000	0.0000	-0.0000	0.0000	0.0000	0.0000	-0.0000	0.0000	-0.0000	-0.0000	-0.0000	-0.0000	0.0000	-0.0000	-0.0000	0.0000	-0.0000	-0.0000	0.0000	0.0000	0.0000	0.0000	-0.0000	-0.0000	-0.0000	0.0000	-0.0000	0.0000	-0.0000	0.0000	-0.0000	-0.0000	-0.0000	-0.0000	-0.0000	0.0000	-0.0000	-0.0000	0.0000	0.0000	-0.0000	0.0000	0.0000	0.0000	-0.0000	0.0000	-0.0000	0.0000	0.0000	0.0000	0.0000	-0.0000	-0.0000	-0.0000	0.0000	-0.0000	-0.0000	-0.0000	0.0000	0.0000	0.0000	0.0000	0.0000	0.0000	0.0000	0.0000	0.0000	-0.0000	-0.0000	-0.0000	0.0000	-0.0000	0.0000	0.0000	-0.0000	-0.0000	-0.0000	0.0000	0.0000	0.0000	-0.0000	0.0000	-0.0000	0.0000	0.0000	-0.0000	0.0000	0.0000	-0.0000	-0.0000	-0.0000	-0.0000	-0.0000	-0.0000	-0.0000	0.0000	0.0000	0.0000	0.0000	0.0000	0.0000	0.0000	-0.0000	0.0000	-0.0000	-0.0000	0.0000	0.0000	-0.0000	-0.0000	-0.0000	-0.0000	0.0000	0.0000	0.0000	0.0000	0.0000	-0.0000	0.0000	0.0000	-0.0000	0.0000	-0.0000	-0.0000	-0.0000	-0.0000	-0.0000	0.0000	0.0000	0.0000	0.0000	0.0000	-0.0000	-0.0000	0.0000	0.0000	-0.0000	0.0000	-0.0000	0.0000	0.0000	-0.0000	0.0000	-0.0000	-0.0000	-0.0000	0.0000	-0.0000	-0.0000	-0.0000	0.0000	-0.0000	0.0000	0.0000	0.0000	0.0000	-0.0000	0.0000	0.0000	-0.0000	0.0000	0.0000	-0.0000	-0.0000	-0.0000	-0.0000	0.0000	0.0000	0.0000	-0.0000	0.0000	-0.0000	0.0000	-0.0000	0.0000	0.0000	0.0000	0.0000	0.0000	-0.0000	0.0000	0.0000	-0.0000	-0.0000	0.0000	-0.0000	-0.0000	-0.0000	0.0000	-0.0000	0.0000	-0.0000	-0.0000	-0.0000	-0.0000	0.0000	0.0000	0.0000	-0.0000	0.0000	0.0000	0.0000	-0.0000	-0.0000	-0.0000	-0.0000	-0.0000	-0.0000	-0.0000	-0.0000	-0.0000	0.0000	0.0000	0.0000	-0.0000	0.0000	-0.0000	-0.0000	0.0000	0.0000	0.0000	-0.0000	-0.0000	-0.0000	0.0000	-0.0000	0.0000	-0.0000	-0.0000	0.0000	-0.0000	-0.0000	0.0000	0.0000	0.0000	0.0000	0.0000	-0.0000	-0.0000	0.0000	0.0000	0.0000	0.0000	0.0000	0.0000	0.0000	-0.0000	0.0000	-0.0000	-0.0000	0.0000	0.0000	-0.0000	-0.0000	-0.0000	-0.0000	0.0000	0.0000	0.0000	0.0000	0.0000	-0.0000	0.0000	0.0000	-0.0000	0.0000	-0.0000	-0.0000	-0.0000	-0.0000	-0.0000	0.0000	0.0000	0.0000	0.0000	0.0000	-0.0000	-0.0000	0.0000	0.0000	-0.0000	0.0000	-0.0000	0.0000	0.0000	-0.0000	0.0000	-0.0000	-0.0000	-0.0000	0.0000	-0.0000	-0.0000	-0.0000	0.0000	-0.0000	0.0000	0.0000	0.0000	0.0000	-0.0000	0.0000	0.0000	-0.0000	0.0000	0.0000	-0.0000	-0.0000	-0.0000	-0.0000	0.0000	0.0000	0.0000	-0.0000	0.0000	-0.0000	0.0000	-0.0000	0.0000	0.0000	0.0000	0.0000	0.0000	-0.0000	0.0000	0.0000	-0.0000	-0.0000	0.0000	-0.0000	-0.0000	-0.0000	0.0000	-0.0000	0.0000	-0.0000	-0.0000	-0.0000	-0.0000	0.0000	0.0000	0.0000	-0.0000	0.0000	0.0000	0.0000	-0.0000	-0.0000	-0.0000	-0.0000	-0.0000	-0.0000	-0.0000	-0.0000	-0.0000	0.0000	0.0000	0.0000	-0.0000	0.0000	-0.0000	-0.0000	0.0000	0.0000	0.0000	-0.0000	-0.0000	-0.0000	0.0000	-0.0000	0.0000	-0.0000	-0.0000	0.0000	-0.0000	-0.0000	0.0000	0.0000	0.0000	0.0000	0.0000	0.0000	0.0000	-0.0000	-0.0000	-0.0000	-0.0000	-0.0000	-0.0000	-0.0000	0.0000	-0.0000	0.0000	0.0000	-0.0000	-0.0000	0.0000	0.0000	0.0000	0.0000	-0.0000	-0.0000	-0.0000	-0.0000	-0.0000	0.0000	-0.0000	-0.0000	0.0000	-0.0000	0.0000	0.0000	0.0000	0.0000	0.0000	-0.0000	-0.0000	-0.0000	-0.0000	-0.0000	0.0000	0.0000	-0.0000	-0.0000	0.0000	-0.0000	0.0000	-0.0000	-0.0000	0.0000	-0.0000	0.0000	0.0000	0.0000	-0.0000	0.0000	0.0000	0.0000	-0.0000	0.0000	-0.0000	-0.0000	-0.0000	-0.0000	0.0000	-0.0000	-0.0000	0.0000	-0.0000	-0.0000	0.0000	0.0000	0.0000	0.0000	-0.0000	-0.0000	-0.0000	0.0000	-0.0000	0.0000	-0.0000	0.0000	-0.0000	-0.0000	-0.0000	-0.0000	-0.0000	0.0000	-0.0000	-0.0000	0.0000	0.0000	-0.0000	0.0000	0.0000	0.0000	-0.0000	0.0000	-0.0000	0.0000	0.0000	0.0000	0.0000	-0.0000	-0.0000	-0.0000	0.0000	-0.0000	-0.0000	-0.0000	0.0000	0.0000	0.0000	0.0000	0.0000	0.0000	0.0000	0.0000	0.0000	-0.0000	-0.0000	-0.0000	0.0000	-0.0000	0.0000	0.0000	-0.0000	-0.0000	-0.0000	0.0000	0.0000	0.0000	-0.0000	0.0000	-0.0000	0.0000	0.0000	-0.0000	0.0000	0.0000	-0.0000	-0.0000	-0.0000	-0.0000	-0.0000	0.0000	-0.0000	-0.0000	0.0000	-0.0000	0.0000	-0.0000	-0.0000	0.0000	-0.0000	0.0000	-0.0000	-0.0000	0.0000	0.0000	-0.0000	-0.0000	-0.0000	-0.0000	0.0000	0.0000	0.0000	0.0000	0.0000	-0.0000	0.0000	0.0000	-0.0000	0.0000	-0.0000	-0.0000	-0.0000	-0.0000	-0.0000	0.0000	0.0000	0.0000	0.0000	0.0000	-0.0000	-0.0000	0.0000	0.0000	-0.0000	-0.0000	-0.0000	0.0000	0.0000	-0.0000	0.0000	-0.0000	-0.0000	-0.0000	0.0000	-0.0000	-0.0000	0.0000	-0.0000	-0.0000	-0.0000	0.0000	0.0000	0.0000	-0.0000	-0.0000	0.0000	-0.0000	0.0000	0.0000	-0.0000	-0.0000	-0.0000	-0.0000	0.0000	0.0000	0.0000	-0.0000	0.0000	-0.0000	0.0000	-0.0000	0.0000	0.0000	0.0000	0.0000	0.0000	-0.0000	0.0000	0.0000	-0.0000	-0.0000	0.0000	-0.0000	-0.0000	-0.0000	0.0000	-0.0000	0.0000	-0.0000	-0.0000	-0.0000	0.0000	-0.0000	0.0000	-0.0000	-0.0000	0.0000	0.0000	0.0000	-0.0000	-0.0000	-0.0000	-0.0000	-0.0000	-0.0000	-0.0000	-0.0000	-0.0000	0.0000	0.0000	0.0000	-0.0000	0.0000	-0.0000	-0.0000	0.0000	0.0000	0.0000	-0.0000	-0.0000	-0.0000	0.0000	-0.0000	0.0000	-0.0000	-0.0000	0.0000	0.0000	-0.0000	0.0000	0.0000	0.0000	0.0000	0.0000	-0.0000	0.0000	0.0000	-0.0000	0.0000	-0.0000	0.0000	0.0000	-0.0000	0.0000	-0.0000	0.0000	0.0000	-0.0000	-0.0000	0.0000	0.0000	0.0000	0.0000	-0.0000	-0.0000	-0.0000	-0.0000	-0.0000	0.0000	-0.0000	-0.0000	0.0000	-0.0000	0.0000	0.0000	0.0000	0.0000	0.0000	-0.0000	-0.0000	-0.0000	-0.0000	-0.0000	0.0000	0.0000	-0.0000	-0.0000	0.0000	0.0000	0.0000	-0.0000	-0.0000	0.0000	-0.0000	0.0000	0.0000	0.0000	-0.0000	0.0000	0.0000	-0.0000	0.0000	0.0000	0.0000	-0.0000	-0.0000	-0.0000	0.0000	0.0000	-0.0000	0.0000	-0.0000	-0.0000	0.0000	0.0000	0.0000	0.0000	-0.0000	-0.0000	-0.0000	0.0000	-0.0000	0.0000	-0.0000	0.0000	-0.0000	-0.0000	-0.0000	-0.0000	-0.0000	0.0000	-0.0000	-0.0000	0.0000	0.0000	-0.0000	0.0000	0.0000	0.0000	-0.0000	0.0000	-0.0000	0.0000	0.0000	0.0000	-0.0000	0.0000	-0.0000	0.0000	0.0000	-0.0000	-0.0000	-0.0000	0.0000	0.0000	0.0000	0.0000	0.0000	0.0000	0.0000	0.0000	0.0000	-0.0000	-0.0000	-0.0000	0.0000	-0.0000	0.0000	0.0000	-0.0000	-0.0000	-0.0000	0.0000	0.0000	0.0000	-0.0000	0.0000	-0.0000	0.0000	0.0000	-0.0000	-0.0000	0.0000	-0.0000	-0.0000	-0.0000	-0.0000	-0.0000	0.0000	-0.0000	-0.0000	0.0000	-0.0000	0.0000	-0.0000	-0.0000	0.0000	-0.0000	0.0000	-0.0000	-0.0000	0.0000	0.0000	-0.0000	-0.0000	-0.0000	-0.0000	0.0000	0.0000	0.0000	0.0000	0.0000	-0.0000	0.0000	0.0000	-0.0000	0.0000	-0.0000	-0.0000	-0.0000	-0.0000	-0.0000	0.0000	0.0000	0.0000	0.0000	0.0000	-0.0000	-0.0000	0.0000	0.0000	-0.0000	-0.0000	-0.0000	0.0000	0.0000	-0.0000	0.0000	-0.0000	-0.0000	-0.0000	0.0000	-0.0000	-0.0000	0.0000	-0.0000	-0.0000	-0.0000	0.0000	0.0000	0.0000	-0.0000	-0.0000	0.0000	-0.0000	0.0000	0.0000	-0.0000	-0.0000	-0.0000	-0.0000	0.0000	0.0000	0.0000	-0.0000	0.0000	-0.0000	0.0000	-0.0000	0.0000	0.0000	0.0000	0.0000	0.0000	-0.0000	0.0000	0.0000	-0.0000	-0.0000	0.0000	-0.0000	-0.0000	-0.0000	0.0000	-0.0000	0.0000	-0.0000	-0.0000	-0.0000	0.0000	-0.0000	0.0000	-0.0000	-0.0000	0.0000	0.0000	0.0000	-0.0000	-0.0000	-0.0000	-0.0000	-0.0000	-0.0000	-0.0000	-0.0000	-0.0000	0.0000	0.0000	0.0000	-0.0000	0.0000	-0.0000	-0.0000	0.0000	0.0000	0.0000	-0.0000	-0.0000	-0.0000	0.0000	-0.0000	0.0000	-0.0000	-0.0000	0.0000	0.0000	-0.0000	0.0000	0.0000	0.0000	0.0000	0.0000	0.0000	-0.0000	-0.0000	0.0000	-0.0000	0.0000	-0.0000	-0.0000	0.0000	-0.0000	0.0000	-0.0000	-0.0000	0.0000	0.0000	-0.0000	-0.0000	-0.0000	-0.0000	0.0000	0.0000	0.0000	0.0000	0.0000	-0.0000	0.0000	0.0000	-0.0000	0.0000	-0.0000	-0.0000	-0.0000	-0.0000	-0.0000	0.0000	0.0000	0.0000	0.0000	0.0000	-0.0000	-0.0000	0.0000	0.0000	-0.0000	-0.0000	-0.0000	0.0000	0.0000	-0.0000	0.0000	-0.0000	-0.0000	-0.0000	0.0000	-0.0000	-0.0000	0.0000	-0.0000	-0.0000	-0.0000	0.0000	0.0000	0.0000	-0.0000	-0.0000	0.0000	-0.0000	0.0000	0.0000	-0.0000	-0.0000	-0.0000	-0.0000	0.0000	0.0000	0.0000	-0.0000	0.0000	-0.0000	0.0000	-0.0000	0.0000	0.0000	0.0000	0.0000	0.0000	-0.0000	0.0000	0.0000	-0.0000	-0.0000	0.0000	-0.0000	-0.0000	-0.0000	0.0000	-0.0000	0.0000	-0.0000	-0.0000	-0.0000	0.0000	-0.0000	0.0000	-0.0000	-0.0000	0.0000	0.0000	0.0000	-0.0000	-0.0000	-0.0000	-0.0000	-0.0000	-0.0000	-0.0000	-0.0000	-0.0000	0.0000	0.0000	0.0000	-0.0000	0.0000	-0.0000	-0.0000	0.0000	0.0000	0.0000	-0.0000	-0.0000	-0.0000	0.0000	-0.0000	0.0000	-0.0000	-0.0000	0.0000	0.0000	-0.0000	0.0000	0.0000	0.0000	0.0000	0.0000	-0.0000	-0.0000	0.0000	0.0000	-0.0000	0.0000	-0.0000	-0.0000	0.0000	0.0000	0.0000	-0.0000	-0.0000	0.0000	0.0000	-0.0000	-0.0000	-0.0000	-0.0000	0.0000	0.0000	0.0000	0.0000	0.0000	-0.0000	0.0000	0.0000	-0.0000	0.0000	-0.0000	-0.0000	-0.0000	-0.0000	-0.0000	0.0000	0.0000	0.0000	0.0000	0.0000	-0.0000	-0.0000	0.0000	0.0000	-0.0000	0.0000	-0.0000	0.0000	0.0000	-0.0000	0.0000	-0.0000	-0.0000	-0.0000	0.0000	-0.0000	0.0000	0.0000	-0.0000	-0.0000	-0.0000	0.0000	0.0000	0.0000	-0.0000	-0.0000	0.0000	-0.0000	0.0000	0.0000	-0.0000	-0.0000	-0.0000	-0.0000	0.0000	0.0000	0.0000	-0.0000	0.0000	-0.0000	0.0000	-0.0000	0.0000	0.0000	0.0000	0.0000	0.0000	-0.0000	0.0000	0.0000	-0.0000	-0.0000	0.0000	-0.0000	-0.0000	-0.0000	0.0000	-0.0000	0.0000	-0.0000	-0.0000	-0.0000	0.0000	-0.0000	0.0000	-0.0000	-0.0000	0.0000	0.0000	0.0000	-0.0000	-0.0000	-0.0000	-0.0000	-0.0000	-0.0000	-0.0000	-0.0000	-0.0000	0.0000	0.0000	0.0000	-0.0000	0.0000	-0.0000	-0.0000	0.0000	0.0000	0.0000	-0.0000	-0.0000	-0.0000	0.0000	-0.0000	0.0000	-0.0000	-0.0000	0.0000	0.0000	-0.0000	0.0000	0.0000	0.0000	0.0000	0.0000	-0.0000	-0.0000	0.0000	0.0000	-0.0000	0.0000	-0.0000	-0.0000	0.0000	0.0000	0.0000	-0.0000	-0.0000	0.0000	0.0000	-0.0000	-0.0000	-0.0000	-0.0000	0.0000	0.0000	0.0000	0.0000	0.0000	-0.0000	0.0000	0.0000	-0.0000	0.0000	-0.0000	-0.0000	-0.0000	-0.0000	-0.0000	0.0000	0.0000	0.0000	0.0000	0.0000	-0.0000	-0.0000	0.0000	0.0000	-0.0000	0.0000	-0.0000	0.0000	0.0000	-0.0000	0.0000	-0.0000	-0.0000	-0.0000	0.0000	-0.0000	0.0000	0.0000	-0.0000	-0.0000	-0.0000	0.0000	0.0000	0.0000	-0.0000	-0.0000	0.0000	-0.0000	0.0000	0.0000	-0.0000	-0.0000	-0.0000	-0.0000	0.0000	0.0000	0.0000	-0.0000	0.0000	-0.0000	0.0000	-0.0000	0.0000	0.0000	0.0000	0.0000	0.0000	-0.0000	0.0000	0.0000	-0.0000	-0.0000	0.0000	-0.0000	-0.0000	-0.0000	0.0000	-0.0000	0.0000	-0.0000	-0.0000	-0.0000	0.0000	-0.0000	0.0000	-0.0000	-0.0000	0.0000	0.0000	0.0000	-0.0000	-0.0000	-0.0000	-0.0000	-0.0000	-0.0000	-0.0000	-0.0000	-0.0000	0.0000	0.0000	0.0000	-0.0000	0.0000	-0.0000	-0.0000	0.0000	0.0000	0.0000	-0.0000	-0.0000	-0.0000	0.0000	-0.0000	0.0000	-0.0000	-0.0000	0.0000	0.0000	-0.0000	0.0000	0.0000	0.0000	0.0000	0.0000	-0.0000	-0.0000	0.0000	0.0000	-0.0000	0.0000	-0.0000	-0.0000	0.0000	0.0000	0.0000	-0.0000	-0.0000	0.0000	0.0000	-0.0000	-0.0000	-0.0000	-0.0000	0.0000	0.0000	0.0000	0.0000	0.0000	-0.0000	0.0000	0.0000	-0.0000	0.0000	-0.0000	-0.0000	-0.0000	-0.0000	-0.0000	0.0000	0.0000	0.0000	0.0000	0.0000	-0.0000	-0.0000	0.0000	0.0000	-0.0000	0.0000	-0.0000	0.0000	0.0000	-0.0000	0.0000	-0.0000	-0.0000	-0.0000	0.0000	-0.0000	0.0000	0.0000	-0.0000	-0.0000	-0.0000	0.0000	0.0000	0.0000	-0.0000	-0.0000	0.0000	-0.0000	0.0000	0.0000	-0.0000	-0.0000	-0.0000	-0.0000	0.0000	0.0000	0.0000	-0.0000	0.0000	-0.0000	0.0000	-0.0000	0.0000	0.0000	0.0000	0.0000	0.0000	-0.0000	0.0000	0.0000	-0.0000	-0.0000	0.0000	-0.0000	-0.0000	-0.0000	0.0000	-0.0000	0.0000	-0.0000	-0.0000	-0.0000	0.0000	-0.0000	0.0000	-0.0000	-0.0000	0.0000	0.0000	0.0000	-0.0000	-0.0000	-0.0000	-0.0000	-0.0000	-0.0000	-0.0000	-0.0000	-0.0000	0.0000	0.0000	0.0000	-0.0000	0.0000	-0.0000	-0.0000	0.0000	0.0000	0.0000	-0.0000	-0.0000	-0.0000	0.0000	-0.0000	0.0000	-0.0000	-0.0000	0.0000	0.0000	-0.0000	0.0000	0.0000	0.0000	0.0000	0.0000	-0.0000	-0.0000	0.0000	0.0000	-0.0000	0.0000	-0.0000	-0.0000	0.0000	0.0000	0.0000	-0.0000	-0.0000	0.0000	0.0000	-0.0000	-0.0000	-0.0000	-0.0000	0.0000	0.0000	0.0000	0.0000	0.0000	-0.0000	0.0000	0.0000	-0.0000	0.0000	-0.0000	-0.0000	-0.0000	-0.0000	-0.0000	0.0000	0.0000	0.0000	0.0000	0.0000	-0.0000	-0.0000	0.0000	0.0000	-0.0000	0.0000	-0.0000	0.0000	0.0000	-0.0000	0.0000	-0.0000	-0.0000	-0.0000	0.0000	-0.0000	0.0000	0.0000	-0.0000	-0.0000	-0.0000	0.0000	0.0000	0.0000	-0.0000	-0.0000	0.0000	-0.0000	0.0000	0.0000	-0.0000	-0.0000	-0.0000	-0.0000	0.0000	0.0000	0.0000	-0.0000	0.0000	-0.0000	0.0000	-0.0000	0.0000	0.0000	0.0000	0.0000	0.0000	-0.0000	0.0000	0.0000	-0.0000	-0.0000	0.0000	-0.0000	-0.0000	-0.0000	0.0000	-0.0000	0.0000	-0.0000	-0.0000	-0.0000	0.0000	-0.0000	0.0000	-0.0000	-0.0000	0.0000	0.0000	0.0000	-0.0000	-0.0000	-0.0000	-0.0000	-0.0000	-0.0000	-0.0000	-0.0000	-0.0000	0.0000	0.0000	0.0000	-0.0000	0.0000	-0.0000	-0.0000	0.0000	0.0000	0.0000	-0.0000	-0.0000	-0.0000	0.0000	-0.0000	0.0000	-0.0000	-0.0000	0.0000	0.0000	-0.0000	0.0000	0.0000	0.0000	0.0000	0.0000	1.0000	1.0000	1.0000	1.0000	1.0000	1.0000	1.0000	1.0000	1.0000	1.0000	1.0000	1.0000	1.0000	1.0000	1.0000	1.0000	1.0000	1.0000	1.0000	1.0000	1.0000	1.0000	1.0000	1.0000	1.0000	1.0000	1.0000	1.0000	1.0000	1.0000	1.0000	1.0000	1.0000	1.0000	1.0000	1.0000	1.0000	1.0000	1.0000	1.0000	1.0000	1.0000	1.0000	1.0000	1.0000	1.0000	1.0000	1.0000	1.0000	1.0000	1.0000	1.0000	1.0000	1.0000	1.0000	1.0000	1.0000	1.0000	1.0000	1.0000	1.0000	1.0000	1.0000	1.0000	1.0000	1.0000	1.0000	1.0000	1.0000	1.0000	1.0000	1.0000	1.0000	1.0000	1.0000	1.0000	1.0000	1.0000	1.0000	1.0000	1.0000	1.0000	1.0000	1.0000	1.0000	1.0000	1.0000	1.0000	1.0000	1.0000	1.0000	1.0000	1.0000	1.0000	1.0000	1.0000	1.0000	1.0000	1.0000	1.0000	1.0000	1.0000	1.0000	1.0000	1.0000	1.0000	1.0000	1.0000	1.0000	1.0000	1.0000	1.0000	1.0000	1.0000	1.0000	1.0000	1.0000	1.0000	1.0000	1.0000	1.0000	1.0000	1.0000	1.0000	1.0000	1.0000	1.0000	1.0000	1.0000	1.0000	1.0000	1.0000	1.0000	1.0000	1.0000	1.0000	1.0000	1.0000	1.0000	1.0000	1.0000	1.0000	1.0000	1.0000	0.0625	0.0625	0.0625	0.0625	0.0625	0.0625	0.0625	0.0625	0.0625	0.0625	0.0625	0.0625	0.0625	0.0625	0.0625	0.0625	0.0625	0.0625	0.0625	0.0625	0.0625	0.0625	0.0625	0.0625	0.0625	0.0625	0.0625	0.0625	0.0625	0.0625	0.0625	0.0625	0.0625	0.0625	0.0625	0.0625	0.0000	0.0000	0.0000	0.0000	0.0625	0.0625	0.0625	0.0625	0.0625	0.0625	0.0625	0.0625	0.0625	0.0625	0.0625	0.0625	0.0625	0.0625	0.0625	0.0625	0.0625	0.0625	0.0625	0.0625	0.0625	0.0625	0.0625	0.0625	0.0625	0.0625	0.0625	0.0625	0.0625	0.0625	0.0625	0.0625	0.0625	0.0625	0.0625	0.0625	0.0000	0.0000	0.0000	0.0000	0.0625	0.0625	0.0625	0.0625	0.0625	0.0625	0.0625	0.0625	0.0625	0.0625	0.0625	0.0625	0.0625	0.0625	0.0625	0.0625	0.0625	0.0625	0.0625	0.0625	0.0625	0.0625	0.0625	0.0625	0.0625	0.0625	0.0625	0.0625	0.0625	0.0625	0.0625	0.0625	0.0625	0.0625	0.0625	0.0625	0.0000	0.0000	0.0000	0.0000	0.0625	0.0625	0.0625	0.0625	0.0625	0.0625	0.0625	0.0625	0.0625	0.0625	0.0625	0.0625	0.0625	0.0625	0.0625	0.0625	0.0625	0.0625	0.0625	0.0625	0.0625	0.0625	0.0625	0.0625	0.0625	0.0625	0.0625	0.0625	0.0625	0.0625	0.0625	0.0625	0.0625	0.0625	0.0625	0.0625	0.0000	0.0000	0.0000	0.0000	0.0625	0.0625	0.0625	0.0625	0.0625	0.0625	0.0625	0.0625	0.0625	0.0625	0.0625	0.0625	0.0625	0.0625	0.0625	0.0625	0.0625	0.0625	0.0625	0.0625	0.0625	0.0625	0.0625	0.0625	0.0625	0.0625	0.0625	0.0625	0.0625	0.0625	0.0625	0.0625	0.0625	0.0625	0.0625	0.0625	0.0000	0.0000	0.0000	0.0000	0.0625	0.0625	0.0625	0.0625	0.0625	0.0625	0.0625	0.0625	0.0625	0.0625	0.0625	0.0625	0.0625	0.0625	0.0625	0.0625	0.0625	0.0625	0.0625	0.0625	0.0625	0.0625	0.0625	0.0625	0.0625	0.0625	0.0625	0.0625	0.0625	0.0625	0.0625	0.0625	0.0625	0.0625	0.0625	0.0625	0.0000	0.0000	0.0000	0.0000	0.0625	0.0625	0.0625	0.0625	0.0625	0.0625	0.0625	0.0625	0.0625	0.0625	0.0625	0.0625	0.0625	0.0625	0.0625	0.0625	0.0625	0.0625	0.0625	0.0625	0.0625	0.0625	0.0625	0.0625	0.0625	0.0625	0.0625	0.0625	0.0625	0.0625	0.0625	0.0625	0.0625	0.0625	0.0625	0.0625	0.0000	0.0000	0.0000	0.0000	0.0625	0.0625	0.0625	0.0625	0.0625	0.0625	0.0625	0.0625	0.0625	0.0625	0.0625	0.0625	0.0625	0.0625	0.0625	0.0625	0.0625	0.0625	0.0625	0.0625	0.0625	0.0625	0.0625	0.0625	0.0625	0.0625	0.0625	0.0625	0.0625	0.0625	0.0625	0.0625	0.0625	0.0625	0.0625	0.0625	0.0000	0.0000	0.0000	0.0000	0.0625	0.0625	0.0625	0.0625	0.0625	0.0625	0.0625	0.0625	0.0625	0.0625	0.0625	0.0625	0.0625	0.0625	0.0625	0.0625	0.0625	0.0625	0.0625	0.0625	0.0625	0.0625	0.0625	0.0625	0.0625	0.0625	0.0625	0.0625	0.0625	0.0625	0.0625	0.0625	0.0625	0.0625	0.0625	0.0625	0.0000	0.0000	0.0000	0.0000	0.0625	0.0625	0.0625	0.0625	0.0625	0.0625	0.0625	0.0625	0.0625	0.0625	0.0625	0.0625	0.0625	0.0625	0.0625	0.0625	0.0625	0.0625	0.0625	0.0625	0.0625	0.0625	0.0625	0.0625	0.0625	0.0625	0.0625	0.0625	0.0625	0.0625	0.0625	0.0625	0.0625	0.0625	0.0625	0.0625	0.0000	0.0000	0.0000	0.0000	0.0625	0.0625	0.0625	0.0625	0.0625	0.0625	0.0625	0.0625	0.0625	0.0625	0.0625	0.0625	0.0625	0.0625	0.0625	0.0625	0.0625	0.0625	0.0625	0.0625	0.0625	0.0625	0.0625	0.0625	0.0625	0.0625	0.0625	0.0625	0.0625	0.0625	0.0625	0.0625	0.0625	0.0625	0.0625	0.0625	0.0000	0.0000	0.0000	0.0000	0.0625	0.0625	0.0625	0.0625	0.0625	0.0625	0.0625	0.0625	0.0625	0.0625	0.0625	0.0625	0.0625	0.0625	0.0625	0.0625	0.0625	0.0625	0.0625	0.0625	0.0625	0.0625	0.0625	0.0625	0.0625	0.0625	0.0625	0.0625	0.0625	0.0625	0.0625	0.0625	0.0625	0.0625	0.0625	0.0625	0.0000	0.0000	0.0000	0.0000	0.0625	0.0625	0.0625	0.0625	0.0625	0.0625	0.0625	0.0625	0.0625	0.0625	0.0625	0.0625	0.0625	0.0625	0.0625	0.0625	0.0625	0.0625	0.0625	0.0625	0.0625	0.0625	0.0625	0.0625	0.0625	0.0625	0.0625	0.0625	0.0625	0.0625	0.0625	0.0625	0.0625	0.0625	0.0625	0.0625	0.0000	0.0000	0.0000	0.0000	0.0625	0.0625	0.0625	0.0625	0.0625	0.0625	0.0625	0.0625	0.0625	0.0625	0.0625	0.0625	0.0625	0.0625	0.0625	0.0625	0.0625	0.0625	0.0625	0.0625	0.0625	0.0625	0.0625	0.0625	0.0625	0.0625	0.0625	0.0625	0.0625	0.0625	0.0625	0.0625	0.0625	0.0625	0.0625	0.0625	0.0000	0.0000	0.0000	0.0000	0.0625	0.0625	0.0625	0.0625	0.0625	0.0625	0.0625	0.0625	0.0625	0.0625	0.0625	0.0625	0.0625	0.0625	0.0625	0.0625	0.0625	0.0625	0.0625	0.0625	0.0625	0.0625	0.0625	0.0625	0.0625	0.0625	0.0625	0.0625	0.0625	0.0625	0.0625	0.0625	0.0625	0.0625	0.0625	0.0625	0.0000	0.0000	0.0000	0.0000	0.0625	0.0625	0.0625	0.0625	0.0625	0.0625	0.0625	0.0625	0.0625	0.0625	0.0625	0.0625	0.0625	0.0625	0.0625	0.0625	0.0625	0.0625	0.0625	0.0625	0.0625	0.0625	0.0625	0.0625	0.0625	0.0625	0.0625	0.0625	0.0625	0.0625	0.0625	0.0625	0.0625	0.0625	0.0625	0.0625	0.0000	0.0000	0.0000	0.0000	0.0625	0.0625	0.0625	0.0625	0.0625	0.0625	0.0625	0.0625	0.0625	0.0625	0.0625	0.0625	0.0625	0.0625	0.0625	0.0625	0.0625	0.0625	0.0625	0.0625	0.0625	0.0625	0.0625	0.0625	0.0625	0.0625	0.0625	0.0625	0.0625	0.0625	0.0625	0.0625	0.0625	0.0625	0.0625	0.0625	0.0000	0.0000	0.0000	0.0000	0.0625	0.0625	0.0625	0.0625	0.0625	0.0625	0.0625	0.0625	0.0625	0.0625	0.0625	0.0625	0.0625	0.0625	0.0625	0.0625	0.0625	0.0625	0.0625	0.0625	0.0625	0.0625	0.0625	0.0625	0.0625	0.0625	0.0625	0.0625	0.0625	0.0625	0.0625	0.0625	0.0625	0.0625	0.0625	0.0625	0.0000	0.0000	0.0000	0.0000	0.0625	0.0625	0.0625	0.0625	0.0625	0.0625	0.0625	0.0625	0.0625	0.0625	0.0625	0.0625	0.0625	0.0625	0.0625	0.0625	0.0625	0.0625	0.0625	0.0625	0.0625	0.0625	0.0625	0.0625	0.0625	0.0625	0.0625	0.0625	0.0625	0.0625	0.0625	0.0625	0.0625	0.0625	0.0625	0.0625	0.0000	0.0000	0.0000	0.0000	0.0625	0.0625	0.0625	0.0625	0.0625	0.0625	0.0625	0.0625	0.0625	0.0625	0.0625	0.0625	0.0625	0.0625	0.0625	0.0625	0.0625	0.0625	0.0625	0.0625	0.0625	0.0625	0.0625	0.0625	0.0625	0.0625	0.0625	0.0625	0.0625	0.0625	0.0625	0.0625	0.0625	0.0625	0.0625	0.0625	0.0000	0.0000	0.0000	0.0000	0.0625	0.0625	0.0625	0.0625	0.0625	0.0625	0.0625	0.0625	0.0625	0.0625	0.0625	0.0625	0.0625	0.0625	0.0625	0.0625	0.0625	0.0625	0.0625	0.0625	0.0625	0.0625	0.0625	0.0625	0.0625	0.0625	0.0625	0.0625	0.0625	0.0625	0.0625	0.0625	0.0625	0.0625	0.0625	0.0625	0.0000	0.0000	0.0000	0.0000	0.0625	0.0625	0.0625	0.0625	0.0625	0.0625	0.0625	0.0625	0.0625	0.0625	0.0625	0.0625	0.0625	0.0625	0.0625	0.0625	0.0625	0.0625	0.0625	0.0625	0.0625	0.0625	0.0625	0.0625	0.0625	0.0625	0.0625	0.0625	0.0625	0.0625	0.0625	0.0625	0.0625	0.0625	0.0625	0.0625	0.0000	0.0000	0.0000	0.0000	0.0625	0.0625	0.0625	0.0625	0.0625	0.0625	0.0625	0.0625	0.0625	0.0625	0.0625	0.0625	0.0625	0.0625	0.0625	0.0625	0.0625	0.0625	0.0625	0.0625	0.0625	0.0625	0.0625	0.0625	0.0625	0.0625	0.0625	0.0625	0.0625	0.0625	0.0625	0.0625	0.0625	0.0625	0.0625	0.0625	0.0000	0.0000	0.0000	0.0000	0.0625	0.0625	0.0625	0.0625	0.0625	0.0625	0.0625	0.0625	0.0625	0.0625	0.0625	0.0625	0.0625	0.0625	0.0625	0.0625	0.0625	0.0625	0.0625	0.0625	0.0625	0.0625	0.0625	0.0625	0.0625	0.0625	0.0625	0.0625	0.0625	0.0625	0.0625	0.0625	0.0625	0.0625	0.0625	0.0625	0.0000	0.0000	0.0000	0.0000	0.0625	0.0625	0.0625	0.0625	0.0625	0.0625	0.0625	0.0625	0.0625	0.0625	0.0625	0.0625	0.0625	0.0625	0.0625	0.0625	0.0625	0.0625	0.0625	0.0625	0.0625	0.0625	0.0625	0.0625	0.0625	0.0625	0.0625	0.0625	0.0625	0.0625	0.0625	0.0625	0.0625	0.0625	0.0625	0.0625	0.0000	0.0000	0.0000	0.0000	0.0625	0.0625	0.0625	0.0625	0.0625	0.0625	0.0625	0.0625	0.0625	0.0625	0.0625	0.0625	0.0625	0.0625	0.0625	0.0625	0.0625	0.0625	0.0625	0.0625	0.0625	0.0625	0.0625	0.0625	0.0625	0.0625	0.0625	0.0625	0.0625	0.0625	0.0625	0.0625	0.0625	0.0625	0.0625	0.0625	0.0000	0.0000	0.0000	0.0000	0.0625	0.0625	0.0625	0.0625	0.0625	0.0625	0.0625	0.0625	0.0625	0.0625	0.0625	0.0625	0.0625	0.0625	0.0625	0.0625	0.0625	0.0625	0.0625	0.0625	0.0625	0.0625	0.0625	0.0625	0.0625	0.0625	0.0625	0.0625	0.0625	0.0625	0.0625	0.0625	0.0625	0.0625	0.0625	0.0625	0.0000	0.0000	0.0000	0.0000	0.0625	0.0625	0.0625	0.0625	0.0625	0.0625	0.0625	0.0625	0.0625	0.0625	0.0625	0.0625	0.0625	0.0625	0.0625	0.0625	0.0625	0.0625	0.0625	0.0625	0.0625	0.0625	0.0625	0.0625	0.0625	0.0625	0.0625	0.0625	0.0625	0.0625	0.0625	0.0625	0.0625	0.0625	0.0625	0.0625	0.0000	0.0000	0.0000	0.0000	0.0625	0.0625	0.0625	0.0625	0.0625	0.0625	0.0625	0.0625	0.0625	0.0625	0.0625	0.0625	0.0625	0.0625	0.0625	0.0625	0.0625	0.0625	0.0625	0.0625	0.0625	0.0625	0.0625	0.0625	0.0625	0.0625	0.0625	0.0625	0.0625	0.0625	0.0625	0.0625	0.0625	0.0625	0.0625	0.0625	0.0000	0.0000	0.0000	0.0000	0.0625	0.0625	0.0625	0.0625	0.0625	0.0625	0.0625	0.0625	0.0625	0.0625	0.0625	0.0625	0.0625	0.0625	0.0625	0.0625	0.0625	0.0625	0.0625	0.0625	0.0625	0.0625	0.0625	0.0625	0.0625	0.0625	0.0625	0.0625	0.0625	0.0625	0.0625	0.0625	0.0625	0.0625	0.0625	0.0625	0.0000	0.0000	0.0000	0.0000	0.0625	0.0625	0.0625	0.0625	0.0625	0.0625	0.0625	0.0625	0.0625	0.0625	0.0625	0.0625	0.0625	0.0625	0.0625	0.0625	0.0625	0.0625	0.0625	0.0625	0.0625	0.0625	0.0625	0.0625	0.0625	0.0625	0.0625	0.0625	0.0625	0.0625	0.0625	0.0625	0.0625	0.0625	0.0625	0.0625	0.0000	0.0000	0.0000	0.0000	0.0625	0.0625	0.0625	0.0625	0.0625	0.0625	0.0625	0.0625	0.0625	0.0625	0.0625	0.0625	0.0625	0.0625	0.0625	0.0625	0.0625	0.0625	0.0625	0.0625	0.0625	0.0625	0.0625	0.0625	0.0625	0.0625	0.0625	0.0625	0.0625	0.0625	0.0625	0.0625	0.0625	0.0625	0.0625	0.0625	0.0000	0.0000	0.0000	0.0000	0.0625	0.0625	0.0625	0.0625	0.0625	0.0625	0.0625	0.0625	0.0625	0.0625	0.0625	0.0625	0.0625	0.0625	0.0625	0.0625	0.0625	0.0625	0.0625	0.0625	0.0625	0.0625	0.0625	0.0625	0.0625	0.0625	0.0625	0.0625	0.0625	0.0625	0.0625	0.0625	0.0625	0.0625	0.0625	0.0625	0.0000	0.0000	0.0000	0.0000	0.0625	0.0625	0.0625	0.0625	0.0625	0.0625	0.0625	0.0625	0.0625	0.0625	0.0625	0.0625	0.0625	0.0625	0.0625	0.0625	0.0625	0.0625	0.0625	0.0625	0.0625	0.0625	0.0625	0.0625	0.0625	0.0625	0.0625	0.0625	0.0625	0.0625	0.0625	0.0625	0.0625	0.0625	0.0625	0.0625	0.0000	0.0000	0.0000	0.0000	0.0625	0.0625	0.0625	0.0625	0.0625	0.0625	0.0625	0.0625	0.0625	0.0625	0.0625	0.0625	0.0625	0.0625	0.0625	0.0625	0.0625	0.0625	0.0625	0.0625	0.0625	0.0625	0.0625	0.0625	0.0625	0.0625	0.0625	0.0625	0.0625	0.0625	0.0625	0.0625	0.0625	0.0625	0.0625	0.0625	0.0000	0.0000	0.0000	0.0000	0.0625	0.0625	0.0625	0.0625	0.0625	0.0625	0.0625	0.0625	0.0625	0.0625	0.0625	0.0625	0.0625	0.0625	0.0625	0.0625	0.0625	0.0625	0.0625	0.0625	0.0625	0.0625	0.0625	0.0625	0.0625	0.0625	0.0625	0.0625	0.0625	0.0625	0.0625	0.0625	0.0625	0.0625	0.0625	0.0625	0.0000	0.0000	0.0000	0.0000	0.0000	0.0000	0.0000	0.0000	0.0000	0.0000	0.0000	0.0000	0.0000	0.0000	0.0000	0.0000	0.0000	0.0000	0.0000	0.0000	0.0000	0.0000	0.0000	0.0000	0.0000	0.0000	0.0000	0.0000	0.0000	0.0000	0.0000	0.0000	0.0000	0.0000	0.0000	0.0000	0.0000	0.0000	0.0000	0.0000	0.0000	0.0000	0.0000	0.0000	0.0000	0.0000	0.0000	0.0000	0.0000	0.0000	0.0000	0.0000	0.0000	0.0000	0.0000	0.0000	0.0000	0.0000	0.0000	0.0000	0.0000	0.0000	0.0000	0.0000	0.0000	0.0000	0.0000	0.0000	0.0000	0.0000	0.0000	0.0000	0.0000	0.0000	0.0000	0.0000	0.0000	0.0000	0.0000	0.0000	0.0000	0.0000	0.0000	0.0000	0.0000	0.0000	0.0000	0.0000	0.0000	0.0000	0.0000	0.0000	0.0000	0.0000	0.0000	0.0000	0.0000	0.0000	0.0000	0.0000	0.0000	0.0000	0.0000	0.0000	0.0000	0.0000	0.0000	0.0000	0.0000	0.0000	0.0000	0.0000	0.0000	0.0000	0.0000	0.0000	0.0000	0.0000	0.0000	0.0000	0.0000	0.0000	0.0000	0.0000	0.0000	0.0000	0.0000	0.0000	0.0000	0.0000	0.0000	0.0000	0.0000	0.0000	0.0000	0.0000	0.0000	0.0000	0.0000	0.0000	0.0000	0.0000	0.0000	0.0000	0.0000	0.0000	0.0000	0.0000	0.0000	0.0000	0.0000	0.0000	0.0000	0.0000	0.0000	0.0000	0.0000	0.0000	0.0000	0.0000	0.0000	0.0000	0.0000	0.0000	