2.5992	0.9092	0.7340	0.3536	-0.1080	-0.0234	2.1152	0.2770	1.9822	1.5603	1.2638	0.1780	1.0357	0.2404	1.2610	0.5453	-0.4358	-0.0433	-0.4623	-0.1021	0.2751	-0.4342	-0.0491	0.1094	-0.6639	0.0368	-0.0584	0.0562	-0.0746	0.2468	0.1597	-0.0216	-0.3804	-0.0375	0.1155	-0.0210	0.0581	-0.1316	-0.1977	-0.2359	0.0332	0.0737	-0.0101	0.0207	0.5644	-0.1029	-0.0682	0.0562	0.0186	-0.4045	0.0856	-0.0225	-0.2532	0.1645	-0.0976	-0.1564	0.0348	-0.3032	-0.2061	-0.0656	0.0578	-0.0384	-0.1637	-0.0924	-0.2723	-0.0897	-0.0775	-0.1536	-0.0901	0.1583	-0.0139	0.0438	0.0433	0.1464	-0.0369	0.0375	0.0015	0.0104	0.0244	-0.0026	-0.0108	0.0177	-0.0020	0.0112	-0.0013	0.0048	-0.0271	0.0102	-0.0006	-0.0003	0.0011	0.0024	0.0015	-0.0003	-0.0019	0.0003	0.0007	0.0010	-0.0018	0.0011	0.0003	0.0016	0.0001	0.0009	-0.0009	0.0018	-0.0011	0.0007	-0.0019	0.0011	-0.0006	0.0009	-0.0252	0.2198	0.0893	0.1545	0.3002	0.3612	0.1150	0.3001	0.2534	0.0863	0.0213	0.0899	0.0151	-0.0121	0.0024	-0.0095	0.0009	-0.0010	-0.0431	0.0040	0.0122	-0.0117	-0.0125	-0.0063	-0.0002	-0.0012	0.0007	0.0004	0.0024	0.0006	-0.0026	-0.0026	0.0002	0.0010	0.0006	-0.0006	-0.0020	0.0012	-0.0032	0.0001	-0.0025	-0.0001	-0.0024	-0.0004	-0.0004	-0.0011	0.0003	-0.0004	0.1560	0.2069	0.1690	0.2193	0.3364	0.1415	0.0746	0.1587	0.0362	-0.1178	-0.0457	-0.1014	0.0016	-0.0037	-0.0267	-0.0044	-0.0118	0.0100	-0.0094	0.0081	-0.0029	-0.0054	0.0242	0.0001	-0.0011	0.0002	-0.0005	0.0010	0.0010	0.0009	-0.0013	-0.0012	-0.0012	0.0001	0.0015	0.0007	-0.0016	0.0001	-0.0024	0.0002	0.0009	-0.0010	0.0011	-0.0003	0.0016	-0.0001	0.0022	0.0003	0.3773	0.3657	0.1667	0.3194	0.3098	0.1982	0.0826	0.1752	0.1594	0.0538	0.0547	0.0805	-0.0020	-0.0021	-0.0101	0.0020	0.0065	-0.0097	-0.0097	-0.0016	0.0042	-0.0070	0.0038	-0.0043	0.0005	0.0001	-0.0009	-0.0006	-0.0001	0.0006	0.0002	-0.0002	-0.0005	0.0001	0.0007	-0.0002	-0.0009	0.0002	-0.0015	-0.0000	-0.0007	-0.0003	-0.0002	0.0000	0.0003	-0.0006	0.0002	-0.0003	0.3163	0.1992	0.1190	0.1998	0.1623	-0.0206	0.0061	-0.0006	-0.0302	-0.1372	-0.0069	-0.0769	-0.0092	0.0053	-0.0094	0.0054	-0.0020	-0.0054	0.0020	0.0005	-0.0035	-0.0010	0.0090	-0.0005	-0.0003	0.0007	-0.0009	0.0005	-0.0024	0.0010	0.0007	0.0027	-0.0013	0.0000	0.0008	0.0009	0.0002	-0.0003	0.0001	0.0001	0.0008	-0.0005	0.0014	0.0004	0.0011	-0.0005	0.0012	0.0000	0.1886	0.1034	0.0364	0.0922	0.0101	-0.0677	-0.0731	-0.0862	-0.1379	-0.1469	-0.0732	-0.1296	-0.0049	0.0043	0.0037	0.0047	0.0001	-0.0034	0.0116	0.0023	0.0009	-0.0023	-0.0018	0.0003	0.0004	0.0002	-0.0004	-0.0003	0.0000	0.0002	0.0005	-0.0001	-0.0006	0.0001	0.0002	0.0006	0.0006	-0.0002	0.0006	-0.0001	0.0006	0.0000	0.0015	0.0002	0.0001	-0.0001	0.0006	0.0001	0.2000	0.1249	0.0196	0.0985	0.0045	-0.1270	-0.0635	-0.1068	-0.1399	-0.1490	-0.0298	-0.1081	-0.0059	0.0035	-0.0160	0.0073	0.0068	-0.0061	0.0028	-0.0038	-0.0020	0.0031	0.0173	-0.0037	0.0007	0.0008	-0.0014	-0.0004	-0.0004	0.0006	0.0011	0.0002	-0.0011	-0.0003	0.0009	0.0012	-0.0003	-0.0003	0.0003	0.0000	0.0004	-0.0006	0.0015	0.0000	0.0012	-0.0001	0.0007	-0.0000	0.1806	0.1462	-0.0170	0.0718	-0.0890	0.0337	-0.0831	-0.0797	-0.1008	0.1786	-0.0224	0.0389	-0.0076	0.0113	0.0095	0.0076	0.0052	0.0012	0.0376	-0.0028	-0.0061	0.0121	-0.0020	0.0082	0.0003	0.0007	-0.0008	0.0012	-0.0004	-0.0004	0.0016	0.0019	0.0011	-0.0002	-0.0015	0.0008	0.0007	0.0004	0.0009	0.0003	0.0005	0.0017	0.0006	0.0008	-0.0014	0.0022	-0.0014	0.0009	0.2046	0.2434	0.0514	0.1577	0.1061	0.3104	0.0973	0.2030	0.2924	0.4541	0.1501	0.3430	0.0011	0.0030	0.0210	0.0034	0.0107	-0.0096	0.0106	-0.0058	0.0042	0.0016	-0.0155	0.0001	0.0004	-0.0004	0.0002	0.0007	-0.0008	-0.0008	0.0007	0.0018	0.0013	-0.0000	-0.0013	-0.0003	0.0002	0.0008	-0.0003	0.0003	-0.0016	0.0016	-0.0026	0.0005	-0.0021	0.0010	-0.0029	0.0001	0.0712	0.0303	0.0859	0.0810	0.1624	0.1762	0.1678	0.2100	0.2909	0.3218	0.1745	0.2900	0.0048	-0.0091	-0.0030	-0.0053	0.0009	-0.0026	0.0090	-0.0074	0.0002	-0.0008	0.0072	-0.0036	-0.0008	-0.0004	0.0007	-0.0002	-0.0011	-0.0007	0.0007	0.0005	-0.0002	-0.0004	0.0001	0.0001	-0.0002	-0.0005	-0.0008	-0.0003	0.0002	-0.0001	-0.0015	-0.0003	-0.0002	0.0004	-0.0016	-0.0001	-0.0737	-0.1511	0.0093	-0.0801	0.0050	0.0246	0.1428	0.0965	0.2259	0.2637	0.1783	0.2533	0.0022	-0.0018	-0.0028	-0.0037	-0.0047	0.0048	0.0098	-0.0046	-0.0053	0.0063	0.0072	0.0004	-0.0014	0.0002	0.0009	0.0011	0.0005	-0.0011	0.0006	-0.0020	0.0006	-0.0007	-0.0002	-0.0010	0.0004	-0.0006	0.0005	0.0001	0.0006	-0.0000	-0.0008	-0.0003	0.0000	0.0005	-0.0013	-0.0000	-0.1736	-0.1576	-0.0662	-0.1398	-0.0816	0.0201	0.0921	0.0555	0.1927	0.2314	0.1580	0.2282	0.0000	-0.0031	0.0037	-0.0033	-0.0006	0.0003	-0.0054	-0.0046	-0.0035	0.0028	-0.0076	-0.0005	-0.0015	0.0001	0.0006	0.0016	-0.0007	-0.0006	0.0001	0.0002	0.0004	-0.0003	-0.0006	-0.0007	0.0003	0.0001	0.0004	0.0002	-0.0006	0.0003	-0.0016	0.0001	-0.0006	0.0002	-0.0016	-0.0001	-0.0135	-0.1610	0.1314	0.0282	0.2155	0.1077	0.1224	0.2224	0.0916	0.0289	-0.0619	-0.0299	0.0279	-0.0324	-0.0044	-0.0161	0.0007	-0.0011	0.0317	-0.0100	0.0041	-0.0058	0.0178	-0.0094	-0.0015	-0.0017	0.0030	-0.0017	0.0001	-0.0015	0.0004	-0.0017	0.0008	0.0007	0.0012	-0.0014	-0.0005	-0.0021	-0.0013	-0.0011	0.0026	-0.0023	-0.0008	-0.0024	0.0006	0.0003	0.0012	-0.0000	-0.3397	-0.2026	-0.1498	-0.3224	-0.1620	-0.1839	0.0371	-0.1233	-0.0197	-0.0329	0.0281	0.0126	-0.0287	0.0255	-0.0185	0.0088	-0.0181	0.0238	-0.0309	0.0326	-0.0080	-0.0002	0.0353	0.0073	-0.0016	0.0027	-0.0010	0.0040	-0.0010	-0.0001	-0.0020	0.0029	-0.0018	-0.0017	0.0004	0.0017	-0.0006	0.0033	0.0022	0.0031	-0.0006	0.0005	0.0012	0.0018	0.0019	-0.0002	0.0004	-0.0003	0.1489	0.5080	-0.0207	0.2762	0.0965	0.1885	-0.1623	-0.0315	-0.0851	-0.0566	-0.0085	-0.0603	0.0069	-0.0039	0.0034	0.0005	0.0159	-0.0053	-0.0562	-0.0060	0.0002	0.0077	-0.0244	0.0058	0.0025	-0.0006	-0.0021	-0.0007	0.0015	0.0037	-0.0012	0.0012	0.0008	0.0006	-0.0007	-0.0001	-0.0022	0.0018	-0.0035	-0.0004	-0.0040	0.0014	-0.0005	0.0013	-0.0012	0.0003	0.0000	0.0007	-0.0210	0.1197	-0.0082	0.0493	-0.0033	0.1821	-0.1559	0.0028	-0.3159	-0.0372	-0.3347	-0.3380	0.0146	-0.0076	0.0143	-0.0015	-0.0018	0.0241	0.0428	0.0011	-0.0062	0.0185	0.0014	0.0076	0.0008	-0.0011	0.0007	-0.0002	0.0010	0.0004	-0.0007	0.0032	0.0021	0.0024	-0.0009	0.0019	-0.0009	0.0008	-0.0012	-0.0000	0.0015	0.0011	0.0004	-0.0002	-0.0016	0.0039	0.0020	0.0025	0.0619	-0.0573	0.0373	-0.0279	0.0900	-0.0854	0.1969	0.1097	0.2173	0.2799	0.0976	0.2905	-0.0156	-0.0031	-0.0445	0.0068	0.0232	-0.0190	0.0148	0.0031	0.0048	-0.0126	0.0654	-0.0141	-0.0011	0.0017	-0.0013	-0.0000	-0.0002	-0.0032	0.0025	-0.0022	0.0003	-0.0028	0.0011	-0.0021	-0.0012	0.0002	0.0008	0.0011	0.0003	-0.0020	-0.0006	-0.0010	0.0026	-0.0010	-0.0019	-0.0025	0.1142	0.1048	-0.1188	0.0109	-0.2056	-0.2620	-0.0927	-0.2695	-0.0249	-0.0765	0.2028	0.1012	-0.0106	0.0077	-0.0082	0.0069	0.0104	-0.0131	-0.0418	-0.0118	-0.0135	0.0174	-0.0064	0.0112	0.0007	0.0015	-0.0022	0.0008	-0.0006	0.0024	0.0015	-0.0002	0.0004	-0.0017	-0.0009	-0.0017	0.0002	-0.0000	0.0007	-0.0002	-0.0024	0.0009	0.0011	0.0017	0.0010	-0.0012	-0.0006	-0.0005	-0.1487	-0.1055	-0.1823	-0.2152	-0.2479	-0.1094	0.0626	-0.0614	0.1710	0.2250	0.1927	0.2771	-0.0124	0.0091	-0.0052	0.0126	0.0123	-0.0111	-0.0268	-0.0008	0.0001	0.0009	-0.0000	-0.0044	0.0007	0.0013	-0.0012	0.0007	-0.0014	-0.0008	0.0007	0.0011	-0.0006	-0.0011	-0.0004	0.0002	-0.0003	0.0015	0.0020	0.0013	-0.0024	0.0006	-0.0020	0.0009	-0.0000	-0.0007	-0.0025	-0.0009	0.2048	0.2491	-0.1094	0.1025	-0.1038	-0.1940	-0.0441	-0.1581	-0.0110	-0.0114	0.1657	0.0911	-0.0076	-0.0032	-0.0324	0.0121	0.0289	-0.0195	-0.0431	-0.0209	-0.0119	0.0136	0.0182	-0.0025	0.0029	0.0013	-0.0035	-0.0027	-0.0025	0.0023	0.0024	0.0031	-0.0007	-0.0011	0.0005	-0.0001	-0.0017	0.0003	-0.0003	-0.0003	-0.0024	-0.0006	-0.0003	0.0008	0.0016	-0.0002	-0.0004	-0.0002	0.3751	0.1640	-0.0314	0.1220	-0.2030	-0.1885	-0.1133	-0.2370	-0.1011	0.0746	0.0975	0.0993	-0.0153	0.0202	0.0043	0.0171	0.0172	-0.0202	0.0326	-0.0142	-0.0049	0.0072	-0.0148	0.0022	0.0024	0.0011	-0.0022	-0.0012	-0.0028	0.0000	0.0039	0.0030	0.0003	-0.0009	-0.0013	-0.0003	0.0018	-0.0011	0.0024	-0.0006	0.0001	0.0014	0.0013	0.0012	-0.0010	0.0003	-0.0023	-0.0002	-0.4023	-0.0743	0.0254	-0.0989	0.1917	0.2918	0.0557	0.2417	0.1064	-0.1533	-0.0818	-0.1120	0.0126	-0.0054	0.0271	-0.0117	-0.0197	0.0084	-0.0683	0.0237	0.0226	-0.0183	-0.0179	-0.0108	-0.0003	-0.0022	0.0023	0.0001	0.0024	0.0007	-0.0057	-0.0023	0.0003	0.0015	0.0018	-0.0011	-0.0010	0.0021	-0.0022	0.0007	-0.0027	-0.0002	-0.0023	-0.0003	-0.0005	-0.0016	0.0017	-0.0003	-0.0806	0.0798	0.1129	0.1111	0.2911	-0.0655	0.0038	0.0244	-0.2352	-0.1797	-0.1425	-0.2634	0.0030	-0.0177	-0.0670	-0.0085	-0.0036	0.0288	-0.0049	0.0060	-0.0208	0.0104	0.0926	-0.0024	-0.0008	0.0006	-0.0016	-0.0010	0.0009	0.0019	-0.0006	0.0010	-0.0013	-0.0010	0.0028	0.0014	-0.0038	0.0002	-0.0038	0.0002	0.0025	-0.0027	0.0030	-0.0009	0.0041	0.0026	0.0036	0.0011	0.0127	-0.0610	0.0031	-0.0207	-0.1293	-0.0704	-0.0348	-0.1097	-0.0121	0.3688	0.0733	0.2633	-0.0098	0.0144	-0.0213	0.0025	0.0138	-0.0079	0.0759	-0.0021	0.0012	-0.0001	-0.0006	0.0022	0.0008	0.0011	-0.0013	-0.0007	0.0001	-0.0027	0.0038	-0.0003	0.0005	-0.0017	-0.0021	0.0008	0.0003	-0.0007	0.0006	-0.0001	0.0018	0.0014	0.0013	0.0004	-0.0018	0.0011	-0.0044	-0.0006	-0.4489	0.2086	-0.0328	0.0203	0.1006	0.1531	-0.1197	0.0425	-0.0780	0.0856	-0.0355	0.0309	-0.0026	-0.0059	0.0115	0.0045	0.0552	-0.0323	-0.0939	-0.0016	0.0098	-0.0004	0.0457	-0.0280	0.0029	-0.0032	-0.0016	-0.0035	0.0019	0.0019	-0.0011	0.0005	0.0026	-0.0007	0.0019	-0.0037	-0.0031	0.0041	-0.0045	0.0007	-0.0067	-0.0012	-0.0031	-0.0000	0.0013	0.0004	-0.0010	-0.0015	0.1396	0.0027	0.1653	0.1732	-0.0700	-0.3031	-0.0853	-0.3663	-0.1035	0.1308	0.1556	0.1717	-0.0355	0.0390	-0.0720	0.0020	-0.0034	0.0095	0.1165	-0.0116	-0.0307	0.0084	-0.0387	0.0456	-0.0013	0.0030	-0.0046	0.0022	-0.0019	0.0001	0.0074	0.0021	-0.0035	-0.0024	-0.0051	0.0050	0.0007	-0.0026	-0.0010	-0.0010	0.0049	0.0030	0.0070	0.0028	-0.0018	0.0008	-0.0030	0.0011	-0.1537	-0.0464	0.0672	0.0080	-0.0025	0.2882	-0.0410	0.1514	0.1539	-0.2168	-0.0480	-0.1496	0.0092	0.0143	0.0584	0.0072	0.0000	-0.0440	-0.0341	-0.0108	0.0184	0.0130	-0.0879	-0.0085	0.0023	-0.0037	0.0016	-0.0020	-0.0036	0.0003	-0.0018	0.0024	0.0035	0.0048	-0.0001	-0.0031	0.0019	0.0001	-0.0002	-0.0007	-0.0035	0.0014	-0.0043	0.0000	-0.0023	-0.0022	0.0025	0.0004	0.0002	0.1672	0.0482	0.2242	-0.1329	0.0142	-0.2084	-0.1904	-0.0727	0.1564	0.0678	0.1912	0.0089	0.0068	0.0400	-0.0142	0.0644	-0.0647	0.0027	-0.0255	0.0304	-0.0192	-0.0402	-0.0122	0.0024	-0.0026	-0.0006	-0.0027	0.0001	-0.0001	0.0051	-0.0006	0.0007	-0.0012	-0.0010	-0.0007	0.0020	-0.0021	-0.0030	-0.0035	-0.0048	0.0020	-0.0012	0.0013	-0.0032	-0.0015	-0.0052	-0.0018	-0.3439	-0.0669	0.2254	0.0415	0.0658	0.0988	-0.1598	-0.1307	-0.1527	0.0392	0.0345	-0.0548	-0.0315	0.0520	0.0896	0.0065	0.0073	-0.0149	-0.0268	0.0054	-0.0256	0.0346	0.0155	0.0012	0.0007	-0.0043	0.0010	-0.0004	-0.0049	0.0033	0.0006	0.0093	0.0014	0.0007	-0.0003	-0.0003	0.0046	0.0018	-0.0004	-0.0001	-0.0029	0.0027	0.0010	0.0034	0.0006	0.0030	0.0007	0.0017	-0.2366	0.0667	0.2612	0.2243	0.2331	-0.2196	-0.1101	-0.2257	-0.0983	0.0074	0.2413	0.1900	-0.0125	0.0031	-0.0849	-0.0031	0.0366	-0.0350	0.0058	-0.0238	-0.0078	-0.0040	0.0371	0.0025	0.0001	-0.0009	-0.0039	-0.0026	0.0002	0.0025	0.0057	-0.0023	-0.0015	-0.0044	0.0004	-0.0011	-0.0036	-0.0006	-0.0062	-0.0009	-0.0003	-0.0006	0.0044	0.0010	0.0018	-0.0009	-0.0026	-0.0015	-0.1132	-0.1550	0.1399	0.0107	0.2615	-0.1605	0.1674	0.1095	0.1411	-0.2972	0.1113	-0.0366	-0.0059	-0.0163	-0.0246	-0.0047	0.0070	-0.0179	-0.0566	-0.0027	0.0010	-0.0113	0.0489	-0.0215	-0.0006	-0.0011	0.0001	-0.0036	-0.0024	0.0009	-0.0002	-0.0003	-0.0013	-0.0009	0.0040	-0.0032	-0.0006	-0.0008	-0.0012	-0.0004	-0.0002	-0.0042	-0.0000	-0.0014	0.0046	-0.0031	0.0029	-0.0019	-0.0937	0.1928	-0.0664	0.0924	-0.1564	0.1711	-0.1618	-0.0581	-0.1439	0.3900	-0.1879	0.0884	0.0060	0.0025	-0.0172	-0.0004	0.0465	-0.0098	0.0751	-0.0146	0.0103	-0.0142	-0.0481	0.0049	0.0031	-0.0005	-0.0025	-0.0023	0.0030	-0.0023	0.0040	-0.0001	0.0031	0.0004	-0.0041	-0.0011	-0.0019	0.0003	-0.0029	-0.0011	-0.0006	0.0022	-0.0010	-0.0000	-0.0054	0.0026	-0.0046	0.0002	0.1193	-0.0938	0.0747	0.0453	0.0379	-0.2847	0.1236	-0.0640	0.1855	-0.3228	0.1803	0.0096	-0.0135	0.0058	-0.0318	0.0083	-0.0008	-0.0355	-0.0498	-0.0150	-0.0088	0.0112	0.0274	0.0010	0.0013	0.0004	-0.0018	-0.0034	-0.0037	0.0012	0.0015	-0.0013	-0.0011	-0.0011	0.0019	-0.0017	0.0005	-0.0020	0.0008	-0.0009	-0.0009	-0.0019	0.0004	0.0001	0.0048	-0.0040	0.0032	-0.0017	0.0316	-0.2653	0.2661	-0.0493	0.2938	-0.2566	0.0573	-0.1339	-0.1517	-0.1135	0.1723	-0.0775	-0.0289	0.0214	-0.0089	-0.0021	-0.0637	0.0547	0.0218	0.0301	-0.0597	0.0456	0.1032	0.0222	-0.0051	0.0015	0.0020	0.0041	-0.0049	0.0032	-0.0010	0.0074	-0.0044	-0.0023	0.0016	0.0052	0.0022	-0.0000	0.0024	0.0020	0.0062	-0.0005	0.0076	0.0022	0.0060	0.0036	0.0037	0.0027	-0.0656	0.1015	0.0675	0.1339	0.2637	-0.0524	-0.1341	0.0117	0.0394	-0.0473	0.3318	0.3322	0.0534	-0.0601	-0.0222	-0.0284	0.0455	-0.0676	-0.0708	-0.0142	0.0587	-0.0449	0.0025	-0.0496	0.0003	-0.0023	0.0026	-0.0037	0.0032	0.0009	-0.0000	-0.0083	-0.0004	-0.0040	0.0043	-0.0050	-0.0042	-0.0009	-0.0051	-0.0015	-0.0038	-0.0039	-0.0008	-0.0025	-0.0001	-0.0057	-0.0061	-0.0050	-0.0853	-0.0680	0.0729	-0.0400	0.0297	0.1426	-0.2178	-0.0656	-0.2607	0.1419	-0.0135	-0.0368	0.0115	-0.0012	0.0126	-0.0124	-0.0189	0.0253	0.1116	0.0145	-0.0004	0.0053	-0.0908	0.0040	-0.0018	-0.0001	0.0027	0.0022	0.0002	-0.0014	0.0003	0.0036	-0.0003	0.0026	-0.0028	0.0031	-0.0001	0.0006	-0.0002	0.0008	0.0049	0.0019	0.0031	-0.0000	-0.0063	0.0034	-0.0035	0.0029	-0.0562	0.1409	-0.2030	-0.1752	0.0187	-0.0413	0.0053	-0.0458	0.1272	-0.2637	0.2968	0.0582	-0.0080	0.0076	-0.0146	0.0125	-0.0536	0.0341	-0.1355	0.0359	-0.0012	0.0062	-0.0050	0.0103	-0.0011	0.0030	-0.0007	0.0055	0.0002	0.0048	-0.0078	0.0009	-0.0032	-0.0014	0.0019	0.0016	-0.0026	0.0044	0.0015	0.0037	-0.0034	0.0006	0.0007	0.0023	0.0019	-0.0028	0.0014	0.0000	0.3268	-0.3053	0.0750	-0.0885	0.1365	0.0257	0.0229	0.1765	-0.1511	0.1295	-0.0693	0.0118	0.0524	-0.0357	0.0040	-0.0230	-0.0367	0.0081	0.1029	0.0265	0.0309	-0.0282	0.0289	-0.0471	-0.0025	0.0009	0.0067	0.0009	0.0023	-0.0057	-0.0023	-0.0059	0.0002	0.0000	0.0035	-0.0013	0.0008	-0.0038	0.0032	-0.0004	0.0071	-0.0026	0.0015	-0.0039	-0.0012	0.0012	-0.0030	-0.0010	-0.1740	0.2597	-0.1931	-0.0985	0.1878	0.0684	-0.1875	-0.0372	-0.1796	-0.0952	0.2478	0.0630	0.0244	-0.0484	0.0757	-0.0159	-0.0254	0.0637	-0.1564	0.0283	0.0006	-0.0079	0.0291	0.0110	-0.0028	-0.0017	0.0044	0.0036	0.0056	0.0076	-0.0091	0.0002	-0.0029	-0.0042	0.0020	0.0012	-0.0020	0.0055	-0.0012	0.0024	-0.0037	-0.0016	0.0013	0.0006	0.0004	0.0005	-0.0016	0.0006	0.1413	-0.0088	-0.1779	-0.1385	0.0972	0.1989	-0.1502	0.1732	-0.1938	0.1637	-0.0988	0.0421	0.1044	-0.0839	0.0014	-0.0320	-0.0044	-0.0085	-0.0108	0.0105	0.0476	-0.0298	0.0502	-0.0495	-0.0004	-0.0000	0.0080	0.0006	0.0067	-0.0018	-0.0052	-0.0092	0.0021	-0.0015	0.0040	-0.0028	-0.0051	-0.0005	-0.0004	0.0005	0.0001	-0.0025	-0.0020	-0.0040	-0.0009	0.0005	-0.0039	-0.0021	0.0173	0.1009	-0.2462	-0.2767	0.1287	0.1057	-0.2520	-0.0856	-0.3127	0.0270	0.2201	0.0475	0.0539	-0.0533	0.0450	-0.0277	-0.0923	0.1009	-0.0657	0.0557	-0.0166	0.0127	0.0173	0.0224	-0.0065	0.0026	0.0081	0.0109	0.0052	0.0059	-0.0114	0.0007	-0.0038	-0.0033	0.0001	0.0052	-0.0032	0.0051	0.0019	0.0047	0.0021	0.0010	0.0047	0.0012	-0.0008	0.0031	-0.0024	0.0024	0.2224	-0.1961	-0.0497	-0.2117	0.2662	-0.0599	-0.0063	0.1332	-0.0777	-0.0834	0.1525	0.0355	0.0515	-0.0808	-0.0051	-0.0401	-0.0372	0.0429	0.0818	0.0329	0.0134	-0.0117	-0.0625	-0.0231	-0.0062	0.0027	0.0083	0.0031	0.0042	-0.0034	-0.0033	-0.0050	-0.0006	0.0014	0.0008	-0.0016	-0.0025	0.0004	0.0025	0.0023	0.0081	-0.0043	0.0037	-0.0041	-0.0028	-0.0008	-0.0025	0.0001	0.0506	-0.0394	0.1233	0.0311	0.0176	0.0603	-0.2493	-0.2296	-0.1062	-0.0047	0.2844	0.1868	0.0346	0.0097	0.0991	-0.0315	-0.0388	-0.0035	-0.0296	0.0212	0.0125	-0.0048	-0.0399	0.0158	-0.0038	-0.0014	0.0072	0.0070	-0.0000	0.0036	-0.0027	0.0003	-0.0019	-0.0030	-0.0007	0.0016	0.0040	-0.0007	0.0008	-0.0004	-0.0019	0.0044	0.0034	0.0036	-0.0025	-0.0012	-0.0040	-0.0001	-0.2294	-0.0829	0.1369	-0.0914	0.3444	-0.0209	-0.0345	0.0754	-0.1569	0.0501	0.0042	-0.0538	0.0216	-0.0716	-0.1010	0.0057	0.0217	0.0314	0.1132	-0.0275	-0.0368	0.0047	-0.0576	0.0192	-0.0042	-0.0003	0.0013	-0.0002	-0.0009	0.0001	0.0046	0.0049	-0.0017	0.0017	-0.0036	0.0017	-0.0086	0.0032	-0.0034	0.0040	0.0078	-0.0040	0.0034	-0.0032	-0.0029	0.0032	-0.0008	0.0028	0.2445	0.1814	-0.2650	-0.0764	-0.2935	0.0094	0.1539	0.0186	0.3126	-0.1215	-0.1366	-0.0915	-0.0062	0.0054	-0.0747	-0.0135	0.0142	-0.0441	0.0384	0.0105	0.0103	0.0147	-0.0942	-0.0101	0.0000	0.0073	-0.0027	0.0035	-0.0015	-0.0058	0.0028	-0.0023	0.0033	0.0062	-0.0019	-0.0021	-0.0027	0.0009	0.0014	0.0013	-0.0022	0.0029	-0.0028	0.0014	-0.0015	-0.0033	0.0028	-0.0006	0.3678	-0.1353	-0.1100	-0.1227	-0.3272	0.1076	0.1499	0.0416	0.2548	-0.1129	-0.1125	-0.1032	0.0048	0.0421	0.0771	-0.0129	-0.0411	-0.0105	0.0215	0.0276	0.0189	0.0071	-0.0727	0.0037	-0.0013	0.0031	0.0040	0.0064	-0.0027	-0.0040	-0.0016	0.0001	0.0009	0.0044	-0.0008	0.0019	0.0065	-0.0021	0.0067	-0.0003	-0.0012	0.0048	-0.0023	0.0026	-0.0018	-0.0023	0.0025	0.0005	-0.0939	0.0924	0.0444	0.0625	0.2523	-0.2072	0.0510	-0.0455	-0.1571	0.1580	-0.0499	0.0495	0.0176	-0.0583	0.0773	-0.0113	0.0645	0.0121	-0.1455	-0.0281	-0.0600	-0.0086	0.2211	0.0132	-0.0024	-0.0049	0.0040	-0.0020	0.0004	0.0070	0.0014	0.0043	-0.0030	-0.0079	0.0019	-0.0009	0.0002	0.0017	-0.0020	-0.0003	-0.0049	-0.0049	-0.0002	0.0000	0.0093	0.0038	0.0019	-0.0011	-0.1366	-0.0730	0.1647	0.0367	-0.0739	0.2185	-0.1688	-0.0495	0.1842	-0.2036	0.0825	-0.0111	0.0107	0.0107	0.0206	-0.0061	0.0090	-0.0710	0.0839	-0.0192	0.0231	0.0353	-0.2148	0.0060	-0.0020	-0.0016	0.0022	0.0030	-0.0049	-0.0023	0.0041	0.0023	0.0055	0.0071	-0.0051	-0.0032	0.0007	-0.0002	-0.0013	0.0001	-0.0005	0.0043	-0.0010	0.0013	-0.0067	-0.0047	-0.0005	0.0001	-0.0000	-0.0000	0.0000	-0.0000	0.0000	-0.0000	-0.0000	-0.0000	0.0000	-0.0000	-0.0000	-0.0000	0.0000	-0.0000	-0.0000	-0.0000	-0.0000	0.0000	0.0000	0.0000	-0.0000	-0.0000	0.0000	0.0000	-0.0000	0.0000	0.0000	0.0000	-0.0000	0.0000	-0.0000	0.0000	-0.0000	-0.0000	0.0000	0.0000	-0.0000	-0.0000	-0.0000	0.0000	0.0000	-0.0000	0.0000	0.0000	0.0000	-0.0000	-0.0000	0.0000	0.0000	0.0000	-0.0000	0.0000	-0.0000	0.0000	0.0000	0.0000	0.0000	-0.0000	0.0000	-0.0000	-0.0000	0.0000	-0.0000	0.0000	-0.0000	0.0000	0.0000	-0.0000	-0.0000	-0.0000	-0.0000	-0.0000	-0.0000	-0.0000	-0.0000	0.0000	-0.0000	0.0000	-0.0000	0.0000	0.0000	0.0000	0.0000	-0.0000	-0.0000	-0.0000	0.0000	0.0000	0.0000	0.0000	0.0000	0.0000	-0.0000	0.0000	0.0000	-0.0000	-0.0000	0.0000	0.0000	-0.0000	-0.0000	-0.0000	-0.0000	-0.0000	0.0000	0.0000	-0.0000	0.0000	-0.0000	0.0000	0.0000	0.0000	-0.0000	-0.0000	-0.0000	0.0000	0.0000	-0.0000	-0.0000	0.0000	-0.0000	-0.0000	0.0000	0.0000	0.0000	-0.0000	-0.0000	-0.0000	-0.0000	-0.0000	-0.0000	-0.0000	0.0000	0.0000	0.0000	0.0000	-0.0000	-0.0000	0.0000	-0.0000	-0.0000	-0.0000	-0.0000	0.0000	-0.0000	-0.0000	0.0000	-0.0000	0.0000	-0.0000	-0.0000	-0.0000	0.0000	-0.0000	-0.0000	-0.0000	0.0000	-0.0000	-0.0000	-0.0000	-0.0000	0.0000	0.0000	0.0000	-0.0000	-0.0000	0.0000	0.0000	-0.0000	0.0000	0.0000	0.0000	-0.0000	0.0000	-0.0000	0.0000	-0.0000	-0.0000	0.0000	0.0000	-0.0000	-0.0000	-0.0000	0.0000	0.0000	-0.0000	0.0000	0.0000	0.0000	-0.0000	-0.0000	0.0000	0.0000	0.0000	-0.0000	0.0000	-0.0000	0.0000	0.0000	0.0000	0.0000	-0.0000	0.0000	-0.0000	-0.0000	0.0000	-0.0000	0.0000	-0.0000	0.0000	0.0000	-0.0000	-0.0000	-0.0000	-0.0000	-0.0000	-0.0000	-0.0000	-0.0000	0.0000	-0.0000	0.0000	-0.0000	0.0000	0.0000	0.0000	0.0000	-0.0000	-0.0000	-0.0000	0.0000	0.0000	0.0000	0.0000	0.0000	0.0000	-0.0000	0.0000	0.0000	-0.0000	-0.0000	0.0000	0.0000	-0.0000	-0.0000	-0.0000	-0.0000	-0.0000	0.0000	0.0000	-0.0000	0.0000	-0.0000	0.0000	0.0000	0.0000	-0.0000	-0.0000	-0.0000	0.0000	0.0000	-0.0000	-0.0000	0.0000	-0.0000	-0.0000	0.0000	0.0000	0.0000	-0.0000	-0.0000	-0.0000	-0.0000	-0.0000	-0.0000	-0.0000	0.0000	0.0000	0.0000	0.0000	-0.0000	-0.0000	0.0000	-0.0000	-0.0000	-0.0000	-0.0000	0.0000	-0.0000	-0.0000	0.0000	-0.0000	0.0000	-0.0000	-0.0000	-0.0000	0.0000	-0.0000	-0.0000	-0.0000	0.0000	-0.0000	-0.0000	-0.0000	-0.0000	0.0000	0.0000	0.0000	-0.0000	-0.0000	0.0000	0.0000	-0.0000	0.0000	0.0000	0.0000	-0.0000	0.0000	-0.0000	0.0000	-0.0000	-0.0000	0.0000	0.0000	-0.0000	-0.0000	-0.0000	0.0000	0.0000	-0.0000	0.0000	0.0000	0.0000	-0.0000	-0.0000	0.0000	0.0000	0.0000	-0.0000	0.0000	-0.0000	0.0000	0.0000	0.0000	0.0000	-0.0000	0.0000	-0.0000	-0.0000	0.0000	-0.0000	0.0000	-0.0000	0.0000	0.0000	-0.0000	-0.0000	-0.0000	-0.0000	-0.0000	-0.0000	-0.0000	-0.0000	0.0000	-0.0000	0.0000	-0.0000	0.0000	0.0000	0.0000	0.0000	-0.0000	-0.0000	-0.0000	0.0000	0.0000	0.0000	0.0000	0.0000	0.0000	-0.0000	0.0000	0.0000	-0.0000	-0.0000	0.0000	0.0000	-0.0000	-0.0000	-0.0000	-0.0000	-0.0000	0.0000	0.0000	-0.0000	0.0000	-0.0000	0.0000	0.0000	0.0000	-0.0000	-0.0000	-0.0000	0.0000	0.0000	-0.0000	-0.0000	0.0000	-0.0000	-0.0000	0.0000	0.0000	0.0000	-0.0000	-0.0000	-0.0000	-0.0000	-0.0000	-0.0000	-0.0000	0.0000	0.0000	0.0000	0.0000	-0.0000	-0.0000	0.0000	-0.0000	-0.0000	-0.0000	-0.0000	0.0000	-0.0000	-0.0000	0.0000	-0.0000	0.0000	-0.0000	-0.0000	-0.0000	0.0000	-0.0000	-0.0000	-0.0000	0.0000	-0.0000	-0.0000	-0.0000	-0.0000	0.0000	0.0000	0.0000	-0.0000	-0.0000	0.0000	0.0000	-0.0000	0.0000	0.0000	0.0000	-0.0000	0.0000	-0.0000	0.0000	-0.0000	-0.0000	0.0000	0.0000	-0.0000	-0.0000	-0.0000	0.0000	0.0000	-0.0000	0.0000	0.0000	0.0000	-0.0000	-0.0000	0.0000	0.0000	0.0000	-0.0000	0.0000	-0.0000	0.0000	0.0000	0.0000	0.0000	-0.0000	0.0000	-0.0000	-0.0000	0.0000	-0.0000	0.0000	-0.0000	0.0000	0.0000	-0.0000	-0.0000	-0.0000	-0.0000	-0.0000	-0.0000	-0.0000	-0.0000	0.0000	-0.0000	0.0000	-0.0000	0.0000	0.0000	0.0000	0.0000	-0.0000	-0.0000	-0.0000	0.0000	0.0000	0.0000	0.0000	0.0000	0.0000	-0.0000	0.0000	0.0000	-0.0000	-0.0000	0.0000	0.0000	-0.0000	-0.0000	-0.0000	-0.0000	-0.0000	0.0000	0.0000	-0.0000	0.0000	-0.0000	0.0000	0.0000	0.0000	-0.0000	-0.0000	-0.0000	0.0000	0.0000	-0.0000	-0.0000	0.0000	-0.0000	-0.0000	0.0000	0.0000	0.0000	-0.0000	-0.0000	-0.0000	-0.0000	-0.0000	-0.0000	-0.0000	0.0000	0.0000	0.0000	0.0000	-0.0000	-0.0000	0.0000	-0.0000	-0.0000	-0.0000	-0.0000	0.0000	0.0000	0.0000	-0.0000	0.0000	-0.0000	0.0000	0.0000	-0.0000	-0.0000	0.0000	0.0000	0.0000	-0.0000	0.0000	0.0000	0.0000	0.0000	-0.0000	-0.0000	-0.0000	-0.0000	0.0000	-0.0000	-0.0000	0.0000	-0.0000	-0.0000	-0.0000	0.0000	-0.0000	0.0000	-0.0000	0.0000	0.0000	-0.0000	-0.0000	0.0000	0.0000	0.0000	-0.0000	-0.0000	0.0000	-0.0000	-0.0000	-0.0000	0.0000	0.0000	-0.0000	-0.0000	-0.0000	0.0000	-0.0000	0.0000	-0.0000	-0.0000	-0.0000	-0.0000	0.0000	-0.0000	0.0000	0.0000	-0.0000	0.0000	-0.0000	0.0000	-0.0000	-0.0000	-0.0000	0.0000	0.0000	0.0000	0.0000	0.0000	0.0000	0.0000	-0.0000	0.0000	-0.0000	0.0000	-0.0000	-0.0000	-0.0000	-0.0000	0.0000	0.0000	0.0000	-0.0000	-0.0000	-0.0000	-0.0000	-0.0000	-0.0000	0.0000	-0.0000	-0.0000	0.0000	0.0000	-0.0000	-0.0000	0.0000	0.0000	0.0000	0.0000	-0.0000	-0.0000	-0.0000	0.0000	0.0000	0.0000	-0.0000	-0.0000	-0.0000	0.0000	0.0000	0.0000	-0.0000	-0.0000	0.0000	0.0000	-0.0000	0.0000	0.0000	-0.0000	-0.0000	-0.0000	0.0000	0.0000	0.0000	0.0000	0.0000	0.0000	0.0000	-0.0000	-0.0000	-0.0000	-0.0000	0.0000	0.0000	-0.0000	0.0000	0.0000	0.0000	0.0000	-0.0000	-0.0000	-0.0000	0.0000	-0.0000	0.0000	-0.0000	-0.0000	0.0000	0.0000	-0.0000	-0.0000	-0.0000	0.0000	-0.0000	-0.0000	-0.0000	-0.0000	0.0000	0.0000	0.0000	0.0000	-0.0000	0.0000	0.0000	-0.0000	0.0000	0.0000	0.0000	-0.0000	0.0000	-0.0000	0.0000	-0.0000	-0.0000	0.0000	0.0000	-0.0000	-0.0000	-0.0000	0.0000	0.0000	-0.0000	0.0000	0.0000	0.0000	-0.0000	-0.0000	0.0000	0.0000	0.0000	-0.0000	0.0000	-0.0000	0.0000	0.0000	0.0000	0.0000	-0.0000	0.0000	-0.0000	-0.0000	0.0000	-0.0000	0.0000	-0.0000	0.0000	0.0000	0.0000	-0.0000	-0.0000	-0.0000	-0.0000	-0.0000	-0.0000	-0.0000	0.0000	-0.0000	0.0000	-0.0000	0.0000	0.0000	0.0000	0.0000	-0.0000	-0.0000	-0.0000	0.0000	0.0000	0.0000	0.0000	0.0000	0.0000	-0.0000	0.0000	0.0000	-0.0000	-0.0000	0.0000	0.0000	-0.0000	-0.0000	-0.0000	-0.0000	0.0000	0.0000	0.0000	-0.0000	-0.0000	-0.0000	0.0000	0.0000	0.0000	-0.0000	-0.0000	-0.0000	0.0000	0.0000	-0.0000	-0.0000	0.0000	-0.0000	-0.0000	0.0000	0.0000	0.0000	-0.0000	-0.0000	-0.0000	-0.0000	-0.0000	-0.0000	-0.0000	0.0000	0.0000	0.0000	0.0000	-0.0000	-0.0000	0.0000	-0.0000	-0.0000	-0.0000	-0.0000	0.0000	-0.0000	-0.0000	0.0000	-0.0000	0.0000	-0.0000	-0.0000	0.0000	0.0000	-0.0000	-0.0000	-0.0000	0.0000	-0.0000	-0.0000	-0.0000	-0.0000	0.0000	0.0000	0.0000	0.0000	-0.0000	0.0000	0.0000	-0.0000	0.0000	0.0000	0.0000	-0.0000	0.0000	-0.0000	0.0000	-0.0000	-0.0000	0.0000	0.0000	-0.0000	-0.0000	-0.0000	0.0000	0.0000	-0.0000	0.0000	0.0000	0.0000	-0.0000	-0.0000	0.0000	0.0000	0.0000	-0.0000	0.0000	-0.0000	0.0000	0.0000	0.0000	0.0000	-0.0000	0.0000	-0.0000	-0.0000	0.0000	-0.0000	0.0000	-0.0000	0.0000	0.0000	0.0000	-0.0000	-0.0000	-0.0000	-0.0000	-0.0000	-0.0000	-0.0000	0.0000	-0.0000	0.0000	-0.0000	0.0000	0.0000	0.0000	0.0000	-0.0000	-0.0000	-0.0000	0.0000	0.0000	0.0000	0.0000	0.0000	0.0000	-0.0000	0.0000	0.0000	-0.0000	-0.0000	0.0000	0.0000	-0.0000	-0.0000	-0.0000	-0.0000	0.0000	0.0000	0.0000	-0.0000	-0.0000	-0.0000	0.0000	0.0000	0.0000	-0.0000	-0.0000	-0.0000	0.0000	0.0000	-0.0000	-0.0000	0.0000	-0.0000	-0.0000	0.0000	0.0000	0.0000	-0.0000	-0.0000	-0.0000	-0.0000	-0.0000	-0.0000	-0.0000	0.0000	0.0000	0.0000	0.0000	-0.0000	-0.0000	0.0000	-0.0000	-0.0000	-0.0000	-0.0000	0.0000	0.0000	0.0000	-0.0000	0.0000	-0.0000	0.0000	0.0000	-0.0000	-0.0000	0.0000	0.0000	0.0000	-0.0000	0.0000	0.0000	0.0000	0.0000	-0.0000	-0.0000	-0.0000	-0.0000	0.0000	-0.0000	-0.0000	0.0000	-0.0000	-0.0000	-0.0000	0.0000	-0.0000	0.0000	-0.0000	0.0000	0.0000	-0.0000	-0.0000	0.0000	0.0000	0.0000	-0.0000	-0.0000	0.0000	-0.0000	-0.0000	-0.0000	0.0000	0.0000	-0.0000	-0.0000	-0.0000	0.0000	-0.0000	0.0000	-0.0000	-0.0000	-0.0000	-0.0000	0.0000	-0.0000	0.0000	0.0000	-0.0000	0.0000	-0.0000	0.0000	-0.0000	-0.0000	-0.0000	0.0000	0.0000	0.0000	0.0000	0.0000	0.0000	0.0000	-0.0000	0.0000	-0.0000	0.0000	-0.0000	-0.0000	-0.0000	-0.0000	0.0000	0.0000	0.0000	-0.0000	-0.0000	-0.0000	-0.0000	-0.0000	-0.0000	0.0000	-0.0000	-0.0000	0.0000	0.0000	-0.0000	-0.0000	0.0000	0.0000	0.0000	0.0000	-0.0000	-0.0000	-0.0000	0.0000	0.0000	0.0000	-0.0000	-0.0000	-0.0000	0.0000	0.0000	0.0000	-0.0000	-0.0000	0.0000	0.0000	-0.0000	0.0000	0.0000	-0.0000	-0.0000	-0.0000	0.0000	0.0000	0.0000	0.0000	0.0000	0.0000	0.0000	-0.0000	-0.0000	-0.0000	-0.0000	0.0000	0.0000	-0.0000	0.0000	0.0000	0.0000	0.0000	-0.0000	0.0000	0.0000	-0.0000	0.0000	-0.0000	0.0000	0.0000	0.0000	-0.0000	0.0000	0.0000	-0.0000	-0.0000	0.0000	0.0000	0.0000	0.0000	-0.0000	-0.0000	0.0000	-0.0000	0.0000	-0.0000	-0.0000	0.0000	-0.0000	-0.0000	-0.0000	0.0000	-0.0000	0.0000	-0.0000	0.0000	0.0000	-0.0000	-0.0000	0.0000	0.0000	0.0000	-0.0000	-0.0000	0.0000	-0.0000	-0.0000	-0.0000	0.0000	0.0000	-0.0000	-0.0000	-0.0000	0.0000	-0.0000	0.0000	-0.0000	-0.0000	0.0000	-0.0000	0.0000	-0.0000	0.0000	0.0000	-0.0000	0.0000	-0.0000	0.0000	-0.0000	-0.0000	-0.0000	0.0000	0.0000	0.0000	0.0000	0.0000	0.0000	0.0000	-0.0000	0.0000	-0.0000	0.0000	-0.0000	-0.0000	-0.0000	-0.0000	0.0000	-0.0000	0.0000	-0.0000	-0.0000	-0.0000	-0.0000	-0.0000	-0.0000	0.0000	-0.0000	-0.0000	0.0000	0.0000	-0.0000	-0.0000	0.0000	0.0000	0.0000	0.0000	0.0000	-0.0000	-0.0000	0.0000	-0.0000	0.0000	-0.0000	-0.0000	-0.0000	0.0000	0.0000	0.0000	-0.0000	-0.0000	0.0000	0.0000	-0.0000	0.0000	0.0000	-0.0000	-0.0000	-0.0000	0.0000	0.0000	0.0000	0.0000	0.0000	0.0000	0.0000	-0.0000	-0.0000	-0.0000	-0.0000	0.0000	0.0000	-0.0000	0.0000	0.0000	0.0000	0.0000	-0.0000	0.0000	0.0000	-0.0000	0.0000	-0.0000	0.0000	0.0000	0.0000	-0.0000	0.0000	0.0000	-0.0000	-0.0000	0.0000	0.0000	0.0000	0.0000	-0.0000	-0.0000	0.0000	-0.0000	0.0000	-0.0000	-0.0000	0.0000	-0.0000	-0.0000	-0.0000	0.0000	-0.0000	0.0000	-0.0000	0.0000	0.0000	-0.0000	-0.0000	0.0000	0.0000	0.0000	-0.0000	-0.0000	0.0000	-0.0000	-0.0000	-0.0000	0.0000	0.0000	-0.0000	-0.0000	-0.0000	0.0000	-0.0000	0.0000	-0.0000	-0.0000	0.0000	-0.0000	0.0000	-0.0000	0.0000	0.0000	-0.0000	0.0000	-0.0000	0.0000	-0.0000	-0.0000	-0.0000	0.0000	0.0000	0.0000	0.0000	0.0000	0.0000	0.0000	-0.0000	0.0000	-0.0000	0.0000	-0.0000	-0.0000	-0.0000	-0.0000	0.0000	-0.0000	0.0000	-0.0000	-0.0000	-0.0000	-0.0000	-0.0000	-0.0000	0.0000	-0.0000	-0.0000	0.0000	0.0000	-0.0000	-0.0000	0.0000	0.0000	0.0000	0.0000	0.0000	-0.0000	-0.0000	0.0000	-0.0000	0.0000	-0.0000	-0.0000	-0.0000	0.0000	0.0000	0.0000	-0.0000	-0.0000	0.0000	0.0000	-0.0000	0.0000	0.0000	-0.0000	-0.0000	-0.0000	0.0000	0.0000	0.0000	0.0000	0.0000	0.0000	0.0000	-0.0000	-0.0000	-0.0000	-0.0000	0.0000	0.0000	-0.0000	0.0000	0.0000	0.0000	0.0000	-0.0000	-0.0000	-0.0000	0.0000	-0.0000	0.0000	-0.0000	-0.0000	-0.0000	0.0000	-0.0000	-0.0000	0.0000	0.0000	-0.0000	-0.0000	-0.0000	-0.0000	0.0000	0.0000	-0.0000	0.0000	-0.0000	0.0000	0.0000	-0.0000	0.0000	0.0000	0.0000	-0.0000	0.0000	-0.0000	0.0000	-0.0000	-0.0000	0.0000	0.0000	-0.0000	-0.0000	-0.0000	0.0000	0.0000	-0.0000	0.0000	0.0000	0.0000	-0.0000	-0.0000	0.0000	0.0000	0.0000	-0.0000	0.0000	-0.0000	0.0000	0.0000	-0.0000	0.0000	-0.0000	0.0000	-0.0000	-0.0000	0.0000	-0.0000	0.0000	-0.0000	0.0000	0.0000	0.0000	-0.0000	-0.0000	-0.0000	-0.0000	-0.0000	-0.0000	-0.0000	0.0000	-0.0000	0.0000	-0.0000	0.0000	0.0000	0.0000	0.0000	-0.0000	0.0000	-0.0000	0.0000	0.0000	0.0000	0.0000	0.0000	0.0000	-0.0000	0.0000	0.0000	-0.0000	-0.0000	0.0000	0.0000	-0.0000	-0.0000	-0.0000	-0.0000	-0.0000	0.0000	0.0000	-0.0000	0.0000	-0.0000	0.0000	0.0000	0.0000	-0.0000	-0.0000	-0.0000	0.0000	0.0000	-0.0000	-0.0000	0.0000	-0.0000	-0.0000	0.0000	0.0000	0.0000	-0.0000	-0.0000	-0.0000	-0.0000	-0.0000	-0.0000	-0.0000	0.0000	0.0000	0.0000	0.0000	-0.0000	-0.0000	0.0000	-0.0000	-0.0000	-0.0000	-0.0000	0.0000	-0.0000	-0.0000	0.0000	-0.0000	0.0000	-0.0000	-0.0000	-0.0000	0.0000	-0.0000	-0.0000	0.0000	0.0000	-0.0000	-0.0000	-0.0000	-0.0000	0.0000	0.0000	-0.0000	0.0000	-0.0000	0.0000	0.0000	-0.0000	0.0000	0.0000	0.0000	-0.0000	0.0000	-0.0000	0.0000	-0.0000	-0.0000	0.0000	0.0000	-0.0000	-0.0000	-0.0000	0.0000	0.0000	-0.0000	0.0000	0.0000	0.0000	-0.0000	-0.0000	0.0000	0.0000	0.0000	-0.0000	0.0000	-0.0000	0.0000	0.0000	-0.0000	0.0000	-0.0000	0.0000	-0.0000	-0.0000	0.0000	-0.0000	0.0000	-0.0000	0.0000	0.0000	0.0000	-0.0000	-0.0000	-0.0000	-0.0000	-0.0000	-0.0000	-0.0000	0.0000	-0.0000	0.0000	-0.0000	0.0000	0.0000	0.0000	0.0000	-0.0000	0.0000	-0.0000	0.0000	0.0000	0.0000	0.0000	0.0000	0.0000	-0.0000	0.0000	0.0000	-0.0000	-0.0000	0.0000	0.0000	-0.0000	-0.0000	-0.0000	-0.0000	-0.0000	0.0000	0.0000	-0.0000	0.0000	-0.0000	0.0000	0.0000	0.0000	-0.0000	-0.0000	-0.0000	0.0000	0.0000	-0.0000	-0.0000	0.0000	-0.0000	-0.0000	0.0000	0.0000	0.0000	-0.0000	-0.0000	-0.0000	-0.0000	-0.0000	-0.0000	-0.0000	0.0000	0.0000	0.0000	0.0000	-0.0000	-0.0000	0.0000	-0.0000	-0.0000	-0.0000	-0.0000	0.0000	0.0000	0.0000	-0.0000	0.0000	0.0000	0.0000	0.0000	0.0000	-0.0000	0.0000	0.0000	-0.0000	-0.0000	0.0000	0.0000	0.0000	0.0000	-0.0000	-0.0000	-0.0000	-0.0000	0.0000	-0.0000	-0.0000	0.0000	-0.0000	-0.0000	-0.0000	0.0000	-0.0000	0.0000	-0.0000	0.0000	0.0000	-0.0000	-0.0000	0.0000	0.0000	0.0000	-0.0000	-0.0000	0.0000	-0.0000	-0.0000	-0.0000	0.0000	0.0000	-0.0000	-0.0000	-0.0000	0.0000	-0.0000	-0.0000	-0.0000	-0.0000	0.0000	-0.0000	0.0000	-0.0000	0.0000	0.0000	-0.0000	0.0000	-0.0000	0.0000	-0.0000	-0.0000	-0.0000	0.0000	0.0000	0.0000	0.0000	0.0000	0.0000	0.0000	-0.0000	0.0000	-0.0000	0.0000	-0.0000	-0.0000	-0.0000	-0.0000	0.0000	-0.0000	0.0000	-0.0000	-0.0000	-0.0000	-0.0000	-0.0000	-0.0000	0.0000	-0.0000	-0.0000	0.0000	0.0000	-0.0000	-0.0000	0.0000	0.0000	0.0000	0.0000	0.0000	-0.0000	0.0000	0.0000	-0.0000	0.0000	-0.0000	-0.0000	-0.0000	0.0000	0.0000	0.0000	-0.0000	-0.0000	0.0000	0.0000	-0.0000	0.0000	0.0000	-0.0000	-0.0000	-0.0000	0.0000	0.0000	0.0000	0.0000	0.0000	0.0000	0.0000	-0.0000	-0.0000	-0.0000	-0.0000	0.0000	0.0000	-0.0000	0.0000	0.0000	0.0000	0.0000	-0.0000	0.0000	0.0000	-0.0000	0.0000	0.0000	0.0000	0.0000	0.0000	-0.0000	0.0000	0.0000	-0.0000	-0.0000	0.0000	0.0000	0.0000	0.0000	-0.0000	-0.0000	-0.0000	-0.0000	0.0000	-0.0000	-0.0000	0.0000	-0.0000	-0.0000	-0.0000	0.0000	-0.0000	0.0000	-0.0000	0.0000	0.0000	-0.0000	-0.0000	0.0000	0.0000	0.0000	-0.0000	-0.0000	0.0000	-0.0000	-0.0000	-0.0000	0.0000	0.0000	-0.0000	-0.0000	-0.0000	0.0000	-0.0000	-0.0000	-0.0000	-0.0000	0.0000	-0.0000	0.0000	-0.0000	0.0000	0.0000	-0.0000	0.0000	-0.0000	0.0000	-0.0000	-0.0000	-0.0000	0.0000	0.0000	0.0000	0.0000	0.0000	0.0000	0.0000	-0.0000	0.0000	-0.0000	0.0000	-0.0000	-0.0000	-0.0000	-0.0000	0.0000	-0.0000	0.0000	-0.0000	-0.0000	-0.0000	-0.0000	-0.0000	-0.0000	0.0000	-0.0000	-0.0000	0.0000	0.0000	-0.0000	-0.0000	0.0000	0.0000	0.0000	0.0000	0.0000	-0.0000	0.0000	0.0000	-0.0000	0.0000	-0.0000	-0.0000	-0.0000	0.0000	0.0000	0.0000	-0.0000	-0.0000	0.0000	0.0000	-0.0000	0.0000	0.0000	-0.0000	-0.0000	-0.0000	0.0000	0.0000	0.0000	0.0000	0.0000	0.0000	0.0000	-0.0000	-0.0000	-0.0000	-0.0000	0.0000	0.0000	-0.0000	0.0000	0.0000	0.0000	0.0000	-0.0000	0.0000	0.0000	-0.0000	0.0000	0.0000	0.0000	0.0000	0.0000	-0.0000	0.0000	0.0000	-0.0000	-0.0000	0.0000	0.0000	0.0000	0.0000	-0.0000	-0.0000	-0.0000	-0.0000	0.0000	-0.0000	-0.0000	0.0000	-0.0000	-0.0000	-0.0000	0.0000	-0.0000	0.0000	-0.0000	0.0000	0.0000	-0.0000	-0.0000	0.0000	0.0000	0.0000	-0.0000	-0.0000	0.0000	-0.0000	-0.0000	-0.0000	0.0000	0.0000	-0.0000	-0.0000	-0.0000	0.0000	-0.0000	-0.0000	-0.0000	-0.0000	0.0000	-0.0000	0.0000	-0.0000	0.0000	0.0000	-0.0000	0.0000	-0.0000	0.0000	-0.0000	-0.0000	-0.0000	0.0000	0.0000	0.0000	0.0000	0.0000	0.0000	0.0000	-0.0000	0.0000	-0.0000	0.0000	-0.0000	-0.0000	-0.0000	-0.0000	0.0000	-0.0000	0.0000	-0.0000	-0.0000	-0.0000	-0.0000	-0.0000	-0.0000	0.0000	-0.0000	-0.0000	0.0000	0.0000	-0.0000	-0.0000	0.0000	0.0000	0.0000	0.0000	0.0000	-0.0000	0.0000	0.0000	-0.0000	0.0000	-0.0000	-0.0000	-0.0000	0.0000	0.0000	0.0000	-0.0000	-0.0000	0.0000	0.0000	-0.0000	0.0000	0.0000	-0.0000	-0.0000	-0.0000	0.0000	0.0000	0.0000	0.0000	0.0000	0.0000	0.0000	-0.0000	-0.0000	-0.0000	-0.0000	0.0000	0.0000	-0.0000	0.0000	0.0000	0.0000	0.0000	-0.0000	0.0000	0.0000	-0.0000	0.0000	0.0000	0.0000	0.0000	0.0000	-0.0000	0.0000	0.0000	-0.0000	-0.0000	0.0000	0.0000	0.0000	0.0000	-0.0000	-0.0000	-0.0000	-0.0000	0.0000	-0.0000	-0.0000	0.0000	-0.0000	-0.0000	-0.0000	0.0000	-0.0000	0.0000	-0.0000	0.0000	0.0000	-0.0000	-0.0000	0.0000	0.0000	0.0000	-0.0000	-0.0000	0.0000	-0.0000	-0.0000	-0.0000	0.0000	0.0000	-0.0000	-0.0000	-0.0000	0.0000	-0.0000	-0.0000	-0.0000	-0.0000	0.0000	-0.0000	0.0000	-0.0000	0.0000	0.0000	-0.0000	0.0000	-0.0000	0.0000	-0.0000	-0.0000	-0.0000	0.0000	0.0000	0.0000	0.0000	0.0000	0.0000	0.0000	-0.0000	0.0000	-0.0000	0.0000	-0.0000	-0.0000	-0.0000	-0.0000	0.0000	-0.0000	0.0000	-0.0000	-0.0000	-0.0000	-0.0000	-0.0000	-0.0000	0.0000	-0.0000	-0.0000	0.0000	0.0000	-0.0000	-0.0000	0.0000	0.0000	0.0000	0.0000	0.0000	-0.0000	0.0000	0.0000	-0.0000	0.0000	-0.0000	-0.0000	-0.0000	0.0000	0.0000	0.0000	-0.0000	-0.0000	0.0000	0.0000	-0.0000	0.0000	0.0000	-0.0000	-0.0000	-0.0000	0.0000	0.0000	0.0000	0.0000	0.0000	0.0000	0.0000	-0.0000	-0.0000	-0.0000	-0.0000	0.0000	0.0000	-0.0000	0.0000	0.0000	0.0000	0.0000	-0.0000	1.0000	1.0000	1.0000	1.0000	1.0000	1.0000	1.0000	1.0000	1.0000	1.0000	1.0000	1.0000	1.0000	1.0000	1.0000	1.0000	1.0000	1.0000	1.0000	1.0000	1.0000	1.0000	1.0000	1.0000	1.0000	1.0000	1.0000	1.0000	1.0000	1.0000	1.0000	1.0000	1.0000	1.0000	1.0000	1.0000	1.0000	1.0000	1.0000	1.0000	1.0000	1.0000	1.0000	1.0000	1.0000	1.0000	1.0000	1.0000	1.0000	1.0000	1.0000	1.0000	1.0000	1.0000	1.0000	1.0000	1.0000	1.0000	1.0000	1.0000	1.0000	1.0000	1.0000	1.0000	1.0000	1.0000	1.0000	1.0000	1.0000	1.0000	1.0000	1.0000	1.0000	1.0000	1.0000	1.0000	1.0000	1.0000	1.0000	1.0000	1.0000	1.0000	1.0000	1.0000	1.0000	1.0000	1.0000	1.0000	1.0000	1.0000	1.0000	1.0000	1.0000	1.0000	1.0000	1.0000	1.0000	1.0000	1.0000	1.0000	1.0000	1.0000	1.0000	1.0000	1.0000	1.0000	1.0000	1.0000	1.0000	1.0000	1.0000	1.0000	1.0000	1.0000	1.0000	1.0000	1.0000	1.0000	1.0000	1.0000	1.0000	1.0000	1.0000	1.0000	1.0000	1.0000	1.0000	1.0000	1.0000	1.0000	1.0000	1.0000	1.0000	1.0000	1.0000	1.0000	1.0000	1.0000	1.0000	1.0000	1.0000	1.0000	1.0000	1.0000	0.0625	0.0625	0.0625	0.0625	0.0625	0.0625	0.0625	0.0625	0.0625	0.0625	0.0625	0.0625	0.0000	0.0000	0.0000	0.0000	0.0000	0.0000	0.0000	0.0000	0.0625	0.0625	0.0625	0.0625	0.0625	0.0625	0.0625	0.0625	0.0625	0.0625	0.0625	0.0625	0.0000	0.0000	0.0000	0.0000	0.0000	0.0000	0.0000	0.0000	0.0625	0.0625	0.0625	0.0625	0.0625	0.0625	0.0625	0.0625	0.0625	0.0625	0.0625	0.0625	0.0000	0.0000	0.0000	0.0000	0.0000	0.0000	0.0000	0.0000	0.0625	0.0625	0.0625	0.0625	0.0625	0.0625	0.0625	0.0625	0.0625	0.0625	0.0625	0.0625	0.0000	0.0000	0.0000	0.0000	0.0000	0.0000	0.0000	0.0000	0.0625	0.0625	0.0625	0.0625	0.0625	0.0625	0.0625	0.0625	0.0625	0.0625	0.0625	0.0625	0.0000	0.0000	0.0000	0.0000	0.0000	0.0000	0.0000	0.0000	0.0625	0.0625	0.0625	0.0625	0.0625	0.0625	0.0625	0.0625	0.0625	0.0625	0.0625	0.0625	0.0000	0.0000	0.0000	0.0000	0.0000	0.0000	0.0000	0.0000	0.0625	0.0625	0.0625	0.0625	0.0625	0.0625	0.0625	0.0625	0.0625	0.0625	0.0625	0.0625	0.0000	0.0000	0.0000	0.0000	0.0000	0.0000	0.0000	0.0000	0.0625	0.0625	0.0625	0.0625	0.0625	0.0625	0.0625	0.0625	0.0625	0.0625	0.0625	0.0625	0.0000	0.0000	0.0000	0.0000	0.0000	0.0000	0.0000	0.0000	0.0625	0.0625	0.0625	0.0625	0.0625	0.0625	0.0625	0.0625	0.0625	0.0625	0.0625	0.0625	0.0000	0.0000	0.0000	0.0000	0.0000	0.0000	0.0000	0.0000	0.0625	0.0625	0.0625	0.0625	0.0625	0.0625	0.0625	0.0625	0.0625	0.0625	0.0625	0.0625	0.0000	0.0000	0.0000	0.0000	0.0000	0.0000	0.0000	0.0000	0.0625	0.0625	0.0625	0.0625	0.0625	0.0625	0.0625	0.0625	0.0625	0.0625	0.0625	0.0625	0.0000	0.0000	0.0000	0.0000	0.0000	0.0000	0.0000	0.0000	0.0625	0.0625	0.0625	0.0625	0.0625	0.0625	0.0625	0.0625	0.0625	0.0625	0.0625	0.0625	0.0000	0.0000	0.0000	0.0000	0.0000	0.0000	0.0000	0.0000	0.0625	0.0625	0.0625	0.0625	0.0625	0.0625	0.0625	0.0625	0.0625	0.0625	0.0625	0.0625	0.0000	0.0000	0.0000	0.0000	0.0000	0.0000	0.0000	0.0000	0.0625	0.0625	0.0625	0.0625	0.0625	0.0625	0.0625	0.0625	0.0625	0.0625	0.0625	0.0625	0.0000	0.0000	0.0000	0.0000	0.0000	0.0000	0.0000	0.0000	0.0625	0.0625	0.0625	0.0625	0.0625	0.0625	0.0625	0.0625	0.0625	0.0625	0.0625	0.0625	0.0000	0.0000	0.0000	0.0000	0.0000	0.0000	0.0000	0.0000	0.0625	0.0625	0.0625	0.0625	0.0625	0.0625	0.0625	0.0625	0.0625	0.0625	0.0625	0.0625	0.0000	0.0000	0.0000	0.0000	0.0000	0.0000	0.0000	0.0000	0.0625	0.0625	0.0625	0.0625	0.0625	0.0625	0.0625	0.0625	0.0625	0.0625	0.0625	0.0625	0.0000	0.0000	0.0000	0.0000	0.0000	0.0000	0.0000	0.0000	0.0625	0.0625	0.0625	0.0625	0.0625	0.0625	0.0625	0.0625	0.0625	0.0625	0.0625	0.0625	0.0000	0.0000	0.0000	0.0000	0.0000	0.0000	0.0000	0.0000	0.0625	0.0625	0.0625	0.0625	0.0625	0.0625	0.0625	0.0625	0.0625	0.0625	0.0625	0.0625	0.0000	0.0000	0.0000	0.0000	0.0000	0.0000	0.0000	0.0000	0.0625	0.0625	0.0625	0.0625	0.0625	0.0625	0.0625	0.0625	0.0625	0.0625	0.0625	0.0625	0.0000	0.0000	0.0000	0.0000	0.0000	0.0000	0.0000	0.0000	0.0625	0.0625	0.0625	0.0625	0.0625	0.0625	0.0625	0.0625	0.0625	0.0625	0.0625	0.0625	0.0000	0.0000	0.0000	0.0000	0.0000	0.0000	0.0000	0.0000	0.0625	0.0625	0.0625	0.0625	0.0625	0.0625	0.0625	0.0625	0.0625	0.0625	0.0625	0.0625	0.0000	0.0000	0.0000	0.0000	0.0000	0.0000	0.0000	0.0000	0.0625	0.0625	0.0625	0.0625	0.0625	0.0625	0.0625	0.0625	0.0625	0.0625	0.0625	0.0625	0.0000	0.0000	0.0000	0.0000	0.0000	0.0000	0.0000	0.0000	0.0625	0.0625	0.0625	0.0625	0.0625	0.0625	0.0625	0.0625	0.0625	0.0625	0.0625	0.0625	0.0000	0.0000	0.0000	0.0000	0.0000	0.0000	0.0000	0.0000	0.0000	0.0000	0.0000	0.0000	0.0000	0.0000	0.0000	0.0000	0.0000	0.0000	0.0000	0.0000	0.0000	0.0000	0.0000	0.0000	0.0000	0.0000	0.0000	0.0000	0.0000	0.0000	0.0000	0.0000	0.0000	0.0000	0.0000	0.0000	0.0000	0.0000	0.0000	0.0000	0.0000	0.0000	0.0000	0.0000	0.0000	0.0000	0.0000	0.0000	0.0000	0.0000	0.0000	0.0000	0.0000	0.0000	0.0000	0.0000	0.0000	0.0000	0.0000	0.0000	0.0000	0.0000	0.0000	0.0000	0.0000	0.0000	0.0000	0.0000	0.0000	0.0000	0.0000	0.0000	0.0000	0.0000	0.0000	0.0000	0.0000	0.0000	0.0000	0.0000	0.0000	0.0000	0.0000	0.0000	0.0000	0.0000	0.0000	0.0000	0.0000	0.0000	0.0000	0.0000	0.0000	0.0000	0.0000	0.0000	0.0000	0.0000	0.0000	0.0000	0.0000	0.0000	0.0000	0.0000	0.0000	0.0000	0.0000	0.0000	0.0000	0.0000	0.0000	0.0000	0.0000	0.0000	0.0000	0.0000	0.0000	0.0000	0.0000	0.0000	0.0000	0.0000	0.0000	0.0000	0.0000	0.0000	0.0000	0.0000	0.0000	0.0000	0.0000	0.0000	0.0000	0.0000	0.0000	0.0000	0.0000	0.0000	0.0000	0.0000	0.0000	0.0000	0.0000	0.0000	0.0000	0.0000	0.0000	0.0000	0.0000	0.0000	0.0000	0.0000	0.0000	0.0000	0.0000	0.0000	0.0000	0.0000	0.0000	0.0000	0.0000	0.0000	0.0000	0.0000	0.0000	0.0000	0.0000	0.0000	0.0000	0.0000	0.0000	0.0000	0.0000	0.0000	0.0000	0.0000	0.0000	0.0000	0.0000	0.0000	0.0000	0.0000	0.0000	0.0000	0.0000	0.0000	0.0000	0.0000	0.0000	0.0000	0.0000	0.0000	0.0000	0.0000	0.0000	0.0000	0.0000	0.0000	0.0000	0.0000	0.0000	0.0000	0.0000	0.0000	0.0000	0.0000	0.0000	0.0000	0.0000	0.0000	0.0000	0.0000	0.0000	0.0000	0.0000	0.0000	0.0000	0.0000	0.0000	0.0000	0.0000	0.0000	0.0000	0.0000	0.0000	0.0000	0.0000	0.0000	0.0000	0.0000	0.0000	0.0000	0.0000	0.0000	0.0000	0.0000	0.0000	0.0000	0.0000	0.0000	0.0000	0.0000	0.0000	0.0000	0.0000	0.0000	0.0000	0.0000	0.0000	0.0000	0.0000	0.0000	0.0000	0.0000	0.0000	0.0000	0.0000	0.0000	0.0000	0.0000	0.0000	0.0000	0.0000	0.0000	0.0000	0.0000	0.0000	0.0000	0.0000	0.0000	0.0000	0.0000	0.0000	0.0000	0.0000	0.0000	0.0000	0.0000	0.0000	0.0000	0.0000	0.0000	0.0000	0.0000	0.0000	0.0000	0.0000	0.0000	0.0000	0.0000	0.0000	0.0000	0.0000	0.0000	0.0000	0.0000	0.0000	0.0000	0.0000	0.0000	0.0000	0.0000	0.0000	0.0000	0.0000	0.0000	0.0000	0.0000	0.0000	0.0000	0.0000	0.0000	0.0000	0.0000	0.0000	0.0000	0.0000	0.0000	0.0000	0.0000	0.0000	0.0000	0.0000	0.0000	0.0000	0.0000	0.0000	0.0000	0.0625	0.0625	0.0625	0.0625	0.0625	0.0625	0.0625	0.0625	0.0625	0.0625	0.0625	0.0625	0.0000	0.0000	0.0000	0.0000	0.0000	0.0000	0.0000	0.0000	0.0625	0.0625	0.0625	0.0625	0.0625	0.0625	0.0625	0.0625	0.0625	0.0625	0.0625	0.0625	0.0000	0.0000	0.0000	0.0000	0.0000	0.0000	0.0000	0.0000	0.0625	0.0625	0.0625	0.0625	0.0625	0.0625	0.0625	0.0625	0.0625	0.0625	0.0625	0.0625	0.0000	0.0000	0.0000	0.0000	0.0000	0.0000	0.0000	0.0000	0.0625	0.0625	0.0625	0.0625	0.0625	0.0625	0.0625	0.0625	0.0625	0.0625	0.0625	0.0625	0.0000	0.0000	0.0000	0.0000	0.0000	0.0000	0.0000	0.0000	0.0625	0.0625	0.0625	0.0625	0.0625	0.0625	0.0625	0.0625	0.0625	0.0625	0.0625	0.0625	0.0000	0.0000	0.0000	0.0000	0.0000	0.0000	0.0000	0.0000	0.0625	0.0625	0.0625	0.0625	0.0625	0.0625	0.0625	0.0625	0.0625	0.0625	0.0625	0.0625	0.0000	0.0000	0.0000	0.0000	0.0000	0.0000	0.0000	0.0000	0.0625	0.0625	0.0625	0.0625	0.0625	0.0625	0.0625	0.0625	0.0625	0.0625	0.0625	0.0625	0.0000	0.0000	0.0000	0.0000	0.0000	0.0000	0.0000	0.0000	0.0625	0.0625	0.0625	0.0625	0.0625	0.0625	0.0625	0.0625	0.0625	0.0625	0.0625	0.0625	0.0000	0.0000	0.0000	0.0000	0.0000	0.0000	0.0000	0.0000	0.0625	0.0625	0.0625	0.0625	0.0625	0.0625	0.0625	0.0625	0.0625	0.0625	0.0625	0.0625	0.0000	0.0000	0.0000	0.0000	0.0000	0.0000	0.0000	0.0000	0.0625	0.0625	0.0625	0.0625	0.0625	0.0625	0.0625	0.0625	0.0625	0.0625	0.0625	0.0625	0.0000	0.0000	0.0000	0.0000	0.0000	0.0000	0.0000	0.0000	0.0625	0.0625	0.0625	0.0625	0.0625	0.0625	0.0625	0.0625	0.0625	0.0625	0.0625	0.0625	0.0000	0.0000	0.0000	0.0000	0.0000	0.0000	0.0000	0.0000	0.0625	0.0625	0.0625	0.0625	0.0625	0.0625	0.0625	0.0625	0.0625	0.0625	0.0625	0.0625	0.0000	0.0000	0.0000	0.0000	0.0000	0.0000	0.0000	0.0000	0.0625	0.0625	0.0625	0.0625	0.0625	0.0625	0.0625	0.0625	0.0625	0.0625	0.0625	0.0625	0.0000	0.0000	0.0000	0.0000	0.0000	0.0000	0.0000	0.0000	0.0625	0.0625	0.0625	0.0625	0.0625	0.0625	0.0625	0.0625	0.0625	0.0625	0.0625	0.0625	0.0000	0.0000	0.0000	0.0000	0.0000	0.0000	0.0000	0.0000	0.0625	0.0625	0.0625	0.0625	0.0625	0.0625	0.0625	0.0625	0.0625	0.0625	0.0625	0.0625	0.0000	0.0000	0.0000	0.0000	0.0000	0.0000	0.0000	0.0000	0.0625	0.0625	0.0625	0.0625	0.0625	0.0625	0.0625	0.0625	0.0625	0.0625	0.0625	0.0625	0.0000	0.0000	0.0000	0.0000	0.0000	0.0000	0.0000	0.0000	0.0625	0.0625	0.0625	0.0625	0.0625	0.0625	0.0625	0.0625	0.0625	0.0625	0.0625	0.0625	0.0000	0.0000	0.0000	0.0000	0.0000	0.0000	0.0000	0.0000	0.0625	0.0625	0.0625	0.0625	0.0625	0.0625	0.0625	0.0625	0.0625	0.0625	0.0625	0.0625	0.0000	0.0000	0.0000	0.0000	0.0000	0.0000	0.0000	0.0000	0.0625	0.0625	0.0625	0.0625	0.0625	0.0625	0.0625	0.0625	0.0625	0.0625	0.0625	0.0625	0.0000	0.0000	0.0000	0.0000	0.0000	0.0000	0.0000	0.0000	0.0625	0.0625	0.0625	0.0625	0.0625	0.0625	0.0625	0.0625	0.0625	0.0625	0.0625	0.0625	0.0000	0.0000	0.0000	0.0000	0.0000	0.0000	0.0000	0.0000	0.0625	0.0625	0.0625	0.0625	0.0625	0.0625	0.0625	0.0625	0.0625	0.0625	0.0625	0.0625	0.0000	0.0000	0.0000	0.0000	0.0000	0.0000	0.0000	0.0000	0.0625	0.0625	0.0625	0.0625	0.0625	0.0625	0.0625	0.0625	0.0625	0.0625	0.0625	0.0625	0.0000	0.0000	0.0000	0.0000	0.0000	0.0000	0.0000	0.0000	0.0625	0.0625	0.0625	0.0625	0.0625	0.0625	0.0625	0.0625	0.0625	0.0625	0.0625	0.0625	0.0000	0.0000	0.0000	0.0000	0.0000	0.0000	0.0000	0.0000	0.0625	0.0625	0.0625	0.0625	0.0625	0.0625	0.0625	0.0625	0.0625	0.0625	0.0625	0.0625	0.0000	0.0000	0.0000	0.0000	0.0000	0.0000	0.0000	0.0000	0.0000	0.0000	0.0000	0.0000	0.0000	0.0000	0.0000	0.0000	0.0000	0.0000	0.0000	0.0000	0.0000	0.0000	0.0000	0.0000	0.0000	0.0000	0.0000	0.0000	0.0000	0.0000	0.0000	0.0000	0.0000	0.0000	0.0000	0.0000	0.0000	0.0000	0.0000	0.0000	0.0000	0.0000	0.0000	0.0000	0.0000	0.0000	0.0000	0.0000	0.0000	0.0000	0.0000	0.0000	0.0000	0.0000	0.0000	0.0000	0.0000	0.0000	0.0000	0.0000	0.0000	0.0000	0.0000	0.0000	0.0000	0.0000	0.0000	0.0000	0.0000	0.0000	0.0000	0.0000	0.0000	0.0000	0.0000	0.0000	0.0000	0.0000	0.0000	0.0000	0.0000	0.0000	0.0000	0.0000	0.0000	0.0000	0.0000	0.0000	0.0000	0.0000	0.0000	0.0000	0.0000	0.0000	0.0000	0.0000	0.0000	0.0000	0.0000	0.0000	0.0000	0.0000	0.0000	0.0000	0.0000	0.0000	0.0000	0.0000	0.0000	0.0000	0.0000	0.0000	0.0000	0.0000	0.0000	0.0000	0.0000	0.0000	0.0000	0.0000	0.0000	0.0000	0.0000	0.0000	0.0000	0.0000	0.0000	0.0000	0.0000	0.0000	0.0000	0.0000	0.0000	0.0000	0.0000	0.0000	0.0000	0.0000	0.0000	0.0000	0.0000	0.0000	0.0000	0.0000	0.0000	0.0000	0.0000	0.0000	0.0000	0.0000	0.0000	0.0000	0.0000	0.0000	0.0000	0.0000	0.0000	0.0000	0.0000	0.0000	0.0000	0.0000	0.0000	0.0000	0.0000	0.0000	0.0000	0.0000	0.0000	0.0000	0.0000	0.0000	0.0000	0.0000	0.0000	0.0000	0.0000	0.0000	0.0000	0.0000	0.0000	0.0000	0.0000	0.0000	0.0000	0.0000	0.0000	0.0000	0.0000	0.0000	0.0000	0.0000	0.0000	0.0000	0.0000	0.0000	0.0000	0.0000	0.0000	0.0000	0.0000	0.0000	0.0000	0.0000	0.0000	0.0000	0.0000	0.0000	0.0000	0.0000	0.0000	0.0000	0.0000	0.0000	0.0000	0.0000	0.0000	0.0000	0.0000	0.0000	0.0000	0.0000	0.0000	0.0000	0.0000	0.0000	0.0000	0.0000	0.0000	0.0000	0.0000	0.0000	0.0000	0.0000	0.0000	0.0000	0.0000	0.0000	0.0000	0.0000	0.0000	0.0000	0.0000	0.0000	0.0000	0.0000	0.0000	0.0000	0.0000	0.0000	0.0000	0.0000	0.0000	0.0000	0.0000	0.0000	0.0000	0.0000	0.0000	0.0000	0.0000	0.0000	0.0000	0.0000	0.0000	0.0000	0.0000	0.0000	0.0000	0.0000	0.0000	0.0000	0.0000	0.0000	0.0000	0.0000	0.0000	0.0000	0.0000	0.0000	0.0000	0.0000	0.0000	0.0000	0.0000	0.0000	0.0000	0.0000	0.0000	0.0000	0.0000	0.0000	0.0000	0.0000	0.0000	0.0000	0.0000	0.0000	0.0000	0.0000	0.0000	0.0000	0.0000	0.0000	0.0000	0.0000	0.0000	0.0000	0.0000	0.0000	0.0000	0.0000	0.0000	0.0000	0.0000	0.0000	0.0000	0.0000	0.0000	0.0000	0.0000	0.0000	0.0000	0.0000	0.0000	0.0000	0.0000	0.0000	